~o
<STREAMINFO> 1 16
<VECSIZE> 16<NULLD><FBANK><DIAGC>
~h "ctyri"
<BEGINHMM>
<NUMSTATES> 10
<STATE> 2
<MEAN> 16
 5.342490e+000 6.526161e+000 7.028475e+000 7.264538e+000 7.432984e+000 7.645197e+000 7.943296e+000 8.248009e+000 8.541070e+000 8.850504e+000 9.219359e+000 9.438874e+000 9.654895e+000 9.798766e+000 9.997505e+000 1.021097e+001
<VARIANCE> 16
 6.207786e-001 6.659172e-001 6.982858e-001 6.309540e-001 4.618121e-001 5.067945e-001 5.831892e-001 5.854239e-001 5.469958e-001 5.624982e-001 6.052446e-001 6.002516e-001 5.585012e-001 4.870048e-001 4.593861e-001 5.712380e-001
<GCONST> 2.034510e+001
<STATE> 3
<MEAN> 16
 4.255022e+000 4.884797e+000 5.468810e+000 5.821740e+000 6.104740e+000 6.280529e+000 6.590446e+000 7.127504e+000 7.857884e+000 8.849014e+000 9.716632e+000 1.011428e+001 1.030357e+001 1.036614e+001 1.043237e+001 1.021869e+001
<VARIANCE> 16
 1.651561e+000 1.927648e+000 2.325846e+000 2.157015e+000 1.866564e+000 1.815681e+000 1.975471e+000 2.304660e+000 2.537009e+000 2.914738e+000 3.170979e+000 3.222324e+000 3.040493e+000 2.971309e+000 2.282553e+000 1.661107e+000
<GCONST> 4.277187e+001
<STATE> 4
<MEAN> 16
 5.581757e+000 6.421353e+000 7.041340e+000 7.304379e+000 7.418819e+000 7.559709e+000 7.853106e+000 8.363738e+000 9.122610e+000 9.652411e+000 1.048924e+001 1.099881e+001 1.154166e+001 1.151199e+001 1.150584e+001 1.155510e+001
<VARIANCE> 16
 2.351813e+000 2.224044e+000 2.499352e+000 2.389307e+000 2.252221e+000 2.338116e+000 2.380273e+000 2.553467e+000 3.676727e+000 4.213215e+000 4.851322e+000 4.965338e+000 5.308143e+000 5.314260e+000 5.212672e+000 5.046994e+000
<GCONST> 4.884501e+001
<STATE> 5
<MEAN> 16
 5.435101e+000 6.104758e+000 6.800120e+000 7.206644e+000 7.466996e+000 7.736890e+000 8.100574e+000 8.712868e+000 9.696254e+000 1.054506e+001 1.110993e+001 1.110154e+001 1.121472e+001 1.116700e+001 1.089917e+001 1.037908e+001
<VARIANCE> 16
 1.526582e+000 1.465799e+000 1.696060e+000 1.598835e+000 1.396425e+000 1.638679e+000 1.963272e+000 2.181445e+000 2.998550e+000 4.131993e+000 4.029046e+000 3.503764e+000 3.274668e+000 3.421242e+000 3.001216e+000 2.522435e+000
<GCONST> 4.309617e+001
<STATE> 6
<MEAN> 16
 5.752109e+000 6.757858e+000 7.380458e+000 7.637417e+000 7.739813e+000 7.925625e+000 8.202038e+000 8.728769e+000 9.356918e+000 9.918894e+000 1.029535e+001 1.064551e+001 1.091199e+001 1.099476e+001 1.104647e+001 1.110218e+001
<VARIANCE> 16
 7.941126e-001 5.860903e-001 8.429258e-001 7.701224e-001 6.024589e-001 6.677793e-001 8.081860e-001 1.085115e+000 1.731871e+000 2.371218e+000 2.516739e+000 2.810953e+000 2.811208e+000 2.795523e+000 2.701739e+000 2.611617e+000
<GCONST> 3.455192e+001
<STATE> 7
<MEAN> 16
 6.278235e+000 7.269387e+000 7.858777e+000 8.120317e+000 8.264591e+000 8.488935e+000 8.864475e+000 9.456533e+000 1.003311e+001 1.072919e+001 1.121985e+001 1.154447e+001 1.181977e+001 1.186707e+001 1.188789e+001 1.194219e+001
<VARIANCE> 16
 7.152785e-001 7.492439e-001 9.348640e-001 8.048438e-001 6.807417e-001 7.235035e-001 8.802065e-001 1.122070e+000 1.476189e+000 2.105871e+000 2.460392e+000 2.538401e+000 2.451185e+000 2.530036e+000 2.456431e+000 2.686669e+000
<GCONST> 3.445501e+001
<STATE> 8
<MEAN> 16
 9.047401e+000 1.052145e+001 1.110660e+001 1.102153e+001 1.021369e+001 9.860438e+000 1.003466e+001 1.096460e+001 1.169073e+001 1.206265e+001 1.217590e+001 1.218140e+001 1.224394e+001 1.198639e+001 1.156366e+001 1.126677e+001
<VARIANCE> 16
 1.537872e+000 1.167341e+000 1.530702e+000 1.361184e+000 9.095318e-001 8.377646e-001 1.005684e+000 1.186091e+000 1.133360e+000 1.188169e+000 1.108999e+000 1.034597e+000 1.207014e+000 2.093837e+000 2.266920e+000 2.634521e+000
<GCONST> 3.377907e+001
<STATE> 9
<MEAN> 16
 6.832201e+000 7.904850e+000 8.145312e+000 8.066097e+000 7.768681e+000 7.639565e+000 7.625719e+000 8.064132e+000 8.691575e+000 8.994905e+000 9.029159e+000 8.867732e+000 9.033133e+000 9.115310e+000 9.107036e+000 9.230280e+000
<VARIANCE> 16
 1.852399e+000 1.392337e+000 1.197414e+000 1.135289e+000 7.388974e-001 6.454222e-001 7.424508e-001 8.920928e-001 6.753435e-001 7.480846e-001 6.638865e-001 8.073812e-001 9.013480e-001 9.525825e-001 9.631591e-001 9.188841e-001
<GCONST> 2.792717e+001
<TRANSP> 10
 0.000000e+000 1.000000e+000 0.000000e+000 0.000000e+000 0.000000e+000 0.000000e+000 0.000000e+000 0.000000e+000 0.000000e+000 0.000000e+000
 0.000000e+000 7.207431e-001 2.792569e-001 0.000000e+000 0.000000e+000 0.000000e+000 0.000000e+000 0.000000e+000 0.000000e+000 0.000000e+000
 0.000000e+000 0.000000e+000 7.388173e-001 2.611827e-001 0.000000e+000 0.000000e+000 0.000000e+000 0.000000e+000 0.000000e+000 0.000000e+000
 0.000000e+000 0.000000e+000 0.000000e+000 6.108504e-001 3.891497e-001 0.000000e+000 0.000000e+000 0.000000e+000 0.000000e+000 0.000000e+000
 0.000000e+000 0.000000e+000 0.000000e+000 0.000000e+000 6.851884e-001 3.148116e-001 0.000000e+000 0.000000e+000 0.000000e+000 0.000000e+000
 0.000000e+000 0.000000e+000 0.000000e+000 0.000000e+000 0.000000e+000 7.301005e-001 2.698995e-001 0.000000e+000 0.000000e+000 0.000000e+000
 0.000000e+000 0.000000e+000 0.000000e+000 0.000000e+000 0.000000e+000 0.000000e+000 8.170620e-001 1.829379e-001 0.000000e+000 0.000000e+000
 0.000000e+000 0.000000e+000 0.000000e+000 0.000000e+000 0.000000e+000 0.000000e+000 0.000000e+000 9.722186e-001 2.778134e-002 0.000000e+000
 0.000000e+000 0.000000e+000 0.000000e+000 0.000000e+000 0.000000e+000 0.000000e+000 0.000000e+000 0.000000e+000 9.455526e-001 5.444739e-002
 0.000000e+000 0.000000e+000 0.000000e+000 0.000000e+000 0.000000e+000 0.000000e+000 0.000000e+000 0.000000e+000 0.000000e+000 0.000000e+000
<ENDHMM>
~h "sedm"
<BEGINHMM>
<NUMSTATES> 10
<STATE> 2
<MEAN> 16
 5.638138e+000 6.403530e+000 6.910144e+000 7.286640e+000 7.532980e+000 7.782888e+000 8.051527e+000 8.319284e+000 8.413333e+000 8.538198e+000 8.714975e+000 8.885375e+000 9.075283e+000 9.255991e+000 9.452974e+000 9.580908e+000
<VARIANCE> 16
 4.440443e-001 3.709574e-001 2.606854e-001 2.281530e-001 1.950332e-001 1.901216e-001 2.045836e-001 1.739766e-001 1.229559e-001 1.047305e-001 8.044034e-002 9.410696e-002 1.089287e-001 1.610276e-001 1.727924e-001 2.031426e-001
<GCONST> 1.521454e+000
<STATE> 3
<MEAN> 16
 4.148127e+000 4.884867e+000 5.671299e+000 6.210160e+000 6.513836e+000 6.716567e+000 6.881750e+000 7.316249e+000 7.743878e+000 8.058928e+000 8.441293e+000 8.898808e+000 9.653231e+000 1.033974e+001 1.081018e+001 1.093593e+001
<VARIANCE> 16
 1.141496e+000 1.351738e+000 1.197964e+000 1.163050e+000 8.966388e-001 7.884702e-001 8.166565e-001 8.832438e-001 1.023927e+000 1.039280e+000 7.713340e-001 8.912749e-001 1.424665e+000 1.805962e+000 1.656864e+000 1.560931e+000
<GCONST> 3.108065e+001
<STATE> 4
<MEAN> 16
 5.327878e+000 6.210835e+000 6.793669e+000 7.137331e+000 7.348908e+000 7.586700e+000 7.896922e+000 8.344011e+000 8.600522e+000 8.749043e+000 9.071820e+000 9.482820e+000 1.017182e+001 1.089205e+001 1.126579e+001 1.138475e+001
<VARIANCE> 16
 1.124167e+000 1.801907e+000 1.538232e+000 1.272963e+000 8.888159e-001 5.688522e-001 6.649987e-001 6.696582e-001 8.298107e-001 1.030187e+000 8.433835e-001 9.703417e-001 1.458495e+000 1.859081e+000 1.926370e+000 2.319868e+000
<GCONST> 3.143032e+001
<STATE> 5
<MEAN> 16
 5.331298e+000 6.095747e+000 6.844540e+000 7.400267e+000 7.689827e+000 7.989471e+000 8.395920e+000 9.006433e+000 9.396801e+000 9.584881e+000 9.860517e+000 1.019262e+001 1.088801e+001 1.153777e+001 1.181927e+001 1.166184e+001
<VARIANCE> 16
 1.050780e+000 1.410432e+000 1.063484e+000 8.008921e-001 4.871038e-001 3.742734e-001 3.514151e-001 4.252381e-001 7.830129e-001 1.076640e+000 8.321549e-001 8.621045e-001 1.280800e+000 1.730460e+000 1.776465e+000 2.068200e+000
<GCONST> 2.763034e+001
<STATE> 6
<MEAN> 16
 6.184703e+000 6.930173e+000 7.675498e+000 8.125872e+000 8.375959e+000 8.678481e+000 9.146496e+000 9.732882e+000 9.986187e+000 1.029377e+001 1.065500e+001 1.127419e+001 1.205962e+001 1.278356e+001 1.316097e+001 1.313381e+001
<VARIANCE> 16
 4.768751e-001 4.013847e-001 3.898320e-001 3.691036e-001 2.590859e-001 2.394734e-001 2.705334e-001 2.873856e-001 4.378737e-001 5.998291e-001 5.419340e-001 7.229852e-001 9.871752e-001 1.276764e+000 1.412282e+000 1.885136e+000
<GCONST> 1.941650e+001
<STATE> 7
<MEAN> 16
 6.975412e+000 7.812379e+000 8.620457e+000 9.115300e+000 9.261388e+000 9.511778e+000 9.939154e+000 1.057040e+001 1.078960e+001 1.100874e+001 1.125697e+001 1.171592e+001 1.242730e+001 1.302821e+001 1.341703e+001 1.339551e+001
<VARIANCE> 16
 8.557057e-001 8.893496e-001 7.508812e-001 6.062243e-001 3.841341e-001 2.918583e-001 3.345984e-001 2.998915e-001 5.409705e-001 7.287936e-001 6.952037e-001 1.005324e+000 1.449934e+000 1.948408e+000 2.687782e+000 3.610076e+000
<GCONST> 2.588050e+001
<STATE> 8
<MEAN> 16
 9.322624e+000 1.075996e+001 1.122521e+001 1.113158e+001 1.060923e+001 1.049215e+001 1.060125e+001 1.080514e+001 1.079746e+001 1.099955e+001 1.112340e+001 1.102937e+001 1.074055e+001 1.046872e+001 1.022059e+001 1.033038e+001
<VARIANCE> 16
 1.059900e+000 6.142687e-001 1.061683e+000 1.524832e+000 1.386845e+000 1.242838e+000 1.235858e+000 1.697971e+000 1.774738e+000 1.672798e+000 1.721373e+000 1.543492e+000 1.666409e+000 2.126326e+000 1.811254e+000 1.867389e+000
<GCONST> 3.529320e+001
<STATE> 9
<MEAN> 16
 7.629075e+000 8.697535e+000 8.515483e+000 8.175312e+000 8.113535e+000 8.131221e+000 8.107252e+000 8.067904e+000 8.137726e+000 8.361820e+000 8.382219e+000 8.344385e+000 8.465498e+000 8.640707e+000 8.853790e+000 9.088939e+000
<VARIANCE> 16
 2.241863e+000 1.972179e+000 1.819060e+000 1.787875e+000 1.724094e+000 1.294970e+000 9.813069e-001 1.020497e+000 9.572830e-001 1.131011e+000 8.833152e-001 8.544173e-001 1.030128e+000 1.088336e+000 9.691668e-001 8.893327e-001
<GCONST> 3.264021e+001
<TRANSP> 10
 0.000000e+000 1.000000e+000 0.000000e+000 0.000000e+000 0.000000e+000 0.000000e+000 0.000000e+000 0.000000e+000 0.000000e+000 0.000000e+000
 0.000000e+000 9.327133e-001 6.728672e-002 0.000000e+000 0.000000e+000 0.000000e+000 0.000000e+000 0.000000e+000 0.000000e+000 0.000000e+000
 0.000000e+000 0.000000e+000 7.246972e-001 2.753028e-001 0.000000e+000 0.000000e+000 0.000000e+000 0.000000e+000 0.000000e+000 0.000000e+000
 0.000000e+000 0.000000e+000 0.000000e+000 5.039148e-001 4.960851e-001 0.000000e+000 0.000000e+000 0.000000e+000 0.000000e+000 0.000000e+000
 0.000000e+000 0.000000e+000 0.000000e+000 0.000000e+000 5.882076e-001 4.117924e-001 0.000000e+000 0.000000e+000 0.000000e+000 0.000000e+000
 0.000000e+000 0.000000e+000 0.000000e+000 0.000000e+000 0.000000e+000 8.033105e-001 1.966895e-001 0.000000e+000 0.000000e+000 0.000000e+000
 0.000000e+000 0.000000e+000 0.000000e+000 0.000000e+000 0.000000e+000 0.000000e+000 7.410965e-001 2.589035e-001 0.000000e+000 0.000000e+000
 0.000000e+000 0.000000e+000 0.000000e+000 0.000000e+000 0.000000e+000 0.000000e+000 0.000000e+000 9.707162e-001 2.928378e-002 0.000000e+000
 0.000000e+000 0.000000e+000 0.000000e+000 0.000000e+000 0.000000e+000 0.000000e+000 0.000000e+000 0.000000e+000 9.505476e-001 4.945244e-002
 0.000000e+000 0.000000e+000 0.000000e+000 0.000000e+000 0.000000e+000 0.000000e+000 0.000000e+000 0.000000e+000 0.000000e+000 0.000000e+000
<ENDHMM>
~h "sest"
<BEGINHMM>
<NUMSTATES> 10
<STATE> 2
<MEAN> 16
 3.910164e+000 4.507484e+000 5.062802e+000 5.517660e+000 5.715319e+000 5.939941e+000 6.175368e+000 7.036218e+000 8.316751e+000 9.175917e+000 9.593792e+000 9.654820e+000 9.744575e+000 9.812028e+000 9.948050e+000 9.873572e+000
<VARIANCE> 16
 7.955746e-001 1.086556e+000 1.152131e+000 1.041130e+000 8.476633e-001 7.416530e-001 8.998001e-001 1.145146e+000 8.064843e-001 9.001381e-001 6.099411e-001 6.682371e-001 7.565404e-001 7.793050e-001 7.051363e-001 6.354014e-001
<GCONST> 2.645908e+001
<STATE> 3
<MEAN> 16
 5.659744e+000 6.697532e+000 7.280108e+000 7.622183e+000 7.670070e+000 7.694348e+000 7.936432e+000 8.696631e+000 9.360826e+000 9.637312e+000 9.830758e+000 9.835892e+000 9.956129e+000 9.924434e+000 9.909690e+000 9.876431e+000
<VARIANCE> 16
 6.225672e-001 1.214201e+000 1.070710e+000 1.110678e+000 7.685627e-001 4.940611e-001 6.945515e-001 8.781399e-001 7.950132e-001 1.059664e+000 1.215824e+000 1.185528e+000 1.138745e+000 1.183934e+000 1.063960e+000 1.052825e+000
<GCONST> 2.844315e+001
<STATE> 4
<MEAN> 16
 5.560184e+000 6.405974e+000 7.108346e+000 7.470194e+000 7.506548e+000 7.617665e+000 8.110445e+000 9.308107e+000 1.027457e+001 1.080667e+001 1.113255e+001 1.113428e+001 1.107199e+001 1.099456e+001 1.084740e+001 1.057764e+001
<VARIANCE> 16
 8.303006e-001 1.360037e+000 1.677757e+000 1.909600e+000 1.507760e+000 9.324818e-001 7.654005e-001 6.128725e-001 5.275477e-001 9.284186e-001 1.144977e+000 1.429326e+000 1.324357e+000 1.425595e+000 1.667261e+000 1.667373e+000
<GCONST> 3.171244e+001
<STATE> 5
<MEAN> 16
 5.745263e+000 6.549263e+000 7.348613e+000 7.771452e+000 7.839531e+000 7.894555e+000 8.395986e+000 9.689688e+000 1.062200e+001 1.115940e+001 1.151726e+001 1.155523e+001 1.154399e+001 1.145140e+001 1.128359e+001 1.093744e+001
<VARIANCE> 16
 8.710566e-001 1.336965e+000 1.637247e+000 1.896917e+000 1.493611e+000 9.058495e-001 6.682996e-001 4.632106e-001 5.232790e-001 9.715595e-001 1.085214e+000 1.573843e+000 1.531831e+000 1.574137e+000 1.958932e+000 2.176228e+000
<GCONST> 3.201032e+001
<STATE> 6
<MEAN> 16
 5.942975e+000 6.475451e+000 7.174977e+000 7.598832e+000 7.791525e+000 8.014076e+000 8.642220e+000 9.892638e+000 1.100709e+001 1.182276e+001 1.235216e+001 1.240052e+001 1.252137e+001 1.254388e+001 1.233456e+001 1.184686e+001
<VARIANCE> 16
 4.787272e-001 5.771582e-001 7.257072e-001 8.211037e-001 7.538973e-001 4.805104e-001 4.226151e-001 4.384150e-001 5.337702e-001 7.434301e-001 8.143819e-001 9.403017e-001 1.033756e+000 1.259867e+000 1.524129e+000 2.429215e+000
<GCONST> 2.528281e+001
<STATE> 7
<MEAN> 16
 6.884380e+000 7.585495e+000 8.360596e+000 8.782550e+000 8.931586e+000 9.212729e+000 9.785025e+000 1.071448e+001 1.178194e+001 1.277357e+001 1.323644e+001 1.337024e+001 1.339257e+001 1.338218e+001 1.333362e+001 1.307880e+001
<VARIANCE> 16
 5.413991e-001 3.742658e-001 4.207909e-001 3.405842e-001 2.812940e-001 3.431750e-001 4.687222e-001 4.881628e-001 5.659175e-001 9.020352e-001 1.092840e+000 1.178233e+000 1.161538e+000 1.171170e+000 1.510045e+000 2.376826e+000
<GCONST> 2.322025e+001
<STATE> 8
<MEAN> 16
 8.715765e+000 9.896317e+000 1.062089e+001 1.125882e+001 1.110837e+001 1.068998e+001 1.096928e+001 1.173880e+001 1.191795e+001 1.206170e+001 1.210908e+001 1.203629e+001 1.202029e+001 1.192186e+001 1.174514e+001 1.156466e+001
<VARIANCE> 16
 1.836961e+000 1.793422e+000 2.004147e+000 2.305094e+000 2.191882e+000 1.385637e+000 1.253206e+000 1.466434e+000 1.516777e+000 1.442708e+000 1.391072e+000 1.180937e+000 1.189119e+000 1.869619e+000 2.568152e+000 3.336888e+000
<GCONST> 3.807474e+001
<STATE> 9
<MEAN> 16
 5.660301e+000 6.611083e+000 7.192231e+000 7.662903e+000 7.814767e+000 7.899441e+000 8.106676e+000 8.528274e+000 8.740973e+000 8.908226e+000 9.222455e+000 9.402125e+000 9.878102e+000 1.031875e+001 1.062290e+001 1.070367e+001
<VARIANCE> 16
 1.278839e+000 1.164870e+000 1.067480e+000 1.190489e+000 1.215018e+000 1.008439e+000 1.051870e+000 1.155091e+000 1.162493e+000 1.184980e+000 1.171737e+000 1.555809e+000 2.010919e+000 2.524577e+000 2.870310e+000 2.788208e+000
<GCONST> 3.506743e+001
<TRANSP> 10
 0.000000e+000 1.000000e+000 0.000000e+000 0.000000e+000 0.000000e+000 0.000000e+000 0.000000e+000 0.000000e+000 0.000000e+000 0.000000e+000
 0.000000e+000 6.699713e-001 3.300286e-001 0.000000e+000 0.000000e+000 0.000000e+000 0.000000e+000 0.000000e+000 0.000000e+000 0.000000e+000
 0.000000e+000 0.000000e+000 4.219319e-001 5.780682e-001 0.000000e+000 0.000000e+000 0.000000e+000 0.000000e+000 0.000000e+000 0.000000e+000
 0.000000e+000 0.000000e+000 0.000000e+000 2.074645e-001 7.925355e-001 0.000000e+000 0.000000e+000 0.000000e+000 0.000000e+000 0.000000e+000
 0.000000e+000 0.000000e+000 0.000000e+000 0.000000e+000 1.323311e-001 8.676689e-001 0.000000e+000 0.000000e+000 0.000000e+000 0.000000e+000
 0.000000e+000 0.000000e+000 0.000000e+000 0.000000e+000 0.000000e+000 7.174651e-001 2.825349e-001 0.000000e+000 0.000000e+000 0.000000e+000
 0.000000e+000 0.000000e+000 0.000000e+000 0.000000e+000 0.000000e+000 0.000000e+000 8.825099e-001 1.174901e-001 0.000000e+000 0.000000e+000
 0.000000e+000 0.000000e+000 0.000000e+000 0.000000e+000 0.000000e+000 0.000000e+000 0.000000e+000 9.573966e-001 4.260340e-002 0.000000e+000
 0.000000e+000 0.000000e+000 0.000000e+000 0.000000e+000 0.000000e+000 0.000000e+000 0.000000e+000 0.000000e+000 9.639930e-001 3.600702e-002
 0.000000e+000 0.000000e+000 0.000000e+000 0.000000e+000 0.000000e+000 0.000000e+000 0.000000e+000 0.000000e+000 0.000000e+000 0.000000e+000
<ENDHMM>
~h "dva"
<BEGINHMM>
<NUMSTATES> 10
<STATE> 2
<MEAN> 16
 5.975712e+000 6.580458e+000 7.061012e+000 7.398346e+000 7.627799e+000 7.870568e+000 8.104847e+000 8.352024e+000 8.428185e+000 8.540623e+000 8.694890e+000 8.830568e+000 8.979610e+000 9.120688e+000 9.290871e+000 9.400314e+000
<VARIANCE> 16
 2.736540e-001 2.919815e-001 2.108286e-001 1.718107e-001 1.226360e-001 1.253337e-001 1.366014e-001 1.474105e-001 1.138044e-001 1.014129e-001 1.068096e-001 1.336526e-001 1.477051e-001 1.648946e-001 1.339943e-001 1.117007e-001
<GCONST> -1.147450e+000
<STATE> 3
<MEAN> 16
 7.206803e+000 8.310820e+000 8.271745e+000 8.068789e+000 7.876569e+000 7.748849e+000 7.842702e+000 8.107276e+000 8.314655e+000 8.440907e+000 8.656210e+000 8.712338e+000 8.806621e+000 8.859514e+000 9.052872e+000 9.234789e+000
<VARIANCE> 16
 1.538656e+000 2.103745e+000 2.205424e+000 1.867730e+000 1.495932e+000 1.468903e+000 1.540969e+000 1.509038e+000 1.592947e+000 1.602663e+000 1.795854e+000 2.063087e+000 1.901937e+000 1.445108e+000 1.086164e+000 9.328058e-001
<GCONST> 3.689854e+001
<STATE> 4
<MEAN> 16
 7.645375e+000 8.393771e+000 8.104071e+000 7.723749e+000 7.242700e+000 7.030473e+000 7.161417e+000 7.218287e+000 7.259280e+000 7.451636e+000 7.569250e+000 7.673150e+000 7.729745e+000 7.966588e+000 8.378976e+000 8.763594e+000
<VARIANCE> 16
 1.906004e+000 2.039937e+000 2.349631e+000 2.198594e+000 1.800560e+000 1.596859e+000 1.540665e+000 1.535303e+000 1.722732e+000 1.602225e+000 1.668600e+000 1.739620e+000 1.565210e+000 1.231726e+000 9.416311e-001 8.509054e-001
<GCONST> 3.683891e+001
<STATE> 5
<MEAN> 16
 8.248524e+000 9.355910e+000 9.350479e+000 9.018643e+000 8.527520e+000 8.519252e+000 8.722891e+000 8.720774e+000 8.673114e+000 8.888883e+000 9.016749e+000 9.053839e+000 9.111052e+000 9.283885e+000 9.410691e+000 9.481066e+000
<VARIANCE> 16
 1.873046e+000 1.865948e+000 1.879926e+000 1.471656e+000 1.062608e+000 8.926147e-001 8.804302e-001 1.041554e+000 1.335668e+000 1.308985e+000 1.400595e+000 1.334631e+000 1.280987e+000 1.266170e+000 9.540249e-001 1.061547e+000
<GCONST> 3.321601e+001
<STATE> 6
<MEAN> 16
 7.695842e+000 8.891110e+000 9.144315e+000 9.691520e+000 1.007617e+001 1.003462e+001 9.889372e+000 9.361005e+000 8.770895e+000 8.740324e+000 8.751495e+000 8.421172e+000 8.535779e+000 8.464004e+000 8.564144e+000 8.709664e+000
<VARIANCE> 16
 1.141752e+000 1.423500e+000 1.101496e+000 9.401143e-001 8.008105e-001 7.072753e-001 5.471977e-001 5.056275e-001 6.755208e-001 7.477111e-001 9.105784e-001 1.369149e+000 1.234465e+000 1.342993e+000 7.563142e-001 5.822745e-001
<GCONST> 2.729620e+001
<STATE> 7
<MEAN> 16
 8.777012e+000 1.013957e+001 1.025819e+001 1.008184e+001 9.687547e+000 9.797271e+000 1.020905e+001 1.031788e+001 1.031242e+001 1.053981e+001 1.057391e+001 1.049591e+001 1.048138e+001 1.036394e+001 1.021379e+001 1.036020e+001
<VARIANCE> 16
 8.118776e-001 9.057769e-001 1.062911e+000 1.270759e+000 1.007150e+000 7.753975e-001 8.366186e-001 7.393058e-001 1.046442e+000 1.072710e+000 1.368546e+000 1.424498e+000 1.624660e+000 1.631433e+000 1.638041e+000 1.641898e+000
<GCONST> 3.141887e+001
<STATE> 8
<MEAN> 16
 9.167313e+000 1.040662e+001 1.079538e+001 1.157030e+001 1.203454e+001 1.216447e+001 1.222893e+001 1.181726e+001 1.131928e+001 1.149215e+001 1.159630e+001 1.136791e+001 1.119530e+001 1.089027e+001 1.073415e+001 1.062241e+001
<VARIANCE> 16
 1.145912e+000 6.990480e-001 1.162108e+000 1.519362e+000 1.640725e+000 1.424741e+000 1.259391e+000 1.363890e+000 1.391543e+000 1.716172e+000 2.044881e+000 1.880430e+000 1.870005e+000 2.051439e+000 2.116209e+000 2.486365e+000
<GCONST> 3.636510e+001
<STATE> 9
<MEAN> 16
 6.083101e+000 6.860644e+000 7.192281e+000 7.526312e+000 7.834486e+000 8.133343e+000 8.353953e+000 8.454391e+000 8.425025e+000 8.581529e+000 8.718268e+000 8.814401e+000 8.953072e+000 9.085293e+000 9.256636e+000 9.399810e+000
<VARIANCE> 16
 8.070443e-001 6.063900e-001 3.152316e-001 3.643552e-001 5.173159e-001 5.165950e-001 4.340113e-001 3.059114e-001 2.416284e-001 2.449136e-001 2.373681e-001 3.119617e-001 3.995612e-001 4.313700e-001 4.402478e-001 4.459848e-001
<GCONST> 1.437232e+001
<TRANSP> 10
 0.000000e+000 1.000000e+000 0.000000e+000 0.000000e+000 0.000000e+000 0.000000e+000 0.000000e+000 0.000000e+000 0.000000e+000 0.000000e+000
 0.000000e+000 9.354820e-001 6.451806e-002 0.000000e+000 0.000000e+000 0.000000e+000 0.000000e+000 0.000000e+000 0.000000e+000 0.000000e+000
 0.000000e+000 0.000000e+000 6.368581e-002 9.363142e-001 0.000000e+000 0.000000e+000 0.000000e+000 0.000000e+000 0.000000e+000 0.000000e+000
 0.000000e+000 0.000000e+000 0.000000e+000 6.536304e-001 3.463697e-001 0.000000e+000 0.000000e+000 0.000000e+000 0.000000e+000 0.000000e+000
 0.000000e+000 0.000000e+000 0.000000e+000 0.000000e+000 4.804831e-001 5.195169e-001 0.000000e+000 0.000000e+000 0.000000e+000 0.000000e+000
 0.000000e+000 0.000000e+000 0.000000e+000 0.000000e+000 0.000000e+000 7.539306e-001 2.460694e-001 0.000000e+000 0.000000e+000 0.000000e+000
 0.000000e+000 0.000000e+000 0.000000e+000 0.000000e+000 0.000000e+000 0.000000e+000 8.610403e-001 1.389597e-001 0.000000e+000 0.000000e+000
 0.000000e+000 0.000000e+000 0.000000e+000 0.000000e+000 0.000000e+000 0.000000e+000 0.000000e+000 9.593794e-001 4.062062e-002 0.000000e+000
 0.000000e+000 0.000000e+000 0.000000e+000 0.000000e+000 0.000000e+000 0.000000e+000 0.000000e+000 0.000000e+000 9.624410e-001 3.755895e-002
 0.000000e+000 0.000000e+000 0.000000e+000 0.000000e+000 0.000000e+000 0.000000e+000 0.000000e+000 0.000000e+000 0.000000e+000 0.000000e+000
<ENDHMM>
~h "osm"
<BEGINHMM>
<NUMSTATES> 10
<STATE> 2
<MEAN> 16
 5.705979e+000 6.507682e+000 6.972437e+000 7.328983e+000 7.588742e+000 7.843576e+000 8.075425e+000 8.289120e+000 8.388250e+000 8.543809e+000 8.740811e+000 8.904311e+000 9.072426e+000 9.227645e+000 9.416820e+000 9.554624e+000
<VARIANCE> 16
 3.834667e-001 2.655350e-001 2.271916e-001 2.435168e-001 2.346944e-001 2.039456e-001 1.726887e-001 1.988977e-001 1.674572e-001 1.220070e-001 1.219269e-001 1.382434e-001 1.609823e-001 1.897772e-001 1.890806e-001 2.076448e-001
<GCONST> 3.116739e+000
<STATE> 3
<MEAN> 16
 5.002886e+000 6.108095e+000 6.556590e+000 7.191300e+000 7.497278e+000 7.635895e+000 7.600080e+000 7.317566e+000 7.250100e+000 7.474514e+000 7.983597e+000 8.234604e+000 8.664874e+000 8.960423e+000 9.244326e+000 9.393524e+000
<VARIANCE> 16
 2.689275e+000 3.310899e+000 2.851161e+000 2.914687e+000 2.773736e+000 2.307110e+000 1.941098e+000 1.280129e+000 1.145609e+000 1.257347e+000 1.040635e+000 1.180771e+000 1.405171e+000 1.407559e+000 1.438709e+000 1.153247e+000
<GCONST> 3.823570e+001
<STATE> 4
<MEAN> 16
 6.490989e+000 7.834677e+000 8.456148e+000 8.928884e+000 8.972120e+000 9.260508e+000 9.354924e+000 9.138965e+000 9.269443e+000 9.701397e+000 1.019456e+001 1.031612e+001 1.066207e+001 1.100218e+001 1.080274e+001 1.062711e+001
<VARIANCE> 16
 1.972649e+000 2.401993e+000 2.338183e+000 3.124068e+000 3.104702e+000 2.312298e+000 1.592860e+000 8.930382e-001 8.584301e-001 9.860349e-001 1.121796e+000 1.656768e+000 1.603983e+000 2.171077e+000 1.930721e+000 2.278054e+000
<GCONST> 3.845580e+001
<STATE> 5
<MEAN> 16
 8.510820e+000 1.014001e+001 1.072846e+001 1.172611e+001 1.163010e+001 1.150771e+001 1.106170e+001 9.997961e+000 9.823844e+000 1.036628e+001 1.069052e+001 1.068639e+001 1.079588e+001 1.034176e+001 1.021762e+001 9.938134e+000
<VARIANCE> 16
 1.293974e+000 7.390988e-001 6.637658e-001 9.047102e-001 1.270481e+000 1.337709e+000 1.196881e+000 1.196143e+000 1.001321e+000 1.153632e+000 1.255418e+000 1.480536e+000 1.641577e+000 2.178763e+000 1.396008e+000 8.612775e-001
<GCONST> 3.196344e+001
<STATE> 6
<MEAN> 16
 8.249109e+000 9.402332e+000 9.974120e+000 1.057293e+001 1.046131e+001 1.015354e+001 9.560163e+000 8.690081e+000 8.351499e+000 8.727684e+000 9.538267e+000 1.015492e+001 1.036189e+001 1.024660e+001 1.052477e+001 1.061782e+001
<VARIANCE> 16
 2.526569e+000 3.090648e+000 2.878241e+000 2.597487e+000 2.468941e+000 2.204597e+000 1.723066e+000 1.723031e+000 1.635888e+000 2.113059e+000 2.883708e+000 4.255852e+000 3.990501e+000 4.503938e+000 3.964067e+000 2.725808e+000
<GCONST> 4.527213e+001
<STATE> 7
<MEAN> 16
 9.442608e+000 1.073537e+001 1.141438e+001 1.201871e+001 1.207720e+001 1.207208e+001 1.159434e+001 1.093474e+001 1.080453e+001 1.143178e+001 1.182238e+001 1.186317e+001 1.164780e+001 1.138071e+001 1.106556e+001 1.089328e+001
<VARIANCE> 16
 1.336050e+000 9.787888e-001 1.141662e+000 1.212317e+000 1.372130e+000 1.412949e+000 1.316697e+000 1.198545e+000 1.449509e+000 2.010080e+000 1.825586e+000 1.776526e+000 2.049702e+000 1.989946e+000 1.981256e+000 2.139271e+000
<GCONST> 3.621357e+001
<STATE> 8
<MEAN> 16
 8.455052e+000 9.683285e+000 1.007522e+001 1.002743e+001 9.921931e+000 1.014906e+001 1.022700e+001 1.024424e+001 1.034270e+001 1.082831e+001 1.115657e+001 1.135388e+001 1.148561e+001 1.146406e+001 1.135646e+001 1.133981e+001
<VARIANCE> 16
 2.186360e+000 2.652704e+000 2.310364e+000 1.636629e+000 1.278220e+000 9.979867e-001 7.343895e-001 6.829949e-001 5.998584e-001 6.709293e-001 1.024923e+000 1.486899e+000 2.576043e+000 3.205024e+000 3.381530e+000 3.675302e+000
<GCONST> 3.618945e+001
<STATE> 9
<MEAN> 16
 7.110881e+000 8.069687e+000 7.963392e+000 7.701255e+000 7.710360e+000 7.987202e+000 8.208534e+000 8.307022e+000 8.392735e+000 8.725124e+000 8.795173e+000 8.826603e+000 9.008620e+000 9.208059e+000 9.416235e+000 9.528803e+000
<VARIANCE> 16
 2.365042e+000 2.445630e+000 1.373256e+000 7.422609e-001 5.836104e-001 6.087152e-001 5.832370e-001 6.010358e-001 5.046606e-001 5.324872e-001 4.107544e-001 4.850981e-001 5.650654e-001 6.389050e-001 6.442949e-001 7.519473e-001
<GCONST> 2.442635e+001
<TRANSP> 10
 0.000000e+000 1.000000e+000 0.000000e+000 0.000000e+000 0.000000e+000 0.000000e+000 0.000000e+000 0.000000e+000 0.000000e+000 0.000000e+000
 0.000000e+000 9.383263e-001 6.167372e-002 0.000000e+000 0.000000e+000 0.000000e+000 0.000000e+000 0.000000e+000 0.000000e+000 0.000000e+000
 0.000000e+000 0.000000e+000 8.097582e-001 1.902418e-001 0.000000e+000 0.000000e+000 0.000000e+000 0.000000e+000 0.000000e+000 0.000000e+000
 0.000000e+000 0.000000e+000 0.000000e+000 7.135721e-001 2.864279e-001 0.000000e+000 0.000000e+000 0.000000e+000 0.000000e+000 0.000000e+000
 0.000000e+000 0.000000e+000 0.000000e+000 0.000000e+000 6.475742e-001 3.524257e-001 0.000000e+000 0.000000e+000 0.000000e+000 0.000000e+000
 0.000000e+000 0.000000e+000 0.000000e+000 0.000000e+000 0.000000e+000 8.480750e-001 1.519251e-001 0.000000e+000 0.000000e+000 0.000000e+000
 0.000000e+000 0.000000e+000 0.000000e+000 0.000000e+000 0.000000e+000 0.000000e+000 7.973502e-001 2.026497e-001 0.000000e+000 0.000000e+000
 0.000000e+000 0.000000e+000 0.000000e+000 0.000000e+000 0.000000e+000 0.000000e+000 0.000000e+000 9.687821e-001 3.121783e-002 0.000000e+000
 0.000000e+000 0.000000e+000 0.000000e+000 0.000000e+000 0.000000e+000 0.000000e+000 0.000000e+000 0.000000e+000 9.499840e-001 5.001598e-002
 0.000000e+000 0.000000e+000 0.000000e+000 0.000000e+000 0.000000e+000 0.000000e+000 0.000000e+000 0.000000e+000 0.000000e+000 0.000000e+000
<ENDHMM>
~h "pet"
<BEGINHMM>
<NUMSTATES> 10
<STATE> 2
<MEAN> 16
 3.899285e+000 5.219740e+000 5.745094e+000 5.902040e+000 6.097374e+000 6.394166e+000 6.606248e+000 6.863329e+000 7.107384e+000 7.301692e+000 7.566690e+000 7.747207e+000 8.068678e+000 8.417781e+000 8.557231e+000 8.714357e+000
<VARIANCE> 16
 6.057140e-001 6.149348e-001 5.072345e-001 4.512113e-001 3.427933e-001 3.535944e-001 3.189158e-001 2.941761e-001 2.684584e-001 3.149020e-001 2.938067e-001 3.113484e-001 2.717966e-001 2.363902e-001 3.040214e-001 4.033207e-001
<GCONST> 1.276132e+001
<STATE> 3
<MEAN> 16
 5.820726e+000 6.535828e+000 7.060693e+000 7.377244e+000 7.585053e+000 7.817656e+000 8.073635e+000 8.341055e+000 8.482312e+000 8.601927e+000 8.752478e+000 8.895194e+000 9.056134e+000 9.199535e+000 9.350340e+000 9.470916e+000
<VARIANCE> 16
 3.067955e-001 3.006691e-001 2.751192e-001 1.829658e-001 1.314627e-001 1.177395e-001 1.312833e-001 1.479456e-001 1.484822e-001 1.235870e-001 1.030490e-001 9.078156e-002 1.056705e-001 1.274519e-001 1.377955e-001 1.506148e-001
<GCONST> -9.283234e-001
<STATE> 4
<MEAN> 16
 7.022213e+000 8.446600e+000 9.192255e+000 9.113489e+000 8.501654e+000 8.076300e+000 8.099102e+000 8.638220e+000 9.403027e+000 9.790147e+000 9.801489e+000 9.566100e+000 9.534846e+000 9.280565e+000 8.887157e+000 9.028729e+000
<VARIANCE> 16
 1.862511e+000 1.789964e+000 2.130312e+000 1.820195e+000 1.129960e+000 8.100922e-001 1.091719e+000 1.760261e+000 1.772514e+000 1.599708e+000 1.385960e+000 1.062424e+000 1.207484e+000 1.535629e+000 1.519810e+000 1.260964e+000
<GCONST> 3.522726e+001
<STATE> 5
<MEAN> 16
 7.299980e+000 8.820672e+000 9.376679e+000 9.519811e+000 9.227474e+000 8.913342e+000 9.072093e+000 9.750620e+000 1.036478e+001 1.059799e+001 1.067053e+001 1.045971e+001 1.054294e+001 1.036541e+001 1.008219e+001 9.999122e+000
<VARIANCE> 16
 2.156393e+000 2.206213e+000 2.445577e+000 1.829363e+000 1.305546e+000 6.699682e-001 9.072219e-001 1.388576e+000 1.555238e+000 1.750942e+000 1.583439e+000 1.311049e+000 1.115890e+000 1.783266e+000 2.080798e+000 2.331970e+000
<GCONST> 3.656077e+001
<STATE> 6
<MEAN> 16
 8.434925e+000 9.968092e+000 1.060988e+001 1.062691e+001 9.973637e+000 9.544760e+000 9.712552e+000 1.064640e+001 1.132722e+001 1.163502e+001 1.164148e+001 1.133034e+001 1.116086e+001 1.072117e+001 1.024839e+001 1.018187e+001
<VARIANCE> 16
 1.385717e+000 1.429336e+000 1.447214e+000 9.418745e-001 6.583528e-001 5.502672e-001 9.122472e-001 1.113703e+000 1.160676e+000 1.623381e+000 1.679496e+000 1.630956e+000 1.754261e+000 2.873186e+000 2.866142e+000 2.546888e+000
<GCONST> 3.464618e+001
<STATE> 7
<MEAN> 16
 8.844031e+000 1.046568e+001 1.109750e+001 1.118575e+001 1.009438e+001 9.611066e+000 9.629828e+000 1.053185e+001 1.132943e+001 1.209043e+001 1.243984e+001 1.215754e+001 1.182547e+001 1.133219e+001 1.057615e+001 1.027850e+001
<VARIANCE> 16
 1.401516e+000 8.480043e-001 1.113794e+000 5.653634e-001 5.355430e-001 4.248301e-001 5.720575e-001 8.189827e-001 1.072639e+000 1.152855e+000 1.207500e+000 1.282452e+000 1.499302e+000 2.428289e+000 2.095609e+000 1.397103e+000
<GCONST> 2.989358e+001
<STATE> 8
<MEAN> 16
 9.357461e+000 1.076091e+001 1.161434e+001 1.217973e+001 1.184422e+001 1.120540e+001 1.132767e+001 1.215537e+001 1.263881e+001 1.285443e+001 1.273089e+001 1.241213e+001 1.209330e+001 1.173102e+001 1.143688e+001 1.132359e+001
<VARIANCE> 16
 1.081053e+000 5.817006e-001 7.977459e-001 5.940884e-001 8.451835e-001 6.565555e-001 6.136281e-001 8.474684e-001 9.737964e-001 1.264473e+000 1.335527e+000 1.278664e+000 1.396468e+000 2.113102e+000 2.184479e+000 2.933437e+000
<GCONST> 3.063556e+001
<STATE> 9
<MEAN> 16
 6.038378e+000 7.109743e+000 7.743622e+000 8.184539e+000 8.156377e+000 8.081081e+000 8.237242e+000 8.722388e+000 8.914207e+000 8.947904e+000 9.055431e+000 9.018078e+000 9.199279e+000 9.332766e+000 9.480256e+000 9.649135e+000
<VARIANCE> 16
 1.487025e+000 1.330136e+000 1.267434e+000 1.349251e+000 1.226555e+000 1.051535e+000 1.068519e+000 1.183722e+000 1.149121e+000 1.023460e+000 9.535415e-001 1.085387e+000 1.311866e+000 1.443591e+000 1.538756e+000 1.523018e+000
<GCONST> 3.280083e+001
<TRANSP> 10
 0.000000e+000 1.000000e+000 0.000000e+000 0.000000e+000 0.000000e+000 0.000000e+000 0.000000e+000 0.000000e+000 0.000000e+000 0.000000e+000
 0.000000e+000 9.250057e-001 7.499429e-002 0.000000e+000 0.000000e+000 0.000000e+000 0.000000e+000 0.000000e+000 0.000000e+000 0.000000e+000
 0.000000e+000 0.000000e+000 9.421833e-001 5.781676e-002 0.000000e+000 0.000000e+000 0.000000e+000 0.000000e+000 0.000000e+000 0.000000e+000
 0.000000e+000 0.000000e+000 0.000000e+000 4.612024e-001 5.387976e-001 0.000000e+000 0.000000e+000 0.000000e+000 0.000000e+000 0.000000e+000
 0.000000e+000 0.000000e+000 0.000000e+000 0.000000e+000 4.372775e-001 5.627225e-001 0.000000e+000 0.000000e+000 0.000000e+000 0.000000e+000
 0.000000e+000 0.000000e+000 0.000000e+000 0.000000e+000 0.000000e+000 1.668040e-001 8.331960e-001 0.000000e+000 0.000000e+000 0.000000e+000
 0.000000e+000 0.000000e+000 0.000000e+000 0.000000e+000 0.000000e+000 0.000000e+000 7.327227e-001 2.672773e-001 0.000000e+000 0.000000e+000
 0.000000e+000 0.000000e+000 0.000000e+000 0.000000e+000 0.000000e+000 0.000000e+000 0.000000e+000 9.412197e-001 5.878031e-002 0.000000e+000
 0.000000e+000 0.000000e+000 0.000000e+000 0.000000e+000 0.000000e+000 0.000000e+000 0.000000e+000 0.000000e+000 9.607902e-001 3.920976e-002
 0.000000e+000 0.000000e+000 0.000000e+000 0.000000e+000 0.000000e+000 0.000000e+000 0.000000e+000 0.000000e+000 0.000000e+000 0.000000e+000
<ENDHMM>
~h "sil"
<BEGINHMM>
<NUMSTATES> 5
<STATE> 2
<MEAN> 16
 2.198579e+000 2.823013e+000 3.185877e+000 3.585377e+000 3.851532e+000 3.986840e+000 4.107401e+000 4.401863e+000 4.922333e+000 5.363024e+000 5.711116e+000 5.967706e+000 6.085600e+000 6.617567e+000 7.529145e+000 8.180589e+000
<VARIANCE> 16
 5.376254e+000 6.417154e+000 6.379287e+000 6.462349e+000 5.753274e+000 5.247630e+000 5.154376e+000 4.611039e+000 3.459349e+000 2.689481e+000 2.158850e+000 1.833082e+000 1.948154e+000 1.473918e+000 7.725931e-001 5.002156e-001
<GCONST> 4.695199e+001
<STATE> 3
<MEAN> 16
 3.252411e+000 4.088168e+000 4.492150e+000 4.779997e+000 5.063602e+000 5.373243e+000 5.641711e+000 5.959922e+000 6.239480e+000 6.486677e+000 6.770416e+000 7.024471e+000 7.317183e+000 7.683753e+000 8.085190e+000 8.491961e+000
<VARIANCE> 16
 6.496702e-001 9.002476e-001 8.964835e-001 7.739912e-001 6.762606e-001 6.147596e-001 5.590029e-001 5.520460e-001 4.953213e-001 4.290285e-001 3.921645e-001 3.642385e-001 3.654422e-001 4.236906e-001 4.350510e-001 4.986512e-001
<GCONST> 1.956242e+001
<STATE> 4
<MEAN> 16
 5.018260e+000 6.150248e+000 6.563839e+000 6.805928e+000 7.027621e+000 7.293763e+000 7.547721e+000 7.792701e+000 7.961432e+000 8.157814e+000 8.372281e+000 8.576584e+000 8.797746e+000 9.018820e+000 9.255537e+000 9.451962e+000
<VARIANCE> 16
 9.723606e-001 6.536418e-001 5.956758e-001 6.110452e-001 6.047821e-001 5.895177e-001 6.016304e-001 5.887631e-001 4.880505e-001 4.221484e-001 3.788924e-001 3.700587e-001 3.665517e-001 3.480375e-001 3.235815e-001 3.399221e-001
<GCONST> 1.806225e+001
<TRANSP> 5
 0.000000e+000 1.000000e+000 0.000000e+000 0.000000e+000 0.000000e+000
 0.000000e+000 8.941777e-001 1.058223e-001 0.000000e+000 0.000000e+000
 0.000000e+000 0.000000e+000 9.673799e-001 3.262003e-002 0.000000e+000
 0.000000e+000 0.000000e+000 0.000000e+000 9.474064e-001 5.259359e-002
 0.000000e+000 0.000000e+000 0.000000e+000 0.000000e+000 0.000000e+000
<ENDHMM>
~h "tri"
<BEGINHMM>
<NUMSTATES> 10
<STATE> 2
<MEAN> 16
 4.588333e+000 5.633409e+000 6.276562e+000 6.685429e+000 6.887908e+000 7.070824e+000 7.055506e+000 7.413454e+000 7.985059e+000 8.350327e+000 8.811667e+000 9.166612e+000 9.509259e+000 9.753334e+000 9.974171e+000 9.982553e+000
<VARIANCE> 16
 8.739017e-001 1.180158e+000 1.092283e+000 1.023250e+000 1.029673e+000 1.188615e+000 1.468794e+000 1.381819e+000 1.095616e+000 1.066042e+000 9.925444e-001 1.096027e+000 1.215979e+000 1.277875e+000 1.156327e+000 9.452139e-001
<GCONST> 3.122715e+001
<STATE> 3
<MEAN> 16
 5.582859e+000 6.653019e+000 7.330061e+000 7.631036e+000 7.767112e+000 7.995151e+000 8.254811e+000 8.657595e+000 8.843932e+000 9.207180e+000 9.495358e+000 9.632583e+000 9.889170e+000 1.019538e+001 1.025068e+001 1.020499e+001
<VARIANCE> 16
 7.009901e-001 8.818695e-001 9.114168e-001 8.786786e-001 8.285618e-001 9.142632e-001 1.125986e+000 9.881471e-001 9.004788e-001 1.128013e+000 1.103460e+000 1.022786e+000 1.084911e+000 1.251487e+000 1.062716e+000 9.351400e-001
<GCONST> 2.896822e+001
<STATE> 4
<MEAN> 16
 6.489584e+000 7.815569e+000 8.856371e+000 9.186317e+000 9.127356e+000 9.072649e+000 9.220189e+000 9.692195e+000 1.011589e+001 1.018856e+001 1.046535e+001 1.054179e+001 1.079347e+001 1.094307e+001 1.084560e+001 1.065101e+001
<VARIANCE> 16
 9.134986e-001 1.349733e+000 1.234369e+000 1.207959e+000 1.021014e+000 1.464227e+000 1.978649e+000 1.793025e+000 1.440354e+000 1.702004e+000 1.361467e+000 1.890383e+000 2.254672e+000 2.625053e+000 2.657144e+000 2.552546e+000
<GCONST> 3.721789e+001
<STATE> 5
<MEAN> 16
 7.010651e+000 8.281806e+000 9.391132e+000 9.599484e+000 9.451952e+000 9.482186e+000 9.644656e+000 1.022267e+001 1.073239e+001 1.083609e+001 1.108500e+001 1.123948e+001 1.140149e+001 1.141061e+001 1.130620e+001 1.118714e+001
<VARIANCE> 16
 9.909727e-001 1.220460e+000 1.044484e+000 1.005533e+000 9.135773e-001 1.479463e+000 1.866335e+000 1.293978e+000 1.036701e+000 1.265329e+000 1.174287e+000 1.858425e+000 2.585090e+000 3.183711e+000 3.636613e+000 3.220884e+000
<GCONST> 3.644851e+001
<STATE> 6
<MEAN> 16
 6.561799e+000 7.320639e+000 8.176414e+000 8.475493e+000 8.594761e+000 8.665795e+000 9.024928e+000 9.924902e+000 1.024462e+001 1.037523e+001 1.124197e+001 1.213812e+001 1.271272e+001 1.280964e+001 1.260218e+001 1.212401e+001
<VARIANCE> 16
 7.618415e-001 1.579613e+000 2.358698e+000 2.409623e+000 2.025990e+000 2.132094e+000 2.124119e+000 1.201272e+000 1.144777e+000 1.504481e+000 8.410196e-001 1.183835e+000 1.304588e+000 1.479805e+000 1.647731e+000 2.045643e+000
<GCONST> 3.614086e+001
<STATE> 7
<MEAN> 16
 7.065733e+000 7.727139e+000 8.424055e+000 8.754471e+000 8.874930e+000 9.151757e+000 9.621294e+000 1.035600e+001 1.093616e+001 1.149297e+001 1.218105e+001 1.295332e+001 1.362692e+001 1.382207e+001 1.370542e+001 1.346088e+001
<VARIANCE> 16
 7.688022e-001 6.448703e-001 6.578358e-001 6.111413e-001 4.569034e-001 4.843928e-001 6.049844e-001 5.884421e-001 5.220010e-001 7.662842e-001 8.263382e-001 1.056162e+000 9.996579e-001 1.113391e+000 1.450085e+000 2.452092e+000
<GCONST> 2.557544e+001
<STATE> 8
<MEAN> 16
 9.224830e+000 1.070196e+001 1.139046e+001 1.134787e+001 1.044059e+001 1.000342e+001 1.006280e+001 1.095490e+001 1.181197e+001 1.234331e+001 1.234011e+001 1.206030e+001 1.189282e+001 1.157190e+001 1.105484e+001 1.083447e+001
<VARIANCE> 16
 1.464308e+000 8.152487e-001 1.292657e+000 1.159264e+000 8.984626e-001 9.230911e-001 1.263981e+000 1.817039e+000 1.752281e+000 1.451697e+000 1.529536e+000 1.369888e+000 1.315201e+000 2.044919e+000 1.698872e+000 2.259730e+000
<GCONST> 3.463992e+001
<STATE> 9
<MEAN> 16
 6.231837e+000 7.088511e+000 7.460827e+000 7.594077e+000 7.602762e+000 7.725741e+000 7.906313e+000 8.182886e+000 8.509034e+000 8.798783e+000 8.877390e+000 8.876946e+000 9.016225e+000 9.142791e+000 9.245716e+000 9.382874e+000
<VARIANCE> 16
 1.107169e+000 9.297849e-001 7.503644e-001 4.804955e-001 2.828404e-001 2.742284e-001 3.266686e-001 3.608909e-001 2.846495e-001 3.446102e-001 2.960398e-001 2.865305e-001 3.377640e-001 4.411462e-001 4.846517e-001 4.759861e-001
<GCONST> 1.556076e+001
<TRANSP> 10
 0.000000e+000 1.000000e+000 0.000000e+000 0.000000e+000 0.000000e+000 0.000000e+000 0.000000e+000 0.000000e+000 0.000000e+000 0.000000e+000
 0.000000e+000 7.413611e-001 2.586389e-001 0.000000e+000 0.000000e+000 0.000000e+000 0.000000e+000 0.000000e+000 0.000000e+000 0.000000e+000
 0.000000e+000 0.000000e+000 6.395829e-001 3.604170e-001 0.000000e+000 0.000000e+000 0.000000e+000 0.000000e+000 0.000000e+000 0.000000e+000
 0.000000e+000 0.000000e+000 0.000000e+000 1.849267e-001 8.150734e-001 0.000000e+000 0.000000e+000 0.000000e+000 0.000000e+000 0.000000e+000
 0.000000e+000 0.000000e+000 0.000000e+000 0.000000e+000 2.620435e-001 7.379565e-001 0.000000e+000 0.000000e+000 0.000000e+000 0.000000e+000
 0.000000e+000 0.000000e+000 0.000000e+000 0.000000e+000 0.000000e+000 6.037560e-001 3.962440e-001 0.000000e+000 0.000000e+000 0.000000e+000
 0.000000e+000 0.000000e+000 0.000000e+000 0.000000e+000 0.000000e+000 0.000000e+000 8.892896e-001 1.107104e-001 0.000000e+000 0.000000e+000
 0.000000e+000 0.000000e+000 0.000000e+000 0.000000e+000 0.000000e+000 0.000000e+000 0.000000e+000 9.506910e-001 4.930905e-002 0.000000e+000
 0.000000e+000 0.000000e+000 0.000000e+000 0.000000e+000 0.000000e+000 0.000000e+000 0.000000e+000 0.000000e+000 9.637235e-001 3.627648e-002
 0.000000e+000 0.000000e+000 0.000000e+000 0.000000e+000 0.000000e+000 0.000000e+000 0.000000e+000 0.000000e+000 0.000000e+000 0.000000e+000
<ENDHMM>
~h "nula"
<BEGINHMM>
<NUMSTATES> 10
<STATE> 2
<MEAN> 16
 4.947305e+000 5.904907e+000 6.283637e+000 6.328322e+000 6.597499e+000 6.791181e+000 6.847318e+000 7.086555e+000 7.280069e+000 7.443737e+000 7.652006e+000 7.706300e+000 7.933167e+000 8.232888e+000 8.433148e+000 8.595485e+000
<VARIANCE> 16
 3.552221e+000 3.338636e+000 2.021632e+000 1.209226e+000 6.934865e-001 6.216909e-001 8.154827e-001 9.692517e-001 7.815300e-001 7.892711e-001 7.555014e-001 4.745160e-001 4.539827e-001 4.983841e-001 4.209459e-001 4.921312e-001
<GCONST> 2.712719e+001
<STATE> 3
<MEAN> 16
 7.105760e+000 8.444253e+000 8.629461e+000 8.701825e+000 8.771118e+000 8.691859e+000 8.258882e+000 7.500474e+000 7.150913e+000 7.212862e+000 7.616290e+000 7.346545e+000 7.239280e+000 7.457761e+000 7.874135e+000 8.340838e+000
<VARIANCE> 16
 1.083623e+000 8.318299e-001 8.925422e-001 9.370943e-001 1.164664e+000 1.273788e+000 1.127178e+000 8.644360e-001 8.293732e-001 1.022093e+000 7.434000e-001 5.831807e-001 5.626521e-001 5.224282e-001 3.965749e-001 2.633860e-001
<GCONST> 2.500763e+001
<STATE> 4
<MEAN> 16
 6.228313e+000 7.379292e+000 7.717368e+000 7.897000e+000 7.926596e+000 8.082476e+000 8.335384e+000 8.599543e+000 8.751178e+000 8.975402e+000 9.150546e+000 9.244586e+000 9.430877e+000 9.637837e+000 9.868032e+000 9.960524e+000
<VARIANCE> 16
 1.584039e+000 1.493610e+000 9.792904e-001 7.434853e-001 4.772245e-001 3.640091e-001 2.948199e-001 2.853241e-001 3.862012e-001 4.918853e-001 4.450081e-001 4.761566e-001 5.169260e-001 5.697386e-001 5.967093e-001 5.787056e-001
<GCONST> 2.022571e+001
<STATE> 5
<MEAN> 16
 8.600572e+000 9.659380e+000 9.889521e+000 9.897346e+000 9.887444e+000 9.861274e+000 9.585465e+000 8.970054e+000 8.725847e+000 9.079256e+000 9.253275e+000 8.933777e+000 8.874586e+000 8.658249e+000 8.871437e+000 9.181620e+000
<VARIANCE> 16
 1.767586e+000 1.231043e+000 1.190469e+000 7.589476e-001 9.929522e-001 1.197744e+000 8.543002e-001 7.423735e-001 1.101519e+000 1.860214e+000 1.298626e+000 1.025278e+000 1.075345e+000 1.347566e+000 1.212512e+000 9.840833e-001
<GCONST> 3.135126e+001
<STATE> 6
<MEAN> 16
 9.154076e+000 1.051983e+001 1.073868e+001 1.052867e+001 1.014304e+001 1.000269e+001 9.690499e+000 9.498987e+000 9.544183e+000 9.843923e+000 1.000193e+001 9.675286e+000 9.502564e+000 9.405360e+000 9.564155e+000 9.735111e+000
<VARIANCE> 16
 2.288906e+000 1.153403e+000 1.439447e+000 1.266121e+000 1.653223e+000 1.172719e+000 1.129187e+000 1.094462e+000 1.794661e+000 2.522870e+000 1.936212e+000 1.361872e+000 1.690150e+000 1.565164e+000 1.188272e+000 1.362096e+000
<GCONST> 3.578499e+001
<STATE> 7
<MEAN> 16
 9.345928e+000 1.064323e+001 1.100068e+001 1.102180e+001 1.057229e+001 1.067725e+001 1.044228e+001 1.012760e+001 1.016210e+001 1.060254e+001 1.060840e+001 1.037370e+001 1.013060e+001 1.009341e+001 9.982563e+000 1.008830e+001
<VARIANCE> 16
 1.006874e+000 8.100628e-001 7.904270e-001 5.673202e-001 7.049022e-001 8.559268e-001 6.596597e-001 5.115893e-001 6.107078e-001 7.973606e-001 7.112346e-001 7.263970e-001 8.699143e-001 1.089775e+000 9.445212e-001 1.445191e+000
<GCONST> 2.568647e+001
<STATE> 8
<MEAN> 16
 9.335147e+000 1.082806e+001 1.126380e+001 1.190623e+001 1.213640e+001 1.221487e+001 1.203359e+001 1.150849e+001 1.105908e+001 1.126722e+001 1.162099e+001 1.160370e+001 1.136153e+001 1.093015e+001 1.065089e+001 1.062299e+001
<VARIANCE> 16
 1.457563e+000 6.515880e-001 1.179975e+000 1.060410e+000 9.953454e-001 9.076897e-001 1.006188e+000 1.018082e+000 1.076127e+000 1.565450e+000 1.663131e+000 1.503289e+000 1.397528e+000 1.775787e+000 1.490502e+000 2.049252e+000
<GCONST> 3.296461e+001
<STATE> 9
<MEAN> 16
 6.116244e+000 6.953625e+000 7.279996e+000 7.580034e+000 7.866083e+000 8.182818e+000 8.379733e+000 8.482080e+000 8.456605e+000 8.581799e+000 8.725657e+000 8.878096e+000 9.046306e+000 9.177781e+000 9.365227e+000 9.506598e+000
<VARIANCE> 16
 1.053127e+000 9.250378e-001 5.038687e-001 5.161211e-001 5.865490e-001 6.272992e-001 5.397642e-001 3.371346e-001 2.267017e-001 2.056476e-001 2.336188e-001 2.574403e-001 3.325166e-001 3.478481e-001 3.835199e-001 4.641712e-001
<GCONST> 1.556963e+001
<TRANSP> 10
 0.000000e+000 1.000000e+000 0.000000e+000 0.000000e+000 0.000000e+000 0.000000e+000 0.000000e+000 0.000000e+000 0.000000e+000 0.000000e+000
 0.000000e+000 6.560338e-001 3.439662e-001 0.000000e+000 0.000000e+000 0.000000e+000 0.000000e+000 0.000000e+000 0.000000e+000 0.000000e+000
 0.000000e+000 0.000000e+000 8.279220e-001 1.720780e-001 0.000000e+000 0.000000e+000 0.000000e+000 0.000000e+000 0.000000e+000 0.000000e+000
 0.000000e+000 0.000000e+000 0.000000e+000 7.905606e-001 2.094394e-001 0.000000e+000 0.000000e+000 0.000000e+000 0.000000e+000 0.000000e+000
 0.000000e+000 0.000000e+000 0.000000e+000 0.000000e+000 5.956419e-001 4.043581e-001 0.000000e+000 0.000000e+000 0.000000e+000 0.000000e+000
 0.000000e+000 0.000000e+000 0.000000e+000 0.000000e+000 0.000000e+000 3.071846e-001 6.928154e-001 0.000000e+000 0.000000e+000 0.000000e+000
 0.000000e+000 0.000000e+000 0.000000e+000 0.000000e+000 0.000000e+000 0.000000e+000 8.854971e-001 1.145030e-001 0.000000e+000 0.000000e+000
 0.000000e+000 0.000000e+000 0.000000e+000 0.000000e+000 0.000000e+000 0.000000e+000 0.000000e+000 9.638950e-001 3.610505e-002 0.000000e+000
 0.000000e+000 0.000000e+000 0.000000e+000 0.000000e+000 0.000000e+000 0.000000e+000 0.000000e+000 0.000000e+000 9.653472e-001 3.465285e-002
 0.000000e+000 0.000000e+000 0.000000e+000 0.000000e+000 0.000000e+000 0.000000e+000 0.000000e+000 0.000000e+000 0.000000e+000 0.000000e+000
<ENDHMM>
~h "devet"
<BEGINHMM>
<NUMSTATES> 10
<STATE> 2
<MEAN> 16
 7.083033e+000 7.800900e+000 7.390433e+000 6.793797e+000 6.342171e+000 6.125265e+000 6.171375e+000 6.518493e+000 6.712701e+000 7.010900e+000 7.262887e+000 7.429531e+000 7.682160e+000 7.995100e+000 8.446571e+000 8.837036e+000
<VARIANCE> 16
 3.348928e+000 2.160802e+000 1.789410e+000 1.802655e+000 1.321395e+000 1.202396e+000 1.109642e+000 9.899726e-001 9.043840e-001 8.401614e-001 7.448053e-001 7.430499e-001 7.336783e-001 7.425154e-001 6.997163e-001 7.561034e-001
<GCONST> 3.100292e+001
<STATE> 3
<MEAN> 16
 7.036008e+000 8.318353e+000 8.681218e+000 8.562485e+000 8.184746e+000 7.633818e+000 7.376971e+000 7.712104e+000 8.353707e+000 8.388864e+000 8.528108e+000 8.088651e+000 8.227523e+000 8.345912e+000 8.215110e+000 8.462192e+000
<VARIANCE> 16
 8.613896e-001 1.199892e+000 1.598220e+000 1.472782e+000 1.646014e+000 1.088546e+000 8.605542e-001 1.049142e+000 1.160079e+000 1.114938e+000 1.171412e+000 1.003115e+000 1.051232e+000 9.700649e-001 6.234145e-001 4.429834e-001
<GCONST> 2.992751e+001
<STATE> 4
<MEAN> 16
 6.587390e+000 7.611204e+000 7.803803e+000 7.821895e+000 7.800605e+000 7.909773e+000 8.081299e+000 8.553570e+000 8.727953e+000 8.798748e+000 8.999759e+000 9.193675e+000 9.317165e+000 9.442444e+000 9.610039e+000 9.751461e+000
<VARIANCE> 16
 1.799007e+000 1.712847e+000 1.176744e+000 7.956072e-001 5.507463e-001 6.099024e-001 6.111977e-001 7.331003e-001 7.431554e-001 6.960998e-001 7.145774e-001 8.146911e-001 7.987905e-001 7.200121e-001 8.487049e-001 9.406500e-001
<GCONST> 2.659329e+001
<STATE> 5
<MEAN> 16
 8.326740e+000 9.510751e+000 9.884505e+000 9.545586e+000 8.935637e+000 8.541948e+000 8.455230e+000 8.943269e+000 9.246724e+000 9.308856e+000 9.411490e+000 9.225484e+000 9.145671e+000 8.979282e+000 8.888274e+000 9.170844e+000
<VARIANCE> 16
 1.074646e+000 1.435211e+000 1.057227e+000 8.214133e-001 5.434865e-001 3.629848e-001 3.840292e-001 6.415413e-001 6.557519e-001 6.742271e-001 7.979805e-001 7.340800e-001 7.461864e-001 1.193210e+000 1.249609e+000 8.880970e-001
<GCONST> 2.531124e+001
<STATE> 6
<MEAN> 16
 8.208707e+000 9.447134e+000 9.736129e+000 9.569471e+000 9.212664e+000 9.039647e+000 9.190253e+000 9.814067e+000 1.013726e+001 1.021587e+001 1.026130e+001 1.029772e+001 1.038853e+001 1.023638e+001 1.008277e+001 1.007966e+001
<VARIANCE> 16
 1.787057e+000 1.753262e+000 1.960165e+000 1.790508e+000 9.800019e-001 6.932691e-001 9.188499e-001 1.424409e+000 1.435616e+000 1.542735e+000 1.717071e+000 1.940891e+000 1.753494e+000 2.032953e+000 2.053064e+000 1.916215e+000
<GCONST> 3.632590e+001
<STATE> 7
<MEAN> 16
 8.361515e+000 1.002038e+001 1.058687e+001 1.101871e+001 1.025051e+001 9.708522e+000 9.691728e+000 1.039728e+001 1.109608e+001 1.156130e+001 1.154631e+001 1.105497e+001 1.098956e+001 1.101550e+001 1.043381e+001 9.882602e+000
<VARIANCE> 16
 8.673326e-001 5.503809e-001 8.762723e-001 1.098374e+000 1.056315e+000 7.545089e-001 6.961287e-001 9.561545e-001 9.507132e-001 1.153460e+000 1.333564e+000 1.133142e+000 1.131703e+000 1.303694e+000 1.090831e+000 1.172091e+000
<GCONST> 2.913408e+001
<STATE> 8
<MEAN> 16
 9.368017e+000 1.074204e+001 1.162650e+001 1.190070e+001 1.120131e+001 1.069490e+001 1.096104e+001 1.190333e+001 1.224630e+001 1.236763e+001 1.225981e+001 1.206141e+001 1.177193e+001 1.130241e+001 1.102275e+001 1.090170e+001
<VARIANCE> 16
 8.800047e-001 4.431789e-001 7.709275e-001 8.230090e-001 9.947028e-001 7.691696e-001 8.664718e-001 1.071566e+000 1.052008e+000 1.128431e+000 1.146286e+000 1.167373e+000 1.211551e+000 2.131880e+000 1.975820e+000 2.481921e+000
<GCONST> 3.066925e+001
<STATE> 9
<MEAN> 16
 5.983091e+000 7.052280e+000 7.630222e+000 7.979794e+000 7.940738e+000 7.934489e+000 8.084507e+000 8.582431e+000 8.800353e+000 8.873780e+000 8.990405e+000 9.029095e+000 9.249092e+000 9.445102e+000 9.619801e+000 9.765270e+000
<VARIANCE> 16
 1.498862e+000 1.245900e+000 1.173700e+000 1.215917e+000 1.091612e+000 9.800807e-001 1.022988e+000 1.128187e+000 1.055680e+000 9.181281e-001 8.775489e-001 1.010237e+000 1.205601e+000 1.340500e+000 1.370847e+000 1.389790e+000
<GCONST> 3.157007e+001
<TRANSP> 10
 0.000000e+000 1.000000e+000 0.000000e+000 0.000000e+000 0.000000e+000 0.000000e+000 0.000000e+000 0.000000e+000 0.000000e+000 0.000000e+000
 0.000000e+000 6.063407e-001 3.936593e-001 0.000000e+000 0.000000e+000 0.000000e+000 0.000000e+000 0.000000e+000 0.000000e+000 0.000000e+000
 0.000000e+000 0.000000e+000 7.197399e-001 2.802601e-001 0.000000e+000 0.000000e+000 0.000000e+000 0.000000e+000 0.000000e+000 0.000000e+000
 0.000000e+000 0.000000e+000 0.000000e+000 6.760822e-001 3.239179e-001 0.000000e+000 0.000000e+000 0.000000e+000 0.000000e+000 0.000000e+000
 0.000000e+000 0.000000e+000 0.000000e+000 0.000000e+000 7.051350e-001 2.948650e-001 0.000000e+000 0.000000e+000 0.000000e+000 0.000000e+000
 0.000000e+000 0.000000e+000 0.000000e+000 0.000000e+000 0.000000e+000 1.167331e-001 8.832669e-001 0.000000e+000 0.000000e+000 0.000000e+000
 0.000000e+000 0.000000e+000 0.000000e+000 0.000000e+000 0.000000e+000 0.000000e+000 8.102527e-001 1.897473e-001 0.000000e+000 0.000000e+000
 0.000000e+000 0.000000e+000 0.000000e+000 0.000000e+000 0.000000e+000 0.000000e+000 0.000000e+000 9.643306e-001 3.566941e-002 0.000000e+000
 0.000000e+000 0.000000e+000 0.000000e+000 0.000000e+000 0.000000e+000 0.000000e+000 0.000000e+000 0.000000e+000 9.615489e-001 3.845116e-002
 0.000000e+000 0.000000e+000 0.000000e+000 0.000000e+000 0.000000e+000 0.000000e+000 0.000000e+000 0.000000e+000 0.000000e+000 0.000000e+000
<ENDHMM>
~h "jedna"
<BEGINHMM>
<NUMSTATES> 10
<STATE> 2
<MEAN> 16
 6.767467e+000 7.945682e+000 8.154830e+000 7.874577e+000 7.391058e+000 6.988086e+000 6.608060e+000 6.831373e+000 7.462467e+000 7.735724e+000 7.999958e+000 7.930375e+000 7.918517e+000 7.811731e+000 7.911834e+000 8.379996e+000
<VARIANCE> 16
 1.772034e+000 1.700443e+000 1.829233e+000 1.685700e+000 1.430294e+000 1.262171e+000 1.253651e+000 1.380619e+000 1.657392e+000 1.743238e+000 1.708463e+000 1.645197e+000 1.378031e+000 8.730081e-001 4.567882e-001 3.328497e-001
<GCONST> 3.317012e+001
<STATE> 3
<MEAN> 16
 5.939943e+000 6.749460e+000 7.162609e+000 7.431500e+000 7.624768e+000 7.846000e+000 8.105667e+000 8.397435e+000 8.537251e+000 8.708011e+000 8.917294e+000 9.108131e+000 9.291884e+000 9.429441e+000 9.568563e+000 9.685212e+000
<VARIANCE> 16
 4.842798e-001 4.830999e-001 3.311470e-001 2.153790e-001 1.605305e-001 1.548049e-001 1.877163e-001 2.221774e-001 1.819083e-001 2.040604e-001 2.508137e-001 2.420785e-001 2.532813e-001 2.889101e-001 2.923214e-001 3.668477e-001
<GCONST> 7.498164e+000
<STATE> 4
<MEAN> 16
 7.900768e+000 9.215734e+000 9.138917e+000 8.836865e+000 8.274581e+000 7.998499e+000 7.990308e+000 8.308110e+000 8.860405e+000 9.371323e+000 9.889901e+000 9.982304e+000 9.883769e+000 9.553196e+000 9.412014e+000 9.583936e+000
<VARIANCE> 16
 1.653013e+000 1.647639e+000 1.722832e+000 1.241923e+000 9.887256e-001 7.713593e-001 7.754703e-001 8.951084e-001 9.180224e-001 1.319484e+000 1.281052e+000 1.463432e+000 1.399733e+000 1.685873e+000 1.295297e+000 1.287751e+000
<GCONST> 3.272295e+001
<STATE> 5
<MEAN> 16
 8.513453e+000 9.961380e+000 1.005918e+001 9.549780e+000 8.743661e+000 8.408028e+000 8.316339e+000 8.687685e+000 9.378445e+000 1.004411e+001 1.061423e+001 1.072107e+001 1.052153e+001 9.942097e+000 9.674976e+000 9.848858e+000
<VARIANCE> 16
 1.453211e+000 1.169914e+000 1.293070e+000 8.750035e-001 8.840356e-001 8.289644e-001 7.535955e-001 8.112425e-001 1.208742e+000 1.777424e+000 1.669752e+000 1.787645e+000 1.751128e+000 2.067200e+000 1.664634e+000 1.523706e+000
<GCONST> 3.333283e+001
<STATE> 6
<MEAN> 16
 8.973089e+000 1.002722e+001 1.035963e+001 9.965902e+000 9.040625e+000 8.182374e+000 8.313648e+000 9.026012e+000 9.707995e+000 1.016006e+001 1.035484e+001 1.056284e+001 1.021203e+001 9.840036e+000 9.918202e+000 9.836881e+000
<VARIANCE> 16
 1.021485e+000 6.438959e-001 1.264408e+000 1.007395e+000 1.262795e+000 1.206825e+000 1.134535e+000 1.643553e+000 2.494744e+000 2.606142e+000 2.837091e+000 2.505054e+000 2.245990e+000 1.767491e+000 1.401271e+000 1.382987e+000
<GCONST> 3.614693e+001
<STATE> 7
<MEAN> 16
 8.857378e+000 1.034104e+001 1.067023e+001 1.050795e+001 9.751682e+000 9.352689e+000 9.385964e+000 1.006643e+001 1.070949e+001 1.134213e+001 1.136054e+001 1.122308e+001 1.100799e+001 1.069536e+001 1.026628e+001 1.006608e+001
<VARIANCE> 16
 1.261086e+000 8.798873e-001 1.304577e+000 1.575717e+000 1.378459e+000 9.827994e-001 9.424747e-001 1.327071e+000 1.709393e+000 1.898417e+000 2.077107e+000 1.925202e+000 2.050032e+000 2.211315e+000 1.928733e+000 2.056958e+000
<GCONST> 3.621067e+001
<STATE> 8
<MEAN> 16
 9.332926e+000 1.076219e+001 1.110190e+001 1.133276e+001 1.125574e+001 1.117876e+001 1.143123e+001 1.165787e+001 1.150025e+001 1.147032e+001 1.154771e+001 1.143116e+001 1.118414e+001 1.087994e+001 1.068082e+001 1.062102e+001
<VARIANCE> 16
 1.064155e+000 6.436383e-001 9.643266e-001 1.039796e+000 1.436904e+000 1.544373e+000 1.718266e+000 1.440790e+000 1.441396e+000 1.745024e+000 1.993761e+000 1.986428e+000 1.890839e+000 2.087252e+000 1.930700e+000 2.298689e+000
<GCONST> 3.589574e+001
<STATE> 9
<MEAN> 16
 6.894979e+000 7.781919e+000 7.766849e+000 8.008230e+000 8.371887e+000 8.631900e+000 8.851063e+000 8.813964e+000 8.471468e+000 8.461875e+000 8.631336e+000 8.698950e+000 8.751734e+000 8.884851e+000 9.065898e+000 9.263423e+000
<VARIANCE> 16
 1.889764e+000 1.546854e+000 1.009665e+000 1.064063e+000 1.258226e+000 1.000611e+000 8.937123e-001 7.829217e-001 6.462030e-001 8.813016e-001 7.411514e-001 8.280216e-001 9.334571e-001 9.719806e-001 8.887767e-001 8.279798e-001
<GCONST> 2.896842e+001
<TRANSP> 10
 0.000000e+000 1.000000e+000 0.000000e+000 0.000000e+000 0.000000e+000 0.000000e+000 0.000000e+000 0.000000e+000 0.000000e+000 0.000000e+000
 0.000000e+000 8.465394e-001 1.534606e-001 0.000000e+000 0.000000e+000 0.000000e+000 0.000000e+000 0.000000e+000 0.000000e+000 0.000000e+000
 0.000000e+000 0.000000e+000 9.294432e-001 7.055682e-002 0.000000e+000 0.000000e+000 0.000000e+000 0.000000e+000 0.000000e+000 0.000000e+000
 0.000000e+000 0.000000e+000 0.000000e+000 4.276126e-002 9.572387e-001 0.000000e+000 0.000000e+000 0.000000e+000 0.000000e+000 0.000000e+000
 0.000000e+000 0.000000e+000 0.000000e+000 0.000000e+000 5.969365e-002 9.403063e-001 0.000000e+000 0.000000e+000 0.000000e+000 0.000000e+000
 0.000000e+000 0.000000e+000 0.000000e+000 0.000000e+000 0.000000e+000 6.787298e-001 3.212702e-001 0.000000e+000 0.000000e+000 0.000000e+000
 0.000000e+000 0.000000e+000 0.000000e+000 0.000000e+000 0.000000e+000 0.000000e+000 9.130391e-001 8.696090e-002 0.000000e+000 0.000000e+000
 0.000000e+000 0.000000e+000 0.000000e+000 0.000000e+000 0.000000e+000 0.000000e+000 0.000000e+000 9.664164e-001 3.358359e-002 0.000000e+000
 0.000000e+000 0.000000e+000 0.000000e+000 0.000000e+000 0.000000e+000 0.000000e+000 0.000000e+000 0.000000e+000 9.363627e-001 6.363732e-002
 0.000000e+000 0.000000e+000 0.000000e+000 0.000000e+000 0.000000e+000 0.000000e+000 0.000000e+000 0.000000e+000 0.000000e+000 0.000000e+000
<ENDHMM>
