~o
<STREAMINFO> 1 39
<VECSIZE> 39<NULLD><MFCC_D_A_0><DIAGC>
~h "mj"
<BEGINHMM>
<NUMSTATES> 3
<STATE> 2
<NUMMIXES> 2
<MIXTURE> 1 3.415433e-001
<MEAN> 39
 -8.483124e+000 -1.609020e+000 -9.869699e-001 -8.593969e+000 -8.421620e+000 -7.669519e+000 -1.042542e+001 -2.760784e+000 -1.011775e+000 3.419474e+000 -6.135550e-001 -3.457133e+000 6.636273e+001 -7.415046e-002 1.865983e-001 9.642439e-002 1.942658e-001 2.309549e-001 1.312143e-001 3.610173e-001 1.173325e-001 2.463869e-001 1.212408e-001 1.632575e-001 2.470697e-001 -6.971586e-002 1.264438e-002 3.405622e-002 5.020627e-002 7.107386e-002 2.306507e-002 4.075566e-002 6.969550e-002 1.944117e-002 4.501460e-002 6.177786e-003 5.217539e-002 2.876304e-002 -3.209063e-002
<VARIANCE> 39
 7.073617e+001 3.609822e+001 7.995760e+001 4.807049e+001 5.718576e+001 6.596528e+001 7.348507e+001 4.261628e+001 5.557745e+001 3.606992e+001 3.905341e+001 3.255018e+001 6.269685e+001 3.367996e+000 2.189690e+000 2.990525e+000 3.126315e+000 3.366808e+000 3.360617e+000 4.294050e+000 3.227808e+000 3.481963e+000 2.440070e+000 2.643206e+000 2.311077e+000 2.533329e+000 5.136760e-001 3.867602e-001 4.561099e-001 5.301129e-001 5.902050e-001 5.937287e-001 7.567251e-001 6.084188e-001 6.228144e-001 4.616272e-001 4.936117e-001 4.450067e-001 4.067484e-001
<GCONST> 1.285961e+002
<MIXTURE> 2 6.584550e-001
<MEAN> 39
 -8.183874e+000 -1.910593e+000 -8.276309e-001 -8.491404e+000 -9.311790e+000 -7.798890e+000 -1.097681e+001 -2.929984e+000 -1.400865e+000 2.953532e+000 -5.605248e-001 -4.120923e+000 6.620322e+001 4.087595e-002 -9.752419e-002 -5.014526e-002 -1.000928e-001 -1.185706e-001 -6.779377e-002 -1.827939e-001 -5.826846e-002 -1.311551e-001 -6.418925e-002 -8.758895e-002 -1.259226e-001 3.538632e-002 -6.333095e-003 -1.699882e-002 -2.537265e-002 -3.733211e-002 -1.289611e-002 -2.121818e-002 -3.649443e-002 -9.217631e-003 -2.344388e-002 -4.494922e-003 -2.751765e-002 -1.488113e-002 1.679251e-002
<VARIANCE> 39
 6.570950e+001 3.441563e+001 8.268959e+001 4.772478e+001 5.915524e+001 6.316386e+001 7.423322e+001 4.410732e+001 5.775467e+001 3.686021e+001 3.994611e+001 3.523598e+001 6.861162e+001 3.360303e+000 2.128575e+000 3.085265e+000 3.001911e+000 3.505294e+000 3.394934e+000 4.431186e+000 3.366501e+000 3.668852e+000 2.500609e+000 2.781553e+000 2.516429e+000 2.488315e+000 4.651905e-001 3.705368e-001 4.508905e-001 5.213900e-001 6.015355e-001 5.714625e-001 7.651825e-001 6.300237e-001 6.579748e-001 4.627328e-001 5.064337e-001 4.581819e-001 4.055839e-001
<GCONST> 1.290332e+002
<TRANSP> 3
 0.000000e+000 1.000000e+000 0.000000e+000
 0.000000e+000 9.983901e-001 1.609855e-003
 0.000000e+000 0.000000e+000 0.000000e+000
<ENDHMM>
~h "pb"
<BEGINHMM>
<NUMSTATES> 3
<STATE> 2
<NUMMIXES> 2
<MIXTURE> 1 6.318027e-001
<MEAN> 39
 -6.973660e+000 2.477546e+000 1.797003e+000 -2.366948e+000 -5.911421e+000 -2.140381e-001 -4.255606e+000 1.857366e+000 1.534986e+000 8.199333e-001 1.467807e+000 -2.963955e+000 6.211483e+001 -5.731563e-002 1.859341e-001 4.515576e-002 1.836356e-001 1.754687e-001 5.848959e-002 2.372763e-001 8.204734e-002 9.893569e-002 1.478088e-001 7.070538e-002 2.265475e-001 -1.233014e-001 1.508771e-002 3.985264e-002 2.162291e-002 4.017076e-002 4.129925e-002 1.766100e-002 5.161028e-002 9.035540e-003 2.682794e-002 2.010760e-002 1.408880e-002 3.889220e-002 -3.029493e-002
<VARIANCE> 39
 5.784145e+001 3.960066e+001 6.082779e+001 3.993601e+001 6.874630e+001 4.299054e+001 7.154205e+001 3.650614e+001 3.251374e+001 2.696645e+001 2.522719e+001 4.062270e+001 9.985053e+001 2.445022e+000 2.448486e+000 2.407246e+000 2.688678e+000 3.231384e+000 2.677412e+000 3.299944e+000 2.848835e+000 2.492515e+000 2.190620e+000 2.257276e+000 2.395812e+000 2.378420e+000 4.338867e-001 4.140419e-001 4.275225e-001 4.940664e-001 6.054197e-001 4.934872e-001 6.371973e-001 5.382639e-001 4.843813e-001 4.468926e-001 4.485510e-001 4.735712e-001 4.078932e-001
<GCONST> 1.241619e+002
<MIXTURE> 2 3.681974e-001
<MEAN> 39
 -4.938282e+000 1.818476e+000 3.013760e+000 -3.404966e+000 -7.989451e+000 -9.294514e-001 -6.589810e+000 1.107860e+000 1.124255e+000 -1.935987e-001 1.245345e+000 -4.796114e+000 6.562575e+001 1.001260e-001 -3.188102e-001 -7.597306e-002 -3.136488e-001 -3.016099e-001 -1.043244e-001 -4.124817e-001 -1.419815e-001 -1.724488e-001 -2.555860e-001 -1.187219e-001 -3.863713e-001 2.120482e-001 -2.487269e-002 -6.820915e-002 -3.762592e-002 -7.101320e-002 -6.950236e-002 -2.943820e-002 -8.778758e-002 -1.459382e-002 -4.595458e-002 -3.461699e-002 -2.371449e-002 -6.487723e-002 5.203025e-002
<VARIANCE> 39
 5.778238e+001 5.385422e+001 6.545998e+001 4.609123e+001 7.599232e+001 4.667827e+001 7.270586e+001 4.547755e+001 3.749504e+001 3.442881e+001 2.913163e+001 4.895443e+001 9.315654e+001 3.747954e+000 3.085443e+000 3.529828e+000 3.286364e+000 4.487566e+000 3.111321e+000 4.205564e+000 3.507286e+000 2.914910e+000 2.615152e+000 2.660456e+000 3.220819e+000 3.217100e+000 4.756564e-001 5.203767e-001 4.780072e-001 5.730965e-001 7.322763e-001 5.500918e-001 7.058520e-001 6.404156e-001 5.327308e-001 4.984029e-001 5.145348e-001 5.614781e-001 4.694630e-001
<GCONST> 1.308259e+002
<TRANSP> 3
 0.000000e+000 1.000000e+000 0.000000e+000
 0.000000e+000 9.985017e-001 1.498371e-003
 0.000000e+000 0.000000e+000 0.000000e+000
<ENDHMM>
~h "pavel_rada"
<BEGINHMM>
<NUMSTATES> 3
<STATE> 2
<NUMMIXES> 2
<MIXTURE> 1 5.613999e-001
<MEAN> 39
 -7.977924e+000 -1.202276e+000 4.697500e+000 -7.219991e+000 2.288690e-001 -5.077541e+000 -2.130779e+000 1.468123e+000 -8.400599e+000 5.314456e+000 -1.119186e-002 -8.181868e-001 6.008523e+001 -3.649522e-002 9.007213e-002 1.183350e-001 4.040166e-002 2.704891e-001 3.291264e-002 1.884071e-001 8.873895e-002 8.324976e-002 1.920084e-001 -2.709779e-002 2.059938e-001 7.068925e-002 -5.322808e-003 3.171138e-002 3.289929e-002 2.210036e-002 5.881979e-002 1.123160e-002 3.864321e-002 4.873237e-003 2.126475e-002 3.838447e-002 -8.121891e-003 3.304886e-002 7.323627e-003
<VARIANCE> 39
 1.435798e+002 6.452711e+001 8.414233e+001 8.147540e+001 8.245308e+001 1.002155e+002 5.084840e+001 4.013338e+001 5.805790e+001 4.829873e+001 3.819624e+001 3.364396e+001 3.312224e+002 3.307704e+000 2.198388e+000 2.614625e+000 2.995997e+000 3.724024e+000 2.955199e+000 2.978252e+000 2.733291e+000 3.139436e+000 2.754207e+000 2.698612e+000 2.357498e+000 3.890538e+000 5.191378e-001 3.678514e-001 3.827941e-001 4.991374e-001 6.580618e-001 5.098451e-001 5.453199e-001 5.131946e-001 5.810245e-001 5.361970e-001 5.316567e-001 4.780561e-001 5.631390e-001
<GCONST> 1.323018e+002
<MIXTURE> 2 4.385984e-001
<MEAN> 39
 -1.016634e+001 -1.792177e-001 4.141771e+000 -6.146409e+000 -2.185362e+000 -3.815499e+000 -2.421304e+000 8.770995e-001 -7.810061e+000 3.888681e+000 6.029922e-001 -1.124829e+000 5.668681e+001 1.102803e-001 -1.602724e-001 -1.528135e-001 -7.450753e-002 -2.787296e-001 -8.449124e-002 -2.346313e-001 -9.624793e-002 -1.131414e-001 -2.072539e-001 -1.072339e-003 -2.676328e-001 1.626940e-002 6.214635e-003 -3.854900e-002 -4.178536e-002 -2.767731e-002 -7.659731e-002 -1.393165e-002 -4.744210e-002 -4.866662e-003 -3.016797e-002 -4.701517e-002 1.192471e-002 -4.028907e-002 -9.346902e-003
<VARIANCE> 39
 1.858360e+002 8.510078e+001 8.336395e+001 8.659631e+001 9.506440e+001 1.207773e+002 4.879954e+001 4.023437e+001 6.049234e+001 5.222257e+001 3.828127e+001 3.148129e+001 5.024479e+002 3.300427e+000 1.909604e+000 2.728761e+000 2.762151e+000 3.643903e+000 2.914085e+000 3.030735e+000 2.760967e+000 3.059550e+000 2.807587e+000 2.889298e+000 2.601045e+000 2.633788e+000 4.095555e-001 3.371381e-001 3.711653e-001 4.640986e-001 6.670666e-001 4.981441e-001 5.190720e-001 5.057088e-001 5.553566e-001 5.144209e-001 5.343341e-001 4.653198e-001 4.204628e-001
<GCONST> 1.323280e+002
<TRANSP> 3
 0.000000e+000 1.000000e+000 0.000000e+000
 0.000000e+000 9.973563e-001 2.643678e-003
 0.000000e+000 0.000000e+000 0.000000e+000
<ENDHMM>
~h "otomar_nemecek"
<BEGINHMM>
<NUMSTATES> 3
<STATE> 2
<NUMMIXES> 2
<MIXTURE> 1 4.898371e-001
<MEAN> 39
 -8.825624e+000 1.428141e+000 3.298502e-001 -3.406685e+000 4.547423e-001 -2.263657e+000 -1.960464e+000 -5.238172e+000 6.087706e-002 -2.849855e+000 2.215273e+000 -6.063005e+000 6.255530e+001 -1.212600e-001 1.000124e-001 9.533689e-002 6.769896e-002 2.744448e-001 8.449258e-002 2.382983e-001 1.878388e-001 1.563426e-001 2.796603e-001 1.017958e-001 2.235935e-001 -1.108061e-001 -6.024094e-004 1.085408e-002 4.480548e-002 2.317263e-002 2.118030e-002 2.951000e-002 4.321612e-002 7.619434e-003 2.805033e-002 4.029654e-002 2.616066e-002 3.375694e-002 -1.782759e-003
<VARIANCE> 39
 5.240347e+001 3.600116e+001 5.087460e+001 4.289176e+001 6.705242e+001 5.552449e+001 5.410949e+001 5.648325e+001 5.148375e+001 4.595882e+001 3.288615e+001 3.875425e+001 9.526770e+001 3.029884e+000 2.284233e+000 2.497296e+000 2.822383e+000 4.634349e+000 3.546619e+000 3.139711e+000 3.902216e+000 3.117566e+000 3.273744e+000 2.917066e+000 2.199449e+000 3.047076e+000 5.403972e-001 3.734138e-001 3.986610e-001 5.218574e-001 8.555751e-001 6.506198e-001 6.344407e-001 7.315792e-001 6.176907e-001 6.643437e-001 5.746582e-001 4.265046e-001 5.330364e-001
<GCONST> 1.296696e+002
<MIXTURE> 2 5.101622e-001
<MEAN> 39
 -7.278635e+000 1.068185e+000 8.619692e-001 -3.778021e+000 -1.363205e+000 -2.329583e+000 -3.604732e+000 -7.259404e+000 -1.078867e+000 -3.855152e+000 1.988426e+000 -7.968328e+000 6.618314e+001 1.135100e-001 -9.520045e-002 -9.351515e-002 -6.376392e-002 -2.642934e-001 -8.287740e-002 -2.273927e-001 -1.887049e-001 -1.428228e-001 -2.672589e-001 -9.136762e-002 -2.159356e-001 1.157991e-001 1.529901e-003 -1.032775e-002 -4.263762e-002 -2.245793e-002 -1.965464e-002 -2.659986e-002 -4.025516e-002 -5.527698e-003 -2.751733e-002 -3.722210e-002 -2.396377e-002 -3.507199e-002 -9.129741e-004
<VARIANCE> 39
 5.243410e+001 4.160545e+001 6.746555e+001 5.480566e+001 7.572527e+001 6.343913e+001 5.326053e+001 6.685783e+001 5.394164e+001 5.507487e+001 3.856375e+001 4.432435e+001 8.041129e+001 3.512827e+000 2.505358e+000 3.122638e+000 3.659551e+000 5.881433e+000 4.228502e+000 3.887682e+000 5.099424e+000 3.658590e+000 4.036095e+000 3.458465e+000 2.546262e+000 3.511021e+000 5.521594e-001 4.097680e-001 5.053788e-001 6.678978e-001 1.003843e+000 7.488952e-001 7.282339e-001 9.661890e-001 6.830887e-001 7.443416e-001 6.682078e-001 4.616207e-001 5.924792e-001
<GCONST> 1.354131e+002
<TRANSP> 3
 0.000000e+000 1.000000e+000 0.000000e+000
 0.000000e+000 9.979499e-001 2.050094e-003
 0.000000e+000 0.000000e+000 0.000000e+000
<ENDHMM>
~h "dvorsky"
<BEGINHMM>
<NUMSTATES> 3
<STATE> 2
<NUMMIXES> 2
<MIXTURE> 1 8.175344e-001
<MEAN> 39
 -5.294943e+000 2.526006e+000 5.082257e+000 6.890598e-001 1.888155e+000 -5.004507e-001 1.057512e-001 1.296241e+000 -1.952137e-002 3.680390e+000 1.641857e+000 -5.586526e-001 6.051324e+001 -5.295454e-002 8.752459e-002 2.772019e-002 8.323082e-002 7.120182e-002 4.442063e-002 9.682200e-002 3.995147e-002 9.267471e-002 3.835110e-002 6.797287e-002 7.322056e-002 -9.446882e-002 -1.334625e-002 1.900873e-002 8.242240e-003 2.000807e-002 1.747849e-002 1.500508e-002 2.870682e-002 4.797646e-003 2.033212e-002 3.723454e-004 1.559702e-002 1.714300e-002 -3.064046e-002
<VARIANCE> 39
 6.096265e+001 4.214313e+001 6.023800e+001 5.990911e+001 4.456091e+001 5.587725e+001 4.896769e+001 4.222100e+001 4.925205e+001 3.321483e+001 3.449126e+001 3.189805e+001 1.519236e+002 3.167752e+000 2.363165e+000 2.595368e+000 3.732586e+000 2.976232e+000 3.138242e+000 3.338576e+000 3.342210e+000 3.556439e+000 2.689938e+000 2.499166e+000 2.265064e+000 3.400457e+000 5.029238e-001 4.252715e-001 4.236581e-001 6.494741e-001 5.470332e-001 5.632395e-001 6.147062e-001 6.411818e-001 6.701769e-001 5.159405e-001 4.828207e-001 4.315294e-001 5.580858e-001
<GCONST> 1.285916e+002
<MIXTURE> 2 1.824660e-001
<MEAN> 39
 -5.321568e+000 1.225827e+000 5.699903e+000 -1.198254e-001 1.170507e+000 -1.409486e+000 -4.739580e-001 1.142843e+000 -8.999466e-001 3.609277e+000 1.549223e+000 -1.435281e+000 6.420350e+001 2.379708e-001 -3.931065e-001 -1.258702e-001 -3.726189e-001 -3.158387e-001 -1.880344e-001 -4.346888e-001 -1.861911e-001 -4.148693e-001 -1.801259e-001 -3.117722e-001 -3.394243e-001 4.184900e-001 6.025543e-002 -8.330635e-002 -3.555096e-002 -8.845717e-002 -8.028270e-002 -6.959131e-002 -1.306840e-001 -2.211574e-002 -9.548143e-002 -5.774428e-003 -6.884974e-002 -7.588412e-002 1.371398e-001
<VARIANCE> 39
 7.541827e+001 4.708626e+001 7.267152e+001 6.591036e+001 5.165242e+001 6.184554e+001 5.581072e+001 4.891165e+001 5.586686e+001 3.683516e+001 3.744809e+001 3.505587e+001 1.197647e+002 4.612331e+000 3.121761e+000 3.802490e+000 4.753128e+000 3.753306e+000 3.996169e+000 4.100961e+000 4.063338e+000 4.502484e+000 3.085124e+000 2.878961e+000 2.594122e+000 4.465408e+000 6.295093e-001 5.225012e-001 5.285363e-001 7.626585e-001 6.490285e-001 6.853188e-001 7.364011e-001 7.609242e-001 7.569828e-001 5.628990e-001 5.148987e-001 4.747266e-001 7.725860e-001
<GCONST> 1.351937e+002
<TRANSP> 3
 0.000000e+000 1.000000e+000 0.000000e+000
 0.000000e+000 9.981556e-001 1.844426e-003
 0.000000e+000 0.000000e+000 0.000000e+000
<ENDHMM>
~h "martin_jiricek"
<BEGINHMM>
<NUMSTATES> 3
<STATE> 2
<NUMMIXES> 2
<MIXTURE> 1 3.306994e-001
<MEAN> 39
 -1.007934e+001 -1.687332e+000 -1.602751e+000 -6.081266e+000 -4.034326e+000 -1.234178e+001 1.776781e+000 -7.631934e+000 4.353443e-001 -7.178582e+000 1.518273e+000 -3.920342e+000 7.005346e+001 7.423595e-002 6.109591e-002 7.121684e-002 3.499002e-002 9.574812e-002 1.901394e-001 1.844035e-001 1.961534e-001 1.999570e-001 1.876492e-001 2.162638e-001 1.857709e-001 -7.307836e-003 5.770111e-002 -1.529423e-003 4.965679e-002 1.779751e-002 -3.253557e-002 2.679286e-002 1.350019e-002 2.869809e-002 5.274716e-002 3.353697e-002 6.639750e-002 5.606899e-002 3.393797e-002
<VARIANCE> 39
 4.259426e+001 2.513072e+001 4.555240e+001 3.161803e+001 5.872146e+001 3.595560e+001 3.715766e+001 3.440985e+001 3.504612e+001 3.119099e+001 2.165159e+001 2.348138e+001 2.171905e+001 2.062134e+000 1.522835e+000 1.704133e+000 1.699579e+000 3.256001e+000 2.347349e+000 2.351854e+000 2.173578e+000 2.631811e+000 2.125061e+000 1.814708e+000 1.766689e+000 8.863543e-001 2.999346e-001 2.676384e-001 2.718184e-001 2.911311e-001 5.676280e-001 4.289103e-001 4.313752e-001 4.131681e-001 4.951864e-001 3.993017e-001 3.519377e-001 3.332530e-001 1.558248e-001
<GCONST> 1.118600e+002
<MIXTURE> 2 6.693004e-001
<MEAN> 39
 -8.955124e+000 -2.025169e+000 -1.003900e+000 -6.188969e+000 -5.316636e+000 -1.249705e+001 1.256108e+000 -8.185682e+000 4.787915e-001 -7.486458e+000 1.662036e+000 -4.076110e+000 7.095754e+001 -3.273897e-002 -3.814701e-002 -3.857930e-002 -1.968708e-002 -5.154940e-002 -9.819581e-002 -9.718482e-002 -9.982188e-002 -9.897221e-002 -9.864181e-002 -1.121150e-001 -9.929535e-002 -1.484631e-003 -2.876890e-002 6.595482e-004 -2.418165e-002 -9.591584e-003 1.671835e-002 -1.406998e-002 -7.795739e-003 -1.379665e-002 -2.450085e-002 -1.389889e-002 -3.539389e-002 -2.703051e-002 -1.686476e-002
<VARIANCE> 39
 4.035646e+001 2.883560e+001 4.772686e+001 3.474628e+001 5.823511e+001 3.931814e+001 4.016999e+001 3.385868e+001 3.824606e+001 3.431345e+001 2.232571e+001 2.526598e+001 2.049120e+001 2.012528e+000 1.750006e+000 1.900486e+000 1.784068e+000 3.607296e+000 2.504667e+000 2.466730e+000 2.271951e+000 2.784336e+000 2.226067e+000 1.887970e+000 1.835502e+000 1.031097e+000 2.875985e-001 2.808454e-001 2.901291e-001 2.980410e-001 5.877371e-001 4.331367e-001 4.327289e-001 4.235950e-001 5.116209e-001 4.055298e-001 3.609098e-001 3.407804e-001 1.605907e-001
<GCONST> 1.136126e+002
<TRANSP> 3
 0.000000e+000 1.000000e+000 0.000000e+000
 0.000000e+000 9.975210e-001 2.478983e-003
 0.000000e+000 0.000000e+000 0.000000e+000
<ENDHMM>
~h "kounovsky"
<BEGINHMM>
<NUMSTATES> 3
<STATE> 2
<NUMMIXES> 2
<MIXTURE> 1 5.520970e-001
<MEAN> 39
 -8.580207e+000 -1.593086e+000 1.264199e+000 5.114040e+000 -8.128495e+000 5.837834e+000 -3.540962e+000 -2.295035e+000 -8.903190e-001 3.043349e+000 -1.558554e+000 -1.399151e+000 5.626099e+001 -6.388234e-002 1.504357e-001 1.246886e-002 1.165228e-001 2.191690e-001 4.494946e-002 2.270010e-001 3.507035e-002 8.578790e-002 1.121662e-001 6.496830e-002 1.098632e-001 -7.672609e-002 -1.636710e-002 4.468461e-002 2.700302e-002 4.204564e-002 4.655133e-002 1.408251e-002 5.930147e-002 5.392774e-003 6.720149e-003 3.462100e-003 2.404344e-002 2.257753e-002 -3.351860e-002
<VARIANCE> 39
 8.100710e+001 4.686706e+001 6.045266e+001 4.551351e+001 1.169953e+002 5.853524e+001 6.604515e+001 6.197803e+001 5.653721e+001 4.592352e+001 4.487462e+001 3.721873e+001 1.624167e+002 2.987032e+000 2.626307e+000 2.445309e+000 2.487136e+000 4.266857e+000 2.999811e+000 3.696201e+000 2.842721e+000 3.133546e+000 2.516935e+000 2.264644e+000 1.890090e+000 2.930759e+000 4.297957e-001 4.354371e-001 4.061959e-001 3.999690e-001 6.364980e-001 4.922107e-001 6.466512e-001 5.108069e-001 5.453959e-001 4.534405e-001 4.183747e-001 3.472881e-001 4.669075e-001
<GCONST> 1.288725e+002
<MIXTURE> 2 4.479016e-001
<MEAN> 39
 -6.299325e+000 -3.287533e+000 3.816689e+000 5.131638e+000 -1.281615e+001 5.402767e+000 -6.055604e+000 -5.149868e+000 -3.199624e+000 9.215325e-001 -3.385257e+000 -3.528795e+000 6.223857e+001 6.841837e-002 -1.952455e-001 -2.635654e-002 -1.537625e-001 -2.787031e-001 -6.135976e-002 -2.874319e-001 -6.254118e-002 -1.287729e-001 -1.582230e-001 -1.014360e-001 -1.587784e-001 8.944804e-002 2.081505e-002 -5.532655e-002 -3.373040e-002 -5.419590e-002 -5.839913e-002 -1.653879e-002 -6.947169e-002 -5.801470e-003 -5.365507e-003 -3.978379e-003 -3.241140e-002 -2.586354e-002 4.170918e-002
<VARIANCE> 39
 9.461355e+001 5.763210e+001 8.209856e+001 6.098471e+001 1.153512e+002 7.417912e+001 7.341645e+001 6.075867e+001 6.813655e+001 5.830180e+001 4.021578e+001 3.416846e+001 1.109588e+002 4.348554e+000 3.450845e+000 3.680226e+000 3.092721e+000 5.490623e+000 3.620008e+000 4.608612e+000 3.582568e+000 3.906888e+000 3.230032e+000 2.610701e+000 2.213453e+000 3.748964e+000 5.253876e-001 6.170553e-001 5.340775e-001 5.154123e-001 8.877634e-001 5.862186e-001 7.898809e-001 6.195104e-001 6.668198e-001 5.385967e-001 4.842167e-001 3.962844e-001 6.391999e-001
<GCONST> 1.361173e+002
<TRANSP> 3
 0.000000e+000 1.000000e+000 0.000000e+000
 0.000000e+000 9.972329e-001 2.767084e-003
 0.000000e+000 0.000000e+000 0.000000e+000
<ENDHMM>
~h "vaclav"
<BEGINHMM>
<NUMSTATES> 3
<STATE> 2
<NUMMIXES> 2
<MIXTURE> 1 7.661259e-001
<MEAN> 39
 -9.047131e+000 2.994384e+000 2.419906e+000 3.209597e+000 -4.359694e-001 5.383772e+000 -2.070125e+000 4.885200e+000 4.245623e+000 4.622928e+000 5.476517e+000 2.228374e+000 4.657466e+001 -2.146813e-001 1.533107e-001 -3.083403e-002 2.105196e-001 2.226172e-001 4.909357e-002 2.315204e-001 1.278546e-001 1.447969e-001 1.407406e-001 6.651249e-002 1.799949e-001 -2.419659e-001 -3.056283e-002 -5.014226e-003 -4.287578e-003 1.406480e-002 3.216049e-002 -2.770395e-003 4.810530e-002 8.246415e-003 1.279143e-002 1.269138e-002 1.477003e-004 2.411780e-002 -8.695520e-003
<VARIANCE> 39
 5.586447e+001 3.696231e+001 4.494886e+001 7.929587e+001 6.644427e+001 4.331519e+001 6.525770e+001 5.957791e+001 5.268719e+001 4.327239e+001 2.820090e+001 4.944095e+001 7.525351e+001 1.886146e+000 2.455118e+000 1.858176e+000 3.422629e+000 3.138278e+000 2.521199e+000 3.243141e+000 3.146433e+000 2.878027e+000 2.347478e+000 2.170015e+000 1.976520e+000 1.892112e+000 3.115009e-001 4.450479e-001 3.270986e-001 6.304129e-001 5.648116e-001 4.729370e-001 6.178961e-001 6.049579e-001 5.705387e-001 4.612410e-001 4.309854e-001 3.747303e-001 3.484624e-001
<GCONST> 1.247189e+002
<MIXTURE> 2 2.338748e-001
<MEAN> 39
 -4.773960e+000 -8.496275e-002 3.925827e+000 -1.887684e+000 -4.806792e+000 3.426298e+000 -6.037033e+000 4.544675e-001 8.809325e-001 1.321435e+000 4.245840e+000 -1.830165e+000 5.328754e+001 7.056431e-001 -5.042470e-001 9.595735e-002 -6.946848e-001 -7.181548e-001 -1.616815e-001 -7.485936e-001 -4.196752e-001 -4.861494e-001 -4.569513e-001 -2.177096e-001 -6.056806e-001 7.948556e-001 9.981812e-002 1.570614e-002 1.712307e-002 -4.795304e-002 -1.084431e-001 9.440394e-003 -1.562276e-001 -2.691925e-002 -4.311422e-002 -4.098014e-002 1.900472e-004 -7.844439e-002 2.921822e-002
<VARIANCE> 39
 5.017381e+001 5.289126e+001 6.124938e+001 7.671658e+001 7.294706e+001 5.446035e+001 6.586030e+001 6.690553e+001 5.164045e+001 4.350911e+001 3.447107e+001 4.669859e+001 4.694429e+001 3.457672e+000 3.851055e+000 3.262879e+000 5.760699e+000 5.350740e+000 4.143443e+000 5.916644e+000 5.638113e+000 4.689906e+000 3.678457e+000 3.071540e+000 3.016960e+000 3.165851e+000 4.751134e-001 6.500791e-001 4.921093e-001 9.019241e-001 8.946241e-001 7.043471e-001 1.003217e+000 1.016738e+000 7.698686e-001 6.447254e-001 5.742206e-001 5.259508e-001 4.878910e-001
<GCONST> 1.369549e+002
<TRANSP> 3
 0.000000e+000 1.000000e+000 0.000000e+000
 0.000000e+000 9.972684e-001 2.731592e-003
 0.000000e+000 0.000000e+000 0.000000e+000
<ENDHMM>
~h "tomas"
<BEGINHMM>
<NUMSTATES> 3
<STATE> 2
<NUMMIXES> 2
<MIXTURE> 1 7.823982e-001
<MEAN> 39
 -6.801790e+000 4.001139e+000 5.282444e+000 -8.265656e-001 -1.173224e-001 -3.274655e+000 -5.973906e-001 -3.340638e-001 5.427264e-001 9.242761e-001 2.799390e+000 2.666583e+000 6.338670e+001 -9.960841e-003 7.093038e-002 1.465414e-002 9.027266e-002 1.327621e-001 5.400208e-002 1.107498e-001 4.541546e-002 1.065448e-001 9.496216e-002 7.324851e-002 6.622925e-002 -8.305096e-002 -5.875528e-003 6.971975e-003 1.322144e-002 2.412840e-002 1.776131e-002 8.135688e-003 2.324705e-002 1.022367e-002 2.087589e-002 1.678707e-002 1.785063e-002 1.328760e-002 -1.428006e-002
<VARIANCE> 39
 6.451351e+001 3.583636e+001 5.580007e+001 5.812548e+001 6.122193e+001 5.771793e+001 5.820671e+001 4.941487e+001 4.864221e+001 3.654525e+001 3.123358e+001 2.400719e+001 7.320956e+001 2.574011e+000 1.925494e+000 2.122508e+000 2.776253e+000 3.545630e+000 3.280877e+000 2.999144e+000 2.679549e+000 3.027216e+000 2.461658e+000 2.211989e+000 1.972576e+000 1.878262e+000 3.596148e-001 3.152440e-001 3.581037e-001 4.544850e-001 6.375589e-001 5.736423e-001 5.572277e-001 5.038800e-001 5.603876e-001 4.825147e-001 4.161236e-001 3.910770e-001 2.900077e-001
<GCONST> 1.234321e+002
<MIXTURE> 2 2.176000e-001
<MEAN> 39
 -6.521657e+000 4.042094e+000 6.081191e+000 -1.267454e+000 -1.554507e+000 -4.450180e+000 -1.933290e+000 -1.755804e+000 -4.490752e-001 -2.454634e-002 2.766522e+000 2.131774e+000 6.539906e+001 2.239892e-002 -2.381468e-001 -4.620366e-002 -3.080142e-001 -4.672807e-001 -2.225843e-001 -3.810944e-001 -2.036989e-001 -4.187178e-001 -3.361471e-001 -2.549652e-001 -2.589237e-001 3.104236e-001 1.677082e-002 -2.318014e-002 -5.134617e-002 -8.165900e-002 -7.358771e-002 -2.265223e-002 -8.360247e-002 -3.114224e-002 -7.871129e-002 -5.945211e-002 -6.175012e-002 -4.809066e-002 5.188787e-002
<VARIANCE> 39
 6.869467e+001 3.884923e+001 6.113729e+001 6.036122e+001 7.009245e+001 6.093413e+001 6.593358e+001 4.809298e+001 5.131805e+001 3.780611e+001 3.161024e+001 2.389645e+001 6.725725e+001 3.623353e+000 2.258849e+000 2.851352e+000 3.330032e+000 4.515545e+000 3.684000e+000 3.877706e+000 3.113385e+000 3.565165e+000 2.724147e+000 2.462747e+000 2.163372e+000 2.679086e+000 4.490486e-001 3.665161e-001 4.089249e-001 5.160599e-001 7.781436e-001 6.327807e-001 6.813570e-001 5.623003e-001 6.120819e-001 5.178632e-001 4.675900e-001 4.152036e-001 3.973848e-001
<GCONST> 1.284561e+002
<TRANSP> 3
 0.000000e+000 1.000000e+000 0.000000e+000
 0.000000e+000 9.971485e-001 2.851476e-003
 0.000000e+000 0.000000e+000 0.000000e+000
<ENDHMM>
~h "cerny"
<BEGINHMM>
<NUMSTATES> 3
<STATE> 2
<NUMMIXES> 2
<MIXTURE> 1 5.340565e-001
<MEAN> 39
 -1.153123e+001 -1.584418e+000 -1.765583e+000 -3.647810e+000 -4.390365e+000 -2.711778e+000 -4.704301e+000 -4.564384e-002 1.378663e+000 1.031508e+000 8.207773e-002 -6.478397e-001 6.546777e+001 -7.717860e-002 9.866459e-002 2.490949e-003 1.193881e-001 1.645791e-001 1.480275e-001 2.360799e-001 6.040945e-002 7.232211e-002 1.123943e-001 1.564714e-001 1.353031e-001 -8.751330e-002 -9.167341e-003 1.516818e-002 5.334958e-003 2.274536e-002 3.317155e-002 2.232716e-002 5.494848e-002 2.024535e-002 2.173232e-002 1.892617e-002 3.170033e-002 3.158078e-002 -1.807239e-002
<VARIANCE> 39
 2.037612e+001 1.928084e+001 2.801371e+001 3.641431e+001 3.794392e+001 3.100311e+001 5.440013e+001 2.799433e+001 2.808423e+001 2.489917e+001 1.837769e+001 2.396313e+001 2.197551e+001 8.004581e-001 1.146116e+000 1.190419e+000 1.659913e+000 1.989155e+000 1.779498e+000 2.672318e+000 2.071944e+000 2.130262e+000 1.930244e+000 1.537527e+000 1.536474e+000 6.264099e-001 1.350447e-001 2.000711e-001 2.017405e-001 2.978953e-001 3.779103e-001 3.520829e-001 5.341847e-001 4.027797e-001 4.256152e-001 3.888372e-001 3.131508e-001 3.013897e-001 1.132084e-001
<GCONST> 1.037665e+002
<MIXTURE> 2 4.659424e-001
<MEAN> 39
 -1.063784e+001 -1.947432e+000 -1.268530e+000 -4.897161e+000 -5.794008e+000 -3.455410e+000 -6.510504e+000 -9.778690e-002 1.659579e+000 1.095748e+000 -3.311115e-001 -1.262621e+000 6.695798e+001 8.637373e-002 -1.126691e-001 -8.933619e-004 -1.378381e-001 -1.879571e-001 -1.706143e-001 -2.731006e-001 -6.551476e-002 -8.660121e-002 -1.276672e-001 -1.829699e-001 -1.515945e-001 9.939710e-002 1.083093e-002 -1.776629e-002 -5.522914e-003 -2.594543e-002 -3.852083e-002 -2.537404e-002 -6.290355e-002 -2.362482e-002 -2.569916e-002 -2.204145e-002 -3.534564e-002 -3.683100e-002 2.080992e-002
<VARIANCE> 39
 2.205991e+001 2.466231e+001 3.591059e+001 4.734642e+001 4.507608e+001 3.619445e+001 5.849921e+001 3.362541e+001 3.371120e+001 2.886962e+001 2.057000e+001 2.834670e+001 2.258711e+001 1.208185e+000 1.573738e+000 1.630025e+000 2.271946e+000 2.753371e+000 2.257354e+000 3.672024e+000 2.531978e+000 2.638149e+000 2.291082e+000 1.689924e+000 1.817871e+000 9.155780e-001 1.575325e-001 2.456620e-001 2.441917e-001 3.610203e-001 4.635969e-001 3.942146e-001 6.348282e-001 4.678051e-001 4.742367e-001 4.241764e-001 3.304438e-001 3.223585e-001 1.451215e-001
<GCONST> 1.112370e+002
<TRANSP> 3
 0.000000e+000 1.000000e+000 0.000000e+000
 0.000000e+000 9.985431e-001 1.456895e-003
 0.000000e+000 0.000000e+000 0.000000e+000
<ENDHMM>
~h "smola"
<BEGINHMM>
<NUMSTATES> 3
<STATE> 2
<NUMMIXES> 2
<MIXTURE> 1 5.452681e-001
<MEAN> 39
 -8.061033e+000 1.266765e+000 6.676228e-002 -8.294304e-001 -1.824810e+000 -1.253646e+000 -4.391340e+000 3.795794e+000 -2.620337e+000 7.672170e-001 4.635698e+000 -2.244339e+000 5.779772e+001 -2.974924e-001 3.150440e-001 7.910863e-003 2.845502e-001 2.854530e-001 2.496593e-001 4.215334e-001 -7.308239e-002 3.807456e-001 9.641501e-002 3.884705e-002 3.229962e-001 -2.727553e-001 -1.556423e-002 7.038558e-003 2.274884e-002 1.850060e-002 2.688957e-002 4.621853e-002 4.754892e-002 2.431941e-003 6.569561e-002 -5.653677e-003 6.811770e-003 3.179168e-002 2.864173e-002
<VARIANCE> 39
 7.128976e+001 6.443906e+001 4.028282e+001 7.497271e+001 5.605401e+001 7.164543e+001 7.910745e+001 5.086081e+001 8.530619e+001 3.542939e+001 3.166784e+001 4.747781e+001 1.711251e+002 3.081334e+000 3.585257e+000 2.403552e+000 3.545352e+000 2.940129e+000 3.423641e+000 3.784822e+000 3.167384e+000 4.491493e+000 2.548192e+000 2.554964e+000 2.334876e+000 5.012153e+000 5.002915e-001 5.913824e-001 4.428668e-001 6.231356e-001 5.715422e-001 6.897293e-001 7.249539e-001 6.346832e-001 8.978134e-001 5.087057e-001 4.891132e-001 4.749784e-001 8.107780e-001
<GCONST> 1.337001e+002
<MIXTURE> 2 4.547310e-001
<MEAN> 39
 -4.797103e+000 -2.402536e+000 5.268550e-001 -4.590205e+000 -5.361344e+000 -3.823962e+000 -8.776242e+000 2.128185e+000 -6.050135e+000 -8.741802e-001 4.358270e+000 -5.702930e+000 6.595433e+001 3.644668e-001 -3.577271e-001 2.050838e-002 -3.680173e-001 -3.301328e-001 -3.068671e-001 -4.969854e-001 2.680684e-002 -5.110424e-001 -1.364348e-001 -6.564891e-002 -3.946979e-001 3.621498e-001 1.771414e-002 -8.524363e-003 -2.617960e-002 -2.272351e-002 -3.038696e-002 -5.601877e-002 -5.622457e-002 -1.936931e-003 -8.137039e-002 6.270533e-003 -1.036887e-002 -4.351830e-002 -3.301139e-002
<VARIANCE> 39
 6.789727e+001 7.988309e+001 4.854201e+001 7.613998e+001 5.916006e+001 5.595782e+001 7.300680e+001 5.562236e+001 6.893741e+001 3.837841e+001 3.635832e+001 3.830648e+001 8.991412e+001 4.226452e+000 4.455740e+000 3.023619e+000 4.524585e+000 3.780383e+000 4.503115e+000 5.451327e+000 4.421440e+000 5.903510e+000 3.054338e+000 2.889864e+000 3.035252e+000 5.534144e+000 5.698546e-001 7.143344e-001 4.942739e-001 7.827300e-001 6.656526e-001 8.072766e-001 9.746093e-001 7.998614e-001 1.038153e+000 5.516412e-001 5.553818e-001 5.270442e-001 8.788789e-001
<GCONST> 1.382327e+002
<TRANSP> 3
 0.000000e+000 1.000000e+000 0.000000e+000
 0.000000e+000 9.965273e-001 3.472747e-003
 0.000000e+000 0.000000e+000 0.000000e+000
<ENDHMM>
~h "fejgl"
<BEGINHMM>
<NUMSTATES> 3
<STATE> 2
<NUMMIXES> 2
<MIXTURE> 1 4.607370e-001
<MEAN> 39
 -8.946946e+000 -2.427923e+000 -2.444893e+000 -1.379465e-001 -7.091734e+000 -6.915071e+000 -3.194263e+000 -1.806799e+000 4.482878e+000 7.271546e-001 -3.451741e+000 -2.637269e+000 6.466985e+001 2.879746e-002 1.395937e-001 2.411472e-001 1.757470e-001 2.465507e-001 2.428280e-001 1.895059e-001 2.017258e-001 2.021797e-001 1.941515e-001 2.233960e-001 1.804897e-001 6.536203e-002 -4.941818e-002 2.351697e-002 6.714056e-002 4.538408e-002 8.400402e-002 7.077274e-002 4.323944e-002 5.792287e-002 2.892916e-002 2.980645e-002 6.149857e-002 5.760417e-002 -3.101485e-002
<VARIANCE> 39
 8.987537e+001 5.501513e+001 6.692532e+001 3.980326e+001 6.176776e+001 7.034982e+001 4.021798e+001 5.873465e+001 4.980042e+001 3.000675e+001 4.076505e+001 3.332811e+001 2.446939e+002 3.867731e+000 2.584396e+000 3.015718e+000 2.792012e+000 3.584772e+000 3.413308e+000 2.891078e+000 3.457484e+000 3.239575e+000 2.568115e+000 2.535041e+000 2.248355e+000 4.008082e+000 5.269780e-001 3.911533e-001 4.595315e-001 5.012384e-001 6.157311e-001 6.383356e-001 5.408290e-001 6.592157e-001 6.070507e-001 5.154787e-001 4.952761e-001 4.312258e-001 6.068386e-001
<GCONST> 1.305075e+002
<MIXTURE> 2 5.392622e-001
<MEAN> 39
 -9.815939e+000 -2.943297e+000 -2.722995e+000 -8.141311e-001 -7.680942e+000 -7.766789e+000 -3.828612e+000 -2.477609e+000 3.750512e+000 4.006820e-001 -3.725364e+000 -2.851919e+000 6.556747e+001 6.332887e-003 -1.475265e-001 -2.162096e-001 -1.671755e-001 -1.782981e-001 -2.211256e-001 -1.872232e-001 -1.872250e-001 -1.653997e-001 -1.560093e-001 -2.044870e-001 -1.578268e-001 -6.748689e-003 3.721181e-002 -1.715097e-002 -5.451354e-002 -4.008405e-002 -7.072546e-002 -5.973946e-002 -3.726730e-002 -5.278672e-002 -2.871969e-002 -3.393067e-002 -5.345891e-002 -4.543054e-002 2.999474e-002
<VARIANCE> 39
 9.508234e+001 5.285239e+001 6.662518e+001 4.071894e+001 6.725278e+001 7.150893e+001 4.034361e+001 5.853119e+001 5.145372e+001 3.217271e+001 4.299399e+001 3.583670e+001 2.544270e+002 3.681221e+000 2.349020e+000 2.921648e+000 2.677966e+000 3.802194e+000 3.785505e+000 3.023031e+000 3.599020e+000 3.384767e+000 2.730653e+000 2.655550e+000 2.375210e+000 4.361052e+000 5.306025e-001 3.887853e-001 4.811308e-001 4.839110e-001 6.620377e-001 6.918912e-001 5.696278e-001 6.776806e-001 6.332796e-001 5.488827e-001 4.900538e-001 4.556454e-001 6.430113e-001
<GCONST> 1.316816e+002
<TRANSP> 3
 0.000000e+000 1.000000e+000 0.000000e+000
 0.000000e+000 9.964352e-001 3.564787e-003
 0.000000e+000 0.000000e+000 0.000000e+000
<ENDHMM>
~h "kasal"
<BEGINHMM>
<NUMSTATES> 3
<STATE> 2
<NUMMIXES> 2
<MIXTURE> 1 6.135455e-001
<MEAN> 39
 -5.481905e+000 1.680763e-001 4.776378e+000 1.524221e+000 -2.893412e+000 -2.874027e+000 -6.005470e+000 -1.489364e+000 3.425228e-001 3.402374e+000 -1.561792e-001 -1.894438e+000 5.999150e+001 -1.507588e-001 2.662865e-001 -1.914747e-002 1.929418e-001 1.745661e-001 4.556256e-002 2.724507e-001 5.880705e-002 9.326688e-002 1.655540e-001 8.707461e-002 1.938787e-001 -7.569435e-002 -1.649705e-002 3.785668e-002 9.394302e-003 3.875862e-002 2.906933e-002 2.036239e-002 5.497210e-002 2.951770e-003 2.099212e-002 1.795550e-002 2.847555e-003 3.298426e-002 -1.680069e-002
<VARIANCE> 39
 5.900267e+001 6.321879e+001 5.713339e+001 4.832384e+001 6.444633e+001 7.863744e+001 9.508343e+001 4.166101e+001 3.728519e+001 3.391081e+001 3.840053e+001 3.167542e+001 1.907345e+002 3.162369e+000 3.690587e+000 2.763939e+000 3.028069e+000 3.189783e+000 3.356040e+000 4.633021e+000 3.066593e+000 2.596225e+000 2.483693e+000 2.981240e+000 2.218082e+000 3.393302e+000 5.289717e-001 5.940350e-001 4.546344e-001 5.218199e-001 5.633273e-001 6.227751e-001 8.151182e-001 5.931474e-001 4.895153e-001 4.871824e-001 5.912364e-001 4.168773e-001 5.514864e-001
<GCONST> 1.309176e+002
<MIXTURE> 2 3.864538e-001
<MEAN> 39
 -4.194915e+000 -2.281003e+000 6.172480e+000 2.034487e-001 -5.621699e+000 -4.778754e+000 -9.510460e+000 -2.828762e+000 -4.005877e-002 1.813211e+000 -7.980568e-001 -3.536624e+000 6.632665e+001 2.157879e-001 -4.122007e-001 3.563334e-002 -2.909996e-001 -2.687679e-001 -5.785201e-002 -4.212223e-001 -9.024183e-002 -1.352297e-001 -2.424135e-001 -1.221657e-001 -3.014499e-001 2.482756e-001 2.668800e-002 -6.032475e-002 -1.449509e-002 -6.208291e-002 -4.753934e-002 -3.248758e-002 -8.608561e-002 -5.247002e-003 -3.020212e-002 -2.586408e-002 -4.086613e-003 -5.007189e-002 2.684918e-002
<VARIANCE> 39
 6.636456e+001 8.233463e+001 6.296783e+001 5.843593e+001 7.016412e+001 8.076183e+001 1.001521e+002 5.177678e+001 4.145766e+001 4.291832e+001 4.447430e+001 3.940574e+001 1.311705e+002 4.186721e+000 4.134383e+000 3.473731e+000 3.710165e+000 3.986891e+000 4.330285e+000 5.698594e+000 4.137480e+000 3.068303e+000 3.027560e+000 3.835797e+000 2.663091e+000 3.643847e+000 5.705349e-001 6.962745e-001 5.405285e-001 6.191863e-001 7.067752e-001 7.578731e-001 9.786773e-001 7.675005e-001 5.701759e-001 5.688860e-001 7.228641e-001 4.790016e-001 5.926909e-001
<GCONST> 1.371435e+002
<TRANSP> 3
 0.000000e+000 1.000000e+000 0.000000e+000
 0.000000e+000 9.978549e-001 2.145122e-003
 0.000000e+000 0.000000e+000 0.000000e+000
<ENDHMM>
~h "blazek"
<BEGINHMM>
<NUMSTATES> 3
<STATE> 2
<NUMMIXES> 2
<MIXTURE> 1 5.945749e-001
<MEAN> 39
 -8.146287e+000 -1.012064e+000 2.253714e+000 -4.077575e+000 -8.123131e-001 -3.866472e+000 -2.107216e-001 -1.637554e+000 6.770768e-001 -4.121407e-002 1.216200e+000 -1.622458e+000 6.091854e+001 -6.930638e-002 1.037949e-001 9.362556e-002 9.550381e-002 2.685614e-001 3.493217e-002 3.150429e-001 1.415725e-001 1.484645e-001 1.657661e-001 7.259264e-002 2.449216e-001 -5.604921e-003 3.952054e-002 2.306006e-002 4.126493e-002 3.465039e-002 3.095912e-002 3.489356e-002 3.487235e-002 2.874611e-002 4.101879e-002 2.391274e-002 3.785368e-002 2.727272e-002 4.841463e-003
<VARIANCE> 39
 7.882824e+001 3.843107e+001 6.656580e+001 5.236851e+001 5.214357e+001 5.861334e+001 5.933141e+001 4.328642e+001 3.821878e+001 3.069657e+001 2.922797e+001 3.512653e+001 1.112929e+002 3.401125e+000 2.503932e+000 2.628161e+000 3.377595e+000 3.524825e+000 3.587812e+000 3.859036e+000 2.962611e+000 2.775808e+000 2.408894e+000 2.459116e+000 2.206651e+000 3.791333e+000 5.632308e-001 4.343902e-001 4.397836e-001 6.352479e-001 7.036962e-001 6.503184e-001 7.574943e-001 5.701343e-001 5.308228e-001 4.781600e-001 4.687722e-001 4.522075e-001 6.289995e-001
<GCONST> 1.289724e+002
<MIXTURE> 2 4.054244e-001
<MEAN> 39
 -7.296077e+000 -1.612876e+000 2.365690e+000 -4.439862e+000 -1.420382e+000 -3.542899e+000 -1.070684e+000 -1.831234e+000 6.671492e-001 -3.873442e-001 1.743880e+000 -2.327640e+000 6.138512e+001 9.060968e-002 -1.455425e-001 -1.371180e-001 -1.476242e-001 -3.767580e-001 -6.054951e-002 -4.481172e-001 -2.039223e-001 -2.255381e-001 -2.323230e-001 -1.102923e-001 -3.656858e-001 1.034680e-002 -5.723854e-002 -3.517159e-002 -5.878639e-002 -4.896003e-002 -4.497063e-002 -5.083688e-002 -5.135027e-002 -4.134657e-002 -6.113409e-002 -3.628464e-002 -5.527569e-002 -4.114371e-002 -8.029841e-003
<VARIANCE> 39
 7.580312e+001 3.834241e+001 6.829221e+001 5.285838e+001 5.271527e+001 5.698193e+001 5.771425e+001 4.226972e+001 4.045525e+001 3.111786e+001 3.024770e+001 3.907940e+001 1.206075e+002 3.966500e+000 2.462777e+000 2.812324e+000 3.518145e+000 4.236849e+000 3.439035e+000 4.441371e+000 3.110446e+000 2.892614e+000 2.445958e+000 2.459320e+000 2.536470e+000 3.555534e+000 4.959118e-001 4.159270e-001 4.143095e-001 6.051415e-001 7.483848e-001 6.249781e-001 7.553482e-001 5.670096e-001 5.301914e-001 4.598870e-001 4.602437e-001 4.579793e-001 5.904983e-001
<GCONST> 1.295228e+002
<TRANSP> 3
 0.000000e+000 1.000000e+000 0.000000e+000
 0.000000e+000 9.983968e-001 1.603234e-003
 0.000000e+000 0.000000e+000 0.000000e+000
<ENDHMM>
~h "frantisek_vlas"
<BEGINHMM>
<NUMSTATES> 3
<STATE> 2
<NUMMIXES> 2
<MIXTURE> 1 5.374567e-001
<MEAN> 39
 -9.578417e+000 -3.796834e-001 2.529884e+000 -3.420688e+000 -2.521725e+000 -1.193339e+000 -4.543379e+000 -7.649313e-002 -2.400584e+000 1.222001e+000 9.381390e-001 -1.873674e+000 5.693029e+001 9.936086e-003 6.310894e-002 8.347098e-002 1.261381e-001 1.569825e-001 9.058077e-002 1.718480e-001 1.167945e-001 2.201261e-001 1.453496e-001 1.649994e-001 2.117135e-001 1.050858e-003 2.100277e-002 3.781008e-002 3.430780e-002 3.520906e-002 1.910789e-002 3.364292e-002 3.062896e-002 2.861616e-003 3.703944e-002 3.528449e-002 4.469802e-002 3.065105e-002 -2.315248e-003
<VARIANCE> 39
 6.092479e+001 3.167435e+001 6.308509e+001 5.851144e+001 4.475151e+001 5.641323e+001 5.520124e+001 3.944255e+001 5.872629e+001 2.996736e+001 2.619248e+001 3.177324e+001 7.539986e+001 2.634618e+000 2.177420e+000 2.645674e+000 3.754262e+000 3.032814e+000 3.199705e+000 3.478197e+000 3.344889e+000 3.630284e+000 2.413275e+000 2.327902e+000 2.134012e+000 1.985159e+000 4.305825e-001 3.907771e-001 4.364812e-001 6.510624e-001 5.525851e-001 5.562112e-001 6.679426e-001 6.497619e-001 6.678910e-001 4.870384e-001 4.673613e-001 4.174948e-001 3.215967e-001
<GCONST> 1.257773e+002
<MIXTURE> 2 4.625421e-001
<MEAN> 39
 -8.497406e+000 -4.134222e-001 3.572676e+000 -4.212393e+000 -3.803105e+000 -1.704984e+000 -5.987802e+000 -7.338880e-001 -4.026999e+000 7.740411e-001 1.064378e+000 -3.214634e+000 5.873412e+001 -1.212729e-002 -7.420176e-002 -9.346332e-002 -1.404085e-001 -1.793985e-001 -1.038245e-001 -2.002587e-001 -1.378919e-001 -2.473644e-001 -1.657682e-001 -1.918539e-001 -2.425081e-001 -3.332088e-003 -2.478828e-002 -4.301863e-002 -3.920658e-002 -4.137618e-002 -2.314595e-002 -3.752838e-002 -3.263899e-002 -2.715749e-003 -4.164639e-002 -4.109833e-002 -5.098488e-002 -3.686139e-002 2.829826e-003
<VARIANCE> 39
 6.252755e+001 3.481189e+001 6.988734e+001 6.582258e+001 5.221828e+001 5.688040e+001 5.800328e+001 4.487320e+001 7.393774e+001 3.263419e+001 2.828620e+001 3.915278e+001 7.362572e+001 3.335034e+000 2.407904e+000 3.181138e+000 4.370161e+000 3.452821e+000 3.587281e+000 3.981421e+000 3.812045e+000 4.269979e+000 2.667279e+000 2.545504e+000 2.428640e+000 2.258590e+000 4.321661e-001 4.182990e-001 4.518923e-001 7.583178e-001 5.957964e-001 6.029952e-001 7.256821e-001 7.465487e-001 7.761970e-001 5.210922e-001 4.950759e-001 4.542323e-001 3.524618e-001
<GCONST> 1.299172e+002
<TRANSP> 3
 0.000000e+000 1.000000e+000 0.000000e+000
 0.000000e+000 9.979895e-001 2.010490e-003
 0.000000e+000 0.000000e+000 0.000000e+000
<ENDHMM>
~h "nozicka"
<BEGINHMM>
<NUMSTATES> 3
<STATE> 2
<NUMMIXES> 2
<MIXTURE> 1 4.422376e-001
<MEAN> 39
 -1.270924e+001 -1.009103e+001 1.091756e+001 -1.174317e+001 -3.280300e+000 1.041387e+000 -5.316955e+000 -6.991372e-002 6.558623e-001 -1.499368e+000 4.391199e+000 -2.516860e+000 6.142679e+001 9.921870e-005 2.116037e-001 1.715686e-001 1.393192e-001 3.072323e-001 7.047106e-002 2.567391e-001 1.157684e-001 1.879974e-001 2.175711e-001 1.245598e-001 1.531649e-001 2.990623e-002 1.328663e-002 3.472956e-002 5.031216e-002 4.050622e-002 2.679103e-002 2.736768e-002 7.001518e-002 2.462889e-002 4.808295e-002 1.457982e-002 3.791586e-002 3.075508e-002 2.446420e-002
<VARIANCE> 39
 1.396233e+002 1.368489e+002 2.174772e+002 1.669957e+002 1.465804e+002 1.492558e+002 1.158051e+002 9.303378e+001 8.825525e+001 6.468355e+001 5.153863e+001 4.474357e+001 4.318525e+002 3.941602e+000 4.984813e+000 5.385636e+000 6.171571e+000 7.112801e+000 6.562515e+000 5.753417e+000 4.593558e+000 5.413208e+000 3.739668e+000 3.497046e+000 2.600115e+000 6.651871e+000 5.884339e-001 7.755705e-001 8.717522e-001 1.040053e+000 1.221127e+000 1.109948e+000 9.765728e-001 7.892780e-001 9.450783e-001 7.007703e-001 6.368195e-001 5.021712e-001 8.837272e-001
<GCONST> 1.519695e+002
<MIXTURE> 2 5.577619e-001
<MEAN> 39
 -1.573482e+001 -8.143621e+000 5.978757e+000 -8.625031e+000 -4.765370e+000 1.728852e+000 -5.687726e+000 -2.469005e-001 1.428624e+000 -2.411909e+000 3.947302e+000 -2.657775e+000 5.454538e+001 4.910795e-006 -1.731757e-001 -1.400403e-001 -1.119095e-001 -2.323307e-001 -5.289399e-002 -2.112039e-001 -9.261739e-002 -1.476576e-001 -1.668602e-001 -9.078659e-002 -1.228190e-001 -2.003809e-002 -1.179955e-002 -2.561336e-002 -3.476410e-002 -2.959720e-002 -1.842538e-002 -2.299488e-002 -5.838126e-002 -2.081760e-002 -4.342912e-002 -1.408124e-002 -2.923095e-002 -2.349046e-002 -2.069720e-002
<VARIANCE> 39
 1.428695e+002 1.333819e+002 2.472386e+002 1.725302e+002 1.136810e+002 1.085396e+002 8.599998e+001 6.844824e+001 7.032928e+001 4.822199e+001 4.566852e+001 3.692078e+001 5.991841e+002 3.396330e+000 3.759809e+000 3.943810e+000 4.903971e+000 5.737306e+000 5.410872e+000 4.990893e+000 3.788506e+000 4.585534e+000 3.271632e+000 2.937420e+000 2.330274e+000 4.553815e+000 4.283371e-001 5.936759e-001 5.917662e-001 8.006828e-001 9.263515e-001 8.166562e-001 8.140954e-001 6.642069e-001 7.647633e-001 5.884740e-001 5.518817e-001 4.253402e-001 6.427604e-001
<GCONST> 1.445811e+002
<TRANSP> 3
 0.000000e+000 1.000000e+000 0.000000e+000
 0.000000e+000 9.974290e-001 2.570981e-003
 0.000000e+000 0.000000e+000 0.000000e+000
<ENDHMM>
~h "motejlek"
<BEGINHMM>
<NUMSTATES> 3
<STATE> 2
<NUMMIXES> 2
<MIXTURE> 1 6.432207e-001
<MEAN> 39
 -1.362865e+001 2.729008e+000 -5.546128e-001 -2.398432e+000 3.465487e+000 1.907188e+000 -2.612566e+000 4.991053e+000 6.206700e-001 4.838234e+000 2.425777e+000 2.321477e+000 4.862499e+001 -2.822048e-001 7.146992e-002 -1.698251e-002 2.638631e-001 1.408368e-001 1.128773e-001 3.224212e-001 1.790760e-001 3.014338e-001 5.628709e-002 2.192390e-001 2.240289e-001 -2.468834e-001 -1.861948e-002 1.642453e-003 2.477476e-002 2.270280e-002 3.282108e-002 1.971294e-002 3.909000e-002 1.348678e-002 4.242496e-002 -1.511028e-002 2.227096e-002 2.702453e-002 -1.807698e-002
<VARIANCE> 39
 6.534491e+001 2.585664e+001 3.649168e+001 1.172742e+002 3.744092e+001 7.476375e+001 8.489150e+001 4.682978e+001 6.033618e+001 2.906843e+001 3.540044e+001 3.488516e+001 1.161184e+002 2.409727e+000 1.630593e+000 1.898154e+000 3.718311e+000 2.487187e+000 2.398347e+000 2.782861e+000 2.820406e+000 3.099284e+000 2.392013e+000 2.264252e+000 2.018367e+000 2.130420e+000 4.288786e-001 3.033678e-001 3.251761e-001 7.351398e-001 4.955586e-001 4.481461e-001 5.806226e-001 5.621169e-001 6.316785e-001 4.748610e-001 4.642964e-001 4.034735e-001 4.180653e-001
<GCONST> 1.246411e+002
<MIXTURE> 2 3.567801e-001
<MEAN> 39
 -9.378735e+000 7.488654e-001 4.582913e-001 -1.048346e+001 3.495419e+000 -3.163942e+000 -9.400205e+000 1.882311e+000 -4.210547e+000 2.860302e+000 -7.553550e-001 -1.408032e+000 5.747413e+001 5.094613e-001 -1.277749e-001 2.945979e-002 -4.764103e-001 -2.516640e-001 -2.042004e-001 -5.839141e-001 -3.274216e-001 -5.459349e-001 -1.038137e-001 -3.943486e-001 -4.030141e-001 4.451970e-001 3.370015e-002 -2.151247e-003 -4.450402e-002 -4.149691e-002 -5.835536e-002 -3.584047e-002 -7.325299e-002 -2.486333e-002 -7.442591e-002 2.726346e-002 -3.883166e-002 -4.773872e-002 3.265005e-002
<VARIANCE> 39
 8.240585e+001 4.293114e+001 6.289346e+001 8.950799e+001 4.861008e+001 6.620201e+001 8.153448e+001 6.517118e+001 6.683200e+001 4.133525e+001 4.375160e+001 4.534563e+001 6.532804e+001 5.418479e+000 3.048780e+000 3.448946e+000 6.604826e+000 4.215266e+000 3.872898e+000 5.649592e+000 5.098232e+000 5.545647e+000 3.630689e+000 3.838028e+000 3.423364e+000 4.011842e+000 7.161781e-001 4.871927e-001 5.260993e-001 1.139952e+000 7.317793e-001 6.755433e-001 9.407899e-001 8.786251e-001 9.620650e-001 6.938372e-001 6.977713e-001 6.238460e-001 6.629221e-001
<GCONST> 1.397797e+002
<TRANSP> 3
 0.000000e+000 1.000000e+000 0.000000e+000
 0.000000e+000 9.984506e-001 1.549343e-003
 0.000000e+000 0.000000e+000 0.000000e+000
<ENDHMM>
~h "martin_paroubek"
<BEGINHMM>
<NUMSTATES> 3
<STATE> 2
<NUMMIXES> 2
<MIXTURE> 1 4.960810e-001
<MEAN> 39
 -1.586656e+001 1.781709e+000 1.065848e+000 -2.203433e+000 -1.675003e+000 -2.268560e+000 5.897058e-001 -4.136503e+000 2.620905e+000 -1.121098e+000 -5.446270e-001 -7.967572e-001 5.159016e+001 -1.735820e-001 1.232298e-001 7.262752e-003 1.472235e-001 2.978918e-001 2.503819e-001 1.676141e-001 3.550753e-001 1.036652e-001 1.998148e-001 2.003680e-001 1.886580e-001 -1.744516e-001 -2.475638e-002 1.075248e-002 1.908644e-002 1.877675e-002 2.601616e-002 4.427700e-002 3.943789e-002 3.828798e-002 2.959413e-002 2.199944e-002 4.624421e-002 3.881210e-002 -6.573458e-003
<VARIANCE> 39
 6.600372e+001 2.980246e+001 5.066642e+001 4.168771e+001 4.885061e+001 4.796601e+001 3.485674e+001 6.242962e+001 4.301618e+001 3.715050e+001 2.651065e+001 2.186341e+001 7.832363e+001 2.973136e+000 1.826613e+000 2.293800e+000 2.877591e+000 3.411445e+000 2.936382e+000 2.606856e+000 3.989985e+000 3.254724e+000 2.486490e+000 2.157787e+000 1.915423e+000 3.056182e+000 4.584774e-001 3.188209e-001 3.673795e-001 5.018889e-001 6.208310e-001 5.256932e-001 4.981267e-001 7.147587e-001 6.064560e-001 4.735373e-001 4.140302e-001 3.812437e-001 4.435942e-001
<GCONST> 1.236412e+002
<MIXTURE> 2 5.039186e-001
<MEAN> 39
 -1.544123e+001 1.683526e+000 1.952833e+000 -2.837303e+000 -3.092457e+000 -3.058078e+000 4.996353e-001 -6.006001e+000 2.289374e+000 -2.373679e+000 -8.748502e-001 -1.320603e+000 5.345763e+001 1.689695e-001 -1.200220e-001 -9.835137e-003 -1.462844e-001 -2.941492e-001 -2.499282e-001 -1.633688e-001 -3.555791e-001 -1.046614e-001 -1.958961e-001 -1.992640e-001 -1.892563e-001 1.717579e-001 2.624102e-002 -9.862665e-003 -2.141471e-002 -1.855210e-002 -2.637857e-002 -4.241363e-002 -3.724963e-002 -3.843657e-002 -3.044688e-002 -2.011053e-002 -4.270959e-002 -3.712116e-002 6.296458e-003
<VARIANCE> 39
 6.650385e+001 3.161540e+001 5.626830e+001 4.693775e+001 6.012520e+001 5.193996e+001 3.710173e+001 7.791066e+001 5.041048e+001 3.873513e+001 2.889724e+001 2.363069e+001 8.084090e+001 3.425954e+000 1.775661e+000 2.467543e+000 3.032332e+000 3.691634e+000 3.020668e+000 2.974677e+000 4.393790e+000 3.851798e+000 2.452978e+000 2.278994e+000 1.981622e+000 2.519974e+000 4.387690e-001 3.045837e-001 3.849077e-001 5.016692e-001 6.506860e-001 5.384073e-001 5.370902e-001 7.551069e-001 6.820470e-001 4.549540e-001 4.293863e-001 3.836413e-001 4.130657e-001
<GCONST> 1.257299e+002
<TRANSP> 3
 0.000000e+000 1.000000e+000 0.000000e+000
 0.000000e+000 9.979429e-001 2.057124e-003
 0.000000e+000 0.000000e+000 0.000000e+000
<ENDHMM>
~h "jan"
<BEGINHMM>
<NUMSTATES> 3
<STATE> 2
<NUMMIXES> 2
<MIXTURE> 1 3.029832e-001
<MEAN> 39
 -9.546422e+000 -6.389782e+000 6.927763e-001 -2.962441e+000 -1.172661e+001 2.661513e+000 1.695747e+000 -1.286685e+000 -1.170874e+000 2.874302e+000 -7.513195e+000 -6.341885e+000 5.001407e+001 -5.376062e-002 7.789911e-002 -1.473840e-002 6.996301e-002 1.979469e-001 1.639892e-001 3.091145e-001 2.313996e-001 1.908424e-001 1.265496e-001 1.395767e-001 1.884459e-001 -6.487713e-002 -1.840469e-002 3.269565e-003 1.657267e-002 -2.711819e-003 4.042200e-002 5.509806e-002 6.089501e-002 3.697364e-002 3.575272e-002 2.808967e-002 3.541874e-002 3.922500e-002 -3.556688e-003
<VARIANCE> 39
 2.697918e+001 2.447642e+001 7.255067e+001 3.002096e+001 4.691208e+001 3.854996e+001 8.289674e+001 6.285761e+001 2.934148e+001 2.992810e+001 2.128674e+001 1.940068e+001 3.250737e+001 6.981480e-001 1.156989e+000 1.742244e+000 1.627326e+000 2.007358e+000 1.857777e+000 2.841879e+000 2.336709e+000 1.794255e+000 1.936837e+000 1.644192e+000 1.387976e+000 6.535670e-001 1.110608e-001 1.820080e-001 2.657877e-001 2.811779e-001 3.342948e-001 3.294914e-001 4.830758e-001 4.038138e-001 3.365095e-001 3.664736e-001 3.203040e-001 2.635539e-001 9.205020e-002
<GCONST> 1.065951e+002
<MIXTURE> 2 6.970180e-001
<MEAN> 39
 -8.371655e+000 -7.283450e+000 2.965119e+000 -3.937772e+000 -1.363533e+001 1.877828e+000 -9.612980e-001 -3.478602e+000 -2.063173e+000 3.429801e+000 -7.230674e+000 -6.988231e+000 5.193594e+001 2.229053e-002 -3.763336e-002 4.373212e-003 -3.120520e-002 -8.405785e-002 -7.227097e-002 -1.343023e-001 -1.037751e-001 -8.467771e-002 -5.650530e-002 -6.528528e-002 -7.723308e-002 2.831593e-002 8.331290e-003 -1.112694e-003 -7.351341e-003 1.664414e-003 -1.616072e-002 -2.316658e-002 -2.761896e-002 -1.579714e-002 -1.679858e-002 -1.443366e-002 -1.678045e-002 -1.741406e-002 1.865343e-003
<VARIANCE> 39
 2.625317e+001 3.404162e+001 7.801054e+001 3.498443e+001 5.359402e+001 4.350821e+001 8.494168e+001 6.547056e+001 3.512652e+001 3.374416e+001 2.404551e+001 2.336286e+001 3.391801e+001 9.477001e-001 1.490784e+000 2.186967e+000 1.937422e+000 2.397750e+000 2.118764e+000 3.299206e+000 2.766247e+000 2.055446e+000 2.107114e+000 1.781843e+000 1.612834e+000 8.721302e-001 1.293996e-001 2.189327e-001 3.096714e-001 3.201604e-001 3.972223e-001 3.594180e-001 5.366977e-001 4.596506e-001 3.566599e-001 3.777709e-001 3.457580e-001 2.945499e-001 1.126666e-001
<GCONST> 1.120125e+002
<TRANSP> 3
 0.000000e+000 1.000000e+000 0.000000e+000
 0.000000e+000 9.974005e-001 2.599457e-003
 0.000000e+000 0.000000e+000 0.000000e+000
<ENDHMM>
~h "david"
<BEGINHMM>
<NUMSTATES> 3
<STATE> 2
<NUMMIXES> 2
<MIXTURE> 1 5.799649e-001
<MEAN> 39
 -1.146239e+001 1.613337e+000 9.189643e-001 -3.843879e+000 -1.637171e+000 -2.586804e+000 -1.880429e+000 -8.419666e-001 -3.697626e+000 5.153990e-001 -5.688576e-001 -2.631219e+000 7.171449e+001 -1.053416e-001 7.155137e-002 3.189875e-002 1.226040e-001 1.461128e-001 6.658114e-002 1.893829e-001 9.178543e-002 1.946142e-001 7.449475e-002 1.056177e-001 1.772307e-001 -3.205234e-002 -9.258482e-003 2.163295e-002 1.880316e-002 3.107014e-002 2.620026e-002 1.499746e-002 4.069317e-002 1.234664e-003 3.357789e-002 1.042622e-002 2.484695e-002 3.115317e-002 -2.337803e-003
<VARIANCE> 39
 7.068459e+001 2.795614e+001 5.567685e+001 4.978468e+001 4.151742e+001 3.078498e+001 4.837382e+001 4.180125e+001 6.365096e+001 2.516616e+001 3.152184e+001 3.068605e+001 7.918960e+001 2.824044e+000 1.757010e+000 2.110529e+000 3.227949e+000 2.541776e+000 2.416466e+000 3.326696e+000 3.352226e+000 3.679076e+000 2.269511e+000 2.342739e+000 1.987994e+000 2.149541e+000 4.310154e-001 2.966243e-001 3.400536e-001 5.517835e-001 4.509970e-001 4.421068e-001 6.034235e-001 6.435145e-001 6.760496e-001 4.442390e-001 4.456671e-001 3.761688e-001 3.780850e-001
<GCONST> 1.225069e+002
<MIXTURE> 2 4.200334e-001
<MEAN> 39
 -1.070995e+001 1.693407e+000 2.050222e+000 -4.294626e+000 -2.437737e+000 -2.791103e+000 -2.797979e+000 -1.313238e+000 -4.975295e+000 3.745866e-001 -4.550613e-001 -3.592205e+000 7.340631e+001 1.437012e-001 -1.015029e-001 -4.302285e-002 -1.636399e-001 -2.001687e-001 -8.477667e-002 -2.568080e-001 -1.273897e-001 -2.745748e-001 -1.174725e-001 -1.518993e-001 -2.438365e-001 4.320305e-002 1.312820e-002 -3.051167e-002 -2.607254e-002 -4.289100e-002 -3.937475e-002 -2.353106e-002 -5.653432e-002 1.099074e-003 -4.825550e-002 -1.730575e-002 -3.616095e-002 -4.321072e-002 2.604729e-003
<VARIANCE> 39
 7.170102e+001 3.115080e+001 6.621964e+001 5.321450e+001 4.735807e+001 3.290634e+001 5.435556e+001 4.737743e+001 6.979853e+001 2.649842e+001 3.241351e+001 3.299012e+001 7.300648e+001 3.536186e+000 1.989350e+000 2.810851e+000 3.533123e+000 2.971450e+000 2.597833e+000 3.789376e+000 3.849392e+000 4.686552e+000 2.475505e+000 2.547740e+000 2.242465e+000 2.627162e+000 4.346358e-001 3.331403e-001 3.772409e-001 6.092821e-001 4.997465e-001 4.875588e-001 6.566839e-001 7.317945e-001 7.779267e-001 4.718176e-001 4.787644e-001 4.023748e-001 4.011379e-001
<GCONST> 1.265689e+002
<TRANSP> 3
 0.000000e+000 1.000000e+000 0.000000e+000
 0.000000e+000 9.972858e-001 2.714185e-003
 0.000000e+000 0.000000e+000 0.000000e+000
<ENDHMM>
~h "mak"
<BEGINHMM>
<NUMSTATES> 3
<STATE> 2
<NUMMIXES> 2
<MIXTURE> 1 4.339305e-001
<MEAN> 39
 -5.824977e+000 -4.947144e+000 4.827259e+000 -6.116657e+000 -1.115519e+000 -3.948019e+000 -3.134426e+000 -3.184453e+000 -3.348346e+000 -1.849775e+000 -9.383047e-001 -1.687647e+000 5.916809e+001 -7.971352e-002 1.854992e-001 1.458497e-001 1.092281e-001 2.249949e-001 1.483992e-001 2.479499e-001 1.913492e-001 1.979984e-001 2.365015e-001 8.889643e-002 2.015088e-001 -1.480694e-003 3.348240e-002 1.052547e-002 6.494890e-002 4.288649e-002 1.711075e-002 2.900430e-002 4.055760e-002 2.299785e-002 4.038415e-002 2.539520e-002 4.825472e-002 2.613746e-002 2.204321e-002
<VARIANCE> 39
 1.038319e+002 6.780447e+001 9.698380e+001 6.812244e+001 6.554366e+001 5.992115e+001 6.894171e+001 6.969745e+001 5.608350e+001 5.629551e+001 3.483931e+001 4.399973e+001 1.607253e+002 3.690890e+000 3.276803e+000 3.404470e+000 4.055335e+000 3.179778e+000 3.611737e+000 3.440086e+000 3.981763e+000 3.579031e+000 3.247571e+000 2.513701e+000 2.294490e+000 5.254969e+000 5.141920e-001 5.402942e-001 5.128991e-001 6.938481e-001 5.847887e-001 6.480012e-001 6.185173e-001 6.940796e-001 6.410841e-001 5.825652e-001 4.763581e-001 4.233326e-001 6.971920e-001
<GCONST> 1.355215e+002
<MIXTURE> 2 5.660702e-001
<MEAN> 39
 -4.439665e+000 -6.725465e+000 5.425466e+000 -6.982232e+000 -2.508706e+000 -4.189403e+000 -4.322041e+000 -3.936244e+000 -3.574239e+000 -2.896236e+000 -3.873201e-001 -3.019668e+000 6.225621e+001 4.967986e-002 -1.251853e-001 -1.002979e-001 -9.128302e-002 -1.471903e-001 -1.140792e-001 -1.908080e-001 -1.370574e-001 -1.630257e-001 -1.692743e-001 -7.990149e-002 -1.464493e-001 8.850320e-003 -2.479079e-002 -6.664942e-003 -5.051673e-002 -3.183629e-002 -1.273586e-002 -2.088359e-002 -2.950498e-002 -1.713056e-002 -2.931490e-002 -2.042210e-002 -3.606962e-002 -2.014280e-002 -1.950806e-002
<VARIANCE> 39
 9.768390e+001 7.094669e+001 1.028066e+002 6.586091e+001 6.662903e+001 6.207806e+001 7.636093e+001 7.409028e+001 5.912124e+001 6.001064e+001 3.932360e+001 4.649694e+001 1.476583e+002 3.796683e+000 3.446012e+000 3.296429e+000 4.214634e+000 3.482247e+000 3.783325e+000 3.725816e+000 4.174795e+000 3.588255e+000 3.341559e+000 2.671470e+000 2.393392e+000 4.774461e+000 4.756787e-001 5.481216e-001 4.836727e-001 6.985345e-001 5.972904e-001 6.536374e-001 6.252961e-001 7.283923e-001 6.373450e-001 5.853625e-001 4.907231e-001 4.204047e-001 6.594166e-001
<GCONST> 1.362808e+002
<TRANSP> 3
 0.000000e+000 1.000000e+000 0.000000e+000
 0.000000e+000 9.985407e-001 1.459298e-003
 0.000000e+000 0.000000e+000 0.000000e+000
<ENDHMM>
~h "mar"
<BEGINHMM>
<NUMSTATES> 3
<STATE> 2
<NUMMIXES> 2
<MIXTURE> 1 7.601738e-001
<MEAN> 39
 -6.205472e+000 2.096384e+000 4.731856e+000 8.718103e-001 -4.726402e-001 -8.712355e-001 8.926009e-002 -1.546425e+000 2.273808e+000 -1.512410e+000 5.566372e+000 -1.993215e+000 7.048222e+001 -1.307771e-001 1.456617e-001 2.419987e-002 1.267534e-001 1.611034e-001 3.710013e-002 1.164297e-001 7.648824e-002 4.457098e-002 1.485301e-001 5.371051e-002 2.034305e-001 -2.500927e-001 -1.280039e-002 9.658388e-003 1.704266e-002 1.720987e-002 1.607933e-002 1.302853e-002 1.971517e-002 1.081474e-002 4.860323e-003 7.895536e-003 3.695692e-003 2.279885e-002 -2.098242e-002
<VARIANCE> 39
 8.474846e+001 4.874399e+001 6.709377e+001 5.885410e+001 8.138242e+001 5.831644e+001 6.584189e+001 5.264054e+001 4.308992e+001 5.050368e+001 3.221315e+001 4.929032e+001 1.242693e+002 4.120682e+000 3.002502e+000 2.821845e+000 4.056503e+000 4.321535e+000 4.111840e+000 3.747710e+000 3.527544e+000 3.011712e+000 3.215619e+000 2.968154e+000 3.150361e+000 4.857908e+000 6.318448e-001 5.293003e-001 4.588287e-001 7.350990e-001 7.646998e-001 7.746186e-001 6.874041e-001 6.568444e-001 5.819111e-001 6.072639e-001 6.083692e-001 5.934727e-001 8.841075e-001
<GCONST> 1.355942e+002
<MIXTURE> 2 2.398236e-001
<MEAN> 39
 -4.228816e+000 1.002981e+000 4.842133e+000 -4.806572e-003 -3.136391e+000 -1.568435e+000 -2.073792e+000 -3.487968e+000 1.632637e+000 -4.128070e+000 4.969246e+000 -4.677867e+000 7.499084e+001 4.182529e-001 -4.604534e-001 -7.694205e-002 -3.968865e-001 -5.102350e-001 -1.248697e-001 -3.692867e-001 -2.433939e-001 -1.425773e-001 -4.737585e-001 -1.715946e-001 -6.456154e-001 7.913514e-001 4.048100e-002 -2.910396e-002 -5.483225e-002 -5.431749e-002 -4.997173e-002 -4.067884e-002 -6.381185e-002 -3.662092e-002 -1.579480e-002 -2.476652e-002 -1.221960e-002 -7.396055e-002 6.660516e-002
<VARIANCE> 39
 7.440482e+001 5.869122e+001 7.851968e+001 6.565829e+001 7.582436e+001 6.478905e+001 6.365701e+001 5.472341e+001 4.796690e+001 5.849530e+001 3.600341e+001 4.798779e+001 7.677069e+001 5.156681e+000 3.863518e+000 3.759411e+000 5.570882e+000 5.404268e+000 5.684682e+000 4.525620e+000 4.379027e+000 3.517443e+000 3.988176e+000 3.683796e+000 3.796793e+000 6.152200e+000 6.703300e-001 6.256561e-001 5.354664e-001 9.487678e-001 9.283684e-001 1.032225e+000 8.166423e-001 8.066422e-001 6.232659e-001 6.974977e-001 6.983413e-001 6.909479e-001 9.684482e-001
<GCONST> 1.409382e+002
<TRANSP> 3
 0.000000e+000 1.000000e+000 0.000000e+000
 0.000000e+000 9.984350e-001 1.565052e-003
 0.000000e+000 0.000000e+000 0.000000e+000
<ENDHMM>
~h "mpch"
<BEGINHMM>
<NUMSTATES> 3
<STATE> 2
<NUMMIXES> 2
<MIXTURE> 1 4.805005e-001
<MEAN> 39
 -8.714330e+000 -5.131135e+000 2.560251e+000 -7.313084e+000 -3.670779e+000 -4.160395e+000 -1.701784e+000 1.427301e+000 5.585021e-001 -1.071088e-001 4.953662e-001 -1.431918e+000 6.516030e+001 -4.316718e-001 3.643649e-001 -3.501741e-003 4.307317e-001 5.114935e-001 2.429246e-001 4.910779e-001 1.552788e-001 5.562938e-001 1.647514e-001 3.591449e-001 3.085066e-001 -4.264403e-001 -1.585958e-002 1.360417e-002 1.826478e-002 4.129840e-002 4.061873e-002 3.286367e-002 5.103523e-002 1.740354e-002 5.370380e-002 -2.902137e-004 4.420120e-002 4.102473e-002 2.475455e-003
<VARIANCE> 39
 8.769831e+001 5.271313e+001 5.670107e+001 6.700866e+001 7.138342e+001 4.306511e+001 6.026184e+001 3.693378e+001 7.469674e+001 3.225717e+001 3.989837e+001 2.854787e+001 1.421178e+002 3.274864e+000 3.390413e+000 2.425597e+000 3.645793e+000 3.623164e+000 2.721854e+000 3.534484e+000 2.943270e+000 4.495919e+000 2.587094e+000 2.795379e+000 2.033500e+000 5.391726e+000 5.198780e-001 5.998865e-001 4.080225e-001 6.529577e-001 6.606296e-001 5.283188e-001 6.734343e-001 5.659524e-001 8.271242e-001 5.110843e-001 5.226396e-001 4.094997e-001 8.566122e-001
<GCONST> 1.319103e+002
<MIXTURE> 2 5.194987e-001
<MEAN> 39
 -5.372104e+000 -7.816904e+000 2.984360e+000 -9.913445e+000 -7.375976e+000 -5.071350e+000 -4.235513e+000 7.346549e-001 -2.419261e+000 -1.332276e+000 -5.428821e-001 -2.968522e+000 6.977549e+001 3.981786e-001 -3.197443e-001 -4.890756e-003 -3.839872e-001 -4.684414e-001 -2.108849e-001 -4.418777e-001 -1.500148e-001 -5.161461e-001 -1.516174e-001 -3.284913e-001 -2.870703e-001 3.687569e-001 1.433605e-002 -1.299098e-002 -1.651791e-002 -3.686401e-002 -3.758871e-002 -2.966427e-002 -4.480027e-002 -1.450604e-002 -4.831830e-002 2.411507e-004 -4.225566e-002 -3.861971e-002 -2.469099e-003
<VARIANCE> 39
 8.502087e+001 6.116571e+001 6.800893e+001 6.991999e+001 8.449239e+001 4.649180e+001 6.749041e+001 4.243631e+001 9.155417e+001 3.664071e+001 4.349179e+001 2.925865e+001 1.073899e+002 4.078871e+000 3.487955e+000 3.096726e+000 4.156181e+000 4.520999e+000 3.141233e+000 4.459858e+000 3.492785e+000 5.320731e+000 2.859928e+000 2.915236e+000 2.137898e+000 4.424484e+000 5.442630e-001 5.912789e-001 4.779351e-001 6.998642e-001 7.535388e-001 5.657418e-001 7.622012e-001 6.347349e-001 8.947043e-001 5.320478e-001 5.136015e-001 4.034045e-001 6.849669e-001
<GCONST> 1.350261e+002
<TRANSP> 3
 0.000000e+000 1.000000e+000 0.000000e+000
 0.000000e+000 9.984455e-001 1.554474e-003
 0.000000e+000 0.000000e+000 0.000000e+000
<ENDHMM>
~h "mfd"
<BEGINHMM>
<NUMSTATES> 3
<STATE> 2
<NUMMIXES> 2
<MIXTURE> 1 6.039109e-001
<MEAN> 39
 -7.728970e+000 -4.447700e-001 1.389142e+000 -4.515826e+000 -3.104174e+000 -5.804087e+000 2.664820e+000 -2.069514e+000 6.126258e+000 -1.187508e+000 2.863505e+000 -3.786087e-001 6.370856e+001 -1.410169e-001 3.315671e-002 9.758411e-002 1.768731e-001 2.538647e-001 2.411777e-001 6.271295e-002 2.470396e-001 1.454245e-001 2.163659e-001 1.801614e-001 2.286455e-001 -1.691150e-001 -2.928723e-003 1.494259e-002 3.076639e-002 1.306692e-002 2.915393e-002 4.553884e-002 2.520008e-002 3.192118e-002 2.010047e-002 2.054032e-002 3.542364e-002 3.665261e-002 -2.667677e-003
<VARIANCE> 39
 6.599396e+001 4.381681e+001 5.306809e+001 5.859952e+001 7.701440e+001 7.608048e+001 5.156791e+001 6.342678e+001 4.030362e+001 4.320925e+001 3.007895e+001 3.461868e+001 1.661590e+002 2.696946e+000 2.524348e+000 2.497471e+000 2.992432e+000 3.567284e+000 3.510054e+000 3.282080e+000 3.887434e+000 3.263713e+000 3.236009e+000 2.689299e+000 2.391468e+000 5.674692e+000 4.371145e-001 4.647479e-001 4.341365e-001 5.338926e-001 6.473387e-001 6.562634e-001 6.251882e-001 7.289639e-001 6.461934e-001 6.109417e-001 5.488386e-001 4.640848e-001 8.866960e-001
<GCONST> 1.318238e+002
<MIXTURE> 2 3.960891e-001
<MEAN> 39
 -6.094003e+000 -1.107384e+000 1.476284e+000 -6.784069e+000 -6.157996e+000 -8.425044e+000 1.062972e+000 -4.236670e+000 5.463474e+000 -2.664504e+000 2.185924e+000 -1.915151e+000 6.894315e+001 2.076313e-001 -4.751347e-002 -1.513411e-001 -2.643746e-001 -3.763208e-001 -3.514989e-001 -9.622313e-002 -3.840184e-001 -2.317432e-001 -3.261518e-001 -2.734670e-001 -3.522496e-001 2.373484e-001 4.085880e-003 -2.292173e-002 -4.782273e-002 -2.145546e-002 -4.633965e-002 -7.037269e-002 -3.779389e-002 -4.923508e-002 -3.178935e-002 -3.063535e-002 -5.353816e-002 -5.552104e-002 4.964944e-003
<VARIANCE> 39
 7.037868e+001 4.791462e+001 6.539600e+001 5.605544e+001 7.437444e+001 7.412877e+001 5.414597e+001 6.399283e+001 4.948816e+001 4.866520e+001 3.336243e+001 3.793444e+001 1.428601e+002 3.700540e+000 3.013815e+000 3.199796e+000 3.261053e+000 3.997424e+000 4.283126e+000 4.012853e+000 4.450384e+000 3.909822e+000 3.410916e+000 2.948845e+000 2.696733e+000 5.275612e+000 4.730169e-001 5.280858e-001 5.094388e-001 5.828683e-001 7.394940e-001 7.541820e-001 7.218978e-001 7.949085e-001 7.353866e-001 6.353172e-001 5.925409e-001 5.008981e-001 9.312605e-001
<GCONST> 1.356837e+002
<TRANSP> 3
 0.000000e+000 1.000000e+000 0.000000e+000
 0.000000e+000 9.988244e-001 1.175569e-003
 0.000000e+000 0.000000e+000 0.000000e+000
<ENDHMM>
~h "mfl"
<BEGINHMM>
<NUMSTATES> 3
<STATE> 2
<NUMMIXES> 2
<MIXTURE> 1 4.350867e-001
<MEAN> 39
 -7.255904e+000 -2.515400e+000 1.454233e+000 -6.502986e+000 -1.750532e+000 -7.464852e+000 -1.238894e+000 -1.944636e+000 -2.987704e+000 1.915482e+000 -2.387292e+000 -2.098452e+000 5.944085e+001 -2.395465e-001 2.919590e-001 1.798572e-001 2.373047e-001 3.554929e-001 3.457202e-001 2.202868e-001 2.661003e-001 2.298340e-001 1.719761e-001 1.595770e-001 3.393261e-001 -1.827265e-001 -3.141174e-002 2.959617e-002 4.886710e-002 2.460326e-002 3.991790e-002 4.187816e-002 5.098664e-002 5.491075e-002 5.915743e-002 3.636613e-002 4.586055e-002 5.150717e-002 -1.385889e-002
<VARIANCE> 39
 8.278477e+001 5.751040e+001 7.381330e+001 6.049236e+001 6.072527e+001 7.835165e+001 4.684282e+001 6.558486e+001 5.507226e+001 4.040474e+001 3.499875e+001 4.404709e+001 2.579329e+002 3.848949e+000 2.976508e+000 3.006047e+000 3.539069e+000 3.784714e+000 3.879482e+000 3.100818e+000 3.535852e+000 3.635410e+000 2.793385e+000 2.620126e+000 2.787878e+000 5.394696e+000 6.266252e-001 4.888460e-001 4.924574e-001 6.189741e-001 6.964008e-001 6.809102e-001 6.016262e-001 6.687165e-001 6.614355e-001 5.499772e-001 5.004748e-001 5.311457e-001 8.212076e-001
<GCONST> 1.349633e+002
<MIXTURE> 2 5.649137e-001
<MEAN> 39
 -5.610432e+000 -3.735365e+000 1.918661e+000 -7.875553e+000 -3.354692e+000 -9.602283e+000 -2.295510e+000 -3.109784e+000 -3.777532e+000 1.764414e+000 -2.676725e+000 -3.310358e+000 6.398062e+001 1.777152e-001 -2.245454e-001 -1.348654e-001 -1.898850e-001 -2.704922e-001 -2.741514e-001 -1.716368e-001 -2.056851e-001 -1.770044e-001 -1.254179e-001 -1.272410e-001 -2.555518e-001 1.430446e-001 2.528080e-002 -2.278949e-002 -4.010229e-002 -1.726463e-002 -3.080070e-002 -3.170177e-002 -3.744918e-002 -4.293713e-002 -4.369951e-002 -2.812226e-002 -3.467102e-002 -4.206884e-002 9.180067e-003
<VARIANCE> 39
 8.233804e+001 6.163026e+001 8.410593e+001 6.310747e+001 6.679169e+001 8.264606e+001 4.986190e+001 6.796686e+001 6.294016e+001 4.483002e+001 3.682175e+001 4.627558e+001 2.219905e+002 3.882523e+000 2.986496e+000 3.254550e+000 3.669074e+000 4.096169e+000 4.246876e+000 3.600697e+000 4.091395e+000 4.004547e+000 3.059666e+000 2.728574e+000 3.037354e+000 5.028424e+000 5.768811e-001 5.208549e-001 5.189750e-001 6.745687e-001 7.601929e-001 7.746146e-001 6.671730e-001 7.580433e-001 7.341757e-001 5.625548e-001 5.345961e-001 5.454829e-001 9.099470e-001
<GCONST> 1.373571e+002
<TRANSP> 3
 0.000000e+000 1.000000e+000 0.000000e+000
 0.000000e+000 9.983687e-001 1.631321e-003
 0.000000e+000 0.000000e+000 0.000000e+000
<ENDHMM>
~h "mjb"
<BEGINHMM>
<NUMSTATES> 3
<STATE> 2
<NUMMIXES> 2
<MIXTURE> 1 6.189226e-001
<MEAN> 39
 -6.568779e+000 3.383703e-001 2.391634e+000 1.193997e+000 -2.915009e+000 1.508068e+000 -5.742734e+000 8.787164e-001 -2.467652e+000 -1.110035e+000 -1.659205e+000 -3.538624e-001 6.589526e+001 -1.294713e-001 1.411174e-001 5.463171e-002 7.199650e-002 1.813339e-001 3.524225e-002 2.092401e-001 9.826919e-002 1.155847e-001 1.360437e-001 1.272841e-001 1.432316e-001 -1.046834e-001 -1.213736e-002 2.279257e-002 2.205903e-002 2.371946e-002 2.863977e-002 1.662743e-003 4.162420e-002 4.114939e-003 2.728627e-002 2.419495e-002 3.113081e-002 2.181684e-002 -6.470770e-003
<VARIANCE> 39
 8.739221e+001 4.323001e+001 5.497285e+001 4.224042e+001 8.196717e+001 5.861292e+001 7.255599e+001 5.163090e+001 5.329775e+001 3.342630e+001 3.723873e+001 3.106872e+001 9.521441e+001 3.329365e+000 2.467443e+000 2.081169e+000 2.555669e+000 4.334654e+000 3.542439e+000 3.167796e+000 2.953246e+000 3.052462e+000 2.196749e+000 2.368652e+000 1.743879e+000 2.276191e+000 5.566451e-001 4.236433e-001 3.601327e-001 4.623662e-001 7.606156e-001 6.589876e-001 6.147946e-001 5.734980e-001 5.844101e-001 4.306671e-001 4.595113e-001 3.495815e-001 3.904351e-001
<GCONST> 1.272343e+002
<MIXTURE> 2 3.810767e-001
<MEAN> 39
 -4.662923e+000 -4.208649e-001 2.959136e+000 5.686753e-001 -5.171727e+000 9.789364e-001 -8.417866e+000 -9.023519e-001 -3.941365e+000 -2.221485e+000 -2.555852e+000 -1.890557e+000 6.993295e+001 2.030651e-001 -2.246530e-001 -1.014753e-001 -1.190588e-001 -2.940890e-001 -5.205337e-002 -3.208883e-001 -1.511268e-001 -1.819425e-001 -2.088783e-001 -2.047809e-001 -2.302762e-001 1.654719e-001 2.106768e-002 -3.696512e-002 -3.677632e-002 -3.917816e-002 -4.628930e-002 -3.490819e-003 -7.028757e-002 -9.748162e-003 -4.440782e-002 -3.939484e-002 -4.963766e-002 -3.411704e-002 1.067575e-002
<VARIANCE> 39
 9.306686e+001 5.323618e+001 6.263071e+001 4.928247e+001 8.624790e+001 6.670150e+001 5.858133e+001 5.222089e+001 5.136899e+001 3.586521e+001 3.767680e+001 2.844370e+001 5.866621e+001 4.531966e+000 3.004372e+000 2.540418e+000 3.143507e+000 5.255147e+000 4.376408e+000 3.777688e+000 3.506987e+000 3.611679e+000 2.456261e+000 2.850663e+000 1.994076e+000 2.823981e+000 6.211181e-001 4.900088e-001 4.151666e-001 5.404384e-001 8.677599e-001 7.426865e-001 6.769267e-001 6.321334e-001 6.708903e-001 4.672666e-001 5.160836e-001 3.807014e-001 4.467809e-001
<GCONST> 1.312728e+002
<TRANSP> 3
 0.000000e+000 1.000000e+000 0.000000e+000
 0.000000e+000 9.982790e-001 1.721041e-003
 0.000000e+000 0.000000e+000 0.000000e+000
<ENDHMM>
~h "mjl"
<BEGINHMM>
<NUMSTATES> 3
<STATE> 2
<NUMMIXES> 2
<MIXTURE> 1 7.755254e-001
<MEAN> 39
 -5.320504e+000 5.719744e-001 1.007793e+000 2.515046e+000 -2.266742e+000 3.520789e-001 2.693138e+000 2.135061e+000 3.115299e+000 5.452455e+000 6.160997e+000 2.373754e+000 5.149229e+001 -1.764629e-001 1.588725e-001 6.262155e-003 3.535580e-002 1.907433e-001 6.338168e-002 1.102193e-001 8.944503e-002 8.304567e-002 6.254681e-002 7.711721e-002 1.198675e-001 -1.674521e-001 -2.400850e-002 1.352303e-002 8.855662e-003 -3.276426e-003 2.560644e-002 1.252212e-002 1.035242e-002 9.480895e-003 6.910040e-003 -3.073523e-003 3.978773e-003 1.084820e-002 -7.636964e-003
<VARIANCE> 39
 9.173209e+001 4.621638e+001 4.493291e+001 4.166954e+001 1.015856e+002 6.638172e+001 4.975307e+001 6.845010e+001 4.721500e+001 2.836823e+001 2.551639e+001 4.127668e+001 1.445941e+002 3.220569e+000 2.777413e+000 1.893052e+000 2.230988e+000 3.983414e+000 2.558126e+000 2.447014e+000 3.539502e+000 2.584471e+000 2.083071e+000 1.928136e+000 1.930409e+000 1.933431e+000 4.993575e-001 5.089439e-001 3.097900e-001 4.118456e-001 7.241461e-001 4.723080e-001 4.756322e-001 6.656643e-001 4.992956e-001 4.084130e-001 3.899899e-001 3.742909e-001 3.510237e-001
<GCONST> 1.252033e+002
<MIXTURE> 2 2.244710e-001
<MEAN> 39
 -1.550727e+000 -1.640813e+000 1.366662e+000 6.307294e-001 -8.034432e+000 -3.202823e+000 -6.905596e-001 -1.775112e+000 8.648314e-002 4.138707e+000 4.230914e+000 -9.684584e-001 5.719802e+001 6.000581e-001 -5.340666e-001 -1.470203e-002 -1.072269e-001 -6.412178e-001 -2.021896e-001 -3.628102e-001 -2.954041e-001 -2.761237e-001 -2.119748e-001 -2.528872e-001 -4.043970e-001 5.509353e-001 8.941469e-002 -5.229969e-002 -3.101629e-002 5.132504e-003 -9.538891e-002 -5.127973e-002 -4.528633e-002 -3.713451e-002 -2.698973e-002 4.640530e-003 -1.915269e-002 -4.288640e-002 3.637883e-002
<VARIANCE> 39
 9.525230e+001 6.058390e+001 6.724393e+001 5.127743e+001 9.137811e+001 5.796504e+001 4.380919e+001 6.723167e+001 4.198360e+001 3.578638e+001 3.160070e+001 3.644145e+001 1.283146e+002 5.112571e+000 4.260017e+000 2.799937e+000 3.413394e+000 5.990923e+000 3.638525e+000 3.337397e+000 5.304190e+000 3.392538e+000 2.680208e+000 2.614476e+000 2.753930e+000 2.847582e+000 7.417743e-001 7.462109e-001 4.231733e-001 5.726262e-001 1.120687e+000 5.956429e-001 5.977500e-001 9.286428e-001 6.075426e-001 5.037811e-001 4.952952e-001 4.858376e-001 4.777180e-001
<GCONST> 1.344373e+002
<TRANSP> 3
 0.000000e+000 1.000000e+000 0.000000e+000
 0.000000e+000 9.984742e-001 1.525844e-003
 0.000000e+000 0.000000e+000 0.000000e+000
<ENDHMM>
~h "mjs"
<BEGINHMM>
<NUMSTATES> 3
<STATE> 2
<NUMMIXES> 2
<MIXTURE> 1 4.690124e-001
<MEAN> 39
 -7.384876e+000 -6.189321e+000 4.742334e+000 -8.332994e+000 -4.208604e+000 -8.302955e+000 1.296730e+000 -2.901244e+000 1.734670e-001 1.301579e+000 -1.191597e+000 1.635413e-001 5.839650e+001 -3.040502e-002 2.445337e-001 1.672857e-001 1.804011e-001 2.088797e-001 1.341735e-001 1.107311e-001 1.661285e-001 7.127299e-002 1.379597e-001 1.299608e-001 1.563794e-001 -6.679002e-002 -1.129779e-002 4.694394e-002 3.714959e-002 5.321282e-002 4.775060e-002 5.544155e-002 3.753497e-002 3.677763e-002 1.817654e-002 2.176491e-002 1.844329e-002 2.601753e-002 -2.615811e-002
<VARIANCE> 39
 9.270871e+001 6.620022e+001 1.001839e+002 6.498532e+001 9.037968e+001 6.771216e+001 4.258937e+001 5.893863e+001 4.163437e+001 3.431324e+001 3.615877e+001 2.628872e+001 2.377067e+002 3.542804e+000 3.571189e+000 3.704069e+000 4.054429e+000 4.973111e+000 3.252868e+000 2.601331e+000 3.809686e+000 3.057647e+000 2.586281e+000 2.545424e+000 1.945822e+000 4.819170e+000 5.440757e-001 5.782220e-001 5.914047e-001 7.176427e-001 8.620021e-001 5.980971e-001 4.775716e-001 6.938554e-001 5.791470e-001 4.920948e-001 4.852982e-001 3.816179e-001 6.753577e-001
<GCONST> 1.337704e+002
<MIXTURE> 2 5.309873e-001
<MEAN> 39
 -7.543935e+000 -6.738196e+000 4.609707e+000 -8.617167e+000 -4.453385e+000 -8.508206e+000 1.362848e+000 -3.386135e+000 -5.689140e-002 8.321264e-001 -1.606044e+000 -3.100069e-001 5.908397e+001 2.533042e-002 -2.131557e-001 -1.451279e-001 -1.631384e-001 -1.770915e-001 -1.258315e-001 -9.785244e-002 -1.483868e-001 -6.443515e-002 -1.188756e-001 -1.178494e-001 -1.322700e-001 6.422691e-002 9.716256e-003 -4.229132e-002 -3.516713e-002 -4.630095e-002 -4.543377e-002 -4.626106e-002 -3.180024e-002 -3.182642e-002 -1.463603e-002 -1.849409e-002 -1.534780e-002 -2.394506e-002 1.987747e-002
<VARIANCE> 39
 8.760143e+001 7.216039e+001 9.489400e+001 6.504681e+001 9.379920e+001 6.638884e+001 4.183650e+001 6.242607e+001 4.019664e+001 3.365724e+001 3.523640e+001 2.696969e+001 2.477327e+002 3.846042e+000 3.356665e+000 3.636489e+000 3.917693e+000 4.983188e+000 3.316607e+000 2.609211e+000 3.945707e+000 2.932687e+000 2.490325e+000 2.491418e+000 2.035780e+000 4.771129e+000 4.865283e-001 5.663999e-001 5.386085e-001 6.896012e-001 8.451884e-001 5.776438e-001 4.694707e-001 7.021281e-001 5.424553e-001 4.704605e-001 4.684727e-001 3.848489e-001 6.361144e-001
<GCONST> 1.332289e+002
<TRANSP> 3
 0.000000e+000 1.000000e+000 0.000000e+000
 0.000000e+000 9.986724e-001 1.327638e-003
 0.000000e+000 0.000000e+000 0.000000e+000
<ENDHMM>
~h "mjt"
<BEGINHMM>
<NUMSTATES> 3
<STATE> 2
<NUMMIXES> 2
<MIXTURE> 1 5.297667e-001
<MEAN> 39
 -6.466963e+000 -4.175592e+000 8.333385e+000 -9.587991e+000 -1.027131e+000 -1.807214e+000 -5.819600e+000 1.849423e+000 -6.457477e+000 3.293260e+000 -3.126339e+000 -4.151172e-001 6.018446e+001 1.543612e-002 1.189896e-001 1.147120e-001 5.678013e-002 1.841849e-001 9.011324e-002 2.019684e-001 1.086131e-001 1.013622e-001 1.164397e-001 1.774641e-001 2.406568e-001 5.813492e-002 9.969465e-003 5.470240e-002 4.456421e-002 5.637674e-002 2.415831e-002 4.494178e-002 4.140534e-002 1.006458e-002 4.789824e-002 2.957541e-003 6.216199e-002 2.065034e-002 -1.803653e-002
<VARIANCE> 39
 9.436156e+001 5.270352e+001 1.125456e+002 1.084692e+002 5.728310e+001 7.148252e+001 7.620036e+001 5.442093e+001 6.281497e+001 3.959879e+001 3.714825e+001 3.095137e+001 2.351800e+002 4.277641e+000 3.542125e+000 3.759033e+000 5.308703e+000 4.027581e+000 4.289063e+000 4.404058e+000 4.235561e+000 4.046853e+000 3.155521e+000 2.979418e+000 2.484281e+000 4.609397e+000 6.901539e-001 6.251041e-001 6.017414e-001 8.868404e-001 7.121378e-001 7.580988e-001 7.890652e-001 8.003213e-001 7.501254e-001 6.018277e-001 5.829343e-001 4.756494e-001 7.076198e-001
<GCONST> 1.391682e+002
<MIXTURE> 2 4.702322e-001
<MEAN> 39
 -6.647393e+000 -4.489917e+000 7.902560e+000 -9.067809e+000 -1.559868e+000 -1.894412e+000 -6.185133e+000 1.441281e+000 -6.169181e+000 2.795140e+000 -3.025994e+000 -8.591018e-001 5.947721e+001 -1.912380e-002 -1.415611e-001 -1.292205e-001 -6.217766e-002 -2.123452e-001 -1.113729e-001 -2.342226e-001 -1.362996e-001 -1.189285e-001 -1.276682e-001 -1.959649e-001 -2.651001e-001 -5.971731e-002 -9.082249e-003 -6.049927e-002 -5.174301e-002 -6.369171e-002 -2.858496e-002 -4.892465e-002 -4.277082e-002 -1.042022e-002 -5.150333e-002 -2.897510e-003 -6.989297e-002 -2.297003e-002 1.908844e-002
<VARIANCE> 39
 8.805893e+001 5.235076e+001 1.105994e+002 1.010379e+002 5.906049e+001 6.872863e+001 7.781181e+001 5.501886e+001 6.160767e+001 3.693641e+001 3.739794e+001 3.144864e+001 2.480889e+002 4.780685e+000 3.333004e+000 3.681262e+000 5.165323e+000 3.916289e+000 4.191617e+000 4.383093e+000 4.310419e+000 4.008341e+000 3.029716e+000 2.981397e+000 2.410448e+000 4.049744e+000 5.849410e-001 5.965078e-001 5.149047e-001 8.576737e-001 7.035109e-001 6.923782e-001 7.804112e-001 8.173222e-001 7.129540e-001 5.760530e-001 5.727022e-001 4.718952e-001 6.822665e-001
<GCONST> 1.381176e+002
<TRANSP> 3
 0.000000e+000 1.000000e+000 0.000000e+000
 0.000000e+000 9.983419e-001 1.658136e-003
 0.000000e+000 0.000000e+000 0.000000e+000
<ENDHMM>
~h "mkk"
<BEGINHMM>
<NUMSTATES> 3
<STATE> 2
<NUMMIXES> 2
<MIXTURE> 1 6.678100e-001
<MEAN> 39
 -5.541294e+000 -1.311088e+000 5.351385e+000 -7.646980e+000 9.812971e-002 -3.601891e+000 -2.118748e-002 2.636708e+000 2.304381e+000 8.538111e-001 -1.929131e+000 -1.189218e+000 6.325233e+001 -3.501664e-002 1.825857e-001 9.453528e-002 2.736173e-001 1.510702e-001 1.312111e-001 2.098942e-001 5.814329e-002 1.514268e-001 8.888038e-002 1.904334e-001 7.785335e-002 -1.412047e-001 -2.428947e-002 3.791611e-002 1.628323e-002 7.904126e-002 3.933957e-002 2.929931e-002 5.910885e-002 8.760971e-003 4.329428e-002 1.259505e-002 5.127542e-002 1.988444e-002 -4.554888e-002
<VARIANCE> 39
 7.322635e+001 3.540047e+001 5.733661e+001 8.488615e+001 4.097917e+001 4.639458e+001 5.134081e+001 3.863316e+001 5.158578e+001 3.465220e+001 4.017783e+001 2.201251e+001 9.620845e+001 3.042727e+000 2.375135e+000 2.386509e+000 4.894997e+000 2.647821e+000 2.691008e+000 3.342006e+000 3.033042e+000 3.754474e+000 2.628546e+000 2.761342e+000 1.852643e+000 3.626674e+000 4.875441e-001 4.244857e-001 4.066452e-001 8.427354e-001 5.042166e-001 5.008668e-001 6.333715e-001 5.798550e-001 6.918673e-001 5.201104e-001 5.180307e-001 3.694419e-001 5.522834e-001
<GCONST> 1.276431e+002
<MIXTURE> 2 3.321890e-001
<MEAN> 39
 -6.325000e+000 -2.014196e+000 4.707740e+000 -7.274828e+000 1.327763e-001 -4.132459e+000 -4.445424e-001 2.331443e+000 2.713830e+000 6.511186e-001 -1.696170e+000 -1.328979e+000 6.302386e+001 6.825995e-002 -3.639872e-001 -1.819285e-001 -5.432020e-001 -2.919134e-001 -2.558090e-001 -4.171780e-001 -1.152504e-001 -2.987019e-001 -1.759903e-001 -3.751711e-001 -1.577344e-001 2.800814e-001 4.777319e-002 -7.620037e-002 -3.223607e-002 -1.588751e-001 -7.991770e-002 -6.036291e-002 -1.192941e-001 -1.603024e-002 -8.604570e-002 -2.394687e-002 -1.028543e-001 -3.870471e-002 9.162708e-002
<VARIANCE> 39
 6.966493e+001 3.811599e+001 5.281507e+001 7.835358e+001 3.794125e+001 4.231263e+001 4.968452e+001 3.802050e+001 5.042353e+001 3.337612e+001 3.885911e+001 2.098515e+001 9.757629e+001 3.859008e+000 2.367781e+000 2.496044e+000 4.583036e+000 2.713884e+000 2.810534e+000 3.655167e+000 3.034933e+000 3.793895e+000 2.697927e+000 2.717741e+000 1.836254e+000 3.484019e+000 4.573222e-001 4.313960e-001 3.784248e-001 8.250192e-001 5.166644e-001 5.000303e-001 6.486058e-001 5.874096e-001 7.051190e-001 5.288625e-001 5.092862e-001 3.532968e-001 6.172114e-001
<GCONST> 1.275066e+002
<TRANSP> 3
 0.000000e+000 1.000000e+000 0.000000e+000
 0.000000e+000 9.987134e-001 1.286641e-003
 0.000000e+000 0.000000e+000 0.000000e+000
<ENDHMM>
~h "mms"
<BEGINHMM>
<NUMSTATES> 3
<STATE> 2
<NUMMIXES> 2
<MIXTURE> 1 7.881233e-001
<MEAN> 39
 -6.231828e+000 2.254691e+000 5.626569e+000 -1.830526e-001 -9.426333e-001 1.267570e+000 -5.946108e-001 -1.271769e+000 3.734204e+000 -1.314378e-001 4.168349e+000 -5.443524e-001 6.800920e+001 -1.745189e-001 1.482129e-001 -5.754885e-003 1.289343e-001 2.266634e-001 4.960340e-002 1.775009e-001 1.049744e-001 8.273794e-003 1.411131e-001 1.470639e-002 1.366209e-001 -2.035042e-001 -1.140261e-002 6.062272e-003 4.434374e-003 2.376800e-002 2.025459e-002 1.558302e-002 2.976672e-002 1.505165e-003 1.131350e-003 1.274674e-002 2.877986e-003 1.903516e-002 -2.027577e-002
<VARIANCE> 39
 9.244596e+001 4.142492e+001 5.952538e+001 5.536977e+001 9.006084e+001 5.739341e+001 7.322649e+001 6.532373e+001 4.957141e+001 4.423247e+001 3.171298e+001 4.461239e+001 9.417226e+001 4.977543e+000 3.140303e+000 3.136232e+000 3.822946e+000 5.202407e+000 3.624451e+000 3.922689e+000 3.854262e+000 3.660019e+000 3.511111e+000 2.877141e+000 2.962843e+000 3.753035e+000 7.403888e-001 5.811911e-001 4.965655e-001 6.872087e-001 8.832616e-001 6.503617e-001 7.031721e-001 6.890673e-001 6.569903e-001 6.697857e-001 5.618891e-001 5.581720e-001 6.797241e-001
<GCONST> 1.358854e+002
<MIXTURE> 2 2.118741e-001
<MEAN> 39
 -4.351650e+000 1.102569e+000 6.173333e+000 -1.405733e+000 -4.046161e+000 4.591537e-001 -3.223206e+000 -3.753534e+000 3.216748e+000 -1.619000e+000 3.849330e+000 -2.024873e+000 7.171274e+001 6.525420e-001 -5.458017e-001 2.262464e-002 -4.802049e-001 -8.420689e-001 -1.898442e-001 -6.568951e-001 -3.793011e-001 -4.072805e-002 -5.215870e-001 -4.441094e-002 -5.120452e-001 7.509380e-001 4.381061e-002 -2.408526e-002 -1.811320e-002 -8.920089e-002 -7.408924e-002 -5.725735e-002 -1.118154e-001 -2.967084e-003 -4.522601e-003 -4.785150e-002 -8.932012e-003 -7.098290e-002 7.623848e-002
<VARIANCE> 39
 8.537931e+001 4.615443e+001 6.824306e+001 5.707230e+001 8.194095e+001 6.204894e+001 5.975666e+001 6.360708e+001 5.820817e+001 4.578283e+001 3.746064e+001 4.317548e+001 5.733538e+001 6.006486e+000 3.653635e+000 3.722292e+000 4.357315e+000 5.958891e+000 4.226804e+000 4.778801e+000 4.920978e+000 4.545500e+000 4.247802e+000 3.348660e+000 3.447254e+000 4.361792e+000 8.284486e-001 6.582476e-001 5.656272e-001 8.062146e-001 1.070484e+000 7.276413e-001 8.385134e-001 8.521193e-001 7.926685e-001 7.487292e-001 6.534759e-001 6.216338e-001 8.111677e-001
<GCONST> 1.398549e+002
<TRANSP> 3
 0.000000e+000 1.000000e+000 0.000000e+000
 0.000000e+000 9.981946e-001 1.805338e-003
 0.000000e+000 0.000000e+000 0.000000e+000
<ENDHMM>
~h "mos"
<BEGINHMM>
<NUMSTATES> 3
<STATE> 2
<NUMMIXES> 2
<MIXTURE> 1 5.246109e-001
<MEAN> 39
 -7.995104e+000 -2.043899e+000 3.041022e+000 -5.675805e+000 -3.437820e+000 -6.230764e+000 -2.243767e+000 5.266899e-001 2.867159e+000 5.388786e-001 1.991247e+000 -2.286297e+000 5.905673e+001 -2.794619e-001 2.012443e-001 3.477003e-002 3.104261e-001 3.255667e-001 2.281532e-001 3.537358e-001 1.068185e-001 3.079662e-001 1.715385e-001 2.124533e-001 3.221698e-001 -2.620375e-001 -4.924561e-002 1.872080e-002 2.032307e-002 4.525061e-002 5.862647e-002 3.927932e-002 6.668505e-002 1.666117e-002 4.132340e-002 1.915905e-002 3.409239e-002 4.117111e-002 -2.335609e-002
<VARIANCE> 39
 8.203989e+001 3.882565e+001 5.011025e+001 5.027304e+001 5.861045e+001 5.049003e+001 5.623781e+001 4.141129e+001 5.051025e+001 3.429918e+001 3.730275e+001 3.849020e+001 9.182505e+001 3.385522e+000 2.790051e+000 2.174890e+000 3.189982e+000 3.389888e+000 2.941136e+000 3.058350e+000 3.206436e+000 3.491764e+000 2.921802e+000 2.833086e+000 2.468349e+000 3.185671e+000 5.022274e-001 4.932297e-001 3.664159e-001 5.542789e-001 6.132330e-001 5.662913e-001 5.753608e-001 6.190058e-001 6.313313e-001 5.849690e-001 5.475983e-001 4.712068e-001 4.892827e-001
<GCONST> 1.286138e+002
<MIXTURE> 2 4.753879e-001
<MEAN> 39
 -5.840230e+000 -3.103351e+000 3.893811e+000 -7.251693e+000 -5.471748e+000 -7.160394e+000 -4.473631e+000 -2.027137e-001 1.465938e+000 -2.492208e-001 1.540102e+000 -4.511732e+000 6.197865e+001 3.084588e-001 -2.224798e-001 -3.843623e-002 -3.427316e-001 -3.569048e-001 -2.510570e-001 -3.886845e-001 -1.177423e-001 -3.373526e-001 -1.928529e-001 -2.370279e-001 -3.584741e-001 2.905835e-001 5.445685e-002 -2.026961e-002 -2.238986e-002 -4.966379e-002 -6.368352e-002 -4.393813e-002 -7.387973e-002 -1.772395e-002 -4.618658e-002 -2.135986e-002 -3.666565e-002 -4.521283e-002 2.555770e-002
<VARIANCE> 39
 7.471827e+001 4.695653e+001 5.909469e+001 5.686732e+001 6.264656e+001 5.185530e+001 6.174767e+001 4.729969e+001 5.554640e+001 4.109669e+001 4.432215e+001 4.916532e+001 8.066861e+001 3.765621e+000 3.005946e+000 2.726565e+000 3.569321e+000 4.100903e+000 3.609669e+000 3.580554e+000 3.710283e+000 3.851137e+000 3.477482e+000 3.256390e+000 3.122438e+000 2.867136e+000 4.834940e-001 5.413694e-001 4.188727e-001 6.330816e-001 7.286097e-001 6.714470e-001 6.314041e-001 6.830802e-001 6.755313e-001 6.632852e-001 6.174665e-001 5.520536e-001 4.915699e-001
<GCONST> 1.329735e+002
<TRANSP> 3
 0.000000e+000 1.000000e+000 0.000000e+000
 0.000000e+000 9.985267e-001 1.473320e-003
 0.000000e+000 0.000000e+000 0.000000e+000
<ENDHMM>
~h "mpm"
<BEGINHMM>
<NUMSTATES> 3
<STATE> 2
<NUMMIXES> 2
<MIXTURE> 1 7.203790e-001
<MEAN> 39
 -8.590752e+000 4.159276e+000 3.034621e+000 2.159657e+000 -2.828044e+000 -5.457017e-001 -3.257294e+000 -7.587126e-002 -9.813435e-001 1.696027e+000 1.502182e+000 -1.245273e+000 6.590222e+001 6.388321e-003 7.720020e-002 5.291041e-002 7.617433e-002 1.261075e-001 1.021020e-001 1.332613e-001 6.027301e-002 1.128580e-001 8.965603e-002 5.929817e-002 1.024747e-001 -4.537258e-002 -4.725662e-003 2.751446e-002 2.415554e-002 4.175336e-002 3.955173e-002 1.333327e-002 3.818280e-002 -8.095833e-003 2.246363e-002 6.399394e-003 1.902076e-002 2.911119e-002 -2.192652e-002
<VARIANCE> 39
 7.505785e+001 4.609157e+001 7.246884e+001 4.192749e+001 7.647121e+001 6.897465e+001 8.229365e+001 6.230659e+001 5.400531e+001 4.608362e+001 3.462164e+001 4.673426e+001 9.491177e+001 3.158319e+000 2.357936e+000 3.154313e+000 2.871800e+000 4.473584e+000 3.508337e+000 3.718039e+000 4.239048e+000 3.374832e+000 3.051836e+000 2.858304e+000 2.712126e+000 2.427267e+000 4.754931e-001 4.218180e-001 5.384515e-001 5.401397e-001 8.231775e-001 6.413101e-001 7.213577e-001 7.940004e-001 6.650358e-001 5.823408e-001 5.663827e-001 5.140527e-001 4.198222e-001
<GCONST> 1.326207e+002
<MIXTURE> 2 2.796178e-001
<MEAN> 39
 -8.067328e+000 4.558364e+000 4.758031e+000 2.385167e+000 -4.207628e+000 -1.660155e+000 -5.301315e+000 -1.764249e+000 -2.443152e+000 7.249994e-001 1.307412e+000 -2.538646e+000 6.860733e+001 -1.475534e-002 -1.860863e-001 -1.423170e-001 -2.010585e-001 -3.138280e-001 -2.516782e-001 -3.404420e-001 -1.597853e-001 -2.937887e-001 -2.150402e-001 -1.523835e-001 -2.699523e-001 1.058435e-001 1.192117e-002 -7.231488e-002 -6.242397e-002 -1.079076e-001 -1.009793e-001 -3.388803e-002 -9.992900e-002 2.062690e-002 -5.837837e-002 -1.590264e-002 -4.857570e-002 -7.246327e-002 5.667176e-002
<VARIANCE> 39
 8.153535e+001 5.153157e+001 7.502409e+001 4.531379e+001 7.895304e+001 6.955254e+001 7.161215e+001 6.758959e+001 5.558228e+001 5.130838e+001 3.693536e+001 4.588718e+001 6.370618e+001 4.251652e+000 2.909456e+000 4.145603e+000 3.353808e+000 5.245988e+000 4.143975e+000 4.448152e+000 4.922964e+000 3.930196e+000 3.452122e+000 3.075433e+000 3.158176e+000 2.945883e+000 4.967662e-001 4.832562e-001 6.116217e-001 6.175625e-001 9.512177e-001 7.248212e-001 8.359506e-001 9.025804e-001 7.442819e-001 6.502347e-001 6.239426e-001 5.687181e-001 5.065553e-001
<GCONST> 1.365714e+002
<TRANSP> 3
 0.000000e+000 1.000000e+000 0.000000e+000
 0.000000e+000 9.985082e-001 1.491860e-003
 0.000000e+000 0.000000e+000 0.000000e+000
<ENDHMM>
~h "mpn"
<BEGINHMM>
<NUMSTATES> 3
<STATE> 2
<NUMMIXES> 2
<MIXTURE> 1 6.141235e-001
<MEAN> 39
 -7.104423e+000 -1.931392e-001 1.012458e+000 -3.433169e+000 -1.171663e+000 -2.984420e+000 -3.654275e-001 -2.757500e-002 1.526939e+000 -6.276464e-001 7.267573e-001 -9.529819e-001 6.301841e+001 -4.248369e-002 1.326592e-001 1.037178e-001 1.699279e-001 1.861155e-001 8.736514e-002 1.983280e-001 9.718186e-002 1.196877e-001 1.523791e-001 1.038545e-001 1.964730e-001 -1.242352e-001 -1.344089e-002 2.407034e-002 2.111937e-002 2.703900e-002 3.759110e-002 2.492156e-002 3.851130e-002 1.329422e-002 2.361998e-002 2.458803e-002 2.025441e-002 3.392864e-002 -1.622669e-002
<VARIANCE> 39
 7.025210e+001 5.199376e+001 5.945316e+001 5.325111e+001 6.827351e+001 5.540810e+001 5.986073e+001 4.857558e+001 4.623490e+001 3.591439e+001 3.379963e+001 3.745304e+001 1.379125e+002 3.256435e+000 2.663532e+000 2.586536e+000 3.158003e+000 3.366313e+000 2.988431e+000 3.124885e+000 3.217885e+000 3.107646e+000 2.564880e+000 2.577223e+000 2.252478e+000 3.999841e+000 5.138129e-001 4.434636e-001 4.336766e-001 5.715554e-001 6.103353e-001 5.499715e-001 5.909072e-001 6.174709e-001 5.978833e-001 5.006384e-001 5.181093e-001 4.357872e-001 6.391143e-001
<GCONST> 1.296213e+002
<MIXTURE> 2 3.858782e-001
<MEAN> 39
 -6.115000e+000 -7.411479e-001 4.598583e-001 -5.345828e+000 -3.594917e+000 -3.881007e+000 -3.225618e+000 -1.432852e+000 7.522084e-001 -2.063862e+000 4.219423e-001 -3.218079e+000 6.749826e+001 6.828544e-002 -2.136128e-001 -1.624615e-001 -2.711179e-001 -2.888921e-001 -1.424208e-001 -3.126805e-001 -1.580135e-001 -1.917734e-001 -2.409979e-001 -1.629585e-001 -3.064955e-001 1.955964e-001 2.093968e-002 -3.851719e-002 -3.599322e-002 -4.436650e-002 -6.037049e-002 -4.056559e-002 -6.232864e-002 -2.194362e-002 -4.023232e-002 -3.941305e-002 -3.352910e-002 -5.383779e-002 2.621227e-002
<VARIANCE> 39
 7.492215e+001 6.019193e+001 7.503563e+001 6.325454e+001 7.618391e+001 6.432510e+001 7.211524e+001 5.925789e+001 5.435631e+001 4.564521e+001 3.825221e+001 4.807251e+001 1.219066e+002 4.195050e+000 3.142516e+000 3.381772e+000 4.034255e+000 4.383022e+000 3.837197e+000 3.955958e+000 4.315504e+000 4.046393e+000 3.029657e+000 3.177150e+000 2.814388e+000 4.799432e+000 5.855111e-001 5.337890e-001 5.358996e-001 7.322013e-001 7.895947e-001 6.596360e-001 7.301365e-001 7.923521e-001 7.524771e-001 5.729137e-001 6.128066e-001 5.268720e-001 7.598649e-001
<GCONST> 1.371232e+002
<TRANSP> 3
 0.000000e+000 1.000000e+000 0.000000e+000
 0.000000e+000 9.988738e-001 1.126181e-003
 0.000000e+000 0.000000e+000 0.000000e+000
<ENDHMM>
~h "mps"
<BEGINHMM>
<NUMSTATES> 3
<STATE> 2
<NUMMIXES> 2
<MIXTURE> 1 5.086167e-001
<MEAN> 39
 -5.637739e+000 -3.904535e+000 2.583549e+000 -7.866799e+000 -1.814003e+000 -4.896898e+000 -2.126692e+000 -3.152144e+000 6.811652e-001 -7.290343e-001 -7.675042e-001 1.065533e+000 5.827606e+001 -3.517351e-002 1.023476e-001 1.438697e-001 1.234964e-001 1.877347e-001 1.448580e-001 2.010752e-001 2.256995e-001 1.380919e-001 2.119562e-001 9.657640e-002 1.555693e-001 4.491329e-002 -1.463138e-002 3.376358e-002 4.330732e-002 3.656607e-002 5.681800e-002 3.963568e-002 4.957779e-002 4.117103e-002 2.241089e-002 3.466278e-002 2.378083e-002 3.769368e-002 -5.212928e-003
<VARIANCE> 39
 1.041672e+002 4.588007e+001 6.431864e+001 7.241710e+001 6.012038e+001 5.851626e+001 5.276035e+001 6.964606e+001 5.936123e+001 4.461483e+001 3.137320e+001 2.779307e+001 2.329736e+002 4.213207e+000 2.881318e+000 2.791919e+000 4.049556e+000 4.147348e+000 3.585733e+000 3.756896e+000 4.163817e+000 4.091761e+000 3.218156e+000 2.577864e+000 2.242417e+000 6.106816e+000 6.917760e-001 5.017251e-001 4.589731e-001 6.851661e-001 7.382597e-001 6.492218e-001 6.993556e-001 7.640579e-001 7.744830e-001 5.986381e-001 4.881396e-001 4.392383e-001 8.940605e-001
<GCONST> 1.355890e+002
<MIXTURE> 2 4.913835e-001
<MEAN> 39
 -5.828898e+000 -4.247807e+000 2.419602e+000 -7.796773e+000 -1.663485e+000 -5.204372e+000 -2.341524e+000 -3.190218e+000 2.654931e-001 -9.554029e-001 -1.016780e+000 1.060145e+000 5.780249e+001 3.140318e-002 -1.080069e-001 -1.489465e-001 -1.329142e-001 -1.940053e-001 -1.551762e-001 -2.033514e-001 -2.325097e-001 -1.453252e-001 -2.148365e-001 -9.729810e-002 -1.558515e-001 -3.812142e-002 1.558984e-002 -3.479395e-002 -4.579527e-002 -3.766665e-002 -5.886518e-002 -3.796946e-002 -4.901191e-002 -4.208878e-002 -2.263936e-002 -3.744796e-002 -2.526013e-002 -4.086249e-002 1.953220e-003
<VARIANCE> 39
 9.899152e+001 4.621424e+001 6.153516e+001 6.978089e+001 6.086712e+001 5.779436e+001 5.266788e+001 7.398237e+001 5.787757e+001 4.364290e+001 3.100670e+001 2.673269e+001 2.397976e+002 4.639604e+000 2.609753e+000 2.660693e+000 3.610502e+000 4.108704e+000 3.526402e+000 3.742821e+000 4.334921e+000 4.147135e+000 3.150857e+000 2.532626e+000 2.227874e+000 4.395306e+000 5.801898e-001 4.595655e-001 4.295848e-001 6.298473e-001 7.372981e-001 6.321055e-001 6.715604e-001 7.570181e-001 7.517927e-001 5.825751e-001 4.850961e-001 4.248865e-001 7.247677e-001
<GCONST> 1.341395e+002
<TRANSP> 3
 0.000000e+000 1.000000e+000 0.000000e+000
 0.000000e+000 9.986218e-001 1.378236e-003
 0.000000e+000 0.000000e+000 0.000000e+000
<ENDHMM>
~h "mpz"
<BEGINHMM>
<NUMSTATES> 3
<STATE> 2
<NUMMIXES> 2
<MIXTURE> 1 6.781646e-001
<MEAN> 39
 -6.732432e+000 -2.923325e+000 4.958812e+000 -3.673578e+000 -1.990526e+000 -2.460780e-001 -2.231648e+000 1.800636e+000 -1.994324e+000 5.403636e+000 7.952446e-001 9.368683e-001 5.859008e+001 -7.093999e-002 1.453626e-001 5.518942e-002 1.328658e-001 1.898292e-001 5.050893e-002 1.373569e-001 1.045750e-001 1.388562e-001 1.005564e-001 9.304534e-002 1.314886e-001 -1.625036e-001 -3.072049e-002 1.502505e-002 6.922767e-003 2.811583e-002 2.881060e-002 3.235217e-002 4.430261e-002 2.265819e-002 4.317525e-002 7.069305e-003 2.488830e-002 2.615849e-002 -3.626649e-002
<VARIANCE> 39
 9.583110e+001 5.796712e+001 6.982648e+001 5.866113e+001 9.539178e+001 6.337115e+001 7.403683e+001 5.165336e+001 5.848940e+001 3.502166e+001 3.516207e+001 3.155976e+001 2.754207e+002 4.501319e+000 3.089852e+000 3.176054e+000 3.190716e+000 5.271121e+000 3.974917e+000 3.969034e+000 3.902512e+000 3.667980e+000 2.717950e+000 2.460062e+000 2.169299e+000 5.397074e+000 7.035094e-001 5.696393e-001 5.267322e-001 6.087009e-001 9.271852e-001 7.684276e-001 7.235292e-001 7.448122e-001 6.840298e-001 5.375193e-001 4.770710e-001 4.224874e-001 8.321086e-001
<GCONST> 1.364241e+002
<MIXTURE> 2 3.218344e-001
<MEAN> 39
 -5.266036e+000 -5.040744e+000 6.001043e+000 -5.485790e+000 -5.068868e+000 -1.072889e+000 -4.739878e+000 4.559428e-001 -3.295964e+000 4.940219e+000 -2.332076e-001 -3.457244e-001 6.640353e+001 1.413345e-001 -3.104742e-001 -1.079372e-001 -2.781543e-001 -3.716687e-001 -1.124060e-001 -2.760184e-001 -2.121331e-001 -2.924904e-001 -1.829421e-001 -1.851695e-001 -2.620477e-001 3.400887e-001 6.717637e-002 -3.462307e-002 -1.857654e-002 -6.035587e-002 -6.538610e-002 -6.850360e-002 -9.927446e-002 -5.209520e-002 -9.016423e-002 -1.985699e-002 -5.346934e-002 -5.729925e-002 7.846906e-002
<VARIANCE> 39
 1.160985e+002 6.553677e+001 8.016546e+001 5.491921e+001 1.043512e+002 6.724913e+001 7.326213e+001 5.852036e+001 6.446335e+001 4.014901e+001 3.765241e+001 3.359862e+001 1.929901e+002 6.017100e+000 3.929447e+000 4.010221e+000 4.055984e+000 6.210553e+000 5.015047e+000 4.807349e+000 4.702132e+000 4.232143e+000 3.224543e+000 2.896489e+000 2.611539e+000 6.497738e+000 8.753121e-001 6.927763e-001 6.315086e-001 7.237695e-001 1.178513e+000 8.901867e-001 9.285770e-001 9.012406e-001 7.872683e-001 5.967583e-001 5.410926e-001 4.754629e-001 1.162084e+000
<GCONST> 1.421293e+002
<TRANSP> 3
 0.000000e+000 1.000000e+000 0.000000e+000
 0.000000e+000 9.984984e-001 1.501599e-003
 0.000000e+000 0.000000e+000 0.000000e+000
<ENDHMM>
~h "mps2"
<BEGINHMM>
<NUMSTATES> 3
<STATE> 2
<NUMMIXES> 2
<MIXTURE> 1 7.437658e-001
<MEAN> 39
 -6.544861e+000 -7.603528e-001 5.212645e+000 -1.286087e+000 -2.165472e+000 4.024566e-001 -1.338173e+000 -6.098974e-001 2.088815e+000 1.272336e+000 3.374278e+000 -3.280477e-001 6.742873e+001 -9.805470e-002 1.322607e-001 -6.779940e-003 9.799702e-002 1.101088e-001 6.147944e-002 1.350225e-001 6.016989e-002 7.650436e-002 6.233878e-002 8.483794e-002 9.225369e-002 -1.564420e-001 -2.259317e-002 2.025893e-002 4.294933e-003 2.276791e-002 2.032978e-002 9.417664e-003 2.863322e-002 7.917276e-003 8.266355e-003 3.957496e-003 1.210942e-002 1.661087e-002 -2.336701e-002
<VARIANCE> 39
 1.039847e+002 4.710536e+001 7.730821e+001 5.342816e+001 7.391589e+001 4.433755e+001 7.182159e+001 4.792879e+001 5.994070e+001 3.146196e+001 3.103163e+001 3.033813e+001 1.167498e+002 4.940617e+000 3.129074e+000 3.171822e+000 3.366896e+000 3.644605e+000 2.721117e+000 3.476613e+000 3.078823e+000 3.363190e+000 2.301645e+000 2.098871e+000 1.785444e+000 3.230585e+000 7.268007e-001 5.513029e-001 5.045636e-001 5.783468e-001 6.287502e-001 4.893379e-001 6.406696e-001 5.818452e-001 6.154507e-001 4.422315e-001 4.064040e-001 3.460698e-001 5.342882e-001
<GCONST> 1.299985e+002
<MIXTURE> 2 2.562339e-001
<MEAN> 39
 -4.931879e+000 -1.713351e+000 6.373411e+000 -2.997619e+000 -5.020385e+000 -2.669313e-001 -4.356744e+000 -2.576301e+000 2.872396e-001 2.607447e-001 2.233887e+000 -2.166687e+000 7.237904e+001 2.897568e-001 -3.822665e-001 2.372498e-002 -2.824834e-001 -3.170763e-001 -1.792788e-001 -3.929653e-001 -1.812555e-001 -2.297488e-001 -1.806017e-001 -2.466233e-001 -2.658198e-001 4.493039e-001 6.492241e-002 -5.878764e-002 -1.259002e-002 -6.533224e-002 -5.898240e-002 -2.778644e-002 -8.429979e-002 -2.255736e-002 -2.290870e-002 -8.683210e-003 -3.528822e-002 -4.911119e-002 6.733664e-002
<VARIANCE> 39
 1.204231e+002 6.203993e+001 9.088660e+001 6.763625e+001 7.173637e+001 5.365738e+001 7.009952e+001 4.829126e+001 6.480901e+001 3.477826e+001 3.391710e+001 2.857121e+001 7.766186e+001 7.291293e+000 4.013061e+000 4.432482e+000 4.497966e+000 4.653757e+000 3.483783e+000 4.649742e+000 4.055607e+000 4.513522e+000 2.761627e+000 2.483419e+000 2.181165e+000 4.170255e+000 9.480467e-001 6.961060e-001 6.459233e-001 7.744548e-001 8.057348e-001 5.883404e-001 7.816448e-001 7.370103e-001 7.718521e-001 4.977585e-001 4.694896e-001 4.140919e-001 6.757859e-001
<GCONST> 1.369911e+002
<TRANSP> 3
 0.000000e+000 1.000000e+000 0.000000e+000
 0.000000e+000 9.983896e-001 1.610419e-003
 0.000000e+000 0.000000e+000 0.000000e+000
<ENDHMM>
~h "mvl"
<BEGINHMM>
<NUMSTATES> 3
<STATE> 2
<NUMMIXES> 2
<MIXTURE> 1 6.501359e-001
<MEAN> 39
 -7.321745e+000 -2.133412e-001 1.566431e+000 -3.818225e-002 -6.136478e+000 2.251453e+000 -3.518863e+000 -1.054120e+000 1.536787e+000 2.453293e+000 -2.539536e+000 -1.219162e+000 7.021172e+001 -1.037981e-001 1.965474e-001 2.534429e-002 1.088246e-001 2.444504e-001 6.984062e-002 2.335793e-001 1.334652e-001 9.144352e-002 1.019002e-001 9.381872e-002 1.560337e-001 -1.882462e-001 -3.253393e-002 4.522178e-002 -6.028457e-004 1.541762e-002 7.649741e-002 -1.295022e-002 7.431746e-002 3.065874e-002 1.380560e-002 1.109517e-002 1.967373e-002 2.932587e-002 -4.382747e-002
<VARIANCE> 39
 7.605741e+001 4.900833e+001 7.264275e+001 4.458358e+001 1.133814e+002 5.870994e+001 8.836191e+001 6.708872e+001 4.587764e+001 3.212239e+001 3.579101e+001 4.054216e+001 1.429166e+002 3.839437e+000 3.445145e+000 3.053554e+000 2.707420e+000 5.943614e+000 4.053403e+000 4.502216e+000 3.567295e+000 3.471945e+000 2.599671e+000 2.608596e+000 2.400157e+000 3.725482e+000 6.357213e-001 6.111137e-001 5.223545e-001 4.980997e-001 1.070562e+000 7.766457e-001 8.672530e-001 6.925424e-001 6.859251e-001 5.256014e-001 5.205182e-001 4.720158e-001 6.870643e-001
<GCONST> 1.352293e+002
<MIXTURE> 2 3.498621e-001
<MEAN> 39
 -6.370043e+000 -1.071438e+000 2.367448e+000 -7.897723e-001 -9.062037e+000 9.542448e-001 -6.183816e+000 -3.586041e+000 6.403778e-001 2.534512e+000 -3.475639e+000 -3.141101e+000 7.506030e+001 1.930298e-001 -3.608432e-001 -4.668992e-002 -2.005146e-001 -4.562826e-001 -1.241625e-001 -4.379402e-001 -2.579853e-001 -1.790985e-001 -1.874909e-001 -1.915088e-001 -2.963578e-001 3.523540e-001 6.431159e-002 -8.375029e-002 5.656029e-004 -3.046642e-002 -1.427703e-001 2.358140e-002 -1.416137e-001 -5.684362e-002 -2.796392e-002 -1.994427e-002 -3.740874e-002 -5.570781e-002 8.097190e-002
<VARIANCE> 39
 8.573248e+001 6.091685e+001 8.072863e+001 5.057122e+001 1.071088e+002 6.710768e+001 8.044289e+001 6.424030e+001 5.603924e+001 3.549545e+001 3.667465e+001 4.069635e+001 9.050046e+001 5.760027e+000 4.491387e+000 4.426020e+000 3.516413e+000 8.145055e+000 5.205226e+000 5.870239e+000 4.805757e+000 4.689565e+000 3.192002e+000 3.167232e+000 3.086527e+000 4.923519e+000 8.133433e-001 7.254429e-001 6.413198e-001 5.976986e-001 1.388328e+000 9.450743e-001 1.066942e+000 9.050221e-001 8.608366e-001 6.192362e-001 6.149110e-001 5.553816e-001 8.186119e-001
<GCONST> 1.419030e+002
<TRANSP> 3
 0.000000e+000 1.000000e+000 0.000000e+000
 0.000000e+000 9.980350e-001 1.964972e-003
 0.000000e+000 0.000000e+000 0.000000e+000
<ENDHMM>
~h "mzs"
<BEGINHMM>
<NUMSTATES> 3
<STATE> 2
<NUMMIXES> 2
<MIXTURE> 1 5.493598e-001
<MEAN> 39
 -8.711771e+000 -1.917137e+000 5.011672e+000 -7.835005e+000 3.054080e+000 -7.837512e+000 1.146240e-001 -8.310083e-001 -2.302288e+000 8.402119e-001 -2.726416e-001 -1.720216e+000 6.031987e+001 8.449531e-002 1.164118e-001 1.505383e-001 1.058561e-001 1.029443e-001 1.414364e-001 1.453497e-001 1.136855e-001 1.265329e-001 1.294964e-001 1.077622e-001 1.681305e-001 5.708916e-002 2.539013e-002 3.081977e-002 4.529642e-002 3.281619e-002 2.847955e-002 2.416649e-002 2.725169e-002 3.212047e-002 3.026290e-002 2.495192e-002 4.445646e-002 2.387888e-002 5.188467e-003
<VARIANCE> 39
 9.927704e+001 4.288557e+001 7.779599e+001 7.858797e+001 5.404558e+001 7.740714e+001 4.410484e+001 4.019630e+001 4.512396e+001 3.526701e+001 3.525531e+001 4.021404e+001 2.254287e+002 3.460255e+000 2.167710e+000 2.468135e+000 3.654013e+000 2.840089e+000 3.713113e+000 2.908309e+000 2.764665e+000 3.028693e+000 2.494982e+000 2.447617e+000 2.542774e+000 4.303654e+000 4.518026e-001 3.861917e-001 3.714847e-001 5.923223e-001 4.983118e-001 6.106800e-001 5.275027e-001 5.045145e-001 5.410286e-001 4.636845e-001 4.574039e-001 4.416018e-001 5.287069e-001
<GCONST> 1.291901e+002
<MIXTURE> 2 4.506400e-001
<MEAN> 39
