~o
<STREAMINFO> 1 16
<VECSIZE> 16<NULLD><FBANK><DIAGC>
~h "ctyri"
<BEGINHMM>
<NUMSTATES> 10
<STATE> 2
<MEAN> 16
 5.719588e+000 5.874309e+000 6.141809e+000 6.319178e+000 6.373363e+000 6.566030e+000 6.803900e+000 7.098470e+000 7.481137e+000 7.786800e+000 8.420359e+000 9.318282e+000 9.772608e+000 9.627501e+000 9.125896e+000 8.756370e+000
<VARIANCE> 16
 1.974453e-001 1.324727e-001 2.447792e-001 1.196064e-001 1.034915e-001 7.037504e-002 8.331810e-002 1.525547e-001 2.541636e-001 3.887243e-001 6.628924e-001 9.181215e-001 9.966208e-001 9.840335e-001 6.666077e-001 4.170491e-001
<GCONST> 8.833093e+000
<STATE> 3
<MEAN> 16
 5.753513e+000 5.902446e+000 6.167209e+000 6.289319e+000 6.347808e+000 6.527446e+000 6.764237e+000 7.143241e+000 7.712313e+000 8.174641e+000 8.894590e+000 9.636876e+000 1.013492e+001 9.964659e+000 9.421802e+000 8.955961e+000
<VARIANCE> 16
 1.524862e-001 2.387004e-001 3.705194e-001 1.835440e-001 8.630312e-002 8.421473e-002 7.711154e-002 2.423354e-001 4.930013e-001 9.639264e-001 1.306319e+000 1.406448e+000 1.460996e+000 1.630222e+000 1.224098e+000 6.415468e-001
<GCONST> 1.499091e+001
<STATE> 4
<MEAN> 16
 5.813919e+000 5.971360e+000 6.233059e+000 6.285806e+000 6.361372e+000 6.530769e+000 6.766299e+000 7.202002e+000 7.887754e+000 8.356452e+000 8.932178e+000 9.682479e+000 1.022332e+001 1.010701e+001 9.553863e+000 9.003829e+000
<VARIANCE> 16
 1.678151e-001 3.639012e-001 5.549325e-001 2.488483e-001 8.301837e-002 6.748100e-002 7.650542e-002 3.045188e-001 7.203382e-001 1.293356e+000 1.433227e+000 1.619431e+000 1.691409e+000 1.862080e+000 1.426043e+000 7.098032e-001
<GCONST> 1.761703e+001
<STATE> 5
<MEAN> 16
 5.804395e+000 6.035715e+000 6.279730e+000 6.361994e+000 6.449584e+000 6.599198e+000 6.837546e+000 7.259372e+000 7.956041e+000 8.414367e+000 9.005262e+000 9.763991e+000 1.027968e+001 1.014092e+001 9.576964e+000 9.025918e+000
<VARIANCE> 16
 1.836953e-001 4.326525e-001 7.733333e-001 3.709271e-001 1.063325e-001 8.711614e-002 1.261541e-001 3.968010e-001 8.413513e-001 1.292933e+000 1.427249e+000 1.580357e+000 1.540954e+000 1.641446e+000 1.422291e+000 7.657180e-001
<GCONST> 1.985954e+001
<STATE> 6
<MEAN> 16
 5.852603e+000 6.281790e+000 6.657838e+000 6.733327e+000 6.648318e+000 6.704272e+000 7.026165e+000 7.542932e+000 8.336532e+000 8.759301e+000 9.193974e+000 9.752416e+000 1.015835e+001 9.980438e+000 9.377904e+000 8.877522e+000
<VARIANCE> 16
 1.880117e-001 8.183115e-001 1.667372e+000 1.024537e+000 2.456840e-001 1.959648e-001 2.706390e-001 6.316872e-001 1.274766e+000 1.391198e+000 1.429163e+000 1.521585e+000 1.347252e+000 1.370184e+000 1.220751e+000 6.824182e-001
<GCONST> 2.505004e+001
<STATE> 7
<MEAN> 16
 6.084902e+000 6.994828e+000 7.671462e+000 7.714520e+000 7.152225e+000 7.121557e+000 7.455654e+000 8.166225e+000 9.208012e+000 9.541192e+000 9.602034e+000 1.001732e+001 1.028488e+001 9.954376e+000 9.179946e+000 8.747790e+000
<VARIANCE> 16
 2.887891e-001 1.273871e+000 2.561829e+000 2.001827e+000 5.071125e-001 4.208481e-001 4.429169e-001 8.137932e-001 1.479139e+000 1.189325e+000 1.357282e+000 1.446130e+000 1.617658e+000 1.429872e+000 8.139101e-001 4.158392e-001
<GCONST> 2.847031e+001
<STATE> 8
<MEAN> 16
 6.438302e+000 7.778569e+000 9.120411e+000 9.174933e+000 8.052906e+000 7.823199e+000 8.071712e+000 8.944644e+000 1.018807e+001 1.051128e+001 1.033023e+001 1.062904e+001 1.110262e+001 1.058069e+001 9.445526e+000 8.820288e+000
<VARIANCE> 16
 2.246374e-001 4.494947e-001 1.209413e+000 1.031376e+000 7.208291e-001 6.503335e-001 5.016174e-001 4.256336e-001 6.020155e-001 6.270098e-001 1.166691e+000 1.306369e+000 1.652200e+000 1.631474e+000 9.106981e-001 3.644868e-001
<GCONST> 2.436839e+001
<STATE> 9
<MEAN> 16
 6.269448e+000 7.507324e+000 8.966838e+000 8.941857e+000 7.935448e+000 7.590614e+000 7.661957e+000 8.221931e+000 9.394984e+000 1.022676e+001 1.003648e+001 1.000513e+001 1.062942e+001 9.943817e+000 8.437745e+000 8.229241e+000
<VARIANCE> 16
 1.720575e-001 2.934996e-001 7.137752e-001 6.669281e-001 6.482585e-001 4.349563e-001 2.923983e-001 4.183828e-001 7.712285e-001 6.940241e-001 1.183206e+000 1.203066e+000 1.169026e+000 9.508704e-001 1.891186e-001 9.799528e-002
<GCONST> 1.815665e+001
<TRANSP> 10
 0.000000e+000 1.000000e+000 0.000000e+000 0.000000e+000 0.000000e+000 0.000000e+000 0.000000e+000 0.000000e+000 0.000000e+000 0.000000e+000
 0.000000e+000 5.939205e-001 4.060796e-001 0.000000e+000 0.000000e+000 0.000000e+000 0.000000e+000 0.000000e+000 0.000000e+000 0.000000e+000
 0.000000e+000 0.000000e+000 6.331772e-001 3.668227e-001 0.000000e+000 0.000000e+000 0.000000e+000 0.000000e+000 0.000000e+000 0.000000e+000
 0.000000e+000 0.000000e+000 0.000000e+000 7.278090e-001 2.721910e-001 0.000000e+000 0.000000e+000 0.000000e+000 0.000000e+000 0.000000e+000
 0.000000e+000 0.000000e+000 0.000000e+000 0.000000e+000 7.436131e-001 2.563869e-001 0.000000e+000 0.000000e+000 0.000000e+000 0.000000e+000
 0.000000e+000 0.000000e+000 0.000000e+000 0.000000e+000 0.000000e+000 6.325732e-001 3.674267e-001 0.000000e+000 0.000000e+000 0.000000e+000
 0.000000e+000 0.000000e+000 0.000000e+000 0.000000e+000 0.000000e+000 0.000000e+000 6.138861e-001 3.861139e-001 0.000000e+000 0.000000e+000
 0.000000e+000 0.000000e+000 0.000000e+000 0.000000e+000 0.000000e+000 0.000000e+000 0.000000e+000 9.636049e-001 3.639508e-002 0.000000e+000
 0.000000e+000 0.000000e+000 0.000000e+000 0.000000e+000 0.000000e+000 0.000000e+000 0.000000e+000 0.000000e+000 9.271733e-001 7.282674e-002
 0.000000e+000 0.000000e+000 0.000000e+000 0.000000e+000 0.000000e+000 0.000000e+000 0.000000e+000 0.000000e+000 0.000000e+000 0.000000e+000
<ENDHMM>
~h "sedm"
<BEGINHMM>
<NUMSTATES> 10
<STATE> 2
<MEAN> 16
 5.721624e+000 5.805357e+000 5.999729e+000 6.183317e+000 6.308764e+000 6.479106e+000 6.659677e+000 6.994164e+000 7.411455e+000 7.480748e+000 7.644348e+000 8.123799e+000 9.082191e+000 9.337800e+000 9.632069e+000 9.420434e+000
<VARIANCE> 16
 1.747734e-001 1.084848e-001 7.996921e-002 9.174126e-002 6.692702e-002 4.909717e-002 4.941873e-002 8.105555e-002 1.035058e-001 8.110942e-002 1.533901e-001 2.028987e-001 3.327339e-001 2.281656e-001 1.665244e-001 2.323557e-001
<GCONST> -4.792525e+000
<STATE> 3
<MEAN> 16
 5.717546e+000 5.783181e+000 5.924413e+000 6.140013e+000 6.328155e+000 6.543649e+000 6.737885e+000 7.173638e+000 7.536725e+000 7.588694e+000 7.822246e+000 8.401376e+000 9.481980e+000 9.789629e+000 9.924821e+000 9.878325e+000
<VARIANCE> 16
 2.013519e-001 9.984460e-002 1.441829e-001 9.037163e-002 7.295163e-002 7.424692e-002 8.274142e-002 1.249476e-001 1.779610e-001 1.334274e-001 2.082055e-001 2.223956e-001 4.317462e-001 3.937372e-001 2.847817e-001 2.863863e-001
<GCONST> 2.771307e-001
<STATE> 4
<MEAN> 16
 5.717510e+000 5.796526e+000 5.975900e+000 6.247887e+000 6.429028e+000 6.624748e+000 6.892149e+000 7.370751e+000 7.730471e+000 7.788169e+000 8.034311e+000 8.656783e+000 9.743382e+000 1.007574e+001 1.012131e+001 1.006427e+001
<VARIANCE> 16
 1.215610e-001 1.563014e-001 2.837798e-001 1.889469e-001 1.067361e-001 1.064305e-001 1.524144e-001 2.354617e-001 2.456894e-001 1.697463e-001 2.557024e-001 2.737185e-001 4.924681e-001 5.414532e-001 4.910303e-001 3.946293e-001
<GCONST> 5.912449e+000
<STATE> 5
<MEAN> 16
 5.738722e+000 5.910929e+000 6.215075e+000 6.498217e+000 6.581124e+000 6.774262e+000 7.113319e+000 7.646129e+000 8.032735e+000 8.088712e+000 8.345869e+000 8.945219e+000 1.000557e+001 1.032946e+001 1.027422e+001 1.013730e+001
<VARIANCE> 16
 1.227226e-001 2.854338e-001 5.909715e-001 4.318371e-001 1.711732e-001 1.418801e-001 2.757529e-001 3.986630e-001 2.877965e-001 2.186072e-001 3.491799e-001 4.048151e-001 6.254298e-001 7.589925e-001 6.601194e-001 4.646034e-001
<GCONST> 1.211356e+001
<STATE> 6
<MEAN> 16
 5.883161e+000 6.236886e+000 6.685118e+000 7.019812e+000 6.954276e+000 7.119928e+000 7.491162e+000 8.196497e+000 8.579579e+000 8.573409e+000 8.834528e+000 9.329593e+000 1.026569e+001 1.052845e+001 1.024608e+001 1.005573e+001
<VARIANCE> 16
 1.493237e-001 5.610423e-001 1.227452e+000 1.194275e+000 4.882259e-001 2.994601e-001 5.087116e-001 7.612115e-001 4.282477e-001 3.146030e-001 5.042264e-001 5.174038e-001 7.222216e-001 9.989623e-001 8.906510e-001 5.878275e-001
<GCONST> 2.011570e+001
<STATE> 7
<MEAN> 16
 6.139552e+000 6.880028e+000 7.685147e+000 8.258780e+000 7.918450e+000 7.823507e+000 8.225817e+000 9.161123e+000 9.372418e+000 9.226764e+000 9.464408e+000 9.774421e+000 1.046119e+001 1.048552e+001 9.788664e+000 9.559885e+000
<VARIANCE> 16
 2.362989e-001 8.327056e-001 2.061912e+000 2.502423e+000 1.529719e+000 8.203351e-001 9.794915e-001 1.468824e+000 8.885478e-001 5.818263e-001 1.012416e+000 7.453899e-001 8.215759e-001 1.119277e+000 1.004856e+000 6.813256e-001
<GCONST> 2.860800e+001
<STATE> 8
<MEAN> 16
 6.712086e+000 7.977884e+000 8.976459e+000 9.387078e+000 9.078052e+000 8.682232e+000 9.005796e+000 9.770669e+000 1.012655e+001 9.984072e+000 1.020530e+001 1.024294e+001 1.077961e+001 1.017724e+001 8.642362e+000 8.370794e+000
<VARIANCE> 16
 2.285447e-001 3.838614e-001 5.314724e-001 8.397419e-001 1.235948e+000 7.603933e-001 6.364673e-001 8.386161e-001 9.005319e-001 8.320587e-001 1.236373e+000 1.257558e+000 1.120869e+000 1.176298e+000 6.810676e-001 2.641228e-001
<GCONST> 2.418963e+001
<STATE> 9
<MEAN> 16
 6.481996e+000 8.020252e+000 8.510014e+000 8.551001e+000 7.908727e+000 7.902630e+000 8.111450e+000 8.314094e+000 8.401945e+000 8.605546e+000 8.570286e+000 9.116891e+000 9.386308e+000 8.793801e+000 8.115932e+000 8.125549e+000
<VARIANCE> 16
 2.052360e-001 1.682399e-001 5.081143e-001 5.093117e-001 2.511520e-001 3.180600e-001 4.802827e-001 6.009142e-001 4.913083e-001 5.244415e-001 7.612314e-001 1.505866e+000 1.226661e+000 3.549142e-001 8.822489e-002 5.869786e-002
<GCONST> 1.360408e+001
<TRANSP> 10
 0.000000e+000 1.000000e+000 0.000000e+000 0.000000e+000 0.000000e+000 0.000000e+000 0.000000e+000 0.000000e+000 0.000000e+000 0.000000e+000
 0.000000e+000 6.808431e-001 3.191569e-001 0.000000e+000 0.000000e+000 0.000000e+000 0.000000e+000 0.000000e+000 0.000000e+000 0.000000e+000
 0.000000e+000 0.000000e+000 5.288163e-001 4.711837e-001 0.000000e+000 0.000000e+000 0.000000e+000 0.000000e+000 0.000000e+000 0.000000e+000
 0.000000e+000 0.000000e+000 0.000000e+000 4.834462e-001 5.165538e-001 0.000000e+000 0.000000e+000 0.000000e+000 0.000000e+000 0.000000e+000
 0.000000e+000 0.000000e+000 0.000000e+000 0.000000e+000 5.020422e-001 4.979579e-001 0.000000e+000 0.000000e+000 0.000000e+000 0.000000e+000
 0.000000e+000 0.000000e+000 0.000000e+000 0.000000e+000 0.000000e+000 5.553716e-001 4.446284e-001 0.000000e+000 0.000000e+000 0.000000e+000
 0.000000e+000 0.000000e+000 0.000000e+000 0.000000e+000 0.000000e+000 0.000000e+000 6.007230e-001 3.992770e-001 0.000000e+000 0.000000e+000
 0.000000e+000 0.000000e+000 0.000000e+000 0.000000e+000 0.000000e+000 0.000000e+000 0.000000e+000 9.539334e-001 4.606657e-002 0.000000e+000
 0.000000e+000 0.000000e+000 0.000000e+000 0.000000e+000 0.000000e+000 0.000000e+000 0.000000e+000 0.000000e+000 9.581176e-001 4.188240e-002
 0.000000e+000 0.000000e+000 0.000000e+000 0.000000e+000 0.000000e+000 0.000000e+000 0.000000e+000 0.000000e+000 0.000000e+000 0.000000e+000
<ENDHMM>
~h "sest"
<BEGINHMM>
<NUMSTATES> 10
<STATE> 2
<MEAN> 16
 5.678926e+000 5.687279e+000 5.887292e+000 6.075562e+000 6.353322e+000 6.462267e+000 6.661102e+000 7.114617e+000 7.879940e+000 8.321113e+000 8.749302e+000 9.338518e+000 9.594074e+000 9.710913e+000 9.245264e+000 8.459909e+000
<VARIANCE> 16
 8.604496e-002 9.268975e-002 8.724159e-002 5.919080e-002 5.705120e-002 4.434565e-002 5.604647e-002 7.818710e-002 2.383214e-001 4.135952e-001 3.478268e-001 3.632422e-001 2.892036e-001 2.759635e-001 2.838134e-001 9.973824e-002
<GCONST> -2.579679e+000
<STATE> 3
<MEAN> 16
 5.713986e+000 5.777288e+000 5.938864e+000 6.154416e+000 6.317594e+000 6.422251e+000 6.661506e+000 7.252617e+000 8.141317e+000 8.791378e+000 9.298041e+000 9.975415e+000 1.021124e+001 1.026469e+001 9.764587e+000 8.907879e+000
<VARIANCE> 16
 1.328784e-001 1.092828e-001 7.195074e-002 9.069426e-002 4.990609e-002 5.721723e-002 6.671455e-002 1.225567e-001 3.787746e-001 5.400594e-001 3.251203e-001 3.643383e-001 2.973737e-001 2.666290e-001 2.414509e-001 1.529608e-001
<GCONST> -7.661104e-002
<STATE> 4
<MEAN> 16
 5.776299e+000 5.753294e+000 5.984810e+000 6.183044e+000 6.362370e+000 6.532323e+000 6.750970e+000 7.394197e+000 8.304609e+000 9.167637e+000 9.676302e+000 1.032893e+001 1.058872e+001 1.054850e+001 1.003891e+001 9.220324e+000
<VARIANCE> 16
 1.195972e-001 9.730049e-002 7.263286e-002 9.624098e-002 5.285275e-002 7.653997e-002 8.294064e-002 1.854411e-001 3.919188e-001 5.738091e-001 2.796919e-001 3.603364e-001 3.818379e-001 3.159150e-001 2.392539e-001 1.856369e-001
<GCONST> 1.288203e+000
<STATE> 5
<MEAN> 16
 5.766682e+000 5.851285e+000 6.079738e+000 6.232908e+000 6.384109e+000 6.592666e+000 6.843022e+000 7.573713e+000 8.450971e+000 9.307178e+000 9.877422e+000 1.060277e+001 1.083612e+001 1.078120e+001 1.025508e+001 9.462898e+000
<VARIANCE> 16
 8.166414e-002 1.201499e-001 1.655096e-001 1.369802e-001 7.650466e-002 8.023186e-002 1.147308e-001 2.245525e-001 4.629374e-001 5.996302e-001 2.663504e-001 5.369830e-001 6.033934e-001 5.666049e-001 3.804733e-001 2.493801e-001
<GCONST> 5.588448e+000
<STATE> 6
<MEAN> 16
 5.774697e+000 5.979609e+000 6.267039e+000 6.401519e+000 6.426953e+000 6.646435e+000 6.966484e+000 7.832611e+000 8.683393e+000 9.421243e+000 1.000769e+001 1.074834e+001 1.098885e+001 1.087512e+001 1.035955e+001 9.609257e+000
<VARIANCE> 16
 9.077371e-002 2.478581e-001 5.213402e-001 4.253969e-001 1.690501e-001 1.277229e-001 1.687553e-001 4.359833e-001 5.619775e-001 5.977510e-001 3.131069e-001 6.700613e-001 8.030125e-001 9.338059e-001 6.668646e-001 3.701524e-001
<GCONST> 1.332140e+001
<STATE> 7
<MEAN> 16
 5.883613e+000 6.308539e+000 6.821388e+000 7.105516e+000 6.919273e+000 6.969488e+000 7.298268e+000 8.298167e+000 9.089868e+000 9.576998e+000 1.003871e+001 1.060827e+001 1.089425e+001 1.063215e+001 1.005361e+001 9.497897e+000
<VARIANCE> 16
 1.422240e-001 6.676571e-001 1.510927e+000 1.781605e+000 8.814934e-001 4.672380e-001 4.646150e-001 1.010044e+000 7.709405e-001 5.706334e-001 4.767990e-001 8.634299e-001 1.067943e+000 1.391873e+000 1.290721e+000 5.907019e-001
<GCONST> 2.481482e+001
<STATE> 8
<MEAN> 16
 6.303406e+000 7.189090e+000 8.418925e+000 9.327209e+000 9.270449e+000 8.732017e+000 8.889676e+000 9.859532e+000 1.032335e+001 1.018498e+001 1.036735e+001 1.056320e+001 1.101481e+001 1.061297e+001 9.469440e+000 8.980636e+000
<VARIANCE> 16
 2.376386e-001 6.110174e-001 1.294472e+000 1.762418e+000 2.157958e+000 1.532566e+000 1.212916e+000 1.477640e+000 1.620598e+000 1.252046e+000 1.635965e+000 1.334061e+000 1.320978e+000 1.365693e+000 8.741657e-001 5.187191e-001
<GCONST> 3.136796e+001
<STATE> 9
<MEAN> 16
 5.689581e+000 5.880835e+000 6.353914e+000 6.967578e+000 7.054022e+000 6.874766e+000 7.033456e+000 7.674725e+000 7.968895e+000 7.929436e+000 8.345008e+000 8.887239e+000 9.795618e+000 1.028290e+001 1.027762e+001 1.003743e+001
<VARIANCE> 16
 1.064091e-001 1.614656e-001 2.674506e-001 4.369224e-001 3.936589e-001 2.125337e-001 1.339375e-001 2.392224e-001 3.097704e-001 2.379820e-001 2.672309e-001 2.857429e-001 4.473398e-001 4.447055e-001 3.248215e-001 2.710731e-001
<GCONST> 8.049202e+000
<TRANSP> 10
 0.000000e+000 1.000000e+000 0.000000e+000 0.000000e+000 0.000000e+000 0.000000e+000 0.000000e+000 0.000000e+000 0.000000e+000 0.000000e+000
 0.000000e+000 2.279439e-001 7.720562e-001 0.000000e+000 0.000000e+000 0.000000e+000 0.000000e+000 0.000000e+000 0.000000e+000 0.000000e+000
 0.000000e+000 0.000000e+000 2.289507e-001 7.710493e-001 0.000000e+000 0.000000e+000 0.000000e+000 0.000000e+000 0.000000e+000 0.000000e+000
 0.000000e+000 0.000000e+000 0.000000e+000 2.884807e-001 7.115193e-001 0.000000e+000 0.000000e+000 0.000000e+000 0.000000e+000 0.000000e+000
 0.000000e+000 0.000000e+000 0.000000e+000 0.000000e+000 3.855748e-001 6.144252e-001 0.000000e+000 0.000000e+000 0.000000e+000 0.000000e+000
 0.000000e+000 0.000000e+000 0.000000e+000 0.000000e+000 0.000000e+000 5.287862e-001 4.712138e-001 0.000000e+000 0.000000e+000 0.000000e+000
 0.000000e+000 0.000000e+000 0.000000e+000 0.000000e+000 0.000000e+000 0.000000e+000 7.044246e-001 2.955754e-001 0.000000e+000 0.000000e+000
 0.000000e+000 0.000000e+000 0.000000e+000 0.000000e+000 0.000000e+000 0.000000e+000 0.000000e+000 9.636331e-001 3.636689e-002 0.000000e+000
 0.000000e+000 0.000000e+000 0.000000e+000 0.000000e+000 0.000000e+000 0.000000e+000 0.000000e+000 0.000000e+000 9.155654e-001 8.443461e-002
 0.000000e+000 0.000000e+000 0.000000e+000 0.000000e+000 0.000000e+000 0.000000e+000 0.000000e+000 0.000000e+000 0.000000e+000 0.000000e+000
<ENDHMM>
~h "dva"
<BEGINHMM>
<NUMSTATES> 10
<STATE> 2
<MEAN> 16
 6.100439e+000 6.834522e+000 7.165416e+000 7.128166e+000 6.776010e+000 6.818986e+000 7.164854e+000 7.309603e+000 7.602821e+000 7.550555e+000 7.673327e+000 7.934231e+000 8.212160e+000 8.080688e+000 7.890795e+000 8.001933e+000
<VARIANCE> 16
 1.823130e-001 2.726982e-001 5.490218e-001 4.353586e-001 1.820273e-001 2.676735e-001 3.269241e-001 4.071291e-001 4.076187e-001 4.599857e-001 5.957212e-001 6.581820e-001 7.158586e-001 3.305213e-001 6.151922e-002 4.379892e-002
<GCONST> 9.967028e+000
<STATE> 3
<MEAN> 16
 6.141001e+000 7.132312e+000 7.756194e+000 7.758651e+000 7.200470e+000 7.258412e+000 7.636939e+000 7.901462e+000 8.068964e+000 8.143339e+000 8.264622e+000 8.540613e+000 8.798966e+000 8.491164e+000 7.994745e+000 8.050998e+000
<VARIANCE> 16
 1.723109e-001 1.944238e-001 6.727914e-001 6.649643e-001 3.371697e-001 4.133595e-001 4.468170e-001 6.207969e-001 6.193871e-001 6.598887e-001 8.246191e-001 9.600301e-001 9.528277e-001 5.149835e-001 8.406369e-002 4.518799e-002
<GCONST> 1.453918e+001
<STATE> 4
<MEAN> 16
 6.273113e+000 7.317845e+000 8.104954e+000 8.194800e+000 7.579440e+000 7.651805e+000 8.059541e+000 8.279025e+000 8.262767e+000 8.477097e+000 8.536502e+000 8.867014e+000 8.971616e+000 8.596898e+000 8.047371e+000 8.083180e+000
<VARIANCE> 16
 2.208920e-001 1.471973e-001 6.027410e-001 6.914892e-001 5.208988e-001 4.838234e-001 4.733502e-001 6.493375e-001 6.511931e-001 5.366420e-001 7.608807e-001 9.175104e-001 8.824823e-001 6.169324e-001 9.866096e-002 4.857230e-002
<GCONST> 1.518731e+001
<STATE> 5
<MEAN> 16
 6.414613e+000 7.368022e+000 8.147432e+000 8.310658e+000 7.784679e+000 7.871933e+000 8.287388e+000 8.328465e+000 8.253749e+000 8.467310e+000 8.506869e+000 8.808176e+000 8.951940e+000 8.606395e+000 8.081242e+000 8.112518e+000
<VARIANCE> 16
 2.508895e-001 1.586719e-001 5.482759e-001 8.348649e-001 8.872471e-001 7.387397e-001 7.361266e-001 7.150235e-001 7.053607e-001 6.039550e-001 7.395743e-001 7.804259e-001 9.930878e-001 6.676439e-001 1.192792e-001 7.623866e-002
<GCONST> 1.782267e+001
<STATE> 6
<MEAN> 16
 6.574763e+000 7.458135e+000 8.195008e+000 8.470836e+000 8.139488e+000 8.229588e+000 8.619784e+000 8.425977e+000 8.278701e+000 8.560658e+000 8.543146e+000 8.840103e+000 9.150759e+000 8.802970e+000 8.128422e+000 8.146312e+000
<VARIANCE> 16
 2.959306e-001 2.023663e-001 4.767625e-001 1.010491e+000 1.361419e+000 1.058259e+000 1.077624e+000 8.223611e-001 6.977788e-001 6.920567e-001 7.311097e-001 8.556287e-001 9.666596e-001 6.211161e-001 1.108121e-001 9.084621e-002
<GCONST> 1.979906e+001
<STATE> 7
<MEAN> 16
 6.644020e+000 7.534359e+000 8.364759e+000 9.008570e+000 9.014618e+000 9.031738e+000 9.369621e+000 8.937667e+000 8.674544e+000 9.067595e+000 8.947267e+000 9.375342e+000 9.607592e+000 9.140359e+000 8.286119e+000 8.234870e+000
<VARIANCE> 16
 2.842453e-001 1.603076e-001 3.107951e-001 1.103463e+000 1.866319e+000 1.209576e+000 1.158057e+000 9.790874e-001 5.779570e-001 8.615063e-001 1.039755e+000 1.340359e+000 9.346999e-001 6.702836e-001 2.051565e-001 2.119863e-001
<GCONST> 2.221893e+001
<STATE> 8
<MEAN> 16
 6.583053e+000 7.454167e+000 8.391718e+000 9.561097e+000 1.042605e+001 1.059978e+001 1.093288e+001 1.044705e+001 9.625320e+000 9.996257e+000 1.013591e+001 1.053704e+001 1.110626e+001 1.024420e+001 8.727124e+000 8.417911e+000
<VARIANCE> 16
 4.094074e-001 4.030322e-001 7.312863e-001 8.150437e-001 9.447942e-001 9.731781e-001 1.124303e+000 1.615895e+000 7.313350e-001 8.371248e-001 1.752804e+000 1.747476e+000 1.924209e+000 1.233296e+000 5.174570e-001 2.778290e-001
<GCONST> 2.715321e+001
<STATE> 9
<MEAN> 16
 5.828759e+000 6.362573e+000 6.591370e+000 7.506963e+000 8.498688e+000 8.838963e+000 8.846725e+000 8.475766e+000 7.853034e+000 8.006738e+000 8.381254e+000 8.682921e+000 9.203018e+000 8.533024e+000 7.884685e+000 7.950849e+000
<VARIANCE> 16
 2.468861e-001 4.349547e-001 2.935491e-001 5.034201e-001 4.529164e-001 3.270066e-001 3.994994e-001 5.853036e-001 2.695392e-001 3.362260e-001 5.037311e-001 3.411998e-001 3.455553e-001 2.513487e-001 6.691128e-002 7.674293e-002
<GCONST> 1.002245e+001
<TRANSP> 10
 0.000000e+000 1.000000e+000 0.000000e+000 0.000000e+000 0.000000e+000 0.000000e+000 0.000000e+000 0.000000e+000 0.000000e+000 0.000000e+000
 0.000000e+000 1.609797e-001 8.390203e-001 0.000000e+000 0.000000e+000 0.000000e+000 0.000000e+000 0.000000e+000 0.000000e+000 0.000000e+000
 0.000000e+000 0.000000e+000 2.360574e-001 7.639426e-001 0.000000e+000 0.000000e+000 0.000000e+000 0.000000e+000 0.000000e+000 0.000000e+000
 0.000000e+000 0.000000e+000 0.000000e+000 3.868026e-001 6.131974e-001 0.000000e+000 0.000000e+000 0.000000e+000 0.000000e+000 0.000000e+000
 0.000000e+000 0.000000e+000 0.000000e+000 0.000000e+000 4.372981e-001 5.627019e-001 0.000000e+000 0.000000e+000 0.000000e+000 0.000000e+000
 0.000000e+000 0.000000e+000 0.000000e+000 0.000000e+000 0.000000e+000 4.441153e-001 5.558848e-001 0.000000e+000 0.000000e+000 0.000000e+000
 0.000000e+000 0.000000e+000 0.000000e+000 0.000000e+000 0.000000e+000 0.000000e+000 5.507868e-001 4.492133e-001 0.000000e+000 0.000000e+000
 0.000000e+000 0.000000e+000 0.000000e+000 0.000000e+000 0.000000e+000 0.000000e+000 0.000000e+000 9.594440e-001 4.055599e-002 0.000000e+000
 0.000000e+000 0.000000e+000 0.000000e+000 0.000000e+000 0.000000e+000 0.000000e+000 0.000000e+000 0.000000e+000 7.690923e-001 2.309077e-001
 0.000000e+000 0.000000e+000 0.000000e+000 0.000000e+000 0.000000e+000 0.000000e+000 0.000000e+000 0.000000e+000 0.000000e+000 0.000000e+000
<ENDHMM>
~h "osm"
<BEGINHMM>
<NUMSTATES> 10
<STATE> 2
<MEAN> 16
 5.485912e+000 5.891343e+000 6.364697e+000 6.826708e+000 6.971851e+000 7.047919e+000 6.938534e+000 6.860721e+000 7.136606e+000 7.127980e+000 7.241126e+000 7.603344e+000 8.097809e+000 8.120059e+000 8.074051e+000 8.213262e+000
<VARIANCE> 16
 3.020720e-001 2.234536e-001 6.086845e-001 1.316748e+000 1.149976e+000 9.041505e-001 4.472313e-001 1.374332e-001 1.746856e-001 2.535907e-001 7.104798e-002 1.596568e-001 4.406534e-001 4.033332e-001 3.256238e-001 2.246515e-001
<GCONST> 1.180015e+001
<STATE> 3
<MEAN> 16
 5.721621e+000 6.316630e+000 7.066539e+000 7.891140e+000 8.003551e+000 7.972151e+000 7.436512e+000 7.125297e+000 7.377125e+000 7.552176e+000 7.665078e+000 8.184426e+000 8.609673e+000 8.271929e+000 8.060117e+000 8.245626e+000
<VARIANCE> 16
 1.601848e-001 5.211150e-001 1.207808e+000 1.784487e+000 1.594695e+000 1.427335e+000 7.686487e-001 2.962433e-001 2.165590e-001 4.064949e-001 4.104792e-001 7.908303e-001 5.575714e-001 3.377077e-001 2.675213e-001 3.015165e-001
<GCONST> 1.929115e+001
<STATE> 4
<MEAN> 16
 6.026590e+000 6.950436e+000 8.103060e+000 9.205377e+000 9.286603e+000 9.260470e+000 8.585111e+000 7.919073e+000 7.894564e+000 8.283060e+000 8.591605e+000 9.258111e+000 9.706104e+000 8.925752e+000 8.262499e+000 8.317650e+000
<VARIANCE> 16
 2.725905e-001 5.737648e-001 1.042674e+000 1.449769e+000 1.674675e+000 1.519051e+000 1.449660e+000 7.028152e-001 3.232765e-001 7.286974e-001 1.081050e+000 1.896901e+000 1.003465e+000 6.480005e-001 2.765279e-001 2.829520e-001
<GCONST> 2.521036e+001
<STATE> 5
<MEAN> 16
 6.286333e+000 7.258564e+000 8.577886e+000 9.753945e+000 9.844276e+000 9.869485e+000 9.231463e+000 8.392837e+000 8.286867e+000 8.715716e+000 9.109774e+000 9.815825e+000 1.034511e+001 9.397837e+000 8.389001e+000 8.425280e+000
<VARIANCE> 16
 3.518179e-001 3.705027e-001 7.733387e-001 1.125907e+000 1.575815e+000 1.317718e+000 1.550992e+000 7.834245e-001 3.632002e-001 7.555445e-001 1.508296e+000 2.700869e+000 1.227823e+000 8.400844e-001 3.049188e-001 2.166542e-001
<GCONST> 2.558080e+001
<STATE> 6
<MEAN> 16
 6.444426e+000 7.452598e+000 8.812213e+000 9.874131e+000 9.971106e+000 1.005702e+001 9.483856e+000 8.595716e+000 8.480413e+000 8.926977e+000 9.332932e+000 1.001125e+001 1.058830e+001 9.663372e+000 8.532393e+000 8.516143e+000
<VARIANCE> 16
 3.557589e-001 2.800727e-001 6.708548e-001 1.076400e+000 1.597531e+000 1.152282e+000 1.308342e+000 6.234117e-001 2.863962e-001 5.810837e-001 1.458113e+000 2.483517e+000 1.338784e+000 1.004079e+000 5.110285e-001 2.127504e-001
<GCONST> 2.475111e+001
<STATE> 7
<MEAN> 16
 6.451530e+000 7.498705e+000 8.808798e+000 9.690877e+000 9.799294e+000 9.891803e+000 9.356748e+000 8.671768e+000 8.561961e+000 8.992536e+000 9.514645e+000 1.016294e+001 1.079274e+001 9.978833e+000 8.756585e+000 8.755329e+000
<VARIANCE> 16
 2.538274e-001 3.930620e-001 8.571551e-001 1.373695e+000 1.955408e+000 1.482582e+000 1.277709e+000 5.460041e-001 3.190354e-001 4.601653e-001 1.106357e+000 1.904008e+000 1.150345e+000 8.626466e-001 6.756224e-001 3.328015e-001
<GCONST> 2.529523e+001
<STATE> 8
<MEAN> 16
 6.359752e+000 7.125899e+000 8.236695e+000 8.962461e+000 9.081005e+000 9.282286e+000 9.181886e+000 8.885346e+000 8.832462e+000 9.040854e+000 9.676263e+000 1.029030e+001 1.095994e+001 1.070657e+001 9.877501e+000 9.616463e+000
<VARIANCE> 16
 5.514830e-001 1.424649e+000 2.504495e+000 2.219005e+000 2.096880e+000 2.030556e+000 1.889471e+000 1.208927e+000 9.999810e-001 1.064304e+000 1.130531e+000 1.051002e+000 8.504794e-001 7.905374e-001 1.449595e+000 1.663411e+000
<GCONST> 3.387263e+001
<STATE> 9
<MEAN> 16
 6.337355e+000 7.654493e+000 8.356807e+000 8.359557e+000 7.721476e+000 8.107620e+000 8.298142e+000 8.231853e+000 8.345854e+000 8.582709e+000 8.776950e+000 9.544540e+000 9.939035e+000 9.217855e+000 8.363582e+000 8.344488e+000
<VARIANCE> 16
 2.524543e-001 5.695226e-001 8.839070e-001 7.425792e-001 2.985330e-001 4.642761e-001 5.875847e-001 6.466793e-001 4.556607e-001 4.870030e-001 6.162912e-001 9.353548e-001 9.291454e-001 5.748940e-001 4.925047e-001 3.980238e-001
<GCONST> 1.978881e+001
<TRANSP> 10
 0.000000e+000 1.000000e+000 0.000000e+000 0.000000e+000 0.000000e+000 0.000000e+000 0.000000e+000 0.000000e+000 0.000000e+000 0.000000e+000
 0.000000e+000 1.727289e-001 8.272711e-001 0.000000e+000 0.000000e+000 0.000000e+000 0.000000e+000 0.000000e+000 0.000000e+000 0.000000e+000
 0.000000e+000 0.000000e+000 6.530542e-002 9.346946e-001 0.000000e+000 0.000000e+000 0.000000e+000 0.000000e+000 0.000000e+000 0.000000e+000
 0.000000e+000 0.000000e+000 0.000000e+000 6.000736e-002 9.399926e-001 0.000000e+000 0.000000e+000 0.000000e+000 0.000000e+000 0.000000e+000
 0.000000e+000 0.000000e+000 0.000000e+000 0.000000e+000 8.393628e-002 9.160637e-001 0.000000e+000 0.000000e+000 0.000000e+000 0.000000e+000
 0.000000e+000 0.000000e+000 0.000000e+000 0.000000e+000 0.000000e+000 1.826527e-001 8.173473e-001 0.000000e+000 0.000000e+000 0.000000e+000
 0.000000e+000 0.000000e+000 0.000000e+000 0.000000e+000 0.000000e+000 0.000000e+000 4.856265e-001 5.143735e-001 0.000000e+000 0.000000e+000
 0.000000e+000 0.000000e+000 0.000000e+000 0.000000e+000 0.000000e+000 0.000000e+000 0.000000e+000 9.533224e-001 4.667768e-002 0.000000e+000
 0.000000e+000 0.000000e+000 0.000000e+000 0.000000e+000 0.000000e+000 0.000000e+000 0.000000e+000 0.000000e+000 9.663609e-001 3.363908e-002
 0.000000e+000 0.000000e+000 0.000000e+000 0.000000e+000 0.000000e+000 0.000000e+000 0.000000e+000 0.000000e+000 0.000000e+000 0.000000e+000
<ENDHMM>
~h "pet"
<BEGINHMM>
<NUMSTATES> 10
<STATE> 2
<MEAN> 16
 5.843132e+000 6.200426e+000 6.504612e+000 6.447118e+000 6.330056e+000 6.432633e+000 6.709991e+000 7.034796e+000 7.550125e+000 7.429870e+000 7.470023e+000 7.602777e+000 7.902046e+000 8.011270e+000 7.958964e+000 8.060289e+000
<VARIANCE> 16
 2.963023e-001 6.502867e-001 9.324291e-001 2.512531e-001 8.530503e-002 5.400514e-002 6.782246e-002 2.126552e-001 5.049317e-001 4.058892e-001 2.378777e-001 1.989301e-001 2.382787e-001 2.273826e-001 7.782197e-002 3.401233e-002
<GCONST> 3.203310e+000
<STATE> 3
<MEAN> 16
 5.929252e+000 6.671665e+000 7.252839e+000 6.976580e+000 6.580393e+000 6.548792e+000 6.929329e+000 7.486793e+000 8.119949e+000 8.138373e+000 8.060759e+000 8.165324e+000 8.486041e+000 8.409567e+000 8.167808e+000 8.178158e+000
<VARIANCE> 16
 2.804046e-001 6.987659e-001 1.080123e+000 5.565378e-001 1.517285e-001 1.032746e-001 1.041405e-001 3.864715e-001 7.303500e-001 9.199941e-001 7.143217e-001 6.750864e-001 4.823744e-001 3.624253e-001 1.012613e-001 7.301105e-002
<GCONST> 1.212027e+001
<STATE> 4
<MEAN> 16
 6.301696e+000 7.377512e+000 8.253900e+000 7.999270e+000 7.124471e+000 6.946565e+000 7.332577e+000 8.068503e+000 9.053643e+000 9.326477e+000 9.041810e+000 9.190084e+000 9.414874e+000 8.976760e+000 8.267183e+000 8.208863e+000
<VARIANCE> 16
 2.257630e-001 2.965893e-001 6.651914e-001 6.294542e-001 3.016980e-001 2.112474e-001 1.076481e-001 4.314398e-001 7.127627e-001 1.304529e+000 1.266686e+000 1.417923e+000 8.348212e-001 5.498254e-001 1.058609e-001 9.524585e-002
<GCONST> 1.514643e+001
<STATE> 5
<MEAN> 16
 6.527075e+000 7.762589e+000 9.037104e+000 8.834303e+000 7.759927e+000 7.383095e+000 7.712933e+000 8.529522e+000 9.792111e+000 1.020826e+001 9.844238e+000 9.864017e+000 1.007904e+001 9.413222e+000 8.291388e+000 8.144542e+000
<VARIANCE> 16
 2.410268e-001 2.381046e-001 5.085804e-001 5.459955e-001 4.028651e-001 3.425529e-001 2.532895e-001 3.449154e-001 6.267939e-001 1.296231e+000 1.672212e+000 2.059567e+000 1.283686e+000 8.967437e-001 8.655011e-002 7.488835e-002
<GCONST> 1.697963e+001
<STATE> 6
<MEAN> 16
 6.628832e+000 7.769581e+000 9.365511e+000 9.265186e+000 8.080008e+000 7.677609e+000 7.937263e+000 8.795396e+000 1.014748e+001 1.066861e+001 1.030647e+001 1.020380e+001 1.047004e+001 9.739147e+000 8.421195e+000 8.243985e+000
<VARIANCE> 16
 2.596450e-001 1.994066e-001 3.334404e-001 3.385087e-001 3.663251e-001 2.608815e-001 2.589846e-001 4.088957e-001 4.194039e-001 8.598639e-001 1.627280e+000 2.395987e+000 1.461901e+000 1.082445e+000 1.274667e-001 7.558418e-002
<GCONST> 1.582783e+001
<STATE> 7
<MEAN> 16
 6.692236e+000 7.746444e+000 9.543621e+000 9.660730e+000 8.536350e+000 8.034880e+000 8.221503e+000 9.106106e+000 1.032485e+001 1.092202e+001 1.059612e+001 1.049311e+001 1.074219e+001 1.002434e+001 8.612972e+000 8.399076e+000
<VARIANCE> 16
 3.034927e-001 2.123484e-001 2.785474e-001 2.794338e-001 4.979587e-001 3.395670e-001 1.789713e-001 3.561937e-001 3.280469e-001 6.251529e-001 1.449408e+000 2.171746e+000 1.460612e+000 1.259552e+000 1.585405e-001 9.396774e-002
<GCONST> 1.554621e+001
<STATE> 8
<MEAN> 16
 6.454641e+000 7.437544e+000 8.978121e+000 9.950302e+000 9.707824e+000 8.884503e+000 9.021784e+000 9.944870e+000 1.077287e+001 1.080279e+001 1.077716e+001 1.079185e+001 1.113371e+001 1.036215e+001 8.737561e+000 8.443591e+000
<VARIANCE> 16
 1.782355e-001 2.676468e-001 5.572143e-001 4.693354e-001 9.680855e-001 7.858377e-001 4.819157e-001 4.452928e-001 5.837275e-001 8.835611e-001 1.201390e+000 1.322961e+000 1.081596e+000 1.140512e+000 2.583521e-001 1.513717e-001
<GCONST> 1.997931e+001
<STATE> 9
<MEAN> 16
 5.870770e+000 6.261790e+000 7.211444e+000 8.132987e+000 8.065852e+000 7.480646e+000 7.471140e+000 8.142829e+000 8.778049e+000 8.691215e+000 8.957276e+000 8.993562e+000 9.138782e+000 8.396731e+000 7.882090e+000 8.004404e+000
<VARIANCE> 16
 1.145206e-001 2.801476e-001 4.334123e-001 3.196020e-001 3.369263e-001 2.503065e-001 1.372888e-001 2.880067e-001 3.091222e-001 2.969874e-001 4.623123e-001 3.264469e-001 2.833157e-001 3.021629e-001 3.586428e-002 3.761268e-002
<GCONST> 4.940955e+000
<TRANSP> 10
 0.000000e+000 1.000000e+000 0.000000e+000 0.000000e+000 0.000000e+000 0.000000e+000 0.000000e+000 0.000000e+000 0.000000e+000 0.000000e+000
 0.000000e+000 4.423621e-002 9.557638e-001 0.000000e+000 0.000000e+000 0.000000e+000 0.000000e+000 0.000000e+000 0.000000e+000 0.000000e+000
 0.000000e+000 0.000000e+000 3.527391e-002 9.647261e-001 0.000000e+000 0.000000e+000 0.000000e+000 0.000000e+000 0.000000e+000 0.000000e+000
 0.000000e+000 0.000000e+000 0.000000e+000 4.561651e-002 9.543835e-001 0.000000e+000 0.000000e+000 0.000000e+000 0.000000e+000 0.000000e+000
 0.000000e+000 0.000000e+000 0.000000e+000 0.000000e+000 8.200162e-002 9.179984e-001 0.000000e+000 0.000000e+000 0.000000e+000 0.000000e+000
 0.000000e+000 0.000000e+000 0.000000e+000 0.000000e+000 0.000000e+000 1.905429e-001 8.094572e-001 0.000000e+000 0.000000e+000 0.000000e+000
 0.000000e+000 0.000000e+000 0.000000e+000 0.000000e+000 0.000000e+000 0.000000e+000 4.817016e-001 5.182984e-001 0.000000e+000 0.000000e+000
 0.000000e+000 0.000000e+000 0.000000e+000 0.000000e+000 0.000000e+000 0.000000e+000 0.000000e+000 9.533344e-001 4.666564e-002 0.000000e+000
 0.000000e+000 0.000000e+000 0.000000e+000 0.000000e+000 0.000000e+000 0.000000e+000 0.000000e+000 0.000000e+000 7.056346e-001 2.943654e-001
 0.000000e+000 0.000000e+000 0.000000e+000 0.000000e+000 0.000000e+000 0.000000e+000 0.000000e+000 0.000000e+000 0.000000e+000 0.000000e+000
<ENDHMM>
~h "sil"
<BEGINHMM>
<NUMSTATES> 5
<STATE> 2
<MEAN> 16
 5.745513e+000 6.097489e+000 6.399508e+000 6.745590e+000 6.869605e+000 6.914806e+000 7.029143e+000 7.228266e+000 7.505328e+000 7.517009e+000 7.694035e+000 7.948694e+000 8.327814e+000 8.121703e+000 7.959820e+000 8.121947e+000
<VARIANCE> 16
 1.784268e-001 3.843599e-001 3.833996e-001 4.857157e-001 4.743913e-001 3.847041e-001 3.712962e-001 3.434241e-001 2.573114e-001 3.006211e-001 3.346626e-001 2.662814e-001 3.356710e-001 2.195045e-001 1.080001e-001 8.260802e-002
<GCONST> 8.980438e+000
<STATE> 3
<MEAN> 16
 5.642630e+000 5.755709e+000 5.933566e+000 6.128420e+000 6.289137e+000 6.461403e+000 6.617161e+000 6.789099e+000 7.135561e+000 7.049355e+000 7.204423e+000 7.385791e+000 7.601356e+000 7.680624e+000 7.824961e+000 8.019279e+000
<VARIANCE> 16
 1.195079e-001 1.112452e-001 1.047921e-001 9.397491e-002 8.480928e-002 7.314313e-002 6.438781e-002 6.521280e-002 4.834914e-002 5.220226e-002 5.251161e-002 5.453858e-002 8.158077e-002 5.407000e-002 2.681210e-002 3.666096e-002
<GCONST> -1.427657e+001
<STATE> 4
<MEAN> 16
 5.393653e+000 5.815041e+000 5.985415e+000 6.092624e+000 6.107141e+000 6.275475e+000 6.425811e+000 6.560112e+000 6.855352e+000 6.866931e+000 7.025004e+000 7.229521e+000 7.504392e+000 7.599616e+000 7.683077e+000 7.812024e+000
<VARIANCE> 16
 4.503126e-001 3.615152e-001 3.225795e-001 2.312994e-001 1.881201e-001 1.707060e-001 1.660529e-001 2.669877e-001 4.108190e-001 3.090541e-001 2.952042e-001 3.233978e-001 3.903188e-001 3.523124e-001 2.516556e-001 2.429035e-001
<GCONST> 9.249218e+000
<TRANSP> 5
 0.000000e+000 1.000000e+000 0.000000e+000 0.000000e+000 0.000000e+000
 0.000000e+000 5.659785e-001 4.340215e-001 0.000000e+000 0.000000e+000
 0.000000e+000 0.000000e+000 9.855730e-001 1.442699e-002 0.000000e+000
 0.000000e+000 0.000000e+000 0.000000e+000 6.584834e-001 3.415165e-001
 0.000000e+000 0.000000e+000 0.000000e+000 0.000000e+000 0.000000e+000
<ENDHMM>
~h "tri"
<BEGINHMM>
<NUMSTATES> 10
<STATE> 2
<MEAN> 16
 5.811453e+000 5.978206e+000 6.294262e+000 6.432971e+000 6.549381e+000 6.726867e+000 7.040384e+000 7.505567e+000 7.871201e+000 7.966252e+000 8.147662e+000 8.784149e+000 9.241730e+000 9.179515e+000 8.626348e+000 8.424380e+000
<VARIANCE> 16
 1.515885e-001 1.490708e-001 1.910898e-001 1.352770e-001 1.011428e-001 1.206600e-001 1.808310e-001 3.021203e-001 3.097962e-001 3.421325e-001 4.871625e-001 6.904268e-001 6.711100e-001 6.640173e-001 4.036418e-001 2.821309e-001
<GCONST> 8.332666e+000
<STATE> 3
<MEAN> 16
 5.665069e+000 5.918062e+000 6.298874e+000 6.496595e+000 6.670274e+000 6.920309e+000 7.258705e+000 7.828660e+000 8.222275e+000 8.387372e+000 8.629483e+000 9.401944e+000 9.863103e+000 9.812432e+000 9.128017e+000 8.820630e+000
<VARIANCE> 16
 1.575160e-001 1.142449e-001 1.824303e-001 2.014480e-001 1.834440e-001 2.182138e-001 2.938838e-001 3.256392e-001 3.637722e-001 3.488856e-001 4.309235e-001 5.670823e-001 6.754892e-001 7.559273e-001 4.350562e-001 3.459875e-001
<GCONST> 1.048104e+001
<STATE> 4
<MEAN> 16
 5.767861e+000 5.866990e+000 6.390931e+000 6.637952e+000 6.780315e+000 6.998415e+000 7.352895e+000 7.905641e+000 8.436288e+000 8.553372e+000 8.951077e+000 9.822674e+000 1.045534e+001 1.051462e+001 9.641915e+000 9.156614e+000
<VARIANCE> 16
 1.394447e-001 1.535534e-001 2.184900e-001 2.940125e-001 2.350058e-001 3.337963e-001 3.323872e-001 2.552247e-001 3.164372e-001 3.091199e-001 3.271646e-001 4.404936e-001 6.488773e-001 7.833965e-001 5.259385e-001 3.493160e-001
<GCONST> 1.117187e+001
<STATE> 5
<MEAN> 16
 5.818034e+000 5.905743e+000 6.393538e+000 6.655316e+000 6.767692e+000 6.999877e+000 7.300983e+000 7.941680e+000 8.562431e+000 8.742122e+000 9.309956e+000 1.033735e+001 1.104069e+001 1.115281e+001 1.015585e+001 9.429770e+000
<VARIANCE> 16
 1.475087e-001 2.054649e-001 3.659864e-001 3.581638e-001 2.544279e-001 3.215192e-001 2.668153e-001 3.051369e-001 3.689955e-001 3.160340e-001 4.567897e-001 6.873747e-001 7.822328e-001 8.238165e-001 6.563547e-001 3.900408e-001
<GCONST> 1.375688e+001
<STATE> 6
<MEAN> 16
 5.893618e+000 5.985295e+000 6.357472e+000 6.626530e+000 6.718342e+000 6.911101e+000 7.186313e+000 7.958698e+000 8.608839e+000 8.894712e+000 9.603292e+000 1.066457e+001 1.135952e+001 1.150272e+001 1.062900e+001 9.814512e+000
<VARIANCE> 16
 2.060113e-001 3.598194e-001 6.238890e-001 3.525114e-001 2.368004e-001 2.622107e-001 1.958923e-001 3.647735e-001 4.353673e-001 2.912786e-001 5.933558e-001 9.561445e-001 8.776830e-001 8.638442e-001 7.995055e-001 5.307928e-001
<GCONST> 1.610596e+001
<STATE> 7
<MEAN> 16
 5.966404e+000 6.296346e+000 6.674613e+000 6.797992e+000 6.752507e+000 6.846535e+000 7.159820e+000 8.089390e+000 8.928853e+000 9.135483e+000 9.759198e+000 1.067779e+001 1.139323e+001 1.145648e+001 1.078505e+001 9.995070e+000
<VARIANCE> 16
 2.664481e-001 7.888903e-001 1.296131e+000 5.797503e-001 2.208510e-001 1.873933e-001 1.851464e-001 4.761311e-001 6.599273e-001 4.205206e-001 7.858016e-001 1.238513e+000 1.262326e+000 1.343441e+000 1.102077e+000 7.275065e-001
<GCONST> 2.094530e+001
<STATE> 8
<MEAN> 16
 6.312294e+000 7.602519e+000 8.814100e+000 8.972697e+000 8.022703e+000 7.747976e+000 7.973279e+000 8.718890e+000 1.002500e+001 1.072893e+001 1.067010e+001 1.077601e+001 1.118945e+001 1.063601e+001 9.270427e+000 8.728564e+000
<VARIANCE> 16
 2.082925e-001 6.448077e-001 1.567138e+000 1.559570e+000 9.827490e-001 7.384162e-001 5.027245e-001 4.885883e-001 8.457604e-001 9.006283e-001 1.313378e+000 1.431554e+000 1.340463e+000 1.455355e+000 9.954144e-001 4.564457e-001
<GCONST> 2.680605e+001
<STATE> 9
<MEAN> 16
 6.000145e+000 6.865127e+000 7.684244e+000 7.728269e+000 7.251749e+000 7.094261e+000 6.998211e+000 7.257466e+000 8.275372e+000 9.164618e+000 9.177275e+000 9.193728e+000 9.666274e+000 9.077328e+000 8.123555e+000 8.090491e+000
<VARIANCE> 16
 1.826494e-001 4.254238e-001 3.522488e-001 5.288073e-001 3.765763e-001 3.246379e-001 1.243597e-001 1.335149e-001 4.369720e-001 3.830313e-001 4.922299e-001 3.247123e-001 4.193133e-001 3.713492e-001 1.145094e-001 5.897025e-002
<GCONST> 8.492111e+000
<TRANSP> 10
 0.000000e+000 1.000000e+000 0.000000e+000 0.000000e+000 0.000000e+000 0.000000e+000 0.000000e+000 0.000000e+000 0.000000e+000 0.000000e+000
 0.000000e+000 4.028795e-001 5.971205e-001 0.000000e+000 0.000000e+000 0.000000e+000 0.000000e+000 0.000000e+000 0.000000e+000 0.000000e+000
 0.000000e+000 0.000000e+000 2.595463e-001 7.404538e-001 0.000000e+000 0.000000e+000 0.000000e+000 0.000000e+000 0.000000e+000 0.000000e+000
 0.000000e+000 0.000000e+000 0.000000e+000 2.649493e-001 7.350507e-001 0.000000e+000 0.000000e+000 0.000000e+000 0.000000e+000 0.000000e+000
 0.000000e+000 0.000000e+000 0.000000e+000 0.000000e+000 3.553033e-001 6.446967e-001 0.000000e+000 0.000000e+000 0.000000e+000 0.000000e+000
 0.000000e+000 0.000000e+000 0.000000e+000 0.000000e+000 0.000000e+000 5.537003e-001 4.462997e-001 0.000000e+000 0.000000e+000 0.000000e+000
 0.000000e+000 0.000000e+000 0.000000e+000 0.000000e+000 0.000000e+000 0.000000e+000 7.595296e-001 2.404704e-001 0.000000e+000 0.000000e+000
 0.000000e+000 0.000000e+000 0.000000e+000 0.000000e+000 0.000000e+000 0.000000e+000 0.000000e+000 9.608099e-001 3.919007e-002 0.000000e+000
 0.000000e+000 0.000000e+000 0.000000e+000 0.000000e+000 0.000000e+000 0.000000e+000 0.000000e+000 0.000000e+000 7.049598e-001 2.950402e-001
 0.000000e+000 0.000000e+000 0.000000e+000 0.000000e+000 0.000000e+000 0.000000e+000 0.000000e+000 0.000000e+000 0.000000e+000 0.000000e+000
<ENDHMM>
~h "nula"
<BEGINHMM>
<NUMSTATES> 10
<STATE> 2
<MEAN> 16
 6.208212e+000 7.514952e+000 7.685838e+000 7.729498e+000 7.175008e+000 7.143310e+000 6.988809e+000 7.263304e+000 7.562578e+000 7.677032e+000 7.656401e+000 7.685160e+000 8.255718e+000 8.188620e+000 7.890438e+000 8.052738e+000
<VARIANCE> 16
 5.617940e-001 5.554207e-001 5.695763e-001 5.200069e-001 4.277581e-001 5.108021e-001 2.012053e-001 2.348523e-001 2.489998e-001 4.542389e-001 3.383319e-001 2.003905e-001 4.114181e-001 2.051446e-001 3.979139e-002 4.570266e-002
<GCONST> 8.798868e+000
<STATE> 3
<MEAN> 16
 6.446845e+000 7.857059e+000 8.173794e+000 8.207829e+000 7.551622e+000 7.471747e+000 7.215762e+000 7.541790e+000 7.798280e+000 8.031651e+000 8.035407e+000 7.966021e+000 8.539857e+000 8.378273e+000 7.941730e+000 8.054165e+000
<VARIANCE> 16
 4.719145e-001 4.741541e-001 5.375140e-001 4.544326e-001 4.586647e-001 6.284692e-001 2.253790e-001 3.782423e-001 3.088176e-001 6.843801e-001 6.034117e-001 3.379152e-001 5.351954e-001 1.980640e-001 2.958055e-002 3.899442e-002
<GCONST> 1.063962e+001
<STATE> 4
<MEAN> 16
 6.609484e+000 8.013437e+000 8.425287e+000 8.440186e+000 7.742768e+000 7.582410e+000 7.375045e+000 7.703200e+000 7.920708e+000 8.161478e+000 8.198298e+000 8.126303e+000 8.611075e+000 8.408763e+000 7.969819e+000 8.047788e+000
<VARIANCE> 16
 4.115557e-001 3.943437e-001 5.396572e-001 3.944361e-001 4.414456e-001 7.061512e-001 3.249701e-001 3.898687e-001 3.311181e-001 6.387489e-001 6.369483e-001 4.269340e-001 6.074086e-001 2.233339e-001 4.550489e-002 3.975490e-002
<GCONST> 1.164066e+001
<STATE> 5
<MEAN> 16
 6.634599e+000 8.089882e+000 8.615320e+000 8.685946e+000 7.965891e+000 7.888910e+000 7.724624e+000 7.986921e+000 8.153412e+000 8.392825e+000 8.442792e+000 8.354439e+000 8.684884e+000 8.405839e+000 8.027349e+000 8.111978e+000
<VARIANCE> 16
 4.452628e-001 3.298653e-001 5.769023e-001 4.697894e-001 4.098887e-001 6.742404e-001 4.840442e-001 4.821847e-001 3.526757e-001 5.254356e-001 8.028775e-001 6.809989e-001 6.145675e-001 1.941566e-001 7.636135e-002 6.689052e-002
<GCONST> 1.374889e+001
<STATE> 6
<MEAN> 16
 6.568045e+000 8.067532e+000 8.783802e+000 9.067220e+000 8.312088e+000 8.362679e+000 8.192468e+000 8.303106e+000 8.412166e+000 8.646888e+000 8.738873e+000 8.754956e+000 8.836841e+000 8.456691e+000 8.093561e+000 8.200573e+000
<VARIANCE> 16
 4.405323e-001 3.872423e-001 6.465884e-001 5.180007e-001 3.718957e-001 6.332728e-001 6.477916e-001 5.849272e-001 3.277597e-001 3.500106e-001 9.904657e-001 1.090177e+000 8.100413e-001 2.693759e-001 1.820088e-001 2.251017e-001
<GCONST> 1.732155e+001
<STATE> 7
<MEAN> 16
 6.491262e+000 8.038518e+000 8.914523e+000 9.493405e+000 8.807941e+000 8.859929e+000 8.710161e+000 8.516592e+000 8.533690e+000 8.773435e+000 9.000284e+000 9.146097e+000 9.108002e+000 8.605121e+000 8.188889e+000 8.228842e+000
<VARIANCE> 16
 4.158503e-001 3.739732e-001 8.004836e-001 4.967638e-001 5.162352e-001 6.934961e-001 7.421741e-001 6.028570e-001 3.045809e-001 2.670203e-001 9.096591e-001 1.238508e+000 1.072767e+000 4.778975e-001 3.361163e-001 3.478223e-001
<GCONST> 1.958690e+001
<STATE> 8
<MEAN> 16
 6.657546e+000 7.835730e+000 9.023876e+000 1.002951e+001 1.024419e+001 1.035041e+001 1.038669e+001 9.734692e+000 9.267924e+000 9.687603e+000 1.004122e+001 1.027279e+001 1.066089e+001 9.865000e+000 8.683910e+000 8.455835e+000
<VARIANCE> 16
 3.350773e-001 5.332791e-001 1.102027e+000 5.203691e-001 8.165278e-001 8.031078e-001 1.280583e+000 1.374772e+000 5.462472e-001 7.394659e-001 1.704658e+000 1.513671e+000 1.957462e+000 1.511042e+000 7.819526e-001 4.774153e-001
<GCONST> 2.741202e+001
<STATE> 9
<MEAN> 16
 5.999923e+000 6.730965e+000 7.135794e+000 8.321024e+000 8.986362e+000 9.236802e+000 9.395079e+000 8.952356e+000 8.290730e+000 8.555981e+000 8.879962e+000 8.999402e+000 9.517152e+000 8.940274e+000 8.084269e+000 8.053731e+000
<VARIANCE> 16
 2.479070e-001 5.576600e-001 5.060713e-001 7.657469e-001 6.540097e-001 6.004185e-001 9.971249e-001 1.479049e+000 8.073239e-001 8.587369e-001 1.292659e+000 1.003104e+000 1.122196e+000 7.088065e-001 1.710121e-001 1.010605e-001
<GCONST> 2.153964e+001
<TRANSP> 10
 0.000000e+000 1.000000e+000 0.000000e+000 0.000000e+000 0.000000e+000 0.000000e+000 0.000000e+000 0.000000e+000 0.000000e+000 0.000000e+000
 0.000000e+000 3.123134e-001 6.876866e-001 0.000000e+000 0.000000e+000 0.000000e+000 0.000000e+000 0.000000e+000 0.000000e+000 0.000000e+000
 0.000000e+000 0.000000e+000 2.798706e-001 7.201294e-001 0.000000e+000 0.000000e+000 0.000000e+000 0.000000e+000 0.000000e+000 0.000000e+000
 0.000000e+000 0.000000e+000 0.000000e+000 2.958982e-001 7.041019e-001 0.000000e+000 0.000000e+000 0.000000e+000 0.000000e+000 0.000000e+000
 0.000000e+000 0.000000e+000 0.000000e+000 0.000000e+000 3.517820e-001 6.482180e-001 0.000000e+000 0.000000e+000 0.000000e+000 0.000000e+000
 0.000000e+000 0.000000e+000 0.000000e+000 0.000000e+000 0.000000e+000 4.797975e-001 5.202025e-001 0.000000e+000 0.000000e+000 0.000000e+000
 0.000000e+000 0.000000e+000 0.000000e+000 0.000000e+000 0.000000e+000 0.000000e+000 6.629604e-001 3.370396e-001 0.000000e+000 0.000000e+000
 0.000000e+000 0.000000e+000 0.000000e+000 0.000000e+000 0.000000e+000 0.000000e+000 0.000000e+000 9.662787e-001 3.372133e-002 0.000000e+000
 0.000000e+000 0.000000e+000 0.000000e+000 0.000000e+000 0.000000e+000 0.000000e+000 0.000000e+000 0.000000e+000 8.348188e-001 1.651812e-001
 0.000000e+000 0.000000e+000 0.000000e+000 0.000000e+000 0.000000e+000 0.000000e+000 0.000000e+000 0.000000e+000 0.000000e+000 0.000000e+000
<ENDHMM>
~h "devet"
<BEGINHMM>
<NUMSTATES> 10
<STATE> 2
<MEAN> 16
 6.170316e+000 6.897098e+000 7.047746e+000 7.011890e+000 6.665629e+000 6.621984e+000 6.740145e+000 7.021883e+000 7.513114e+000 7.383464e+000 7.454753e+000 7.629821e+000 7.903116e+000 7.933395e+000 7.878148e+000 8.023595e+000
<VARIANCE> 16
 2.013161e-001 3.274464e-001 3.779656e-001 3.525109e-001 1.399939e-001 1.473163e-001 1.593630e-001 3.433563e-001 3.342185e-001 2.554272e-001 1.679589e-001 1.984893e-001 2.723998e-001 1.740502e-001 4.086709e-002 3.989197e-002
<GCONST> 2.554472e+000
<STATE> 3
<MEAN> 16
 6.220940e+000 7.103772e+000 7.456246e+000 7.379746e+000 6.902799e+000 6.731669e+000 6.985333e+000 7.336932e+000 7.841093e+000 7.709253e+000 7.789090e+000 7.956841e+000 8.272311e+000 8.208646e+000 7.950123e+000 8.049398e+000
<VARIANCE> 16
 2.425578e-001 4.454357e-001 4.181177e-001 4.305151e-001 1.886481e-001 1.670679e-001 1.702704e-001 5.337205e-001 5.410297e-001 3.795605e-001 4.312163e-001 5.001267e-001 6.023347e-001 3.637554e-001 5.588219e-002 7.902359e-002
<GCONST> 9.552779e+000
<STATE> 4
<MEAN> 16
 6.292806e+000 7.273641e+000 7.867453e+000 7.850027e+000 7.143423e+000 6.915720e+000 7.217412e+000 7.915821e+000 8.424968e+000 8.322008e+000 8.384697e+000 8.524202e+000 8.885601e+000 8.690060e+000 8.154003e+000 8.113535e+000
<VARIANCE> 16
 2.679568e-001 4.836158e-001 5.917542e-001 6.596212e-001 2.569812e-001 1.798865e-001 2.499440e-001 8.796464e-001 9.762952e-001 6.617161e-001 7.372336e-001 8.652753e-001 9.766397e-001 6.421193e-001 1.604810e-001 1.099179e-001
<GCONST> 1.644226e+001
<STATE> 5
<MEAN> 16
 6.463284e+000 7.488274e+000 8.412930e+000 8.488672e+000 7.674086e+000 7.342150e+000 7.672898e+000 8.675752e+000 9.336011e+000 9.223886e+000 9.223687e+000 9.373465e+000 9.766393e+000 9.322935e+000 8.485674e+000 8.299795e+000
<VARIANCE> 16
 2.585182e-001 3.327594e-001 7.086349e-001 8.395447e-001 3.546420e-001 2.393496e-001 3.706875e-001 8.362625e-001 8.521358e-001 7.885210e-001 1.046009e+000 1.289765e+000 1.180142e+000 9.482555e-001 3.842637e-001 1.569847e-001
<GCONST> 2.000222e+001
<STATE> 6
<MEAN> 16
 6.564538e+000 7.663162e+000 8.959310e+000 9.197443e+000 8.332891e+000 7.850898e+000 8.187439e+000 9.294395e+000 1.008336e+001 9.949800e+000 9.951980e+000 1.004495e+001 1.033076e+001 9.601707e+000 8.664310e+000 8.394834e+000
<VARIANCE> 16
 2.220814e-001 2.212321e-001 6.979997e-001 6.787119e-001 4.446297e-001 2.804439e-001 3.050827e-001 7.107354e-001 6.759903e-001 7.290430e-001 1.296984e+000 1.663886e+000 1.316123e+000 1.061490e+000 3.662860e-001 1.648825e-001
<GCONST> 1.962426e+001
<STATE> 7
<MEAN> 16
 6.625555e+000 7.740227e+000 9.270650e+000 9.673335e+000 8.900740e+000 8.249799e+000 8.608470e+000 9.755284e+000 1.054189e+001 1.043712e+001 1.025677e+001 1.037355e+001 1.062732e+001 9.844873e+000 8.769787e+000 8.512615e+000
<VARIANCE> 16
 2.112849e-001 2.216236e-001 5.455148e-001 5.146219e-001 4.833756e-001 2.678257e-001 1.667546e-001 5.837535e-001 4.707003e-001 5.576007e-001 1.728782e+000 1.980776e+000 1.230766e+000 1.023685e+000 2.457803e-001 1.922949e-001
<GCONST> 1.777273e+001
<STATE> 8
<MEAN> 16
 6.680000e+000 7.898468e+000 9.321720e+000 9.489288e+000 8.690249e+000 8.144614e+000 8.611014e+000 9.850638e+000 1.038852e+001 1.025008e+001 9.568248e+000 9.649936e+000 1.018369e+001 9.902668e+000 8.656894e+000 8.691073e+000
<VARIANCE> 16
 2.105870e-001 2.694583e-001 2.680795e-001 7.260097e-001 1.458520e+000 7.066903e-001 4.266793e-001 3.405178e-001 5.588301e-001 9.079514e-001 2.880162e+000 3.006893e+000 1.943979e+000 1.025426e+000 1.507191e-001 1.596559e-001
<GCONST> 2.144448e+001
<STATE> 9
<MEAN> 16
 6.387116e+000 7.455747e+000 8.883036e+000 9.529490e+000 9.194362e+000 8.440581e+000 8.696717e+000 9.558386e+000 1.047290e+001 1.062273e+001 1.074177e+001 1.087837e+001 1.112769e+001 1.030193e+001 8.622936e+000 8.323395e+000
<VARIANCE> 16
 1.887177e-001 3.162435e-001 6.354500e-001 7.468069e-001 1.277779e+000 7.155524e-001 5.162061e-001 5.184934e-001 7.963521e-001 9.631259e-001 1.379795e+000 1.346430e+000 1.164709e+000 1.447493e+000 3.206545e-001 9.371459e-002
<GCONST> 2.180578e+001
<TRANSP> 10
 0.000000e+000 1.000000e+000 0.000000e+000 0.000000e+000 0.000000e+000 0.000000e+000 0.000000e+000 0.000000e+000 0.000000e+000 0.000000e+000
 0.000000e+000 5.638122e-002 9.436188e-001 0.000000e+000 0.000000e+000 0.000000e+000 0.000000e+000 0.000000e+000 0.000000e+000 0.000000e+000
 0.000000e+000 0.000000e+000 4.151734e-002 9.584827e-001 0.000000e+000 0.000000e+000 0.000000e+000 0.000000e+000 0.000000e+000 0.000000e+000
 0.000000e+000 0.000000e+000 0.000000e+000 3.862128e-002 9.613787e-001 0.000000e+000 0.000000e+000 0.000000e+000 0.000000e+000 0.000000e+000
 0.000000e+000 0.000000e+000 0.000000e+000 0.000000e+000 4.436200e-002 9.556380e-001 0.000000e+000 0.000000e+000 0.000000e+000 0.000000e+000
 0.000000e+000 0.000000e+000 0.000000e+000 0.000000e+000 0.000000e+000 7.951263e-002 9.204874e-001 0.000000e+000 0.000000e+000 0.000000e+000
 0.000000e+000 0.000000e+000 0.000000e+000 0.000000e+000 0.000000e+000 0.000000e+000 2.552246e-001 7.447754e-001 0.000000e+000 0.000000e+000
 0.000000e+000 0.000000e+000 0.000000e+000 0.000000e+000 0.000000e+000 0.000000e+000 0.000000e+000 8.189847e-001 1.810153e-001 0.000000e+000
 0.000000e+000 0.000000e+000 0.000000e+000 0.000000e+000 0.000000e+000 0.000000e+000 0.000000e+000 0.000000e+000 9.719679e-001 2.803216e-002
 0.000000e+000 0.000000e+000 0.000000e+000 0.000000e+000 0.000000e+000 0.000000e+000 0.000000e+000 0.000000e+000 0.000000e+000 0.000000e+000
<ENDHMM>
~h "jedna"
<BEGINHMM>
<NUMSTATES> 10
<STATE> 2
<MEAN> 16
 6.153491e+000 7.324240e+000 7.503204e+000 7.255768e+000 6.762002e+000 6.692761e+000 6.729082e+000 6.980301e+000 7.699163e+000 8.251245e+000 8.281842e+000 8.547776e+000 8.943881e+000 8.524560e+000 8.038537e+000 8.079174e+000
<VARIANCE> 16
 1.491391e-001 3.173327e-001 3.625183e-001 2.563567e-001 1.835503e-001 1.416411e-001 5.330452e-002 1.247519e-001 4.263359e-001 3.876202e-001 3.787875e-001 6.959628e-001 6.749346e-001 3.257876e-001 1.177488e-001 7.333184e-002
<GCONST> 5.916492e+000
<STATE> 3
<MEAN> 16
 6.390234e+000 7.572151e+000 8.145184e+000 7.756441e+000 7.033927e+000 6.797156e+000 6.887970e+000 7.274152e+000 8.090378e+000 8.854455e+000 8.866910e+000 9.054878e+000 9.514679e+000 8.907195e+000 8.233678e+000 8.204431e+000
<VARIANCE> 16
 1.908807e-001 2.140087e-001 3.756843e-001 2.943685e-001 2.277976e-001 2.468195e-001 1.440652e-001 3.685986e-001 7.120926e-001 5.327258e-001 6.242287e-001 1.264188e+000 1.113298e+000 4.909440e-001 1.535241e-001 1.072310e-001
<GCONST> 1.227545e+001
<STATE> 4
<MEAN> 16
 6.485980e+000 7.548707e+000 8.289559e+000 7.980666e+000 7.239004e+000 6.895812e+000 7.089893e+000 7.681948e+000 8.457642e+000 9.006793e+000 8.922353e+000 9.040308e+000 9.547682e+000 8.873083e+000 8.387545e+000 8.303949e+000
<VARIANCE> 16
 1.641170e-001 2.524799e-001 7.092690e-001 5.526257e-001 3.019190e-001 1.717965e-001 2.277295e-001 6.370983e-001 9.280019e-001 9.755567e-001 1.172896e+000 1.857993e+000 1.522828e+000 7.542538e-001 2.707433e-001 1.375321e-001
<GCONST> 1.792393e+001
<STATE> 5
<MEAN> 16
 6.448730e+000 7.601182e+000 8.473626e+000 8.201009e+000 7.397137e+000 7.089648e+000 7.341436e+000 7.940480e+000 8.679989e+000 9.330030e+000 9.321234e+000 9.449445e+000 9.817095e+000 9.156250e+000 8.418908e+000 8.313129e+000
<VARIANCE> 16
 1.429257e-001 3.136810e-001 9.522911e-001 7.428820e-001 4.558008e-001 2.639918e-001 3.572194e-001 7.742316e-001 9.267332e-001 1.266551e+000 1.660177e+000 2.280274e+000 1.961951e+000 1.121781e+000 3.574111e-001 1.123258e-001
<GCONST> 2.161736e+001
<STATE> 6
<MEAN> 16
 6.430414e+000 7.577906e+000 8.577740e+000 8.376344e+000 7.586681e+000 7.254367e+000 7.557958e+000 8.074888e+000 8.801630e+000 9.560861e+000 9.693509e+000 9.866086e+000 1.009914e+001 9.372350e+000 8.451201e+000 8.285828e+000
<VARIANCE> 16
 1.433429e-001 4.015354e-001 9.893344e-001 8.804461e-001 6.524569e-001 3.897322e-001 5.313591e-001 7.583889e-001 1.012094e+000 1.487611e+000 1.925061e+000 2.349776e+000 2.146850e+000 1.324522e+000 4.218166e-001 8.864908e-002
<GCONST> 2.381210e+001
<STATE> 7
<MEAN> 16
 6.438039e+000 7.617886e+000 8.638087e+000 8.716593e+000 8.047286e+000 7.605210e+000 7.843044e+000 8.437631e+000 9.078987e+000 9.717657e+000 9.816293e+000 1.009149e+001 1.024541e+001 9.418420e+000 8.415759e+000 8.239408e+000
<VARIANCE> 16
 1.410375e-001 3.326907e-001 8.896303e-001 1.093117e+000 1.034210e+000 6.585239e-001 8.594038e-001 8.995719e-001 1.229799e+000 1.601439e+000 1.939305e+000 2.089863e+000 1.899523e+000 1.507908e+000 4.590359e-001 7.600202e-002
<GCONST> 2.545126e+001
<STATE> 8
<MEAN> 16
 6.566914e+000 7.707277e+000 8.647848e+000 9.160290e+000 9.240781e+000 9.033963e+000 9.240360e+000 9.742086e+000 9.794338e+000 9.897928e+000 9.999658e+000 1.019903e+001 1.064552e+001 9.879941e+000 8.392265e+000 8.241301e+000
<VARIANCE> 16
 1.448066e-001 2.896354e-001 5.563024e-001 7.217947e-001 1.408535e+000 1.847825e+000 2.220084e+000 2.056226e+000 1.007501e+000 9.597283e-001 1.589987e+000 1.466614e+000 1.485993e+000 1.362308e+000 3.213331e-001 1.078795e-001
<GCONST> 2.595336e+001
<STATE> 9
<MEAN> 16
 6.198653e+000 7.037206e+000 7.459575e+000 8.227637e+000 8.987081e+000 9.169253e+000 9.427876e+000 9.281230e+000 8.671014e+000 8.667446e+000 9.025606e+000 9.322552e+000 9.630862e+000 8.973479e+000 8.006166e+000 8.088076e+000
<VARIANCE> 16
 1.459074e-001 3.627303e-001 5.093906e-001 7.465796e-001 8.623448e-001 6.433971e-001 8.344218e-001 1.056901e+000 5.801952e-001 5.648686e-001 1.011786e+000 1.116957e+000 8.012066e-001 4.490619e-001 4.894284e-002 3.905727e-002
<GCONST> 1.651031e+001
<TRANSP> 10
 0.000000e+000 1.000000e+000 0.000000e+000 0.000000e+000 0.000000e+000 0.000000e+000 0.000000e+000 0.000000e+000 0.000000e+000 0.000000e+000
 0.000000e+000 1.341041e-001 8.658959e-001 0.000000e+000 0.000000e+000 0.000000e+000 0.000000e+000 0.000000e+000 0.000000e+000 0.000000e+000
 0.000000e+000 0.000000e+000 2.136172e-001 7.863827e-001 0.000000e+000 0.000000e+000 0.000000e+000 0.000000e+000 0.000000e+000 0.000000e+000
 0.000000e+000 0.000000e+000 0.000000e+000 4.127962e-001 5.872038e-001 0.000000e+000 0.000000e+000 0.000000e+000 0.000000e+000 0.000000e+000
 0.000000e+000 0.000000e+000 0.000000e+000 0.000000e+000 4.508500e-001 5.491500e-001 0.000000e+000 0.000000e+000 0.000000e+000 0.000000e+000
 0.000000e+000 0.000000e+000 0.000000e+000 0.000000e+000 0.000000e+000 5.679473e-001 4.320527e-001 0.000000e+000 0.000000e+000 0.000000e+000
 0.000000e+000 0.000000e+000 0.000000e+000 0.000000e+000 0.000000e+000 0.000000e+000 7.469338e-001 2.530662e-001 0.000000e+000 0.000000e+000
 0.000000e+000 0.000000e+000 0.000000e+000 0.000000e+000 0.000000e+000 0.000000e+000 0.000000e+000 9.698567e-001 3.014328e-002 0.000000e+000
 0.000000e+000 0.000000e+000 0.000000e+000 0.000000e+000 0.000000e+000 0.000000e+000 0.000000e+000 0.000000e+000 8.897823e-001 1.102177e-001
 0.000000e+000 0.000000e+000 0.000000e+000 0.000000e+000 0.000000e+000 0.000000e+000 0.000000e+000 0.000000e+000 0.000000e+000 0.000000e+000
<ENDHMM>
