~o
<STREAMINFO> 1 39
<VECSIZE> 39<NULLD><MFCC_D_A_0><DIAGC>
~h "proto-3s-39f"
<BEGINHMM>
<NUMSTATES> 5
<STATE> 2
<MEAN> 39
 -7.955118e+000 -1.342966e+000 1.473890e+000 -5.104167e+000 -3.809351e+000 -3.606570e+000 -3.301950e+000 -1.727186e+000 -1.657604e+000 -1.349510e-001 -1.458317e+000 -1.451559e+000 6.019566e+001 -1.138526e-004 4.618368e-004 5.364576e-004 -8.682805e-004 2.357357e-003 -6.442664e-004 4.786771e-004 -9.459080e-004 -1.036703e-003 1.015743e-003 -6.497445e-004 3.174446e-004 1.870009e-003 1.332821e-004 -1.942548e-005 -2.408419e-004 5.678850e-005 -2.596032e-004 7.170090e-005 -3.575166e-005 6.761910e-005 1.448498e-005 -2.848594e-004 -1.220425e-004 -4.770422e-005 -2.754495e-004
<VARIANCE> 39
 8.734944e+001 6.009818e+001 7.634363e+001 9.227768e+001 8.232497e+001 7.615223e+001 7.703553e+001 6.286168e+001 6.621155e+001 4.622612e+001 6.105910e+001 3.961195e+001 3.144565e+002 3.552021e+000 2.953835e+000 2.854625e+000 4.020165e+000 4.060718e+000 3.665646e+000 3.837373e+000 3.763541e+000 3.608474e+000 2.973805e+000 3.080254e+000 2.413050e+000 3.965565e+000 5.176081e-001 5.008283e-001 4.582565e-001 6.882523e-001 7.108405e-001 6.539938e-001 6.868035e-001 6.883193e-001 6.492820e-001 5.617016e-001 5.620656e-001 4.489511e-001 6.315120e-001
<GCONST> 1.369537e+002
<STATE> 3
<MEAN> 39
 -7.955118e+000 -1.342966e+000 1.473890e+000 -5.104167e+000 -3.809351e+000 -3.606570e+000 -3.301950e+000 -1.727186e+000 -1.657604e+000 -1.349510e-001 -1.458317e+000 -1.451559e+000 6.019566e+001 -1.138526e-004 4.618368e-004 5.364576e-004 -8.682805e-004 2.357357e-003 -6.442664e-004 4.786771e-004 -9.459080e-004 -1.036703e-003 1.015743e-003 -6.497445e-004 3.174446e-004 1.870009e-003 1.332821e-004 -1.942548e-005 -2.408419e-004 5.678850e-005 -2.596032e-004 7.170090e-005 -3.575166e-005 6.761910e-005 1.448498e-005 -2.848594e-004 -1.220425e-004 -4.770422e-005 -2.754495e-004
<VARIANCE> 39
 8.734944e+001 6.009818e+001 7.634363e+001 9.227768e+001 8.232497e+001 7.615223e+001 7.703553e+001 6.286168e+001 6.621155e+001 4.622612e+001 6.105910e+001 3.961195e+001 3.144565e+002 3.552021e+000 2.953835e+000 2.854625e+000 4.020165e+000 4.060718e+000 3.665646e+000 3.837373e+000 3.763541e+000 3.608474e+000 2.973805e+000 3.080254e+000 2.413050e+000 3.965565e+000 5.176081e-001 5.008283e-001 4.582565e-001 6.882523e-001 7.108405e-001 6.539938e-001 6.868035e-001 6.883193e-001 6.492820e-001 5.617016e-001 5.620656e-001 4.489511e-001 6.315120e-001
<GCONST> 1.369537e+002
<STATE> 4
<MEAN> 39
 -7.955118e+000 -1.342966e+000 1.473890e+000 -5.104167e+000 -3.809351e+000 -3.606570e+000 -3.301950e+000 -1.727186e+000 -1.657604e+000 -1.349510e-001 -1.458317e+000 -1.451559e+000 6.019566e+001 -1.138526e-004 4.618368e-004 5.364576e-004 -8.682805e-004 2.357357e-003 -6.442664e-004 4.786771e-004 -9.459080e-004 -1.036703e-003 1.015743e-003 -6.497445e-004 3.174446e-004 1.870009e-003 1.332821e-004 -1.942548e-005 -2.408419e-004 5.678850e-005 -2.596032e-004 7.170090e-005 -3.575166e-005 6.761910e-005 1.448498e-005 -2.848594e-004 -1.220425e-004 -4.770422e-005 -2.754495e-004
<VARIANCE> 39
 8.734944e+001 6.009818e+001 7.634363e+001 9.227768e+001 8.232497e+001 7.615223e+001 7.703553e+001 6.286168e+001 6.621155e+001 4.622612e+001 6.105910e+001 3.961195e+001 3.144565e+002 3.552021e+000 2.953835e+000 2.854625e+000 4.020165e+000 4.060718e+000 3.665646e+000 3.837373e+000 3.763541e+000 3.608474e+000 2.973805e+000 3.080254e+000 2.413050e+000 3.965565e+000 5.176081e-001 5.008283e-001 4.582565e-001 6.882523e-001 7.108405e-001 6.539938e-001 6.868035e-001 6.883193e-001 6.492820e-001 5.617016e-001 5.620656e-001 4.489511e-001 6.315120e-001
<GCONST> 1.369537e+002
<TRANSP> 5
 0.000000e+000 1.000000e+000 0.000000e+000 0.000000e+000 0.000000e+000
 0.000000e+000 6.000000e-001 4.000000e-001 0.000000e+000 0.000000e+000
 0.000000e+000 0.000000e+000 6.000000e-001 4.000000e-001 0.000000e+000
 0.000000e+000 0.000000e+000 0.000000e+000 7.000000e-001 3.000000e-001
 0.000000e+000 0.000000e+000 0.000000e+000 0.000000e+000 0.000000e+000
<ENDHMM>
