~o
<STREAMINFO> 1 39
<VECSIZE> 39<NULLD><MFCC_D_A_0><DIAGC>
~h "proto-1s-39f"
<BEGINHMM>
<NUMSTATES> 3
<STATE> 2
<MEAN> 39
 -7.958015e+000 -1.318278e+000 1.509389e+000 -5.091096e+000 -3.849921e+000 -3.653995e+000 -3.280636e+000 -1.744910e+000 -1.692164e+000 -1.705406e-001 -1.456800e+000 -1.433387e+000 6.096718e+001 -5.545811e-005 3.985782e-004 6.585701e-004 -6.937617e-004 2.350645e-003 -6.547942e-004 6.210024e-004 -8.787654e-004 -1.119765e-003 1.046643e-003 -7.063295e-004 3.404699e-004 1.892120e-003 1.314444e-004 -4.184522e-005 -2.328408e-004 4.667437e-005 -2.795600e-004 5.838344e-005 -6.981852e-005 9.427553e-005 1.286235e-005 -2.909636e-004 -7.009234e-005 7.104122e-006 -2.580282e-004
<VARIANCE> 39
 8.791764e+001 6.039162e+001 7.682795e+001 9.229403e+001 8.266984e+001 7.653342e+001 7.738492e+001 6.334233e+001 6.645264e+001 4.653215e+001 6.125925e+001 3.967796e+001 1.927296e+002 3.598812e+000 2.980015e+000 2.889654e+000 4.052510e+000 4.109888e+000 3.694155e+000 3.867039e+000 3.801670e+000 3.640958e+000 3.001476e+000 3.100487e+000 2.428463e+000 3.995864e+000 5.245048e-001 5.058381e-001 4.646187e-001 6.939526e-001 7.188434e-001 6.594630e-001 6.915911e-001 6.952636e-001 6.545216e-001 5.669913e-001 5.661299e-001 4.518878e-001 6.366600e-001
<GCONST> 1.367578e+002
<TRANSP> 3
 0.000000e+000 1.000000e+000 0.000000e+000
 0.000000e+000 6.000000e-001 4.000000e-001
 0.000000e+000 0.000000e+000 0.000000e+000
<ENDHMM>
