~o
<STREAMINFO> 1 16
<VECSIZE> 16<NULLD><FBANK><DIAGC>
~h "ctyri"
<BEGINHMM>
<NUMSTATES> 10
<STATE> 2
<MEAN> 16
 5.766139e+000 5.782772e+000 5.996457e+000 6.177588e+000 6.318329e+000 6.474710e+000 6.638951e+000 6.882985e+000 7.295477e+000 7.413358e+000 7.570303e+000 7.872322e+000 8.153208e+000 8.242384e+000 8.151895e+000 8.252268e+000
<VARIANCE> 16
 1.403702e-001 1.155864e-001 1.309685e-001 7.608499e-002 5.707564e-002 4.667605e-002 5.246212e-002 7.787269e-002 1.623468e-001 3.286524e-001 3.244125e-001 4.219970e-001 4.705950e-001 4.272396e-001 2.149409e-001 1.523239e-001
<GCONST> -6.947055e-001
<STATE> 3
<MEAN> 16
 5.633146e+000 5.794500e+000 6.019017e+000 6.221222e+000 6.345068e+000 6.540541e+000 6.846069e+000 7.059424e+000 7.510271e+000 8.108768e+000 9.235050e+000 1.027831e+001 1.088168e+001 1.087043e+001 1.019263e+001 9.480543e+000
<VARIANCE> 16
 1.129663e-001 7.611857e-002 1.124706e-001 8.009537e-002 5.925721e-002 5.459512e-002 8.112050e-002 7.722935e-002 9.536020e-002 2.874442e-001 6.876004e-001 6.687811e-001 9.360926e-001 8.018437e-001 6.207762e-001 4.405579e-001
<GCONST> 3.176780e+000
<STATE> 4
<MEAN> 16
 5.785494e+000 5.903069e+000 6.088983e+000 6.299656e+000 6.403173e+000 6.599287e+000 6.809020e+000 7.456943e+000 8.496083e+000 9.412639e+000 1.006771e+001 1.076766e+001 1.108099e+001 1.099388e+001 1.046359e+001 9.617797e+000
<VARIANCE> 16
 1.763546e-001 1.074963e-001 1.116746e-001 9.128477e-002 5.229621e-002 7.320669e-002 6.570087e-002 2.470003e-001 6.004201e-001 1.109324e+000 1.062591e+000 9.935395e-001 7.246636e-001 6.246335e-001 6.031624e-001 3.896467e-001
<GCONST> 8.575360e+000
<STATE> 5
<MEAN> 16
 5.718973e+000 5.772026e+000 5.943644e+000 6.095006e+000 6.268351e+000 6.447270e+000 6.622389e+000 6.826584e+000 7.235768e+000 7.349705e+000 7.831855e+000 8.458679e+000 8.956867e+000 8.830394e+000 8.411069e+000 8.197686e+000
<VARIANCE> 16
 1.132462e-001 9.800670e-002 1.126285e-001 6.455954e-002 6.138337e-002 5.927381e-002 6.066276e-002 6.257705e-002 6.342691e-002 1.812112e-001 2.743794e-001 4.079124e-001 5.246665e-001 4.217810e-001 2.141209e-001 6.260421e-002
<GCONST> -3.684998e+000
<STATE> 6
<MEAN> 16
 5.798295e+000 6.213016e+000 6.708953e+000 6.848218e+000 6.928380e+000 6.982085e+000 7.253154e+000 7.698308e+000 8.303134e+000 8.542760e+000 8.724461e+000 9.286710e+000 9.698996e+000 9.472894e+000 8.750495e+000 8.539662e+000
<VARIANCE> 16
 9.966970e-002 2.432748e-001 3.302597e-001 2.749310e-001 1.326677e-001 1.589708e-001 2.631063e-001 1.605412e-001 2.352533e-001 2.527153e-001 3.237159e-001 5.083762e-001 4.973264e-001 4.704319e-001 1.023312e-001 1.052754e-001
<GCONST> 5.653786e+000
<STATE> 7
<MEAN> 16
 5.988504e+000 7.510971e+000 8.203483e+000 9.030107e+000 7.433074e+000 7.325746e+000 7.702592e+000 8.675000e+000 9.654721e+000 1.034512e+001 1.076002e+001 1.112752e+001 1.158002e+001 1.092356e+001 9.313229e+000 8.759790e+000
<VARIANCE> 16
 1.325445e-001 4.606861e-001 6.954886e-001 9.762079e-001 3.670397e-001 1.934914e-001 2.487349e-001 4.493858e-001 4.928018e-001 6.531864e-001 7.513068e-001 5.724739e-001 6.607463e-001 1.006346e+000 1.010348e+000 4.699212e-001
<GCONST> 1.825667e+001
<STATE> 8
<MEAN> 16
 6.515870e+000 7.735215e+000 9.599499e+000 9.569458e+000 8.601685e+000 8.294271e+000 8.367654e+000 8.915447e+000 1.026576e+001 1.083217e+001 1.075797e+001 1.091300e+001 1.155858e+001 1.093833e+001 9.331541e+000 8.581100e+000
<VARIANCE> 16
 1.429614e-001 2.944233e-001 6.434626e-001 6.909287e-001 5.650073e-001 5.129901e-001 4.210679e-001 3.102454e-001 4.783469e-001 4.123318e-001 3.777653e-001 5.476957e-001 5.289172e-001 6.738295e-001 9.232273e-001 3.517411e-001
<GCONST> 1.679843e+001
<STATE> 9
<MEAN> 16
 6.550775e+000 7.868055e+000 9.129981e+000 8.463923e+000 7.598497e+000 7.248662e+000 7.491150e+000 8.492659e+000 9.747147e+000 9.846379e+000 8.872045e+000 8.924646e+000 9.291565e+000 8.860392e+000 8.530803e+000 8.556198e+000
<VARIANCE> 16
 1.797546e-001 4.186479e-001 5.901561e-001 2.698950e-001 1.463654e-001 1.820014e-001 1.606006e-001 7.128642e-001 1.065095e+000 3.461500e-001 4.535397e-001 4.510116e-001 6.360074e-001 4.255483e-001 2.244479e-001 1.777363e-001
<GCONST> 1.207612e+001
<TRANSP> 10
 0.000000e+000 1.000000e+000 0.000000e+000 0.000000e+000 0.000000e+000 0.000000e+000 0.000000e+000 0.000000e+000 0.000000e+000 0.000000e+000
 0.000000e+000 8.509805e-001 1.490195e-001 0.000000e+000 0.000000e+000 0.000000e+000 0.000000e+000 0.000000e+000 0.000000e+000 0.000000e+000
 0.000000e+000 0.000000e+000 7.536499e-001 2.463501e-001 0.000000e+000 0.000000e+000 0.000000e+000 0.000000e+000 0.000000e+000 0.000000e+000
 0.000000e+000 0.000000e+000 0.000000e+000 7.858031e-001 2.141970e-001 0.000000e+000 0.000000e+000 0.000000e+000 0.000000e+000 0.000000e+000
 0.000000e+000 0.000000e+000 0.000000e+000 0.000000e+000 8.437104e-001 1.562896e-001 0.000000e+000 0.000000e+000 0.000000e+000 0.000000e+000
 0.000000e+000 0.000000e+000 0.000000e+000 0.000000e+000 0.000000e+000 3.821115e-001 6.178886e-001 0.000000e+000 0.000000e+000 0.000000e+000
 0.000000e+000 0.000000e+000 0.000000e+000 0.000000e+000 0.000000e+000 0.000000e+000 9.110602e-001 8.893985e-002 0.000000e+000 0.000000e+000
 0.000000e+000 0.000000e+000 0.000000e+000 0.000000e+000 0.000000e+000 0.000000e+000 0.000000e+000 9.472827e-001 5.271729e-002 0.000000e+000
 0.000000e+000 0.000000e+000 0.000000e+000 0.000000e+000 0.000000e+000 0.000000e+000 0.000000e+000 0.000000e+000 9.228684e-001 7.713158e-002
 0.000000e+000 0.000000e+000 0.000000e+000 0.000000e+000 0.000000e+000 0.000000e+000 0.000000e+000 0.000000e+000 0.000000e+000 0.000000e+000
<ENDHMM>
~h "sedm"
<BEGINHMM>
<NUMSTATES> 10
<STATE> 2
<MEAN> 16
 5.616306e+000 5.744272e+000 5.985051e+000 6.174668e+000 6.280808e+000 6.497131e+000 6.620930e+000 6.894559e+000 7.308691e+000 7.347401e+000 7.490274e+000 7.857919e+000 8.694689e+000 9.015801e+000 9.278199e+000 9.102327e+000
<VARIANCE> 16
 1.127597e-001 8.482312e-002 7.504940e-002 7.894621e-002 5.556997e-002 4.634831e-002 3.996895e-002 5.749374e-002 6.208662e-002 4.174406e-002 8.777404e-002 9.232377e-002 1.321736e-001 1.989953e-001 3.052886e-001 3.641072e-001
<GCONST> -9.015448e+000
<STATE> 3
<MEAN> 16
 5.730271e+000 5.792994e+000 5.893982e+000 6.154146e+000 6.268643e+000 6.476084e+000 6.683300e+000 7.121330e+000 7.497956e+000 7.572146e+000 7.814145e+000 8.390921e+000 9.452389e+000 9.694037e+000 9.939231e+000 9.930171e+000
<VARIANCE> 16
 1.511322e-001 9.542155e-002 1.334101e-001 1.164164e-001 9.842219e-002 5.016351e-002 4.769313e-002 6.014880e-002 7.129286e-002 6.469219e-002 1.682747e-001 9.372924e-002 1.780176e-001 1.607243e-001 2.553901e-001 3.994469e-001
<GCONST> -5.527939e+000
<STATE> 4
<MEAN> 16
 5.767976e+000 5.819984e+000 5.918037e+000 6.195820e+000 6.490004e+000 6.566312e+000 6.786987e+000 7.297899e+000 7.720950e+000 7.768784e+000 8.104454e+000 8.708424e+000 9.867691e+000 1.017997e+001 1.035688e+001 1.020005e+001
<VARIANCE> 16
 2.155746e-001 8.832903e-002 7.600638e-002 7.830880e-002 4.668232e-002 5.880633e-002 5.022769e-002 6.565459e-002 8.763888e-002 6.532554e-002 1.694968e-001 1.022841e-001 2.320395e-001 3.233663e-001 5.801150e-001 5.186859e-001
<GCONST> -4.300198e+000
<STATE> 5
<MEAN> 16
 5.699846e+000 5.739925e+000 5.979337e+000 6.306978e+000 6.473567e+000 6.776387e+000 7.003382e+000 7.545037e+000 8.054704e+000 8.130039e+000 8.458115e+000 9.156757e+000 1.023783e+001 1.050629e+001 1.026910e+001 1.000728e+001
<VARIANCE> 16
 1.371247e-001 9.253617e-002 1.132322e-001 7.707426e-002 5.532752e-002 8.671688e-002 8.360144e-002 1.180784e-001 2.116834e-001 1.213457e-001 3.016836e-001 2.905802e-001 5.028403e-001 6.446841e-001 6.211224e-001 4.452808e-001
<GCONST> 1.832237e+000
<STATE> 6
<MEAN> 16
 5.979253e+000 6.132476e+000 6.457532e+000 6.813692e+000 6.895183e+000 7.172103e+000 7.434036e+000 8.098236e+000 8.727498e+000 8.692833e+000 9.028067e+000 9.553147e+000 1.054547e+001 1.085234e+001 1.031989e+001 1.005024e+001
<VARIANCE> 16
 2.087311e-001 2.345670e-001 3.156701e-001 2.543200e-001 1.193218e-001 1.258276e-001 1.557435e-001 1.420229e-001 2.473352e-001 2.805239e-001 3.965984e-001 4.474992e-001 6.596470e-001 9.143623e-001 7.001832e-001 4.735127e-001
<GCONST> 9.850421e+000
<STATE> 7
<MEAN> 16
 6.504037e+000 7.829812e+000 9.045244e+000 9.343210e+000 8.405149e+000 7.939405e+000 8.684727e+000 9.870255e+000 9.299607e+000 9.142826e+000 8.721791e+000 8.981247e+000 9.465883e+000 9.286947e+000 8.897890e+000 8.824447e+000
<VARIANCE> 16
 1.560339e-001 1.147249e-001 2.030242e-001 2.324818e-001 3.194987e-001 2.918260e-001 1.622198e-001 2.324042e-001 2.922867e-001 3.066299e-001 9.075933e-001 5.751171e-001 5.174692e-001 3.939723e-001 2.365544e-001 8.674051e-002
<GCONST> 8.140112e+000
<STATE> 8
<MEAN> 16
 6.662305e+000 7.915069e+000 9.163070e+000 9.966281e+000 9.784440e+000 9.175472e+000 9.408235e+000 1.033165e+001 1.079322e+001 1.057942e+001 1.093281e+001 1.084967e+001 1.127967e+001 1.073236e+001 9.053665e+000 8.617719e+000
<VARIANCE> 16
 2.433371e-001 4.162992e-001 5.029954e-001 6.298921e-001 1.066154e+000 5.355896e-001 4.641835e-001 7.118501e-001 7.005770e-001 5.595967e-001 8.968484e-001 1.093302e+000 1.060850e+000 1.326511e+000 7.853766e-001 2.535575e-001
<GCONST> 2.207112e+001
<STATE> 9
<MEAN> 16
 6.559589e+000 8.044070e+000 8.617320e+000 8.650999e+000 8.060025e+000 8.011696e+000 8.282368e+000 8.583160e+000 8.727435e+000 8.849554e+000 8.872928e+000 9.304679e+000 9.678794e+000 9.037220e+000 8.110843e+000 8.092044e+000
<VARIANCE> 16
 2.248848e-001 1.948498e-001 4.608938e-001 4.145293e-001 3.075498e-001 3.807435e-001 5.227910e-001 6.508042e-001 6.302961e-001 5.959182e-001 8.361904e-001 1.309232e+000 1.221602e+000 4.762637e-001 7.409351e-002 4.781104e-002
<GCONST> 1.432705e+001
<TRANSP> 10
 0.000000e+000 1.000000e+000 0.000000e+000 0.000000e+000 0.000000e+000 0.000000e+000 0.000000e+000 0.000000e+000 0.000000e+000 0.000000e+000
 0.000000e+000 7.515501e-001 2.484499e-001 0.000000e+000 0.000000e+000 0.000000e+000 0.000000e+000 0.000000e+000 0.000000e+000 0.000000e+000
 0.000000e+000 0.000000e+000 6.567921e-001 3.432079e-001 0.000000e+000 0.000000e+000 0.000000e+000 0.000000e+000 0.000000e+000 0.000000e+000
 0.000000e+000 0.000000e+000 0.000000e+000 4.552545e-001 5.447455e-001 0.000000e+000 0.000000e+000 0.000000e+000 0.000000e+000 0.000000e+000
 0.000000e+000 0.000000e+000 0.000000e+000 0.000000e+000 5.055897e-001 4.944103e-001 0.000000e+000 0.000000e+000 0.000000e+000 0.000000e+000
 0.000000e+000 0.000000e+000 0.000000e+000 0.000000e+000 0.000000e+000 7.038589e-001 2.961411e-001 0.000000e+000 0.000000e+000 0.000000e+000
 0.000000e+000 0.000000e+000 0.000000e+000 0.000000e+000 0.000000e+000 0.000000e+000 5.604588e-001 4.395412e-001 0.000000e+000 0.000000e+000
 0.000000e+000 0.000000e+000 0.000000e+000 0.000000e+000 0.000000e+000 0.000000e+000 0.000000e+000 9.123010e-001 8.769899e-002 0.000000e+000
 0.000000e+000 0.000000e+000 0.000000e+000 0.000000e+000 0.000000e+000 0.000000e+000 0.000000e+000 0.000000e+000 9.695172e-001 3.048271e-002
 0.000000e+000 0.000000e+000 0.000000e+000 0.000000e+000 0.000000e+000 0.000000e+000 0.000000e+000 0.000000e+000 0.000000e+000 0.000000e+000
<ENDHMM>
~h "sest"
<BEGINHMM>
<NUMSTATES> 10
<STATE> 2
<MEAN> 16
 5.671515e+000 5.718316e+000 5.892717e+000 6.082672e+000 6.317301e+000 6.477911e+000 6.645073e+000 7.057574e+000 7.708796e+000 7.986741e+000 8.332160e+000 8.867537e+000 9.163883e+000 9.249989e+000 8.827139e+000 8.295085e+000
<VARIANCE> 16
 8.471356e-002 1.029729e-001 9.220395e-002 5.445423e-002 4.056244e-002 5.008625e-002 4.588427e-002 7.106469e-002 2.086032e-001 3.840972e-001 3.893565e-001 3.609410e-001 2.806233e-001 3.637492e-001 4.099364e-001 5.894810e-002
<GCONST> -3.045967e+000
<STATE> 3
<MEAN> 16
 5.696073e+000 5.781829e+000 5.889792e+000 6.079197e+000 6.317762e+000 6.461793e+000 6.627099e+000 7.209069e+000 8.053078e+000 8.685284e+000 9.249883e+000 9.936986e+000 1.013467e+001 1.016409e+001 9.591453e+000 8.826782e+000
<VARIANCE> 16
 1.310894e-001 1.001995e-001 6.837532e-002 9.224681e-002 6.000845e-002 4.145534e-002 6.188370e-002 1.352595e-001 4.230562e-001 5.916058e-001 3.389851e-001 2.703165e-001 1.396389e-001 1.897691e-001 1.996029e-001 1.451002e-001
<GCONST> -1.719458e+000
<STATE> 4
<MEAN> 16
 5.756731e+000 5.742503e+000 5.996938e+000 6.226304e+000 6.393283e+000 6.490893e+000 6.779357e+000 7.444865e+000 8.454637e+000 9.327416e+000 9.705492e+000 1.028458e+001 1.056831e+001 1.058103e+001 1.011820e+001 9.296470e+000
<VARIANCE> 16
 1.374612e-001 1.023158e-001 5.467217e-002 6.887488e-002 3.901066e-002 7.536886e-002 5.435301e-002 1.633616e-001 3.980371e-001 5.397300e-001 2.515475e-001 2.508705e-001 2.210741e-001 2.029435e-001 1.456870e-001 1.964766e-001
<GCONST> -1.951694e+000
<STATE> 5
<MEAN> 16
 5.755346e+000 5.852313e+000 6.017066e+000 6.221242e+000 6.295445e+000 6.528222e+000 6.842583e+000 7.444604e+000 8.321252e+000 9.176620e+000 1.009461e+001 1.111317e+001 1.143508e+001 1.133434e+001 1.071974e+001 9.804445e+000
<VARIANCE> 16
 6.351696e-002 7.221898e-002 7.565454e-002 6.758934e-002 5.515106e-002 5.904713e-002 1.264114e-001 1.204126e-001 3.118418e-001 4.110029e-001 2.024759e-001 3.301394e-001 3.124450e-001 3.946501e-001 3.348198e-001 2.681145e-001
<GCONST> -4.298705e-001
<STATE> 6
<MEAN> 16
 5.799716e+000 5.924787e+000 6.276319e+000 6.465041e+000 6.584171e+000 6.844090e+000 7.081007e+000 8.094265e+000 9.117089e+000 9.800929e+000 1.025702e+001 1.079618e+001 1.119749e+001 1.106430e+001 1.053542e+001 9.823967e+000
<VARIANCE> 16
 8.159735e-002 8.994999e-002 1.203541e-001 1.327048e-001 8.943745e-002 1.090228e-001 8.462268e-002 1.995513e-001 4.199310e-001 6.115847e-001 2.178553e-001 2.905336e-001 5.164280e-001 5.130477e-001 4.311248e-001 2.230192e-001
<GCONST> 3.853589e+000
<STATE> 7
<MEAN> 16
 6.276084e+000 7.354965e+000 8.309396e+000 8.650201e+000 7.872421e+000 7.425548e+000 7.788710e+000 8.960449e+000 9.350989e+000 9.380585e+000 9.182693e+000 9.272180e+000 9.509312e+000 9.125529e+000 8.653103e+000 8.603325e+000
<VARIANCE> 16
 1.489170e-001 6.336619e-001 1.537297e+000 1.626222e+000 8.566063e-001 3.691974e-001 3.758776e-001 9.818785e-001 5.548642e-001 3.494955e-001 4.063853e-001 5.406952e-001 5.271742e-001 5.860913e-001 3.636785e-001 9.405605e-002
<GCONST> 1.810823e+001
<STATE> 8
<MEAN> 16
 6.445045e+000 7.538666e+000 8.980519e+000 1.002646e+001 9.974897e+000 9.302852e+000 9.469466e+000 1.052560e+001 1.091240e+001 1.066049e+001 1.078995e+001 1.090046e+001 1.127620e+001 1.063357e+001 9.153587e+000 8.630660e+000
<VARIANCE> 16
 1.997029e-001 2.271813e-001 3.338697e-001 4.023890e-001 1.123567e+000 9.520446e-001 5.331504e-001 4.783544e-001 1.012952e+000 8.622417e-001 1.538141e+000 1.267251e+000 1.318739e+000 1.457521e+000 5.314931e-001 1.236836e-001
<GCONST> 2.147017e+001
<STATE> 9
<MEAN> 16
 5.743083e+000 5.951164e+000 6.521224e+000 7.185544e+000 7.289886e+000 7.086681e+000 7.208243e+000 7.847591e+000 8.224746e+000 8.184643e+000 8.598899e+000 9.110778e+000 9.977854e+000 1.044502e+001 1.036402e+001 1.006879e+001
<VARIANCE> 16
 1.247380e-001 1.638954e-001 3.583042e-001 5.632495e-001 5.608678e-001 3.665376e-001 2.002068e-001 2.712958e-001 4.591922e-001 3.787637e-001 4.283119e-001 3.507881e-001 4.748209e-001 5.145889e-001 2.781009e-001 2.359760e-001
<GCONST> 1.164308e+001
<TRANSP> 10
 0.000000e+000 1.000000e+000 0.000000e+000 0.000000e+000 0.000000e+000 0.000000e+000 0.000000e+000 0.000000e+000 0.000000e+000 0.000000e+000
 0.000000e+000 4.755852e-001 5.244148e-001 0.000000e+000 0.000000e+000 0.000000e+000 0.000000e+000 0.000000e+000 0.000000e+000 0.000000e+000
 0.000000e+000 0.000000e+000 3.723596e-001 6.276404e-001 0.000000e+000 0.000000e+000 0.000000e+000 0.000000e+000 0.000000e+000 0.000000e+000
 0.000000e+000 0.000000e+000 0.000000e+000 3.727848e-001 6.272152e-001 0.000000e+000 0.000000e+000 0.000000e+000 0.000000e+000 0.000000e+000
 0.000000e+000 0.000000e+000 0.000000e+000 0.000000e+000 7.203317e-001 2.796683e-001 0.000000e+000 0.000000e+000 0.000000e+000 0.000000e+000
 0.000000e+000 0.000000e+000 0.000000e+000 0.000000e+000 0.000000e+000 7.300383e-001 2.699617e-001 0.000000e+000 0.000000e+000 0.000000e+000
 0.000000e+000 0.000000e+000 0.000000e+000 0.000000e+000 0.000000e+000 0.000000e+000 6.772108e-001 3.227892e-001 0.000000e+000 0.000000e+000
 0.000000e+000 0.000000e+000 0.000000e+000 0.000000e+000 0.000000e+000 0.000000e+000 0.000000e+000 9.480184e-001 5.198161e-002 0.000000e+000
 0.000000e+000 0.000000e+000 0.000000e+000 0.000000e+000 0.000000e+000 0.000000e+000 0.000000e+000 0.000000e+000 9.397784e-001 6.022154e-002
 0.000000e+000 0.000000e+000 0.000000e+000 0.000000e+000 0.000000e+000 0.000000e+000 0.000000e+000 0.000000e+000 0.000000e+000 0.000000e+000
<ENDHMM>
~h "dva"
<BEGINHMM>
<NUMSTATES> 10
<STATE> 2
<MEAN> 16
 5.970687e+000 6.575994e+000 6.788000e+000 6.649545e+000 6.467189e+000 6.548210e+000 6.715350e+000 6.901750e+000 7.214836e+000 7.095542e+000 7.206230e+000 7.402485e+000 7.622915e+000 7.723849e+000 7.818490e+000 8.007338e+000
<VARIANCE> 16
 1.438722e-001 3.646319e-001 5.214885e-001 4.085870e-001 1.325753e-001 8.453386e-002 8.478550e-002 1.038470e-001 7.916850e-002 5.942434e-002 4.394317e-002 4.085717e-002 4.805132e-002 3.994977e-002 2.167270e-002 3.675094e-002
<GCONST> -9.384128e+000
<STATE> 3
<MEAN> 16
 6.140242e+000 6.834848e+000 7.066014e+000 7.138374e+000 6.834286e+000 7.027806e+000 7.561427e+000 7.844204e+000 8.032011e+000 8.092793e+000 8.313332e+000 8.602926e+000 8.960380e+000 8.531600e+000 8.020916e+000 8.047566e+000
<VARIANCE> 16
 1.128654e-001 3.858505e-001 4.180765e-001 3.318543e-001 1.611224e-001 1.661407e-001 2.455442e-001 4.357527e-001 3.392969e-001 3.384356e-001 5.373544e-001 5.932803e-001 6.674641e-001 4.074326e-001 7.529780e-002 1.862053e-002
<GCONST> 7.262119e+000
<STATE> 4
<MEAN> 16
 6.215343e+000 7.246275e+000 8.035661e+000 7.994445e+000 7.369443e+000 7.416700e+000 7.797254e+000 8.114120e+000 8.160786e+000 8.325491e+000 8.487087e+000 8.889735e+000 8.785794e+000 8.389116e+000 8.021545e+000 8.047605e+000
<VARIANCE> 16
 1.981052e-001 1.407508e-001 5.497859e-001 4.942419e-001 2.511714e-001 1.758943e-001 2.343746e-001 7.218659e-001 7.013831e-001 6.021241e-001 7.254018e-001 7.843163e-001 8.693200e-001 5.118933e-001 8.577073e-002 3.799284e-002
<GCONST> 1.166503e+001
<STATE> 5
<MEAN> 16
 6.708149e+000 7.564367e+000 8.184720e+000 8.187030e+000 7.764225e+000 8.070245e+000 8.420558e+000 8.120173e+000 7.998002e+000 8.175164e+000 8.325201e+000 8.447026e+000 8.986447e+000 8.660674e+000 8.091572e+000 8.101428e+000
<VARIANCE> 16
 4.382283e-001 2.619725e-001 4.973346e-001 6.316625e-001 2.743937e-001 2.477532e-001 2.084421e-001 4.879783e-001 4.702045e-001 3.791558e-001 5.442281e-001 7.018210e-001 5.900827e-001 3.381257e-001 8.779483e-002 6.062625e-002
<GCONST> 1.157505e+001
<STATE> 6
<MEAN> 16
 6.722851e+000 7.560309e+000 8.447579e+000 8.864552e+000 8.485634e+000 8.747586e+000 9.155717e+000 8.774605e+000 8.472365e+000 8.799752e+000 8.924908e+000 9.246072e+000 9.599930e+000 9.017714e+000 8.091338e+000 8.122726e+000
<VARIANCE> 16
 2.559722e-001 1.276499e-001 2.001194e-001 4.000748e-001 5.275284e-001 5.151630e-001 5.174130e-001 5.081714e-001 3.310047e-001 3.871171e-001 5.833631e-001 9.244320e-001 7.115226e-001 3.278096e-001 3.818376e-002 6.190223e-002
<GCONST> 1.064587e+001
<STATE> 7
<MEAN> 16
 6.496307e+000 7.434224e+000 8.617934e+000 1.003340e+001 1.066796e+001 1.018476e+001 1.034900e+001 9.368318e+000 9.267734e+000 9.803950e+000 8.978097e+000 9.746929e+000 9.871825e+000 9.420321e+000 8.511639e+000 8.311297e+000
<VARIANCE> 16
 1.484894e-001 9.680857e-002 7.172985e-002 1.310040e-001 2.910267e-001 2.176889e-001 1.663820e-001 2.071974e-001 1.953396e-001 2.364597e-001 9.993691e-001 1.710151e+000 6.985443e-001 4.009770e-001 2.666127e-001 9.351496e-002
<GCONST> 6.866571e+000
<STATE> 8
<MEAN> 16
 6.704391e+000 7.587822e+000 8.542777e+000 9.652415e+000 1.063497e+001 1.111915e+001 1.159777e+001 1.134957e+001 1.011078e+001 1.044551e+001 1.102673e+001 1.124760e+001 1.206102e+001 1.097516e+001 9.000615e+000 8.588224e+000
<VARIANCE> 16
 5.226715e-001 4.543179e-001 7.677723e-001 6.047694e-001 7.015880e-001 6.610842e-001 5.621092e-001 6.412465e-001 3.979582e-001 5.095236e-001 6.204162e-001 8.009561e-001 7.803847e-001 6.151294e-001 5.360698e-001 3.632424e-001
<GCONST> 2.074735e+001
<STATE> 9
<MEAN> 16
 5.883315e+000 6.446141e+000 6.647707e+000 7.527528e+000 8.477150e+000 8.799838e+000 8.814790e+000 8.487314e+000 7.894309e+000 8.013743e+000 8.364348e+000 8.681495e+000 9.229157e+000 8.580638e+000 7.911559e+000 7.963736e+000
<VARIANCE> 16
 2.554475e-001 4.740228e-001 3.208039e-001 5.554596e-001 5.745155e-001 4.291542e-001 4.783139e-001 6.414782e-001 2.772528e-001 3.111117e-001 4.921575e-001 3.669020e-001 4.147609e-001 2.900100e-001 5.047057e-002 5.585194e-002
<GCONST> 1.083692e+001
<TRANSP> 10
 0.000000e+000 1.000000e+000 0.000000e+000 0.000000e+000 0.000000e+000 0.000000e+000 0.000000e+000 0.000000e+000 0.000000e+000 0.000000e+000
 0.000000e+000 8.174050e-001 1.825950e-001 0.000000e+000 0.000000e+000 0.000000e+000 0.000000e+000 0.000000e+000 0.000000e+000 0.000000e+000
 0.000000e+000 0.000000e+000 4.728619e-001 5.271381e-001 0.000000e+000 0.000000e+000 0.000000e+000 0.000000e+000 0.000000e+000 0.000000e+000
 0.000000e+000 0.000000e+000 0.000000e+000 7.144649e-001 2.855351e-001 0.000000e+000 0.000000e+000 0.000000e+000 0.000000e+000 0.000000e+000
 0.000000e+000 0.000000e+000 0.000000e+000 0.000000e+000 3.788247e-001 6.211753e-001 0.000000e+000 0.000000e+000 0.000000e+000 0.000000e+000
 0.000000e+000 0.000000e+000 0.000000e+000 0.000000e+000 0.000000e+000 4.728560e-001 5.271440e-001 0.000000e+000 0.000000e+000 0.000000e+000
 0.000000e+000 0.000000e+000 0.000000e+000 0.000000e+000 0.000000e+000 0.000000e+000 8.831841e-001 1.168158e-001 0.000000e+000 0.000000e+000
 0.000000e+000 0.000000e+000 0.000000e+000 0.000000e+000 0.000000e+000 0.000000e+000 0.000000e+000 9.298519e-001 7.014810e-002 0.000000e+000
 0.000000e+000 0.000000e+000 0.000000e+000 0.000000e+000 0.000000e+000 0.000000e+000 0.000000e+000 0.000000e+000 8.901516e-001 1.098484e-001
 0.000000e+000 0.000000e+000 0.000000e+000 0.000000e+000 0.000000e+000 0.000000e+000 0.000000e+000 0.000000e+000 0.000000e+000 0.000000e+000
<ENDHMM>
~h "osm"
<BEGINHMM>
<NUMSTATES> 10
<STATE> 2
<MEAN> 16
 5.323855e+000 5.649258e+000 5.896941e+000 6.181590e+000 6.355463e+000 6.515860e+000 6.585355e+000 6.638887e+000 6.970959e+000 6.901415e+000 7.199261e+000 7.637607e+000 8.124174e+000 8.285357e+000 8.315434e+000 8.413463e+000
<VARIANCE> 16
 3.292699e-001 1.643059e-001 1.383008e-001 2.812494e-001 3.233412e-001 3.155343e-001 1.493594e-001 8.144118e-002 1.406010e-001 1.531646e-001 3.522979e-002 1.359233e-001 5.658356e-001 6.392016e-001 7.111069e-001 5.578044e-001
<GCONST> 5.429217e+000
<STATE> 3
<MEAN> 16
 5.847005e+000 6.539456e+000 7.499987e+000 8.332373e+000 8.230952e+000 8.243134e+000 7.659284e+000 7.171749e+000 7.457525e+000 7.684520e+000 7.569722e+000 7.956841e+000 8.558642e+000 8.135977e+000 8.057416e+000 8.301744e+000
<VARIANCE> 16
 2.292699e-001 5.189692e-001 1.132275e+000 1.135714e+000 5.776892e-001 5.831074e-001 5.097716e-001 1.512542e-001 9.982631e-002 2.272986e-001 2.312943e-001 5.758548e-001 3.533379e-001 1.402911e-001 1.413210e-001 1.752964e-001
<GCONST> 1.137393e+001
<STATE> 4
<MEAN> 16
 6.359812e+000 7.411578e+000 8.740812e+000 9.644909e+000 9.458801e+000 9.658944e+000 8.997320e+000 8.214504e+000 8.150180e+000 8.673894e+000 8.621805e+000 9.135880e+000 9.687910e+000 8.935274e+000 8.337079e+000 8.437137e+000
<VARIANCE> 16
 2.504932e-001 1.911529e-001 3.830748e-001 2.782107e-001 5.340258e-001 2.559095e-001 5.449427e-001 1.937649e-001 1.177487e-001 2.723071e-001 6.653728e-001 1.527915e+000 7.383532e-001 5.511087e-001 4.237698e-001 2.133891e-001
<GCONST> 1.316381e+001
<STATE> 5
<MEAN> 16
 6.428688e+000 7.542157e+000 8.832155e+000 9.894032e+000 1.014425e+001 1.021485e+001 9.615113e+000 8.749609e+000 8.532382e+000 9.008519e+000 9.464167e+000 1.022540e+001 1.070748e+001 9.807954e+000 8.618524e+000 8.477465e+000
<VARIANCE> 16
 2.051550e-001 3.980867e-001 2.064549e-001 4.959499e-001 8.938277e-001 4.809740e-001 9.553347e-001 3.421461e-001 1.900420e-001 4.379179e-001 1.065184e+000 1.944256e+000 9.583212e-001 7.208576e-001 7.657907e-001 2.481096e-001
<GCONST> 1.887078e+001
<STATE> 6
<MEAN> 16
 6.558465e+000 7.707741e+000 9.084300e+000 1.008905e+001 1.030479e+001 1.034102e+001 9.701553e+000 8.872707e+000 8.576592e+000 9.050066e+000 9.664563e+000 1.044251e+001 1.092912e+001 9.876152e+000 8.325215e+000 8.463617e+000
<VARIANCE> 16
 2.053520e-001 2.842148e-001 4.497038e-001 4.926411e-001 8.079971e-001 4.287867e-001 6.905288e-001 2.648082e-001 1.300719e-001 4.887629e-001 7.496573e-001 1.320001e+000 6.450181e-001 4.440798e-001 1.950317e-001 1.413877e-001
<GCONST> 1.469168e+001
<STATE> 7
<MEAN> 16
 6.715511e+000 7.748875e+000 9.426237e+000 1.057352e+001 1.088763e+001 1.089650e+001 1.065756e+001 9.627385e+000 9.162419e+000 9.383842e+000 1.047017e+001 1.117856e+001 1.180867e+001 1.111215e+001 9.303451e+000 8.636902e+000
<VARIANCE> 16
 2.841009e-001 5.499003e-001 7.718928e-001 6.993079e-001 9.432147e-001 7.678277e-001 8.637919e-001 3.987308e-001 3.293614e-001 3.213684e-001 5.505401e-001 9.846000e-001 5.301868e-001 5.375976e-001 5.675252e-001 1.946947e-001
<GCONST> 1.922837e+001
<STATE> 8
<MEAN> 16
 6.092826e+000 6.642078e+000 7.463725e+000 8.069298e+000 8.142332e+000 8.336393e+000 8.380405e+000 8.409887e+000 8.521856e+000 8.716467e+000 9.326977e+000 9.937510e+000 1.061714e+001 1.062316e+001 1.016621e+001 9.979649e+000
<VARIANCE> 16
 5.666448e-001 1.356081e+000 2.168363e+000 1.629512e+000 1.291108e+000 1.418449e+000 1.274588e+000 1.196360e+000 1.083705e+000 1.181179e+000 1.061828e+000 8.142686e-001 6.695699e-001 5.902814e-001 1.054852e+000 1.347576e+000
<GCONST> 3.095669e+001
<STATE> 9
<MEAN> 16
 6.442139e+000 7.924652e+000 8.697101e+000 8.629543e+000 7.864176e+000 8.316393e+000 8.499969e+000 8.383136e+000 8.489774e+000 8.720264e+000 8.817752e+000 9.609906e+000 9.962589e+000 9.069910e+000 8.102627e+000 8.113913e+000
<VARIANCE> 16
 1.710992e-001 8.846556e-002 3.466291e-001 4.519658e-001 2.554927e-001 4.649846e-001 5.837837e-001 6.763768e-001 4.873441e-001 4.887032e-001 5.951592e-001 8.639152e-001 9.382311e-001 3.927002e-001 8.638791e-002 5.245028e-002
<GCONST> 1.180693e+001
<TRANSP> 10
 0.000000e+000 1.000000e+000 0.000000e+000 0.000000e+000 0.000000e+000 0.000000e+000 0.000000e+000 0.000000e+000 0.000000e+000 0.000000e+000
 0.000000e+000 3.111303e-001 6.888698e-001 0.000000e+000 0.000000e+000 0.000000e+000 0.000000e+000 0.000000e+000 0.000000e+000 0.000000e+000
 0.000000e+000 0.000000e+000 4.011851e-001 5.988148e-001 0.000000e+000 0.000000e+000 0.000000e+000 0.000000e+000 0.000000e+000 0.000000e+000
 0.000000e+000 0.000000e+000 0.000000e+000 4.108133e-001 5.891867e-001 0.000000e+000 0.000000e+000 0.000000e+000 0.000000e+000 0.000000e+000
 0.000000e+000 0.000000e+000 0.000000e+000 0.000000e+000 6.541041e-002 9.345896e-001 0.000000e+000 0.000000e+000 0.000000e+000 0.000000e+000
 0.000000e+000 0.000000e+000 0.000000e+000 0.000000e+000 0.000000e+000 6.260030e-001 3.739970e-001 0.000000e+000 0.000000e+000 0.000000e+000
 0.000000e+000 0.000000e+000 0.000000e+000 0.000000e+000 0.000000e+000 0.000000e+000 8.025672e-001 1.974328e-001 0.000000e+000 0.000000e+000
 0.000000e+000 0.000000e+000 0.000000e+000 0.000000e+000 0.000000e+000 0.000000e+000 0.000000e+000 9.485936e-001 5.140639e-002 0.000000e+000
 0.000000e+000 0.000000e+000 0.000000e+000 0.000000e+000 0.000000e+000 0.000000e+000 0.000000e+000 0.000000e+000 9.606376e-001 3.936242e-002
 0.000000e+000 0.000000e+000 0.000000e+000 0.000000e+000 0.000000e+000 0.000000e+000 0.000000e+000 0.000000e+000 0.000000e+000 0.000000e+000
<ENDHMM>
~h "pet"
<BEGINHMM>
<NUMSTATES> 10
<STATE> 2
<MEAN> 16
 5.884454e+000 5.945770e+000 6.166925e+000 6.163343e+000 6.255576e+000 6.440873e+000 6.657977e+000 6.835343e+000 7.148353e+000 7.027185e+000 7.191320e+000 7.410897e+000 7.693027e+000 7.737998e+000 7.805430e+000 7.955606e+000
<VARIANCE> 16
 1.900650e-001 1.542547e-001 2.382087e-001 9.138009e-002 5.041093e-002 6.292774e-002 4.135038e-002 4.413228e-002 4.900322e-002 2.944976e-002 2.608609e-002 2.581582e-002 5.969753e-002 4.391249e-002 1.397801e-002 1.533222e-002
<GCONST> -1.824654e+001
<STATE> 3
<MEAN> 16
 5.992962e+000 6.479750e+000 6.932242e+000 6.656281e+000 6.412603e+000 6.430370e+000 6.840819e+000 7.297605e+000 7.822433e+000 7.764975e+000 7.758708e+000 7.931671e+000 8.309432e+000 8.325352e+000 8.119505e+000 8.124975e+000
<VARIANCE> 16
 3.730812e-001 5.542300e-001 6.848518e-001 2.245299e-001 7.656503e-002 6.077729e-002 1.014261e-001 2.884189e-001 4.329604e-001 3.985637e-001 3.651887e-001 2.742604e-001 2.274661e-001 2.044555e-001 7.175820e-002 4.504791e-002
<GCONST> 4.195022e+000
<STATE> 4
<MEAN> 16
 6.353722e+000 7.561233e+000 8.485785e+000 8.154470e+000 7.233930e+000 6.962147e+000 7.279962e+000 8.207487e+000 9.290582e+000 9.323746e+000 8.802022e+000 8.782623e+000 9.233617e+000 9.001978e+000 8.327631e+000 8.336480e+000
<VARIANCE> 16
 1.693122e-001 1.944030e-001 4.102624e-001 3.206374e-001 1.216494e-001 1.246168e-001 7.211342e-002 2.645411e-001 2.789426e-001 5.312819e-001 8.608724e-001 1.092693e+000 6.370136e-001 4.175637e-001 7.762782e-002 9.345196e-002
<GCONST> 7.594606e+000
<STATE> 5
<MEAN> 16
 6.594869e+000 7.941116e+000 9.274652e+000 9.286619e+000 8.075544e+000 7.683924e+000 7.964379e+000 8.872955e+000 1.016412e+001 1.066706e+001 1.024455e+001 1.013132e+001 1.033156e+001 9.573282e+000 8.296481e+000 8.147922e+000
<VARIANCE> 16
 2.690642e-001 1.648582e-001 1.398297e-001 9.917320e-002 2.600924e-001 1.641342e-001 2.212469e-001 3.824326e-001 2.684205e-001 3.489553e-001 9.108155e-001 1.560562e+000 1.148952e+000 1.038456e+000 8.652271e-002 8.440267e-002
<GCONST> 9.629571e+000
<STATE> 6
<MEAN> 16
 6.389763e+000 7.468135e+000 9.372459e+000 9.461102e+000 8.425063e+000 7.853773e+000 8.181238e+000 8.976714e+000 1.036289e+001 1.127561e+001 1.129686e+001 1.143867e+001 1.130012e+001 1.028241e+001 8.682617e+000 8.263894e+000
<VARIANCE> 16
 2.023600e-001 2.031490e-001 4.672768e-001 3.430686e-001 3.475510e-001 1.882734e-001 7.112882e-002 1.891517e-001 2.634538e-001 2.247685e-001 5.056646e-001 9.010778e-001 8.717372e-001 1.671918e+000 2.070195e-001 5.072237e-002
<GCONST> 9.556444e+000
<STATE> 7
<MEAN> 16
 6.839925e+000 7.854107e+000 9.462876e+000 1.020293e+001 9.005487e+000 8.328784e+000 8.570128e+000 9.933352e+000 1.044817e+001 1.019620e+001 9.470272e+000 9.397994e+000 1.005563e+001 9.729317e+000 8.714871e+000 8.777324e+000
<VARIANCE> 16
 1.411829e-001 1.063959e-001 1.601277e-001 1.133899e-001 1.325984e-001 8.624096e-002 6.653953e-002 2.154820e-001 2.317424e-001 7.012985e-001 1.183059e+000 1.367754e+000 8.143480e-001 5.373542e-001 7.899621e-002 1.099223e-001
<GCONST> 5.574685e+000
<STATE> 8
<MEAN> 16
 6.438056e+000 7.436139e+000 8.985003e+000 1.010778e+001 1.018148e+001 9.279149e+000 9.360992e+000 1.017602e+001 1.108787e+001 1.111831e+001 1.121996e+001 1.122065e+001 1.156203e+001 1.070566e+001 8.817978e+000 8.413334e+000
<VARIANCE> 16
 1.520227e-001 2.042497e-001 4.573617e-001 3.078167e-001 6.032408e-001 5.973812e-001 2.950766e-001 2.569428e-001 3.204303e-001 5.288345e-001 4.245870e-001 4.935391e-001 5.086125e-001 7.909039e-001 2.740293e-001 1.352957e-001
<GCONST> 1.282988e+001
<STATE> 9
<MEAN> 16
 5.912724e+000 6.351022e+000 7.315910e+000 8.185637e+000 8.100976e+000 7.529487e+000 7.532130e+000 8.252359e+000 8.819962e+000 8.733509e+000 9.005705e+000 9.054218e+000 9.219362e+000 8.472279e+000 7.923230e+000 8.027306e+000
<VARIANCE> 16
 1.376307e-001 3.442544e-001 5.807992e-001 4.410137e-001 4.269902e-001 3.287746e-001 2.209665e-001 4.083439e-001 3.606735e-001 3.768375e-001 5.543495e-001 4.238487e-001 3.876119e-001 3.750876e-001 4.432406e-002 4.195379e-002
<GCONST> 8.965858e+000
<TRANSP> 10
 0.000000e+000 1.000000e+000 0.000000e+000 0.000000e+000 0.000000e+000 0.000000e+000 0.000000e+000 0.000000e+000 0.000000e+000 0.000000e+000
 0.000000e+000 8.242432e-001 1.757568e-001 0.000000e+000 0.000000e+000 0.000000e+000 0.000000e+000 0.000000e+000 0.000000e+000 0.000000e+000
 0.000000e+000 0.000000e+000 2.934345e-001 7.065655e-001 0.000000e+000 0.000000e+000 0.000000e+000 0.000000e+000 0.000000e+000 0.000000e+000
 0.000000e+000 0.000000e+000 0.000000e+000 4.767576e-001 5.232424e-001 0.000000e+000 0.000000e+000 0.000000e+000 0.000000e+000 0.000000e+000
 0.000000e+000 0.000000e+000 0.000000e+000 0.000000e+000 1.792839e-001 8.207161e-001 0.000000e+000 0.000000e+000 0.000000e+000 0.000000e+000
 0.000000e+000 0.000000e+000 0.000000e+000 0.000000e+000 0.000000e+000 7.144697e-001 2.855302e-001 0.000000e+000 0.000000e+000 0.000000e+000
 0.000000e+000 0.000000e+000 0.000000e+000 0.000000e+000 0.000000e+000 0.000000e+000 7.598025e-001 2.401975e-001 0.000000e+000 0.000000e+000
 0.000000e+000 0.000000e+000 0.000000e+000 0.000000e+000 0.000000e+000 0.000000e+000 0.000000e+000 9.304704e-001 6.952961e-002 0.000000e+000
 0.000000e+000 0.000000e+000 0.000000e+000 0.000000e+000 0.000000e+000 0.000000e+000 0.000000e+000 0.000000e+000 8.390124e-001 1.609876e-001
 0.000000e+000 0.000000e+000 0.000000e+000 0.000000e+000 0.000000e+000 0.000000e+000 0.000000e+000 0.000000e+000 0.000000e+000 0.000000e+000
<ENDHMM>
~h "sil"
<BEGINHMM>
<NUMSTATES> 5
<STATE> 2
<MEAN> 16
 5.728675e+000 5.974918e+000 6.262863e+000 6.565386e+000 6.681571e+000 6.777832e+000 6.911497e+000 7.158199e+000 7.438871e+000 7.411182e+000 7.584110e+000 7.814432e+000 8.187745e+000 8.050256e+000 7.957384e+000 8.085274e+000
<VARIANCE> 16
 1.573686e-001 2.694723e-001 2.641298e-001 2.873040e-001 2.651429e-001 2.136273e-001 1.959613e-001 2.362223e-001 1.793696e-001 1.896341e-001 2.193141e-001 2.070817e-001 2.941670e-001 2.213185e-001 1.027576e-001 6.894682e-002
<GCONST> 3.568800e+000
<STATE> 3
<MEAN> 16
 5.633142e+000 5.737201e+000 5.904122e+000 6.094128e+000 6.259635e+000 6.435499e+000 6.591745e+000 6.756673e+000 7.110291e+000 7.017478e+000 7.170470e+000 7.346459e+000 7.544848e+000 7.642464e+000 7.811657e+000 8.015599e+000
<VARIANCE> 16
 1.140265e-001 1.002222e-001 8.630993e-002 7.061268e-002 6.261409e-002 5.480783e-002 4.788435e-002 3.973702e-002 3.037144e-002 2.972440e-002 2.625733e-002 2.396447e-002 2.661903e-002 1.975234e-002 1.743936e-002 3.426381e-002
<GCONST> -2.145947e+001
<STATE> 4
<MEAN> 16
 5.359477e+000 5.722627e+000 5.903375e+000 5.998837e+000 6.069274e+000 6.259144e+000 6.429600e+000 6.545417e+000 6.816057e+000 6.838698e+000 7.023170e+000 7.240144e+000 7.533401e+000 7.610858e+000 7.656863e+000 7.770040e+000
<VARIANCE> 16
 4.229590e-001 2.369830e-001 1.589605e-001 1.161281e-001 1.611298e-001 1.598738e-001 1.634405e-001 2.464718e-001 3.521026e-001 2.629379e-001 2.978843e-001 3.178805e-001 3.977826e-001 3.440591e-001 1.889004e-001 1.826933e-001
<GCONST> 6.150824e+000
<TRANSP> 5
 0.000000e+000 1.000000e+000 0.000000e+000 0.000000e+000 0.000000e+000
 0.000000e+000 8.653920e-001 1.346080e-001 0.000000e+000 0.000000e+000
 0.000000e+000 0.000000e+000 9.839624e-001 1.603768e-002 0.000000e+000
 0.000000e+000 0.000000e+000 0.000000e+000 6.786887e-001 3.213113e-001
 0.000000e+000 0.000000e+000 0.000000e+000 0.000000e+000 0.000000e+000
<ENDHMM>
~h "tri"
<BEGINHMM>
<NUMSTATES> 10
<STATE> 2
<MEAN> 16
 5.846653e+000 5.938879e+000 6.151407e+000 6.331684e+000 6.458606e+000 6.668673e+000 6.909888e+000 7.264582e+000 7.627882e+000 7.667326e+000 7.880148e+000 8.430269e+000 8.892420e+000 8.830265e+000 8.331600e+000 8.183174e+000
<VARIANCE> 16
 1.098963e-001 1.520965e-001 2.657233e-001 1.269009e-001 6.921241e-002 7.372678e-002 1.272343e-001 1.851944e-001 2.150515e-001 2.225866e-001 3.049555e-001 4.667731e-001 5.353904e-001 5.923377e-001 3.002826e-001 1.708024e-001
<GCONST> 3.791352e+000
<STATE> 3
<MEAN> 16
 5.595672e+000 5.930796e+000 6.368984e+000 6.569583e+000 6.744995e+000 6.953069e+000 7.325280e+000 7.980232e+000 8.324670e+000 8.514817e+000 8.730051e+000 9.520350e+000 9.911151e+000 9.797976e+000 9.111283e+000 8.898099e+000
<VARIANCE> 16
 1.426402e-001 1.248135e-001 1.506234e-001 1.624830e-001 1.639549e-001 2.146746e-001 3.143882e-001 2.416129e-001 2.245286e-001 1.695844e-001 3.040459e-001 2.948523e-001 2.489506e-001 2.755058e-001 2.458249e-001 2.752413e-001
<GCONST> 4.690266e+000
<STATE> 4
<MEAN> 16
 5.994140e+000 5.860101e+000 6.519938e+000 6.994561e+000 7.140388e+000 7.408761e+000 7.651677e+000 8.151961e+000 8.921289e+000 9.008772e+000 9.284032e+000 1.001020e+001 1.069345e+001 1.067642e+001 9.635715e+000 9.167156e+000
<VARIANCE> 16
 2.626452e-001 1.082231e-001 1.767768e-001 3.885354e-001 3.713016e-001 4.852742e-001 3.887951e-001 2.546703e-001 4.329986e-001 3.521352e-001 2.349650e-001 1.779543e-001 1.747514e-001 1.593245e-001 2.553356e-001 3.778459e-001
<GCONST> 8.166058e+000
<STATE> 5
<MEAN> 16
 5.828935e+000 5.877252e+000 6.281881e+000 6.577693e+000 6.766159e+000 7.044134e+000 7.300007e+000 7.709085e+000 8.460594e+000 8.565409e+000 9.180261e+000 1.058278e+001 1.143108e+001 1.159530e+001 1.041456e+001 9.380781e+000
<VARIANCE> 16
 1.399632e-001 6.645983e-002 8.788834e-002 2.588572e-001 2.026161e-001 2.091336e-001 1.148284e-001 1.785456e-001 2.489233e-001 3.060197e-001 4.406515e-001 3.376932e-001 3.308114e-001 2.600720e-001 2.153094e-001 1.949834e-001
<GCONST> 3.793526e+000
<STATE> 6
<MEAN> 16
 5.699361e+000 5.831302e+000 6.098055e+000 6.410141e+000 6.524662e+000 6.666471e+000 6.974375e+000 7.827482e+000 8.466745e+000 8.857122e+000 9.855839e+000 1.097518e+001 1.173458e+001 1.188335e+001 1.117811e+001 1.033633e+001
<VARIANCE> 16
 1.170440e-001 1.075937e-001 9.048728e-002 1.056104e-001 7.038523e-002 6.724936e-002 7.851699e-002 3.011849e-001 2.608931e-001 2.226718e-001 4.334764e-001 6.081111e-001 4.283338e-001 2.555746e-001 3.270473e-001 3.726800e-001
<GCONST> 2.787503e+000
<STATE> 7
<MEAN> 16
 6.104965e+000 6.430390e+000 6.706996e+000 6.896202e+000 6.905155e+000 7.134799e+000 7.407430e+000 8.471048e+000 9.643976e+000 9.694959e+000 1.050990e+001 1.125141e+001 1.185964e+001 1.187680e+001 1.112099e+001 9.769475e+000
<VARIANCE> 16
 1.949765e-001 3.044687e-001 4.694636e-001 3.771402e-001 1.890902e-001 1.625517e-001 9.178914e-002 1.807176e-001 2.549278e-001 2.871486e-001 7.984028e-001 9.328750e-001 8.915772e-001 9.331619e-001 7.083440e-001 2.728897e-001
<GCONST> 1.253269e+001
<STATE> 8
<MEAN> 16
 6.398994e+000 7.881441e+000 9.284149e+000 9.393573e+000 8.235588e+000 7.870603e+000 8.130850e+000 8.903466e+000 1.027558e+001 1.101692e+001 1.073364e+001 1.070885e+001 1.106371e+001 1.041609e+001 8.971250e+000 8.531874e+000
<VARIANCE> 16
 1.693300e-001 2.729369e-001 5.898439e-001 7.172608e-001 8.313500e-001 7.116047e-001 4.336370e-001 3.457975e-001 5.378239e-001 5.185223e-001 1.498745e+000 1.606885e+000 1.465815e+000 1.304654e+000 2.874285e-001 1.100574e-001
<GCONST> 1.984576e+001
<STATE> 9
<MEAN> 16
 6.029999e+000 6.903013e+000 7.631348e+000 7.676029e+000 7.270885e+000 7.149186e+000 7.019104e+000 7.221826e+000 8.200819e+000 9.089404e+000 9.132805e+000 9.131186e+000 9.597424e+000 9.040743e+000 8.088991e+000 8.076180e+000
<VARIANCE> 16
 2.084367e-001 5.170823e-001 4.549591e-001 5.439654e-001 4.044250e-001 4.404081e-001 1.482766e-001 1.273052e-001 4.132596e-001 3.519354e-001 4.866624e-001 3.086279e-001 4.279400e-001 4.227439e-001 1.081365e-001 5.303489e-002
<GCONST> 9.392040e+000
<TRANSP> 10
 0.000000e+000 1.000000e+000 0.000000e+000 0.000000e+000 0.000000e+000 0.000000e+000 0.000000e+000 0.000000e+000 0.000000e+000 0.000000e+000
 0.000000e+000 4.975462e-001 5.024539e-001 0.000000e+000 0.000000e+000 0.000000e+000 0.000000e+000 0.000000e+000 0.000000e+000 0.000000e+000
 0.000000e+000 0.000000e+000 4.541695e-001 5.458305e-001 0.000000e+000 0.000000e+000 0.000000e+000 0.000000e+000 0.000000e+000 0.000000e+000
 0.000000e+000 0.000000e+000 0.000000e+000 3.111934e-001 6.888065e-001 0.000000e+000 0.000000e+000 0.000000e+000 0.000000e+000 0.000000e+000
 0.000000e+000 0.000000e+000 0.000000e+000 0.000000e+000 4.056610e-001 5.943390e-001 0.000000e+000 0.000000e+000 0.000000e+000 0.000000e+000
 0.000000e+000 0.000000e+000 0.000000e+000 0.000000e+000 0.000000e+000 8.318707e-001 1.681293e-001 0.000000e+000 0.000000e+000 0.000000e+000
 0.000000e+000 0.000000e+000 0.000000e+000 0.000000e+000 0.000000e+000 0.000000e+000 6.600966e-001 3.399034e-001 0.000000e+000 0.000000e+000
 0.000000e+000 0.000000e+000 0.000000e+000 0.000000e+000 0.000000e+000 0.000000e+000 0.000000e+000 9.528427e-001 4.715736e-002 0.000000e+000
 0.000000e+000 0.000000e+000 0.000000e+000 0.000000e+000 0.000000e+000 0.000000e+000 0.000000e+000 0.000000e+000 8.334243e-001 1.665757e-001
 0.000000e+000 0.000000e+000 0.000000e+000 0.000000e+000 0.000000e+000 0.000000e+000 0.000000e+000 0.000000e+000 0.000000e+000 0.000000e+000
<ENDHMM>
~h "nula"
<BEGINHMM>
<NUMSTATES> 10
<STATE> 2
<MEAN> 16
 6.130271e+000 6.859200e+000 6.939464e+000 6.790774e+000 6.387380e+000 6.584157e+000 6.825994e+000 6.976258e+000 7.272214e+000 7.267311e+000 7.424839e+000 7.621051e+000 8.208188e+000 8.176561e+000 7.935319e+000 8.118420e+000
<VARIANCE> 16
 3.259012e-001 2.917134e-001 2.552669e-001 2.028792e-001 1.083198e-001 9.439359e-002 1.153754e-001 8.789621e-002 9.360019e-002 8.626577e-002 1.106466e-001 1.888392e-001 3.675960e-001 2.452086e-001 5.912229e-002 6.632502e-002
<GCONST> -1.716887e+000
<STATE> 3
<MEAN> 16
 6.469778e+000 7.808930e+000 8.111366e+000 8.170091e+000 7.683585e+000 7.671179e+000 7.159864e+000 7.263453e+000 7.634946e+000 7.663344e+000 7.543109e+000 7.603708e+000 8.185104e+000 8.287071e+000 7.957401e+000 8.158807e+000
<VARIANCE> 16
 1.899413e-001 3.049972e-001 5.006948e-001 3.280285e-001 4.089720e-001 5.562874e-001 1.604865e-001 1.786897e-001 1.386866e-001 2.498486e-001 2.615796e-001 1.168113e-001 2.695675e-001 1.326926e-001 1.789198e-002 3.780839e-002
<GCONST> 2.238963e+000
<STATE> 4
<MEAN> 16
 6.529165e+000 7.987113e+000 8.386003e+000 8.294339e+000 7.484739e+000 7.296506e+000 7.258011e+000 7.784963e+000 8.018817e+000 8.394876e+000 8.441234e+000 8.372934e+000 8.857674e+000 8.471330e+000 7.959110e+000 7.999075e+000
<VARIANCE> 16
 3.822869e-001 2.149163e-001 4.640846e-001 3.161116e-001 2.296093e-001 4.149759e-001 2.159365e-001 1.838801e-001 2.435946e-001 4.828610e-001 2.843978e-001 2.473861e-001 5.618893e-001 2.334791e-001 3.812296e-002 4.033060e-002
<GCONST> 6.107281e+000
<STATE> 5
<MEAN> 16
 6.791323e+000 8.263727e+000 8.562737e+000 8.576466e+000 7.921108e+000 7.704808e+000 7.608008e+000 7.956511e+000 8.004332e+000 8.641363e+000 8.594986e+000 8.340708e+000 8.804743e+000 8.603865e+000 8.431482e+000 8.427663e+000
<VARIANCE> 16
 6.394461e-001 6.985664e-001 8.713001e-001 7.656225e-001 5.366508e-001 8.243563e-001 4.151606e-001 4.715468e-001 3.847148e-001 6.637682e-001 7.229270e-001 4.292688e-001 5.845292e-001 5.158694e-001 7.868119e-001 1.031543e+000
<GCONST> 2.180617e+001
<STATE> 6
<MEAN> 16
 6.595767e+000 8.183096e+000 9.196319e+000 9.472871e+000 8.771459e+000 8.901945e+000 8.383731e+000 8.328083e+000 8.537935e+000 8.747747e+000 8.686951e+000 8.725163e+000 8.668785e+000 8.284565e+000 8.139758e+000 8.208245e+000
<VARIANCE> 16
 3.371039e-001 2.102099e-001 3.091962e-001 1.589509e-001 2.094941e-001 3.138283e-001 1.754078e-001 2.896835e-001 1.713248e-001 2.306884e-001 5.382011e-001 6.897081e-001 7.081356e-001 3.247475e-001 3.577328e-001 2.554397e-001
<GCONST> 9.960049e+000
<STATE> 7
<MEAN> 16
 6.585120e+000 7.947003e+000 9.168189e+000 1.005396e+001 9.833056e+000 9.856022e+000 9.716105e+000 8.989862e+000 8.934494e+000 9.295364e+000 9.331119e+000 9.702039e+000 9.729986e+000 9.041338e+000 8.306402e+000 8.228158e+000
<VARIANCE> 16
 2.494572e-001 3.397742e-001 7.233281e-001 1.177808e-001 4.387372e-001 3.964882e-001 3.021242e-001 2.594898e-001 2.402709e-001 3.578470e-001 1.137692e+000 1.128335e+000 7.192577e-001 3.130764e-001 1.776715e-001 8.014242e-002
<GCONST> 1.223385e+001
<STATE> 8
<MEAN> 16
 6.679580e+000 7.696861e+000 8.924705e+000 1.017492e+001 1.072971e+001 1.092387e+001 1.125862e+001 1.065615e+001 9.755765e+000 1.021100e+001 1.095396e+001 1.107190e+001 1.175793e+001 1.076832e+001 9.034358e+000 8.657083e+000
<VARIANCE> 16
 4.109513e-001 5.687615e-001 1.285254e+000 5.291491e-001 6.450414e-001 4.565980e-001 5.842658e-001 9.010046e-001 3.430921e-001 4.914832e-001 7.001017e-001 6.284647e-001 8.088915e-001 1.018025e+000 1.003700e+000 6.683279e-001
<GCONST> 2.250829e+001
<STATE> 9
<MEAN> 16
 5.982002e+000 6.666242e+000 6.949615e+000 8.036051e+000 8.731850e+000 8.909989e+000 8.967088e+000 8.493589e+000 7.917077e+000 8.157321e+000 8.430877e+000 8.590940e+000 9.081821e+000 8.649551e+000 7.992131e+000 8.014180e+000
<VARIANCE> 16
 3.066767e-001 7.652645e-001 3.999822e-001 4.846273e-001 3.988023e-001 3.795226e-001 4.800937e-001 7.077424e-001 2.874831e-001 3.490064e-001 6.012418e-001 4.506247e-001 4.291737e-001 2.984780e-001 1.101180e-001 7.067162e-002
<GCONST> 1.283224e+001
<TRANSP> 10
 0.000000e+000 1.000000e+000 0.000000e+000 0.000000e+000 0.000000e+000 0.000000e+000 0.000000e+000 0.000000e+000 0.000000e+000 0.000000e+000
 0.000000e+000 5.388589e-001 4.611411e-001 0.000000e+000 0.000000e+000 0.000000e+000 0.000000e+000 0.000000e+000 0.000000e+000 0.000000e+000
 0.000000e+000 0.000000e+000 5.534998e-001 4.465002e-001 0.000000e+000 0.000000e+000 0.000000e+000 0.000000e+000 0.000000e+000 0.000000e+000
 0.000000e+000 0.000000e+000 0.000000e+000 5.253955e-001 4.746045e-001 0.000000e+000 0.000000e+000 0.000000e+000 0.000000e+000 0.000000e+000
 0.000000e+000 0.000000e+000 0.000000e+000 0.000000e+000 4.621974e-001 5.378026e-001 0.000000e+000 0.000000e+000 0.000000e+000 0.000000e+000
 0.000000e+000 0.000000e+000 0.000000e+000 0.000000e+000 0.000000e+000 7.637387e-001 2.362614e-001 0.000000e+000 0.000000e+000 0.000000e+000
 0.000000e+000 0.000000e+000 0.000000e+000 0.000000e+000 0.000000e+000 0.000000e+000 9.270431e-001 7.295692e-002 0.000000e+000 0.000000e+000
 0.000000e+000 0.000000e+000 0.000000e+000 0.000000e+000 0.000000e+000 0.000000e+000 0.000000e+000 9.348598e-001 6.514017e-002 0.000000e+000
 0.000000e+000 0.000000e+000 0.000000e+000 0.000000e+000 0.000000e+000 0.000000e+000 0.000000e+000 0.000000e+000 8.747873e-001 1.252127e-001
 0.000000e+000 0.000000e+000 0.000000e+000 0.000000e+000 0.000000e+000 0.000000e+000 0.000000e+000 0.000000e+000 0.000000e+000 0.000000e+000
<ENDHMM>
~h "devet"
<BEGINHMM>
<NUMSTATES> 10
<STATE> 2
<MEAN> 16
 6.189686e+000 6.620639e+000 6.862084e+000 6.718829e+000 6.419631e+000 6.555178e+000 6.654488e+000 6.767743e+000 7.155744e+000 7.109166e+000 7.240014e+000 7.437496e+000 7.724972e+000 7.783846e+000 7.823781e+000 7.977294e+000
<VARIANCE> 16
 2.440366e-001 1.894639e-001 3.608631e-001 2.513770e-001 7.825013e-002 7.012036e-002 7.672402e-002 3.827393e-002 3.231321e-002 2.795846e-002 3.938256e-002 5.185817e-002 1.515377e-001 9.411589e-002 1.933169e-002 1.783966e-002
<GCONST> -1.252941e+001
<STATE> 3
<MEAN> 16
 6.198024e+000 6.981390e+000 7.151774e+000 7.110235e+000 6.833123e+000 6.669900e+000 6.842731e+000 7.154699e+000 7.606826e+000 7.518137e+000 7.643327e+000 7.838692e+000 8.099327e+000 8.039264e+000 7.881872e+000 8.024585e+000
<VARIANCE> 16
 1.869258e-001 3.742951e-001 3.168376e-001 3.781067e-001 2.207068e-001 2.193316e-001 1.446940e-001 3.215169e-001 3.615176e-001 2.371055e-001 2.129983e-001 3.303411e-001 3.133381e-001 1.653602e-001 4.394840e-002 6.767231e-002
<GCONST> 4.639691e+000
<STATE> 4
<MEAN> 16
 6.480193e+000 7.449242e+000 7.714746e+000 7.615530e+000 7.036788e+000 6.908043e+000 7.096806e+000 7.757948e+000 8.297016e+000 8.171045e+000 8.347470e+000 8.394910e+000 8.757259e+000 8.623343e+000 8.063990e+000 8.050395e+000
<VARIANCE> 16
 4.181386e-001 6.723322e-001 3.948940e-001 3.239450e-001 1.323237e-001 9.706029e-002 1.097879e-001 3.930540e-001 3.192914e-001 1.455867e-001 2.708986e-001 3.939801e-001 3.041869e-001 2.232742e-001 5.403203e-002 5.457363e-002
<GCONST> 4.760877e+000
<STATE> 5
<MEAN> 16
 6.343644e+000 7.469134e+000 8.564241e+000 8.798265e+000 7.848003e+000 7.449678e+000 7.926421e+000 9.068678e+000 9.684366e+000 9.503689e+000 9.321551e+000 9.483364e+000 9.923190e+000 9.407218e+000 8.532098e+000 8.391901e+000
<VARIANCE> 16
 2.774434e-001 2.628759e-001 5.811597e-001 4.412802e-001 1.756250e-001 9.441476e-002 7.265966e-002 4.001892e-001 2.536396e-001 2.482890e-001 9.584454e-001 1.253278e+000 9.516780e-001 7.045411e-001 3.395875e-001 1.487067e-001
<GCONST> 1.182254e+001
<STATE> 6
<MEAN> 16
 6.545185e+000 7.650971e+000 9.182173e+000 9.620144e+000 8.756317e+000 8.158467e+000 8.594387e+000 9.720281e+000 1.053486e+001 1.044892e+001 1.034888e+001 1.045208e+001 1.074026e+001 9.956656e+000 8.808090e+000 8.530313e+000
<VARIANCE> 16
 1.845989e-001 2.508045e-001 3.865649e-001 1.623172e-001 1.003957e-001 1.054541e-001 3.771159e-002 3.866446e-001 1.649779e-001 1.704607e-001 1.303061e+000 1.418505e+000 8.832911e-001 1.137337e+000 2.666189e-001 1.932745e-001
<GCONST> 8.870706e+000
<STATE> 7
<MEAN> 16
 6.642178e+000 7.764620e+000 9.508771e+000 1.013963e+001 9.285962e+000 8.641998e+000 8.894322e+000 1.029279e+001 1.087357e+001 1.083833e+001 1.063649e+001 1.096487e+001 1.083886e+001 9.585855e+000 8.811955e+000 8.568472e+000
<VARIANCE> 16
 1.575492e-001 1.668881e-001 1.597157e-001 1.192674e-001 2.811469e-001 1.357142e-001 5.454989e-002 4.287226e-001 1.600218e-001 1.692346e-001 9.339912e-001 1.488993e+000 6.256421e-001 7.397910e-001 1.435223e-001 1.871243e-001
<GCONST> 7.118457e+000
<STATE> 8
<MEAN> 16
 6.354227e+000 7.680352e+000 8.995848e+000 8.897170e+000 7.873573e+000 7.528048e+000 8.039082e+000 9.331070e+000 9.725630e+000 9.610826e+000 8.718722e+000 9.008702e+000 9.549356e+000 9.321594e+000 8.375771e+000 8.434929e+000
<VARIANCE> 16
 1.449060e-001 1.701495e-001 3.668088e-001 3.627656e-001 4.567595e-001 2.253795e-001 1.837779e-001 2.860310e-001 4.342417e-001 4.062100e-001 1.056940e+000 1.567920e+000 7.121403e-001 7.455797e-001 1.355783e-001 1.215918e-001
<GCONST> 1.249885e+001
<STATE> 9
<MEAN> 16
 6.450282e+000 7.486121e+000 8.940665e+000 9.694671e+000 9.512194e+000 8.666275e+000 8.891159e+000 9.653507e+000 1.069909e+001 1.089372e+001 1.116044e+001 1.122126e+001 1.149202e+001 1.064587e+001 8.710187e+000 8.348660e+000
<VARIANCE> 16
 2.012092e-001 3.345157e-001 6.119093e-001 6.655295e-001 1.058560e+000 5.969868e-001 4.259421e-001 4.295341e-001 5.820513e-001 7.064281e-001 6.717415e-001 7.145054e-001 7.292312e-001 1.130838e+000 3.234017e-001 1.032729e-001
<GCONST> 1.843693e+001
<TRANSP> 10
 0.000000e+000 1.000000e+000 0.000000e+000 0.000000e+000 0.000000e+000 0.000000e+000 0.000000e+000 0.000000e+000 0.000000e+000 0.000000e+000
 0.000000e+000 7.829706e-001 2.170294e-001 0.000000e+000 0.000000e+000 0.000000e+000 0.000000e+000 0.000000e+000 0.000000e+000 0.000000e+000
 0.000000e+000 0.000000e+000 1.901166e-001 8.098834e-001 0.000000e+000 0.000000e+000 0.000000e+000 0.000000e+000 0.000000e+000 0.000000e+000
 0.000000e+000 0.000000e+000 0.000000e+000 2.782414e-001 7.217586e-001 0.000000e+000 0.000000e+000 0.000000e+000 0.000000e+000 0.000000e+000
 0.000000e+000 0.000000e+000 0.000000e+000 0.000000e+000 3.247942e-001 6.752058e-001 0.000000e+000 0.000000e+000 0.000000e+000 0.000000e+000
 0.000000e+000 0.000000e+000 0.000000e+000 0.000000e+000 0.000000e+000 2.586611e-001 7.413389e-001 0.000000e+000 0.000000e+000 0.000000e+000
 0.000000e+000 0.000000e+000 0.000000e+000 0.000000e+000 0.000000e+000 0.000000e+000 7.024944e-001 2.975056e-001 0.000000e+000 0.000000e+000
 0.000000e+000 0.000000e+000 0.000000e+000 0.000000e+000 0.000000e+000 0.000000e+000 0.000000e+000 8.759232e-001 1.240769e-001 0.000000e+000
 0.000000e+000 0.000000e+000 0.000000e+000 0.000000e+000 0.000000e+000 0.000000e+000 0.000000e+000 0.000000e+000 9.657542e-001 3.424578e-002
 0.000000e+000 0.000000e+000 0.000000e+000 0.000000e+000 0.000000e+000 0.000000e+000 0.000000e+000 0.000000e+000 0.000000e+000 0.000000e+000
<ENDHMM>
~h "jedna"
<BEGINHMM>
<NUMSTATES> 10
<STATE> 2
<MEAN> 16
 6.068408e+000 6.759293e+000 6.893236e+000 6.776869e+000 6.517756e+000 6.534966e+000 6.673679e+000 6.895737e+000 7.474008e+000 7.754028e+000 7.767760e+000 8.067900e+000 8.469262e+000 8.265852e+000 7.897404e+000 8.054746e+000
<VARIANCE> 16
 1.985741e-001 3.900698e-001 4.132791e-001 2.331413e-001 1.013207e-001 7.605925e-002 3.853418e-002 2.385181e-002 1.786626e-001 2.899431e-001 2.445896e-001 4.708898e-001 6.614242e-001 3.147493e-001 8.301710e-002 6.932910e-002
<GCONST> 8.018868e-001
<STATE> 3
<MEAN> 16
 6.341264e+000 7.609648e+000 8.016475e+000 7.720809e+000 7.086508e+000 6.778121e+000 6.729676e+000 7.015298e+000 7.961328e+000 8.945754e+000 9.148240e+000 9.472816e+000 9.531994e+000 8.893115e+000 8.066199e+000 8.062800e+000
<VARIANCE> 16
 1.611954e-001 2.284530e-001 2.508423e-001 2.117800e-001 1.654354e-001 1.888816e-001 5.782397e-002 7.807664e-002 3.457233e-001 4.060866e-001 5.193424e-001 1.117398e+000 1.145652e+000 5.062063e-001 6.413804e-002 3.891435e-002
<GCONST> 5.257666e+000
<STATE> 4
<MEAN> 16
 6.416053e+000 7.472939e+000 8.120452e+000 7.790958e+000 7.022550e+000 6.827465e+000 7.137238e+000 7.964313e+000 8.520191e+000 8.610008e+000 8.348422e+000 8.299543e+000 8.889815e+000 8.571887e+000 8.400364e+000 8.486240e+000
<VARIANCE> 16
 1.045732e-001 3.094606e-001 9.695399e-001 8.160048e-001 3.152308e-001 1.460831e-001 1.967174e-001 7.133602e-001 1.113275e+000 9.449674e-001 8.978365e-001 1.208034e+000 9.932596e-001 4.800007e-001 1.905512e-001 1.181677e-001
<GCONST> 1.629690e+001
<STATE> 5
<MEAN> 16
 6.367799e+000 7.765958e+000 8.882202e+000 8.856330e+000 7.841471e+000 7.400079e+000 7.694058e+000 8.554444e+000 8.997127e+000 9.596319e+000 9.489280e+000 1.009242e+001 9.943645e+000 8.728757e+000 8.244924e+000 8.168100e+000
<VARIANCE> 16
 8.440007e-002 1.420537e-001 4.574375e-001 5.051194e-001 3.032591e-001 2.306439e-001 2.118797e-001 8.256766e-001 9.899130e-001 9.050080e-001 1.205208e+000 1.450904e+000 1.005955e+000 7.425174e-001 2.281995e-001 7.144219e-002
<GCONST> 1.515460e+001
<STATE> 6
<MEAN> 16
 6.415904e+000 7.547727e+000 8.214521e+000 8.333217e+000 7.790229e+000 7.514243e+000 7.544583e+000 8.234627e+000 8.886649e+000 9.459007e+000 9.912133e+000 9.997348e+000 1.029589e+001 9.564773e+000 8.210313e+000 8.075011e+000
<VARIANCE> 16
 1.923689e-001 3.847370e-001 6.727156e-001 6.902953e-001 3.302439e-001 3.393998e-001 6.029495e-001 6.941987e-001 1.042969e+000 1.354190e+000 1.419784e+000 1.698044e+000 1.708664e+000 1.383330e+000 3.036756e-001 5.485842e-002
<GCONST> 2.096667e+001
<STATE> 7
<MEAN> 16
 6.675349e+000 7.812485e+000 9.006176e+000 9.191678e+000 8.960726e+000 8.382017e+000 8.377476e+000 8.924604e+000 9.747210e+000 1.018648e+001 1.026739e+001 1.022603e+001 1.083703e+001 1.004116e+001 8.461110e+000 8.254073e+000
<VARIANCE> 16
 1.683257e-001 4.134389e-001 6.749015e-001 8.914163e-001 1.052465e+000 7.195734e-001 7.884666e-001 9.205615e-001 8.218222e-001 1.471019e+000 1.469466e+000 1.523813e+000 1.304028e+000 1.284835e+000 5.504363e-001 1.373176e-001
<GCONST> 2.456383e+001
<STATE> 8
<MEAN> 16
 6.556246e+000 7.622132e+000 8.507195e+000 9.428219e+000 1.007545e+001 1.029410e+001 1.074707e+001 1.111029e+001 1.037176e+001 1.012178e+001 1.034267e+001 1.061542e+001 1.111601e+001 1.039675e+001 8.531882e+000 8.307480e+000
<VARIANCE> 16
 1.078034e-001 2.196580e-001 3.475653e-001 4.128698e-001 4.502077e-001 5.089765e-001 3.120117e-001 6.254670e-001 3.598367e-001 2.169532e-001 1.318512e+000 1.065717e+000 1.155519e+000 8.302721e-001 2.316043e-001 9.081225e-002
<GCONST> 1.450094e+001
<STATE> 9
<MEAN> 16
 6.233425e+000 7.061569e+000 7.491060e+000 8.294187e+000 9.111961e+000 9.104427e+000 9.310822e+000 9.028414e+000 8.530782e+000 8.549746e+000 8.695606e+000 9.038979e+000 9.369465e+000 8.810003e+000 7.988605e+000 8.103271e+000
<VARIANCE> 16
 1.714237e-001 3.858749e-001 5.160561e-001 7.994296e-001 9.215592e-001 4.524097e-001 4.758992e-001 4.208083e-001 3.105766e-001 3.638790e-001 7.437612e-001 8.105874e-001 4.589269e-001 1.983768e-001 3.255012e-002 3.919581e-002
<GCONST> 1.157490e+001
<TRANSP> 10
 0.000000e+000 1.000000e+000 0.000000e+000 0.000000e+000 0.000000e+000 0.000000e+000 0.000000e+000 0.000000e+000 0.000000e+000 0.000000e+000
 0.000000e+000 5.454727e-001 4.545273e-001 0.000000e+000 0.000000e+000 0.000000e+000 0.000000e+000 0.000000e+000 0.000000e+000 0.000000e+000
 0.000000e+000 0.000000e+000 5.010129e-001 4.989871e-001 0.000000e+000 0.000000e+000 0.000000e+000 0.000000e+000 0.000000e+000 0.000000e+000
 0.000000e+000 0.000000e+000 0.000000e+000 7.880704e-001 2.119296e-001 0.000000e+000 0.000000e+000 0.000000e+000 0.000000e+000 0.000000e+000
 0.000000e+000 0.000000e+000 0.000000e+000 0.000000e+000 8.293827e-001 1.706173e-001 0.000000e+000 0.000000e+000 0.000000e+000 0.000000e+000
 0.000000e+000 0.000000e+000 0.000000e+000 0.000000e+000 0.000000e+000 8.238494e-001 1.761506e-001 0.000000e+000 0.000000e+000 0.000000e+000
 0.000000e+000 0.000000e+000 0.000000e+000 0.000000e+000 0.000000e+000 0.000000e+000 9.151651e-001 8.483486e-002 0.000000e+000 0.000000e+000
 0.000000e+000 0.000000e+000 0.000000e+000 0.000000e+000 0.000000e+000 0.000000e+000 0.000000e+000 9.323280e-001 6.767202e-002 0.000000e+000
 0.000000e+000 0.000000e+000 0.000000e+000 0.000000e+000 0.000000e+000 0.000000e+000 0.000000e+000 0.000000e+000 8.981860e-001 1.018140e-001
 0.000000e+000 0.000000e+000 0.000000e+000 0.000000e+000 0.000000e+000 0.000000e+000 0.000000e+000 0.000000e+000 0.000000e+000 0.000000e+000
<ENDHMM>
