~o
<STREAMINFO> 1 16
<VECSIZE> 16<NULLD><FBANK><DIAGC>
~h "ctyri"
<BEGINHMM>
<NUMSTATES> 10
<STATE> 2
<MEAN> 16
 5.719589e+000 5.874310e+000 6.141809e+000 6.319179e+000 6.373364e+000 6.566030e+000 6.803901e+000 7.098471e+000 7.481137e+000 7.786800e+000 8.420359e+000 9.318281e+000 9.772607e+000 9.627500e+000 9.125895e+000 8.756369e+000
<VARIANCE> 16
 1.974455e-001 1.324732e-001 2.447796e-001 1.196067e-001 1.034915e-001 7.037500e-002 8.331804e-002 1.525549e-001 2.541639e-001 3.887245e-001 6.628929e-001 9.181220e-001 9.966222e-001 9.840344e-001 6.666073e-001 4.170485e-001
<GCONST> 8.833103e+000
<STATE> 3
<MEAN> 16
 5.753512e+000 5.902445e+000 6.167207e+000 6.289317e+000 6.347807e+000 6.527445e+000 6.764236e+000 7.143239e+000 7.712312e+000 8.174638e+000 8.894588e+000 9.636876e+000 1.013492e+001 9.964661e+000 9.421803e+000 8.955961e+000
<VARIANCE> 16
 1.524859e-001 2.386989e-001 3.705173e-001 1.835425e-001 8.630297e-002 8.421457e-002 7.711128e-002 2.423347e-001 4.930013e-001 9.639281e-001 1.306320e+000 1.406449e+000 1.460998e+000 1.630223e+000 1.224100e+000 6.415485e-001
<GCONST> 1.499088e+001
<STATE> 4
<MEAN> 16
 5.813920e+000 5.971362e+000 6.233062e+000 6.285808e+000 6.361373e+000 6.530769e+000 6.766299e+000 7.202004e+000 7.887756e+000 8.356454e+000 8.932178e+000 9.682476e+000 1.022331e+001 1.010701e+001 9.553860e+000 9.003827e+000
<VARIANCE> 16
 1.678157e-001 3.639050e-001 5.549390e-001 2.488508e-001 8.301891e-002 6.748103e-002 7.650557e-002 3.045204e-001 7.203413e-001 1.293355e+000 1.433229e+000 1.619433e+000 1.691411e+000 1.862082e+000 1.426042e+000 7.098021e-001
<GCONST> 1.761708e+001
<STATE> 5
<MEAN> 16
 5.804394e+000 6.035713e+000 6.279727e+000 6.361992e+000 6.449584e+000 6.599197e+000 6.837545e+000 7.259370e+000 7.956041e+000 8.414369e+000 9.005265e+000 9.763996e+000 1.027968e+001 1.014092e+001 9.576968e+000 9.025920e+000
<VARIANCE> 16
 1.836947e-001 4.326491e-001 7.733272e-001 3.709244e-001 1.063320e-001 8.711590e-002 1.261536e-001 3.967997e-001 8.413486e-001 1.292933e+000 1.427249e+000 1.580355e+000 1.540952e+000 1.641442e+000 1.422289e+000 7.657190e-001
<GCONST> 1.985950e+001
<STATE> 6
<MEAN> 16
 5.852604e+000 6.281793e+000 6.657843e+000 6.733330e+000 6.648320e+000 6.704273e+000 7.026166e+000 7.542934e+000 8.336534e+000 8.759300e+000 9.193970e+000 9.752411e+000 1.015835e+001 9.980433e+000 9.377898e+000 8.877520e+000
<VARIANCE> 16
 1.880121e-001 8.183136e-001 1.667376e+000 1.024541e+000 2.456840e-001 1.959645e-001 2.706389e-001 6.316881e-001 1.274768e+000 1.391198e+000 1.429164e+000 1.521586e+000 1.347254e+000 1.370185e+000 1.220749e+000 6.824153e-001
<GCONST> 2.505004e+001
<STATE> 7
<MEAN> 16
 6.084901e+000 6.994828e+000 7.671460e+000 7.714519e+000 7.152223e+000 7.121554e+000 7.455652e+000 8.166224e+000 9.208009e+000 9.541190e+000 9.602032e+000 1.001732e+001 1.028488e+001 9.954374e+000 9.179945e+000 8.747790e+000
<VARIANCE> 16
 2.887883e-001 1.273870e+000 2.561827e+000 2.001825e+000 5.071101e-001 4.208454e-001 4.429150e-001 8.137940e-001 1.479140e+000 1.189324e+000 1.357283e+000 1.446132e+000 1.617660e+000 1.429873e+000 8.139097e-001 4.158391e-001
<GCONST> 2.847030e+001
<STATE> 8
<MEAN> 16
 6.438303e+000 7.778570e+000 9.120416e+000 9.174936e+000 8.052909e+000 7.823201e+000 8.071713e+000 8.944645e+000 1.018808e+001 1.051128e+001 1.033023e+001 1.062904e+001 1.110262e+001 1.058068e+001 9.445523e+000 8.820285e+000
<VARIANCE> 16
 2.246368e-001 4.494912e-001 1.209407e+000 1.031367e+000 7.208294e-001 6.503333e-001 5.016163e-001 4.256277e-001 6.020128e-001 6.270140e-001 1.166692e+000 1.306367e+000 1.652200e+000 1.631473e+000 9.106963e-001 3.644864e-001
<GCONST> 2.436834e+001
<STATE> 9
<MEAN> 16
 6.269444e+000 7.507321e+000 8.966830e+000 8.941853e+000 7.935441e+000 7.590609e+000 7.661951e+000 8.221923e+000 9.394974e+000 1.022676e+001 1.003648e+001 1.000513e+001 1.062942e+001 9.943815e+000 8.437740e+000 8.229239e+000
<VARIANCE> 16
 1.720580e-001 2.935013e-001 7.137710e-001 6.669290e-001 6.482553e-001 4.349534e-001 2.923965e-001 4.183814e-001 7.712254e-001 6.940291e-001 1.183202e+000 1.203060e+000 1.169020e+000 9.508648e-001 1.891172e-001 9.799436e-002
<GCONST> 1.815660e+001
<TRANSP> 10
 0.000000e+000 1.000000e+000 0.000000e+000 0.000000e+000 0.000000e+000 0.000000e+000 0.000000e+000 0.000000e+000 0.000000e+000 0.000000e+000
 0.000000e+000 5.939196e-001 4.060804e-001 0.000000e+000 0.000000e+000 0.000000e+000 0.000000e+000 0.000000e+000 0.000000e+000 0.000000e+000
 0.000000e+000 0.000000e+000 6.331809e-001 3.668190e-001 0.000000e+000 0.000000e+000 0.000000e+000 0.000000e+000 0.000000e+000 0.000000e+000
 0.000000e+000 0.000000e+000 0.000000e+000 7.278051e-001 2.721949e-001 0.000000e+000 0.000000e+000 0.000000e+000 0.000000e+000 0.000000e+000
 0.000000e+000 0.000000e+000 0.000000e+000 0.000000e+000 7.436156e-001 2.563844e-001 0.000000e+000 0.000000e+000 0.000000e+000 0.000000e+000
 0.000000e+000 0.000000e+000 0.000000e+000 0.000000e+000 0.000000e+000 6.325710e-001 3.674290e-001 0.000000e+000 0.000000e+000 0.000000e+000
 0.000000e+000 0.000000e+000 0.000000e+000 0.000000e+000 0.000000e+000 0.000000e+000 6.138891e-001 3.861109e-001 0.000000e+000 0.000000e+000
 0.000000e+000 0.000000e+000 0.000000e+000 0.000000e+000 0.000000e+000 0.000000e+000 0.000000e+000 9.636051e-001 3.639489e-002 0.000000e+000
 0.000000e+000 0.000000e+000 0.000000e+000 0.000000e+000 0.000000e+000 0.000000e+000 0.000000e+000 0.000000e+000 9.271723e-001 7.282763e-002
 0.000000e+000 0.000000e+000 0.000000e+000 0.000000e+000 0.000000e+000 0.000000e+000 0.000000e+000 0.000000e+000 0.000000e+000 0.000000e+000
<ENDHMM>
~h "sedm"
<BEGINHMM>
<NUMSTATES> 10
<STATE> 2
<MEAN> 16
 5.721624e+000 5.805357e+000 5.999729e+000 6.183318e+000 6.308764e+000 6.479106e+000 6.659677e+000 6.994163e+000 7.411455e+000 7.480748e+000 7.644348e+000 8.123799e+000 9.082190e+000 9.337798e+000 9.632067e+000 9.420431e+000
<VARIANCE> 16
 1.747736e-001 1.084848e-001 7.996897e-002 9.174142e-002 6.692698e-002 4.909722e-002 4.941882e-002 8.105571e-002 1.035058e-001 8.110951e-002 1.533902e-001 2.028991e-001 3.327341e-001 2.281663e-001 1.665255e-001 2.323551e-001
<GCONST> -4.792512e+000
<STATE> 3
<MEAN> 16
 5.717546e+000 5.783181e+000 5.924413e+000 6.140014e+000 6.328155e+000 6.543649e+000 6.737884e+000 7.173637e+000 7.536724e+000 7.588694e+000 7.822245e+000 8.401375e+000 9.481979e+000 9.789627e+000 9.924821e+000 9.878325e+000
<VARIANCE> 16
 2.013515e-001 9.984440e-002 1.441822e-001 9.037178e-002 7.295168e-002 7.424687e-002 8.274131e-002 1.249471e-001 1.779605e-001 1.334270e-001 2.082054e-001 2.223956e-001 4.317458e-001 3.937353e-001 2.847815e-001 2.863861e-001
<GCONST> 2.771025e-001
<STATE> 4
<MEAN> 16
 5.717510e+000 5.796525e+000 5.975899e+000 6.247886e+000 6.429027e+000 6.624747e+000 6.892148e+000 7.370750e+000 7.730469e+000 7.788168e+000 8.034309e+000 8.656782e+000 9.743382e+000 1.007574e+001 1.012131e+001 1.006427e+001
<VARIANCE> 16
 1.215611e-001 1.563009e-001 2.837792e-001 1.889462e-001 1.067359e-001 1.064304e-001 1.524141e-001 2.354614e-001 2.456894e-001 1.697462e-001 2.557022e-001 2.737186e-001 4.924673e-001 5.414537e-001 4.910304e-001 3.946287e-001
<GCONST> 5.912426e+000
<STATE> 5
<MEAN> 16
 5.738722e+000 5.910928e+000 6.215073e+000 6.498216e+000 6.581122e+000 6.774261e+000 7.113318e+000 7.646128e+000 8.032734e+000 8.088712e+000 8.345870e+000 8.945220e+000 1.000557e+001 1.032946e+001 1.027423e+001 1.013730e+001
<VARIANCE> 16
 1.227224e-001 2.854333e-001 5.909684e-001 4.318352e-001 1.711724e-001 1.418798e-001 2.757519e-001 3.986613e-001 2.877964e-001 2.186073e-001 3.491799e-001 4.048151e-001 6.254293e-001 7.589917e-001 6.601150e-001 4.646005e-001
<GCONST> 1.211352e+001
<STATE> 6
<MEAN> 16
 5.883162e+000 6.236891e+000 6.685125e+000 7.019818e+000 6.954278e+000 7.119928e+000 7.491165e+000 8.196499e+000 8.579577e+000 8.573406e+000 8.834523e+000 9.329588e+000 1.026568e+001 1.052844e+001 1.024607e+001 1.005572e+001
<VARIANCE> 16
 1.493245e-001 5.610476e-001 1.227465e+000 1.194287e+000 4.882312e-001 2.994622e-001 5.087162e-001 7.612201e-001 4.282497e-001 3.146029e-001 5.042289e-001 5.174063e-001 7.222244e-001 9.989634e-001 8.906547e-001 5.878286e-001
<GCONST> 2.011580e+001
<STATE> 7
<MEAN> 16
 6.139549e+000 6.880016e+000 7.685129e+000 8.258758e+000 7.918436e+000 7.823499e+000 8.225806e+000 9.161109e+000 9.372411e+000 9.226760e+000 9.464405e+000 9.774420e+000 1.046119e+001 1.048553e+001 9.788678e+000 9.559897e+000
<VARIANCE> 16
 2.362989e-001 8.327066e-001 2.061914e+000 2.502422e+000 1.529714e+000 8.203295e-001 9.794882e-001 1.468819e+000 8.885430e-001 5.818201e-001 1.012402e+000 7.453816e-001 8.215711e-001 1.119273e+000 1.004862e+000 6.813293e-001
<GCONST> 2.860794e+001
<STATE> 8
<MEAN> 16
 6.712090e+000 7.977884e+000 8.976462e+000 9.387079e+000 9.078060e+000 8.682239e+000 9.005799e+000 9.770675e+000 1.012656e+001 9.984078e+000 1.020531e+001 1.024294e+001 1.077961e+001 1.017725e+001 8.642366e+000 8.370797e+000
<VARIANCE> 16
 2.285429e-001 3.838634e-001 5.314720e-001 8.397433e-001 1.235949e+000 7.603955e-001 6.364687e-001 8.386202e-001 9.005309e-001 8.320629e-001 1.236378e+000 1.257566e+000 1.120872e+000 1.176296e+000 6.810699e-001 2.641237e-001
<GCONST> 2.418967e+001
<STATE> 9
<MEAN> 16
 6.481993e+000 8.020251e+000 8.510014e+000 8.551005e+000 7.908728e+000 7.902629e+000 8.111456e+000 8.314100e+000 8.401952e+000 8.605550e+000 8.570294e+000 9.116901e+000 9.386317e+000 8.793805e+000 8.115932e+000 8.125548e+000
<VARIANCE> 16
 2.052364e-001 1.682386e-001 5.081119e-001 5.093157e-001 2.511505e-001 3.180595e-001 4.802867e-001 6.009168e-001 4.913091e-001 5.244418e-001 7.612342e-001 1.505872e+000 1.226671e+000 3.549148e-001 8.822445e-002 5.869756e-002
<GCONST> 1.360409e+001
<TRANSP> 10
 0.000000e+000 1.000000e+000 0.000000e+000 0.000000e+000 0.000000e+000 0.000000e+000 0.000000e+000 0.000000e+000 0.000000e+000 0.000000e+000
 0.000000e+000 6.808411e-001 3.191589e-001 0.000000e+000 0.000000e+000 0.000000e+000 0.000000e+000 0.000000e+000 0.000000e+000 0.000000e+000
 0.000000e+000 0.000000e+000 5.288194e-001 4.711806e-001 0.000000e+000 0.000000e+000 0.000000e+000 0.000000e+000 0.000000e+000 0.000000e+000
 0.000000e+000 0.000000e+000 0.000000e+000 4.834462e-001 5.165538e-001 0.000000e+000 0.000000e+000 0.000000e+000 0.000000e+000 0.000000e+000
 0.000000e+000 0.000000e+000 0.000000e+000 0.000000e+000 5.020445e-001 4.979555e-001 0.000000e+000 0.000000e+000 0.000000e+000 0.000000e+000
 0.000000e+000 0.000000e+000 0.000000e+000 0.000000e+000 0.000000e+000 5.553668e-001 4.446332e-001 0.000000e+000 0.000000e+000 0.000000e+000
 0.000000e+000 0.000000e+000 0.000000e+000 0.000000e+000 0.000000e+000 0.000000e+000 6.007251e-001 3.992749e-001 0.000000e+000 0.000000e+000
 0.000000e+000 0.000000e+000 0.000000e+000 0.000000e+000 0.000000e+000 0.000000e+000 0.000000e+000 9.539329e-001 4.606704e-002 0.000000e+000
 0.000000e+000 0.000000e+000 0.000000e+000 0.000000e+000 0.000000e+000 0.000000e+000 0.000000e+000 0.000000e+000 9.581180e-001 4.188202e-002
 0.000000e+000 0.000000e+000 0.000000e+000 0.000000e+000 0.000000e+000 0.000000e+000 0.000000e+000 0.000000e+000 0.000000e+000 0.000000e+000
<ENDHMM>
~h "sest"
<BEGINHMM>
<NUMSTATES> 10
<STATE> 2
<MEAN> 16
 5.678926e+000 5.687279e+000 5.887292e+000 6.075562e+000 6.353322e+000 6.462266e+000 6.661101e+000 7.114617e+000 7.879940e+000 8.321114e+000 8.749302e+000 9.338519e+000 9.594075e+000 9.710915e+000 9.245265e+000 8.459909e+000
<VARIANCE> 16
 8.604511e-002 9.268982e-002 8.724150e-002 5.919060e-002 5.705116e-002 4.434564e-002 5.604650e-002 7.818717e-002 2.383217e-001 4.135953e-001 3.478273e-001 3.632419e-001 2.892026e-001 2.759624e-001 2.838140e-001 9.973845e-002
<GCONST> -2.579681e+000
<STATE> 3
<MEAN> 16
 5.713986e+000 5.777288e+000 5.938864e+000 6.154416e+000 6.317594e+000 6.422251e+000 6.661506e+000 7.252618e+000 8.141318e+000 8.791380e+000 9.298042e+000 9.975416e+000 1.021124e+001 1.026469e+001 9.764588e+000 8.907881e+000
<VARIANCE> 16
 1.328781e-001 1.092829e-001 7.195095e-002 9.069418e-002 4.990631e-002 5.721744e-002 6.671442e-002 1.225568e-001 3.787745e-001 5.400599e-001 3.251210e-001 3.643359e-001 2.973742e-001 2.666299e-001 2.414514e-001 1.529612e-001
<GCONST> -7.659996e-002
<STATE> 4
<MEAN> 16
 5.776299e+000 5.753294e+000 5.984811e+000 6.183044e+000 6.362370e+000 6.532323e+000 6.750971e+000 7.394198e+000 8.304609e+000 9.167637e+000 9.676303e+000 1.032893e+001 1.058872e+001 1.054850e+001 1.003891e+001 9.220325e+000
<VARIANCE> 16
 1.195972e-001 9.730057e-002 7.263292e-002 9.624059e-002 5.285278e-002 7.653999e-002 8.294088e-002 1.854412e-001 3.919188e-001 5.738094e-001 2.796912e-001 3.603362e-001 3.818390e-001 3.159127e-001 2.392536e-001 1.856372e-001
<GCONST> 1.288197e+000
<STATE> 5
<MEAN> 16
 5.766682e+000 5.851285e+000 6.079739e+000 6.232908e+000 6.384109e+000 6.592666e+000 6.843023e+000 7.573714e+000 8.450972e+000 9.307178e+000 9.877423e+000 1.060277e+001 1.083612e+001 1.078121e+001 1.025508e+001 9.462899e+000
<VARIANCE> 16
 8.166420e-002 1.201500e-001 1.655100e-001 1.369801e-001 7.650426e-002 8.023205e-002 1.147309e-001 2.245530e-001 4.629376e-001 5.996310e-001 2.663506e-001 5.369818e-001 6.033934e-001 5.666084e-001 3.804758e-001 2.493813e-001
<GCONST> 5.588473e+000
<STATE> 6
<MEAN> 16
 5.774698e+000 5.979610e+000 6.267042e+000 6.401521e+000 6.426954e+000 6.646436e+000 6.966486e+000 7.832614e+000 8.683395e+000 9.421245e+000 1.000769e+001 1.074834e+001 1.098884e+001 1.087512e+001 1.035954e+001 9.609257e+000
<VARIANCE> 16
 9.077391e-002 2.478605e-001 5.213464e-001 4.254022e-001 1.690517e-001 1.277232e-001 1.687560e-001 4.359866e-001 5.619790e-001 5.977498e-001 3.131061e-001 6.700605e-001 8.030167e-001 9.338123e-001 6.668674e-001 3.701529e-001
<GCONST> 1.332148e+001
<STATE> 7
<MEAN> 16
 5.883616e+000 6.308547e+000 6.821402e+000 7.105532e+000 6.919283e+000 6.969493e+000 7.298274e+000 8.298177e+000 9.089872e+000 9.576998e+000 1.003870e+001 1.060827e+001 1.089424e+001 1.063214e+001 1.005360e+001 9.497890e+000
<VARIANCE> 16
 1.422258e-001 6.676669e-001 1.510953e+000 1.781636e+000 8.815101e-001 4.672436e-001 4.646207e-001 1.010057e+000 7.709423e-001 5.706342e-001 4.768060e-001 8.634380e-001 1.067952e+000 1.391884e+000 1.290727e+000 5.907035e-001
<GCONST> 2.481499e+001
<STATE> 8
<MEAN> 16
 6.303407e+000 7.189093e+000 8.418930e+000 9.327216e+000 9.270453e+000 8.732023e+000 8.889682e+000 9.859537e+000 1.032335e+001 1.018498e+001 1.036735e+001 1.056320e+001 1.101481e+001 1.061297e+001 9.469438e+000 8.980633e+000
<VARIANCE> 16
 2.376384e-001 6.110159e-001 1.294467e+000 1.762407e+000 2.157957e+000 1.532561e+000 1.212913e+000 1.477635e+000 1.620591e+000 1.252044e+000 1.635961e+000 1.334062e+000 1.320977e+000 1.365695e+000 8.741640e-001 5.187165e-001
<GCONST> 3.136792e+001
<STATE> 9
<MEAN> 16
 5.689581e+000 5.880836e+000 6.353917e+000 6.967581e+000 7.054025e+000 6.874768e+000 7.033458e+000 7.674728e+000 7.968898e+000 7.929439e+000 8.345011e+000 8.887241e+000 9.795622e+000 1.028290e+001 1.027763e+001 1.003743e+001
<VARIANCE> 16
 1.064093e-001 1.614661e-001 2.674522e-001 4.369242e-001 3.936606e-001 2.125348e-001 1.339382e-001 2.392230e-001 3.097717e-001 2.379829e-001 2.672315e-001 2.857430e-001 4.473398e-001 4.447056e-001 3.248207e-001 2.710724e-001
<GCONST> 8.049242e+000
<TRANSP> 10
 0.000000e+000 1.000000e+000 0.000000e+000 0.000000e+000 0.000000e+000 0.000000e+000 0.000000e+000 0.000000e+000 0.000000e+000 0.000000e+000
 0.000000e+000 2.279440e-001 7.720560e-001 0.000000e+000 0.000000e+000 0.000000e+000 0.000000e+000 0.000000e+000 0.000000e+000 0.000000e+000
 0.000000e+000 0.000000e+000 2.289523e-001 7.710477e-001 0.000000e+000 0.000000e+000 0.000000e+000 0.000000e+000 0.000000e+000 0.000000e+000
 0.000000e+000 0.000000e+000 0.000000e+000 2.884795e-001 7.115205e-001 0.000000e+000 0.000000e+000 0.000000e+000 0.000000e+000 0.000000e+000
 0.000000e+000 0.000000e+000 0.000000e+000 0.000000e+000 3.855773e-001 6.144227e-001 0.000000e+000 0.000000e+000 0.000000e+000 0.000000e+000
 0.000000e+000 0.000000e+000 0.000000e+000 0.000000e+000 0.000000e+000 5.287855e-001 4.712145e-001 0.000000e+000 0.000000e+000 0.000000e+000
 0.000000e+000 0.000000e+000 0.000000e+000 0.000000e+000 0.000000e+000 0.000000e+000 7.044282e-001 2.955718e-001 0.000000e+000 0.000000e+000
 0.000000e+000 0.000000e+000 0.000000e+000 0.000000e+000 0.000000e+000 0.000000e+000 0.000000e+000 9.636330e-001 3.636704e-002 0.000000e+000
 0.000000e+000 0.000000e+000 0.000000e+000 0.000000e+000 0.000000e+000 0.000000e+000 0.000000e+000 0.000000e+000 9.155658e-001 8.443419e-002
 0.000000e+000 0.000000e+000 0.000000e+000 0.000000e+000 0.000000e+000 0.000000e+000 0.000000e+000 0.000000e+000 0.000000e+000 0.000000e+000
<ENDHMM>
~h "dva"
<BEGINHMM>
<NUMSTATES> 10
<STATE> 2
<MEAN> 16
 6.100438e+000 6.834521e+000 7.165415e+000 7.128165e+000 6.776009e+000 6.818985e+000 7.164852e+000 7.309601e+000 7.602818e+000 7.550552e+000 7.673325e+000 7.934227e+000 8.212156e+000 8.080686e+000 7.890794e+000 8.001932e+000
<VARIANCE> 16
 1.823140e-001 2.726983e-001 5.490219e-001 4.353588e-001 1.820269e-001 2.676735e-001 3.269235e-001 4.071276e-001 4.076178e-001 4.599856e-001 5.957206e-001 6.581805e-001 7.158558e-001 3.305194e-001 6.151887e-002 4.379883e-002
<GCONST> 9.967003e+000
<STATE> 3
<MEAN> 16
 6.141000e+000 7.132311e+000 7.756192e+000 7.758650e+000 7.200470e+000 7.258411e+000 7.636938e+000 7.901460e+000 8.068962e+000 8.143338e+000 8.264621e+000 8.540612e+000 8.798964e+000 8.491161e+000 7.994743e+000 8.050997e+000
<VARIANCE> 16
 1.723104e-001 1.944239e-001 6.727926e-001 6.649669e-001 3.371697e-001 4.133588e-001 4.468176e-001 6.207974e-001 6.193854e-001 6.598899e-001 8.246197e-001 9.600312e-001 9.528247e-001 5.149813e-001 8.406335e-002 4.518806e-002
<GCONST> 1.453917e+001
<STATE> 4
<MEAN> 16
 6.273112e+000 7.317844e+000 8.104953e+000 8.194798e+000 7.579438e+000 7.651804e+000 8.059540e+000 8.279022e+000 8.262764e+000 8.477094e+000 8.536499e+000 8.867012e+000 8.971613e+000 8.596895e+000 8.047370e+000 8.083179e+000
<VARIANCE> 16
 2.208910e-001 1.471976e-001 6.027399e-001 6.914905e-001 5.208983e-001 4.838228e-001 4.733506e-001 6.493388e-001 6.511935e-001 5.366428e-001 7.608808e-001 9.175112e-001 8.824823e-001 6.169324e-001 9.866047e-002 4.857212e-002
<GCONST> 1.518730e+001
<STATE> 5
<MEAN> 16
 6.414613e+000 7.368022e+000 8.147431e+000 8.310656e+000 7.784679e+000 7.871933e+000 8.287388e+000 8.328465e+000 8.253750e+000 8.467310e+000 8.506869e+000 8.808175e+000 8.951941e+000 8.606397e+000 8.081243e+000 8.112518e+000
<VARIANCE> 16
 2.508889e-001 1.586709e-001 5.482749e-001 8.348664e-001 8.872476e-001 7.387398e-001 7.361269e-001 7.150229e-001 7.053614e-001 6.039547e-001 7.395748e-001 7.804251e-001 9.930875e-001 6.676445e-001 1.192795e-001 7.623864e-002
<GCONST> 1.782266e+001
<STATE> 6
<MEAN> 16
 6.574763e+000 7.458134e+000 8.195008e+000 8.470837e+000 8.139491e+000 8.229589e+000 8.619786e+000 8.425979e+000 8.278704e+000 8.560659e+000 8.543148e+000 8.840104e+000 9.150762e+000 8.802973e+000 8.128423e+000 8.146313e+000
<VARIANCE> 16
 2.959303e-001 2.023678e-001 4.767626e-001 1.010494e+000 1.361422e+000 1.058262e+000 1.077626e+000 8.223600e-001 6.977797e-001 6.920569e-001 7.311101e-001 8.556281e-001 9.666621e-001 6.211172e-001 1.108125e-001 9.084631e-002
<GCONST> 1.979908e+001
<STATE> 7
<MEAN> 16
 6.644021e+000 7.534360e+000 8.364758e+000 9.008562e+000 9.014605e+000 9.031728e+000 9.369613e+000 8.937661e+000 8.674539e+000 9.067588e+000 8.947262e+000 9.375336e+000 9.607588e+000 9.140355e+000 8.286118e+000 8.234869e+000
<VARIANCE> 16
 2.842456e-001 1.603068e-001 3.107956e-001 1.103461e+000 1.866316e+000 1.209576e+000 1.158057e+000 9.790869e-001 5.779600e-001 8.615081e-001 1.039754e+000 1.340359e+000 9.346996e-001 6.702829e-001 2.051551e-001 2.119845e-001
<GCONST> 2.221891e+001
<STATE> 8
<MEAN> 16
 6.583053e+000 7.454167e+000 8.391718e+000 9.561097e+000 1.042605e+001 1.059978e+001 1.093288e+001 1.044705e+001 9.625319e+000 9.996256e+000 1.013591e+001 1.053704e+001 1.110626e+001 1.024420e+001 8.727124e+000 8.417911e+000
<VARIANCE> 16
 4.094071e-001 4.030319e-001 7.312855e-001 8.150421e-001 9.447917e-001 9.731803e-001 1.124298e+000 1.615894e+000 7.313372e-001 8.371237e-001 1.752803e+000 1.747473e+000 1.924209e+000 1.233297e+000 5.174567e-001 2.778290e-001
<GCONST> 2.715320e+001
<STATE> 9
<MEAN> 16
 5.828760e+000 6.362574e+000 6.591371e+000 7.506963e+000 8.498687e+000 8.838963e+000 8.846725e+000 8.475766e+000 7.853034e+000 8.006737e+000 8.381253e+000 8.682920e+000 9.203019e+000 8.533024e+000 7.884685e+000 7.950849e+000
<VARIANCE> 16
 2.468861e-001 4.349550e-001 2.935492e-001 5.034203e-001 4.529172e-001 3.270054e-001 3.994987e-001 5.853018e-001 2.695383e-001 3.362250e-001 5.037296e-001 3.411987e-001 3.455537e-001 2.513476e-001 6.691103e-002 7.674286e-002
<GCONST> 1.002242e+001
<TRANSP> 10
 0.000000e+000 1.000000e+000 0.000000e+000 0.000000e+000 0.000000e+000 0.000000e+000 0.000000e+000 0.000000e+000 0.000000e+000 0.000000e+000
 0.000000e+000 1.609785e-001 8.390215e-001 0.000000e+000 0.000000e+000 0.000000e+000 0.000000e+000 0.000000e+000 0.000000e+000 0.000000e+000
 0.000000e+000 0.000000e+000 2.360590e-001 7.639410e-001 0.000000e+000 0.000000e+000 0.000000e+000 0.000000e+000 0.000000e+000 0.000000e+000
 0.000000e+000 0.000000e+000 0.000000e+000 3.868039e-001 6.131961e-001 0.000000e+000 0.000000e+000 0.000000e+000 0.000000e+000 0.000000e+000
 0.000000e+000 0.000000e+000 0.000000e+000 0.000000e+000 4.372978e-001 5.627022e-001 0.000000e+000 0.000000e+000 0.000000e+000 0.000000e+000
 0.000000e+000 0.000000e+000 0.000000e+000 0.000000e+000 0.000000e+000 4.441111e-001 5.558888e-001 0.000000e+000 0.000000e+000 0.000000e+000
 0.000000e+000 0.000000e+000 0.000000e+000 0.000000e+000 0.000000e+000 0.000000e+000 5.507847e-001 4.492153e-001 0.000000e+000 0.000000e+000
 0.000000e+000 0.000000e+000 0.000000e+000 0.000000e+000 0.000000e+000 0.000000e+000 0.000000e+000 9.594441e-001 4.055595e-002 0.000000e+000
 0.000000e+000 0.000000e+000 0.000000e+000 0.000000e+000 0.000000e+000 0.000000e+000 0.000000e+000 0.000000e+000 7.690920e-001 2.309080e-001
 0.000000e+000 0.000000e+000 0.000000e+000 0.000000e+000 0.000000e+000 0.000000e+000 0.000000e+000 0.000000e+000 0.000000e+000 0.000000e+000
<ENDHMM>
~h "osm"
<BEGINHMM>
<NUMSTATES> 10
<STATE> 2
<MEAN> 16
 5.485912e+000 5.891342e+000 6.364696e+000 6.826705e+000 6.971849e+000 7.047917e+000 6.938532e+000 6.860720e+000 7.136604e+000 7.127979e+000 7.241126e+000 7.603343e+000 8.097809e+000 8.120059e+000 8.074051e+000 8.213263e+000
<VARIANCE> 16
 3.020719e-001 2.234534e-001 6.086838e-001 1.316746e+000 1.149974e+000 9.041494e-001 4.472305e-001 1.374331e-001 1.746854e-001 2.535904e-001 7.104781e-002 1.596564e-001 4.406538e-001 4.033339e-001 3.256245e-001 2.246523e-001
<GCONST> 1.180014e+001
<STATE> 3
<MEAN> 16
 5.721621e+000 6.316629e+000 7.066537e+000 7.891137e+000 8.003549e+000 7.972148e+000 7.436511e+000 7.125296e+000 7.377124e+000 7.552175e+000 7.665076e+000 8.184424e+000 8.609672e+000 8.271929e+000 8.060117e+000 8.245627e+000
<VARIANCE> 16
 1.601850e-001 5.211142e-001 1.207808e+000 1.784487e+000 1.594695e+000 1.427335e+000 7.686489e-001 2.962430e-001 2.165591e-001 4.064943e-001 4.104786e-001 7.908291e-001 5.575717e-001 3.377077e-001 2.675224e-001 3.015172e-001
<GCONST> 1.929115e+001
<STATE> 4
<MEAN> 16
 6.026589e+000 6.950434e+000 8.103057e+000 9.205373e+000 9.286599e+000 9.260467e+000 8.585107e+000 7.919070e+000 7.894563e+000 8.283057e+000 8.591602e+000 9.258107e+000 9.706100e+000 8.925749e+000 8.262498e+000 8.317649e+000
<VARIANCE> 16
 2.725900e-001 5.737644e-001 1.042676e+000 1.449773e+000 1.674675e+000 1.519051e+000 1.449660e+000 7.028152e-001 3.232756e-001 7.286971e-001 1.081050e+000 1.896901e+000 1.003467e+000 6.480000e-001 2.765278e-001 2.829516e-001
<GCONST> 2.521036e+001
<STATE> 5
<MEAN> 16
 6.286332e+000 7.258564e+000 8.577884e+000 9.753942e+000 9.844275e+000 9.869482e+000 9.231462e+000 8.392836e+000 8.286865e+000 8.715714e+000 9.109771e+000 9.815824e+000 1.034511e+001 9.397836e+000 8.389001e+000 8.425280e+000
<VARIANCE> 16
 3.518187e-001 3.705034e-001 7.733418e-001 1.125910e+000 1.575815e+000 1.317722e+000 1.550989e+000 7.834238e-001 3.632005e-001 7.555445e-001 1.508295e+000 2.700865e+000 1.227821e+000 8.400823e-001 3.049184e-001 2.166540e-001
<GCONST> 2.558080e+001
<STATE> 6
<MEAN> 16
 6.444426e+000 7.452597e+000 8.812212e+000 9.874131e+000 9.971107e+000 1.005702e+001 9.483858e+000 8.595716e+000 8.480414e+000 8.926978e+000 9.332934e+000 1.001125e+001 1.058830e+001 9.663374e+000 8.532394e+000 8.516143e+000
<VARIANCE> 16
 3.557586e-001 2.800716e-001 6.708525e-001 1.076395e+000 1.597528e+000 1.152281e+000 1.308339e+000 6.234097e-001 2.863953e-001 5.810827e-001 1.458113e+000 2.483516e+000 1.338784e+000 1.004079e+000 5.110327e-001 2.127509e-001
<GCONST> 2.475109e+001
<STATE> 7
<MEAN> 16
 6.451530e+000 7.498705e+000 8.808798e+000 9.690877e+000 9.799295e+000 9.891805e+000 9.356749e+000 8.671769e+000 8.561962e+000 8.992536e+000 9.514645e+000 1.016294e+001 1.079274e+001 9.978833e+000 8.756585e+000 8.755328e+000
<VARIANCE> 16
 2.538267e-001 3.930627e-001 8.571540e-001 1.373697e+000 1.955404e+000 1.482577e+000 1.277711e+000 5.460027e-001 3.190340e-001 4.601656e-001 1.106357e+000 1.904008e+000 1.150347e+000 8.626487e-001 6.756219e-001 3.328017e-001
<GCONST> 2.529522e+001
<STATE> 8
<MEAN> 16
 6.359754e+000 7.125902e+000 8.236699e+000 8.962464e+000 9.081007e+000 9.282288e+000 9.181889e+000 8.885349e+000 8.832464e+000 9.040855e+000 9.676262e+000 1.029030e+001 1.095994e+001 1.070656e+001 9.877497e+000 9.616458e+000
<VARIANCE> 16
 5.514823e-001 1.424646e+000 2.504487e+000 2.219002e+000 2.096873e+000 2.030554e+000 1.889470e+000 1.208926e+000 9.999805e-001 1.064302e+000 1.130531e+000 1.051002e+000 8.504795e-001 7.905487e-001 1.449599e+000 1.663415e+000
<GCONST> 3.387265e+001
<STATE> 9
<MEAN> 16
 6.337353e+000 7.654490e+000 8.356803e+000 8.359554e+000 7.721475e+000 8.107618e+000 8.298140e+000 8.231852e+000 8.345851e+000 8.582708e+000 8.776949e+000 9.544539e+000 9.939035e+000 9.217858e+000 8.363585e+000 8.344491e+000
<VARIANCE> 16
 2.524548e-001 5.695269e-001 8.839085e-001 7.425811e-001 2.985324e-001 4.642743e-001 5.875837e-001 6.466775e-001 4.556592e-001 4.870025e-001 6.162910e-001 9.353547e-001 9.291457e-001 5.748959e-001 4.925105e-001 3.980283e-001
<GCONST> 1.978885e+001
<TRANSP> 10
 0.000000e+000 1.000000e+000 0.000000e+000 0.000000e+000 0.000000e+000 0.000000e+000 0.000000e+000 0.000000e+000 0.000000e+000 0.000000e+000
 0.000000e+000 1.727296e-001 8.272704e-001 0.000000e+000 0.000000e+000 0.000000e+000 0.000000e+000 0.000000e+000 0.000000e+000 0.000000e+000
 0.000000e+000 0.000000e+000 6.530547e-002 9.346945e-001 0.000000e+000 0.000000e+000 0.000000e+000 0.000000e+000 0.000000e+000 0.000000e+000
 0.000000e+000 0.000000e+000 0.000000e+000 6.000728e-002 9.399927e-001 0.000000e+000 0.000000e+000 0.000000e+000 0.000000e+000 0.000000e+000
 0.000000e+000 0.000000e+000 0.000000e+000 0.000000e+000 8.393656e-002 9.160634e-001 0.000000e+000 0.000000e+000 0.000000e+000 0.000000e+000
 0.000000e+000 0.000000e+000 0.000000e+000 0.000000e+000 0.000000e+000 1.826506e-001 8.173494e-001 0.000000e+000 0.000000e+000 0.000000e+000
 0.000000e+000 0.000000e+000 0.000000e+000 0.000000e+000 0.000000e+000 0.000000e+000 4.856266e-001 5.143734e-001 0.000000e+000 0.000000e+000
 0.000000e+000 0.000000e+000 0.000000e+000 0.000000e+000 0.000000e+000 0.000000e+000 0.000000e+000 9.533223e-001 4.667773e-002 0.000000e+000
 0.000000e+000 0.000000e+000 0.000000e+000 0.000000e+000 0.000000e+000 0.000000e+000 0.000000e+000 0.000000e+000 9.663609e-001 3.363906e-002
 0.000000e+000 0.000000e+000 0.000000e+000 0.000000e+000 0.000000e+000 0.000000e+000 0.000000e+000 0.000000e+000 0.000000e+000 0.000000e+000
<ENDHMM>
~h "pet"
<BEGINHMM>
<NUMSTATES> 10
<STATE> 2
<MEAN> 16
 5.843132e+000 6.200425e+000 6.504612e+000 6.447117e+000 6.330055e+000 6.432632e+000 6.709990e+000 7.034796e+000 7.550124e+000 7.429869e+000 7.470022e+000 7.602776e+000 7.902045e+000 8.011269e+000 7.958964e+000 8.060289e+000
<VARIANCE> 16
 2.963025e-001 6.502864e-001 9.324282e-001 2.512530e-001 8.530516e-002 5.400537e-002 6.782237e-002 2.126547e-001 5.049313e-001 4.058888e-001 2.378768e-001 1.989294e-001 2.382783e-001 2.273822e-001 7.782188e-002 3.401229e-002
<GCONST> 3.203296e+000
<STATE> 3
<MEAN> 16
 5.929251e+000 6.671663e+000 7.252836e+000 6.976578e+000 6.580392e+000 6.548792e+000 6.929329e+000 7.486791e+000 8.119946e+000 8.138371e+000 8.060757e+000 8.165322e+000 8.486039e+000 8.409565e+000 8.167808e+000 8.178158e+000
<VARIANCE> 16
 2.804046e-001 6.987671e-001 1.080126e+000 5.565374e-001 1.517283e-001 1.032746e-001 1.041405e-001 3.864715e-001 7.303505e-001 9.199933e-001 7.143214e-001 6.750853e-001 4.823751e-001 3.624258e-001 1.012614e-001 7.301093e-002
<GCONST> 1.212027e+001
<STATE> 4
<MEAN> 16
 6.301695e+000 7.377510e+000 8.253896e+000 7.999267e+000 7.124468e+000 6.946563e+000 7.332576e+000 8.068501e+000 9.053639e+000 9.326472e+000 9.041805e+000 9.190081e+000 9.414870e+000 8.976758e+000 8.267182e+000 8.208863e+000
<VARIANCE> 16
 2.257636e-001 2.965905e-001 6.651942e-001 6.294562e-001 3.016985e-001 2.112475e-001 1.076483e-001 4.314411e-001 7.127662e-001 1.304533e+000 1.266686e+000 1.417923e+000 8.348228e-001 5.498264e-001 1.058610e-001 9.524598e-002
<GCONST> 1.514646e+001
<STATE> 5
<MEAN> 16
 6.527075e+000 7.762588e+000 9.037102e+000 8.834300e+000 7.759925e+000 7.383093e+000 7.712931e+000 8.529521e+000 9.792109e+000 1.020825e+001 9.844234e+000 9.864014e+000 1.007904e+001 9.413219e+000 8.291387e+000 8.144543e+000
<VARIANCE> 16
 2.410248e-001 2.381040e-001 5.085816e-001 5.459965e-001 4.028638e-001 3.425512e-001 2.532874e-001 3.449151e-001 6.267914e-001 1.296236e+000 1.672211e+000 2.059567e+000 1.283682e+000 8.967409e-001 8.655020e-002 7.488845e-002
<GCONST> 1.697960e+001
<STATE> 6
<MEAN> 16
 6.628833e+000 7.769581e+000 9.365510e+000 9.265187e+000 8.080009e+000 7.677610e+000 7.937263e+000 8.795398e+000 1.014749e+001 1.066861e+001 1.030647e+001 1.020379e+001 1.047004e+001 9.739145e+000 8.421195e+000 8.243985e+000
<VARIANCE> 16
 2.596460e-001 1.994083e-001 3.334446e-001 3.385058e-001 3.663252e-001 2.608814e-001 2.589853e-001 4.088965e-001 4.194073e-001 8.598619e-001 1.627283e+000 2.395986e+000 1.461904e+000 1.082446e+000 1.274662e-001 7.558440e-002
<GCONST> 1.582787e+001
<STATE> 7
<MEAN> 16
 6.692236e+000 7.746444e+000 9.543623e+000 9.660729e+000 8.536351e+000 8.034881e+000 8.221504e+000 9.106104e+000 1.032485e+001 1.092203e+001 1.059613e+001 1.049311e+001 1.074219e+001 1.002435e+001 8.612973e+000 8.399075e+000
<VARIANCE> 16
 3.034936e-001 2.123484e-001 2.785449e-001 2.794356e-001 4.979602e-001 3.395671e-001 1.789713e-001 3.561939e-001 3.280448e-001 6.251492e-001 1.449401e+000 2.171740e+000 1.460609e+000 1.259552e+000 1.585410e-001 9.396733e-002
<GCONST> 1.554620e+001
<STATE> 8
<MEAN> 16
 6.454641e+000 7.437543e+000 8.978121e+000 9.950301e+000 9.707824e+000 8.884502e+000 9.021784e+000 9.944871e+000 1.077287e+001 1.080279e+001 1.077716e+001 1.079185e+001 1.113371e+001 1.036215e+001 8.737560e+000 8.443590e+000
<VARIANCE> 16
 1.782350e-001 2.676469e-001 5.572112e-001 4.693374e-001 9.680864e-001 7.858393e-001 4.819162e-001 4.452881e-001 5.837255e-001 8.835588e-001 1.201390e+000 1.322962e+000 1.081595e+000 1.140510e+000 2.583524e-001 1.513718e-001
<GCONST> 1.997929e+001
<STATE> 9
<MEAN> 16
 5.870771e+000 6.261791e+000 7.211445e+000 8.132987e+000 8.065851e+000 7.480645e+000 7.471139e+000 8.142829e+000 8.778048e+000 8.691214e+000 8.957274e+000 8.993561e+000 9.138781e+000 8.396731e+000 7.882090e+000 8.004404e+000
<VARIANCE> 16
 1.145208e-001 2.801480e-001 4.334126e-001 3.196020e-001 3.369253e-001 2.503059e-001 1.372886e-001 2.880067e-001 3.091215e-001 2.969867e-001 4.623111e-001 3.264457e-001 2.833153e-001 3.021629e-001 3.586430e-002 3.761278e-002
<GCONST> 4.940936e+000
<TRANSP> 10
 0.000000e+000 1.000000e+000 0.000000e+000 0.000000e+000 0.000000e+000 0.000000e+000 0.000000e+000 0.000000e+000 0.000000e+000 0.000000e+000
 0.000000e+000 4.423669e-002 9.557633e-001 0.000000e+000 0.000000e+000 0.000000e+000 0.000000e+000 0.000000e+000 0.000000e+000 0.000000e+000
 0.000000e+000 0.000000e+000 3.527398e-002 9.647260e-001 0.000000e+000 0.000000e+000 0.000000e+000 0.000000e+000 0.000000e+000 0.000000e+000
 0.000000e+000 0.000000e+000 0.000000e+000 4.561681e-002 9.543832e-001 0.000000e+000 0.000000e+000 0.000000e+000 0.000000e+000 0.000000e+000
 0.000000e+000 0.000000e+000 0.000000e+000 0.000000e+000 8.200201e-002 9.179980e-001 0.000000e+000 0.000000e+000 0.000000e+000 0.000000e+000
 0.000000e+000 0.000000e+000 0.000000e+000 0.000000e+000 0.000000e+000 1.905441e-001 8.094559e-001 0.000000e+000 0.000000e+000 0.000000e+000
 0.000000e+000 0.000000e+000 0.000000e+000 0.000000e+000 0.000000e+000 0.000000e+000 4.817016e-001 5.182984e-001 0.000000e+000 0.000000e+000
 0.000000e+000 0.000000e+000 0.000000e+000 0.000000e+000 0.000000e+000 0.000000e+000 0.000000e+000 9.533344e-001 4.666563e-002 0.000000e+000
 0.000000e+000 0.000000e+000 0.000000e+000 0.000000e+000 0.000000e+000 0.000000e+000 0.000000e+000 0.000000e+000 7.056341e-001 2.943659e-001
 0.000000e+000 0.000000e+000 0.000000e+000 0.000000e+000 0.000000e+000 0.000000e+000 0.000000e+000 0.000000e+000 0.000000e+000 0.000000e+000
<ENDHMM>
~h "sil"
<BEGINHMM>
<NUMSTATES> 5
<STATE> 2
<MEAN> 16
 5.745514e+000 6.097489e+000 6.399506e+000 6.745588e+000 6.869605e+000 6.914807e+000 7.029143e+000 7.228264e+000 7.505323e+000 7.517004e+000 7.694029e+000 7.948689e+000 8.327808e+000 8.121700e+000 7.959819e+000 8.121948e+000
<VARIANCE> 16
 1.784286e-001 3.843617e-001 3.834002e-001 4.857165e-001 4.743942e-001 3.847060e-001 3.712976e-001 3.434257e-001 2.573118e-001 3.006200e-001 3.346622e-001 2.662814e-001 3.356701e-001 2.195035e-001 1.079997e-001 8.260836e-002
<GCONST> 8.980466e+000
<STATE> 3
<MEAN> 16
 5.642630e+000 5.755709e+000 5.933566e+000 6.128420e+000 6.289137e+000 6.461403e+000 6.617161e+000 6.789099e+000 7.135561e+000 7.049354e+000 7.204423e+000 7.385791e+000 7.601356e+000 7.680624e+000 7.824961e+000 8.019279e+000
<VARIANCE> 16
 1.195076e-001 1.112449e-001 1.047917e-001 9.397476e-002 8.480901e-002 7.314301e-002 6.438768e-002 6.521277e-002 4.834916e-002 5.220210e-002 5.251174e-002 5.453838e-002 8.158111e-002 5.406996e-002 2.681213e-002 3.666095e-002
<GCONST> -1.427659e+001
<STATE> 4
<MEAN> 16
 5.393660e+000 5.815044e+000 5.985419e+000 6.092626e+000 6.107142e+000 6.275477e+000 6.425814e+000 6.560113e+000 6.855354e+000 6.866932e+000 7.025005e+000 7.229523e+000 7.504394e+000 7.599618e+000 7.683079e+000 7.812025e+000
<VARIANCE> 16
 4.503186e-001 3.615171e-001 3.225828e-001 2.312989e-001 1.881196e-001 1.707060e-001 1.660530e-001 2.669861e-001 4.108161e-001 3.090516e-001 2.952020e-001 3.233959e-001 3.903179e-001 3.523106e-001 2.516534e-001 2.429013e-001
<GCONST> 9.249178e+000
<TRANSP> 5
 0.000000e+000 1.000000e+000 0.000000e+000 0.000000e+000 0.000000e+000
 0.000000e+000 5.659797e-001 4.340203e-001 0.000000e+000 0.000000e+000
 0.000000e+000 0.000000e+000 9.855730e-001 1.442701e-002 0.000000e+000
 0.000000e+000 0.000000e+000 0.000000e+000 6.584882e-001 3.415119e-001
 0.000000e+000 0.000000e+000 0.000000e+000 0.000000e+000 0.000000e+000
<ENDHMM>
~h "tri"
<BEGINHMM>
<NUMSTATES> 10
<STATE> 2
<MEAN> 16
 5.811454e+000 5.978206e+000 6.294262e+000 6.432971e+000 6.549381e+000 6.726867e+000 7.040384e+000 7.505566e+000 7.871200e+000 7.966250e+000 8.147661e+000 8.784147e+000 9.241728e+000 9.179513e+000 8.626346e+000 8.424378e+000
<VARIANCE> 16
 1.515885e-001 1.490709e-001 1.910897e-001 1.352768e-001 1.011428e-001 1.206599e-001 1.808310e-001 3.021203e-001 3.097965e-001 3.421334e-001 4.871634e-001 6.904281e-001 6.711116e-001 6.640190e-001 4.036416e-001 2.821299e-001
<GCONST> 8.332673e+000
<STATE> 3
<MEAN> 16
 5.665070e+000 5.918062e+000 6.298873e+000 6.496593e+000 6.670273e+000 6.920308e+000 7.258703e+000 7.828659e+000 8.222273e+000 8.387370e+000 8.629481e+000 9.401941e+000 9.863101e+000 9.812429e+000 9.128016e+000 8.820630e+000
<VARIANCE> 16
 1.575158e-001 1.142448e-001 1.824304e-001 2.014477e-001 1.834433e-001 2.182128e-001 2.938828e-001 3.256392e-001 3.637720e-001 3.488854e-001 4.309238e-001 5.670832e-001 6.754883e-001 7.559265e-001 4.350560e-001 3.459879e-001
<GCONST> 1.048103e+001
<STATE> 4
<MEAN> 16
 5.767860e+000 5.866990e+000 6.390930e+000 6.637951e+000 6.780314e+000 6.998414e+000 7.352894e+000 7.905642e+000 8.436287e+000 8.553372e+000 8.951075e+000 9.822673e+000 1.045534e+001 1.051462e+001 9.641914e+000 9.156613e+000
<VARIANCE> 16
 1.394447e-001 1.535536e-001 2.184901e-001 2.940113e-001 2.350055e-001 3.337962e-001 3.323874e-001 2.552249e-001 3.164366e-001 3.091198e-001 3.271651e-001 4.404933e-001 6.488737e-001 7.833970e-001 5.259399e-001 3.493166e-001
<GCONST> 1.117187e+001
<STATE> 5
<MEAN> 16
 5.818034e+000 5.905743e+000 6.393539e+000 6.655317e+000 6.767693e+000 6.999877e+000 7.300983e+000 7.941681e+000 8.562432e+000 8.742122e+000 9.309953e+000 1.033735e+001 1.104068e+001 1.115280e+001 1.015585e+001 9.429768e+000
<VARIANCE> 16
 1.475086e-001 2.054660e-001 3.659881e-001 3.581650e-001 2.544278e-001 3.215194e-001 2.668159e-001 3.051369e-001 3.689954e-001 3.160343e-001 4.567897e-001 6.873716e-001 7.822346e-001 8.238181e-001 6.563563e-001 3.900395e-001
<GCONST> 1.375690e+001
<STATE> 6
<MEAN> 16
 5.893620e+000 5.985300e+000 6.357479e+000 6.626535e+000 6.718347e+000 6.911106e+000 7.186318e+000 7.958702e+000 8.608843e+000 8.894714e+000 9.603288e+000 1.066457e+001 1.135951e+001 1.150271e+001 1.062899e+001 9.814498e+000
<VARIANCE> 16
 2.060126e-001 3.598256e-001 6.239005e-001 3.525159e-001 2.368031e-001 2.622137e-001 1.958936e-001 3.647720e-001 4.353711e-001 2.912793e-001 5.933610e-001 9.561504e-001 8.776899e-001 8.638601e-001 7.995057e-001 5.307861e-001
<GCONST> 1.610608e+001
<STATE> 7
<MEAN> 16
 5.966406e+000 6.296350e+000 6.674619e+000 6.797993e+000 6.752507e+000 6.846533e+000 7.159818e+000 8.089387e+000 8.928850e+000 9.135480e+000 9.759191e+000 1.067778e+001 1.139322e+001 1.145647e+001 1.078505e+001 9.995068e+000
<VARIANCE> 16
 2.664488e-001 7.889020e-001 1.296153e+000 5.797511e-001 2.208506e-001 1.873919e-001 1.851454e-001 4.761302e-001 6.599296e-001 4.205201e-001 7.857997e-001 1.238527e+000 1.262339e+000 1.343465e+000 1.102087e+000 7.275127e-001
<GCONST> 2.094538e+001
<STATE> 8
<MEAN> 16
 6.312293e+000 7.602517e+000 8.814098e+000 8.972696e+000 8.022702e+000 7.747976e+000 7.973279e+000 8.718889e+000 1.002500e+001 1.072893e+001 1.067010e+001 1.077602e+001 1.118946e+001 1.063601e+001 9.270429e+000 8.728565e+000
<VARIANCE> 16
 2.082927e-001 6.448097e-001 1.567142e+000 1.559573e+000 9.827511e-001 7.384168e-001 5.027244e-001 4.885908e-001 8.457634e-001 9.006342e-001 1.313375e+000 1.431548e+000 1.340459e+000 1.455353e+000 9.954182e-001 4.564481e-001
<GCONST> 2.680607e+001
<STATE> 9
<MEAN> 16
 6.000145e+000 6.865127e+000 7.684244e+000 7.728268e+000 7.251748e+000 7.094260e+000 6.998211e+000 7.257466e+000 8.275372e+000 9.164618e+000 9.177274e+000 9.193727e+000 9.666273e+000 9.077327e+000 8.123555e+000 8.090491e+000
<VARIANCE> 16
 1.826494e-001 4.254240e-001 3.522498e-001 5.288066e-001 3.765768e-001 3.246373e-001 1.243595e-001 1.335148e-001 4.369725e-001 3.830301e-001 4.922290e-001 3.247116e-001 4.193123e-001 3.713485e-001 1.145096e-001 5.897036e-002
<GCONST> 8.492103e+000
<TRANSP> 10
 0.000000e+000 1.000000e+000 0.000000e+000 0.000000e+000 0.000000e+000 0.000000e+000 0.000000e+000 0.000000e+000 0.000000e+000 0.000000e+000
 0.000000e+000 4.028782e-001 5.971218e-001 0.000000e+000 0.000000e+000 0.000000e+000 0.000000e+000 0.000000e+000 0.000000e+000 0.000000e+000
 0.000000e+000 0.000000e+000 2.595469e-001 7.404531e-001 0.000000e+000 0.000000e+000 0.000000e+000 0.000000e+000 0.000000e+000 0.000000e+000
 0.000000e+000 0.000000e+000 0.000000e+000 2.649503e-001 7.350497e-001 0.000000e+000 0.000000e+000 0.000000e+000 0.000000e+000 0.000000e+000
 0.000000e+000 0.000000e+000 0.000000e+000 0.000000e+000 3.553007e-001 6.446993e-001 0.000000e+000 0.000000e+000 0.000000e+000 0.000000e+000
 0.000000e+000 0.000000e+000 0.000000e+000 0.000000e+000 0.000000e+000 5.536919e-001 4.463081e-001 0.000000e+000 0.000000e+000 0.000000e+000
 0.000000e+000 0.000000e+000 0.000000e+000 0.000000e+000 0.000000e+000 0.000000e+000 7.595326e-001 2.404673e-001 0.000000e+000 0.000000e+000
 0.000000e+000 0.000000e+000 0.000000e+000 0.000000e+000 0.000000e+000 0.000000e+000 0.000000e+000 9.608099e-001 3.919005e-002 0.000000e+000
 0.000000e+000 0.000000e+000 0.000000e+000 0.000000e+000 0.000000e+000 0.000000e+000 0.000000e+000 0.000000e+000 7.049602e-001 2.950398e-001
 0.000000e+000 0.000000e+000 0.000000e+000 0.000000e+000 0.000000e+000 0.000000e+000 0.000000e+000 0.000000e+000 0.000000e+000 0.000000e+000
<ENDHMM>
~h "nula"
<BEGINHMM>
<NUMSTATES> 10
<STATE> 2
<MEAN> 16
 6.208211e+000 7.514952e+000 7.685837e+000 7.729497e+000 7.175007e+000 7.143309e+000 6.988809e+000 7.263304e+000 7.562577e+000 7.677031e+000 7.656400e+000 7.685159e+000 8.255717e+000 8.188620e+000 7.890438e+000 8.052738e+000
<VARIANCE> 16
 5.617934e-001 5.554205e-001 5.695773e-001 5.200064e-001 4.277577e-001 5.108019e-001 2.012052e-001 2.348522e-001 2.489999e-001 4.542390e-001 3.383317e-001 2.003902e-001 4.114176e-001 2.051443e-001 3.979129e-002 4.570272e-002
<GCONST> 8.798859e+000
<STATE> 3
<MEAN> 16
 6.446844e+000 7.857059e+000 8.173792e+000 8.207827e+000 7.551621e+000 7.471746e+000 7.215762e+000 7.541790e+000 7.798280e+000 8.031651e+000 8.035407e+000 7.966021e+000 8.539857e+000 8.378273e+000 7.941730e+000 8.054165e+000
<VARIANCE> 16
 4.719153e-001 4.741545e-001 5.375150e-001 4.544330e-001 4.586645e-001 6.284685e-001 2.253790e-001 3.782422e-001 3.088176e-001 6.843799e-001 6.034116e-001 3.379148e-001 5.351953e-001 1.980639e-001 2.958053e-002 3.899437e-002
<GCONST> 1.063962e+001
<STATE> 4
<MEAN> 16
 6.609484e+000 8.013438e+000 8.425287e+000 8.440186e+000 7.742769e+000 7.582410e+000 7.375044e+000 7.703199e+000 7.920707e+000 8.161477e+000 8.198297e+000 8.126302e+000 8.611074e+000 8.408763e+000 7.969819e+000 8.047789e+000
<VARIANCE> 16
 4.115549e-001 3.943419e-001 5.396555e-001 3.944351e-001 4.414453e-001 7.061512e-001 3.249697e-001 3.898689e-001 3.311179e-001 6.387487e-001 6.369482e-001 4.269335e-001 6.074083e-001 2.233336e-001 4.550477e-002 3.975494e-002
<GCONST> 1.164064e+001
<STATE> 5
<MEAN> 16
 6.634599e+000 8.089882e+000 8.615317e+000 8.685944e+000 7.965889e+000 7.888906e+000 7.724621e+000 7.986920e+000 8.153410e+000 8.392824e+000 8.442792e+000 8.354438e+000 8.684884e+000 8.405839e+000 8.027349e+000 8.111978e+000
<VARIANCE> 16
 4.452645e-001 3.298656e-001 5.769067e-001 4.697899e-001 4.098897e-001 6.742399e-001 4.840432e-001 4.821842e-001 3.526758e-001 5.254361e-001 8.028757e-001 6.809962e-001 6.145669e-001 1.941567e-001 7.636131e-002 6.689065e-002
<GCONST> 1.374889e+001
<STATE> 6
<MEAN> 16
 6.568048e+000 8.067534e+000 8.783802e+000 9.067216e+000 8.312084e+000 8.362674e+000 8.192465e+000 8.303106e+000 8.412165e+000 8.646888e+000 8.738870e+000 8.754952e+000 8.836840e+000 8.456692e+000 8.093562e+000 8.200573e+000
<VARIANCE> 16
 4.405324e-001 3.872437e-001 6.465865e-001 5.180002e-001 3.718953e-001 6.332743e-001 6.477913e-001 5.849282e-001 3.277607e-001 3.500123e-001 9.904669e-001 1.090175e+000 8.100402e-001 2.693756e-001 1.820096e-001 2.251036e-001
<GCONST> 1.732157e+001
<STATE> 7
<MEAN> 16
 6.491260e+000 8.038515e+000 8.914520e+000 9.493404e+000 8.807939e+000 8.859927e+000 8.710157e+000 8.516589e+000 8.533689e+000 8.773433e+000 9.000281e+000 9.146094e+000 9.107998e+000 8.605119e+000 8.188888e+000 8.228842e+000
<VARIANCE> 16
 4.158493e-001 3.739721e-001 8.004866e-001 4.967642e-001 5.162355e-001 6.934971e-001 7.421750e-001 6.028562e-001 3.045809e-001 2.670196e-001 9.096587e-001 1.238506e+000 1.072765e+000 4.778962e-001 3.361168e-001 3.478232e-001
<GCONST> 1.958689e+001
<STATE> 8
<MEAN> 16
 6.657545e+000 7.835728e+000 9.023872e+000 1.002951e+001 1.024419e+001 1.035041e+001 1.038669e+001 9.734695e+000 9.267926e+000 9.687605e+000 1.004123e+001 1.027279e+001 1.066089e+001 9.865002e+000 8.683910e+000 8.455834e+000
<VARIANCE> 16
 3.350771e-001 5.332788e-001 1.102031e+000 5.203770e-001 8.165284e-001 8.031093e-001 1.280581e+000 1.374776e+000 5.462488e-001 7.394630e-001 1.704657e+000 1.513671e+000 1.957462e+000 1.511041e+000 7.819508e-001 4.774143e-001
<GCONST> 2.741203e+001
<STATE> 9
<MEAN> 16
 5.999921e+000 6.730960e+000 7.135786e+000 8.321009e+000 8.986350e+000 9.236788e+000 9.395056e+000 8.952330e+000 8.290709e+000 8.555961e+000 8.879936e+000 8.999379e+000 9.517124e+000 8.940253e+000 8.084262e+000 8.053727e+000
<VARIANCE> 16
 2.479078e-001 5.576640e-001 5.060670e-001 7.657338e-001 6.539950e-001 6.004015e-001 9.970853e-001 1.478997e+000 8.072920e-001 8.587052e-001 1.292613e+000 1.003071e+000 1.122138e+000 7.087697e-001 1.710089e-001 1.010589e-001
<GCONST> 2.153922e+001
<TRANSP> 10
 0.000000e+000 1.000000e+000 0.000000e+000 0.000000e+000 0.000000e+000 0.000000e+000 0.000000e+000 0.000000e+000 0.000000e+000 0.000000e+000
 0.000000e+000 3.123128e-001 6.876873e-001 0.000000e+000 0.000000e+000 0.000000e+000 0.000000e+000 0.000000e+000 0.000000e+000 0.000000e+000
 0.000000e+000 0.000000e+000 2.798689e-001 7.201310e-001 0.000000e+000 0.000000e+000 0.000000e+000 0.000000e+000 0.000000e+000 0.000000e+000
 0.000000e+000 0.000000e+000 0.000000e+000 2.958989e-001 7.041010e-001 0.000000e+000 0.000000e+000 0.000000e+000 0.000000e+000 0.000000e+000
 0.000000e+000 0.000000e+000 0.000000e+000 0.000000e+000 3.517786e-001 6.482214e-001 0.000000e+000 0.000000e+000 0.000000e+000 0.000000e+000
 0.000000e+000 0.000000e+000 0.000000e+000 0.000000e+000 0.000000e+000 4.797941e-001 5.202059e-001 0.000000e+000 0.000000e+000 0.000000e+000
 0.000000e+000 0.000000e+000 0.000000e+000 0.000000e+000 0.000000e+000 0.000000e+000 6.629617e-001 3.370383e-001 0.000000e+000 0.000000e+000
 0.000000e+000 0.000000e+000 0.000000e+000 0.000000e+000 0.000000e+000 0.000000e+000 0.000000e+000 9.662788e-001 3.372122e-002 0.000000e+000
 0.000000e+000 0.000000e+000 0.000000e+000 0.000000e+000 0.000000e+000 0.000000e+000 0.000000e+000 0.000000e+000 8.348168e-001 1.651832e-001
 0.000000e+000 0.000000e+000 0.000000e+000 0.000000e+000 0.000000e+000 0.000000e+000 0.000000e+000 0.000000e+000 0.000000e+000 0.000000e+000
<ENDHMM>
~h "devet"
<BEGINHMM>
<NUMSTATES> 10
<STATE> 2
<MEAN> 16
 6.170316e+000 6.897095e+000 7.047744e+000 7.011887e+000 6.665625e+000 6.621982e+000 6.740143e+000 7.021881e+000 7.513111e+000 7.383461e+000 7.454751e+000 7.629820e+000 7.903115e+000 7.933394e+000 7.878148e+000 8.023595e+000
<VARIANCE> 16
 2.013154e-001 3.274431e-001 3.779642e-001 3.525083e-001 1.399918e-001 1.473154e-001 1.593627e-001 3.433552e-001 3.342177e-001 2.554264e-001 1.679579e-001 1.984880e-001 2.723984e-001 1.740493e-001 4.086687e-002 3.989181e-002
<GCONST> 2.554380e+000
<STATE> 3
<MEAN> 16
 6.220941e+000 7.103771e+000 7.456245e+000 7.379745e+000 6.902798e+000 6.731668e+000 6.985332e+000 7.336930e+000 7.841091e+000 7.709250e+000 7.789088e+000 7.956839e+000 8.272309e+000 8.208644e+000 7.950123e+000 8.049398e+000
<VARIANCE> 16
 2.425577e-001 4.454347e-001 4.181175e-001 4.305147e-001 1.886465e-001 1.670664e-001 1.702702e-001 5.337200e-001 5.410282e-001 3.795598e-001 4.312146e-001 5.001253e-001 6.023329e-001 3.637543e-001 5.588205e-002 7.902344e-002
<GCONST> 9.552735e+000
<STATE> 4
<MEAN> 16
 6.292806e+000 7.273640e+000 7.867451e+000 7.850026e+000 7.143423e+000 6.915720e+000 7.217411e+000 7.915818e+000 8.424965e+000 8.322005e+000 8.384694e+000 8.524199e+000 8.885598e+000 8.690057e+000 8.154001e+000 8.113534e+000
<VARIANCE> 16
 2.679571e-001 4.836172e-001 5.917536e-001 6.596211e-001 2.569824e-001 1.798872e-001 2.499432e-001 8.796459e-001 9.762941e-001 6.617151e-001 7.372324e-001 8.652742e-001 9.766373e-001 6.421171e-001 1.604797e-001 1.099177e-001
<GCONST> 1.644225e+001
<STATE> 5
<MEAN> 16
 6.463283e+000 7.488273e+000 8.412927e+000 8.488670e+000 7.674084e+000 7.342149e+000 7.672896e+000 8.675749e+000 9.336007e+000 9.223883e+000 9.223684e+000 9.373462e+000 9.766390e+000 9.322933e+000 8.485672e+000 8.299794e+000
<VARIANCE> 16
 2.585182e-001 3.327602e-001 7.086353e-001 8.395441e-001 3.546411e-001 2.393490e-001 3.706871e-001 8.362636e-001 8.521378e-001 7.885203e-001 1.046007e+000 1.289764e+000 1.180141e+000 9.482541e-001 3.842636e-001 1.569847e-001
<GCONST> 2.000221e+001
<STATE> 6
<MEAN> 16
 6.564538e+000 7.663162e+000 8.959308e+000 9.197440e+000 8.332889e+000 7.850896e+000 8.187436e+000 9.294394e+000 1.008335e+001 9.949797e+000 9.951977e+000 1.004494e+001 1.033076e+001 9.601707e+000 8.664309e+000 8.394833e+000
<VARIANCE> 16
 2.220819e-001 2.212309e-001 6.980030e-001 6.787137e-001 4.446299e-001 2.804436e-001 3.050834e-001 7.107379e-001 6.759948e-001 7.290466e-001 1.296984e+000 1.663888e+000 1.316123e+000 1.061489e+000 3.662866e-001 1.648824e-001
<GCONST> 1.962428e+001
<STATE> 7
<MEAN> 16
 6.625555e+000 7.740227e+000 9.270648e+000 9.673332e+000 8.900736e+000 8.249797e+000 8.608468e+000 9.755283e+000 1.054189e+001 1.043712e+001 1.025677e+001 1.037355e+001 1.062731e+001 9.844872e+000 8.769786e+000 8.512615e+000
<VARIANCE> 16
 2.112850e-001 2.216225e-001 5.455166e-001 5.146247e-001 4.833782e-001 2.678263e-001 1.667560e-001 5.837536e-001 4.707007e-001 5.576031e-001 1.728785e+000 1.980780e+000 1.230767e+000 1.023684e+000 2.457807e-001 1.922951e-001
<GCONST> 1.777277e+001
<STATE> 8
<MEAN> 16
 6.680001e+000 7.898470e+000 9.321720e+000 9.489293e+000 8.690261e+000 8.144622e+000 8.611019e+000 9.850637e+000 1.038852e+001 1.025009e+001 9.568262e+000 9.649948e+000 1.018371e+001 9.902677e+000 8.656893e+000 8.691072e+000
<VARIANCE> 16
 2.105874e-001 2.694603e-001 2.680820e-001 7.260122e-001 1.458534e+000 7.066949e-001 4.266835e-001 3.405195e-001 5.588292e-001 9.079533e-001 2.880170e+000 3.006897e+000 1.943990e+000 1.025434e+000 1.507191e-001 1.596560e-001
<GCONST> 2.144455e+001
<STATE> 9
<MEAN> 16
 6.387116e+000 7.455746e+000 8.883034e+000 9.529490e+000 9.194361e+000 8.440580e+000 8.696717e+000 9.558386e+000 1.047290e+001 1.062273e+001 1.074177e+001 1.087837e+001 1.112769e+001 1.030193e+001 8.622936e+000 8.323395e+000
<VARIANCE> 16
 1.887171e-001 3.162430e-001 6.354514e-001 7.468090e-001 1.277778e+000 7.155530e-001 5.162048e-001 5.184937e-001 7.963525e-001 9.631234e-001 1.379793e+000 1.346427e+000 1.164709e+000 1.447495e+000 3.206548e-001 9.371430e-002
<GCONST> 2.180577e+001
<TRANSP> 10
 0.000000e+000 1.000000e+000 0.000000e+000 0.000000e+000 0.000000e+000 0.000000e+000 0.000000e+000 0.000000e+000 0.000000e+000 0.000000e+000
 0.000000e+000 5.638287e-002 9.436171e-001 0.000000e+000 0.000000e+000 0.000000e+000 0.000000e+000 0.000000e+000 0.000000e+000 0.000000e+000
 0.000000e+000 0.000000e+000 4.151810e-002 9.584819e-001 0.000000e+000 0.000000e+000 0.000000e+000 0.000000e+000 0.000000e+000 0.000000e+000
 0.000000e+000 0.000000e+000 0.000000e+000 3.862177e-002 9.613783e-001 0.000000e+000 0.000000e+000 0.000000e+000 0.000000e+000 0.000000e+000
 0.000000e+000 0.000000e+000 0.000000e+000 0.000000e+000 4.436225e-002 9.556377e-001 0.000000e+000 0.000000e+000 0.000000e+000 0.000000e+000
 0.000000e+000 0.000000e+000 0.000000e+000 0.000000e+000 0.000000e+000 7.951280e-002 9.204872e-001 0.000000e+000 0.000000e+000 0.000000e+000
 0.000000e+000 0.000000e+000 0.000000e+000 0.000000e+000 0.000000e+000 0.000000e+000 2.552260e-001 7.447740e-001 0.000000e+000 0.000000e+000
 0.000000e+000 0.000000e+000 0.000000e+000 0.000000e+000 0.000000e+000 0.000000e+000 0.000000e+000 8.189870e-001 1.810130e-001 0.000000e+000
 0.000000e+000 0.000000e+000 0.000000e+000 0.000000e+000 0.000000e+000 0.000000e+000 0.000000e+000 0.000000e+000 9.719678e-001 2.803222e-002
 0.000000e+000 0.000000e+000 0.000000e+000 0.000000e+000 0.000000e+000 0.000000e+000 0.000000e+000 0.000000e+000 0.000000e+000 0.000000e+000
<ENDHMM>
~h "jedna"
<BEGINHMM>
<NUMSTATES> 10
<STATE> 2
<MEAN> 16
 6.153491e+000 7.324239e+000 7.503202e+000 7.255767e+000 6.762001e+000 6.692761e+000 6.729081e+000 6.980300e+000 7.699162e+000 8.251245e+000 8.281842e+000 8.547777e+000 8.943881e+000 8.524559e+000 8.038536e+000 8.079173e+000
<VARIANCE> 16
 1.491391e-001 3.173338e-001 3.625182e-001 2.563568e-001 1.835502e-001 1.416413e-001 5.330437e-002 1.247503e-001 4.263346e-001 3.876199e-001 3.787882e-001 6.959631e-001 6.749349e-001 3.257879e-001 1.177482e-001 7.333124e-002
<GCONST> 5.916468e+000
<STATE> 3
<MEAN> 16
 6.390234e+000 7.572152e+000 8.145184e+000 7.756440e+000 7.033926e+000 6.797155e+000 6.887969e+000 7.274150e+000 8.090375e+000 8.854455e+000 8.866912e+000 9.054882e+000 9.514681e+000 8.907197e+000 8.233676e+000 8.204429e+000
<VARIANCE> 16
 1.908809e-001 2.140096e-001 3.756828e-001 2.943674e-001 2.277970e-001 2.468197e-001 1.440649e-001 3.685959e-001 7.120891e-001 5.327248e-001 6.242270e-001 1.264186e+000 1.113297e+000 4.909429e-001 1.535230e-001 1.072303e-001
<GCONST> 1.227542e+001
<STATE> 4
<MEAN> 16
 6.485980e+000 7.548710e+000 8.289563e+000 7.980668e+000 7.239006e+000 6.895812e+000 7.089893e+000 7.681946e+000 8.457642e+000 9.006798e+000 8.922359e+000 9.040315e+000 9.547687e+000 8.873087e+000 8.387545e+000 8.303947e+000
<VARIANCE> 16
 1.641170e-001 2.524791e-001 7.092634e-001 5.526216e-001 3.019178e-001 1.717964e-001 2.277294e-001 6.370963e-001 9.279991e-001 9.755530e-001 1.172894e+000 1.857994e+000 1.522829e+000 7.542528e-001 2.707431e-001 1.375321e-001
<GCONST> 1.792389e+001
<STATE> 5
<MEAN> 16
 6.448730e+000 7.601178e+000 8.473621e+000 8.201004e+000 7.397133e+000 7.089646e+000 7.341434e+000 7.940482e+000 8.679990e+000 9.330020e+000 9.321219e+000 9.449426e+000 9.817080e+000 9.156239e+000 8.418908e+000 8.313133e+000
<VARIANCE> 16
 1.429252e-001 3.136823e-001 9.522932e-001 7.428862e-001 4.558003e-001 2.639905e-001 3.572180e-001 7.742330e-001 9.267371e-001 1.266553e+000 1.660176e+000 2.280274e+000 1.961944e+000 1.121778e+000 3.574087e-001 1.123264e-001
<GCONST> 2.161736e+001
<STATE> 6
<MEAN> 16
 6.430414e+000 7.577907e+000 8.577737e+000 8.376341e+000 7.586679e+000 7.254365e+000 7.557956e+000 8.074885e+000 8.801625e+000 9.560857e+000 9.693507e+000 9.866086e+000 1.009914e+001 9.372349e+000 8.451200e+000 8.285827e+000
<VARIANCE> 16
 1.433433e-001 4.015354e-001 9.893339e-001 8.804471e-001 6.524572e-001 3.897318e-001 5.313584e-001 7.583853e-001 1.012094e+000 1.487613e+000 1.925061e+000 2.349777e+000 2.146849e+000 1.324522e+000 4.218149e-001 8.864848e-002
<GCONST> 2.381208e+001
<STATE> 7
<MEAN> 16
 6.438038e+000 7.617887e+000 8.638087e+000 8.716595e+000 8.047286e+000 7.605208e+000 7.843042e+000 8.437634e+000 9.078986e+000 9.717652e+000 9.816287e+000 1.009148e+001 1.024541e+001 9.418412e+000 8.415756e+000 8.239407e+000
<VARIANCE> 16
 1.410377e-001 3.326887e-001 8.896283e-001 1.093113e+000 1.034199e+000 6.585193e-001 8.593982e-001 8.995720e-001 1.229795e+000 1.601432e+000 1.939300e+000 2.089854e+000 1.899519e+000 1.507906e+000 4.590336e-001 7.600242e-002
<GCONST> 2.545121e+001
<STATE> 8
<MEAN> 16
 6.566914e+000 7.707277e+000 8.647848e+000 9.160291e+000 9.240787e+000 9.033973e+000 9.240370e+000 9.742094e+000 9.794341e+000 9.897929e+000 9.999660e+000 1.019904e+001 1.064552e+001 9.879944e+000 8.392265e+000 8.241301e+000
<VARIANCE> 16
 1.448061e-001 2.896332e-001 5.563012e-001 7.217933e-001 1.408532e+000 1.847816e+000 2.220079e+000 2.056223e+000 1.007497e+000 9.597253e-001 1.589988e+000 1.466614e+000 1.485989e+000 1.362303e+000 3.213325e-001 1.078793e-001
<GCONST> 2.595332e+001
<STATE> 9
<MEAN> 16
 6.198650e+000 7.037200e+000 7.459565e+000 8.227626e+000 8.987069e+000 9.169242e+000 9.427861e+000 9.281211e+000 8.670999e+000 8.667433e+000 9.025593e+000 9.322538e+000 9.630848e+000 8.973467e+000 8.006164e+000 8.088074e+000
<VARIANCE> 16
 1.459076e-001 3.627307e-001 5.093850e-001 7.465697e-001 8.623410e-001 6.433879e-001 8.344038e-001 1.056871e+000 5.801806e-001 5.648574e-001 1.011770e+000 1.116945e+000 8.011898e-001 4.490491e-001 4.894176e-002 3.905692e-002
<GCONST> 1.651006e+001
<TRANSP> 10
 0.000000e+000 1.000000e+000 0.000000e+000 0.000000e+000 0.000000e+000 0.000000e+000 0.000000e+000 0.000000e+000 0.000000e+000 0.000000e+000
 0.000000e+000 1.341031e-001 8.658969e-001 0.000000e+000 0.000000e+000 0.000000e+000 0.000000e+000 0.000000e+000 0.000000e+000 0.000000e+000
 0.000000e+000 0.000000e+000 2.136154e-001 7.863846e-001 0.000000e+000 0.000000e+000 0.000000e+000 0.000000e+000 0.000000e+000 0.000000e+000
 0.000000e+000 0.000000e+000 0.000000e+000 4.127933e-001 5.872067e-001 0.000000e+000 0.000000e+000 0.000000e+000 0.000000e+000 0.000000e+000
 0.000000e+000 0.000000e+000 0.000000e+000 0.000000e+000 4.508575e-001 5.491425e-001 0.000000e+000 0.000000e+000 0.000000e+000 0.000000e+000
 0.000000e+000 0.000000e+000 0.000000e+000 0.000000e+000 0.000000e+000 5.679474e-001 4.320526e-001 0.000000e+000 0.000000e+000 0.000000e+000
 0.000000e+000 0.000000e+000 0.000000e+000 0.000000e+000 0.000000e+000 0.000000e+000 7.469380e-001 2.530621e-001 0.000000e+000 0.000000e+000
 0.000000e+000 0.000000e+000 0.000000e+000 0.000000e+000 0.000000e+000 0.000000e+000 0.000000e+000 9.698567e-001 3.014322e-002 0.000000e+000
 0.000000e+000 0.000000e+000 0.000000e+000 0.000000e+000 0.000000e+000 0.000000e+000 0.000000e+000 0.000000e+000 8.897807e-001 1.102193e-001
 0.000000e+000 0.000000e+000 0.000000e+000 0.000000e+000 0.000000e+000 0.000000e+000 0.000000e+000 0.000000e+000 0.000000e+000 0.000000e+000
<ENDHMM>
