~o
<STREAMINFO> 1 16
<VECSIZE> 16<NULLD><FBANK><DIAGC>
~h "ctyri"
<BEGINHMM>
<NUMSTATES> 10
<STATE> 2
<MEAN> 16
 5.815475e+000 6.162257e+000 6.564142e+000 6.680986e+000 6.594574e+000 6.698363e+000 6.887457e+000 7.218691e+000 7.788299e+000 7.862619e+000 7.980511e+000 8.246091e+000 8.544331e+000 8.491014e+000 8.308547e+000 8.276563e+000
<VARIANCE> 16
 2.452641e-001 8.236202e-001 1.860202e+000 1.565138e+000 6.087704e-001 4.120764e-001 4.187753e-001 7.867873e-001 1.534293e+000 2.007490e+000 1.854911e+000 2.099230e+000 2.488134e+000 1.893740e+000 8.186802e-001 3.205974e-001
<GCONST> 2.907896e+001
<STATE> 3
<MEAN> 16
 5.845904e+000 6.245062e+000 6.697845e+000 6.804199e+000 6.666049e+000 6.751596e+000 6.943409e+000 7.302433e+000 7.913381e+000 8.018013e+000 8.128963e+000 8.405089e+000 8.721311e+000 8.636648e+000 8.388433e+000 8.317108e+000
<VARIANCE> 16
 2.621301e-001 9.171593e-001 2.103553e+000 1.788422e+000 6.967501e-001 4.700456e-001 4.730632e-001 8.819708e-001 1.715114e+000 2.235713e+000 2.064137e+000 2.312225e+000 2.738446e+000 2.084493e+000 8.986495e-001 3.494669e-001
<GCONST> 3.080590e+001
<STATE> 4
<MEAN> 16
 5.877923e+000 6.331511e+000 6.837893e+000 6.934076e+000 6.741756e+000 6.807601e+000 7.001659e+000 7.389229e+000 8.042484e+000 8.179057e+000 8.282202e+000 8.567983e+000 8.902921e+000 8.784854e+000 8.467479e+000 8.356938e+000
<VARIANCE> 16
 2.768309e-001 9.994413e-001 2.320744e+000 1.992278e+000 7.789986e-001 5.248943e-001 5.229923e-001 9.651210e-001 1.869789e+000 2.423160e+000 2.236463e+000 2.480381e+000 2.933362e+000 2.236690e+000 9.654673e-001 3.740969e-001
<GCONST> 3.216127e+001
<STATE> 5
<MEAN> 16
 5.910032e+000 6.418479e+000 6.979295e+000 7.066374e+000 6.818940e+000 6.864668e+000 7.060216e+000 7.475484e+000 8.170545e+000 8.339079e+000 8.433507e+000 8.727464e+000 9.081246e+000 8.928660e+000 8.541460e+000 8.393945e+000
<VARIANCE> 16
 2.885887e-001 1.066346e+000 2.501355e+000 2.167085e+000 8.523423e-001 5.742597e-001 5.666647e-001 1.033196e+000 1.992143e+000 2.562100e+000 2.365057e+000 2.596846e+000 3.064931e+000 2.344971e+000 1.016588e+000 3.933420e-001
<GCONST> 3.316877e+001
<STATE> 6
<MEAN> 16
 5.940260e+000 6.501750e+000 7.115559e+000 7.195417e+000 6.894257e+000 6.920262e+000 7.116323e+000 7.556726e+000 8.291206e+000 8.489852e+000 8.574757e+000 8.874303e+000 9.246207e+000 9.059525e+000 8.605362e+000 8.425488e+000
<VARIANCE> 16
 2.970031e-001 1.115362e+000 2.639040e+000 2.306612e+000 9.145473e-001 6.165293e-001 6.028924e-001 1.084814e+000 2.079729e+000 2.652359e+000 2.450232e+000 2.663625e+000 3.136143e+000 2.411007e+000 1.051084e+000 4.064091e-001
<GCONST> 3.386583e+001
<STATE> 7
<MEAN> 16
 5.966309e+000 6.576217e+000 7.238862e+000 7.313993e+000 6.963634e+000 6.971091e+000 7.166501e+000 7.627645e+000 8.396833e+000 8.621872e+000 8.696829e+000 8.998076e+000 9.386224e+000 9.167959e+000 8.653790e+000 8.448593e+000
<VARIANCE> 16
 3.021208e-001 1.146073e+000 2.732459e+000 2.409205e+000 9.645022e-001 6.508433e-001 6.311973e-001 1.120381e+000 2.134557e+000 2.702142e+000 2.500063e+000 2.692442e+000 3.162254e+000 2.444086e+000 1.070043e+000 4.129885e-001
<GCONST> 3.430524e+001
<STATE> 8
<MEAN> 16
 5.985868e+000 6.636311e+000 7.340609e+000 7.413879e+000 7.022397e+000 7.013395e+000 7.206796e+000 7.682491e+000 8.479138e+000 8.725224e+000 8.790541e+000 9.088604e+000 9.489793e+000 9.244824e+000 8.681871e+000 8.460519e+000
<VARIANCE> 16
 3.042947e-001 1.160201e+000 2.785279e+000 2.477648e+000 1.002273e+000 6.768880e-001 6.516463e-001 1.141921e+000 2.162688e+000 2.726208e+000 2.528305e+000 2.701575e+000 3.166944e+000 2.458484e+000 1.076044e+000 4.132268e-001
<GCONST> 3.455050e+001
<STATE> 9
<MEAN> 16
 5.961483e+000 6.633530e+000 7.377192e+000 7.470847e+000 7.057532e+000 7.022931e+000 7.190697e+000 7.638336e+000 8.431697e+000 8.699780e+000 8.751838e+000 8.990802e+000 9.393466e+000 9.124427e+000 8.542406e+000 8.372396e+000
<VARIANCE> 16
 2.850693e-001 1.091356e+000 2.690996e+000 2.477794e+000 1.035164e+000 6.790559e-001 6.400406e-001 1.104104e+000 2.084349e+000 2.761807e+000 2.586370e+000 2.730709e+000 3.214876e+000 2.447105e+000 9.777701e-001 3.497236e-001
<GCONST> 3.413079e+001
<TRANSP> 10
 0.000000e+000 1.000000e+000 0.000000e+000 0.000000e+000 0.000000e+000 0.000000e+000 0.000000e+000 0.000000e+000 0.000000e+000 0.000000e+000
 0.000000e+000 8.426741e-001 1.573259e-001 0.000000e+000 0.000000e+000 0.000000e+000 0.000000e+000 0.000000e+000 0.000000e+000 0.000000e+000
 0.000000e+000 0.000000e+000 8.426744e-001 1.573255e-001 0.000000e+000 0.000000e+000 0.000000e+000 0.000000e+000 0.000000e+000 0.000000e+000
 0.000000e+000 0.000000e+000 0.000000e+000 8.426741e-001 1.573259e-001 0.000000e+000 0.000000e+000 0.000000e+000 0.000000e+000 0.000000e+000
 0.000000e+000 0.000000e+000 0.000000e+000 0.000000e+000 8.426743e-001 1.573258e-001 0.000000e+000 0.000000e+000 0.000000e+000 0.000000e+000
 0.000000e+000 0.000000e+000 0.000000e+000 0.000000e+000 0.000000e+000 8.426743e-001 1.573257e-001 0.000000e+000 0.000000e+000 0.000000e+000
 0.000000e+000 0.000000e+000 0.000000e+000 0.000000e+000 0.000000e+000 0.000000e+000 8.426740e-001 1.573260e-001 0.000000e+000 0.000000e+000
 0.000000e+000 0.000000e+000 0.000000e+000 0.000000e+000 0.000000e+000 0.000000e+000 0.000000e+000 8.426745e-001 1.573255e-001 0.000000e+000
 0.000000e+000 0.000000e+000 0.000000e+000 0.000000e+000 0.000000e+000 0.000000e+000 0.000000e+000 0.000000e+000 9.765783e-001 2.342171e-002
 0.000000e+000 0.000000e+000 0.000000e+000 0.000000e+000 0.000000e+000 0.000000e+000 0.000000e+000 0.000000e+000 0.000000e+000 0.000000e+000
<ENDHMM>
~h "sedm"
<BEGINHMM>
<NUMSTATES> 10
<STATE> 2
<MEAN> 16
 5.891304e+000 6.253170e+000 6.586904e+000 6.802985e+000 6.825289e+000 6.899524e+000 7.089005e+000 7.387888e+000 7.725852e+000 7.652823e+000 7.804328e+000 8.025990e+000 8.387715e+000 8.379072e+000 8.236192e+000 8.308693e+000
<VARIANCE> 16
 2.844376e-001 9.784137e-001 1.682554e+000 1.826117e+000 1.317522e+000 8.910711e-001 9.356371e-001 1.383291e+000 1.332478e+000 1.273216e+000 1.397650e+000 1.399253e+000 1.841444e+000 1.449014e+000 7.041488e-001 4.583800e-001
<GCONST> 3.071776e+001
<STATE> 3
<MEAN> 16
 5.931358e+000 6.350573e+000 6.711340e+000 6.929125e+000 6.924737e+000 6.983049e+000 7.175947e+000 7.492305e+000 7.824090e+000 7.758742e+000 7.906726e+000 8.136040e+000 8.519117e+000 8.484777e+000 8.289095e+000 8.342543e+000
<VARIANCE> 16
 3.068608e-001 1.091944e+000 1.868433e+000 2.024091e+000 1.459401e+000 9.853526e-001 1.038656e+000 1.527726e+000 1.472496e+000 1.406048e+000 1.550597e+000 1.553835e+000 1.995764e+000 1.551744e+000 7.553912e-001 4.938934e-001
<GCONST> 3.221939e+001
<STATE> 4
<MEAN> 16
 5.971571e+000 6.453150e+000 6.839996e+000 7.058755e+000 7.026298e+000 7.069001e+000 7.265238e+000 7.597839e+000 7.922745e+000 7.865856e+000 8.009417e+000 8.246960e+000 8.648619e+000 8.585979e+000 8.336453e+000 8.371948e+000
<VARIANCE> 16
 3.271455e-001 1.190009e+000 2.026884e+000 2.192897e+000 1.581799e+000 1.065288e+000 1.127792e+000 1.651218e+000 1.592858e+000 1.517823e+000 1.684326e+000 1.688580e+000 2.115209e+000 1.624734e+000 7.933418e-001 5.220385e-001
<GCONST> 3.337899e+001
<STATE> 5
<MEAN> 16
 6.010600e+000 6.556645e+000 6.967554e+000 7.186334e+000 7.125524e+000 7.153067e+000 7.352293e+000 7.698921e+000 8.016444e+000 7.968353e+000 8.107132e+000 8.352386e+000 8.768340e+000 8.675635e+000 8.373667e+000 8.393597e+000
<VARIANCE> 16
 3.443909e-001 1.267604e+000 2.149641e+000 2.323644e+000 1.678661e+000 1.127542e+000 1.199368e+000 1.747966e+000 1.687859e+000 1.604410e+000 1.792917e+000 1.799267e+000 2.196595e+000 1.665368e+000 8.149356e-001 5.399401e-001
<GCONST> 3.420735e+001
<STATE> 6
<MEAN> 16
 6.046712e+000 6.655514e+000 7.087030e+000 7.304658e+000 7.216710e+000 7.230108e+000 7.431811e+000 7.788930e+000 8.098765e+000 8.059643e+000 8.193820e+000 8.445577e+000 8.870133e+000 8.746856e+000 8.396748e+000 8.404594e+000
<VARIANCE> 16
 3.582256e-001 1.322625e+000 2.232289e+000 2.411282e+000 1.745700e+000 1.170413e+000 1.251318e+000 1.814728e+000 1.754252e+000 1.664789e+000 1.872564e+000 1.884691e+000 2.242254e+000 1.675586e+000 8.190329e-001 5.454914e-001
<GCONST> 3.472765e+001
<STATE> 7
<MEAN> 16
 6.077688e+000 6.743329e+000 7.190118e+000 7.405300e+000 7.293194e+000 7.294543e+000 7.498046e+000 7.860911e+000 8.163192e+000 8.133104e+000 8.263230e+000 8.520185e+000 8.946647e+000 8.793972e+000 8.403200e+000 8.403193e+000
<VARIANCE> 16
 3.687908e-001 1.356473e+000 2.276100e+000 2.456622e+000 1.781742e+000 1.194135e+000 1.283855e+000 1.851810e+000 1.791628e+000 1.701125e+000 1.922354e+000 1.946524e+000 2.259431e+000 1.661160e+000 8.064746e-001 5.378529e-001
<GCONST> 3.497707e+001
<STATE> 8
<MEAN> 16
 6.101074e+000 6.813463e+000 7.268239e+000 7.479762e+000 7.348264e+000 7.341014e+000 7.545574e+000 7.908720e+000 8.204207e+000 8.182993e+000 8.309779e+000 8.571054e+000 8.992398e+000 8.813315e+000 8.392385e+000 8.389182e+000
<VARIANCE> 16
 3.766066e-001 1.373776e+000 2.287859e+000 2.466224e+000 1.788889e+000 1.200606e+000 1.299265e+000 1.862581e+000 1.801836e+000 1.717639e+000 1.943980e+000 1.987931e+000 2.257389e+000 1.629123e+000 7.791678e-001 5.174091e-001
<GCONST> 3.500092e+001
<STATE> 9
<MEAN> 16
 6.082581e+000 6.823607e+000 7.216292e+000 7.406239e+000 7.261906e+000 7.277585e+000 7.489894e+000 7.808389e+000 8.091172e+000 8.094070e+000 8.212443e+000 8.501634e+000 8.850860e+000 8.616514e+000 8.207618e+000 8.242665e+000
<VARIANCE> 16
 3.830802e-001 1.367578e+000 2.129221e+000 2.259828e+000 1.557661e+000 1.068490e+000 1.214778e+000 1.683802e+000 1.580713e+000 1.605119e+000 1.764397e+000 1.958075e+000 2.125260e+000 1.371109e+000 5.445068e-001 3.389080e-001
<GCONST> 3.310611e+001
<TRANSP> 10
 0.000000e+000 1.000000e+000 0.000000e+000 0.000000e+000 0.000000e+000 0.000000e+000 0.000000e+000 0.000000e+000 0.000000e+000 0.000000e+000
 0.000000e+000 8.426741e-001 1.573259e-001 0.000000e+000 0.000000e+000 0.000000e+000 0.000000e+000 0.000000e+000 0.000000e+000 0.000000e+000
 0.000000e+000 0.000000e+000 8.426744e-001 1.573255e-001 0.000000e+000 0.000000e+000 0.000000e+000 0.000000e+000 0.000000e+000 0.000000e+000
 0.000000e+000 0.000000e+000 0.000000e+000 8.426741e-001 1.573259e-001 0.000000e+000 0.000000e+000 0.000000e+000 0.000000e+000 0.000000e+000
 0.000000e+000 0.000000e+000 0.000000e+000 0.000000e+000 8.426743e-001 1.573258e-001 0.000000e+000 0.000000e+000 0.000000e+000 0.000000e+000
 0.000000e+000 0.000000e+000 0.000000e+000 0.000000e+000 0.000000e+000 8.426743e-001 1.573257e-001 0.000000e+000 0.000000e+000 0.000000e+000
 0.000000e+000 0.000000e+000 0.000000e+000 0.000000e+000 0.000000e+000 0.000000e+000 8.426740e-001 1.573260e-001 0.000000e+000 0.000000e+000
 0.000000e+000 0.000000e+000 0.000000e+000 0.000000e+000 0.000000e+000 0.000000e+000 0.000000e+000 8.426745e-001 1.573255e-001 0.000000e+000
 0.000000e+000 0.000000e+000 0.000000e+000 0.000000e+000 0.000000e+000 0.000000e+000 0.000000e+000 0.000000e+000 9.765783e-001 2.342171e-002
 0.000000e+000 0.000000e+000 0.000000e+000 0.000000e+000 0.000000e+000 0.000000e+000 0.000000e+000 0.000000e+000 0.000000e+000 0.000000e+000
<ENDHMM>
~h "sest"
<BEGINHMM>
<NUMSTATES> 10
<STATE> 2
<MEAN> 16
 5.770303e+000 6.009286e+000 6.374608e+000 6.684032e+000 6.776394e+000 6.825384e+000 6.999590e+000 7.384768e+000 7.796217e+000 7.779014e+000 7.960800e+000 8.210205e+000 8.497722e+000 8.510696e+000 8.385237e+000 8.353302e+000
<VARIANCE> 16
 1.991620e-001 4.879680e-001 1.192689e+000 1.781018e+000 1.560829e+000 9.734246e-001 9.209989e-001 1.582892e+000 1.727891e+000 1.805121e+000 1.930823e+000 2.130447e+000 2.378112e+000 1.997900e+000 1.023425e+000 4.814848e-001
<GCONST> 3.202601e+001
<STATE> 3
<MEAN> 16
 5.789147e+000 6.052190e+000 6.451743e+000 6.784856e+000 6.867929e+000 6.893940e+000 7.069275e+000 7.489028e+000 7.907522e+000 7.896540e+000 8.086246e+000 8.347045e+000 8.650824e+000 8.651774e+000 8.480169e+000 8.412684e+000
<VARIANCE> 16
 2.079374e-001 5.374832e-001 1.330178e+000 1.999246e+000 1.769035e+000 1.101163e+000 1.038150e+000 1.765807e+000 1.921089e+000 1.984490e+000 2.123402e+000 2.320727e+000 2.585127e+000 2.174274e+000 1.123698e+000 5.399187e-001
<GCONST> 3.362550e+001
<STATE> 4
<MEAN> 16
 5.807123e+000 6.095169e+000 6.529695e+000 6.887536e+000 6.962390e+000 6.965062e+000 7.140304e+000 7.594630e+000 8.019571e+000 8.014030e+000 8.211985e+000 8.483665e+000 8.804425e+000 8.793342e+000 8.575769e+000 8.473498e+000
<VARIANCE> 16
 2.163925e-001 5.835307e-001 1.455328e+000 2.198009e+000 1.961435e+000 1.219473e+000 1.146227e+000 1.927660e+000 2.089962e+000 2.134272e+000 2.282400e+000 2.468228e+000 2.741946e+000 2.308824e+000 1.204836e+000 5.926530e-001
<GCONST> 3.489697e+001
<STATE> 5
<MEAN> 16
 5.823731e+000 6.135985e+000 6.604651e+000 6.987472e+000 7.055439e+000 7.035204e+000 7.209424e+000 7.696609e+000 8.126593e+000 8.124928e+000 8.331079e+000 8.612388e+000 8.950189e+000 8.927747e+000 8.666689e+000 8.532821e+000
<VARIANCE> 16
 2.244748e-001 6.243929e-001 1.562947e+000 2.368540e+000 2.130104e+000 1.323223e+000 1.240837e+000 2.061979e+000 2.228210e+000 2.249198e+000 2.402233e+000 2.567636e+000 2.843370e+000 2.396422e+000 1.262969e+000 6.370215e-001
<GCONST> 3.585825e+001
<STATE> 6
<MEAN> 16
 5.838002e+000 6.171977e+000 6.671531e+000 7.078713e+000 7.141583e+000 7.099832e+000 7.272528e+000 7.788454e+000 8.221250e+000 8.220996e+000 8.435030e+000 8.724062e+000 9.078272e+000 9.046182e+000 8.746897e+000 8.587169e+000
<VARIANCE> 16
 2.317995e-001 6.581225e-001 1.648447e+000 2.503236e+000 2.268434e+000 1.408228e+000 1.318205e+000 2.164644e+000 2.332626e+000 2.328270e+000 2.482795e+000 2.620920e+000 2.892835e+000 2.439328e+000 1.297862e+000 6.716107e-001
<GCONST> 3.653479e+001
<STATE> 7
<MEAN> 16
 5.848561e+000 6.199949e+000 6.724453e+000 7.154107e+000 7.214385e+000 7.153810e+000 7.324766e+000 7.862636e+000 8.295414e+000 8.293397e+000 8.514976e+000 8.809305e+000 9.178592e+000 9.139802e+000 8.810578e+000 8.632931e+000
<VARIANCE> 16
 2.378038e-001 6.828917e-001 1.708159e+000 2.596904e+000 2.371747e+000 1.471521e+000 1.375637e+000 2.234397e+000 2.403390e+000 2.374729e+000 2.529184e+000 2.637052e+000 2.902274e+000 2.447373e+000 1.313030e+000 6.965474e-001
<GCONST> 3.696141e+001
<STATE> 8
<MEAN> 16
 5.853903e+000 6.216558e+000 6.757690e+000 7.206257e+000 7.267202e+000 7.192044e+000 7.361102e+000 7.911742e+000 8.341513e+000 8.334284e+000 8.563181e+000 8.859999e+000 9.242353e+000 9.201015e+000 8.852901e+000 8.666789e+000
<VARIANCE> 16
 2.419017e-001 6.972218e-001 1.739370e+000 2.647144e+000 2.437368e+000 1.511300e+000 1.411577e+000 2.272309e+000 2.442932e+000 2.393845e+000 2.548762e+000 2.628249e+000 2.887860e+000 2.434606e+000 1.314284e+000 7.131930e-001
<GCONST> 3.717617e+001
<STATE> 9
<MEAN> 16
 5.802676e+000 6.122770e+000 6.616585e+000 7.069642e+000 7.170002e+000 7.109510e+000 7.268291e+000 7.760088e+000 8.159267e+000 8.104808e+000 8.356647e+000 8.630774e+000 9.038036e+000 9.045092e+000 8.761556e+000 8.639221e+000
<VARIANCE> 16
 2.254747e-001 6.109167e-001 1.499003e+000 2.330479e+000 2.213952e+000 1.363520e+000 1.272866e+000 2.038946e+000 2.214761e+000 2.137216e+000 2.327506e+000 2.366031e+000 2.679797e+000 2.291558e+000 1.243930e+000 7.175041e-001
<GCONST> 3.569505e+001
<TRANSP> 10
 0.000000e+000 1.000000e+000 0.000000e+000 0.000000e+000 0.000000e+000 0.000000e+000 0.000000e+000 0.000000e+000 0.000000e+000 0.000000e+000
 0.000000e+000 8.426741e-001 1.573259e-001 0.000000e+000 0.000000e+000 0.000000e+000 0.000000e+000 0.000000e+000 0.000000e+000 0.000000e+000
 0.000000e+000 0.000000e+000 8.426744e-001 1.573255e-001 0.000000e+000 0.000000e+000 0.000000e+000 0.000000e+000 0.000000e+000 0.000000e+000
 0.000000e+000 0.000000e+000 0.000000e+000 8.426741e-001 1.573259e-001 0.000000e+000 0.000000e+000 0.000000e+000 0.000000e+000 0.000000e+000
 0.000000e+000 0.000000e+000 0.000000e+000 0.000000e+000 8.426743e-001 1.573258e-001 0.000000e+000 0.000000e+000 0.000000e+000 0.000000e+000
 0.000000e+000 0.000000e+000 0.000000e+000 0.000000e+000 0.000000e+000 8.426743e-001 1.573257e-001 0.000000e+000 0.000000e+000 0.000000e+000
 0.000000e+000 0.000000e+000 0.000000e+000 0.000000e+000 0.000000e+000 0.000000e+000 8.426740e-001 1.573260e-001 0.000000e+000 0.000000e+000
 0.000000e+000 0.000000e+000 0.000000e+000 0.000000e+000 0.000000e+000 0.000000e+000 0.000000e+000 8.426745e-001 1.573255e-001 0.000000e+000
 0.000000e+000 0.000000e+000 0.000000e+000 0.000000e+000 0.000000e+000 0.000000e+000 0.000000e+000 0.000000e+000 9.765783e-001 2.342171e-002
 0.000000e+000 0.000000e+000 0.000000e+000 0.000000e+000 0.000000e+000 0.000000e+000 0.000000e+000 0.000000e+000 0.000000e+000 0.000000e+000
<ENDHMM>
~h "dva"
<BEGINHMM>
<NUMSTATES> 10
<STATE> 2
<MEAN> 16
 5.775493e+000 6.131923e+000 6.453090e+000 6.779621e+000 6.952046e+000 7.116601e+000 7.320746e+000 7.335690e+000 7.486047e+000 7.487022e+000 7.595560e+000 7.836734e+000 8.105429e+000 8.057209e+000 7.918959e+000 8.036136e+000
<VARIANCE> 16
 3.405614e-001 6.163058e-001 1.100206e+000 1.810554e+000 2.358454e+000 2.176558e+000 2.342606e+000 1.777827e+000 9.599192e-001 1.251212e+000 1.238464e+000 1.435727e+000 1.682567e+000 9.426311e-001 1.707535e-001 1.101988e-001
<GCONST> 2.884338e+001
<STATE> 3
<MEAN> 16
 5.802640e+000 6.187222e+000 6.530508e+000 6.884521e+000 7.075632e+000 7.241030e+000 7.446912e+000 7.440403e+000 7.557458e+000 7.571939e+000 7.679390e+000 7.926969e+000 8.204081e+000 8.125332e+000 7.939411e+000 8.045905e+000
<VARIANCE> 16
 3.646497e-001 6.706490e-001 1.211345e+000 2.002237e+000 2.640275e+000 2.453257e+000 2.637524e+000 2.020696e+000 1.075708e+000 1.410148e+000 1.424416e+000 1.643800e+000 1.924135e+000 1.071401e+000 1.940757e-001 1.187652e-001
<GCONST> 3.064606e+001
<STATE> 4
<MEAN> 16
 5.831397e+000 6.241665e+000 6.607086e+000 6.989432e+000 7.202100e+000 7.368362e+000 7.576329e+000 7.548906e+000 7.629908e+000 7.659228e+000 7.768021e+000 8.022210e+000 8.308484e+000 8.196475e+000 7.961370e+000 8.056896e+000
<VARIANCE> 16
 3.864026e-001 7.190883e-001 1.311544e+000 2.172926e+000 2.892387e+000 2.706386e+000 2.908902e+000 2.251180e+000 1.183480e+000 1.557028e+000 1.603179e+000 1.841985e+000 2.156203e+000 1.195639e+000 2.176769e-001 1.268585e-001
<GCONST> 3.216127e+001
<STATE> 5
<MEAN> 16
 5.860166e+000 6.292542e+000 6.678417e+000 7.088798e+000 7.325026e+000 7.492544e+000 7.702462e+000 7.656088e+000 7.699639e+000 7.744315e+000 7.857868e+000 8.118323e+000 8.413829e+000 8.266546e+000 7.983742e+000 8.068355e+000
<VARIANCE> 16
 4.045486e-001 7.593835e-001 1.395393e+000 2.313016e+000 3.102787e+000 2.926459e+000 3.145846e+000 2.460501e+000 1.279165e+000 1.686464e+000 1.768388e+000 2.023289e+000 2.369832e+000 1.310482e+000 2.407192e-001 1.343699e-001
<GCONST> 3.339563e+001
<STATE> 6
<MEAN> 16
 5.886549e+000 6.336268e+000 6.739472e+000 7.176147e+000 7.437074e+000 7.606683e+000 7.817821e+000 7.756103e+000 7.762716e+000 7.821847e+000 7.944181e+000 8.210000e+000 8.514105e+000 8.331026e+000 8.005019e+000 8.079504e+000
<VARIANCE> 16
 4.184704e-001 7.905339e-001 1.459825e+000 2.417232e+000 3.264361e+000 3.107858e+000 3.342048e+000 2.642386e+000 1.359567e+000 1.794783e+000 1.914873e+000 2.182235e+000 2.558233e+000 1.412220e+000 2.623718e-001 1.411209e-001
<GCONST> 3.436644e+001
<STATE> 7
<MEAN> 16
 5.907965e+000 6.369019e+000 6.785018e+000 7.244688e+000 7.530612e+000 7.703631e+000 7.914637e+000 7.842461e+000 7.814943e+000 7.886131e+000 8.021167e+000 8.290925e+000 8.602403e+000 8.385280e+000 8.023583e+000 8.089549e+000
<VARIANCE> 16
 4.280826e-001 8.125722e-001 1.504415e+000 2.485456e+000 3.375939e+000 3.248719e+000 3.495760e+000 2.792885e+000 1.422620e+000 1.880078e+000 2.038297e+000 2.314491e+000 2.716521e+000 1.498192e+000 2.819097e-001 1.468829e-001
<GCONST> 3.509690e+001
<STATE> 8
<MEAN> 16
 5.922155e+000 6.387410e+000 6.810433e+000 7.288262e+000 7.598417e+000 7.776481e+000 7.985494e+000 7.908362e+000 7.852114e+000 7.931658e+000 8.082400e+000 8.354207e+000 8.671356e+000 8.424820e+000 8.037934e+000 8.097666e+000
<VARIANCE> 16
 4.336713e-001 8.261212e-001 1.530457e+000 2.521147e+000 3.440932e+000 3.349518e+000 3.608029e+000 2.909414e+000 1.467160e+000 1.941556e+000 2.134954e+000 2.416333e+000 2.840898e+000 1.566221e+000 2.986887e-001 1.514018e-001
<GCONST> 3.560963e+001
<STATE> 9
<MEAN> 16
 5.888068e+000 6.286059e+000 6.666545e+000 7.139674e+000 7.510225e+000 7.720355e+000 7.902069e+000 7.856154e+000 7.787439e+000 7.846826e+000 8.053689e+000 8.306649e+000 8.624383e+000 8.367708e+000 8.034326e+000 8.097956e+000
<VARIANCE> 16
 4.225174e-001 7.947874e-001 1.448619e+000 2.358998e+000 3.255580e+000 3.304105e+000 3.589406e+000 2.920402e+000 1.408938e+000 1.884617e+000 2.145053e+000 2.382851e+000 2.858817e+000 1.583695e+000 3.306881e-001 1.533673e-001
<GCONST> 3.540561e+001
<TRANSP> 10
 0.000000e+000 1.000000e+000 0.000000e+000 0.000000e+000 0.000000e+000 0.000000e+000 0.000000e+000 0.000000e+000 0.000000e+000 0.000000e+000
 0.000000e+000 8.426741e-001 1.573259e-001 0.000000e+000 0.000000e+000 0.000000e+000 0.000000e+000 0.000000e+000 0.000000e+000 0.000000e+000
 0.000000e+000 0.000000e+000 8.426744e-001 1.573255e-001 0.000000e+000 0.000000e+000 0.000000e+000 0.000000e+000 0.000000e+000 0.000000e+000
 0.000000e+000 0.000000e+000 0.000000e+000 8.426741e-001 1.573259e-001 0.000000e+000 0.000000e+000 0.000000e+000 0.000000e+000 0.000000e+000
 0.000000e+000 0.000000e+000 0.000000e+000 0.000000e+000 8.426743e-001 1.573258e-001 0.000000e+000 0.000000e+000 0.000000e+000 0.000000e+000
 0.000000e+000 0.000000e+000 0.000000e+000 0.000000e+000 0.000000e+000 8.426743e-001 1.573257e-001 0.000000e+000 0.000000e+000 0.000000e+000
 0.000000e+000 0.000000e+000 0.000000e+000 0.000000e+000 0.000000e+000 0.000000e+000 8.426740e-001 1.573260e-001 0.000000e+000 0.000000e+000
 0.000000e+000 0.000000e+000 0.000000e+000 0.000000e+000 0.000000e+000 0.000000e+000 0.000000e+000 8.426745e-001 1.573255e-001 0.000000e+000
 0.000000e+000 0.000000e+000 0.000000e+000 0.000000e+000 0.000000e+000 0.000000e+000 0.000000e+000 0.000000e+000 9.765783e-001 2.342171e-002
 0.000000e+000 0.000000e+000 0.000000e+000 0.000000e+000 0.000000e+000 0.000000e+000 0.000000e+000 0.000000e+000 0.000000e+000 0.000000e+000
<ENDHMM>
~h "osm"
<BEGINHMM>
<NUMSTATES> 10
<STATE> 2
<MEAN> 16
 5.783903e+000 6.141523e+000 6.540105e+000 6.799397e+000 6.893665e+000 7.082524e+000 7.150749e+000 7.180577e+000 7.433380e+000 7.442199e+000 7.670575e+000 7.984762e+000 8.295178e+000 8.246329e+000 8.142646e+000 8.246387e+000
<VARIANCE> 16
 3.383384e-001 8.389456e-001 1.675229e+000 2.046696e+000 1.854152e+000 1.845438e+000 1.452346e+000 9.232167e-001 6.554141e-001 8.248254e-001 1.148604e+000 1.687692e+000 2.028035e+000 1.456950e+000 7.550507e-001 5.868090e-001
<GCONST> 3.121855e+001
<STATE> 3
<MEAN> 16
 5.822955e+000 6.227391e+000 6.661253e+000 6.933253e+000 7.011638e+000 7.205455e+000 7.258593e+000 7.267926e+000 7.506780e+000 7.532112e+000 7.771647e+000 8.111486e+000 8.438149e+000 8.359007e+000 8.206188e+000 8.295053e+000
<VARIANCE> 16
 3.584099e-001 9.412127e-001 1.870224e+000 2.265136e+000 2.035384e+000 2.027707e+000 1.615321e+000 1.032219e+000 7.303995e-001 9.273310e-001 1.286650e+000 1.886360e+000 2.247905e+000 1.613397e+000 8.527876e-001 6.639728e-001
<GCONST> 3.290856e+001
<STATE> 4
<MEAN> 16
 5.864257e+000 6.319304e+000 6.789458e+000 7.073109e+000 7.132799e+000 7.332147e+000 7.370930e+000 7.359715e+000 7.583938e+000 7.626978e+000 7.877566e+000 8.245286e+000 8.588444e+000 8.476052e+000 8.271281e+000 8.345277e+000
<VARIANCE> 16
 3.759597e-001 1.032559e+000 2.037930e+000 2.445842e+000 2.184544e+000 2.176536e+000 1.756729e+000 1.129702e+000 7.977471e-001 1.018036e+000 1.408303e+000 2.056415e+000 2.429036e+000 1.744328e+000 9.435247e-001 7.366780e-001
<GCONST> 3.424606e+001
<STATE> 5
<MEAN> 16
 5.905599e+000 6.413190e+000 6.918712e+000 7.212296e+000 7.251334e+000 7.456668e+000 7.483457e+000 7.452952e+000 7.662140e+000 7.723298e+000 7.984556e+000 8.381030e+000 8.739619e+000 8.592199e+000 8.335112e+000 8.394737e+000
<VARIANCE> 16
 3.901078e-001 1.107705e+000 2.168480e+000 2.578876e+000 2.293270e+000 2.283402e+000 1.868410e+000 1.210473e+000 8.541036e-001 1.091844e+000 1.506925e+000 2.188481e+000 2.561027e+000 1.843069e+000 1.024183e+000 8.028211e-001
<GCONST> 3.523967e+001
<STATE> 6
<MEAN> 16
 5.944637e+000 6.504053e+000 7.041494e+000 7.342712e+000 7.360002e+000 7.571503e+000 7.589993e+000 7.543071e+000 7.737554e+000 7.816185e+000 8.087119e+000 8.511507e+000 8.883080e+000 8.700481e+000 8.394001e+000 8.440509e+000
<VARIANCE> 16
 4.001624e-001 1.163653e+000 2.257080e+000 2.659502e+000 2.355792e+000 2.343441e+000 1.944916e+000 1.270775e+000 8.973354e-001 1.146090e+000 1.578408e+000 2.277389e+000 2.639322e+000 1.906421e+000 1.092288e+000 8.606588e-001
<GCONST> 3.590871e+001
<STATE> 7
<MEAN> 16
 5.978837e+000 6.586367e+000 7.149620e+000 7.455453e+000 7.450532e+000 7.668118e+000 7.683003e+000 7.624027e+000 7.805326e+000 7.899632e+000 8.178245e+000 8.627652e+000 9.008635e+000 8.792737e+000 8.443465e+000 8.479109e+000
<VARIANCE> 16
 4.059553e-001 1.200480e+000 2.305065e+000 2.689407e+000 2.370461e+000 2.356863e+000 1.984919e+000 1.309610e+000 9.271231e-001 1.181390e+000 1.622279e+000 2.323961e+000 2.667464e+000 1.935802e+000 1.145913e+000 9.085033e-001
<GCONST> 3.628742e+001
<STATE> 8
<MEAN> 16
 6.005691e+000 6.654651e+000 7.235106e+000 7.541661e+000 7.514585e+000 7.738022e+000 7.754663e+000 7.689139e+000 7.860173e+000 7.967196e+000 8.250252e+000 8.719640e+000 9.105796e+000 8.860700e+000 8.478684e+000 8.506811e+000
<VARIANCE> 16
 4.079628e-001 1.221259e+000 2.319398e+000 2.676615e+000 2.340605e+000 2.329241e+000 1.991525e+000 1.329239e+000 9.450341e-001 1.201451e+000 1.641886e+000 2.335119e+000 2.656765e+000 1.936811e+000 1.183364e+000 9.443144e-001
<GCONST> 3.642477e+001
<STATE> 9
<MEAN> 16
 6.013830e+000 6.726521e+000 7.253803e+000 7.504992e+000 7.399446e+000 7.646572e+000 7.729545e+000 7.702646e+000 7.875049e+000 7.986721e+000 8.234756e+000 8.707560e+000 9.081063e+000 8.784267e+000 8.393711e+000 8.438969e+000
<VARIANCE> 16
 3.914315e-001 1.225991e+000 2.202503e+000 2.382313e+000 1.873094e+000 1.933227e+000 1.765692e+000 1.283650e+000 9.344364e-001 1.207861e+000 1.552517e+000 2.167473e+000 2.452328e+000 1.734775e+000 1.084295e+000 8.727006e-001
<GCONST> 3.516170e+001
<TRANSP> 10
 0.000000e+000 1.000000e+000 0.000000e+000 0.000000e+000 0.000000e+000 0.000000e+000 0.000000e+000 0.000000e+000 0.000000e+000 0.000000e+000
 0.000000e+000 8.426741e-001 1.573259e-001 0.000000e+000 0.000000e+000 0.000000e+000 0.000000e+000 0.000000e+000 0.000000e+000 0.000000e+000
 0.000000e+000 0.000000e+000 8.426744e-001 1.573255e-001 0.000000e+000 0.000000e+000 0.000000e+000 0.000000e+000 0.000000e+000 0.000000e+000
 0.000000e+000 0.000000e+000 0.000000e+000 8.426741e-001 1.573259e-001 0.000000e+000 0.000000e+000 0.000000e+000 0.000000e+000 0.000000e+000
 0.000000e+000 0.000000e+000 0.000000e+000 0.000000e+000 8.426743e-001 1.573258e-001 0.000000e+000 0.000000e+000 0.000000e+000 0.000000e+000
 0.000000e+000 0.000000e+000 0.000000e+000 0.000000e+000 0.000000e+000 8.426743e-001 1.573257e-001 0.000000e+000 0.000000e+000 0.000000e+000
 0.000000e+000 0.000000e+000 0.000000e+000 0.000000e+000 0.000000e+000 0.000000e+000 8.426740e-001 1.573260e-001 0.000000e+000 0.000000e+000
 0.000000e+000 0.000000e+000 0.000000e+000 0.000000e+000 0.000000e+000 0.000000e+000 0.000000e+000 8.426745e-001 1.573255e-001 0.000000e+000
 0.000000e+000 0.000000e+000 0.000000e+000 0.000000e+000 0.000000e+000 0.000000e+000 0.000000e+000 0.000000e+000 9.765783e-001 2.342171e-002
 0.000000e+000 0.000000e+000 0.000000e+000 0.000000e+000 0.000000e+000 0.000000e+000 0.000000e+000 0.000000e+000 0.000000e+000 0.000000e+000
<ENDHMM>
~h "pet"
<BEGINHMM>
<NUMSTATES> 10
<STATE> 2
<MEAN> 16
 5.833209e+000 6.081633e+000 6.497545e+000 6.762285e+000 6.777138e+000 6.797653e+000 6.962986e+000 7.288731e+000 7.730966e+000 7.668577e+000 7.760025e+000 7.892984e+000 8.144441e+000 8.097537e+000 7.958163e+000 8.083215e+000
<VARIANCE> 16
 2.533131e-001 5.945229e-001 1.549173e+000 1.998767e+000 1.475124e+000 7.797514e-001 7.534631e-001 1.299005e+000 1.759473e+000 2.012373e+000 1.753247e+000 1.599053e+000 1.737679e+000 1.093765e+000 1.567102e-001 8.528943e-002
<GCONST> 2.738397e+001
<STATE> 3
<MEAN> 16
 5.852450e+000 6.131664e+000 6.590753e+000 6.876814e+000 6.872195e+000 6.861176e+000 7.025661e+000 7.379548e+000 7.836655e+000 7.779929e+000 7.865292e+000 7.993748e+000 8.251397e+000 8.175384e+000 7.984024e+000 8.094168e+000
<VARIANCE> 16
 2.659793e-001 6.455181e-001 1.710913e+000 2.227446e+000 1.668751e+000 8.849037e-001 8.492935e-001 1.451915e+000 1.970199e+000 2.254592e+000 1.984131e+000 1.819163e+000 1.957370e+000 1.231794e+000 1.761381e-001 9.094092e-002
<GCONST> 2.910191e+001
<STATE> 4
<MEAN> 16
 5.870969e+000 6.181143e+000 6.683856e+000 6.993779e+000 6.970432e+000 6.925968e+000 7.089490e+000 7.471720e+000 7.944257e+000 7.892910e+000 7.973310e+000 8.097562e+000 8.360881e+000 8.254459e+000 8.010399e+000 8.105356e+000
<VARIANCE> 16
 2.777414e-001 6.902402e-001 1.852816e+000 2.428156e+000 1.846587e+000 9.845544e-001 9.384576e-001 1.588496e+000 2.157372e+000 2.471663e+000 2.195460e+000 2.022349e+000 2.155848e+000 1.358064e+000 1.946069e-001 9.617040e-002
<GCONST> 3.051540e+001
<STATE> 5
<MEAN> 16
 5.887572e+000 6.226911e+000 6.771934e+000 7.107406e+000 7.067478e+000 6.989377e+000 7.151649e+000 7.561033e+000 8.048515e+000 8.002042e+000 8.079183e+000 8.200043e+000 8.467820e+000 8.330812e+000 8.035997e+000 8.116201e+000
<VARIANCE> 16
 2.873831e-001 7.263893e-001 1.968547e+000 2.592566e+000 2.001826e+000 1.074960e+000 1.017384e+000 1.702275e+000 2.312823e+000 2.654524e+000 2.379043e+000 2.201040e+000 2.325571e+000 1.467427e+000 2.111694e-001 1.004339e-001
<GCONST> 3.162940e+001
<STATE> 6
<MEAN> 16
 5.900801e+000 6.265303e+000 6.848634e+000 7.210387e+000 7.157816e+000 7.048004e+000 7.208431e+000 7.641954e+000 8.142751e+000 8.100503e+000 8.176897e+000 8.295762e+000 8.565997e+000 8.399595e+000 8.059243e+000 8.125895e+000
<VARIANCE> 16
 2.936492e-001 7.519630e-001 2.053628e+000 2.715209e+000 2.129326e+000 1.152732e+000 1.082996e+000 1.788666e+000 2.431125e+000 2.796243e+000 2.528447e+000 2.349298e+000 2.460752e+000 1.555561e+000 2.250083e-001 1.031926e-001
<GCONST> 3.245110e+001
<STATE> 7
<MEAN> 16
 5.909023e+000 6.292549e+000 6.906958e+000 7.294497e+000 7.234927e+000 7.097650e+000 7.255394e+000 7.708061e+000 8.219436e+000 8.180509e+000 8.259362e+000 8.378203e+000 8.648201e+000 8.455321e+000 8.078362e+000 8.133465e+000
<VARIANCE> 16
 2.954901e-001 7.654656e-001 2.105728e+000 2.793808e+000 2.225739e+000 1.214975e+000 1.132932e+000 1.845649e+000 2.510141e+000 2.892876e+000 2.639778e+000 2.463214e+000 2.557938e+000 1.619397e+000 2.355607e-001 1.040478e-001
<GCONST> 3.299147e+001
<STATE> 8
<MEAN> 16
 5.910692e+000 6.305322e+000 6.940434e+000 7.351640e+000 7.291963e+000 7.133754e+000 7.287944e+000 7.752991e+000 8.271245e+000 8.234333e+000 8.319192e+000 8.440322e+000 8.707000e+000 8.492579e+000 8.091667e+000 8.138014e+000
<VARIANCE> 16
 2.922962e-001 7.660429e-001 2.124119e+000 2.828887e+000 2.289164e+000 1.259248e+000 1.165469e+000 1.873473e+000 2.550412e+000 2.943188e+000 2.711323e+000 2.540681e+000 2.615937e+000 1.657108e+000 2.425168e-001 1.028552e-001
<GCONST> 3.326359e+001
<STATE> 9
<MEAN> 16
 5.837813e+000 6.175713e+000 6.747591e+000 7.192546e+000 7.205079e+000 7.063253e+000 7.201269e+000 7.630808e+000 8.126625e+000 8.074083e+000 8.211504e+000 8.356940e+000 8.588807e+000 8.380846e+000 8.064121e+000 8.117755e+000
<VARIANCE> 16
 2.343770e-001 6.248201e-001 1.791223e+000 2.474678e+000 2.106338e+000 1.172154e+000 1.058020e+000 1.662129e+000 2.262317e+000 2.579901e+000 2.483164e+000 2.361191e+000 2.366201e+000 1.471609e+000 2.258995e-001 8.331951e-002
<GCONST> 3.124997e+001
<TRANSP> 10
 0.000000e+000 1.000000e+000 0.000000e+000 0.000000e+000 0.000000e+000 0.000000e+000 0.000000e+000 0.000000e+000 0.000000e+000 0.000000e+000
 0.000000e+000 8.426741e-001 1.573259e-001 0.000000e+000 0.000000e+000 0.000000e+000 0.000000e+000 0.000000e+000 0.000000e+000 0.000000e+000
 0.000000e+000 0.000000e+000 8.426744e-001 1.573255e-001 0.000000e+000 0.000000e+000 0.000000e+000 0.000000e+000 0.000000e+000 0.000000e+000
 0.000000e+000 0.000000e+000 0.000000e+000 8.426741e-001 1.573259e-001 0.000000e+000 0.000000e+000 0.000000e+000 0.000000e+000 0.000000e+000
 0.000000e+000 0.000000e+000 0.000000e+000 0.000000e+000 8.426743e-001 1.573258e-001 0.000000e+000 0.000000e+000 0.000000e+000 0.000000e+000
 0.000000e+000 0.000000e+000 0.000000e+000 0.000000e+000 0.000000e+000 8.426743e-001 1.573257e-001 0.000000e+000 0.000000e+000 0.000000e+000
 0.000000e+000 0.000000e+000 0.000000e+000 0.000000e+000 0.000000e+000 0.000000e+000 8.426740e-001 1.573260e-001 0.000000e+000 0.000000e+000
 0.000000e+000 0.000000e+000 0.000000e+000 0.000000e+000 0.000000e+000 0.000000e+000 0.000000e+000 8.426745e-001 1.573255e-001 0.000000e+000
 0.000000e+000 0.000000e+000 0.000000e+000 0.000000e+000 0.000000e+000 0.000000e+000 0.000000e+000 0.000000e+000 9.765783e-001 2.342171e-002
 0.000000e+000 0.000000e+000 0.000000e+000 0.000000e+000 0.000000e+000 0.000000e+000 0.000000e+000 0.000000e+000 0.000000e+000 0.000000e+000
<ENDHMM>
~h "sil"
<BEGINHMM>
<NUMSTATES> 5
<STATE> 2
<MEAN> 16
 5.720566e+000 5.952094e+000 6.221287e+000 6.456093e+000 6.572717e+000 6.703822e+000 6.861044e+000 7.052444e+000 7.393981e+000 7.349216e+000 7.515852e+000 7.743045e+000 8.009576e+000 7.982116e+000 7.951597e+000 8.105044e+000
<VARIANCE> 16
 2.087819e-001 4.651965e-001 8.751799e-001 1.052520e+000 8.885440e-001 7.265685e-001 7.331124e-001 7.905701e-001 7.454075e-001 9.142050e-001 9.707710e-001 1.011155e+000 1.144721e+000 7.372783e-001 2.273037e-001 1.317970e-001
<GCONST> 2.192940e+001
<STATE> 3
<MEAN> 16
 5.701916e+000 5.912152e+000 6.166295e+000 6.393906e+000 6.518347e+000 6.656527e+000 6.816880e+000 7.002623e+000 7.342175e+000 7.291065e+000 7.454998e+000 7.656984e+000 7.896081e+000 7.899407e+000 7.913036e+000 8.066137e+000
<VARIANCE> 16
 1.955478e-001 4.116630e-001 7.493479e-001 9.027147e-001 7.663824e-001 6.279712e-001 6.341428e-001 6.818343e-001 6.385487e-001 7.823312e-001 8.327291e-001 8.774434e-001 1.003650e+000 6.404662e-001 1.967614e-001 1.161742e-001
<GCONST> 1.969768e+001
<STATE> 4
<MEAN> 16
 5.716046e+000 5.941672e+000 6.207556e+000 6.426862e+000 6.534791e+000 6.669945e+000 6.832270e+000 7.027638e+000 7.377574e+000 7.330634e+000 7.484697e+000 7.680250e+000 7.922567e+000 7.937538e+000 7.942310e+000 8.079564e+000
<VARIANCE> 16
 2.095598e-001 4.646311e-001 8.675850e-001 1.014130e+000 8.365960e-001 6.654057e-001 6.671586e-001 7.326716e-001 7.293838e-001 8.826634e-001 9.020130e-001 9.703914e-001 1.132107e+000 7.733397e-001 2.729736e-001 1.552521e-001
<GCONST> 2.177962e+001
<TRANSP> 5
 0.000000e+000 1.000000e+000 0.000000e+000 0.000000e+000 0.000000e+000
 0.000000e+000 8.426769e-001 1.573230e-001 0.000000e+000 0.000000e+000
 0.000000e+000 0.000000e+000 8.426751e-001 1.573249e-001 0.000000e+000
 0.000000e+000 0.000000e+000 0.000000e+000 9.765729e-001 2.342708e-002
 0.000000e+000 0.000000e+000 0.000000e+000 0.000000e+000 0.000000e+000
<ENDHMM>
~h "tri"
<BEGINHMM>
<NUMSTATES> 10
<STATE> 2
<MEAN> 16
 5.794916e+000 6.088772e+000 6.418489e+000 6.558010e+000 6.542424e+000 6.654123e+000 6.856609e+000 7.185041e+000 7.709567e+000 7.749999e+000 7.877401e+000 8.123279e+000 8.423675e+000 8.411861e+000 8.269419e+000 8.266469e+000
<VARIANCE> 16
 2.012615e-001 6.690207e-001 1.373028e+000 1.193168e+000 5.082147e-001 3.476894e-001 3.513269e-001 6.885108e-001 1.330494e+000 1.863968e+000 1.815395e+000 2.045263e+000 2.412533e+000 2.031283e+000 9.399438e-001 4.137123e-001
<GCONST> 2.760693e+001
<STATE> 3
<MEAN> 16
 5.813746e+000 6.142649e+000 6.502672e+000 6.640036e+000 6.592285e+000 6.696739e+000 6.898374e+000 7.245635e+000 7.801286e+000 7.871358e+000 7.996804e+000 8.246038e+000 8.557745e+000 8.524911e+000 8.330815e+000 8.300228e+000
<VARIANCE> 16
 2.099088e-001 7.372281e-001 1.538942e+000 1.361670e+000 5.798043e-001 3.912434e-001 3.905421e-001 7.531776e-001 1.471580e+000 2.079541e+000 2.031963e+000 2.275340e+000 2.668401e+000 2.236585e+000 1.027096e+000 4.489013e-001
<GCONST> 2.923457e+001
<STATE> 4
<MEAN> 16
 5.831512e+000 6.196381e+000 6.587046e+000 6.723489e+000 6.643754e+000 6.739881e+000 6.939482e+000 7.302779e+000 7.890479e+000 7.991662e+000 8.115742e+000 8.367530e+000 8.689713e+000 8.634580e+000 8.388148e+000 8.331616e+000
<VARIANCE> 16
 2.178999e-001 7.986800e-001 1.691392e+000 1.521960e+000 6.491973e-001 4.327396e-001 4.266688e-001 8.085232e-001 1.594709e+000 2.269817e+000 2.224481e+000 2.476081e+000 2.887952e+000 2.410455e+000 1.099354e+000 4.774578e-001
<GCONST> 3.055754e+001
<STATE> 5
<MEAN> 16
 5.847154e+000 6.246744e+000 6.666948e+000 6.804534e+000 6.694404e+000 6.781132e+000 6.977605e+000 7.353068e+000 7.972198e+000 8.104933e+000 8.228499e+000 8.481767e+000 8.812897e+000 8.734969e+000 8.437766e+000 8.358558e+000
<VARIANCE> 16
 2.245626e-001 8.502312e-001 1.823060e+000 1.668113e+000 7.137018e-001 4.708877e-001 4.588762e-001 8.526571e-001 1.695272e+000 2.429461e+000 2.388373e+000 2.643121e+000 3.066178e+000 2.549284e+000 1.154833e+000 4.983914e-001
<GCONST> 3.159551e+001
<STATE> 6
<MEAN> 16
 5.859620e+000 6.290392e+000 6.737515e+000 6.878909e+000 6.741253e+000 6.818097e+000 7.010430e+000 7.393425e+000 8.041289e+000 8.204803e+000 8.329045e+000 8.582521e+000 8.920248e+000 8.820096e+000 8.476357e+000 8.379250e+000
<VARIANCE> 16
 2.292999e-001 8.891796e-001 1.927978e+000 1.795475e+000 7.713357e-001 5.047336e-001 4.865335e-001 8.848183e-001 1.770918e+000 2.557130e+000 2.522722e+000 2.775831e+000 3.202765e+000 2.653230e+000 1.193011e+000 5.113748e-001
<GCONST> 3.237370e+001
<STATE> 7
<MEAN> 16
 5.867860e+000 6.324085e+000 6.793951e+000 6.941977e+000 6.781124e+000 6.848525e+000 7.035713e+000 7.421121e+000 8.092769e+000 8.284792e+000 8.411133e+000 8.663273e+000 9.004427e+000 8.883962e+000 8.500874e+000 8.392012e+000
<VARIANCE> 16
 2.317392e-001 9.137959e-001 2.002704e+000 1.900867e+000 8.207453e-001 5.334778e-001 5.091423e-001 9.053506e-001 1.821652e+000 2.654984e+000 2.629112e+000 2.875965e+000 3.300605e+000 2.724125e+000 1.213499e+000 5.161474e-001
<GCONST> 3.291783e+001
<STATE> 8
<MEAN> 16
 5.870978e+000 6.344993e+000 6.831953e+000 6.989047e+000 6.810958e+000 6.870327e+000 7.051407e+000 7.433877e+000 8.122303e+000 8.338792e+000 8.468515e+000 8.717385e+000 9.058150e+000 8.920787e+000 8.508579e+000 8.395252e+000
<VARIANCE> 16
 2.317412e-001 9.235047e-001 2.046484e+000 1.982110e+000 8.609148e-001 5.563188e-001 5.262370e-001 9.150890e-001 1.849011e+000 2.726730e+000 2.709644e+000 2.945706e+000 3.363387e+000 2.763154e+000 1.215081e+000 5.120679e-001
<GCONST> 3.324745e+001
<STATE> 9
<MEAN> 16
 5.826992e+000 6.265069e+000 6.740410e+000 6.932761e+000 6.780436e+000 6.835728e+000 6.985944e+000 7.303457e+000 7.962652e+000 8.198993e+000 8.338131e+000 8.545601e+000 8.847027e+000 8.703760e+000 8.333547e+000 8.289435e+000
<VARIANCE> 16
 2.081573e-001 8.102787e-001 1.905920e+000 1.964363e+000 8.877167e-001 5.553053e-001 5.100913e-001 8.234007e-001 1.692373e+000 2.688026e+000 2.663081e+000 2.793777e+000 3.144558e+000 2.468977e+000 9.569690e-001 3.795817e-001
<GCONST> 3.193013e+001
<TRANSP> 10
 0.000000e+000 1.000000e+000 0.000000e+000 0.000000e+000 0.000000e+000 0.000000e+000 0.000000e+000 0.000000e+000 0.000000e+000 0.000000e+000
 0.000000e+000 8.426741e-001 1.573259e-001 0.000000e+000 0.000000e+000 0.000000e+000 0.000000e+000 0.000000e+000 0.000000e+000 0.000000e+000
 0.000000e+000 0.000000e+000 8.426744e-001 1.573255e-001 0.000000e+000 0.000000e+000 0.000000e+000 0.000000e+000 0.000000e+000 0.000000e+000
 0.000000e+000 0.000000e+000 0.000000e+000 8.426741e-001 1.573259e-001 0.000000e+000 0.000000e+000 0.000000e+000 0.000000e+000 0.000000e+000
 0.000000e+000 0.000000e+000 0.000000e+000 0.000000e+000 8.426743e-001 1.573258e-001 0.000000e+000 0.000000e+000 0.000000e+000 0.000000e+000
 0.000000e+000 0.000000e+000 0.000000e+000 0.000000e+000 0.000000e+000 8.426743e-001 1.573257e-001 0.000000e+000 0.000000e+000 0.000000e+000
 0.000000e+000 0.000000e+000 0.000000e+000 0.000000e+000 0.000000e+000 0.000000e+000 8.426740e-001 1.573260e-001 0.000000e+000 0.000000e+000
 0.000000e+000 0.000000e+000 0.000000e+000 0.000000e+000 0.000000e+000 0.000000e+000 0.000000e+000 8.426745e-001 1.573255e-001 0.000000e+000
 0.000000e+000 0.000000e+000 0.000000e+000 0.000000e+000 0.000000e+000 0.000000e+000 0.000000e+000 0.000000e+000 9.765783e-001 2.342171e-002
 0.000000e+000 0.000000e+000 0.000000e+000 0.000000e+000 0.000000e+000 0.000000e+000 0.000000e+000 0.000000e+000 0.000000e+000 0.000000e+000
<ENDHMM>
~h "nula"
<BEGINHMM>
<NUMSTATES> 10
<STATE> 2
<MEAN> 16
 5.854293e+000 6.266064e+000 6.627065e+000 6.944340e+000 7.013391e+000 7.166218e+000 7.284170e+000 7.303546e+000 7.498401e+000 7.527710e+000 7.707819e+000 7.882928e+000 8.130994e+000 8.054234e+000 7.940909e+000 8.063556e+000
<VARIANCE> 16
 4.001498e-001 1.058446e+000 1.879276e+000 2.435629e+000 2.245839e+000 2.176061e+000 2.084990e+000 1.400421e+000 7.973057e-001 1.120700e+000 1.414202e+000 1.411454e+000 1.614304e+000 8.934661e-001 2.359780e-001 1.585392e-001
<GCONST> 3.038525e+001
<STATE> 3
<MEAN> 16
 5.898292e+000 6.357705e+000 6.754393e+000 7.102847e+000 7.168127e+000 7.316195e+000 7.425987e+000 7.417872e+000 7.580528e+000 7.629412e+000 7.814482e+000 7.989152e+000 8.247966e+000 8.136036e+000 7.971250e+000 8.080155e+000
<VARIANCE> 16
 4.253792e-001 1.158079e+000 2.080195e+000 2.710495e+000 2.539331e+000 2.466812e+000 2.379566e+000 1.599498e+000 8.955825e-001 1.266707e+000 1.614874e+000 1.611445e+000 1.841203e+000 1.021329e+000 2.711004e-001 1.747064e-001
<GCONST> 3.226318e+001
<STATE> 4
<MEAN> 16
 5.942204e+000 6.450868e+000 6.884668e+000 7.266381e+000 7.329906e+000 7.472940e+000 7.574931e+000 7.537474e+000 7.665368e+000 7.734569e+000 7.924989e+000 8.099203e+000 8.368758e+000 8.220062e+000 8.002616e+000 8.097520e+000
<VARIANCE> 16
 4.477628e-001 1.241405e+000 2.250016e+000 2.940758e+000 2.796050e+000 2.723207e+000 2.644565e+000 1.780974e+000 9.838113e-001 1.397039e+000 1.799369e+000 1.794818e+000 2.048248e+000 1.139963e+000 3.055623e-001 1.903520e-001
<GCONST> 3.378195e+001
<STATE> 5
<MEAN> 16
 5.984273e+000 6.541668e+000 7.011988e+000 7.428766e+000 7.492967e+000 7.631055e+000 7.726037e+000 7.657731e+000 7.749564e+000 7.839243e+000 8.035375e+000 8.209076e+000 8.488853e+000 8.303107e+000 8.033724e+000 8.114758e+000
<VARIANCE> 16
 4.658940e-001 1.304501e+000 2.383899e+000 3.117127e+000 3.004838e+000 2.933924e+000 2.868388e+000 1.938189e+000 1.058885e+000 1.507317e+000 1.961447e+000 1.955420e+000 2.229182e+000 1.246139e+000 3.384342e-001 2.051601e-001
<GCONST> 3.497190e+001
<STATE> 6
<MEAN> 16
 6.022319e+000 6.624560e+000 7.128778e+000 7.581694e+000 7.649889e+000 7.783487e+000 7.872646e+000 7.773214e+000 7.829037e+000 7.938528e+000 8.140751e+000 8.313920e+000 8.603067e+000 8.381554e+000 8.063336e+000 8.130999e+000
<VARIANCE> 16
 4.789004e-001 1.345928e+000 2.481052e+000 3.237113e+000 3.160885e+000 3.093647e+000 3.044957e+000 2.067977e+000 1.119502e+000 1.595778e+000 2.097286e+000 2.089619e+000 2.380780e+000 1.338201e+000 3.689646e-001 2.187839e-001
<GCONST> 3.587037e+001
<STATE> 7
<MEAN> 16
 6.053540e+000 6.692560e+000 7.225923e+000 7.714577e+000 7.791273e+000 7.921246e+000 8.006171e+000 7.877274e+000 7.898743e+000 8.026239e+000 8.234901e+000 8.407659e+000 8.704992e+000 8.451006e+000 8.089969e+000 8.145278e+000
<VARIANCE> 16
 4.866860e-001 1.367505e+000 2.544824e+000 3.306779e+000 3.267569e+000 3.204613e+000 3.174878e+000 2.171103e+000 1.166364e+000 1.663594e+000 2.205687e+000 2.196195e+000 2.502610e+000 1.415634e+000 3.964300e-001 2.307407e-001
<GCONST> 3.652190e+001
<STATE> 8
<MEAN> 16
 6.074757e+000 6.738251e+000 7.293655e+000 7.815452e+000 7.906214e+000 8.033764e+000 8.116419e+000 7.962158e+000 7.952911e+000 8.095161e+000 8.310403e+000 8.483018e+000 8.786943e+000 8.506243e+000 8.111764e+000 8.156501e+000
<VARIANCE> 16
 4.898859e-001 1.373774e+000 2.581507e+000 3.340007e+000 3.336048e+000 3.276477e+000 3.265117e+000 2.251723e+000 1.201811e+000 1.714514e+000 2.287797e+000 2.276047e+000 2.596413e+000 1.478413e+000 4.199727e-001 2.403763e-001
<GCONST> 3.697588e+001
<STATE> 9
<MEAN> 16
 6.004476e+000 6.582686e+000 7.101693e+000 7.678850e+000 7.884256e+000 8.015853e+000 8.111293e+000 7.948290e+000 7.895691e+000 8.033129e+000 8.263703e+000 8.437746e+000 8.743571e+000 8.466425e+000 8.103536e+000 8.145699e+000
<VARIANCE> 16
 4.609363e-001 1.279205e+000 2.438263e+000 3.256232e+000 3.395712e+000 3.319011e+000 3.317534e+000 2.373345e+000 1.235140e+000 1.768072e+000 2.315381e+000 2.294036e+000 2.637295e+000 1.520964e+000 4.428403e-001 2.366466e-001
<GCONST> 3.701966e+001
<TRANSP> 10
 0.000000e+000 1.000000e+000 0.000000e+000 0.000000e+000 0.000000e+000 0.000000e+000 0.000000e+000 0.000000e+000 0.000000e+000 0.000000e+000
 0.000000e+000 8.426741e-001 1.573259e-001 0.000000e+000 0.000000e+000 0.000000e+000 0.000000e+000 0.000000e+000 0.000000e+000 0.000000e+000
 0.000000e+000 0.000000e+000 8.426744e-001 1.573255e-001 0.000000e+000 0.000000e+000 0.000000e+000 0.000000e+000 0.000000e+000 0.000000e+000
 0.000000e+000 0.000000e+000 0.000000e+000 8.426741e-001 1.573259e-001 0.000000e+000 0.000000e+000 0.000000e+000 0.000000e+000 0.000000e+000
 0.000000e+000 0.000000e+000 0.000000e+000 0.000000e+000 8.426743e-001 1.573258e-001 0.000000e+000 0.000000e+000 0.000000e+000 0.000000e+000
 0.000000e+000 0.000000e+000 0.000000e+000 0.000000e+000 0.000000e+000 8.426743e-001 1.573257e-001 0.000000e+000 0.000000e+000 0.000000e+000
 0.000000e+000 0.000000e+000 0.000000e+000 0.000000e+000 0.000000e+000 0.000000e+000 8.426740e-001 1.573260e-001 0.000000e+000 0.000000e+000
 0.000000e+000 0.000000e+000 0.000000e+000 0.000000e+000 0.000000e+000 0.000000e+000 0.000000e+000 8.426745e-001 1.573255e-001 0.000000e+000
 0.000000e+000 0.000000e+000 0.000000e+000 0.000000e+000 0.000000e+000 0.000000e+000 0.000000e+000 0.000000e+000 9.765783e-001 2.342171e-002
 0.000000e+000 0.000000e+000 0.000000e+000 0.000000e+000 0.000000e+000 0.000000e+000 0.000000e+000 0.000000e+000 0.000000e+000 0.000000e+000
<ENDHMM>
~h "devet"
<BEGINHMM>
<NUMSTATES> 10
<STATE> 2
<MEAN> 16
 5.839865e+000 6.193027e+000 6.631704e+000 6.865940e+000 6.824795e+000 6.823871e+000 7.018391e+000 7.379923e+000 7.809232e+000 7.761499e+000 7.843561e+000 8.004695e+000 8.247704e+000 8.185121e+000 7.986041e+000 8.100486e+000
<VARIANCE> 16
 2.829902e-001 7.651066e-001 1.789169e+000 2.041998e+000 1.428912e+000 7.262189e-001 7.977769e-001 1.434538e+000 1.918290e+000 2.132144e+000 2.030771e+000 1.981865e+000 2.053301e+000 1.287201e+000 1.877941e-001 8.838071e-002
<GCONST> 2.901798e+001
<STATE> 3
<MEAN> 16
 5.876225e+000 6.275240e+000 6.767721e+000 7.015018e+000 6.940978e+000 6.904257e+000 7.105497e+000 7.499429e+000 7.948933e+000 7.909447e+000 7.984385e+000 8.144930e+000 8.393082e+000 8.294226e+000 8.021535e+000 8.117557e+000
<VARIANCE> 16
 2.999822e-001 8.356749e-001 1.988629e+000 2.295351e+000 1.643031e+000 8.282467e-001 9.026096e-001 1.615944e+000 2.178082e+000 2.427051e+000 2.341222e+000 2.289239e+000 2.355681e+000 1.480502e+000 2.143321e-001 9.510785e-002
<GCONST> 3.092662e+001
<STATE> 4
<MEAN> 16
 5.913156e+000 6.359052e+000 6.909166e+000 7.171078e+000 7.064497e+000 6.989240e+000 7.196770e+000 7.625179e+000 8.096934e+000 8.065531e+000 8.134551e+000 8.294514e+000 8.547970e+000 8.410379e+000 8.059309e+000 8.135434e+000
<VARIANCE> 16
 3.139508e-001 8.936482e-001 2.154483e+000 2.514844e+000 1.842796e+000 9.231841e-001 9.975933e-001 1.774645e+000 2.408126e+000 2.689566e+000 2.627248e+000 2.572473e+000 2.628790e+000 1.658823e+000 2.395381e-001 1.012185e-001
<GCONST> 3.245953e+001
<STATE> 5
<MEAN> 16
 5.949220e+000 6.441291e+000 7.050055e+000 7.328163e+000 7.191278e+000 7.075546e+000 7.288538e+000 7.752801e+000 8.247719e+000 8.223917e+000 8.288718e+000 8.448445e+000 8.707166e+000 8.529348e+000 8.097750e+000 8.153230e+000
<VARIANCE> 16
 3.237960e-001 9.358945e-001 2.278757e+000 2.688510e+000 2.017156e+000 1.006410e+000 1.078151e+000 1.900181e+000 2.595428e+000 2.905986e+000 2.874274e+000 2.816861e+000 2.857663e+000 1.813268e+000 2.621239e-001 1.062762e-001
<GCONST> 3.362646e+001
<STATE> 6
<MEAN> 16
 5.982164e+000 6.517478e+000 7.182850e+000 7.478708e+000 7.315734e+000 7.159156e+000 7.376461e+000 7.876126e+000 8.394102e+000 8.377078e+000 8.440083e+000 8.600215e+000 8.863663e+000 8.645554e+000 8.134942e+000 8.169952e+000
<VARIANCE> 16
 3.292103e-001 9.612979e-001 2.358844e+000 2.809784e+000 2.158026e+000 1.074489e+000 1.141150e+000 1.985913e+000 2.731923e+000 3.068457e+000 3.072000e+000 3.012069e+000 3.032754e+000 1.937732e+000 2.810625e-001 1.098273e-001
<GCONST> 3.445004e+001
<STATE> 7
<MEAN> 16
 6.009378e+000 6.582172e+000 7.298781e+000 7.613630e+000 7.430844e+000 7.235267e+000 7.455480e+000 7.987478e+000 8.527347e+000 8.515921e+000 8.580348e+000 8.741750e+000 9.008757e+000 8.752257e+000 8.168743e+000 8.184525e+000
<VARIANCE> 16
 3.305501e-001 9.713563e-001 2.398808e+000 2.880268e+000 2.262341e+000 1.126013e+000 1.185771e+000 2.031586e+000 2.817165e+000 3.177220e+000 3.216611e+000 3.154191e+000 3.152068e+000 2.030066e+000 2.957769e-001 1.115349e-001
<GCONST> 3.497048e+001
<STATE> 8
<MEAN> 16
 6.028385e+000 6.629783e+000 7.388708e+000 7.723166e+000 7.528830e+000 7.298710e+000 7.520194e+000 8.078572e+000 8.637890e+000 8.630513e+000 8.700225e+000 8.863869e+000 9.132642e+000 8.842042e+000 8.196949e+000 8.195870e+000
<VARIANCE> 16
 3.286312e-001 9.698574e-001 2.408822e+000 2.910085e+000 2.332568e+000 1.161792e+000 1.213729e+000 2.043844e+000 2.858880e+000 3.240663e+000 3.311499e+000 3.246397e+000 3.221671e+000 2.092359e+000 3.062170e-001 1.113079e-001
<GCONST> 3.524582e+001
<STATE> 9
<MEAN> 16
 5.991900e+000 6.570514e+000 7.350408e+000 7.760640e+000 7.626198e+000 7.345703e+000 7.549807e+000 8.119266e+000 8.699659e+000 8.681999e+000 8.817901e+000 8.994110e+000 9.246357e+000 8.909798e+000 8.221375e+000 8.195478e+000
<VARIANCE> 16
 3.023736e-001 9.047912e-001 2.308566e+000 2.849950e+000 2.388157e+000 1.189297e+000 1.217918e+000 1.946258e+000 2.797026e+000 3.221746e+000 3.325065e+000 3.243124e+000 3.180341e+000 2.113000e+000 3.116651e-001 9.765749e-002
<GCONST> 3.489024e+001
<TRANSP> 10
 0.000000e+000 1.000000e+000 0.000000e+000 0.000000e+000 0.000000e+000 0.000000e+000 0.000000e+000 0.000000e+000 0.000000e+000 0.000000e+000
 0.000000e+000 8.426741e-001 1.573259e-001 0.000000e+000 0.000000e+000 0.000000e+000 0.000000e+000 0.000000e+000 0.000000e+000 0.000000e+000
 0.000000e+000 0.000000e+000 8.426744e-001 1.573255e-001 0.000000e+000 0.000000e+000 0.000000e+000 0.000000e+000 0.000000e+000 0.000000e+000
 0.000000e+000 0.000000e+000 0.000000e+000 8.426741e-001 1.573259e-001 0.000000e+000 0.000000e+000 0.000000e+000 0.000000e+000 0.000000e+000
 0.000000e+000 0.000000e+000 0.000000e+000 0.000000e+000 8.426743e-001 1.573258e-001 0.000000e+000 0.000000e+000 0.000000e+000 0.000000e+000
 0.000000e+000 0.000000e+000 0.000000e+000 0.000000e+000 0.000000e+000 8.426743e-001 1.573257e-001 0.000000e+000 0.000000e+000 0.000000e+000
 0.000000e+000 0.000000e+000 0.000000e+000 0.000000e+000 0.000000e+000 0.000000e+000 8.426740e-001 1.573260e-001 0.000000e+000 0.000000e+000
 0.000000e+000 0.000000e+000 0.000000e+000 0.000000e+000 0.000000e+000 0.000000e+000 0.000000e+000 8.426745e-001 1.573255e-001 0.000000e+000
 0.000000e+000 0.000000e+000 0.000000e+000 0.000000e+000 0.000000e+000 0.000000e+000 0.000000e+000 0.000000e+000 9.765783e-001 2.342171e-002
 0.000000e+000 0.000000e+000 0.000000e+000 0.000000e+000 0.000000e+000 0.000000e+000 0.000000e+000 0.000000e+000 0.000000e+000 0.000000e+000
<ENDHMM>
~h "jedna"
<BEGINHMM>
<NUMSTATES> 10
<STATE> 2
<MEAN> 16
 5.930539e+000 6.340685e+000 6.738545e+000 6.933073e+000 6.988409e+000 7.022369e+000 7.193500e+000 7.438508e+000 7.795578e+000 7.842461e+000 7.907167e+000 8.091962e+000 8.379737e+000 8.248503e+000 7.995672e+000 8.087440e+000
<VARIANCE> 16
 2.751887e-001 8.962715e-001 1.669239e+000 1.884899e+000 1.751483e+000 1.250616e+000 1.410019e+000 1.563601e+000 1.401410e+000 1.802401e+000 1.761227e+000 1.822669e+000 1.963557e+000 1.135209e+000 1.930286e-001 7.511940e-002
<GCONST> 2.938805e+001
<STATE> 3
<MEAN> 16
 5.967047e+000 6.427825e+000 6.854795e+000 7.064142e+000 7.113625e+000 7.123911e+000 7.299714e+000 7.554473e+000 7.897541e+000 7.960525e+000 8.026445e+000 8.213396e+000 8.509052e+000 8.338046e+000 8.017888e+000 8.096675e+000
<VARIANCE> 16
 2.861004e-001 9.566070e-001 1.790367e+000 2.043612e+000 1.940431e+000 1.430542e+000 1.607659e+000 1.774853e+000 1.541471e+000 1.956164e+000 1.950291e+000 2.020579e+000 2.165143e+000 1.253773e+000 2.072341e-001 7.775029e-002
<GCONST> 3.082243e+001
<STATE> 4
<MEAN> 16
 6.001524e+000 6.511683e+000 6.966022e+000 7.192952e+000 7.240191e+000 7.230267e+000 7.409767e+000 7.672368e+000 7.997119e+000 8.074657e+000 8.145221e+000 8.335869e+000 8.637480e+000 8.426051e+000 8.037689e+000 8.104897e+000
<VARIANCE> 16
 2.949634e-001 1.000452e+000 1.877628e+000 2.164980e+000 2.100477e+000 1.598653e+000 1.792572e+000 1.970552e+000 1.658828e+000 2.075876e+000 2.111592e+000 2.188139e+000 2.334403e+000 1.355437e+000 2.175569e-001 7.929771e-002
<GCONST> 3.192032e+001
<STATE> 5
<MEAN> 16
 6.031906e+000 6.588072e+000 7.066905e+000 7.313028e+000 7.361986e+000 7.336525e+000 7.518578e+000 7.786790e+000 8.089752e+000 8.179398e+000 8.258288e+000 8.453537e+000 8.759122e+000 8.508303e+000 8.053907e+000 8.111586e+000
<VARIANCE> 16
 3.019965e-001 1.027976e+000 1.931269e+000 2.246220e+000 2.223709e+000 1.746069e+000 1.954843e+000 2.142708e+000 1.750371e+000 2.159366e+000 2.239630e+000 2.319390e+000 2.467085e+000 1.436857e+000 2.237216e-001 7.974307e-002
<GCONST> 3.270909e+001
<STATE> 6
<MEAN> 16
 6.056676e+000 6.652926e+000 7.152239e+000 7.418004e+000 7.472556e+000 7.437126e+000 7.620590e+000 7.892453e+000 8.171332e+000 8.269597e+000 8.360374e+000 8.560239e+000 8.868230e+000 8.580585e+000 8.066189e+000 8.116699e+000
<VARIANCE> 16
 3.075373e-001 1.042202e+000 1.957482e+000 2.290663e+000 2.308041e+000 1.867750e+000 2.087828e+000 2.287204e+000 1.816842e+000 2.209709e+000 2.333590e+000 2.413530e+000 2.563977e+000 1.497900e+000 2.263401e-001 7.928921e-002
<GCONST> 3.323701e+001
<STATE> 7
<MEAN> 16
 6.074568e+000 6.702341e+000 7.216933e+000 7.501636e+000 7.565529e+000 7.526350e+000 7.710149e+000 7.984186e+000 8.237834e+000 8.340081e+000 8.445893e+000 8.649458e+000 8.958717e+000 8.638578e+000 8.074436e+000 8.120358e+000
<VARIANCE> 16
 3.118861e-001 1.047755e+000 1.965322e+000 2.306554e+000 2.357536e+000 1.963437e+000 2.189755e+000 2.404326e+000 1.861685e+000 2.233261e+000 2.396476e+000 2.474237e+000 2.630118e+000 1.540892e+000 2.263534e-001 7.821693e-002
<GCONST> 3.356269e+001
<STATE> 8
<MEAN> 16
 6.084368e+000 6.732723e+000 7.256112e+000 7.558015e+000 7.635020e+000 7.598774e+000 7.781923e+000 8.056987e+000 8.285103e+000 8.385589e+000 8.508902e+000 8.714557e+000 9.024204e+000 8.678043e+000 8.078348e+000 8.122557e+000
<VARIANCE> 16
 3.152894e-001 1.049295e+000 1.963322e+000 2.304314e+000 2.380720e+000 2.036883e+000 2.263801e+000 2.497941e+000 1.889382e+000 2.237144e+000 2.433451e+000 2.507737e+000 2.672770e+000 1.568976e+000 2.244016e-001 7.675634e-002
<GCONST> 3.374289e+001
<STATE> 9
<MEAN> 16
 6.026671e+000 6.621942e+000 7.093455e+000 7.438655e+000 7.611967e+000 7.663791e+000 7.840936e+000 8.097051e+000 8.216359e+000 8.243455e+000 8.444588e+000 8.641650e+000 8.945234e+000 8.600011e+000 8.040820e+000 8.111053e+000
<VARIANCE> 16
 3.146679e-001 1.023280e+000 1.860903e+000 2.200866e+000 2.365192e+000 2.224646e+000 2.418571e+000 2.736856e+000 1.856947e+000 2.074956e+000 2.368492e+000 2.425101e+000 2.656880e+000 1.538454e+000 1.927353e-001 6.834501e-002
<GCONST> 3.340847e+001
<TRANSP> 10
 0.000000e+000 1.000000e+000 0.000000e+000 0.000000e+000 0.000000e+000 0.000000e+000 0.000000e+000 0.000000e+000 0.000000e+000 0.000000e+000
 0.000000e+000 8.426741e-001 1.573259e-001 0.000000e+000 0.000000e+000 0.000000e+000 0.000000e+000 0.000000e+000 0.000000e+000 0.000000e+000
 0.000000e+000 0.000000e+000 8.426744e-001 1.573255e-001 0.000000e+000 0.000000e+000 0.000000e+000 0.000000e+000 0.000000e+000 0.000000e+000
 0.000000e+000 0.000000e+000 0.000000e+000 8.426741e-001 1.573259e-001 0.000000e+000 0.000000e+000 0.000000e+000 0.000000e+000 0.000000e+000
 0.000000e+000 0.000000e+000 0.000000e+000 0.000000e+000 8.426743e-001 1.573258e-001 0.000000e+000 0.000000e+000 0.000000e+000 0.000000e+000
 0.000000e+000 0.000000e+000 0.000000e+000 0.000000e+000 0.000000e+000 8.426743e-001 1.573257e-001 0.000000e+000 0.000000e+000 0.000000e+000
 0.000000e+000 0.000000e+000 0.000000e+000 0.000000e+000 0.000000e+000 0.000000e+000 8.426740e-001 1.573260e-001 0.000000e+000 0.000000e+000
 0.000000e+000 0.000000e+000 0.000000e+000 0.000000e+000 0.000000e+000 0.000000e+000 0.000000e+000 8.426745e-001 1.573255e-001 0.000000e+000
 0.000000e+000 0.000000e+000 0.000000e+000 0.000000e+000 0.000000e+000 0.000000e+000 0.000000e+000 0.000000e+000 9.765783e-001 2.342171e-002
 0.000000e+000 0.000000e+000 0.000000e+000 0.000000e+000 0.000000e+000 0.000000e+000 0.000000e+000 0.000000e+000 0.000000e+000 0.000000e+000
<ENDHMM>
