~o
<STREAMINFO> 1 16
<VECSIZE> 16<NULLD><FBANK><DIAGC>
~h "ctyri"
<BEGINHMM>
<NUMSTATES> 10
<STATE> 2
<MEAN> 16
 5.815476e+000 6.162257e+000 6.564142e+000 6.680987e+000 6.594574e+000 6.698363e+000 6.887457e+000 7.218691e+000 7.788299e+000 7.862619e+000 7.980510e+000 8.246091e+000 8.544331e+000 8.491014e+000 8.308547e+000 8.276563e+000
<VARIANCE> 16
 2.452639e-001 8.236207e-001 1.860201e+000 1.565138e+000 6.087688e-001 4.120763e-001 4.187740e-001 7.867887e-001 1.534293e+000 2.007486e+000 1.854910e+000 2.099232e+000 2.488130e+000 1.893741e+000 8.186811e-001 3.205972e-001
<GCONST> 2.907896e+001
<STATE> 3
<MEAN> 16
 5.845904e+000 6.245062e+000 6.697845e+000 6.804199e+000 6.666049e+000 6.751597e+000 6.943409e+000 7.302433e+000 7.913381e+000 8.018013e+000 8.128963e+000 8.405089e+000 8.721312e+000 8.636648e+000 8.388433e+000 8.317108e+000
<VARIANCE> 16
 2.621306e-001 9.171587e-001 2.103553e+000 1.788424e+000 6.967509e-001 4.700465e-001 4.730628e-001 8.819695e-001 1.715113e+000 2.235709e+000 2.064138e+000 2.312223e+000 2.738452e+000 2.084494e+000 8.986499e-001 3.494666e-001
<GCONST> 3.080590e+001
<STATE> 4
<MEAN> 16
 5.877923e+000 6.331511e+000 6.837892e+000 6.934076e+000 6.741756e+000 6.807601e+000 7.001659e+000 7.389229e+000 8.042484e+000 8.179058e+000 8.282202e+000 8.567984e+000 8.902922e+000 8.784854e+000 8.467479e+000 8.356938e+000
<VARIANCE> 16
 2.768309e-001 9.994407e-001 2.320752e+000 1.992281e+000 7.789984e-001 5.248937e-001 5.229910e-001 9.651209e-001 1.869790e+000 2.423161e+000 2.236464e+000 2.480385e+000 2.933359e+000 2.236686e+000 9.654657e-001 3.740965e-001
<GCONST> 3.216127e+001
<STATE> 5
<MEAN> 16
 5.910031e+000 6.418479e+000 6.979295e+000 7.066374e+000 6.818940e+000 6.864668e+000 7.060216e+000 7.475485e+000 8.170547e+000 8.339079e+000 8.433507e+000 8.727464e+000 9.081246e+000 8.928660e+000 8.541461e+000 8.393945e+000
<VARIANCE> 16
 2.885889e-001 1.066344e+000 2.501348e+000 2.167085e+000 8.523442e-001 5.742599e-001 5.666637e-001 1.033199e+000 1.992143e+000 2.562102e+000 2.365063e+000 2.596843e+000 3.064930e+000 2.344971e+000 1.016586e+000 3.933426e-001
<GCONST> 3.316877e+001
<STATE> 6
<MEAN> 16
 5.940261e+000 6.501750e+000 7.115560e+000 7.195416e+000 6.894257e+000 6.920262e+000 7.116323e+000 7.556726e+000 8.291205e+000 8.489852e+000 8.574757e+000 8.874302e+000 9.246207e+000 9.059524e+000 8.605363e+000 8.425488e+000
<VARIANCE> 16
 2.970036e-001 1.115360e+000 2.639034e+000 2.306612e+000 9.145465e-001 6.165282e-001 6.028916e-001 1.084814e+000 2.079731e+000 2.652366e+000 2.450233e+000 2.663625e+000 3.136147e+000 2.411012e+000 1.051082e+000 4.064090e-001
<GCONST> 3.386583e+001
<STATE> 7
<MEAN> 16
 5.966309e+000 6.576218e+000 7.238861e+000 7.313993e+000 6.963634e+000 6.971091e+000 7.166501e+000 7.627645e+000 8.396834e+000 8.621872e+000 8.696832e+000 8.998077e+000 9.386224e+000 9.167960e+000 8.653790e+000 8.448593e+000
<VARIANCE> 16
 3.021209e-001 1.146073e+000 2.732454e+000 2.409206e+000 9.645013e-001 6.508427e-001 6.311969e-001 1.120382e+000 2.134562e+000 2.702143e+000 2.500060e+000 2.692435e+000 3.162251e+000 2.444092e+000 1.070040e+000 4.129883e-001
<GCONST> 3.430523e+001
<STATE> 8
<MEAN> 16
 5.985868e+000 6.636312e+000 7.340609e+000 7.413877e+000 7.022398e+000 7.013395e+000 7.206796e+000 7.682490e+000 8.479138e+000 8.725222e+000 8.790542e+000 9.088603e+000 9.489792e+000 9.244824e+000 8.681871e+000 8.460518e+000
<VARIANCE> 16
 3.042956e-001 1.160202e+000 2.785283e+000 2.477648e+000 1.002274e+000 6.768892e-001 6.516477e-001 1.141922e+000 2.162691e+000 2.726216e+000 2.528302e+000 2.701578e+000 3.166935e+000 2.458488e+000 1.076043e+000 4.132282e-001
<GCONST> 3.455051e+001
<STATE> 9
<MEAN> 16
 5.961483e+000 6.633530e+000 7.377190e+000 7.470845e+000 7.057532e+000 7.022931e+000 7.190697e+000 7.638336e+000 8.431697e+000 8.699780e+000 8.751837e+000 8.990802e+000 9.393466e+000 9.124426e+000 8.542405e+000 8.372395e+000
<VARIANCE> 16
 2.850693e-001 1.091355e+000 2.690994e+000 2.477798e+000 1.035164e+000 6.790559e-001 6.400418e-001 1.104105e+000 2.084354e+000 2.761806e+000 2.586367e+000 2.730701e+000 3.214868e+000 2.447104e+000 9.777728e-001 3.497236e-001
<GCONST> 3.413079e+001
<TRANSP> 10
 0.000000e+000 1.000000e+000 0.000000e+000 0.000000e+000 0.000000e+000 0.000000e+000 0.000000e+000 0.000000e+000 0.000000e+000 0.000000e+000
 0.000000e+000 8.426741e-001 1.573259e-001 0.000000e+000 0.000000e+000 0.000000e+000 0.000000e+000 0.000000e+000 0.000000e+000 0.000000e+000
 0.000000e+000 0.000000e+000 8.426744e-001 1.573255e-001 0.000000e+000 0.000000e+000 0.000000e+000 0.000000e+000 0.000000e+000 0.000000e+000
 0.000000e+000 0.000000e+000 0.000000e+000 8.426741e-001 1.573259e-001 0.000000e+000 0.000000e+000 0.000000e+000 0.000000e+000 0.000000e+000
 0.000000e+000 0.000000e+000 0.000000e+000 0.000000e+000 8.426743e-001 1.573258e-001 0.000000e+000 0.000000e+000 0.000000e+000 0.000000e+000
 0.000000e+000 0.000000e+000 0.000000e+000 0.000000e+000 0.000000e+000 8.426743e-001 1.573257e-001 0.000000e+000 0.000000e+000 0.000000e+000
 0.000000e+000 0.000000e+000 0.000000e+000 0.000000e+000 0.000000e+000 0.000000e+000 8.426740e-001 1.573260e-001 0.000000e+000 0.000000e+000
 0.000000e+000 0.000000e+000 0.000000e+000 0.000000e+000 0.000000e+000 0.000000e+000 0.000000e+000 8.426745e-001 1.573255e-001 0.000000e+000
 0.000000e+000 0.000000e+000 0.000000e+000 0.000000e+000 0.000000e+000 0.000000e+000 0.000000e+000 0.000000e+000 9.765783e-001 2.342171e-002
 0.000000e+000 0.000000e+000 0.000000e+000 0.000000e+000 0.000000e+000 0.000000e+000 0.000000e+000 0.000000e+000 0.000000e+000 0.000000e+000
<ENDHMM>
~h "sedm"
<BEGINHMM>
<NUMSTATES> 10
<STATE> 2
<MEAN> 16
 5.891304e+000 6.253170e+000 6.586905e+000 6.802985e+000 6.825289e+000 6.899524e+000 7.089004e+000 7.387888e+000 7.725852e+000 7.652823e+000 7.804328e+000 8.025990e+000 8.387714e+000 8.379071e+000 8.236192e+000 8.308693e+000
<VARIANCE> 16
 2.844369e-001 9.784135e-001 1.682551e+000 1.826119e+000 1.317518e+000 8.910712e-001 9.356382e-001 1.383293e+000 1.332481e+000 1.273219e+000 1.397650e+000 1.399257e+000 1.841446e+000 1.449013e+000 7.041492e-001 4.583793e-001
<GCONST> 3.071777e+001
<STATE> 3
<MEAN> 16
 5.931358e+000 6.350573e+000 6.711340e+000 6.929125e+000 6.924737e+000 6.983049e+000 7.175947e+000 7.492305e+000 7.824090e+000 7.758742e+000 7.906726e+000 8.136040e+000 8.519118e+000 8.484777e+000 8.289095e+000 8.342543e+000
<VARIANCE> 16
 3.068616e-001 1.091941e+000 1.868430e+000 2.024090e+000 1.459401e+000 9.853559e-001 1.038657e+000 1.527722e+000 1.472496e+000 1.406048e+000 1.550599e+000 1.553836e+000 1.995768e+000 1.551744e+000 7.553930e-001 4.938926e-001
<GCONST> 3.221939e+001
<STATE> 4
<MEAN> 16
 5.971571e+000 6.453150e+000 6.839997e+000 7.058756e+000 7.026298e+000 7.069001e+000 7.265238e+000 7.597840e+000 7.922744e+000 7.865856e+000 8.009418e+000 8.246961e+000 8.648619e+000 8.585979e+000 8.336453e+000 8.371948e+000
<VARIANCE> 16
 3.271455e-001 1.190006e+000 2.026888e+000 2.192900e+000 1.581802e+000 1.065288e+000 1.127791e+000 1.651224e+000 1.592859e+000 1.517823e+000 1.684327e+000 1.688581e+000 2.115205e+000 1.624736e+000 7.933414e-001 5.220390e-001
<GCONST> 3.337900e+001
<STATE> 5
<MEAN> 16
 6.010601e+000 6.556644e+000 6.967553e+000 7.186333e+000 7.125524e+000 7.153067e+000 7.352293e+000 7.698921e+000 8.016444e+000 7.968353e+000 8.107131e+000 8.352386e+000 8.768341e+000 8.675635e+000 8.373667e+000 8.393597e+000
<VARIANCE> 16
 3.443914e-001 1.267606e+000 2.149638e+000 2.323648e+000 1.678660e+000 1.127541e+000 1.199369e+000 1.747966e+000 1.687862e+000 1.604410e+000 1.792918e+000 1.799264e+000 2.196596e+000 1.665372e+000 8.149363e-001 5.399401e-001
<GCONST> 3.420736e+001
<STATE> 6
<MEAN> 16
 6.046713e+000 6.655513e+000 7.087031e+000 7.304659e+000 7.216711e+000 7.230108e+000 7.431811e+000 7.788931e+000 8.098764e+000 8.059643e+000 8.193820e+000 8.445576e+000 8.870133e+000 8.746857e+000 8.396748e+000 8.404593e+000
<VARIANCE> 16
 3.582259e-001 1.322626e+000 2.232296e+000 2.411292e+000 1.745701e+000 1.170413e+000 1.251317e+000 1.814730e+000 1.754253e+000 1.664783e+000 1.872566e+000 1.884694e+000 2.242255e+000 1.675591e+000 8.190330e-001 5.454901e-001
<GCONST> 3.472765e+001
<STATE> 7
<MEAN> 16
 6.077688e+000 6.743328e+000 7.190117e+000 7.405300e+000 7.293194e+000 7.294545e+000 7.498046e+000 7.860910e+000 8.163191e+000 8.133104e+000 8.263229e+000 8.520185e+000 8.946648e+000 8.793971e+000 8.403199e+000 8.403193e+000
<VARIANCE> 16
 3.687922e-001 1.356471e+000 2.276100e+000 2.456620e+000 1.781743e+000 1.194137e+000 1.283856e+000 1.851809e+000 1.791628e+000 1.701126e+000 1.922355e+000 1.946529e+000 2.259425e+000 1.661161e+000 8.064778e-001 5.378541e-001
<GCONST> 3.497709e+001
<STATE> 8
<MEAN> 16
 6.101074e+000 6.813465e+000 7.268241e+000 7.479763e+000 7.348264e+000 7.341013e+000 7.545572e+000 7.908721e+000 8.204208e+000 8.182994e+000 8.309779e+000 8.571054e+000 8.992397e+000 8.813315e+000 8.392385e+000 8.389182e+000
<VARIANCE> 16
 3.766070e-001 1.373773e+000 2.287853e+000 2.466226e+000 1.788891e+000 1.200608e+000 1.299267e+000 1.862584e+000 1.801836e+000 1.717639e+000 1.943982e+000 1.987930e+000 2.257389e+000 1.629122e+000 7.791682e-001 5.174093e-001
<GCONST> 3.500093e+001
<STATE> 9
<MEAN> 16
 6.082581e+000 6.823607e+000 7.216294e+000 7.406239e+000 7.261906e+000 7.277584e+000 7.489895e+000 7.808390e+000 8.091171e+000 8.094071e+000 8.212444e+000 8.501635e+000 8.850859e+000 8.616514e+000 8.207618e+000 8.242664e+000
<VARIANCE> 16
 3.830799e-001 1.367578e+000 2.129219e+000 2.259831e+000 1.557658e+000 1.068490e+000 1.214779e+000 1.683805e+000 1.580713e+000 1.605119e+000 1.764402e+000 1.958074e+000 2.125264e+000 1.371110e+000 5.445068e-001 3.389078e-001
<GCONST> 3.310611e+001
<TRANSP> 10
 0.000000e+000 1.000000e+000 0.000000e+000 0.000000e+000 0.000000e+000 0.000000e+000 0.000000e+000 0.000000e+000 0.000000e+000 0.000000e+000
 0.000000e+000 8.426741e-001 1.573259e-001 0.000000e+000 0.000000e+000 0.000000e+000 0.000000e+000 0.000000e+000 0.000000e+000 0.000000e+000
 0.000000e+000 0.000000e+000 8.426744e-001 1.573255e-001 0.000000e+000 0.000000e+000 0.000000e+000 0.000000e+000 0.000000e+000 0.000000e+000
 0.000000e+000 0.000000e+000 0.000000e+000 8.426741e-001 1.573259e-001 0.000000e+000 0.000000e+000 0.000000e+000 0.000000e+000 0.000000e+000
 0.000000e+000 0.000000e+000 0.000000e+000 0.000000e+000 8.426743e-001 1.573258e-001 0.000000e+000 0.000000e+000 0.000000e+000 0.000000e+000
 0.000000e+000 0.000000e+000 0.000000e+000 0.000000e+000 0.000000e+000 8.426743e-001 1.573257e-001 0.000000e+000 0.000000e+000 0.000000e+000
 0.000000e+000 0.000000e+000 0.000000e+000 0.000000e+000 0.000000e+000 0.000000e+000 8.426740e-001 1.573260e-001 0.000000e+000 0.000000e+000
 0.000000e+000 0.000000e+000 0.000000e+000 0.000000e+000 0.000000e+000 0.000000e+000 0.000000e+000 8.426745e-001 1.573255e-001 0.000000e+000
 0.000000e+000 0.000000e+000 0.000000e+000 0.000000e+000 0.000000e+000 0.000000e+000 0.000000e+000 0.000000e+000 9.765783e-001 2.342171e-002
 0.000000e+000 0.000000e+000 0.000000e+000 0.000000e+000 0.000000e+000 0.000000e+000 0.000000e+000 0.000000e+000 0.000000e+000 0.000000e+000
<ENDHMM>
~h "sest"
<BEGINHMM>
<NUMSTATES> 10
<STATE> 2
<MEAN> 16
 5.770303e+000 6.009285e+000 6.374608e+000 6.684032e+000 6.776394e+000 6.825384e+000 6.999590e+000 7.384768e+000 7.796217e+000 7.779014e+000 7.960799e+000 8.210205e+000 8.497722e+000 8.510696e+000 8.385238e+000 8.353302e+000
<VARIANCE> 16
 1.991625e-001 4.879674e-001 1.192690e+000 1.781021e+000 1.560827e+000 9.734217e-001 9.209994e-001 1.582891e+000 1.727890e+000 1.805123e+000 1.930824e+000 2.130447e+000 2.378117e+000 1.997902e+000 1.023428e+000 4.814848e-001
<GCONST> 3.202602e+001
<STATE> 3
<MEAN> 16
 5.789147e+000 6.052190e+000 6.451743e+000 6.784856e+000 6.867929e+000 6.893940e+000 7.069275e+000 7.489028e+000 7.907522e+000 7.896540e+000 8.086247e+000 8.347045e+000 8.650824e+000 8.651776e+000 8.480170e+000 8.412684e+000
<VARIANCE> 16
 2.079374e-001 5.374840e-001 1.330176e+000 1.999250e+000 1.769037e+000 1.101164e+000 1.038152e+000 1.765805e+000 1.921085e+000 1.984491e+000 2.123402e+000 2.320727e+000 2.585123e+000 2.174268e+000 1.123698e+000 5.399189e-001
<GCONST> 3.362549e+001
<STATE> 4
<MEAN> 16
 5.807123e+000 6.095169e+000 6.529695e+000 6.887536e+000 6.962390e+000 6.965062e+000 7.140305e+000 7.594631e+000 8.019571e+000 8.014030e+000 8.211986e+000 8.483665e+000 8.804425e+000 8.793341e+000 8.575770e+000 8.473497e+000
<VARIANCE> 16
 2.163922e-001 5.835320e-001 1.455328e+000 2.198009e+000 1.961436e+000 1.219471e+000 1.146228e+000 1.927661e+000 2.089957e+000 2.134267e+000 2.282399e+000 2.468229e+000 2.741951e+000 2.308820e+000 1.204832e+000 5.926535e-001
<GCONST> 3.489697e+001
<STATE> 5
<MEAN> 16
 5.823731e+000 6.135985e+000 6.604651e+000 6.987472e+000 7.055440e+000 7.035204e+000 7.209424e+000 7.696610e+000 8.126593e+000 8.124928e+000 8.331078e+000 8.612388e+000 8.950190e+000 8.927747e+000 8.666688e+000 8.532821e+000
<VARIANCE> 16
 2.244749e-001 6.243922e-001 1.562946e+000 2.368534e+000 2.130103e+000 1.323225e+000 1.240834e+000 2.061982e+000 2.228210e+000 2.249206e+000 2.402234e+000 2.567637e+000 2.843373e+000 2.396422e+000 1.262973e+000 6.370223e-001
<GCONST> 3.585825e+001
<STATE> 6
<MEAN> 16
 5.838003e+000 6.171976e+000 6.671531e+000 7.078713e+000 7.141583e+000 7.099832e+000 7.272528e+000 7.788454e+000 8.221251e+000 8.220996e+000 8.435029e+000 8.724062e+000 9.078270e+000 9.046181e+000 8.746897e+000 8.587169e+000
<VARIANCE> 16
 2.317999e-001 6.581227e-001 1.648448e+000 2.503238e+000 2.268424e+000 1.408229e+000 1.318208e+000 2.164647e+000 2.332626e+000 2.328270e+000 2.482800e+000 2.620913e+000 2.892834e+000 2.439326e+000 1.297863e+000 6.716111e-001
<GCONST> 3.653479e+001
<STATE> 7
<MEAN> 16
 5.848561e+000 6.199949e+000 6.724453e+000 7.154107e+000 7.214385e+000 7.153810e+000 7.324765e+000 7.862634e+000 8.295414e+000 8.293396e+000 8.514977e+000 8.809304e+000 9.178592e+000 9.139803e+000 8.810578e+000 8.632933e+000
<VARIANCE> 16
 2.378036e-001 6.828917e-001 1.708160e+000 2.596905e+000 2.371750e+000 1.471517e+000 1.375636e+000 2.234404e+000 2.403393e+000 2.374729e+000 2.529173e+000 2.637056e+000 2.902268e+000 2.447363e+000 1.313031e+000 6.965444e-001
<GCONST> 3.696139e+001
<STATE> 8
<MEAN> 16
 5.853903e+000 6.216559e+000 6.757690e+000 7.206257e+000 7.267201e+000 7.192044e+000 7.361102e+000 7.911740e+000 8.341512e+000 8.334287e+000 8.563180e+000 8.859999e+000 9.242354e+000 9.201016e+000 8.852901e+000 8.666789e+000
<VARIANCE> 16
 2.419014e-001 6.972218e-001 1.739368e+000 2.647146e+000 2.437367e+000 1.511298e+000 1.411579e+000 2.272308e+000 2.442931e+000 2.393843e+000 2.548765e+000 2.628244e+000 2.887863e+000 2.434602e+000 1.314283e+000 7.131922e-001
<GCONST> 3.717617e+001
<STATE> 9
<MEAN> 16
 5.802676e+000 6.122770e+000 6.616584e+000 7.069642e+000 7.170001e+000 7.109510e+000 7.268291e+000 7.760087e+000 8.159268e+000 8.104808e+000 8.356646e+000 8.630775e+000 9.038036e+000 9.045094e+000 8.761555e+000 8.639221e+000
<VARIANCE> 16
 2.254750e-001 6.109173e-001 1.499002e+000 2.330475e+000 2.213952e+000 1.363522e+000 1.272866e+000 2.038945e+000 2.214754e+000 2.137213e+000 2.327509e+000 2.366022e+000 2.679797e+000 2.291551e+000 1.243931e+000 7.175047e-001
<GCONST> 3.569504e+001
<TRANSP> 10
 0.000000e+000 1.000000e+000 0.000000e+000 0.000000e+000 0.000000e+000 0.000000e+000 0.000000e+000 0.000000e+000 0.000000e+000 0.000000e+000
 0.000000e+000 8.426741e-001 1.573259e-001 0.000000e+000 0.000000e+000 0.000000e+000 0.000000e+000 0.000000e+000 0.000000e+000 0.000000e+000
 0.000000e+000 0.000000e+000 8.426744e-001 1.573255e-001 0.000000e+000 0.000000e+000 0.000000e+000 0.000000e+000 0.000000e+000 0.000000e+000
 0.000000e+000 0.000000e+000 0.000000e+000 8.426741e-001 1.573259e-001 0.000000e+000 0.000000e+000 0.000000e+000 0.000000e+000 0.000000e+000
 0.000000e+000 0.000000e+000 0.000000e+000 0.000000e+000 8.426743e-001 1.573258e-001 0.000000e+000 0.000000e+000 0.000000e+000 0.000000e+000
 0.000000e+000 0.000000e+000 0.000000e+000 0.000000e+000 0.000000e+000 8.426743e-001 1.573257e-001 0.000000e+000 0.000000e+000 0.000000e+000
 0.000000e+000 0.000000e+000 0.000000e+000 0.000000e+000 0.000000e+000 0.000000e+000 8.426740e-001 1.573260e-001 0.000000e+000 0.000000e+000
 0.000000e+000 0.000000e+000 0.000000e+000 0.000000e+000 0.000000e+000 0.000000e+000 0.000000e+000 8.426745e-001 1.573255e-001 0.000000e+000
 0.000000e+000 0.000000e+000 0.000000e+000 0.000000e+000 0.000000e+000 0.000000e+000 0.000000e+000 0.000000e+000 9.765783e-001 2.342171e-002
 0.000000e+000 0.000000e+000 0.000000e+000 0.000000e+000 0.000000e+000 0.000000e+000 0.000000e+000 0.000000e+000 0.000000e+000 0.000000e+000
<ENDHMM>
~h "dva"
<BEGINHMM>
<NUMSTATES> 10
<STATE> 2
<MEAN> 16
 5.775493e+000 6.131923e+000 6.453090e+000 6.779621e+000 6.952046e+000 7.116601e+000 7.320746e+000 7.335690e+000 7.486046e+000 7.487022e+000 7.595559e+000 7.836733e+000 8.105429e+000 8.057209e+000 7.918959e+000 8.036136e+000
<VARIANCE> 16
 3.405606e-001 6.163056e-001 1.100205e+000 1.810555e+000 2.358452e+000 2.176562e+000 2.342600e+000 1.777825e+000 9.599192e-001 1.251215e+000 1.238464e+000 1.435724e+000 1.682565e+000 9.426318e-001 1.707534e-001 1.101985e-001
<GCONST> 2.884338e+001
<STATE> 3
<MEAN> 16
 5.802640e+000 6.187222e+000 6.530508e+000 6.884521e+000 7.075632e+000 7.241030e+000 7.446912e+000 7.440403e+000 7.557458e+000 7.571939e+000 7.679390e+000 7.926969e+000 8.204081e+000 8.125332e+000 7.939411e+000 8.045905e+000
<VARIANCE> 16
 3.646486e-001 6.706492e-001 1.211346e+000 2.002237e+000 2.640272e+000 2.453256e+000 2.637517e+000 2.020695e+000 1.075707e+000 1.410145e+000 1.424418e+000 1.643798e+000 1.924131e+000 1.071403e+000 1.940757e-001 1.187650e-001
<GCONST> 3.064605e+001
<STATE> 4
<MEAN> 16
 5.831397e+000 6.241665e+000 6.607086e+000 6.989432e+000 7.202100e+000 7.368362e+000 7.576329e+000 7.548906e+000 7.629908e+000 7.659228e+000 7.768020e+000 8.022209e+000 8.308484e+000 8.196475e+000 7.961370e+000 8.056896e+000
<VARIANCE> 16
 3.864028e-001 7.190867e-001 1.311543e+000 2.172926e+000 2.892390e+000 2.706387e+000 2.908907e+000 2.251183e+000 1.183478e+000 1.557026e+000 1.603178e+000 1.841987e+000 2.156204e+000 1.195636e+000 2.176767e-001 1.268584e-001
<GCONST> 3.216126e+001
<STATE> 5
<MEAN> 16
 5.860166e+000 6.292542e+000 6.678417e+000 7.088799e+000 7.325026e+000 7.492544e+000 7.702462e+000 7.656088e+000 7.699639e+000 7.744315e+000 7.857868e+000 8.118323e+000 8.413828e+000 8.266546e+000 7.983742e+000 8.068355e+000
<VARIANCE> 16
 4.045494e-001 7.593822e-001 1.395397e+000 2.313012e+000 3.102782e+000 2.926460e+000 3.145857e+000 2.460500e+000 1.279163e+000 1.686464e+000 1.768389e+000 2.023288e+000 2.369832e+000 1.310483e+000 2.407191e-001 1.343698e-001
<GCONST> 3.339563e+001
<STATE> 6
<MEAN> 16
 5.886549e+000 6.336268e+000 6.739471e+000 7.176147e+000 7.437076e+000 7.606684e+000 7.817821e+000 7.756104e+000 7.762715e+000 7.821846e+000 7.944180e+000 8.210000e+000 8.514105e+000 8.331026e+000 8.005018e+000 8.079504e+000
<VARIANCE> 16
 4.184702e-001 7.905344e-001 1.459827e+000 2.417231e+000 3.264365e+000 3.107862e+000 3.342052e+000 2.642395e+000 1.359564e+000 1.794783e+000 1.914868e+000 2.182232e+000 2.558226e+000 1.412219e+000 2.623722e-001 1.411209e-001
<GCONST> 3.436645e+001
<STATE> 7
<MEAN> 16
 5.907965e+000 6.369019e+000 6.785017e+000 7.244688e+000 7.530612e+000 7.703630e+000 7.914639e+000 7.842461e+000 7.814943e+000 7.886131e+000 8.021167e+000 8.290925e+000 8.602403e+000 8.385280e+000 8.023583e+000 8.089548e+000
<VARIANCE> 16
 4.280831e-001 8.125723e-001 1.504414e+000 2.485457e+000 3.375938e+000 3.248715e+000 3.495747e+000 2.792881e+000 1.422620e+000 1.880077e+000 2.038291e+000 2.314492e+000 2.716526e+000 1.498190e+000 2.819100e-001 1.468828e-001
<GCONST> 3.509690e+001
<STATE> 8
<MEAN> 16
 5.922155e+000 6.387410e+000 6.810433e+000 7.288263e+000 7.598417e+000 7.776482e+000 7.985493e+000 7.908363e+000 7.852114e+000 7.931659e+000 8.082400e+000 8.354207e+000 8.671355e+000 8.424821e+000 8.037934e+000 8.097666e+000
<VARIANCE> 16
 4.336720e-001 8.261197e-001 1.530458e+000 2.521152e+000 3.440927e+000 3.349516e+000 3.608025e+000 2.909415e+000 1.467160e+000 1.941550e+000 2.134956e+000 2.416337e+000 2.840897e+000 1.566214e+000 2.986891e-001 1.514019e-001
<GCONST> 3.560963e+001
<STATE> 9
<MEAN> 16
 5.888068e+000 6.286059e+000 6.666545e+000 7.139674e+000 7.510224e+000 7.720355e+000 7.902068e+000 7.856154e+000 7.787438e+000 7.846826e+000 8.053689e+000 8.306649e+000 8.624383e+000 8.367709e+000 8.034326e+000 8.097956e+000
<VARIANCE> 16
 4.225178e-001 7.947887e-001 1.448620e+000 2.358998e+000 3.255578e+000 3.304106e+000 3.589412e+000 2.920398e+000 1.408938e+000 1.884614e+000 2.145053e+000 2.382847e+000 2.858816e+000 1.583693e+000 3.306876e-001 1.533673e-001
<GCONST> 3.540561e+001
<TRANSP> 10
 0.000000e+000 1.000000e+000 0.000000e+000 0.000000e+000 0.000000e+000 0.000000e+000 0.000000e+000 0.000000e+000 0.000000e+000 0.000000e+000
 0.000000e+000 8.426741e-001 1.573259e-001 0.000000e+000 0.000000e+000 0.000000e+000 0.000000e+000 0.000000e+000 0.000000e+000 0.000000e+000
 0.000000e+000 0.000000e+000 8.426744e-001 1.573255e-001 0.000000e+000 0.000000e+000 0.000000e+000 0.000000e+000 0.000000e+000 0.000000e+000
 0.000000e+000 0.000000e+000 0.000000e+000 8.426741e-001 1.573259e-001 0.000000e+000 0.000000e+000 0.000000e+000 0.000000e+000 0.000000e+000
 0.000000e+000 0.000000e+000 0.000000e+000 0.000000e+000 8.426743e-001 1.573258e-001 0.000000e+000 0.000000e+000 0.000000e+000 0.000000e+000
 0.000000e+000 0.000000e+000 0.000000e+000 0.000000e+000 0.000000e+000 8.426743e-001 1.573257e-001 0.000000e+000 0.000000e+000 0.000000e+000
 0.000000e+000 0.000000e+000 0.000000e+000 0.000000e+000 0.000000e+000 0.000000e+000 8.426740e-001 1.573260e-001 0.000000e+000 0.000000e+000
 0.000000e+000 0.000000e+000 0.000000e+000 0.000000e+000 0.000000e+000 0.000000e+000 0.000000e+000 8.426745e-001 1.573255e-001 0.000000e+000
 0.000000e+000 0.000000e+000 0.000000e+000 0.000000e+000 0.000000e+000 0.000000e+000 0.000000e+000 0.000000e+000 9.765783e-001 2.342171e-002
 0.000000e+000 0.000000e+000 0.000000e+000 0.000000e+000 0.000000e+000 0.000000e+000 0.000000e+000 0.000000e+000 0.000000e+000 0.000000e+000
<ENDHMM>
~h "osm"
<BEGINHMM>
<NUMSTATES> 10
<STATE> 2
<MEAN> 16
 5.783903e+000 6.141523e+000 6.540105e+000 6.799397e+000 6.893665e+000 7.082524e+000 7.150749e+000 7.180578e+000 7.433379e+000 7.442199e+000 7.670575e+000 7.984762e+000 8.295178e+000 8.246329e+000 8.142646e+000 8.246387e+000
<VARIANCE> 16
 3.383378e-001 8.389484e-001 1.675227e+000 2.046696e+000 1.854154e+000 1.845443e+000 1.452345e+000 9.232200e-001 6.554138e-001 8.248257e-001 1.148606e+000 1.687693e+000 2.028035e+000 1.456949e+000 7.550520e-001 5.868082e-001
<GCONST> 3.121855e+001
<STATE> 3
<MEAN> 16
 5.822955e+000 6.227390e+000 6.661253e+000 6.933253e+000 7.011638e+000 7.205455e+000 7.258593e+000 7.267926e+000 7.506780e+000 7.532112e+000 7.771647e+000 8.111486e+000 8.438148e+000 8.359007e+000 8.206189e+000 8.295053e+000
<VARIANCE> 16
 3.584096e-001 9.412134e-001 1.870223e+000 2.265139e+000 2.035388e+000 2.027708e+000 1.615324e+000 1.032220e+000 7.304004e-001 9.273329e-001 1.286650e+000 1.886360e+000 2.247910e+000 1.613395e+000 8.527867e-001 6.639737e-001
<GCONST> 3.290857e+001
<STATE> 4
<MEAN> 16
 5.864257e+000 6.319304e+000 6.789458e+000 7.073109e+000 7.132799e+000 7.332148e+000 7.370931e+000 7.359715e+000 7.583938e+000 7.626978e+000 7.877567e+000 8.245285e+000 8.588444e+000 8.476054e+000 8.271281e+000 8.345276e+000
<VARIANCE> 16
 3.759594e-001 1.032559e+000 2.037931e+000 2.445850e+000 2.184543e+000 2.176531e+000 1.756729e+000 1.129704e+000 7.977471e-001 1.018034e+000 1.408303e+000 2.056415e+000 2.429040e+000 1.744329e+000 9.435237e-001 7.366778e-001
<GCONST> 3.424606e+001
<STATE> 5
<MEAN> 16
 5.905599e+000 6.413190e+000 6.918711e+000 7.212296e+000 7.251335e+000 7.456669e+000 7.483457e+000 7.452952e+000 7.662140e+000 7.723298e+000 7.984556e+000 8.381030e+000 8.739620e+000 8.592200e+000 8.335112e+000 8.394737e+000
<VARIANCE> 16
 3.901082e-001 1.107703e+000 2.168484e+000 2.578872e+000 2.293263e+000 2.283400e+000 1.868409e+000 1.210470e+000 8.541038e-001 1.091844e+000 1.506926e+000 2.188486e+000 2.561018e+000 1.843063e+000 1.024185e+000 8.028210e-001
<GCONST> 3.523966e+001
<STATE> 6
<MEAN> 16
 5.944637e+000 6.504053e+000 7.041494e+000 7.342711e+000 7.360001e+000 7.571502e+000 7.589994e+000 7.543071e+000 7.737554e+000 7.816185e+000 8.087118e+000 8.511507e+000 8.883079e+000 8.700480e+000 8.394001e+000 8.440508e+000
<VARIANCE> 16
 4.001622e-001 1.163654e+000 2.257074e+000 2.659497e+000 2.355793e+000 2.343439e+000 1.944909e+000 1.270775e+000 8.973368e-001 1.146093e+000 1.578408e+000 2.277393e+000 2.639332e+000 1.906422e+000 1.092291e+000 8.606584e-001
<GCONST> 3.590872e+001
<STATE> 7
<MEAN> 16
 5.978837e+000 6.586368e+000 7.149620e+000 7.455454e+000 7.450531e+000 7.668118e+000 7.683002e+000 7.624026e+000 7.805326e+000 7.899633e+000 8.178245e+000 8.627652e+000 9.008635e+000 8.792737e+000 8.443464e+000 8.479110e+000
<VARIANCE> 16
 4.059552e-001 1.200479e+000 2.305057e+000 2.689412e+000 2.370463e+000 2.356860e+000 1.984925e+000 1.309610e+000 9.271235e-001 1.181389e+000 1.622279e+000 2.323963e+000 2.667467e+000 1.935803e+000 1.145913e+000 9.085017e-001
<GCONST> 3.628742e+001
<STATE> 8
<MEAN> 16
 6.005691e+000 6.654651e+000 7.235105e+000 7.541661e+000 7.514585e+000 7.738022e+000 7.754665e+000 7.689139e+000 7.860173e+000 7.967196e+000 8.250252e+000 8.719639e+000 9.105798e+000 8.860702e+000 8.478683e+000 8.506811e+000
<VARIANCE> 16
 4.079623e-001 1.221258e+000 2.319402e+000 2.676613e+000 2.340606e+000 2.329242e+000 1.991525e+000 1.329238e+000 9.450349e-001 1.201449e+000 1.641888e+000 2.335125e+000 2.656761e+000 1.936803e+000 1.183363e+000 9.443138e-001
<GCONST> 3.642477e+001
<STATE> 9
<MEAN> 16
 6.013830e+000 6.726520e+000 7.253802e+000 7.504991e+000 7.399446e+000 7.646573e+000 7.729544e+000 7.702647e+000 7.875049e+000 7.986722e+000 8.234756e+000 8.707561e+000 9.081063e+000 8.784266e+000 8.393711e+000 8.438969e+000
<VARIANCE> 16
 3.914312e-001 1.225989e+000 2.202516e+000 2.382316e+000 1.873093e+000 1.933226e+000 1.765692e+000 1.283648e+000 9.344327e-001 1.207859e+000 1.552518e+000 2.167471e+000 2.452326e+000 1.734775e+000 1.084296e+000 8.727005e-001
<GCONST> 3.516170e+001
<TRANSP> 10
 0.000000e+000 1.000000e+000 0.000000e+000 0.000000e+000 0.000000e+000 0.000000e+000 0.000000e+000 0.000000e+000 0.000000e+000 0.000000e+000
 0.000000e+000 8.426741e-001 1.573259e-001 0.000000e+000 0.000000e+000 0.000000e+000 0.000000e+000 0.000000e+000 0.000000e+000 0.000000e+000
 0.000000e+000 0.000000e+000 8.426744e-001 1.573255e-001 0.000000e+000 0.000000e+000 0.000000e+000 0.000000e+000 0.000000e+000 0.000000e+000
 0.000000e+000 0.000000e+000 0.000000e+000 8.426741e-001 1.573259e-001 0.000000e+000 0.000000e+000 0.000000e+000 0.000000e+000 0.000000e+000
 0.000000e+000 0.000000e+000 0.000000e+000 0.000000e+000 8.426743e-001 1.573258e-001 0.000000e+000 0.000000e+000 0.000000e+000 0.000000e+000
 0.000000e+000 0.000000e+000 0.000000e+000 0.000000e+000 0.000000e+000 8.426743e-001 1.573257e-001 0.000000e+000 0.000000e+000 0.000000e+000
 0.000000e+000 0.000000e+000 0.000000e+000 0.000000e+000 0.000000e+000 0.000000e+000 8.426740e-001 1.573260e-001 0.000000e+000 0.000000e+000
 0.000000e+000 0.000000e+000 0.000000e+000 0.000000e+000 0.000000e+000 0.000000e+000 0.000000e+000 8.426745e-001 1.573255e-001 0.000000e+000
 0.000000e+000 0.000000e+000 0.000000e+000 0.000000e+000 0.000000e+000 0.000000e+000 0.000000e+000 0.000000e+000 9.765783e-001 2.342171e-002
 0.000000e+000 0.000000e+000 0.000000e+000 0.000000e+000 0.000000e+000 0.000000e+000 0.000000e+000 0.000000e+000 0.000000e+000 0.000000e+000
<ENDHMM>
~h "pet"
<BEGINHMM>
<NUMSTATES> 10
<STATE> 2
<MEAN> 16
 5.833209e+000 6.081633e+000 6.497545e+000 6.762285e+000 6.777138e+000 6.797653e+000 6.962986e+000 7.288731e+000 7.730966e+000 7.668577e+000 7.760025e+000 7.892984e+000 8.144440e+000 8.097537e+000 7.958163e+000 8.083215e+000
<VARIANCE> 16
 2.533135e-001 5.945225e-001 1.549171e+000 1.998765e+000 1.475127e+000 7.797530e-001 7.534627e-001 1.299006e+000 1.759472e+000 2.012368e+000 1.753248e+000 1.599052e+000 1.737679e+000 1.093766e+000 1.567103e-001 8.528956e-002
<GCONST> 2.738397e+001
<STATE> 3
<MEAN> 16
 5.852450e+000 6.131664e+000 6.590753e+000 6.876814e+000 6.872195e+000 6.861176e+000 7.025661e+000 7.379548e+000 7.836655e+000 7.779929e+000 7.865292e+000 7.993749e+000 8.251397e+000 8.175384e+000 7.984024e+000 8.094168e+000
<VARIANCE> 16
 2.659798e-001 6.455168e-001 1.710917e+000 2.227449e+000 1.668751e+000 8.849027e-001 8.492936e-001 1.451913e+000 1.970203e+000 2.254594e+000 1.984130e+000 1.819166e+000 1.957366e+000 1.231798e+000 1.761381e-001 9.094080e-002
<GCONST> 2.910192e+001
<STATE> 4
<MEAN> 16
 5.870970e+000 6.181143e+000 6.683856e+000 6.993779e+000 6.970432e+000 6.925968e+000 7.089490e+000 7.471720e+000 7.944258e+000 7.892910e+000 7.973310e+000 8.097562e+000 8.360880e+000 8.254459e+000 8.010398e+000 8.105356e+000
<VARIANCE> 16
 2.777419e-001 6.902410e-001 1.852818e+000 2.428150e+000 1.846584e+000 9.845521e-001 9.384561e-001 1.588495e+000 2.157371e+000 2.471661e+000 2.195459e+000 2.022350e+000 2.155847e+000 1.358065e+000 1.946069e-001 9.617059e-002
<GCONST> 3.051541e+001
<STATE> 5
<MEAN> 16
 5.887572e+000 6.226911e+000 6.771934e+000 7.107406e+000 7.067478e+000 6.989377e+000 7.151649e+000 7.561033e+000 8.048515e+000 8.002042e+000 8.079183e+000 8.200042e+000 8.467820e+000 8.330812e+000 8.035997e+000 8.116202e+000
<VARIANCE> 16
 2.873831e-001 7.263888e-001 1.968546e+000 2.592563e+000 2.001829e+000 1.074960e+000 1.017385e+000 1.702274e+000 2.312825e+000 2.654521e+000 2.379037e+000 2.201037e+000 2.325570e+000 1.467422e+000 2.111691e-001 1.004338e-001
<GCONST> 3.162939e+001
<STATE> 6
<MEAN> 16
 5.900801e+000 6.265303e+000 6.848634e+000 7.210389e+000 7.157816e+000 7.048004e+000 7.208431e+000 7.641953e+000 8.142750e+000 8.100503e+000 8.176897e+000 8.295762e+000 8.565996e+000 8.399595e+000 8.059243e+000 8.125895e+000
<VARIANCE> 16
 2.936493e-001 7.519633e-001 2.053631e+000 2.715208e+000 2.129323e+000 1.152732e+000 1.082999e+000 1.788671e+000 2.431123e+000 2.796247e+000 2.528444e+000 2.349293e+000 2.460750e+000 1.555561e+000 2.250080e-001 1.031926e-001
<GCONST> 3.245110e+001
<STATE> 7
<MEAN> 16
 5.909023e+000 6.292549e+000 6.906958e+000 7.294497e+000 7.234926e+000 7.097650e+000 7.255394e+000 7.708062e+000 8.219436e+000 8.180509e+000 8.259362e+000 8.378203e+000 8.648201e+000 8.455321e+000 8.078362e+000 8.133465e+000
<VARIANCE> 16
 2.954899e-001 7.654653e-001 2.105728e+000 2.793799e+000 2.225744e+000 1.214972e+000 1.132933e+000 1.845649e+000 2.510139e+000 2.892879e+000 2.639784e+000 2.463214e+000 2.557941e+000 1.619397e+000 2.355606e-001 1.040475e-001
<GCONST> 3.299147e+001
<STATE> 8
<MEAN> 16
 5.910691e+000 6.305322e+000 6.940434e+000 7.351639e+000 7.291963e+000 7.133754e+000 7.287944e+000 7.752991e+000 8.271245e+000 8.234334e+000 8.319193e+000 8.440323e+000 8.707001e+000 8.492579e+000 8.091667e+000 8.138013e+000
<VARIANCE> 16
 2.922963e-001 7.660422e-001 2.124114e+000 2.828894e+000 2.289165e+000 1.259247e+000 1.165468e+000 1.873474e+000 2.550411e+000 2.943188e+000 2.711321e+000 2.540684e+000 2.615931e+000 1.657105e+000 2.425169e-001 1.028552e-001
<GCONST> 3.326358e+001
<STATE> 9
<MEAN> 16
 5.837813e+000 6.175713e+000 6.747590e+000 7.192547e+000 7.205079e+000 7.063253e+000 7.201269e+000 7.630807e+000 8.126626e+000 8.074082e+000 8.211504e+000 8.356940e+000 8.588808e+000 8.380846e+000 8.064121e+000 8.117755e+000
<VARIANCE> 16
 2.343769e-001 6.248213e-001 1.791221e+000 2.474677e+000 2.106337e+000 1.172155e+000 1.058020e+000 1.662129e+000 2.262309e+000 2.579901e+000 2.483164e+000 2.361189e+000 2.366199e+000 1.471611e+000 2.258999e-001 8.331961e-002
<GCONST> 3.124996e+001
<TRANSP> 10
 0.000000e+000 1.000000e+000 0.000000e+000 0.000000e+000 0.000000e+000 0.000000e+000 0.000000e+000 0.000000e+000 0.000000e+000 0.000000e+000
 0.000000e+000 8.426741e-001 1.573259e-001 0.000000e+000 0.000000e+000 0.000000e+000 0.000000e+000 0.000000e+000 0.000000e+000 0.000000e+000
 0.000000e+000 0.000000e+000 8.426744e-001 1.573255e-001 0.000000e+000 0.000000e+000 0.000000e+000 0.000000e+000 0.000000e+000 0.000000e+000
 0.000000e+000 0.000000e+000 0.000000e+000 8.426741e-001 1.573259e-001 0.000000e+000 0.000000e+000 0.000000e+000 0.000000e+000 0.000000e+000
 0.000000e+000 0.000000e+000 0.000000e+000 0.000000e+000 8.426743e-001 1.573258e-001 0.000000e+000 0.000000e+000 0.000000e+000 0.000000e+000
 0.000000e+000 0.000000e+000 0.000000e+000 0.000000e+000 0.000000e+000 8.426743e-001 1.573257e-001 0.000000e+000 0.000000e+000 0.000000e+000
 0.000000e+000 0.000000e+000 0.000000e+000 0.000000e+000 0.000000e+000 0.000000e+000 8.426740e-001 1.573260e-001 0.000000e+000 0.000000e+000
 0.000000e+000 0.000000e+000 0.000000e+000 0.000000e+000 0.000000e+000 0.000000e+000 0.000000e+000 8.426745e-001 1.573255e-001 0.000000e+000
 0.000000e+000 0.000000e+000 0.000000e+000 0.000000e+000 0.000000e+000 0.000000e+000 0.000000e+000 0.000000e+000 9.765783e-001 2.342171e-002
 0.000000e+000 0.000000e+000 0.000000e+000 0.000000e+000 0.000000e+000 0.000000e+000 0.000000e+000 0.000000e+000 0.000000e+000 0.000000e+000
<ENDHMM>
~h "sil"
<BEGINHMM>
<NUMSTATES> 5
<STATE> 2
<MEAN> 16
 5.720569e+000 5.952092e+000 6.221287e+000 6.456095e+000 6.572719e+000 6.703823e+000 6.861042e+000 7.052445e+000 7.393978e+000 7.349214e+000 7.515850e+000 7.743044e+000 8.009574e+000 7.982113e+000 7.951596e+000 8.105044e+000
<VARIANCE> 16
 2.087833e-001 4.651954e-001 8.751777e-001 1.052522e+000 8.885534e-001 7.265700e-001 7.331079e-001 7.905729e-001 7.454023e-001 9.141994e-001 9.707708e-001 1.011150e+000 1.144710e+000 7.372754e-001 2.273062e-001 1.317982e-001
<GCONST> 2.192940e+001
<STATE> 3
<MEAN> 16
 5.701910e+000 5.912154e+000 6.166296e+000 6.393906e+000 6.518344e+000 6.656529e+000 6.816880e+000 7.002623e+000 7.342178e+000 7.291069e+000 7.455001e+000 7.656988e+000 7.896085e+000 7.899408e+000 7.913037e+000 8.066137e+000
<VARIANCE> 16
 1.955443e-001 4.116623e-001 7.493520e-001 9.027176e-001 7.663834e-001 6.279724e-001 6.341432e-001 6.818329e-001 6.385465e-001 7.823315e-001 8.327311e-001 8.774495e-001 1.003660e+000 6.404675e-001 1.967622e-001 1.161734e-001
<GCONST> 1.969769e+001
<STATE> 4
<MEAN> 16
 5.716047e+000 5.941672e+000 6.207556e+000 6.426864e+000 6.534791e+000 6.669943e+000 6.832272e+000 7.027639e+000 7.377574e+000 7.330634e+000 7.484699e+000 7.680250e+000 7.922568e+000 7.937539e+000 7.942310e+000 8.079563e+000
<VARIANCE> 16
 2.095601e-001 4.646317e-001 8.675874e-001 1.014130e+000 8.365955e-001 6.654027e-001 6.671509e-001 7.326707e-001 7.293819e-001 8.826684e-001 9.020230e-001 9.703885e-001 1.132113e+000 7.733440e-001 2.729723e-001 1.552522e-001
<GCONST> 2.177962e+001
<TRANSP> 5
 0.000000e+000 1.000000e+000 0.000000e+000 0.000000e+000 0.000000e+000
 0.000000e+000 8.426769e-001 1.573230e-001 0.000000e+000 0.000000e+000
 0.000000e+000 0.000000e+000 8.426751e-001 1.573249e-001 0.000000e+000
 0.000000e+000 0.000000e+000 0.000000e+000 9.765729e-001 2.342708e-002
 0.000000e+000 0.000000e+000 0.000000e+000 0.000000e+000 0.000000e+000
<ENDHMM>
~h "tri"
<BEGINHMM>
<NUMSTATES> 10
<STATE> 2
<MEAN> 16
 5.794916e+000 6.088772e+000 6.418489e+000 6.558010e+000 6.542424e+000 6.654123e+000 6.856609e+000 7.185041e+000 7.709567e+000 7.749999e+000 7.877401e+000 8.123279e+000 8.423675e+000 8.411861e+000 8.269418e+000 8.266468e+000
<VARIANCE> 16
 2.012618e-001 6.690205e-001 1.373030e+000 1.193166e+000 5.082138e-001 3.476897e-001 3.513264e-001 6.885114e-001 1.330496e+000 1.863967e+000 1.815395e+000 2.045263e+000 2.412534e+000 2.031282e+000 9.399450e-001 4.137118e-001
<GCONST> 2.760693e+001
<STATE> 3
<MEAN> 16
 5.813746e+000 6.142649e+000 6.502672e+000 6.640036e+000 6.592285e+000 6.696739e+000 6.898374e+000 7.245634e+000 7.801286e+000 7.871358e+000 7.996804e+000 8.246038e+000 8.557745e+000 8.524912e+000 8.330815e+000 8.300228e+000
<VARIANCE> 16
 2.099086e-001 7.372275e-001 1.538942e+000 1.361672e+000 5.798054e-001 3.912421e-001 3.905420e-001 7.531788e-001 1.471581e+000 2.079537e+000 2.031960e+000 2.275336e+000 2.668396e+000 2.236584e+000 1.027096e+000 4.489013e-001
<GCONST> 2.923456e+001
<STATE> 4
<MEAN> 16
 5.831512e+000 6.196381e+000 6.587046e+000 6.723489e+000 6.643754e+000 6.739881e+000 6.939482e+000 7.302779e+000 7.890478e+000 7.991663e+000 8.115742e+000 8.367530e+000 8.689713e+000 8.634579e+000 8.388148e+000 8.331616e+000
<VARIANCE> 16
 2.179000e-001 7.986791e-001 1.691390e+000 1.521963e+000 6.491977e-001 4.327403e-001 4.266685e-001 8.085254e-001 1.594712e+000 2.269820e+000 2.224480e+000 2.476083e+000 2.887955e+000 2.410456e+000 1.099354e+000 4.774586e-001
<GCONST> 3.055754e+001
<STATE> 5
<MEAN> 16
 5.847154e+000 6.246744e+000 6.666948e+000 6.804534e+000 6.694404e+000 6.781131e+000 6.977605e+000 7.353068e+000 7.972199e+000 8.104933e+000 8.228499e+000 8.481767e+000 8.812897e+000 8.734969e+000 8.437765e+000 8.358558e+000
<VARIANCE> 16
 2.245628e-001 8.502305e-001 1.823057e+000 1.668110e+000 7.137023e-001 4.708864e-001 4.588767e-001 8.526578e-001 1.695273e+000 2.429461e+000 2.388370e+000 2.643118e+000 3.066176e+000 2.549283e+000 1.154835e+000 4.983903e-001
<GCONST> 3.159551e+001
<STATE> 6
<MEAN> 16
 5.859621e+000 6.290392e+000 6.737515e+000 6.878909e+000 6.741254e+000 6.818097e+000 7.010430e+000 7.393425e+000 8.041288e+000 8.204803e+000 8.329045e+000 8.582520e+000 8.920246e+000 8.820096e+000 8.476357e+000 8.379250e+000
<VARIANCE> 16
 2.292998e-001 8.891804e-001 1.927978e+000 1.795474e+000 7.713346e-001 5.047340e-001 4.865337e-001 8.848167e-001 1.770917e+000 2.557134e+000 2.522720e+000 2.775832e+000 3.202763e+000 2.653230e+000 1.193010e+000 5.113735e-001
<GCONST> 3.237370e+001
<STATE> 7
<MEAN> 16
 5.867859e+000 6.324085e+000 6.793952e+000 6.941977e+000 6.781124e+000 6.848525e+000 7.035713e+000 7.421121e+000 8.092769e+000 8.284793e+000 8.411133e+000 8.663273e+000 9.004428e+000 8.883963e+000 8.500874e+000 8.392012e+000
<VARIANCE> 16
 2.317397e-001 9.137955e-001 2.002708e+000 1.900871e+000 8.207460e-001 5.334783e-001 5.091417e-001 9.053512e-001 1.821652e+000 2.654978e+000 2.629109e+000 2.875967e+000 3.300604e+000 2.724121e+000 1.213500e+000 5.161477e-001
<GCONST> 3.291783e+001
<STATE> 8
<MEAN> 16
 5.870978e+000 6.344993e+000 6.831953e+000 6.989047e+000 6.810958e+000 6.870327e+000 7.051407e+000 7.433877e+000 8.122302e+000 8.338791e+000 8.468514e+000 8.717385e+000 9.058152e+000 8.920787e+000 8.508578e+000 8.395252e+000
<VARIANCE> 16
 2.317411e-001 9.235047e-001 2.046481e+000 1.982110e+000 8.609155e-001 5.563197e-001 5.262370e-001 9.150913e-001 1.849010e+000 2.726738e+000 2.709646e+000 2.945710e+000 3.363379e+000 2.763160e+000 1.215083e+000 5.120680e-001
<GCONST> 3.324746e+001
<STATE> 9
<MEAN> 16
 5.826992e+000 6.265069e+000 6.740410e+000 6.932761e+000 6.780436e+000 6.835728e+000 6.985944e+000 7.303457e+000 7.962652e+000 8.198992e+000 8.338131e+000 8.545602e+000 8.847026e+000 8.703760e+000 8.333546e+000 8.289435e+000
<VARIANCE> 16
 2.081573e-001 8.102782e-001 1.905925e+000 1.964358e+000 8.877165e-001 5.553054e-001 5.100908e-001 8.233992e-001 1.692374e+000 2.688023e+000 2.663084e+000 2.793779e+000 3.144554e+000 2.468974e+000 9.569715e-001 3.795810e-001
<GCONST> 3.193013e+001
<TRANSP> 10
 0.000000e+000 1.000000e+000 0.000000e+000 0.000000e+000 0.000000e+000 0.000000e+000 0.000000e+000 0.000000e+000 0.000000e+000 0.000000e+000
 0.000000e+000 8.426741e-001 1.573259e-001 0.000000e+000 0.000000e+000 0.000000e+000 0.000000e+000 0.000000e+000 0.000000e+000 0.000000e+000
 0.000000e+000 0.000000e+000 8.426744e-001 1.573255e-001 0.000000e+000 0.000000e+000 0.000000e+000 0.000000e+000 0.000000e+000 0.000000e+000
 0.000000e+000 0.000000e+000 0.000000e+000 8.426741e-001 1.573259e-001 0.000000e+000 0.000000e+000 0.000000e+000 0.000000e+000 0.000000e+000
 0.000000e+000 0.000000e+000 0.000000e+000 0.000000e+000 8.426743e-001 1.573258e-001 0.000000e+000 0.000000e+000 0.000000e+000 0.000000e+000
 0.000000e+000 0.000000e+000 0.000000e+000 0.000000e+000 0.000000e+000 8.426743e-001 1.573257e-001 0.000000e+000 0.000000e+000 0.000000e+000
 0.000000e+000 0.000000e+000 0.000000e+000 0.000000e+000 0.000000e+000 0.000000e+000 8.426740e-001 1.573260e-001 0.000000e+000 0.000000e+000
 0.000000e+000 0.000000e+000 0.000000e+000 0.000000e+000 0.000000e+000 0.000000e+000 0.000000e+000 8.426745e-001 1.573255e-001 0.000000e+000
 0.000000e+000 0.000000e+000 0.000000e+000 0.000000e+000 0.000000e+000 0.000000e+000 0.000000e+000 0.000000e+000 9.765783e-001 2.342171e-002
 0.000000e+000 0.000000e+000 0.000000e+000 0.000000e+000 0.000000e+000 0.000000e+000 0.000000e+000 0.000000e+000 0.000000e+000 0.000000e+000
<ENDHMM>
~h "nula"
<BEGINHMM>
<NUMSTATES> 10
<STATE> 2
<MEAN> 16
 5.854294e+000 6.266064e+000 6.627065e+000 6.944340e+000 7.013390e+000 7.166218e+000 7.284170e+000 7.303546e+000 7.498401e+000 7.527710e+000 7.707819e+000 7.882928e+000 8.130994e+000 8.054234e+000 7.940909e+000 8.063557e+000
<VARIANCE> 16
 4.001492e-001 1.058448e+000 1.879274e+000 2.435629e+000 2.245840e+000 2.176059e+000 2.084992e+000 1.400423e+000 7.973056e-001 1.120701e+000 1.414203e+000 1.411454e+000 1.614303e+000 8.934676e-001 2.359784e-001 1.585397e-001
<GCONST> 3.038526e+001
<STATE> 3
<MEAN> 16
 5.898292e+000 6.357706e+000 6.754393e+000 7.102847e+000 7.168127e+000 7.316195e+000 7.425987e+000 7.417872e+000 7.580528e+000 7.629412e+000 7.814482e+000 7.989152e+000 8.247966e+000 8.136036e+000 7.971250e+000 8.080155e+000
<VARIANCE> 16
 4.253785e-001 1.158079e+000 2.080194e+000 2.710493e+000 2.539332e+000 2.466810e+000 2.379577e+000 1.599496e+000 8.955826e-001 1.266709e+000 1.614875e+000 1.611442e+000 1.841201e+000 1.021331e+000 2.711003e-001 1.747061e-001
<GCONST> 3.226319e+001
<STATE> 4
<MEAN> 16
 5.942204e+000 6.450867e+000 6.884667e+000 7.266380e+000 7.329905e+000 7.472942e+000 7.574931e+000 7.537473e+000 7.665368e+000 7.734569e+000 7.924989e+000 8.099203e+000 8.368757e+000 8.220062e+000 8.002616e+000 8.097520e+000
<VARIANCE> 16
 4.477627e-001 1.241405e+000 2.250016e+000 2.940766e+000 2.796057e+000 2.723207e+000 2.644569e+000 1.780975e+000 9.838107e-001 1.397040e+000 1.799364e+000 1.794814e+000 2.048248e+000 1.139964e+000 3.055619e-001 1.903512e-001
<GCONST> 3.378194e+001
<STATE> 5
<MEAN> 16
 5.984272e+000 6.541668e+000 7.011988e+000 7.428766e+000 7.492966e+000 7.631055e+000 7.726037e+000 7.657730e+000 7.749564e+000 7.839244e+000 8.035376e+000 8.209076e+000 8.488853e+000 8.303107e+000 8.033724e+000 8.114758e+000
<VARIANCE> 16
 4.658940e-001 1.304497e+000 2.383903e+000 3.117131e+000 3.004845e+000 2.933928e+000 2.868387e+000 1.938190e+000 1.058884e+000 1.507318e+000 1.961444e+000 1.955417e+000 2.229181e+000 1.246141e+000 3.384335e-001 2.051605e-001
<GCONST> 3.497191e+001
<STATE> 6
<MEAN> 16
 6.022320e+000 6.624561e+000 7.128779e+000 7.581694e+000 7.649889e+000 7.783487e+000 7.872646e+000 7.773214e+000 7.829036e+000 7.938528e+000 8.140751e+000 8.313919e+000 8.603066e+000 8.381554e+000 8.063336e+000 8.130999e+000
<VARIANCE> 16
 4.788999e-001 1.345933e+000 2.481053e+000 3.237108e+000 3.160882e+000 3.093642e+000 3.044960e+000 2.067977e+000 1.119502e+000 1.595778e+000 2.097287e+000 2.089616e+000 2.380780e+000 1.338203e+000 3.689644e-001 2.187839e-001
<GCONST> 3.587038e+001
<STATE> 7
<MEAN> 16
 6.053540e+000 6.692561e+000 7.225924e+000 7.714578e+000 7.791273e+000 7.921247e+000 8.006170e+000 7.877273e+000 7.898743e+000 8.026240e+000 8.234901e+000 8.407659e+000 8.704992e+000 8.451006e+000 8.089969e+000 8.145278e+000
<VARIANCE> 16
 4.866854e-001 1.367504e+000 2.544819e+000 3.306780e+000 3.267569e+000 3.204612e+000 3.174882e+000 2.171102e+000 1.166363e+000 1.663596e+000 2.205687e+000 2.196193e+000 2.502606e+000 1.415637e+000 3.964305e-001 2.307408e-001
<GCONST> 3.652189e+001
<STATE> 8
<MEAN> 16
 6.074757e+000 6.738251e+000 7.293655e+000 7.815452e+000 7.906215e+000 8.033766e+000 8.116419e+000 7.962157e+000 7.952912e+000 8.095161e+000 8.310403e+000 8.483019e+000 8.786944e+000 8.506243e+000 8.111764e+000 8.156501e+000
<VARIANCE> 16
 4.898864e-001 1.373776e+000 2.581514e+000 3.340001e+000 3.336051e+000 3.276475e+000 3.265106e+000 2.251729e+000 1.201813e+000 1.714515e+000 2.287797e+000 2.276053e+000 2.596414e+000 1.478414e+000 4.199715e-001 2.403765e-001
<GCONST> 3.697588e+001
<STATE> 9
<MEAN> 16
 6.004475e+000 6.582685e+000 7.101694e+000 7.678848e+000 7.884258e+000 8.015854e+000 8.111293e+000 7.948291e+000 7.895692e+000 8.033129e+000 8.263704e+000 8.437747e+000 8.743571e+000 8.466425e+000 8.103536e+000 8.145699e+000
<VARIANCE> 16
 4.609367e-001 1.279205e+000 2.438265e+000 3.256230e+000 3.395704e+000 3.319008e+000 3.317524e+000 2.373346e+000 1.235140e+000 1.768072e+000 2.315381e+000 2.294038e+000 2.637288e+000 1.520963e+000 4.428396e-001 2.366470e-001
<GCONST> 3.701965e+001
<TRANSP> 10
 0.000000e+000 1.000000e+000 0.000000e+000 0.000000e+000 0.000000e+000 0.000000e+000 0.000000e+000 0.000000e+000 0.000000e+000 0.000000e+000
 0.000000e+000 8.426741e-001 1.573259e-001 0.000000e+000 0.000000e+000 0.000000e+000 0.000000e+000 0.000000e+000 0.000000e+000 0.000000e+000
 0.000000e+000 0.000000e+000 8.426744e-001 1.573255e-001 0.000000e+000 0.000000e+000 0.000000e+000 0.000000e+000 0.000000e+000 0.000000e+000
 0.000000e+000 0.000000e+000 0.000000e+000 8.426741e-001 1.573259e-001 0.000000e+000 0.000000e+000 0.000000e+000 0.000000e+000 0.000000e+000
 0.000000e+000 0.000000e+000 0.000000e+000 0.000000e+000 8.426743e-001 1.573258e-001 0.000000e+000 0.000000e+000 0.000000e+000 0.000000e+000
 0.000000e+000 0.000000e+000 0.000000e+000 0.000000e+000 0.000000e+000 8.426743e-001 1.573257e-001 0.000000e+000 0.000000e+000 0.000000e+000
 0.000000e+000 0.000000e+000 0.000000e+000 0.000000e+000 0.000000e+000 0.000000e+000 8.426740e-001 1.573260e-001 0.000000e+000 0.000000e+000
 0.000000e+000 0.000000e+000 0.000000e+000 0.000000e+000 0.000000e+000 0.000000e+000 0.000000e+000 8.426745e-001 1.573255e-001 0.000000e+000
 0.000000e+000 0.000000e+000 0.000000e+000 0.000000e+000 0.000000e+000 0.000000e+000 0.000000e+000 0.000000e+000 9.765783e-001 2.342171e-002
 0.000000e+000 0.000000e+000 0.000000e+000 0.000000e+000 0.000000e+000 0.000000e+000 0.000000e+000 0.000000e+000 0.000000e+000 0.000000e+000
<ENDHMM>
~h "devet"
<BEGINHMM>
<NUMSTATES> 10
<STATE> 2
<MEAN> 16
 5.839866e+000 6.193027e+000 6.631704e+000 6.865940e+000 6.824795e+000 6.823871e+000 7.018391e+000 7.379922e+000 7.809232e+000 7.761498e+000 7.843561e+000 8.004695e+000 8.247704e+000 8.185121e+000 7.986041e+000 8.100486e+000
<VARIANCE> 16
 2.829907e-001 7.651077e-001 1.789169e+000 2.041996e+000 1.428914e+000 7.262177e-001 7.977745e-001 1.434540e+000 1.918290e+000 2.132139e+000 2.030768e+000 1.981864e+000 2.053304e+000 1.287198e+000 1.877942e-001 8.838077e-002
<GCONST> 2.901797e+001
<STATE> 3
<MEAN> 16
 5.876225e+000 6.275241e+000 6.767721e+000 7.015019e+000 6.940978e+000 6.904257e+000 7.105497e+000 7.499429e+000 7.948933e+000 7.909446e+000 7.984385e+000 8.144930e+000 8.393082e+000 8.294226e+000 8.021535e+000 8.117557e+000
<VARIANCE> 16
 2.999822e-001 8.356752e-001 1.988633e+000 2.295353e+000 1.643028e+000 8.282458e-001 9.026105e-001 1.615943e+000 2.178079e+000 2.427053e+000 2.341220e+000 2.289230e+000 2.355677e+000 1.480500e+000 2.143323e-001 9.510794e-002
<GCONST> 3.092661e+001
<STATE> 4
<MEAN> 16
 5.913156e+000 6.359051e+000 6.909167e+000 7.171077e+000 7.064497e+000 6.989240e+000 7.196770e+000 7.625179e+000 8.096933e+000 8.065531e+000 8.134551e+000 8.294514e+000 8.547970e+000 8.410379e+000 8.059309e+000 8.135435e+000
<VARIANCE> 16
 3.139510e-001 8.936497e-001 2.154486e+000 2.514839e+000 1.842796e+000 9.231839e-001 9.975938e-001 1.774649e+000 2.408125e+000 2.689559e+000 2.627252e+000 2.572470e+000 2.628788e+000 1.658825e+000 2.395382e-001 1.012185e-001
<GCONST> 3.245953e+001
<STATE> 5
<MEAN> 16
 5.949220e+000 6.441291e+000 7.050054e+000 7.328163e+000 7.191279e+000 7.075546e+000 7.288538e+000 7.752800e+000 8.247721e+000 8.223916e+000 8.288718e+000 8.448445e+000 8.707166e+000 8.529349e+000 8.097750e+000 8.153230e+000
<VARIANCE> 16
 3.237959e-001 9.358922e-001 2.278754e+000 2.688511e+000 2.017154e+000 1.006409e+000 1.078150e+000 1.900180e+000 2.595422e+000 2.905986e+000 2.874274e+000 2.816858e+000 2.857666e+000 1.813261e+000 2.621247e-001 1.062760e-001
<GCONST> 3.362645e+001
<STATE> 6
<MEAN> 16
 5.982165e+000 6.517477e+000 7.182851e+000 7.478708e+000 7.315732e+000 7.159156e+000 7.376460e+000 7.876127e+000 8.394101e+000 8.377077e+000 8.440084e+000 8.600216e+000 8.863663e+000 8.645553e+000 8.134942e+000 8.169952e+000
<VARIANCE> 16
 3.292095e-001 9.613011e-001 2.358841e+000 2.809781e+000 2.158025e+000 1.074489e+000 1.141151e+000 1.985909e+000 2.731924e+000 3.068461e+000 3.071999e+000 3.012066e+000 3.032750e+000 1.937731e+000 2.810623e-001 1.098275e-001
<GCONST> 3.445004e+001
<STATE> 7
<MEAN> 16
 6.009378e+000 6.582172e+000 7.298780e+000 7.613630e+000 7.430843e+000 7.235267e+000 7.455481e+000 7.987478e+000 8.527346e+000 8.515920e+000 8.580348e+000 8.741750e+000 9.008757e+000 8.752256e+000 8.168743e+000 8.184525e+000
<VARIANCE> 16
 3.305499e-001 9.713570e-001 2.398809e+000 2.880270e+000 2.262339e+000 1.126010e+000 1.185768e+000 2.031583e+000 2.817165e+000 3.177217e+000 3.216618e+000 3.154186e+000 3.152064e+000 2.030065e+000 2.957765e-001 1.115352e-001
<GCONST> 3.497047e+001
<STATE> 8
<MEAN> 16
 6.028385e+000 6.629784e+000 7.388708e+000 7.723169e+000 7.528830e+000 7.298710e+000 7.520194e+000 8.078572e+000 8.637890e+000 8.630514e+000 8.700226e+000 8.863870e+000 9.132643e+000 8.842043e+000 8.196949e+000 8.195870e+000
<VARIANCE> 16
 3.286309e-001 9.698544e-001 2.408821e+000 2.910074e+000 2.332569e+000 1.161792e+000 1.213730e+000 2.043843e+000 2.858885e+000 3.240660e+000 3.311496e+000 3.246396e+000 3.221676e+000 2.092352e+000 3.062171e-001 1.113080e-001
<GCONST> 3.524581e+001
<STATE> 9
<MEAN> 16
 5.991899e+000 6.570514e+000 7.350408e+000 7.760641e+000 7.626197e+000 7.345703e+000 7.549807e+000 8.119267e+000 8.699658e+000 8.681997e+000 8.817900e+000 8.994109e+000 9.246360e+000 8.909797e+000 8.221375e+000 8.195478e+000
<VARIANCE> 16
 3.023733e-001 9.047921e-001 2.308564e+000 2.849948e+000 2.388154e+000 1.189294e+000 1.217915e+000 1.946255e+000 2.797029e+000 3.221745e+000 3.325057e+000 3.243127e+000 3.180333e+000 2.112995e+000 3.116649e-001 9.765744e-002
<GCONST> 3.489023e+001
<TRANSP> 10
 0.000000e+000 1.000000e+000 0.000000e+000 0.000000e+000 0.000000e+000 0.000000e+000 0.000000e+000 0.000000e+000 0.000000e+000 0.000000e+000
 0.000000e+000 8.426741e-001 1.573259e-001 0.000000e+000 0.000000e+000 0.000000e+000 0.000000e+000 0.000000e+000 0.000000e+000 0.000000e+000
 0.000000e+000 0.000000e+000 8.426744e-001 1.573255e-001 0.000000e+000 0.000000e+000 0.000000e+000 0.000000e+000 0.000000e+000 0.000000e+000
 0.000000e+000 0.000000e+000 0.000000e+000 8.426741e-001 1.573259e-001 0.000000e+000 0.000000e+000 0.000000e+000 0.000000e+000 0.000000e+000
 0.000000e+000 0.000000e+000 0.000000e+000 0.000000e+000 8.426743e-001 1.573258e-001 0.000000e+000 0.000000e+000 0.000000e+000 0.000000e+000
 0.000000e+000 0.000000e+000 0.000000e+000 0.000000e+000 0.000000e+000 8.426743e-001 1.573257e-001 0.000000e+000 0.000000e+000 0.000000e+000
 0.000000e+000 0.000000e+000 0.000000e+000 0.000000e+000 0.000000e+000 0.000000e+000 8.426740e-001 1.573260e-001 0.000000e+000 0.000000e+000
 0.000000e+000 0.000000e+000 0.000000e+000 0.000000e+000 0.000000e+000 0.000000e+000 0.000000e+000 8.426745e-001 1.573255e-001 0.000000e+000
 0.000000e+000 0.000000e+000 0.000000e+000 0.000000e+000 0.000000e+000 0.000000e+000 0.000000e+000 0.000000e+000 9.765783e-001 2.342171e-002
 0.000000e+000 0.000000e+000 0.000000e+000 0.000000e+000 0.000000e+000 0.000000e+000 0.000000e+000 0.000000e+000 0.000000e+000 0.000000e+000
<ENDHMM>
~h "jedna"
<BEGINHMM>
<NUMSTATES> 10
<STATE> 2
<MEAN> 16
 5.930539e+000 6.340685e+000 6.738545e+000 6.933073e+000 6.988409e+000 7.022369e+000 7.193500e+000 7.438508e+000 7.795578e+000 7.842460e+000 7.907167e+000 8.091962e+000 8.379738e+000 8.248503e+000 7.995671e+000 8.087440e+000
<VARIANCE> 16
 2.751885e-001 8.962699e-001 1.669239e+000 1.884899e+000 1.751483e+000 1.250614e+000 1.410018e+000 1.563596e+000 1.401407e+000 1.802404e+000 1.761224e+000 1.822671e+000 1.963556e+000 1.135209e+000 1.930284e-001 7.511922e-002
<GCONST> 2.938804e+001
<STATE> 3
<MEAN> 16
 5.967047e+000 6.427825e+000 6.854794e+000 7.064143e+000 7.113625e+000 7.123912e+000 7.299714e+000 7.554473e+000 7.897541e+000 7.960525e+000 8.026445e+000 8.213396e+000 8.509052e+000 8.338046e+000 8.017888e+000 8.096675e+000
<VARIANCE> 16
 2.861007e-001 9.566061e-001 1.790364e+000 2.043609e+000 1.940432e+000 1.430540e+000 1.607662e+000 1.774853e+000 1.541471e+000 1.956167e+000 1.950292e+000 2.020581e+000 2.165140e+000 1.253773e+000 2.072335e-001 7.775018e-002
<GCONST> 3.082242e+001
<STATE> 4
<MEAN> 16
 6.001524e+000 6.511683e+000 6.966022e+000 7.192951e+000 7.240191e+000 7.230266e+000 7.409767e+000 7.672368e+000 7.997119e+000 8.074657e+000 8.145222e+000 8.335870e+000 8.637480e+000 8.426050e+000 8.037689e+000 8.104897e+000
<VARIANCE> 16
 2.949635e-001 1.000453e+000 1.877628e+000 2.164982e+000 2.100471e+000 1.598651e+000 1.792571e+000 1.970553e+000 1.658828e+000 2.075878e+000 2.111588e+000 2.188143e+000 2.334405e+000 1.355439e+000 2.175568e-001 7.929759e-002
<GCONST> 3.192032e+001
<STATE> 5
<MEAN> 16
 6.031907e+000 6.588072e+000 7.066905e+000 7.313029e+000 7.361987e+000 7.336526e+000 7.518579e+000 7.786790e+000 8.089752e+000 8.179399e+000 8.258286e+000 8.453537e+000 8.759121e+000 8.508302e+000 8.053907e+000 8.111586e+000
<VARIANCE> 16
 3.019964e-001 1.027975e+000 1.931272e+000 2.246212e+000 2.223711e+000 1.746064e+000 1.954840e+000 2.142710e+000 1.750368e+000 2.159363e+000 2.239630e+000 2.319385e+000 2.467077e+000 1.436863e+000 2.237211e-001 7.974304e-002
<GCONST> 3.270908e+001
<STATE> 6
<MEAN> 16
 6.056677e+000 6.652926e+000 7.152238e+000 7.418005e+000 7.472558e+000 7.437126e+000 7.620591e+000 7.892453e+000 8.171331e+000 8.269594e+000 8.360374e+000 8.560238e+000 8.868229e+000 8.580585e+000 8.066189e+000 8.116699e+000
<VARIANCE> 16
 3.075368e-001 1.042204e+000 1.957478e+000 2.290661e+000 2.308042e+000 1.867757e+000 2.087825e+000 2.287205e+000 1.816846e+000 2.209710e+000 2.333587e+000 2.413533e+000 2.563975e+000 1.497901e+000 2.263399e-001 7.928915e-002
<GCONST> 3.323701e+001
<STATE> 7
<MEAN> 16
 6.074568e+000 6.702340e+000 7.216934e+000 7.501634e+000 7.565530e+000 7.526350e+000 7.710149e+000 7.984186e+000 8.237833e+000 8.340080e+000 8.445893e+000 8.649456e+000 8.958716e+000 8.638579e+000 8.074436e+000 8.120358e+000
<VARIANCE> 16
 3.118867e-001 1.047759e+000 1.965325e+000 2.306559e+000 2.357533e+000 1.963434e+000 2.189755e+000 2.404331e+000 1.861685e+000 2.233270e+000 2.396479e+000 2.474230e+000 2.630123e+000 1.540890e+000 2.263535e-001 7.821702e-002
<GCONST> 3.356270e+001
<STATE> 8
<MEAN> 16
 6.084368e+000 6.732723e+000 7.256111e+000 7.558016e+000 7.635020e+000 7.598775e+000 7.781924e+000 8.056988e+000 8.285102e+000 8.385588e+000 8.508902e+000 8.714558e+000 9.024204e+000 8.678043e+000 8.078348e+000 8.122557e+000
<VARIANCE> 16
 3.152893e-001 1.049294e+000 1.963318e+000 2.304315e+000 2.380726e+000 2.036887e+000 2.263804e+000 2.497947e+000 1.889390e+000 2.237146e+000 2.433456e+000 2.507735e+000 2.672770e+000 1.568973e+000 2.244017e-001 7.675627e-002
<GCONST> 3.374290e+001
<STATE> 9
<MEAN> 16
 6.026670e+000 6.621942e+000 7.093455e+000 7.438655e+000 7.611966e+000 7.663793e+000 7.840937e+000 8.097050e+000 8.216359e+000 8.243455e+000 8.444589e+000 8.641650e+000 8.945234e+000 8.600011e+000 8.040820e+000 8.111053e+000
<VARIANCE> 16
 3.146684e-001 1.023281e+000 1.860907e+000 2.200867e+000 2.365190e+000 2.224642e+000 2.418567e+000 2.736858e+000 1.856949e+000 2.074955e+000 2.368494e+000 2.425097e+000 2.656882e+000 1.538450e+000 1.927354e-001 6.834503e-002
<GCONST> 3.340847e+001
<TRANSP> 10
 0.000000e+000 1.000000e+000 0.000000e+000 0.000000e+000 0.000000e+000 0.000000e+000 0.000000e+000 0.000000e+000 0.000000e+000 0.000000e+000
 0.000000e+000 8.426741e-001 1.573259e-001 0.000000e+000 0.000000e+000 0.000000e+000 0.000000e+000 0.000000e+000 0.000000e+000 0.000000e+000
 0.000000e+000 0.000000e+000 8.426744e-001 1.573255e-001 0.000000e+000 0.000000e+000 0.000000e+000 0.000000e+000 0.000000e+000 0.000000e+000
 0.000000e+000 0.000000e+000 0.000000e+000 8.426741e-001 1.573259e-001 0.000000e+000 0.000000e+000 0.000000e+000 0.000000e+000 0.000000e+000
 0.000000e+000 0.000000e+000 0.000000e+000 0.000000e+000 8.426743e-001 1.573258e-001 0.000000e+000 0.000000e+000 0.000000e+000 0.000000e+000
 0.000000e+000 0.000000e+000 0.000000e+000 0.000000e+000 0.000000e+000 8.426743e-001 1.573257e-001 0.000000e+000 0.000000e+000 0.000000e+000
 0.000000e+000 0.000000e+000 0.000000e+000 0.000000e+000 0.000000e+000 0.000000e+000 8.426740e-001 1.573260e-001 0.000000e+000 0.000000e+000
 0.000000e+000 0.000000e+000 0.000000e+000 0.000000e+000 0.000000e+000 0.000000e+000 0.000000e+000 8.426745e-001 1.573255e-001 0.000000e+000
 0.000000e+000 0.000000e+000 0.000000e+000 0.000000e+000 0.000000e+000 0.000000e+000 0.000000e+000 0.000000e+000 9.765783e-001 2.342171e-002
 0.000000e+000 0.000000e+000 0.000000e+000 0.000000e+000 0.000000e+000 0.000000e+000 0.000000e+000 0.000000e+000 0.000000e+000 0.000000e+000
<ENDHMM>
