~o
<STREAMINFO> 1 16
<VECSIZE> 16<NULLD><FBANK><DIAGC>
~h "ctyri"
<BEGINHMM>
<NUMSTATES> 10
<STATE> 2
<MEAN> 16
 5.328105e+000 6.330058e+000 6.828930e+000 7.029579e+000 7.040562e+000 7.166530e+000 7.423859e+000 7.910370e+000 8.381167e+000 8.750874e+000 9.045316e+000 9.215075e+000 9.417933e+000 9.551247e+000 9.669605e+000 9.776760e+000
<VARIANCE> 16
 6.074255e+000 7.182666e+000 7.532455e+000 6.703736e+000 4.833143e+000 4.027540e+000 4.042462e+000 4.876877e+000 5.498899e+000 5.870433e+000 5.773623e+000 5.499684e+000 5.259672e+000 4.548438e+000 3.505675e+000 2.839480e+000
<GCONST> 5.545898e+001
<STATE> 3
<MEAN> 16
 5.590866e+000 6.614727e+000 7.120261e+000 7.300757e+000 7.261334e+000 7.355065e+000 7.603106e+000 8.117146e+000 8.615661e+000 8.998610e+000 9.291381e+000 9.447789e+000 9.643928e+000 9.747768e+000 9.824597e+000 9.898129e+000
<VARIANCE> 16
 6.277831e+000 7.425327e+000 7.775515e+000 6.888865e+000 4.876549e+000 4.025928e+000 4.049192e+000 4.960079e+000 5.628438e+000 6.003998e+000 5.885100e+000 5.624353e+000 5.381770e+000 4.699165e+000 3.660529e+000 2.998636e+000
<GCONST> 5.585192e+001
<STATE> 4
<MEAN> 16
 5.856329e+000 6.902653e+000 7.412736e+000 7.572137e+000 7.479517e+000 7.539084e+000 7.776393e+000 8.317622e+000 8.843430e+000 9.237763e+000 9.526512e+000 9.669175e+000 9.858534e+000 9.933989e+000 9.970770e+000 1.001240e+001
<VARIANCE> 16
 6.372822e+000 7.537646e+000 7.882838e+000 6.957164e+000 4.850819e+000 3.980650e+000 4.019942e+000 4.985149e+000 5.667128e+000 6.023048e+000 5.880360e+000 5.644330e+000 5.410966e+000 4.776325e+000 3.761992e+000 3.120112e+000
<GCONST> 5.598824e+001
<STATE> 5
<MEAN> 16
 6.112469e+000 7.181246e+000 7.692980e+000 7.831093e+000 7.684516e+000 7.709433e+000 7.934664e+000 8.501163e+000 9.051580e+000 9.453603e+000 9.735592e+000 9.864502e+000 1.004764e+001 1.009747e+001 1.009769e+001 1.011136e+001
<VARIANCE> 16
 6.364420e+000 7.523580e+000 7.863514e+000 6.918048e+000 4.768043e+000 3.901062e+000 3.963345e+000 4.962974e+000 5.629591e+000 5.947188e+000 5.781334e+000 5.578546e+000 5.364472e+000 4.790429e+000 3.813679e+000 3.201454e+000
<GCONST> 5.590658e+001
<STATE> 6
<MEAN> 16
 6.344630e+000 7.434898e+000 7.944871e+000 8.062400e+000 7.863977e+000 7.855610e+000 8.067764e+000 8.655716e+000 9.225698e+000 9.630075e+000 9.902193e+000 1.001768e+001 1.019564e+001 1.022434e+001 1.019375e+001 1.018569e+001
<VARIANCE> 16
 6.280159e+000 7.412926e+000 7.752475e+000 6.805641e+000 4.655793e+000 3.808323e+000 3.897632e+000 4.917134e+000 5.550189e+000 5.820563e+000 5.634844e+000 5.468136e+000 5.279108e+000 4.766080e+000 3.827471e+000 3.244728e+000
<GCONST> 5.568847e+001
<STATE> 7
<MEAN> 16
 6.536951e+000 7.646404e+000 8.151078e+000 8.249936e+000 8.005230e+000 7.967027e+000 8.165705e+000 8.769432e+000 9.351970e+000 9.752689e+000 1.001181e+001 1.011455e+001 1.028859e+001 1.030220e+001 1.024867e+001 1.022705e+001
<VARIANCE> 16
 6.166902e+000 7.258231e+000 7.605864e+000 6.672711e+000 4.552394e+000 3.731059e+000 3.846790e+000 4.878949e+000 5.475083e+000 5.700692e+000 5.500435e+000 5.365244e+000 5.201531e+000 4.735040e+000 3.820007e+000 3.255681e+000
<GCONST> 5.544899e+001
<STATE> 8
<MEAN> 16
 6.674327e+000 7.798965e+000 8.295015e+000 8.378645e+000 8.096958e+000 8.034505e+000 8.220100e+000 8.832317e+000 9.419269e+000 9.810822e+000 1.005456e+001 1.014571e+001 1.031706e+001 1.032273e+001 1.025586e+001 1.023014e+001
<VARIANCE> 16
 6.077815e+000 7.121247e+000 7.486180e+000 6.575475e+000 4.495270e+000 3.696280e+000 3.832490e+000 4.876201e+000 5.445540e+000 5.637102e+000 5.427123e+000 5.311846e+000 5.168999e+000 4.722111e+000 3.803998e+000 3.239715e+000
<GCONST> 5.530038e+001
<STATE> 9
<MEAN> 16
 6.479018e+000 7.588220e+000 8.031981e+000 8.117407e+000 7.843163e+000 7.774533e+000 7.926412e+000 8.481761e+000 9.010015e+000 9.352163e+000 9.540133e+000 9.609269e+000 9.780271e+000 9.829508e+000 9.819681e+000 9.875543e+000
<VARIANCE> 16
 6.211888e+000 7.112843e+000 7.510263e+000 6.683911e+000 4.724319e+000 3.915563e+000 3.992082e+000 5.015207e+000 5.625329e+000 5.804793e+000 5.560939e+000 5.332790e+000 5.196997e+000 4.584123e+000 3.465163e+000 2.817867e+000
<GCONST> 5.534987e+001
<TRANSP> 10
 0.000000e+000 1.000000e+000 0.000000e+000 0.000000e+000 0.000000e+000 0.000000e+000 0.000000e+000 0.000000e+000 0.000000e+000 0.000000e+000
 0.000000e+000 8.426760e-001 1.573240e-001 0.000000e+000 0.000000e+000 0.000000e+000 0.000000e+000 0.000000e+000 0.000000e+000 0.000000e+000
 0.000000e+000 0.000000e+000 8.426736e-001 1.573264e-001 0.000000e+000 0.000000e+000 0.000000e+000 0.000000e+000 0.000000e+000 0.000000e+000
 0.000000e+000 0.000000e+000 0.000000e+000 8.426760e-001 1.573240e-001 0.000000e+000 0.000000e+000 0.000000e+000 0.000000e+000 0.000000e+000
 0.000000e+000 0.000000e+000 0.000000e+000 0.000000e+000 8.426748e-001 1.573252e-001 0.000000e+000 0.000000e+000 0.000000e+000 0.000000e+000
 0.000000e+000 0.000000e+000 0.000000e+000 0.000000e+000 0.000000e+000 8.426725e-001 1.573275e-001 0.000000e+000 0.000000e+000 0.000000e+000
 0.000000e+000 0.000000e+000 0.000000e+000 0.000000e+000 0.000000e+000 0.000000e+000 8.426751e-001 1.573249e-001 0.000000e+000 0.000000e+000
 0.000000e+000 0.000000e+000 0.000000e+000 0.000000e+000 0.000000e+000 0.000000e+000 0.000000e+000 8.426756e-001 1.573244e-001 0.000000e+000
 0.000000e+000 0.000000e+000 0.000000e+000 0.000000e+000 0.000000e+000 0.000000e+000 0.000000e+000 0.000000e+000 9.765782e-001 2.342182e-002
 0.000000e+000 0.000000e+000 0.000000e+000 0.000000e+000 0.000000e+000 0.000000e+000 0.000000e+000 0.000000e+000 0.000000e+000 0.000000e+000
<ENDHMM>
~h "sedm"
<BEGINHMM>
<NUMSTATES> 10
<STATE> 2
<MEAN> 16
 5.423731e+000 6.404710e+000 6.886765e+000 7.137926e+000 7.226535e+000 7.397048e+000 7.648047e+000 7.993763e+000 8.191235e+000 8.390067e+000 8.616201e+000 8.797469e+000 9.019350e+000 9.288218e+000 9.527999e+000 9.746871e+000
<VARIANCE> 16
 6.808883e+000 7.858889e+000 7.895300e+000 7.259227e+000 5.723042e+000 4.961831e+000 4.871006e+000 5.022864e+000 4.660164e+000 4.481667e+000 4.241582e+000 3.980278e+000 3.934567e+000 3.914389e+000 3.444910e+000 3.028600e+000
<GCONST> 5.492282e+001
<STATE> 3
<MEAN> 16
 5.711904e+000 6.711416e+000 7.186222e+000 7.416281e+000 7.469775e+000 7.619778e+000 7.855119e+000 8.191036e+000 8.378583e+000 8.577600e+000 8.796879e+000 8.965434e+000 9.175130e+000 9.428770e+000 9.645438e+000 9.850312e+000
<VARIANCE> 16
 7.045926e+000 8.148784e+000 8.152393e+000 7.452563e+000 5.828176e+000 5.023907e+000 4.929054e+000 5.098136e+000 4.747241e+000 4.593794e+000 4.360140e+000 4.094723e+000 4.029869e+000 4.041305e+000 3.596572e+000 3.188681e+000
<GCONST> 5.535852e+001
<STATE> 4
<MEAN> 16
 6.008232e+000 7.028096e+000 7.490862e+000 7.695489e+000 7.713016e+000 7.841672e+000 8.059463e+000 8.382379e+000 8.558797e+000 8.758654e+000 8.970922e+000 9.125752e+000 9.321016e+000 9.557205e+000 9.751325e+000 9.944006e+000
<VARIANCE> 16
 7.125343e+000 8.257314e+000 8.238836e+000 7.501909e+000 5.826202e+000 5.000065e+000 4.912364e+000 5.105397e+000 4.768258e+000 4.637224e+000 4.413532e+000 4.149892e+000 4.068215e+000 4.114372e+000 3.702100e+000 3.311163e+000
<GCONST> 5.552642e+001
<STATE> 5
<MEAN> 16
 6.298809e+000 7.340247e+000 7.785769e+000 7.961161e+000 7.943017e+000 8.050476e+000 8.249272e+000 8.556300e+000 8.720508e+000 8.921576e+000 9.126424e+000 9.266658e+000 9.444561e+000 9.660782e+000 9.833746e+000 1.001754e+001
<VARIANCE> 16
 7.046896e+000 8.181543e+000 8.161252e+000 7.419181e+000 5.730440e+000 4.903760e+000 4.831820e+000 5.054719e+000 4.732608e+000 4.620146e+000 4.409698e+000 4.151926e+000 4.053758e+000 4.132183e+000 3.753664e+000 3.385523e+000
<GCONST> 5.544828e+001
<STATE> 6
<MEAN> 16
 6.565340e+000 7.628592e+000 8.051411e+000 8.194592e+000 8.143035e+000 8.230974e+000 8.409734e+000 8.697967e+000 8.849455e+000 9.052173e+000 9.249104e+000 9.374290e+000 9.531787e+000 9.725751e+000 9.879972e+000 1.005953e+001
<VARIANCE> 16
 6.847382e+000 7.960190e+000 7.966041e+000 7.248819e+000 5.580083e+000 4.770419e+000 4.717690e+000 4.972565e+000 4.663849e+000 4.565165e+000 4.370175e+000 4.118935e+000 4.002229e+000 4.101885e+000 3.748288e+000 3.404038e+000
<GCONST> 5.519053e+001
<STATE> 7
<MEAN> 16
 6.787347e+000 7.871251e+000 8.266137e+000 8.375446e+000 8.295366e+000 8.367331e+000 8.525627e+000 8.792117e+000 8.931378e+000 9.136549e+000 9.325239e+000 9.435823e+000 9.570833e+000 9.741394e+000 9.880529e+000 1.006121e+001
<VARIANCE> 16
 6.599106e+000 7.672422e+000 7.733373e+000 7.060449e+000 5.432471e+000 4.650348e+000 4.613362e+000 4.895565e+000 4.593485e+000 4.503718e+000 4.323687e+000 4.075176e+000 3.934698e+000 4.034812e+000 3.686320e+000 3.362023e+000
<GCONST> 5.485781e+001
<STATE> 8
<MEAN> 16
 6.945323e+000 8.046920e+000 8.409634e+000 8.485305e+000 8.384467e+000 8.445961e+000 8.584298e+000 8.826433e+000 8.955278e+000 9.164154e+000 9.344758e+000 9.442590e+000 9.555274e+000 9.703370e+000 9.832500e+000 1.001958e+001
<VARIANCE> 16
 6.390499e+000 7.417983e+000 7.553697e+000 6.926741e+000 5.344508e+000 4.592084e+000 4.559660e+000 4.855656e+000 4.547193e+000 4.462019e+000 4.292532e+000 4.038617e+000 3.865600e+000 3.937195e+000 3.567003e+000 3.256236e+000
<GCONST> 5.455775e+001
<STATE> 9
<MEAN> 16
 6.719985e+000 7.824179e+000 8.051420e+000 8.047122e+000 7.984056e+000 8.080852e+000 8.173896e+000 8.326796e+000 8.453989e+000 8.688672e+000 8.850733e+000 8.951483e+000 9.044451e+000 9.172290e+000 9.337994e+000 9.577553e+000
<VARIANCE> 16
 6.574205e+000 7.529908e+000 7.726694e+000 6.980185e+000 5.557014e+000 4.900090e+000 4.712118e+000 4.789391e+000 4.317895e+000 4.247424e+000 4.036003e+000 3.708189e+000 3.373420e+000 3.135979e+000 2.573476e+000 2.296609e+000
<GCONST> 5.346712e+001
<TRANSP> 10
 0.000000e+000 1.000000e+000 0.000000e+000 0.000000e+000 0.000000e+000 0.000000e+000 0.000000e+000 0.000000e+000 0.000000e+000 0.000000e+000
 0.000000e+000 8.426760e-001 1.573240e-001 0.000000e+000 0.000000e+000 0.000000e+000 0.000000e+000 0.000000e+000 0.000000e+000 0.000000e+000
 0.000000e+000 0.000000e+000 8.426736e-001 1.573264e-001 0.000000e+000 0.000000e+000 0.000000e+000 0.000000e+000 0.000000e+000 0.000000e+000
 0.000000e+000 0.000000e+000 0.000000e+000 8.426760e-001 1.573240e-001 0.000000e+000 0.000000e+000 0.000000e+000 0.000000e+000 0.000000e+000
 0.000000e+000 0.000000e+000 0.000000e+000 0.000000e+000 8.426748e-001 1.573252e-001 0.000000e+000 0.000000e+000 0.000000e+000 0.000000e+000
 0.000000e+000 0.000000e+000 0.000000e+000 0.000000e+000 0.000000e+000 8.426725e-001 1.573275e-001 0.000000e+000 0.000000e+000 0.000000e+000
 0.000000e+000 0.000000e+000 0.000000e+000 0.000000e+000 0.000000e+000 0.000000e+000 8.426751e-001 1.573249e-001 0.000000e+000 0.000000e+000
 0.000000e+000 0.000000e+000 0.000000e+000 0.000000e+000 0.000000e+000 0.000000e+000 0.000000e+000 8.426756e-001 1.573244e-001 0.000000e+000
 0.000000e+000 0.000000e+000 0.000000e+000 0.000000e+000 0.000000e+000 0.000000e+000 0.000000e+000 0.000000e+000 9.765782e-001 2.342182e-002
 0.000000e+000 0.000000e+000 0.000000e+000 0.000000e+000 0.000000e+000 0.000000e+000 0.000000e+000 0.000000e+000 0.000000e+000 0.000000e+000
<ENDHMM>
~h "sest"
<BEGINHMM>
<NUMSTATES> 10
<STATE> 2
<MEAN> 16
 4.917219e+000 5.809999e+000 6.346317e+000 6.734187e+000 6.931820e+000 7.087604e+000 7.382377e+000 7.890147e+000 8.277924e+000 8.597654e+000 8.862227e+000 9.009932e+000 9.198791e+000 9.412858e+000 9.634781e+000 9.788101e+000
<VARIANCE> 16
 5.102988e+000 5.657454e+000 6.095093e+000 6.541297e+000 5.749825e+000 4.748977e+000 4.822773e+000 5.629118e+000 5.904390e+000 6.305528e+000 6.176296e+000 5.688947e+000 5.257271e+000 4.654442e+000 3.849048e+000 3.222492e+000
<GCONST> 5.595463e+001
<STATE> 3
<MEAN> 16
 5.117043e+000 6.014053e+000 6.566998e+000 6.971931e+000 7.150786e+000 7.282069e+000 7.577351e+000 8.111606e+000 8.512298e+000 8.838594e+000 9.101024e+000 9.234969e+000 9.419657e+000 9.620703e+000 9.819280e+000 9.944394e+000
<VARIANCE> 16
 5.254738e+000 5.816573e+000 6.273858e+000 6.766810e+000 5.940425e+000 4.845305e+000 4.925667e+000 5.785455e+000 6.084241e+000 6.526076e+000 6.408246e+000 5.922639e+000 5.466547e+000 4.882736e+000 4.103234e+000 3.477664e+000
<GCONST> 5.654425e+001
<STATE> 4
<MEAN> 16
 5.316492e+000 6.218280e+000 6.787334e+000 7.209210e+000 7.369277e+000 7.475619e+000 7.770195e+000 8.329766e+000 8.742493e+000 9.074656e+000 9.335596e+000 9.456402e+000 9.637796e+000 9.827603e+000 1.000454e+001 1.010207e+001
<VARIANCE> 16
 5.350774e+000 5.919775e+000 6.389407e+000 6.915555e+000 6.070236e+000 4.900027e+000 4.991348e+000 5.882380e+000 6.179429e+000 6.643895e+000 6.532590e+000 6.060687e+000 5.590365e+000 5.034811e+000 4.295382e+000 3.687999e+000
<GCONST> 5.691589e+001
<STATE> 5
<MEAN> 16
 5.508205e+000 6.415531e+000 6.999237e+000 7.437501e+000 7.579547e+000 7.661085e+000 7.953582e+000 8.535452e+000 8.957108e+000 9.293138e+000 9.553043e+000 9.662042e+000 9.841660e+000 1.002280e+001 1.018086e+001 1.025292e+001
<VARIANCE> 16
 5.389784e+000 5.963874e+000 6.438946e+000 6.984383e+000 6.135377e+000 4.911426e+000 5.016330e+000 5.918386e+000 6.192546e+000 6.661189e+000 6.549979e+000 6.101370e+000 5.626716e+000 5.106647e+000 4.417893e+000 3.844287e+000
<GCONST> 5.707664e+001
<STATE> 6
<MEAN> 16
 5.681524e+000 6.595249e+000 7.191131e+000 7.644673e+000 7.770329e+000 7.828236e+000 8.117101e+000 8.715808e+000 9.140646e+000 9.476887e+000 9.735898e+000 9.835408e+000 1.001564e+001 1.019173e+001 1.033531e+001 1.038609e+001
<VARIANCE> 16
 5.380737e+000 5.956498e+000 6.431561e+000 6.983772e+000 6.144631e+000 4.887561e+000 5.007082e+000 5.905624e+000 6.143167e+000 6.598214e+000 6.479552e+000 6.059218e+000 5.588975e+000 5.108386e+000 4.474329e+000 3.943891e+000
<GCONST> 5.706176e+001
<STATE> 7
<MEAN> 16
 5.822718e+000 6.743529e+000 7.348135e+000 7.814986e+000 7.926992e+000 7.963977e+000 8.247535e+000 8.855130e+000 9.275263e+000 9.606621e+000 9.864554e+000 9.958099e+000 1.014224e+001 1.031808e+001 1.045351e+001 1.048957e+001
<VARIANCE> 16
 5.345519e+000 5.918581e+000 6.391640e+000 6.941394e+000 6.122175e+000 4.849353e+000 4.983588e+000 5.873055e+000 6.069170e+000 6.494389e+000 6.360544e+000 5.967121e+000 5.509089e+000 5.066881e+000 4.481855e+000 3.993689e+000
<GCONST> 5.694459e+001
<STATE> 8
<MEAN> 16
 5.917044e+000 6.845143e+000 7.454173e+000 7.931275e+000 8.033591e+000 8.054289e+000 8.330968e+000 8.937639e+000 9.344352e+000 9.665217e+000 9.921792e+000 1.001402e+001 1.020605e+001 1.038733e+001 1.052273e+001 1.055271e+001
<VARIANCE> 16
 5.312279e+000 5.877698e+000 6.351295e+000 6.894355e+000 6.100100e+000 4.824021e+000 4.972592e+000 5.856005e+000 6.012930e+000 6.393107e+000 6.237605e+000 5.863557e+000 5.425688e+000 5.016414e+000 4.465344e+000 4.006933e+000
<GCONST> 5.681662e+001
<STATE> 9
<MEAN> 16
 5.620994e+000 6.560190e+000 7.142103e+000 7.607952e+000 7.727496e+000 7.769289e+000 8.018714e+000 8.527300e+000 8.835055e+000 9.091168e+000 9.346412e+000 9.490498e+000 9.749616e+000 1.000696e+001 1.023249e+001 1.033094e+001
<VARIANCE> 16
 5.109083e+000 5.580678e+000 6.072561e+000 6.549466e+000 5.889718e+000 4.775789e+000 4.961780e+000 5.776636e+000 5.770373e+000 5.846663e+000 5.632419e+000 5.319561e+000 5.127987e+000 4.845198e+000 4.311681e+000 3.799365e+000
<GCONST> 5.605928e+001
<TRANSP> 10
 0.000000e+000 1.000000e+000 0.000000e+000 0.000000e+000 0.000000e+000 0.000000e+000 0.000000e+000 0.000000e+000 0.000000e+000 0.000000e+000
 0.000000e+000 8.426760e-001 1.573240e-001 0.000000e+000 0.000000e+000 0.000000e+000 0.000000e+000 0.000000e+000 0.000000e+000 0.000000e+000
 0.000000e+000 0.000000e+000 8.426736e-001 1.573264e-001 0.000000e+000 0.000000e+000 0.000000e+000 0.000000e+000 0.000000e+000 0.000000e+000
 0.000000e+000 0.000000e+000 0.000000e+000 8.426760e-001 1.573240e-001 0.000000e+000 0.000000e+000 0.000000e+000 0.000000e+000 0.000000e+000
 0.000000e+000 0.000000e+000 0.000000e+000 0.000000e+000 8.426748e-001 1.573252e-001 0.000000e+000 0.000000e+000 0.000000e+000 0.000000e+000
 0.000000e+000 0.000000e+000 0.000000e+000 0.000000e+000 0.000000e+000 8.426725e-001 1.573275e-001 0.000000e+000 0.000000e+000 0.000000e+000
 0.000000e+000 0.000000e+000 0.000000e+000 0.000000e+000 0.000000e+000 0.000000e+000 8.426751e-001 1.573249e-001 0.000000e+000 0.000000e+000
 0.000000e+000 0.000000e+000 0.000000e+000 0.000000e+000 0.000000e+000 0.000000e+000 0.000000e+000 8.426756e-001 1.573244e-001 0.000000e+000
 0.000000e+000 0.000000e+000 0.000000e+000 0.000000e+000 0.000000e+000 0.000000e+000 0.000000e+000 0.000000e+000 9.765782e-001 2.342182e-002
 0.000000e+000 0.000000e+000 0.000000e+000 0.000000e+000 0.000000e+000 0.000000e+000 0.000000e+000 0.000000e+000 0.000000e+000 0.000000e+000
<ENDHMM>
~h "dva"
<BEGINHMM>
<NUMSTATES> 10
<STATE> 2
<MEAN> 16
 5.285640e+000 6.254590e+000 6.594111e+000 6.879842e+000 7.089400e+000 7.316889e+000 7.542703e+000 7.695448e+000 7.804973e+000 8.015917e+000 8.221068e+000 8.342453e+000 8.484113e+000 8.662409e+000 8.930793e+000 9.191245e+000
<VARIANCE> 16
 7.011213e+000 7.828161e+000 7.626364e+000 7.842022e+000 7.549674e+000 7.100472e+000 6.850704e+000 5.798050e+000 4.642991e+000 4.443566e+000 4.161310e+000 3.544035e+000 3.109216e+000 2.406543e+000 1.728469e+000 1.438565e+000
<GCONST> 5.380728e+001
<STATE> 3
<MEAN> 16
 5.545623e+000 6.526145e+000 6.850314e+000 7.142864e+000 7.346862e+000 7.561793e+000 7.779053e+000 7.900933e+000 7.977720e+000 8.184490e+000 8.379890e+000 8.480551e+000 8.606256e+000 8.759240e+000 9.003172e+000 9.247940e+000
<VARIANCE> 16
 7.183707e+000 7.998809e+000 7.807142e+000 8.111222e+000 7.885265e+000 7.415983e+000 7.129430e+000 5.994607e+000 4.807675e+000 4.651445e+000 4.384037e+000 3.729634e+000 3.254206e+000 2.529170e+000 1.840523e+000 1.546024e+000
<GCONST> 5.448440e+001
<STATE> 4
<MEAN> 16
 5.805306e+000 6.797774e+000 7.106838e+000 7.407749e+000 7.607806e+000 7.810714e+000 8.018153e+000 8.107745e+000 8.150234e+000 8.353364e+000 8.538757e+000 8.618043e+000 8.727972e+000 8.855827e+000 9.075719e+000 9.304559e+000
<VARIANCE> 16
 7.224917e+000 8.027000e+000 7.862782e+000 8.253736e+000 8.105653e+000 7.629864e+000 7.317297e+000 6.125103e+000 4.923969e+000 4.809360e+000 4.560558e+000 3.882726e+000 3.376870e+000 2.638740e+000 1.945424e+000 1.648222e+000
<GCONST> 5.495755e+001
<STATE> 5
<MEAN> 16
 6.051115e+000 7.055470e+000 7.350857e+000 7.662279e+000 7.860955e+000 8.053050e+000 8.249704e+000 8.306537e+000 8.314416e+000 8.514529e+000 8.689939e+000 8.748456e+000 8.843648e+000 8.947902e+000 9.145157e+000 9.358562e+000
<VARIANCE> 16
 7.146282e+000 7.924638e+000 7.803667e+000 8.278116e+000 8.215008e+000 7.744479e+000 7.417442e+000 6.192583e+000 4.993650e+000 4.917021e+000 4.689638e+000 4.001698e+000 3.476293e+000 2.733744e+000 2.040096e+000 1.741836e+000
<GCONST> 5.524346e+001
<STATE> 6
<MEAN> 16
 6.266127e+000 7.281582e+000 7.565892e+000 7.890716e+000 8.091823e+000 8.275233e+000 8.460707e+000 8.485474e+000 8.459953e+000 8.657755e+000 8.823785e+000 8.863605e+000 8.946163e+000 9.029970e+000 9.207329e+000 9.406685e+000
<VARIANCE> 16
 6.982661e+000 7.729972e+000 7.661454e+000 8.213159e+000 8.236807e+000 7.778998e+000 7.447151e+000 6.211090e+000 5.025367e+000 4.980295e+000 4.775032e+000 4.087961e+000 3.553365e+000 2.813307e+000 2.121595e+000 1.822979e+000
<GCONST> 5.537704e+001
<STATE> 7
<MEAN> 16
 6.431546e+000 7.456203e+000 7.733011e+000 8.074518e+000 8.283151e+000 8.461022e+000 8.635620e+000 8.630600e+000 8.574798e+000 8.771089e+000 8.929117e+000 8.953881e+000 9.027113e+000 9.095395e+000 9.257187e+000 9.444897e+000
<VARIANCE> 16
 6.790562e+000 7.505654e+000 7.488206e+000 8.107767e+000 8.212926e+000 7.769062e+000 7.438003e+000 6.205354e+000 5.034530e+000 5.011487e+000 4.825446e+000 4.146362e+000 3.611007e+000 2.877254e+000 2.187146e+000 1.887352e+000
<GCONST> 5.541402e+001
<STATE> 8
<MEAN> 16
 6.529702e+000 7.560428e+000 7.833807e+000 8.194765e+000 8.416758e+000 8.593043e+000 8.757858e+000 8.727431e+000 8.646729e+000 8.842413e+000 8.994636e+000 9.009501e+000 9.077847e+000 9.137197e+000 9.289378e+000 9.468929e+000
<VARIANCE> 16
 6.632399e+000 7.321073e+000 7.341895e+000 8.017542e+000 8.192352e+000 7.757864e+000 7.428439e+000 6.203776e+000 5.038232e+000 5.024769e+000 4.850981e+000 4.182396e+000 3.652290e+000 2.925004e+000 2.233556e+000 1.930068e+000
<GCONST> 5.541766e+001
<STATE> 9
<MEAN> 16
 6.061748e+000 7.065695e+000 7.356504e+000 7.770036e+000 8.072925e+000 8.287035e+000 8.440460e+000 8.406418e+000 8.329075e+000 8.529275e+000 8.691613e+000 8.740303e+000 8.847176e+000 8.955320e+000 9.151786e+000 9.353660e+000
<VARIANCE> 16
 6.452897e+000 7.104088e+000 7.045745e+000 7.765193e+000 8.091635e+000 7.677517e+000 7.333055e+000 6.120314e+000 4.843253e+000 4.734477e+000 4.529256e+000 3.919589e+000 3.472369e+000 2.778480e+000 2.081679e+000 1.740085e+000
<GCONST> 5.472929e+001
<TRANSP> 10
 0.000000e+000 1.000000e+000 0.000000e+000 0.000000e+000 0.000000e+000 0.000000e+000 0.000000e+000 0.000000e+000 0.000000e+000 0.000000e+000
 0.000000e+000 8.426760e-001 1.573240e-001 0.000000e+000 0.000000e+000 0.000000e+000 0.000000e+000 0.000000e+000 0.000000e+000 0.000000e+000
 0.000000e+000 0.000000e+000 8.426736e-001 1.573264e-001 0.000000e+000 0.000000e+000 0.000000e+000 0.000000e+000 0.000000e+000 0.000000e+000
 0.000000e+000 0.000000e+000 0.000000e+000 8.426760e-001 1.573240e-001 0.000000e+000 0.000000e+000 0.000000e+000 0.000000e+000 0.000000e+000
 0.000000e+000 0.000000e+000 0.000000e+000 0.000000e+000 8.426748e-001 1.573252e-001 0.000000e+000 0.000000e+000 0.000000e+000 0.000000e+000
 0.000000e+000 0.000000e+000 0.000000e+000 0.000000e+000 0.000000e+000 8.426725e-001 1.573275e-001 0.000000e+000 0.000000e+000 0.000000e+000
 0.000000e+000 0.000000e+000 0.000000e+000 0.000000e+000 0.000000e+000 0.000000e+000 8.426751e-001 1.573249e-001 0.000000e+000 0.000000e+000
 0.000000e+000 0.000000e+000 0.000000e+000 0.000000e+000 0.000000e+000 0.000000e+000 0.000000e+000 8.426756e-001 1.573244e-001 0.000000e+000
 0.000000e+000 0.000000e+000 0.000000e+000 0.000000e+000 0.000000e+000 0.000000e+000 0.000000e+000 0.000000e+000 9.765782e-001 2.342182e-002
 0.000000e+000 0.000000e+000 0.000000e+000 0.000000e+000 0.000000e+000 0.000000e+000 0.000000e+000 0.000000e+000 0.000000e+000 0.000000e+000
<ENDHMM>
~h "osm"
<BEGINHMM>
<NUMSTATES> 10
<STATE> 2
<MEAN> 16
 5.356418e+000 6.338916e+000 6.793252e+000 7.106180e+000 7.295845e+000 7.553432e+000 7.712560e+000 7.772131e+000 7.900664e+000 8.224827e+000 8.562446e+000 8.779514e+000 8.997564e+000 9.196472e+000 9.413155e+000 9.620992e+000
<VARIANCE> 16
 6.582768e+000 7.433496e+000 7.395413e+000 7.302411e+000 6.519373e+000 6.021777e+000 5.185687e+000 4.239089e+000 3.819273e+000 4.191619e+000 4.432646e+000 4.499005e+000 4.533557e+000 4.066357e+000 3.245007e+000 2.749281e+000
<GCONST> 5.491467e+001
<STATE> 3
<MEAN> 16
 5.631753e+000 6.631218e+000 7.076679e+000 7.375900e+000 7.543270e+000 7.786511e+000 7.918684e+000 7.943999e+000 8.060700e+000 8.401198e+000 8.744795e+000 8.956687e+000 9.169792e+000 9.350683e+000 9.542962e+000 9.730618e+000
<VARIANCE> 16
 6.807857e+000 7.695076e+000 7.624644e+000 7.481661e+000 6.651896e+000 6.125605e+000 5.257093e+000 4.308878e+000 3.910193e+000 4.331020e+000 4.590290e+000 4.692868e+000 4.745302e+000 4.292197e+000 3.458348e+000 2.953092e+000
<GCONST> 5.547314e+001
<STATE> 4
<MEAN> 16
 5.913003e+000 6.930033e+000 7.362731e+000 7.644156e+000 7.787289e+000 8.015944e+000 8.120799e+000 8.113099e+000 8.218268e+000 8.574700e+000 8.923131e+000 9.130009e+000 9.338082e+000 9.501297e+000 9.669805e+000 9.837447e+000
<VARIANCE> 16
 6.885314e+000 7.791514e+000 7.695439e+000 7.510851e+000 6.658325e+000 6.119308e+000 5.248233e+000 4.328157e+000 3.953087e+000 4.406118e+000 4.674257e+000 4.816899e+000 4.893307e+000 4.466048e+000 3.632050e+000 3.127342e+000
<GCONST> 5.576182e+001
<STATE> 5
<MEAN> 16
 6.186646e+000 7.220814e+000 7.637093e+000 7.896753e+000 8.014557e+000 8.229088e+000 8.307868e+000 8.270689e+000 8.365105e+000 8.735773e+000 9.087067e+000 9.289454e+000 9.493009e+000 9.639882e+000 9.786509e+000 9.935484e+000
<VARIANCE> 16
 6.803298e+000 7.708364e+000 7.596142e+000 7.379496e+000 6.529679e+000 5.995035e+000 5.151287e+000 4.288685e+000 3.941030e+000 4.410716e+000 4.680169e+000 4.864967e+000 4.970514e+000 4.581285e+000 3.760586e+000 3.266231e+000
<GCONST> 5.576920e+001
<STATE> 6
<MEAN> 16
 6.435321e+000 7.485062e+000 7.881382e+000 8.115360e+000 8.207916e+000 8.409495e+000 8.465276e+000 8.404706e+000 8.490109e+000 8.872208e+000 9.223452e+000 9.422041e+000 9.621840e+000 9.754992e+000 9.883547e+000 1.001683e+001
<VARIANCE> 16
 6.588358e+000 7.477179e+000 7.359408e+000 7.117765e+000 6.291270e+000 5.775891e+000 4.984006e+000 4.200164e+000 3.880885e+000 4.353914e+000 4.618884e+000 4.844128e+000 4.981212e+000 4.638581e+000 3.841748e+000 3.364978e+000
<GCONST> 5.553047e+001
<STATE> 7
<MEAN> 16
 6.640669e+000 7.703407e+000 8.076341e+000 8.280929e+000 8.349759e+000 8.540211e+000 8.577713e+000 8.501998e+000 8.581173e+000 8.971087e+000 9.318507e+000 9.513926e+000 9.710557e+000 9.833808e+000 9.950166e+000 1.007247e+001
<VARIANCE> 16
 6.306745e+000 7.174663e+000 7.061455e+000 6.796184e+000 6.002944e+000 5.515578e+000 4.788725e+000 4.090050e+000 3.793870e+000 4.260366e+000 4.516388e+000 4.775035e+000 4.941508e+000 4.646159e+000 3.877556e+000 3.420228e+000
<GCONST> 5.513635e+001
<STATE> 8
<MEAN> 16
 6.786818e+000 7.859232e+000 8.205711e+000 8.377970e+000 8.426168e+000 8.607824e+000 8.632815e+000 8.551316e+000 8.627901e+000 9.021615e+000 9.360878e+000 9.553432e+000 9.746975e+000 9.864904e+000 9.976584e+000 1.009397e+001
<VARIANCE> 16
 6.044259e+000 6.899265e+000 6.797644e+000 6.502291e+000 5.738765e+000 5.279715e+000 4.616743e+000 3.992906e+000 3.707471e+000 4.160939e+000 4.403777e+000 4.683136e+000 4.871348e+000 4.614256e+000 3.870831e+000 3.428973e+000
<GCONST> 5.471138e+001
<STATE> 9
<MEAN> 16
 6.672363e+000 7.745847e+000 7.969138e+000 8.020350e+000 8.041903e+000 8.216078e+000 8.247034e+000 8.219580e+000 8.322984e+000 8.690249e+000 8.956105e+000 9.134940e+000 9.310857e+000 9.449176e+000 9.618055e+000 9.774273e+000
<VARIANCE> 16
 5.971440e+000 6.927521e+000 6.770096e+000 6.206715e+000 5.436788e+000 4.988637e+000 4.417630e+000 3.858740e+000 3.471771e+000 3.835458e+000 3.940663e+000 4.113056e+000 4.207160e+000 3.917698e+000 3.237219e+000 2.807595e+000
<GCONST> 5.338676e+001
<TRANSP> 10
 0.000000e+000 1.000000e+000 0.000000e+000 0.000000e+000 0.000000e+000 0.000000e+000 0.000000e+000 0.000000e+000 0.000000e+000 0.000000e+000
 0.000000e+000 8.426760e-001 1.573240e-001 0.000000e+000 0.000000e+000 0.000000e+000 0.000000e+000 0.000000e+000 0.000000e+000 0.000000e+000
 0.000000e+000 0.000000e+000 8.426736e-001 1.573264e-001 0.000000e+000 0.000000e+000 0.000000e+000 0.000000e+000 0.000000e+000 0.000000e+000
 0.000000e+000 0.000000e+000 0.000000e+000 8.426760e-001 1.573240e-001 0.000000e+000 0.000000e+000 0.000000e+000 0.000000e+000 0.000000e+000
 0.000000e+000 0.000000e+000 0.000000e+000 0.000000e+000 8.426748e-001 1.573252e-001 0.000000e+000 0.000000e+000 0.000000e+000 0.000000e+000
 0.000000e+000 0.000000e+000 0.000000e+000 0.000000e+000 0.000000e+000 8.426725e-001 1.573275e-001 0.000000e+000 0.000000e+000 0.000000e+000
 0.000000e+000 0.000000e+000 0.000000e+000 0.000000e+000 0.000000e+000 0.000000e+000 8.426751e-001 1.573249e-001 0.000000e+000 0.000000e+000
 0.000000e+000 0.000000e+000 0.000000e+000 0.000000e+000 0.000000e+000 0.000000e+000 0.000000e+000 8.426756e-001 1.573244e-001 0.000000e+000
 0.000000e+000 0.000000e+000 0.000000e+000 0.000000e+000 0.000000e+000 0.000000e+000 0.000000e+000 0.000000e+000 9.765782e-001 2.342182e-002
 0.000000e+000 0.000000e+000 0.000000e+000 0.000000e+000 0.000000e+000 0.000000e+000 0.000000e+000 0.000000e+000 0.000000e+000 0.000000e+000
<ENDHMM>
~h "pet"
<BEGINHMM>
<NUMSTATES> 10
<STATE> 2
<MEAN> 16
 4.824236e+000 5.823120e+000 6.343890e+000 6.642316e+000 6.748599e+000 6.858400e+000 7.090622e+000 7.506439e+000 7.832585e+000 8.071062e+000 8.265731e+000 8.372494e+000 8.522248e+000 8.712601e+000 8.942846e+000 9.195008e+000
<VARIANCE> 16
 5.985833e+000 7.007013e+000 7.598158e+000 7.604668e+000 6.148527e+000 4.881769e+000 4.669060e+000 5.292543e+000 5.503928e+000 5.470176e+000 4.910649e+000 4.099295e+000 3.512580e+000 2.794683e+000 1.941774e+000 1.593098e+000
<GCONST> 5.362833e+001
<STATE> 3
<MEAN> 16
 5.015727e+000 6.031577e+000 6.567863e+000 6.876238e+000 6.953191e+000 7.029909e+000 7.251277e+000 7.683534e+000 8.012328e+000 8.246982e+000 8.430823e+000 8.515788e+000 8.651121e+000 8.819286e+000 9.021944e+000 9.258190e+000
<VARIANCE> 16
 6.264381e+000 7.313754e+000 7.953074e+000 7.991335e+000 6.436377e+000 5.038118e+000 4.805275e+000 5.515713e+000 5.809474e+000 5.824615e+000 5.246880e+000 4.377779e+000 3.725201e+000 2.980804e+000 2.099521e+000 1.737807e+000
<GCONST> 5.449630e+001
<STATE> 4
<MEAN> 16
 5.209048e+000 6.242695e+000 6.794901e+000 7.114435e+000 7.160911e+000 7.202675e+000 7.412020e+000 7.860394e+000 8.192379e+000 8.423799e+000 8.597247e+000 8.660271e+000 8.780941e+000 8.927349e+000 9.103310e+000 9.323730e+000
<VARIANCE> 16
 6.489453e+000 7.559940e+000 8.239589e+000 8.302523e+000 6.675855e+000 5.172075e+000 4.932542e+000 5.718961e+000 6.078785e+000 6.137362e+000 5.545502e+000 4.630103e+000 3.922794e+000 3.157305e+000 2.251710e+000 1.878782e+000
<GCONST> 5.522960e+001
<STATE> 5
<MEAN> 16
 5.398258e+000 6.449614e+000 7.017581e+000 7.349240e+000 7.365629e+000 7.371565e+000 7.568209e+000 8.032013e+000 8.367555e+000 8.595744e+000 8.759085e+000 8.800757e+000 8.907146e+000 9.032817e+000 9.183782e+000 9.389021e+000
<VARIANCE> 16
 6.649117e+000 7.730196e+000 8.440365e+000 8.519979e+000 6.853570e+000 5.275609e+000 5.042912e+000 5.893009e+000 6.301229e+000 6.395400e+000 5.793387e+000 4.845194e+000 4.095764e+000 3.316603e+000 2.392031e+000 2.010730e+000
<GCONST> 5.581127e+001
<STATE> 6
<MEAN> 16
 5.574653e+000 6.642395e+000 7.225307e+000 7.569859e+000 7.558575e+000 7.529522e+000 7.713287e+000 8.191218e+000 8.530005e+000 8.754367e+000 8.907952e+000 8.929890e+000 9.023309e+000 9.130244e+000 9.259208e+000 9.450677e+000
<VARIANCE> 16
 6.734656e+000 7.813787e+000 8.543159e+000 8.632798e+000 6.961675e+000 5.343145e+000 5.129377e+000 6.029014e+000 6.466833e+000 6.586342e+000 5.978419e+000 5.012645e+000 4.235104e+000 3.450999e+000 2.513974e+000 2.127651e+000
<GCONST> 5.622845e+001
<STATE> 7
<MEAN> 16
 5.725836e+000 6.807119e+000 7.403401e+000 7.761454e+000 7.727363e+000 7.666534e+000 7.837910e+000 8.327669e+000 8.668335e+000 8.887787e+000 9.032395e+000 9.037642e+000 9.120641e+000 9.212322e+000 9.324148e+000 9.504257e+000
<VARIANCE> 16
 6.747396e+000 7.812758e+000 8.549360e+000 8.645403e+000 7.003635e+000 5.375906e+000 5.190157e+000 6.123749e+000 6.571467e+000 6.703550e+000 6.093786e+000 5.125510e+000 4.334795e+000 3.554214e+000 2.611423e+000 2.223120e+000
<GCONST> 5.648162e+001
<STATE> 8
<MEAN> 16
 5.836733e+000 6.927078e+000 7.534260e+000 7.906086e+000 7.856648e+000 7.770122e+000 7.930452e+000 8.428426e+000 8.768459e+000 8.981730e+000 9.118904e+000 9.112270e+000 9.188775e+000 9.270494e+000 9.372254e+000 9.544564e+000
<VARIANCE> 16
 6.700936e+000 7.744333e+000 8.477419e+000 8.580131e+000 6.995422e+000 5.383371e+000 5.230134e+000 6.181745e+000 6.619174e+000 6.747858e+000 6.139336e+000 5.181208e+000 4.392444e+000 3.621850e+000 2.678788e+000 2.290423e+000
<GCONST> 5.658662e+001
<STATE> 9
<MEAN> 16
 5.603869e+000 6.664705e+000 7.273241e+000 7.680412e+000 7.677486e+000 7.606802e+000 7.756084e+000 8.225322e+000 8.525813e+000 8.708801e+000 8.850903e+000 8.878478e+000 8.993197e+000 9.118486e+000 9.283165e+000 9.479583e+000
<VARIANCE> 16
 5.998597e+000 6.909356e+000 7.536648e+000 7.707385e+000 6.500744e+000 5.124876e+000 5.057118e+000 5.882643e+000 6.076593e+000 5.994810e+000 5.436384e+000 4.630993e+000 4.028923e+000 3.364838e+000 2.501163e+000 2.122904e+000
<GCONST> 5.518886e+001
<TRANSP> 10
 0.000000e+000 1.000000e+000 0.000000e+000 0.000000e+000 0.000000e+000 0.000000e+000 0.000000e+000 0.000000e+000 0.000000e+000 0.000000e+000
 0.000000e+000 8.426760e-001 1.573240e-001 0.000000e+000 0.000000e+000 0.000000e+000 0.000000e+000 0.000000e+000 0.000000e+000 0.000000e+000
 0.000000e+000 0.000000e+000 8.426736e-001 1.573264e-001 0.000000e+000 0.000000e+000 0.000000e+000 0.000000e+000 0.000000e+000 0.000000e+000
 0.000000e+000 0.000000e+000 0.000000e+000 8.426760e-001 1.573240e-001 0.000000e+000 0.000000e+000 0.000000e+000 0.000000e+000 0.000000e+000
 0.000000e+000 0.000000e+000 0.000000e+000 0.000000e+000 8.426748e-001 1.573252e-001 0.000000e+000 0.000000e+000 0.000000e+000 0.000000e+000
 0.000000e+000 0.000000e+000 0.000000e+000 0.000000e+000 0.000000e+000 8.426725e-001 1.573275e-001 0.000000e+000 0.000000e+000 0.000000e+000
 0.000000e+000 0.000000e+000 0.000000e+000 0.000000e+000 0.000000e+000 0.000000e+000 8.426751e-001 1.573249e-001 0.000000e+000 0.000000e+000
 0.000000e+000 0.000000e+000 0.000000e+000 0.000000e+000 0.000000e+000 0.000000e+000 0.000000e+000 8.426756e-001 1.573244e-001 0.000000e+000
 0.000000e+000 0.000000e+000 0.000000e+000 0.000000e+000 0.000000e+000 0.000000e+000 0.000000e+000 0.000000e+000 9.765782e-001 2.342182e-002
 0.000000e+000 0.000000e+000 0.000000e+000 0.000000e+000 0.000000e+000 0.000000e+000 0.000000e+000 0.000000e+000 0.000000e+000 0.000000e+000
<ENDHMM>
~h "sil"
<BEGINHMM>
<NUMSTATES> 5
<STATE> 2
<MEAN> 16
 4.396190e+000 5.329697e+000 5.736191e+000 6.011014e+000 6.219773e+000 6.448216e+000 6.671350e+000 6.955152e+000 7.209095e+000 7.463726e+000 7.712328e+000 7.917670e+000 8.121566e+000 8.403932e+000 8.757230e+000 9.061102e+000
<VARIANCE> 16
 4.955648e+000 5.828587e+000 5.902791e+000 5.702329e+000 5.111308e+000 4.712256e+000 4.641971e+000 4.464934e+000 3.798037e+000 3.436130e+000 3.099923e+000 2.803499e+000 2.719786e+000 2.233033e+000 1.563334e+000 1.240637e+000
<GCONST> 4.969608e+001
<STATE> 3
<MEAN> 16
 4.287056e+000 5.212285e+000 5.620841e+000 5.898570e+000 6.120376e+000 6.360000e+000 6.592481e+000 6.879398e+000 7.135555e+000 7.386250e+000 7.636426e+000 7.846409e+000 8.057877e+000 8.349051e+000 8.710690e+000 9.022786e+000
<VARIANCE> 16
 4.585800e+000 5.393650e+000 5.449079e+000 5.261277e+000 4.744660e+000 4.414418e+000 4.355336e+000 4.173755e+000 3.522998e+000 3.158844e+000 2.839812e+000 2.574778e+000 2.515388e+000 2.065938e+000 1.441140e+000 1.143299e+000
<GCONST> 4.845854e+001
<STATE> 4
<MEAN> 16
 4.438419e+000 5.372440e+000 5.794688e+000 6.070123e+000 6.270186e+000 6.497668e+000 6.732627e+000 7.034709e+000 7.301184e+000 7.559533e+000 7.813583e+000 8.015295e+000 8.221429e+000 8.491279e+000 8.821457e+000 9.111881e+000
<VARIANCE> 16
 4.878436e+000 5.682703e+000 5.806833e+000 5.589943e+000 4.899254e+000 4.490930e+000 4.415662e+000 4.326200e+000 3.857960e+000 3.640023e+000 3.382183e+000 3.092457e+000 2.966590e+000 2.482539e+000 1.803725e+000 1.451995e+000
<GCONST> 5.019839e+001
<TRANSP> 5
 0.000000e+000 1.000000e+000 0.000000e+000 0.000000e+000 0.000000e+000
 0.000000e+000 8.426385e-001 1.573614e-001 0.000000e+000 0.000000e+000
 0.000000e+000 0.000000e+000 8.426489e-001 1.573511e-001 0.000000e+000
 0.000000e+000 0.000000e+000 0.000000e+000 9.765709e-001 2.342912e-002
 0.000000e+000 0.000000e+000 0.000000e+000 0.000000e+000 0.000000e+000
<ENDHMM>
~h "tri"
<BEGINHMM>
<NUMSTATES> 10
<STATE> 2
<MEAN> 16
 4.935830e+000 5.901590e+000 6.431656e+000 6.692131e+000 6.786961e+000 6.958625e+000 7.214407e+000 7.630672e+000 8.007653e+000 8.299141e+000 8.553183e+000 8.747712e+000 8.976624e+000 9.196611e+000 9.386333e+000 9.561761e+000
<VARIANCE> 16
 5.337883e+000 6.027543e+000 6.517662e+000 6.035347e+000 4.649085e+000 4.045903e+000 4.036300e+000 4.680025e+000 5.010044e+000 5.200701e+000 5.144365e+000 5.085656e+000 5.087300e+000 4.569826e+000 3.506611e+000 2.846142e+000
<GCONST> 5.439376e+001
<STATE> 3
<MEAN> 16
 5.141278e+000 6.118036e+000 6.656883e+000 6.906920e+000 6.963913e+000 7.110282e+000 7.356037e+000 7.790884e+000 8.187515e+000 8.491212e+000 8.744071e+000 8.928041e+000 9.152832e+000 9.354020e+000 9.510257e+000 9.661070e+000
<VARIANCE> 16
 5.563912e+000 6.272951e+000 6.785242e+000 6.248699e+000 4.729644e+000 4.079403e+000 4.070730e+000 4.794012e+000 5.216555e+000 5.470624e+000 5.418948e+000 5.366757e+000 5.361993e+000 4.841854e+000 3.745461e+000 3.066320e+000
<GCONST> 5.505571e+001
<STATE> 4
<MEAN> 16
 5.348534e+000 6.336631e+000 6.883442e+000 7.121634e+000 7.138756e+000 7.258454e+000 7.492727e+000 7.945713e+000 8.363459e+000 8.680448e+000 8.931691e+000 9.104822e+000 9.324565e+000 9.507098e+000 9.631179e+000 9.758305e+000
<VARIANCE> 16
 5.730068e+000 6.454560e+000 6.983518e+000 6.402539e+000 4.775957e+000 4.093388e+000 4.095519e+000 4.889048e+000 5.383519e+000 5.686443e+000 5.635573e+000 5.591804e+000 5.585660e+000 5.070568e+000 3.951218e+000 3.263409e+000
<GCONST> 5.555894e+001
<STATE> 5
<MEAN> 16
 5.549889e+000 6.549339e+000 7.102664e+000 7.328047e+000 7.304286e+000 7.396876e+000 7.618716e+000 8.088999e+000 8.528413e+000 8.858996e+000 9.107813e+000 9.269817e+000 9.483590e+000 9.648141e+000 9.742564e+000 9.848203e+000
<VARIANCE> 16
 5.832804e+000 6.566893e+000 7.106888e+000 6.492811e+000 4.787546e+000 4.088587e+000 4.110343e+000 4.962692e+000 5.506647e+000 5.841804e+000 5.788667e+000 5.754688e+000 5.751325e+000 5.247699e+000 4.115406e+000 3.428854e+000
<GCONST> 5.590410e+001
<STATE> 6
<MEAN> 16
 5.734824e+000 6.745331e+000 7.302724e+000 7.515015e+000 7.450922e+000 7.517122e+000 7.726202e+000 8.211953e+000 8.672241e+000 9.015814e+000 9.260977e+000 9.411299e+000 9.618178e+000 9.766131e+000 9.834859e+000 9.922999e+000
<VARIANCE> 16
 5.880317e+000 6.617631e+000 7.163662e+000 6.526956e+000 4.771483e+000 4.070240e+000 4.116499e+000 5.015038e+000 5.587529e+000 5.938328e+000 5.879456e+000 5.853770e+000 5.854967e+000 5.366014e+000 4.228520e+000 3.551810e+000
<GCONST> 5.610335e+001
<STATE> 7
<MEAN> 16
 5.889901e+000 6.910734e+000 7.468556e+000 7.668164e+000 7.566510e+000 7.608497e+000 7.805128e+000 8.303036e+000 8.781860e+000 9.137000e+000 9.376916e+000 9.514786e+000 9.713910e+000 9.847597e+000 9.896527e+000 9.973244e+000
<VARIANCE> 16
 5.895922e+000 6.631584e+000 7.181655e+000 6.529958e+000 4.747292e+000 4.052591e+000 4.122563e+000 5.054822e+000 5.638970e+000 5.990448e+000 5.921304e+000 5.897068e+000 5.901010e+000 5.424190e+000 4.283523e+000 3.621472e+000
<GCONST> 5.619434e+001
<STATE> 8
<MEAN> 16
 6.000373e+000 7.030059e+000 7.583662e+000 7.771690e+000 7.638090e+000 7.659822e+000 7.844923e+000 8.349941e+000 8.843390e+000 9.208015e+000 9.440935e+000 9.565718e+000 9.756492e+000 9.879444e+000 9.916607e+000 9.989919e+000
<VARIANCE> 16
 5.911791e+000 6.644044e+000 7.200055e+000 6.537728e+000 4.741393e+000 4.054650e+000 4.141414e+000 5.095572e+000 5.679913e+000 6.020694e+000 5.934840e+000 5.898550e+000 5.899569e+000 5.424922e+000 4.275973e+000 3.628461e+000
<GCONST> 5.622937e+001
<STATE> 9
<MEAN> 16
 5.752714e+000 6.778516e+000 7.269250e+000 7.442789e+000 7.304807e+000 7.326642e+000 7.491542e+000 7.944521e+000 8.421983e+000 8.791953e+000 8.992705e+000 9.084348e+000 9.256625e+000 9.400373e+000 9.503917e+000 9.654143e+000
<VARIANCE> 16
 5.985652e+000 6.667758e+000 7.207391e+000 6.537884e+000 4.810918e+000 4.138997e+000 4.149303e+000 4.979781e+000 5.498050e+000 5.787161e+000 5.573793e+000 5.294375e+000 5.197432e+000 4.622198e+000 3.436416e+000 2.844991e+000
<GCONST> 5.526884e+001
<TRANSP> 10
 0.000000e+000 1.000000e+000 0.000000e+000 0.000000e+000 0.000000e+000 0.000000e+000 0.000000e+000 0.000000e+000 0.000000e+000 0.000000e+000
 0.000000e+000 8.426760e-001 1.573240e-001 0.000000e+000 0.000000e+000 0.000000e+000 0.000000e+000 0.000000e+000 0.000000e+000 0.000000e+000
 0.000000e+000 0.000000e+000 8.426736e-001 1.573264e-001 0.000000e+000 0.000000e+000 0.000000e+000 0.000000e+000 0.000000e+000 0.000000e+000
 0.000000e+000 0.000000e+000 0.000000e+000 8.426760e-001 1.573240e-001 0.000000e+000 0.000000e+000 0.000000e+000 0.000000e+000 0.000000e+000
 0.000000e+000 0.000000e+000 0.000000e+000 0.000000e+000 8.426748e-001 1.573252e-001 0.000000e+000 0.000000e+000 0.000000e+000 0.000000e+000
 0.000000e+000 0.000000e+000 0.000000e+000 0.000000e+000 0.000000e+000 8.426725e-001 1.573275e-001 0.000000e+000 0.000000e+000 0.000000e+000
 0.000000e+000 0.000000e+000 0.000000e+000 0.000000e+000 0.000000e+000 0.000000e+000 8.426751e-001 1.573249e-001 0.000000e+000 0.000000e+000
 0.000000e+000 0.000000e+000 0.000000e+000 0.000000e+000 0.000000e+000 0.000000e+000 0.000000e+000 8.426756e-001 1.573244e-001 0.000000e+000
 0.000000e+000 0.000000e+000 0.000000e+000 0.000000e+000 0.000000e+000 0.000000e+000 0.000000e+000 0.000000e+000 9.765782e-001 2.342182e-002
 0.000000e+000 0.000000e+000 0.000000e+000 0.000000e+000 0.000000e+000 0.000000e+000 0.000000e+000 0.000000e+000 0.000000e+000 0.000000e+000
<ENDHMM>
~h "nula"
<BEGINHMM>
<NUMSTATES> 10
<STATE> 2
<MEAN> 16
 5.440466e+000 6.441857e+000 6.810853e+000 7.087015e+000 7.260198e+000 7.471420e+000 7.566262e+000 7.648194e+000 7.775525e+000 8.040167e+000 8.312825e+000 8.433769e+000 8.523910e+000 8.697351e+000 8.980959e+000 9.273950e+000
<VARIANCE> 16
 8.594722e+000 1.034507e+001 1.048007e+001 1.034083e+001 9.386554e+000 8.801745e+000 7.963272e+000 6.473142e+000 5.145984e+000 4.994231e+000 4.700239e+000 4.137527e+000 3.615300e+000 2.749613e+000 1.794012e+000 1.497393e+000
<GCONST> 5.643502e+001
<STATE> 3
<MEAN> 16
 5.729397e+000 6.762360e+000 7.123410e+000 7.401204e+000 7.562390e+000 7.760852e+000 7.830889e+000 7.864577e+000 7.954672e+000 8.216845e+000 8.485164e+000 8.585574e+000 8.655312e+000 8.796852e+000 9.049759e+000 9.326324e+000
<VARIANCE> 16
 8.765142e+000 1.046533e+001 1.061025e+001 1.054784e+001 9.610174e+000 9.005402e+000 8.101446e+000 6.525465e+000 5.206211e+000 5.132429e+000 4.869039e+000 4.298501e+000 3.722216e+000 2.834926e+000 1.860727e+000 1.575789e+000
<GCONST> 5.682968e+001
<STATE> 4
<MEAN> 16
 6.021158e+000 7.086671e+000 7.439091e+000 7.719303e+000 7.869857e+000 8.055995e+000 8.100874e+000 8.084381e+000 8.135812e+000 8.395373e+000 8.659176e+000 8.739530e+000 8.788799e+000 8.898285e+000 9.119574e+000 9.379195e+000
<VARIANCE> 16
 8.756033e+000 1.036414e+001 1.052781e+001 1.054847e+001 9.652356e+000 9.047528e+000 8.107094e+000 6.491927e+000 5.206614e+000 5.208625e+000 4.979812e+000 4.415105e+000 3.797937e+000 2.902086e+000 1.918419e+000 1.649602e+000
<GCONST> 5.699971e+001
<STATE> 5
<MEAN> 16
 6.301739e+000 7.399120e+000 7.743299e+000 8.027787e+000 8.170052e+000 8.344941e+000 8.365300e+000 8.298877e+000 8.311445e+000 8.567967e+000 8.827461e+000 8.889207e+000 8.919036e+000 8.997553e+000 9.187405e+000 9.430223e+000
<VARIANCE> 16
 8.569115e+000 1.004626e+001 1.023829e+001 1.034591e+001 9.515198e+000 8.928183e+000 7.981546e+000 6.374228e+000 5.146338e+000 5.219354e+000 5.029551e+000 4.483370e+000 3.839370e+000 2.948766e+000 1.964790e+000 1.716132e+000
<GCONST> 5.694414e+001
<STATE> 6
<MEAN> 16
 6.552436e+000 7.678548e+000 8.015965e+000 8.307851e+000 8.445637e+000 8.611406e+000 8.609424e+000 8.495932e+000 8.471080e+000 8.723979e+000 8.979775e+000 9.025679e+000 9.038559e+000 9.089029e+000 9.249358e+000 9.476370e+000
<VARIANCE> 16
 8.241409e+000 9.562929e+000 9.790216e+000 9.984553e+000 9.238120e+000 8.681417e+000 7.754725e+000 6.194068e+000 5.037251e+000 5.172095e+000 5.024377e+000 4.506474e+000 3.849383e+000 2.975604e+000 1.998591e+000 1.772653e+000
<GCONST> 5.669518e+001
<STATE> 7
<MEAN> 16
 6.751798e+000 7.900721e+000 8.233429e+000 8.536776e+000 8.675644e+000 8.835668e+000 8.815455e+000 8.660854e+000 8.601959e+000 8.850528e+000 9.103590e+000 9.137933e+000 9.138136e+000 9.165758e+000 9.300718e+000 9.513895e+000
<VARIANCE> 16
 7.846543e+000 9.011752e+000 9.274577e+000 9.550449e+000 8.897359e+000 8.375035e+000 7.484971e+000 5.992085e+000 4.904541e+000 5.086373e+000 4.981401e+000 4.495767e+000 3.836836e+000 2.986318e+000 2.020044e+000 1.816708e+000
<GCONST> 5.632725e+001
<STATE> 8
<MEAN> 16
 6.879318e+000 8.042701e+000 8.372696e+000 8.691462e+000 8.838329e+000 8.997094e+000 8.964872e+000 8.778463e+000 8.691051e+000 8.934410e+000 9.185924e+000 9.214403e+000 9.207987e+000 9.220304e+000 9.336437e+000 9.538732e+000
<VARIANCE> 16
 7.476127e+000 8.510382e+000 8.801085e+000 9.149705e+000 8.587903e+000 8.094901e+000 7.245019e+000 5.817560e+000 4.779641e+000 4.988450e+000 4.923379e+000 4.467028e+000 3.813630e+000 2.985813e+000 2.030089e+000 1.845787e+000
<GCONST> 5.594606e+001
<STATE> 9
<MEAN> 16
 6.455863e+000 7.577370e+000 7.897784e+000 8.269814e+000 8.503845e+000 8.708618e+000 8.721852e+000 8.560479e+000 8.455528e+000 8.667253e+000 8.916034e+000 8.989058e+000 9.038785e+000 9.094053e+000 9.237476e+000 9.443731e+000
<VARIANCE> 16
 6.896559e+000 7.805766e+000 7.983735e+000 8.519338e+000 8.274008e+000 7.849795e+000 7.083134e+000 5.689281e+000 4.508145e+000 4.559192e+000 4.580307e+000 4.166350e+000 3.600411e+000 2.812372e+000 1.916774e+000 1.723009e+000
<GCONST> 5.496320e+001
<TRANSP> 10
 0.000000e+000 1.000000e+000 0.000000e+000 0.000000e+000 0.000000e+000 0.000000e+000 0.000000e+000 0.000000e+000 0.000000e+000 0.000000e+000
 0.000000e+000 8.426760e-001 1.573240e-001 0.000000e+000 0.000000e+000 0.000000e+000 0.000000e+000 0.000000e+000 0.000000e+000 0.000000e+000
 0.000000e+000 0.000000e+000 8.426736e-001 1.573264e-001 0.000000e+000 0.000000e+000 0.000000e+000 0.000000e+000 0.000000e+000 0.000000e+000
 0.000000e+000 0.000000e+000 0.000000e+000 8.426760e-001 1.573240e-001 0.000000e+000 0.000000e+000 0.000000e+000 0.000000e+000 0.000000e+000
 0.000000e+000 0.000000e+000 0.000000e+000 0.000000e+000 8.426748e-001 1.573252e-001 0.000000e+000 0.000000e+000 0.000000e+000 0.000000e+000
 0.000000e+000 0.000000e+000 0.000000e+000 0.000000e+000 0.000000e+000 8.426725e-001 1.573275e-001 0.000000e+000 0.000000e+000 0.000000e+000
 0.000000e+000 0.000000e+000 0.000000e+000 0.000000e+000 0.000000e+000 0.000000e+000 8.426751e-001 1.573249e-001 0.000000e+000 0.000000e+000
 0.000000e+000 0.000000e+000 0.000000e+000 0.000000e+000 0.000000e+000 0.000000e+000 0.000000e+000 8.426756e-001 1.573244e-001 0.000000e+000
 0.000000e+000 0.000000e+000 0.000000e+000 0.000000e+000 0.000000e+000 0.000000e+000 0.000000e+000 0.000000e+000 9.765782e-001 2.342182e-002
 0.000000e+000 0.000000e+000 0.000000e+000 0.000000e+000 0.000000e+000 0.000000e+000 0.000000e+000 0.000000e+000 0.000000e+000 0.000000e+000
<ENDHMM>
~h "devet"
<BEGINHMM>
<NUMSTATES> 10
<STATE> 2
<MEAN> 16
 5.297327e+000 6.304154e+000 6.770892e+000 6.993598e+000 6.978452e+000 7.050379e+000 7.278968e+000 7.736461e+000 8.055633e+000 8.262631e+000 8.437732e+000 8.537498e+000 8.660000e+000 8.814646e+000 9.029317e+000 9.258896e+000
<VARIANCE> 16
 7.513234e+000 8.732140e+000 9.509511e+000 9.171684e+000 6.984865e+000 5.547997e+000 5.536541e+000 6.443353e+000 6.291559e+000 5.914564e+000 5.206399e+000 4.486435e+000 3.843616e+000 3.004599e+000 2.076883e+000 1.658363e+000
<GCONST> 5.574055e+001
<STATE> 3
<MEAN> 16
 5.574365e+000 6.603961e+000 7.083961e+000 7.301779e+000 7.236038e+000 7.264824e+000 7.484659e+000 7.964242e+000 8.281359e+000 8.480798e+000 8.639700e+000 8.712989e+000 8.818897e+000 8.943145e+000 9.122596e+000 9.329978e+000
<VARIANCE> 16
 7.687337e+000 8.899691e+000 9.762522e+000 9.453635e+000 7.155846e+000 5.621313e+000 5.613817e+000 6.632095e+000 6.552796e+000 6.216296e+000 5.486277e+000 4.724538e+000 4.016537e+000 3.162400e+000 2.216602e+000 1.792940e+000
<GCONST> 5.635189e+001
<STATE> 4
<MEAN> 16
 5.854350e+000 6.906854e+000 7.402136e+000 7.616148e+000 7.499479e+000 7.483242e+000 7.693176e+000 8.195224e+000 8.510610e+000 8.702245e+000 8.844641e+000 8.891284e+000 8.980583e+000 9.074337e+000 9.218561e+000 9.403303e+000
<VARIANCE> 16
 7.701520e+000 8.883967e+000 9.814037e+000 9.544416e+000 7.199765e+000 5.613153e+000 5.620549e+000 6.729474e+000 6.716775e+000 6.425770e+000 5.686419e+000 4.901762e+000 4.142086e+000 3.291034e+000 2.341425e+000 1.920764e+000
<GCONST> 5.671204e+001
<STATE> 5
<MEAN> 16
 6.123118e+000 7.197780e+000 7.710504e+000 7.922799e+000 7.757150e+000 7.696113e+000 7.895429e+000 8.419756e+000 8.734136e+000 8.917732e+000 9.043764e+000 9.064412e+000 9.137712e+000 9.202065e+000 9.312737e+000 9.475510e+000
<VARIANCE> 16
 7.565034e+000 8.696403e+000 9.670226e+000 9.447001e+000 7.119586e+000 5.529085e+000 5.563718e+000 6.739554e+000 6.782033e+000 6.538723e+000 5.801255e+000 5.012662e+000 4.217170e+000 3.385854e+000 2.445392e+000 2.035618e+000
<GCONST> 5.683020e+001
<STATE> 6
<MEAN> 16
 6.362406e+000 7.457256e+000 7.989498e+000 8.203365e+000 7.993863e+000 7.890964e+000 8.079689e+000 8.624966e+000 8.939054e+000 9.114666e+000 9.225247e+000 9.221747e+000 9.280628e+000 9.318439e+000 9.399269e+000 9.542034e+000
<VARIANCE> 16
 7.315114e+000 8.380477e+000 9.369920e+000 9.193762e+000 6.937019e+000 5.385576e+000 5.457344e+000 6.675324e+000 6.757846e+000 6.561243e+000 5.834865e+000 5.058318e+000 4.243737e+000 3.445086e+000 2.523635e+000 2.131275e+000
<GCONST> 5.673547e+001
<STATE> 7
<MEAN> 16
 6.552089e+000 7.663607e+000 8.216748e+000 8.436499e+000 8.192122e+000 8.053467e+000 8.232476e+000 8.795705e+000 9.109819e+000 9.277990e+000 9.375057e+000 9.350870e+000 9.398253e+000 9.414606e+000 9.471576e+000 9.597661e+000
<VARIANCE> 16
 7.015065e+000 8.010820e+000 8.986238e+000 8.848791e+000 6.695112e+000 5.211167e+000 5.323542e+000 6.560939e+000 6.667514e+000 6.513133e+000 5.804003e+000 5.049317e+000 4.230796e+000 3.471500e+000 2.574340e+000 2.203254e+000
<GCONST> 5.648769e+001
<STATE> 8
<MEAN> 16
 6.673467e+000 7.796512e+000 8.370401e+000 8.600839e+000 8.334458e+000 8.169284e+000 8.340139e+000 8.916331e+000 9.230209e+000 9.392058e+000 9.478713e+000 9.439184e+000 9.479553e+000 9.481833e+000 9.523205e+000 9.637261e+000
<VARIANCE> 16
 6.737990e+000 7.674266e+000 8.610164e+000 8.495340e+000 6.450460e+000 5.041991e+000 5.189628e+000 6.428471e+000 6.545486e+000 6.424560e+000 5.734995e+000 5.003569e+000 4.192964e+000 3.471968e+000 2.599066e+000 2.249461e+000
<GCONST> 5.617310e+001
<STATE> 9
<MEAN> 16
 6.279562e+000 7.378438e+000 7.989363e+000 8.292475e+000 8.115351e+000 7.976311e+000 8.133020e+000 8.675838e+000 8.972612e+000 9.126717e+000 9.222305e+000 9.208623e+000 9.293949e+000 9.350510e+000 9.444944e+000 9.578597e+000
<VARIANCE> 16
 6.224834e+000 7.101198e+000 7.774549e+000 7.656010e+000 5.925279e+000 4.685298e+000 4.797686e+000 5.891809e+000 5.974403e+000 5.843405e+000 5.227471e+000 4.541213e+000 3.864876e+000 3.231297e+000 2.438500e+000 2.129543e+000
<GCONST> 5.483857e+001
<TRANSP> 10
 0.000000e+000 1.000000e+000 0.000000e+000 0.000000e+000 0.000000e+000 0.000000e+000 0.000000e+000 0.000000e+000 0.000000e+000 0.000000e+000
 0.000000e+000 8.426760e-001 1.573240e-001 0.000000e+000 0.000000e+000 0.000000e+000 0.000000e+000 0.000000e+000 0.000000e+000 0.000000e+000
 0.000000e+000 0.000000e+000 8.426736e-001 1.573264e-001 0.000000e+000 0.000000e+000 0.000000e+000 0.000000e+000 0.000000e+000 0.000000e+000
 0.000000e+000 0.000000e+000 0.000000e+000 8.426760e-001 1.573240e-001 0.000000e+000 0.000000e+000 0.000000e+000 0.000000e+000 0.000000e+000
 0.000000e+000 0.000000e+000 0.000000e+000 0.000000e+000 8.426748e-001 1.573252e-001 0.000000e+000 0.000000e+000 0.000000e+000 0.000000e+000
 0.000000e+000 0.000000e+000 0.000000e+000 0.000000e+000 0.000000e+000 8.426725e-001 1.573275e-001 0.000000e+000 0.000000e+000 0.000000e+000
 0.000000e+000 0.000000e+000 0.000000e+000 0.000000e+000 0.000000e+000 0.000000e+000 8.426751e-001 1.573249e-001 0.000000e+000 0.000000e+000
 0.000000e+000 0.000000e+000 0.000000e+000 0.000000e+000 0.000000e+000 0.000000e+000 0.000000e+000 8.426756e-001 1.573244e-001 0.000000e+000
 0.000000e+000 0.000000e+000 0.000000e+000 0.000000e+000 0.000000e+000 0.000000e+000 0.000000e+000 0.000000e+000 9.765782e-001 2.342182e-002
 0.000000e+000 0.000000e+000 0.000000e+000 0.000000e+000 0.000000e+000 0.000000e+000 0.000000e+000 0.000000e+000 0.000000e+000 0.000000e+000
<ENDHMM>
~h "jedna"
<BEGINHMM>
<NUMSTATES> 10
<STATE> 2
<MEAN> 16
 5.613904e+000 6.666559e+000 7.033089e+000 7.176016e+000 7.183130e+000 7.264304e+000 7.472352e+000 7.813724e+000 8.103360e+000 8.390181e+000 8.614489e+000 8.732365e+000 8.808603e+000 8.904404e+000 9.072271e+000 9.301837e+000
<VARIANCE> 16
 7.722049e+000 9.059147e+000 9.018083e+000 8.214727e+000 6.658239e+000 5.733206e+000 5.677928e+000 5.798780e+000 5.541864e+000 5.537911e+000 5.171907e+000 4.533696e+000 3.823313e+000 2.940592e+000 2.023176e+000 1.627261e+000
<GCONST> 5.528543e+001
<STATE> 3
<MEAN> 16
 5.928311e+000 7.008547e+000 7.361493e+000 7.489170e+000 7.461603e+000 7.511142e+000 7.708188e+000 8.047499e+000 8.325506e+000 8.607626e+000 8.823086e+000 8.920021e+000 8.970216e+000 9.029289e+000 9.160155e+000 9.369243e+000
<VARIANCE> 16
 7.830972e+000 9.146603e+000 9.099974e+000 8.327956e+000 6.794137e+000 5.859476e+000 5.827875e+000 5.948439e+000 5.687837e+000 5.703257e+000 5.338812e+000 4.690075e+000 3.937750e+000 3.054950e+000 2.134250e+000 1.739641e+000
<GCONST> 5.573428e+001
<STATE> 4
<MEAN> 16
 6.243621e+000 7.351416e+000 7.689498e+000 7.803548e+000 7.743993e+000 7.763073e+000 7.949063e+000 8.284116e+000 8.547717e+000 8.822632e+000 9.028635e+000 9.104669e+000 9.128923e+000 9.152367e+000 9.247563e+000 9.436170e+000
<VARIANCE> 16
 7.749430e+000 9.010017e+000 8.979750e+000 8.268796e+000 6.806981e+000 5.896736e+000 5.903811e+000 6.020203e+000 5.747922e+000 5.776338e+000 5.418963e+000 4.777714e+000 4.005863e+000 3.142472e+000 2.230453e+000 1.843583e+000
<GCONST> 5.592567e+001
<STATE> 5
<MEAN> 16
 6.543254e+000 7.676719e+000 7.999480e+000 8.103618e+000 8.017521e+000 8.009179e+000 8.184761e+000 8.513165e+000 8.758974e+000 9.023053e+000 9.218971e+000 9.275312e+000 9.275316e+000 9.266630e+000 9.329810e+000 9.499086e+000
<VARIANCE> 16
 7.493124e+000 8.671560e+000 8.676049e+000 8.049052e+000 6.701249e+000 5.846229e+000 5.904201e+000 6.013031e+000 5.722250e+000 5.759068e+000 5.414403e+000 4.797217e+000 4.027892e+000 3.200810e+000 2.307402e+000 1.934190e+000
<GCONST> 5.586856e+001
<STATE> 6
<MEAN> 16
 6.806660e+000 7.961697e+000 8.269294e+000 8.369592e+000 8.265947e+000 8.235633e+000 8.402346e+000 8.721280e+000 8.944957e+000 9.193812e+000 9.379167e+000 9.418472e+000 9.397818e+000 9.363248e+000 9.400777e+000 9.553188e+000
<VARIANCE> 16
 7.118971e+000 8.201575e+000 8.251460e+000 7.718504e+000 6.510920e+000 5.731060e+000 5.846109e+000 5.943019e+000 5.627919e+000 5.669493e+000 5.341774e+000 4.760204e+000 4.011320e+000 3.230457e+000 2.360868e+000 2.005768e+000
<GCONST> 5.561000e+001
<STATE> 7
<MEAN> 16
 7.012274e+000 8.182547e+000 8.475594e+000 8.579859e+000 8.471236e+000 8.427011e+000 8.587416e+000 8.893587e+000 9.089990e+000 9.319137e+000 9.494016e+000 9.520466e+000 9.484619e+000 9.433000e+000 9.453904e+000 9.593245e+000
<VARIANCE> 16
 6.720953e+000 7.713018e+000 7.806973e+000 7.363161e+000 6.299552e+000 5.597662e+000 5.767147e+000 5.846012e+000 5.500515e+000 5.541492e+000 5.232101e+000 4.689676e+000 3.971156e+000 3.235998e+000 2.388832e+000 2.053542e+000
<GCONST> 5.524749e+001
<STATE> 8
<MEAN> 16
 7.141473e+000 8.318844e+000 8.598415e+000 8.715034e+000 8.616470e+000 8.568593e+000 8.726143e+000 9.015988e+000 9.180013e+000 9.385818e+000 9.551255e+000 9.570304e+000 9.526247e+000 9.468274e+000 9.483553e+000 9.614765e+000
<VARIANCE> 16
 6.402973e+000 7.327744e+000 7.451601e+000 7.079974e+000 6.142663e+000 5.503130e+000 5.714656e+000 5.767936e+000 5.383307e+000 5.413590e+000 5.119438e+000 4.611147e+000 3.923785e+000 3.223338e+000 2.391345e+000 2.074335e+000
<GCONST> 5.490880e+001
<STATE> 9
<MEAN> 16
 6.759362e+000 7.875649e+000 8.121370e+000 8.338985e+000 8.415750e+000 8.464512e+000 8.643599e+000 8.846658e+000 8.871206e+000 8.990624e+000 9.150913e+000 9.204359e+000 9.206970e+000 9.229018e+000 9.330330e+000 9.486537e+000
<VARIANCE> 16
 6.435906e+000 7.335362e+000 7.312167e+000 7.091209e+000 6.463192e+000 5.851469e+000 6.018048e+000 5.874073e+000 5.178943e+000 4.977680e+000 4.692597e+000 4.233088e+000 3.620528e+000 2.937951e+000 2.138942e+000 1.848814e+000
<GCONST> 5.438483e+001
<TRANSP> 10
 0.000000e+000 1.000000e+000 0.000000e+000 0.000000e+000 0.000000e+000 0.000000e+000 0.000000e+000 0.000000e+000 0.000000e+000 0.000000e+000
 0.000000e+000 8.426760e-001 1.573240e-001 0.000000e+000 0.000000e+000 0.000000e+000 0.000000e+000 0.000000e+000 0.000000e+000 0.000000e+000
 0.000000e+000 0.000000e+000 8.426736e-001 1.573264e-001 0.000000e+000 0.000000e+000 0.000000e+000 0.000000e+000 0.000000e+000 0.000000e+000
 0.000000e+000 0.000000e+000 0.000000e+000 8.426760e-001 1.573240e-001 0.000000e+000 0.000000e+000 0.000000e+000 0.000000e+000 0.000000e+000
 0.000000e+000 0.000000e+000 0.000000e+000 0.000000e+000 8.426748e-001 1.573252e-001 0.000000e+000 0.000000e+000 0.000000e+000 0.000000e+000
 0.000000e+000 0.000000e+000 0.000000e+000 0.000000e+000 0.000000e+000 8.426725e-001 1.573275e-001 0.000000e+000 0.000000e+000 0.000000e+000
 0.000000e+000 0.000000e+000 0.000000e+000 0.000000e+000 0.000000e+000 0.000000e+000 8.426751e-001 1.573249e-001 0.000000e+000 0.000000e+000
 0.000000e+000 0.000000e+000 0.000000e+000 0.000000e+000 0.000000e+000 0.000000e+000 0.000000e+000 8.426756e-001 1.573244e-001 0.000000e+000
 0.000000e+000 0.000000e+000 0.000000e+000 0.000000e+000 0.000000e+000 0.000000e+000 0.000000e+000 0.000000e+000 9.765782e-001 2.342182e-002
 0.000000e+000 0.000000e+000 0.000000e+000 0.000000e+000 0.000000e+000 0.000000e+000 0.000000e+000 0.000000e+000 0.000000e+000 0.000000e+000
<ENDHMM>
