~o
<STREAMINFO> 1 39
<VECSIZE> 39<NULLD><MFCC_D_A_0><DIAGC>
~h "a"
<BEGINHMM>
<NUMSTATES> 5
<STATE> 2
<NUMMIXES> 4
<MIXTURE> 1 9.791966e-002
<MEAN> 39
 -9.359332e+000 -3.913890e+000 -6.351198e+000 -5.361476e+000 -3.000569e+000 -2.373934e+000 -1.250018e+000 3.952921e-001 3.810031e+000 1.573355e+000 -2.189137e+000 -4.063328e+000 5.517180e+001 2.464212e-001 -3.322555e-001 -6.426517e-001 -8.162975e-003 9.274879e-001 9.216328e-001 2.166035e-001 -2.429100e-001 4.188173e-002 5.118454e-002 -1.689358e-001 -5.337384e-001 2.075809e-001 3.782887e-001 -4.108955e-001 2.140686e-001 -3.703310e-001 -2.889344e-002 1.610172e-001 -2.576144e-001 -1.291819e-001 -3.615137e-001 -6.729411e-002 1.771205e-002 -9.125450e-002 7.366083e-001
<VARIANCE> 39
 4.102308e+001 5.212125e+001 5.404115e+001 7.389541e+001 9.308453e+001 8.228242e+001 6.727529e+001 6.332302e+001 5.739104e+001 6.077491e+001 5.629949e+001 5.379131e+001 1.137925e+002 2.301088e+000 2.617716e+000 3.149683e+000 3.278117e+000 4.076643e+000 3.795588e+000 3.390656e+000 3.797380e+000 3.873725e+000 3.596172e+000 3.544886e+000 3.305208e+000 3.607206e+000 4.744984e-001 7.262689e-001 6.698722e-001 7.364746e-001 8.713341e-001 8.576429e-001 7.996982e-001 8.735280e-001 8.942087e-001 8.100296e-001 8.422709e-001 7.431402e-001 9.719744e-001
<GCONST> 1.384066e+002
<MIXTURE> 2 4.987744e-001
<MEAN> 39
 1.021608e+000 -9.790622e+000 -4.928382e+000 -1.248597e+001 -5.346151e+000 -6.827889e-001 -7.834062e+000 -1.002789e+000 1.673888e+000 1.776895e+000 -2.496761e+000 -8.744234e+000 7.344772e+001 5.946694e-001 -1.492218e+000 -7.928395e-001 -8.664748e-001 3.502067e-001 8.442143e-001 -1.965055e-001 6.160869e-001 4.060442e-001 4.876073e-002 -3.622109e-001 -1.126700e+000 1.139159e+000 -4.681360e-001 6.274892e-001 4.022722e-001 6.260853e-001 2.041358e-001 -3.096940e-001 3.160330e-001 -2.561046e-001 -2.952980e-001 -7.805408e-002 2.963302e-002 5.012911e-001 -6.384103e-001
<VARIANCE> 39
 2.161338e+001 4.002172e+001 4.442243e+001 7.090030e+001 6.106105e+001 9.079627e+001 8.296901e+001 6.593738e+001 6.287782e+001 6.153248e+001 6.993635e+001 3.843865e+001 5.498831e+001 1.789923e+000 1.837883e+000 2.316531e+000 2.795545e+000 3.330861e+000 3.645328e+000 3.372611e+000 3.522080e+000 3.394326e+000 3.072697e+000 3.088469e+000 2.706603e+000 1.136335e+000 3.850382e-001 3.537031e-001 4.202020e-001 5.178484e-001 6.346046e-001 6.578373e-001 7.008374e-001 7.479966e-001 6.830269e-001 6.232108e-001 6.203635e-001 5.112557e-001 2.355799e-001
<GCONST> 1.280270e+002
<MIXTURE> 3 3.126688e-001
<MEAN> 39
 -4.132164e-001 -1.258145e+001 -4.969624e+000 -1.571023e+001 -1.729002e+000 -6.840489e+000 -4.549047e+000 -4.091553e-001 -3.096612e+000 -7.575442e-001 -1.113368e+001 -3.457851e+000 7.548103e+001 1.895826e+000 -2.458010e+000 -9.307222e-001 -2.144579e+000 3.705803e-002 5.886155e-002 -7.223030e-001 1.283423e-001 -1.043361e+000 -3.204198e-001 -1.887793e+000 -9.109216e-001 2.893020e+000 -7.599356e-001 8.248294e-001 3.849176e-001 8.975372e-001 7.990178e-002 2.217565e-001 3.194731e-001 -5.508403e-002 2.002509e-001 5.171636e-002 7.112873e-001 2.095986e-001 -1.187109e+000
<VARIANCE> 39
 1.667424e+001 4.959964e+001 4.563787e+001 5.459962e+001 8.295926e+001 9.879288e+001 8.658237e+001 6.759859e+001 6.337134e+001 6.104594e+001 6.548691e+001 4.743873e+001 3.675010e+001 3.319425e+000 3.848196e+000 3.964263e+000 4.538923e+000 5.676263e+000 6.032948e+000 6.278653e+000 5.481101e+000 5.362666e+000 4.573123e+000 5.336844e+000 4.518267e+000 6.059363e+000 5.261634e-001 8.101364e-001 5.888469e-001 7.293071e-001 1.104144e+000 1.029765e+000 9.702777e-001 1.087298e+000 9.084790e-001 8.407097e-001 8.112786e-001 6.831215e-001 8.406450e-001
<GCONST> 1.419521e+002
<MIXTURE> 4 9.057288e-002
<MEAN> 39
 -9.402147e+000 -4.074572e+000 -4.533709e+000 -4.266583e+000 2.427019e+000 1.569702e+000 5.353370e-001 -1.142865e-001 2.086052e+000 1.667374e+000 -1.194246e+000 -1.141574e+000 5.169263e+001 2.659162e+000 -3.468750e+000 -1.368030e+000 -2.797361e+000 9.920657e-001 1.372085e-001 -1.146274e+000 -1.282679e+000 -1.323825e+000 -4.452443e-001 -1.963939e+000 -1.620829e+000 5.441411e+000 5.540119e-001 -5.486987e-001 2.927767e-002 -7.179471e-001 -2.830798e-001 -3.227326e-001 -2.516755e-001 -5.232649e-002 -2.193195e-001 -1.658428e-001 -4.053741e-001 -2.981062e-001 1.449456e+000
<VARIANCE> 39
 3.198693e+001 5.622189e+001 4.554560e+001 5.649879e+001 6.422173e+001 6.068670e+001 5.862394e+001 4.904142e+001 4.286634e+001 3.747361e+001 4.411786e+001 3.791671e+001 8.846865e+001 3.509793e+000 5.908918e+000 5.430211e+000 6.137084e+000 8.284860e+000 8.756901e+000 8.561570e+000 7.051001e+000 6.895092e+000 5.589039e+000 5.900531e+000 4.808489e+000 6.416639e+000 4.885812e-001 1.058486e+000 7.378429e-001 8.705434e-001 8.937774e-001 8.758560e-001 8.911820e-001 8.534119e-001 8.354037e-001 6.888004e-001 9.132026e-001 6.353596e-001 1.266080e+000
<GCONST> 1.438406e+002
<STATE> 3
<NUMMIXES> 4
<MIXTURE> 1 2.552217e-001
<MEAN> 39
 7.053392e-001 -1.043582e+001 -5.916856e+000 -1.036342e+001 -6.206128e+000 2.154288e+000 -8.930533e+000 1.015820e-001 2.912569e+000 1.630465e+000 -1.754229e+000 -1.121523e+001 7.224923e+001 6.398003e-002 2.896699e-001 -1.264549e-001 7.244001e-002 3.727493e-001 1.079730e-001 2.581575e-001 -2.653279e-001 -2.594583e-001 1.167822e-001 4.591869e-002 8.408643e-002 -2.663647e-001 -1.596558e-001 6.844009e-001 4.086528e-001 4.395813e-001 -7.696891e-003 -4.040293e-001 1.625031e-001 -3.661198e-001 -2.841102e-001 2.578580e-002 1.357193e-001 5.690491e-001 -5.641521e-001
<VARIANCE> 39
 2.903255e+001 3.776417e+001 3.485330e+001 5.801387e+001 4.572041e+001 6.026273e+001 6.385431e+001 5.085111e+001 4.966034e+001 5.458152e+001 5.856063e+001 3.344882e+001 7.099041e+001 3.952597e-001 1.140997e+000 1.329189e+000 1.543047e+000 1.807833e+000 2.412394e+000 2.091065e+000 2.273015e+000 1.958660e+000 1.818832e+000 2.260569e+000 1.611355e+000 5.125948e-001 1.421483e-001 2.116577e-001 2.328646e-001 2.902332e-001 3.468737e-001 3.427703e-001 3.819869e-001 4.310248e-001 4.333350e-001 3.729281e-001 3.697907e-001 2.958776e-001 1.301225e-001
<GCONST> 1.106855e+002
<MIXTURE> 2 2.338163e-001
<MEAN> 39
 1.091792e+000 -1.195928e+001 -4.392376e+000 -1.368523e+001 -3.116810e+000 -1.827929e+000 -7.371926e+000 -4.489581e-001 1.013867e+000 2.563084e+000 -4.254281e+000 -9.160094e+000 7.551714e+001 1.100512e-001 5.631883e-001 3.908536e-001 4.779433e-001 2.647966e-001 -4.389993e-001 6.912948e-002 1.525531e-001 -3.252985e-001 2.483772e-002 -1.124834e-001 3.377371e-001 -3.933757e-001 -6.707548e-001 1.245085e+000 4.752269e-001 9.859903e-001 1.718263e-001 -2.637521e-001 5.135873e-001 -2.523382e-001 -1.295618e-001 -1.618210e-001 2.950259e-001 7.613727e-001 -1.232208e+000
<VARIANCE> 39
 1.937771e+001 4.406222e+001 5.128445e+001 7.401593e+001 6.457780e+001 9.638467e+001 9.431028e+001 7.404187e+001 7.158688e+001 6.709053e+001 6.903973e+001 4.069752e+001 4.285344e+001 1.067505e+000 2.636572e+000 2.491709e+000 2.824294e+000 3.770712e+000 4.399972e+000 3.721456e+000 4.256022e+000 3.427696e+000 3.200182e+000 3.572876e+000 2.608484e+000 1.629912e+000 5.183612e-001 4.713000e-001 5.878102e-001 7.117519e-001 8.600340e-001 9.767786e-001 1.042343e+000 1.055637e+000 1.125856e+000 8.861983e-001 8.869500e-001 6.186422e-001 4.719320e-001
<GCONST> 1.343920e+002
<MIXTURE> 3 2.643785e-001
<MEAN> 39
 -8.932271e-001 -1.559817e+001 -5.194049e+000 -1.621731e+001 -1.597426e+000 -8.683574e+000 -5.128143e+000 1.517678e+000 -7.516435e+000 -5.492302e+000 -1.670381e+001 -9.895672e-001 7.886124e+001 1.284038e-001 3.576403e-001 4.177510e-002 1.781499e-001 5.331380e-002 -8.001200e-002 6.777955e-003 -3.629392e-001 -5.860918e-002 -9.938412e-002 -1.663013e-002 -6.867110e-002 -3.208501e-001 -1.016494e-001 1.072484e+000 5.200083e-001 5.921484e-001 -2.421932e-001 -8.692022e-002 -3.181845e-002 -4.266925e-001 3.562698e-001 3.191064e-001 7.291290e-001 -1.704358e-001 -8.611628e-001
<VARIANCE> 39
 8.947536e+000 3.314392e+001 3.368727e+001 4.110723e+001 6.421275e+001 5.573555e+001 7.162257e+001 4.584395e+001 5.833760e+001 4.785727e+001 3.463303e+001 3.678061e+001 1.365108e+001 6.636588e-001 2.256429e+000 2.199949e+000 1.585716e+000 3.672949e+000 2.882967e+000 2.993967e+000 2.750152e+000 2.942712e+000 2.906045e+000 2.319324e+000 2.350330e+000 9.224745e-001 2.222343e-001 2.930684e-001 2.886400e-001 4.820003e-001 5.895185e-001 5.618295e-001 6.215037e-001 6.384397e-001 6.328081e-001 5.653369e-001 5.694427e-001 4.205836e-001 2.433597e-001
<GCONST> 1.178594e+002
<MIXTURE> 4 2.464562e-001
<MEAN> 39
 5.936519e-001 -1.242432e+001 -7.316238e+000 -1.617570e+001 1.744464e+000 -3.021974e+000 -3.104958e+000 -4.124459e+000 -1.452549e+000 -1.785352e+000 -7.548261e+000 -7.107016e+000 7.658719e+001 1.282884e-002 1.050407e-001 -7.815551e-002 9.233122e-002 1.937345e-001 1.719731e-002 1.962829e-002 -1.598796e-001 2.740457e-002 -8.876680e-002 -1.259219e-002 -4.079103e-002 -1.440270e-001 4.312393e-002 3.214185e-001 2.927852e-001 1.378928e-001 -3.379210e-001 -1.397861e-001 -1.903789e-001 8.357581e-002 -2.482572e-002 1.041337e-001 1.264614e-001 9.954927e-002 -2.807013e-001
<VARIANCE> 39
 1.347400e+001 3.729200e+001 3.608681e+001 5.836122e+001 5.519041e+001 1.027054e+002 1.015146e+002 5.808289e+001 5.925400e+001 5.758408e+001 6.793392e+001 4.154559e+001 2.355075e+001 3.091303e-001 7.194674e-001 8.434289e-001 1.115753e+000 1.423786e+000 1.551345e+000 1.504729e+000 1.550058e+000 1.361683e+000 1.410904e+000 1.388238e+000 1.215405e+000 3.598832e-001 6.105830e-002 1.266186e-001 1.642825e-001 2.228286e-001 2.327015e-001 2.561963e-001 2.906207e-001 2.685517e-001 2.735171e-001 2.585912e-001 2.581224e-001 2.137245e-001 7.203090e-002
<GCONST> 1.006258e+002
<STATE> 4
<NUMMIXES> 4
<MIXTURE> 1 1.593146e-001
<MEAN> 39
 -3.257993e-004 -1.282924e+000 -3.132124e+000 -7.322523e+000 9.471631e-001 -5.559105e+000 -4.306460e+000 -2.975737e+000 -9.123956e-001 1.304931e+000 -5.104296e+000 -4.952329e+000 6.654665e+001 -1.616495e+000 2.421129e+000 9.281983e-001 2.818298e+000 1.041868e+000 7.627370e-001 1.318496e+000 5.975602e-001 7.939227e-001 2.508487e-001 1.010093e+000 8.376209e-001 -4.279315e+000 -5.072075e-001 -7.090663e-001 -2.536708e-001 -2.430084e-001 -1.971912e-001 4.127605e-001 2.706802e-001 4.585112e-001 3.567827e-001 3.348865e-002 1.956102e-001 9.270364e-002 -9.516916e-002
<VARIANCE> 39
 1.516510e+001 2.423154e+001 3.195576e+001 4.617890e+001 4.868043e+001 7.185769e+001 6.097726e+001 5.277585e+001 4.918887e+001 6.074602e+001 7.286533e+001 4.061026e+001 4.253983e+001 2.100235e+000 2.001859e+000 3.048413e+000 2.957522e+000 3.259300e+000 4.791842e+000 5.064097e+000 4.332466e+000 5.025427e+000 3.985447e+000 5.052797e+000 3.261544e+000 2.594955e+000 3.005130e-001 3.339706e-001 3.879676e-001 4.616369e-001 5.582787e-001 6.320901e-001 6.547768e-001 6.305131e-001 6.231383e-001 6.538787e-001 6.636476e-001 5.287924e-001 4.322543e-001
<GCONST> 1.283586e+002
<MIXTURE> 2 2.508708e-001
<MEAN> 39
 1.171117e+000 -9.700755e+000 -2.679612e+000 -1.412534e+001 -3.003142e+000 -7.936758e+000 -6.403578e+000 -9.867377e-002 -3.633160e+000 2.386907e-001 -9.955115e+000 -3.829133e+000 7.422674e+001 -7.271172e-001 3.453326e+000 1.161670e+000 2.554641e+000 7.405300e-001 -3.166142e-001 6.244412e-001 -7.397836e-001 3.974583e-001 -1.025337e-001 9.921885e-001 4.790804e-001 -3.027616e+000 -7.359012e-001 4.877897e-001 7.836960e-002 7.012795e-001 2.610539e-001 4.679401e-001 4.387020e-001 3.722890e-002 3.926480e-001 -8.234787e-002 4.961602e-001 1.877969e-002 -8.458923e-001
<VARIANCE> 39
 1.407227e+001 3.323352e+001 5.207840e+001 5.986965e+001 6.795435e+001 9.234216e+001 8.168239e+001 6.824846e+001 6.961251e+001 7.154188e+001 8.552224e+001 4.789712e+001 2.567385e+001 2.046489e+000 1.952334e+000 2.728779e+000 2.998393e+000 3.900783e+000 3.996508e+000 5.054748e+000 4.347785e+000 4.554399e+000 3.544211e+000 3.587578e+000 3.078344e+000 2.529572e+000 4.490249e-001 4.408924e-001 5.595841e-001 5.673169e-001 7.332327e-001 8.701906e-001 8.076602e-001 9.161845e-001 8.723565e-001 8.263603e-001 8.752851e-001 6.450070e-001 4.707078e-001
<GCONST> 1.335818e+002
<MIXTURE> 3 3.363630e-001
<MEAN> 39
 1.334245e+000 -1.069429e+001 -4.106084e+000 -1.297614e+001 -4.299990e+000 -1.943008e+000 -7.985251e+000 -9.999689e-001 -2.909591e-001 -3.188321e-001 -4.307491e+000 -7.497307e+000 7.435901e+001 1.894643e-001 1.719726e+000 1.178641e+000 1.183688e+000 -6.550264e-001 -6.346442e-001 3.601968e-002 -9.151757e-001 -8.116473e-001 2.187217e-001 5.771262e-001 7.664559e-001 -1.638452e+000 -1.627589e-001 5.086242e-001 2.965312e-001 4.341435e-001 3.595299e-002 -1.633947e-001 1.375077e-001 -2.858392e-001 -2.206776e-001 8.955592e-003 -1.389846e-002 1.678213e-001 -4.967339e-001
<VARIANCE> 39
 1.803450e+001 3.737925e+001 4.926214e+001 7.366273e+001 7.114064e+001 1.005048e+002 9.104509e+001 6.845439e+001 6.797604e+001 6.935132e+001 8.168118e+001 4.319915e+001 3.796115e+001 7.464055e-001 1.802459e+000 2.457827e+000 3.078531e+000 3.221045e+000 3.703934e+000 3.415301e+000 4.158541e+000 3.850276e+000 3.616790e+000 3.193489e+000 2.869456e+000 1.285918e+000 1.315686e-001 2.328932e-001 3.593309e-001 4.068235e-001 5.011014e-001 6.025218e-001 5.445046e-001 6.324238e-001 5.938111e-001 5.820839e-001 5.593856e-001 4.353358e-001 1.827271e-001
<GCONST> 1.249700e+002
<MIXTURE> 4 2.533591e-001
<MEAN> 39
 -1.657360e+000 -2.700882e+000 -8.258615e+000 -6.777678e+000 -3.313496e-001 2.228113e+000 -3.024977e+000 -2.940248e+000 1.936998e+000 2.598606e+000 -2.348822e+000 -6.476103e+000 6.086632e+001 -6.867483e-001 9.377047e-001 2.581771e-001 7.927032e-001 1.590633e-001 -5.856286e-002 5.913274e-001 1.994028e-001 -2.638491e-003 -1.810008e-001 2.617697e-001 6.314555e-001 -1.784757e+000 -2.025757e-001 -1.759645e-001 2.712364e-001 -9.120932e-002 -1.307010e-001 -1.562204e-001 -1.198510e-001 1.249946e-001 -7.532911e-002 -6.961823e-002 -2.164497e-004 1.335408e-001 2.547834e-001
<VARIANCE> 39
 2.827201e+001 3.097233e+001 3.123913e+001 5.604019e+001 6.076412e+001 5.821893e+001 6.580541e+001 4.839548e+001 4.692859e+001 4.950386e+001 4.698484e+001 3.583349e+001 6.740004e+001 1.217121e+000 1.810510e+000 2.476659e+000 2.462326e+000 2.906949e+000 2.799954e+000 3.016450e+000 2.872995e+000 3.031222e+000 2.608254e+000 2.556972e+000 2.339345e+000 2.069231e+000 2.942660e-001 2.761207e-001 3.638988e-001 4.841452e-001 4.659525e-001 4.866915e-001 5.256039e-001 5.184759e-001 5.221291e-001 4.563371e-001 4.711081e-001 4.250387e-001 4.305038e-001
<GCONST> 1.220693e+002
<TRANSP> 5
 0.000000e+000 1.000000e+000 0.000000e+000 0.000000e+000 0.000000e+000
 0.000000e+000 4.944212e-001 5.055788e-001 0.000000e+000 0.000000e+000
 0.000000e+000 0.000000e+000 6.174831e-001 3.825169e-001 0.000000e+000
 0.000000e+000 0.000000e+000 0.000000e+000 5.885673e-001 4.114327e-001
 0.000000e+000 0.000000e+000 0.000000e+000 0.000000e+000 0.000000e+000
<ENDHMM>
~h "b"
<BEGINHMM>
<NUMSTATES> 5
<STATE> 2
<NUMMIXES> 4
<MIXTURE> 1 3.930501e-001
<MEAN> 39
 2.624782e+000 5.940249e+000 2.644150e+000 -7.460713e-001 -3.218184e+000 1.258066e-001 -5.169572e+000 -7.298336e+000 -6.307232e+000 -3.213704e+000 -4.246247e-001 -4.335847e+000 5.759707e+001 -5.342233e-001 2.316007e+000 9.507108e-001 2.361232e+000 1.681811e+000 -1.505217e-001 1.300588e+000 1.660252e-001 -2.287122e-001 -7.649919e-001 -9.958673e-001 -2.905934e-001 -2.638509e+000 -2.252129e-001 -6.106875e-001 -4.430163e-002 -5.678158e-001 -3.980807e-001 -1.635744e-001 -3.288467e-001 2.182639e-001 3.534702e-001 2.922126e-001 5.032312e-002 1.144378e-002 7.184246e-001
<VARIANCE> 39
 1.973613e+001 2.581390e+001 3.364697e+001 4.348650e+001 3.253458e+001 3.911874e+001 4.109589e+001 3.188786e+001 3.875012e+001 3.132164e+001 3.448743e+001 2.438602e+001 4.854008e+001 8.635321e-001 1.595486e+000 1.795017e+000 3.573186e+000 2.647753e+000 2.480642e+000 2.870228e+000 2.772525e+000 3.700134e+000 2.707411e+000 2.529678e+000 2.128060e+000 1.031891e+000 1.059944e-001 2.678258e-001 2.476965e-001 4.006462e-001 3.652293e-001 3.570536e-001 3.847096e-001 4.576666e-001 5.181326e-001 4.161119e-001 4.817550e-001 3.252961e-001 2.057288e-001
<GCONST> 1.127840e+002
<MIXTURE> 2 1.760844e-001
<MEAN> 39
 -3.028269e+000 5.279838e+000 5.364949e+000 1.777205e+000 -1.995054e+000 -5.273910e+000 -6.966537e+000 -5.884693e+000 -2.309145e+000 -1.575654e+000 -1.640761e+000 -3.343008e+000 5.912613e+001 1.481960e+000 1.430840e+000 -1.228368e-001 8.035467e-001 6.965880e-001 9.179693e-001 2.739193e-001 -3.988379e-001 -4.811863e-001 -6.147328e-002 -6.367685e-002 -5.738530e-001 -2.205611e+000 -4.510747e-001 1.210717e-001 7.670521e-002 -6.225981e-002 -6.436935e-003 2.926278e-003 2.850523e-001 9.598671e-002 -1.244999e-001 -1.301168e-001 -4.553460e-002 3.145107e-002 9.569684e-002
<VARIANCE> 39
 4.036547e+001 4.114518e+001 3.816355e+001 5.105839e+001 4.554814e+001 4.664329e+001 5.299320e+001 3.613481e+001 3.507859e+001 3.216625e+001 3.465648e+001 2.500071e+001 7.630771e+001 2.326060e+000 2.293843e+000 2.505930e+000 2.605109e+000 3.107838e+000 3.395146e+000 3.401599e+000 2.996820e+000 3.151495e+000 2.516304e+000 2.143764e+000 2.115158e+000 3.338845e+000 3.393443e-001 4.746732e-001 4.420325e-001 4.458804e-001 5.576351e-001 5.846630e-001 5.761983e-001 5.537838e-001 4.689727e-001 4.306651e-001 4.022780e-001 3.675177e-001 5.246735e-001
<GCONST> 1.231609e+002
<MIXTURE> 3 2.948852e-001
<MEAN> 39
 3.645258e+000 1.518581e+000 4.059058e+000 -4.863740e+000 -1.767396e+000 -6.929610e+000 -1.024792e+001 -8.375147e+000 -6.974977e+000 -1.945235e+000 -6.860271e+000 -7.392514e+000 6.122055e+001 1.329802e-001 3.506028e+000 7.829139e-001 3.512465e+000 1.364499e+000 1.057978e+000 5.483674e-001 -1.187527e+000 -3.954324e-001 -1.513763e+000 -4.872347e-003 -1.230254e+000 -4.062404e+000 -4.741975e-001 -5.476272e-001 -1.274152e-002 -7.184425e-001 -4.268733e-001 -2.270923e-001 3.687373e-001 5.128605e-001 1.313228e-001 -6.674518e-003 -1.786971e-001 3.908376e-001 8.096943e-001
<VARIANCE> 39
 8.946143e+000 2.755925e+001 3.461028e+001 4.660182e+001 3.313008e+001 5.397312e+001 4.014367e+001 4.164447e+001 4.797878e+001 4.000602e+001 6.089981e+001 2.859994e+001 2.385112e+001 8.359289e-001 1.379593e+000 2.310324e+000 3.135482e+000 2.885309e+000 3.205128e+000 3.847216e+000 3.662825e+000 3.782320e+000 3.044241e+000 2.871421e+000 2.763782e+000 9.870064e-001 1.462372e-001 4.678530e-001 3.240949e-001 5.250925e-001 4.049802e-001 4.606790e-001 4.407720e-001 5.591932e-001 5.713187e-001 5.598971e-001 4.983601e-001 4.395207e-001 4.611931e-001
<GCONST> 1.182053e+002
<MIXTURE> 4 1.359484e-001
<MEAN> 39
 2.248760e+000 9.917407e+000 4.180033e+000 -4.608963e-001 -5.828752e+000 -3.515606e+000 -5.733640e+000 -8.155880e+000 -9.674096e+000 -4.200776e+000 -4.267526e+000 -6.499810e+000 5.336845e+001 8.140872e-001 1.241701e+000 3.523406e-001 7.514549e-001 -1.218231e-001 -7.156715e-001 -4.143828e-001 -5.793268e-001 -2.630892e-001 -2.623109e-001 -5.119928e-001 -6.074092e-001 -2.479814e-001 -6.349119e-001 -1.249689e+000 -7.363781e-002 -6.094273e-001 2.390479e-001 -1.715416e-001 1.937407e-002 3.864280e-001 6.189471e-001 3.658972e-001 2.117247e-001 4.603779e-001 8.617749e-001
<VARIANCE> 39
 3.437849e+001 6.256764e+001 7.477831e+001 8.163046e+001 7.207171e+001 1.040187e+002 7.550767e+001 7.518259e+001 6.496815e+001 5.005324e+001 7.036050e+001 3.971244e+001 4.924668e+001 4.812717e+000 4.565335e+000 3.472663e+000 4.166410e+000 5.532641e+000 5.604202e+000 6.024485e+000 5.816053e+000 5.454683e+000 3.692113e+000 3.933992e+000 3.718511e+000 4.988437e+000 4.849958e-001 1.108323e+000 1.031976e+000 1.036660e+000 1.061125e+000 1.573507e+000 1.381287e+000 1.312647e+000 1.112159e+000 9.229358e-001 9.173744e-001 7.538856e-001 1.110306e+000
<GCONST> 1.459146e+002
<STATE> 3
<NUMMIXES> 4
<MIXTURE> 1 2.858952e-001
<MEAN> 39
 -1.365317e+000 8.479950e+000 4.755094e+000 3.127454e+000 -1.442285e+000 -1.953624e+000 -3.648999e+000 -5.101675e+000 -4.312285e+000 -2.732394e+000 -1.660565e+000 -3.764271e+000 5.424218e+001 -3.305451e-001 3.029419e-001 1.881271e-001 4.515712e-001 5.041746e-001 1.213328e-001 2.183737e-001 2.253609e-001 1.368285e-001 -1.236349e-001 -1.374098e-001 8.504659e-002 -5.340562e-001 -6.696377e-002 -6.637174e-001 -1.717402e-001 -4.746588e-001 -3.744187e-001 -1.288963e-001 -2.778058e-001 -1.966074e-002 1.415572e-001 1.652387e-001 1.531925e-001 1.171440e-001 7.411413e-001
<VARIANCE> 39
 2.635246e+001 1.977635e+001 2.368875e+001 2.942013e+001 2.950063e+001 3.194925e+001 2.893775e+001 2.662411e+001 2.984126e+001 2.361029e+001 2.422630e+001 2.060728e+001 5.690920e+001 4.721137e-001 6.488564e-001 7.291196e-001 1.015524e+000 1.120281e+000 1.189626e+000 1.417398e+000 1.470368e+000 1.577962e+000 1.476376e+000 1.381732e+000 1.249237e+000 3.991451e-001 1.483720e-001 2.664112e-001 2.781612e-001 3.865719e-001 3.648296e-001 3.510130e-001 4.159138e-001 3.875027e-001 4.077656e-001 3.726035e-001 3.491966e-001 2.902337e-001 2.543184e-001
<GCONST> 9.991472e+001
<MIXTURE> 2 2.514617e-001
<MEAN> 39
 2.124156e+000 9.586337e+000 5.537883e+000 1.821739e+000 -2.600330e-001 -1.148354e+000 -4.626270e+000 -8.261254e+000 -6.561100e+000 -3.336314e+000 -6.785896e-001 -4.036825e+000 5.444675e+001 -1.789529e+000 -1.764569e+000 6.534311e-003 -3.202363e-002 3.334930e-001 -1.048647e+000 -7.234600e-002 7.129930e-001 1.109024e+000 3.583257e-001 -3.974868e-001 4.141853e-001 1.890578e+000 -1.495162e-001 -1.507349e+000 -2.836151e-001 -1.001759e+000 -8.837196e-001 -5.397085e-001 -4.897017e-001 3.699324e-001 4.312404e-001 4.212081e-001 9.288336e-002 5.918502e-002 1.852164e+000
<VARIANCE> 39
 1.939904e+001 1.803835e+001 2.540442e+001 3.417759e+001 2.712026e+001 3.342380e+001 3.382622e+001 2.736003e+001 3.170628e+001 2.800295e+001 2.978757e+001 2.041941e+001 3.929332e+001 1.468931e+000 2.937347e+000 2.079835e+000 3.514547e+000 2.730011e+000 3.560779e+000 3.388605e+000 2.788592e+000 3.031342e+000 2.731352e+000 2.413394e+000 1.849649e+000 3.833443e+000 2.972744e-001 3.032176e-001 6.279200e-001 6.769084e-001 6.266465e-001 6.282556e-001 6.735651e-001 6.458064e-001 7.397822e-001 6.815026e-001 5.714633e-001 4.915148e-001 2.710901e-001
<GCONST> 1.194503e+002
<MIXTURE> 3 2.936571e-001
<MEAN> 39
 3.745580e+000 6.514019e+000 5.180895e+000 -1.325930e+000 -2.305809e+000 -4.837323e+000 -8.010392e+000 -8.487472e+000 -6.447545e+000 -4.040734e+000 -6.160912e+000 -8.146014e+000 5.723236e+001 -1.349154e-001 9.948704e-001 3.617750e-001 6.980421e-001 3.088457e-001 8.269539e-002 2.846622e-001 -5.292169e-003 1.083975e-001 -2.478819e-001 -2.264648e-002 -3.282056e-002 -1.164276e+000 -4.909711e-001 -1.103441e+000 -1.812717e-001 -7.795372e-001 -3.512069e-001 -3.386632e-001 -6.372526e-002 3.104807e-001 1.921957e-001 3.373910e-001 2.439600e-001 5.865901e-001 1.408566e+000
<VARIANCE> 39
 1.087497e+001 2.641375e+001 3.196397e+001 3.507157e+001 3.434457e+001 5.321036e+001 4.238034e+001 3.577278e+001 4.122374e+001 3.787616e+001 5.261124e+001 2.709387e+001 2.781654e+001 5.327695e-001 7.409915e-001 8.523804e-001 1.279894e+000 1.337035e+000 1.570425e+000 1.635968e+000 1.625409e+000 1.864650e+000 1.813664e+000 1.702243e+000 1.615557e+000 5.867115e-001 2.177764e-001 3.656664e-001 3.588282e-001 5.855445e-001 5.452444e-001 5.529910e-001 6.566342e-001 5.774125e-001 6.053033e-001 5.854510e-001 5.067713e-001 4.472977e-001 4.210281e-001
<GCONST> 1.100637e+002
<MIXTURE> 4 1.689305e-001
<MEAN> 39
 3.104685e+000 7.464606e+000 5.019296e+000 -1.369819e+000 -2.546720e+000 -6.690613e+000 -9.595456e+000 -8.793221e+000 -6.820235e+000 -4.470887e+000 -9.184092e+000 -9.447547e+000 5.452751e+001 -1.909106e+000 -2.409487e+000 3.688970e-001 -9.444212e-001 -8.966328e-002 -1.268752e+000 1.077853e+000 1.133426e+000 7.255003e-001 2.016690e-001 7.385499e-001 1.820292e+000 3.184218e+000 -2.396537e-001 -1.369873e+000 -6.653225e-002 -1.291373e+000 -6.995996e-001 -3.809362e-001 5.583841e-002 3.563137e-001 -7.129658e-002 5.622170e-001 3.107293e-001 8.048479e-001 1.835667e+000
<VARIANCE> 39
 1.726337e+001 3.551391e+001 3.985217e+001 3.689722e+001 4.060564e+001 5.417751e+001 4.456780e+001 4.701995e+001 4.716792e+001 4.543409e+001 4.462720e+001 2.908350e+001 2.803044e+001 1.909148e+000 4.939990e+000 4.342399e+000 5.770477e+000 5.278910e+000 6.107682e+000 5.504133e+000 5.186634e+000 4.676015e+000 4.569324e+000 3.906623e+000 3.367695e+000 4.464860e+000 3.453570e-001 5.788673e-001 9.033461e-001 7.339392e-001 9.517489e-001 9.326194e-001 8.687707e-001 1.035714e+000 9.001114e-001 8.904536e-001 7.739102e-001 6.026633e-001 4.229225e-001
<GCONST> 1.342394e+002
<STATE> 4
<NUMMIXES> 4
<MIXTURE> 1 1.451489e-001
<MEAN> 39
 -7.273715e+000 5.310789e+000 3.316121e+000 4.159601e+000 1.296880e+000 3.310297e-001 -1.191312e+000 -6.851490e-001 -1.271496e-001 -7.315375e-001 -9.685622e-001 -1.582182e+000 4.977783e+001 -4.851991e-001 -1.982670e+000 -6.014121e-001 -1.352859e+000 -7.515039e-001 -7.982846e-001 -2.171448e-001 5.139372e-002 6.007830e-001 4.809504e-001 3.891455e-001 4.551894e-001 2.605510e+000 6.992877e-001 -3.762510e-001 -7.746385e-002 -8.344181e-001 -9.116529e-001 -3.512473e-001 -6.154499e-001 -5.311489e-001 -3.628752e-001 3.794860e-002 1.352324e-001 -3.303797e-002 1.120663e+000
<VARIANCE> 39
 2.341890e+001 2.491183e+001 2.323864e+001 2.497746e+001 2.172729e+001 1.880527e+001 2.301783e+001 1.885475e+001 2.438679e+001 1.939897e+001 1.702353e+001 1.737416e+001 5.382388e+001 2.672606e+000 2.748860e+000 3.014667e+000 3.199487e+000 3.211743e+000 3.225208e+000 3.720577e+000 3.123327e+000 3.187612e+000 2.526364e+000 2.293843e+000 2.064671e+000 3.727415e+000 3.269705e-001 5.158908e-001 6.914051e-001 6.444349e-001 5.425258e-001 6.732777e-001 6.556168e-001 4.936394e-001 6.634544e-001 5.235977e-001 6.640979e-001 4.215720e-001 5.568460e-001
<GCONST> 1.186992e+002
<MIXTURE> 2 3.039068e-001
<MEAN> 39
 -2.102020e+000 -2.290088e+000 -4.778823e-001 -5.786466e+000 -4.180431e+000 -4.598741e+000 -7.359635e+000 -6.462302e+000 -9.002793e-001 1.691244e+000 3.564341e-001 -2.715266e+000 6.857032e+001 1.060248e+000 -2.824392e+000 -1.436243e+000 -3.214254e+000 -2.347947e+000 -1.316370e-001 -1.729892e+000 6.168578e-002 8.835226e-001 1.467125e+000 6.729313e-001 -2.336399e-001 3.777228e+000 4.887704e-001 5.883380e-001 3.517650e-001 1.517344e-001 -2.340305e-001 3.446554e-001 3.230417e-002 5.068713e-002 -3.740416e-001 -4.057273e-001 -3.050089e-001 -2.739434e-001 -8.018249e-001
<VARIANCE> 39
 3.434241e+001 2.889179e+001 2.959954e+001 6.999065e+001 3.714629e+001 4.098418e+001 6.128441e+001 3.432899e+001 3.810802e+001 3.609693e+001 3.705283e+001 2.335771e+001 6.652988e+001 2.576243e+000 5.258584e+000 4.563334e+000 7.234034e+000 4.549428e+000 6.120517e+000 6.254361e+000 5.760405e+000 6.439118e+000 5.443580e+000 5.489002e+000 3.984864e+000 3.343240e+000 5.228508e-001 5.707500e-001 4.049600e-001 9.114514e-001 7.896251e-001 6.311700e-001 9.518196e-001 7.190357e-001 7.574192e-001 6.466627e-001 7.080932e-001 5.131596e-001 4.952583e-001
<GCONST> 1.345331e+002
<MIXTURE> 3 2.696996e-001
<MEAN> 39
 -5.047407e+000 -4.378011e+000 7.548299e+000 -3.770117e+000 -3.617184e+000 -1.299898e+001 -5.638733e+000 -2.656473e+000 -2.687792e+000 -2.619947e+000 -4.857299e+000 -1.388151e+000 7.044926e+001 -5.939370e-001 -3.449511e+000 1.125898e+000 -2.992378e+000 -3.150022e+000 -2.230188e+000 -4.081478e-001 1.124528e+000 -5.120414e-001 1.023922e+000 3.498709e-001 1.771186e+000 5.091141e+000 7.210114e-001 8.167323e-001 2.071580e-002 -4.582265e-001 -4.862900e-001 7.207665e-001 -3.541957e-001 -5.673890e-001 -6.490796e-001 1.369516e-001 -1.055636e-001 -3.874532e-001 -8.417162e-001
<VARIANCE> 39
 2.374221e+001 2.481292e+001 4.504210e+001 6.117739e+001 5.564683e+001 4.609280e+001 4.968957e+001 3.583351e+001 4.417964e+001 3.347349e+001 3.347925e+001 2.554017e+001 4.022364e+001 2.666489e+000 4.160825e+000 7.886571e+000 6.178957e+000 7.079152e+000 6.008080e+000 6.031430e+000 6.982414e+000 7.452140e+000 6.028810e+000 4.785515e+000 3.807689e+000 2.939628e+000 4.143722e-001 7.019962e-001 6.434471e-001 1.095220e+000 1.039799e+000 1.103190e+000 1.158311e+000 8.748534e-001 9.192366e-001 8.505500e-001 9.659798e-001 6.821672e-001 6.099741e-001
<GCONST> 1.380338e+002
<MIXTURE> 4 2.811888e-001
<MEAN> 39
 -2.139992e+000 5.325770e+000 5.481375e+000 1.059253e+000 -6.245113e-001 -4.508204e+000 -4.631772e+000 -6.177291e+000 -4.726804e+000 -4.105516e+000 -4.078035e+000 -4.243038e+000 5.978528e+001 -8.074950e-001 -3.099468e+000 -5.895496e-001 -2.027631e+000 -1.626836e+000 -1.007298e+000 -9.337177e-001 3.988844e-001 7.668079e-001 9.802269e-001 8.250062e-001 9.060723e-001 3.983593e+000 4.965875e-001 -5.865652e-001 -1.228286e-001 -8.875690e-001 -9.850850e-001 1.151141e-001 -4.850166e-001 7.597685e-003 -9.538991e-002 3.469391e-001 3.110560e-001 -9.215784e-002 7.606871e-001
<VARIANCE> 39
 2.243232e+001 2.719227e+001 2.797206e+001 3.742823e+001 3.149314e+001 3.283949e+001 3.204323e+001 2.366560e+001 2.905780e+001 2.653706e+001 2.724517e+001 1.892338e+001 4.890308e+001 2.351203e+000 3.419067e+000 5.424438e+000 6.526442e+000 5.222898e+000 5.550624e+000 5.285505e+000 5.116215e+000 5.076789e+000 4.629253e+000 3.635971e+000 3.420572e+000 3.178867e+000 3.298747e-001 4.546098e-001 6.882256e-001 6.778779e-001 6.475978e-001 7.311626e-001 6.457973e-001 6.525180e-001 7.885349e-001 6.913154e-001 7.098724e-001 4.977500e-001 2.872069e-001
<GCONST> 1.273833e+002
<TRANSP> 5
 0.000000e+000 1.000000e+000 0.000000e+000 0.000000e+000 0.000000e+000
 0.000000e+000 5.146118e-001 4.853882e-001 0.000000e+000 0.000000e+000
 0.000000e+000 0.000000e+000 6.687056e-001 3.312944e-001 0.000000e+000
 0.000000e+000 0.000000e+000 0.000000e+000 6.033596e-001 3.966404e-001
 0.000000e+000 0.000000e+000 0.000000e+000 0.000000e+000 0.000000e+000
<ENDHMM>
~h "d"
<BEGINHMM>
<NUMSTATES> 5
<STATE> 2
<NUMMIXES> 4
<MIXTURE> 1 3.483811e-001
<MEAN> 39
 -2.463180e+000 7.161419e+000 7.274040e+000 3.141584e+000 -4.027462e+000 -5.570710e+000 -5.417970e+000 -3.952057e+000 -1.618893e+000 -2.375139e+000 -4.059642e+000 -4.732081e+000 5.693210e+001 1.240546e-001 7.716402e-001 -8.055137e-002 6.706064e-001 1.057353e+000 5.323077e-001 6.065363e-001 2.427218e-001 6.654754e-004 -1.010771e-001 -3.014095e-001 -1.264587e-001 -1.553348e+000 -4.116432e-001 -9.111968e-001 -9.532773e-002 -6.133146e-001 -3.559538e-001 -8.884099e-002 -1.636986e-001 -9.625380e-003 -2.174368e-002 8.696704e-002 2.752859e-001 2.950934e-001 1.137083e+000
<VARIANCE> 39
 3.210209e+001 3.140265e+001 3.962546e+001 3.507079e+001 4.767808e+001 3.959237e+001 3.454829e+001 3.389108e+001 3.662267e+001 3.112209e+001 2.858593e+001 2.560673e+001 5.939257e+001 1.819938e+000 2.165163e+000 2.168620e+000 1.901189e+000 3.033322e+000 2.488537e+000 2.606102e+000 2.464453e+000 2.651338e+000 2.063167e+000 1.854753e+000 1.721704e+000 2.229429e+000 3.875315e-001 4.708973e-001 3.824293e-001 4.885697e-001 6.756860e-001 5.570368e-001 6.074166e-001 5.877979e-001 6.162903e-001 4.497039e-001 4.267716e-001 3.928595e-001 5.973372e-001
<GCONST> 1.195183e+002
<MIXTURE> 2 2.443171e-001
<MEAN> 39
 3.497047e+000 -2.581942e+000 3.391981e-001 6.109863e-001 -5.677420e+000 -2.996362e+000 -1.323765e+001 -1.139988e+001 2.192552e+000 2.641636e+000 -3.107589e+000 -6.787754e+000 6.400018e+001 -4.196064e-001 2.065052e+000 1.025833e+000 2.618216e+000 1.839007e+000 -8.321449e-001 1.197301e+000 3.454950e-001 -8.084900e-002 -6.207047e-001 -1.459552e+000 -2.821699e-001 -2.858705e+000 -3.818096e-001 -1.497973e-001 1.329166e-001 -1.027259e+000 -2.704116e-001 1.905498e-001 4.179315e-001 5.729373e-001 -5.721703e-001 -3.459587e-001 3.780808e-001 3.749065e-001 5.577649e-001
<VARIANCE> 39
 1.780915e+001 4.401528e+001 4.542782e+001 5.670933e+001 7.782827e+001 5.177711e+001 5.493371e+001 5.540576e+001 5.062096e+001 4.061726e+001 5.565784e+001 3.878491e+001 5.212635e+001 1.416516e+000 3.261312e+000 2.770226e+000 4.757017e+000 4.650472e+000 4.004651e+000 4.767308e+000 5.673875e+000 5.070706e+000 4.453519e+000 4.274278e+000 3.530916e+000 2.324737e+000 2.148112e-001 8.032053e-001 4.652929e-001 8.017556e-001 1.467930e+000 7.830134e-001 8.850457e-001 8.554617e-001 8.868523e-001 8.052927e-001 7.771100e-001 7.249152e-001 8.074977e-001
<GCONST> 1.347767e+002
<MIXTURE> 3 2.496278e-001
<MEAN> 39
 5.279639e-001 1.622816e+000 8.338161e+000 -2.381557e+000 -6.053802e+000 -9.771335e+000 -8.358915e+000 -3.578040e+000 -3.880870e+000 -5.746083e+000 -9.547852e+000 -4.773979e+000 6.104866e+001 -4.684556e-002 2.836912e+000 5.164923e-001 2.917932e+000 1.662196e+000 1.130524e+000 1.105494e+000 -7.063343e-001 -6.711595e-002 -1.088346e+000 -7.243412e-002 -1.176032e+000 -3.822199e+000 -5.248404e-001 -1.075047e+000 -3.424807e-001 -1.161290e+000 -1.953893e-001 8.071040e-003 2.022691e-001 1.200617e-001 -9.767778e-002 5.251943e-001 3.496503e-001 3.297099e-001 1.454164e+000
<VARIANCE> 39
 1.068764e+001 2.877763e+001 3.826461e+001 4.027372e+001 4.432418e+001 4.478183e+001 4.319196e+001 4.168676e+001 5.941810e+001 4.235310e+001 4.684852e+001 3.610308e+001 2.874551e+001 1.381109e+000 2.268362e+000 2.408700e+000 3.179155e+000 3.474238e+000 3.544436e+000 3.767045e+000 3.901563e+000 3.661496e+000 3.020063e+000 3.278424e+000 2.675899e+000 1.980335e+000 2.471441e-001 5.433847e-001 3.428905e-001 7.023158e-001 5.873793e-001 6.443800e-001 6.599406e-001 7.255057e-001 6.512010e-001 5.855191e-001 5.933249e-001 5.337127e-001 6.194761e-001
<GCONST> 1.243594e+002
<MIXTURE> 4 1.576280e-001
<MEAN> 39
 -3.013883e+000 3.208732e+000 7.429600e+000 -1.864919e+000 -7.160245e+000 -5.976828e+000 -6.995288e+000 -6.107824e+000 -4.739136e+000 -3.403726e+000 -4.349010e+000 -4.051036e+000 5.850828e+001 -8.210895e-003 -1.186984e-001 7.903672e-001 6.372842e-001 -4.151785e-002 -5.365147e-001 -3.529789e-003 6.408821e-003 1.602378e-001 -5.128937e-001 -2.447640e-001 2.408895e-002 1.072213e-001 -1.913221e-001 -7.363037e-001 -1.297468e-001 -5.383842e-001 -3.085276e-002 6.930856e-002 -1.480958e-001 1.617023e-001 2.198398e-001 1.665302e-001 2.021207e-001 2.119762e-001 6.891166e-001
<VARIANCE> 39
 7.289122e+001 9.581524e+001 1.184392e+002 1.016210e+002 1.126690e+002 1.019299e+002 8.619925e+001 8.176223e+001 7.128559e+001 6.077314e+001 6.418408e+001 4.443063e+001 8.412612e+001 5.814529e+000 8.256948e+000 6.014894e+000 7.659384e+000 8.698317e+000 8.294966e+000 7.710540e+000 7.250102e+000 6.452379e+000 5.419162e+000 5.449366e+000 4.357087e+000 7.355143e+000 8.563370e-001 1.571258e+000 1.147758e+000 1.464677e+000 1.858625e+000 1.644673e+000 1.496418e+000 1.497080e+000 1.214155e+000 1.125479e+000 1.082810e+000 8.473931e-001 1.278200e+000
<GCONST> 1.568283e+002
<STATE> 3
<NUMMIXES> 4
<MIXTURE> 1 3.310269e-001
<MEAN> 39
 -1.944289e+000 6.052120e+000 5.367040e+000 3.748716e+000 -1.279578e+000 -3.559992e+000 -5.737488e+000 -5.098205e+000 -9.483374e-001 -3.371347e-001 -3.073139e+000 -5.096887e+000 5.598203e+001 -1.360888e+000 -1.701858e+000 1.796235e-001 -7.333111e-001 -1.930528e-001 -8.568341e-002 5.745105e-001 4.396243e-001 -2.841472e-002 -4.299280e-001 2.709212e-001 1.063838e+000 1.628157e+000 2.553064e-004 -1.030334e+000 -3.606134e-002 -9.555596e-001 -1.066729e+000 -3.579737e-001 -6.494156e-001 -2.432410e-002 9.578920e-002 6.123394e-002 3.564574e-001 2.034397e-001 1.633393e+000
<VARIANCE> 39
 3.011286e+001 2.999487e+001 3.700254e+001 3.663027e+001 3.956116e+001 3.762599e+001 3.943711e+001 4.083522e+001 3.555309e+001 2.981864e+001 2.689516e+001 2.754714e+001 6.129800e+001 2.027000e+000 4.707588e+000 3.384703e+000 4.319242e+000 4.404714e+000 4.141778e+000 4.569972e+000 4.393806e+000 4.227722e+000 3.354043e+000 2.880073e+000 2.772222e+000 4.111405e+000 3.849222e-001 5.436446e-001 5.091953e-001 6.767329e-001 8.404378e-001 7.748928e-001 8.409172e-001 8.477174e-001 8.531861e-001 6.309406e-001 6.581343e-001 5.049786e-001 4.661520e-001
<GCONST> 1.291782e+002
<MIXTURE> 2 2.099366e-001
<MEAN> 39
 -1.118131e+001 -2.839976e+000 6.469251e+000 -5.957794e+000 4.093597e-001 -4.177239e+000 -1.350704e+000 -1.534366e+000 -2.096146e+000 -2.355818e+000 -8.279538e-001 -1.112187e+000 6.667654e+001 -6.470387e-001 -2.532974e+000 -1.726177e-001 -2.699537e+000 -1.789218e+000 -1.842837e+000 -7.189668e-001 3.055074e-001 1.451694e-001 6.218538e-001 6.761215e-001 1.064639e+000 4.849727e+000 1.158556e+000 2.184465e-001 1.050215e-001 1.478172e-001 -1.311067e+000 -6.455863e-001 -8.799878e-001 -1.463385e-001 -5.524071e-002 1.110600e-001 -5.494885e-001 -1.815706e-001 1.598492e-002
<VARIANCE> 39
 2.348898e+001 4.004016e+001 3.722182e+001 5.170512e+001 3.670987e+001 4.644519e+001 3.758887e+001 3.162933e+001 3.693379e+001 2.737984e+001 2.714522e+001 2.189069e+001 8.242121e+001 3.351935e+000 3.093056e+000 3.341299e+000 3.697323e+000 4.993495e+000 4.178469e+000 4.976749e+000 4.675719e+000 4.537103e+000 3.728497e+000 3.284654e+000 2.873902e+000 2.763214e+000 3.787563e-001 9.213662e-001 7.912040e-001 1.012772e+000 1.095942e+000 1.107633e+000 1.006615e+000 9.994758e-001 9.863514e-001 8.735233e-001 1.074192e+000 7.023304e-001 1.094717e+000
<GCONST> 1.340391e+002
<MIXTURE> 3 2.170586e-001
<MEAN> 39
 2.663636e-001 5.410834e+000 8.649086e+000 -7.251871e-002 -4.960146e+000 -8.982548e+000 -7.431587e+000 -5.038597e+000 -4.651508e+000 -6.760890e+000 -1.024998e+001 -6.374732e+000 5.673143e+001 -1.811542e+000 -1.663536e+000 3.531467e-001 -1.073752e+000 9.405281e-001 7.331111e-001 1.003259e+000 2.244909e-001 -7.209130e-002 3.864615e-001 1.554945e+000 6.250538e-001 1.809494e+000 -3.207580e-001 -1.535837e+000 -2.881400e-001 -1.632222e+000 -8.618999e-001 -5.237104e-001 -3.489646e-001 2.855523e-001 5.182749e-003 7.620881e-001 4.044271e-001 7.893231e-001 2.311011e+000
<VARIANCE> 39
 1.446861e+001 2.948187e+001 3.552192e+001 3.464930e+001 3.946151e+001 3.463739e+001 3.874499e+001 3.772511e+001 5.020592e+001 3.689249e+001 3.844270e+001 2.873093e+001 2.575601e+001 1.909540e+000 4.538919e+000 3.589633e+000 5.301351e+000 4.997143e+000 4.907690e+000 4.583825e+000 4.921980e+000 4.468899e+000 4.228952e+000 4.200232e+000 3.532376e+000 5.417427e+000 4.315538e-001 5.084497e-001 4.919081e-001 8.265706e-001 9.070528e-001 8.574672e-001 9.678148e-001 9.967880e-001 8.610531e-001 7.078783e-001 8.549039e-001 5.771436e-001 4.212130e-001
<GCONST> 1.311132e+002
<MIXTURE> 4 2.419196e-001
<MEAN> 39
 -3.875230e+000 -7.161735e+000 8.380872e+000 -8.126935e-001 -7.021529e+000 -4.331736e+000 -7.378520e+000 -5.753710e+000 -1.343748e+000 -4.492486e+000 -4.238749e+000 -1.734971e+000 6.704862e+001 -6.509194e-001 -2.755337e+000 4.429957e-001 -2.084393e+000 -1.806689e+000 -7.424706e-001 -1.593231e+000 7.299254e-001 6.358789e-001 2.475173e-001 1.133785e+000 1.167062e+000 3.657603e+000 6.521344e-001 3.180258e-001 -6.059845e-001 -8.945440e-001 -3.239251e-001 -2.067623e-001 -8.044333e-001 7.333180e-002 -1.384209e-001 6.504724e-001 1.331035e-001 -4.205413e-001 3.128870e-001
<VARIANCE> 39
 2.548930e+001 4.041884e+001 5.793291e+001 7.799898e+001 5.718155e+001 6.158679e+001 6.955789e+001 5.254604e+001 5.561497e+001 3.994599e+001 3.431034e+001 3.228904e+001 4.573344e+001 2.193595e+000 4.020456e+000 3.719690e+000 5.336616e+000 5.570275e+000 4.596842e+000 6.050865e+000 6.863659e+000 5.437510e+000 4.906789e+000 4.044307e+000 3.406790e+000 3.700296e+000 3.271140e-001 9.037843e-001 7.356130e-001 1.232993e+000 1.161910e+000 1.616291e+000 1.520903e+000 1.256662e+000 1.180380e+000 9.545713e-001 1.455305e+000 9.199176e-001 5.601691e-001
<GCONST> 1.410834e+002
<STATE> 4
<NUMMIXES> 4
<MIXTURE> 1 1.107195e-001
<MEAN> 39
 -7.873890e+000 2.064060e+000 1.413308e+000 1.846292e+000 -2.037663e+000 -2.730265e+000 -3.054690e+000 -1.629437e+000 1.554953e-001 -7.339538e-002 -5.500926e-001 -8.312509e-001 5.706065e+001 -2.562548e-001 -1.902211e-001 -1.648790e-001 -1.954157e-001 -4.432347e-001 -1.951270e-001 9.479633e-003 -2.133751e-001 -2.260459e-001 -1.933440e-002 2.697963e-001 3.677201e-002 8.097264e-001 2.891264e-001 1.094865e-001 2.111306e-001 -1.447147e-001 -2.112693e-001 -1.016803e-001 -3.634400e-001 -2.940060e-001 -9.593522e-002 5.011456e-002 -5.890053e-002 -2.533450e-001 2.193593e-001
<VARIANCE> 39
 5.120087e+001 3.295470e+001 3.556370e+001 4.019885e+001 3.454760e+001 3.409074e+001 3.880375e+001 3.741173e+001 3.095950e+001 2.592717e+001 2.135202e+001 2.380997e+001 9.000378e+001 3.173228e+000 2.831422e+000 2.729074e+000 2.437643e+000 2.876678e+000 2.758113e+000 3.793431e+000 3.332605e+000 3.670911e+000 2.690989e+000 2.117392e+000 2.163123e+000 3.101921e+000 4.381842e-001 5.320451e-001 4.408287e-001 5.036479e-001 4.733649e-001 5.207831e-001 6.432639e-001 5.591962e-001 5.172734e-001 4.704775e-001 3.929922e-001 3.636874e-001 5.536464e-001
<GCONST> 1.224533e+002
<MIXTURE> 2 3.846098e-001
<MEAN> 39
 -9.823204e-001 -6.420573e+000 5.784899e+000 -2.678697e+000 -1.179264e+001 -6.630933e+000 -1.609053e+001 -5.777133e+000 3.674670e+000 -6.874464e-001 -1.173802e+000 -3.140596e+000 7.088368e+001 1.397252e+000 -4.875149e-001 -1.043049e+000 -1.917692e+000 -1.153078e+000 2.911156e-001 -2.726164e+000 -6.761926e-002 3.046089e-001 1.353453e+000 1.182389e+000 -1.199074e+000 1.454510e+000 1.698461e-001 8.674347e-001 -3.511733e-001 -2.565531e-002 7.906685e-001 5.137690e-001 7.711185e-001 -6.553731e-002 -7.399969e-001 1.754701e-001 -1.665066e-002 -3.550429e-001 -9.906982e-001
<VARIANCE> 39
 2.736007e+001 3.773337e+001 4.140187e+001 5.544342e+001 5.598407e+001 4.301353e+001 6.555748e+001 6.423008e+001 3.953474e+001 4.250819e+001 4.009631e+001 2.931536e+001 5.132088e+001 1.858982e+000 4.320158e+000 3.892017e+000 5.307312e+000 5.301470e+000 5.438117e+000 6.580826e+000 6.914773e+000 6.103971e+000 4.832375e+000 5.746310e+000 3.715099e+000 2.867911e+000 3.312268e-001 5.028619e-001 3.988595e-001 6.842530e-001 7.484766e-001 7.067349e-001 1.011697e+000 8.224050e-001 6.914598e-001 6.816202e-001 6.438367e-001 5.910630e-001 3.639095e-001
<GCONST> 1.340703e+002
<MIXTURE> 3 3.076250e-001
<MEAN> 39
 -3.976812e+000 -6.270938e+000 8.888527e+000 -1.170048e+001 -9.983211e+000 -1.444979e+001 -8.387474e+000 -1.080910e-001 -3.669642e+000 -1.871180e+000 -4.408165e+000 1.563366e+000 7.522825e+001 1.226929e+000 -1.804076e+000 -9.715354e-001 -1.992097e+000 -2.595319e+000 -2.076283e+000 -1.288612e+000 1.243522e+000 1.626985e-001 1.067551e+000 -1.142575e+000 6.810775e-001 2.712474e+000 4.865591e-001 7.527502e-001 -4.589259e-001 7.957371e-001 4.150020e-001 6.325852e-001 6.912339e-002 -4.181020e-001 -2.551086e-002 -1.168956e-001 -6.129348e-001 -7.678449e-001 -1.326811e+000
<VARIANCE> 39
 1.955434e+001 3.464621e+001 3.890245e+001 4.501357e+001 5.682370e+001 4.595109e+001 5.401364e+001 3.977729e+001 4.238837e+001 3.428598e+001 4.503092e+001 2.386984e+001 2.043252e+001 2.309262e+000 4.175564e+000 4.444242e+000 5.429547e+000 7.301018e+000 5.877436e+000 6.992664e+000 5.703493e+000 5.939389e+000 4.909629e+000 6.312278e+000 3.827915e+000 4.275522e+000 3.793243e-001 5.068213e-001 5.397235e-001 5.751093e-001 1.024883e+000 9.605056e-001 8.310375e-001 8.414645e-001 7.162610e-001 7.915924e-001 9.121490e-001 5.383982e-001 3.639433e-001
<GCONST> 1.339061e+002
<MIXTURE> 4 1.970178e-001
<MEAN> 39
 -5.954647e+000 2.070227e+000 6.883755e+000 -2.961793e+000 -3.556530e+000 -1.036107e+001 -5.188863e+000 -7.630836e+000 -4.802574e+000 -1.565836e+000 -3.544749e+000 -3.366153e+000 6.621999e+001 5.064971e-001 -6.124802e-001 4.489039e-001 -1.033495e+000 -1.874379e+000 -8.484543e-001 -8.803879e-001 -1.235339e+000 -5.407373e-001 4.352874e-001 1.939049e-001 3.430926e-001 1.815739e+000 5.797349e-001 -3.239328e-001 -6.167775e-002 -2.382410e-001 -5.832069e-001 4.004258e-001 -4.777970e-001 1.930949e-001 2.552655e-001 6.681331e-002 -2.336734e-002 -4.020284e-002 -9.865557e-003
<VARIANCE> 39
 4.429746e+001 3.868964e+001 5.194474e+001 6.599638e+001 5.511698e+001 5.475182e+001 5.447985e+001 5.262329e+001 5.531162e+001 4.297429e+001 4.712220e+001 3.174329e+001 5.795449e+001 3.379813e+000 3.850559e+000 3.698947e+000 4.031709e+000 5.922856e+000 5.491761e+000 6.252917e+000 5.831006e+000 5.712667e+000 4.423086e+000 4.407136e+000 3.529471e+000 2.472541e+000 4.609732e-001 6.734614e-001 5.915875e-001 1.024442e+000 8.515576e-001 9.201660e-001 9.407363e-001 8.539975e-001 7.750868e-001 7.030198e-001 7.673419e-001 6.049549e-001 7.703910e-001
<GCONST> 1.378374e+002
<TRANSP> 5
 0.000000e+000 1.000000e+000 0.000000e+000 0.000000e+000 0.000000e+000
 0.000000e+000 5.028958e-001 4.971042e-001 0.000000e+000 0.000000e+000
 0.000000e+000 0.000000e+000 5.734581e-001 4.265419e-001 0.000000e+000
 0.000000e+000 0.000000e+000 0.000000e+000 4.302472e-001 5.697528e-001
 0.000000e+000 0.000000e+000 0.000000e+000 0.000000e+000 0.000000e+000
<ENDHMM>
~h "e"
<BEGINHMM>
<NUMSTATES> 5
<STATE> 2
<NUMMIXES> 4
<MIXTURE> 1 2.897192e-001
<MEAN> 39
 -2.289067e+000 -8.328319e+000 5.309601e+000 -8.061724e+000 -1.407652e+001 -7.854112e+000 -9.851898e+000 3.904872e+000 -4.846871e-001 -1.494446e+000 -3.159912e+000 -4.241032e+000 7.306052e+001 -1.444619e-002 -2.671995e-001 -3.190440e-001 1.832233e-001 1.298982e-001 -3.202776e-001 3.928739e-001 8.223493e-001 1.212027e-001 -2.559160e-001 -5.268196e-001 1.105282e-001 8.638553e-002 -8.104985e-002 6.569979e-001 3.585320e-002 4.098036e-001 5.547309e-001 7.198049e-002 1.551216e-001 -7.332196e-001 -1.684042e-001 7.406278e-002 1.007589e-001 4.547466e-002 -6.197330e-001
<VARIANCE> 39
 2.361960e+001 4.359313e+001 6.510435e+001 6.292891e+001 6.672661e+001 5.287596e+001 6.924757e+001 5.330967e+001 8.257682e+001 5.683272e+001 6.407457e+001 3.868120e+001 5.982581e+001 4.322886e-001 1.053525e+000 1.927040e+000 1.497998e+000 2.311908e+000 2.185711e+000 2.152701e+000 2.129349e+000 2.420555e+000 2.159652e+000 1.989162e+000 1.739646e+000 4.502366e-001 1.613902e-001 2.157830e-001 2.875541e-001 3.119100e-001 4.558100e-001 4.363176e-001 4.972445e-001 5.319203e-001 5.712638e-001 4.735440e-001 4.813402e-001 3.573455e-001 1.380277e-001
<GCONST> 1.154270e+002
<MIXTURE> 2 2.812843e-001
<MEAN> 39
 -1.986783e+000 -7.322225e+000 5.959576e+000 -6.277762e+000 -1.296202e+001 -9.870605e+000 -1.190329e+001 1.270806e+000 1.599336e+000 -1.146006e+000 -9.759807e-001 -4.405688e+000 7.384209e+001 1.303719e+000 -1.592829e+000 1.270671e-001 -5.331587e-001 -1.406785e+000 -3.470153e-002 -1.222061e+000 1.093086e+000 2.451399e-001 7.806105e-002 2.567149e-001 -5.937907e-001 1.026149e+000 -9.216316e-001 7.933600e-001 -1.845796e-001 3.473679e-001 9.870361e-001 4.013305e-001 9.316908e-001 -3.882717e-001 -2.409615e-001 9.948092e-002 -3.825003e-002 2.943548e-001 -9.233696e-001
<VARIANCE> 39
 2.088106e+001 3.965939e+001 6.227943e+001 5.795479e+001 6.245995e+001 4.733094e+001 6.326314e+001 5.400696e+001 7.308276e+001 5.286529e+001 4.929865e+001 3.554862e+001 5.457821e+001 2.750580e+000 2.394067e+000 3.493974e+000 2.743752e+000 4.193434e+000 3.662157e+000 4.950963e+000 4.317408e+000 4.300764e+000 3.394663e+000 3.351568e+000 2.793035e+000 1.510485e+000 7.015468e-001 5.484753e-001 5.608276e-001 5.760807e-001 7.892096e-001 7.053019e-001 8.338351e-001 1.032016e+000 9.289757e-001 7.473640e-001 6.720299e-001 5.919268e-001 3.158160e-001
<GCONST> 1.324522e+002
<MIXTURE> 3 2.142044e-001
<MEAN> 39
 -3.156274e+000 -5.475244e+000 2.895241e+000 -1.351480e+001 -1.140622e+001 -1.712333e+001 -4.248549e+000 -1.575387e+000 -4.758481e+000 -2.297255e+000 -9.837342e+000 5.381176e-001 7.597758e+001 2.429150e+000 -2.218483e+000 -2.620494e-001 -1.946472e+000 -1.693031e+000 -1.756326e+000 -7.485727e-001 4.820336e-001 -8.403860e-001 1.891846e-001 -2.053595e+000 -8.402174e-002 1.623809e+000 -1.178919e+000 3.656965e-001 -4.389875e-002 6.189554e-001 8.791709e-001 1.098590e+000 4.539794e-001 2.076943e-001 3.527658e-001 1.979681e-001 7.583830e-001 -5.543443e-002 -7.168101e-001
<VARIANCE> 39
 1.058056e+001 3.224242e+001 5.779177e+001 5.326423e+001 5.479455e+001 4.473224e+001 5.663496e+001 4.467511e+001 5.875873e+001 4.528482e+001 4.069042e+001 2.646445e+001 2.051896e+001 4.236060e+000 2.655082e+000 3.012130e+000 3.682627e+000 4.671342e+000 5.241400e+000 7.247177e+000 4.627668e+000 4.639282e+000 4.153428e+000 4.540853e+000 2.938344e+000 1.502053e+000 5.071537e-001 5.122576e-001 4.205674e-001 5.677168e-001 7.351485e-001 6.128961e-001 7.281358e-001 7.857642e-001 6.637275e-001 7.113619e-001 5.941957e-001 4.641317e-001 4.509727e-001
<GCONST> 1.295942e+002
<MIXTURE> 4 2.147058e-001
<MEAN> 39
 -2.672285e+000 -1.003146e+001 3.984236e+000 -1.452109e+001 -1.001647e+001 -1.321441e+001 -5.641040e-001 1.454575e+000 -4.476579e+000 -2.632262e+000 -9.424153e+000 -1.664029e+000 7.727547e+001 3.097437e-002 -6.792729e-002 -1.933900e-001 2.518213e-001 9.812788e-002 -6.248802e-002 3.171694e-001 1.483162e-001 -1.430290e-001 -3.615842e-001 -1.001009e-001 7.296319e-002 -1.594220e-001 5.617308e-002 3.060935e-001 9.365876e-002 2.392380e-001 9.241955e-002 4.499771e-002 -3.223565e-001 -1.997408e-001 3.631296e-002 4.204964e-002 1.332008e-001 -3.200352e-002 -3.129900e-001
<VARIANCE> 39
 1.083955e+001 3.509983e+001 5.012190e+001 5.324531e+001 6.536638e+001 7.792592e+001 7.885004e+001 5.806316e+001 9.012318e+001 5.334666e+001 5.164507e+001 3.578571e+001 1.828081e+001 2.603833e-001 7.865339e-001 9.624034e-001 8.321085e-001 1.247896e+000 1.173218e+000 1.419191e+000 1.375747e+000 1.337243e+000 1.395620e+000 1.119870e+000 9.559932e-001 3.255838e-001 5.858804e-002 1.162657e-001 1.268703e-001 1.855575e-001 1.962411e-001 2.462307e-001 2.566243e-001 2.359216e-001 2.527985e-001 2.435286e-001 2.094921e-001 1.844522e-001 7.049580e-002
<GCONST> 9.692538e+001
<STATE> 3
<NUMMIXES> 4
<MIXTURE> 1 2.026913e-001
<MEAN> 39
 -1.578726e+000 -5.983079e+000 7.340531e+000 -2.623886e+000 -1.434995e+001 -1.022621e+001 -1.154350e+001 9.312237e-001 4.104143e-001 -2.443194e+000 1.803049e+000 -4.699841e+000 7.274926e+001 -3.526922e-001 1.648681e+000 -1.009103e-001 9.598674e-001 1.693663e+000 -1.141029e-001 1.017282e+000 -4.541598e-001 -3.618614e-001 5.132158e-001 -5.520498e-001 3.996615e-001 -1.666427e+000 -9.122515e-001 8.980068e-001 -1.887816e-001 1.796826e-001 1.113248e+000 3.746544e-001 9.084365e-001 -2.620310e-001 -5.634378e-003 2.347246e-001 -2.706467e-001 3.918261e-001 -8.979450e-001
<VARIANCE> 39
 1.938014e+001 3.603086e+001 5.940081e+001 3.916086e+001 5.573315e+001 4.748384e+001 6.094667e+001 5.412120e+001 6.842355e+001 4.718641e+001 4.650733e+001 3.685684e+001 5.782229e+001 1.444238e+000 2.021242e+000 2.819857e+000 2.053346e+000 3.759119e+000 2.966317e+000 3.360274e+000 3.288582e+000 3.838577e+000 2.749822e+000 2.899837e+000 2.275201e+000 2.082861e+000 6.571072e-001 5.171808e-001 5.768526e-001 4.642730e-001 6.487501e-001 7.158983e-001 8.001705e-001 9.073619e-001 9.237590e-001 6.559460e-001 6.634638e-001 5.626065e-001 3.373123e-001
<GCONST> 1.281054e+002
<MIXTURE> 2 2.177041e-001
<MEAN> 39
 -2.239240e+000 -9.203754e+000 6.420847e+000 -1.587422e+001 -1.125729e+001 -1.392043e+001 -8.442671e+000 3.465296e+000 -6.518360e+000 1.719068e+000 -1.036745e+001 1.379488e-002 7.586845e+001 1.457715e-001 1.847829e-001 1.070451e-001 3.049305e-001 3.047359e-001 5.213331e-002 1.299611e-001 -1.476059e-001 -1.517876e-001 1.087740e-001 -1.875117e-001 4.613749e-003 -5.285877e-001 -7.782403e-001 1.250019e+000 -1.167872e-001 1.215641e+000 8.623348e-001 6.806267e-001 6.766053e-001 -7.072949e-001 5.480420e-001 -4.475209e-001 9.267634e-001 -2.171177e-001 -1.122467e+000
<VARIANCE> 39
 1.349308e+001 3.562423e+001 6.635315e+001 4.961801e+001 7.034132e+001 5.777719e+001 6.980028e+001 6.199636e+001 7.037639e+001 4.545375e+001 4.653758e+001 3.196274e+001 2.182185e+001 9.138967e-001 2.536646e+000 2.529089e+000 2.924731e+000 2.848534e+000 2.720515e+000 3.080123e+000 3.274015e+000 3.539111e+000 3.205762e+000 2.759084e+000 2.243297e+000 1.267100e+000 5.476278e-001 4.637786e-001 4.875711e-001 5.362862e-001 8.992468e-001 8.647103e-001 9.097296e-001 1.060715e+000 9.292175e-001 6.449513e-001 7.297024e-001 5.462325e-001 3.972168e-001
<GCONST> 1.274274e+002
<MIXTURE> 3 2.782088e-001
<MEAN> 39
 -3.702359e+000 -1.001528e+001 3.082176e+000 -1.738231e+001 -1.202520e+001 -1.562978e+001 1.877989e-001 1.405074e-001 -8.921563e+000 -4.394754e+000 -1.206465e+001 -3.616410e-001 7.812141e+001 4.061145e-001 4.474952e-001 -3.921519e-002 8.968324e-001 4.391962e-001 -1.693415e-001 -4.504761e-001 -1.527608e-001 1.998024e-001 -2.083491e-001 6.402662e-003 9.214530e-002 -8.405565e-001 6.606340e-002 8.521001e-001 2.448530e-001 7.684658e-001 4.058138e-001 2.707812e-001 -6.311523e-001 -5.302698e-001 2.532238e-001 2.636857e-001 2.845166e-001 -1.967410e-001 -8.939454e-001
<VARIANCE> 39
 8.379444e+000 3.016654e+001 4.233072e+001 4.073903e+001 5.316467e+001 6.204478e+001 5.480381e+001 5.069957e+001 6.629357e+001 5.557323e+001 4.429387e+001 3.120393e+001 1.458176e+001 7.424037e-001 1.790377e+000 2.523319e+000 2.382805e+000 3.111955e+000 2.589582e+000 3.551299e+000 3.090359e+000 3.349974e+000 3.347980e+000 2.325973e+000 2.175966e+000 1.051311e+000 1.772228e-001 2.649617e-001 2.915235e-001 4.632822e-001 5.088775e-001 7.698395e-001 5.217679e-001 6.886939e-001 5.557574e-001 6.550046e-001 5.335241e-001 4.526027e-001 2.181276e-001
<GCONST> 1.184906e+002
<MIXTURE> 4 3.013097e-001
<MEAN> 39
 -2.344826e+000 -6.942733e+000 4.171829e+000 -5.737021e+000 -1.284171e+001 -8.415727e+000 -9.524258e+000 2.459136e+000 2.279469e+000 -2.349796e+000 -1.887431e+000 -4.587430e+000 7.204675e+001 2.375889e-001 6.895397e-001 -1.775087e-001 6.327004e-001 7.125397e-001 3.510441e-001 -2.930051e-002 -7.291846e-001 -2.199497e-001 1.285071e-001 6.981108e-002 -2.436541e-001 -9.864478e-001 -1.432703e-001 6.148785e-001 1.190074e-001 3.219842e-001 4.904700e-001 2.014270e-001 2.727027e-001 -6.398852e-001 -4.137460e-001 1.949283e-001 1.053561e-001 6.949358e-002 -6.598507e-001
<VARIANCE> 39
 2.579892e+001 4.084622e+001 6.189606e+001 4.744576e+001 6.192014e+001 6.052956e+001 7.516855e+001 5.804430e+001 7.137988e+001 5.408088e+001 4.848855e+001 3.788133e+001 6.433559e+001 5.740547e-001 1.222656e+000 2.379975e+000 1.762914e+000 2.887762e+000 2.312453e+000 2.413513e+000 2.485839e+000 2.976209e+000 2.483617e+000 2.348380e+000 2.046785e+000 7.322423e-001 1.920181e-001 2.425676e-001 3.109905e-001 3.121135e-001 4.259213e-001 5.094306e-001 5.171273e-001 6.454500e-001 6.183854e-001 4.565855e-001 4.465113e-001 3.697534e-001 1.781268e-001
<GCONST> 1.183846e+002
<STATE> 4
<NUMMIXES> 4
<MIXTURE> 1 1.874783e-001
<MEAN> 39
 -2.743251e+000 2.175702e-001 5.452047e+000 -1.695398e+000 -7.754792e+000 -1.210478e+001 -5.999522e+000 -1.060759e+000 -4.889564e-001 -1.499223e+000 -3.481334e+000 -2.065857e+000 6.727364e+001 -1.776519e+000 2.436616e+000 -1.216803e-001 1.705688e+000 2.700149e+000 1.064904e+000 1.754790e+000 -9.320423e-002 5.667556e-001 5.783053e-001 3.012421e-001 6.242494e-001 -3.256306e+000 -7.470693e-001 -3.111185e-001 -2.171116e-001 -3.796469e-001 2.265839e-002 4.863559e-001 3.123101e-001 2.936131e-001 1.767458e-001 1.546421e-001 3.697511e-001 1.855226e-001 -8.366235e-002
<VARIANCE> 39
 1.746065e+001 2.426942e+001 4.137603e+001 3.402529e+001 4.944758e+001 4.272676e+001 5.778521e+001 4.767071e+001 6.350216e+001 4.671658e+001 4.541120e+001 3.436136e+001 5.595352e+001 2.593251e+000 2.338247e+000 2.725041e+000 3.017676e+000 3.231176e+000 4.116786e+000 3.992825e+000 3.864708e+000 4.757157e+000 3.334574e+000 4.363161e+000 2.996896e+000 4.022817e+000 4.532247e-001 4.330010e-001 4.165067e-001 4.028509e-001 6.358876e-001 5.296383e-001 6.179121e-001 6.537331e-001 7.292159e-001 6.185471e-001 5.217175e-001 4.767915e-001 3.332545e-001
<GCONST> 1.271912e+002
<MIXTURE> 2 2.399714e-001
<MEAN> 39
 -2.173302e+000 -6.330205e+000 7.000591e+000 -1.325103e+001 -1.107238e+001 -1.586791e+001 -5.444628e+000 -4.558040e-001 -6.980083e+000 -3.765147e-001 -9.405540e+000 7.809390e-001 7.360059e+001 -5.016382e-001 2.902338e+000 1.423880e-001 2.917589e+000 1.758445e+000 8.726849e-001 4.435869e-001 -9.722950e-001 8.668434e-001 -6.674434e-001 9.271884e-001 -3.583428e-001 -3.107280e+000 -6.396462e-001 4.858476e-001 -2.031482e-001 5.654395e-001 5.039073e-001 7.367831e-001 3.655737e-001 4.781294e-002 4.551523e-001 -7.227563e-002 5.513229e-001 -2.546276e-001 -7.298896e-001
<VARIANCE> 39
 1.256273e+001 3.258820e+001 5.991949e+001 4.833310e+001 6.407219e+001 5.761409e+001 7.650771e+001 6.461637e+001 6.837087e+001 5.317136e+001 5.373357e+001 3.297906e+001 2.250441e+001 1.896616e+000 1.796593e+000 2.664383e+000 2.893186e+000 3.366464e+000 3.505122e+000 4.879284e+000 3.909748e+000 4.054301e+000 3.195357e+000 3.178379e+000 2.568635e+000 3.025829e+000 4.561948e-001 4.786703e-001 4.977002e-001 5.082864e-001 7.278538e-001 6.628471e-001 7.373265e-001 8.561914e-001 7.982447e-001 7.148741e-001 7.060541e-001 5.187886e-001 4.176468e-001
<GCONST> 1.291046e+002
<MIXTURE> 3 3.056167e-001
<MEAN> 39
 -6.231768e-001 -8.174294e+000 3.563652e+000 -9.848168e+000 -9.740091e+000 -8.627274e+000 -1.048709e+001 1.683987e+000 -1.548501e+000 -2.225982e+000 -5.560845e+000 -4.654322e+000 7.311963e+001 4.754859e-001 1.505115e+000 2.312189e-002 1.270287e+000 8.982495e-001 4.675302e-001 -2.442110e-002 -2.094487e+000 -5.605464e-001 5.811349e-001 3.215425e-001 -5.110769e-001 -1.908195e+000 -1.269001e-001 4.291809e-001 1.669220e-001 2.339243e-001 -4.989903e-003 -1.928510e-002 3.472807e-001 -4.909478e-001 -3.283322e-001 1.102245e-001 9.975017e-002 8.772772e-002 -3.072982e-001
<VARIANCE> 39
 1.680581e+001 3.749396e+001 6.281786e+001 6.839379e+001 6.601405e+001 6.776452e+001 8.075691e+001 5.805667e+001 8.747644e+001 6.859206e+001 7.177867e+001 4.125596e+001 3.666199e+001 8.020569e-001 2.101904e+000 2.950837e+000 3.631721e+000 3.875587e+000 4.156904e+000 4.295356e+000 4.336667e+000 4.789105e+000 3.695893e+000 3.767707e+000 2.896819e+000 1.610365e+000 1.263093e-001 2.205911e-001 3.715898e-001 3.798000e-001 5.021650e-001 5.397173e-001 5.663122e-001 6.210366e-001 7.101551e-001 6.492211e-001 5.460204e-001 4.435217e-001 1.151108e-001
<GCONST> 1.257371e+002
<MIXTURE> 4 2.668405e-001
<MEAN> 39
 -4.157470e+000 -1.382023e+000 3.002002e+000 -1.371236e+000 -9.068765e+000 -8.191082e+000 -5.653511e+000 6.339955e-001 1.480648e+000 -4.042361e-001 -1.997431e+000 -2.637246e+000 6.173532e+001 -4.178151e-001 9.964272e-001 -3.040040e-001 6.359560e-001 9.227643e-001 6.171043e-001 8.210592e-001 -4.211343e-001 -2.620547e-001 -2.459135e-002 1.534323e-001 2.555472e-001 -1.888492e+000 -1.345070e-001 -1.974851e-001 3.010088e-002 -2.284575e-001 -5.047697e-003 7.575301e-002 -6.395943e-002 1.107548e-002 -1.039069e-001 -1.835817e-002 3.470934e-002 5.921415e-002 2.401141e-001
<VARIANCE> 39
 2.692413e+001 3.108022e+001 5.695913e+001 4.367868e+001 6.827372e+001 5.317485e+001 7.714581e+001 5.833966e+001 5.787862e+001 5.255524e+001 4.619316e+001 3.587661e+001 6.672434e+001 9.564030e-001 1.662407e+000 2.165885e+000 2.027351e+000 2.945446e+000 2.368012e+000 2.707120e+000 2.966853e+000 3.251691e+000 2.614427e+000 2.660801e+000 2.009905e+000 1.974737e+000 2.036926e-001 2.310308e-001 3.333078e-001 3.577487e-001 4.923916e-001 4.143993e-001 4.741399e-001 4.983182e-001 5.199073e-001 4.688649e-001 4.418378e-001 3.602542e-001 3.147699e-001
<GCONST> 1.203148e+002
<TRANSP> 5
 0.000000e+000 1.000000e+000 0.000000e+000 0.000000e+000 0.000000e+000
 0.000000e+000 4.985414e-001 5.014585e-001 0.000000e+000 0.000000e+000
 0.000000e+000 0.000000e+000 3.534415e-001 6.465585e-001 0.000000e+000
 0.000000e+000 0.000000e+000 0.000000e+000 4.223402e-001 5.776598e-001
 0.000000e+000 0.000000e+000 0.000000e+000 0.000000e+000 0.000000e+000
<ENDHMM>
~h "f"
<BEGINHMM>
<NUMSTATES> 5
<STATE> 2
<NUMMIXES> 4
<MIXTURE> 1 2.566239e-001
<MEAN> 39
 -1.379942e+001 -1.021920e-001 1.229415e+000 9.737160e-001 2.094421e+000 -2.353311e-002 3.064086e+000 3.830812e+000 4.818301e+000 2.613292e+000 1.291416e+000 1.054739e+000 5.894824e+001 -2.325351e+000 -5.756254e-001 -1.477804e-001 2.004966e-001 -9.498344e-002 -1.630592e-001 1.365030e-001 4.113215e-001 6.123339e-001 2.930629e-001 4.868680e-001 5.197122e-001 1.330843e-001 2.940165e-001 -3.987633e-001 -1.760854e-001 -4.467493e-001 -4.149982e-001 -3.436800e-001 -3.694268e-001 -3.355093e-001 -3.781922e-001 -1.463163e-001 -1.788112e-001 -1.637806e-001 4.841545e-001
<VARIANCE> 39
 2.561287e+001 2.194628e+001 2.607161e+001 2.912228e+001 3.025688e+001 2.773801e+001 2.851218e+001 2.213769e+001 2.478907e+001 1.762708e+001 2.333347e+001 1.924655e+001 7.689183e+001 3.907769e+000 2.402874e+000 2.191550e+000 2.504649e+000 2.681483e+000 3.257028e+000 2.739158e+000 2.726579e+000 2.606360e+000 2.430707e+000 2.651292e+000 2.134384e+000 3.813755e+000 4.915961e-001 3.852760e-001 3.832572e-001 4.175927e-001 4.514928e-001 5.475827e-001 5.371966e-001 4.878444e-001 4.443361e-001 4.118521e-001 5.187125e-001 3.735451e-001 3.878304e-001
<GCONST> 1.168698e+002
<MIXTURE> 2 1.393737e-001
<MEAN> 39
 -2.425137e+000 -2.312520e+000 1.959813e+000 -9.303670e+000 -2.994594e+000 -7.907366e+000 -4.969305e+000 -5.451341e+000 -6.996619e+000 -5.299704e+000 -9.527836e+000 -3.190052e+000 6.893896e+001 -3.710041e+000 1.423113e+000 1.023189e+000 3.749954e+000 2.538049e+000 1.327207e+000 2.242261e+000 1.399734e+000 1.840698e+000 2.066379e-001 2.374087e+000 6.250529e-001 -1.466483e+000 -1.063821e+000 -6.361471e-001 -2.944613e-001 -2.272262e-001 -1.391303e-001 1.241348e-001 3.028671e-001 7.623686e-001 6.337299e-001 7.604359e-001 5.535546e-001 4.020437e-001 3.531531e-001
<VARIANCE> 39
 1.773720e+001 1.853005e+001 4.319115e+001 4.089343e+001 5.275124e+001 5.694631e+001 5.138787e+001 4.081266e+001 4.946949e+001 3.375124e+001 3.682413e+001 2.480045e+001 1.901260e+001 2.077133e+000 3.342544e+000 3.237676e+000 4.931384e+000 4.744542e+000 5.815303e+000 5.219946e+000 4.815007e+000 5.166028e+000 4.393397e+000 4.347464e+000 3.067069e+000 1.522112e+000 2.554059e-001 2.717277e-001 3.151707e-001 5.548577e-001 4.653870e-001 5.374852e-001 5.855136e-001 4.987564e-001 4.872298e-001 5.169523e-001 4.937985e-001 3.699475e-001 1.466593e-001
<GCONST> 1.231433e+002
<MIXTURE> 3 2.700936e-001
<MEAN> 39
 -1.513122e+001 -2.627738e+000 2.229676e+000 5.956582e-001 7.444264e-001 -4.053237e+000 -4.357138e-001 2.158282e-001 8.081003e-002 -2.933436e-001 -1.628957e+000 -2.638024e-002 6.812336e+001 -3.580709e+000 -1.388767e+000 -1.335023e+000 8.136616e-001 8.928082e-001 4.559783e-001 6.956870e-001 1.574466e+000 2.071272e+000 1.203861e+000 1.141250e+000 8.761346e-001 1.145350e-001 8.069895e-001 -5.322659e-002 -5.336351e-002 -1.016470e+000 -8.072869e-001 -7.943533e-002 -4.657399e-001 -3.640506e-001 -4.684599e-001 1.074032e-001 -1.333982e-001 -1.127599e-001 1.069067e-001
<VARIANCE> 39
 1.265987e+001 1.872660e+001 3.222565e+001 3.771538e+001 2.638111e+001 2.815028e+001 3.004064e+001 2.485696e+001 2.958096e+001 2.371041e+001 2.538658e+001 1.767531e+001 3.260560e+001 1.766383e+000 1.641830e+000 2.856168e+000 2.696847e+000 2.954140e+000 3.500757e+000 3.257677e+000 3.996339e+000 3.190506e+000 2.797709e+000 3.110360e+000 2.324045e+000 9.153363e-001 2.564766e-001 4.049018e-001 4.481260e-001 5.906761e-001 5.824030e-001 6.479312e-001 6.319882e-001 6.241468e-001 5.947226e-001 5.753711e-001 6.688236e-001 4.588054e-001 2.253128e-001
<GCONST> 1.164628e+002
<MIXTURE> 4 3.338978e-001
<MEAN> 39
 -6.893047e+000 5.382417e-001 2.409022e+000 -1.776926e+000 2.538305e-001 -3.120183e+000 -1.005688e+000 -1.087358e+000 -1.004843e+000 -4.374646e-001 -2.586208e+000 -1.826207e+000 6.546781e+001 -4.503494e+000 2.116126e-001 -1.763420e-001 2.205348e+000 1.834257e+000 1.422362e-001 1.632300e+000 1.360258e+000 1.886620e+000 4.740108e-001 9.916132e-001 1.032262e+000 -8.957770e-001 -3.271855e-001 -8.063440e-001 -3.149918e-001 -7.254733e-001 -7.225594e-001 -1.683319e-001 -4.577209e-001 2.878213e-002 2.709902e-002 1.645019e-001 8.603629e-002 1.022935e-002 5.083400e-001
<VARIANCE> 39
 2.372878e+001 2.260008e+001 4.359015e+001 3.944749e+001 4.469438e+001 4.466949e+001 4.189843e+001 3.436652e+001 3.824456e+001 3.395742e+001 2.900704e+001 2.251193e+001 4.754521e+001 1.636944e+000 3.374146e+000 3.872031e+000 4.686331e+000 4.606030e+000 6.304125e+000 4.895866e+000 4.922707e+000 4.707854e+000 4.275245e+000 5.604095e+000 3.182031e+000 1.475025e+000 3.428466e-001 3.463306e-001 3.912937e-001 5.754922e-001 4.988494e-001 5.726287e-001 5.671081e-001 5.234492e-001 5.177429e-001 5.421965e-001 4.634551e-001 4.253229e-001 1.999932e-001
<GCONST> 1.246325e+002
<STATE> 3
<NUMMIXES> 4
<MIXTURE> 1 3.472531e-001
<MEAN> 39
 -1.886618e+001 -3.376190e+000 -1.315188e+000 4.505428e-001 1.068049e+000 -7.481762e-001 2.623944e+000 3.844120e+000 5.646637e+000 3.731709e+000 2.931264e+000 2.604717e+000 6.359813e+001 -3.164796e-001 -2.855257e-001 -1.852132e-001 -6.762781e-002 5.354101e-002 6.669295e-002 2.752244e-002 3.009171e-002 4.246158e-002 1.051697e-001 1.217469e-001 1.374885e-001 -2.055285e-002 6.792952e-001 1.251324e-001 1.438706e-001 -1.555266e-001 -1.064089e-001 -1.891046e-001 -2.141214e-001 -2.902879e-001 -3.754250e-001 -2.948664e-001 -3.183872e-001 -2.494570e-001 1.796387e-002
<VARIANCE> 39
 1.478571e+001 1.719317e+001 1.968527e+001 2.619231e+001 1.909013e+001 1.777376e+001 2.021097e+001 1.712932e+001 2.031084e+001 1.806743e+001 1.824529e+001 1.509505e+001 5.509812e+001 1.093842e+000 7.110614e-001 9.515978e-001 1.033336e+000 1.236577e+000 1.522632e+000 1.593516e+000 1.605274e+000 1.673727e+000 1.712879e+000 1.514071e+000 1.399127e+000 8.727676e-001 3.132329e-001 1.827810e-001 2.313143e-001 2.619376e-001 2.928065e-001 3.298959e-001 3.367383e-001 3.399985e-001 3.590691e-001 3.276786e-001 3.217831e-001 3.028961e-001 2.025333e-001
<GCONST> 9.740556e+001
<MIXTURE> 2 1.544574e-001
<MEAN> 39
 -1.803897e+001 -5.001196e+000 1.090702e+000 -1.877650e+000 5.247557e-001 -4.106045e+000 1.390422e+000 3.769948e+000 3.972960e+000 3.131516e+000 1.357681e+000 2.401827e+000 6.613010e+001 -1.966871e+000 -1.051202e+000 -7.477937e-001 -5.292835e-001 -1.886444e-001 -1.155879e-001 3.180273e-001 7.474186e-001 9.202845e-001 7.183613e-001 7.915691e-001 5.957181e-001 5.929288e-001 1.000628e+000 3.917339e-001 2.628113e-001 -4.543410e-001 -4.559452e-001 -1.141968e-001 -4.036700e-001 -7.283936e-001 -8.226239e-001 -4.156665e-001 -3.961728e-001 -3.962765e-001 -3.015941e-002
<VARIANCE> 39
 1.227112e+001 2.020691e+001 2.985031e+001 3.992893e+001 3.171086e+001 3.062271e+001 3.700214e+001 2.730024e+001 3.671188e+001 2.432877e+001 2.812666e+001 1.867573e+001 4.857576e+001 3.783100e+000 1.730397e+000 2.665225e+000 2.119171e+000 2.950154e+000 3.034616e+000 3.023065e+000 2.881042e+000 2.619446e+000 2.553081e+000 2.467781e+000 2.080820e+000 2.795046e+000 4.257044e-001 4.204534e-001 5.158862e-001 5.956173e-001 5.971591e-001 6.815383e-001 6.861504e-001 6.611196e-001 6.033307e-001 5.364761e-001 6.134120e-001 4.557788e-001 4.545090e-001
<GCONST> 1.197617e+002
<MIXTURE> 3 3.784139e-001
<MEAN> 39
 -1.819238e+001 -4.484828e+000 -2.224825e+000 -2.141184e+000 -1.183413e+000 -4.723869e+000 -2.315838e+000 -8.759068e-001 2.228031e-001 2.211612e-001 -1.971866e+000 -2.665940e-001 6.493158e+001 -5.394572e-001 -3.670994e-001 -3.420805e-001 -1.124109e-001 -2.398035e-002 -2.649835e-002 -7.838136e-002 -3.994205e-002 1.063549e-002 8.352894e-002 9.051631e-002 7.725386e-002 -3.395034e-002 5.928777e-001 1.246864e-001 1.811537e-001 -5.626437e-002 4.058347e-002 1.348543e-001 1.521492e-001 9.744487e-002 3.077760e-002 1.025093e-001 9.251589e-002 1.628590e-002 -3.416594e-002
<VARIANCE> 39
 1.716522e+001 2.886846e+001 2.267482e+001 3.218059e+001 2.820307e+001 2.463742e+001 2.576844e+001 2.165666e+001 2.441316e+001 2.121999e+001 1.864743e+001 1.752769e+001 5.405524e+001 1.349265e+000 9.299266e-001 1.070188e+000 1.165697e+000 1.480230e+000 1.683025e+000 1.672765e+000 1.783800e+000 1.796967e+000 1.675375e+000 1.644735e+000 1.534488e+000 7.442673e-001 3.006985e-001 2.171991e-001 2.294870e-001 2.761756e-001 3.302583e-001 3.502509e-001 3.554253e-001 3.613077e-001 3.822511e-001 3.349444e-001 3.333921e-001 3.205333e-001 1.800597e-001
<GCONST> 1.018570e+002
<MIXTURE> 4 1.198452e-001
<MEAN> 39
 -1.412943e+001 -2.389194e+000 -2.473353e+000 -1.478875e+000 -4.687020e+000 -7.426911e+000 -6.367516e+000 -4.385851e+000 -1.368842e+000 -1.136328e+000 -3.504980e+000 -1.307935e+000 5.756234e+001 -1.003334e+000 -5.333801e-001 -1.504264e-001 -1.670347e-001 2.780361e-002 -2.211362e-001 5.176726e-002 1.410129e-002 1.022607e-002 2.179504e-002 1.590828e-002 1.540103e-002 7.806457e-002 5.063527e-001 -7.737412e-002 1.817627e-001 -2.555581e-001 -1.829423e-001 3.125432e-001 6.863138e-003 1.955030e-001 -1.091586e-001 6.002091e-002 2.064407e-001 2.019898e-002 2.545083e-001
<VARIANCE> 39
 5.051976e+001 6.685933e+001 8.526522e+001 8.433195e+001 8.885512e+001 6.968534e+001 9.753124e+001 6.093997e+001 5.107744e+001 5.095083e+001 3.602839e+001 3.605304e+001 8.364689e+001 5.553187e+000 3.685302e+000 3.325478e+000 3.253063e+000 4.043497e+000 4.544529e+000 4.332000e+000 4.194925e+000 3.611679e+000 3.272493e+000 2.790717e+000 2.615197e+000 4.087671e+000 6.851930e-001 7.875661e-001 6.462320e-001 6.780268e-001 8.656822e-001 8.278163e-001 9.449838e-001 8.353316e-001 8.026803e-001 7.068506e-001 5.855503e-001 5.798862e-001 7.141501e-001
<GCONST> 1.386448e+002
<STATE> 4
<NUMMIXES> 4
<MIXTURE> 1 2.968257e-001
<MEAN> 39
 -1.561275e+001 -2.505546e+000 -4.773783e-001 -2.454641e-001 2.096939e+000 -1.048116e+000 5.344701e-001 1.574938e+000 2.670429e+000 3.240138e+000 1.789775e+000 1.978526e+000 6.113405e+001 1.637713e+000 1.210809e+000 2.794192e-001 2.919040e-001 4.077379e-001 7.982095e-001 3.165371e-001 1.177237e-001 -3.905474e-002 1.798780e-001 3.943657e-001 9.555481e-002 -3.162610e+000 2.411102e-001 1.857289e-001 -1.648967e-002 3.032557e-002 -1.732623e-001 -3.716073e-002 3.427350e-002 1.888343e-002 2.304487e-003 -7.511823e-002 -4.239375e-002 -7.156200e-002 -3.687018e-001
<VARIANCE> 39
 2.691282e+001 3.170442e+001 3.896227e+001 3.853568e+001 3.540289e+001 2.994041e+001 3.405712e+001 2.973872e+001 3.167240e+001 2.406931e+001 2.449311e+001 1.846043e+001 7.426477e+001 1.362429e+000 1.353841e+000 1.847481e+000 1.895366e+000 2.307878e+000 2.062156e+000 2.157063e+000 2.356659e+000 2.307554e+000 2.174790e+000 1.874459e+000 1.746849e+000 2.680251e+000 4.770867e-001 4.064295e-001 3.892123e-001 4.234090e-001 4.671385e-001 4.709826e-001 4.667158e-001 5.263121e-001 4.896341e-001 4.282255e-001 3.790810e-001 3.639008e-001 8.645599e-001
<GCONST> 1.154716e+002
<MIXTURE> 2 2.037724e-001
<MEAN> 39
 -6.869341e+000 -1.476078e+000 -7.467971e-001 -3.754343e+000 -2.312298e+000 -4.709290e+000 -2.767498e+000 -2.633203e+000 -1.308551e+000 -4.916360e-001 -2.833285e+000 -2.046572e+000 6.307583e+001 4.756108e+000 2.055765e-001 2.088254e-001 -2.623959e+000 -2.567816e+000 -7.358504e-001 -1.840448e+000 -1.378351e+000 -1.753975e+000 -3.875259e-001 -5.212724e-001 -1.181582e+000 1.716516e+000 -3.907329e-001 -4.403502e-001 2.230548e-002 -2.781215e-001 -3.093274e-001 1.062677e-001 -7.718388e-002 2.089607e-001 1.811772e-001 2.412316e-001 2.537791e-001 1.010344e-001 4.184954e-001
<VARIANCE> 39
 4.315306e+001 2.641445e+001 4.409450e+001 5.497962e+001 4.366460e+001 5.060828e+001 4.607714e+001 3.379086e+001 3.403679e+001 2.972755e+001 3.196969e+001 2.136236e+001 6.143534e+001 3.122107e+000 5.281606e+000 5.674496e+000 6.395642e+000 4.509160e+000 6.822744e+000 5.972583e+000 5.334314e+000 5.526539e+000 4.425537e+000 6.671085e+000 3.761285e+000 4.193351e+000 6.618243e-001 3.862683e-001 3.463519e-001 6.293353e-001 5.958524e-001 5.349890e-001 6.562142e-001 5.612581e-001 5.112873e-001 5.087348e-001 4.751403e-001 4.017969e-001 4.216974e-001
<GCONST> 1.313638e+002
<MIXTURE> 3 2.909878e-001
<MEAN> 39
 -2.058068e+001 -6.434990e+000 5.376542e-001 -3.175815e+000 -1.760737e+000 -6.415817e+000 1.351552e-001 2.504766e+000 2.265680e+000 1.246521e+000 2.088586e-001 9.679910e-001 6.729604e+001 -6.044984e-001 1.605508e-001 7.346404e-001 -3.091558e-001 -2.152135e-001 5.698267e-002 4.519523e-001 1.653890e-002 -1.934860e-001 -5.833856e-002 2.883186e-001 3.859819e-002 6.192209e-001 7.023100e-001 5.541040e-001 3.158092e-001 2.139771e-003 -2.677383e-002 3.176259e-001 -5.468529e-002 -3.717853e-001 -2.796029e-001 -5.755725e-002 -4.521717e-002 -1.293379e-001 -3.998124e-001
<VARIANCE> 39
 1.678844e+001 2.854681e+001 4.226840e+001 5.088989e+001 4.557236e+001 3.239591e+001 4.091375e+001 3.036356e+001 3.474725e+001 2.782459e+001 2.495821e+001 2.030365e+001 5.450639e+001 5.586539e+000 2.114078e+000 2.887762e+000 2.333548e+000 3.404588e+000 3.089898e+000 2.687518e+000 2.636343e+000 2.463637e+000 2.345836e+000 2.140755e+000 1.929149e+000 2.287113e+000 5.621424e-001 3.267926e-001 4.389979e-001 4.660437e-001 5.573484e-001 5.454678e-001 6.051458e-001 5.347106e-001 5.380653e-001 4.930958e-001 4.338926e-001 4.166858e-001 4.843939e-001
<GCONST> 1.203712e+002
<MIXTURE> 4 2.084046e-001
<MEAN> 39
 -1.632673e+001 -4.814690e+000 -8.242074e-001 -1.299865e+000 1.692390e+000 -1.757807e+000 2.400422e+000 2.879184e+000 3.779999e+000 2.529435e+000 1.397726e+000 2.285355e+000 6.436945e+001 4.050946e+000 7.919412e-001 2.959056e-001 -1.584362e+000 -1.399311e+000 -1.028310e+000 -1.303947e+000 -1.538062e+000 -1.870137e+000 -9.540558e-001 -1.221839e+000 -1.137900e+000 4.619305e-001 1.101599e+000 1.211442e-001 2.485327e-002 -8.574240e-001 -8.999393e-001 -4.035167e-001 -7.311988e-001 -5.511752e-001 -6.524312e-001 -1.495994e-001 -3.716210e-001 -4.380898e-001 4.985582e-001
<VARIANCE> 39
 1.848970e+001 1.706409e+001 2.572807e+001 2.848229e+001 2.332706e+001 2.526701e+001 2.736561e+001 2.375169e+001 2.797588e+001 2.347601e+001 2.750119e+001 1.740936e+001 4.846225e+001 2.436125e+000 2.406763e+000 3.157345e+000 3.750929e+000 3.143149e+000 3.817493e+000 3.190771e+000 3.093655e+000 3.349086e+000 2.596895e+000 3.157474e+000 2.053353e+000 1.840622e+000 3.627099e-001 4.876658e-001 4.680262e-001 5.867496e-001 4.901894e-001 6.357005e-001 5.911731e-001 5.989721e-001 6.081593e-001 5.795038e-001 7.605430e-001 4.541278e-001 3.286203e-001
<GCONST> 1.186332e+002
<TRANSP> 5
 0.000000e+000 1.000000e+000 0.000000e+000 0.000000e+000 0.000000e+000
 0.000000e+000 5.977171e-001 4.022829e-001 0.000000e+000 0.000000e+000
 0.000000e+000 0.000000e+000 7.340629e-001 2.659372e-001 0.000000e+000
 0.000000e+000 0.000000e+000 0.000000e+000 6.229776e-001 3.770224e-001
 0.000000e+000 0.000000e+000 0.000000e+000 0.000000e+000 0.000000e+000
<ENDHMM>
~h "g"
<BEGINHMM>
<NUMSTATES> 5
<STATE> 2
<NUMMIXES> 4
<MIXTURE> 1 1.783710e-001
<MEAN> 39
 -9.889825e+000 2.815087e+000 8.557485e-001 2.907264e+000 5.922281e-001 -2.577308e-001 2.482889e-001 1.453141e+000 1.452420e+000 1.940720e+000 1.226392e+000 1.173441e+000 4.740265e+001 -3.598430e-001 -1.413750e-001 -4.283395e-001 1.506103e-001 5.996879e-001 6.791026e-001 4.237028e-001 4.262981e-001 1.702288e-001 1.165349e-001 1.373793e-001 1.879138e-001 -6.239099e-001 4.902835e-002 -4.743747e-001 1.747118e-001 -3.512231e-001 -4.811727e-001 -6.412241e-001 -2.291807e-001 -1.658165e-001 -3.526931e-001 -1.109223e-001 -2.055655e-001 -1.732789e-001 1.037166e+000
<VARIANCE> 39
 1.545148e+001 2.042236e+001 2.120890e+001 3.318870e+001 3.325120e+001 3.103735e+001 3.665692e+001 3.218201e+001 3.420616e+001 2.577095e+001 2.394002e+001 2.120856e+001 4.867182e+001 1.463807e+000 2.454396e+000 2.469346e+000 2.377107e+000 3.131644e+000 3.780113e+000 2.515134e+000 2.651744e+000 2.699455e+000 2.588774e+000 2.260201e+000 2.164943e+000 2.885829e+000 2.999404e-001 4.346830e-001 5.015543e-001 5.111061e-001 6.115171e-001 8.190135e-001 5.937019e-001 6.264154e-001 6.390898e-001 5.779570e-001 5.461841e-001 4.847266e-001 6.349061e-001
<GCONST> 1.190484e+002
<MIXTURE> 2 3.075458e-001
<MEAN> 39
 -1.168726e+000 -3.847235e+000 1.075435e+001 -9.968280e-001 -1.272375e+001 -1.168755e+001 -8.102345e+000 3.429726e+000 -1.125836e+001 -1.873342e+000 3.695270e+000 -7.018688e+000 6.622654e+001 2.576107e-001 2.335224e+000 -1.659395e-001 1.871663e+000 1.199476e+000 3.634093e-001 1.090813e+000 -7.914255e-001 -3.770335e-001 -2.719179e-001 -4.772557e-001 -1.485102e-001 -3.085451e+000 -1.376241e-001 -8.630427e-003 -4.986700e-001 -2.783308e-001 4.071189e-001 3.162431e-001 1.239574e-001 -2.492167e-001 9.126232e-001 6.973529e-002 -4.621714e-001 2.742103e-001 3.591220e-002
<VARIANCE> 39
 2.371710e+001 3.575878e+001 7.433564e+001 5.268564e+001 9.400177e+001 5.555679e+001 6.626673e+001 5.645605e+001 7.631544e+001 6.000393e+001 5.242970e+001 4.028673e+001 5.216684e+001 9.429706e-001 1.911901e+000 2.391470e+000 2.185196e+000 3.342572e+000 3.088527e+000 3.116481e+000 3.291936e+000 5.256693e+000 3.092589e+000 2.923306e+000 2.269044e+000 1.812552e+000 1.829475e-001 3.569583e-001 3.597924e-001 3.768952e-001 5.988456e-001 5.802364e-001 6.902723e-001 5.787626e-001 6.477278e-001 6.657438e-001 5.468686e-001 5.363923e-001 4.296180e-001
<GCONST> 1.260874e+002
<MIXTURE> 3 3.884288e-001
<MEAN> 39
 -3.020937e-001 3.691800e+000 6.544787e+000 -5.398634e+000 -7.741433e+000 -9.215142e+000 -4.557225e+000 -9.317451e+000 -9.318581e+000 6.436035e-001 -8.207258e+000 -3.460438e+000 6.123964e+001 2.162351e-001 1.731956e+000 -6.261414e-002 2.229196e+000 1.059508e+000 2.519064e-001 2.800902e-001 1.444733e-001 7.594097e-001 -9.709989e-001 3.961507e-001 -7.352224e-001 -2.727094e+000 -3.581519e-001 -7.744870e-001 -2.028362e-001 -4.259015e-001 -1.106134e-002 7.825115e-002 -1.469218e-001 5.012766e-001 2.028445e-001 -7.936848e-002 1.778179e-001 8.208121e-002 8.701268e-001
<VARIANCE> 39
 2.323892e+001 3.558866e+001 6.609718e+001 6.329940e+001 8.474194e+001 7.699494e+001 6.197122e+001 6.167332e+001 5.597895e+001 5.583865e+001 7.641525e+001 4.973458e+001 3.653630e+001 1.656617e+000 2.676360e+000 3.202594e+000 4.440885e+000 4.385888e+000 4.481742e+000 4.124537e+000 4.252250e+000 4.087816e+000 4.445236e+000 3.927875e+000 3.214974e+000 2.693179e+000 2.840155e-001 4.069096e-001 4.989214e-001 6.165829e-001 8.032834e-001 7.809645e-001 8.271628e-001 7.034578e-001 7.980560e-001 7.971056e-001 6.160362e-001 6.139073e-001 4.392885e-001
<GCONST> 1.334760e+002
<MIXTURE> 4 1.256538e-001
<MEAN> 39
 -1.202105e+001 5.210670e-001 7.585418e-001 2.477901e+000 1.539470e+000 2.320417e-002 3.689776e+000 1.724301e+000 -2.976496e-001 7.119116e-001 7.729067e-001 8.129979e-001 4.551064e+001 1.914173e+000 9.161228e-001 1.428325e+000 3.074410e-001 -1.610718e+000 -2.059085e+000 -1.460911e+000 -1.713012e+000 -2.065933e+000 -1.067508e+000 -1.383780e+000 -1.227861e+000 2.155209e+000 7.433393e-001 1.267479e-001 5.239397e-001 -3.684812e-001 -7.903420e-001 -9.108709e-001 -6.738564e-001 -4.616630e-001 -4.763622e-001 -1.024323e-001 -3.471282e-001 -2.082721e-001 1.164044e+000
<VARIANCE> 39
 1.617449e+001 1.963329e+001 2.366702e+001 2.214400e+001 2.669269e+001 3.282661e+001 3.363818e+001 3.493200e+001 3.152621e+001 2.558864e+001 2.502466e+001 2.172232e+001 5.371518e+001 2.959155e+000 5.231277e+000 2.799955e+000 3.277984e+000 5.128897e+000 5.449340e+000 4.981891e+000 4.833282e+000 3.708105e+000 3.211591e+000 3.757181e+000 3.176721e+000 5.485987e+000 3.537857e-001 6.297327e-001 4.422367e-001 5.041067e-001 7.428010e-001 7.836487e-001 8.036435e-001 6.956668e-001 7.412474e-001 6.506917e-001 7.109497e-001 5.570583e-001 7.259815e-001
<GCONST> 1.265456e+002
<STATE> 3
<NUMMIXES> 4
<MIXTURE> 1 3.284760e-001
<MEAN> 39
 -3.912528e-001 4.025875e+000 8.092315e+000 2.501220e+000 -7.562188e+000 -8.666154e+000 -4.333676e+000 -1.565418e+000 -6.576350e+000 -1.270823e+000 3.427388e-002 -5.856263e+000 5.842672e+001 -3.127668e-001 8.232517e-001 -4.468837e-001 5.278870e-001 1.161033e+000 4.458381e-001 1.057948e-001 -4.717560e-001 7.422765e-001 -2.584370e-002 -4.057777e-001 4.224330e-001 -1.043148e+000 -3.454957e-001 -8.530434e-001 -8.133968e-002 -6.579213e-001 -1.329537e-001 -2.984208e-002 -3.416362e-001 7.502373e-002 -5.944505e-002 1.967608e-001 2.348359e-003 2.460053e-001 1.162859e+000
<VARIANCE> 39
 1.893607e+001 3.700431e+001 5.208406e+001 3.870469e+001 6.155415e+001 4.719344e+001 4.299464e+001 4.533167e+001 5.119699e+001 3.767704e+001 4.077887e+001 2.797460e+001 4.555780e+001 9.786270e-001 2.059851e+000 2.112741e+000 2.179288e+000 3.192302e+000 2.896008e+000 2.765837e+000 2.858523e+000 3.305818e+000 2.799268e+000 2.458295e+000 2.076289e+000 2.168651e+000 3.059852e-001 4.863710e-001 5.058124e-001 5.182098e-001 6.545286e-001 5.908884e-001 6.249310e-001 5.764805e-001 8.809538e-001 5.669745e-001 5.067378e-001 4.126382e-001 4.788575e-001
<GCONST> 1.227491e+002
<MIXTURE> 2 2.668076e-001
<MEAN> 39
 -4.992431e+000 2.995729e+000 3.819165e+000 2.257334e+000 -3.876708e-001 -4.636427e+000 -3.026121e+000 -2.347117e+000 -4.100073e+000 5.868145e-002 -2.052901e+000 -3.053624e+000 5.586433e+001 -1.464366e+000 -2.938007e+000 -1.066309e+000 -1.005678e+000 7.315467e-001 -6.493195e-001 -3.206023e-001 7.015811e-001 -2.603610e-001 8.535746e-001 -1.233573e-001 8.111379e-001 3.310476e+000 2.912636e-001 -2.239753e-001 3.895695e-001 -6.824604e-001 -1.176729e+000 -4.692298e-001 -4.354434e-001 -1.897144e-001 -3.090949e-001 1.629724e-002 1.777502e-001 -7.698497e-002 1.058348e+000
<VARIANCE> 39
 3.047755e+001 4.385222e+001 5.126085e+001 3.802392e+001 4.946782e+001 4.599834e+001 3.837885e+001 3.888136e+001 3.876734e+001 3.270000e+001 3.619632e+001 2.360711e+001 6.834099e+001 2.526668e+000 3.741636e+000 6.216808e+000 4.942771e+000 7.150275e+000 7.138251e+000 5.884720e+000 5.213862e+000 5.146683e+000 4.792233e+000 3.969529e+000 3.524132e+000 3.208820e+000 3.468429e-001 7.428070e-001 5.768936e-001 6.780162e-001 8.469955e-001 6.939038e-001 6.067969e-001 7.061393e-001 7.907442e-001 7.776294e-001 8.067017e-001 4.697020e-001 5.472995e-001
<GCONST> 1.339121e+002
<MIXTURE> 3 2.390134e-001
<MEAN> 39
 5.577929e-001 7.340585e+000 7.078907e+000 -2.110918e+000 -7.209976e+000 -8.414351e+000 -5.901012e+000 -8.631790e+000 -7.159009e+000 -3.154410e+000 -8.408225e+000 -6.925192e+000 5.627383e+001 -1.377549e+000 -1.305004e+000 -5.875435e-001 1.073977e+000 1.429509e+000 -3.383046e-001 5.657638e-001 8.667623e-001 3.729104e-001 -1.794758e-001 2.615570e-001 5.690411e-001 9.221346e-001 -6.039867e-001 -1.276746e+000 -2.752644e-001 -8.187647e-001 -2.514423e-001 -3.065747e-001 -4.888244e-003 1.791870e-001 -2.229920e-001 6.325844e-001 1.164448e-001 6.917982e-001 1.795256e+000
<VARIANCE> 39
 1.447810e+001 2.525348e+001 4.031136e+001 3.765185e+001 5.340284e+001 3.866319e+001 3.548565e+001 3.896248e+001 3.641915e+001 4.187148e+001 5.778053e+001 3.362895e+001 3.266447e+001 2.248186e+000 4.658287e+000 3.822246e+000 4.362253e+000 5.916279e+000 4.531528e+000 4.380071e+000 4.152995e+000 4.191946e+000 4.249130e+000 4.108440e+000 3.966720e+000 5.103670e+000 4.130086e-001 5.507089e-001 6.736330e-001 7.641155e-001 1.037441e+000 7.743505e-001 8.861316e-001 8.612795e-001 7.017834e-001 7.934947e-001 7.759616e-001 5.944281e-001 4.787055e-001
<GCONST> 1.320794e+002
<MIXTURE> 4 1.657019e-001
<MEAN> 39
 -1.981250e+000 5.351181e+000 7.273947e+000 -1.824001e+000 -8.286550e+000 -1.031624e+001 -2.249395e+000 -5.676594e+000 -1.049408e+001 -1.361498e+000 -4.781677e+000 -3.916476e+000 5.616605e+001 8.982727e-001 -5.467750e-001 1.532203e+000 -7.261190e-001 -1.377853e+000 -2.203357e+000 -9.951070e-001 -5.156568e-001 -1.244791e+000 8.027907e-002 -5.664715e-001 -2.555079e-001 2.874055e+000 -3.262718e-001 -7.487830e-001 -5.690265e-003 -3.903818e-001 2.469001e-001 3.460671e-001 -1.069051e-001 4.405911e-001 4.457150e-001 1.663041e-001 2.764474e-001 2.296571e-001 3.482926e-001
<VARIANCE> 39
 5.128182e+001 7.770598e+001 9.213618e+001 9.656370e+001 1.011994e+002 9.620993e+001 1.041610e+002 1.034140e+002 7.571990e+001 5.639619e+001 7.542126e+001 5.127360e+001 6.970152e+001 7.491965e+000 8.453390e+000 6.941942e+000 7.029814e+000 1.274871e+001 9.748569e+000 1.021818e+001 8.920105e+000 8.087987e+000 6.026371e+000 6.747945e+000 5.206826e+000 8.189760e+000 9.085912e-001 1.444949e+000 1.190437e+000 1.333909e+000 1.644068e+000 1.856476e+000 1.748300e+000 1.527929e+000 1.379432e+000 1.126665e+000 1.053849e+000 8.027656e-001 1.320044e+000
<GCONST> 1.586974e+002
<STATE> 4
<NUMMIXES> 4
<MIXTURE> 1 2.009935e-001
<MEAN> 39
 -3.672937e+000 1.826524e+000 5.606279e+000 1.488633e+000 -5.572958e+000 -8.796618e+000 -6.237148e+000 -2.080203e+000 -5.411243e+000 -1.650650e+000 -3.707149e-001 -3.394922e+000 6.004246e+001 -2.699597e-001 2.293330e-001 -5.865397e-002 -1.960703e-001 1.353693e-001 5.555687e-003 -4.516793e-001 -6.000610e-001 6.299548e-001 -1.399649e-001 -7.475443e-002 2.788180e-001 7.805765e-001 -1.463415e-001 -2.079804e-001 1.115620e-001 -3.496637e-001 -2.771812e-001 1.370483e-001 8.422368e-002 1.103693e-002 -3.116326e-003 4.247164e-002 3.753710e-002 -1.041918e-003 3.531661e-001
<VARIANCE> 39
 4.263483e+001 4.046622e+001 6.669524e+001 4.687108e+001 6.058407e+001 9.170056e+001 4.730225e+001 4.599193e+001 5.538465e+001 3.910640e+001 4.564847e+001 2.975081e+001 6.898085e+001 4.028184e+000 4.336070e+000 4.479955e+000 4.293097e+000 7.411000e+000 5.644145e+000 4.585878e+000 4.432406e+000 5.459043e+000 4.079702e+000 3.934546e+000 3.084916e+000 4.380862e+000 4.463140e-001 5.210269e-001 4.201102e-001 5.338257e-001 6.867203e-001 7.285812e-001 6.880242e-001 6.070528e-001 6.819837e-001 5.461127e-001 5.066285e-001 4.436505e-001 5.460310e-001
<GCONST> 1.346484e+002
<MIXTURE> 2 3.696511e-001
<MEAN> 39
 -3.106322e+000 -3.060483e+000 1.247082e+001 -3.749729e+000 -1.528845e+001 -1.370115e+001 -7.207972e+000 -3.114933e+000 -9.644849e+000 -9.579865e-001 -1.058866e+000 -2.140083e+000 7.029022e+001 1.058406e+000 2.658127e-001 4.134450e-001 -1.798513e-001 -8.378526e-001 1.867250e-001 -9.037881e-001 5.469939e-001 1.102687e+000 -7.435967e-001 3.050023e-001 -4.489813e-001 5.106815e-002 -8.197759e-002 4.767013e-001 -5.532277e-001 3.300579e-001 1.184165e+000 7.444494e-001 4.141845e-001 2.482955e-002 5.295094e-001 -1.046826e-001 -3.572328e-001 -2.357243e-001 -1.197011e+000
<VARIANCE> 39
 2.116268e+001 4.206579e+001 5.844001e+001 7.710843e+001 6.431360e+001 5.284863e+001 5.851790e+001 6.940211e+001 6.096931e+001 5.221912e+001 8.579305e+001 3.911893e+001 3.926967e+001 1.744601e+000 4.781794e+000 3.886251e+000 4.645065e+000 8.780085e+000 4.463600e+000 4.129082e+000 5.276221e+000 5.486385e+000 4.320687e+000 4.232283e+000 2.874223e+000 6.285779e+000 4.524575e-001 6.241423e-001 5.062335e-001 7.893378e-001 9.682680e-001 8.656721e-001 8.461397e-001 9.459117e-001 9.087059e-001 1.048115e+000 8.603473e-001 5.837545e-001 8.552863e-001
<GCONST> 1.389693e+002
<MIXTURE> 3 3.598748e-001
<MEAN> 39
 -8.214007e+000 -5.428040e+000 1.211403e+000 -3.240362e+000 -9.580449e-001 -9.122139e+000 -3.556571e+000 -2.841567e+000 -6.045500e+000 2.229601e+000 -4.603346e+000 -8.618565e-001 6.771746e+001 -1.040204e-001 -1.006521e+000 7.184508e-001 -1.583934e+000 -2.103846e+000 -1.201379e+000 -8.936887e-001 -1.937994e-001 -6.140908e-001 5.478541e-001 3.270776e-001 4.627309e-001 3.284275e+000 8.560055e-001 1.018414e+000 7.037680e-001 -2.748300e-002 -1.070100e+000 2.224082e-001 -2.779947e-001 -1.994285e-001 1.362074e-003 -4.352933e-001 2.120672e-001 -4.351737e-001 -8.070664e-001
<VARIANCE> 39
 3.880754e+001 4.372696e+001 8.174901e+001 6.803057e+001 8.560633e+001 8.971641e+001 7.130762e+001 6.942573e+001 6.004230e+001 4.600843e+001 5.512852e+001 3.273372e+001 5.631975e+001 3.248568e+000 5.042422e+000 5.107504e+000 5.264317e+000 7.817444e+000 5.603188e+000 4.963709e+000 5.285938e+000 5.029655e+000 5.478603e+000 4.906199e+000 3.089715e+000 3.923831e+000 4.574184e-001 8.662812e-001 8.361146e-001 1.182074e+000 1.531984e+000 1.386754e+000 1.231016e+000 1.177809e+000 1.128029e+000 9.991257e-001 1.071596e+000 7.087827e-001 7.754262e-001
<GCONST> 1.449584e+002
<MIXTURE> 4 6.947303e-002
<MEAN> 39
 -1.196713e+001 3.395655e-001 -3.828787e+000 -1.174976e+000 -4.827710e+000 1.783673e-001 -5.018178e+000 -8.115045e-001 1.264901e-001 -8.035473e-001 2.612625e-001 -8.907436e-001 4.860872e+001 -1.203205e-001 1.512346e-001 -2.338410e-002 2.434016e-001 2.057753e-002 1.558532e-002 1.380158e-001 -4.645161e-002 2.104904e-002 -4.658859e-002 -1.105233e-001 -6.891375e-002 -2.552188e-001 2.493738e-002 -1.709902e-002 7.519808e-002 2.363373e-002 -2.934118e-002 -2.975757e-002 -1.361693e-002 4.696178e-002 -6.575406e-002 -1.899343e-002 4.391741e-003 -2.752126e-002 3.478412e-002
<VARIANCE> 39
 1.050109e+002 3.478076e+001 4.201350e+001 6.442142e+001 3.785522e+001 9.646389e+001 3.167185e+001 2.868105e+001 4.300275e+001 2.722161e+001 2.468744e+001 1.934993e+001 2.534000e+002 2.571492e-001 5.857534e-001 6.611848e-001 1.037318e+000 1.364076e+000 1.624519e+000 1.374909e+000 1.837777e+000 1.322479e+000 1.245543e+000 1.255842e+000 1.202159e+000 3.406723e-001 4.617469e-002 1.185109e-001 1.360949e-001 1.927775e-001 2.434280e-001 2.534469e-001 2.714308e-001 3.751473e-001 2.739418e-001 2.483660e-001 2.448186e-001 2.276789e-001 6.073013e-002
<GCONST> 9.855959e+001
<TRANSP> 5
 0.000000e+000 1.000000e+000 0.000000e+000 0.000000e+000 0.000000e+000
 0.000000e+000 5.143813e-001 4.856187e-001 0.000000e+000 0.000000e+000
 0.000000e+000 0.000000e+000 5.987452e-001 4.012549e-001 0.000000e+000
 0.000000e+000 0.000000e+000 0.000000e+000 6.539294e-001 3.460706e-001
 0.000000e+000 0.000000e+000 0.000000e+000 0.000000e+000 0.000000e+000
<ENDHMM>
~h "h"
<BEGINHMM>
<NUMSTATES> 5
<STATE> 2
<NUMMIXES> 4
<MIXTURE> 1 3.016327e-001
<MEAN> 39
 -4.165117e-001 -2.470191e-001 -1.557979e+000 -8.052527e+000 4.890843e-001 4.141543e+000 -1.160165e+000 -8.290936e-001 -2.330157e+000 2.508796e+000 -1.776024e+000 -3.103974e+000 6.612166e+001 -7.161763e-001 6.578977e-001 2.485121e-001 9.460115e-001 1.658698e+000 5.969772e-001 1.281524e+000 3.265382e-003 2.086273e-001 9.534622e-002 -2.299529e-001 5.310488e-001 -9.276159e-001 1.014164e-001 -3.602319e-001 1.142048e-002 -2.251085e-001 -5.364976e-001 -1.887308e-001 -4.132492e-001 -1.513587e-001 1.722673e-003 -1.768583e-001 1.043506e-001 -1.266381e-001 2.843670e-001
<VARIANCE> 39
 2.119839e+001 4.073803e+001 4.200543e+001 9.442612e+001 6.362728e+001 5.960160e+001 6.148689e+001 5.780748e+001 5.777117e+001 4.842246e+001 5.895219e+001 4.181104e+001 6.491975e+001 6.081378e-001 1.931213e+000 1.589814e+000 2.229003e+000 2.578592e+000 2.834863e+000 2.503925e+000 2.905046e+000 2.743020e+000 2.664031e+000 2.672093e+000 2.253307e+000 6.731885e-001 7.839220e-002 1.982276e-001 1.972551e-001 3.432418e-001 3.871834e-001 3.634368e-001 3.826478e-001 3.920189e-001 3.933614e-001 3.689106e-001 3.718448e-001 3.523271e-001 9.429321e-002
<GCONST> 1.148089e+002
<MIXTURE> 2 2.309186e-001
<MEAN> 39
 -4.844735e+000 -2.832414e+000 2.637116e+000 -2.312274e+000 -6.206543e-001 -5.035498e+000 -5.255058e+000 1.166459e+000 1.594206e+000 9.390290e-001 -5.110720e+000 -3.029511e+000 6.790903e+001 4.717163e-001 -2.560530e-002 -1.135077e+000 -2.505269e-001 1.680652e+000 1.254284e+000 1.452823e-001 -5.281426e-001 3.900383e-001 7.490541e-001 -3.461058e-001 -6.881010e-001 -1.458183e-001 8.824225e-002 2.217126e-001 1.745527e-001 -4.796984e-001 -5.269357e-001 3.403810e-001 1.400492e-001 -5.884190e-001 -6.757030e-001 -9.703705e-002 4.819733e-001 2.982147e-002 -4.168993e-002
<VARIANCE> 39
 3.675370e+001 4.150696e+001 5.720499e+001 7.022778e+001 7.333597e+001 6.177129e+001 8.139825e+001 6.059507e+001 5.673688e+001 4.848016e+001 5.117039e+001 3.536149e+001 7.119514e+001 2.537498e+000 2.324389e+000 4.405879e+000 3.421087e+000 5.696903e+000 5.140622e+000 4.847066e+000 5.581304e+000 4.488155e+000 4.705124e+000 3.876889e+000 2.949030e+000 1.553111e+000 3.549983e-001 3.536532e-001 4.065853e-001 6.767265e-001 8.548755e-001 6.825280e-001 8.776925e-001 7.779083e-001 7.964777e-001 6.139054e-001 7.085173e-001 5.173104e-001 1.858744e-001
<GCONST> 1.333151e+002
<MIXTURE> 3 3.139644e-001
<MEAN> 39
 -2.410363e+000 -5.084118e+000 -5.262280e-001 -1.169291e+001 2.494506e+000 -4.696962e+000 -3.742069e+000 -7.421357e+000 -7.839798e+000 -7.498907e+000 -1.196428e+001 -3.924927e+000 7.253233e+001 -6.705180e-001 3.425757e-001 6.804260e-001 1.280044e+000 1.656341e+000 9.517853e-001 4.635062e-001 -3.687243e-001 1.448480e-001 -4.713503e-001 2.299762e-001 -2.557096e-001 -6.293930e-001 9.368768e-002 -2.020957e-001 -1.370901e-001 -3.089699e-001 -3.222328e-001 -6.624835e-002 -3.942262e-002 2.506275e-001 1.225397e-001 3.131036e-001 1.172502e-001 5.513080e-002 1.455087e-001
<VARIANCE> 39
 1.578750e+001 3.625417e+001 5.166034e+001 6.839525e+001 8.410678e+001 7.207175e+001 1.002426e+002 5.689829e+001 5.932310e+001 6.939928e+001 6.156666e+001 4.519042e+001 2.009011e+001 6.766531e-001 1.487593e+000 1.739907e+000 2.264388e+000 3.260322e+000 3.090464e+000 3.317748e+000 3.352314e+000 2.817429e+000 2.973169e+000 2.375082e+000 2.019074e+000 5.773528e-001 9.961814e-002 1.616564e-001 2.276499e-001 3.130430e-001 4.822702e-001 4.439091e-001 5.200393e-001 4.533490e-001 4.267304e-001 4.221876e-001 4.007019e-001 3.370357e-001 5.627855e-002
<GCONST> 1.157005e+002
<MIXTURE> 4 1.534817e-001
<MEAN> 39
 -3.335460e+000 -3.594969e+000 3.783694e+000 -4.318084e+000 -3.265339e+000 -1.064024e+001 -5.345094e+000 -6.807691e-001 -6.453626e+000 -7.672380e+000 -1.286149e+001 -2.473942e-002 7.123436e+001 6.377224e-001 -1.160144e-001 -2.432863e+000 5.235124e-001 3.989467e+000 1.002572e+000 -1.839887e+000 -4.344175e-001 2.225542e+000 4.534174e-001 -1.275484e+000 -8.200301e-001 -4.919344e-001 1.072304e-001 1.591990e-001 -3.081430e-004 -1.074543e+000 -4.435444e-001 8.171247e-001 -4.902631e-002 -9.396622e-001 -2.990994e-001 9.742140e-001 5.343983e-001 -5.546134e-001 3.472536e-002
<VARIANCE> 39
 1.139357e+001 2.922740e+001 3.992515e+001 6.639895e+001 5.945105e+001 5.746963e+001 7.257917e+001 5.429827e+001 5.738667e+001 5.995958e+001 7.152382e+001 3.106795e+001 2.850893e+001 5.574280e-001 1.672403e+000 2.387846e+000 3.324142e+000 3.545180e+000 3.548341e+000 3.349755e+000 4.972782e+000 3.054352e+000 4.711213e+000 2.862767e+000 2.495582e+000 7.035102e-001 1.032701e-001 1.952323e-001 3.040149e-001 5.611329e-001 6.912718e-001 6.860966e-001 7.846512e-001 7.494619e-001 6.833949e-001 5.800803e-001 6.551613e-001 4.091938e-001 8.025645e-002
<GCONST> 1.208975e+002
<STATE> 3
<NUMMIXES> 4
<MIXTURE> 1 2.836919e-001
<MEAN> 39
 -4.047599e+000 -1.237228e-001 -2.173006e+000 -4.405925e+000 1.681428e+000 5.318852e+000 1.637520e+000 -1.739202e+000 3.418336e-001 4.716170e-001 -1.161216e+000 -1.464109e+000 6.284002e+001 1.219645e-001 1.507060e-001 -5.096408e-002 -1.887894e-001 -1.740489e-001 -1.112814e-002 6.532274e-002 -2.232816e-001 -2.260200e-001 -1.086784e-001 3.906758e-002 5.575646e-002 -5.701472e-002 3.185238e-001 -5.138271e-002 -4.768022e-002 -3.674705e-001 -6.070051e-001 -3.756424e-001 -4.375759e-001 -1.302243e-001 -1.816941e-001 1.233939e-002 -4.524188e-002 -1.510482e-001 2.859819e-001
<VARIANCE> 39
 3.182747e+001 3.438717e+001 4.014194e+001 6.817355e+001 6.322589e+001 5.189344e+001 4.781165e+001 4.948115e+001 4.347406e+001 4.169194e+001 4.681297e+001 3.470906e+001 8.822502e+001 5.109822e-001 9.780900e-001 9.786485e-001 1.614671e+000 1.814186e+000 2.125296e+000 1.925845e+000 2.064013e+000 2.029755e+000 2.078286e+000 1.911831e+000 1.851393e+000 3.876420e-001 9.686805e-002 2.245266e-001 2.440071e-001 3.273950e-001 3.688007e-001 3.780209e-001 4.085284e-001 4.137968e-001 4.008559e-001 3.997773e-001 3.883222e-001 3.412401e-001 8.587977e-002
<GCONST> 1.096692e+002
<MIXTURE> 2 2.266013e-001
<MEAN> 39
 -4.871262e-001 -2.300531e+000 -1.281066e+000 -5.834572e+000 2.551182e+000 -1.587181e+000 -7.411208e+000 -3.003099e+000 -1.055993e+000 4.530217e+000 -5.017547e+000 -6.584135e+000 6.899428e+001 8.069848e-001 7.881081e-001 -1.500811e+000 -1.748278e+000 7.001235e-001 2.374894e+000 3.711329e-001 -1.914422e+000 -1.273409e+000 7.749330e-001 1.616772e+000 -1.031012e-001 -5.480999e-001 2.310625e-002 -5.016167e-002 3.160270e-001 -4.193686e-001 -1.072979e+000 -2.345592e-001 2.817701e-001 1.677689e-001 -5.304697e-001 -6.319431e-001 3.315381e-001 4.993799e-001 1.690608e-001
<VARIANCE> 39
 1.425581e+001 2.992473e+001 3.656192e+001 6.593269e+001 5.740435e+001 6.051639e+001 6.648251e+001 5.172710e+001 5.783020e+001 5.367488e+001 7.531149e+001 3.281422e+001 4.944645e+001 5.657146e-001 1.292556e+000 1.622578e+000 2.236629e+000 3.301058e+000 2.391301e+000 3.106023e+000 2.453978e+000 2.980826e+000 3.379387e+000 2.450748e+000 3.098347e+000 7.393757e-001 1.147137e-001 2.027239e-001 3.028901e-001 3.836922e-001 5.656453e-001 4.743397e-001 5.909364e-001 5.125527e-001 6.028875e-001 4.994043e-001 6.187285e-001 3.667603e-001 1.000036e-001
<GCONST> 1.172692e+002
<MIXTURE> 3 2.153923e-001
<MEAN> 39
 -1.529911e+000 -3.996589e+000 -2.370372e+000 -1.146698e+001 7.194697e+000 -2.006070e+000 -6.538534e+000 -9.485344e+000 -7.737836e+000 -7.024548e+000 -1.260356e+001 -5.139602e+000 7.047169e+001 8.436257e-001 4.449087e-001 -7.976134e-001 -1.464641e+000 -7.156432e-001 4.629533e-002 -5.048811e-001 -6.580991e-001 -2.216289e-001 5.960846e-001 1.609914e-001 -4.387021e-002 -9.090126e-002 2.213741e-001 -1.202751e-001 -2.577480e-001 -5.696517e-001 -7.772451e-001 -3.750333e-001 6.390995e-003 3.088275e-001 2.914863e-002 2.545021e-001 5.202420e-002 2.140693e-001 2.645964e-001
<VARIANCE> 39
 1.103469e+001 2.878224e+001 2.160803e+001 5.772241e+001 5.285328e+001 6.368382e+001 7.357207e+001 4.742043e+001 5.132039e+001 6.149102e+001 6.383604e+001 4.003064e+001 1.930651e+001 5.541635e-001 8.730311e-001 1.294024e+000 2.214190e+000 3.345625e+000 2.796489e+000 2.611573e+000 2.340509e+000 2.399341e+000 2.607019e+000 2.293646e+000 2.072924e+000 4.345210e-001 7.417402e-002 1.529053e-001 2.080372e-001 3.168852e-001 4.245324e-001 4.660937e-001 5.024198e-001 4.456807e-001 4.731804e-001 4.336438e-001 4.216014e-001 3.422685e-001 6.650813e-002
<GCONST> 1.100956e+002
<MIXTURE> 4 2.742963e-001
<MEAN> 39
 -5.614354e+000 -3.191571e+000 2.887043e+000 -5.977643e+000 4.467259e+000 -1.187698e-001 4.802971e-001 -1.720204e+000 -3.087306e+000 -2.788530e+000 -6.444719e+000 -2.396156e+000 6.878844e+001 2.872479e-001 1.612570e-001 1.963924e-001 -7.768109e-002 -4.855777e-001 -2.518980e-001 -1.330647e-001 -2.441855e-001 -1.081826e-001 -4.585204e-002 -1.003823e-001 -1.173795e-002 8.385468e-002 4.873034e-001 2.832235e-002 -1.835938e-001 -5.026013e-001 -9.130037e-001 -2.921146e-001 -5.284062e-001 -3.138573e-001 -1.519745e-001 1.679607e-001 1.317555e-001 -6.478916e-002 1.813173e-001
<VARIANCE> 39
 2.711851e+001 4.547207e+001 6.014886e+001 8.047693e+001 9.770497e+001 9.370150e+001 8.159391e+001 7.015235e+001 7.408186e+001 6.901084e+001 5.956776e+001 3.963763e+001 4.690895e+001 1.983903e+000 1.851600e+000 2.677942e+000 2.626590e+000 4.289687e+000 3.233463e+000 4.039223e+000 3.685461e+000 3.808753e+000 3.151162e+000 2.895183e+000 2.417181e+000 8.820000e-001 2.708053e-001 3.996859e-001 4.467692e-001 6.363009e-001 7.174105e-001 8.089210e-001 7.277833e-001 7.797221e-001 7.402084e-001 6.720295e-001 6.508424e-001 5.350056e-001 1.898084e-001
<GCONST> 1.300886e+002
<STATE> 4
<NUMMIXES> 4
<MIXTURE> 1 1.888679e-001
<MEAN> 39
 2.305117e+000 9.664287e-001 -2.560421e+000 -1.236737e+001 -9.347687e-001 5.045877e+000 5.461022e-001 -3.989592e+000 -4.826535e+000 3.248980e+000 -8.363591e-001 1.732344e-001 6.706200e+001 4.664156e-001 3.086041e-001 -1.545149e-001 -1.051011e+000 -9.910125e-001 4.417140e-002 -4.262622e-002 -3.372619e-001 -6.935419e-001 -3.862505e-001 1.678573e-001 3.523036e-001 5.373036e-002 5.727842e-003 -2.085631e-001 8.153500e-002 1.007665e-001 -2.072848e-001 -2.739679e-001 -4.077087e-001 6.619035e-002 1.864105e-001 -2.656101e-002 -3.009672e-002 -3.032777e-001 1.450752e-001
<VARIANCE> 39
 1.041813e+001 2.705138e+001 2.883293e+001 1.037633e+002 4.580775e+001 4.126426e+001 5.939128e+001 4.322090e+001 4.071464e+001 3.751943e+001 3.970061e+001 3.552560e+001 5.484252e+001 2.844107e-001 7.220250e-001 7.764007e-001 1.379578e+000 1.605096e+000 1.577855e+000 1.896312e+000 1.427501e+000 1.671363e+000 1.882190e+000 1.607063e+000 1.675776e+000 3.289634e-001 4.623406e-002 1.195477e-001 1.395282e-001 2.414400e-001 2.888566e-001 2.662845e-001 2.791714e-001 2.712755e-001 2.654888e-001 3.091266e-001 3.047067e-001 2.522548e-001 6.468085e-002
<GCONST> 9.920181e+001
<MIXTURE> 2 2.731840e-001
<MEAN> 39
 -3.209805e+000 -1.224825e+000 2.655374e+000 -6.974905e+000 -1.657437e+000 -2.301388e+000 -1.902078e+000 -3.542567e+000 -3.663064e+000 9.944160e-002 -4.292871e+000 -2.053776e+000 6.775838e+001 9.533279e-001 1.911494e-001 6.994501e-002 -5.410835e-001 -1.626346e+000 -5.279652e-001 -6.815660e-001 -6.640615e-001 -2.854815e-001 6.919815e-002 3.246473e-001 -1.497319e-001 2.744708e-001 5.494590e-002 -1.560933e-001 -3.331394e-004 -1.050941e-001 -2.716692e-001 -1.944476e-002 -2.050163e-001 -1.712829e-002 3.452955e-002 -4.187052e-002 8.626518e-002 -4.003422e-002 4.578846e-002
<VARIANCE> 39
