~o
<STREAMINFO> 1 16
<VECSIZE> 16<NULLD><FBANK><DIAGC>
~h "ctyri"
<BEGINHMM>
<NUMSTATES> 10
<STATE> 2
<MEAN> 16
 5.236389e+000 6.425005e+000 6.959340e+000 7.183861e+000 7.353781e+000 7.540794e+000 7.810098e+000 8.121419e+000 8.453743e+000 8.805044e+000 9.221932e+000 9.452401e+000 9.676672e+000 9.821608e+000 9.999647e+000 1.019610e+001
<VARIANCE> 16
 8.115664e-001 9.223163e-001 9.470701e-001 8.350345e-001 5.900056e-001 6.418136e-001 7.911666e-001 7.868477e-001 6.615830e-001 7.087870e-001 7.582179e-001 7.838339e-001 7.506393e-001 6.816811e-001 6.705756e-001 7.466226e-001
<GCONST> 2.479716e+001
<STATE> 3
<MEAN> 16
 4.557552e+000 5.232998e+000 5.840725e+000 6.168242e+000 6.377429e+000 6.511020e+000 6.795350e+000 7.331531e+000 8.089629e+000 9.057297e+000 9.968789e+000 1.035888e+001 1.060974e+001 1.069051e+001 1.069443e+001 1.041267e+001
<VARIANCE> 16
 1.726852e+000 2.353701e+000 2.700159e+000 2.440121e+000 1.859023e+000 1.789348e+000 1.934593e+000 2.206768e+000 2.361929e+000 2.611807e+000 2.661433e+000 2.866425e+000 2.549798e+000 2.559525e+000 2.003229e+000 1.594604e+000
<GCONST> 4.223568e+001
<STATE> 4
<MEAN> 16
 5.290318e+000 6.111568e+000 6.760842e+000 7.034518e+000 7.176242e+000 7.339826e+000 7.669943e+000 8.253598e+000 9.066484e+000 9.615520e+000 1.038818e+001 1.084855e+001 1.135433e+001 1.135908e+001 1.126491e+001 1.121548e+001
<VARIANCE> 16
 2.174041e+000 2.167066e+000 2.487767e+000 2.318417e+000 2.088297e+000 2.184694e+000 2.294116e+000 2.555978e+000 3.501941e+000 3.879730e+000 4.438449e+000 4.624371e+000 5.038589e+000 5.028765e+000 4.699241e+000 4.527433e+000
<GCONST> 4.791547e+001
<STATE> 5
<MEAN> 16
 5.540365e+000 6.251577e+000 6.848251e+000 7.225586e+000 7.467392e+000 7.674878e+000 8.025662e+000 8.586475e+000 9.487581e+000 1.026794e+001 1.088245e+001 1.099511e+001 1.119859e+001 1.114049e+001 1.098961e+001 1.069501e+001
<VARIANCE> 16
 1.674627e+000 1.584745e+000 1.758116e+000 1.599916e+000 1.449393e+000 1.587736e+000 1.925009e+000 2.084374e+000 2.985025e+000 4.157422e+000 4.145754e+000 3.668591e+000 3.625716e+000 3.852593e+000 3.792756e+000 3.845670e+000
<GCONST> 4.419633e+001
<STATE> 6
<MEAN> 16
 5.817871e+000 6.802626e+000 7.486429e+000 7.780422e+000 7.850779e+000 8.016677e+000 8.283607e+000 8.838735e+000 9.546618e+000 1.010267e+001 1.042075e+001 1.070466e+001 1.099002e+001 1.103947e+001 1.104685e+001 1.102935e+001
<VARIANCE> 16
 8.785807e-001 7.117028e-001 1.011208e+000 8.877171e-001 7.182322e-001 7.957127e-001 9.729725e-001 1.268606e+000 2.045017e+000 2.765368e+000 2.902630e+000 2.996172e+000 2.949407e+000 2.915161e+000 2.804925e+000 2.628802e+000
<GCONST> 3.652454e+001
<STATE> 7
<MEAN> 16
 6.301365e+000 7.289990e+000 7.873304e+000 8.117349e+000 8.263692e+000 8.507483e+000 8.872102e+000 9.456185e+000 1.003013e+001 1.073728e+001 1.124335e+001 1.156327e+001 1.179757e+001 1.183332e+001 1.185163e+001 1.188278e+001
<VARIANCE> 16
 7.414618e-001 7.375535e-001 9.447690e-001 8.295131e-001 6.988741e-001 7.525491e-001 8.984941e-001 1.138541e+000 1.508364e+000 2.209979e+000 2.609402e+000 2.630365e+000 2.455434e+000 2.517154e+000 2.460867e+000 2.690151e+000
<GCONST> 3.478069e+001
<STATE> 8
<MEAN> 16
 9.045320e+000 1.051979e+001 1.110274e+001 1.101901e+001 1.021225e+001 9.858597e+000 1.003033e+001 1.095803e+001 1.168540e+001 1.205869e+001 1.217061e+001 1.217476e+001 1.223831e+001 1.197936e+001 1.155611e+001 1.126077e+001
<VARIANCE> 16
 1.539883e+000 1.166662e+000 1.534215e+000 1.363317e+000 9.101159e-001 8.381487e-001 1.012465e+000 1.200169e+000 1.142020e+000 1.192158e+000 1.120661e+000 1.049431e+000 1.215003e+000 2.106162e+000 2.279739e+000 2.640569e+000
<GCONST> 3.385933e+001
<STATE> 9
<MEAN> 16
 6.780029e+000 7.808263e+000 8.069480e+000 8.031768e+000 7.806004e+000 7.733743e+000 7.766208e+000 8.196959e+000 8.752926e+000 9.037362e+000 9.068783e+000 8.946926e+000 9.105375e+000 9.184095e+000 9.172285e+000 9.289609e+000
<VARIANCE> 16
 1.712629e+000 1.362654e+000 1.133442e+000 9.995329e-001 6.034438e-001 5.073051e-001 5.940476e-001 7.092536e-001 5.313769e-001 6.136095e-001 5.547941e-001 6.692947e-001 7.364163e-001 8.156529e-001 8.628376e-001 8.315303e-001
<GCONST> 2.537709e+001
<TRANSP> 10
 0.000000e+000 1.000000e+000 0.000000e+000 0.000000e+000 0.000000e+000 0.000000e+000 0.000000e+000 0.000000e+000 0.000000e+000 0.000000e+000
 0.000000e+000 6.802741e-001 3.197259e-001 0.000000e+000 0.000000e+000 0.000000e+000 0.000000e+000 0.000000e+000 0.000000e+000 0.000000e+000
 0.000000e+000 0.000000e+000 7.259299e-001 2.740701e-001 0.000000e+000 0.000000e+000 0.000000e+000 0.000000e+000 0.000000e+000 0.000000e+000
 0.000000e+000 0.000000e+000 0.000000e+000 5.724239e-001 4.275762e-001 0.000000e+000 0.000000e+000 0.000000e+000 0.000000e+000 0.000000e+000
 0.000000e+000 0.000000e+000 0.000000e+000 0.000000e+000 6.946160e-001 3.053841e-001 0.000000e+000 0.000000e+000 0.000000e+000 0.000000e+000
 0.000000e+000 0.000000e+000 0.000000e+000 0.000000e+000 0.000000e+000 7.056756e-001 2.943244e-001 0.000000e+000 0.000000e+000 0.000000e+000
 0.000000e+000 0.000000e+000 0.000000e+000 0.000000e+000 0.000000e+000 0.000000e+000 8.269211e-001 1.730789e-001 0.000000e+000 0.000000e+000
 0.000000e+000 0.000000e+000 0.000000e+000 0.000000e+000 0.000000e+000 0.000000e+000 0.000000e+000 9.722899e-001 2.771017e-002 0.000000e+000
 0.000000e+000 0.000000e+000 0.000000e+000 0.000000e+000 0.000000e+000 0.000000e+000 0.000000e+000 0.000000e+000 9.466978e-001 5.330217e-002
 0.000000e+000 0.000000e+000 0.000000e+000 0.000000e+000 0.000000e+000 0.000000e+000 0.000000e+000 0.000000e+000 0.000000e+000 0.000000e+000
<ENDHMM>
~h "sedm"
<BEGINHMM>
<NUMSTATES> 10
<STATE> 2
<MEAN> 16
 5.640561e+000 6.437879e+000 6.933282e+000 7.308691e+000 7.535985e+000 7.784192e+000 8.056582e+000 8.331718e+000 8.432118e+000 8.554646e+000 8.738253e+000 8.911819e+000 9.114412e+000 9.302742e+000 9.497857e+000 9.630251e+000
<VARIANCE> 16
 4.334348e-001 3.441598e-001 2.524267e-001 2.223253e-001 1.930883e-001 1.875795e-001 2.080520e-001 1.796415e-001 1.289144e-001 1.098167e-001 8.425291e-002 1.009910e-001 1.297343e-001 1.803605e-001 2.010010e-001 2.476201e-001
<GCONST> 2.238629e+000
<STATE> 3
<MEAN> 16
 4.461648e+000 5.281199e+000 6.001598e+000 6.455235e+000 6.738008e+000 6.943069e+000 7.150007e+000 7.559893e+000 7.912378e+000 8.213593e+000 8.589284e+000 9.054727e+000 9.782804e+000 1.043014e+001 1.086854e+001 1.103108e+001
<VARIANCE> 16
 1.259568e+000 1.746487e+000 1.433867e+000 1.228110e+000 9.384771e-001 8.400425e-001 9.635249e-001 9.737296e-001 9.737681e-001 9.323274e-001 6.972551e-001 7.026525e-001 1.106911e+000 1.414665e+000 1.295372e+000 1.365613e+000
<GCONST> 3.066740e+001
<STATE> 4
<MEAN> 16
 5.164696e+000 5.854459e+000 6.499232e+000 6.955472e+000 7.217249e+000 7.477944e+000 7.770790e+000 8.281219e+000 8.610514e+000 8.793509e+000 9.130279e+000 9.611263e+000 1.044569e+001 1.127646e+001 1.163283e+001 1.160631e+001
<VARIANCE> 16
 1.155739e+000 1.652543e+000 1.574088e+000 1.440208e+000 1.048477e+000 6.923375e-001 7.354193e-001 8.084915e-001 1.073749e+000 1.268511e+000 9.561687e-001 9.929335e-001 1.463606e+000 1.834743e+000 1.909414e+000 2.279678e+000
<GCONST> 3.274704e+001
<STATE> 5
<MEAN> 16
 5.358706e+000 6.097785e+000 6.872890e+000 7.440197e+000 7.712722e+000 7.985106e+000 8.364544e+000 8.986698e+000 9.397740e+000 9.557528e+000 9.829550e+000 1.014736e+001 1.084758e+001 1.152294e+001 1.179139e+001 1.162401e+001
<VARIANCE> 16
 1.179419e+000 1.581639e+000 1.239618e+000 9.212655e-001 5.659112e-001 4.031948e-001 3.674150e-001 4.317695e-001 8.416556e-001 1.164300e+000 9.206545e-001 9.119045e-001 1.273458e+000 1.719148e+000 1.771350e+000 2.045543e+000
<GCONST> 2.871935e+001
<STATE> 6
<MEAN> 16
 6.152816e+000 6.896440e+000 7.638614e+000 8.096977e+000 8.356708e+000 8.656549e+000 9.118285e+000 9.698865e+000 9.966551e+000 1.027031e+001 1.062823e+001 1.124477e+001 1.203831e+001 1.275818e+001 1.313002e+001 1.309511e+001
<VARIANCE> 16
 4.827426e-001 4.213822e-001 4.147203e-001 3.969478e-001 2.732450e-001 2.443777e-001 2.662357e-001 2.868048e-001 4.393837e-001 5.807434e-001 5.269035e-001 7.054522e-001 9.685131e-001 1.223941e+000 1.353634e+000 1.826021e+000
<GCONST> 1.945022e+001
<STATE> 7
<MEAN> 16
 6.953688e+000 7.791744e+000 8.591925e+000 9.084375e+000 9.238031e+000 9.501757e+000 9.935072e+000 1.056307e+001 1.079119e+001 1.101679e+001 1.126252e+001 1.172688e+001 1.243284e+001 1.304463e+001 1.343191e+001 1.341087e+001
<VARIANCE> 16
 8.364136e-001 9.133952e-001 7.748594e-001 6.196430e-001 3.740647e-001 2.765156e-001 3.127855e-001 2.918108e-001 5.261635e-001 7.100731e-001 6.756711e-001 9.604363e-001 1.408350e+000 1.882261e+000 2.599544e+000 3.486010e+000
<GCONST> 2.550247e+001
<STATE> 8
<MEAN> 16
 9.307713e+000 1.075334e+001 1.120959e+001 1.112018e+001 1.060524e+001 1.047883e+001 1.057914e+001 1.077499e+001 1.077118e+001 1.096173e+001 1.108475e+001 1.100543e+001 1.072305e+001 1.045690e+001 1.022029e+001 1.032022e+001
<VARIANCE> 16
 1.054333e+000 6.111707e-001 1.070059e+000 1.531756e+000 1.396912e+000 1.231574e+000 1.236360e+000 1.738773e+000 1.823174e+000 1.734618e+000 1.791229e+000 1.596769e+000 1.692756e+000 2.132712e+000 1.812960e+000 1.846760e+000
<GCONST> 3.546299e+001
<STATE> 9
<MEAN> 16
 7.575996e+000 8.632405e+000 8.464453e+000 8.142636e+000 8.100700e+000 8.188497e+000 8.230618e+000 8.225620e+000 8.296026e+000 8.535769e+000 8.561488e+000 8.539746e+000 8.668562e+000 8.842318e+000 9.036113e+000 9.229472e+000
<VARIANCE> 16
 2.266839e+000 2.023996e+000 1.706365e+000 1.600901e+000 1.510854e+000 1.065350e+000 7.415605e-001 8.080759e-001 7.383311e-001 8.638446e-001 6.553188e-001 6.704712e-001 8.620065e-001 9.413213e-001 8.975456e-001 8.667665e-001
<GCONST> 3.016613e+001
<TRANSP> 10
 0.000000e+000 1.000000e+000 0.000000e+000 0.000000e+000 0.000000e+000 0.000000e+000 0.000000e+000 0.000000e+000 0.000000e+000 0.000000e+000
 0.000000e+000 9.328417e-001 6.715840e-002 0.000000e+000 0.000000e+000 0.000000e+000 0.000000e+000 0.000000e+000 0.000000e+000 0.000000e+000
 0.000000e+000 0.000000e+000 7.089843e-001 2.910157e-001 0.000000e+000 0.000000e+000 0.000000e+000 0.000000e+000 0.000000e+000 0.000000e+000
 0.000000e+000 0.000000e+000 0.000000e+000 4.115145e-001 5.884855e-001 0.000000e+000 0.000000e+000 0.000000e+000 0.000000e+000 0.000000e+000
 0.000000e+000 0.000000e+000 0.000000e+000 0.000000e+000 5.164058e-001 4.835942e-001 0.000000e+000 0.000000e+000 0.000000e+000 0.000000e+000
 0.000000e+000 0.000000e+000 0.000000e+000 0.000000e+000 0.000000e+000 8.121552e-001 1.878448e-001 0.000000e+000 0.000000e+000 0.000000e+000
 0.000000e+000 0.000000e+000 0.000000e+000 0.000000e+000 0.000000e+000 0.000000e+000 7.529266e-001 2.470734e-001 0.000000e+000 0.000000e+000
 0.000000e+000 0.000000e+000 0.000000e+000 0.000000e+000 0.000000e+000 0.000000e+000 0.000000e+000 9.716033e-001 2.839677e-002 0.000000e+000
 0.000000e+000 0.000000e+000 0.000000e+000 0.000000e+000 0.000000e+000 0.000000e+000 0.000000e+000 0.000000e+000 9.475068e-001 5.249324e-002
 0.000000e+000 0.000000e+000 0.000000e+000 0.000000e+000 0.000000e+000 0.000000e+000 0.000000e+000 0.000000e+000 0.000000e+000 0.000000e+000
<ENDHMM>
~h "sest"
<BEGINHMM>
<NUMSTATES> 10
<STATE> 2
<MEAN> 16
 3.978002e+000 4.606177e+000 5.154249e+000 5.607285e+000 5.792770e+000 5.997966e+000 6.206736e+000 7.039084e+000 8.315207e+000 9.145585e+000 9.571851e+000 9.644466e+000 9.778073e+000 9.857871e+000 9.989784e+000 9.901119e+000
<VARIANCE> 16
 8.794622e-001 1.300608e+000 1.355351e+000 1.200297e+000 9.457949e-001 8.056123e-001 9.497848e-001 1.139336e+000 7.126850e-001 8.535108e-001 6.204810e-001 6.956792e-001 7.548154e-001 7.470018e-001 6.610684e-001 6.211503e-001
<GCONST> 2.703380e+001
<STATE> 3
<MEAN> 16
 5.551758e+000 6.518089e+000 7.116224e+000 7.448302e+000 7.540330e+000 7.615868e+000 7.914403e+000 8.710195e+000 9.378839e+000 9.692121e+000 9.875363e+000 9.906401e+000 1.001136e+001 9.995750e+000 9.967919e+000 9.917855e+000
<VARIANCE> 16
 7.381920e-001 1.254134e+000 1.096483e+000 1.132043e+000 8.274891e-001 5.887929e-001 7.440727e-001 9.084941e-001 8.857576e-001 1.173375e+000 1.333751e+000 1.279732e+000 1.256836e+000 1.305946e+000 1.144483e+000 1.092945e+000
<GCONST> 2.972701e+001
<STATE> 4
<MEAN> 16
 5.526308e+000 6.372919e+000 7.073579e+000 7.452085e+000 7.487190e+000 7.592717e+000 8.096439e+000 9.281028e+000 1.023827e+001 1.075378e+001 1.105974e+001 1.106631e+001 1.101338e+001 1.092405e+001 1.076633e+001 1.050573e+001
<VARIANCE> 16
 8.432848e-001 1.402182e+000 1.705914e+000 1.940693e+000 1.510776e+000 9.451187e-001 7.891889e-001 6.858612e-001 6.571028e-001 1.084351e+000 1.307180e+000 1.552953e+000 1.471017e+000 1.607365e+000 1.783781e+000 1.736446e+000
<GCONST> 3.287333e+001
<STATE> 5
<MEAN> 16
 5.741734e+000 6.546308e+000 7.321372e+000 7.738935e+000 7.820933e+000 7.903486e+000 8.401877e+000 9.682926e+000 1.061969e+001 1.116036e+001 1.152117e+001 1.155902e+001 1.155998e+001 1.147752e+001 1.129862e+001 1.092313e+001
<VARIANCE> 16
 8.542699e-001 1.422768e+000 1.765143e+000 1.982112e+000 1.553657e+000 1.029439e+000 7.618454e-001 4.757787e-001 5.480564e-001 9.562171e-001 1.079028e+000 1.515385e+000 1.509270e+000 1.617831e+000 1.931610e+000 2.096397e+000
<GCONST> 3.244521e+001
<STATE> 6
<MEAN> 16
 5.905838e+000 6.481210e+000 7.194790e+000 7.569633e+000 7.726926e+000 7.957602e+000 8.583464e+000 9.872211e+000 1.095551e+001 1.169340e+001 1.216986e+001 1.220794e+001 1.228696e+001 1.234714e+001 1.211712e+001 1.156887e+001
<VARIANCE> 16
 5.161726e-001 6.982525e-001 9.284744e-001 1.022761e+000 9.022584e-001 5.573576e-001 4.418704e-001 4.321954e-001 5.150622e-001 8.195527e-001 9.384602e-001 1.089112e+000 1.178191e+000 1.432669e+000 1.652166e+000 2.265529e+000
<GCONST> 2.699362e+001
<STATE> 7
<MEAN> 16
 6.740454e+000 7.431817e+000 8.210624e+000 8.651926e+000 8.824791e+000 9.099937e+000 9.686521e+000 1.061022e+001 1.165506e+001 1.265679e+001 1.312253e+001 1.324173e+001 1.330005e+001 1.328534e+001 1.321660e+001 1.297763e+001
<VARIANCE> 16
 5.080765e-001 3.957622e-001 4.606500e-001 3.643286e-001 3.184216e-001 3.910767e-001 5.148184e-001 5.089774e-001 5.657236e-001 9.068382e-001 1.007873e+000 1.104039e+000 1.116281e+000 1.133660e+000 1.446610e+000 2.357560e+000
<GCONST> 2.349631e+001
<STATE> 8
<MEAN> 16
 8.571021e+000 9.734495e+000 1.046688e+001 1.110236e+001 1.096109e+001 1.057590e+001 1.087533e+001 1.164772e+001 1.183467e+001 1.200085e+001 1.204945e+001 1.199572e+001 1.200810e+001 1.191536e+001 1.177527e+001 1.159942e+001
<VARIANCE> 16
 2.002814e+000 2.067436e+000 2.234124e+000 2.563858e+000 2.366244e+000 1.470591e+000 1.323268e+000 1.558056e+000 1.602861e+000 1.530837e+000 1.452547e+000 1.240157e+000 1.235445e+000 1.896362e+000 2.591336e+000 3.346609e+000
<GCONST> 3.904042e+001
<STATE> 9
<MEAN> 16
 5.675251e+000 6.650899e+000 7.226149e+000 7.698288e+000 7.849667e+000 7.921571e+000 8.122464e+000 8.538882e+000 8.743697e+000 8.904787e+000 9.219238e+000 9.388677e+000 9.843408e+000 1.026230e+001 1.054884e+001 1.062986e+001
<VARIANCE> 16
 1.139671e+000 1.057494e+000 9.387503e-001 1.058144e+000 1.107894e+000 8.877810e-001 9.100552e-001 9.833168e-001 9.877481e-001 9.747710e-001 9.613816e-001 1.345168e+000 1.756816e+000 2.237207e+000 2.474472e+000 2.356305e+000
<GCONST> 3.280945e+001
<TRANSP> 10
 0.000000e+000 1.000000e+000 0.000000e+000 0.000000e+000 0.000000e+000 0.000000e+000 0.000000e+000 0.000000e+000 0.000000e+000 0.000000e+000
 0.000000e+000 6.593143e-001 3.406857e-001 0.000000e+000 0.000000e+000 0.000000e+000 0.000000e+000 0.000000e+000 0.000000e+000 0.000000e+000
 0.000000e+000 0.000000e+000 3.651316e-001 6.348684e-001 0.000000e+000 0.000000e+000 0.000000e+000 0.000000e+000 0.000000e+000 0.000000e+000
 0.000000e+000 0.000000e+000 0.000000e+000 2.153529e-001 7.846470e-001 0.000000e+000 0.000000e+000 0.000000e+000 0.000000e+000 0.000000e+000
 0.000000e+000 0.000000e+000 0.000000e+000 0.000000e+000 1.873859e-001 8.126140e-001 0.000000e+000 0.000000e+000 0.000000e+000 0.000000e+000
 0.000000e+000 0.000000e+000 0.000000e+000 0.000000e+000 0.000000e+000 6.051901e-001 3.948099e-001 0.000000e+000 0.000000e+000 0.000000e+000
 0.000000e+000 0.000000e+000 0.000000e+000 0.000000e+000 0.000000e+000 0.000000e+000 8.861070e-001 1.138930e-001 0.000000e+000 0.000000e+000
 0.000000e+000 0.000000e+000 0.000000e+000 0.000000e+000 0.000000e+000 0.000000e+000 0.000000e+000 9.590479e-001 4.095212e-002 0.000000e+000
 0.000000e+000 0.000000e+000 0.000000e+000 0.000000e+000 0.000000e+000 0.000000e+000 0.000000e+000 0.000000e+000 9.600550e-001 3.994499e-002
 0.000000e+000 0.000000e+000 0.000000e+000 0.000000e+000 0.000000e+000 0.000000e+000 0.000000e+000 0.000000e+000 0.000000e+000 0.000000e+000
<ENDHMM>
~h "dva"
<BEGINHMM>
<NUMSTATES> 10
<STATE> 2
<MEAN> 16
 5.978839e+000 6.585648e+000 7.064100e+000 7.401038e+000 7.630340e+000 7.872293e+000 8.107269e+000 8.355933e+000 8.429975e+000 8.540720e+000 8.695860e+000 8.830719e+000 8.978443e+000 9.119653e+000 9.291336e+000 9.401149e+000
<VARIANCE> 16
 2.677763e-001 2.853234e-001 2.078168e-001 1.694419e-001 1.220616e-001 1.300882e-001 1.367256e-001 1.457562e-001 1.145269e-001 9.968192e-002 1.038403e-001 1.316398e-001 1.512143e-001 1.709745e-001 1.359849e-001 1.134806e-001
<GCONST> -1.162355e+000
<STATE> 3
<MEAN> 16
 7.308524e+000 8.355694e+000 8.286074e+000 8.061554e+000 7.869081e+000 7.710355e+000 7.824168e+000 8.095731e+000 8.254234e+000 8.389816e+000 8.616207e+000 8.647697e+000 8.690994e+000 8.763667e+000 8.961394e+000 9.158960e+000
<VARIANCE> 16
 1.277290e+000 1.802159e+000 1.992973e+000 1.660711e+000 1.320980e+000 1.331910e+000 1.371574e+000 1.328833e+000 1.402374e+000 1.431107e+000 1.596238e+000 1.657446e+000 1.460618e+000 1.206222e+000 9.153107e-001 8.056427e-001
<GCONST> 3.453317e+001
<STATE> 4
<MEAN> 16
 7.816099e+000 8.685555e+000 8.466021e+000 8.087914e+000 7.539427e+000 7.324654e+000 7.437559e+000 7.465357e+000 7.455406e+000 7.642861e+000 7.805033e+000 7.941976e+000 7.991312e+000 8.187848e+000 8.531068e+000 8.859679e+000
<VARIANCE> 16
 1.391219e+000 1.456646e+000 1.817285e+000 1.745600e+000 1.636155e+000 1.468364e+000 1.567196e+000 1.677331e+000 1.898875e+000 1.781852e+000 1.903555e+000 1.956234e+000 1.749644e+000 1.380479e+000 1.027385e+000 8.691359e-001
<GCONST> 3.641204e+001
<STATE> 5
<MEAN> 16
 8.110960e+000 9.232199e+000 9.205215e+000 8.935609e+000 8.499903e+000 8.470140e+000 8.669082e+000 8.627255e+000 8.573838e+000 8.785343e+000 8.933090e+000 9.004057e+000 9.059557e+000 9.190323e+000 9.376993e+000 9.505904e+000
<VARIANCE> 16
 2.042975e+000 2.069434e+000 1.897436e+000 1.505212e+000 1.143246e+000 9.282844e-001 9.926577e-001 1.177881e+000 1.392053e+000 1.368527e+000 1.497326e+000 1.664435e+000 1.532821e+000 1.377969e+000 1.096617e+000 1.155962e+000
<GCONST> 3.465551e+001
<STATE> 6
<MEAN> 16
 7.752256e+000 8.913908e+000 9.157724e+000 9.661452e+000 1.000713e+001 9.961807e+000 9.836556e+000 9.317063e+000 8.747508e+000 8.741271e+000 8.759458e+000 8.447836e+000 8.570580e+000 8.511259e+000 8.618244e+000 8.749375e+000
<VARIANCE> 16
 1.185649e+000 1.381558e+000 1.084969e+000 9.450329e-001 9.503797e-001 8.432440e-001 6.274815e-001 5.700512e-001 7.118713e-001 7.367802e-001 9.243963e-001 1.351978e+000 1.240434e+000 1.368221e+000 7.988237e-001 6.275453e-001
<GCONST> 2.809114e+001
<STATE> 7
<MEAN> 16
 8.819861e+000 1.011741e+001 1.021169e+001 1.001491e+001 9.609326e+000 9.722544e+000 1.013191e+001 1.019787e+001 1.013422e+001 1.035148e+001 1.031772e+001 1.026676e+001 1.022574e+001 1.011541e+001 1.000521e+001 1.017017e+001
<VARIANCE> 16
 8.010144e-001 9.711375e-001 1.109465e+000 1.344663e+000 1.040838e+000 8.014907e-001 8.446450e-001 8.269444e-001 1.026468e+000 1.047192e+000 1.328504e+000 1.460935e+000 1.551761e+000 1.568280e+000 1.603235e+000 1.602732e+000
<GCONST> 3.158325e+001
<STATE> 8
<MEAN> 16
 9.138805e+000 1.039823e+001 1.077705e+001 1.150602e+001 1.192657e+001 1.205373e+001 1.213144e+001 1.175553e+001 1.129752e+001 1.147415e+001 1.158933e+001 1.136208e+001 1.120561e+001 1.091164e+001 1.074663e+001 1.064298e+001
<VARIANCE> 16
 1.146277e+000 6.998375e-001 1.157196e+000 1.560016e+000 1.799939e+000 1.603211e+000 1.410619e+000 1.381416e+000 1.368719e+000 1.678651e+000 1.972471e+000 1.811811e+000 1.817600e+000 1.991085e+000 2.056984e+000 2.427568e+000
<GCONST> 3.650304e+001
<STATE> 9
<MEAN> 16
 6.091433e+000 6.862757e+000 7.201056e+000 7.528993e+000 7.834139e+000 8.137750e+000 8.359635e+000 8.466124e+000 8.439092e+000 8.593491e+000 8.728926e+000 8.825124e+000 8.960947e+000 9.090991e+000 9.260524e+000 9.401473e+000
<VARIANCE> 16
 7.731746e-001 5.981035e-001 3.081358e-001 3.555648e-001 5.058330e-001 5.111788e-001 4.260183e-001 2.897227e-001 2.205779e-001 2.261378e-001 2.220157e-001 2.971389e-001 3.893612e-001 4.249076e-001 4.313706e-001 4.346702e-001
<GCONST> 1.378907e+001
<TRANSP> 10
 0.000000e+000 1.000000e+000 0.000000e+000 0.000000e+000 0.000000e+000 0.000000e+000 0.000000e+000 0.000000e+000 0.000000e+000 0.000000e+000
 0.000000e+000 9.356722e-001 6.432781e-002 0.000000e+000 0.000000e+000 0.000000e+000 0.000000e+000 0.000000e+000 0.000000e+000 0.000000e+000
 0.000000e+000 0.000000e+000 9.899537e-002 9.010047e-001 0.000000e+000 0.000000e+000 0.000000e+000 0.000000e+000 0.000000e+000 0.000000e+000
 0.000000e+000 0.000000e+000 0.000000e+000 5.681847e-001 4.318153e-001 0.000000e+000 0.000000e+000 0.000000e+000 0.000000e+000 0.000000e+000
 0.000000e+000 0.000000e+000 0.000000e+000 0.000000e+000 3.350369e-001 6.649631e-001 0.000000e+000 0.000000e+000 0.000000e+000 0.000000e+000
 0.000000e+000 0.000000e+000 0.000000e+000 0.000000e+000 0.000000e+000 7.561485e-001 2.438516e-001 0.000000e+000 0.000000e+000 0.000000e+000
 0.000000e+000 0.000000e+000 0.000000e+000 0.000000e+000 0.000000e+000 0.000000e+000 8.371044e-001 1.628956e-001 0.000000e+000 0.000000e+000
 0.000000e+000 0.000000e+000 0.000000e+000 0.000000e+000 0.000000e+000 0.000000e+000 0.000000e+000 9.615243e-001 3.847569e-002 0.000000e+000
 0.000000e+000 0.000000e+000 0.000000e+000 0.000000e+000 0.000000e+000 0.000000e+000 0.000000e+000 0.000000e+000 9.617203e-001 3.827972e-002
 0.000000e+000 0.000000e+000 0.000000e+000 0.000000e+000 0.000000e+000 0.000000e+000 0.000000e+000 0.000000e+000 0.000000e+000 0.000000e+000
<ENDHMM>
~h "osm"
<BEGINHMM>
<NUMSTATES> 10
<STATE> 2
<MEAN> 16
 5.688576e+000 6.498545e+000 6.957960e+000 7.314391e+000 7.571024e+000 7.827493e+000 8.056937e+000 8.274231e+000 8.377510e+000 8.535227e+000 8.732948e+000 8.899666e+000 9.068647e+000 9.224667e+000 9.413911e+000 9.554379e+000
<VARIANCE> 16
 4.182236e-001 2.754066e-001 2.519819e-001 2.698809e-001 2.579881e-001 2.218252e-001 1.879363e-001 2.118514e-001 1.766856e-001 1.325005e-001 1.299922e-001 1.440914e-001 1.648812e-001 1.901128e-001 1.896880e-001 2.074681e-001
<GCONST> 4.042426e+000
<STATE> 3
<MEAN> 16
 5.508080e+000 6.606377e+000 7.063661e+000 7.725841e+000 8.003607e+000 8.065878e+000 7.968031e+000 7.560422e+000 7.462312e+000 7.744700e+000 8.329424e+000 8.562477e+000 8.899544e+000 9.142515e+000 9.355666e+000 9.443479e+000
<VARIANCE> 16
 2.880337e+000 3.527630e+000 3.324179e+000 3.543900e+000 3.400445e+000 2.793753e+000 2.191343e+000 1.364426e+000 1.429396e+000 1.597276e+000 1.341334e+000 1.423319e+000 1.656316e+000 1.580063e+000 1.486783e+000 1.287599e+000
<GCONST> 4.062122e+001
<STATE> 4
<MEAN> 16
 6.583808e+000 8.002554e+000 8.581184e+000 9.088467e+000 9.265407e+000 9.533040e+000 9.547398e+000 9.149056e+000 9.238739e+000 9.695481e+000 1.015080e+001 1.024787e+001 1.038518e+001 1.049603e+001 1.040176e+001 1.047065e+001
<VARIANCE> 16
 2.252803e+000 2.151107e+000 2.498735e+000 3.704371e+000 3.845310e+000 2.723843e+000 1.875443e+000 1.090723e+000 9.626609e-001 1.220920e+000 1.230120e+000 1.258932e+000 1.463743e+000 1.700225e+000 1.628769e+000 1.852765e+000
<GCONST> 3.888926e+001
<STATE> 5
<MEAN> 16
 8.534800e+000 9.922268e+000 1.065385e+001 1.166389e+001 1.168803e+001 1.161399e+001 1.111439e+001 1.003323e+001 9.888920e+000 1.040427e+001 1.069273e+001 1.071511e+001 1.074565e+001 1.033961e+001 1.020979e+001 9.949474e+000
<VARIANCE> 16
 1.706657e+000 1.256737e+000 1.268967e+000 1.512379e+000 1.727391e+000 1.741265e+000 1.580019e+000 1.294840e+000 1.239455e+000 1.529891e+000 1.531329e+000 1.631507e+000 1.714959e+000 2.398734e+000 1.527799e+000 1.243259e+000
<GCONST> 3.624943e+001
<STATE> 6
<MEAN> 16
 8.150199e+000 9.314967e+000 9.878400e+000 1.052601e+001 1.043252e+001 1.020551e+001 9.671353e+000 8.837368e+000 8.524384e+000 8.915595e+000 9.691224e+000 1.023522e+001 1.051891e+001 1.043781e+001 1.064845e+001 1.066678e+001
<VARIANCE> 16
 2.637848e+000 3.363510e+000 3.123459e+000 2.971775e+000 2.745282e+000 2.350428e+000 1.848853e+000 1.675696e+000 1.616383e+000 2.057579e+000 2.658365e+000 3.977778e+000 3.583664e+000 4.383161e+000 3.747463e+000 2.702991e+000
<GCONST> 4.544211e+001
<STATE> 7
<MEAN> 16
 9.304375e+000 1.061892e+001 1.134128e+001 1.206908e+001 1.215978e+001 1.215347e+001 1.164007e+001 1.095203e+001 1.079747e+001 1.141222e+001 1.184599e+001 1.189944e+001 1.165117e+001 1.134083e+001 1.103176e+001 1.081006e+001
<VARIANCE> 16
 1.772365e+000 1.369744e+000 1.484211e+000 1.341298e+000 1.464050e+000 1.496791e+000 1.416670e+000 1.228654e+000 1.481308e+000 2.128108e+000 1.818519e+000 1.710925e+000 1.920279e+000 1.928894e+000 1.954144e+000 2.123790e+000
<GCONST> 3.733604e+001
<STATE> 8
<MEAN> 16
 8.438235e+000 9.681303e+000 1.008389e+001 1.006221e+001 9.945801e+000 1.015854e+001 1.023439e+001 1.023796e+001 1.033526e+001 1.082212e+001 1.115573e+001 1.135324e+001 1.149596e+001 1.148021e+001 1.135823e+001 1.132313e+001
<VARIANCE> 16
 2.250352e+000 2.696234e+000 2.324656e+000 1.684222e+000 1.328977e+000 1.034438e+000 7.418442e-001 6.775944e-001 5.866604e-001 6.563978e-001 9.892560e-001 1.414526e+000 2.463300e+000 3.069158e+000 3.243443e+000 3.552026e+000
<GCONST> 3.605305e+001
<STATE> 9
<MEAN> 16
 7.181350e+000 8.151219e+000 8.039095e+000 7.772667e+000 7.781679e+000 8.069114e+000 8.292482e+000 8.372996e+000 8.456222e+000 8.793323e+000 8.856570e+000 8.874371e+000 9.056891e+000 9.252952e+000 9.455153e+000 9.554256e+000
<VARIANCE> 16
 2.388166e+000 2.575594e+000 1.428343e+000 7.761871e-001 5.986679e-001 5.796396e-001 5.159460e-001 5.434576e-001 4.580775e-001 5.022004e-001 3.715663e-001 4.443763e-001 5.314832e-001 6.109427e-001 6.335081e-001 7.531688e-001
<GCONST> 2.386047e+001
<TRANSP> 10
 0.000000e+000 1.000000e+000 0.000000e+000 0.000000e+000 0.000000e+000 0.000000e+000 0.000000e+000 0.000000e+000 0.000000e+000 0.000000e+000
 0.000000e+000 9.390622e-001 6.093774e-002 0.000000e+000 0.000000e+000 0.000000e+000 0.000000e+000 0.000000e+000 0.000000e+000 0.000000e+000
 0.000000e+000 0.000000e+000 6.964759e-001 3.035241e-001 0.000000e+000 0.000000e+000 0.000000e+000 0.000000e+000 0.000000e+000 0.000000e+000
 0.000000e+000 0.000000e+000 0.000000e+000 5.153044e-001 4.846956e-001 0.000000e+000 0.000000e+000 0.000000e+000 0.000000e+000 0.000000e+000
 0.000000e+000 0.000000e+000 0.000000e+000 0.000000e+000 3.952276e-001 6.047724e-001 0.000000e+000 0.000000e+000 0.000000e+000 0.000000e+000
 0.000000e+000 0.000000e+000 0.000000e+000 0.000000e+000 0.000000e+000 8.665553e-001 1.334446e-001 0.000000e+000 0.000000e+000 0.000000e+000
 0.000000e+000 0.000000e+000 0.000000e+000 0.000000e+000 0.000000e+000 0.000000e+000 7.784452e-001 2.215548e-001 0.000000e+000 0.000000e+000
 0.000000e+000 0.000000e+000 0.000000e+000 0.000000e+000 0.000000e+000 0.000000e+000 0.000000e+000 9.702263e-001 2.977368e-002 0.000000e+000
 0.000000e+000 0.000000e+000 0.000000e+000 0.000000e+000 0.000000e+000 0.000000e+000 0.000000e+000 0.000000e+000 9.472752e-001 5.272480e-002
 0.000000e+000 0.000000e+000 0.000000e+000 0.000000e+000 0.000000e+000 0.000000e+000 0.000000e+000 0.000000e+000 0.000000e+000 0.000000e+000
<ENDHMM>
~h "pet"
<BEGINHMM>
<NUMSTATES> 10
<STATE> 2
<MEAN> 16
 3.995394e+000 5.416436e+000 5.906762e+000 6.044849e+000 6.197056e+000 6.461740e+000 6.665484e+000 6.910050e+000 7.188335e+000 7.377465e+000 7.660228e+000 7.852674e+000 8.138210e+000 8.458820e+000 8.623952e+000 8.799581e+000
<VARIANCE> 16
 8.901218e-001 8.457565e-001 8.014541e-001 6.908841e-001 4.687264e-001 4.274745e-001 3.896287e-001 3.982041e-001 3.998065e-001 4.665134e-001 4.143326e-001 3.710128e-001 3.324777e-001 3.048905e-001 3.552436e-001 4.353506e-001
<GCONST> 1.735266e+001
<STATE> 3
<MEAN> 16
 5.835354e+000 6.557666e+000 7.078369e+000 7.393464e+000 7.594366e+000 7.822502e+000 8.081700e+000 8.346810e+000 8.491306e+000 8.609766e+000 8.761889e+000 8.904677e+000 9.065568e+000 9.207779e+000 9.352554e+000 9.470516e+000
<VARIANCE> 16
 3.096369e-001 3.156738e-001 3.015114e-001 1.985101e-001 1.350033e-001 1.205898e-001 1.289881e-001 1.547000e-001 1.609978e-001 1.455277e-001 1.235763e-001 9.592707e-002 1.024933e-001 1.221219e-001 1.366631e-001 1.476436e-001
<GCONST> -2.400521e-001
<STATE> 4
<MEAN> 16
 6.897256e+000 8.336036e+000 9.025354e+000 8.930148e+000 8.358454e+000 7.990860e+000 8.067245e+000 8.653545e+000 9.365110e+000 9.748862e+000 9.782730e+000 9.544564e+000 9.501353e+000 9.290872e+000 8.932796e+000 9.072539e+000
<VARIANCE> 16
 2.293092e+000 2.403511e+000 2.827486e+000 2.321262e+000 1.260740e+000 8.326024e-001 1.026171e+000 1.791664e+000 2.104941e+000 2.012051e+000 1.788333e+000 1.214753e+000 1.083467e+000 1.214694e+000 1.209153e+000 1.070580e+000
<GCONST> 3.640388e+001
<STATE> 5
<MEAN> 16
 7.245242e+000 8.751081e+000 9.317418e+000 9.418376e+000 9.098917e+000 8.745199e+000 8.881743e+000 9.510893e+000 1.016126e+001 1.044793e+001 1.049938e+001 1.030387e+001 1.035277e+001 1.015064e+001 9.823125e+000 9.814135e+000
<VARIANCE> 16
 2.007448e+000 2.242570e+000 2.720949e+000 2.025689e+000 1.305882e+000 6.491185e-001 9.418985e-001 1.525592e+000 1.701162e+000 1.932105e+000 1.817898e+000 1.406172e+000 1.146505e+000 1.707333e+000 2.076541e+000 2.338320e+000
<GCONST> 3.719494e+001
<STATE> 6
<MEAN> 16
 8.190886e+000 9.769867e+000 1.038654e+001 1.045491e+001 9.921922e+000 9.478724e+000 9.634761e+000 1.048962e+001 1.122578e+001 1.150113e+001 1.153490e+001 1.120593e+001 1.109094e+001 1.075184e+001 1.024993e+001 1.009269e+001
<VARIANCE> 16
 1.426666e+000 1.371440e+000 1.612450e+000 9.989988e-001 6.836593e-001 5.141776e-001 9.194205e-001 1.196069e+000 1.148093e+000 1.712739e+000 1.716408e+000 1.773209e+000 1.707955e+000 2.677487e+000 2.661960e+000 2.669064e+000
<GCONST> 3.487372e+001
<STATE> 7
<MEAN> 16
 8.688215e+000 1.029140e+001 1.086881e+001 1.105801e+001 1.003134e+001 9.522392e+000 9.499859e+000 1.041266e+001 1.113946e+001 1.177875e+001 1.213798e+001 1.186256e+001 1.158491e+001 1.112415e+001 1.047877e+001 1.018442e+001
<VARIANCE> 16
 1.189180e+000 8.838063e-001 1.109842e+000 5.390400e-001 5.582351e-001 4.012712e-001 5.572174e-001 8.127697e-001 1.065924e+000 1.322896e+000 1.488611e+000 1.640162e+000 1.916090e+000 2.970611e+000 2.394073e+000 1.424495e+000
<GCONST> 3.085600e+001
<STATE> 8
<MEAN> 16
 9.363973e+000 1.075544e+001 1.160217e+001 1.212962e+001 1.174483e+001 1.112254e+001 1.124962e+001 1.207313e+001 1.256759e+001 1.281155e+001 1.270635e+001 1.238159e+001 1.206722e+001 1.171227e+001 1.137715e+001 1.124594e+001
<VARIANCE> 16
 1.081896e+000 5.991655e-001 8.282632e-001 6.465626e-001 9.558910e-001 7.435349e-001 6.725577e-001 8.989367e-001 1.043964e+000 1.326389e+000 1.414957e+000 1.350920e+000 1.443818e+000 2.147358e+000 2.194448e+000 2.886861e+000
<GCONST> 3.145436e+001
<STATE> 9
<MEAN> 16
 6.012535e+000 7.056275e+000 7.683121e+000 8.107133e+000 8.101458e+000 8.059375e+000 8.234664e+000 8.715513e+000 8.902206e+000 8.947194e+000 9.057664e+000 9.038520e+000 9.230630e+000 9.370411e+000 9.505536e+000 9.653419e+000
<VARIANCE> 16
 1.315127e+000 1.178923e+000 1.159086e+000 1.271819e+000 1.155492e+000 9.864429e-001 9.861264e-001 1.093949e+000 1.071464e+000 9.482722e-001 8.899816e-001 1.011177e+000 1.240097e+000 1.358594e+000 1.450544e+000 1.424570e+000
<GCONST> 3.159727e+001
<TRANSP> 10
 0.000000e+000 1.000000e+000 0.000000e+000 0.000000e+000 0.000000e+000 0.000000e+000 0.000000e+000 0.000000e+000 0.000000e+000 0.000000e+000
 0.000000e+000 8.922400e-001 1.077599e-001 0.000000e+000 0.000000e+000 0.000000e+000 0.000000e+000 0.000000e+000 0.000000e+000 0.000000e+000
 0.000000e+000 0.000000e+000 9.407433e-001 5.925670e-002 0.000000e+000 0.000000e+000 0.000000e+000 0.000000e+000 0.000000e+000 0.000000e+000
 0.000000e+000 0.000000e+000 0.000000e+000 3.313544e-001 6.686456e-001 0.000000e+000 0.000000e+000 0.000000e+000 0.000000e+000 0.000000e+000
 0.000000e+000 0.000000e+000 0.000000e+000 0.000000e+000 4.078639e-001 5.921362e-001 0.000000e+000 0.000000e+000 0.000000e+000 0.000000e+000
 0.000000e+000 0.000000e+000 0.000000e+000 0.000000e+000 0.000000e+000 2.083846e-001 7.916154e-001 0.000000e+000 0.000000e+000 0.000000e+000
 0.000000e+000 0.000000e+000 0.000000e+000 0.000000e+000 0.000000e+000 0.000000e+000 6.949945e-001 3.050055e-001 0.000000e+000 0.000000e+000
 0.000000e+000 0.000000e+000 0.000000e+000 0.000000e+000 0.000000e+000 0.000000e+000 0.000000e+000 9.460208e-001 5.397923e-002 0.000000e+000
 0.000000e+000 0.000000e+000 0.000000e+000 0.000000e+000 0.000000e+000 0.000000e+000 0.000000e+000 0.000000e+000 9.625930e-001 3.740706e-002
 0.000000e+000 0.000000e+000 0.000000e+000 0.000000e+000 0.000000e+000 0.000000e+000 0.000000e+000 0.000000e+000 0.000000e+000 0.000000e+000
<ENDHMM>
~h "sil"
<BEGINHMM>
<NUMSTATES> 5
<STATE> 2
<MEAN> 16
 2.265642e+000 2.892970e+000 3.260682e+000 3.656457e+000 3.916632e+000 4.042221e+000 4.153590e+000 4.438546e+000 4.950803e+000 5.388655e+000 5.739364e+000 5.990879e+000 6.107459e+000 6.637875e+000 7.551548e+000 8.206737e+000
<VARIANCE> 16
 5.663647e+000 6.664782e+000 6.629469e+000 6.668933e+000 5.966553e+000 5.424364e+000 5.270951e+000 4.670764e+000 3.504939e+000 2.750053e+000 2.269474e+000 1.940151e+000 2.064723e+000 1.619170e+000 9.540736e-001 6.817270e-001
<GCONST> 4.803141e+001
<STATE> 3
<MEAN> 16
 3.290790e+000 4.129790e+000 4.534740e+000 4.821598e+000 5.102142e+000 5.408127e+000 5.671276e+000 5.986914e+000 6.264442e+000 6.510291e+000 6.790974e+000 7.041217e+000 7.334558e+000 7.701576e+000 8.096392e+000 8.495541e+000
<VARIANCE> 16
 7.292573e-001 9.721931e-001 9.513666e-001 8.231885e-001 7.166809e-001 6.485689e-001 5.836410e-001 5.739554e-001 5.143145e-001 4.477528e-001 4.043094e-001 3.729179e-001 3.753220e-001 4.345424e-001 4.406664e-001 4.997202e-001
<GCONST> 2.027088e+001
<STATE> 4
<MEAN> 16
 5.051217e+000 6.180352e+000 6.590979e+000 6.831269e+000 7.050698e+000 7.314776e+000 7.568121e+000 7.814600e+000 7.986228e+000 8.181792e+000 8.396669e+000 8.599694e+000 8.819182e+000 9.036447e+000 9.273918e+000 9.470278e+000
<VARIANCE> 16
 9.617230e-001 6.425664e-001 5.961099e-001 6.164078e-001 6.034833e-001 5.864112e-001 5.959250e-001 5.820478e-001 4.803772e-001 4.102316e-001 3.683025e-001 3.587083e-001 3.565256e-001 3.406406e-001 3.152166e-001 3.297521e-001
<GCONST> 1.780543e+001
<TRANSP> 5
 0.000000e+000 1.000000e+000 0.000000e+000 0.000000e+000 0.000000e+000
 0.000000e+000 8.951407e-001 1.048593e-001 0.000000e+000 0.000000e+000
 0.000000e+000 0.000000e+000 9.685140e-001 3.148599e-002 0.000000e+000
 0.000000e+000 0.000000e+000 0.000000e+000 9.481119e-001 5.188804e-002
 0.000000e+000 0.000000e+000 0.000000e+000 0.000000e+000 0.000000e+000
<ENDHMM>
~h "tri"
<BEGINHMM>
<NUMSTATES> 10
<STATE> 2
<MEAN> 16
 4.761781e+000 5.820890e+000 6.429109e+000 6.814390e+000 7.025539e+000 7.228103e+000 7.257198e+000 7.579753e+000 8.087192e+000 8.426756e+000 8.864604e+000 9.223788e+000 9.572259e+000 9.795397e+000 1.001149e+001 1.004878e+001
<VARIANCE> 16
 8.886065e-001 1.127396e+000 1.001935e+000 8.988926e-001 9.056388e-001 1.063313e+000 1.395425e+000 1.274196e+000 9.264349e-001 8.199160e-001 7.292643e-001 8.664157e-001 9.847688e-001 1.019699e+000 9.536793e-001 8.249249e-001
<GCONST> 2.887116e+001
<STATE> 3
<MEAN> 16
 5.409265e+000 6.504539e+000 7.227701e+000 7.529137e+000 7.665474e+000 7.882933e+000 8.130555e+000 8.595286e+000 8.815340e+000 9.242636e+000 9.551551e+000 9.663093e+000 9.914923e+000 1.026365e+001 1.030312e+001 1.022284e+001
<VARIANCE> 16
 7.604833e-001 1.033784e+000 1.095877e+000 1.059716e+000 1.055454e+000 1.175371e+000 1.456263e+000 1.224199e+000 1.057405e+000 1.327607e+000 1.296773e+000 1.160208e+000 1.198344e+000 1.433973e+000 1.227750e+000 1.024350e+000
<GCONST> 3.162703e+001
<STATE> 4
<MEAN> 16
 6.388181e+000 7.552962e+000 8.518282e+000 8.851368e+000 8.796760e+000 8.758938e+000 8.900399e+000 9.385398e+000 9.799613e+000 9.866273e+000 1.012600e+001 1.020509e+001 1.047812e+001 1.064834e+001 1.056003e+001 1.035518e+001
<VARIANCE> 16
 8.452026e-001 1.224325e+000 1.245887e+000 1.251565e+000 1.079487e+000 1.360006e+000 1.715007e+000 1.662768e+000 1.482218e+000 1.675678e+000 1.408930e+000 1.813324e+000 2.161321e+000 2.415402e+000 2.184686e+000 1.979754e+000
<GCONST> 3.628115e+001
<STATE> 5
<MEAN> 16
 6.886066e+000 8.138297e+000 9.199595e+000 9.404469e+000 9.294485e+000 9.299036e+000 9.472654e+000 1.005402e+001 1.053200e+001 1.065717e+001 1.093903e+001 1.110405e+001 1.124491e+001 1.127519e+001 1.115786e+001 1.101327e+001
<VARIANCE> 16
 1.127174e+000 1.416059e+000 1.296945e+000 1.221947e+000 1.025509e+000 1.510166e+000 1.900088e+000 1.426088e+000 1.226727e+000 1.435239e+000 1.236981e+000 1.864800e+000 2.629541e+000 3.186733e+000 3.401669e+000 2.924230e+000
<GCONST> 3.759294e+001
<STATE> 6
<MEAN> 16
 6.619766e+000 7.465758e+000 8.350522e+000 8.643419e+000 8.726912e+000 8.759892e+000 9.098951e+000 1.004222e+001 1.032748e+001 1.037708e+001 1.123963e+001 1.202103e+001 1.248846e+001 1.255151e+001 1.239465e+001 1.189934e+001
<VARIANCE> 16
 9.147070e-001 1.874217e+000 2.677273e+000 2.726308e+000 2.338444e+000 2.603630e+000 2.545269e+000 1.339485e+000 1.367333e+000 1.711829e+000 8.865045e-001 1.482373e+000 1.596569e+000 1.700810e+000 1.912115e+000 2.116339e+000
<GCONST> 3.848619e+001
<STATE> 7
<MEAN> 16
 6.966655e+000 7.660069e+000 8.391547e+000 8.734865e+000 8.859973e+000 9.130974e+000 9.594612e+000 1.031314e+001 1.087336e+001 1.138344e+001 1.206433e+001 1.285831e+001 1.356127e+001 1.376783e+001 1.365327e+001 1.342587e+001
<VARIANCE> 16
 6.671783e-001 6.490498e-001 7.598548e-001 7.475604e-001 5.630971e-001 5.741584e-001 6.922055e-001 6.307108e-001 5.528231e-001 7.578448e-001 7.830657e-001 9.844397e-001 9.898186e-001 1.100074e+000 1.412637e+000 2.398923e+000
<GCONST> 2.622100e+001
<STATE> 8
<MEAN> 16
 9.219227e+000 1.068078e+001 1.136380e+001 1.132255e+001 1.042868e+001 1.000221e+001 1.006682e+001 1.096008e+001 1.181409e+001 1.235393e+001 1.236216e+001 1.209330e+001 1.192419e+001 1.160385e+001 1.108865e+001 1.085576e+001
<VARIANCE> 16
 1.452541e+000 8.442370e-001 1.339225e+000 1.200112e+000 9.008785e-001 9.143761e-001 1.246923e+000 1.783874e+000 1.723494e+000 1.449320e+000 1.542264e+000 1.414211e+000 1.349711e+000 2.079140e+000 1.747398e+000 2.263093e+000
<GCONST> 3.479208e+001
<STATE> 9
<MEAN> 16
 6.276927e+000 7.123334e+000 7.490239e+000 7.617536e+000 7.627369e+000 7.752077e+000 7.936755e+000 8.221756e+000 8.547721e+000 8.832517e+000 8.910683e+000 8.905941e+000 9.039967e+000 9.159897e+000 9.257170e+000 9.392669e+000
<VARIANCE> 16
 1.086902e+000 9.389774e-001 7.695688e-001 4.893287e-001 2.714565e-001 2.564179e-001 2.993314e-001 3.235347e-001 2.557757e-001 3.268596e-001 2.740774e-001 2.629918e-001 3.199510e-001 4.324002e-001 4.771425e-001 4.611042e-001
<GCONST> 1.484649e+001
<TRANSP> 10
 0.000000e+000 1.000000e+000 0.000000e+000 0.000000e+000 0.000000e+000 0.000000e+000 0.000000e+000 0.000000e+000 0.000000e+000 0.000000e+000
 0.000000e+000 7.607114e-001 2.392885e-001 0.000000e+000 0.000000e+000 0.000000e+000 0.000000e+000 0.000000e+000 0.000000e+000 0.000000e+000
 0.000000e+000 0.000000e+000 5.922939e-001 4.077061e-001 0.000000e+000 0.000000e+000 0.000000e+000 0.000000e+000 0.000000e+000 0.000000e+000
 0.000000e+000 0.000000e+000 0.000000e+000 1.168823e-001 8.831177e-001 0.000000e+000 0.000000e+000 0.000000e+000 0.000000e+000 0.000000e+000
 0.000000e+000 0.000000e+000 0.000000e+000 0.000000e+000 2.259069e-001 7.740930e-001 0.000000e+000 0.000000e+000 0.000000e+000 0.000000e+000
 0.000000e+000 0.000000e+000 0.000000e+000 0.000000e+000 0.000000e+000 4.682221e-001 5.317779e-001 0.000000e+000 0.000000e+000 0.000000e+000
 0.000000e+000 0.000000e+000 0.000000e+000 0.000000e+000 0.000000e+000 0.000000e+000 8.967721e-001 1.032279e-001 0.000000e+000 0.000000e+000
 0.000000e+000 0.000000e+000 0.000000e+000 0.000000e+000 0.000000e+000 0.000000e+000 0.000000e+000 9.512957e-001 4.870434e-002 0.000000e+000
 0.000000e+000 0.000000e+000 0.000000e+000 0.000000e+000 0.000000e+000 0.000000e+000 0.000000e+000 0.000000e+000 9.625053e-001 3.749472e-002
 0.000000e+000 0.000000e+000 0.000000e+000 0.000000e+000 0.000000e+000 0.000000e+000 0.000000e+000 0.000000e+000 0.000000e+000 0.000000e+000
<ENDHMM>
~h "nula"
<BEGINHMM>
<NUMSTATES> 10
<STATE> 2
<MEAN> 16
 5.221013e+000 5.967121e+000 5.941169e+000 5.969807e+000 6.136280e+000 6.289164e+000 6.450366e+000 6.702445e+000 7.007351e+000 7.398633e+000 7.608530e+000 7.603867e+000 7.767143e+000 8.007671e+000 8.407514e+000 8.768505e+000
<VARIANCE> 16
 4.730550e+000 6.407876e+000 4.989605e+000 3.672908e+000 2.566460e+000 2.119918e+000 2.005342e+000 1.920062e+000 1.745919e+000 1.683415e+000 1.292956e+000 1.010633e+000 1.031062e+000 9.757516e-001 8.772365e-001 6.878165e-001
<GCONST> 3.961447e+001
<STATE> 3
<MEAN> 16
 7.165115e+000 8.477822e+000 8.659449e+000 8.722621e+000 8.784212e+000 8.683102e+000 8.249757e+000 7.497237e+000 7.162474e+000 7.224138e+000 7.628218e+000 7.365511e+000 7.262146e+000 7.481338e+000 7.910510e+000 8.380609e+000
<VARIANCE> 16
 1.148335e+000 8.230099e-001 8.725344e-001 8.914486e-001 1.145778e+000 1.320419e+000 1.175203e+000 8.918141e-001 8.573330e-001 1.050400e+000 7.632406e-001 5.999112e-001 5.962208e-001 5.580109e-001 4.667740e-001 3.418374e-001
<GCONST> 2.573751e+001
<STATE> 4
<MEAN> 16
 6.571745e+000 7.958898e+000 8.233702e+000 8.348431e+000 8.166474e+000 8.172247e+000 8.373822e+000 8.547269e+000 8.697719e+000 9.017392e+000 9.170103e+000 9.212364e+000 9.375749e+000 9.556776e+000 9.804652e+000 9.963246e+000
<VARIANCE> 16
 2.709364e+000 2.134517e+000 1.399582e+000 1.120745e+000 8.450260e-001 7.136210e-001 5.009760e-001 4.066836e-001 5.922394e-001 7.965147e-001 6.756477e-001 7.744217e-001 8.712848e-001 9.082440e-001 9.636208e-001 9.604723e-001
<GCONST> 2.780395e+001
<STATE> 5
<MEAN> 16
 8.622647e+000 9.760139e+000 9.878562e+000 9.856827e+000 9.722516e+000 9.651178e+000 9.473564e+000 8.931293e+000 8.763577e+000 9.134384e+000 9.289130e+000 8.965172e+000 8.919144e+000 8.841047e+000 9.036221e+000 9.328479e+000
<VARIANCE> 16
 1.843608e+000 1.378986e+000 1.265546e+000 1.039318e+000 1.270465e+000 1.389899e+000 9.503722e-001 7.998824e-001 1.283157e+000 1.858882e+000 1.396914e+000 1.038401e+000 1.226897e+000 1.367493e+000 1.266919e+000 1.116357e+000
<GCONST> 3.301297e+001
<STATE> 6
<MEAN> 16
 8.983811e+000 1.023838e+001 1.042246e+001 1.025539e+001 9.962248e+000 9.922786e+000 9.694310e+000 9.421486e+000 9.306441e+000 9.625425e+000 9.779974e+000 9.453439e+000 9.402420e+000 9.290405e+000 9.461348e+000 9.625842e+000
<VARIANCE> 16
 2.171595e+000 1.430272e+000 1.553344e+000 1.119884e+000 1.238150e+000 1.100334e+000 8.801848e-001 1.001455e+000 1.714638e+000 2.594316e+000 1.903042e+000 1.342106e+000 1.570301e+000 1.673660e+000 1.323313e+000 1.377830e+000
<GCONST> 3.527321e+001
<STATE> 7
<MEAN> 16
 9.301278e+000 1.055423e+001 1.093499e+001 1.088315e+001 1.035498e+001 1.047171e+001 1.022873e+001 9.918553e+000 1.003802e+001 1.053308e+001 1.048386e+001 1.019586e+001 9.864291e+000 9.856590e+000 9.828781e+000 9.852435e+000
<VARIANCE> 16
 1.038229e+000 7.509542e-001 7.475666e-001 5.700524e-001 6.842837e-001 8.660634e-001 7.448102e-001 5.459116e-001 6.660970e-001 9.071804e-001 7.575351e-001 6.996129e-001 8.685128e-001 1.305277e+000 1.078602e+000 1.382242e+000
<GCONST> 2.626724e+001
<STATE> 8
<MEAN> 16
 9.354496e+000 1.083813e+001 1.127178e+001 1.187810e+001 1.206764e+001 1.214193e+001 1.194759e+001 1.143762e+001 1.101968e+001 1.123925e+001 1.158054e+001 1.155698e+001 1.132470e+001 1.090547e+001 1.062731e+001 1.062958e+001
<VARIANCE> 16
 1.413770e+000 6.492878e-001 1.116827e+000 9.885044e-001 1.011015e+000 9.381450e-001 1.051030e+000 1.026726e+000 1.025744e+000 1.453385e+000 1.543158e+000 1.405264e+000 1.312814e+000 1.679516e+000 1.422904e+000 1.974098e+000
<GCONST> 3.243945e+001
<STATE> 9
<MEAN> 16
 6.183311e+000 7.014493e+000 7.332112e+000 7.633906e+000 7.934856e+000 8.250680e+000 8.447364e+000 8.530626e+000 8.474766e+000 8.589417e+000 8.732765e+000 8.880672e+000 9.049116e+000 9.177719e+000 9.354303e+000 9.491207e+000
<VARIANCE> 16
 1.130101e+000 1.015034e+000 5.499798e-001 5.494503e-001 6.409472e-001 6.693866e-001 5.764925e-001 3.474527e-001 2.350841e-001 2.290970e-001 2.549934e-001 2.848561e-001 3.555519e-001 3.722676e-001 4.096478e-001 4.897420e-001
<GCONST> 1.672016e+001
<TRANSP> 10
 0.000000e+000 1.000000e+000 0.000000e+000 0.000000e+000 0.000000e+000 0.000000e+000 0.000000e+000 0.000000e+000 0.000000e+000 0.000000e+000
 0.000000e+000 3.712059e-001 6.287941e-001 0.000000e+000 0.000000e+000 0.000000e+000 0.000000e+000 0.000000e+000 0.000000e+000 0.000000e+000
 0.000000e+000 0.000000e+000 8.316173e-001 1.683827e-001 0.000000e+000 0.000000e+000 0.000000e+000 0.000000e+000 0.000000e+000 0.000000e+000
 0.000000e+000 0.000000e+000 0.000000e+000 5.966986e-001 4.033014e-001 0.000000e+000 0.000000e+000 0.000000e+000 0.000000e+000 0.000000e+000
 0.000000e+000 0.000000e+000 0.000000e+000 0.000000e+000 3.920515e-001 6.079485e-001 0.000000e+000 0.000000e+000 0.000000e+000 0.000000e+000
 0.000000e+000 0.000000e+000 0.000000e+000 0.000000e+000 0.000000e+000 3.153109e-001 6.846890e-001 0.000000e+000 0.000000e+000 0.000000e+000
 0.000000e+000 0.000000e+000 0.000000e+000 0.000000e+000 0.000000e+000 0.000000e+000 8.520684e-001 1.479316e-001 0.000000e+000 0.000000e+000
 0.000000e+000 0.000000e+000 0.000000e+000 0.000000e+000 0.000000e+000 0.000000e+000 0.000000e+000 9.666464e-001 3.335363e-002 0.000000e+000
 0.000000e+000 0.000000e+000 0.000000e+000 0.000000e+000 0.000000e+000 0.000000e+000 0.000000e+000 0.000000e+000 9.635946e-001 3.640540e-002
 0.000000e+000 0.000000e+000 0.000000e+000 0.000000e+000 0.000000e+000 0.000000e+000 0.000000e+000 0.000000e+000 0.000000e+000 0.000000e+000
<ENDHMM>
~h "devet"
<BEGINHMM>
<NUMSTATES> 10
<STATE> 2
<MEAN> 16
 7.356614e+000 8.108826e+000 7.825795e+000 7.262857e+000 6.850370e+000 6.601865e+000 6.586812e+000 6.920972e+000 7.201962e+000 7.443992e+000 7.647486e+000 7.689866e+000 7.878374e+000 8.209902e+000 8.606084e+000 8.952950e+000
<VARIANCE> 16
 2.855040e+000 1.868534e+000 1.746274e+000 2.111838e+000 1.790554e+000 1.320811e+000 9.561487e-001 8.895039e-001 1.000233e+000 8.499090e-001 7.336077e-001 6.472919e-001 6.518476e-001 6.329505e-001 6.562266e-001 8.071893e-001
<GCONST> 3.065626e+001
<STATE> 3
<MEAN> 16
 7.051805e+000 8.304749e+000 8.630248e+000 8.478965e+000 8.093820e+000 7.581887e+000 7.355660e+000 7.695798e+000 8.327600e+000 8.364779e+000 8.522028e+000 8.109758e+000 8.322029e+000 8.466181e+000 8.308696e+000 8.525007e+000
<VARIANCE> 16
 8.796746e-001 1.059482e+000 1.398249e+000 1.340783e+000 1.545897e+000 1.063173e+000 8.242320e-001 8.736740e-001 1.087441e+000 1.037858e+000 1.097662e+000 9.886714e-001 1.091790e+000 1.112622e+000 8.209763e-001 6.323990e-001
<GCONST> 2.987441e+001
<STATE> 4
<MEAN> 16
 6.986794e+000 8.102175e+000 8.209534e+000 8.070251e+000 7.891828e+000 7.828916e+000 7.963444e+000 8.366472e+000 8.599318e+000 8.766138e+000 8.948671e+000 9.028065e+000 9.172233e+000 9.353730e+000 9.468245e+000 9.623873e+000
<VARIANCE> 16
 1.972630e+000 1.881954e+000 1.632410e+000 1.184848e+000 8.299825e-001 7.655814e-001 8.032808e-001 9.046562e-001 8.519677e-001 9.448858e-001 9.809885e-001 9.396172e-001 9.592083e-001 9.817314e-001 1.112129e+000 1.154850e+000
<GCONST> 3.049645e+001
<STATE> 5
<MEAN> 16
 8.344908e+000 9.544359e+000 9.897068e+000 9.511652e+000 8.884430e+000 8.501230e+000 8.451102e+000 8.948133e+000 9.176860e+000 9.258244e+000 9.334067e+000 9.181965e+000 9.115509e+000 8.998753e+000 8.929987e+000 9.156570e+000
<VARIANCE> 16
 1.089575e+000 1.455185e+000 1.144878e+000 9.417761e-001 6.308106e-001 4.162163e-001 4.546033e-001 7.928077e-001 7.398123e-001 7.996565e-001 9.047357e-001 8.473346e-001 9.396958e-001 1.278995e+000 1.229338e+000 9.108877e-001
<GCONST> 2.709077e+001
<STATE> 6
<MEAN> 16
 8.142593e+000 9.335248e+000 9.661705e+000 9.520953e+000 9.126060e+000 8.918267e+000 9.045964e+000 9.662245e+000 9.994232e+000 1.004090e+001 1.009067e+001 1.013016e+001 1.018074e+001 1.005284e+001 9.906196e+000 9.927300e+000
<VARIANCE> 16
 1.860672e+000 1.949028e+000 2.108788e+000 1.922875e+000 1.212038e+000 1.005831e+000 1.277438e+000 1.782375e+000 1.830862e+000 1.987150e+000 2.149654e+000 2.332617e+000 2.186810e+000 2.302322e+000 2.172959e+000 1.959644e+000
<GCONST> 3.908416e+001
<STATE> 7
<MEAN> 16
 8.419534e+000 9.926783e+000 1.046593e+001 1.068014e+001 9.902314e+000 9.485120e+000 9.519781e+000 1.015098e+001 1.073618e+001 1.109953e+001 1.115913e+001 1.074311e+001 1.060152e+001 1.052530e+001 1.014910e+001 9.844131e+000
<VARIANCE> 16
 8.385363e-001 7.262218e-001 9.090401e-001 1.285987e+000 9.486585e-001 7.546813e-001 8.117148e-001 1.059077e+000 1.071663e+000 1.383029e+000 1.424093e+000 1.176647e+000 1.166821e+000 1.830131e+000 1.646438e+000 1.314948e+000
<GCONST> 3.102159e+001
<STATE> 8
<MEAN> 16
 9.284648e+000 1.069365e+001 1.155320e+001 1.185351e+001 1.115044e+001 1.063007e+001 1.087034e+001 1.180171e+001 1.218071e+001 1.233286e+001 1.222668e+001 1.200287e+001 1.173446e+001 1.130291e+001 1.098517e+001 1.082382e+001
<VARIANCE> 16
 9.586937e-001 4.630047e-001 8.329151e-001 8.415853e-001 1.027578e+000 8.126149e-001 9.346037e-001 1.163082e+000 1.067673e+000 1.105871e+000 1.152495e+000 1.182183e+000 1.209483e+000 2.042469e+000 1.899912e+000 2.434230e+000
<GCONST> 3.105288e+001
<STATE> 9
<MEAN> 16
 6.042902e+000 7.104438e+000 7.669211e+000 8.015098e+000 7.986595e+000 7.996727e+000 8.146770e+000 8.645217e+000 8.865905e+000 8.934843e+000 9.045969e+000 9.074230e+000 9.294098e+000 9.479602e+000 9.636285e+000 9.772720e+000
<VARIANCE> 16
 1.391420e+000 1.156360e+000 1.121757e+000 1.180683e+000 1.069068e+000 9.191217e-001 9.390951e-001 1.035314e+000 9.703544e-001 8.365917e-001 8.130124e-001 9.579818e-001 1.157292e+000 1.312025e+000 1.363470e+000 1.375891e+000
<GCONST> 3.070528e+001
<TRANSP> 10
 0.000000e+000 1.000000e+000 0.000000e+000 0.000000e+000 0.000000e+000 0.000000e+000 0.000000e+000 0.000000e+000 0.000000e+000 0.000000e+000
 0.000000e+000 5.284458e-001 4.715542e-001 0.000000e+000 0.000000e+000 0.000000e+000 0.000000e+000 0.000000e+000 0.000000e+000 0.000000e+000
 0.000000e+000 0.000000e+000 6.621060e-001 3.378940e-001 0.000000e+000 0.000000e+000 0.000000e+000 0.000000e+000 0.000000e+000 0.000000e+000
 0.000000e+000 0.000000e+000 0.000000e+000 5.494969e-001 4.505030e-001 0.000000e+000 0.000000e+000 0.000000e+000 0.000000e+000 0.000000e+000
 0.000000e+000 0.000000e+000 0.000000e+000 0.000000e+000 6.695687e-001 3.304313e-001 0.000000e+000 0.000000e+000 0.000000e+000 0.000000e+000
 0.000000e+000 0.000000e+000 0.000000e+000 0.000000e+000 0.000000e+000 1.159306e-001 8.840694e-001 0.000000e+000 0.000000e+000 0.000000e+000
 0.000000e+000 0.000000e+000 0.000000e+000 0.000000e+000 0.000000e+000 0.000000e+000 7.014313e-001 2.985687e-001 0.000000e+000 0.000000e+000
 0.000000e+000 0.000000e+000 0.000000e+000 0.000000e+000 0.000000e+000 0.000000e+000 0.000000e+000 9.671140e-001 3.288598e-002 0.000000e+000
 0.000000e+000 0.000000e+000 0.000000e+000 0.000000e+000 0.000000e+000 0.000000e+000 0.000000e+000 0.000000e+000 9.602611e-001 3.973887e-002
 0.000000e+000 0.000000e+000 0.000000e+000 0.000000e+000 0.000000e+000 0.000000e+000 0.000000e+000 0.000000e+000 0.000000e+000 0.000000e+000
<ENDHMM>
~h "jedna"
<BEGINHMM>
<NUMSTATES> 10
<STATE> 2
<MEAN> 16
 6.777906e+000 7.878061e+000 8.102315e+000 7.797776e+000 7.373616e+000 7.009473e+000 6.625390e+000 6.869358e+000 7.481148e+000 7.721101e+000 7.971362e+000 7.917237e+000 7.879627e+000 7.715740e+000 7.874651e+000 8.416592e+000
<VARIANCE> 16
 1.750429e+000 1.631883e+000 1.651484e+000 1.344859e+000 1.214837e+000 1.178415e+000 1.310154e+000 1.494603e+000 1.667112e+000 1.866094e+000 1.821467e+000 1.842428e+000 1.531861e+000 8.956860e-001 5.667049e-001 4.626727e-001
<GCONST> 3.360771e+001
<STATE> 3
<MEAN> 16
 5.999359e+000 6.994792e+000 7.319747e+000 7.500198e+000 7.637214e+000 7.822184e+000 8.055513e+000 8.369436e+000 8.575353e+000 8.821568e+000 9.097049e+000 9.283891e+000 9.448280e+000 9.570692e+000 9.698036e+000 9.830999e+000
<VARIANCE> 16
 8.734061e-001 9.819731e-001 6.814477e-001 4.031425e-001 2.597567e-001 2.429537e-001 3.338919e-001 3.901481e-001 2.933566e-001 3.535301e-001 4.197598e-001 4.264576e-001 4.574693e-001 5.523615e-001 5.286167e-001 6.084008e-001
<GCONST> 1.666295e+001
<STATE> 4
<MEAN> 16
 7.610211e+000 8.867830e+000 8.832594e+000 8.599049e+000 8.125196e+000 7.875835e+000 7.879497e+000 8.206155e+000 8.756729e+000 9.219573e+000 9.723701e+000 9.837049e+000 9.785267e+000 9.481595e+000 9.377698e+000 9.583586e+000
<VARIANCE> 16
 2.021256e+000 2.313212e+000 2.154218e+000 1.387295e+000 1.017948e+000 8.328400e-001 8.113024e-001 9.504678e-001 9.698417e-001 1.354460e+000 1.423056e+000 1.574005e+000 1.472738e+000 1.749631e+000 1.328957e+000 1.257570e+000
<GCONST> 3.415745e+001
<STATE> 5
<MEAN> 16
 8.214223e+000 9.563704e+000 9.595280e+000 9.193415e+000 8.511368e+000 8.236396e+000 8.217350e+000 8.575570e+000 9.208004e+000 9.784615e+000 1.032511e+001 1.043795e+001 1.028371e+001 9.823050e+000 9.608618e+000 9.800886e+000
<VARIANCE> 16
 1.741504e+000 1.610950e+000 1.825879e+000 1.179817e+000 9.115182e-001 7.591362e-001 6.660690e-001 7.413626e-001 1.000919e+000 1.591586e+000 1.650524e+000 1.842117e+000 1.732948e+000 1.917104e+000 1.471959e+000 1.363161e+000
<GCONST> 3.360588e+001
<STATE> 6
<MEAN> 16
 8.977194e+000 1.004593e+001 1.032559e+001 9.924939e+000 9.014011e+000 8.144972e+000 8.136168e+000 8.872651e+000 9.560211e+000 9.955554e+000 1.024290e+001 1.047364e+001 1.021111e+001 9.736006e+000 9.754766e+000 9.787300e+000
<VARIANCE> 16
 1.104898e+000 6.519962e-001 1.270354e+000 1.050103e+000 1.298585e+000 1.184009e+000 1.150100e+000 1.602413e+000 2.466375e+000 2.561888e+000 2.780813e+000 2.485898e+000 2.214370e+000 1.634422e+000 1.176069e+000 1.276355e+000
<GCONST> 3.587711e+001
<STATE> 7
<MEAN> 16
 8.765182e+000 1.025684e+001 1.055923e+001 1.030706e+001 9.487601e+000 9.096617e+000 9.123620e+000 9.745161e+000 1.042566e+001 1.115067e+001 1.127158e+001 1.112154e+001 1.093336e+001 1.066808e+001 1.025115e+001 1.006035e+001
<VARIANCE> 16
 1.216890e+000 9.158302e-001 1.328353e+000 1.577562e+000 1.326187e+000 1.035116e+000 8.734652e-001 1.244727e+000 1.689373e+000 1.840039e+000 1.957989e+000 1.937657e+000 2.040347e+000 2.073871e+000 1.853444e+000 2.175977e+000
<GCONST> 3.595928e+001
<STATE> 8
<MEAN> 16
 9.294746e+000 1.071828e+001 1.106344e+001 1.126082e+001 1.111477e+001 1.099154e+001 1.123105e+001 1.152298e+001 1.145064e+001 1.147529e+001 1.152083e+001 1.141152e+001 1.115405e+001 1.084188e+001 1.063046e+001 1.055221e+001
<VARIANCE> 16
 1.093847e+000 6.684278e-001 1.000939e+000 1.111387e+000 1.550886e+000 1.716103e+000 1.887044e+000 1.523563e+000 1.470606e+000 1.792887e+000 2.068549e+000 2.001250e+000 1.940930e+000 2.148757e+000 1.965530e+000 2.259688e+000
<GCONST> 3.654356e+001
<STATE> 9
<MEAN> 16
 6.889603e+000 7.774148e+000 7.772482e+000 7.998753e+000 8.370825e+000 8.632412e+000 8.854679e+000 8.849582e+000 8.527575e+000 8.538577e+000 8.711908e+000 8.778307e+000 8.833216e+000 8.962956e+000 9.128468e+000 9.307096e+000
<VARIANCE> 16
 1.822424e+000 1.465535e+000 9.293205e-001 1.012273e+000 1.186303e+000 9.340424e-001 8.334455e-001 6.846573e-001 5.380911e-001 7.443383e-001 6.186992e-001 7.244897e-001 8.295730e-001 8.956721e-001 8.347362e-001 7.915108e-001
<GCONST> 2.744001e+001
<TRANSP> 10
 0.000000e+000 1.000000e+000 0.000000e+000 0.000000e+000 0.000000e+000 0.000000e+000 0.000000e+000 0.000000e+000 0.000000e+000 0.000000e+000
 0.000000e+000 8.148876e-001 1.851124e-001 0.000000e+000 0.000000e+000 0.000000e+000 0.000000e+000 0.000000e+000 0.000000e+000 0.000000e+000
 0.000000e+000 0.000000e+000 8.148537e-001 1.851464e-001 0.000000e+000 0.000000e+000 0.000000e+000 0.000000e+000 0.000000e+000 0.000000e+000
 0.000000e+000 0.000000e+000 0.000000e+000 8.547203e-002 9.145280e-001 0.000000e+000 0.000000e+000 0.000000e+000 0.000000e+000 0.000000e+000
 0.000000e+000 0.000000e+000 0.000000e+000 0.000000e+000 6.640006e-002 9.335999e-001 0.000000e+000 0.000000e+000 0.000000e+000 0.000000e+000
 0.000000e+000 0.000000e+000 0.000000e+000 0.000000e+000 0.000000e+000 5.935557e-001 4.064443e-001 0.000000e+000 0.000000e+000 0.000000e+000
 0.000000e+000 0.000000e+000 0.000000e+000 0.000000e+000 0.000000e+000 0.000000e+000 8.806061e-001 1.193939e-001 0.000000e+000 0.000000e+000
 0.000000e+000 0.000000e+000 0.000000e+000 0.000000e+000 0.000000e+000 0.000000e+000 0.000000e+000 9.705819e-001 2.941806e-002 0.000000e+000
 0.000000e+000 0.000000e+000 0.000000e+000 0.000000e+000 0.000000e+000 0.000000e+000 0.000000e+000 0.000000e+000 9.351735e-001 6.482652e-002
 0.000000e+000 0.000000e+000 0.000000e+000 0.000000e+000 0.000000e+000 0.000000e+000 0.000000e+000 0.000000e+000 0.000000e+000 0.000000e+000
<ENDHMM>
