~o
<STREAMINFO> 1 39
<VECSIZE> 39<NULLD><MFCC_D_A_0><DIAGC>
~h "mj"
<BEGINHMM>
<NUMSTATES> 3
<STATE> 2
<NUMMIXES> 32
<MIXTURE> 1 1.431186e-002
<MEAN> 39
 -7.021478e+000 2.511985e+000 2.067111e+000 -1.053829e+001 -5.829066e+000 -1.144042e+001 -1.341464e+001 -4.947076e+000 -1.239603e-002 3.428751e+000 -3.890440e+000 -1.237808e+000 7.004320e+001 -3.091190e+000 1.771309e+000 -2.583874e-002 2.254238e+000 1.486101e+000 -1.223390e+000 3.422063e+000 -7.734495e-001 2.136804e+000 -1.667092e+000 1.249888e+000 1.188442e-001 -6.058079e-001 -9.453634e-001 -4.938649e-001 -4.288581e-001 6.511696e-002 -2.777512e-003 1.860866e-001 4.454951e-001 2.976220e-001 1.518988e-001 3.261013e-003 3.684422e-001 -6.449988e-002 3.001073e-001
<VARIANCE> 39
 1.148513e+001 1.927679e+001 5.654776e+001 3.236076e+001 6.154446e+001 7.734116e+001 4.326894e+001 3.797901e+001 4.987309e+001 3.270805e+001 4.546584e+001 3.439040e+001 8.083187e+000 1.624937e+000 2.627891e+000 2.595092e+000 2.244494e+000 3.293672e+000 3.863201e+000 3.378523e+000 4.575056e+000 3.291712e+000 2.574419e+000 3.485022e+000 3.707961e+000 4.720321e-001 2.177279e-001 2.312151e-001 2.736585e-001 4.909584e-001 5.262927e-001 5.378262e-001 7.022831e-001 5.277716e-001 5.624981e-001 4.646285e-001 5.918289e-001 3.880674e-001 6.309431e-002
<GCONST> 1.169169e+002
<MIXTURE> 2 2.567641e-002
<MEAN> 39
 -2.267430e+000 -4.790726e+000 -4.215268e+000 -1.598743e+001 -4.458882e+000 -5.517301e+000 -2.001531e+001 -2.971393e+000 -3.698650e-001 9.617826e+000 -5.480520e+000 -3.997889e+000 7.251687e+001 -1.801975e-001 1.899344e+000 4.213392e-001 1.716880e+000 3.973606e-001 -5.703112e-001 1.553215e+000 -1.079517e+000 1.063667e-001 -8.529992e-001 9.886013e-001 5.817274e-002 -2.055638e+000 -4.165057e-001 1.394439e-001 -1.190104e-001 5.555265e-001 -2.153772e-001 -4.829508e-002 8.354418e-001 3.853521e-003 4.346105e-001 -6.276912e-001 3.673301e-001 -6.444940e-002 -4.094390e-001
<VARIANCE> 39
 7.588726e+000 1.930752e+001 3.818011e+001 3.982382e+001 3.351888e+001 9.111536e+001 5.848363e+001 4.589199e+001 3.644775e+001 3.514964e+001 5.244975e+001 2.946629e+001 1.002958e+001 1.107346e+000 1.344726e+000 1.603873e+000 2.230621e+000 2.806345e+000 3.214904e+000 2.920764e+000 3.258264e+000 3.461242e+000 2.349958e+000 2.522173e+000 2.240152e+000 1.435097e+000 3.017155e-001 3.640910e-001 3.542144e-001 5.089202e-001 5.467066e-001 8.675534e-001 8.566486e-001 6.548343e-001 6.322515e-001 4.686648e-001 6.365110e-001 4.660681e-001 2.364043e-001
<GCONST> 1.179094e+002
<MIXTURE> 3 3.897402e-002
<MEAN> 39
 -1.801482e+000 2.608802e-001 3.001545e+000 -5.277239e+000 -1.019540e+001 -9.643518e+000 -1.251139e+001 -2.959445e+000 -4.930523e+000 3.160371e+000 8.201911e-001 -7.029191e+000 6.411982e+001 1.910338e-001 8.722222e-001 -1.040544e+000 1.188970e+000 8.256611e-001 6.023276e-001 1.130803e+000 -2.724598e-001 9.723654e-001 -6.270293e-001 -1.472393e-001 -6.337929e-003 -2.025684e+000 -3.955865e-001 -3.851659e-001 5.585177e-002 -3.141586e-001 -2.138744e-001 5.372907e-002 1.486689e-002 4.396085e-002 5.272221e-002 1.795073e-002 -1.238912e-002 2.784053e-001 3.533300e-001
<VARIANCE> 39
 1.031018e+001 2.031571e+001 3.310997e+001 2.838209e+001 2.996290e+001 4.602863e+001 4.231825e+001 3.522112e+001 3.491206e+001 2.942700e+001 2.609281e+001 3.216974e+001 1.338290e+001 9.954813e-001 1.305239e+000 2.302003e+000 2.038094e+000 2.768595e+000 2.895743e+000 3.047703e+000 2.898975e+000 2.948849e+000 2.225644e+000 2.392626e+000 2.651838e+000 1.619376e+000 1.374888e-001 2.168462e-001 3.266509e-001 2.913075e-001 3.934410e-001 3.890838e-001 4.298747e-001 5.138590e-001 4.720101e-001 4.146949e-001 3.545341e-001 4.005377e-001 1.732596e-001
<GCONST> 1.103562e+002
<MIXTURE> 4 2.339738e-002
<MEAN> 39
 -1.865360e+001 -2.188947e+000 -3.221851e+000 -7.583829e+000 -3.596913e+000 -1.093476e+001 -4.542414e+000 -2.452822e+000 3.908163e+000 2.219899e+000 -2.160604e+000 -1.146820e+000 6.611380e+001 2.639128e-002 -4.251124e-002 -3.271456e-001 2.718762e-001 1.544005e-001 3.971875e-001 4.589995e-001 2.287109e-001 2.403425e-002 6.679877e-002 3.282494e-002 -2.237930e-002 -8.206100e-001 3.733029e-001 -2.393321e-002 2.090384e-002 2.849156e-002 -1.113362e-001 1.722409e-001 3.012509e-002 5.466862e-002 -1.251806e-001 -3.079258e-002 9.768094e-002 -1.945517e-003 -1.662163e-001
<VARIANCE> 39
 7.542627e+001 3.924680e+001 4.400707e+001 1.982898e+001 4.799274e+001 4.049096e+001 4.049458e+001 3.820033e+001 3.563092e+001 3.033888e+001 3.778002e+001 1.865884e+001 3.169256e+001 1.135805e+000 9.191565e-001 9.976643e-001 1.071819e+000 1.358251e+000 1.781940e+000 1.698510e+000 1.498785e+000 1.826398e+000 1.501280e+000 1.979102e+000 1.357173e+000 1.152739e+000 1.430068e-001 1.770288e-001 1.639691e-001 2.025212e-001 2.922343e-001 3.458802e-001 3.614328e-001 2.712355e-001 3.766442e-001 3.488890e-001 4.347039e-001 2.845288e-001 8.151191e-002
<GCONST> 1.041029e+002
<MIXTURE> 5 4.292168e-002
<MEAN> 39
 -4.241878e+000 -8.866725e+000 2.745499e+000 -1.141690e+001 -1.357541e+001 -1.578564e+001 -1.295961e+001 6.752080e+000 -2.730345e+000 4.674037e+000 -4.990850e+000 -8.266941e-001 7.503180e+001 1.349873e-001 5.140865e-001 7.819875e-002 4.059192e-001 3.991561e-001 -1.864754e-001 2.896025e-001 -3.120156e-001 -1.031734e-001 9.963976e-002 -1.060143e-001 5.340160e-002 -6.873540e-001 -1.158653e-002 4.096462e-001 -5.640889e-002 3.273526e-001 2.087391e-001 3.532113e-001 -7.570346e-002 -6.882477e-001 1.587338e-001 -1.115163e-001 2.401908e-001 -3.008685e-001 -4.484197e-001
<VARIANCE> 39
 4.396447e+000 1.639657e+001 2.899107e+001 1.678981e+001 3.313403e+001 2.829372e+001 4.134380e+001 2.641699e+001 4.382350e+001 2.533938e+001 4.326016e+001 1.784310e+001 1.007641e+001 4.580858e-001 1.444589e+000 2.302911e+000 1.578744e+000 2.617698e+000 2.044720e+000 2.657706e+000 2.883734e+000 3.151988e+000 1.985148e+000 2.612332e+000 1.848590e+000 9.269883e-001 1.104471e-001 2.228472e-001 2.605115e-001 2.728014e-001 3.534119e-001 3.248243e-001 4.322549e-001 5.162091e-001 3.973164e-001 3.217563e-001 4.012195e-001 2.877559e-001 1.557100e-001
<GCONST> 1.037894e+002
<MIXTURE> 6 2.645785e-002
<MEAN> 39
 -5.001135e+000 -7.075134e+000 8.503669e+000 -7.506840e+000 -1.546911e+001 -1.802800e+001 -1.509600e+001 1.556252e+000 -7.867444e+000 2.813380e+000 1.632347e+000 -1.625297e+000 7.354079e+001 1.868667e-001 -6.601343e-001 9.632710e-001 -7.264318e-001 -1.198768e+000 -3.636879e-001 -2.269228e-001 8.865391e-001 -1.150967e+000 9.094772e-001 6.013631e-001 -5.451839e-002 6.705949e-001 -2.938075e-001 5.048282e-001 -4.779115e-001 1.720623e-001 4.210407e-001 7.441187e-001 5.393198e-001 -6.115210e-001 5.502056e-001 8.685731e-002 -1.728441e-001 -3.017988e-001 -5.750988e-001
<VARIANCE> 39
 5.408332e+000 1.786485e+001 2.113513e+001 2.764874e+001 2.459313e+001 2.366331e+001 4.767363e+001 2.027070e+001 3.753806e+001 2.445422e+001 2.752211e+001 2.315986e+001 1.020473e+001 2.039989e+000 2.298032e+000 5.088789e+000 2.262734e+000 4.784577e+000 2.723697e+000 4.854634e+000 4.178485e+000 5.436540e+000 2.829430e+000 2.636594e+000 2.119063e+000 1.822317e+000 4.403943e-001 3.433887e-001 3.402820e-001 5.082778e-001 6.357513e-001 4.525028e-001 8.869491e-001 5.892923e-001 5.763813e-001 5.157578e-001 4.313754e-001 3.505793e-001 2.381187e-001
<GCONST> 1.160051e+002
<MIXTURE> 7 1.849638e-002
<MEAN> 39
 -1.065019e+001 -4.468915e+000 -8.821100e+000 -6.440651e+000 -6.128741e+000 -3.525110e+000 -3.770860e+000 -1.981279e+000 -5.214049e-001 -1.498735e+000 -1.993138e+000 -1.937969e+000 5.069831e+001 -2.979506e-002 6.946611e-003 -2.825327e-003 1.950860e-002 1.643137e-002 2.056424e-001 2.437894e-001 2.830418e-001 2.719774e-001 2.952904e-001 2.917299e-001 1.631353e-001 -6.838546e-002 8.515535e-002 1.524252e-001 1.676856e-001 1.568028e-001 4.384298e-003 -1.436052e-001 -6.020701e-002 8.659273e-002 1.028921e-001 1.725445e-001 1.179006e-001 8.892030e-003 7.374158e-002
<VARIANCE> 39
 2.542865e+000 4.895409e+000 1.097100e+001 7.627069e+000 8.851337e+000 9.869987e+000 8.318439e+000 9.837254e+000 1.403801e+001 1.175501e+001 1.567381e+001 1.157429e+001 2.096523e+000 1.940961e-001 3.449590e-001 5.365449e-001 7.116777e-001 8.921353e-001 1.217413e+000 1.115064e+000 1.479312e+000 1.509677e+000 1.296993e+000 1.293485e+000 1.272851e+000 6.706604e-002 4.402711e-002 8.383098e-002 1.509357e-001 1.609139e-001 1.948819e-001 2.122582e-001 1.937207e-001 2.088907e-001 3.103263e-001 2.554917e-001 3.196668e-001 2.353024e-001 2.304805e-002
<GCONST> 6.932815e+001
<MIXTURE> 8 3.185919e-002
<MEAN> 39
 -2.569240e+001 -3.325620e+000 6.764026e-001 -8.417577e+000 -8.409970e+000 -1.105707e+001 -2.982921e+000 -3.869491e+000 3.828214e+000 5.673835e-001 1.448452e+000 8.933451e-001 7.119623e+001 -9.785137e-001 -2.393459e-001 -2.824021e-002 -8.408420e-002 -5.634078e-002 -3.166244e-001 6.126863e-001 6.738147e-001 2.037044e-001 2.331946e-002 -5.974543e-002 4.111972e-001 2.917654e-001 1.155561e+000 2.176572e-001 2.897903e-002 3.090653e-001 1.493005e-001 1.112280e-001 -3.026149e-001 4.516993e-002 -2.619746e-001 7.542149e-002 -2.345750e-001 -3.156600e-001 -6.839808e-001
<VARIANCE> 39
 1.585586e+001 2.354176e+001 7.666506e+001 3.594576e+001 5.346146e+001 5.713690e+001 3.604461e+001 3.514770e+001 2.592400e+001 2.401057e+001 1.854389e+001 1.916695e+001 1.055594e+001 3.418172e+000 2.250173e+000 2.414247e+000 2.677482e+000 3.080763e+000 4.144762e+000 2.799684e+000 2.831278e+000 2.588002e+000 2.261574e+000 1.879120e+000 1.902123e+000 2.490931e+000 3.293873e-001 2.978568e-001 5.863478e-001 4.465413e-001 5.888600e-001 8.810458e-001 5.549556e-001 7.242500e-001 5.045108e-001 4.237562e-001 4.027514e-001 3.805812e-001 2.656008e-001
<GCONST> 1.178570e+002
<MIXTURE> 9 4.590975e-002
<MEAN> 39
 1.118474e+000 -1.043948e+000 -6.226525e+000 -1.925652e+001 -8.906794e+000 2.805938e+000 -1.472159e+001 -8.769721e+000 -7.153693e+000 4.659479e+000 8.334256e-001 3.368386e-001 6.969563e+001 4.349232e-001 3.174786e-001 1.909402e-001 -5.463978e-001 -1.466973e-001 6.065028e-001 -6.381717e-001 -6.711065e-002 -1.938977e-001 1.291070e-001 2.784576e-001 -3.738781e-002 2.178574e-002 -4.602995e-001 -2.466239e-001 1.165540e-001 8.036322e-001 3.350840e-001 -5.560256e-001 1.048627e-001 2.693837e-001 5.571299e-001 -1.118620e-002 -7.493934e-002 -4.697156e-001 -2.047047e-001
<VARIANCE> 39
 5.612639e+000 1.662206e+001 1.677050e+001 3.799391e+001 3.703008e+001 3.185767e+001 3.727461e+001 3.551979e+001 4.924109e+001 5.527628e+001 2.984459e+001 3.077651e+001 1.253505e+001 1.471187e+000 2.370043e+000 2.017634e+000 7.161670e+000 4.386554e+000 4.108986e+000 4.930676e+000 3.694308e+000 4.304818e+000 4.563251e+000 3.337273e+000 3.641575e+000 2.189219e+000 2.336795e-001 2.787735e-001 3.562358e-001 6.650147e-001 6.065281e-001 5.232638e-001 6.511486e-001 6.182184e-001 6.859325e-001 6.629110e-001 5.514358e-001 4.866852e-001 2.306541e-001
<GCONST> 1.203651e+002
<MIXTURE> 10 4.035845e-002
<MEAN> 39
 -1.013589e+001 -3.326791e+000 -8.212758e+000 -4.873022e+000 -5.394974e+000 -2.832267e+000 -2.115613e+000 3.202219e-001 7.950218e-001 2.210747e-001 -8.722475e-001 -1.664433e+000 5.013304e+001 8.356038e-003 3.253775e-002 1.613441e-002 4.947967e-002 6.288194e-002 1.150845e-001 1.079736e-001 8.893146e-002 5.425138e-002 1.404847e-001 9.641111e-002 1.119732e-001 -2.211818e-002 1.620931e-002 1.519110e-002 -8.007781e-003 -7.869440e-002 -1.106919e-001 -1.811845e-001 -2.664917e-001 -2.697278e-001 -1.457376e-001 -1.027697e-001 -6.877830e-002 -3.002963e-002 2.296424e-002
<VARIANCE> 39
 1.165742e+000 3.169758e+000 4.873684e+000 5.327452e+000 7.585805e+000 9.780231e+000 8.686584e+000 1.024629e+001 1.089266e+001 1.104102e+001 1.153650e+001 1.017594e+001 7.351649e-001 1.151898e-001 2.405972e-001 4.786347e-001 5.887550e-001 8.683798e-001 1.008953e+000 1.156677e+000 1.234486e+000 1.383494e+000 1.342673e+000 1.283468e+000 1.105278e+000 3.926116e-002 2.211151e-002 4.182961e-002 7.982191e-002 1.053754e-001 1.579853e-001 1.681425e-001 2.036275e-001 2.065196e-001 2.478349e-001 2.469476e-001 2.264946e-001 2.333408e-001 7.061650e-003
<GCONST> 5.813898e+001
<MIXTURE> 11 3.207227e-002
<MEAN> 39
 -7.348708e+000 -1.145203e+000 1.376965e+001 -8.140696e+000 -2.059524e+001 -1.304239e+001 -1.114578e+001 -3.672704e+000 -1.146347e+001 4.254026e+000 3.757561e+000 -7.532925e+000 7.035861e+001 5.114743e-001 5.850790e-001 -1.713491e+000 1.101550e+000 1.407091e+000 -3.984694e-001 1.070504e+000 1.441794e-001 1.167191e+000 -3.371391e-001 -5.556283e-001 3.555052e-001 -1.324386e+000 -5.696074e-002 4.786976e-002 -7.637967e-001 2.585112e-001 8.490989e-001 2.007143e-001 1.183633e-001 -1.579706e-002 7.194184e-001 -2.835193e-001 -2.907003e-001 2.032739e-001 -3.752622e-001
<VARIANCE> 39
 8.936777e+000 2.556059e+001 2.776948e+001 2.624966e+001 2.889396e+001 4.582856e+001 4.652076e+001 3.711594e+001 3.894197e+001 3.400337e+001 2.864412e+001 3.776081e+001 1.472872e+001 1.091470e+000 2.292090e+000 2.484043e+000 1.790188e+000 2.619297e+000 3.016095e+000 3.735645e+000 3.070861e+000 2.840649e+000 2.407541e+000 2.221446e+000 2.244117e+000 1.480945e+000 2.502268e-001 2.823325e-001 3.799715e-001 3.913004e-001 5.352181e-001 6.593661e-001 8.325943e-001 5.446992e-001 6.026596e-001 5.337788e-001 3.924563e-001 4.639396e-001 1.566164e-001
<GCONST> 1.149650e+002
<MIXTURE> 12 3.232202e-002
<MEAN> 39
 -1.689235e+000 -9.448527e+000 -1.145456e+001 -2.027090e+001 -6.864767e-001 3.855211e+000 -1.717041e+001 1.647883e+000 3.508207e+000 5.813112e+000 -8.903840e+000 -6.085955e+000 7.498412e+001 6.436674e-002 1.148231e-001 -8.096758e-002 -9.761307e-002 2.171708e-001 1.092107e-001 -4.780275e-002 2.426310e-002 -8.087979e-002 8.233532e-002 -1.981626e-001 2.739895e-001 -1.836136e-001 -6.907609e-003 1.640880e-001 1.832892e-001 2.323117e-001 -2.557043e-001 -2.644994e-001 1.654450e-002 -1.209553e-001 -6.815312e-002 1.694695e-002 1.299869e-001 9.143027e-002 -1.376904e-001
<VARIANCE> 39
 3.769411e+000 1.966807e+001 1.421699e+001 2.707937e+001 3.247136e+001 4.641170e+001 4.004103e+001 3.807850e+001 2.347438e+001 2.482156e+001 3.754860e+001 2.283548e+001 1.050384e+001 1.911028e-001 6.246893e-001 8.047309e-001 1.133924e+000 1.622491e+000 1.940542e+000 1.539244e+000 1.699960e+000 1.341737e+000 1.153752e+000 1.551957e+000 1.144080e+000 1.993383e-001 3.368273e-002 9.547043e-002 1.317925e-001 1.640002e-001 2.063013e-001 2.263681e-001 2.431770e-001 2.810509e-001 2.766735e-001 2.011404e-001 2.694851e-001 2.035227e-001 3.897082e-002
<GCONST> 8.698913e+001
<MIXTURE> 13 3.948792e-002
<MEAN> 39
 -1.288099e+001 -9.151101e+000 -6.808187e+000 -9.254458e+000 -3.222266e+000 -1.007777e+001 -5.976114e+000 -4.713758e+000 -2.975003e-002 4.480320e+000 -2.157433e-001 -9.839088e-001 6.666539e+001 -2.849740e-001 -5.050775e-001 2.102653e-001 -8.587957e-001 1.365090e-001 3.497355e-002 -4.353409e-001 -9.510658e-001 -2.103756e-001 3.097680e-001 1.365897e-002 2.001779e-001 2.280025e+000 7.624651e-001 9.396695e-001 6.292233e-001 8.670272e-003 -6.794319e-001 3.172019e-001 -4.696698e-001 1.315901e-001 -2.098287e-001 -1.179051e-001 -1.594550e-003 -2.321666e-001 -3.586718e-001
<VARIANCE> 39
 3.035723e+001 2.317553e+001 5.163717e+001 4.697362e+001 5.105663e+001 5.702290e+001 3.996853e+001 3.789340e+001 4.147095e+001 3.635695e+001 2.676130e+001 2.158568e+001 2.026352e+001 6.011002e+000 3.705909e+000 5.024173e+000 4.527705e+000 5.454174e+000 5.816391e+000 4.558483e+000 3.629996e+000 4.713202e+000 3.673717e+000 3.107512e+000 2.911651e+000 5.515315e+000 5.293850e-001 4.628833e-001 8.582245e-001 8.925225e-001 1.062861e+000 8.901500e-001 9.695472e-001 8.199612e-001 7.568122e-001 6.644881e-001 6.941354e-001 5.867311e-001 4.904903e-001
<GCONST> 1.330098e+002
<MIXTURE> 14 4.001712e-002
<MEAN> 39
 -2.873002e+000 1.561529e+000 -1.219789e+000 -5.925714e+000 -7.706189e+000 -7.006639e+000 -9.227748e+000 -2.696326e+000 1.179509e-001 2.440140e+000 -1.189823e+000 -4.939424e+000 5.979215e+001 -7.902057e-001 -3.088506e-001 -7.564668e-001 4.027078e-001 2.370594e-001 -2.420439e-003 8.898261e-001 1.955863e-001 6.132023e-001 -4.012900e-001 2.676715e-001 4.553565e-001 -1.047133e+000 -5.451639e-001 -7.571937e-001 1.047080e-001 -5.077633e-001 -1.036205e-001 -3.074451e-001 -3.189215e-001 -1.626671e-001 -3.499105e-001 1.932605e-001 8.945585e-002 1.796931e-001 1.147195e+000
<VARIANCE> 39
 1.580457e+001 2.319791e+001 4.205038e+001 3.257241e+001 2.954713e+001 4.761443e+001 3.793945e+001 3.336926e+001 4.181746e+001 3.178016e+001 3.201655e+001 2.522050e+001 1.039793e+001 1.536036e+000 1.859074e+000 2.222810e+000 2.022639e+000 2.522776e+000 3.034077e+000 2.749704e+000 2.411528e+000 3.030222e+000 1.947263e+000 2.211792e+000 1.988711e+000 2.593893e+000 3.363983e-001 3.182299e-001 4.224107e-001 3.483544e-001 5.900070e-001 5.738178e-001 6.211166e-001 5.438867e-001 7.338911e-001 4.912280e-001 5.745971e-001 4.140796e-001 2.668543e-001
<GCONST> 1.160172e+002
<MIXTURE> 15 2.283828e-002
<MEAN> 39
 -7.046640e+000 -4.201918e-001 -1.201921e+000 -8.462545e+000 -6.585382e+000 -1.368581e+001 -1.504108e+001 -5.913192e+000 2.724144e+000 2.342782e+000 -4.353988e+000 -3.889309e+000 7.143668e+001 3.314176e+000 -6.891772e-001 3.284702e-001 -1.688830e+000 -1.063516e+000 5.428826e-001 -3.653849e+000 1.907911e-001 -4.485616e-001 1.473383e+000 -7.231942e-001 -1.142482e+000 1.256492e+000 -6.005889e-001 -3.913377e-001 -2.833000e-001 -1.821400e-001 -4.183147e-002 5.100430e-001 5.699693e-001 4.326866e-001 -1.071392e-001 9.408635e-002 3.443053e-001 1.968707e-001 -2.209173e-001
<VARIANCE> 39
 1.408041e+001 2.447462e+001 2.563942e+001 2.813737e+001 2.829902e+001 3.749385e+001 4.510627e+001 3.426825e+001 3.145818e+001 2.716362e+001 2.339397e+001 2.196618e+001 1.401494e+001 2.469946e+000 2.965501e+000 3.220503e+000 3.286679e+000 3.117404e+000 4.712292e+000 4.622169e+000 5.341396e+000 3.681865e+000 2.341347e+000 3.953919e+000 2.788097e+000 1.344409e+000 5.548331e-001 2.957052e-001 2.776703e-001 4.248456e-001 3.889584e-001 4.583367e-001 7.572305e-001 5.752986e-001 5.145430e-001 4.359834e-001 4.106820e-001 3.713017e-001 3.179580e-001
<GCONST> 1.181167e+002
<MIXTURE> 16 2.386197e-002
<MEAN> 39
 -2.410727e+001 6.859714e+000 -4.918335e+000 -4.378993e+000 -2.155357e+000 -1.417348e+001 6.429185e-001 -5.216045e+000 3.978090e+000 -1.418492e+000 1.365294e+000 8.971487e-001 7.021745e+001 -1.763595e+000 -3.955986e-001 -1.108280e+000 -4.265343e-004 3.479952e-001 2.884303e-001 8.559366e-001 4.475034e-001 3.278804e-001 -1.982316e-001 2.894053e-001 4.180290e-001 2.566968e-001 8.694983e-001 -4.889595e-001 4.327262e-001 -3.442012e-001 -3.779247e-001 -2.031343e-002 -6.769350e-001 9.385091e-002 -3.161459e-001 3.069571e-001 -2.965157e-001 -5.705354e-002 -6.748334e-002
<VARIANCE> 39
 1.896455e+001 1.701712e+001 2.745045e+001 1.704258e+001 2.037940e+001 2.323236e+001 2.561537e+001 2.084325e+001 2.876194e+001 2.106499e+001 1.533194e+001 1.976895e+001 6.764401e+000 3.044718e+000 1.168957e+000 2.244759e+000 1.587533e+000 1.815016e+000 2.223346e+000 2.326407e+000 1.950905e+000 2.019475e+000 1.837717e+000 2.130389e+000 1.755578e+000 7.508596e-001 2.130326e-001 2.343509e-001 2.467716e-001 2.659127e-001 3.562133e-001 4.293999e-001 5.400313e-001 3.722910e-001 4.120329e-001 3.627374e-001 3.515107e-001 3.356981e-001 8.377005e-002
<GCONST> 1.021463e+002
<MIXTURE> 17 3.690910e-002
<MEAN> 39
 -2.664711e+000 -8.793721e+000 -9.494187e+000 -1.877315e+001 -3.925571e+000 -1.117943e+000 -1.891426e+001 -1.902082e-001 3.679663e+000 8.463647e+000 -7.882781e+000 -7.305129e+000 7.566899e+001 3.734579e-001 1.250466e-001 -2.102365e-001 -3.922854e-001 2.977306e-001 5.866859e-001 -3.252601e-001 -3.326964e-003 -2.414284e-001 5.401070e-001 -1.612796e-001 2.396729e-002 4.093632e-002 -1.501127e-001 4.545392e-001 4.533396e-001 7.741846e-001 -2.732645e-001 -3.642183e-001 5.526849e-001 -3.847609e-001 -2.843871e-001 -4.625575e-001 4.950900e-001 2.899369e-001 -6.701965e-001
<VARIANCE> 39
 6.455197e+000 2.053729e+001 1.709152e+001 2.634748e+001 2.917375e+001 6.124101e+001 5.203162e+001 3.965086e+001 3.155795e+001 3.259890e+001 4.957140e+001 2.159149e+001 1.055723e+001 8.227413e-001 2.465105e+000 2.008088e+000 3.568881e+000 3.698294e+000 5.333051e+000 3.524009e+000 4.874134e+000 3.739234e+000 2.711725e+000 4.509281e+000 2.383947e+000 2.128635e+000 1.816491e-001 2.500510e-001 2.614734e-001 3.657500e-001 4.399073e-001 5.250025e-001 6.397555e-001 7.086731e-001 5.897767e-001 4.743038e-001 5.801619e-001 4.281753e-001 2.499907e-001
<GCONST> 1.162632e+002
<MIXTURE> 18 2.967438e-002
<MEAN> 39
 -2.958748e+000 -9.409999e+000 -2.707406e+000 -1.014866e+001 -1.127308e+001 -8.119317e+000 -1.979795e+001 1.387581e+000 5.432164e+000 3.422974e+000 -6.845130e+000 -5.430531e+000 7.463319e+001 7.172026e-002 -7.166576e-001 -7.633479e-001 -1.246516e+000 6.064362e-001 3.717262e-001 -3.311034e-001 1.804309e+000 2.113190e-001 4.599762e-001 -1.025416e+000 3.018087e-002 7.012962e-001 -8.872323e-002 4.564671e-001 1.075134e-002 -1.668762e-002 2.432609e-001 5.555938e-002 5.510441e-001 -4.432362e-001 -6.902000e-001 1.765373e-001 3.906499e-001 4.313214e-002 -3.513096e-001
<VARIANCE> 39
 6.128989e+000 1.853798e+001 2.729682e+001 2.342049e+001 3.323257e+001 3.897383e+001 4.793652e+001 5.419011e+001 3.769199e+001 3.928785e+001 3.869237e+001 2.279979e+001 1.162276e+001 8.844494e-001 1.579248e+000 3.224975e+000 2.879085e+000 3.982642e+000 5.206304e+000 4.446544e+000 6.046778e+000 5.044021e+000 3.150183e+000 3.363165e+000 3.442151e+000 1.183893e+000 1.765645e-001 2.173350e-001 3.405238e-001 4.261364e-001 5.866885e-001 5.388407e-001 6.085216e-001 8.652022e-001 6.204503e-001 5.125030e-001 5.726843e-001 4.627954e-001 1.641403e-001
<GCONST> 1.174400e+002
<MIXTURE> 19 3.335996e-002
<MEAN> 39
 -8.400133e+000 1.189407e+000 1.587603e+001 -1.108411e+001 -2.004364e+001 -7.819074e+000 -1.438036e+001 -4.499187e+000 -1.101069e+001 3.328350e+000 4.055004e+000 -1.071645e+001 7.038094e+001 -8.310512e-002 2.050420e-001 1.849353e-001 -1.889835e-001 -4.906729e-001 4.356898e-001 9.415256e-002 -2.164002e-001 1.412725e-001 8.157319e-002 -9.905100e-002 -1.346830e-001 -1.065253e-001 1.078023e-001 -4.863047e-002 -4.027764e-001 3.413523e-001 3.331999e-001 -3.519817e-001 2.789858e-001 4.064953e-002 1.737098e-001 -9.567662e-002 -1.185964e-001 2.669794e-001 -1.396237e-001
<VARIANCE> 39
 8.708244e+000 2.467554e+001 3.473505e+001 2.245086e+001 2.912766e+001 2.794814e+001 3.329069e+001 2.793107e+001 2.743149e+001 3.293746e+001 2.900115e+001 3.891792e+001 1.136102e+001 3.152909e-001 9.128315e-001 1.388633e+000 1.309503e+000 1.854184e+000 1.579732e+000 1.783848e+000 1.565840e+000 1.437698e+000 1.266813e+000 1.423400e+000 1.606721e+000 3.051748e-001 8.857473e-002 1.215625e-001 2.463803e-001 2.724983e-001 3.354888e-001 3.237284e-001 3.632556e-001 3.275061e-001 3.171686e-001 2.548667e-001 2.820220e-001 2.667908e-001 5.091899e-002
<GCONST> 9.554197e+001
<MIXTURE> 20 3.355237e-002
<MEAN> 39
 -2.594696e+001 -1.602286e+000 -1.609911e+000 -6.634269e+000 -4.900184e+000 -1.170574e+001 4.376276e-002 -2.038153e+000 4.445862e+000 7.518802e-001 6.241541e-001 9.603357e-001 7.026196e+001 1.583207e+000 -5.536091e-002 5.319865e-001 4.109360e-001 -4.605058e-001 -3.270530e-002 -8.279610e-001 -2.741470e-001 -5.590927e-001 -6.100646e-003 -6.212233e-001 -3.541707e-001 -6.233737e-001 1.196984e+000 3.675906e-001 3.678111e-001 2.879783e-003 -2.958337e-001 -7.228804e-002 -8.614777e-001 -3.891545e-001 -4.291257e-001 3.492842e-003 -1.258259e-001 -3.099101e-001 -1.304258e-001
<VARIANCE> 39
 1.185455e+001 3.468960e+001 6.804692e+001 3.009388e+001 5.610334e+001 3.480570e+001 3.508332e+001 2.536995e+001 2.627557e+001 2.057574e+001 1.581859e+001 2.117286e+001 7.586029e+000 3.719231e+000 2.014728e+000 2.809923e+000 1.969097e+000 2.106459e+000 2.647256e+000 2.674109e+000 2.133846e+000 2.334680e+000 1.784158e+000 1.736875e+000 1.672475e+000 1.053393e+000 2.891757e-001 3.073365e-001 3.711144e-001 3.811345e-001 4.070897e-001 5.573754e-001 5.699251e-001 4.171635e-001 4.848016e-001 3.899347e-001 3.653554e-001 3.685391e-001 1.937800e-001
<GCONST> 1.109441e+002
<MIXTURE> 21 4.023094e-002
<MEAN> 39
 -2.570866e-001 -6.151527e+000 -2.044565e+000 -8.619154e+000 -1.148973e+001 -2.193125e+000 -2.320747e+001 -1.140252e+001 -1.401789e+000 7.267212e+000 3.413655e+000 -8.402965e+000 7.123021e+001 6.083253e-002 -1.760330e-001 3.564761e-001 4.390400e-001 -2.108306e-001 -1.614385e-001 -5.973485e-001 2.941525e-001 2.482080e-001 4.277993e-002 -1.404751e-001 -1.964824e-001 -2.583594e-002 -3.114880e-001 2.028747e-001 -2.751713e-002 -2.443652e-001 2.683527e-001 -3.767092e-001 7.786517e-001 7.398267e-001 -4.960860e-002 -4.395781e-001 -4.819364e-001 4.898237e-001 -9.632194e-002
<VARIANCE> 39
 6.833667e+000 2.311542e+001 2.749127e+001 4.738004e+001 3.881184e+001 4.905904e+001 4.364313e+001 5.569841e+001 6.619482e+001 4.377342e+001 4.410051e+001 3.725136e+001 1.095204e+001 1.180028e+000 2.085966e+000 2.787488e+000 6.971683e+000 4.491812e+000 6.867837e+000 5.336882e+000 6.335229e+000 6.209958e+000 3.858197e+000 4.859113e+000 3.416556e+000 1.533559e+000 2.053064e-001 3.193451e-001 4.135443e-001 8.778669e-001 7.978430e-001 7.241794e-001 9.596869e-001 8.509864e-001 1.055680e+000 6.720815e-001 9.062130e-001 6.447600e-001 2.519743e-001
<GCONST> 1.275117e+002
<MIXTURE> 22 4.231220e-002
<MEAN> 39
 -8.474257e+000 -1.078527e+000 -4.780292e+000 -7.277821e+000 -7.832240e+000 -7.235411e+000 -6.406620e+000 -2.203124e+000 1.741170e-001 1.813009e+000 3.037797e-001 -2.276546e+000 5.583968e+001 -1.622584e+000 -1.658262e+000 -3.614919e-001 -6.017820e-001 6.838629e-001 -5.909557e-001 4.225221e-001 -5.367709e-001 2.084640e-001 3.996444e-002 -1.542523e-001 5.944088e-001 2.052301e+000 -2.268684e-001 -1.853610e-001 3.427458e-001 -2.506875e-001 6.856395e-002 -2.088065e-001 -2.331443e-001 -2.441448e-001 -4.338699e-002 1.506837e-001 -1.273739e-001 -4.077866e-002 1.294228e+000
<VARIANCE> 39
 2.461394e+001 1.503936e+001 3.310008e+001 2.658628e+001 3.097002e+001 3.347768e+001 3.486742e+001 2.471960e+001 3.422707e+001 2.385938e+001 2.203966e+001 1.984820e+001 1.116071e+001 3.653420e+000 3.053349e+000 4.464898e+000 3.316262e+000 4.220395e+000 4.788596e+000 3.611675e+000 3.370533e+000 3.785176e+000 3.018679e+000 2.974082e+000 2.422169e+000 3.513967e+000 5.275858e-001 3.516624e-001 4.404746e-001 4.696189e-001 6.084950e-001 6.584479e-001 6.367797e-001 4.840363e-001 6.177965e-001 4.879752e-001 4.637559e-001 4.191600e-001 2.959158e-001
<GCONST> 1.201459e+002
<MIXTURE> 23 3.399771e-002
<MEAN> 39
 -9.482908e+000 -3.284566e+000 -8.313565e+000 -5.834931e+000 -7.088100e+000 -6.487073e+000 -6.989634e+000 -4.275246e+000 -2.609686e+000 -2.483770e+000 -2.417482e+000 -2.240762e+000 5.084676e+001 -7.092623e-002 -7.141449e-002 -6.945544e-002 -8.609851e-003 3.634340e-002 7.628435e-002 1.502262e-001 6.383812e-002 -2.268432e-002 -9.685612e-002 -5.737435e-002 1.678629e-002 -6.376991e-002 -1.823241e-002 -7.439084e-003 1.173467e-002 2.333383e-002 4.754759e-002 2.033170e-001 3.008064e-001 2.811838e-001 2.667155e-001 2.572320e-001 1.745000e-001 9.990477e-002 3.857238e-003
<VARIANCE> 39
 2.184721e+000 4.808954e+000 6.828290e+000 6.969816e+000 9.132521e+000 1.042483e+001 8.742999e+000 1.100682e+001 1.174266e+001 1.070093e+001 1.435936e+001 1.129680e+001 1.313776e+000 1.370921e-001 2.597619e-001 4.226764e-001 6.255465e-001 7.987822e-001 1.030626e+000 1.171069e+000 1.332429e+000 1.391580e+000 1.429855e+000 1.336112e+000 1.048047e+000 5.684106e-002 2.198697e-002 5.228242e-002 8.040538e-002 1.319009e-001 1.751737e-001 1.832133e-001 1.676735e-001 2.296585e-001 2.486184e-001 2.328423e-001 2.474254e-001 2.211367e-001 8.011253e-003
<GCONST> 6.235976e+001
<MIXTURE> 24 2.631536e-002
<MEAN> 39
 -9.477984e+000 -2.644177e+000 -8.235369e+000 -5.658803e+000 -7.528945e+000 -5.677149e+000 -4.832588e+000 -2.225872e+000 1.486274e-001 5.818813e-001 -8.951861e-002 -1.045705e+000 5.047999e+001 1.566897e-002 -1.021990e-002 -1.088703e-001 -1.451376e-001 -1.954168e-001 -3.190032e-001 -4.628690e-001 -4.217515e-001 -3.609500e-001 -3.136418e-001 -2.435339e-001 -2.069385e-001 -1.160437e-002 -6.010700e-002 -9.189554e-002 -3.922796e-002 1.007338e-002 1.356793e-001 1.063737e-001 5.539743e-002 3.696764e-002 -1.271591e-001 -2.363762e-001 -2.099959e-001 -1.191246e-001 -3.248721e-003
<VARIANCE> 39
 1.578986e+000 2.943834e+000 3.578642e+000 4.822680e+000 6.506351e+000 9.742434e+000 8.821418e+000 8.815581e+000 1.005140e+001 1.112234e+001 1.135471e+001 1.041915e+001 8.139297e-001 1.073677e-001 2.449236e-001 3.836862e-001 5.662633e-001 8.262447e-001 8.998780e-001 1.084877e+000 1.013592e+000 1.132451e+000 1.309683e+000 1.290821e+000 1.182983e+000 3.322515e-002 2.235022e-002 4.304807e-002 6.932469e-002 1.018025e-001 1.386738e-001 1.875972e-001 1.991338e-001 1.885942e-001 2.116837e-001 2.242550e-001 2.258639e-001 2.161497e-001 5.850383e-003
<GCONST> 5.585620e+001
<MIXTURE> 25 3.657230e-002
<MEAN> 39
 4.564354e-001 4.763949e-001 -3.328569e+000 -1.236340e+001 -9.745625e+000 -1.067170e+000 -1.331971e+001 -4.701621e+000 -6.151581e+000 6.634818e-001 2.572203e-001 -4.909783e+000 6.585233e+001 -2.339294e-002 2.860269e-001 2.125365e-001 2.083522e-001 -8.644655e-004 -1.559516e-001 1.497833e-001 2.126145e-001 3.293699e-002 -2.663794e-001 -1.036441e-001 -1.699270e-001 -3.601697e-001 -8.188037e-002 -1.116316e-001 -5.111500e-002 2.474648e-002 5.869102e-002 -6.276972e-002 -4.399492e-002 -7.669288e-002 1.782581e-001 2.063260e-001 1.955868e-002 2.889011e-002 9.391975e-002
<VARIANCE> 39
 6.870999e+000 2.137390e+001 3.506321e+001 6.949666e+001 3.081729e+001 3.985635e+001 3.252459e+001 3.320996e+001 4.844946e+001 4.229868e+001 3.678690e+001 4.330917e+001 2.084101e+001 2.927622e-001 5.951864e-001 9.529558e-001 1.841474e+000 1.388403e+000 1.458699e+000 1.514683e+000 1.832062e+000 1.910302e+000 1.651923e+000 1.771052e+000 1.905299e+000 3.609842e-001 4.959339e-002 9.678325e-002 1.824465e-001 3.089808e-001 2.447161e-001 2.551335e-001 2.803326e-001 3.312808e-001 3.792730e-001 3.268603e-001 3.364517e-001 3.477432e-001 6.366794e-002
<GCONST> 9.813445e+001
<MIXTURE> 26 4.032756e-002
<MEAN> 39
 -1.114213e+000 -1.321218e+000 5.437588e-001 -3.175965e+000 -1.010586e+001 -9.189078e+000 -1.365559e+001 -6.020710e+000 -4.363804e+000 2.378559e+000 9.590306e-001 -7.627255e+000 6.644351e+001 -3.774586e-001 -5.950544e-001 6.851409e-001 -4.020107e-001 -2.393565e-001 -3.110282e-001 3.777151e-003 2.861705e-001 -2.686512e-001 -3.514948e-002 1.492335e-001 2.908153e-001 6.503879e-001 -3.204168e-001 -2.937724e-001 2.288300e-001 -8.589411e-001 -1.663047e-001 2.241779e-001 -1.319471e-001 5.187539e-001 -6.489925e-002 1.563869e-001 -1.385931e-001 2.614820e-001 4.780822e-001
<VARIANCE> 39
 6.744308e+000 1.638661e+001 2.668721e+001 2.926117e+001 3.157901e+001 3.288039e+001 3.204800e+001 3.556292e+001 4.387147e+001 2.998515e+001 3.995129e+001 3.034004e+001 8.676446e+000 1.537571e+000 1.789951e+000 3.819863e+000 4.599238e+000 3.542510e+000 4.192032e+000 3.739493e+000 4.406641e+000 4.780570e+000 2.434054e+000 3.253031e+000 2.997221e+000 1.585468e+000 2.250256e-001 2.424882e-001 5.522987e-001 3.886600e-001 7.202717e-001 6.036867e-001 6.892427e-001 7.276486e-001 7.617668e-001 4.865796e-001 5.992628e-001 4.519240e-001 1.776086e-001
<GCONST> 1.180434e+002
<MIXTURE> 27 3.055977e-002
<MEAN> 39
 -1.566758e+001 -3.038012e+000 -4.018246e-002 -5.162963e+000 -5.705775e+000 -1.026222e+001 -3.592233e+000 -4.598636e+000 1.511485e+000 -4.079577e-002 -1.819227e+000 -7.002299e-001 6.687059e+001 2.632506e+000 7.983317e-001 1.843160e+000 -1.731641e-001 -1.221782e+000 -3.815208e-001 -2.696690e+000 -8.880952e-001 -1.394922e+000 6.316237e-002 -1.986303e-001 -1.020048e+000 1.145034e+000 7.757978e-001 1.489111e-001 1.362476e-001 -4.949749e-001 -5.351534e-001 8.207162e-002 -1.007152e+000 1.518550e-001 -4.259797e-001 4.027477e-001 2.996439e-001 -4.429536e-001 9.961633e-002
<VARIANCE> 39
 4.784037e+001 2.953099e+001 5.292644e+001 3.248627e+001 3.915467e+001 4.544255e+001 3.564569e+001 3.423961e+001 3.638091e+001 2.323444e+001 1.983223e+001 2.145444e+001 2.045396e+001 5.535025e+000 4.545573e+000 4.933694e+000 3.800142e+000 4.122719e+000 5.369527e+000 4.544856e+000 3.805104e+000 4.909382e+000 2.815640e+000 3.505949e+000 2.993814e+000 3.393802e+000 4.751071e-001 4.757649e-001 5.145253e-001 6.299641e-001 6.527140e-001 1.012349e+000 7.282583e-001 6.980546e-001 6.851739e-001 4.658801e-001 4.896298e-001 4.992360e-001 4.830380e-001
<GCONST> 1.281027e+002
<MIXTURE> 28 2.004304e-002
<MEAN> 39
 -8.580521e+000 -2.308186e+000 1.679126e+001 -7.648122e+000 -2.087986e+001 -1.321080e+001 -1.420718e+001 -4.611400e+000 -1.320733e+001 1.826480e+000 5.719360e+000 -8.730523e+000 7.236401e+001 2.442349e-001 -2.611341e-001 1.393005e+000 -9.310927e-001 -1.988990e+000 6.291850e-001 -1.012809e+000 3.306224e-001 -1.270329e+000 7.565757e-001 7.175180e-001 -9.688231e-001 6.906353e-001 -2.069685e-001 1.680650e-001 -1.269895e+000 2.392791e-001 1.076373e+000 1.248587e-001 6.803657e-001 7.837064e-002 1.100806e+000 -2.205105e-002 -6.193430e-001 4.691436e-001 -5.407302e-001
<VARIANCE> 39
 8.757149e+000 2.154371e+001 2.808728e+001 3.040346e+001 2.919735e+001 3.670497e+001 3.412131e+001 2.784740e+001 3.199900e+001 2.663964e+001 2.080688e+001 3.412369e+001 1.057380e+001 2.413130e+000 2.572038e+000 3.573519e+000 3.048351e+000 3.577644e+000 4.254980e+000 5.094424e+000 3.714152e+000 3.647143e+000 2.128811e+000 2.427323e+000 2.909683e+000 1.072192e+000 5.052650e-001 4.931115e-001 5.417233e-001 5.058838e-001 7.076944e-001 6.659940e-001 1.030293e+000 6.140503e-001 7.367724e-001 4.582649e-001 4.486691e-001 5.616104e-001 1.681332e-001
<GCONST> 1.189820e+002
<MIXTURE> 29 4.289184e-002
<MEAN> 39
 -1.148461e+001 -4.499896e-001 -4.949469e+000 -5.088830e+000 -5.290336e+000 -6.806254e+000 -3.991114e+000 -8.086076e-001 1.844416e+000 1.669519e+000 -9.740441e-001 -2.154440e+000 5.642757e+001 5.096027e-001 -3.830008e-003 -4.465497e-001 -5.831718e-002 -2.158236e-001 4.242810e-001 3.142274e-002 -1.348519e-001 -3.278193e-001 -2.479978e-001 -2.235617e-002 -1.365779e-001 -1.156019e+000 -1.793215e-001 -2.279170e-001 9.858559e-002 -1.809592e-001 -1.774776e-002 -2.286544e-001 -6.812024e-002 -1.608119e-001 -4.828965e-002 -2.934380e-002 -2.574957e-002 7.585103e-002 5.764263e-001
<VARIANCE> 39
 3.717291e+001 2.329339e+001 2.796269e+001 2.185945e+001 2.449238e+001 3.378521e+001 2.564500e+001 2.284289e+001 2.527112e+001 2.191911e+001 1.793964e+001 1.527724e+001 1.498944e+001 1.657938e+000 1.047503e+000 1.166504e+000 1.150484e+000 1.465690e+000 1.783319e+000 1.696229e+000 1.823127e+000 1.991764e+000 1.909007e+000 1.773081e+000 1.360324e+000 1.549965e+000 1.978667e-001 2.554673e-001 2.226777e-001 2.550953e-001 3.080916e-001 3.644764e-001 3.331613e-001 3.512643e-001 3.812689e-001 3.738132e-001 3.294977e-001 2.736672e-001 3.127564e-001
<GCONST> 1.024742e+002
<MIXTURE> 30 1.810190e-002
<MEAN> 39
 -1.150724e+001 3.699625e+000 1.131448e+001 -4.324435e+000 -1.238886e+001 -1.340832e+001 -7.013604e+000 -8.562151e+000 -6.178654e+000 -4.328904e-001 2.172203e-001 -2.976758e+000 6.838421e+001 3.318835e+000 5.701012e-001 2.220597e+000 -2.577820e-001 -2.594875e+000 -1.215500e+000 -3.080940e+000 -1.291820e-001 -2.346891e+000 9.071603e-002 8.312544e-001 -1.352147e+000 7.844368e-001 -4.323058e-001 -6.774120e-001 -6.621847e-001 -3.699274e-001 5.916683e-002 2.375480e-001 7.141010e-002 5.610658e-001 4.345302e-001 2.544816e-001 1.429712e-001 -1.622233e-002 5.106146e-002
<VARIANCE> 39
 2.319541e+001 1.725306e+001 4.715315e+001 2.179996e+001 3.782501e+001 3.374149e+001 2.806046e+001 2.494670e+001 2.192627e+001 1.793254e+001 1.731617e+001 2.318754e+001 1.472971e+001 2.725492e+000 3.348350e+000 4.365274e+000 2.873541e+000 4.172032e+000 3.140448e+000 3.229285e+000 3.106561e+000 3.664905e+000 1.939377e+000 2.412918e+000 3.107255e+000 1.203954e+000 4.867072e-001 3.065498e-001 3.994229e-001 3.755097e-001 5.662621e-001 4.828647e-001 6.456015e-001 4.655283e-001 4.645026e-001 3.099473e-001 3.452542e-001 3.153828e-001 1.609983e-001
<GCONST> 1.144664e+002
<MIXTURE> 31 1.611467e-002
<MEAN> 39
 -1.315049e+001 5.167902e+000 8.467919e+000 -3.950037e+000 -9.720277e+000 -1.558220e+001 -5.058040e+000 -9.264894e+000 -1.346536e+000 7.910004e-002 -4.904433e-001 -2.134379e+000 6.863944e+001 -3.061479e+000 3.073039e-001 -1.702869e+000 1.137182e+000 2.086529e+000 1.362200e-001 2.904459e+000 -1.731611e-001 2.263441e+000 -8.200498e-001 4.760446e-002 1.222399e+000 -7.682752e-002 -2.317385e-001 -6.503090e-001 -2.831386e-001 -4.306546e-001 -2.202666e-001 5.542690e-001 -5.048182e-001 6.047751e-001 -3.492706e-001 1.514284e-001 1.656735e-001 -1.866742e-001 2.461906e-001
<VARIANCE> 39
 1.642228e+001 2.458092e+001 5.839616e+001 2.231799e+001 4.492172e+001 3.804982e+001 4.213814e+001 3.199469e+001 3.884443e+001 2.578721e+001 2.063879e+001 2.715352e+001 1.079630e+001 2.804590e+000 2.839271e+000 3.726419e+000 2.474126e+000 3.596146e+000 4.373864e+000 3.771636e+000 3.393998e+000 2.856974e+000 2.517740e+000 3.840845e+000 3.146252e+000 1.359892e+000 2.505940e-001 2.817894e-001 3.193322e-001 3.695443e-001 4.669779e-001 5.293790e-001 7.826968e-001 4.813238e-001 5.366800e-001 4.554214e-001 4.599348e-001 4.166538e-001 1.095599e-001
<GCONST> 1.170581e+002
<MIXTURE> 32 2.005642e-002
<MEAN> 39
 -1.625935e+001 -1.622641e-001 3.376018e+000 -6.140988e+000 -3.449722e+000 -1.017482e+001 -7.042926e+000 -3.736679e+000 2.495936e+000 7.136869e-001 8.599113e-001 -3.235792e+000 6.887990e+001 -3.297066e+000 -7.035521e-001 -8.145712e-002 3.980695e-003 -9.754898e-002 -4.728100e-001 1.399149e+000 5.862533e-001 6.773160e-001 -2.953464e-001 3.117608e-001 3.305686e-001 1.078891e+000 6.117209e-001 -9.738065e-002 -2.072290e-001 -3.630165e-001 -6.233448e-001 2.549825e-001 -5.009109e-001 -4.166261e-002 -5.591841e-001 2.584213e-001 -1.641948e-001 -7.205392e-002 -4.262089e-003
<VARIANCE> 39
 3.481870e+001 3.073117e+001 5.473474e+001 5.993113e+001 5.586166e+001 5.168317e+001 5.537660e+001 3.769711e+001 3.681127e+001 3.563179e+001 2.445758e+001 2.163132e+001 1.445891e+001 3.784208e+000 2.055779e+000 3.664697e+000 3.066071e+000 3.677938e+000 4.468558e+000 4.061487e+000 4.124196e+000 3.763734e+000 2.310905e+000 3.372552e+000 2.818089e+000 1.794706e+000 2.790327e-001 3.696469e-001 3.480953e-001 7.857776e-001 5.923685e-001 7.710543e-001 7.343718e-001 7.177210e-001 6.775314e-001 5.448970e-001 5.566757e-001 5.743977e-001 1.382885e-001
<GCONST> 1.244625e+002
<TRANSP> 3
 0.000000e+000 1.000000e+000 0.000000e+000
 0.000000e+000 9.983532e-001 1.646798e-003
 0.000000e+000 0.000000e+000 0.000000e+000
<ENDHMM>
~h "pb"
<BEGINHMM>
<NUMSTATES> 3
<STATE> 2
<NUMMIXES> 32
<MIXTURE> 1 1.468847e-002
<MEAN> 39
 -9.825046e+000 4.073190e+000 2.675177e-001 3.177849e+000 2.620699e+000 5.268432e+000 5.436168e+000 6.659873e+000 6.222344e+000 4.691241e+000 3.454536e+000 2.714857e+000 5.155584e+001 -1.822332e-002 -4.204869e-002 6.162177e-002 9.122903e-002 9.928542e-002 1.939108e-001 2.384958e-001 2.752208e-001 3.084702e-001 3.057874e-001 2.803575e-001 1.428016e-001 -5.763503e-002 -4.202581e-002 -7.318071e-002 -1.732540e-001 -2.095875e-001 -2.729805e-001 -2.816037e-001 -3.266331e-001 -3.150895e-001 -3.172640e-001 -2.713627e-001 -1.943820e-001 -1.508393e-001 1.379497e-002
<VARIANCE> 39
 1.825774e+000 3.565339e+000 5.590545e+000 7.280594e+000 8.536841e+000 8.906185e+000 1.058077e+001 1.412698e+001 1.332076e+001 1.211774e+001 1.196726e+001 1.197120e+001 9.643289e-001 1.243317e-001 2.346295e-001 4.932672e-001 6.419065e-001 8.393453e-001 8.960841e-001 1.115710e+000 1.584378e+000 1.419486e+000 1.395240e+000 1.370456e+000 1.347413e+000 4.421726e-002 3.093734e-002 5.372409e-002 1.034498e-001 1.347712e-001 1.716323e-001 2.174189e-001 2.305181e-001 3.288431e-001 3.076122e-001 2.748114e-001 3.197955e-001 2.805547e-001 1.007560e-002
<GCONST> 6.436594e+001
<MIXTURE> 2 2.011748e-002
<MEAN> 39
 1.334525e+000 -1.856712e+000 6.199681e+000 -3.385891e+000 -1.426396e+001 -8.321202e+000 -1.547556e+001 3.211775e+000 4.461246e+000 -2.977979e-001 -8.225332e-001 -4.925629e+000 7.298915e+001 -6.038504e-001 3.011478e+000 -2.637877e-001 2.146421e+000 1.472723e+000 -3.127281e-001 2.215764e+000 -7.959367e-001 2.012042e-001 3.517465e-001 -6.697443e-001 1.332711e+000 -2.361022e+000 -5.222988e-001 3.024626e-001 -3.909610e-001 -6.802441e-002 4.668908e-001 5.291281e-001 7.621499e-001 -1.709842e-001 -2.327086e-001 -1.159562e-001 1.423914e-001 -6.527154e-002 -3.343111e-001
<VARIANCE> 39
 7.446182e+000 2.674811e+001 3.357282e+001 2.848088e+001 4.711194e+001 4.037840e+001 4.800722e+001 4.623172e+001 2.436752e+001 3.735374e+001 2.702188e+001 2.772318e+001 7.473040e+000 1.543430e+000 2.629653e+000 2.819575e+000 2.293016e+000 3.464773e+000 3.479432e+000 3.173996e+000 3.929480e+000 3.134107e+000 2.895469e+000 3.194188e+000 2.600458e+000 1.495064e+000 4.060608e-001 5.671443e-001 4.317165e-001 6.425272e-001 5.733700e-001 6.138648e-001 6.663903e-001 6.770779e-001 5.977759e-001 5.721468e-001 4.166763e-001 6.281495e-001 2.558332e-001
<GCONST> 1.191717e+002
<MIXTURE> 3 1.943124e-002
<MEAN> 39
 -1.220544e+001 3.485796e+000 -3.145855e+000 -1.097706e-001 -2.462030e+000 1.828568e+000 -1.690858e+000 3.100493e-001 1.034605e+000 1.201684e+000 1.360591e+000 8.176302e-001 5.505886e+001 -1.331897e-001 -5.196206e-003 4.790433e-002 2.770486e-001 2.371558e-001 1.874255e-001 5.361351e-001 4.015314e-001 1.519748e-001 9.613335e-002 2.807317e-001 1.201408e-001 -2.982994e-001 2.698452e-001 -1.293002e-002 1.836172e-001 1.326175e-001 2.432804e-001 7.442335e-002 3.314532e-001 2.787707e-001 3.029351e-001 1.535143e-001 6.494999e-002 -1.559583e-001 -3.865381e-002
<VARIANCE> 39
 1.610541e+001 1.437846e+001 7.580237e+000 1.215991e+001 1.655364e+001 2.915125e+001 1.743877e+001 2.292014e+001 1.461955e+001 2.009801e+001 1.935651e+001 2.188877e+001 6.796911e+000 8.685530e-001 5.331209e-001 6.497146e-001 8.207181e-001 1.223799e+000 1.848093e+000 1.591091e+000 1.618953e+000 1.504472e+000 1.530352e+000 1.487566e+000 1.693308e+000 4.263973e-001 1.560987e-001 1.522287e-001 1.123867e-001 1.868582e-001 2.298740e-001 4.387318e-001 3.229258e-001 3.306124e-001 3.140292e-001 3.696894e-001 3.468698e-001 3.699293e-001 1.181565e-001
<GCONST> 9.025655e+001
<MIXTURE> 4 4.936736e-002
<MEAN> 39
 -1.955119e+001 1.093665e+001 -2.625850e+000 2.897228e+000 -2.914766e+000 -6.971026e+000 4.279094e-001 1.680966e-001 2.863440e+000 1.622163e-001 1.141315e+000 1.042748e+000 6.763871e+001 -1.108052e+000 -2.471268e-001 -5.592951e-001 3.311380e-001 3.908514e-001 -1.325898e-002 7.016115e-001 3.859692e-001 3.927638e-001 9.263550e-002 3.592220e-001 5.152783e-001 -3.469415e-002 9.519852e-001 -3.782374e-001 5.703570e-001 -3.791407e-001 -3.337116e-001 2.875997e-001 -5.303828e-001 9.801036e-002 -4.563515e-002 7.567514e-002 -5.860198e-002 -2.564453e-001 -1.894553e-001
<VARIANCE> 39
 3.393767e+001 5.666811e+001 5.248444e+001 3.446600e+001 4.149785e+001 4.395186e+001 3.439386e+001 4.493953e+001 3.324138e+001 2.623313e+001 2.374395e+001 2.401798e+001 9.745040e+000 5.840928e+000 3.025370e+000 3.865420e+000 2.944476e+000 3.521430e+000 3.336932e+000 3.102122e+000 3.535051e+000 2.870918e+000 2.713515e+000 2.319047e+000 2.086997e+000 2.286881e+000 4.679411e-001 6.685634e-001 4.655187e-001 5.488855e-001 7.649122e-001 6.276949e-001 6.311352e-001 6.656662e-001 5.529910e-001 5.217532e-001 4.458781e-001 4.506008e-001 2.443760e-001
<GCONST> 1.232204e+002
<MIXTURE> 5 2.749417e-002
<MEAN> 39
 1.908623e+000 -8.012275e+000 1.714612e+000 -9.474858e+000 -1.093989e+001 -1.893070e+000 -1.717043e+001 3.505105e+000 5.890032e+000 1.429412e-001 -8.885250e-001 -1.194514e+001 7.658612e+001 2.848514e-001 1.694782e+000 2.648122e-001 1.157475e+000 3.517972e-001 -3.295665e-001 2.118010e-002 -1.048326e+000 -2.299237e-001 9.475260e-001 1.930494e-001 8.772754e-001 -1.452852e+000 -2.910681e-001 8.848298e-001 -2.478362e-002 6.277110e-001 2.484124e-001 -9.014654e-002 9.510438e-001 -2.500612e-001 -3.075530e-001 -4.911422e-002 -4.642814e-002 6.394222e-001 -7.470124e-001
<VARIANCE> 39
 5.657028e+000 2.396682e+001 3.158121e+001 2.715173e+001 4.912390e+001 3.711036e+001 5.165430e+001 4.849892e+001 2.460094e+001 4.281839e+001 3.307329e+001 2.563547e+001 6.010714e+000 6.172239e-001 3.153815e+000 2.335447e+000 3.372445e+000 2.960206e+000 3.854146e+000 2.319563e+000 4.515240e+000 2.339468e+000 2.633923e+000 3.422085e+000 3.123071e+000 1.275707e+000 1.926705e-001 4.478154e-001 3.552468e-001 4.710696e-001 5.777268e-001 4.547196e-001 5.765096e-001 6.436753e-001 5.185200e-001 5.540364e-001 4.900312e-001 5.108234e-001 2.947356e-001
<GCONST> 1.156954e+002
<MIXTURE> 6 4.126855e-002
<MEAN> 39
 -1.014776e+001 3.300552e+000 -9.255180e-001 1.434750e+000 1.151619e-001 1.580469e+000 9.962651e-001 2.088582e+000 2.362698e+000 2.540562e+000 2.584612e+000 1.744550e+000 5.115474e+001 9.034905e-002 1.321593e-001 1.866456e-001 1.945651e-001 1.882078e-001 1.357043e-001 1.387577e-001 1.553814e-001 1.226847e-001 1.253256e-001 1.007876e-001 1.122306e-001 1.456452e-002 -5.730265e-002 -8.305344e-002 -1.476181e-001 -1.454114e-001 -7.604358e-002 1.177973e-001 2.456141e-001 2.324664e-001 8.427172e-002 -7.714000e-002 -1.668489e-001 -1.604192e-001 -6.066889e-003
<VARIANCE> 39
 6.384923e-001 1.479211e+000 2.468465e+000 3.461128e+000 4.935719e+000 6.238813e+000 7.560290e+000 8.767509e+000 8.655306e+000 8.604164e+000 8.489681e+000 8.426534e+000 2.348172e-001 8.521628e-002 1.950484e-001 3.515382e-001 5.577840e-001 7.040480e-001 8.209834e-001 9.970141e-001 1.116002e+000 1.169156e+000 1.262590e+000 1.319230e+000 1.124336e+000 2.752893e-002 1.420656e-002 3.226190e-002 5.519216e-002 7.926071e-002 1.142506e-001 1.398408e-001 1.775646e-001 2.046432e-001 2.137745e-001 2.130575e-001 1.906759e-001 1.910588e-001 5.319577e-003
<GCONST> 4.733255e+001
<MIXTURE> 7 2.290872e-002
<MEAN> 39
 4.022294e+000 8.666615e-001 3.431997e-001 -1.065961e+001 -1.158704e+001 4.457314e+000 -1.618166e+001 -7.130366e+000 -5.589837e-001 2.213881e+000 5.162524e+000 -6.775095e+000 7.160307e+001 1.044618e+000 -1.351960e+000 5.351765e-001 -1.315073e+000 -1.266863e+000 6.085011e-001 -1.886098e+000 -8.443338e-001 1.866384e-001 3.620851e-001 7.496409e-001 -9.251416e-001 1.434098e+000 -7.929001e-001 9.749386e-002 1.889661e-002 6.541565e-001 5.242100e-001 -4.196049e-001 7.572505e-001 7.731831e-001 2.012429e-001 -2.421589e-001 -4.985614e-001 3.081598e-001 -4.556927e-001
<VARIANCE> 39
 7.751542e+000 4.116995e+001 2.051407e+001 5.524852e+001 3.167514e+001 3.344951e+001 5.896477e+001 4.226138e+001 4.222248e+001 4.833019e+001 2.508546e+001 3.949026e+001 1.378408e+001 3.089471e+000 3.541912e+000 2.632874e+000 9.559092e+000 4.315567e+000 5.759521e+000 4.780733e+000 5.096812e+000 5.887629e+000 4.094670e+000 4.770521e+000 3.749557e+000 2.149637e+000 3.877291e-001 6.914184e-001 4.417058e-001 1.219112e+000 6.474907e-001 7.647730e-001 1.463720e+000 9.558634e-001 9.001216e-001 1.092812e+000 6.929272e-001 9.640695e-001 3.825085e-001
<GCONST> 1.315782e+002
<MIXTURE> 8 2.685297e-002
<MEAN> 39
 3.012613e+000 -4.228532e+000 -3.218184e+000 -1.522606e+001 -5.910456e+000 5.255028e+000 -1.131490e+001 4.256300e-001 3.171618e+000 -1.444133e+000 2.903880e-001 -1.315132e+001 7.465295e+001 2.041459e-002 2.499683e-001 5.403965e-002 2.336362e-002 1.346094e-002 -2.890483e-002 -1.816076e-001 -1.054798e-002 1.249851e-001 -3.583070e-002 6.772487e-003 -3.768485e-002 -1.701947e-001 -5.446133e-002 3.656377e-001 2.203238e-001 5.102088e-001 -1.006357e-001 -2.713755e-001 2.068411e-002 -1.323344e-001 -9.630782e-002 1.413537e-001 -5.071106e-003 4.631756e-001 -3.327636e-001
<VARIANCE> 39
 6.643932e+000 7.095710e+001 2.084061e+001 2.705299e+001 5.048626e+001 2.709543e+001 3.442672e+001 2.240027e+001 2.729341e+001 4.935731e+001 4.442291e+001 3.645356e+001 2.064511e+001 4.364436e-001 2.197719e+000 1.217526e+000 1.809196e+000 1.865131e+000 1.848807e+000 2.029523e+000 1.978544e+000 1.550558e+000 2.029901e+000 2.387599e+000 2.502102e+000 9.569045e-001 9.100237e-002 3.253267e-001 2.527514e-001 2.185867e-001 3.105855e-001 2.918300e-001 2.629542e-001 3.210697e-001 2.521048e-001 3.066288e-001 3.497481e-001 3.876438e-001 1.339880e-001
<GCONST> 1.040690e+002
<MIXTURE> 9 2.689187e-002
<MEAN> 39
 4.707304e+000 2.298649e+000 2.191962e-002 -1.542654e+001 -1.231427e+001 7.627866e+000 -1.483041e+001 -5.150478e+000 -3.432597e+000 -9.914589e-001 6.880739e+000 -4.146338e+000 7.120490e+001 -4.213492e-002 2.561418e-001 5.279504e-002 5.511396e-001 4.836802e-001 -1.731360e-001 6.012451e-002 -1.170363e-001 1.653798e-002 2.263528e-001 1.170256e-001 -4.450864e-002 -3.101642e-001 -3.627041e-001 1.678944e-001 1.053375e-002 9.345742e-001 4.852236e-001 -5.724294e-001 3.479611e-001 2.941400e-001 4.840875e-001 1.413081e-001 -5.956075e-001 -2.293641e-001 -3.536140e-001
<VARIANCE> 39
 5.518378e+000 3.026784e+001 2.549369e+001 3.460286e+001 3.512593e+001 2.401493e+001 3.742981e+001 3.726523e+001 2.926297e+001 5.052158e+001 2.196132e+001 2.439730e+001 9.032883e+000 6.384526e-001 3.036415e+000 1.636703e+000 5.108881e+000 3.022186e+000 2.580421e+000 4.375406e+000 3.174847e+000 3.339175e+000 4.397062e+000 3.002400e+000 3.305932e+000 1.735194e+000 1.535780e-001 3.100302e-001 3.720493e-001 6.072860e-001 5.267049e-001 4.529110e-001 6.157507e-001 5.630577e-001 5.624449e-001 6.326032e-001 5.496650e-001 5.338513e-001 2.135365e-001
<GCONST> 1.155150e+002
<MIXTURE> 10 3.378724e-002
<MEAN> 39
 -1.074460e+001 2.297583e+000 -2.579391e+000 -5.933211e-001 -1.578437e+000 1.442748e+000 2.699349e+000 4.976397e+000 5.312657e+000 4.740326e+000 3.896053e+000 2.442017e+000 5.091119e+001 2.391726e-002 3.372816e-002 3.791650e-002 -2.737571e-002 -1.515228e-001 -2.301629e-001 -2.882817e-001 -2.314606e-001 -1.211330e-001 -2.257990e-003 7.324593e-002 6.498616e-002 -1.496877e-003 2.687481e-002 6.118257e-002 1.022178e-001 1.640832e-001 1.833275e-001 1.315609e-001 -3.810055e-002 -2.081076e-001 -3.558643e-001 -3.901171e-001 -3.569947e-001 -2.514828e-001 3.156252e-002
<VARIANCE> 39
 6.807792e-001 1.750940e+000 3.104469e+000 3.903037e+000 5.587589e+000 8.121144e+000 9.331532e+000 9.674741e+000 8.401270e+000 8.070947e+000 8.471963e+000 8.876554e+000 2.374201e-001 8.502701e-002 2.071599e-001 3.377286e-001 5.222093e-001 7.176471e-001 7.905689e-001 1.008349e+000 1.156108e+000 1.166090e+000 1.236133e+000 1.200030e+000 1.102907e+000 2.855003e-002 1.730484e-002 3.803230e-002 6.782208e-002 9.947911e-002 1.275553e-001 1.961128e-001 2.133109e-001 2.389295e-001 2.101254e-001 2.030333e-001 2.045699e-001 2.068360e-001 6.312056e-003
<GCONST> 5.029444e+001
<MIXTURE> 11 2.587969e-002
<MEAN> 39
 7.867179e-001 7.477205e+000 2.228249e+000 -5.403351e+000 -6.079031e+000 8.318869e-001 -9.901431e+000 -1.629074e+000 1.973656e+000 1.845371e+000 -8.041328e-001 -6.399190e+000 6.662551e+001 -1.321593e+000 1.561640e+000 -4.596715e-001 2.476424e+000 1.603966e+000 -9.215058e-001 2.664400e+000 2.625938e-001 4.036048e-001 7.202207e-002 -7.420516e-001 1.392225e+000 -2.063215e+000 -5.497686e-001 -5.896435e-001 -6.230505e-002 -1.789001e-001 -2.042823e-001 -2.086479e-002 1.968600e-002 9.338553e-002 -1.815283e-001 -2.676787e-001 1.806109e-001 -5.100429e-002 2.306353e-001
<VARIANCE> 39
 2.165847e+001 3.794142e+001 6.133007e+001 4.152703e+001 5.342838e+001 4.437199e+001 3.711126e+001 3.347271e+001 3.878345e+001 3.586169e+001 3.319500e+001 2.914466e+001 1.257172e+001 3.228893e+000 3.093802e+000 2.399157e+000 2.503732e+000 3.591298e+000 3.520031e+000 2.899136e+000 3.139003e+000 2.941807e+000 2.777580e+000 2.717821e+000 2.854520e+000 1.946651e+000 3.403156e-001 3.440702e-001 3.636859e-001 5.769098e-001 5.243075e-001 4.898905e-001 4.629984e-001 4.862482e-001 5.174109e-001 4.246424e-001 4.974351e-001 3.712105e-001 1.920833e-001
<GCONST> 1.200147e+002
<MIXTURE> 12 3.916018e-002
<MEAN> 39
 -5.120340e+000 5.997890e+000 1.295589e+000 6.583286e-001 -2.889700e+000 -4.215012e-001 -3.173182e+000 4.086200e-001 6.638760e-001 -2.012606e-001 -1.042573e+000 -3.055151e+000 6.014889e+001 -6.702799e-001 -1.121547e+000 -3.277554e-001 -1.214987e+000 -5.915390e-001 -3.424008e-002 -6.537907e-001 2.180350e-001 -3.514000e-001 2.725375e-001 4.195291e-001 4.927835e-001 2.039943e+000 1.041222e-001 -3.476673e-001 2.756056e-001 -5.831401e-001 -8.027614e-001 -1.861568e-001 -6.288936e-001 4.838395e-002 3.370533e-002 5.168534e-002 2.623566e-001 -1.505567e-001 9.121602e-001
<VARIANCE> 39
 3.683612e+001 2.925601e+001 3.484027e+001 3.379277e+001 3.269544e+001 3.363058e+001 3.073216e+001 2.649578e+001 2.826987e+001 2.450217e+001 2.359208e+001 2.449605e+001 2.306334e+001 5.315886e+000 4.420536e+000 4.577245e+000 4.862752e+000 4.888533e+000 4.589891e+000 4.492115e+000 3.947864e+000 4.071964e+000 3.552096e+000 3.032808e+000 3.104047e+000 4.285618e+000 5.553189e-001 7.468386e-001 5.467563e-001 6.622267e-001 7.244209e-001 6.524360e-001 7.433601e-001 5.785521e-001 6.142695e-001 5.459317e-001 5.104502e-001 5.420933e-001 4.042118e-001
<GCONST> 1.273166e+002
<MIXTURE> 13 3.366887e-002
<MEAN> 39
 -1.040630e+001 2.503894e+000 -2.837960e+000 -9.672210e-001 -1.666628e+000 1.270497e+000 2.003166e+000 3.079970e+000 2.518443e+000 1.763272e+000 7.600942e-001 2.406507e-001 5.107187e+001 1.843472e-002 2.194968e-002 1.187450e-001 2.641744e-001 4.199994e-001 5.088093e-001 5.234358e-001 4.948096e-001 4.439450e-001 3.356139e-001 1.544932e-001 7.650211e-002 -3.550734e-005 -1.267289e-002 3.157640e-002 1.450783e-001 2.326534e-001 2.008757e-001 1.702869e-001 8.132237e-002 6.177311e-002 4.977842e-002 4.688048e-002 1.184388e-001 8.263423e-002 7.639305e-003
<VARIANCE> 39
 6.138785e-001 1.360942e+000 2.023579e+000 3.022532e+000 4.900011e+000 6.638917e+000 8.382958e+000 7.842620e+000 8.430309e+000 8.221819e+000 8.039166e+000 8.767955e+000 2.008833e-001 8.725938e-002 1.690752e-001 3.492415e-001 5.064962e-001 6.091314e-001 7.714126e-001 1.072436e+000 1.126451e+000 1.118594e+000 1.128299e+000 1.174618e+000 1.143816e+000 2.592302e-002 1.566010e-002 3.295060e-002 4.858299e-002 7.446167e-002 1.123429e-001 1.569396e-001 1.943635e-001 1.891748e-001 2.009878e-001 1.894426e-001 2.034848e-001 2.044855e-001 5.609796e-003
<GCONST> 4.606269e+001
<MIXTURE> 14 2.476141e-002
<MEAN> 39
 -2.216980e+000 -4.766696e-001 1.519287e+001 -3.394044e+000 -2.216667e+001 -8.648026e+000 -1.229616e+001 3.498096e+000 -4.470417e+000 -2.554133e+000 4.329967e+000 -3.637038e+000 7.382086e+001 6.599038e-001 -1.312339e+000 1.793276e+000 -1.132305e+000 -3.158654e+000 -3.753946e-001 -1.262943e+000 8.449092e-001 -1.196936e+000 3.460725e-002 1.255979e+000 -6.998811e-001 1.367416e+000 -4.272093e-001 5.545307e-001 -7.837251e-001 1.711181e-001 1.110922e+000 6.474187e-001 5.176880e-001 -3.057711e-001 5.016893e-001 2.037647e-001 -3.188285e-001 -5.269396e-002 -6.222294e-001
<VARIANCE> 39
 6.441278e+000 2.606312e+001 3.165336e+001 2.579449e+001 3.553464e+001 2.797778e+001 3.359766e+001 2.355585e+001 3.369810e+001 1.932065e+001 2.097773e+001 2.528175e+001 9.294236e+000 3.644378e+000 3.700650e+000 4.318502e+000 2.175688e+000 4.839711e+000 4.629958e+000 5.139885e+000 3.601546e+000 4.039035e+000 3.212874e+000 2.837150e+000 2.889668e+000 1.737889e+000 7.641914e-001 5.209489e-001 5.336930e-001 4.989658e-001 9.998046e-001 5.910110e-001 9.003274e-001 5.676143e-001 5.304968e-001 4.189808e-001 4.837119e-001 6.766500e-001 3.123426e-001
<GCONST> 1.209263e+002
<MIXTURE> 15 3.920324e-002
<MEAN> 39
 -8.305984e+000 5.661630e+000 -1.710805e-001 4.064556e-001 -3.422357e+000 -2.362007e+000 -2.182624e+000 1.846890e-001 1.921717e+000 1.371428e+000 1.172811e+000 -9.188821e-001 5.578042e+001 -5.466658e-001 -4.770343e-001 -6.493445e-001 -1.535229e-001 2.367723e-001 3.713726e-001 5.055259e-001 2.253264e-001 -2.693997e-002 -2.273786e-002 -6.899469e-002 2.206605e-001 -1.021405e-001 -2.099775e-001 -8.648092e-002 5.441008e-002 -2.127170e-001 -1.731681e-001 -5.612039e-002 -1.051366e-001 2.279906e-001 -8.581227e-003 2.136021e-002 -2.098862e-002 3.387475e-002 9.539872e-001
<VARIANCE> 39
 1.785608e+001 1.720644e+001 2.238759e+001 1.681699e+001 2.338668e+001 2.517252e+001 3.094020e+001 2.955816e+001 2.849477e+001 2.169100e+001 2.181382e+001 1.890105e+001 6.763511e+000 3.206811e+000 1.658187e+000 2.434882e+000 2.008879e+000 2.198769e+000 2.613857e+000 2.381276e+000 2.661921e+000 2.579541e+000 1.916539e+000 2.027706e+000 1.867652e+000 3.721362e+000 3.801832e-001 2.843448e-001 3.347560e-001 3.355139e-001 3.609493e-001 4.034654e-001 4.804426e-001 4.860812e-001 4.830103e-001 4.356451e-001 3.967873e-001 3.478963e-001 3.966943e-001
<GCONST> 1.097340e+002
<MIXTURE> 16 3.560974e-002
<MEAN> 39
 2.777767e+000 5.084692e+000 4.748355e+000 -2.942245e+000 -9.675578e+000 1.471214e+000 -1.166396e+001 -5.842082e+000 -1.947790e+000 -1.771519e+000 3.305081e+000 -9.176942e+000 6.711298e+001 7.724195e-003 6.783031e-001 8.861413e-003 4.033072e-001 2.965485e-001 1.884484e-001 4.731816e-001 -4.313113e-001 -2.812534e-001 -2.242809e-002 -1.520933e-001 -1.581357e-002 -5.312467e-001 -1.349636e-001 -1.993675e-001 1.397586e-002 -2.439331e-001 -1.703790e-001 -1.028982e-001 -2.188022e-003 4.052665e-001 1.249026e-001 2.763150e-002 -1.333598e-001 1.800779e-001 1.994795e-001
<VARIANCE> 39
 4.762675e+000 1.911507e+001 2.547578e+001 2.581328e+001 1.922831e+001 2.268213e+001 2.228102e+001 2.196855e+001 2.652428e+001 2.739997e+001 2.263947e+001 2.915089e+001 5.718867e+000 4.353940e-001 1.384187e+000 1.200549e+000 2.243833e+000 1.493970e+000 1.674640e+000 1.843272e+000 3.138577e+000 1.966974e+000 2.139496e+000 2.016854e+000 2.277818e+000 6.726399e-001 9.919123e-002 2.598067e-001 2.657042e-001 2.588640e-001 3.385644e-001 2.883261e-001 3.557265e-001 4.222394e-001 3.618954e-001 3.431677e-001 3.881090e-001 4.064631e-001 1.213157e-001
<GCONST> 9.889531e+001
<MIXTURE> 17 3.814100e-002
<MEAN> 39
 -1.885596e-002 -9.101598e+000 4.734920e+000 -7.187355e+000 -1.529018e+001 -6.441350e+000 -1.202344e+001 9.639274e+000 4.619947e+000 -5.285638e+000 -1.589779e+000 -8.690892e+000 7.780122e+001 1.072626e-002 -5.820504e-001 1.053706e-001 -3.000304e-001 -3.901656e-002 8.699400e-003 1.956782e-002 6.300161e-001 -1.583140e-001 -4.847752e-001 4.453912e-002 -2.059228e-001 3.406815e-001 -1.069214e-001 9.292834e-001 2.501428e-002 4.252842e-001 3.555007e-001 2.591331e-001 2.290955e-001 -9.512864e-001 -3.233729e-001 4.865998e-001 2.435459e-001 2.445433e-001 -7.087554e-001
<VARIANCE> 39
 5.692465e+000 2.244873e+001 3.465458e+001 1.487278e+001 4.735588e+001 2.281608e+001 3.415682e+001 2.381103e+001 2.747177e+001 2.656661e+001 3.465816e+001 2.958148e+001 5.272183e+000 7.513846e-001 3.110825e+000 3.470815e+000 1.638950e+000 4.092780e+000 2.983361e+000 2.673310e+000 3.961799e+000 3.502214e+000 2.855201e+000 2.785969e+000 3.607442e+000 1.090448e+000 2.024691e-001 3.572583e-001 4.018809e-001 3.407808e-001 5.331566e-001 4.324941e-001 4.767204e-001 6.462721e-001 5.466610e-001 4.264412e-001 5.638918e-001 6.418517e-001 2.035713e-001
<GCONST> 1.124700e+002
<MIXTURE> 18 5.717830e-002
<MEAN> 39
 -1.747184e+001 2.330271e+000 2.778332e+000 -3.794468e+000 -5.497915e+000 -7.885593e-001 -3.879804e+000 4.110293e+000 2.224975e+000 1.935751e+000 1.854632e+000 1.597655e+000 6.844428e+001 -1.888674e-002 1.178215e-001 6.123001e-001 -1.444536e-001 -5.450289e-002 2.584958e-001 -1.596269e-001 -6.892742e-002 -2.288828e-001 -1.771729e-001 -7.782136e-002 -2.402155e-001 2.262091e-001 1.117069e+000 2.444012e-001 3.116787e-001 1.727719e-001 -4.464416e-001 -1.637803e-001 -3.181895e-001 -3.655600e-001 -1.968538e-001 -2.485583e-001 -9.155066e-002 -5.665519e-001 -3.267698e-001
<VARIANCE> 39
 6.581920e+001 3.794023e+001 8.878008e+001 4.543258e+001 6.067553e+001 4.986671e+001 4.259603e+001 4.541793e+001 3.922408e+001 3.853142e+001 3.139207e+001 2.269233e+001 1.902490e+001 8.546935e+000 2.635732e+000 4.226283e+000 2.987932e+000 4.073288e+000 4.033789e+000 3.629009e+000 3.641692e+000 3.258377e+000 2.639051e+000 2.630442e+000 2.433625e+000 4.205328e+000 7.243044e-001 6.868340e-001 1.013227e+000 7.875965e-001 9.127937e-001 8.989732e-001 9.104051e-001 8.187857e-001 7.272012e-001 7.231407e-001 6.323694e-001 5.978190e-001 5.054484e-001
<GCONST> 1.329827e+002
<MIXTURE> 19 3.010779e-002
<MEAN> 39
 -6.718617e+000 9.686624e+000 2.111040e+001 -1.044821e+001 -2.297195e+001 8.147914e+000 -1.704714e+001 -1.553866e+000 -7.511713e+000 -1.185590e+000 1.456507e+000 -1.200398e+001 7.076507e+001 -3.190731e-002 3.945386e-001 -6.351867e-002 -5.642597e-002 1.334497e-001 1.755855e-001 1.677210e-001 6.273869e-002 1.953686e-001 4.210928e-002 1.276407e-001 9.876847e-002 -1.709501e-001 1.526556e-001 -1.782909e-001 -6.441327e-001 6.680543e-001 6.799370e-001 -7.739490e-001 6.943384e-001 -1.510683e-002 2.724830e-001 1.306082e-002 -6.012795e-002 4.449634e-001 -2.613095e-001
<VARIANCE> 39
 7.090492e+000 2.099309e+001 3.043863e+001 1.934064e+001 3.910752e+001 2.596326e+001 2.332227e+001 2.123527e+001 1.784024e+001 3.487342e+001 1.957525e+001 2.380949e+001 6.177131e+000 9.034493e-001 2.110806e+000 2.371101e+000 3.237682e+000 4.872657e+000 4.440689e+000 4.004503e+000 1.845544e+000 1.514923e+000 1.673775e+000 1.706971e+000 2.273729e+000 8.351348e-001 2.047909e-001 2.474421e-001 4.471135e-001 3.797193e-001 9.470472e-001 4.905775e-001 5.565612e-001 3.437946e-001 3.124752e-001 3.718030e-001 2.705580e-001 4.429713e-001 1.325866e-001
<GCONST> 1.069788e+002
<MIXTURE> 20 5.126380e-002
<MEAN> 39
 -1.026413e+001 3.188191e+000 -1.169196e+000 1.539499e+000 1.034008e+000 3.688829e+000 3.856864e+000 4.208599e+000 2.483786e+000 9.173106e-001 -4.137005e-002 -4.506172e-001 5.110205e+001 -1.298800e-002 -4.522385e-002 -1.071797e-001 -1.592415e-001 -1.292191e-001 -1.334701e-001 -9.199338e-002 -9.723482e-002 -1.617608e-001 -1.668728e-001 -1.287876e-001 -6.413644e-002 -2.517270e-002 -3.500303e-002 -6.692541e-002 -1.175492e-001 -1.695368e-001 -2.195518e-001 -2.196508e-001 -2.019005e-001 -9.229572e-002 8.696370e-002 1.938116e-001 2.248054e-001 1.889852e-001 -1.441075e-003
<VARIANCE> 39
 6.310480e-001 1.466624e+000 2.673944e+000 3.936753e+000 5.351236e+000 6.377443e+000 7.746756e+000 8.950859e+000 9.394207e+000 9.262965e+000 9.004085e+000 8.248581e+000 2.150113e-001 7.745260e-002 1.807039e-001 3.357464e-001 5.409196e-001 6.957650e-001 7.896947e-001 1.054250e+000 1.226211e+000 1.276235e+000 1.325417e+000 1.243360e+000 1.121148e+000 2.390115e-002 1.513362e-002 3.332349e-002 5.872584e-002 9.173871e-002 1.244516e-001 1.393142e-001 1.752043e-001 2.102758e-001 2.198656e-001 2.249630e-001 1.994663e-001 1.851882e-001 4.931581e-003
<GCONST> 4.797746e+001
<MIXTURE> 21 3.186350e-002
<MEAN> 39
 -1.039570e+001 5.230488e+000 2.299832e+000 4.179519e-001 -4.664177e+000 -3.388194e+000 -2.715843e+000 1.714417e+000 1.570818e+000 1.496890e-001 -7.495465e-001 -3.689581e-001 6.523106e+001 3.376259e+000 -4.617161e-001 1.819571e+000 -1.315109e+000 -2.443161e+000 -2.430340e-001 -2.783529e+000 -4.553112e-001 -7.061169e-001 -6.301391e-001 -4.830900e-001 -2.075772e+000 1.887524e+000 5.531277e-001 -3.580030e-001 2.120521e-001 -6.080953e-001 -7.953432e-001 1.830187e-001 -7.435336e-001 -8.968672e-002 -9.415191e-002 -3.457526e-002 2.997030e-001 -5.762295e-001 3.995341e-001
<VARIANCE> 39
 3.641324e+001 3.089784e+001 4.603592e+001 2.745254e+001 3.653991e+001 4.327798e+001 3.775714e+001 3.588102e+001 3.184412e+001 2.607656e+001 2.880543e+001 2.559466e+001 2.785719e+001 5.153584e+000 5.672473e+000 5.395416e+000 4.158810e+000 5.390250e+000 4.980294e+000 4.361446e+000 4.981076e+000 4.457840e+000 3.588014e+000 4.009741e+000 3.447199e+000 3.959647e+000 5.403234e-001 5.102302e-001 5.787283e-001 5.611079e-001 7.499589e-001 6.530111e-001 6.847270e-001 7.000006e-001 6.585565e-001 5.980760e-001 6.049616e-001 6.065627e-001 5.453976e-001
<GCONST> 1.303003e+002
<MIXTURE> 22 2.930460e-002
<MEAN> 39
 -1.121171e+001 1.531562e+000 -3.321767e+000 -8.284032e-001 -1.582968e+000 1.121933e+000 1.341196e+000 1.940726e+000 6.347500e-001 -6.036119e-001 -7.604486e-001 -4.723176e-001 5.087473e+001 9.680565e-003 -4.646903e-003 -1.802704e-002 -7.576338e-002 -2.386874e-002 -1.337049e-001 -5.809693e-002 -7.254795e-002 -1.991555e-001 -1.968106e-001 -2.552308e-001 -1.502381e-001 -3.693932e-002 8.077561e-002 1.473354e-001 1.681662e-001 1.862053e-001 1.573567e-001 1.757251e-001 1.307612e-001 1.996035e-001 3.424014e-001 3.951590e-001 3.450053e-001 1.808069e-001 6.372725e-002
<VARIANCE> 39
 7.744910e-001 1.817866e+000 2.849565e+000 4.752007e+000 6.588436e+000 8.213535e+000 1.023044e+001 1.095363e+001 9.255989e+000 1.006320e+001 1.022732e+001 9.382424e+000 3.622432e-001 1.001835e-001 2.307905e-001 4.021351e-001 6.364461e-001 7.790723e-001 8.920631e-001 1.057934e+000 1.163271e+000 1.170720e+000 1.384984e+000 1.357209e+000 1.144314e+000 4.226937e-002 2.276432e-002 4.121261e-002 7.771516e-002 1.191071e-001 1.544649e-001 1.951428e-001 2.423592e-001 2.573101e-001 2.235784e-001 2.468372e-001 2.421796e-001 2.273745e-001 9.275425e-003
<GCONST> 5.548426e+001
<MIXTURE> 23 3.558959e-002
<MEAN> 39
 -1.151865e+000 7.644584e+000 4.265354e+000 -9.305666e-002 -7.586860e+000 -3.577105e+000 -5.025151e+000 -4.045326e-001 3.366157e-001 -2.689753e-001 -1.433206e-001 -3.458687e+000 5.896776e+001 -1.125697e+000 -2.502341e-001 -1.028976e+000 4.380387e-001 8.650568e-001 -1.618760e-001 4.251029e-001 -3.210606e-001 -8.538676e-003 2.318201e-002 -6.882023e-002 5.906496e-001 -1.366069e+000 -2.626030e-001 -5.034537e-001 -1.117164e-002 -4.574435e-001 -2.966393e-001 1.326758e-001 -4.472590e-001 8.069348e-002 -1.131673e-001 4.270149e-002 1.828346e-001 -1.161065e-001 9.033486e-001
<VARIANCE> 39
 1.197196e+001 2.478917e+001 3.830905e+001 2.300963e+001 3.101908e+001 3.397366e+001 2.272444e+001 2.904472e+001 3.249231e+001 2.642679e+001 2.848856e+001 2.313469e+001 6.255961e+000 9.186121e-001 1.379019e+000 2.007743e+000 1.482589e+000 1.818407e+000 1.900644e+000 1.849016e+000 1.666069e+000 1.827912e+000 1.909230e+000 1.630097e+000 1.591297e+000 1.600780e+000 2.298753e-001 3.329291e-001 3.565399e-001 3.790845e-001 5.180133e-001 4.292738e-001 4.610104e-001 4.156668e-001 4.569244e-001 3.886510e-001 3.733751e-001 3.538174e-001 2.722389e-001
<GCONST> 1.062696e+002
<MIXTURE> 24 1.504145e-002
<MEAN> 39
 -1.040786e+001 2.694144e+000 -2.325893e+000 -1.760030e-001 -9.804954e-001 2.214627e+000 2.795578e+000 3.834826e+000 3.502680e+000 2.873714e+000 2.348387e+000 1.578134e+000 5.108264e+001 -1.906424e-001 -3.498950e-001 -5.824593e-001 -7.383282e-001 -7.645908e-001 -7.879003e-001 -6.706541e-001 -6.986374e-001 -6.258861e-001 -4.939504e-001 -3.966634e-001 -7.957722e-002 -9.280258e-002 -1.821990e-002 6.157761e-003 6.626371e-002 1.116724e-001 1.162958e-001 4.805141e-002 -5.467762e-003 -1.803102e-002 -5.329886e-002 -7.525536e-002 -1.142948e-001 -1.105384e-001 1.132502e-002
<VARIANCE> 39
 6.966187e-001 1.681284e+000 3.222083e+000 4.620242e+000 5.388501e+000 7.858476e+000 9.169962e+000 9.930402e+000 9.325102e+000 8.976001e+000 9.537580e+000 1.052393e+001 2.838840e-001 9.166664e-002 1.811195e-001 2.892338e-001 4.930573e-001 7.677631e-001 1.010408e+000 1.105269e+000 1.094489e+000 1.117681e+000 1.399871e+000 1.378291e+000 1.224816e+000 2.887767e-002 1.520533e-002 3.504580e-002 7.264493e-002 1.073374e-001 1.320336e-001 1.896316e-001 2.309946e-001 2.425521e-001 2.042144e-001 2.206408e-001 2.184848e-001 2.452387e-001 6.257094e-003
<GCONST> 5.182646e+001
<MIXTURE> 25 2.480250e-002
<MEAN> 39
 6.102458e-002 -1.069568e+001 2.982315e-001 -1.015723e+001 -7.799202e+000 -6.462020e-001 -9.176619e+000 6.114663e+000 4.362309e+000 -5.432746e+000 -2.547975e+000 -1.316671e+001 7.848200e+001 -2.506198e-002 6.576451e-002 -1.374519e-001 -3.456079e-002 2.096385e-001 7.107458e-002 4.435867e-002 -1.146205e-001 -2.403847e-003 2.094606e-003 -1.754222e-002 2.391034e-002 -4.281835e-002 6.761707e-002 2.447076e-001 1.070245e-001 8.460408e-002 -1.525271e-001 -1.312589e-001 -1.400914e-001 -3.367874e-002 8.043782e-003 1.790798e-001 5.034008e-002 2.084862e-001 -1.585718e-001
<VARIANCE> 39
 5.106733e+000 2.239909e+001 5.258516e+001 1.832785e+001 8.416476e+001 3.615454e+001 2.378757e+001 3.998790e+001 2.691336e+001 2.771326e+001 3.663283e+001 3.179671e+001 5.534769e+000 1.713287e-001 6.392624e-001 8.311647e-001 4.942240e-001 1.274626e+000 9.928091e-001 6.866379e-001 1.102927e+000 8.550271e-001 1.030992e+000 9.767248e-001 9.894909e-001 1.164068e-001 2.898236e-002 9.495170e-002 1.042599e-001 7.552750e-002 1.609619e-001 1.180866e-001 1.279236e-001 1.841600e-001 1.502158e-001 1.608362e-001 1.452920e-001 1.657204e-001 2.659785e-002
<GCONST> 7.856993e+001
<MIXTURE> 26 3.497604e-002
<MEAN> 39
 -1.271456e+001 1.479507e+000 -3.344671e+000 2.194859e+000 -5.752593e-002 5.614100e+000 7.026451e-001 1.309885e+000 3.661316e+000 2.190435e+000 4.379209e+000 1.812900e-002 5.388093e+001 -1.201848e-001 -7.246110e-002 -6.047200e-002 2.449105e-002 -1.362704e-001 2.647403e-003 -2.313557e-001 -2.846868e-001 -1.276086e-001 -2.511645e-001 4.411971e-002 -2.588313e-002 1.002355e-001 1.325884e-001 9.615968e-002 1.153264e-001 -8.371930e-002 -7.425531e-002 -2.399967e-001 4.998528e-002 1.091219e-001 -8.160878e-002 -8.407134e-002 -2.205691e-001 -2.786126e-002 -1.302078e-002
<VARIANCE> 39
 4.712617e+000 5.942191e+000 6.182938e+000 8.849224e+000 9.596968e+000 1.746703e+001 1.257601e+001 1.460592e+001 1.278365e+001 1.411731e+001 1.740622e+001 1.443423e+001 2.970477e+000 8.073484e-001 7.305424e-001 7.424921e-001 9.202102e-001 1.153518e+000 1.995227e+000 1.701675e+000 1.739494e+000 1.760903e+000 1.857619e+000 2.187845e+000 1.674644e+000 6.627970e-001 9.687075e-002 1.042579e-001 1.419491e-001 1.595451e-001 2.180911e-001 2.986499e-001 3.067471e-001 2.879671e-001 3.062331e-001 3.206192e-001 3.648081e-001 2.956164e-001 1.158197e-001
<GCONST> 8.399496e+001
<MIXTURE> 27 3.313826e-002
<MEAN> 39
 -2.330880e+000 7.136928e+000 9.068342e+000 7.354520e-001 -1.255948e+001 -6.255042e+000 -4.934224e+000 2.064889e+000 2.861605e-001 -8.413077e-001 -8.303822e-001 -3.441334e+000 6.620737e+001 -1.127405e+000 1.348656e+000 -1.643723e+000 1.207678e+000 2.751562e+000 3.464328e-001 1.765045e+000 -7.155482e-001 7.934157e-001 2.172657e-002 -4.420687e-001 7.905827e-001 -1.818346e+000 -3.898740e-001 -6.732126e-001 -1.155976e-001 -5.590863e-001 -2.209880e-001 2.593521e-001 -6.300209e-001 -6.984127e-002 -2.198985e-001 -1.034836e-001 3.058839e-001 -2.402931e-001 4.945318e-001
<VARIANCE> 39
 2.100394e+001 3.697968e+001 4.125758e+001 1.793312e+001 4.186858e+001 3.845671e+001 3.207915e+001 4.436543e+001 3.977579e+001 3.358112e+001 2.732226e+001 2.734905e+001 1.453954e+001 4.540566e+000 3.522250e+000 3.595074e+000 2.208576e+000 4.007440e+000 3.883798e+000 3.560322e+000 3.368527e+000 3.142421e+000 2.678941e+000 2.278575e+000 3.704557e+000 2.304596e+000 4.128605e-001 3.963292e-001 4.468115e-001 3.943396e-001 6.863453e-001 5.560786e-001 6.016639e-001 5.369354e-001 5.505143e-001 5.669597e-001 4.659206e-001 4.646201e-001 2.650551e-001
<GCONST> 1.215839e+002
<MIXTURE> 28 2.850467e-002
<MEAN> 39
 1.047336e+000 -3.653816e+000 1.626956e+000 -5.571816e+000 -1.087767e+001 -4.877103e+000 -1.421596e+001 2.343956e+000 5.804992e+000 8.520453e-001 -2.701276e+000 -7.994856e+000 7.437343e+001 1.167393e+000 -2.713003e+000 -2.628973e-002 -1.996238e+000 -7.446362e-001 2.870851e-002 -1.824550e+000 1.774387e+000 9.204050e-001 -4.418346e-001 -4.628453e-001 -1.599325e+000 2.136777e+000 -4.095654e-001 2.573486e-001 1.203713e-001 1.267494e-001 1.562748e-001 3.661863e-001 5.730349e-001 -1.527580e-001 -3.836328e-001 -1.808877e-001 3.866959e-001 1.617998e-001 -4.348179e-001
<VARIANCE> 39
 9.351479e+000 3.532343e+001 2.921803e+001 3.920569e+001 4.232355e+001 4.891589e+001 4.954413e+001 4.899439e+001 2.219813e+001 3.079041e+001 2.680089e+001 2.980532e+001 1.207565e+001 3.401973e+000 3.306758e+000 4.338184e+000 3.336588e+000 6.002404e+000 4.433859e+000 5.626024e+000 6.931272e+000 3.660337e+000 3.891190e+000 3.760966e+000 4.572784e+000 1.929895e+000 3.993643e-001 5.235425e-001 4.338216e-001 6.559892e-001 5.993314e-001 6.903960e-001 7.485709e-001 7.812908e-001 5.737681e-001 5.742034e-001 5.943252e-001 7.159301e-001 3.857916e-001
<GCONST> 1.266907e+002
<MIXTURE> 29 3.256683e-002
<MEAN> 39
 -1.086288e+001 2.798699e+000 -1.665161e+000 1.269794e+000 -2.651038e-001 3.365904e+000 3.522480e+000 4.510195e+000 4.089819e+000 2.482957e+000 1.784516e+000 9.539665e-002 5.168668e+001 4.726778e-002 1.586420e-002 5.298988e-002 6.571896e-002 6.685337e-002 1.704085e-001 2.831027e-002 1.244452e-001 1.839143e-001 1.910455e-001 -4.011547e-003 -6.479670e-003 -5.693958e-002 -1.189084e-001 -3.891809e-002 -1.166654e-001 -4.858121e-002 -5.258941e-002 1.609813e-002 -3.114241e-001 -2.931898e-001 -1.599095e-001 -8.409996e-002 8.257169e-002 1.115763e-001 1.392967e-001
<VARIANCE> 39
 1.563041e+000 2.532644e+000 3.320391e+000 4.637629e+000 6.727317e+000 8.366035e+000 9.639449e+000 1.020515e+001 1.140447e+001 1.142968e+001 1.178169e+001 1.025379e+001 9.967709e-001 4.035549e-001 4.071220e-001 5.581256e-001 7.047989e-001 8.864771e-001 1.511709e+000 1.536935e+000 1.508892e+000 1.360429e+000 1.379147e+000 1.717564e+000 1.277576e+000 2.406525e-001 6.254863e-002 7.097234e-002 8.224636e-002 1.202611e-001 1.776217e-001 2.357668e-001 2.470179e-001 2.227774e-001 2.391597e-001 2.858098e-001 2.897103e-001 2.358556e-001 2.613795e-002
<GCONST> 6.733609e+001
<MIXTURE> 30 2.994801e-002
<MEAN> 39
 -2.799604e+000 2.333918e-001 1.717601e+001 -5.418639e+000 -2.535171e+001 -6.571912e+000 -1.096099e+001 3.798923e+000 -7.818292e+000 -1.192211e+000 6.007496e+000 -5.439270e+000 7.364961e+001 2.971320e-001 1.080183e+000 -9.077099e-001 1.077877e+000 1.450696e+000 -2.728275e-001 1.201786e+000 -4.018042e-001 6.400777e-001 1.649391e-001 -4.014699e-001 3.228434e-001 -1.302604e+000 -1.062198e-001 3.996831e-001 -8.026819e-001 3.850570e-001 1.278327e+000 2.701705e-001 2.875949e-001 -3.089250e-001 7.673190e-001 -6.961659e-002 -5.375430e-001 9.440457e-002 -6.107118e-001
<VARIANCE> 39
 6.175673e+000 2.491695e+001 2.950633e+001 2.119414e+001 2.557094e+001 3.224667e+001 2.922838e+001 3.151463e+001 2.431278e+001 3.360088e+001 2.351274e+001 2.350953e+001 1.101931e+001 9.759203e-001 3.316489e+000 2.922218e+000 1.934945e+000 3.997661e+000 3.895431e+000 3.622059e+000 3.316937e+000 3.252613e+000 2.442053e+000 2.184218e+000 2.392104e+000 1.844508e+000 3.035711e-001 4.771427e-001 5.731544e-001 3.696072e-001 7.979497e-001 5.020291e-001 7.340654e-001 4.850115e-001 4.944995e-001 5.207233e-001 4.504515e-001 6.054519e-001 2.522507e-001
<GCONST> 1.151239e+002
<MIXTURE> 31 1.587967e-002
<MEAN> 39
 -3.317032e+000 9.705914e+000 1.075183e+001 -4.678842e+000 -1.371012e+001 -1.280890e+000 -9.393571e+000 -2.986854e+000 -4.836549e+000 -1.716941e+000 -1.493870e+000 -7.549511e+000 6.692847e+001 2.530310e+000 3.828714e-002 2.461524e+000 -1.739112e+000 -3.998723e+000 5.687714e-001 -2.876060e+000 -8.688042e-001 -1.456649e+000 -6.190784e-001 6.399109e-001 -2.141742e+000 1.864413e+000 -5.906424e-001 -6.033108e-001 -5.512443e-001 -8.408635e-002 2.642452e-001 1.406156e-001 1.642221e-001 3.405684e-001 3.966365e-001 1.356496e-001 4.535915e-001 3.542998e-001 4.573363e-002
<VARIANCE> 39
 2.937001e+001 2.195407e+001 8.051800e+001 3.780657e+001 6.485760e+001 3.335767e+001 3.192015e+001 2.316498e+001 2.237934e+001 2.579281e+001 1.866233e+001 2.203097e+001 1.536446e+001 6.544628e+000 3.146833e+000 5.627104e+000 3.809946e+000 4.739441e+000 5.976691e+000 4.212024e+000 4.567094e+000 3.085547e+000 3.975546e+000 3.176529e+000 3.352829e+000 1.465246e+000 5.102422e-001 4.284933e-001 5.488008e-001 4.677153e-001 9.252860e-001 5.604414e-001 6.957321e-001 4.582605e-001 4.106369e-001 4.493716e-001 3.458144e-001 4.221809e-001 2.815511e-001
<GCONST> 1.236454e+002
<MIXTURE> 32 3.058588e-002
<MEAN> 39
 1.864311e+000 2.415206e+000 6.116499e+000 -1.416582e+000 -1.169611e+001 2.455770e-001 -1.296444e+001 -7.159070e+000 -5.876023e-002 -2.049641e+000 2.567765e+000 -1.005650e+001 6.846771e+001 -1.745719e-001 -5.986278e-001 1.565791e-001 -5.558706e-001 -3.725501e-001 -2.237187e-001 -2.598303e-001 6.921088e-001 1.592931e-001 4.027296e-002 -1.824400e-001 1.574129e-001 5.701331e-001 -1.951303e-001 -4.052457e-001 8.250360e-002 -6.492870e-001 -3.122655e-001 -1.693949e-001 -2.068429e-002 1.037810e+000 -5.919538e-002 -1.298395e-001 -7.405494e-002 2.637001e-001 4.681177e-001
<VARIANCE> 39
 4.227979e+000 1.748290e+001 2.625428e+001 2.072908e+001 2.671804e+001 3.240069e+001 3.718610e+001 3.094224e+001 3.549730e+001 5.419971e+001 2.768591e+001 2.969533e+001 5.443108e+000 8.400374e-001 2.091618e+000 3.331217e+000 3.209364e+000 2.947371e+000 4.581482e+000 2.611176e+000 7.846408e+000 4.132772e+000 2.845367e+000 3.048772e+000 3.206284e+000 1.226387e+000 1.468004e-001 3.974325e-001 5.589718e-001 3.505987e-001 7.226215e-001 6.348138e-001 5.894899e-001 9.193009e-001 7.412081e-001 6.661747e-001 6.416038e-001 5.490775e-001 1.731139e-001
<GCONST> 1.161980e+002
<TRANSP> 3
 0.000000e+000 1.000000e+000 0.000000e+000
 0.000000e+000 9.985553e-001 1.444723e-003
 0.000000e+000 0.000000e+000 0.000000e+000
<ENDHMM>
~h "pavel_rada"
<BEGINHMM>
<NUMSTATES> 3
<STATE> 2
<NUMMIXES> 32
<MIXTURE> 1 3.772928e-003
<MEAN> 39
 -9.242764e+000 1.419620e+000 -1.277777e+000 1.507452e+000 3.650897e-001 1.259277e+000 -9.895743e-002 2.179683e+000 -3.842250e-001 1.696144e+000 5.822722e-001 1.091985e+000 5.349316e+001 5.414492e+000 -3.186533e+000 1.362956e+000 -1.468854e+000 5.286245e+000 -2.409731e+000 1.070975e+000 1.837991e+000 -2.038845e-002 3.256335e+000 -1.427719e+000 4.427725e-001 9.244741e+000 -1.460032e+000 6.807240e-001 4.921896e-001 -9.116933e-002 -4.256942e-001 6.309459e-001 2.113658e-001 -1.161745e-001 -2.947764e-001 1.443292e-001 9.893066e-002 -8.440978e-002 -2.277755e+000
<VARIANCE> 39
 1.239436e+000 1.486571e+000 4.508575e+000 3.178999e+000 7.770393e+000 4.946620e+000 8.558858e+000 3.740848e+000 5.301669e+000 4.176972e+000 2.367135e+000 5.563935e+000 6.531986e+001 2.300807e+000 1.197489e+000 1.845394e+000 1.323514e+000 1.117610e+000 2.008045e+000 1.574843e+000 1.191255e+000 2.185276e+000 1.884006e+000 1.250216e+000 7.458436e-001 6.122779e+000 3.196048e-001 2.634563e-001 3.350624e-001 2.681333e-001 4.093143e-001 2.928645e-001 3.115200e-001 2.404640e-001 3.271393e-001 3.056814e-001 1.334267e-001 1.945576e-001 1.612742e+000
<GCONST> 8.334938e+001
<MIXTURE> 2 1.478924e-002
<MEAN> 39
 -1.266489e+001 8.726342e-001 3.921770e+000 -2.691761e+000 1.034151e+001 -2.856718e-001 3.283296e+000 4.001896e+000 -3.754303e+000 9.250582e+000 -4.264739e+000 -1.031644e+000 4.984041e+001 -1.482678e-003 -1.140315e-001 -1.926515e-001 1.354702e-001 7.510942e-002 3.962746e-001 2.617956e-001 2.954308e-001 5.385945e-001 3.118100e-001 3.500282e-001 1.555048e-001 -6.680995e-002 2.260072e-002 2.310261e-002 -1.896507e-002 -3.327067e-002 -1.072965e-001 -4.493604e-002 -1.335420e-002 -7.981005e-002 -1.073748e-001 -8.792416e-002 8.012323e-002 1.163080e-001 3.008693e-003
<VARIANCE> 39
 9.588718e-001 1.337099e+000 2.750902e+000 7.761459e+000 6.889548e+000 1.016644e+001 8.287558e+000 7.359341e+000 1.576350e+001 1.259996e+001 1.169960e+001 8.358774e+000 5.716952e-001 6.442744e-002 1.797559e-001 2.759174e-001 4.440769e-001 7.006118e-001 9.425015e-001 1.065680e+000 1.067316e+000 1.154011e+000 1.411391e+000 1.019627e+000 9.475447e-001 2.362917e-002 1.046466e-002 2.995650e-002 4.724758e-002 8.468854e-002 1.156884e-001 1.617429e-001 2.034740e-001 1.793524e-001 2.380802e-001 2.770547e-001 2.188892e-001 1.981196e-001 3.396729e-003
<GCONST> 5.010600e+001
<MIXTURE> 3 7.349663e-002
<MEAN> 39
 5.501987e+000 -5.058608e+000 -7.236411e-001 -2.116748e+001 -2.437490e+000 3.233052e-001 -3.424497e+000 -1.912181e+000 -1.269392e+001 5.906391e+000 5.319961e+000 -2.415828e+000 7.361400e+001 -1.557514e-001 5.821751e-001 2.827246e-001 2.865181e-001 3.502428e-001 1.055323e-001 3.809132e-001 -1.299918e-001 -3.224590e-001 2.056718e-001 -2.829972e-001 4.976303e-002 -5.703341e-001 -3.865923e-001 1.717094e-001 2.201419e-001 5.900033e-001 3.786137e-001 -3.843201e-001 7.576138e-002 8.173705e-002 1.552300e-001 1.542416e-001 -4.995562e-001 6.992772e-002 -2.089849e-001
<VARIANCE> 39
 4.850260e+000 2.524349e+001 3.383826e+001 5.504969e+001 3.536704e+001 3.425445e+001 5.551799e+001 4.097651e+001 2.525205e+001 4.911362e+001 4.724719e+001 3.331966e+001 1.279115e+001 7.736529e-001 2.135524e+000 1.815756e+000 4.503903e+000 3.699583e+000 2.668009e+000 3.483504e+000 2.507114e+000 2.663942e+000 2.783525e+000 3.564566e+000 2.692294e+000 1.377481e+000 2.319309e-001 2.952021e-001 2.666276e-001 5.418975e-001 5.615357e-001 4.254707e-001 5.694337e-001 4.915290e-001 4.361839e-001 5.124652e-001 7.386655e-001 5.002673e-001 1.736332e-001
<GCONST> 1.159572e+002
<MIXTURE> 4 4.414296e-002
<MEAN> 39
 -3.161001e+001 1.361728e+001 -3.796245e-001 5.058538e+000 -1.412005e+001 1.151274e+001 1.122738e+000 -2.184804e+000 -1.245501e+000 -4.062452e+000 5.433388e+000 -1.050234e-001 1.805657e+001 1.545045e-001 -2.198638e-001 -4.286573e-001 -9.465786e-002 2.760920e-001 4.495675e-002 -2.227401e-001 1.771775e-002 2.934317e-001 5.965306e-002 -1.978074e-001 -9.858777e-002 1.156105e-001 2.710258e-002 -3.705700e-002 -7.204385e-002 1.340076e-002 3.132489e-002 -2.135274e-002 -5.632773e-002 3.254354e-002 6.732563e-002 4.717275e-003 -3.727149e-002 -2.048524e-002 1.645363e-002
<VARIANCE> 39
 1.513664e-001 7.893014e-001 1.505395e+000 2.102435e+000 2.541403e+000 3.659026e+000 3.608013e+000 4.006371e+000 4.698534e+000 4.198153e+000 4.408135e+000 4.646760e+000 9.787480e-002 2.657437e-002 8.345800e-002 1.942108e-001 2.089498e-001 2.366926e-001 3.840050e-001 4.323228e-001 4.828544e-001 4.702398e-001 4.690552e-001 4.399599e-001 4.196434e-001 1.581399e-002 5.200821e-003 1.854092e-002 4.015685e-002 4.523096e-002 5.414291e-002 8.480547e-002 9.083202e-002 9.388489e-002 1.023093e-001 8.987846e-002 9.558392e-002 9.493213e-002 2.978665e-003
<GCONST> 1.774159e+001
<MIXTURE> 5 4.062774e-002
<MEAN> 39
 -9.380903e+000 -6.234066e+000 5.312969e+000 -1.234540e+001 7.174219e+000 -8.413209e+000 -3.040231e+000 4.344718e+000 -1.006197e+001 1.134618e+001 -5.749513e+000 4.999262e+000 6.824600e+001 4.268954e-001 -8.124369e-001 4.674544e-001 -1.828022e+000 -1.676279e-001 -4.854025e-001 -5.454548e-001 3.165503e-001 -1.176826e+000 5.147066e-001 -2.694244e-002 4.147604e-001 3.142766e+000 8.951429e-001 3.188550e-001 -1.378200e-002 4.599004e-001 -9.093004e-001 -6.057799e-004 -2.397500e-001 -2.841467e-001 6.680465e-002 -7.109885e-001 8.771579e-001 -1.007322e+000 -1.183114e-001
<VARIANCE> 39
 3.678051e+001 3.719922e+001 8.334250e+001 4.177160e+001 4.656548e+001 5.165416e+001 4.258635e+001 4.067160e+001 4.828065e+001 4.950666e+001 2.591250e+001 2.691295e+001 2.602179e+001 7.558429e+000 4.451610e+000 6.568813e+000 6.373008e+000 6.749509e+000 5.525869e+000 5.488220e+000 5.238131e+000 6.938325e+000 5.587510e+000 4.194105e+000 5.076801e+000 4.357804e+000 6.989054e-001 7.277884e-001 1.082419e+000 9.618553e-001 1.088897e+000 9.780105e-001 9.402414e-001 9.063246e-001 1.037975e+000 1.185313e+000 7.336364e-001 7.186376e-001 7.390448e-001
<GCONST> 1.408293e+002
<MIXTURE> 6 4.531812e-002
<MEAN> 39
 -1.908533e+001 -1.271219e+000 6.898755e+000 -1.095101e+001 7.988222e+000 -1.214357e+001 1.296479e+000 2.884240e+000 -7.355201e+000 8.771395e+000 -4.833029e+000 5.883251e+000 6.974187e+001 -5.751707e-001 -5.135852e-002 -2.865031e-001 1.792695e-001 2.561027e-001 3.579818e-001 4.855137e-001 1.108770e-001 7.132985e-001 1.155879e-001 1.611026e-001 1.047130e-001 -5.790647e-001 5.918447e-001 -8.090023e-002 2.693950e-002 1.243545e-001 -7.073705e-002 2.227519e-001 -8.246612e-002 1.654277e-002 -4.758966e-002 3.178022e-002 8.100829e-002 -2.497510e-001 -1.016046e-001
<VARIANCE> 39
 4.428049e+001 5.492723e+001 5.234288e+001 3.727129e+001 4.497116e+001 3.372606e+001 2.977584e+001 2.713346e+001 3.039458e+001 2.411011e+001 2.007336e+001 1.755812e+001 3.330478e+001 3.351695e+000 1.515033e+000 1.827908e+000 1.871828e+000 2.160549e+000 2.587410e+000 2.266220e+000 2.120937e+000 2.171545e+000 1.750277e+000 1.870195e+000 1.791821e+000 2.887805e+000 3.287426e-001 4.019307e-001 3.376860e-001 3.573201e-001 4.888533e-001 4.961345e-001 4.006613e-001 3.970563e-001 4.515745e-001 3.593805e-001 3.888788e-001 3.812350e-001 4.307453e-001
<GCONST> 1.148240e+002
<MIXTURE> 7 1.936305e-002
<MEAN> 39
 -1.052138e+001 2.023349e+000 5.044843e+000 -5.785851e+000 1.021127e+001 -4.827800e+000 1.206920e+000 2.203485e+000 -7.689124e+000 1.063941e+001 -4.061820e+000 1.094635e-001 5.350598e+001 -6.514622e-001 4.313250e-002 6.010810e-002 -1.400890e-001 5.405669e-001 1.262201e-001 3.079684e-001 1.143859e-001 5.975059e-002 2.906809e-001 -8.362579e-002 1.922882e-001 -3.964958e-001 8.894978e-002 -1.938397e-002 -2.657961e-004 5.625804e-002 -9.218109e-002 6.474563e-002 4.875126e-002 9.944288e-002 3.351159e-002 -6.415582e-002 8.763198e-002 1.160709e-002 4.671935e-002
<VARIANCE> 39
 1.598511e+001 1.528795e+001 3.495952e+001 4.498486e+001 3.375595e+001 2.656038e+001 2.080600e+001 2.131291e+001 2.571501e+001 2.093088e+001 1.922473e+001 1.528663e+001 4.781640e+000 5.924826e-001 6.223341e-001 1.274891e+000 1.432086e+000 1.683061e+000 1.525068e+000 1.497769e+000 1.752425e+000 1.661274e+000 1.827399e+000 1.362221e+000 1.158465e+000 1.405768e-001 1.043541e-001 1.009513e-001 2.061289e-001 2.247462e-001 3.135515e-001 2.913401e-001 2.848632e-001 3.377357e-001 3.259045e-001 3.009630e-001 2.647665e-001 2.222212e-001 2.753964e-002
<GCONST> 9.097599e+001
<MIXTURE> 8 7.108235e-003
<MEAN> 39
 -3.137637e+001 1.335138e+001 -1.111531e+000 4.904943e+000 -1.363653e+001 1.123981e+001 6.681006e-001 -1.591907e+000 -8.521211e-001 -3.864641e+000 5.223894e+000 -7.521823e-001 1.822772e+001 -2.907699e-002 6.281310e-002 1.439481e-002 -7.305724e-002 3.308599e-002 7.026298e-002 -8.584551e-002 -1.520403e-001 9.741522e-002 1.169814e-001 -8.238123e-002 6.113696e-002 2.519866e-003 1.196456e+000 -7.235138e-001 -7.894595e-003 -3.240432e-001 9.296241e-001 -6.643075e-001 -6.489208e-002 2.075781e-001 -1.170708e-001 3.945416e-001 -4.392239e-001 9.043080e-002 1.864344e+000
<VARIANCE> 39
 3.295065e-001 1.111560e+000 2.490378e+000 1.325719e+000 3.208595e+000 3.441372e+000 3.613675e+000 3.934836e+000 4.892365e+000 4.054435e+000 4.337356e+000 3.950756e+000 2.187265e-001 4.726097e-002 1.356411e-001 3.884871e-001 1.808838e-001 2.922168e-001 2.894935e-001 4.188601e-001 3.713359e-001 5.334749e-001 4.711582e-001 3.159399e-001 4.754188e-001 3.264299e-002 2.517284e-001 9.666716e-002 1.194467e-001 1.315139e-001 3.103930e-001 1.703546e-001 1.004125e-001 1.202926e-001 1.706799e-001 1.984884e-001 1.820602e-001 1.050448e-001 8.081253e-001
<GCONST> 3.971716e+001
<MIXTURE> 9 5.050626e-002
<MEAN> 39
 -3.752289e-001 -6.662626e+000 1.485403e+001 -4.997808e+000 -7.156579e+000 -1.499904e+001 -9.051892e+000 6.544170e+000 -1.718279e+001 6.155592e-001 3.327947e+000 -5.502595e-001 7.281243e+001 -3.332463e-001 1.209862e+000 -3.865381e-001 7.899347e-001 1.424761e+000 -1.740810e-002 1.358161e+000 -4.969775e-001 3.098203e-001 9.589463e-001 -8.181714e-001 1.785016e-001 -1.555654e+000 -2.402588e-001 3.177768e-001 -3.569813e-001 -1.637689e-001 5.649465e-001 4.806626e-001 1.899470e-001 -4.691566e-001 4.368900e-001 4.656344e-001 -3.854155e-001 -9.087694e-002 -3.207597e-001
<VARIANCE> 39
 1.313023e+001 2.238293e+001 5.527945e+001 2.742250e+001 4.909814e+001 5.136630e+001 4.133263e+001 5.157003e+001 5.302111e+001 3.675796e+001 3.510772e+001 1.978257e+001 1.808747e+001 8.621669e-001 1.693545e+000 4.166351e+000 2.327114e+000 4.521015e+000 3.205033e+000 2.841454e+000 3.147469e+000 5.306589e+000 3.134291e+000 2.878016e+000 1.680082e+000 1.914590e+000 1.791688e-001 3.370974e-001 4.330436e-001 4.199251e-001 8.464989e-001 5.214875e-001 7.197189e-001 6.315589e-001 6.520918e-001 6.662936e-001 6.017689e-001 4.088512e-001 2.336584e-001
<GCONST> 1.199391e+002
<MIXTURE> 10 3.658834e-002
<MEAN> 39
 7.562400e-001 -8.709628e+000 8.796249e+000 -9.432925e+000 -4.390202e+000 -1.490704e+001 -1.119012e+001 3.912404e+000 -1.078110e+001 3.997015e+000 2.532253e+000 -2.670918e+000 7.686409e+001 2.012641e+000 -1.806188e+000 -6.940002e-001 -2.688997e-001 -2.335661e+000 -6.661645e-002 -1.379946e+000 9.600310e-001 4.156217e-001 -1.190860e+000 2.254401e+000 -1.808244e+000 1.167538e+000 -7.474402e-001 3.463180e-001 -2.115320e-001 9.383283e-002 7.387258e-001 6.895345e-001 8.850896e-001 -1.268248e-001 6.195695e-002 3.700072e-001 -4.239501e-001 2.788721e-001 -7.967116e-001
<VARIANCE> 39
 1.144586e+001 1.667403e+001 8.770200e+001 3.651660e+001 4.958578e+001 3.537737e+001 4.159933e+001 4.519001e+001 5.198065e+001 5.628327e+001 3.014710e+001 3.135162e+001 7.506619e+000 2.930220e+000 1.706332e+000 5.699300e+000 2.911302e+000 3.839369e+000 3.786983e+000 3.543758e+000 4.229785e+000 4.735628e+000 5.024022e+000 3.262154e+000 4.001282e+000 1.403795e+000 5.209168e-001 4.963585e-001 6.183327e-001 5.318440e-001 8.866612e-001 5.129129e-001 6.344402e-001 7.484958e-001 7.061889e-001 9.688709e-001 6.204283e-001 6.872795e-001 3.035373e-001
<GCONST> 1.263161e+002
<MIXTURE> 11 6.975609e-002
<MEAN> 39
 -2.569868e+000 -1.736528e-001 5.424150e+000 -8.584352e+000 3.946522e+000 -8.768064e+000 -3.856040e+000 1.071745e+000 -9.878910e+000 8.410763e+000 -2.706121e+000 -1.074224e+000 6.564128e+001 -2.156338e+000 3.988942e-001 3.059970e-001 -4.391655e-002 1.578797e+000 -2.776201e-001 1.055784e+000 1.528031e-001 4.072772e-001 7.931149e-001 -1.275825e+000 1.488776e+000 -2.830509e-001 -2.473220e-001 -4.544769e-001 -1.425362e-003 -3.371287e-001 -2.998068e-001 5.300813e-002 -1.367219e-002 1.596808e-001 -1.096902e-001 -1.766508e-001 2.463048e-001 4.630720e-002 6.055711e-001
<VARIANCE> 39
 2.463821e+001 3.078290e+001 8.256786e+001 6.031642e+001 4.024479e+001 5.693266e+001 3.938589e+001 4.551541e+001 6.195951e+001 3.828504e+001 3.049615e+001 3.164307e+001 4.169815e+001 3.823270e+000 4.121233e+000 3.912947e+000 5.437947e+000 5.030774e+000 5.033594e+000 4.301535e+000 4.483541e+000 5.075198e+000 3.820239e+000 3.120745e+000 3.269246e+000 4.006590e+000 4.532936e-001 3.587363e-001 5.401613e-001 5.242461e-001 7.104400e-001 6.183817e-001 5.710804e-001 5.790831e-001 8.081367e-001 5.646895e-001 4.841229e-001 4.601176e-001 4.584077e-001
<GCONST> 1.310321e+002
<MIXTURE> 12 3.208410e-002
<MEAN> 39
 -3.077449e+001 1.224749e+001 -2.644505e+000 4.640674e+000 -1.280503e+001 1.136286e+001 4.194219e-002 -1.700012e+000 4.774499e-001 -3.494681e+000 4.290726e+000 -1.038240e+000 1.869479e+001 7.629703e-002 -1.307956e-001 -2.146125e-001 -3.215170e-002 1.429594e-001 3.347031e-002 -1.039024e-001 -2.927409e-002 1.424104e-001 7.021262e-002 -9.414212e-002 -1.060259e-001 6.333564e-002 -7.039135e-002 1.198099e-001 2.041226e-001 4.480537e-002 -1.236692e-001 -1.229115e-002 8.993278e-002 -1.426862e-002 -1.391927e-001 -6.858464e-002 1.037729e-001 8.239971e-002 -5.729070e-002
<VARIANCE> 39
 2.340862e-001 5.853326e-001 1.491652e+000 1.574326e+000 1.705015e+000 2.558237e+000 3.221898e+000 3.287895e+000 4.263834e+000 3.654783e+000 3.157497e+000 2.898207e+000 1.571533e-001 3.055865e-002 9.650353e-002 2.322894e-001 2.001189e-001 2.582050e-001 3.941033e-001 4.502643e-001 4.765697e-001 4.938771e-001 5.071300e-001 4.343471e-001 4.646445e-001 1.672565e-002 4.661256e-003 1.398721e-002 3.719639e-002 4.037352e-002 4.309509e-002 6.872749e-002 7.998604e-002 8.698860e-002 9.586335e-002 9.821355e-002 8.046766e-002 7.612400e-002 2.933233e-003
<GCONST> 1.516975e+001
<MIXTURE> 13 8.749443e-003
<MEAN> 39
 -1.835002e+001 6.495260e+000 -1.223287e-001 3.701698e-001 -2.417611e+000 2.268391e+000 9.107713e-001 -2.816173e-001 -2.437284e+000 1.753425e+000 1.459653e+000 1.366394e+000 4.086092e+001 -1.846159e+000 -7.054618e-002 1.090288e-001 -1.885581e-002 -1.548798e+000 9.248681e-001 -1.520725e-001 2.093730e-001 3.714754e-002 -5.781205e-001 6.347256e-001 2.874368e-001 -1.308966e+000 6.236222e-001 -6.142003e-001 3.558234e-001 -8.575642e-001 6.332287e-001 -6.787418e-001 -1.037875e-001 3.665922e-001 -4.695618e-001 6.782423e-001 -3.771814e-001 4.662653e-003 1.607190e+000
<VARIANCE> 39
 1.141262e+002 3.221769e+001 3.083738e+001 5.087115e+001 9.122565e+001 8.819410e+001 1.968241e+001 1.885970e+001 3.095076e+001 3.684396e+001 2.997863e+001 1.699117e+001 3.065106e+002 7.273562e+000 9.316384e+000 2.845508e+000 7.340486e+000 1.123660e+001 7.576849e+000 2.860230e+000 3.371046e+000 3.893789e+000 6.233869e+000 4.871460e+000 2.405169e+000 2.553586e+001 6.358199e-001 3.936071e-001 4.013647e-001 4.794227e-001 1.289874e+000 6.137100e-001 4.557464e-001 3.472234e-001 4.531301e-001 4.834331e-001 4.491261e-001 2.844805e-001 1.088080e+000
<GCONST> 1.354061e+002
<MIXTURE> 14 2.865890e-002
<MEAN> 39
 -1.132988e+001 1.656120e+000 3.596070e+000 -9.400148e-001 7.473937e+000 1.835192e-001 2.226265e+000 1.153919e+000 -4.564764e+000 5.839136e+000 -4.531182e+000 -1.153930e+000 4.963837e+001 6.214113e-003 4.040510e-002 3.546915e-002 8.615804e-002 -4.211883e-002 2.109871e-002 1.832070e-002 -1.052556e-001 -1.287913e-001 -2.077471e-001 -1.939736e-001 -1.697733e-001 1.291221e-003 -5.005723e-002 -6.491879e-002 -4.164660e-002 -3.106922e-003 5.208686e-002 6.876312e-002 8.611020e-002 1.265384e-001 1.805300e-001 1.525078e-001 6.477734e-002 3.030097e-002 -6.839352e-003
<VARIANCE> 39
 9.907979e-001 1.534492e+000 3.224090e+000 6.678656e+000 6.717373e+000 1.097580e+001 8.402225e+000 1.098287e+001 1.220576e+001 1.338473e+001 1.295859e+001 9.762006e+000 5.959248e-001 7.916103e-002 1.470765e-001 3.246670e-001 5.326734e-001 6.122605e-001 8.389608e-001 9.948347e-001 9.285295e-001 1.107196e+000 1.345826e+000 1.077389e+000 1.091599e+000 2.863494e-002 1.636641e-002 2.824413e-002 6.498720e-002 1.071862e-001 1.139300e-001 1.672343e-001 1.898820e-001 1.756575e-001 1.974269e-001 2.676174e-001 2.262065e-001 1.902813e-001 5.290769e-003
<GCONST> 5.212890e+001
<MIXTURE> 15 8.274461e-003
<MEAN> 39
 -1.212637e+001 5.523168e-001 2.311333e+000 -1.599972e+000 7.592662e+000 2.072696e+000 3.905116e+000 3.358268e+000 -2.163917e+000 7.237934e+000 -2.490041e+000 -3.951837e-001 4.935452e+001 4.241199e-002 1.922820e-002 2.794405e-002 1.109435e-001 -2.014996e-001 -8.667396e-002 -1.382555e-001 -2.453779e-001 -2.141292e-001 -1.903441e-001 -1.214176e-001 -1.957357e-001 -1.741558e-003 1.265253e-002 1.242860e-001 4.537899e-002 -3.059434e-002 -2.461672e-001 -1.796670e-001 -3.844672e-001 -1.023459e-001 -1.299163e-001 -9.571176e-002 -5.156607e-002 -1.217827e-002 9.628766e-002
<VARIANCE> 39
 2.402647e+000 1.585491e+000 6.567373e+000 1.430001e+001 1.315829e+001 1.189956e+001 1.182854e+001 1.161460e+001 1.375498e+001 1.407235e+001 1.258466e+001 9.539162e+000 1.225265e+000 3.912322e-001 3.183257e-001 9.655507e-001 1.351335e+000 1.074668e+000 1.118338e+000 1.291803e+000 1.221917e+000 1.756673e+000 1.252744e+000 1.379855e+000 1.328277e+000 2.031576e-001 1.463765e-001 1.017338e-001 2.664066e-001 3.659586e-001 2.540819e-001 2.499294e-001 2.805240e-001 2.614211e-001 4.262028e-001 4.073266e-001 3.001402e-001 2.795876e-001 2.535170e-001
<GCONST> 7.890853e+001
<MIXTURE> 16 2.466119e-002
<MEAN> 39
 4.670852e+000 -1.230216e+001 -1.048885e+001 -1.100489e+001 5.174170e+000 -4.279880e+000 -4.515160e-001 3.017095e+000 -7.658137e+000 2.575223e+000 2.480727e-001 -8.562266e+000 7.798675e+001 9.633254e-002 2.631569e-001 -2.490232e-001 1.158054e-001 9.154422e-002 6.993037e-002 1.633197e-001 -2.861290e-001 -1.808488e-001 1.966755e-003 -9.713934e-002 3.450685e-001 -2.207401e-001 1.509141e-002 1.433184e-001 3.574722e-001 -4.004781e-002 -2.603656e-001 -1.651067e-001 -2.537260e-002 2.285087e-002 -7.530885e-002 1.524228e-001 9.051051e-002 1.362963e-001 -1.333436e-001
<VARIANCE> 39
 3.612067e+000 9.923656e+000 2.873012e+001 2.100388e+001 1.925688e+001 3.017512e+001 2.566227e+001 3.036284e+001 1.273496e+001 1.742366e+001 2.815221e+001 1.513985e+001 5.781550e+000 1.712426e-001 5.346108e-001 1.463698e+000 1.045478e+000 1.430366e+000 1.393028e+000 1.245919e+000 1.720899e+000 7.106174e-001 8.601502e-001 1.819980e+000 1.132715e+000 1.357707e-001 2.981716e-002 1.252512e-001 1.595849e-001 1.324014e-001 1.554882e-001 1.973861e-001 1.874663e-001 2.137688e-001 1.506287e-001 1.392340e-001 2.189305e-001 2.359253e-001 4.619769e-002
<GCONST> 7.956447e+001
<MIXTURE> 17 5.121119e-002
<MEAN> 39
 -3.148961e+000 -1.017244e+000 2.128709e+001 -8.598501e+000 -9.071527e+000 -5.388644e+000 -1.027465e+001 1.351649e+000 -2.063832e+001 2.497680e+000 1.925643e+000 -1.830497e+000 7.192644e+001 -2.690405e-002 3.312566e-002 8.527166e-002 -3.990172e-002 -4.186538e-001 5.696320e-002 1.236470e-001 -1.360435e-002 -1.756614e-001 1.667812e-001 1.476344e-001 -8.783001e-002 -8.703414e-002 9.065690e-003 -1.808127e-003 -3.941175e-001 2.083282e-001 3.504981e-001 -3.088692e-001 2.660794e-001 6.900221e-002 2.654198e-001 9.355550e-002 -1.847819e-001 9.804668e-002 -1.218434e-001
<VARIANCE> 39
 1.412619e+001 3.706811e+001 5.494373e+001 3.201127e+001 5.413826e+001 7.145670e+001 3.382785e+001 3.494196e+001 3.458523e+001 3.020462e+001 2.409556e+001 1.842333e+001 2.104305e+001 4.831662e-001 9.617774e-001 1.851033e+000 1.929221e+000 2.134566e+000 3.091128e+000 2.417560e+000 1.705716e+000 2.063911e+000 1.431053e+000 1.711567e+000 1.231613e+000 5.541222e-001 8.246052e-002 1.277792e-001 2.406478e-001 3.080216e-001 4.447518e-001 4.419242e-001 3.905284e-001 2.995856e-001 4.303792e-001 2.995372e-001 2.909036e-001 2.321694e-001 7.431296e-002
<GCONST> 1.036176e+002
<MIXTURE> 18 7.369810e-002
<MEAN> 39
 3.313051e+000 -1.244259e+001 6.733689e-001 -1.039223e+001 -2.712069e+000 -1.163776e+001 -9.013802e+000 6.853081e+000 -5.822328e+000 6.361954e+000 3.394107e-001 -8.081403e+000 7.802647e+001 1.326946e-001 1.097114e-001 -2.112425e-001 4.552569e-001 4.243926e-001 1.184915e-001 1.114603e-001 2.421858e-001 -1.217152e-001 -2.355544e-001 -7.965415e-002 -1.305809e-001 -3.894542e-001 -3.040323e-001 5.720311e-001 3.576846e-001 2.176417e-001 2.783817e-001 1.222593e-001 3.650111e-001 -4.522056e-001 -4.829027e-001 1.283426e-001 -1.201378e-001 4.453490e-001 -5.033113e-001
<VARIANCE> 39
 6.575980e+000 1.041336e+001 4.711031e+001 2.647464e+001 3.929717e+001 3.578633e+001 5.070661e+001 5.031672e+001 1.924662e+001 3.730257e+001 3.845247e+001 3.091385e+001 8.364703e+000 5.639974e-001 2.040070e+000 3.322461e+000 2.610560e+000 3.311928e+000 3.469662e+000 2.359246e+000 4.936553e+000 3.215099e+000 3.215304e+000 2.819791e+000 3.106519e+000 1.643085e+000 1.959268e-001 2.194155e-001 3.005274e-001 3.633036e-001 5.377750e-001 3.922409e-001 5.206137e-001 5.848055e-001 5.164090e-001 5.324237e-001 6.174036e-001 6.035147e-001 2.182632e-001
<GCONST> 1.141988e+002
<MIXTURE> 19 4.860633e-002
<MEAN> 39
 -2.023124e+001 -3.756033e+000 8.647996e+000 -1.040667e+001 8.040462e+000 -1.009910e+001 3.190263e+000 4.117579e+000 -6.660215e+000 9.515669e+000 -4.764513e+000 5.732873e+000 7.165451e+001 2.403529e-002 -1.549581e-001 2.776495e-001 1.190146e-001 -3.323402e-001 -5.992468e-001 -2.042119e-001 -3.127957e-001 -2.855842e-001 -3.907820e-001 -1.270354e-001 -2.967997e-001 4.332463e-001 1.262856e+000 1.907851e-001 2.232754e-002 -4.088379e-002 -6.539391e-001 -1.657111e-001 -7.100455e-001 -4.673983e-001 -4.577563e-001 -2.813633e-001 2.803807e-001 -4.107973e-001 -3.886221e-002
<VARIANCE> 39
 1.993675e+001 4.241787e+001 5.451430e+001 3.028434e+001 4.307098e+001 2.988859e+001 3.093684e+001 2.584502e+001 2.654160e+001 2.081535e+001 1.845543e+001 1.610263e+001 1.714052e+001 1.005898e+001 2.767990e+000 3.120880e+000 2.568075e+000 2.712108e+000 3.596068e+000 3.797072e+000 3.050348e+000 3.066418e+000 1.977666e+000 1.957229e+000 2.052991e+000 2.178633e+000 4.293087e-001 4.562621e-001 5.269225e-001 5.670754e-001 5.264799e-001 6.484585e-001 6.368372e-001 5.322436e-001 5.154058e-001 4.593986e-001 4.830721e-001 4.056367e-001 3.880515e-001
<GCONST> 1.196159e+002
<MIXTURE> 20 7.795915e-002
<MEAN> 39
 -8.502525e-001 -1.138552e-001 7.611317e+000 -3.437848e+000 1.424006e+000 -7.912492e+000 -3.442617e+000 -5.589980e-001 -1.236221e+001 6.557792e+000 -7.223353e-001 -3.663409e+000 6.339658e+001 -5.504355e-001 2.361147e-001 -3.510399e-001 2.027265e-001 1.769842e-001 4.121024e-001 1.109383e-001 -2.408380e-001 6.220614e-001 6.970198e-002 -5.289472e-001 1.647303e-001 -1.060365e+000 -1.314033e-001 -5.983565e-001 -9.438362e-003 -7.580351e-001 -2.231692e-001 -1.439460e-001 -3.381584e-001 4.251759e-001 3.689809e-003 -1.109724e-001 3.531732e-002 3.813824e-001 8.222779e-001
<VARIANCE> 39
