~o
<STREAMINFO> 1 16
<VECSIZE> 16<NULLD><FBANK><DIAGC>
~h "ctyri"
<BEGINHMM>
<NUMSTATES> 10
<STATE> 2
<MEAN> 16
 5.711212e+000 5.733947e+000 5.972763e+000 6.178769e+000 6.318564e+000 6.480895e+000 6.643234e+000 6.900058e+000 7.353711e+000 7.530699e+000 7.696696e+000 8.025102e+000 8.254381e+000 8.417957e+000 8.377120e+000 8.418808e+000
<VARIANCE> 16
 1.442141e-001 1.078954e-001 1.340856e-001 7.898060e-002 5.527752e-002 4.730122e-002 5.881562e-002 9.093149e-002 1.913494e-001 3.705212e-001 3.890668e-001 5.716169e-001 5.960195e-001 5.830042e-001 3.475722e-001 1.501427e-001
<GCONST> 1.357763e+000
<STATE> 3
<MEAN> 16
 5.643040e+000 5.810519e+000 6.020343e+000 6.201444e+000 6.339777e+000 6.520085e+000 6.809424e+000 7.030108e+000 7.504935e+000 8.083082e+000 9.232789e+000 1.024579e+001 1.088742e+001 1.083954e+001 1.016725e+001 9.500714e+000
<VARIANCE> 16
 1.051887e-001 6.543164e-002 1.143137e-001 7.482534e-002 6.118301e-002 5.521296e-002 8.206849e-002 7.541425e-002 9.263265e-002 3.567352e-001 7.475735e-001 7.834964e-001 9.567616e-001 9.073052e-001 6.629516e-001 4.144907e-001
<GCONST> 3.512451e+000
<STATE> 4
<MEAN> 16
 5.793810e+000 5.899815e+000 6.102111e+000 6.313960e+000 6.388513e+000 6.598821e+000 6.814823e+000 7.476617e+000 8.530478e+000 9.426141e+000 1.005178e+001 1.072931e+001 1.103025e+001 1.091652e+001 1.039841e+001 9.565342e+000
<VARIANCE> 16
 1.822621e-001 1.136392e-001 1.020382e-001 9.027322e-002 5.319346e-002 7.701160e-002 7.207317e-002 2.437070e-001 6.040910e-001 1.225729e+000 1.214728e+000 1.192180e+000 8.997653e-001 8.989059e-001 8.081496e-001 4.718530e-001
<GCONST> 1.019571e+001
<STATE> 5
<MEAN> 16
 5.733342e+000 5.791744e+000 5.943419e+000 6.083628e+000 6.285100e+000 6.459527e+000 6.652166e+000 6.861990e+000 7.272032e+000 7.437665e+000 7.918831e+000 8.593317e+000 9.114425e+000 8.930869e+000 8.414220e+000 8.163521e+000
<VARIANCE> 16
 1.154964e-001 1.039371e-001 1.164393e-001 6.782071e-002 6.817724e-002 6.730691e-002 7.164281e-002 9.351746e-002 9.996481e-002 2.416412e-001 2.937201e-001 3.674086e-001 3.370691e-001 3.554061e-001 2.267510e-001 6.912348e-002
<GCONST> -2.474903e+000
<STATE> 6
<MEAN> 16
 5.822169e+000 6.294480e+000 6.809059e+000 6.896773e+000 6.934967e+000 6.962109e+000 7.251515e+000 7.737350e+000 8.350407e+000 8.552024e+000 8.734480e+000 9.299369e+000 9.733092e+000 9.488104e+000 8.763490e+000 8.546791e+000
<VARIANCE> 16
 1.064973e-001 2.829151e-001 3.769779e-001 2.455059e-001 1.088736e-001 1.448632e-001 2.481351e-001 2.092687e-001 2.843349e-001 2.642435e-001 3.170254e-001 4.693471e-001 4.759416e-001 4.844667e-001 8.634344e-002 9.691358e-002
<GCONST> 5.672139e+000
<STATE> 7
<MEAN> 16
 5.951599e+000 7.474870e+000 8.095388e+000 8.999849e+000 7.393671e+000 7.313436e+000 7.686625e+000 8.569521e+000 9.596870e+000 1.029180e+001 1.065166e+001 1.097325e+001 1.151191e+001 1.086436e+001 9.227921e+000 8.725064e+000
<VARIANCE> 16
 1.241951e-001 4.408190e-001 7.149565e-001 8.965945e-001 3.674498e-001 1.864792e-001 2.660017e-001 3.983839e-001 4.845906e-001 7.087883e-001 8.842525e-001 7.540268e-001 9.484544e-001 1.090121e+000 9.958203e-001 4.942521e-001
<GCONST> 1.898161e+001
<STATE> 8
<MEAN> 16
 6.497048e+000 7.752602e+000 9.544365e+000 9.540920e+000 8.507174e+000 8.216739e+000 8.338219e+000 8.996345e+000 1.030392e+001 1.081349e+001 1.077859e+001 1.099470e+001 1.156807e+001 1.095792e+001 9.444696e+000 8.664779e+000
<VARIANCE> 16
 1.522531e-001 3.368636e-001 7.188421e-001 7.872797e-001 6.405591e-001 5.659311e-001 4.233042e-001 3.080888e-001 4.518581e-001 4.226867e-001 4.227400e-001 5.573424e-001 5.344360e-001 7.417675e-001 8.834774e-001 3.642700e-001
<GCONST> 1.765463e+001
<STATE> 9
<MEAN> 16
 6.526447e+000 7.845350e+000 9.108370e+000 8.528846e+000 7.649403e+000 7.292388e+000 7.506814e+000 8.449904e+000 9.685191e+000 9.911820e+000 9.040143e+000 9.077020e+000 9.479143e+000 9.010647e+000 8.478903e+000 8.494842e+000
<VARIANCE> 16
 1.814747e-001 3.612503e-001 5.074914e-001 2.791570e-001 1.858830e-001 1.987360e-001 1.399896e-001 6.185006e-001 9.554891e-001 3.527253e-001 7.114821e-001 6.587368e-001 9.162507e-001 6.338370e-001 1.799650e-001 1.680429e-001
<GCONST> 1.309450e+001
<TRANSP> 10
 0.000000e+000 1.000000e+000 0.000000e+000 0.000000e+000 0.000000e+000 0.000000e+000 0.000000e+000 0.000000e+000 0.000000e+000 0.000000e+000
 0.000000e+000 8.237168e-001 1.762832e-001 0.000000e+000 0.000000e+000 0.000000e+000 0.000000e+000 0.000000e+000 0.000000e+000 0.000000e+000
 0.000000e+000 0.000000e+000 7.706112e-001 2.293888e-001 0.000000e+000 0.000000e+000 0.000000e+000 0.000000e+000 0.000000e+000 0.000000e+000
 0.000000e+000 0.000000e+000 0.000000e+000 7.722263e-001 2.277737e-001 0.000000e+000 0.000000e+000 0.000000e+000 0.000000e+000 0.000000e+000
 0.000000e+000 0.000000e+000 0.000000e+000 0.000000e+000 8.143694e-001 1.856306e-001 0.000000e+000 0.000000e+000 0.000000e+000 0.000000e+000
 0.000000e+000 0.000000e+000 0.000000e+000 0.000000e+000 0.000000e+000 3.311820e-001 6.688181e-001 0.000000e+000 0.000000e+000 0.000000e+000
 0.000000e+000 0.000000e+000 0.000000e+000 0.000000e+000 0.000000e+000 0.000000e+000 8.888737e-001 1.111263e-001 0.000000e+000 0.000000e+000
 0.000000e+000 0.000000e+000 0.000000e+000 0.000000e+000 0.000000e+000 0.000000e+000 0.000000e+000 9.507944e-001 4.920561e-002 0.000000e+000
 0.000000e+000 0.000000e+000 0.000000e+000 0.000000e+000 0.000000e+000 0.000000e+000 0.000000e+000 0.000000e+000 9.264841e-001 7.351588e-002
 0.000000e+000 0.000000e+000 0.000000e+000 0.000000e+000 0.000000e+000 0.000000e+000 0.000000e+000 0.000000e+000 0.000000e+000 0.000000e+000
<ENDHMM>
~h "sedm"
<BEGINHMM>
<NUMSTATES> 10
<STATE> 2
<MEAN> 16
 5.630100e+000 5.747923e+000 5.988541e+000 6.170894e+000 6.270652e+000 6.486735e+000 6.619992e+000 6.899395e+000 7.312510e+000 7.353803e+000 7.507364e+000 7.888384e+000 8.732273e+000 9.047451e+000 9.329049e+000 9.149395e+000
<VARIANCE> 16
 1.141177e-001 8.709425e-002 7.216386e-002 7.880313e-002 5.518901e-002 4.571327e-002 4.082048e-002 5.831221e-002 6.260964e-002 4.246804e-002 9.053955e-002 1.085053e-001 1.405218e-001 1.940951e-001 2.912069e-001 3.583971e-001
<GCONST> -8.812148e+000
<STATE> 3
<MEAN> 16
 5.728712e+000 5.797990e+000 5.879190e+000 6.145658e+000 6.279190e+000 6.490093e+000 6.694295e+000 7.135727e+000 7.507959e+000 7.581472e+000 7.816437e+000 8.401222e+000 9.480828e+000 9.732476e+000 9.964025e+000 9.968727e+000
<VARIANCE> 16
 1.519584e-001 9.318628e-002 1.334564e-001 1.223616e-001 9.931976e-002 5.195292e-002 4.762931e-002 5.847475e-002 7.239839e-002 6.498767e-002 1.753380e-001 8.686964e-002 1.783401e-001 1.503604e-001 2.699804e-001 4.037842e-001
<GCONST> -5.494902e+000
<STATE> 4
<MEAN> 16
 5.764397e+000 5.806092e+000 5.914035e+000 6.202868e+000 6.497942e+000 6.560719e+000 6.786568e+000 7.303055e+000 7.737683e+000 7.784103e+000 8.131615e+000 8.725267e+000 9.893108e+000 1.020265e+001 1.036347e+001 1.020387e+001
<VARIANCE> 16
 2.176058e-001 8.963773e-002 7.866634e-002 7.230226e-002 4.579678e-002 5.680793e-002 5.155624e-002 7.193397e-002 8.212174e-002 6.386894e-002 1.749430e-001 1.139609e-001 2.385199e-001 3.293735e-001 5.901371e-001 5.231872e-001
<GCONST> -4.133918e+000
<STATE> 5
<MEAN> 16
 5.706999e+000 5.736659e+000 5.985394e+000 6.322915e+000 6.494294e+000 6.801396e+000 7.024241e+000 7.560468e+000 8.081356e+000 8.156910e+000 8.479783e+000 9.176473e+000 1.024363e+001 1.052799e+001 1.027562e+001 1.000952e+001
<VARIANCE> 16
 1.372552e-001 1.086100e-001 1.186081e-001 8.625282e-002 6.355107e-002 8.790248e-002 8.336629e-002 1.165747e-001 2.117397e-001 1.249471e-001 3.062754e-001 2.958258e-001 5.075802e-001 6.714091e-001 6.273631e-001 4.355085e-001
<GCONST> 2.389089e+000
<STATE> 6
<MEAN> 16
 5.981651e+000 6.162636e+000 6.491982e+000 6.845957e+000 6.905561e+000 7.189410e+000 7.456093e+000 8.127995e+000 8.759373e+000 8.711914e+000 9.041445e+000 9.562168e+000 1.055694e+001 1.084834e+001 1.030427e+001 1.004013e+001
<VARIANCE> 16
 2.143818e-001 2.453935e-001 3.455747e-001 2.722441e-001 1.321265e-001 1.301793e-001 1.584485e-001 1.346837e-001 2.388984e-001 2.757921e-001 3.837581e-001 4.466361e-001 6.680992e-001 9.477471e-001 7.238138e-001 4.832517e-001
<GCONST> 1.019655e+001
<STATE> 7
<MEAN> 16
 6.482973e+000 7.819954e+000 9.019421e+000 9.327475e+000 8.441724e+000 7.983274e+000 8.704861e+000 9.834096e+000 9.282322e+000 9.126532e+000 8.779479e+000 9.033189e+000 9.603495e+000 9.431273e+000 8.950687e+000 8.848255e+000
<VARIANCE> 16
 1.664879e-001 1.474629e-001 2.622694e-001 2.829002e-001 3.599682e-001 3.435388e-001 2.159078e-001 2.726869e-001 3.636524e-001 3.161694e-001 9.324688e-001 5.673473e-001 4.579782e-001 3.331395e-001 2.518821e-001 8.831697e-002
<GCONST> 9.689966e+000
<STATE> 8
<MEAN> 16
 6.749690e+000 8.030017e+000 9.098423e+000 9.748680e+000 9.545619e+000 9.068809e+000 9.272183e+000 1.008467e+001 1.055275e+001 1.040272e+001 1.063402e+001 1.048371e+001 1.103121e+001 1.049504e+001 8.855328e+000 8.502230e+000
<VARIANCE> 16
 2.834542e-001 4.807642e-001 5.451245e-001 7.684030e-001 1.125119e+000 6.163589e-001 5.652968e-001 8.654380e-001 8.203873e-001 7.070398e-001 1.201572e+000 1.455078e+000 1.190414e+000 1.338778e+000 7.929959e-001 2.597038e-001
<GCONST> 2.436176e+001
<STATE> 9
<MEAN> 16
 6.509630e+000 8.000523e+000 8.602373e+000 8.635669e+000 8.007338e+000 7.945102e+000 8.239569e+000 8.545498e+000 8.647143e+000 8.770008e+000 8.810280e+000 9.323616e+000 9.631088e+000 8.979497e+000 8.118411e+000 8.101085e+000
<VARIANCE> 16
 1.864190e-001 1.452282e-001 4.334937e-001 4.054335e-001 2.713788e-001 2.998856e-001 4.864457e-001 6.685200e-001 5.828360e-001 5.028927e-001 8.094029e-001 1.395332e+000 1.272544e+000 4.574666e-001 7.614557e-002 5.181311e-002
<GCONST> 1.324443e+001
<TRANSP> 10
 0.000000e+000 1.000000e+000 0.000000e+000 0.000000e+000 0.000000e+000 0.000000e+000 0.000000e+000 0.000000e+000 0.000000e+000 0.000000e+000
 0.000000e+000 7.591662e-001 2.408338e-001 0.000000e+000 0.000000e+000 0.000000e+000 0.000000e+000 0.000000e+000 0.000000e+000 0.000000e+000
 0.000000e+000 0.000000e+000 6.436389e-001 3.563611e-001 0.000000e+000 0.000000e+000 0.000000e+000 0.000000e+000 0.000000e+000 0.000000e+000
 0.000000e+000 0.000000e+000 0.000000e+000 4.548275e-001 5.451725e-001 0.000000e+000 0.000000e+000 0.000000e+000 0.000000e+000 0.000000e+000
 0.000000e+000 0.000000e+000 0.000000e+000 0.000000e+000 5.101175e-001 4.898826e-001 0.000000e+000 0.000000e+000 0.000000e+000 0.000000e+000
 0.000000e+000 0.000000e+000 0.000000e+000 0.000000e+000 0.000000e+000 6.920174e-001 3.079826e-001 0.000000e+000 0.000000e+000 0.000000e+000
 0.000000e+000 0.000000e+000 0.000000e+000 0.000000e+000 0.000000e+000 0.000000e+000 4.937726e-001 5.062274e-001 0.000000e+000 0.000000e+000
 0.000000e+000 0.000000e+000 0.000000e+000 0.000000e+000 0.000000e+000 0.000000e+000 0.000000e+000 9.303441e-001 6.965586e-002 0.000000e+000
 0.000000e+000 0.000000e+000 0.000000e+000 0.000000e+000 0.000000e+000 0.000000e+000 0.000000e+000 0.000000e+000 9.667606e-001 3.323936e-002
 0.000000e+000 0.000000e+000 0.000000e+000 0.000000e+000 0.000000e+000 0.000000e+000 0.000000e+000 0.000000e+000 0.000000e+000 0.000000e+000
<ENDHMM>
~h "sest"
<BEGINHMM>
<NUMSTATES> 10
<STATE> 2
<MEAN> 16
 5.670716e+000 5.715777e+000 5.888912e+000 6.081048e+000 6.319939e+000 6.478985e+000 6.646444e+000 7.053258e+000 7.713367e+000 7.996860e+000 8.361996e+000 8.901556e+000 9.209581e+000 9.291735e+000 8.863614e+000 8.307951e+000
<VARIANCE> 16
 8.047431e-002 9.797649e-002 9.269592e-002 5.577463e-002 4.138784e-002 4.910675e-002 4.601474e-002 7.034908e-002 2.072414e-001 3.944197e-001 3.971558e-001 3.558354e-001 2.856632e-001 3.570438e-001 4.005383e-001 5.949184e-002
<GCONST> -3.113913e+000
<STATE> 3
<MEAN> 16
 5.688791e+000 5.779533e+000 5.900337e+000 6.092952e+000 6.316396e+000 6.451284e+000 6.628362e+000 7.220135e+000 8.077236e+000 8.714581e+000 9.256974e+000 9.951140e+000 1.015542e+001 1.019426e+001 9.622640e+000 8.843257e+000
<VARIANCE> 16
 1.300787e-001 1.014417e-001 6.908722e-002 9.434117e-002 5.738574e-002 4.162367e-002 6.126896e-002 1.345898e-001 4.356129e-001 5.945330e-001 3.305452e-001 2.616357e-001 1.521405e-001 1.978786e-001 2.098592e-001 1.444688e-001
<GCONST> -1.587987e+000
<STATE> 4
<MEAN> 16
 5.766688e+000 5.738261e+000 5.995324e+000 6.218155e+000 6.390653e+000 6.501757e+000 6.786743e+000 7.433014e+000 8.419130e+000 9.296285e+000 9.708661e+000 1.030771e+001 1.058664e+001 1.059661e+001 1.011584e+001 9.272750e+000
<VARIANCE> 16
 1.362185e-001 1.013777e-001 5.771592e-002 7.353298e-002 4.165353e-002 7.619224e-002 5.842880e-002 1.581732e-001 3.936306e-001 5.515852e-001 2.446706e-001 2.455207e-001 2.385740e-001 2.283068e-001 1.559129e-001 1.752616e-001
<GCONST> -1.625077e+000
<STATE> 5
<MEAN> 16
 5.750824e+000 5.852178e+000 6.021614e+000 6.212645e+000 6.291728e+000 6.529914e+000 6.830675e+000 7.454975e+000 8.343634e+000 9.196349e+000 1.011018e+001 1.111156e+001 1.140047e+001 1.128167e+001 1.067569e+001 9.794845e+000
<VARIANCE> 16
 6.290130e-002 7.285036e-002 7.526167e-002 6.801360e-002 5.328430e-002 5.597697e-002 1.219724e-001 1.262199e-001 3.250357e-001 4.160328e-001 2.111880e-001 3.448359e-001 3.137973e-001 3.860394e-001 3.119147e-001 2.477098e-001
<GCONST> -5.348046e-001
<STATE> 6
<MEAN> 16
 5.800601e+000 5.923847e+000 6.264354e+000 6.466640e+000 6.582096e+000 6.833951e+000 7.086744e+000 8.085118e+000 9.101767e+000 9.793036e+000 1.024511e+001 1.079296e+001 1.121905e+001 1.110052e+001 1.057158e+001 9.844305e+000
<VARIANCE> 16
 8.311214e-002 8.999429e-002 1.231032e-001 1.254913e-001 8.885538e-002 1.149180e-001 8.467666e-002 2.038913e-001 4.286721e-001 6.090671e-001 2.143458e-001 2.955904e-001 5.453088e-001 5.618988e-001 4.750780e-001 2.397860e-001
<GCONST> 4.239886e+000
<STATE> 7
<MEAN> 16
 6.127464e+000 7.122763e+000 7.794320e+000 8.084345e+000 7.525987e+000 7.291857e+000 7.539190e+000 8.508241e+000 9.105557e+000 9.249451e+000 9.412544e+000 9.565081e+000 9.749086e+000 9.396727e+000 8.829283e+000 8.634039e+000
<VARIANCE> 16
 1.358144e-001 7.610939e-001 1.423208e+000 1.375353e+000 8.502371e-001 4.372551e-001 3.587828e-001 7.789904e-001 6.020550e-001 4.438557e-001 3.590753e-001 4.523957e-001 5.704060e-001 6.138658e-001 4.491771e-001 1.291187e-001
<GCONST> 1.851009e+001
<STATE> 8
<MEAN> 16
 6.443707e+000 7.525975e+000 8.973527e+000 9.986547e+000 9.880998e+000 9.201550e+000 9.383321e+000 1.045298e+001 1.082587e+001 1.058013e+001 1.067007e+001 1.077045e+001 1.114423e+001 1.052515e+001 9.135462e+000 8.655319e+000
<VARIANCE> 16
 1.958545e-001 2.554425e-001 3.533441e-001 4.212279e-001 1.168905e+000 1.032290e+000 5.945541e-001 5.439786e-001 1.051396e+000 8.921052e-001 1.653900e+000 1.434897e+000 1.482859e+000 1.559620e+000 5.571260e-001 1.566174e-001
<GCONST> 2.276473e+001
<STATE> 9
<MEAN> 16
 5.733105e+000 5.940495e+000 6.484260e+000 7.141374e+000 7.245345e+000 7.052458e+000 7.179687e+000 7.821961e+000 8.190101e+000 8.151050e+000 8.558294e+000 9.085814e+000 9.966703e+000 1.044705e+001 1.036582e+001 1.007065e+001
<VARIANCE> 16
 1.186733e-001 1.571038e-001 3.193024e-001 5.103755e-001 5.041298e-001 3.310937e-001 1.783049e-001 2.591271e-001 4.308699e-001 3.521564e-001 3.814734e-001 3.427716e-001 4.877803e-001 5.277034e-001 2.846264e-001 2.384335e-001
<GCONST> 1.077722e+001
<TRANSP> 10
 0.000000e+000 1.000000e+000 0.000000e+000 0.000000e+000 0.000000e+000 0.000000e+000 0.000000e+000 0.000000e+000 0.000000e+000 0.000000e+000
 0.000000e+000 4.799397e-001 5.200603e-001 0.000000e+000 0.000000e+000 0.000000e+000 0.000000e+000 0.000000e+000 0.000000e+000 0.000000e+000
 0.000000e+000 0.000000e+000 3.646532e-001 6.353468e-001 0.000000e+000 0.000000e+000 0.000000e+000 0.000000e+000 0.000000e+000 0.000000e+000
 0.000000e+000 0.000000e+000 0.000000e+000 3.605592e-001 6.394408e-001 0.000000e+000 0.000000e+000 0.000000e+000 0.000000e+000 0.000000e+000
 0.000000e+000 0.000000e+000 0.000000e+000 0.000000e+000 7.159317e-001 2.840683e-001 0.000000e+000 0.000000e+000 0.000000e+000 0.000000e+000
 0.000000e+000 0.000000e+000 0.000000e+000 0.000000e+000 0.000000e+000 7.330135e-001 2.669865e-001 0.000000e+000 0.000000e+000 0.000000e+000
 0.000000e+000 0.000000e+000 0.000000e+000 0.000000e+000 0.000000e+000 0.000000e+000 5.200859e-001 4.799142e-001 0.000000e+000 0.000000e+000
 0.000000e+000 0.000000e+000 0.000000e+000 0.000000e+000 0.000000e+000 0.000000e+000 0.000000e+000 9.517153e-001 4.828474e-002 0.000000e+000
 0.000000e+000 0.000000e+000 0.000000e+000 0.000000e+000 0.000000e+000 0.000000e+000 0.000000e+000 0.000000e+000 9.382465e-001 6.175345e-002
 0.000000e+000 0.000000e+000 0.000000e+000 0.000000e+000 0.000000e+000 0.000000e+000 0.000000e+000 0.000000e+000 0.000000e+000 0.000000e+000
<ENDHMM>
~h "dva"
<BEGINHMM>
<NUMSTATES> 10
<STATE> 2
<MEAN> 16
 6.023159e+000 6.621116e+000 6.835267e+000 6.675348e+000 6.483601e+000 6.561359e+000 6.734260e+000 6.938217e+000 7.245631e+000 7.128743e+000 7.228650e+000 7.430391e+000 7.648152e+000 7.744375e+000 7.825836e+000 8.013661e+000
<VARIANCE> 16
 1.528271e-001 3.419016e-001 5.029747e-001 4.055949e-001 1.281012e-001 8.016981e-002 9.512556e-002 1.406816e-001 1.044472e-001 9.595899e-002 6.542417e-002 6.016461e-002 6.368363e-002 5.240730e-002 2.233469e-002 3.712869e-002
<GCONST> -6.965583e+000
<STATE> 3
<MEAN> 16
 6.142681e+000 6.864821e+000 7.173817e+000 7.220083e+000 6.863963e+000 7.050625e+000 7.586159e+000 7.903465e+000 8.088118e+000 8.116887e+000 8.350811e+000 8.649448e+000 8.995216e+000 8.535835e+000 8.016540e+000 8.045443e+000
<VARIANCE> 16
 1.136912e-001 3.700291e-001 5.077930e-001 3.713022e-001 1.655842e-001 1.606691e-001 2.269611e-001 4.347153e-001 3.698677e-001 3.441930e-001 5.212722e-001 5.761723e-001 6.389503e-001 3.892786e-001 7.057466e-002 1.844095e-002
<GCONST> 7.326796e+000
<STATE> 4
<MEAN> 16
 6.214781e+000 7.247442e+000 8.030735e+000 8.003825e+000 7.391763e+000 7.438707e+000 7.814163e+000 8.102582e+000 8.137625e+000 8.328979e+000 8.478628e+000 8.882511e+000 8.766312e+000 8.386795e+000 8.025017e+000 8.048873e+000
<VARIANCE> 16
 2.037268e-001 1.419128e-001 5.709946e-001 5.156704e-001 2.546404e-001 1.842978e-001 2.454220e-001 7.480009e-001 7.115315e-001 6.169178e-001 7.569664e-001 8.175952e-001 8.861014e-001 5.291012e-001 8.998974e-002 3.978353e-002
<GCONST> 1.219258e+001
<STATE> 5
<MEAN> 16
 6.701573e+000 7.559390e+000 8.162906e+000 8.175073e+000 7.763935e+000 8.056976e+000 8.392732e+000 8.095283e+000 7.978026e+000 8.175132e+000 8.339611e+000 8.458067e+000 8.989035e+000 8.665390e+000 8.100271e+000 8.099985e+000
<VARIANCE> 16
 4.373364e-001 2.658226e-001 5.121897e-001 6.630535e-001 2.855403e-001 2.601667e-001 2.039426e-001 4.889704e-001 4.765114e-001 3.901644e-001 5.515101e-001 7.265350e-001 6.178542e-001 3.615003e-001 8.846129e-002 6.104514e-002
<GCONST> 1.195158e+001
<STATE> 6
<MEAN> 16
 6.758468e+000 7.591603e+000 8.442814e+000 8.808837e+000 8.388508e+000 8.669710e+000 9.099311e+000 8.727972e+000 8.425597e+000 8.736448e+000 8.892203e+000 9.191468e+000 9.579617e+000 8.987082e+000 8.076605e+000 8.113383e+000
<VARIANCE> 16
 2.623036e-001 1.313962e-001 2.093075e-001 3.904925e-001 4.940240e-001 4.955396e-001 5.035510e-001 4.727494e-001 3.075072e-001 3.928923e-001 5.738256e-001 9.278788e-001 7.171041e-001 3.215680e-001 3.556613e-002 5.605898e-002
<GCONST> 1.026285e+001
<STATE> 7
<MEAN> 16
 6.498648e+000 7.438664e+000 8.615428e+000 1.000105e+001 1.060387e+001 1.012658e+001 1.031657e+001 9.338781e+000 9.243153e+000 9.754475e+000 8.864000e+000 9.608150e+000 9.766560e+000 9.413613e+000 8.524696e+000 8.321867e+000
<VARIANCE> 16
 1.459473e-001 9.490123e-002 6.625862e-002 1.433724e-001 3.228976e-001 2.113486e-001 1.780913e-001 2.144243e-001 2.052222e-001 2.243127e-001 8.799145e-001 1.517799e+000 6.057058e-001 4.010531e-001 2.749496e-001 9.674875e-002
<GCONST> 6.689309e+000
<STATE> 8
<MEAN> 16
 6.686580e+000 7.572692e+000 8.528315e+000 9.656258e+000 1.063496e+001 1.108808e+001 1.153524e+001 1.126330e+001 1.006732e+001 1.041270e+001 1.098416e+001 1.123599e+001 1.200348e+001 1.089490e+001 8.959796e+000 8.561426e+000
<VARIANCE> 16
 5.105217e-001 4.404435e-001 7.560206e-001 6.166212e-001 7.074064e-001 6.554359e-001 6.088212e-001 7.434455e-001 4.196653e-001 5.404263e-001 6.364133e-001 8.282049e-001 8.064674e-001 7.117706e-001 5.386856e-001 3.584952e-001
<GCONST> 2.126561e+001
<STATE> 9
<MEAN> 16
 5.879018e+000 6.432298e+000 6.632411e+000 7.510956e+000 8.472834e+000 8.789690e+000 8.801493e+000 8.474071e+000 7.880679e+000 8.008701e+000 8.355690e+000 8.674232e+000 9.218357e+000 8.562101e+000 7.902604e+000 7.961664e+000
<VARIANCE> 16
 2.570295e-001 4.706238e-001 3.042084e-001 5.407872e-001 5.439193e-001 3.873197e-001 4.406541e-001 6.043322e-001 2.593338e-001 3.068650e-001 4.613824e-001 3.351878e-001 3.743033e-001 2.637706e-001 4.759216e-002 5.573485e-002
<GCONST> 9.963236e+000
<TRANSP> 10
 0.000000e+000 1.000000e+000 0.000000e+000 0.000000e+000 0.000000e+000 0.000000e+000 0.000000e+000 0.000000e+000 0.000000e+000 0.000000e+000
 0.000000e+000 8.138586e-001 1.861415e-001 0.000000e+000 0.000000e+000 0.000000e+000 0.000000e+000 0.000000e+000 0.000000e+000 0.000000e+000
 0.000000e+000 0.000000e+000 5.194494e-001 4.805506e-001 0.000000e+000 0.000000e+000 0.000000e+000 0.000000e+000 0.000000e+000 0.000000e+000
 0.000000e+000 0.000000e+000 0.000000e+000 6.965965e-001 3.034035e-001 0.000000e+000 0.000000e+000 0.000000e+000 0.000000e+000 0.000000e+000
 0.000000e+000 0.000000e+000 0.000000e+000 0.000000e+000 3.415891e-001 6.584108e-001 0.000000e+000 0.000000e+000 0.000000e+000 0.000000e+000
 0.000000e+000 0.000000e+000 0.000000e+000 0.000000e+000 0.000000e+000 4.474908e-001 5.525091e-001 0.000000e+000 0.000000e+000 0.000000e+000
 0.000000e+000 0.000000e+000 0.000000e+000 0.000000e+000 0.000000e+000 0.000000e+000 8.774769e-001 1.225232e-001 0.000000e+000 0.000000e+000
 0.000000e+000 0.000000e+000 0.000000e+000 0.000000e+000 0.000000e+000 0.000000e+000 0.000000e+000 9.336234e-001 6.637662e-002 0.000000e+000
 0.000000e+000 0.000000e+000 0.000000e+000 0.000000e+000 0.000000e+000 0.000000e+000 0.000000e+000 0.000000e+000 8.840139e-001 1.159861e-001
 0.000000e+000 0.000000e+000 0.000000e+000 0.000000e+000 0.000000e+000 0.000000e+000 0.000000e+000 0.000000e+000 0.000000e+000 0.000000e+000
<ENDHMM>
~h "osm"
<BEGINHMM>
<NUMSTATES> 10
<STATE> 2
<MEAN> 16
 5.333069e+000 5.680831e+000 5.945521e+000 6.271956e+000 6.446485e+000 6.592881e+000 6.630835e+000 6.657707e+000 6.969353e+000 6.917820e+000 7.200387e+000 7.643579e+000 8.143902e+000 8.302034e+000 8.328114e+000 8.422325e+000
<VARIANCE> 16
 3.428153e-001 1.892173e-001 2.063275e-001 4.193209e-001 4.920003e-001 4.524519e-001 1.839977e-001 9.314222e-002 1.383680e-001 1.652632e-001 3.534682e-002 1.352978e-001 5.589831e-001 6.264904e-001 6.995023e-001 5.540105e-001
<GCONST> 7.536294e+000
<STATE> 3
<MEAN> 16
 5.850782e+000 6.557616e+000 7.530978e+000 8.366501e+000 8.246317e+000 8.265394e+000 7.683882e+000 7.178957e+000 7.468792e+000 7.699948e+000 7.590394e+000 7.983039e+000 8.594981e+000 8.153444e+000 8.061660e+000 8.303977e+000
<VARIANCE> 16
 2.309214e-001 5.427162e-001 1.171832e+000 1.172419e+000 6.190121e-001 6.331601e-001 5.382498e-001 1.568740e-001 1.018717e-001 2.314017e-001 2.303362e-001 5.728458e-001 3.502897e-001 1.511291e-001 1.449373e-001 1.812345e-001
<GCONST> 1.188739e+001
<STATE> 4
<MEAN> 16
 6.358452e+000 7.407567e+000 8.736455e+000 9.645523e+000 9.469104e+000 9.661904e+000 9.004051e+000 8.226879e+000 8.160378e+000 8.681683e+000 8.636970e+000 9.158928e+000 9.706182e+000 8.944106e+000 8.345557e+000 8.438642e+000
<VARIANCE> 16
 2.527445e-001 1.939871e-001 3.847692e-001 2.847004e-001 5.372476e-001 2.609762e-001 5.525736e-001 1.916635e-001 1.091258e-001 2.632820e-001 6.688792e-001 1.532841e+000 7.454529e-001 5.688580e-001 4.429011e-001 2.180890e-001
<GCONST> 1.324950e+001
<STATE> 5
<MEAN> 16
 6.429116e+000 7.508762e+000 8.815804e+000 9.910069e+000 1.016524e+001 1.022937e+001 9.635443e+000 8.764994e+000 8.534266e+000 9.024384e+000 9.490929e+000 1.022827e+001 1.069677e+001 9.769061e+000 8.567083e+000 8.443746e+000
<VARIANCE> 16
 2.114967e-001 3.478820e-001 2.089320e-001 4.767947e-001 8.759902e-001 4.672163e-001 9.529777e-001 3.330659e-001 1.774690e-001 4.342437e-001 1.061111e+000 1.961088e+000 9.583978e-001 7.102615e-001 6.990244e-001 2.260115e-001
<GCONST> 1.838909e+001
<STATE> 6
<MEAN> 16
 6.556043e+000 7.716650e+000 9.107376e+000 1.010153e+001 1.028639e+001 1.033836e+001 9.685884e+000 8.856723e+000 8.567546e+000 9.047769e+000 9.649752e+000 1.044194e+001 1.093283e+001 9.879264e+000 8.327096e+000 8.476729e+000
<VARIANCE> 16
 2.008405e-001 2.873134e-001 4.454491e-001 4.818469e-001 8.190584e-001 4.190288e-001 7.068612e-001 2.644129e-001 1.246505e-001 4.762741e-001 7.351540e-001 1.322954e+000 6.511991e-001 4.522333e-001 2.106106e-001 1.483149e-001
<GCONST> 1.472776e+001
<STATE> 7
<MEAN> 16
 6.680190e+000 7.701014e+000 9.366348e+000 1.053084e+001 1.085768e+001 1.085820e+001 1.062527e+001 9.609507e+000 9.132262e+000 9.362836e+000 1.044174e+001 1.115474e+001 1.177656e+001 1.105906e+001 9.267661e+000 8.597667e+000
<VARIANCE> 16
 2.440038e-001 4.481103e-001 6.713354e-001 6.773900e-001 9.369393e-001 7.790511e-001 8.776217e-001 4.110001e-001 3.258679e-001 3.335175e-001 5.880024e-001 1.025937e+000 5.762610e-001 5.374053e-001 5.483911e-001 1.399152e-001
<GCONST> 1.860581e+001
<STATE> 8
<MEAN> 16
 6.119658e+000 6.689889e+000 7.527701e+000 8.121703e+000 8.195134e+000 8.419181e+000 8.452334e+000 8.456126e+000 8.575050e+000 8.757706e+000 9.344196e+000 9.947697e+000 1.062107e+001 1.060700e+001 1.012288e+001 9.943577e+000
<VARIANCE> 16
 5.871015e-001 1.439253e+000 2.306406e+000 1.712522e+000 1.355938e+000 1.559825e+000 1.391691e+000 1.224369e+000 1.120969e+000 1.187494e+000 1.044792e+000 8.010351e-001 6.657454e-001 6.424865e-001 1.150071e+000 1.401109e+000
<GCONST> 3.162911e+001
<STATE> 9
<MEAN> 16
 6.434689e+000 7.917020e+000 8.683366e+000 8.614758e+000 7.835238e+000 8.267117e+000 8.461422e+000 8.357018e+000 8.459327e+000 8.698278e+000 8.811510e+000 9.612430e+000 9.966146e+000 9.078835e+000 8.116292e+000 8.122602e+000
<VARIANCE> 16
 1.734635e-001 9.038907e-002 3.396401e-001 4.443868e-001 2.243076e-001 3.807682e-001 5.199587e-001 6.493476e-001 4.497154e-001 4.718665e-001 5.959719e-001 8.678468e-001 9.445898e-001 3.954867e-001 9.383979e-002 5.970565e-002
<GCONST> 1.143495e+001
<TRANSP> 10
 0.000000e+000 1.000000e+000 0.000000e+000 0.000000e+000 0.000000e+000 0.000000e+000 0.000000e+000 0.000000e+000 0.000000e+000 0.000000e+000
 0.000000e+000 3.104100e-001 6.895901e-001 0.000000e+000 0.000000e+000 0.000000e+000 0.000000e+000 0.000000e+000 0.000000e+000 0.000000e+000
 0.000000e+000 0.000000e+000 3.870303e-001 6.129697e-001 0.000000e+000 0.000000e+000 0.000000e+000 0.000000e+000 0.000000e+000 0.000000e+000
 0.000000e+000 0.000000e+000 0.000000e+000 3.947881e-001 6.052119e-001 0.000000e+000 0.000000e+000 0.000000e+000 0.000000e+000 0.000000e+000
 0.000000e+000 0.000000e+000 0.000000e+000 0.000000e+000 7.485966e-002 9.251404e-001 0.000000e+000 0.000000e+000 0.000000e+000 0.000000e+000
 0.000000e+000 0.000000e+000 0.000000e+000 0.000000e+000 0.000000e+000 6.199570e-001 3.800430e-001 0.000000e+000 0.000000e+000 0.000000e+000
 0.000000e+000 0.000000e+000 0.000000e+000 0.000000e+000 0.000000e+000 0.000000e+000 8.011278e-001 1.988722e-001 0.000000e+000 0.000000e+000
 0.000000e+000 0.000000e+000 0.000000e+000 0.000000e+000 0.000000e+000 0.000000e+000 0.000000e+000 9.496247e-001 5.037539e-002 0.000000e+000
 0.000000e+000 0.000000e+000 0.000000e+000 0.000000e+000 0.000000e+000 0.000000e+000 0.000000e+000 0.000000e+000 9.599626e-001 4.003738e-002
 0.000000e+000 0.000000e+000 0.000000e+000 0.000000e+000 0.000000e+000 0.000000e+000 0.000000e+000 0.000000e+000 0.000000e+000 0.000000e+000
<ENDHMM>
~h "pet"
<BEGINHMM>
<NUMSTATES> 10
<STATE> 2
<MEAN> 16
 5.921702e+000 5.985038e+000 6.246123e+000 6.219989e+000 6.268898e+000 6.430264e+000 6.645176e+000 6.847342e+000 7.178694e+000 7.055128e+000 7.227747e+000 7.432313e+000 7.714917e+000 7.781195e+000 7.823634e+000 7.962749e+000
<VARIANCE> 16
 2.279467e-001 2.102428e-001 3.504945e-001 1.094935e-001 4.739913e-002 7.103841e-002 4.426125e-002 4.868954e-002 6.147990e-002 3.748131e-002 2.680789e-002 2.658241e-002 6.821619e-002 5.938034e-002 1.732229e-002 1.482119e-002
<GCONST> -1.582187e+001
<STATE> 3
<MEAN> 16
 5.936151e+000 6.488914e+000 6.932674e+000 6.679744e+000 6.415799e+000 6.459451e+000 6.890005e+000 7.343149e+000 7.893322e+000 7.828229e+000 7.813533e+000 7.969395e+000 8.331287e+000 8.307823e+000 8.122901e+000 8.134933e+000
<VARIANCE> 16
 3.598734e-001 5.886089e-001 7.112332e-001 2.400778e-001 9.253622e-002 6.203176e-002 9.563251e-002 3.089540e-001 4.691760e-001 4.200452e-001 3.965911e-001 3.026918e-001 2.534763e-001 2.239287e-001 8.189049e-002 5.230093e-002
<GCONST> 5.338334e+000
<STATE> 4
<MEAN> 16
 6.351661e+000 7.554505e+000 8.477325e+000 8.152950e+000 7.230412e+000 6.962054e+000 7.284002e+000 8.208839e+000 9.282523e+000 9.335528e+000 8.825805e+000 8.812706e+000 9.254560e+000 9.018488e+000 8.330840e+000 8.327416e+000
<VARIANCE> 16
 1.698411e-001 1.952052e-001 4.134854e-001 3.087786e-001 1.177289e-001 1.229711e-001 6.815267e-002 2.582690e-001 2.755896e-001 5.323433e-001 8.623775e-001 1.091931e+000 6.416631e-001 4.200538e-001 7.904629e-002 9.354766e-002
<GCONST> 7.468746e+000
<STATE> 5
<MEAN> 16
 6.597565e+000 7.946035e+000 9.277058e+000 9.274235e+000 8.070702e+000 7.681530e+000 7.961849e+000 8.862546e+000 1.017215e+001 1.067107e+001 1.024054e+001 1.012559e+001 1.033469e+001 9.582204e+000 8.298789e+000 8.146498e+000
<VARIANCE> 16
 2.704250e-001 1.666845e-001 1.414253e-001 1.006417e-001 2.657811e-001 1.721505e-001 2.317587e-001 3.778910e-001 2.632825e-001 3.546017e-001 9.098095e-001 1.547275e+000 1.159670e+000 1.035180e+000 8.861714e-002 8.528857e-002
<GCONST> 9.803023e+000
<STATE> 6
<MEAN> 16
 6.405293e+000 7.489170e+000 9.359523e+000 9.394252e+000 8.307240e+000 7.780451e+000 8.147783e+000 8.913847e+000 1.031205e+001 1.126727e+001 1.128021e+001 1.138071e+001 1.127707e+001 1.029329e+001 8.661445e+000 8.257056e+000
<VARIANCE> 16
 2.112484e-001 2.287257e-001 4.192199e-001 3.207018e-001 3.050659e-001 1.742748e-001 7.334451e-002 1.793493e-001 2.776920e-001 2.476050e-001 5.794748e-001 1.029226e+000 9.412595e-001 1.676700e+000 2.227113e-001 5.363558e-002
<GCONST> 9.939003e+000
<STATE> 7
<MEAN> 16
 6.810153e+000 7.837607e+000 9.485654e+000 1.018988e+001 8.966804e+000 8.307175e+000 8.536191e+000 9.884160e+000 1.045419e+001 1.023983e+001 9.553070e+000 9.520478e+000 1.007790e+001 9.670232e+000 8.698857e+000 8.744261e+000
<VARIANCE> 16
 1.647945e-001 1.058825e-001 1.702828e-001 1.191560e-001 1.184197e-001 8.220936e-002 6.919144e-002 2.255505e-001 2.257777e-001 7.189150e-001 1.281187e+000 1.630384e+000 7.977623e-001 5.519415e-001 7.313759e-002 1.126653e-001
<GCONST> 5.967222e+000
<STATE> 8
<MEAN> 16
 6.433485e+000 7.426906e+000 8.978514e+000 1.009138e+001 1.016305e+001 9.257018e+000 9.336906e+000 1.015314e+001 1.107002e+001 1.111513e+001 1.121766e+001 1.121924e+001 1.155995e+001 1.070814e+001 8.817161e+000 8.409948e+000
<VARIANCE> 16
 1.514868e-001 2.087412e-001 4.740784e-001 3.184566e-001 6.002924e-001 6.026437e-001 3.098397e-001 2.795781e-001 3.283096e-001 5.272362e-001 4.238421e-001 4.936799e-001 5.140126e-001 7.929512e-001 2.733785e-001 1.369060e-001
<GCONST> 1.309750e+001
<STATE> 9
<MEAN> 16
 5.912848e+000 6.350818e+000 7.311515e+000 8.178463e+000 8.086749e+000 7.516480e+000 7.526659e+000 8.248219e+000 8.812136e+000 8.726309e+000 8.994415e+000 9.044644e+000 9.207054e+000 8.455603e+000 7.918375e+000 8.027068e+000
<VARIANCE> 16
 1.365119e-001 3.476003e-001 5.856928e-001 4.351909e-001 4.002336e-001 3.083519e-001 2.156864e-001 4.077886e-001 3.424836e-001 3.510723e-001 5.186728e-001 3.957768e-001 3.650615e-001 3.582143e-001 4.316844e-002 4.194053e-002
<GCONST> 8.417759e+000
<TRANSP> 10
 0.000000e+000 1.000000e+000 0.000000e+000 0.000000e+000 0.000000e+000 0.000000e+000 0.000000e+000 0.000000e+000 0.000000e+000 0.000000e+000
 0.000000e+000 7.629042e-001 2.370958e-001 0.000000e+000 0.000000e+000 0.000000e+000 0.000000e+000 0.000000e+000 0.000000e+000 0.000000e+000
 0.000000e+000 0.000000e+000 1.952204e-001 8.047796e-001 0.000000e+000 0.000000e+000 0.000000e+000 0.000000e+000 0.000000e+000 0.000000e+000
 0.000000e+000 0.000000e+000 0.000000e+000 4.593603e-001 5.406398e-001 0.000000e+000 0.000000e+000 0.000000e+000 0.000000e+000 0.000000e+000
 0.000000e+000 0.000000e+000 0.000000e+000 0.000000e+000 1.451309e-001 8.548691e-001 0.000000e+000 0.000000e+000 0.000000e+000 0.000000e+000
 0.000000e+000 0.000000e+000 0.000000e+000 0.000000e+000 0.000000e+000 6.679680e-001 3.320320e-001 0.000000e+000 0.000000e+000 0.000000e+000
 0.000000e+000 0.000000e+000 0.000000e+000 0.000000e+000 0.000000e+000 0.000000e+000 7.733290e-001 2.266710e-001 0.000000e+000 0.000000e+000
 0.000000e+000 0.000000e+000 0.000000e+000 0.000000e+000 0.000000e+000 0.000000e+000 0.000000e+000 9.324184e-001 6.758164e-002 0.000000e+000
 0.000000e+000 0.000000e+000 0.000000e+000 0.000000e+000 0.000000e+000 0.000000e+000 0.000000e+000 0.000000e+000 8.345346e-001 1.654654e-001
 0.000000e+000 0.000000e+000 0.000000e+000 0.000000e+000 0.000000e+000 0.000000e+000 0.000000e+000 0.000000e+000 0.000000e+000 0.000000e+000
<ENDHMM>
~h "sil"
<BEGINHMM>
<NUMSTATES> 5
<STATE> 2
<MEAN> 16
 5.730136e+000 5.983153e+000 6.274127e+000 6.580943e+000 6.697104e+000 6.790332e+000 6.923481e+000 7.169476e+000 7.447400e+000 7.423030e+000 7.595850e+000 7.826366e+000 8.200464e+000 8.056743e+000 7.958612e+000 8.086337e+000
<VARIANCE> 16
 1.594711e-001 2.782252e-001 2.719713e-001 2.955016e-001 2.758743e-001 2.243808e-001 2.052452e-001 2.409433e-001 1.821431e-001 1.949299e-001 2.252350e-001 2.109504e-001 2.988837e-001 2.232130e-001 1.034876e-001 6.916880e-002
<GCONST> 3.949052e+000
<STATE> 3
<MEAN> 16
 5.633726e+000 5.737989e+000 5.905139e+000 6.094541e+000 6.259972e+000 6.436053e+000 6.592250e+000 6.757185e+000 7.110535e+000 7.017827e+000 7.170761e+000 7.347168e+000 7.546340e+000 7.643366e+000 7.811785e+000 8.015423e+000
<VARIANCE> 16
 1.140851e-001 1.003593e-001 8.668585e-002 7.077464e-002 6.270567e-002 5.492024e-002 4.797187e-002 3.986949e-002 3.040447e-002 2.983669e-002 2.636265e-002 2.426223e-002 2.742980e-002 2.024879e-002 1.749569e-002 3.421091e-002
<GCONST> -2.136458e+001
<STATE> 4
<MEAN> 16
 5.366181e+000 5.725682e+000 5.903935e+000 6.004378e+000 6.073643e+000 6.260748e+000 6.430419e+000 6.546947e+000 6.820202e+000 6.844034e+000 7.029398e+000 7.245472e+000 7.539906e+000 7.621753e+000 7.661114e+000 7.772118e+000
<VARIANCE> 16
 4.212656e-001 2.385249e-001 1.609670e-001 1.186121e-001 1.620013e-001 1.595112e-001 1.611671e-001 2.420125e-001 3.519749e-001 2.643138e-001 3.002681e-001 3.221886e-001 4.072510e-001 3.563045e-001 1.905689e-001 1.829368e-001
<GCONST> 6.252773e+000
<TRANSP> 5
 0.000000e+000 1.000000e+000 0.000000e+000 0.000000e+000 0.000000e+000
 0.000000e+000 8.637378e-001 1.362622e-001 0.000000e+000 0.000000e+000
 0.000000e+000 0.000000e+000 9.840608e-001 1.593915e-002 0.000000e+000
 0.000000e+000 0.000000e+000 0.000000e+000 6.815010e-001 3.184989e-001
 0.000000e+000 0.000000e+000 0.000000e+000 0.000000e+000 0.000000e+000
<ENDHMM>
~h "tri"
<BEGINHMM>
<NUMSTATES> 10
<STATE> 2
<MEAN> 16
 5.830172e+000 5.934129e+000 6.156552e+000 6.335964e+000 6.462047e+000 6.669351e+000 6.922346e+000 7.302982e+000 7.664663e+000 7.710246e+000 7.898454e+000 8.460629e+000 8.924280e+000 8.876226e+000 8.391945e+000 8.234825e+000
<VARIANCE> 16
 1.130065e-001 1.505921e-001 2.589279e-001 1.310189e-001 6.950894e-002 7.068931e-002 1.331653e-001 1.997595e-001 2.251848e-001 2.340165e-001 3.043286e-001 4.600424e-001 5.258167e-001 5.795523e-001 3.405944e-001 2.284218e-001
<GCONST> 4.355145e+000
<STATE> 3
<MEAN> 16
 5.600651e+000 5.934535e+000 6.375413e+000 6.584729e+000 6.767065e+000 6.984485e+000 7.357132e+000 7.994875e+000 8.339334e+000 8.541018e+000 8.785634e+000 9.583926e+000 9.969662e+000 9.839374e+000 9.107594e+000 8.886945e+000
<VARIANCE> 16
 1.500793e-001 1.220545e-001 1.491972e-001 1.584751e-001 1.656516e-001 2.225760e-001 3.324014e-001 2.446368e-001 2.236326e-001 1.697022e-001 2.820289e-001 2.663399e-001 2.220133e-001 2.813742e-001 2.364962e-001 2.554945e-001
<GCONST> 4.412107e+000
<STATE> 4
<MEAN> 16
 5.972402e+000 5.870708e+000 6.534474e+000 6.996242e+000 7.128661e+000 7.404787e+000 7.650036e+000 8.139164e+000 8.899876e+000 8.988479e+000 9.266244e+000 9.996262e+000 1.066679e+001 1.064839e+001 9.625546e+000 9.164310e+000
<VARIANCE> 16
 2.567596e-001 1.178089e-001 1.843220e-001 3.986227e-001 3.882346e-001 4.978204e-001 3.866366e-001 2.539491e-001 4.320002e-001 3.631556e-001 2.461784e-001 1.913520e-001 1.912440e-001 1.795532e-001 2.566085e-001 3.612210e-001
<GCONST> 8.674812e+000
<STATE> 5
<MEAN> 16
 5.840219e+000 5.859877e+000 6.291227e+000 6.589799e+000 6.774899e+000 7.042290e+000 7.298131e+000 7.738113e+000 8.487232e+000 8.593334e+000 9.169584e+000 1.051172e+001 1.136069e+001 1.152169e+001 1.034823e+001 9.366557e+000
<VARIANCE> 16
 1.560754e-001 6.687863e-002 8.792561e-002 2.754387e-001 2.057725e-001 2.243472e-001 1.167535e-001 2.026126e-001 2.838701e-001 3.188502e-001 4.411197e-001 3.371830e-001 3.301224e-001 2.692671e-001 2.312095e-001 2.247048e-001
<GCONST> 4.617808e+000
<STATE> 6
<MEAN> 16
 5.706006e+000 5.835174e+000 6.097732e+000 6.409707e+000 6.529199e+000 6.672809e+000 6.977774e+000 7.809412e+000 8.448098e+000 8.832427e+000 9.832253e+000 1.096298e+001 1.173057e+001 1.188311e+001 1.115812e+001 1.031227e+001
<VARIANCE> 16
 1.196645e-001 1.061185e-001 8.887392e-002 1.071306e-001 7.737999e-002 7.243576e-002 8.187439e-002 2.938263e-001 2.399115e-001 2.149169e-001 4.248192e-001 5.848821e-001 4.112613e-001 2.433307e-001 3.220496e-001 3.872108e-001
<GCONST> 2.732991e+000
<STATE> 7
<MEAN> 16
 6.085129e+000 6.381207e+000 6.657283e+000 6.864073e+000 6.885149e+000 7.125543e+000 7.397012e+000 8.465153e+000 9.632878e+000 9.690864e+000 1.051842e+001 1.128398e+001 1.188975e+001 1.190480e+001 1.115572e+001 9.800710e+000
<VARIANCE> 16
 2.001681e-001 2.872794e-001 4.186430e-001 3.384221e-001 1.722683e-001 1.599405e-001 9.238637e-002 1.742119e-001 2.654079e-001 2.897587e-001 7.817828e-001 9.096614e-001 8.639109e-001 8.973964e-001 6.879275e-001 2.859173e-001
<GCONST> 1.208830e+001
<STATE> 8
<MEAN> 16
 6.399298e+000 7.882070e+000 9.281480e+000 9.389921e+000 8.234925e+000 7.870696e+000 8.128776e+000 8.899538e+000 1.026801e+001 1.100934e+001 1.072890e+001 1.070438e+001 1.106084e+001 1.041579e+001 8.972585e+000 8.533473e+000
<VARIANCE> 16
 1.696083e-001 2.724715e-001 5.891243e-001 7.187465e-001 8.292967e-001 7.118791e-001 4.329570e-001 3.501380e-001 5.504084e-001 5.287423e-001 1.497901e+000 1.604876e+000 1.461734e+000 1.299422e+000 2.906815e-001 1.127199e-001
<GCONST> 1.992454e+001
<STATE> 9
<MEAN> 16
 6.025693e+000 6.901852e+000 7.635880e+000 7.677910e+000 7.271327e+000 7.145583e+000 7.018892e+000 7.227746e+000 8.213069e+000 9.101287e+000 9.139112e+000 9.140412e+000 9.606375e+000 9.045389e+000 8.089929e+000 8.074920e+000
<VARIANCE> 16
 2.048286e-001 5.034520e-001 4.343450e-001 5.292010e-001 3.924680e-001 4.262204e-001 1.427429e-001 1.266758e-001 4.163457e-001 3.497562e-001 4.768535e-001 3.057168e-001 4.203841e-001 4.103586e-001 1.086579e-001 5.334554e-002
<GCONST> 9.102716e+000
<TRANSP> 10
 0.000000e+000 1.000000e+000 0.000000e+000 0.000000e+000 0.000000e+000 0.000000e+000 0.000000e+000 0.000000e+000 0.000000e+000 0.000000e+000
 0.000000e+000 5.216848e-001 4.783152e-001 0.000000e+000 0.000000e+000 0.000000e+000 0.000000e+000 0.000000e+000 0.000000e+000 0.000000e+000
 0.000000e+000 0.000000e+000 4.081225e-001 5.918776e-001 0.000000e+000 0.000000e+000 0.000000e+000 0.000000e+000 0.000000e+000 0.000000e+000
 0.000000e+000 0.000000e+000 0.000000e+000 2.775065e-001 7.224935e-001 0.000000e+000 0.000000e+000 0.000000e+000 0.000000e+000 0.000000e+000
 0.000000e+000 0.000000e+000 0.000000e+000 0.000000e+000 3.701961e-001 6.298040e-001 0.000000e+000 0.000000e+000 0.000000e+000 0.000000e+000
 0.000000e+000 0.000000e+000 0.000000e+000 0.000000e+000 0.000000e+000 8.325843e-001 1.674157e-001 0.000000e+000 0.000000e+000 0.000000e+000
 0.000000e+000 0.000000e+000 0.000000e+000 0.000000e+000 0.000000e+000 0.000000e+000 6.707788e-001 3.292212e-001 0.000000e+000 0.000000e+000
 0.000000e+000 0.000000e+000 0.000000e+000 0.000000e+000 0.000000e+000 0.000000e+000 0.000000e+000 9.530666e-001 4.693333e-002 0.000000e+000
 0.000000e+000 0.000000e+000 0.000000e+000 0.000000e+000 0.000000e+000 0.000000e+000 0.000000e+000 0.000000e+000 8.284322e-001 1.715678e-001
 0.000000e+000 0.000000e+000 0.000000e+000 0.000000e+000 0.000000e+000 0.000000e+000 0.000000e+000 0.000000e+000 0.000000e+000 0.000000e+000
<ENDHMM>
~h "nula"
<BEGINHMM>
<NUMSTATES> 10
<STATE> 2
<MEAN> 16
 6.168641e+000 6.989768e+000 7.045427e+000 6.919013e+000 6.485612e+000 6.672589e+000 6.876482e+000 7.045640e+000 7.327362e+000 7.313095e+000 7.441077e+000 7.634501e+000 8.248597e+000 8.223915e+000 7.930932e+000 8.096643e+000
<VARIANCE> 16
 3.215332e-001 3.035660e-001 2.679293e-001 2.669041e-001 1.530841e-001 1.456554e-001 1.500931e-001 1.202307e-001 1.162981e-001 1.191615e-001 1.249469e-001 1.946115e-001 3.774490e-001 2.486910e-001 5.329440e-002 4.084635e-002
<GCONST> 1.319861e-001
<STATE> 3
<MEAN> 16
 6.475550e+000 7.834117e+000 8.132444e+000 8.211089e+000 7.709574e+000 7.652038e+000 7.141600e+000 7.276949e+000 7.634908e+000 7.689919e+000 7.601492e+000 7.650276e+000 8.246798e+000 8.305321e+000 7.955160e+000 8.145641e+000
<VARIANCE> 16
 2.134191e-001 3.066763e-001 4.384939e-001 2.972457e-001 3.786998e-001 5.364096e-001 1.597936e-001 1.992778e-001 1.481536e-001 2.779825e-001 3.033854e-001 1.500508e-001 3.031765e-001 1.370771e-001 1.847859e-002 3.871004e-002
<GCONST> 2.898482e+000
<STATE> 4
<MEAN> 16
 6.542884e+000 7.986200e+000 8.402061e+000 8.287835e+000 7.495290e+000 7.296685e+000 7.246482e+000 7.751739e+000 8.014574e+000 8.385570e+000 8.440912e+000 8.381020e+000 8.872161e+000 8.486309e+000 7.952706e+000 7.995106e+000
<VARIANCE> 16
 3.861981e-001 2.263609e-001 4.598927e-001 3.260792e-001 2.617754e-001 4.204281e-001 2.170434e-001 2.042668e-001 2.470949e-001 4.956813e-001 3.029927e-001 2.584364e-001 5.690071e-001 2.347055e-001 3.882765e-002 3.892187e-002
<GCONST> 6.593824e+000
<STATE> 5
<MEAN> 16
 6.806143e+000 8.308760e+000 8.697116e+000 8.707031e+000 8.039378e+000 7.841505e+000 7.654057e+000 8.022676e+000 8.057236e+000 8.621361e+000 8.499880e+000 8.219134e+000 8.637702e+000 8.433427e+000 8.223480e+000 8.175474e+000
<VARIANCE> 16
 4.280063e-001 3.841956e-001 4.686569e-001 3.767576e-001 3.274402e-001 6.029556e-001 2.642000e-001 3.219475e-001 2.475159e-001 7.143748e-001 7.629072e-001 3.412552e-001 4.378941e-001 2.015105e-001 2.116837e-001 2.748367e-001
<GCONST> 1.342969e+001
<STATE> 6
<MEAN> 16
 6.552197e+000 8.133672e+000 9.109969e+000 9.368135e+000 8.675326e+000 8.809750e+000 8.328873e+000 8.311939e+000 8.508773e+000 8.680816e+000 8.634049e+000 8.638843e+000 8.589378e+000 8.231604e+000 8.085542e+000 8.184882e+000
<VARIANCE> 16
 3.116434e-001 2.729520e-001 4.322317e-001 2.933571e-001 3.059487e-001 4.605931e-001 2.275711e-001 3.035803e-001 2.042965e-001 1.871070e-001 5.179054e-001 6.405873e-001 6.147580e-001 2.549053e-001 2.623990e-001 2.767931e-001
<GCONST> 1.140119e+001
<STATE> 7
<MEAN> 16
 6.571600e+000 7.961577e+000 9.099606e+000 1.000396e+001 9.760531e+000 9.774298e+000 9.620165e+000 8.924508e+000 8.877514e+000 9.205541e+000 9.208546e+000 9.624113e+000 9.685762e+000 9.015082e+000 8.316232e+000 8.226716e+000
<VARIANCE> 16
 2.590861e-001 3.287086e-001 7.027383e-001 1.963137e-001 5.218643e-001 5.046581e-001 3.893507e-001 2.970073e-001 2.783350e-001 3.185571e-001 1.051106e+000 1.123112e+000 7.611153e-001 3.418621e-001 2.128861e-001 9.904561e-002
<GCONST> 1.400812e+001
<STATE> 8
<MEAN> 16
 6.694580e+000 7.723710e+000 8.998765e+000 1.018055e+001 1.067440e+001 1.086232e+001 1.115948e+001 1.054018e+001 9.711832e+000 1.020099e+001 1.091537e+001 1.101460e+001 1.162959e+001 1.065842e+001 9.000078e+000 8.657052e+000
<VARIANCE> 16
 4.175683e-001 5.863147e-001 1.296761e+000 4.951443e-001 6.642649e-001 4.894471e-001 6.924868e-001 1.023672e+000 3.493046e-001 4.646675e-001 6.849906e-001 6.581451e-001 9.588834e-001 1.104221e+000 1.004539e+000 6.803226e-001
<GCONST> 2.314974e+001
<STATE> 9
<MEAN> 16
 5.999929e+000 6.689096e+000 6.980505e+000 8.067722e+000 8.769995e+000 8.950439e+000 9.008331e+000 8.532634e+000 7.942579e+000 8.184096e+000 8.453648e+000 8.613298e+000 9.109338e+000 8.672368e+000 7.999742e+000 8.017111e+000
<VARIANCE> 16
 2.980812e-001 7.506886e-001 3.971967e-001 4.839260e-001 3.823416e-001 3.510691e-001 4.538356e-001 7.011584e-001 2.950335e-001 3.490498e-001 5.961967e-001 4.430109e-001 4.067450e-001 2.870713e-001 1.087393e-001 6.981359e-002
<GCONST> 1.247360e+001
<TRANSP> 10
 0.000000e+000 1.000000e+000 0.000000e+000 0.000000e+000 0.000000e+000 0.000000e+000 0.000000e+000 0.000000e+000 0.000000e+000 0.000000e+000
 0.000000e+000 5.378041e-001 4.621959e-001 0.000000e+000 0.000000e+000 0.000000e+000 0.000000e+000 0.000000e+000 0.000000e+000 0.000000e+000
 0.000000e+000 0.000000e+000 4.976526e-001 5.023474e-001 0.000000e+000 0.000000e+000 0.000000e+000 0.000000e+000 0.000000e+000 0.000000e+000
 0.000000e+000 0.000000e+000 0.000000e+000 4.860925e-001 5.139075e-001 0.000000e+000 0.000000e+000 0.000000e+000 0.000000e+000 0.000000e+000
 0.000000e+000 0.000000e+000 0.000000e+000 0.000000e+000 4.114478e-001 5.885522e-001 0.000000e+000 0.000000e+000 0.000000e+000 0.000000e+000
 0.000000e+000 0.000000e+000 0.000000e+000 0.000000e+000 0.000000e+000 7.485030e-001 2.514970e-001 0.000000e+000 0.000000e+000 0.000000e+000
 0.000000e+000 0.000000e+000 0.000000e+000 0.000000e+000 0.000000e+000 0.000000e+000 9.227508e-001 7.724912e-002 0.000000e+000 0.000000e+000
 0.000000e+000 0.000000e+000 0.000000e+000 0.000000e+000 0.000000e+000 0.000000e+000 0.000000e+000 9.399952e-001 6.000484e-002 0.000000e+000
 0.000000e+000 0.000000e+000 0.000000e+000 0.000000e+000 0.000000e+000 0.000000e+000 0.000000e+000 0.000000e+000 8.696871e-001 1.303129e-001
 0.000000e+000 0.000000e+000 0.000000e+000 0.000000e+000 0.000000e+000 0.000000e+000 0.000000e+000 0.000000e+000 0.000000e+000 0.000000e+000
<ENDHMM>
~h "devet"
<BEGINHMM>
<NUMSTATES> 10
<STATE> 2
<MEAN> 16
 6.224545e+000 6.655309e+000 6.913997e+000 6.750130e+000 6.424108e+000 6.563726e+000 6.660493e+000 6.767872e+000 7.152994e+000 7.108521e+000 7.244685e+000 7.445650e+000 7.744638e+000 7.795845e+000 7.826929e+000 7.977545e+000
<VARIANCE> 16
 2.314541e-001 1.587065e-001 3.014912e-001 2.320505e-001 8.082090e-002 7.175323e-002 7.696250e-002 3.810331e-002 3.320623e-002 2.792367e-002 4.064251e-002 5.329662e-002 1.535230e-001 9.651133e-002 1.966798e-002 1.833765e-002
<GCONST> -1.279747e+001
<STATE> 3
<MEAN> 16
 6.238128e+000 7.037416e+000 7.192467e+000 7.134575e+000 6.869933e+000 6.706701e+000 6.863289e+000 7.175982e+000 7.616084e+000 7.534041e+000 7.681674e+000 7.848161e+000 8.120250e+000 8.069376e+000 7.880651e+000 8.020437e+000
<VARIANCE> 16
 2.039832e-001 4.081090e-001 3.297138e-001 3.718783e-001 2.353663e-001 2.320477e-001 1.447384e-001 3.121264e-001 3.436318e-001 2.269826e-001 2.244479e-001 3.146112e-001 3.011869e-001 1.686558e-001 4.156794e-002 6.425039e-002
<GCONST> 4.709865e+000
<STATE> 4
<MEAN> 16
 6.458260e+000 7.420857e+000 7.704965e+000 7.619504e+000 7.011553e+000 6.884891e+000 7.091742e+000 7.775668e+000 8.333307e+000 8.198226e+000 8.352507e+000 8.418188e+000 8.778366e+000 8.630579e+000 8.075871e+000 8.055756e+000
<VARIANCE> 16
 4.307018e-001 6.947416e-001 4.158201e-001 3.397472e-001 1.243928e-001 9.091754e-002 1.144125e-001 4.090361e-001 3.128293e-001 1.394409e-001 2.855208e-001 4.076073e-001 3.145591e-001 2.350739e-001 5.472203e-002 5.731746e-002
<GCONST> 5.046230e+000
<STATE> 5
<MEAN> 16
 6.328697e+000 7.450727e+000 8.538488e+000 8.781420e+000 7.839501e+000 7.437135e+000 7.919664e+000 9.050714e+000 9.679375e+000 9.500233e+000 9.348041e+000 9.522654e+000 9.960263e+000 9.441680e+000 8.512336e+000 8.365169e+000
<VARIANCE> 16
 2.823700e-001 2.679495e-001 5.853140e-001 4.423632e-001 1.803668e-001 9.107994e-002 7.267476e-002 4.005273e-001 2.600378e-001 2.529571e-001 9.715338e-001 1.267637e+000 9.686566e-001 7.146773e-001 3.406364e-001 1.320185e-001
<GCONST> 1.184508e+001
<STATE> 6
<MEAN> 16
 6.578995e+000 7.703221e+000 9.276568e+000 9.643947e+000 8.700188e+000 8.152884e+000 8.560622e+000 9.677027e+000 1.046417e+001 1.038389e+001 1.024586e+001 1.033956e+001 1.064403e+001 9.853614e+000 8.846256e+000 8.541928e+000
<VARIANCE> 16
 1.845055e-001 2.394632e-001 2.992189e-001 1.347175e-001 1.034687e-001 1.160268e-001 3.884063e-002 3.848474e-001 1.462223e-001 1.546596e-001 1.192154e+000 1.363466e+000 9.323437e-001 1.157837e+000 2.726613e-001 2.005929e-001
<GCONST> 8.316959e+000
<STATE> 7
<MEAN> 16
 6.637961e+000 7.760690e+000 9.497119e+000 1.014194e+001 9.283753e+000 8.641257e+000 8.889630e+000 1.028667e+001 1.087061e+001 1.083272e+001 1.063657e+001 1.096543e+001 1.084896e+001 9.588627e+000 8.810993e+000 8.570635e+000
<VARIANCE> 16
 1.501295e-001 1.681762e-001 1.712371e-001 1.151757e-001 2.757514e-001 1.306146e-001 5.657251e-002 4.335772e-001 1.598635e-001 1.711731e-001 9.223322e-001 1.483236e+000 6.249624e-001 7.521930e-001 1.462199e-001 1.911778e-001
<GCONST> 7.152191e+000
<STATE> 8
<MEAN> 16
 6.362281e+000 7.690461e+000 9.016869e+000 8.921392e+000 7.886305e+000 7.535662e+000 8.047402e+000 9.344544e+000 9.728973e+000 9.607579e+000 8.699515e+000 8.987836e+000 9.542571e+000 9.320032e+000 8.383058e+000 8.444351e+000
<VARIANCE> 16
 1.476352e-001 1.643182e-001 3.486024e-001 3.486949e-001 4.605206e-001 2.270757e-001 1.895366e-001 2.949389e-001 4.365869e-001 4.007160e-001 1.037699e+000 1.545776e+000 7.084112e-001 7.472755e-001 1.371220e-001 1.223717e-001
<GCONST> 1.244329e+001
<STATE> 9
<MEAN> 16
 6.449147e+000 7.485799e+000 8.936834e+000 9.687527e+000 9.506227e+000 8.662174e+000 8.890002e+000 9.655362e+000 1.070271e+001 1.089704e+001 1.116322e+001 1.122406e+001 1.149109e+001 1.064669e+001 8.708816e+000 8.348352e+000
<VARIANCE> 16
 2.009022e-001 3.317452e-001 6.129589e-001 6.751217e-001 1.065493e+000 5.982893e-001 4.231329e-001 4.232651e-001 5.721258e-001 6.945491e-001 6.650127e-001 7.090587e-001 7.236987e-001 1.121163e+000 3.225125e-001 1.030488e-001
<GCONST> 1.835748e+001
<TRANSP> 10
 0.000000e+000 1.000000e+000 0.000000e+000 0.000000e+000 0.000000e+000 0.000000e+000 0.000000e+000 0.000000e+000 0.000000e+000 0.000000e+000
 0.000000e+000 7.693447e-001 2.306552e-001 0.000000e+000 0.000000e+000 0.000000e+000 0.000000e+000 0.000000e+000 0.000000e+000 0.000000e+000
 0.000000e+000 0.000000e+000 2.335128e-001 7.664872e-001 0.000000e+000 0.000000e+000 0.000000e+000 0.000000e+000 0.000000e+000 0.000000e+000
 0.000000e+000 0.000000e+000 0.000000e+000 2.346687e-001 7.653313e-001 0.000000e+000 0.000000e+000 0.000000e+000 0.000000e+000 0.000000e+000
 0.000000e+000 0.000000e+000 0.000000e+000 0.000000e+000 3.054823e-001 6.945178e-001 0.000000e+000 0.000000e+000 0.000000e+000 0.000000e+000
 0.000000e+000 0.000000e+000 0.000000e+000 0.000000e+000 0.000000e+000 1.646264e-001 8.353736e-001 0.000000e+000 0.000000e+000 0.000000e+000
 0.000000e+000 0.000000e+000 0.000000e+000 0.000000e+000 0.000000e+000 0.000000e+000 7.045611e-001 2.954389e-001 0.000000e+000 0.000000e+000
 0.000000e+000 0.000000e+000 0.000000e+000 0.000000e+000 0.000000e+000 0.000000e+000 0.000000e+000 8.751185e-001 1.248815e-001 0.000000e+000
 0.000000e+000 0.000000e+000 0.000000e+000 0.000000e+000 0.000000e+000 0.000000e+000 0.000000e+000 0.000000e+000 9.659328e-001 3.406722e-002
 0.000000e+000 0.000000e+000 0.000000e+000 0.000000e+000 0.000000e+000 0.000000e+000 0.000000e+000 0.000000e+000 0.000000e+000 0.000000e+000
<ENDHMM>
~h "jedna"
<BEGINHMM>
<NUMSTATES> 10
<STATE> 2
<MEAN> 16
 6.101198e+000 6.850094e+000 6.961499e+000 6.852543e+000 6.547820e+000 6.551562e+000 6.678526e+000 6.911502e+000 7.516917e+000 7.848318e+000 7.865561e+000 8.178466e+000 8.599784e+000 8.340825e+000 7.926710e+000 8.071609e+000
<VARIANCE> 16
 1.930807e-001 3.848552e-001 4.062827e-001 2.071935e-001 1.062247e-001 8.371373e-002 4.303022e-002 3.143756e-002 2.011987e-001 3.114314e-001 2.841232e-001 5.279139e-001 6.523934e-001 2.948016e-001 9.070465e-002 7.276468e-002
<GCONST> 1.667094e+000
<STATE> 3
<MEAN> 16
 6.346111e+000 7.634224e+000 8.073828e+000 7.753347e+000 7.103482e+000 6.780878e+000 6.760150e+000 7.044266e+000 8.008559e+000 9.007133e+000 9.204167e+000 9.532489e+000 9.568069e+000 8.909316e+000 8.076326e+000 8.065401e+000
<VARIANCE> 16
 1.642525e-001 2.134476e-001 2.328006e-001 2.072334e-001 1.643505e-001 1.849309e-001 6.451428e-002 9.700494e-002 3.593006e-001 4.118286e-001 5.299445e-001 1.138263e+000 1.183622e+000 5.109261e-001 6.919977e-002 4.026127e-002
<GCONST> 5.654149e+000
<STATE> 4
<MEAN> 16
 6.418906e+000 7.467619e+000 8.134443e+000 7.812788e+000 7.031322e+000 6.837020e+000 7.140080e+000 7.974679e+000 8.525158e+000 8.616285e+000 8.366312e+000 8.317822e+000 8.898914e+000 8.576921e+000 8.396459e+000 8.484387e+000
<VARIANCE> 16
 1.023288e-001 3.075772e-001 9.929048e-001 8.245917e-001 3.200867e-001 1.477100e-001 2.000887e-001 7.176530e-001 1.125967e+000 9.850734e-001 9.436812e-001 1.263880e+000 1.030480e+000 4.932884e-001 1.924515e-001 1.209044e-001
<GCONST> 1.659754e+001
<STATE> 5
<MEAN> 16
 6.360032e+000 7.732966e+000 8.850333e+000 8.813517e+000 7.828331e+000 7.360198e+000 7.652460e+000 8.483449e+000 8.882569e+000 9.522707e+000 9.398525e+000 9.954033e+000 9.884093e+000 8.760193e+000 8.252702e+000 8.157101e+000
<VARIANCE> 16
 8.566283e-002 1.535184e-001 4.357404e-001 4.766916e-001 3.165577e-001 2.172959e-001 1.910375e-001 7.853133e-001 8.970569e-001 8.745416e-001 1.179158e+000 1.374104e+000 1.051277e+000 8.152562e-001 2.260268e-001 5.850762e-002
<GCONST> 1.468943e+001
<STATE> 6
<MEAN> 16
 6.375344e+000 7.442394e+000 8.210605e+000 8.233153e+000 7.760084e+000 7.457190e+000 7.514277e+000 8.148076e+000 8.856993e+000 9.519937e+000 9.984280e+000 1.005451e+001 1.034105e+001 9.698524e+000 8.259507e+000 8.090364e+000
<VARIANCE> 16
 1.845236e-001 3.561246e-001 7.570652e-001 6.083884e-001 3.090331e-001 2.805335e-001 5.554359e-001 6.600320e-001 1.035439e+000 1.347007e+000 1.421055e+000 1.783191e+000 1.726994e+000 1.331580e+000 3.385976e-001 5.740705e-002
<GCONST> 2.061423e+001
<STATE> 7
<MEAN> 16
 6.637910e+000 7.797459e+000 8.923490e+000 9.135498e+000 8.805037e+000 8.234848e+000 8.246593e+000 8.840037e+000 9.672371e+000 1.013977e+001 1.025565e+001 1.028724e+001 1.077048e+001 9.881661e+000 8.435897e+000 8.244115e+000
<VARIANCE> 16
 1.635549e-001 3.580388e-001 6.936629e-001 9.164687e-001 1.131646e+000 6.956742e-001 7.830734e-001 8.565362e-001 9.188403e-001 1.565106e+000 1.498293e+000 1.540417e+000 1.388356e+000 1.488353e+000 5.413200e-001 1.406188e-001
<GCONST> 2.482677e+001
<STATE> 8
<MEAN> 16
 6.579141e+000 7.673099e+000 8.560703e+000 9.440709e+000 1.003255e+001 1.024390e+001 1.066929e+001 1.105916e+001 1.036208e+001 1.009379e+001 1.029059e+001 1.054353e+001 1.108337e+001 1.036869e+001 8.508479e+000 8.297622e+000
<VARIANCE> 16
 1.171152e-001 2.620868e-001 3.848247e-001 4.019728e-001 4.669041e-001 5.372677e-001 4.134333e-001 6.527742e-001 3.474805e-001 2.322307e-001 1.320491e+000 1.129279e+000 1.136321e+000 8.114378e-001 2.320196e-001 8.983840e-002
<GCONST> 1.529403e+001
<STATE> 9
<MEAN> 16
 6.239324e+000 7.074915e+000 7.516583e+000 8.328733e+000 9.150663e+000 9.133633e+000 9.347356e+000 9.056952e+000 8.559113e+000 8.579145e+000 8.720906e+000 9.071559e+000 9.397802e+000 8.825468e+000 7.993200e+000 8.108189e+000
<VARIANCE> 16
 1.720714e-001 3.752905e-001 5.018703e-001 7.647864e-001 8.910447e-001 4.373369e-001 4.455578e-001 4.065063e-001 2.981215e-001 3.557360e-001 7.505106e-001 8.194494e-001 4.544670e-001 1.919204e-001 3.303954e-002 4.013876e-002
<GCONST> 1.126285e+001
<TRANSP> 10
 0.000000e+000 1.000000e+000 0.000000e+000 0.000000e+000 0.000000e+000 0.000000e+000 0.000000e+000 0.000000e+000 0.000000e+000 0.000000e+000
 0.000000e+000 5.321321e-001 4.678680e-001 0.000000e+000 0.000000e+000 0.000000e+000 0.000000e+000 0.000000e+000 0.000000e+000 0.000000e+000
 0.000000e+000 0.000000e+000 4.943878e-001 5.056123e-001 0.000000e+000 0.000000e+000 0.000000e+000 0.000000e+000 0.000000e+000 0.000000e+000
 0.000000e+000 0.000000e+000 0.000000e+000 7.845125e-001 2.154875e-001 0.000000e+000 0.000000e+000 0.000000e+000 0.000000e+000 0.000000e+000
 0.000000e+000 0.000000e+000 0.000000e+000 0.000000e+000 8.019832e-001 1.980168e-001 0.000000e+000 0.000000e+000 0.000000e+000 0.000000e+000
 0.000000e+000 0.000000e+000 0.000000e+000 0.000000e+000 0.000000e+000 7.897139e-001 2.102861e-001 0.000000e+000 0.000000e+000 0.000000e+000
 0.000000e+000 0.000000e+000 0.000000e+000 0.000000e+000 0.000000e+000 0.000000e+000 9.208251e-001 7.917490e-002 0.000000e+000 0.000000e+000
 0.000000e+000 0.000000e+000 0.000000e+000 0.000000e+000 0.000000e+000 0.000000e+000 0.000000e+000 9.356984e-001 6.430162e-002 0.000000e+000
 0.000000e+000 0.000000e+000 0.000000e+000 0.000000e+000 0.000000e+000 0.000000e+000 0.000000e+000 0.000000e+000 8.960624e-001 1.039377e-001
 0.000000e+000 0.000000e+000 0.000000e+000 0.000000e+000 0.000000e+000 0.000000e+000 0.000000e+000 0.000000e+000 0.000000e+000 0.000000e+000
<ENDHMM>
