~o
<STREAMINFO> 1 16
<VECSIZE> 16<NULLD><FBANK><DIAGC>
~h "ctyri"
<BEGINHMM>
<NUMSTATES> 10
<STATE> 2
<MEAN> 16
 5.125536e+000 6.142593e+000 6.659540e+000 6.927892e+000 7.110688e+000 7.257927e+000 7.540059e+000 7.886614e+000 8.308981e+000 8.806433e+000 9.320917e+000 9.577289e+000 9.800968e+000 9.917616e+000 9.998065e+000 1.002358e+001
<VARIANCE> 16
 1.266664e+000 1.565321e+000 1.546723e+000 1.308041e+000 1.028823e+000 1.083682e+000 1.081123e+000 1.051376e+000 9.698756e-001 9.661086e-001 1.247631e+000 1.503646e+000 1.355029e+000 1.180410e+000 9.859155e-001 8.420783e-001
<GCONST> 3.187975e+001
<STATE> 3
<MEAN> 16
 5.363942e+000 6.292679e+000 6.883428e+000 7.146082e+000 7.285764e+000 7.389950e+000 7.679340e+000 8.146627e+000 8.752290e+000 9.334745e+000 9.873569e+000 1.013596e+001 1.036040e+001 1.043796e+001 1.045062e+001 1.038547e+001
<VARIANCE> 16
 1.404835e+000 1.708420e+000 1.966325e+000 1.773246e+000 1.370114e+000 1.355196e+000 1.341883e+000 1.343509e+000 1.630096e+000 2.137081e+000 2.693338e+000 2.900635e+000 2.852232e+000 2.837247e+000 2.672710e+000 2.379931e+000
<GCONST> 3.998359e+001
<STATE> 4
<MEAN> 16
 5.520855e+000 6.377815e+000 6.970822e+000 7.223515e+000 7.346315e+000 7.485466e+000 7.778740e+000 8.368843e+000 9.066768e+000 9.622254e+000 1.018099e+001 1.042832e+001 1.072289e+001 1.076222e+001 1.068124e+001 1.053820e+001
<VARIANCE> 16
 1.518131e+000 1.823810e+000 2.099468e+000 1.890845e+000 1.399887e+000 1.374288e+000 1.491455e+000 1.530132e+000 2.062351e+000 2.538757e+000 2.914286e+000 3.037672e+000 3.087389e+000 3.180283e+000 2.912609e+000 2.608146e+000
<GCONST> 4.143081e+001
<STATE> 5
<MEAN> 16
 5.695576e+000 6.542033e+000 7.187423e+000 7.468680e+000 7.585236e+000 7.747033e+000 8.068945e+000 8.649071e+000 9.429723e+000 9.984205e+000 1.054578e+001 1.076463e+001 1.109746e+001 1.109690e+001 1.092929e+001 1.070956e+001
<VARIANCE> 16
 1.619172e+000 1.820736e+000 2.079460e+000 1.845744e+000 1.428422e+000 1.390625e+000 1.586970e+000 1.723408e+000 2.448731e+000 3.207495e+000 3.459716e+000 3.285726e+000 3.325934e+000 3.491335e+000 3.311928e+000 3.157782e+000
<GCONST> 4.281590e+001
<STATE> 6
<MEAN> 16
 5.949553e+000 6.852880e+000 7.514998e+000 7.785951e+000 7.879926e+000 8.025002e+000 8.337448e+000 8.946481e+000 9.724492e+000 1.036508e+001 1.088255e+001 1.107333e+001 1.132263e+001 1.128554e+001 1.114028e+001 1.096135e+001
<VARIANCE> 16
 1.795426e+000 2.138411e+000 2.412592e+000 2.054141e+000 1.522576e+000 1.461849e+000 1.624832e+000 1.866236e+000 2.426747e+000 3.098853e+000 3.235697e+000 3.156039e+000 2.999841e+000 3.178022e+000 3.154943e+000 3.232798e+000
<GCONST> 4.317961e+001
<STATE> 7
<MEAN> 16
 6.485686e+000 7.534223e+000 8.176724e+000 8.392938e+000 8.366343e+000 8.477464e+000 8.783965e+000 9.444049e+000 1.015824e+001 1.080160e+001 1.121246e+001 1.143410e+001 1.163187e+001 1.160881e+001 1.153775e+001 1.146220e+001
<VARIANCE> 16
 2.004276e+000 2.553710e+000 2.799582e+000 2.282123e+000 1.403574e+000 1.190994e+000 1.302429e+000 1.662264e+000 2.150900e+000 2.578315e+000 2.760389e+000 2.792711e+000 2.631755e+000 2.830398e+000 2.863109e+000 3.076586e+000
<GCONST> 4.211887e+001
<STATE> 8
<MEAN> 16
 8.711660e+000 1.009416e+001 1.064039e+001 1.057942e+001 9.903319e+000 9.631842e+000 9.816341e+000 1.068001e+001 1.137787e+001 1.178394e+001 1.192932e+001 1.195612e+001 1.204300e+001 1.183130e+001 1.145696e+001 1.121012e+001
<VARIANCE> 16
 2.300773e+000 2.302235e+000 2.735293e+000 2.399451e+000 1.426123e+000 1.115108e+000 1.252532e+000 1.633576e+000 1.752418e+000 1.750969e+000 1.633687e+000 1.512127e+000 1.614560e+000 2.249430e+000 2.348893e+000 2.653496e+000
<GCONST> 3.927957e+001
<STATE> 9
<MEAN> 16
 6.916011e+000 8.007360e+000 8.228311e+000 8.166568e+000 7.947586e+000 7.898626e+000 7.946130e+000 8.359212e+000 8.862865e+000 9.168110e+000 9.219665e+000 9.152902e+000 9.306241e+000 9.343179e+000 9.342690e+000 9.468338e+000
<VARIANCE> 16
 1.806216e+000 1.359408e+000 1.162282e+000 1.073294e+000 5.754018e-001 3.977624e-001 4.275790e-001 5.379338e-001 4.814407e-001 5.538003e-001 4.569281e-001 4.500501e-001 5.058249e-001 6.821374e-001 7.802462e-001 7.672525e-001
<GCONST> 2.310048e+001
<TRANSP> 10
 0.000000e+000 1.000000e+000 0.000000e+000 0.000000e+000 0.000000e+000 0.000000e+000 0.000000e+000 0.000000e+000 0.000000e+000 0.000000e+000
 0.000000e+000 7.143428e-001 2.856572e-001 0.000000e+000 0.000000e+000 0.000000e+000 0.000000e+000 0.000000e+000 0.000000e+000 0.000000e+000
 0.000000e+000 0.000000e+000 6.046463e-001 3.953537e-001 0.000000e+000 0.000000e+000 0.000000e+000 0.000000e+000 0.000000e+000 0.000000e+000
 0.000000e+000 0.000000e+000 0.000000e+000 5.641980e-001 4.358020e-001 0.000000e+000 0.000000e+000 0.000000e+000 0.000000e+000 0.000000e+000
 0.000000e+000 0.000000e+000 0.000000e+000 0.000000e+000 6.287004e-001 3.712997e-001 0.000000e+000 0.000000e+000 0.000000e+000 0.000000e+000
 0.000000e+000 0.000000e+000 0.000000e+000 0.000000e+000 0.000000e+000 7.060304e-001 2.939697e-001 0.000000e+000 0.000000e+000 0.000000e+000
 0.000000e+000 0.000000e+000 0.000000e+000 0.000000e+000 0.000000e+000 0.000000e+000 8.236520e-001 1.763480e-001 0.000000e+000 0.000000e+000
 0.000000e+000 0.000000e+000 0.000000e+000 0.000000e+000 0.000000e+000 0.000000e+000 0.000000e+000 9.759048e-001 2.409528e-002 0.000000e+000
 0.000000e+000 0.000000e+000 0.000000e+000 0.000000e+000 0.000000e+000 0.000000e+000 0.000000e+000 0.000000e+000 8.999428e-001 1.000572e-001
 0.000000e+000 0.000000e+000 0.000000e+000 0.000000e+000 0.000000e+000 0.000000e+000 0.000000e+000 0.000000e+000 0.000000e+000 0.000000e+000
<ENDHMM>
~h "sedm"
<BEGINHMM>
<NUMSTATES> 10
<STATE> 2
<MEAN> 16
 5.381622e+000 6.256649e+000 6.760051e+000 7.137760e+000 7.357014e+000 7.583606e+000 7.848456e+000 8.181884e+000 8.347310e+000 8.507326e+000 8.747668e+000 9.035051e+000 9.440493e+000 9.800615e+000 1.005419e+001 1.016509e+001
<VARIANCE> 16
 8.730116e-001 1.043628e+000 8.239228e-001 7.727851e-001 6.185131e-001 5.370820e-001 5.795220e-001 5.261512e-001 4.909265e-001 4.588011e-001 3.350566e-001 3.112057e-001 5.464498e-001 8.420355e-001 9.627545e-001 9.842539e-001
<GCONST> 2.199031e+001
<STATE> 3
<MEAN> 16
 5.362371e+000 6.197717e+000 6.763796e+000 7.152649e+000 7.374133e+000 7.591769e+000 7.899942e+000 8.294310e+000 8.477901e+000 8.623055e+000 8.890628e+000 9.213457e+000 9.689364e+000 1.013180e+001 1.037495e+001 1.044472e+001
<VARIANCE> 16
 9.130232e-001 1.216975e+000 1.016758e+000 9.099358e-001 6.842279e-001 5.421356e-001 5.991186e-001 5.884705e-001 6.225874e-001 6.566468e-001 4.805000e-001 5.121600e-001 1.005217e+000 1.551770e+000 1.648414e+000 1.682065e+000
<GCONST> 2.656732e+001
<STATE> 4
<MEAN> 16
 5.429913e+000 6.246672e+000 6.854401e+000 7.252231e+000 7.490589e+000 7.718936e+000 8.034593e+000 8.498405e+000 8.699923e+000 8.841062e+000 9.126471e+000 9.470892e+000 1.000943e+001 1.051746e+001 1.076719e+001 1.077653e+001
<VARIANCE> 16
 9.353940e-001 1.262553e+000 1.086456e+000 1.001538e+000 7.576618e-001 5.210235e-001 5.531172e-001 6.116187e-001 7.763767e-001 9.111382e-001 7.109007e-001 7.885182e-001 1.419325e+000 2.130529e+000 2.242615e+000 2.260255e+000
<GCONST> 2.944820e+001
<STATE> 5
<MEAN> 16
 5.683368e+000 6.478310e+000 7.150127e+000 7.590319e+000 7.823590e+000 8.034730e+000 8.368936e+000 8.885458e+000 9.114022e+000 9.272769e+000 9.540405e+000 9.916124e+000 1.053636e+001 1.111343e+001 1.138298e+001 1.134290e+001
<VARIANCE> 16
 1.058117e+000 1.325105e+000 1.193535e+000 1.092752e+000 7.753269e-001 4.959588e-001 5.121766e-001 6.298849e-001 9.271694e-001 1.137614e+000 1.002485e+000 1.197925e+000 1.809744e+000 2.611925e+000 2.864537e+000 2.946782e+000
<GCONST> 3.184538e+001
<STATE> 6
<MEAN> 16
 6.110373e+000 6.930151e+000 7.657094e+000 8.127070e+000 8.328987e+000 8.532989e+000 8.921191e+000 9.493714e+000 9.732538e+000 9.937142e+000 1.021728e+001 1.068678e+001 1.138686e+001 1.203045e+001 1.234460e+001 1.231865e+001
<VARIANCE> 16
 1.043547e+000 1.315030e+000 1.336200e+000 1.298374e+000 8.790503e-001 5.333452e-001 5.688336e-001 6.901840e-001 9.044554e-001 1.109105e+000 1.045703e+000 1.354495e+000 1.865085e+000 2.523264e+000 2.963018e+000 3.348764e+000
<GCONST> 3.277590e+001
<STATE> 7
<MEAN> 16
 7.045267e+000 8.003177e+000 8.772966e+000 9.313144e+000 9.369557e+000 9.494848e+000 9.873790e+000 1.050395e+001 1.073180e+001 1.090733e+001 1.120457e+001 1.157891e+001 1.218200e+001 1.271877e+001 1.295601e+001 1.293469e+001
<VARIANCE> 16
 1.905715e+000 2.812088e+000 2.883925e+000 3.034306e+000 1.920846e+000 1.166750e+000 1.100594e+000 1.280065e+000 1.328136e+000 1.189360e+000 1.135753e+000 1.102081e+000 1.374133e+000 1.858730e+000 2.614204e+000 3.270559e+000
<GCONST> 3.816902e+001
<STATE> 8
<MEAN> 16
 9.186381e+000 1.058482e+001 1.098514e+001 1.084129e+001 1.037057e+001 1.031846e+001 1.046014e+001 1.066501e+001 1.066971e+001 1.087998e+001 1.099961e+001 1.095183e+001 1.071883e+001 1.048826e+001 1.028042e+001 1.038373e+001
<VARIANCE> 16
 1.269528e+000 1.027484e+000 1.524997e+000 1.942945e+000 1.610741e+000 1.379923e+000 1.298932e+000 1.641145e+000 1.676975e+000 1.608721e+000 1.669462e+000 1.516360e+000 1.579666e+000 2.045887e+000 1.881372e+000 1.921601e+000
<GCONST> 3.669310e+001
<STATE> 9
<MEAN> 16
 7.077847e+000 8.019346e+000 8.126801e+000 8.082027e+000 8.151673e+000 8.265889e+000 8.320680e+000 8.348374e+000 8.410571e+000 8.615486e+000 8.713780e+000 8.784092e+000 8.903120e+000 9.057333e+000 9.255083e+000 9.418701e+000
<VARIANCE> 16
 2.399291e+000 2.508589e+000 1.931117e+000 1.565622e+000 1.371033e+000 8.318649e-001 4.678546e-001 4.943734e-001 4.932294e-001 6.068085e-001 4.524965e-001 4.470481e-001 5.532770e-001 6.263401e-001 6.171408e-001 5.767003e-001
<GCONST> 2.607749e+001
<TRANSP> 10
 0.000000e+000 1.000000e+000 0.000000e+000 0.000000e+000 0.000000e+000 0.000000e+000 0.000000e+000 0.000000e+000 0.000000e+000 0.000000e+000
 0.000000e+000 8.140498e-001 1.859501e-001 0.000000e+000 0.000000e+000 0.000000e+000 0.000000e+000 0.000000e+000 0.000000e+000 0.000000e+000
 0.000000e+000 0.000000e+000 6.667602e-001 3.332398e-001 0.000000e+000 0.000000e+000 0.000000e+000 0.000000e+000 0.000000e+000 0.000000e+000
 0.000000e+000 0.000000e+000 0.000000e+000 5.735180e-001 4.264820e-001 0.000000e+000 0.000000e+000 0.000000e+000 0.000000e+000 0.000000e+000
 0.000000e+000 0.000000e+000 0.000000e+000 0.000000e+000 5.592896e-001 4.407103e-001 0.000000e+000 0.000000e+000 0.000000e+000 0.000000e+000
 0.000000e+000 0.000000e+000 0.000000e+000 0.000000e+000 0.000000e+000 6.932808e-001 3.067192e-001 0.000000e+000 0.000000e+000 0.000000e+000
 0.000000e+000 0.000000e+000 0.000000e+000 0.000000e+000 0.000000e+000 0.000000e+000 8.647742e-001 1.352258e-001 0.000000e+000 0.000000e+000
 0.000000e+000 0.000000e+000 0.000000e+000 0.000000e+000 0.000000e+000 0.000000e+000 0.000000e+000 9.720334e-001 2.796664e-002 0.000000e+000
 0.000000e+000 0.000000e+000 0.000000e+000 0.000000e+000 0.000000e+000 0.000000e+000 0.000000e+000 0.000000e+000 9.588026e-001 4.119737e-002
 0.000000e+000 0.000000e+000 0.000000e+000 0.000000e+000 0.000000e+000 0.000000e+000 0.000000e+000 0.000000e+000 0.000000e+000 0.000000e+000
<ENDHMM>
~h "sest"
<BEGINHMM>
<NUMSTATES> 10
<STATE> 2
<MEAN> 16
 4.924684e+000 5.913048e+000 6.390734e+000 6.706189e+000 6.864999e+000 7.067447e+000 7.379701e+000 7.984250e+000 8.623945e+000 9.095561e+000 9.415506e+000 9.550196e+000 9.715425e+000 9.832552e+000 9.907377e+000 9.919283e+000
<VARIANCE> 16
 1.019761e+000 1.647679e+000 1.448752e+000 1.291057e+000 1.138950e+000 9.887642e-001 9.986088e-001 8.147458e-001 5.594977e-001 7.991548e-001 7.958887e-001 7.291876e-001 6.722289e-001 6.557403e-001 5.884658e-001 5.725778e-001
<GCONST> 2.720764e+001
<STATE> 3
<MEAN> 16
 5.304181e+000 6.166546e+000 6.746116e+000 7.100860e+000 7.209480e+000 7.353058e+000 7.710337e+000 8.509686e+000 9.220455e+000 9.672801e+000 9.941010e+000 9.955918e+000 1.004921e+001 1.009584e+001 1.006583e+001 9.967266e+000
<VARIANCE> 16
 8.811868e-001 1.388117e+000 1.325088e+000 1.366205e+000 1.085788e+000 7.459066e-001 7.849187e-001 9.290543e-001 9.795161e-001 1.466953e+000 1.585873e+000 1.437160e+000 1.234716e+000 1.195176e+000 1.057295e+000 9.547251e-001
<GCONST> 3.125921e+001
<STATE> 4
<MEAN> 16
 5.565092e+000 6.397136e+000 7.014462e+000 7.397737e+000 7.506308e+000 7.599208e+000 8.018138e+000 8.967224e+000 9.727942e+000 1.016212e+001 1.042462e+001 1.040216e+001 1.048986e+001 1.050048e+001 1.041307e+001 1.024759e+001
<VARIANCE> 16
 7.705997e-001 1.215268e+000 1.279853e+000 1.406763e+000 1.135255e+000 7.075302e-001 6.751668e-001 9.073098e-001 1.196631e+000 1.896733e+000 2.090238e+000 2.114461e+000 1.870377e+000 1.783456e+000 1.734170e+000 1.560094e+000
<GCONST> 3.372495e+001
<STATE> 5
<MEAN> 16
 5.784086e+000 6.591805e+000 7.251007e+000 7.662035e+000 7.795929e+000 7.872598e+000 8.299704e+000 9.358572e+000 1.019643e+001 1.063299e+001 1.092381e+001 1.091366e+001 1.097752e+001 1.097551e+001 1.085232e+001 1.059792e+001
<VARIANCE> 16
 7.708352e-001 1.148753e+000 1.282872e+000 1.482909e+000 1.222609e+000 7.260360e-001 6.166899e-001 7.724671e-001 1.191045e+000 2.028959e+000 2.311001e+000 2.509212e+000 2.334914e+000 2.277939e+000 2.329180e+000 2.169884e+000
<GCONST> 3.499826e+001
<STATE> 6
<MEAN> 16
 6.041516e+000 6.788940e+000 7.458750e+000 7.891417e+000 8.054557e+000 8.156251e+000 8.609960e+000 9.710084e+000 1.061107e+001 1.113692e+001 1.150321e+001 1.151161e+001 1.155489e+001 1.154554e+001 1.140071e+001 1.106591e+001
<VARIANCE> 16
 7.542751e-001 1.008663e+000 1.185033e+000 1.436796e+000 1.239249e+000 7.180982e-001 6.060002e-001 6.360682e-001 1.017198e+000 1.891592e+000 2.234701e+000 2.618385e+000 2.565289e+000 2.683972e+000 2.774748e+000 2.700400e+000
<GCONST> 3.495935e+001
<STATE> 7
<MEAN> 16
 6.445135e+000 7.150073e+000 7.867499e+000 8.309040e+000 8.448847e+000 8.549935e+000 9.044023e+000 1.012940e+001 1.106583e+001 1.175683e+001 1.217260e+001 1.220727e+001 1.224556e+001 1.221724e+001 1.207570e+001 1.172884e+001
<VARIANCE> 16
 1.017626e+000 1.186071e+000 1.334426e+000 1.497522e+000 1.227525e+000 7.665945e-001 6.920911e-001 6.668490e-001 8.913879e-001 1.677907e+000 1.886026e+000 2.314437e+000 2.403988e+000 2.709893e+000 2.941165e+000 3.140813e+000
<GCONST> 3.542598e+001
<STATE> 8
<MEAN> 16
 7.880494e+000 8.870782e+000 9.584094e+000 1.015288e+001 1.012426e+001 9.952441e+000 1.031016e+001 1.106673e+001 1.145177e+001 1.180896e+001 1.201443e+001 1.207692e+001 1.220215e+001 1.225222e+001 1.220596e+001 1.202667e+001
<VARIANCE> 16
 2.513934e+000 2.962705e+000 3.139471e+000 3.546147e+000 3.064291e+000 1.937487e+000 1.736443e+000 1.986079e+000 1.959445e+000 2.047903e+000 2.003325e+000 1.746965e+000 1.581003e+000 1.987436e+000 2.578719e+000 3.308517e+000
<GCONST> 4.277397e+001
<STATE> 9
<MEAN> 16
 5.715798e+000 6.754446e+000 7.293027e+000 7.744672e+000 7.915160e+000 8.023531e+000 8.241769e+000 8.596358e+000 8.771672e+000 8.917004e+000 9.193918e+000 9.397638e+000 9.795560e+000 1.017644e+001 1.051133e+001 1.067017e+001
<VARIANCE> 16
 7.544720e-001 8.771918e-001 8.176350e-001 8.996136e-001 9.199279e-001 7.648396e-001 7.428584e-001 7.986205e-001 7.262349e-001 6.268583e-001 5.819812e-001 7.543854e-001 9.623125e-001 1.279357e+000 1.451274e+000 1.429776e+000
<GCONST> 2.714028e+001
<TRANSP> 10
 0.000000e+000 1.000000e+000 0.000000e+000 0.000000e+000 0.000000e+000 0.000000e+000 0.000000e+000 0.000000e+000 0.000000e+000 0.000000e+000
 0.000000e+000 6.063007e-001 3.936993e-001 0.000000e+000 0.000000e+000 0.000000e+000 0.000000e+000 0.000000e+000 0.000000e+000 0.000000e+000
 0.000000e+000 0.000000e+000 3.842689e-001 6.157311e-001 0.000000e+000 0.000000e+000 0.000000e+000 0.000000e+000 0.000000e+000 0.000000e+000
 0.000000e+000 0.000000e+000 0.000000e+000 3.271319e-001 6.728681e-001 0.000000e+000 0.000000e+000 0.000000e+000 0.000000e+000 0.000000e+000
 0.000000e+000 0.000000e+000 0.000000e+000 0.000000e+000 3.550031e-001 6.449968e-001 0.000000e+000 0.000000e+000 0.000000e+000 0.000000e+000
 0.000000e+000 0.000000e+000 0.000000e+000 0.000000e+000 0.000000e+000 4.699247e-001 5.300753e-001 0.000000e+000 0.000000e+000 0.000000e+000
 0.000000e+000 0.000000e+000 0.000000e+000 0.000000e+000 0.000000e+000 0.000000e+000 6.901397e-001 3.098603e-001 0.000000e+000 0.000000e+000
 0.000000e+000 0.000000e+000 0.000000e+000 0.000000e+000 0.000000e+000 0.000000e+000 0.000000e+000 9.738956e-001 2.610440e-002 0.000000e+000
 0.000000e+000 0.000000e+000 0.000000e+000 0.000000e+000 0.000000e+000 0.000000e+000 0.000000e+000 0.000000e+000 9.280027e-001 7.199734e-002
 0.000000e+000 0.000000e+000 0.000000e+000 0.000000e+000 0.000000e+000 0.000000e+000 0.000000e+000 0.000000e+000 0.000000e+000 0.000000e+000
<ENDHMM>
~h "dva"
<BEGINHMM>
<NUMSTATES> 10
<STATE> 2
<MEAN> 16
 6.256522e+000 6.952127e+000 7.319821e+000 7.560433e+000 7.649944e+000 7.800581e+000 7.983564e+000 8.232869e+000 8.291713e+000 8.393839e+000 8.548735e+000 8.658713e+000 8.789948e+000 8.947486e+000 9.162495e+000 9.337227e+000
<VARIANCE> 16
 8.820481e-001 8.960155e-001 7.321646e-001 5.949422e-001 5.251827e-001 6.034086e-001 6.903384e-001 6.960920e-001 5.762678e-001 4.647441e-001 5.050007e-001 5.720708e-001 5.780334e-001 5.695305e-001 4.456432e-001 3.696217e-001
<GCONST> 2.098395e+001
<STATE> 3
<MEAN> 16
 6.421566e+000 7.185821e+000 7.552539e+000 7.771852e+000 7.850945e+000 7.964474e+000 8.152549e+000 8.377359e+000 8.409831e+000 8.524733e+000 8.702803e+000 8.810988e+000 8.913181e+000 9.050522e+000 9.239988e+000 9.381514e+000
<VARIANCE> 16
 1.129720e+000 1.405455e+000 1.140418e+000 9.023815e-001 7.214103e-001 6.433530e-001 6.725023e-001 6.340851e-001 5.575725e-001 4.732924e-001 5.196771e-001 6.108484e-001 6.209679e-001 6.008343e-001 4.970322e-001 4.466275e-001
<GCONST> 2.330641e+001
<STATE> 4
<MEAN> 16
 6.719875e+000 7.595519e+000 7.887584e+000 8.063382e+000 8.087996e+000 8.145298e+000 8.320556e+000 8.500116e+000 8.518982e+000 8.632806e+000 8.787521e+000 8.864433e+000 8.954207e+000 9.049950e+000 9.220385e+000 9.341785e+000
<VARIANCE> 16
 1.692884e+000 2.198528e+000 1.688227e+000 1.420142e+000 1.128561e+000 8.782539e-001 8.559862e-001 8.384189e-001 7.618799e-001 6.835692e-001 6.779256e-001 7.628241e-001 7.769046e-001 6.794298e-001 5.508345e-001 5.390673e-001
<GCONST> 2.808906e+001
<STATE> 5
<MEAN> 16
 7.070930e+000 8.050175e+000 8.252048e+000 8.380994e+000 8.381903e+000 8.445296e+000 8.619421e+000 8.756775e+000 8.728483e+000 8.810321e+000 8.938195e+000 9.003634e+000 9.083155e+000 9.123044e+000 9.285156e+000 9.353094e+000
<VARIANCE> 16
 2.198808e+000 2.866166e+000 2.204016e+000 1.834143e+000 1.419915e+000 1.120816e+000 1.094563e+000 1.099659e+000 9.647330e-001 8.712111e-001 8.390633e-001 9.159580e-001 8.782215e-001 7.728941e-001 6.632357e-001 6.088969e-001
<GCONST> 3.156256e+001
<STATE> 6
<MEAN> 16
 7.696127e+000 8.752612e+000 8.911126e+000 8.941147e+000 8.810467e+000 8.857597e+000 9.059977e+000 9.090276e+000 9.037476e+000 9.115125e+000 9.201228e+000 9.212586e+000 9.238040e+000 9.217960e+000 9.330703e+000 9.410419e+000
<VARIANCE> 16
 2.559774e+000 3.208679e+000 2.746238e+000 2.247833e+000 1.699894e+000 1.429474e+000 1.426102e+000 1.293141e+000 1.292442e+000 1.266421e+000 1.245785e+000 1.222077e+000 1.048071e+000 9.657461e-001 7.838216e-001 8.549362e-001
<GCONST> 3.535674e+001
<STATE> 7
<MEAN> 16
 8.470150e+000 9.636137e+000 9.824430e+000 9.803000e+000 9.511777e+000 9.573876e+000 9.832385e+000 9.746781e+000 9.676103e+000 9.807772e+000 9.863776e+000 9.791570e+000 9.701868e+000 9.564738e+000 9.548083e+000 9.645209e+000
<VARIANCE> 16
 2.065515e+000 2.429790e+000 2.390912e+000 2.248006e+000 1.860586e+000 1.679010e+000 1.749851e+000 1.538652e+000 1.732338e+000 1.878721e+000 1.945635e+000 1.918539e+000 1.638899e+000 1.533488e+000 1.200005e+000 1.302871e+000
<GCONST> 3.869616e+001
<STATE> 8
<MEAN> 16
 8.924217e+000 1.015587e+001 1.045823e+001 1.103597e+001 1.136559e+001 1.150663e+001 1.162517e+001 1.132513e+001 1.093356e+001 1.112621e+001 1.122028e+001 1.105283e+001 1.094358e+001 1.070016e+001 1.056679e+001 1.051398e+001
<VARIANCE> 16
 1.373292e+000 1.147457e+000 1.657099e+000 2.395752e+000 2.824896e+000 2.547870e+000 2.231924e+000 1.924776e+000 1.752139e+000 1.964229e+000 2.251258e+000 2.017439e+000 1.927174e+000 1.996687e+000 2.011165e+000 2.248077e+000
<GCONST> 4.027655e+001
<STATE> 9
<MEAN> 16
 6.271939e+000 7.043933e+000 7.373096e+000 7.743876e+000 8.100173e+000 8.373668e+000 8.558505e+000 8.580723e+000 8.466674e+000 8.614474e+000 8.739696e+000 8.811455e+000 8.967602e+000 9.089314e+000 9.260262e+000 9.409230e+000
<VARIANCE> 16
 7.742043e-001 6.319461e-001 3.905829e-001 4.985901e-001 7.451967e-001 7.178406e-001 5.405173e-001 2.976703e-001 2.401126e-001 2.477760e-001 2.550425e-001 3.983913e-001 4.654794e-001 5.379879e-001 5.053941e-001 4.665253e-001
<GCONST> 1.666447e+001
<TRANSP> 10
 0.000000e+000 1.000000e+000 0.000000e+000 0.000000e+000 0.000000e+000 0.000000e+000 0.000000e+000 0.000000e+000 0.000000e+000 0.000000e+000
 0.000000e+000 7.487270e-001 2.512731e-001 0.000000e+000 0.000000e+000 0.000000e+000 0.000000e+000 0.000000e+000 0.000000e+000 0.000000e+000
 0.000000e+000 0.000000e+000 7.079837e-001 2.920162e-001 0.000000e+000 0.000000e+000 0.000000e+000 0.000000e+000 0.000000e+000 0.000000e+000
 0.000000e+000 0.000000e+000 0.000000e+000 6.136279e-001 3.863720e-001 0.000000e+000 0.000000e+000 0.000000e+000 0.000000e+000 0.000000e+000
 0.000000e+000 0.000000e+000 0.000000e+000 0.000000e+000 5.905643e-001 4.094357e-001 0.000000e+000 0.000000e+000 0.000000e+000 0.000000e+000
 0.000000e+000 0.000000e+000 0.000000e+000 0.000000e+000 0.000000e+000 5.769751e-001 4.230249e-001 0.000000e+000 0.000000e+000 0.000000e+000
 0.000000e+000 0.000000e+000 0.000000e+000 0.000000e+000 0.000000e+000 0.000000e+000 6.910405e-001 3.089595e-001 0.000000e+000 0.000000e+000
 0.000000e+000 0.000000e+000 0.000000e+000 0.000000e+000 0.000000e+000 0.000000e+000 0.000000e+000 9.697744e-001 3.022552e-002 0.000000e+000
 0.000000e+000 0.000000e+000 0.000000e+000 0.000000e+000 0.000000e+000 0.000000e+000 0.000000e+000 0.000000e+000 9.412187e-001 5.878132e-002
 0.000000e+000 0.000000e+000 0.000000e+000 0.000000e+000 0.000000e+000 0.000000e+000 0.000000e+000 0.000000e+000 0.000000e+000 0.000000e+000
<ENDHMM>
~h "osm"
<BEGINHMM>
<NUMSTATES> 10
<STATE> 2
<MEAN> 16
 5.770110e+000 6.636816e+000 7.102070e+000 7.480815e+000 7.740428e+000 7.932933e+000 8.093781e+000 8.200272e+000 8.281038e+000 8.460239e+000 8.687436e+000 8.866167e+000 9.046072e+000 9.201645e+000 9.368435e+000 9.503381e+000
<VARIANCE> 16
 7.499409e-001 6.196119e-001 6.180805e-001 7.257102e-001 6.744229e-001 5.515224e-001 4.542091e-001 5.490866e-001 5.272308e-001 4.197862e-001 3.853801e-001 4.200069e-001 5.501346e-001 5.673726e-001 5.327200e-001 5.105559e-001
<GCONST> 1.966472e+001
<STATE> 3
<MEAN> 16
 6.222624e+000 7.184020e+000 7.723918e+000 8.223027e+000 8.441119e+000 8.577489e+000 8.552075e+000 8.416445e+000 8.442668e+000 8.720611e+000 8.993584e+000 9.127187e+000 9.284584e+000 9.361870e+000 9.413389e+000 9.488260e+000
<VARIANCE> 16
 1.521025e+000 1.625045e+000 2.025886e+000 2.735480e+000 2.661665e+000 2.061577e+000 1.396324e+000 7.956611e-001 5.674491e-001 7.219960e-001 8.521283e-001 7.512069e-001 9.446262e-001 8.705579e-001 7.136161e-001 6.621593e-001
<GCONST> 3.154727e+001
<STATE> 4
<MEAN> 16
 6.632246e+000 7.703593e+000 8.294565e+000 8.897679e+000 9.090092e+000 9.193025e+000 9.092537e+000 8.788404e+000 8.802925e+000 9.161443e+000 9.438590e+000 9.536735e+000 9.642671e+000 9.627662e+000 9.605025e+000 9.601800e+000
<VARIANCE> 16
 2.384078e+000 2.856498e+000 3.397881e+000 4.484865e+000 4.343184e+000 3.531718e+000 2.484175e+000 1.222277e+000 9.872776e-001 1.387546e+000 1.524557e+000 1.289551e+000 1.399346e+000 1.301566e+000 9.944538e-001 8.355623e-001
<GCONST> 3.929445e+001
<STATE> 5
<MEAN> 16
 7.021971e+000 8.147768e+000 8.768033e+000 9.413233e+000 9.590875e+000 9.691855e+000 9.535001e+000 9.141827e+000 9.130040e+000 9.528215e+000 9.814352e+000 9.882756e+000 9.957014e+000 9.870297e+000 9.807539e+000 9.771104e+000
<VARIANCE> 16
 3.174699e+000 3.737941e+000 4.265517e+000 5.264424e+000 5.044784e+000 4.242929e+000 2.922506e+000 1.494941e+000 1.283681e+000 1.797472e+000 1.909948e+000 1.694751e+000 1.659249e+000 1.578979e+000 1.217124e+000 1.147860e+000
<GCONST> 4.283772e+001
<STATE> 6
<MEAN> 16
 7.482686e+000 8.670946e+000 9.296929e+000 9.968853e+000 1.012156e+001 1.023124e+001 1.001779e+001 9.532985e+000 9.476310e+000 9.881406e+000 1.022034e+001 1.028331e+001 1.033874e+001 1.021690e+001 1.007542e+001 1.001709e+001
<VARIANCE> 16
 3.617776e+000 4.020218e+000 4.474691e+000 5.355694e+000 4.976546e+000 4.317203e+000 2.984095e+000 1.701237e+000 1.448569e+000 1.936428e+000 2.065552e+000 1.952694e+000 1.872990e+000 1.839036e+000 1.445239e+000 1.550452e+000
<GCONST> 4.442145e+001
<STATE> 7
<MEAN> 16
 8.055681e+000 9.242062e+000 9.855835e+000 1.053209e+001 1.062474e+001 1.077695e+001 1.056052e+001 1.004475e+001 9.956836e+000 1.039255e+001 1.081898e+001 1.094727e+001 1.105681e+001 1.092471e+001 1.070923e+001 1.059444e+001
<VARIANCE> 16
 3.512830e+000 3.531214e+000 3.821250e+000 4.541427e+000 4.364487e+000 3.765840e+000 2.649954e+000 1.702332e+000 1.483012e+000 1.990581e+000 2.097501e+000 2.086985e+000 1.914492e+000 2.230350e+000 1.987200e+000 2.160545e+000
<GCONST> 4.455159e+001
<STATE> 8
<MEAN> 16
 8.363450e+000 9.578959e+000 1.003893e+001 1.015384e+001 1.005796e+001 1.023411e+001 1.024711e+001 1.012689e+001 1.015704e+001 1.064576e+001 1.106095e+001 1.132580e+001 1.148094e+001 1.144487e+001 1.135207e+001 1.128733e+001
<VARIANCE> 16
 2.467096e+000 3.048316e+000 2.762903e+000 2.332074e+000 2.040764e+000 1.654875e+000 1.135518e+000 9.720292e-001 1.020335e+000 1.165790e+000 1.310427e+000 1.670027e+000 2.274187e+000 2.910849e+000 3.011700e+000 3.197625e+000
<GCONST> 3.971418e+001
<STATE> 9
<MEAN> 16
 7.128727e+000 8.098457e+000 8.133166e+000 8.063235e+000 8.133354e+000 8.319594e+000 8.401171e+000 8.403155e+000 8.457140e+000 8.730406e+000 8.841339e+000 8.892944e+000 9.036222e+000 9.206894e+000 9.429553e+000 9.561760e+000
<VARIANCE> 16
 2.426797e+000 2.802663e+000 1.800580e+000 1.407488e+000 1.188621e+000 7.484493e-001 4.317663e-001 4.963223e-001 4.907241e-001 6.118710e-001 4.357204e-001 4.214982e-001 4.798226e-001 5.323080e-001 5.111108e-001 5.765314e-001
<GCONST> 2.511116e+001
<TRANSP> 10
 0.000000e+000 1.000000e+000 0.000000e+000 0.000000e+000 0.000000e+000 0.000000e+000 0.000000e+000 0.000000e+000 0.000000e+000 0.000000e+000
 0.000000e+000 7.158386e-001 2.841614e-001 0.000000e+000 0.000000e+000 0.000000e+000 0.000000e+000 0.000000e+000 0.000000e+000 0.000000e+000
 0.000000e+000 0.000000e+000 4.842791e-001 5.157209e-001 0.000000e+000 0.000000e+000 0.000000e+000 0.000000e+000 0.000000e+000 0.000000e+000
 0.000000e+000 0.000000e+000 0.000000e+000 3.731600e-001 6.268399e-001 0.000000e+000 0.000000e+000 0.000000e+000 0.000000e+000 0.000000e+000
 0.000000e+000 0.000000e+000 0.000000e+000 0.000000e+000 3.535371e-001 6.464629e-001 0.000000e+000 0.000000e+000 0.000000e+000 0.000000e+000
 0.000000e+000 0.000000e+000 0.000000e+000 0.000000e+000 0.000000e+000 4.484795e-001 5.515205e-001 0.000000e+000 0.000000e+000 0.000000e+000
 0.000000e+000 0.000000e+000 0.000000e+000 0.000000e+000 0.000000e+000 0.000000e+000 7.035483e-001 2.964518e-001 0.000000e+000 0.000000e+000
 0.000000e+000 0.000000e+000 0.000000e+000 0.000000e+000 0.000000e+000 0.000000e+000 0.000000e+000 9.762192e-001 2.378086e-002 0.000000e+000
 0.000000e+000 0.000000e+000 0.000000e+000 0.000000e+000 0.000000e+000 0.000000e+000 0.000000e+000 0.000000e+000 9.589582e-001 4.104179e-002
 0.000000e+000 0.000000e+000 0.000000e+000 0.000000e+000 0.000000e+000 0.000000e+000 0.000000e+000 0.000000e+000 0.000000e+000 0.000000e+000
<ENDHMM>
~h "pet"
<BEGINHMM>
<NUMSTATES> 10
<STATE> 2
<MEAN> 16
 5.459336e+000 6.357367e+000 6.860276e+000 7.032178e+000 7.085680e+000 7.201449e+000 7.412776e+000 7.758085e+000 8.056489e+000 8.249696e+000 8.418868e+000 8.518494e+000 8.666658e+000 8.865407e+000 9.040960e+000 9.223750e+000
<VARIANCE> 16
 1.774733e+000 1.864009e+000 1.985971e+000 1.797435e+000 1.380854e+000 1.297177e+000 1.292900e+000 1.303770e+000 1.102152e+000 9.916799e-001 8.646430e-001 8.357503e-001 8.682956e-001 7.433131e-001 6.430972e-001 5.285153e-001
<GCONST> 3.122696e+001
<STATE> 3
<MEAN> 16
 5.850663e+000 6.795053e+000 7.337714e+000 7.456586e+000 7.433365e+000 7.518734e+000 7.747755e+000 8.169169e+000 8.507804e+000 8.655495e+000 8.793395e+000 8.851501e+000 8.961656e+000 9.092590e+000 9.178229e+000 9.321589e+000
<VARIANCE> 16
 1.428894e+000 1.458996e+000 1.640479e+000 1.338717e+000 8.447429e-001 7.347077e-001 7.913339e-001 9.525601e-001 9.345321e-001 8.456275e-001 7.013063e-001 5.796056e-001 5.406767e-001 5.042005e-001 5.325072e-001 4.824702e-001
<GCONST> 2.637343e+001
<STATE> 4
<MEAN> 16
 6.300510e+000 7.407786e+000 7.992570e+000 8.048315e+000 7.888319e+000 7.847796e+000 8.080771e+000 8.577959e+000 8.996746e+000 9.182144e+000 9.285975e+000 9.262646e+000 9.303913e+000 9.327568e+000 9.329955e+000 9.448865e+000
<VARIANCE> 16
 1.774528e+000 2.123008e+000 2.445142e+000 1.751396e+000 8.720298e-001 5.357431e-001 6.753392e-001 1.108919e+000 1.457716e+000 1.501825e+000 1.234330e+000 8.202416e-001 6.273283e-001 6.051910e-001 6.698701e-001 6.491500e-001
<GCONST> 3.013140e+001
<STATE> 5
<MEAN> 16
 6.871453e+000 8.190022e+000 8.815864e+000 8.786149e+000 8.466990e+000 8.269249e+000 8.493789e+000 9.076537e+000 9.612576e+000 9.882091e+000 9.958026e+000 9.834415e+000 9.824937e+000 9.700475e+000 9.549194e+000 9.628504e+000
<VARIANCE> 16
 2.248408e+000 2.980105e+000 3.462868e+000 2.507710e+000 1.264321e+000 6.834327e-001 1.017050e+000 1.731684e+000 2.391094e+000 2.602602e+000 2.254478e+000 1.564740e+000 1.188448e+000 1.136968e+000 1.163345e+000 1.154208e+000
<GCONST> 3.757422e+001
<STATE> 6
<MEAN> 16
 7.371993e+000 8.755206e+000 9.370469e+000 9.341486e+000 8.920204e+000 8.665544e+000 8.839058e+000 9.455373e+000 1.009732e+001 1.047069e+001 1.054157e+001 1.035316e+001 1.030226e+001 1.007303e+001 9.771786e+000 9.756111e+000
<VARIANCE> 16
 2.676027e+000 3.531766e+000 3.973664e+000 3.082821e+000 1.611280e+000 8.935786e-001 1.164042e+000 1.883942e+000 2.690005e+000 3.209818e+000 2.972967e+000 2.214318e+000 1.692873e+000 1.654210e+000 1.486876e+000 1.397926e+000
<GCONST> 4.110915e+001
<STATE> 7
<MEAN> 16
 7.837593e+000 9.207384e+000 9.849198e+000 9.871543e+000 9.362718e+000 9.103419e+000 9.233103e+000 9.899579e+000 1.059203e+001 1.099527e+001 1.109416e+001 1.090381e+001 1.079571e+001 1.046781e+001 1.007424e+001 9.993058e+000
<VARIANCE> 16
 2.993947e+000 3.766710e+000 4.349499e+000 3.410165e+000 1.883725e+000 1.124035e+000 1.258317e+000 1.945925e+000 2.692715e+000 3.289831e+000 3.278592e+000 2.652223e+000 2.090601e+000 2.174306e+000 1.816536e+000 1.665556e+000
<GCONST> 4.313679e+001
<STATE> 8
<MEAN> 16
 8.827035e+000 1.022699e+001 1.098087e+001 1.146415e+001 1.108117e+001 1.055674e+001 1.067542e+001 1.145643e+001 1.190134e+001 1.216121e+001 1.213900e+001 1.189440e+001 1.168396e+001 1.140887e+001 1.113033e+001 1.102512e+001
<VARIANCE> 16
 2.064048e+000 1.692164e+000 2.180227e+000 2.228812e+000 2.260728e+000 1.643045e+000 1.614055e+000 2.022871e+000 2.355527e+000 2.629762e+000 2.531292e+000 2.206445e+000 2.024086e+000 2.468400e+000 2.341199e+000 2.751896e+000
<GCONST> 4.174852e+001
<STATE> 9
<MEAN> 16
 6.073981e+000 7.077209e+000 7.666015e+000 8.056723e+000 8.119748e+000 8.140459e+000 8.349346e+000 8.771373e+000 8.928944e+000 8.984909e+000 9.109415e+000 9.126314e+000 9.313309e+000 9.437493e+000 9.567595e+000 9.698476e+000
<VARIANCE> 16
 8.680936e-001 7.651599e-001 8.198115e-001 1.000768e+000 9.025558e-001 7.019755e-001 6.511921e-001 7.374617e-001 7.778631e-001 6.500193e-001 6.260805e-001 6.881698e-001 8.508139e-001 9.949526e-001 1.079733e+000 1.032118e+000
<GCONST> 2.602687e+001
<TRANSP> 10
 0.000000e+000 1.000000e+000 0.000000e+000 0.000000e+000 0.000000e+000 0.000000e+000 0.000000e+000 0.000000e+000 0.000000e+000 0.000000e+000
 0.000000e+000 5.126123e-001 4.873877e-001 0.000000e+000 0.000000e+000 0.000000e+000 0.000000e+000 0.000000e+000 0.000000e+000 0.000000e+000
 0.000000e+000 0.000000e+000 5.453854e-001 4.546147e-001 0.000000e+000 0.000000e+000 0.000000e+000 0.000000e+000 0.000000e+000 0.000000e+000
 0.000000e+000 0.000000e+000 0.000000e+000 4.791737e-001 5.208263e-001 0.000000e+000 0.000000e+000 0.000000e+000 0.000000e+000 0.000000e+000
 0.000000e+000 0.000000e+000 0.000000e+000 0.000000e+000 3.866032e-001 6.133968e-001 0.000000e+000 0.000000e+000 0.000000e+000 0.000000e+000
 0.000000e+000 0.000000e+000 0.000000e+000 0.000000e+000 0.000000e+000 4.191267e-001 5.808733e-001 0.000000e+000 0.000000e+000 0.000000e+000
 0.000000e+000 0.000000e+000 0.000000e+000 0.000000e+000 0.000000e+000 0.000000e+000 6.085075e-001 3.914925e-001 0.000000e+000 0.000000e+000
 0.000000e+000 0.000000e+000 0.000000e+000 0.000000e+000 0.000000e+000 0.000000e+000 0.000000e+000 9.596637e-001 4.033631e-002 0.000000e+000
 0.000000e+000 0.000000e+000 0.000000e+000 0.000000e+000 0.000000e+000 0.000000e+000 0.000000e+000 0.000000e+000 9.545530e-001 4.544698e-002
 0.000000e+000 0.000000e+000 0.000000e+000 0.000000e+000 0.000000e+000 0.000000e+000 0.000000e+000 0.000000e+000 0.000000e+000 0.000000e+000
<ENDHMM>
~h "sil"
<BEGINHMM>
<NUMSTATES> 5
<STATE> 2
<MEAN> 16
 3.518119e+000 4.177225e+000 4.487711e+000 4.751903e+000 4.953708e+000 5.134140e+000 5.247180e+000 5.552326e+000 6.057676e+000 6.494500e+000 6.847572e+000 7.044990e+000 7.158709e+000 7.610685e+000 8.246509e+000 8.691804e+000
<VARIANCE> 16
 7.401022e+000 9.240695e+000 9.585398e+000 9.355619e+000 8.707778e+000 8.387957e+000 8.779460e+000 8.085548e+000 5.696695e+000 4.187905e+000 3.234577e+000 2.736038e+000 3.140068e+000 2.320575e+000 1.153947e+000 7.320203e-001
<GCONST> 5.385079e+001
<STATE> 3
<MEAN> 16
 3.454961e+000 4.369438e+000 4.781556e+000 5.078424e+000 5.339056e+000 5.608155e+000 5.847660e+000 6.136892e+000 6.408071e+000 6.653764e+000 6.918731e+000 7.147459e+000 7.409614e+000 7.762907e+000 8.188828e+000 8.585537e+000
<VARIANCE> 16
 1.682567e+000 2.105722e+000 2.020870e+000 1.865374e+000 1.649152e+000 1.566734e+000 1.475358e+000 1.389598e+000 1.220238e+000 1.085223e+000 9.799374e-001 8.904325e-001 9.094802e-001 8.253678e-001 5.972533e-001 5.266568e-001
<GCONST> 3.236626e+001
<STATE> 4
<MEAN> 16
 5.313629e+000 6.267114e+000 6.682712e+000 6.947329e+000 7.159825e+000 7.400527e+000 7.644577e+000 7.898181e+000 8.075942e+000 8.264301e+000 8.480581e+000 8.675773e+000 8.880688e+000 9.086813e+000 9.327029e+000 9.519778e+000
<VARIANCE> 16
 1.256953e+000 1.135082e+000 1.091819e+000 1.060477e+000 1.010069e+000 1.004437e+000 1.040614e+000 9.873170e-001 8.049555e-001 6.909047e-001 6.222528e-001 6.181191e-001 6.410800e-001 5.916834e-001 5.105584e-001 4.858194e-001
<GCONST> 2.604372e+001
<TRANSP> 5
 0.000000e+000 1.000000e+000 0.000000e+000 0.000000e+000 0.000000e+000
 0.000000e+000 8.344473e-001 1.655528e-001 0.000000e+000 0.000000e+000
 0.000000e+000 0.000000e+000 9.786427e-001 2.135731e-002 0.000000e+000
 0.000000e+000 0.000000e+000 0.000000e+000 9.147996e-001 8.520038e-002
 0.000000e+000 0.000000e+000 0.000000e+000 0.000000e+000 0.000000e+000
<ENDHMM>
~h "tri"
<BEGINHMM>
<NUMSTATES> 10
<STATE> 2
<MEAN> 16
 4.991337e+000 5.981726e+000 6.619609e+000 6.989676e+000 7.215558e+000 7.419750e+000 7.510211e+000 7.841269e+000 8.207091e+000 8.508539e+000 8.871040e+000 9.180900e+000 9.508827e+000 9.734288e+000 9.885400e+000 9.914996e+000
<VARIANCE> 16
 8.947353e-001 1.094504e+000 1.007223e+000 9.346459e-001 8.563283e-001 9.638130e-001 1.178019e+000 1.050380e+000 7.117943e-001 5.903684e-001 5.678673e-001 7.552928e-001 9.043276e-001 9.808984e-001 9.336827e-001 7.542098e-001
<GCONST> 2.716170e+001
<STATE> 3
<MEAN> 16
 5.319356e+000 6.433982e+000 7.119774e+000 7.437718e+000 7.630861e+000 7.793730e+000 7.891930e+000 8.281925e+000 8.660249e+000 8.876603e+000 9.175141e+000 9.374088e+000 9.692640e+000 9.907967e+000 1.001725e+001 1.000916e+001
<VARIANCE> 16
 8.568798e-001 1.053327e+000 1.278084e+000 1.259148e+000 1.140233e+000 1.131722e+000 1.312932e+000 1.312566e+000 1.172123e+000 1.068266e+000 9.201270e-001 9.172701e-001 1.084242e+000 1.151226e+000 1.037232e+000 8.174679e-001
<GCONST> 3.069052e+001
<STATE> 4
<MEAN> 16
 5.728376e+000 6.797161e+000 7.578582e+000 7.878484e+000 8.011779e+000 8.117613e+000 8.264327e+000 8.688766e+000 9.050927e+000 9.261036e+000 9.554123e+000 9.697819e+000 9.993451e+000 1.023594e+001 1.025089e+001 1.013492e+001
<VARIANCE> 16
 9.307702e-001 1.231887e+000 1.629597e+000 1.649741e+000 1.436439e+000 1.428649e+000 1.636090e+000 1.562301e+000 1.520097e+000 1.523772e+000 1.372921e+000 1.536438e+000 1.715952e+000 1.835386e+000 1.605261e+000 1.266748e+000
<GCONST> 3.563248e+001
<STATE> 5
<MEAN> 16
 6.063247e+000 7.087683e+000 7.888774e+000 8.184324e+000 8.276866e+000 8.363783e+000 8.570349e+000 9.035292e+000 9.394855e+000 9.648158e+000 1.000820e+001 1.020375e+001 1.049576e+001 1.072788e+001 1.068236e+001 1.047960e+001
<VARIANCE> 16
 9.830525e-001 1.373074e+000 1.808006e+000 1.844690e+000 1.540147e+000 1.580640e+000 1.727190e+000 1.559512e+000 1.687199e+000 1.804147e+000 1.792641e+000 2.359627e+000 2.609757e+000 2.653589e+000 2.415032e+000 1.996742e+000
<GCONST> 3.885486e+001
<STATE> 6
<MEAN> 16
 6.275898e+000 7.269875e+000 8.071424e+000 8.352216e+000 8.423280e+000 8.551898e+000 8.843895e+000 9.371976e+000 9.745943e+000 1.005464e+001 1.052803e+001 1.087256e+001 1.121482e+001 1.140481e+001 1.131356e+001 1.104681e+001
<VARIANCE> 16
 9.591751e-001 1.336860e+000 1.884637e+000 1.871478e+000 1.531015e+000 1.557185e+000 1.709611e+000 1.545333e+000 1.671395e+000 1.862551e+000 1.964904e+000 2.877758e+000 3.286432e+000 3.276725e+000 3.062925e+000 2.716243e+000
<GCONST> 4.011877e+001
<STATE> 7
<MEAN> 16
 6.666512e+000 7.564524e+000 8.359570e+000 8.646187e+000 8.696705e+000 8.848376e+000 9.190629e+000 9.884361e+000 1.033288e+001 1.070421e+001 1.127402e+001 1.179097e+001 1.225517e+001 1.241864e+001 1.228806e+001 1.198892e+001
<VARIANCE> 16
 1.055544e+000 1.351839e+000 1.739567e+000 1.649972e+000 1.294205e+000 1.331211e+000 1.486911e+000 1.359500e+000 1.358917e+000 1.650820e+000 1.777120e+000 2.591633e+000 3.075628e+000 3.189522e+000 3.215394e+000 3.337660e+000
<GCONST> 3.905559e+001
<STATE> 8
<MEAN> 16
 8.506292e+000 9.735977e+000 1.038439e+001 1.043304e+001 9.854383e+000 9.652807e+000 9.833691e+000 1.065403e+001 1.139212e+001 1.191131e+001 1.209951e+001 1.213060e+001 1.220645e+001 1.204942e+001 1.168311e+001 1.149323e+001
<VARIANCE> 16
 2.306652e+000 2.670338e+000 3.119602e+000 2.668247e+000 1.489929e+000 1.103945e+000 1.266961e+000 1.733941e+000 1.868443e+000 1.787421e+000 1.730049e+000 1.821704e+000 2.214110e+000 3.032390e+000 3.141663e+000 3.678658e+000
<GCONST> 4.133310e+001
<STATE> 9
<MEAN> 16
 6.506077e+000 7.528085e+000 7.864519e+000 7.859868e+000 7.726493e+000 7.763158e+000 7.906981e+000 8.239038e+000 8.690665e+000 9.051925e+000 9.102910e+000 9.073979e+000 9.195254e+000 9.289701e+000 9.365707e+000 9.530627e+000
<VARIANCE> 16
 1.584555e+000 1.128311e+000 9.964738e-001 7.273532e-001 3.607122e-001 3.050359e-001 3.347158e-001 3.859971e-001 3.734629e-001 4.382160e-001 3.377071e-001 2.753969e-001 3.631971e-001 6.221669e-001 6.872671e-001 6.422424e-001
<GCONST> 1.892151e+001
<TRANSP> 10
 0.000000e+000 1.000000e+000 0.000000e+000 0.000000e+000 0.000000e+000 0.000000e+000 0.000000e+000 0.000000e+000 0.000000e+000 0.000000e+000
 0.000000e+000 6.172199e-001 3.827801e-001 0.000000e+000 0.000000e+000 0.000000e+000 0.000000e+000 0.000000e+000 0.000000e+000 0.000000e+000
 0.000000e+000 0.000000e+000 5.326954e-001 4.673046e-001 0.000000e+000 0.000000e+000 0.000000e+000 0.000000e+000 0.000000e+000 0.000000e+000
 0.000000e+000 0.000000e+000 0.000000e+000 4.244283e-001 5.755717e-001 0.000000e+000 0.000000e+000 0.000000e+000 0.000000e+000 0.000000e+000
 0.000000e+000 0.000000e+000 0.000000e+000 0.000000e+000 4.184138e-001 5.815862e-001 0.000000e+000 0.000000e+000 0.000000e+000 0.000000e+000
 0.000000e+000 0.000000e+000 0.000000e+000 0.000000e+000 0.000000e+000 5.280197e-001 4.719804e-001 0.000000e+000 0.000000e+000 0.000000e+000
 0.000000e+000 0.000000e+000 0.000000e+000 0.000000e+000 0.000000e+000 0.000000e+000 7.243615e-001 2.756386e-001 0.000000e+000 0.000000e+000
 0.000000e+000 0.000000e+000 0.000000e+000 0.000000e+000 0.000000e+000 0.000000e+000 0.000000e+000 9.671316e-001 3.286842e-002 0.000000e+000
 0.000000e+000 0.000000e+000 0.000000e+000 0.000000e+000 0.000000e+000 0.000000e+000 0.000000e+000 0.000000e+000 9.087575e-001 9.124250e-002
 0.000000e+000 0.000000e+000 0.000000e+000 0.000000e+000 0.000000e+000 0.000000e+000 0.000000e+000 0.000000e+000 0.000000e+000 0.000000e+000
<ENDHMM>
~h "nula"
<BEGINHMM>
<NUMSTATES> 10
<STATE> 2
<MEAN> 16
 3.770317e+000 4.450656e+000 4.560869e+000 4.646512e+000 4.744648e+000 4.832184e+000 4.814342e+000 4.967926e+000 5.551795e+000 6.092616e+000 6.589372e+000 6.710382e+000 6.701974e+000 7.203776e+000 7.968089e+000 8.510515e+000
<VARIANCE> 16
 1.201382e+001 1.596601e+001 1.551002e+001 1.410924e+001 1.249112e+001 1.169578e+001 1.198552e+001 9.991110e+000 6.508462e+000 4.978405e+000 3.900022e+000 3.018295e+000 3.400137e+000 2.411511e+000 1.185108e+000 7.130036e-001
<GCONST> 5.770003e+001
<STATE> 3
<MEAN> 16
 7.084591e+000 8.236344e+000 8.339723e+000 8.308990e+000 8.206416e+000 8.148879e+000 8.173208e+000 8.044312e+000 8.098924e+000 8.356132e+000 8.626087e+000 8.450224e+000 8.436092e+000 8.619291e+000 8.874875e+000 9.134274e+000
<VARIANCE> 16
 2.648361e+000 2.888731e+000 2.183792e+000 1.826102e+000 1.419332e+000 1.357740e+000 1.097119e+000 1.000482e+000 1.240211e+000 1.544619e+000 1.175494e+000 1.126312e+000 1.443697e+000 1.333923e+000 1.166589e+000 9.375381e-001
<GCONST> 3.524883e+001
<STATE> 4
<MEAN> 16
 7.453930e+000 8.595723e+000 8.716511e+000 8.687124e+000 8.574041e+000 8.513286e+000 8.532487e+000 8.386185e+000 8.440736e+000 8.738047e+000 8.964936e+000 8.765800e+000 8.709780e+000 8.852958e+000 9.060653e+000 9.279168e+000
<VARIANCE> 16
 2.880812e+000 3.093358e+000 2.333073e+000 1.924888e+000 1.426619e+000 1.251110e+000 9.813133e-001 9.827648e-001 1.290736e+000 1.760173e+000 1.441489e+000 1.201143e+000 1.672011e+000 1.483900e+000 1.234835e+000 1.079724e+000
<GCONST> 3.620442e+001
<STATE> 5
<MEAN> 16
 7.717963e+000 8.876089e+000 9.026771e+000 8.968418e+000 8.807598e+000 8.783209e+000 8.808637e+000 8.678659e+000 8.708302e+000 9.044033e+000 9.218384e+000 9.007472e+000 8.944109e+000 9.030486e+000 9.201756e+000 9.387045e+000
<VARIANCE> 16
 3.337526e+000 3.397306e+000 2.795797e+000 2.193678e+000 1.592879e+000 1.334401e+000 1.171383e+000 1.224794e+000 1.467579e+000 2.036812e+000 1.657245e+000 1.330791e+000 1.822818e+000 1.577639e+000 1.265885e+000 1.167167e+000
<GCONST> 3.809552e+001
<STATE> 6
<MEAN> 16
 8.011863e+000 9.221817e+000 9.421187e+000 9.309607e+000 9.065318e+000 9.099013e+000 9.099184e+000 9.011647e+000 9.050778e+000 9.374871e+000 9.530570e+000 9.296177e+000 9.198292e+000 9.215470e+000 9.362660e+000 9.544743e+000
<VARIANCE> 16
 3.693488e+000 3.554079e+000 3.203497e+000 2.465857e+000 1.758013e+000 1.446320e+000 1.360910e+000 1.337284e+000 1.636438e+000 2.210581e+000 1.731618e+000 1.431414e+000 1.762097e+000 1.552410e+000 1.227596e+000 1.251637e+000
<GCONST> 3.920881e+001
<STATE> 7
<MEAN> 16
 8.448702e+000 9.728166e+000 1.003466e+001 9.887779e+000 9.548433e+000 9.621700e+000 9.569173e+000 9.500213e+000 9.577720e+000 9.882654e+000 1.000021e+001 9.773323e+000 9.629161e+000 9.537381e+000 9.640945e+000 9.807028e+000
<VARIANCE> 16
 3.681072e+000 3.488863e+000 3.459687e+000 2.738184e+000 2.030000e+000 1.834344e+000 1.736576e+000 1.519383e+000 1.761185e+000 2.285318e+000 1.761181e+000 1.536336e+000 1.705650e+000 1.624866e+000 1.206649e+000 1.369611e+000
<GCONST> 4.040184e+001
<STATE> 8
<MEAN> 16
 9.120390e+000 1.052529e+001 1.095047e+001 1.144173e+001 1.153644e+001 1.162334e+001 1.142953e+001 1.099076e+001 1.068795e+001 1.094531e+001 1.121916e+001 1.117834e+001 1.096474e+001 1.066242e+001 1.047268e+001 1.048970e+001
<VARIANCE> 16
 1.923870e+000 1.437558e+000 1.836463e+000 1.952383e+000 2.161962e+000 2.077210e+000 2.028348e+000 1.672218e+000 1.382624e+000 1.708058e+000 1.864058e+000 1.762766e+000 1.631153e+000 1.744613e+000 1.381595e+000 1.827791e+000
<GCONST> 3.844477e+001
<STATE> 9
<MEAN> 16
 6.511757e+000 7.519787e+000 7.781752e+000 8.096361e+000 8.445106e+000 8.738119e+000 8.833420e+000 8.695913e+000 8.475215e+000 8.566579e+000 8.755261e+000 8.866609e+000 9.042377e+000 9.144691e+000 9.311219e+000 9.460523e+000
<VARIANCE> 16
 1.322076e+000 1.206262e+000 8.472489e-001 9.708024e-001 1.119876e+000 1.041894e+000 8.051496e-001 4.577489e-001 4.212178e-001 4.682708e-001 4.098516e-001 5.413803e-001 6.268287e-001 6.879116e-001 6.490961e-001 6.125693e-001
<GCONST> 2.394111e+001
<TRANSP> 10
 0.000000e+000 1.000000e+000 0.000000e+000 0.000000e+000 0.000000e+000 0.000000e+000 0.000000e+000 0.000000e+000 0.000000e+000 0.000000e+000
 0.000000e+000 6.115502e-001 3.884498e-001 0.000000e+000 0.000000e+000 0.000000e+000 0.000000e+000 0.000000e+000 0.000000e+000 0.000000e+000
 0.000000e+000 0.000000e+000 3.094903e-001 6.905097e-001 0.000000e+000 0.000000e+000 0.000000e+000 0.000000e+000 0.000000e+000 0.000000e+000
 0.000000e+000 0.000000e+000 0.000000e+000 3.209257e-001 6.790743e-001 0.000000e+000 0.000000e+000 0.000000e+000 0.000000e+000 0.000000e+000
 0.000000e+000 0.000000e+000 0.000000e+000 0.000000e+000 3.606898e-001 6.393102e-001 0.000000e+000 0.000000e+000 0.000000e+000 0.000000e+000
 0.000000e+000 0.000000e+000 0.000000e+000 0.000000e+000 0.000000e+000 4.529478e-001 5.470522e-001 0.000000e+000 0.000000e+000 0.000000e+000
 0.000000e+000 0.000000e+000 0.000000e+000 0.000000e+000 0.000000e+000 0.000000e+000 6.461915e-001 3.538085e-001 0.000000e+000 0.000000e+000
 0.000000e+000 0.000000e+000 0.000000e+000 0.000000e+000 0.000000e+000 0.000000e+000 0.000000e+000 9.737316e-001 2.626835e-002 0.000000e+000
 0.000000e+000 0.000000e+000 0.000000e+000 0.000000e+000 0.000000e+000 0.000000e+000 0.000000e+000 0.000000e+000 9.434153e-001 5.658466e-002
 0.000000e+000 0.000000e+000 0.000000e+000 0.000000e+000 0.000000e+000 0.000000e+000 0.000000e+000 0.000000e+000 0.000000e+000 0.000000e+000
<ENDHMM>
~h "devet"
<BEGINHMM>
<NUMSTATES> 10
<STATE> 2
<MEAN> 16
 6.745947e+000 7.766901e+000 7.907601e+000 7.730266e+000 7.498700e+000 7.313474e+000 7.267860e+000 7.546161e+000 7.838055e+000 8.016206e+000 8.241967e+000 8.243604e+000 8.401115e+000 8.653481e+000 8.909418e+000 9.116134e+000
<VARIANCE> 16
 2.157588e+000 1.887581e+000 1.695524e+000 1.398559e+000 1.256702e+000 1.125128e+000 1.070651e+000 1.108747e+000 1.064473e+000 8.827575e-001 8.458861e-001 9.422987e-001 9.718845e-001 9.001134e-001 8.998153e-001 8.639691e-001
<GCONST> 3.151707e+001
<STATE> 3
<MEAN> 16
 6.992372e+000 8.049958e+000 8.162104e+000 7.982218e+000 7.758432e+000 7.550158e+000 7.545424e+000 7.866811e+000 8.120222e+000 8.277298e+000 8.449980e+000 8.453697e+000 8.627229e+000 8.837220e+000 9.045216e+000 9.262736e+000
<VARIANCE> 16
 2.180487e+000 2.100296e+000 1.837784e+000 1.348958e+000 1.202821e+000 1.068640e+000 9.984519e-001 1.031048e+000 1.020487e+000 9.329675e-001 9.133036e-001 1.021722e+000 1.108152e+000 1.047847e+000 1.097829e+000 1.097775e+000
<GCONST> 3.233338e+001
<STATE> 4
<MEAN> 16
 7.214670e+000 8.326406e+000 8.455482e+000 8.308489e+000 8.070443e+000 7.876693e+000 7.927312e+000 8.295244e+000 8.531290e+000 8.660110e+000 8.803548e+000 8.813877e+000 8.980359e+000 9.106822e+000 9.224620e+000 9.406717e+000
<VARIANCE> 16
 2.315788e+000 2.464234e+000 2.242345e+000 1.596050e+000 1.192939e+000 9.920436e-001 9.666928e-001 1.127695e+000 1.208871e+000 1.199734e+000 1.149999e+000 1.193620e+000 1.242183e+000 1.194395e+000 1.177539e+000 1.141840e+000
<GCONST> 3.405656e+001
<STATE> 5
<MEAN> 16
 7.480820e+000 8.663989e+000 8.874747e+000 8.757655e+000 8.443222e+000 8.256779e+000 8.340680e+000 8.793509e+000 9.061564e+000 9.147453e+000 9.281883e+000 9.293895e+000 9.416911e+000 9.433443e+000 9.418484e+000 9.539205e+000
<VARIANCE> 16
 2.484505e+000 2.771605e+000 2.749405e+000 2.161108e+000 1.300696e+000 9.773819e-001 9.963227e-001 1.402171e+000 1.595774e+000 1.581826e+000 1.551422e+000 1.515874e+000 1.400607e+000 1.306044e+000 1.246364e+000 1.154283e+000
<GCONST> 3.644062e+001
<STATE> 6
<MEAN> 16
 7.131261e+000 8.455326e+000 8.820039e+000 8.717554e+000 8.385204e+000 8.185768e+000 8.241189e+000 8.845349e+000 9.104727e+000 9.160706e+000 9.250515e+000 9.349801e+000 9.510121e+000 9.452642e+000 9.452036e+000 9.729179e+000
<VARIANCE> 16
 6.860427e+000 8.352646e+000 9.335848e+000 8.997344e+000 7.416550e+000 6.396253e+000 6.414867e+000 8.008627e+000 8.474969e+000 8.449640e+000 8.204483e+000 8.193833e+000 8.389482e+000 8.179128e+000 8.228168e+000 9.378236e+000
<GCONST> 6.273756e+001
<STATE> 7
<MEAN> 16
 8.303715e+000 9.554352e+000 1.007929e+001 9.994075e+000 9.476186e+000 9.218386e+000 9.384108e+000 1.003741e+001 1.036530e+001 1.044165e+001 1.052036e+001 1.050349e+001 1.044070e+001 1.018960e+001 9.937496e+000 9.879603e+000
<VARIANCE> 16
 2.720016e+000 3.073599e+000 3.851628e+000 3.906708e+000 2.375133e+000 1.786407e+000 2.129254e+000 3.105606e+000 3.335435e+000 3.492671e+000 3.286591e+000 2.937686e+000 2.398325e+000 2.449253e+000 1.968821e+000 1.689556e+000
<GCONST> 4.527015e+001
<STATE> 8
<MEAN> 16
 9.055925e+000 1.044637e+001 1.123504e+001 1.151594e+001 1.085588e+001 1.037956e+001 1.060413e+001 1.147791e+001 1.184703e+001 1.202204e+001 1.194436e+001 1.172764e+001 1.148812e+001 1.113540e+001 1.085265e+001 1.067562e+001
<VARIANCE> 16
 1.352643e+000 1.052057e+000 1.586515e+000 1.731508e+000 1.616963e+000 1.217091e+000 1.366599e+000 1.779456e+000 1.780924e+000 1.818833e+000 1.758335e+000 1.656080e+000 1.569318e+000 2.130003e+000 1.894759e+000 2.303110e+000
<GCONST> 3.725928e+001
<STATE> 9
<MEAN> 16
 6.375107e+000 7.374841e+000 7.913267e+000 8.227182e+000 8.214857e+000 8.210213e+000 8.355173e+000 8.818864e+000 9.031739e+000 9.086696e+000 9.196414e+000 9.207218e+000 9.391439e+000 9.513517e+000 9.626116e+000 9.772305e+000
<VARIANCE> 16
 1.018372e+000 9.765752e-001 1.103914e+000 1.057971e+000 8.139241e-001 6.203946e-001 6.397729e-001 7.446684e-001 7.308564e-001 6.487125e-001 6.640240e-001 7.484347e-001 9.235814e-001 1.198627e+000 1.353495e+000 1.294138e+000
<GCONST> 2.734771e+001
<TRANSP> 10
 0.000000e+000 1.000000e+000 0.000000e+000 0.000000e+000 0.000000e+000 0.000000e+000 0.000000e+000 0.000000e+000 0.000000e+000 0.000000e+000
 0.000000e+000 3.365409e-001 6.634591e-001 0.000000e+000 0.000000e+000 0.000000e+000 0.000000e+000 0.000000e+000 0.000000e+000 0.000000e+000
 0.000000e+000 0.000000e+000 3.352899e-001 6.647101e-001 0.000000e+000 0.000000e+000 0.000000e+000 0.000000e+000 0.000000e+000 0.000000e+000
 0.000000e+000 0.000000e+000 0.000000e+000 3.282351e-001 6.717649e-001 0.000000e+000 0.000000e+000 0.000000e+000 0.000000e+000 0.000000e+000
 0.000000e+000 0.000000e+000 0.000000e+000 0.000000e+000 3.504145e-001 6.495855e-001 0.000000e+000 0.000000e+000 0.000000e+000 0.000000e+000
 0.000000e+000 0.000000e+000 0.000000e+000 0.000000e+000 0.000000e+000 6.466122e-001 3.533878e-001 0.000000e+000 0.000000e+000 0.000000e+000
 0.000000e+000 0.000000e+000 0.000000e+000 0.000000e+000 0.000000e+000 0.000000e+000 5.855262e-001 4.144737e-001 0.000000e+000 0.000000e+000
 0.000000e+000 0.000000e+000 0.000000e+000 0.000000e+000 0.000000e+000 0.000000e+000 0.000000e+000 9.706998e-001 2.930013e-002 0.000000e+000
 0.000000e+000 0.000000e+000 0.000000e+000 0.000000e+000 0.000000e+000 0.000000e+000 0.000000e+000 0.000000e+000 9.564387e-001 4.356129e-002
 0.000000e+000 0.000000e+000 0.000000e+000 0.000000e+000 0.000000e+000 0.000000e+000 0.000000e+000 0.000000e+000 0.000000e+000 0.000000e+000
<ENDHMM>
~h "jedna"
<BEGINHMM>
<NUMSTATES> 10
<STATE> 2
<MEAN> 16
 6.366238e+000 7.328192e+000 7.668529e+000 7.651098e+000 7.548759e+000 7.518723e+000 7.618086e+000 7.899361e+000 8.207116e+000 8.520235e+000 8.733265e+000 8.867826e+000 8.965773e+000 8.953932e+000 9.044213e+000 9.272006e+000
<VARIANCE> 16
 1.286461e+000 1.493294e+000 1.200122e+000 7.237522e-001 5.831502e-001 6.769734e-001 9.752988e-001 1.077000e+000 7.896368e-001 7.146756e-001 6.822666e-001 7.031104e-001 7.048520e-001 8.175223e-001 7.893508e-001 6.715090e-001
<GCONST> 2.654506e+001
<STATE> 3
<MEAN> 16
 6.573885e+000 7.614845e+000 7.905025e+000 7.909530e+000 7.736228e+000 7.692337e+000 7.751324e+000 8.055622e+000 8.394636e+000 8.751864e+000 9.012889e+000 9.164884e+000 9.260882e+000 9.204016e+000 9.238763e+000 9.386084e+000
<VARIANCE> 16
 1.684401e+000 2.205631e+000 1.707243e+000 1.027029e+000 6.248138e-001 5.748841e-001 7.244645e-001 8.257523e-001 6.281021e-001 7.454090e-001 8.072073e-001 8.340850e-001 7.670066e-001 8.550555e-001 7.840852e-001 7.183561e-001
<GCONST> 2.759199e+001
<STATE> 4
<MEAN> 16
 6.773719e+000 7.879702e+000 8.127452e+000 8.121525e+000 7.912028e+000 7.862912e+000 7.920405e+000 8.236856e+000 8.637362e+000 9.023422e+000 9.315266e+000 9.486374e+000 9.548474e+000 9.417831e+000 9.397836e+000 9.502754e+000
<VARIANCE> 16
 2.188349e+000 2.751427e+000 2.263033e+000 1.404692e+000 7.160157e-001 5.866652e-001 6.725151e-001 7.915257e-001 6.777908e-001 9.044859e-001 1.035871e+000 1.093692e+000 9.575395e-001 1.041639e+000 8.875995e-001 8.107648e-001
<GCONST> 3.016384e+001
<STATE> 5
<MEAN> 16
 7.044600e+000 8.198846e+000 8.444386e+000 8.373618e+000 8.098386e+000 8.018065e+000 8.099777e+000 8.455073e+000 8.957317e+000 9.372313e+000 9.696095e+000 9.844790e+000 9.844354e+000 9.604556e+000 9.526504e+000 9.652428e+000
<VARIANCE> 16
 2.695369e+000 3.153975e+000 2.882441e+000 1.767203e+000 8.265114e-001 5.741620e-001 5.915728e-001 7.422800e-001 9.356573e-001 1.306016e+000 1.462976e+000 1.529553e+000 1.244786e+000 1.202407e+000 1.009959e+000 8.705862e-001
<GCONST> 3.288642e+001
<STATE> 6
<MEAN> 16
 7.556875e+000 8.789163e+000 9.064777e+000 8.860632e+000 8.414022e+000 8.220954e+000 8.297509e+000 8.749243e+000 9.371116e+000 9.838792e+000 1.019680e+001 1.031640e+001 1.024166e+001 9.865807e+000 9.702475e+000 9.842031e+000
<VARIANCE> 16
 3.125875e+000 3.383628e+000 3.500875e+000 2.218290e+000 1.078510e+000 7.393636e-001 6.890100e-001 9.473858e-001 1.520179e+000 1.999837e+000 2.059117e+000 2.029965e+000 1.614097e+000 1.484495e+000 1.202771e+000 1.047807e+000
<GCONST> 3.680888e+001
<STATE> 7
<MEAN> 16
 8.431825e+000 9.801371e+000 1.020723e+001 9.812759e+000 9.082045e+000 8.724955e+000 8.782286e+000 9.409594e+000 1.013337e+001 1.071243e+001 1.105458e+001 1.110848e+001 1.092102e+001 1.042619e+001 1.013322e+001 1.017981e+001
<VARIANCE> 16
 2.608856e+000 2.639426e+000 3.218119e+000 2.344111e+000 1.436615e+000 1.096916e+000 1.111191e+000 1.611293e+000 2.417503e+000 3.008974e+000 2.793161e+000 2.432257e+000 2.090264e+000 2.104696e+000 1.654381e+000 1.481912e+000
<GCONST> 4.067202e+001
<STATE> 8
<MEAN> 16
 9.125342e+000 1.051799e+001 1.082532e+001 1.093355e+001 1.069446e+001 1.052540e+001 1.072438e+001 1.107183e+001 1.112757e+001 1.127517e+001 1.133998e+001 1.123862e+001 1.101658e+001 1.074817e+001 1.053161e+001 1.044501e+001
<VARIANCE> 16
 1.237758e+000 9.292215e-001 1.364183e+000 1.663576e+000 2.129427e+000 2.339403e+000 2.580637e+000 2.185817e+000 1.905325e+000 1.973599e+000 2.166255e+000 2.057197e+000 1.959861e+000 2.064052e+000 1.877286e+000 2.204242e+000
<GCONST> 3.933784e+001
<STATE> 9
<MEAN> 16
 6.885638e+000 7.728205e+000 7.839415e+000 8.103157e+000 8.389311e+000 8.625871e+000 8.873051e+000 8.932261e+000 8.671007e+000 8.695115e+000 8.817926e+000 8.920366e+000 8.999427e+000 9.097990e+000 9.257259e+000 9.416659e+000
<VARIANCE> 16
 1.545808e+000 1.429067e+000 9.255816e-001 1.112224e+000 1.145541e+000 1.001319e+000 9.572278e-001 6.560036e-001 4.009671e-001 5.235606e-001 4.902208e-001 5.203291e-001 5.462646e-001 6.717352e-001 6.542611e-001 5.795627e-001
<GCONST> 2.500007e+001
<TRANSP> 10
 0.000000e+000 1.000000e+000 0.000000e+000 0.000000e+000 0.000000e+000 0.000000e+000 0.000000e+000 0.000000e+000 0.000000e+000 0.000000e+000
 0.000000e+000 5.721025e-001 4.278975e-001 0.000000e+000 0.000000e+000 0.000000e+000 0.000000e+000 0.000000e+000 0.000000e+000 0.000000e+000
 0.000000e+000 0.000000e+000 5.207593e-001 4.792407e-001 0.000000e+000 0.000000e+000 0.000000e+000 0.000000e+000 0.000000e+000 0.000000e+000
 0.000000e+000 0.000000e+000 0.000000e+000 4.793689e-001 5.206311e-001 0.000000e+000 0.000000e+000 0.000000e+000 0.000000e+000 0.000000e+000
 0.000000e+000 0.000000e+000 0.000000e+000 0.000000e+000 4.720957e-001 5.279043e-001 0.000000e+000 0.000000e+000 0.000000e+000 0.000000e+000
 0.000000e+000 0.000000e+000 0.000000e+000 0.000000e+000 0.000000e+000 4.981430e-001 5.018571e-001 0.000000e+000 0.000000e+000 0.000000e+000
 0.000000e+000 0.000000e+000 0.000000e+000 0.000000e+000 0.000000e+000 0.000000e+000 6.542548e-001 3.457452e-001 0.000000e+000 0.000000e+000
 0.000000e+000 0.000000e+000 0.000000e+000 0.000000e+000 0.000000e+000 0.000000e+000 0.000000e+000 9.768958e-001 2.310423e-002 0.000000e+000
 0.000000e+000 0.000000e+000 0.000000e+000 0.000000e+000 0.000000e+000 0.000000e+000 0.000000e+000 0.000000e+000 9.260426e-001 7.395737e-002
 0.000000e+000 0.000000e+000 0.000000e+000 0.000000e+000 0.000000e+000 0.000000e+000 0.000000e+000 0.000000e+000 0.000000e+000 0.000000e+000
<ENDHMM>
