~o
<STREAMINFO> 1 39
<VECSIZE> 39<NULLD><MFCC_D_A_0><DIAGC>
~h "ctyri"
<BEGINHMM>
<NUMSTATES> 10
<STATE> 2
<MEAN> 39
 -2.306239e+001 -3.384458e+000 -2.937698e+000 -5.440711e+000 -5.066083e+000 -3.827388e+000 -2.589807e+000 -3.502208e-001 -2.290067e+000 -3.857214e-001 -9.467994e-003 -8.116591e-001 5.536753e+001 -1.600361e-001 2.498795e-004 8.002602e-002 -1.452719e-001 1.327853e-001 3.940720e-002 -6.241554e-002 1.075001e-002 -4.595513e-003 -2.612274e-003 6.108278e-003 -1.127718e-002 3.021240e-001 2.695316e-002 -2.137261e-002 -1.476118e-002 -3.317461e-002 -1.789090e-002 2.302613e-003 -5.233588e-002 -7.549708e-002 -2.915079e-002 -4.132735e-002 -5.614379e-002 -1.616018e-002 3.296229e-002
<VARIANCE> 39
 4.692537e+001 2.441451e+001 2.378542e+001 3.793468e+001 4.470819e+001 5.273709e+001 2.081182e+001 2.033996e+001 1.661730e+001 1.955265e+001 2.099011e+001 1.249162e+001 1.754447e+002 2.966508e+000 1.536188e+000 1.574690e+000 2.201565e+000 1.842909e+000 2.090108e+000 1.961514e+000 1.940402e+000 1.601333e+000 1.607444e+000 1.881709e+000 1.218648e+000 3.706470e+000 3.446438e-001 2.849182e-001 2.594286e-001 4.369203e-001 3.690438e-001 3.788307e-001 3.654892e-001 3.604504e-001 3.090210e-001 3.151897e-001 3.690890e-001 2.547567e-001 5.390308e-001
<GCONST> 1.105864e+002
<STATE> 3
<MEAN> 39
 -2.123933e+001 -3.001143e+000 -5.840138e+000 -3.025524e+000 -1.008100e+001 -1.535504e+000 -6.512015e+000 -5.427470e+000 -2.841511e+000 -3.427156e+000 -4.002789e+000 -2.930371e+000 4.974502e+001 7.039591e-002 -2.358380e-001 1.038186e-001 -1.955858e-001 -6.791402e-002 -5.072216e-002 -2.124566e-001 -6.153843e-002 2.679493e-002 -4.608727e-002 -7.411600e-002 -3.721586e-002 4.107154e-001 -9.035178e-002 -6.636563e-002 1.795253e-001 -2.154672e-001 -9.672247e-002 -1.242263e-001 3.147181e-002 7.109068e-002 8.671650e-002 5.137606e-002 1.443881e-001 1.297651e-001 4.214898e-001
<VARIANCE> 39
 3.638777e+001 2.174267e+001 5.091151e+001 2.414439e+001 4.359373e+001 3.383012e+001 4.790707e+001 3.111798e+001 3.478420e+001 2.209089e+001 1.821784e+001 1.699977e+001 1.684433e+002 2.527046e+000 2.352388e+000 2.971041e+000 2.451846e+000 3.194506e+000 2.577352e+000 3.742327e+000 2.966180e+000 2.752348e+000 1.873952e+000 1.836023e+000 1.850218e+000 5.069956e+000 4.562493e-001 5.441361e-001 5.896612e-001 5.808207e-001 6.120001e-001 5.294067e-001 7.365525e-001 6.065095e-001 5.796554e-001 3.445758e-001 3.596173e-001 3.573504e-001 1.167252e+000
<GCONST> 1.224394e+002
<STATE> 4
<MEAN> 39
 -1.976951e+001 -5.803875e+000 -3.846250e+000 -7.333183e+000 -8.896549e+000 -3.141268e+000 -6.265792e+000 -2.736471e+000 -1.738835e+000 -2.003355e+000 -1.388830e+000 -4.271129e-001 5.162108e+001 -1.262738e+000 -8.590239e-001 2.445929e+000 -2.537691e+000 -6.171222e-001 -5.053717e-001 4.659138e-001 -1.281806e-001 9.726735e-001 1.652652e-001 7.220730e-001 5.911023e-001 4.431934e+000 -6.024726e-001 3.331764e-001 4.872415e-001 2.912394e-001 1.545544e-001 -4.303464e-002 5.716041e-001 -1.771385e-001 1.332861e-002 -2.248489e-002 3.193134e-002 -1.386219e-001 2.852788e-001
<VARIANCE> 39
 2.198036e+001 5.934623e+001 4.483318e+001 9.503959e+001 5.145066e+001 7.610110e+001 6.475075e+001 4.320801e+001 4.007017e+001 2.962286e+001 2.509792e+001 2.492717e+001 1.557182e+002 4.952119e+000 6.781331e+000 7.419952e+000 8.593162e+000 5.353918e+000 6.642461e+000 6.692188e+000 4.429256e+000 3.531996e+000 2.837641e+000 2.987024e+000 2.509085e+000 9.030869e+000 5.616168e-001 9.632134e-001 8.669825e-001 1.818420e+000 1.113592e+000 9.854684e-001 9.376256e-001 7.373185e-001 5.879091e-001 4.762582e-001 4.400304e-001 5.256679e-001 1.823034e+000
<GCONST> 1.405607e+002
<STATE> 5
<MEAN> 39
 -3.037148e+001 -3.062823e+000 5.649883e+000 -1.090620e+001 -4.877405e+000 -2.772866e+000 1.348749e+000 -3.969210e+000 1.224078e+000 -1.284759e+000 2.973956e-001 -5.895995e-001 6.101450e+001 -1.080161e-001 3.724149e-001 -2.157134e-001 2.633133e-001 3.394970e-001 -3.125439e-002 1.437345e-001 -4.160257e-002 -2.075773e-001 1.086420e-002 -1.331501e-001 -1.438265e-001 -4.323962e-001 4.724047e-001 -2.621045e-002 -3.516674e-001 1.028129e-001 -1.601885e-001 -8.825189e-002 -2.596568e-001 -1.480575e-002 -1.783171e-001 -3.328578e-002 -1.088344e-001 -3.248622e-002 -3.329695e-001
<VARIANCE> 39
 2.733452e+001 6.892693e+001 7.739585e+001 3.676639e+001 6.582880e+001 6.461183e+001 6.694593e+001 5.231462e+001 3.946382e+001 2.454416e+001 2.742382e+001 2.331223e+001 1.128567e+002 4.104822e+000 2.062208e+000 4.083804e+000 3.142950e+000 3.366895e+000 3.552135e+000 4.447546e+000 3.321049e+000 2.483941e+000 2.242648e+000 1.977272e+000 2.026197e+000 6.835725e+000 3.978345e-001 3.941800e-001 6.791409e-001 6.740038e-001 6.621629e-001 7.174796e-001 7.248142e-001 6.327194e-001 4.833599e-001 4.452609e-001 4.115552e-001 3.719309e-001 7.909852e-001
<GCONST> 1.288354e+002
<STATE> 6
<MEAN> 39
 -1.961702e+001 -3.418452e+000 -3.661060e+000 -9.141093e+000 -7.211224e+000 -6.669962e+000 -4.230009e+000 -4.914919e+000 -4.021446e+000 -2.453627e+000 -2.594233e+000 -1.879310e+000 5.697149e+001 2.249519e+000 -2.916763e-002 3.567605e-001 -1.008049e-001 -1.764467e+000 -1.954296e+000 -4.805577e-001 -4.116286e-001 -7.566942e-001 -3.800583e-001 -2.486691e-001 1.952198e-001 2.555333e+000 2.920518e-001 4.203286e-002 7.021911e-001 2.567858e-002 -4.173952e-001 -4.012385e-001 -8.323374e-002 3.050215e-002 2.878305e-002 -7.609085e-002 -4.665601e-002 6.356142e-002 5.460464e-001
<VARIANCE> 39
 2.849907e+001 5.211680e+001 6.927200e+001 3.437631e+001 4.490841e+001 6.115543e+001 4.982748e+001 4.438033e+001 3.024765e+001 2.686776e+001 2.592738e+001 2.205228e+001 1.532328e+002 3.648701e+000 4.115048e+000 6.520105e+000 3.932695e+000 5.038998e+000 6.526368e+000 3.876016e+000 4.983879e+000 3.241832e+000 3.154434e+000 2.920614e+000 2.062925e+000 1.248241e+001 6.486635e-001 7.142228e-001 9.042149e-001 8.221523e-001 7.638345e-001 9.071669e-001 8.059186e-001 8.004409e-001 6.697602e-001 7.108603e-001 6.639889e-001 3.863715e-001 1.700469e+000
<GCONST> 1.360661e+002
<STATE> 7
<MEAN> 39
 -7.183084e+000 -3.541740e+000 6.248183e+000 -8.039530e+000 -1.956371e+001 -1.911049e+001 -9.905485e+000 -4.590273e+000 -6.613434e+000 -4.832330e+000 -2.848770e+000 -3.431068e-001 7.326819e+001 2.033118e+000 -1.329322e+000 2.279350e+000 -2.625292e-001 -2.448332e+000 -1.810890e+000 -8.893896e-001 2.286884e-001 -1.523454e-001 1.794320e-001 -1.973716e-001 -1.146457e-002 2.158613e+000 -8.370526e-001 -3.299910e-001 -6.533179e-001 -2.187635e-001 8.567198e-001 9.230394e-001 4.724616e-001 1.722798e-001 3.514683e-001 3.226733e-001 1.061617e-001 -1.415779e-001 -8.581738e-001
<VARIANCE> 39
 3.282016e+001 6.125906e+001 9.754321e+001 6.480418e+001 5.229752e+001 6.606953e+001 9.967848e+001 1.000897e+002 3.964621e+001 4.572946e+001 5.194013e+001 3.473752e+001 1.046128e+002 3.500234e+000 2.803694e+000 4.682188e+000 5.799830e+000 5.543262e+000 5.491625e+000 6.106986e+000 3.907234e+000 3.547465e+000 4.347580e+000 5.588150e+000 3.144800e+000 1.858119e+000 2.844946e-001 6.612512e-001 6.357560e-001 5.323274e-001 6.951002e-001 7.344222e-001 6.651675e-001 6.633093e-001 4.849869e-001 5.379337e-001 4.879159e-001 3.640929e-001 4.696202e-001
<GCONST> 1.353647e+002
<STATE> 8
<MEAN> 39
 -1.148143e+001 -2.588761e+000 5.658126e+000 -1.166589e+001 -1.351443e+001 -1.683209e+001 -4.695887e+000 -5.227385e+000 -5.194429e+000 -3.832313e+000 -3.646289e+000 -2.054357e+000 7.269566e+001 -4.637555e-002 5.438669e-002 -1.054651e-001 2.566743e-002 1.703909e-001 9.805633e-002 8.183095e-002 2.278718e-002 9.249567e-002 -2.857818e-002 -5.127109e-002 -4.891213e-002 -2.569931e-001 -7.740230e-003 4.459236e-003 -3.190065e-002 1.772209e-002 -8.244898e-003 3.738990e-002 -1.352376e-002 3.248746e-003 -1.162398e-002 -1.108724e-003 6.676103e-003 1.518779e-002 -3.201010e-002
<VARIANCE> 39
 8.883014e+001 6.980455e+001 8.298743e+001 7.104076e+001 9.373650e+001 6.185698e+001 9.385899e+001 1.104764e+002 8.445904e+001 5.493069e+001 7.723969e+001 4.440467e+001 9.346424e+001 6.464628e+000 3.587473e+000 1.875357e+000 2.351874e+000 5.331043e+000 3.271591e+000 3.334777e+000 3.925948e+000 2.853982e+000 2.991862e+000 3.386041e+000 2.204458e+000 1.021419e+000 9.128023e-001 4.968171e-001 3.521951e-001 4.068923e-001 7.462789e-001 5.968260e-001 5.740772e-001 6.841592e-001 4.847333e-001 5.409437e-001 5.522072e-001 4.145660e-001 1.396101e-001
<GCONST> 1.330996e+002
<STATE> 9
<MEAN> 39
 -8.398182e+000 -2.303325e+000 2.698699e+000 -6.957592e+000 -1.645017e+001 -9.077003e+000 -3.545367e+000 -2.554686e+000 -4.344516e+000 -2.053394e+000 -4.229742e+000 -2.253849e+000 6.000731e+001 -2.921930e-001 1.825640e-001 -3.617229e-001 2.707403e-001 3.081765e-001 4.806478e-001 5.450166e-002 1.563203e-002 9.024861e-003 3.052491e-002 6.258675e-002 -3.596473e-003 -8.042601e-001 -2.784859e-002 2.004755e-002 -1.582515e-002 3.333817e-003 4.085064e-002 -2.239658e-002 -9.403679e-003 -1.223112e-002 6.049150e-003 -1.688452e-002 5.785743e-003 -2.996394e-003 -1.552309e-002
<VARIANCE> 39
 3.712088e+001 5.659480e+001 7.735036e+001 1.051476e+002 7.840315e+001 8.428659e+001 8.273551e+001 1.026820e+002 6.596259e+001 4.462761e+001 7.350468e+001 3.643550e+001 2.033990e+002 4.900002e-001 1.022680e+000 1.068379e+000 1.486639e+000 1.942091e+000 2.021591e+000 2.558561e+000 2.235250e+000 2.212823e+000 2.133633e+000 1.885881e+000 1.610412e+000 6.152243e-001 6.082829e-002 1.303580e-001 1.505203e-001 2.204479e-001 2.945726e-001 3.419757e-001 4.242501e-001 3.581099e-001 3.732515e-001 3.928665e-001 3.268223e-001 2.852604e-001 6.765633e-002
<GCONST> 1.130220e+002
<TRANSP> 10
 0.000000e+000 1.000000e+000 0.000000e+000 0.000000e+000 0.000000e+000 0.000000e+000 0.000000e+000 0.000000e+000 0.000000e+000 0.000000e+000
 0.000000e+000 8.667102e-001 1.332898e-001 0.000000e+000 0.000000e+000 0.000000e+000 0.000000e+000 0.000000e+000 0.000000e+000 0.000000e+000
 0.000000e+000 0.000000e+000 7.758985e-001 2.241015e-001 0.000000e+000 0.000000e+000 0.000000e+000 0.000000e+000 0.000000e+000 0.000000e+000
 0.000000e+000 0.000000e+000 0.000000e+000 6.112728e-001 3.887272e-001 0.000000e+000 0.000000e+000 0.000000e+000 0.000000e+000 0.000000e+000
 0.000000e+000 0.000000e+000 0.000000e+000 0.000000e+000 8.713947e-001 1.286053e-001 0.000000e+000 0.000000e+000 0.000000e+000 0.000000e+000
 0.000000e+000 0.000000e+000 0.000000e+000 0.000000e+000 0.000000e+000 7.812049e-001 2.187951e-001 0.000000e+000 0.000000e+000 0.000000e+000
 0.000000e+000 0.000000e+000 0.000000e+000 0.000000e+000 0.000000e+000 0.000000e+000 6.791579e-001 3.208421e-001 0.000000e+000 0.000000e+000
 0.000000e+000 0.000000e+000 0.000000e+000 0.000000e+000 0.000000e+000 0.000000e+000 0.000000e+000 9.611729e-001 3.882706e-002 0.000000e+000
 0.000000e+000 0.000000e+000 0.000000e+000 0.000000e+000 0.000000e+000 0.000000e+000 0.000000e+000 0.000000e+000 9.633994e-001 3.660067e-002
 0.000000e+000 0.000000e+000 0.000000e+000 0.000000e+000 0.000000e+000 0.000000e+000 0.000000e+000 0.000000e+000 0.000000e+000 0.000000e+000
<ENDHMM>
~h "sedm"
<BEGINHMM>
<NUMSTATES> 10
<STATE> 2
<MEAN> 39
 -2.071007e+001 -3.536107e+000 -8.860651e+000 -2.985867e+000 -6.932617e+000 -7.567470e+000 -2.427468e+000 -1.249437e+000 -1.802023e+000 -2.353906e+000 -1.498554e+000 -8.331743e-001 5.023737e+001 -1.144497e+000 5.270065e-001 -3.194927e-001 -8.080524e-002 2.774906e-001 -4.328861e-001 6.359436e-001 2.188362e-001 3.330083e-001 7.392748e-002 2.961147e-001 1.721633e-001 1.310969e+000 -1.065743e-001 1.515606e-001 -6.187455e-002 4.511313e-002 3.035559e-002 1.353281e-001 -1.729071e-002 -5.392028e-002 -9.537759e-003 1.894693e-002 3.350466e-002 9.252951e-003 4.821671e-002
<VARIANCE> 39
 2.538702e+001 3.390400e+001 1.498693e+001 2.790103e+001 4.995563e+001 5.189273e+001 3.284746e+001 3.804532e+001 2.371246e+001 2.032655e+001 2.433365e+001 2.174349e+001 1.124037e+002 1.948954e+000 2.090386e+000 1.356292e+000 2.298286e+000 3.112265e+000 3.110597e+000 2.594658e+000 2.231148e+000 2.088001e+000 1.828380e+000 2.157999e+000 1.862583e+000 1.927749e+000 2.825701e-001 2.675363e-001 2.313094e-001 3.797258e-001 4.937764e-001 5.188580e-001 4.700065e-001 3.751854e-001 3.833898e-001 3.357390e-001 4.048659e-001 3.864609e-001 2.710512e-001
<GCONST> 1.132655e+002
<STATE> 3
<MEAN> 39
 -2.859628e+001 2.943899e+000 -1.234684e+001 -1.846822e+000 -3.964956e+000 -5.793690e+000 1.117662e-001 -8.720275e-001 1.025102e-001 -1.363722e+000 3.146959e-001 1.416859e-002 5.962997e+001 -2.048635e-001 2.424317e-002 -1.186326e-001 2.757344e-002 1.465470e-002 2.960911e-001 1.067204e-001 -2.593809e-002 6.685735e-002 2.404401e-001 7.931451e-002 1.085527e-001 4.806815e-001 2.100533e-001 -1.967408e-001 8.510576e-002 -1.097909e-001 -1.117349e-001 -1.117790e-001 -6.762803e-002 -8.707035e-003 -1.999399e-002 -1.221549e-002 -4.233749e-002 -1.699416e-002 -4.734427e-002
<VARIANCE> 39
 1.174061e+001 3.401668e+001 2.650072e+001 3.451273e+001 6.113845e+001 4.359086e+001 3.549838e+001 3.840242e+001 2.175438e+001 2.095325e+001 2.472845e+001 1.544787e+001 1.705516e+002 4.398722e-001 9.915615e-001 8.072396e-001 1.269292e+000 1.582847e+000 1.491910e+000 1.472355e+000 1.514520e+000 1.487461e+000 1.631660e+000 1.345796e+000 1.229406e+000 3.414268e-001 1.280032e-001 1.751140e-001 1.601306e-001 2.288149e-001 3.447478e-001 3.353357e-001 3.497190e-001 2.834058e-001 3.082686e-001 3.273354e-001 2.795860e-001 2.478770e-001 1.070976e-001
<GCONST> 9.919865e+001
<STATE> 4
<MEAN> 39
 -2.592551e+001 2.662405e+000 -1.357332e+001 1.004710e+000 -6.075588e+000 -4.007321e+000 -6.914858e-001 -5.558223e-001 -4.289835e-001 -1.018086e+000 -1.672512e-002 -6.022052e-001 5.698333e+001 -2.081805e-001 -3.427730e-001 -1.511265e-003 -5.127418e-002 -7.760887e-002 -4.465312e-001 5.148365e-001 1.379075e-001 3.704683e-001 1.872443e-001 1.105312e-001 2.026054e-001 1.418131e+000 2.187299e-001 -1.824972e-002 1.960326e-001 -1.180048e-001 -3.708476e-002 -1.842225e-001 -1.178151e-001 -1.105700e-001 9.987113e-003 -1.877984e-001 -1.615196e-001 -6.379686e-002 7.148796e-002
<VARIANCE> 39
 5.120891e+001 7.412527e+001 4.995914e+001 8.029161e+001 6.782030e+001 5.086095e+001 5.659190e+001 4.702216e+001 3.024376e+001 2.829515e+001 2.297906e+001 1.777820e+001 1.706480e+002 3.840302e+000 6.027711e+000 4.020041e+000 6.533039e+000 6.432312e+000 5.589492e+000 5.538328e+000 3.923657e+000 3.101228e+000 2.584600e+000 2.579107e+000 1.681813e+000 4.751956e+000 9.830530e-001 8.897672e-001 6.286168e-001 1.259333e+000 1.197941e+000 1.088817e+000 9.930137e-001 7.925615e-001 6.357763e-001 5.771180e-001 5.571738e-001 3.431043e-001 6.862302e-001
<GCONST> 1.369555e+002
<STATE> 5
<MEAN> 39
 -2.899524e+001 -4.357832e+000 -5.174842e+000 -6.146874e+000 -7.310098e-001 -9.982759e+000 6.488862e+000 -3.740890e+000 2.934124e+000 -2.615817e-001 6.762701e-001 -4.543838e-002 6.109523e+001 1.365529e+000 -3.653188e-002 3.952956e-001 -4.943758e-001 -4.347923e-001 -8.076773e-001 -5.416536e-001 -2.821063e-001 2.859897e-001 -4.634183e-001 -3.995307e-001 -2.957870e-001 9.926063e-001 8.254580e-001 4.910781e-002 1.988458e-002 -3.465687e-003 -3.085562e-001 -1.565903e-001 -4.842728e-001 7.790200e-003 -2.051758e-002 -1.368529e-001 -3.123758e-001 -9.392903e-002 1.686492e-001
<VARIANCE> 39
 2.489916e+001 9.733737e+001 6.688384e+001 3.767702e+001 1.276738e+002 5.701464e+001 7.844044e+001 3.717161e+001 3.013772e+001 3.306079e+001 2.464302e+001 2.375637e+001 9.289452e+001 7.910079e+000 2.459176e+000 2.363790e+000 3.411594e+000 6.257609e+000 3.870499e+000 4.481083e+000 2.287718e+000 2.652952e+000 2.407776e+000 2.697650e+000 1.966318e+000 2.240178e+000 7.000889e-001 4.462353e-001 4.699999e-001 5.357827e-001 9.300078e-001 8.053192e-001 7.698116e-001 4.737426e-001 5.850592e-001 4.933471e-001 5.824611e-001 4.059891e-001 3.796036e-001
<GCONST> 1.293869e+002
<STATE> 6
<MEAN> 39
 -1.165818e+001 3.375828e-001 -8.738602e+000 -6.114007e+000 -1.080684e+001 -1.316979e+001 -6.435459e+000 -3.269885e+000 1.503244e+000 -4.397445e+000 -5.796848e+000 -1.643247e+000 6.745089e+001 5.542254e+000 -1.550426e+000 6.898195e-001 -1.631684e+000 -2.168101e+000 -2.217154e+000 -2.682635e+000 -1.106446e-001 4.367625e-001 -9.104818e-001 -2.614651e+000 -3.885529e-001 3.038050e+000 -7.546626e-001 -6.549876e-001 -5.968546e-002 -1.824618e-001 2.324123e-001 3.535745e-001 5.566742e-001 3.450916e-001 1.714254e-001 2.675489e-001 9.669320e-002 1.349735e-001 3.151990e-001
<VARIANCE> 39
 8.547101e+001 7.192105e+001 7.155926e+001 3.982207e+001 8.683495e+001 6.437538e+001 6.783965e+001 5.209215e+001 7.564799e+001 5.546493e+001 4.275441e+001 3.856719e+001 1.294064e+002 4.560535e+000 4.183601e+000 3.167432e+000 4.790266e+000 4.051989e+000 8.389175e+000 5.843098e+000 4.629478e+000 6.691478e+000 4.497213e+000 6.183292e+000 3.236938e+000 2.791215e+000 1.322966e+000 3.699465e-001 4.386505e-001 5.242002e-001 6.364525e-001 9.366446e-001 1.005434e+000 4.902757e-001 6.363255e-001 6.189669e-001 9.710695e-001 3.691803e-001 5.156991e-001
<GCONST> 1.396578e+002
<STATE> 7
<MEAN> 39
 -5.659663e+000 -8.058848e+000 -9.819622e-001 -1.085568e+001 -1.459125e+001 -1.587852e+001 -6.380803e+000 -3.234949e+000 -2.335691e+000 -6.544370e+000 -9.722144e+000 -1.307937e+000 7.295464e+001 3.583055e-001 -3.305570e-001 6.057535e-001 4.328540e-002 -1.434636e-001 2.070894e-001 -5.619764e-001 -8.543350e-002 -1.726484e-001 1.171105e-001 3.734544e-002 -1.284681e-001 -1.336364e-001 -1.504655e-001 1.348317e-001 -9.334531e-002 8.906265e-002 1.391603e-001 1.372990e-001 -2.899629e-002 -3.683760e-002 -5.743601e-002 1.265450e-001 1.295211e-001 -4.393063e-002 -1.872195e-001
<VARIANCE> 39
 3.593996e+001 6.049606e+001 6.166671e+001 6.551883e+001 5.310903e+001 5.974327e+001 9.840508e+001 5.155900e+001 8.549353e+001 5.128035e+001 6.054800e+001 4.491245e+001 1.046179e+002 2.704042e+000 4.703774e+000 2.018811e+000 3.475428e+000 3.364813e+000 4.717487e+000 4.720567e+000 3.759364e+000 3.901900e+000 3.577919e+000 3.981858e+000 3.278761e+000 5.101950e+000 7.882287e-001 7.952024e-001 3.992520e-001 6.375169e-001 7.337099e-001 9.963766e-001 8.579438e-001 7.340347e-001 7.767984e-001 7.091990e-001 8.367076e-001 7.057750e-001 9.244907e-001
<GCONST> 1.383588e+002
<STATE> 8
<MEAN> 39
 2.570575e-001 -4.291477e+000 -1.098013e+000 -7.450989e+000 -1.161176e+001 -4.131238e+000 -1.322027e+001 -6.715799e+000 -3.852558e+000 -1.409325e+000 -3.354339e+000 -3.896863e+000 6.448064e+001 -6.636884e-002 4.663911e-001 -3.434933e-001 4.259663e-002 2.071307e-001 4.011139e-001 1.774864e-001 -2.798051e-001 -4.164352e-001 9.567949e-002 2.707044e-001 -6.561610e-002 -5.826231e-001 -5.842459e-002 6.213579e-002 -2.572844e-003 1.654736e-002 -7.077454e-003 -4.421807e-004 1.203679e-001 -1.894169e-002 -4.601483e-002 -8.468848e-002 1.205419e-002 3.887698e-002 -3.718518e-002
<VARIANCE> 39
 6.636945e+001 7.293807e+001 7.214331e+001 8.918336e+001 5.417304e+001 1.222699e+002 1.394930e+002 1.174585e+002 1.009418e+002 6.678405e+001 1.126775e+002 6.458717e+001 1.379389e+002 1.144030e+000 2.559111e+000 2.182513e+000 2.988603e+000 2.799853e+000 2.991608e+000 3.667722e+000 3.723086e+000 3.104177e+000 3.701465e+000 3.077049e+000 2.789915e+000 1.414202e+000 1.606061e-001 4.599397e-001 3.038115e-001 3.920113e-001 4.914147e-001 5.107866e-001 6.820044e-001 6.782783e-001 5.350907e-001 6.073261e-001 5.107186e-001 4.768594e-001 2.378741e-001
<GCONST> 1.318374e+002
<STATE> 9
<MEAN> 39
 -3.996958e+000 2.316010e+000 -4.833770e+000 -4.114714e+000 -8.120182e+000 -4.707821e+000 -9.023386e+000 -9.494825e+000 -9.930458e+000 -5.602623e+000 -5.637075e+000 -4.688480e+000 5.835438e+001 -4.669144e-001 4.237918e-002 -2.532680e-002 2.444335e-001 2.060128e-001 1.210442e-001 2.436909e-001 1.582447e-001 6.506446e-002 -1.079734e-001 1.146474e-002 6.725323e-002 -5.311402e-001 -1.856099e-002 -3.238777e-002 7.053018e-003 -4.407601e-003 -1.736721e-002 -2.561484e-002 -2.684375e-002 2.379833e-002 5.230552e-002 2.130206e-002 9.145200e-003 1.046365e-002 5.973068e-003
<VARIANCE> 39
 4.844250e+001 5.655079e+001 6.897874e+001 9.157613e+001 5.396215e+001 9.095984e+001 8.140597e+001 7.163313e+001 6.248733e+001 4.549914e+001 4.994810e+001 3.229311e+001 1.323462e+002 4.046133e-001 8.285837e-001 1.235766e+000 1.562663e+000 1.327989e+000 1.569411e+000 2.011661e+000 2.251734e+000 2.132056e+000 2.155503e+000 1.834585e+000 1.455468e+000 1.822842e-001 4.581204e-002 9.423110e-002 1.565929e-001 2.178317e-001 2.159255e-001 2.616382e-001 3.159719e-001 3.615066e-001 3.390356e-001 3.566442e-001 3.223442e-001 2.596298e-001 2.110442e-002
<GCONST> 1.060345e+002
<TRANSP> 10
 0.000000e+000 1.000000e+000 0.000000e+000 0.000000e+000 0.000000e+000 0.000000e+000 0.000000e+000 0.000000e+000 0.000000e+000 0.000000e+000
 0.000000e+000 8.090099e-001 1.909900e-001 0.000000e+000 0.000000e+000 0.000000e+000 0.000000e+000 0.000000e+000 0.000000e+000 0.000000e+000
 0.000000e+000 0.000000e+000 8.611257e-001 1.388743e-001 0.000000e+000 0.000000e+000 0.000000e+000 0.000000e+000 0.000000e+000 0.000000e+000
 0.000000e+000 0.000000e+000 0.000000e+000 7.249776e-001 2.750225e-001 0.000000e+000 0.000000e+000 0.000000e+000 0.000000e+000 0.000000e+000
 0.000000e+000 0.000000e+000 0.000000e+000 0.000000e+000 7.599839e-001 2.400161e-001 0.000000e+000 0.000000e+000 0.000000e+000 0.000000e+000
 0.000000e+000 0.000000e+000 0.000000e+000 0.000000e+000 0.000000e+000 6.202412e-001 3.797588e-001 0.000000e+000 0.000000e+000 0.000000e+000
 0.000000e+000 0.000000e+000 0.000000e+000 0.000000e+000 0.000000e+000 0.000000e+000 9.218114e-001 7.818857e-002 0.000000e+000 0.000000e+000
 0.000000e+000 0.000000e+000 0.000000e+000 0.000000e+000 0.000000e+000 0.000000e+000 0.000000e+000 9.428359e-001 5.716410e-002 0.000000e+000
 0.000000e+000 0.000000e+000 0.000000e+000 0.000000e+000 0.000000e+000 0.000000e+000 0.000000e+000 0.000000e+000 9.642596e-001 3.574035e-002
 0.000000e+000 0.000000e+000 0.000000e+000 0.000000e+000 0.000000e+000 0.000000e+000 0.000000e+000 0.000000e+000 0.000000e+000 0.000000e+000
<ENDHMM>
~h "sest"
<BEGINHMM>
<NUMSTATES> 10
<STATE> 2
<MEAN> 39
 -2.406263e+001 -4.939680e+000 -1.077720e+000 -6.572545e+000 -5.958685e+000 -8.644591e-001 -1.605364e+000 1.595209e-001 -2.321734e+000 -8.107396e-001 1.075292e+000 -1.136906e+000 5.563091e+001 -5.636005e-001 -1.040733e-001 4.941821e-001 -2.785527e-001 -1.370156e-001 7.539289e-002 7.770131e-002 4.216736e-002 -1.821974e-002 1.819077e-002 1.472295e-001 1.613204e-003 6.835760e-001 -1.164985e-002 -4.853664e-002 5.381317e-002 2.238752e-002 -4.272612e-002 -1.668035e-002 3.548504e-002 -9.264677e-003 3.052485e-003 1.035857e-002 -1.474575e-002 1.319544e-002 6.208987e-002
<VARIANCE> 39
 5.757383e+001 1.614377e+001 4.139600e+001 3.266246e+001 2.195248e+001 3.058944e+001 2.050874e+001 1.820499e+001 1.826449e+001 1.607490e+001 1.905857e+001 1.325547e+001 2.199898e+002 1.133031e+000 6.680625e-001 1.371625e+000 1.361922e+000 1.176752e+000 1.664835e+000 1.222376e+000 1.305773e+000 1.792200e+000 1.425640e+000 1.512703e+000 1.308192e+000 1.073860e+000 1.578685e-001 1.330357e-001 3.180974e-001 2.451807e-001 2.483918e-001 3.543188e-001 2.894447e-001 2.752406e-001 3.783070e-001 2.818018e-001 3.001736e-001 2.839676e-001 1.642014e-001
<GCONST> 1.000573e+002
<STATE> 3
<MEAN> 39
 -2.472472e+001 -6.077142e+000 -3.258400e+000 -3.283667e+000 -1.212286e+001 -7.732695e+000 -5.462982e+000 -3.838296e+000 -7.753390e-001 -2.510110e+000 -3.585655e+000 -2.028891e+000 5.986753e+001 -7.545848e-001 -4.013550e-001 8.794442e-001 7.952918e-002 -5.502725e-001 7.218578e-002 5.516973e-001 5.895774e-002 4.380287e-001 6.226158e-001 3.482194e-001 2.760114e-001 1.310544e+000 -7.749057e-002 -9.565440e-002 2.721255e-001 -6.112613e-002 -4.952188e-002 4.241304e-002 2.180031e-001 3.643763e-002 2.559987e-004 1.084233e-001 1.077552e-001 5.601811e-002 2.377879e-001
<VARIANCE> 39
 4.011118e+001 3.013759e+001 3.260704e+001 3.803294e+001 3.512524e+001 5.607584e+001 2.833574e+001 2.528618e+001 3.772370e+001 2.361507e+001 2.349002e+001 1.649837e+001 2.301960e+002 1.000625e+000 1.326618e+000 1.288894e+000 2.037325e+000 2.134553e+000 2.440108e+000 2.198836e+000 2.253102e+000 2.190798e+000 1.542699e+000 1.605922e+000 1.253753e+000 1.255354e+000 2.727332e-001 3.075557e-001 5.310054e-001 4.405680e-001 4.295871e-001 4.216961e-001 4.585820e-001 4.647140e-001 4.132096e-001 3.630347e-001 3.007486e-001 2.774019e-001 4.203999e-001
<GCONST> 1.124601e+002
<STATE> 4
<MEAN> 39
 -2.033489e+001 -4.199441e+000 -5.530644e+000 -1.681175e+000 -8.255675e+000 -2.713516e+000 -3.542918e+000 -9.536386e-001 -1.345456e+000 -8.946423e-001 -1.182351e+000 -8.793920e-001 4.547664e+001 -2.060555e-001 -1.036813e+000 1.595829e+000 -3.970519e-001 -6.553867e-001 -2.476412e-001 7.757422e-001 1.102936e-001 2.146236e-001 3.492651e-001 1.891742e-001 2.311480e-001 1.718823e+000 -2.465033e-001 -1.473793e-001 4.023709e-001 -1.162364e-001 -6.561124e-003 -5.000777e-002 2.027330e-001 7.626278e-003 1.222091e-001 -5.084308e-002 3.206223e-002 3.666356e-002 4.054770e-001
<VARIANCE> 39
 4.210268e+001 3.421127e+001 4.092907e+001 4.252478e+001 5.291661e+001 4.614414e+001 3.495085e+001 2.749950e+001 2.741392e+001 2.296630e+001 1.853276e+001 1.706415e+001 1.740725e+002 3.162297e+000 4.532002e+000 6.913126e+000 4.229035e+000 4.715713e+000 4.290988e+000 5.315174e+000 3.025326e+000 3.214616e+000 2.504571e+000 2.081132e+000 2.245924e+000 5.698932e+000 4.989586e-001 6.034226e-001 5.917556e-001 5.780541e-001 5.957219e-001 5.155095e-001 6.945990e-001 4.763330e-001 4.989105e-001 3.714073e-001 2.947276e-001 3.512605e-001 8.391905e-001
<GCONST> 1.269437e+002
<STATE> 5
<MEAN> 39
 -2.691142e+001 -7.470557e+000 3.187488e+000 -4.755889e+000 -1.550491e+001 -7.773745e+000 3.366693e+000 -1.377335e+000 -3.279044e+000 -2.665008e-001 2.506453e+000 -5.822610e-001 6.114607e+001 -1.324388e+000 -6.949642e-001 1.950597e+000 -4.695434e-001 -2.164714e-001 -3.059431e-001 1.270649e+000 3.516096e-001 7.175670e-001 5.868266e-004 3.494853e-001 3.420495e-001 2.309729e+000 8.983640e-002 2.470440e-001 -3.525907e-001 2.040021e-002 4.210724e-001 -1.326848e-001 -2.773027e-001 2.054369e-002 2.473240e-002 -2.589975e-001 -1.901032e-001 -9.788172e-002 -1.241246e-001
<VARIANCE> 39
 2.302956e+001 2.867101e+001 3.839824e+001 5.752250e+001 6.763596e+001 1.327739e+002 5.728843e+001 7.923182e+001 4.813467e+001 2.576262e+001 3.589066e+001 2.615977e+001 1.683983e+002 3.139059e+000 2.853092e+000 6.846662e+000 2.651201e+000 2.846077e+000 2.691751e+000 3.293385e+000 3.359995e+000 2.931872e+000 2.381838e+000 2.050425e+000 1.839815e+000 5.294251e+000 2.982921e-001 3.062527e-001 3.316396e-001 5.524988e-001 7.642633e-001 7.714684e-001 7.326209e-001 7.070635e-001 6.169112e-001 5.547227e-001 4.875177e-001 4.158641e-001 1.488707e-001
<GCONST> 1.271073e+002
<STATE> 6
<MEAN> 39
 -3.182167e+001 -9.470107e+000 1.193989e+001 -6.512540e+000 -7.926343e+000 -4.487901e+000 5.139965e+000 -3.270419e+000 3.182089e+000 -1.554122e+000 9.580659e-001 -9.738273e-003 6.797889e+001 -2.491384e-001 7.688515e-003 5.114280e-002 -2.244605e-001 3.131254e-001 -2.317169e-001 1.447423e-001 -2.087261e-001 1.136909e-001 -8.243102e-002 7.982007e-002 -1.019779e-001 1.019514e+000 4.512939e-001 1.124808e-001 -3.132152e-001 8.862142e-003 -1.738694e-001 -9.349340e-002 -2.527391e-001 -5.474602e-002 -1.445547e-001 -3.609331e-002 -1.041020e-001 -4.843287e-002 -3.146187e-001
<VARIANCE> 39
 2.383632e+001 6.666327e+001 7.366117e+001 3.690623e+001 4.550222e+001 5.480080e+001 4.606538e+001 5.732727e+001 3.202761e+001 3.452005e+001 2.791977e+001 2.154828e+001 7.468778e+001 2.178541e+000 1.126755e+000 2.020841e+000 1.925351e+000 2.227665e+000 2.445791e+000 2.132049e+000 2.387486e+000 1.846003e+000 2.028728e+000 1.718863e+000 1.364710e+000 1.915255e+000 3.066696e-001 3.153081e-001 4.273967e-001 3.850923e-001 4.542392e-001 4.967750e-001 3.911063e-001 4.709727e-001 3.594350e-001 4.221614e-001 3.865268e-001 3.048174e-001 1.743758e-001
<GCONST> 1.156878e+002
<STATE> 7
<MEAN> 39
 -1.699916e+001 -8.312239e+000 6.143224e+000 -9.806033e+000 -1.470601e+001 -1.161809e+001 -1.680837e+000 -3.424388e+000 -6.038920e-001 -3.213971e+000 -2.751088e+000 -1.576797e+000 7.158539e+001 4.517900e+000 -5.029280e-001 -7.627663e-001 -1.085561e+000 -1.792052e+000 -1.891090e+000 -1.572453e+000 3.351080e-001 -3.512277e-001 -6.314293e-001 -1.548175e+000 -5.474275e-001 1.383681e+000 -1.730972e-001 -4.009101e-001 -1.146223e-001 -7.495883e-002 2.458947e-001 1.753443e-001 3.019711e-001 2.874438e-001 2.231965e-001 6.856427e-002 -2.900995e-002 -3.885800e-002 3.402449e-001
<VARIANCE> 39
 1.275983e+002 5.775309e+001 7.350478e+001 4.958883e+001 5.275180e+001 7.146390e+001 7.237796e+001 5.567147e+001 6.552055e+001 3.321542e+001 4.087381e+001 2.301300e+001 9.064199e+001 4.934451e+000 4.228100e+000 1.876985e+000 2.873326e+000 3.895880e+000 4.587435e+000 5.561965e+000 4.515806e+000 4.407230e+000 3.194716e+000 3.297297e+000 2.164022e+000 2.805254e+000 2.078785e+000 5.644259e-001 2.883248e-001 4.711302e-001 8.806937e-001 9.684063e-001 1.162381e+000 5.830755e-001 6.213583e-001 5.162456e-001 6.173895e-001 4.064639e-001 4.957721e-001
<GCONST> 1.352238e+002
<STATE> 8
<MEAN> 39
 -7.632341e+000 -1.080547e+001 -4.003203e+000 -1.062190e+001 -1.228954e+001 -1.057214e+001 -1.183952e+000 6.091363e-001 1.811771e-001 -5.764643e+000 -7.968120e+000 -3.368307e+000 7.374191e+001 -6.446412e-001 5.369698e-001 -5.105069e-001 3.455978e-001 5.234593e-001 3.206376e-001 2.556884e-001 -5.991272e-002 9.063330e-002 1.778178e-002 1.475074e-001 1.688708e-002 -5.617660e-001 -1.811601e-001 1.190510e-001 1.304022e-002 5.262046e-002 3.031353e-002 4.386221e-002 -1.460542e-003 -4.601697e-002 -8.940722e-003 4.168217e-002 1.092191e-001 3.022389e-002 -9.364162e-002
<VARIANCE> 39
 6.723550e+001 8.168282e+001 8.831377e+001 6.136134e+001 7.610813e+001 8.147496e+001 1.160270e+002 1.072420e+002 1.070794e+002 6.348812e+001 6.635021e+001 3.852677e+001 9.459383e+001 2.524212e+000 2.013847e+000 1.491809e+000 1.884012e+000 2.160740e+000 2.253421e+000 3.133345e+000 2.542033e+000 2.685206e+000 2.552914e+000 2.615347e+000 1.835909e+000 7.937270e-001 3.032764e-001 2.053730e-001 2.403687e-001 3.213933e-001 3.425193e-001 3.963936e-001 4.965954e-001 4.416862e-001 4.604060e-001 4.425823e-001 3.935784e-001 3.239619e-001 1.187753e-001
<GCONST> 1.232163e+002
<STATE> 9
<MEAN> 39
 -2.068589e+001 -1.919653e-001 -9.800395e+000 -3.727977e+000 -6.583583e+000 -5.332334e+000 -1.423603e+000 -1.991255e+000 -5.286373e-001 -2.035137e+000 -1.412980e+000 -1.453818e+000 5.430671e+001 6.284919e-002 -7.888516e-002 -6.067933e-003 9.662182e-002 -2.461769e-002 1.727070e-001 -1.711511e-001 -2.032468e-002 -1.337012e-001 1.586327e-002 3.922830e-002 3.285050e-002 -5.975794e-001 7.867447e-002 -2.551037e-002 3.844326e-002 -1.181013e-003 -1.685015e-002 -9.752867e-003 -2.207011e-002 -1.024879e-002 -2.152468e-002 -3.290070e-002 -5.359256e-002 -1.180176e-002 7.699736e-004
<VARIANCE> 39
 4.566023e+001 4.775726e+001 3.975111e+001 3.612942e+001 5.338277e+001 5.014339e+001 4.284902e+001 3.288239e+001 2.933737e+001 2.795810e+001 2.495947e+001 2.182721e+001 1.346916e+002 1.837289e+000 1.652328e+000 1.545003e+000 2.102516e+000 2.234898e+000 2.225467e+000 2.037318e+000 2.171314e+000 2.436235e+000 2.055047e+000 2.076904e+000 1.695469e+000 2.525583e+000 2.566615e-001 2.528580e-001 2.648910e-001 3.601681e-001 4.087669e-001 4.070781e-001 3.884785e-001 4.129803e-001 4.670942e-001 3.934340e-001 4.061880e-001 3.373853e-001 4.102594e-001
<GCONST> 1.155858e+002
<TRANSP> 10
 0.000000e+000 1.000000e+000 0.000000e+000 0.000000e+000 0.000000e+000 0.000000e+000 0.000000e+000 0.000000e+000 0.000000e+000 0.000000e+000
 0.000000e+000 8.304264e-001 1.695737e-001 0.000000e+000 0.000000e+000 0.000000e+000 0.000000e+000 0.000000e+000 0.000000e+000 0.000000e+000
 0.000000e+000 0.000000e+000 5.775813e-001 4.224186e-001 0.000000e+000 0.000000e+000 0.000000e+000 0.000000e+000 0.000000e+000 0.000000e+000
 0.000000e+000 0.000000e+000 0.000000e+000 6.874225e-001 3.125775e-001 0.000000e+000 0.000000e+000 0.000000e+000 0.000000e+000 0.000000e+000
 0.000000e+000 0.000000e+000 0.000000e+000 0.000000e+000 5.492210e-001 4.507790e-001 0.000000e+000 0.000000e+000 0.000000e+000 0.000000e+000
 0.000000e+000 0.000000e+000 0.000000e+000 0.000000e+000 0.000000e+000 8.773420e-001 1.226581e-001 0.000000e+000 0.000000e+000 0.000000e+000
 0.000000e+000 0.000000e+000 0.000000e+000 0.000000e+000 0.000000e+000 0.000000e+000 8.132878e-001 1.867122e-001 0.000000e+000 0.000000e+000
 0.000000e+000 0.000000e+000 0.000000e+000 0.000000e+000 0.000000e+000 0.000000e+000 0.000000e+000 9.562590e-001 4.374094e-002 0.000000e+000
 0.000000e+000 0.000000e+000 0.000000e+000 0.000000e+000 0.000000e+000 0.000000e+000 0.000000e+000 0.000000e+000 9.679310e-001 3.206895e-002
 0.000000e+000 0.000000e+000 0.000000e+000 0.000000e+000 0.000000e+000 0.000000e+000 0.000000e+000 0.000000e+000 0.000000e+000 0.000000e+000
<ENDHMM>
~h "dva"
<BEGINHMM>
<NUMSTATES> 10
<STATE> 2
<MEAN> 39
 -1.954192e+001 -4.059938e+000 -8.502140e+000 -5.341479e-001 -6.914959e+000 -3.897023e+000 -3.850045e+000 -1.976206e+000 -3.502647e+000 -2.605126e+000 -9.662673e-001 -1.208409e+000 4.228187e+001 2.817280e-002 1.370998e-001 1.672603e-001 4.727736e-002 1.227399e-001 1.282125e-001 8.088661e-003 -4.337145e-002 -3.924645e-002 -9.629751e-003 -5.241141e-002 -9.651300e-002 6.343974e-002 1.501047e-001 1.140501e-001 1.430937e-001 -6.733164e-003 -1.299024e-002 -1.741235e-002 -4.153056e-002 -4.212892e-002 -3.808806e-002 -3.987839e-002 -2.455218e-002 -2.828145e-002 1.516846e-001
<VARIANCE> 39
 2.428013e+001 3.755641e+001 2.190771e+001 2.875231e+001 2.982266e+001 3.775695e+001 4.186699e+001 4.292813e+001 2.636041e+001 2.479490e+001 2.855481e+001 3.063748e+001 7.604433e+001 6.237140e-001 1.143559e+000 8.322785e-001 1.262325e+000 1.879772e+000 1.874551e+000 1.960427e+000 2.280034e+000 1.666277e+000 1.860103e+000 1.839506e+000 1.973827e+000 6.059821e-001 2.318786e-001 3.193591e-001 2.384957e-001 3.198026e-001 4.089049e-001 3.929730e-001 3.965195e-001 4.839723e-001 3.306321e-001 3.664898e-001 3.863962e-001 3.918337e-001 3.032945e-001
<GCONST> 1.075878e+002
<STATE> 3
<MEAN> 39
 -1.685769e+001 -2.324357e+000 -7.418263e+000 -2.363300e+000 -6.352622e+000 -2.728499e+000 -4.532131e+000 -2.291875e+000 -2.122680e+000 -2.385822e+000 -2.508082e+000 -1.853776e+000 4.527758e+001 1.159677e+000 3.843505e-001 8.864906e-001 9.339501e-003 3.627875e-001 -2.005940e-001 -6.966738e-002 -1.965183e-002 -2.226656e-001 -1.622769e-001 -2.294981e-001 -1.527472e-001 1.577015e+000 4.919725e-001 3.490749e-001 3.905511e-001 -1.272197e-003 -2.292802e-001 -2.142720e-001 -1.876559e-001 -1.563570e-001 -1.782607e-001 -1.343119e-001 -3.030708e-002 -2.703078e-002 4.612910e-001
<VARIANCE> 39
 2.740801e+001 2.149846e+001 1.628668e+001 1.556607e+001 1.676833e+001 2.839801e+001 1.940961e+001 2.327608e+001 2.481661e+001 1.583470e+001 1.894085e+001 1.863054e+001 8.251244e+001 2.645976e+000 4.771917e+000 3.002038e+000 4.018760e+000 2.506117e+000 3.242670e+000 2.076353e+000 2.253458e+000 2.044971e+000 1.642018e+000 1.963358e+000 1.726472e+000 4.810174e+000 6.874044e-001 6.538435e-001 4.024744e-001 4.822368e-001 5.056301e-001 5.699359e-001 4.052838e-001 4.560877e-001 3.815053e-001 3.206846e-001 3.899914e-001 4.426507e-001 9.521100e-001
<GCONST> 1.155121e+002
<STATE> 4
<MEAN> 39
 -1.627691e+001 -3.567124e-001 -2.553421e+000 1.141421e+000 -4.269353e+000 -6.908347e-001 -3.801749e+000 -2.422765e+000 -5.086380e+000 -5.223109e+000 -3.619425e+000 -3.269307e+000 4.784380e+001 2.736804e+000 1.682917e+000 2.397153e+000 7.764276e-002 -9.951397e-001 -1.216636e+000 -8.956188e-001 -8.905619e-001 -1.061227e+000 -7.200077e-001 -3.729843e-001 -1.598287e-001 2.816336e+000 5.873660e-001 8.935612e-002 -9.882741e-002 -2.222011e-001 -7.932472e-001 -6.595160e-001 -4.838537e-001 -2.001235e-001 -3.063282e-003 3.422344e-002 -6.278948e-002 4.620762e-002 2.381022e-001
<VARIANCE> 39
 2.646866e+001 8.623663e+001 3.863255e+001 9.839956e+001 4.393064e+001 5.243539e+001 3.194042e+001 3.090584e+001 2.638365e+001 1.884985e+001 3.075850e+001 2.453527e+001 1.615597e+002 5.652143e+000 9.997160e+000 4.034809e+000 6.650104e+000 6.510301e+000 4.368826e+000 3.858872e+000 3.642488e+000 2.683904e+000 2.281903e+000 3.130914e+000 2.804020e+000 5.999445e+000 5.024285e-001 1.176930e+000 7.208719e-001 1.073844e+000 6.869797e-001 5.795025e-001 7.521991e-001 4.450686e-001 4.601336e-001 4.602465e-001 6.001251e-001 5.408625e-001 1.260780e+000
<GCONST> 1.340595e+002
<STATE> 5
<MEAN> 39
 -7.628426e+000 4.813354e+000 2.274034e-002 -1.253028e+000 -1.096154e+001 -1.129637e+001 -1.167746e+001 -7.346954e+000 -8.679783e+000 -7.026741e+000 -6.800860e+000 -4.338914e+000 5.990245e+001 1.033008e+000 5.183824e-001 2.422476e-001 1.358926e-001 -4.997899e-001 -5.022441e-001 -5.744655e-001 -3.230984e-001 -1.240694e-001 -1.571180e-001 -4.612284e-001 -3.892860e-001 7.690735e-001 -3.185448e-001 -4.883403e-001 -3.360251e-001 -1.340613e-001 2.154245e-001 2.103854e-001 1.006774e-001 1.687897e-001 2.223190e-001 1.655144e-001 4.154076e-002 2.485625e-002 -1.148669e-001
<VARIANCE> 39
 4.553965e+001 6.498154e+001 2.720535e+001 4.323379e+001 3.874384e+001 4.304162e+001 3.350754e+001 4.404948e+001 1.879534e+001 2.533726e+001 2.333945e+001 2.740164e+001 1.421040e+002 5.127927e+000 3.240959e+000 2.542885e+000 2.907031e+000 3.943990e+000 3.601779e+000 3.001383e+000 2.813335e+000 1.999835e+000 2.201206e+000 2.299569e+000 2.375612e+000 3.647972e+000 5.693755e-001 7.690822e-001 4.807444e-001 5.781022e-001 5.900042e-001 5.371483e-001 5.784768e-001 5.319468e-001 4.045021e-001 4.612312e-001 4.630700e-001 4.107022e-001 4.519695e-001
<GCONST> 1.245449e+002
<STATE> 6
<MEAN> 39
 -4.692836e+000 7.429360e-001 8.217581e-001 1.365860e-002 -8.148658e+000 -8.184564e+000 -1.200536e+001 -7.926870e+000 -5.128870e+000 -4.000644e+000 -5.457450e+000 -4.274934e+000 6.018283e+001 5.943645e-001 -1.274610e+000 -6.298025e-001 -8.749726e-001 -1.447361e-001 -1.058252e-001 -6.387864e-001 -1.316346e-001 5.004735e-001 5.496604e-001 1.633046e-001 -7.931527e-002 1.459556e+000 5.418255e-002 -2.689903e-001 -2.892783e-001 -2.629118e-001 -2.707350e-002 6.167866e-002 3.801164e-002 4.709737e-002 8.500727e-002 1.225035e-001 -1.370746e-002 -5.548248e-002 1.371007e-001
<VARIANCE> 39
 3.484008e+001 1.000685e+002 5.134370e+001 5.157293e+001 5.954717e+001 7.414264e+001 6.308512e+001 4.667657e+001 4.325628e+001 3.930704e+001 3.063898e+001 2.846467e+001 1.265920e+002 3.841635e+000 9.360297e+000 3.749913e+000 5.067943e+000 4.368440e+000 4.144571e+000 6.338561e+000 4.068055e+000 3.984594e+000 3.726230e+000 2.837329e+000 3.373398e+000 6.908169e+000 6.580166e-001 1.873767e+000 6.867647e-001 9.792257e-001 9.194527e-001 7.986792e-001 9.981728e-001 8.399682e-001 7.025914e-001 6.627513e-001 5.310240e-001 6.408700e-001 1.234497e+000
<GCONST> 1.404048e+002
<STATE> 7
<MEAN> 39
 3.051463e-001 -5.523560e+000 -4.742831e+000 -1.044237e+001 -1.220065e+001 -1.232884e+001 -1.132533e+001 -7.554593e+000 -5.388099e+000 -3.116994e+000 -9.101784e+000 -8.061446e+000 6.824207e+001 4.819480e-001 -1.776266e+000 -9.682639e-001 -1.181297e+000 4.709445e-001 1.103423e-001 6.143573e-001 3.330375e-001 7.484383e-001 6.585495e-001 -3.378570e-001 -2.312909e-001 1.718890e+000 -3.696734e-001 1.933382e-001 6.173075e-002 2.717414e-001 3.089555e-001 3.034495e-001 4.256317e-001 -1.677980e-002 -1.179190e-001 -2.294487e-001 4.198991e-002 1.534271e-001 -3.253597e-001
<VARIANCE> 39
 4.690786e+001 1.062061e+002 9.815798e+001 7.524767e+001 8.861118e+001 1.022510e+002 1.048659e+002 7.711468e+001 1.097229e+002 7.957877e+001 7.903722e+001 4.832161e+001 8.280920e+001 3.698029e+000 6.733510e+000 4.394485e+000 8.120348e+000 4.784173e+000 4.249290e+000 7.435080e+000 6.751691e+000 5.677395e+000 5.036000e+000 4.069945e+000 4.572279e+000 5.392782e+000 6.652160e-001 1.343567e+000 7.020131e-001 1.521502e+000 8.149033e-001 7.422372e-001 1.166537e+000 1.289907e+000 1.138801e+000 9.745819e-001 6.851344e-001 8.578254e-001 1.099739e+000
<GCONST> 1.501535e+002
<STATE> 8
<MEAN> 39
 -2.065580e+000 -1.227654e+001 -9.597187e+000 -1.066282e+001 -3.344320e+000 -3.250661e+000 -4.281616e+000 -8.690478e+000 -2.177884e+000 -1.464935e+000 -5.777730e+000 -5.426686e+000 6.845029e+001 -3.313382e-001 3.768578e-003 -2.844253e-001 7.094384e-002 6.913331e-002 5.526685e-001 2.435858e-001 3.900649e-002 -1.230831e-001 -2.209041e-001 -8.114755e-004 3.925149e-002 -3.838224e-001 -3.226290e-002 5.031098e-002 5.907559e-002 6.540798e-002 -1.165000e-002 -3.435941e-002 -6.896246e-002 -1.191894e-002 -2.000307e-002 -1.613387e-002 -2.642504e-004 -1.298325e-002 -6.986240e-002
<VARIANCE> 39
 5.748186e+001 8.383010e+001 6.471729e+001 7.119279e+001 7.365392e+001 1.268111e+002 1.333269e+002 6.632859e+001 6.793832e+001 6.421810e+001 1.054189e+002 4.486812e+001 1.624151e+002 1.180622e+000 2.123651e+000 1.616227e+000 2.116404e+000 2.668419e+000 2.543181e+000 3.516704e+000 2.831757e+000 2.952391e+000 2.659633e+000 2.572398e+000 2.415390e+000 2.280993e+000 1.528006e-001 2.878230e-001 2.299532e-001 3.537906e-001 4.365425e-001 3.829394e-001 5.508596e-001 5.274678e-001 5.372162e-001 4.554134e-001 4.600367e-001 4.352237e-001 2.472677e-001
<GCONST> 1.267584e+002
<STATE> 9
<MEAN> 39
 -5.590240e+000 -8.881792e+000 -1.310049e+001 -6.556532e+000 -2.844239e+000 3.138422e+000 -6.022993e+000 -4.659590e+000 -3.322304e+000 -3.901867e+000 -6.938442e+000 -5.298543e+000 6.301775e+001 -3.891760e-001 3.243248e-001 1.145862e-001 2.976508e-001 6.778242e-002 -6.263997e-002 6.086378e-002 3.908218e-002 -9.250376e-002 -2.902080e-002 1.706124e-001 1.357281e-001 -7.680155e-001 2.343338e-003 1.454292e-002 1.819319e-002 -1.233150e-003 -3.323948e-002 -4.126771e-002 -2.074684e-002 7.090255e-003 1.587512e-002 2.915406e-002 1.787821e-002 1.750945e-003 -1.602330e-002
<VARIANCE> 39
 5.579285e+001 7.491437e+001 6.538445e+001 5.907032e+001 4.931739e+001 8.741521e+001 5.176756e+001 5.541531e+001 5.326466e+001 7.402996e+001 7.362750e+001 3.952594e+001 2.313167e+002 5.773352e-001 8.006026e-001 9.473223e-001 1.348615e+000 1.672149e+000 1.614832e+000 2.034117e+000 1.953022e+000 1.741017e+000 2.069542e+000 1.683224e+000 1.615132e+000 4.933310e-001 6.313880e-002 1.004804e-001 1.427105e-001 2.104626e-001 2.522137e-001 2.707515e-001 3.493330e-001 3.405371e-001 3.009027e-001 3.556381e-001 2.899846e-001 2.822166e-001 4.177270e-002
<GCONST> 1.084337e+002
<TRANSP> 10
 0.000000e+000 1.000000e+000 0.000000e+000 0.000000e+000 0.000000e+000 0.000000e+000 0.000000e+000 0.000000e+000 0.000000e+000 0.000000e+000
 0.000000e+000 8.003210e-001 1.996789e-001 0.000000e+000 0.000000e+000 0.000000e+000 0.000000e+000 0.000000e+000 0.000000e+000 0.000000e+000
 0.000000e+000 0.000000e+000 5.408096e-001 4.591903e-001 0.000000e+000 0.000000e+000 0.000000e+000 0.000000e+000 0.000000e+000 0.000000e+000
 0.000000e+000 0.000000e+000 0.000000e+000 4.614375e-001 5.385624e-001 0.000000e+000 0.000000e+000 0.000000e+000 0.000000e+000 0.000000e+000
 0.000000e+000 0.000000e+000 0.000000e+000 0.000000e+000 7.931827e-001 2.068173e-001 0.000000e+000 0.000000e+000 0.000000e+000 0.000000e+000
 0.000000e+000 0.000000e+000 0.000000e+000 0.000000e+000 0.000000e+000 8.117233e-001 1.882767e-001 0.000000e+000 0.000000e+000 0.000000e+000
 0.000000e+000 0.000000e+000 0.000000e+000 0.000000e+000 0.000000e+000 0.000000e+000 8.163769e-001 1.836231e-001 0.000000e+000 0.000000e+000
 0.000000e+000 0.000000e+000 0.000000e+000 0.000000e+000 0.000000e+000 0.000000e+000 0.000000e+000 9.369162e-001 6.308377e-002 0.000000e+000
 0.000000e+000 0.000000e+000 0.000000e+000 0.000000e+000 0.000000e+000 0.000000e+000 0.000000e+000 0.000000e+000 9.632190e-001 3.678099e-002
 0.000000e+000 0.000000e+000 0.000000e+000 0.000000e+000 0.000000e+000 0.000000e+000 0.000000e+000 0.000000e+000 0.000000e+000 0.000000e+000
<ENDHMM>
~h "osm"
<BEGINHMM>
<NUMSTATES> 10
<STATE> 2
<MEAN> 39
 -1.856143e+001 -6.518450e+000 -9.228456e+000 -4.486036e-001 -2.483591e+000 -1.849847e+000 -3.953276e+000 -1.297270e+000 -4.492496e-002 1.956545e-001 -1.200576e+000 -1.283338e+000 4.483199e+001 -7.151780e-002 1.262660e-002 1.622479e-002 -2.953160e-002 -1.821269e-002 4.484881e-002 5.522604e-002 4.278669e-002 1.773708e-002 2.527245e-002 -2.234569e-002 1.482233e-002 -5.776572e-002 8.596589e-002 2.119088e-002 -2.831613e-002 -1.193024e-001 -3.006518e-002 4.450009e-002 2.576380e-002 -1.805469e-002 3.299578e-003 1.491900e-002 -8.701853e-003 7.799723e-003 1.129437e-001
<VARIANCE> 39
 2.599885e+001 3.573881e+001 2.665601e+001 2.357788e+001 2.591263e+001 3.419074e+001 2.128081e+001 2.964070e+001 2.791704e+001 2.130911e+001 1.799766e+001 1.582115e+001 5.051492e+001 3.596019e-001 8.861992e-001 9.465241e-001 1.077742e+000 1.525013e+000 1.637497e+000 1.768283e+000 2.116351e+000 2.028373e+000 1.675451e+000 1.863418e+000 1.400544e+000 3.062829e-001 1.568362e-001 1.944737e-001 2.055827e-001 3.357537e-001 3.262630e-001 3.624309e-001 3.561540e-001 4.561754e-001 4.219881e-001 3.376212e-001 4.077967e-001 2.748947e-001 2.207247e-001
<GCONST> 1.004979e+002
<STATE> 3
<MEAN> 39
 -1.922579e+001 -2.279312e+000 -7.777825e+000 -2.007322e+000 -6.442261e+000 -2.468864e+000 -4.860894e+000 -2.712563e+000 -2.657555e+000 -2.300547e+000 -2.398931e+000 -1.583532e+000 4.285448e+001 1.858529e+000 -2.133805e-001 -1.089599e+000 -2.000372e+000 5.152734e-002 9.367428e-001 5.373835e-001 1.379311e-003 2.747070e-001 6.677319e-001 1.226406e-001 2.269076e-001 2.122334e+000 1.204206e+000 -3.396477e-001 -6.292887e-001 -1.343108e+000 1.074094e-001 3.570670e-001 8.574235e-002 -3.992970e-001 -1.610182e-001 1.571201e-001 -1.884895e-001 -1.627752e-001 1.728064e+000
<VARIANCE> 39
 2.083879e+001 1.052098e+001 8.672275e+000 1.621920e+001 1.611791e+001 3.028911e+001 2.350724e+001 2.051012e+001 2.427536e+001 2.292809e+001 1.666639e+001 1.617230e+001 7.695235e+001 3.245408e+000 1.303013e+000 2.684214e+000 3.926454e+000 2.692802e+000 2.782230e+000 2.446088e+000 2.733133e+000 1.821160e+000 2.380264e+000 1.988596e+000 1.658233e+000 3.149909e+000 5.215099e-001 3.041166e-001 4.796850e-001 7.693920e-001 6.182595e-001 6.951516e-001 6.684590e-001 5.560536e-001 5.711296e-001 6.120688e-001 4.784783e-001 4.005046e-001 7.147557e-001
<GCONST> 1.144511e+002
<STATE> 4
<MEAN> 39
 -1.535684e+001 -1.696463e+000 -1.118050e+001 -5.636358e+000 -7.995977e+000 6.033075e-002 -2.640131e+000 -1.614447e+000 -5.892048e-001 -1.596931e+000 -1.832677e+000 -1.565510e+000 4.545002e+001 3.780433e+000 -9.579039e-001 -1.559855e+000 -4.134522e+000 2.006264e-001 1.393337e+000 3.965593e-001 -9.768171e-001 -4.635510e-001 5.628965e-001 -3.438889e-001 -4.921284e-001 5.078959e+000 4.704109e-001 -3.370447e-001 1.227231e-001 -7.042337e-001 1.498902e-002 3.116326e-002 -1.592219e-001 -4.658670e-001 -3.001107e-001 -6.026628e-002 -1.428557e-001 -3.350566e-001 1.167064e+000
<VARIANCE> 39
 4.006546e+001 2.766712e+001 4.243977e+001 3.886060e+001 5.238004e+001 6.747768e+001 3.321733e+001 4.339699e+001 4.445291e+001 2.716687e+001 2.238202e+001 1.823745e+001 7.739048e+001 9.059015e+000 4.694349e+000 5.928864e+000 1.044401e+001 6.796114e+000 7.937490e+000 5.901431e+000 4.354438e+000 6.443836e+000 5.012247e+000 3.759883e+000 2.930774e+000 1.084211e+001 7.009573e-001 5.912544e-001 5.461752e-001 1.093030e+000 7.499992e-001 1.067068e+000 6.493531e-001 5.694190e-001 1.041107e+000 6.357389e-001 4.355789e-001 4.891781e-001 1.075821e+000
<GCONST> 1.378652e+002
<STATE> 5
<MEAN> 39
 -1.268599e+001 -1.697767e+000 -1.401261e+001 -1.183026e+001 -4.925600e+000 8.582754e-001 -5.040878e+000 -6.031877e+000 -4.157067e+000 -1.136321e+000 -3.816808e+000 -2.804010e+000 5.513923e+001 1.525236e+000 -2.986082e-001 -1.737114e-001 -1.505658e+000 -1.806627e-001 2.745006e-001 -1.197510e-001 -5.486604e-001 -1.342809e-002 9.945080e-002 -2.122603e-001 -2.499694e-001 2.206438e+000 -1.486254e-001 -1.740706e-002 2.180298e-001 1.938129e-001 -1.400654e-001 -1.901913e-001 -1.139930e-001 1.090316e-002 1.888425e-002 -7.559253e-002 -5.254250e-003 -3.563565e-002 -1.163486e-001
<VARIANCE> 39
 1.287139e+002 5.699504e+001 5.239270e+001 6.237787e+001 5.258891e+001 8.599386e+001 7.338369e+001 4.801731e+001 4.088703e+001 4.386745e+001 4.864458e+001 2.581439e+001 8.155521e+001 9.245860e+000 3.518945e+000 3.532934e+000 8.595618e+000 4.027969e+000 4.709979e+000 5.061707e+000 4.451884e+000 3.134270e+000 3.320940e+000 4.230547e+000 2.760724e+000 1.255069e+001 9.640642e-001 5.388342e-001 5.496128e-001 7.473810e-001 5.459898e-001 6.877020e-001 7.585233e-001 6.654798e-001 4.623557e-001 5.813114e-001 5.939854e-001 4.324031e-001 6.275371e-001
<GCONST> 1.382195e+002
<STATE> 6
<MEAN> 39
 -7.801459e-001 -8.846846e+000 -1.173567e+001 -2.412469e+001 -6.303410e+000 1.495992e+000 -4.969403e+000 -7.998137e+000 -4.225829e+000 -5.900654e-001 -4.560056e+000 -5.576503e+000 7.511877e+001 3.021033e-001 2.095079e-001 5.262374e-001 -1.192588e-001 3.364185e-001 -6.795039e-001 -6.663563e-001 -4.913220e-001 -2.177929e-001 -1.037408e-001 -4.869466e-001 -1.867760e-001 9.780280e-001 -6.984488e-001 4.060550e-001 1.904707e-001 8.889053e-001 2.387698e-001 -1.775395e-001 8.477730e-002 2.376935e-001 1.164289e-001 -1.583946e-001 3.781066e-002 1.530781e-001 -9.760780e-001
<VARIANCE> 39
 3.311580e+001 3.753889e+001 7.250878e+001 5.685935e+001 8.417966e+001 1.414410e+002 9.241991e+001 5.669093e+001 5.669962e+001 5.748947e+001 8.736415e+001 5.533715e+001 5.894582e+001 1.855908e+000 2.623431e+000 1.845931e+000 5.044985e+000 3.149046e+000 3.055780e+000 3.456617e+000 3.012507e+000 2.946441e+000 2.867554e+000 2.558294e+000 2.567270e+000 6.353618e+000 4.862926e-001 3.863280e-001 3.995372e-001 8.271426e-001 6.220300e-001 7.150202e-001 8.002411e-001 6.536127e-001 6.491897e-001 5.436038e-001 5.498719e-001 4.810281e-001 8.639187e-001
<GCONST> 1.332566e+002
<STATE> 7
<MEAN> 39
 -1.026132e+001 -9.606884e-001 -1.048047e+001 -1.244065e+001 5.236489e-002 -7.009474e+000 -3.953786e+000 -6.544724e+000 -2.248541e+000 -7.188616e-001 -6.062737e+000 -4.654278e+000 6.961889e+001 -2.428133e+000 4.886352e-001 4.636250e-001 1.176981e+000 5.092950e-001 -5.121376e-001 6.859728e-001 8.729715e-001 5.019671e-001 -1.613173e-001 6.004112e-001 8.241303e-002 -2.394683e-001 -1.803733e-001 -1.329365e-001 -1.899070e-001 -2.120480e-001 -2.435025e-001 1.304666e-001 1.077588e-001 6.557817e-002 2.638460e-002 1.181059e-001 1.770507e-001 6.057975e-002 1.058977e-001
<VARIANCE> 39
 1.245632e+002 7.471751e+001 1.757638e+002 1.284654e+002 6.668948e+001 1.682454e+002 9.026585e+001 7.578874e+001 1.068176e+002 6.069765e+001 9.203982e+001 5.223745e+001 5.579435e+001 9.083902e+000 3.060954e+000 3.029837e+000 8.475357e+000 5.440088e+000 8.272123e+000 7.164857e+000 5.933324e+000 6.585558e+000 4.425857e+000 4.088024e+000 3.804014e+000 1.009853e+000 9.899148e-001 4.279614e-001 4.808465e-001 1.078702e+000 8.235066e-001 1.102520e+000 1.092859e+000 1.104879e+000 8.987544e-001 8.654554e-001 7.418951e-001 6.386346e-001 2.159356e-001
<GCONST> 1.465727e+002
<STATE> 8
<MEAN> 39
 -1.629376e+001 -1.401066e+000 -3.204530e+000 -9.498246e+000 -4.923622e+000 -4.854676e+000 -6.711220e+000 -5.579296e+000 -1.145139e+000 -1.085294e+000 -2.545104e+000 -1.789603e+000 6.766567e+001 5.399380e-001 3.278083e-002 4.438131e-002 -3.669355e-002 -3.587517e-001 5.994633e-002 -3.128324e-001 -3.069077e-001 -1.739546e-001 3.413733e-002 -4.183383e-002 -4.798581e-002 -2.179474e-001 1.154421e-001 -1.952603e-002 1.445724e-002 -2.465168e-002 6.809647e-003 3.211301e-002 -1.287269e-002 -2.603601e-002 -3.245435e-002 -1.348552e-002 -1.617333e-002 -1.450993e-002 -7.586627e-003
<VARIANCE> 39
 1.874283e+002 5.130508e+001 6.087086e+001 9.076190e+001 8.960579e+001 9.279697e+001 1.208638e+002 8.357098e+001 6.227877e+001 4.895491e+001 6.601224e+001 3.261846e+001 1.086203e+002 5.628460e+000 1.728739e+000 1.393639e+000 2.142684e+000 2.721932e+000 2.792753e+000 3.968137e+000 3.541384e+000 3.269691e+000 2.852483e+000 2.913433e+000 2.194101e+000 1.110403e+000 6.317933e-001 2.897511e-001 2.204669e-001 3.585742e-001 4.381484e-001 4.746718e-001 6.735348e-001 6.287895e-001 5.796871e-001 5.207707e-001 5.118016e-001 3.837238e-001 1.553911e-001
<GCONST> 1.289775e+002
<STATE> 9
<MEAN> 39
 -3.808849e+000 2.011365e+000 -4.278856e+000 -6.229965e+000 -8.283558e+000 -3.848738e+000 -8.838988e+000 -1.076600e+001 -9.060520e+000 -5.735287e+000 -4.945489e+000 -5.199471e+000 5.950143e+001 -3.953061e-001 2.594863e-002 -7.531893e-003 3.472852e-001 1.298676e-001 3.288587e-002 1.731258e-001 2.247201e-001 3.851042e-002 -7.638732e-002 4.253852e-002 8.399285e-002 -5.338783e-001 -2.695576e-002 -9.370127e-003 -1.568415e-002 -1.286375e-002 1.746661e-003 -1.849991e-002 -7.372919e-003 1.379753e-002 2.489766e-002 1.802027e-002 2.329787e-003 7.569587e-003 -3.439360e-003
<VARIANCE> 39
 4.861977e+001 5.616142e+001 7.455707e+001 1.237030e+002 5.901226e+001 1.192090e+002 8.019276e+001 7.044572e+001 6.458524e+001 4.947269e+001 5.190845e+001 4.281242e+001 1.288457e+002 4.664122e-001 8.635333e-001 1.180071e+000 1.588190e+000 1.507532e+000 1.540765e+000 1.922287e+000 2.187048e+000 2.154570e+000 2.156414e+000 1.742082e+000 1.708485e+000 2.362762e-001 4.784397e-002 1.092244e-001 1.547829e-001 2.173318e-001 2.407706e-001 2.568906e-001 3.072971e-001 3.520912e-001 3.554264e-001 3.637803e-001 3.029464e-001 2.928040e-001 2.774631e-002
<GCONST> 1.083269e+002
<TRANSP> 10
 0.000000e+000 1.000000e+000 0.000000e+000 0.000000e+000 0.000000e+000 0.000000e+000 0.000000e+000 0.000000e+000 0.000000e+000 0.000000e+000
 0.000000e+000 8.538032e-001 1.461968e-001 0.000000e+000 0.000000e+000 0.000000e+000 0.000000e+000 0.000000e+000 0.000000e+000 0.000000e+000
 0.000000e+000 0.000000e+000 3.947908e-001 6.052092e-001 0.000000e+000 0.000000e+000 0.000000e+000 0.000000e+000 0.000000e+000 0.000000e+000
 0.000000e+000 0.000000e+000 0.000000e+000 3.585965e-001 6.414035e-001 0.000000e+000 0.000000e+000 0.000000e+000 0.000000e+000 0.000000e+000
 0.000000e+000 0.000000e+000 0.000000e+000 0.000000e+000 7.755656e-001 2.244345e-001 0.000000e+000 0.000000e+000 0.000000e+000 0.000000e+000
 0.000000e+000 0.000000e+000 0.000000e+000 0.000000e+000 0.000000e+000 8.366774e-001 1.633226e-001 0.000000e+000 0.000000e+000 0.000000e+000
 0.000000e+000 0.000000e+000 0.000000e+000 0.000000e+000 0.000000e+000 0.000000e+000 8.345094e-001 1.654907e-001 0.000000e+000 0.000000e+000
 0.000000e+000 0.000000e+000 0.000000e+000 0.000000e+000 0.000000e+000 0.000000e+000 0.000000e+000 9.594361e-001 4.056386e-002 0.000000e+000
 0.000000e+000 0.000000e+000 0.000000e+000 0.000000e+000 0.000000e+000 0.000000e+000 0.000000e+000 0.000000e+000 9.716643e-001 2.833568e-002
 0.000000e+000 0.000000e+000 0.000000e+000 0.000000e+000 0.000000e+000 0.000000e+000 0.000000e+000 0.000000e+000 0.000000e+000 0.000000e+000
<ENDHMM>
~h "pet"
<BEGINHMM>
<NUMSTATES> 10
<STATE> 2
<MEAN> 39
 -2.153598e+001 -4.152928e+000 -6.623555e+000 4.446894e-001 -6.190308e+000 -2.382891e+000 -1.782872e+000 2.915990e-001 -2.216164e+000 -1.160742e+000 1.175233e-001 -2.254350e-001 4.061142e+001 6.939423e-002 -1.571790e-001 -1.771792e-002 -4.570110e-002 9.909075e-002 -9.378785e-002 -1.721978e-002 -1.250395e-002 2.373522e-002 8.351251e-002 -2.206481e-002 6.646047e-003 1.856923e-001 1.338342e-002 1.330456e-002 2.337202e-002 5.001894e-003 -1.315869e-002 -1.623957e-002 -2.053668e-002 -2.773457e-002 4.865884e-003 -1.439925e-003 -1.082678e-002 8.180493e-003 4.325960e-002
<VARIANCE> 39
 2.452591e+001 4.283880e+001 1.358143e+001 2.553338e+001 2.545188e+001 3.056719e+001 2.698775e+001 2.637921e+001 2.180704e+001 1.935093e+001 1.965708e+001 1.395208e+001 5.819739e+001 9.112723e-001 1.546716e+000 8.242136e-001 1.200611e+000 1.680215e+000 2.283951e+000 1.796406e+000 1.771971e+000 1.845336e+000 1.790914e+000 1.739759e+000 1.354857e+000 1.980152e+000 1.516297e-001 2.657194e-001 1.688335e-001 2.121225e-001 3.212726e-001 4.468616e-001 3.617508e-001 3.419439e-001 3.916680e-001 3.565972e-001 3.389415e-001 2.894054e-001 3.095890e-001
<GCONST> 1.029673e+002
<STATE> 3
<MEAN> 39
 -1.821164e+001 -2.836237e+000 -7.473290e+000 -3.009580e+000 -6.524117e+000 -3.591682e+000 -4.849789e+000 -3.500485e+000 -3.214801e+000 -2.757320e+000 -3.127460e+000 -2.271477e+000 4.552610e+001 7.174533e-003 5.643796e-002 1.003648e-001 3.958362e-002 -4.296399e-003 -3.321503e-003 -7.534055e-002 -1.456212e-001 -8.909758e-003 -1.870886e-002 -4.195266e-002 4.285323e-002 2.219453e-002 2.451206e-001 -3.724267e-002 3.200803e-001 9.003428e-002 -2.338089e-001 -3.839348e-001 7.686284e-002 1.714675e-001 6.503095e-002 6.969879e-002 6.775086e-002 1.416801e-001 6.860076e-001
<VARIANCE> 39
 1.685385e+001 8.589725e+000 8.950938e+000 1.603877e+001 1.608915e+001 2.415693e+001 1.708377e+001 2.091354e+001 2.154833e+001 1.609094e+001 2.006123e+001 1.634025e+001 7.289565e+001 1.758620e-001 3.381132e-001 4.936138e-001 1.136612e+000 1.355938e+000 9.303633e-001 1.053776e+000 1.279558e+000 1.311623e+000 1.117737e+000 1.185357e+000 1.067321e+000 3.896742e-001 2.423856e-001 1.950256e-001 2.262376e-001 3.774484e-001 4.066474e-001 3.855761e-001 2.968676e-001 3.577537e-001 3.692648e-001 2.852759e-001 3.729546e-001 2.755359e-001 5.044743e-001
<GCONST> 9.137886e+001
<STATE> 4
<MEAN> 39
 -1.893210e+001 -2.090883e+000 -7.783359e+000 -2.118669e+000 -6.760755e+000 -3.496084e+000 -5.782769e+000 -3.811456e+000 -3.533004e+000 -3.416258e+000 -2.735686e+000 -1.586444e+000 4.393928e+001 5.820888e-001 -2.234918e-002 8.396901e-001 3.525760e-001 -3.830755e-001 -1.011870e+000 1.755320e-001 6.480028e-001 5.529427e-001 3.274395e-001 1.525012e-001 4.912649e-001 1.952492e+000 8.416947e-001 -1.701060e-001 9.034882e-001 -9.608701e-002 -9.552059e-001 -1.008962e+000 -4.293803e-002 1.541980e-001 -8.838306e-002 1.088936e-001 -2.359533e-002 9.214717e-002 1.761080e+000
<VARIANCE> 39
 2.264648e+001 9.998723e+000 1.007512e+001 1.725208e+001 1.639874e+001 3.546231e+001 1.913837e+001 2.843915e+001 2.355461e+001 1.882977e+001 2.193023e+001 1.311402e+001 9.452517e+001 1.533408e+000 1.420690e+000 1.097728e+000 1.535305e+000 2.066786e+000 1.996292e+000 1.901772e+000 1.968535e+000 2.538548e+000 2.083100e+000 1.891413e+000 1.671390e+000 2.615033e+000 4.702938e-001 3.634028e-001 4.610144e-001 6.782042e-001 6.024641e-001 5.360126e-001 3.864813e-001 6.307436e-001 4.928033e-001 2.917102e-001 4.414821e-001 3.349175e-001 5.791337e-001
<GCONST> 1.091752e+002
<STATE> 5
<MEAN> 39
 -1.755245e+001 -1.871601e+000 -5.214650e+000 1.724278e+000 -9.085746e+000 -3.925766e+000 -1.937539e+000 4.957255e-001 -9.086190e-001 -3.545746e-001 -8.373737e-001 -7.012737e-001 4.205050e+001 9.153277e-001 -1.258174e-001 1.042147e+000 1.998458e-001 -7.395832e-001 -1.152979e+000 1.029708e-002 1.659417e-001 1.736950e-001 1.963350e-001 -1.785336e-002 1.968958e-001 2.134211e+000 4.336570e-001 -1.505726e-001 5.636950e-001 -2.262589e-001 -5.926452e-001 -3.847631e-001 -1.666679e-001 -1.537334e-001 -1.921159e-001 -1.405101e-002 -8.190583e-002 -1.718540e-002 8.154164e-001
<VARIANCE> 39
 3.411267e+001 3.273025e+001 4.441300e+001 8.389367e+001 6.313730e+001 3.920562e+001 5.517251e+001 4.613486e+001 2.629981e+001 2.789436e+001 2.061346e+001 1.487115e+001 9.952999e+001 3.967263e+000 3.146597e+000 3.087651e+000 4.533805e+000 4.866436e+000 5.915971e+000 3.010226e+000 3.139383e+000 2.998312e+000 2.229928e+000 2.814654e+000 1.772811e+000 8.802411e+000 5.694633e-001 5.094823e-001 7.108193e-001 8.320392e-001 1.069795e+000 8.934362e-001 5.537464e-001 6.429865e-001 5.290099e-001 4.324783e-001 5.035287e-001 3.001646e-001 1.401932e+000
<GCONST> 1.300829e+002
<STATE> 6
<MEAN> 39
 -1.394928e+001 -3.090712e+000 -1.313275e+000 3.131711e-001 -1.058377e+001 -1.079852e+001 -5.083360e+000 -9.887066e-001 -6.443461e-001 -1.594986e+000 -2.624986e+000 5.056056e-001 5.783794e+001 3.694642e+000 -1.004701e+000 4.525442e+000 -1.279920e+000 -4.578880e+000 -3.521687e+000 -1.146348e+000 -4.421819e-001 -1.185822e+000 -8.863224e-002 -4.072392e-001 2.520070e-001 7.008087e+000 2.250644e-001 -2.368419e-001 5.881920e-001 -1.167925e+000 -6.721898e-001 2.619122e-001 -4.114981e-001 -5.457623e-001 -6.507303e-001 -4.423744e-002 -1.279670e-001 -1.916106e-001 2.274877e-001
<VARIANCE> 39
 3.620262e+001 5.207249e+001 4.559328e+001 3.795124e+001 5.216479e+001 8.516367e+001 5.279853e+001 2.714042e+001 3.533501e+001 2.830099e+001 3.847931e+001 2.132944e+001 1.843217e+002 5.097032e+000 4.628598e+000 5.733606e+000 6.991216e+000 5.228812e+000 5.334553e+000 5.135414e+000 8.084612e+000 5.212851e+000 4.149187e+000 4.150145e+000 2.612251e+000 5.411609e+000 6.620632e-001 8.493890e-001 6.720791e-001 8.402616e-001 1.042801e+000 1.190242e+000 8.299459e-001 1.288833e+000 8.254939e-001 8.962947e-001 8.930495e-001 5.667757e-001 1.610492e+000
<GCONST> 1.408593e+002
<STATE> 7
<MEAN> 39
 -5.199043e+000 -6.549795e+000 1.194031e+001 -1.043117e+001 -2.372949e+001 -1.538080e+001 -9.158989e+000 -5.519074e+000 -7.381814e+000 -1.541200e+000 -3.689137e+000 -2.151759e-001 7.171897e+001 9.613544e-001 -7.707253e-001 2.542596e+000 -3.133134e+000 -1.842111e+000 -4.592491e-001 -8.253415e-001 -7.983876e-001 -7.970339e-001 5.676304e-001 -1.652951e-001 -7.171888e-002 3.231845e+000 -9.158289e-001 2.052411e-001 -1.180329e+000 3.531508e-001 1.232134e+000 7.961537e-001 3.933204e-001 3.126857e-001 5.790430e-001 9.394734e-002 1.489290e-001 -4.912320e-002 -1.340613e+000
<VARIANCE> 39
 3.550427e+001 5.265072e+001 1.027969e+002 1.146023e+002 6.165734e+001 7.765636e+001 8.996198e+001 1.492572e+002 5.643614e+001 5.127244e+001 7.787921e+001 3.154700e+001 8.495046e+001 3.579180e+000 3.894730e+000 6.368902e+000 6.587275e+000 9.386865e+000 6.154689e+000 5.915409e+000 9.197924e+000 5.222041e+000 5.587982e+000 5.416557e+000 3.320255e+000 6.609921e+000 4.704721e-001 5.617983e-001 6.949061e-001 1.140742e+000 8.919528e-001 1.081434e+000 8.980296e-001 1.397344e+000 7.025496e-001 8.248010e-001 5.559313e-001 4.209214e-001 6.405620e-001
<GCONST> 1.455432e+002
<STATE> 8
<MEAN> 39
 -5.743763e+000 -1.159848e+001 7.902439e-001 -1.283009e+001 -1.879774e+001 -1.043707e+001 -2.381082e+000 1.146671e-001 -1.466377e+000 -3.082436e+000 -5.654673e+000 -3.466525e+000 7.402390e+001 3.819826e-002 4.949166e-003 -7.890274e-001 2.602664e-001 3.138041e-001 1.629925e-001 3.085432e-001 2.511576e-001 2.409008e-001 -1.845628e-001 -2.098808e-001 -1.371494e-002 -3.871233e-001 -1.065439e-002 6.196843e-002 -1.868976e-002 8.129232e-002 1.512988e-002 -1.899271e-003 -1.403580e-002 -2.258141e-002 -3.110335e-002 -2.254986e-002 1.101309e-002 2.324279e-002 -1.234264e-001
<VARIANCE> 39
 4.232723e+001 6.836107e+001 1.214851e+002 8.567915e+001 5.170418e+001 7.637075e+001 1.346710e+002 1.231965e+002 1.015627e+002 6.582036e+001 6.907774e+001 4.324403e+001 1.196436e+002 4.762805e-001 1.420610e+000 1.066478e+000 1.345559e+000 1.729954e+000 1.851923e+000 2.875943e+000 2.403253e+000 2.336360e+000 2.483624e+000 1.804977e+000 1.748285e+000 1.151748e+000 7.140639e-002 1.426387e-001 1.985866e-001 2.507438e-001 2.948063e-001 3.075767e-001 4.593782e-001 4.132059e-001 3.756232e-001 4.098478e-001 3.082732e-001 2.944005e-001 7.775074e-002
<GCONST> 1.161328e+002
<STATE> 9
<MEAN> 39
 -1.312319e+001 -3.838507e+000 -8.409225e+000 -5.021132e+000 -1.011155e+001 -6.483557e+000 -2.785375e+000 -8.276721e-001 -2.244189e+000 -3.430358e+000 -3.537493e+000 -8.199382e-001 5.283090e+001 -4.220361e-001 1.775616e-001 -4.105992e-002 1.544973e-001 2.453303e-001 2.614580e-001 -7.492338e-002 -9.663137e-002 -1.037011e-001 2.367893e-002 2.201691e-001 -3.605921e-002 -6.698907e-001 8.116729e-003 -3.801917e-002 1.668334e-002 -1.189144e-002 -7.999996e-003 2.082393e-003 2.229172e-003 3.855619e-003 5.300305e-003 2.596718e-003 -8.335920e-003 -1.753605e-002 4.696596e-002
<VARIANCE> 39
 3.285901e+001 3.093928e+001 3.959697e+001 3.131188e+001 4.081784e+001 5.469439e+001 4.351438e+001 3.646163e+001 3.970332e+001 3.331587e+001 4.060495e+001 2.342561e+001 1.164015e+002 1.476425e+000 1.735311e+000 1.962615e+000 2.016939e+000 2.287589e+000 2.944323e+000 2.364868e+000 2.856734e+000 2.596345e+000 2.210737e+000 2.492304e+000 1.901423e+000 3.803814e+000 2.390893e-001 3.007245e-001 3.621836e-001 3.664029e-001 4.271908e-001 5.587878e-001 4.603918e-001 5.316692e-001 4.997957e-001 4.234412e-001 4.729653e-001 3.518690e-001 5.571825e-001
<GCONST> 1.189574e+002
<TRANSP> 10
 0.000000e+000 1.000000e+000 0.000000e+000 0.000000e+000 0.000000e+000 0.000000e+000 0.000000e+000 0.000000e+000 0.000000e+000 0.000000e+000
 0.000000e+000 8.295647e-001 1.704353e-001 0.000000e+000 0.000000e+000 0.000000e+000 0.000000e+000 0.000000e+000 0.000000e+000 0.000000e+000
 0.000000e+000 0.000000e+000 4.231086e-001 5.768914e-001 0.000000e+000 0.000000e+000 0.000000e+000 0.000000e+000 0.000000e+000 0.000000e+000
 0.000000e+000 0.000000e+000 0.000000e+000 3.370565e-002 9.662943e-001 0.000000e+000 0.000000e+000 0.000000e+000 0.000000e+000 0.000000e+000
 0.000000e+000 0.000000e+000 0.000000e+000 0.000000e+000 5.921325e-001 4.078675e-001 0.000000e+000 0.000000e+000 0.000000e+000 0.000000e+000
 0.000000e+000 0.000000e+000 0.000000e+000 0.000000e+000 0.000000e+000 4.395382e-001 5.604618e-001 0.000000e+000 0.000000e+000 0.000000e+000
 0.000000e+000 0.000000e+000 0.000000e+000 0.000000e+000 0.000000e+000 0.000000e+000 7.007620e-001 2.992380e-001 0.000000e+000 0.000000e+000
 0.000000e+000 0.000000e+000 0.000000e+000 0.000000e+000 0.000000e+000 0.000000e+000 0.000000e+000 9.596514e-001 4.034858e-002 0.000000e+000
 0.000000e+000 0.000000e+000 0.000000e+000 0.000000e+000 0.000000e+000 0.000000e+000 0.000000e+000 0.000000e+000 9.650145e-001 3.498547e-002
 0.000000e+000 0.000000e+000 0.000000e+000 0.000000e+000 0.000000e+000 0.000000e+000 0.000000e+000 0.000000e+000 0.000000e+000 0.000000e+000
<ENDHMM>
~h "sil"
<BEGINHMM>
<NUMSTATES> 5
<STATE> 2
<MEAN> 39
 -2.579896e+001 3.538783e+000 -9.130002e+000 2.724942e+000 -9.952795e+000 4.160100e+000 -3.725194e+000 -8.055297e-001 -7.745726e-001 -3.059808e+000 6.415858e-001 -1.324321e+000 3.197725e+001 -5.051414e-002 5.360143e-004 9.360939e-003 2.717767e-002 1.430153e-002 7.468245e-003 -2.120882e-002 -9.307229e-003 6.683537e-003 -5.611924e-003 1.788548e-003 1.443896e-002 -4.650854e-002 9.697782e-003 3.498480e-003 6.675340e-004 -3.205864e-003 8.936318e-004 -4.232398e-003 -4.841039e-005 -4.986522e-003 -4.568509e-003 -7.663764e-004 -5.113471e-003 -4.825664e-003 1.018762e-002
<VARIANCE> 39
 2.545566e+001 2.878965e+001 2.454309e+001 1.198766e+001 1.621207e+001 3.021899e+001 1.727286e+001 1.554118e+001 1.812729e+001 1.436223e+001 1.788116e+001 1.065253e+001 1.066077e+002 1.122815e-001 2.098613e-001 3.750609e-001 5.093727e-001 6.455625e-001 7.240566e-001 9.768957e-001 1.103739e+000 1.145175e+000 1.041282e+000 9.765943e-001 1.022188e+000 6.320126e-002 1.814874e-002 3.671584e-002 6.576033e-002 8.738275e-002 1.136167e-001 1.283271e-001 1.976998e-001 2.081429e-001 2.132680e-001 1.971915e-001 1.879642e-001 2.072181e-001 8.336323e-003
<GCONST> 7.145749e+001
<STATE> 3
<MEAN> 39
 -1.652636e+001 -3.073219e+000 -7.345899e+000 -2.539969e+000 -4.982581e+000 -3.484448e+000 -4.283031e+000 -2.650441e+000 -3.034536e+000 -2.158163e+000 -2.324738e+000 -1.077898e+000 4.521794e+001 -1.847053e-002 -1.926834e-003 -1.315825e-003 1.565896e-003 -1.256059e-003 -4.561290e-003 -2.126491e-003 4.408906e-003 4.171206e-003 5.768554e-003 3.053300e-003 4.581161e-004 -1.784795e-002 1.788225e-003 -1.052761e-003 3.161377e-004 -1.372388e-003 -1.039437e-003 -1.118502e-003 -5.412562e-004 -1.705777e-003 -3.041098e-003 -2.500063e-003 -2.605268e-003 -1.490506e-003 3.773440e-003
<VARIANCE> 39
 1.188344e+001 9.079378e+000 7.132376e+000 1.169838e+001 1.275858e+001 2.126546e+001 1.547505e+001 1.893827e+001 1.810828e+001 1.524618e+001 1.504320e+001 1.529400e+001 6.923189e+001 1.211081e-001 2.482033e-001 4.205427e-001 6.155481e-001 8.258992e-001 1.022950e+000 1.153997e+000 1.273450e+000 1.319079e+000 1.337029e+000 1.245926e+000 1.169535e+000 4.896612e-002 2.388096e-002 5.025187e-002 8.526571e-002 1.264871e-001 1.700136e-001 2.114998e-001 2.373302e-001 2.622301e-001 2.728491e-001 2.762584e-001 2.566363e-001 2.428113e-001 8.584821e-003
<GCONST> 7.317451e+001
<STATE> 4
<MEAN> 39
 -1.747955e+001 -3.011832e+000 -7.909080e+000 -5.492939e+000 -9.003768e+000 -7.805902e+000 -9.100281e+000 -7.516345e+000 -7.350193e+000 -6.092095e+000 -5.279518e+000 -4.009607e+000 5.125105e+001 -1.091645e-002 -2.488663e-002 -5.483884e-003 -1.614377e-002 -1.044033e-002 -1.795465e-002 3.268501e-003 9.397924e-003 2.018290e-003 7.702971e-003 3.455845e-004 5.910241e-003 -1.500417e-002 2.732340e-003 1.021756e-003 6.042794e-003 1.342381e-003 5.157459e-003 2.935347e-003 5.520793e-003 6.560178e-003 5.592039e-003 5.403964e-003 3.933851e-003 3.506967e-003 1.154681e-002
<VARIANCE> 39
 1.630687e+001 1.275550e+001 2.514855e+001 1.513100e+001 1.712192e+001 2.297705e+001 2.571625e+001 2.319646e+001 2.310036e+001 1.874745e+001 1.912905e+001 1.625659e+001 5.967678e+001 4.080887e-001 5.292532e-001 6.866788e-001 8.758146e-001 1.096941e+000 1.259882e+000 1.453813e+000 1.479936e+000 1.517899e+000 1.522733e+000 1.459220e+000 1.312947e+000 1.362893e+000 7.108994e-002 1.001565e-001 1.294948e-001 1.715828e-001 2.141194e-001 2.435290e-001 2.874972e-001 2.920008e-001 2.982358e-001 3.036819e-001 2.912094e-001 2.642084e-001 2.429762e-001
<GCONST> 9.150407e+001
<TRANSP> 5
 0.000000e+000 1.000000e+000 0.000000e+000 0.000000e+000 0.000000e+000
 0.000000e+000 8.907984e-001 1.092016e-001 0.000000e+000 0.000000e+000
 0.000000e+000 0.000000e+000 9.720910e-001 2.790906e-002 0.000000e+000
 0.000000e+000 0.000000e+000 0.000000e+000 9.356270e-001 6.437301e-002
 0.000000e+000 0.000000e+000 0.000000e+000 0.000000e+000 0.000000e+000
<ENDHMM>
~h "tri"
<BEGINHMM>
<NUMSTATES> 10
<STATE> 2
<MEAN> 39
 -1.856537e+001 -2.919945e+000 -8.851265e+000 -5.758976e+000 -9.082318e+000 -7.817708e+000 -9.570682e+000 -7.859195e+000 -7.593720e+000 -6.072194e+000 -5.595837e+000 -4.393079e+000 4.899319e+001 -4.556963e-003 1.007170e-002 1.226931e-002 1.207740e-002 -1.594539e-002 -2.429943e-003 3.432059e-003 -1.525293e-002 4.545206e-003 1.344485e-002 2.307284e-003 7.508014e-003 -1.174704e-003 2.782492e-003 -2.366118e-002 -1.417497e-002 -1.617193e-002 1.926376e-003 -2.355842e-002 1.610445e-002 1.899602e-002 2.735829e-002 1.608946e-002 1.052034e-002 1.078080e-002 8.462124e-002
<VARIANCE> 39
 2.500485e+000 3.403080e+000 4.900847e+000 7.656591e+000 9.580789e+000 1.242013e+001 1.245858e+001 1.554820e+001 1.476574e+001 1.314351e+001 1.211511e+001 1.206911e+001 3.123892e+001 1.361042e-001 3.041638e-001 4.902578e-001 6.249909e-001 8.544711e-001 1.004077e+000 1.248943e+000 1.373379e+000 1.500437e+000 1.377269e+000 1.382112e+000 1.312533e+000 1.201780e+000 4.098469e-002 8.142369e-002 1.138427e-001 1.429416e-001 1.817606e-001 2.203306e-001 2.803551e-001 2.958028e-001 3.146660e-001 2.898890e-001 3.077763e-001 2.832276e-001 3.453296e-001
<GCONST> 7.728203e+001
<STATE> 3
<MEAN> 39
 -1.887022e+001 -3.675754e+000 -8.230293e+000 -1.562312e+000 -6.312869e+000 -4.880174e+000 -4.953696e+000 -2.943998e+000 -2.499202e+000 -2.196370e+000 -2.675115e+000 -1.987831e+000 4.735661e+001 1.709195e-002 -3.353548e-001 -6.241729e-002 -2.305358e-001 3.865388e-002 -1.152965e-001 2.025755e-001 2.263662e-001 2.605756e-001 1.588729e-001 6.049363e-002 9.513956e-002 9.972231e-001 3.956849e-003 -2.052752e-001 -1.039871e-001 -3.103941e-001 -1.312114e-001 -1.788358e-001 1.369011e-002 -2.063361e-003 6.226559e-002 6.805796e-002 1.105155e-001 9.574644e-002 6.236690e-001
<VARIANCE> 39
 2.036917e+001 2.817837e+001 1.624923e+001 3.114446e+001 2.191424e+001 4.121490e+001 4.024165e+001 4.006141e+001 2.433117e+001 1.996703e+001 1.740240e+001 1.705122e+001 9.905548e+001 1.528263e+000 1.979825e+000 1.605486e+000 1.958551e+000 1.834879e+000 2.274732e+000 2.498320e+000 2.556186e+000 1.974539e+000 1.523843e+000 1.571559e+000 1.399384e+000 4.304308e+000 3.866994e-001 4.114655e-001 3.992375e-001 5.448428e-001 4.413638e-001 5.181887e-001 5.080827e-001 4.800122e-001 4.324134e-001 3.509626e-001 3.381465e-001 3.066833e-001 1.067050e+000
<GCONST> 1.134704e+002
<STATE> 4
<MEAN> 39
 -1.805610e+001 -4.252228e+000 -7.749525e+000 -3.553406e+000 -5.951941e+000 -3.273993e+000 -3.810816e+000 -1.806238e+000 -1.341470e+000 -1.014093e+000 -9.482788e-001 -3.448255e-001 4.988295e+001 2.573105e-001 -1.519548e+000 -1.062911e+000 -2.449633e+000 -1.173745e+000 -1.624565e+000 3.507052e-001 -3.330446e-002 5.466372e-001 5.412740e-001 8.684472e-001 7.205725e-001 5.195045e+000 -2.605346e-001 2.227784e-001 -1.172015e-002 -3.408432e-001 -1.078316e-001 -3.370329e-001 1.527483e-001 -3.040357e-002 5.863685e-002 -2.322541e-002 1.706768e-001 1.532654e-001 6.399763e-001
<VARIANCE> 39
 2.350055e+001 2.486082e+001 1.912153e+001 2.839213e+001 2.093394e+001 3.779681e+001 2.474009e+001 2.040699e+001 1.541269e+001 1.441180e+001 1.374637e+001 1.090330e+001 1.632811e+002 5.307203e+000 3.809430e+000 4.216070e+000 4.844904e+000 3.409412e+000 4.291215e+000 4.124904e+000 3.892575e+000 2.729134e+000 2.765145e+000 2.836946e+000 2.481843e+000 8.317847e+000 4.280216e-001 5.800585e-001 4.438886e-001 6.074125e-001 5.616148e-001 6.073238e-001 4.721453e-001 4.630857e-001 3.708067e-001 3.080087e-001 2.940922e-001 2.619057e-001 1.493429e+000
<GCONST> 1.206926e+002
<STATE> 5
<MEAN> 39
 -1.861646e+001 -6.891726e+000 -1.038630e+001 -5.655347e+000 -1.130659e+001 -6.674305e+000 -3.452082e+000 -3.727049e+000 -3.585231e+000 -3.057365e+000 -1.649848e+000 -1.700270e+000 5.469810e+001 -3.547529e-001 -8.886735e-002 -2.561294e-001 -1.278651e+000 -3.802330e-001 -9.947605e-001 3.894795e-001 3.092448e-002 3.984069e-001 2.702591e-001 6.477440e-001 4.986378e-001 2.890251e+000 -4.185506e-001 6.439570e-001 4.055952e-001 2.511179e-001 4.653530e-001 2.741943e-001 7.763796e-002 1.497690e-001 2.689492e-002 -1.422921e-002 -1.937141e-002 -7.217731e-002 -6.851459e-001
<VARIANCE> 39
 3.137380e+001 6.234767e+001 6.359694e+001 7.015246e+001 4.451483e+001 8.524895e+001 7.391424e+001 3.423968e+001 3.668077e+001 3.443948e+001 3.323613e+001 2.959039e+001 3.120389e+002 3.438199e+000 6.578147e+000 4.756902e+000 5.915352e+000 5.482747e+000 5.639117e+000 4.166705e+000 3.768163e+000 2.356712e+000 2.437554e+000 3.486938e+000 2.140382e+000 1.967967e+001 6.040877e-001 1.084144e+000 9.996147e-001 8.488078e-001 1.017696e+000 7.446965e-001 8.149565e-001 7.688179e-001 4.580084e-001 5.748184e-001 7.418012e-001 4.879515e-001 2.070637e+000
<GCONST> 1.399360e+002
<STATE> 6
<MEAN> 39
 -2.282957e+001 -2.468449e+000 -7.563655e+000 -1.238717e+001 -6.267675e+000 -1.010365e+001 -2.058804e+000 -7.449589e-001 8.273160e-001 -8.730702e-001 1.703302e+000 1.512979e+000 6.708822e+001 -2.380287e+000 1.772534e+000 2.222842e+000 -2.254771e-001 2.079529e+000 5.831231e-001 8.506126e-001 7.343052e-001 5.964006e-001 -8.977509e-002 2.825810e-001 -7.639875e-002 7.251105e-001 -2.080222e-001 1.606380e-001 3.218194e-001 4.205039e-001 3.196238e-001 4.499765e-001 -5.131948e-002 -3.726055e-002 -1.528791e-001 -1.923826e-001 -1.616710e-001 -2.159410e-001 -7.060516e-001
<VARIANCE> 39
 3.417694e+001 4.930645e+001 7.990083e+001 4.732971e+001 7.434216e+001 7.135599e+001 6.352614e+001 5.554523e+001 4.022193e+001 3.832790e+001 3.702446e+001 3.050853e+001 1.431204e+002 1.632531e+000 2.405312e+000 4.673549e+000 3.700937e+000 4.145333e+000 4.173221e+000 3.907483e+000 3.753227e+000 2.843866e+000 4.144677e+000 2.528596e+000 2.757521e+000 3.239275e+000 4.984979e-001 6.137772e-001 1.147534e+000 7.233601e-001 9.760112e-001 8.527458e-001 7.218278e-001 7.532771e-001 5.428562e-001 7.208045e-001 5.544863e-001 5.223711e-001 8.051940e-001
<GCONST> 1.342050e+002
<STATE> 7
<MEAN> 39
 -3.097640e+001 1.172306e+000 1.484830e-001 -1.010744e+001 1.227465e-001 -7.832825e+000 2.599626e-001 1.221830e+000 2.854122e-001 -2.165931e+000 7.167090e-001 4.702372e-001 6.912183e+001 8.344246e-001 -6.051148e-002 4.521566e-001 2.509502e-001 -6.809249e-001 -6.898263e-001 -3.998539e-001 -1.522123e-001 -4.971083e-001 -4.462624e-001 -3.834212e-001 -1.663526e-001 6.522022e-002 7.653627e-001 -2.540665e-001 -9.213115e-002 -4.888353e-002 -5.958743e-001 -3.802176e-001 -2.694800e-001 -1.834872e-001 -1.215478e-001 -3.534091e-002 -1.535666e-001 -2.175966e-002 1.380760e-001
<VARIANCE> 39
 2.039891e+001 4.223103e+001 5.584478e+001 3.380962e+001 6.511562e+001 4.106547e+001 5.039455e+001 4.510812e+001 4.704720e+001 4.522781e+001 2.892603e+001 1.986286e+001 8.835901e+001 7.060453e+000 2.078314e+000 1.861721e+000 1.923221e+000 4.172507e+000 3.872484e+000 2.812006e+000 2.900176e+000 2.172309e+000 1.947891e+000 2.317716e+000 1.783461e+000 9.647537e-001 4.865922e-001 4.098147e-001 4.199819e-001 3.786682e-001 5.503261e-001 5.090964e-001 5.009698e-001 4.802319e-001 3.553356e-001 3.824806e-001 4.323254e-001 3.530179e-001 2.747428e-001
<GCONST> 1.204501e+002
<STATE> 8
<MEAN> 39
 -7.972055e+000 -5.533915e+000 5.976318e+000 -1.647995e+001 -1.689352e+001 -1.648771e+001 -2.072996e+000 -8.393552e+000 -5.203652e+000 -1.794023e+000 -7.703187e+000 -1.293032e+000 7.073551e+001 1.156184e+000 -5.838245e-001 2.653820e-002 -4.037541e-002 -1.287332e+000 -1.269770e-001 -3.139734e-001 -1.231135e-001 -1.546166e-002 3.042439e-001 -1.190964e-001 -4.180719e-002 1.403934e-002 -5.545213e-001 4.099893e-002 -9.247351e-002 3.331204e-002 3.435519e-001 3.676214e-001 2.584131e-001 1.527692e-001 1.157214e-001 1.424272e-001 1.894476e-001 6.177464e-002 -1.352228e-001
<VARIANCE> 39
 3.443047e+001 6.495345e+001 6.755475e+001 1.225834e+002 6.033864e+001 9.907616e+001 1.136349e+002 1.347162e+002 9.670106e+001 6.607020e+001 9.246891e+001 4.584349e+001 1.547287e+002 6.057923e+000 3.570343e+000 2.214114e+000 2.930259e+000 6.303687e+000 4.819796e+000 5.289106e+000 4.287963e+000 3.985517e+000 3.775478e+000 3.520092e+000 2.299622e+000 3.130296e+000 6.139190e-001 5.112192e-001 2.506815e-001 3.613310e-001 6.698135e-001 6.875891e-001 7.940354e-001 6.688799e-001 6.478612e-001 6.308904e-001 4.193287e-001 4.041662e-001 2.360020e-001
<GCONST> 1.372404e+002
<STATE> 9
<MEAN> 39
 -8.996676e+000 -2.127370e+000 2.561584e+000 -6.704728e+000 -1.819583e+001 -9.004180e+000 -4.337279e+000 -3.506697e+000 -4.961268e+000 -1.006380e+000 -3.759064e+000 -2.795604e+000 6.092015e+001 -2.609350e-001 1.973956e-001 -3.102621e-001 2.714824e-001 4.299438e-001 4.228608e-001 6.026027e-002 -5.684043e-002 -1.535494e-002 -1.385192e-002 5.805968e-003 -2.447491e-002 -7.945433e-001 -1.581934e-002 8.711584e-003 -2.280276e-002 -8.598814e-003 4.127381e-002 -2.121810e-002 -1.705182e-002 6.460242e-003 6.815901e-003 -2.907009e-002 -8.840772e-003 -1.401147e-003 -1.940388e-002
<VARIANCE> 39
 3.130271e+001 5.110154e+001 7.468238e+001 8.874112e+001 8.018980e+001 7.930334e+001 7.395191e+001 1.178476e+002 7.129680e+001 4.943233e+001 7.309618e+001 3.154013e+001 2.239736e+002 5.030229e-001 9.670001e-001 1.194171e+000 1.491594e+000 1.862663e+000 1.948559e+000 2.266595e+000 2.610685e+000 2.394383e+000 1.954956e+000 1.813173e+000 1.622746e+000 5.475333e-001 6.705423e-002 1.256618e-001 1.610238e-001 2.352791e-001 2.833519e-001 3.410126e-001 3.796134e-001 4.466882e-001 4.118136e-001 3.637311e-001 3.225457e-001 2.899353e-001 5.782326e-002
<GCONST> 1.126707e+002
<TRANSP> 10
 0.000000e+000 1.000000e+000 0.000000e+000 0.000000e+000 0.000000e+000 0.000000e+000 0.000000e+000 0.000000e+000 0.000000e+000 0.000000e+000
 0.000000e+000 9.269642e-001 7.303575e-002 0.000000e+000 0.000000e+000 0.000000e+000 0.000000e+000 0.000000e+000 0.000000e+000 0.000000e+000
 0.000000e+000 0.000000e+000 7.300265e-001 2.699735e-001 0.000000e+000 0.000000e+000 0.000000e+000 0.000000e+000 0.000000e+000 0.000000e+000
 0.000000e+000 0.000000e+000 0.000000e+000 2.951898e-001 7.048103e-001 0.000000e+000 0.000000e+000 0.000000e+000 0.000000e+000 0.000000e+000
 0.000000e+000 0.000000e+000 0.000000e+000 0.000000e+000 6.403849e-001 3.596151e-001 0.000000e+000 0.000000e+000 0.000000e+000 0.000000e+000
 0.000000e+000 0.000000e+000 0.000000e+000 0.000000e+000 0.000000e+000 7.326440e-001 2.673559e-001 0.000000e+000 0.000000e+000 0.000000e+000
 0.000000e+000 0.000000e+000 0.000000e+000 0.000000e+000 0.000000e+000 0.000000e+000 8.953966e-001 1.046033e-001 0.000000e+000 0.000000e+000
 0.000000e+000 0.000000e+000 0.000000e+000 0.000000e+000 0.000000e+000 0.000000e+000 0.000000e+000 8.911022e-001 1.088978e-001 0.000000e+000
 0.000000e+000 0.000000e+000 0.000000e+000 0.000000e+000 0.000000e+000 0.000000e+000 0.000000e+000 0.000000e+000 9.621842e-001 3.781584e-002
 0.000000e+000 0.000000e+000 0.000000e+000 0.000000e+000 0.000000e+000 0.000000e+000 0.000000e+000 0.000000e+000 0.000000e+000 0.000000e+000
<ENDHMM>
~h "nula"
<BEGINHMM>
<NUMSTATES> 10
<STATE> 2
<MEAN> 39
 -2.251215e+001 -1.872116e+000 -6.377683e+000 2.818966e+000 -4.914821e+000 2.294474e+000 -9.690772e-001 1.763522e+000 1.223638e+000 -1.309402e-001 -3.350405e-001 2.563873e-001 3.938574e+001 1.093123e-001 -1.596435e-001 5.943823e-002 3.646152e-002 9.194883e-002 -6.119176e-002 1.798754e-003 -6.731765e-003 1.516128e-002 -3.104060e-002 -9.458418e-002 -5.101508e-002 2.482623e-001 1.422161e-001 5.544938e-002 1.029612e-001 4.489233e-002 -2.782102e-002 -1.536422e-002 -6.191928e-002 -6.651659e-002 -7.385133e-002 -6.268643e-002 -5.017618e-002 -5.537986e-002 8.912636e-002
<VARIANCE> 39
 2.811422e+001 6.648501e+001 1.658566e+001 2.451216e+001 2.758279e+001 4.903566e+001 2.565372e+001 4.935081e+001 3.909950e+001 2.655729e+001 2.774567e+001 2.067688e+001 1.074144e+002 4.791763e-001 1.147409e+000 9.251798e-001 1.161773e+000 1.737285e+000 1.860355e+000 1.698161e+000 2.468741e+000 1.910509e+000 1.809563e+000 1.892470e+000 1.691590e+000 8.063197e-001 1.547841e-001 2.300619e-001 2.243725e-001 2.518934e-001 3.764057e-001 3.762941e-001 3.386766e-001 4.220841e-001 3.312852e-001 3.342448e-001 3.727358e-001 3.387209e-001 1.775965e-001
<GCONST> 1.057084e+002
<STATE> 3
<MEAN> 39
 -1.696357e+001 -1.860324e+000 -8.459608e+000 -1.615835e+000 -7.356032e+000 -2.907094e+000 -5.736695e+000 -3.844710e+000 -4.534814e+000 -3.863551e+000 -3.962569e+000 -3.063329e+000 4.442354e+001 5.567294e-001 6.014418e-002 3.707109e-001 2.399593e-001 1.954270e-001 -9.918417e-002 -6.964743e-002 -2.034012e-001 -2.930625e-001 -1.609549e-001 -2.910191e-001 -1.909826e-001 6.064925e-001 3.411264e-001 2.811283e-001 2.330760e-001 8.324175e-002 -8.650072e-002 -1.109182e-002 -9.050478e-002 -1.398985e-001 -7.153632e-002 -4.759557e-002 -5.764801e-002 -5.498966e-002 2.573524e-001
<VARIANCE> 39
 2.400913e+001 1.812193e+001 3.004169e+001 2.238337e+001 1.784984e+001 3.204560e+001 1.924701e+001 1.902267e+001 2.639470e+001 2.527208e+001 2.100843e+001 1.773906e+001 1.023500e+002 1.976421e+000 1.898672e+000 1.840048e+000 2.213144e+000 1.909971e+000 3.057424e+000 2.062746e+000 1.979344e+000 2.071489e+000 1.989501e+000 1.993654e+000 1.331664e+000 3.141845e+000 6.842895e-001 3.939101e-001 4.248471e-001 4.619018e-001 4.880122e-001 6.197345e-001 4.794850e-001 4.047545e-001 4.957129e-001 4.310421e-001 4.245855e-001 2.965100e-001 7.952517e-001
<GCONST> 1.133837e+002
<STATE> 4
<MEAN> 39
 -1.768646e+001 -1.257826e+000 -4.548403e+000 2.132374e+000 -4.315365e+000 -6.879536e-001 -4.097080e+000 -3.492148e+000 -2.509602e+000 -2.405892e+000 -3.491670e+000 -3.016618e+000 4.574205e+001 3.179486e+000 2.136622e+000 2.216414e+000 9.303097e-001 -4.566816e-001 -6.619880e-001 -7.743408e-001 -1.180502e+000 -7.349899e-001 -4.213682e-001 -6.220774e-001 -6.560921e-001 2.407427e+000 1.077247e+000 2.488041e-001 2.283650e-001 -4.880500e-001 -8.673103e-001 -6.615869e-001 -4.379178e-001 -5.459218e-001 -3.110183e-001 -4.479290e-003 -2.956385e-001 -1.034418e-001 9.712917e-001
<VARIANCE> 39
 2.457061e+001 3.355948e+001 2.266214e+001 4.069888e+001 5.464156e+001 5.792774e+001 3.588291e+001 3.117005e+001 4.211766e+001 3.541671e+001 3.534887e+001 1.845041e+001 1.155476e+002 3.957102e+000 5.074823e+000 3.054094e+000 3.752369e+000 6.434096e+000 4.139257e+000 3.546669e+000 3.466839e+000 4.749215e+000 3.461708e+000 3.161140e+000 2.506141e+000 5.036014e+000 5.029734e-001 5.881474e-001 4.205286e-001 6.347235e-001 7.223234e-001 5.422999e-001 6.875952e-001 7.096401e-001 6.776696e-001 5.926129e-001 7.462863e-001 5.757092e-001 7.348236e-001
<GCONST> 1.302936e+002
<STATE> 5
<MEAN> 39
 -7.745582e+000 7.832603e+000 1.304769e+000 3.448253e+000 -6.717438e+000 -3.735082e+000 -7.121739e+000 -7.272370e+000 -6.169760e+000 -5.008016e+000 -5.062663e+000 -4.155601e+000 5.156683e+001 4.679572e+000 1.621004e+000 1.552644e+000 -8.296601e-001 -3.001218e+000 -2.166925e+000 -1.886227e+000 -2.213807e+000 -1.184780e+000 -2.733441e-001 -1.188543e+000 -5.861722e-001 4.074014e+000 -1.755123e-001 -1.123398e+000 -7.076117e-001 -7.889498e-001 -5.596131e-001 -1.832690e-001 -8.672353e-002 -1.491744e-002 1.035287e-001 2.897353e-001 -9.078393e-002 8.121176e-002 3.837458e-001
<VARIANCE> 39
 3.600002e+001 4.980091e+001 3.153598e+001 4.310794e+001 4.239751e+001 5.060578e+001 2.830621e+001 2.833757e+001 2.871114e+001 3.647290e+001 2.775558e+001 1.866997e+001 1.011169e+002 3.543045e+000 4.329017e+000 3.776264e+000 4.670810e+000 4.247512e+000 3.929993e+000 3.764229e+000 5.142581e+000 4.855770e+000 4.115737e+000 4.940711e+000 3.974043e+000 5.261347e+000 4.062184e-001 4.546225e-001 6.654080e-001 6.543245e-001 7.660159e-001 5.872846e-001 6.964377e-001 5.809846e-001 5.194446e-001 4.651030e-001 4.629426e-001 4.120173e-001 4.027599e-001
<GCONST> 1.293627e+002
<STATE> 6
<MEAN> 39
 8.234113e-002 3.437106e+000 8.062617e-001 -4.427300e+000 -1.645750e+001 -8.632437e+000 -1.054995e+001 -1.176536e+001 -8.765042e+000 -4.004489e+000 -8.953029e+000 -5.745443e+000 6.187840e+001 2.102766e+000 -1.564596e+000 1.501279e-001 -1.735978e+000 -1.499574e+000 -9.813774e-001 -7.480823e-001 -8.956764e-001 -4.210173e-001 4.435182e-001 -8.899786e-001 -2.460297e-001 3.523248e+000 -1.152849e+000 -6.524870e-001 -5.302063e-001 1.127936e-001 9.568894e-001 5.025599e-001 3.552523e-001 5.741515e-001 5.168386e-001 2.151578e-001 5.223532e-001 3.278892e-001 -7.409233e-001
<VARIANCE> 39
 2.774096e+001 8.498524e+001 6.741154e+001 1.077049e+002 8.286149e+001 9.904482e+001 7.220567e+001 9.678160e+001 6.574952e+001 6.401968e+001 6.189157e+001 4.060705e+001 1.005217e+002 4.736320e+000 3.492092e+000 5.653983e+000 6.461359e+000 8.164050e+000 6.540208e+000 5.819784e+000 7.249846e+000 4.850369e+000 4.289619e+000 5.309079e+000 4.414669e+000 4.458240e+000 5.387654e-001 7.778566e-001 5.467549e-001 1.097638e+000 9.221582e-001 1.071188e+000 9.872789e-001 1.468139e+000 9.877445e-001 6.963632e-001 7.981465e-001 6.514310e-001 6.318743e-001
<GCONST> 1.462819e+002
<STATE> 7
<MEAN> 39
 -1.021312e-001 -3.105427e+000 -6.991759e-001 -5.922250e+000 -1.447817e+001 -9.975966e+000 -1.322630e+001 -1.046519e+001 -7.000140e+000 -3.676657e+000 -6.834693e+000 -4.996395e+000 6.961617e+001 1.494904e-001 -8.615395e-001 -9.161869e-001 -1.024726e+000 6.563182e-001 6.309820e-001 -5.536029e-001 4.109740e-001 3.034543e-001 3.354711e-001 5.609345e-001 2.730623e-002 9.401432e-001 -7.054859e-002 2.361216e-001 -1.265537e-001 -1.228855e-001 1.243298e-001 2.371293e-001 1.482268e-001 7.100144e-002 -1.479814e-001 -8.401830e-002 1.350749e-001 1.829032e-002 -2.644400e-001
<VARIANCE> 39
 2.986919e+001 6.490674e+001 6.875043e+001 8.126925e+001 5.903277e+001 1.127505e+002 8.502501e+001 5.436843e+001 6.185247e+001 7.119271e+001 8.594257e+001 4.693850e+001 8.262833e+001 7.703708e-001 2.397352e+000 1.663367e+000 3.989180e+000 3.118303e+000 3.455290e+000 4.012452e+000 3.601249e+000 3.505229e+000 3.656233e+000 4.256584e+000 2.645942e+000 8.104932e-001 2.126584e-001 5.147503e-001 2.908816e-001 6.906310e-001 6.561139e-001 6.579261e-001 8.871552e-001 6.874189e-001 6.451556e-001 6.479251e-001 7.066851e-001 4.983056e-001 2.139709e-001
<GCONST> 1.299305e+002
<STATE> 8
<MEAN> 39
 9.131291e-001 -9.116977e+000 -9.361576e+000 -1.554013e+001 -6.302916e+000 7.095634e-001 -7.204354e+000 -7.805864e+000 -3.942778e+000 -2.444202e+000 -3.352056e+000 -4.072176e+000 6.997193e+001 -2.468191e-001 2.334442e-002 -2.220056e-001 2.261099e-002 1.520716e-001 2.022692e-001 2.242952e-001 8.360613e-002 5.817621e-002 -5.977422e-002 -9.014472e-002 -1.608072e-002 -3.416733e-001 -3.177753e-002 -1.143386e-002 3.027003e-002 7.829627e-002 2.217719e-003 -4.490468e-002 -5.649123e-003 1.001263e-003 2.961297e-002 -2.000812e-003 -3.952195e-002 -1.667531e-002 -2.111902e-002
<VARIANCE> 39
 5.196596e+001 8.773512e+001 7.007643e+001 9.337995e+001 1.188523e+002 1.469517e+002 1.027919e+002 8.903546e+001 8.129183e+001 6.757417e+001 1.006895e+002 5.170737e+001 1.197576e+002 1.028641e+000 1.718427e+000 1.529469e+000 2.932076e+000 3.489263e+000 3.130239e+000 3.440173e+000 3.597154e+000 3.254330e+000 3.120092e+000 2.702418e+000 2.375903e+000 1.304593e+000 1.178774e-001 2.155417e-001 2.478520e-001 4.874533e-001 5.016418e-001 5.218030e-001 5.819815e-001 6.329475e-001 5.759330e-001 5.682805e-001 5.083663e-001 4.146110e-001 1.219209e-001
<GCONST> 1.282490e+002
<STATE> 9
<MEAN> 39
 -5.367478e+000 -4.804813e+000 -1.385395e+001 -8.989278e+000 -3.271363e+000 4.221546e-002 -9.194445e+000 -7.335175e+000 -5.445235e+000 -4.851928e+000 -8.220828e+000 -4.863948e+000 6.124565e+001 -3.904831e-001 1.113720e-001 1.337137e-001 3.327872e-001 1.977961e-002 -5.709766e-002 1.478720e-001 7.484189e-002 -5.757940e-003 -5.193781e-002 1.251259e-001 1.275114e-001 -6.017285e-001 -4.974637e-003 -5.407246e-003 2.739282e-002 -1.750416e-003 -4.441160e-002 -2.255117e-002 -1.234604e-002 5.504515e-003 1.420637e-002 9.131932e-003 3.436584e-003 1.393690e-002 -2.553420e-003
<VARIANCE> 39
 4.404478e+001 5.555869e+001 6.523189e+001 6.305601e+001 5.702971e+001 5.191618e+001 5.826592e+001 4.864229e+001 4.761576e+001 6.056110e+001 5.335317e+001 3.418578e+001 2.130266e+002 5.335991e-001 7.870098e-001 1.053148e+000 1.401148e+000 1.574896e+000 1.510470e+000 2.008273e+000 1.807711e+000 2.163994e+000 2.092965e+000 1.687139e+000 1.471535e+000 5.132597e-001 5.378269e-002 1.025428e-001 1.614377e-001 2.253142e-001 2.495384e-001 2.631553e-001 3.506790e-001 3.256576e-001 3.671835e-001 3.566843e-001 2.997654e-001 2.516154e-001 3.429573e-002
<GCONST> 1.066145e+002
<TRANSP> 10
 0.000000e+000 1.000000e+000 0.000000e+000 0.000000e+000 0.000000e+000 0.000000e+000 0.000000e+000 0.000000e+000 0.000000e+000 0.000000e+000
 0.000000e+000 8.061801e-001 1.938199e-001 0.000000e+000 0.000000e+000 0.000000e+000 0.000000e+000 0.000000e+000 0.000000e+000 0.000000e+000
 0.000000e+000 0.000000e+000 6.938261e-001 3.061739e-001 0.000000e+000 0.000000e+000 0.000000e+000 0.000000e+000 0.000000e+000 0.000000e+000
 0.000000e+000 0.000000e+000 0.000000e+000 4.254804e-001 5.745196e-001 0.000000e+000 0.000000e+000 0.000000e+000 0.000000e+000 0.000000e+000
 0.000000e+000 0.000000e+000 0.000000e+000 0.000000e+000 2.988624e-001 7.011376e-001 0.000000e+000 0.000000e+000 0.000000e+000 0.000000e+000
 0.000000e+000 0.000000e+000 0.000000e+000 0.000000e+000 0.000000e+000 5.679184e-001 4.320816e-001 0.000000e+000 0.000000e+000 0.000000e+000
 0.000000e+000 0.000000e+000 0.000000e+000 0.000000e+000 0.000000e+000 0.000000e+000 8.642341e-001 1.357659e-001 0.000000e+000 0.000000e+000
 0.000000e+000 0.000000e+000 0.000000e+000 0.000000e+000 0.000000e+000 0.000000e+000 0.000000e+000 9.611714e-001 3.882863e-002 0.000000e+000
 0.000000e+000 0.000000e+000 0.000000e+000 0.000000e+000 0.000000e+000 0.000000e+000 0.000000e+000 0.000000e+000 9.607028e-001 3.929714e-002
 0.000000e+000 0.000000e+000 0.000000e+000 0.000000e+000 0.000000e+000 0.000000e+000 0.000000e+000 0.000000e+000 0.000000e+000 0.000000e+000
<ENDHMM>
~h "devet"
<BEGINHMM>
<NUMSTATES> 10
<STATE> 2
<MEAN> 39
 -2.163029e+001 -5.830216e+000 -6.034181e+000 1.914283e+000 -6.087209e+000 -3.368926e+000 3.166850e-001 6.490700e-001 -3.120872e+000 -1.150141e+000 3.637435e-001 -1.224550e-001 4.165268e+001 1.182892e-001 -1.002492e-001 1.673268e-003 -3.514604e-002 1.653898e-001 -4.423878e-003 5.800747e-002 3.314085e-002 -7.735731e-002 -1.619196e-003 -1.818748e-001 -6.306154e-002 2.246745e-001 1.020339e-001 1.285128e-001 1.185665e-001 6.012642e-002 7.730039e-003 -2.339999e-002 -4.307260e-002 -4.695046e-002 -3.129265e-002 -4.566183e-002 -3.596855e-002 -3.663515e-002 7.239410e-002
<VARIANCE> 39
 2.354102e+001 4.459459e+001 1.291142e+001 3.324961e+001 3.563950e+001 4.511775e+001 4.029994e+001 4.110159e+001 2.815282e+001 2.096081e+001 2.981938e+001 1.712541e+001 6.298500e+001 6.098551e-001 1.849446e+000 8.004725e-001 1.151983e+000 1.478304e+000 1.843781e+000 1.766912e+000 1.940743e+000 1.574633e+000 1.477966e+000 1.776928e+000 1.310344e+000 1.840837e+000 1.697740e-001 3.496746e-001 2.013178e-001 2.619827e-001 2.765337e-001 3.629234e-001 3.908808e-001 3.788176e-001 3.655169e-001 2.958289e-001 3.606156e-001 2.700554e-001 3.607629e-001
<GCONST> 1.052757e+002
<STATE> 3
<MEAN> 39
 -1.942742e+001 -2.308478e+000 -7.599678e+000 -1.767493e+000 -7.849602e+000 -3.630901e+000 -5.319691e+000 -4.081323e+000 -4.643757e+000 -3.835134e+000 -3.188199e+000 -2.829467e+000 4.515709e+001 6.960874e-001 5.575100e-001 7.903126e-001 6.771634e-001 6.348320e-001 1.312055e-001 -1.589268e-002 -1.515828e-001 -2.335719e-001 -7.630601e-002 -1.806289e-001 -1.873859e-001 5.972637e-001 6.375616e-001 5.890262e-001 4.606975e-001 1.143670e-001 -1.323968e-001 -1.832391e-001 -1.856165e-001 -2.226044e-001 -1.399017e-001 -1.139148e-001 -7.677792e-002 -5.536416e-002 2.603356e-001
<VARIANCE> 39
 2.995417e+001 3.372315e+001 2.589517e+001 2.947845e+001 3.340962e+001 4.051030e+001 3.507749e+001 2.802463e+001 3.560263e+001 2.635191e+001 2.655178e+001 2.165578e+001 1.084369e+002 2.440758e+000 3.748946e+000 2.399050e+000 2.690850e+000 2.688689e+000 2.637312e+000 3.228841e+000 2.607342e+000 2.667403e+000 2.473916e+000 2.183326e+000 2.174134e+000 5.384331e+000 6.621667e-001 6.658461e-001 5.025796e-001 6.081661e-001 6.708243e-001 6.191264e-001 5.777266e-001 5.521435e-001 5.545956e-001 4.580435e-001 5.116077e-001 3.977101e-001 1.280792e+000
<GCONST> 1.237736e+002
<STATE> 4
<MEAN> 39
 -1.778690e+001 -5.431923e-001 -5.508887e+000 8.105973e-001 -3.698788e+000 -1.881712e+000 -4.103065e+000 -2.480938e+000 -4.072821e+000 -3.746638e+000 -4.160026e+000 -3.242598e+000 4.505757e+001 3.080174e+000 2.880019e+000 2.478098e+000 9.861876e-001 -1.442995e-001 -9.557873e-001 -1.097864e+000 -1.079742e+000 -8.549216e-001 -6.991759e-001 -7.356705e-001 -5.964587e-001 1.763221e+000 1.022548e+000 5.458494e-001 3.327846e-001 -4.613982e-001 -9.214090e-001 -7.407953e-001 -4.370910e-001 -5.085789e-001 -2.935426e-001 -1.714684e-001 -6.610055e-002 1.539317e-002 7.774686e-001
<VARIANCE> 39
 2.089318e+001 1.849921e+001 1.600133e+001 3.332428e+001 2.760896e+001 3.597456e+001 2.774530e+001 2.880713e+001 2.517649e+001 2.070963e+001 1.857808e+001 2.132870e+001 1.008347e+002 2.739289e+000 2.889944e+000 2.843562e+000 5.761063e+000 4.016005e+000 4.042294e+000 3.147888e+000 3.215199e+000 3.549116e+000 3.041257e+000 3.567394e+000 2.361506e+000 7.849792e+000 5.214896e-001 3.949322e-001 2.417682e-001 4.569976e-001 3.933856e-001 5.127136e-001 3.895282e-001 5.446524e-001 4.304542e-001 3.970614e-001 4.698911e-001 5.040691e-001 6.804344e-001
<GCONST> 1.203611e+002
<STATE> 5
<MEAN> 39
 -1.130603e+001 7.746790e+000 1.361057e+000 5.651528e+000 -2.241215e+000 -1.354007e+000 -6.385011e+000 -5.081168e+000 -6.037689e+000 -5.160953e+000 -4.237637e+000 -3.457392e+000 4.790582e+001 4.096146e+000 2.969178e+000 2.135151e+000 -4.087470e-001 -2.077802e+000 -2.230083e+000 -1.591579e+000 -1.694538e+000 -1.106633e+000 -6.866523e-001 -4.839417e-001 -2.030219e-001 2.616204e+000 -7.297480e-003 -5.993125e-001 -5.078849e-001 -8.814703e-001 -9.338073e-001 -5.190558e-001 -5.267302e-004 1.137193e-001 1.594333e-001 1.070477e-001 6.914780e-002 1.603112e-001 3.180306e-001
<VARIANCE> 39
 2.523786e+001 6.999655e+001 4.199634e+001 8.716567e+001 3.634544e+001 6.634960e+001 3.055563e+001 2.942802e+001 2.102317e+001 2.733112e+001 2.362536e+001 1.797967e+001 1.134197e+002 4.703303e+000 3.804180e+000 3.008582e+000 6.384830e+000 5.368479e+000 4.224963e+000 2.459608e+000 3.840530e+000 3.760223e+000 3.321183e+000 3.918070e+000 3.082700e+000 9.632550e+000 5.062628e-001 4.818373e-001 4.924377e-001 6.448185e-001 5.132993e-001 8.013131e-001 6.884141e-001 6.558338e-001 6.124101e-001 6.260960e-001 6.079984e-001 4.899265e-001 6.457890e-001
<GCONST> 1.307249e+002
<STATE> 6
<MEAN> 39
 -2.846264e+000 1.137373e+001 2.197065e+000 -1.440566e-001 -1.106579e+001 -9.827032e+000 -1.129819e+001 -8.996679e+000 -7.506307e+000 -7.109179e+000 -7.417741e+000 -5.143209e+000 5.492852e+001 7.653198e-001 -4.565678e-001 3.436289e-001 -8.902647e-001 -7.027314e-001 -6.743760e-001 1.346944e-001 2.648075e-001 1.386565e-001 3.032226e-002 -1.627750e-001 2.496833e-002 1.637540e+000 -6.862513e-001 -1.141098e+000 -2.819814e-001 -3.540165e-001 2.173898e-001 1.189926e-001 3.353425e-001 5.163994e-001 2.790706e-001 2.736845e-001 2.227493e-001 2.711909e-001 3.361760e-001
<VARIANCE> 39
 2.030308e+001 4.975750e+001 2.836096e+001 5.923335e+001 4.877546e+001 4.475668e+001 3.717495e+001 5.928267e+001 4.312019e+001 3.013938e+001 3.120994e+001 2.455371e+001 1.086078e+002 5.361440e+000 6.028831e+000 1.890976e+000 4.076014e+000 5.040246e+000 3.969937e+000 3.054725e+000 4.238474e+000 3.425898e+000 2.615644e+000 2.924330e+000 2.433803e+000 5.295591e+000 4.776402e-001 7.337906e-001 3.641345e-001 7.857860e-001 7.625180e-001 8.083835e-001 6.732064e-001 8.958215e-001 7.124583e-001 5.832182e-001 6.178359e-001 4.626661e-001 8.796254e-001
<GCONST> 1.312565e+002
<STATE> 7
<MEAN> 39
 -3.858659e+000 -2.468637e+000 1.611710e+000 -9.332290e+000 -1.483481e+001 -1.446531e+001 -7.214748e+000 -3.015815e+000 -5.363039e+000 -4.829545e+000 -4.669143e+000 -1.160577e+000 6.808904e+001 1.526724e-001 -3.413883e+000 6.563227e-001 -2.161042e+000 -1.763051e+000 -1.789590e+000 1.351990e-001 1.579779e+000 1.105581e+000 9.612697e-001 3.269453e-001 6.031233e-001 3.784834e+000 -2.917364e-002 2.749149e-001 -4.782346e-002 3.451681e-001 3.926400e-002 3.527021e-001 1.198118e-001 3.626791e-002 1.154123e-001 -5.026396e-002 -1.324636e-001 -2.527089e-001 -5.469338e-001
<VARIANCE> 39
 5.808600e+001 1.033082e+002 9.917062e+001 8.519101e+001 8.990717e+001 8.465258e+001 8.038744e+001 1.307045e+002 8.818291e+001 5.884196e+001 5.282973e+001 3.894407e+001 1.492867e+002 4.723938e+000 7.107637e+000 4.279130e+000 6.055742e+000 8.000348e+000 5.853298e+000 8.063963e+000 7.125026e+000 6.249929e+000 5.362982e+000 5.717756e+000 4.388056e+000 5.314269e+000 1.036737e+000 1.242306e+000 7.559054e-001 1.102605e+000 1.672240e+000 1.464474e+000 9.469737e-001 1.122172e+000 9.765344e-001 9.744766e-001 1.003086e+000 7.490047e-001 1.314491e+000
<GCONST> 1.528413e+002
<STATE> 8
<MEAN> 39
 -3.349773e+000 -1.146718e+001 3.916862e+000 -1.064154e+001 -1.802095e+001 -1.382946e+001 -6.049330e+000 6.247571e-001 7.950007e-001 -2.864646e+000 -3.052496e+000 -2.937643e+000 7.202224e+001 -1.337523e-001 2.064227e-001 -2.710170e-001 1.446078e-001 6.817324e-002 1.865471e-001 1.864436e-001 -1.683968e-002 8.383423e-003 -2.842172e-002 -4.950084e-002 4.839923e-003 -4.336194e-001 -4.704249e-002 7.283668e-002 -2.749380e-002 3.837316e-002 5.930469e-002 2.826813e-002 -1.394777e-002 -4.161222e-002 -4.737033e-002 -2.399923e-002 1.179887e-002 1.456807e-003 -9.759450e-002
<VARIANCE> 39
 3.643736e+001 6.457500e+001 7.977193e+001 1.045066e+002 4.198577e+001 9.392150e+001 1.876969e+002 1.296041e+002 9.803179e+001 5.671306e+001 6.782275e+001 4.634641e+001 9.735686e+001 8.438429e-001 1.803651e+000 1.641788e+000 2.757138e+000 2.463174e+000 2.360779e+000 3.299091e+000 2.768211e+000 2.934649e+000 2.947079e+000 2.281447e+000 1.795093e+000 1.926277e+000 1.328972e-001 2.676369e-001 2.580168e-001 4.582228e-001 4.558851e-001 4.275104e-001 5.277583e-001 4.858959e-001 4.947081e-001 5.280549e-001 4.111048e-001 2.996364e-001 2.264688e-001
<GCONST> 1.248388e+002
<STATE> 9
<MEAN> 39
 -1.117745e+001 -4.225577e+000 -6.714526e+000 -6.799087e+000 -1.355872e+001 -9.033545e+000 -2.739186e+000 -1.730977e+000 -3.928170e+000 -3.590343e+000 -5.489553e+000 -1.262103e+000 5.871727e+001 -2.391197e-001 6.124691e-002 -1.595504e-001 1.533504e-001 2.535525e-001 2.397386e-001 -4.994862e-002 -7.438386e-002 -5.116972e-002 -3.318945e-002 8.198223e-002 -2.087258e-002 -5.075431e-001 1.636340e-002 -4.116745e-003 2.818563e-002 1.190192e-002 -5.077114e-004 -1.144938e-002 -2.028376e-002 -1.193406e-002 2.627042e-003 7.117469e-003 -2.334657e-003 -1.635377e-004 1.495890e-002
<VARIANCE> 39
