~o
<STREAMINFO> 1 16
<VECSIZE> 16<NULLD><FBANK><DIAGC>
~h "ctyri"
<BEGINHMM>
<NUMSTATES> 10
<STATE> 2
<MEAN> 16
 5.619450e+000 6.578997e+000 7.083413e+000 7.341255e+000 7.537267e+000 7.762268e+000 8.061046e+000 8.350868e+000 8.550061e+000 8.748060e+000 9.023614e+000 9.229011e+000 9.418414e+000 9.572396e+000 9.743463e+000 9.899950e+000
<VARIANCE> 16
 4.826869e-001 3.915333e-001 3.980141e-001 3.984018e-001 2.958197e-001 3.117222e-001 3.655315e-001 3.767388e-001 3.167644e-001 3.052535e-001 3.839574e-001 3.933465e-001 3.688720e-001 3.239556e-001 3.227669e-001 4.418248e-001
<GCONST> 1.323352e+001
<STATE> 3
<MEAN> 16
 4.152898e+000 4.772645e+000 5.345918e+000 5.706590e+000 5.990441e+000 6.176589e+000 6.486784e+000 7.029517e+000 7.767040e+000 8.759663e+000 9.580414e+000 9.940742e+000 1.012928e+001 1.021901e+001 1.031504e+001 1.012562e+001
<VARIANCE> 16
 1.579616e+000 1.824757e+000 2.217340e+000 2.074438e+000 1.800651e+000 1.717220e+000 1.865347e+000 2.212649e+000 2.478401e+000 2.938596e+000 3.260674e+000 3.377530e+000 3.226209e+000 3.094376e+000 2.381022e+000 1.711866e+000
<GCONST> 4.262778e+001
<STATE> 4
<MEAN> 16
 5.761027e+000 6.604636e+000 7.220524e+000 7.492881e+000 7.619489e+000 7.788657e+000 8.073941e+000 8.587633e+000 9.380922e+000 9.958356e+000 1.079372e+001 1.126926e+001 1.175238e+001 1.170148e+001 1.168464e+001 1.169350e+001
<VARIANCE> 16
 2.279072e+000 2.075584e+000 2.436873e+000 2.336618e+000 2.294894e+000 2.467243e+000 2.493168e+000 2.707009e+000 3.871620e+000 4.741357e+000 5.299884e+000 5.158608e+000 5.181820e+000 5.221348e+000 5.103755e+000 4.892250e+000
<GCONST> 4.907655e+001
<STATE> 5
<MEAN> 16
 5.414058e+000 6.072975e+000 6.793551e+000 7.206167e+000 7.466043e+000 7.722200e+000 8.104399e+000 8.762911e+000 9.756994e+000 1.061040e+001 1.115373e+001 1.114612e+001 1.126675e+001 1.122916e+001 1.096096e+001 1.042363e+001
<VARIANCE> 16
 1.489230e+000 1.440382e+000 1.626195e+000 1.588592e+000 1.371776e+000 1.590714e+000 1.958689e+000 2.246784e+000 3.012884e+000 4.074910e+000 3.867536e+000 3.409196e+000 3.246269e+000 3.343020e+000 2.942931e+000 2.518956e+000
<GCONST> 4.285483e+001
<STATE> 6
<MEAN> 16
 5.717440e+000 6.678682e+000 7.257742e+000 7.526595e+000 7.655709e+000 7.855306e+000 8.133399e+000 8.629963e+000 9.210607e+000 9.755755e+000 1.014716e+001 1.050056e+001 1.077967e+001 1.086976e+001 1.092411e+001 1.096353e+001
<VARIANCE> 16
 7.086864e-001 5.246777e-001 7.581668e-001 6.770135e-001 5.240809e-001 5.806779e-001 6.961516e-001 9.056661e-001 1.437447e+000 1.971457e+000 2.150947e+000 2.533052e+000 2.627521e+000 2.636031e+000 2.524921e+000 2.429913e+000
<GCONST> 3.258522e+001
<STATE> 7
<MEAN> 16
 6.272240e+000 7.300383e+000 7.906012e+000 8.162951e+000 8.288694e+000 8.505420e+000 8.885095e+000 9.471625e+000 1.004575e+001 1.074203e+001 1.122094e+001 1.154676e+001 1.182721e+001 1.187874e+001 1.189969e+001 1.198474e+001
<VARIANCE> 16
 7.309335e-001 7.723132e-001 9.435332e-001 8.051056e-001 6.714017e-001 7.260466e-001 8.940065e-001 1.119427e+000 1.422283e+000 2.005036e+000 2.341175e+000 2.417679e+000 2.324313e+000 2.444308e+000 2.418531e+000 2.693755e+000
<GCONST> 3.423425e+001
<STATE> 8
<MEAN> 16
 9.048426e+000 1.052248e+001 1.110896e+001 1.102297e+001 1.021482e+001 9.861779e+000 1.003732e+001 1.096848e+001 1.169498e+001 1.206587e+001 1.217935e+001 1.218541e+001 1.224720e+001 1.198971e+001 1.156704e+001 1.127059e+001
<VARIANCE> 16
 1.536111e+000 1.168076e+000 1.529529e+000 1.360491e+000 9.090834e-001 8.373558e-001 1.002166e+000 1.178096e+000 1.125032e+000 1.183764e+000 1.102332e+000 1.025432e+000 1.201990e+000 2.088710e+000 2.262340e+000 2.629264e+000
<GCONST> 3.372937e+001
<STATE> 9
<MEAN> 16
 6.859837e+000 7.926374e+000 8.156583e+000 8.068499e+000 7.750435e+000 7.598574e+000 7.570790e+000 8.009717e+000 8.643255e+000 8.967535e+000 8.998994e+000 8.832874e+000 8.997295e+000 9.083707e+000 9.081020e+000 9.215489e+000
<VARIANCE> 16
 1.871959e+000 1.402902e+000 1.224801e+000 1.184865e+000 7.995927e-001 7.075723e-001 7.993603e-001 9.625241e-001 7.522750e-001 8.303670e-001 7.374300e-001 8.736718e-001 9.725533e-001 1.005956e+000 9.934884e-001 9.408251e-001
<GCONST> 2.891266e+001
<TRANSP> 10
 0.000000e+000 1.000000e+000 0.000000e+000 0.000000e+000 0.000000e+000 0.000000e+000 0.000000e+000 0.000000e+000 0.000000e+000 0.000000e+000
 0.000000e+000 8.434185e-001 1.565815e-001 0.000000e+000 0.000000e+000 0.000000e+000 0.000000e+000 0.000000e+000 0.000000e+000 0.000000e+000
 0.000000e+000 0.000000e+000 7.553351e-001 2.446649e-001 0.000000e+000 0.000000e+000 0.000000e+000 0.000000e+000 0.000000e+000 0.000000e+000
 0.000000e+000 0.000000e+000 0.000000e+000 6.486218e-001 3.513782e-001 0.000000e+000 0.000000e+000 0.000000e+000 0.000000e+000 0.000000e+000
 0.000000e+000 0.000000e+000 0.000000e+000 0.000000e+000 6.806973e-001 3.193028e-001 0.000000e+000 0.000000e+000 0.000000e+000 0.000000e+000
 0.000000e+000 0.000000e+000 0.000000e+000 0.000000e+000 0.000000e+000 7.560844e-001 2.439157e-001 0.000000e+000 0.000000e+000 0.000000e+000
 0.000000e+000 0.000000e+000 0.000000e+000 0.000000e+000 0.000000e+000 0.000000e+000 7.991558e-001 2.008442e-001 0.000000e+000 0.000000e+000
 0.000000e+000 0.000000e+000 0.000000e+000 0.000000e+000 0.000000e+000 0.000000e+000 0.000000e+000 9.721724e-001 2.782758e-002 0.000000e+000
 0.000000e+000 0.000000e+000 0.000000e+000 0.000000e+000 0.000000e+000 0.000000e+000 0.000000e+000 0.000000e+000 9.454810e-001 5.451902e-002
 0.000000e+000 0.000000e+000 0.000000e+000 0.000000e+000 0.000000e+000 0.000000e+000 0.000000e+000 0.000000e+000 0.000000e+000 0.000000e+000
<ENDHMM>
~h "sedm"
<BEGINHMM>
<NUMSTATES> 10
<STATE> 2
<MEAN> 16
 5.637453e+000 6.404547e+000 6.903585e+000 7.283833e+000 7.530318e+000 7.775207e+000 8.043127e+000 8.308115e+000 8.404756e+000 8.534212e+000 8.708987e+000 8.878779e+000 9.073374e+000 9.259150e+000 9.455255e+000 9.585956e+000
<VARIANCE> 16
 4.572863e-001 3.822315e-001 2.628537e-001 2.231555e-001 1.902819e-001 1.834385e-001 1.979598e-001 1.674159e-001 1.222227e-001 1.050230e-001 8.135985e-002 9.616169e-002 1.132440e-001 1.641399e-001 1.738185e-001 2.024775e-001
<GCONST> 1.525521e+000
<STATE> 3
<MEAN> 16
 4.003711e+000 4.727022e+000 5.487181e+000 6.037769e+000 6.361629e+000 6.571941e+000 6.755666e+000 7.211308e+000 7.664907e+000 7.956362e+000 8.293572e+000 8.718145e+000 9.419386e+000 1.007009e+001 1.053983e+001 1.068518e+001
<VARIANCE> 16
 1.132977e+000 1.318803e+000 1.188545e+000 1.151784e+000 8.918850e-001 7.491590e-001 7.438693e-001 8.261002e-001 9.901888e-001 9.989268e-001 7.984250e-001 1.013587e+000 1.698368e+000 2.213437e+000 2.128598e+000 1.904998e+000
<GCONST> 3.173310e+001
<STATE> 4
<MEAN> 16
 5.329890e+000 6.281291e+000 6.900832e+000 7.224053e+000 7.405555e+000 7.635638e+000 7.921588e+000 8.334546e+000 8.561502e+000 8.699715e+000 9.011229e+000 9.371859e+000 9.997334e+000 1.069360e+001 1.108099e+001 1.127583e+001
<VARIANCE> 16
 1.088158e+000 1.719622e+000 1.393775e+000 1.151556e+000 7.981755e-001 5.015309e-001 5.778494e-001 5.695426e-001 7.003921e-001 9.076163e-001 7.545986e-001 9.091932e-001 1.330979e+000 1.713034e+000 1.815598e+000 2.213102e+000
<GCONST> 2.986405e+001
<STATE> 5
<MEAN> 16
 5.330382e+000 6.069550e+000 6.812453e+000 7.360306e+000 7.663238e+000 7.977606e+000 8.386539e+000 9.006096e+000 9.399818e+000 9.607777e+000 9.894837e+000 1.024927e+001 1.096125e+001 1.161926e+001 1.188584e+001 1.170858e+001
<VARIANCE> 16
 1.019394e+000 1.385794e+000 1.064641e+000 8.090502e-001 4.853419e-001 3.620556e-001 3.408243e-001 4.156035e-001 7.483780e-001 1.017895e+000 7.838965e-001 8.368120e-001 1.245504e+000 1.715079e+000 1.787595e+000 2.087581e+000
<GCONST> 2.729112e+001
<STATE> 6
<MEAN> 16
 6.202051e+000 6.945132e+000 7.703226e+000 8.158843e+000 8.407164e+000 8.713228e+000 9.196700e+000 9.780626e+000 1.002257e+001 1.032489e+001 1.068478e+001 1.129975e+001 1.209341e+001 1.280718e+001 1.318123e+001 1.315846e+001
<VARIANCE> 16
 4.742262e-001 3.911411e-001 3.871125e-001 3.695920e-001 2.557604e-001 2.419349e-001 2.881416e-001 2.963841e-001 4.316064e-001 5.895115e-001 5.393677e-001 7.218110e-001 9.955515e-001 1.296143e+000 1.463698e+000 1.922796e+000
<GCONST> 1.951151e+001
<STATE> 7
<MEAN> 16
 7.019259e+000 7.853427e+000 8.663475e+000 9.158179e+000 9.298232e+000 9.537351e+000 9.944021e+000 1.058487e+001 1.082074e+001 1.102879e+001 1.125815e+001 1.170021e+001 1.240102e+001 1.299648e+001 1.335919e+001 1.332466e+001
<VARIANCE> 16
 8.732120e-001 8.951091e-001 7.493517e-001 5.962811e-001 3.767854e-001 2.894892e-001 3.471068e-001 3.080672e-001 5.464932e-001 7.575843e-001 7.309517e-001 1.062745e+000 1.516777e+000 2.044775e+000 2.866004e+000 3.882377e+000
<GCONST> 2.630962e+001
<STATE> 8
<MEAN> 16
 9.322260e+000 1.076417e+001 1.122394e+001 1.112775e+001 1.059819e+001 1.048355e+001 1.059692e+001 1.080748e+001 1.080082e+001 1.099988e+001 1.112506e+001 1.103612e+001 1.074193e+001 1.046231e+001 1.022145e+001 1.032752e+001
<VARIANCE> 16
 1.070802e+000 6.199108e-001 1.065947e+000 1.533051e+000 1.397380e+000 1.251154e+000 1.243571e+000 1.683964e+000 1.760426e+000 1.662938e+000 1.709695e+000 1.533228e+000 1.653736e+000 2.110188e+000 1.809549e+000 1.866655e+000
<GCONST> 3.529006e+001
<STATE> 9
<MEAN> 16
 7.492578e+000 8.550246e+000 8.390302e+000 8.075292e+000 8.018459e+000 8.019447e+000 7.961778e+000 7.914554e+000 7.979199e+000 8.198626e+000 8.230698e+000 8.202734e+000 8.326611e+000 8.500701e+000 8.738627e+000 8.990897e+000
<VARIANCE> 16
 2.440791e+000 2.259067e+000 2.045739e+000 1.951802e+000 1.862553e+000 1.443693e+000 1.121646e+000 1.148145e+000 1.088288e+000 1.257758e+000 9.881405e-001 9.069479e-001 1.029533e+000 1.053821e+000 9.355944e-001 8.322502e-001
<GCONST> 3.377559e+001
<TRANSP> 10
 0.000000e+000 1.000000e+000 0.000000e+000 0.000000e+000 0.000000e+000 0.000000e+000 0.000000e+000 0.000000e+000 0.000000e+000 0.000000e+000
 0.000000e+000 9.324759e-001 6.752412e-002 0.000000e+000 0.000000e+000 0.000000e+000 0.000000e+000 0.000000e+000 0.000000e+000 0.000000e+000
 0.000000e+000 0.000000e+000 7.601923e-001 2.398076e-001 0.000000e+000 0.000000e+000 0.000000e+000 0.000000e+000 0.000000e+000 0.000000e+000
 0.000000e+000 0.000000e+000 0.000000e+000 5.162377e-001 4.837622e-001 0.000000e+000 0.000000e+000 0.000000e+000 0.000000e+000 0.000000e+000
 0.000000e+000 0.000000e+000 0.000000e+000 0.000000e+000 6.085705e-001 3.914295e-001 0.000000e+000 0.000000e+000 0.000000e+000 0.000000e+000
 0.000000e+000 0.000000e+000 0.000000e+000 0.000000e+000 0.000000e+000 8.061637e-001 1.938363e-001 0.000000e+000 0.000000e+000 0.000000e+000
 0.000000e+000 0.000000e+000 0.000000e+000 0.000000e+000 0.000000e+000 0.000000e+000 7.255880e-001 2.744120e-001 0.000000e+000 0.000000e+000
 0.000000e+000 0.000000e+000 0.000000e+000 0.000000e+000 0.000000e+000 0.000000e+000 0.000000e+000 9.704191e-001 2.958092e-002 0.000000e+000
 0.000000e+000 0.000000e+000 0.000000e+000 0.000000e+000 0.000000e+000 0.000000e+000 0.000000e+000 0.000000e+000 9.536527e-001 4.634730e-002
 0.000000e+000 0.000000e+000 0.000000e+000 0.000000e+000 0.000000e+000 0.000000e+000 0.000000e+000 0.000000e+000 0.000000e+000 0.000000e+000
<ENDHMM>
~h "sest"
<BEGINHMM>
<NUMSTATES> 10
<STATE> 2
<MEAN> 16
 3.880120e+000 4.472714e+000 5.028677e+000 5.485866e+000 5.689542e+000 5.917993e+000 6.161415e+000 7.027007e+000 8.301270e+000 9.162158e+000 9.580576e+000 9.639832e+000 9.720605e+000 9.793215e+000 9.930581e+000 9.857637e+000
<VARIANCE> 16
 7.372002e-001 9.772317e-001 1.031330e+000 9.401295e-001 7.911947e-001 7.016870e-001 8.644052e-001 1.132866e+000 8.167344e-001 9.125311e-001 6.254086e-001 6.940554e-001 7.768440e-001 8.010018e-001 7.231714e-001 6.423364e-001
<GCONST> 2.606809e+001
<STATE> 3
<MEAN> 16
 5.735868e+000 6.780374e+000 7.354747e+000 7.701497e+000 7.758947e+000 7.764163e+000 7.980491e+000 8.711396e+000 9.322267e+000 9.556992e+000 9.727636e+000 9.733728e+000 9.860176e+000 9.834508e+000 9.821413e+000 9.796079e+000
<VARIANCE> 16
 6.353970e-001 1.205319e+000 1.101947e+000 1.158613e+000 7.794536e-001 4.851514e-001 6.664971e-001 8.433378e-001 7.415808e-001 9.657753e-001 1.119531e+000 1.112169e+000 1.072775e+000 1.089958e+000 9.860825e-001 9.878092e-001
<GCONST> 2.785054e+001
<STATE> 4
<MEAN> 16
 5.529981e+000 6.345048e+000 7.037249e+000 7.379174e+000 7.438604e+000 7.567787e+000 8.078321e+000 9.344378e+000 1.032026e+001 1.085877e+001 1.121003e+001 1.122742e+001 1.114211e+001 1.105797e+001 1.092683e+001 1.061758e+001
<VARIANCE> 16
 8.270620e-001 1.356674e+000 1.716039e+000 1.972857e+000 1.559693e+000 9.787996e-001 8.091846e-001 5.924937e-001 4.783127e-001 8.406175e-001 1.021222e+000 1.375530e+000 1.205646e+000 1.303114e+000 1.583428e+000 1.552877e+000
<GCONST> 3.120882e+001
<STATE> 5
<MEAN> 16
 5.782049e+000 6.595157e+000 7.424419e+000 7.870113e+000 7.947215e+000 7.984276e+000 8.467728e+000 9.703365e+000 1.063253e+001 1.117590e+001 1.150825e+001 1.151965e+001 1.153868e+001 1.146319e+001 1.127016e+001 1.094095e+001
<VARIANCE> 16
 8.690577e-001 1.326471e+000 1.586226e+000 1.812696e+000 1.474052e+000 8.517228e-001 6.132438e-001 4.751663e-001 5.336673e-001 1.022921e+000 1.094516e+000 1.556704e+000 1.563028e+000 1.622336e+000 2.021261e+000 2.278897e+000
<GCONST> 3.198429e+001
<STATE> 6
<MEAN> 16
 5.986673e+000 6.525166e+000 7.245165e+000 7.692584e+000 7.887657e+000 8.100528e+000 8.703543e+000 9.919657e+000 1.104356e+001 1.187974e+001 1.240449e+001 1.246360e+001 1.259476e+001 1.260908e+001 1.241777e+001 1.196782e+001
<VARIANCE> 16
 4.486897e-001 5.171581e-001 6.572270e-001 7.607647e-001 7.294389e-001 4.774414e-001 4.096437e-001 4.242290e-001 5.141384e-001 7.446287e-001 7.689942e-001 8.739256e-001 9.599816e-001 1.176153e+000 1.447429e+000 2.360652e+000
<GCONST> 2.443987e+001
<STATE> 7
<MEAN> 16
 6.935879e+000 7.653569e+000 8.422988e+000 8.834871e+000 8.973474e+000 9.256881e+000 9.832185e+000 1.076202e+001 1.181845e+001 1.280613e+001 1.326145e+001 1.339123e+001 1.340778e+001 1.339538e+001 1.334598e+001 1.308515e+001
<VARIANCE> 16
 5.369601e-001 3.669364e-001 4.245458e-001 3.517067e-001 2.762155e-001 3.336070e-001 4.505954e-001 4.787244e-001 5.706030e-001 9.059253e-001 1.120698e+000 1.222443e+000 1.207432e+000 1.211671e+000 1.564307e+000 2.461194e+000
<GCONST> 2.334529e+001
<STATE> 8
<MEAN> 16
 8.815002e+000 1.002040e+001 1.074986e+001 1.139747e+001 1.123119e+001 1.078160e+001 1.105771e+001 1.183096e+001 1.200142e+001 1.213490e+001 1.217211e+001 1.207414e+001 1.202705e+001 1.189535e+001 1.168602e+001 1.149935e+001
<VARIANCE> 16
 1.708630e+000 1.570903e+000 1.776744e+000 2.044641e+000 2.012153e+000 1.295322e+000 1.168135e+000 1.370341e+000 1.437809e+000 1.380613e+000 1.352743e+000 1.172265e+000 1.187697e+000 1.875523e+000 2.489780e+000 3.239743e+000
<GCONST> 3.714713e+001
<STATE> 9
<MEAN> 16
 5.675295e+000 6.614651e+000 7.196293e+000 7.667706e+000 7.819481e+000 7.909067e+000 8.123723e+000 8.550095e+000 8.764729e+000 8.936973e+000 9.250219e+000 9.443690e+000 9.929342e+000 1.038237e+001 1.069728e+001 1.077363e+001
<VARIANCE> 16
 1.358986e+000 1.220455e+000 1.133000e+000 1.248440e+000 1.275123e+000 1.076402e+000 1.125164e+000 1.257778e+000 1.264718e+000 1.298743e+000 1.283695e+000 1.681881e+000 2.138583e+000 2.654278e+000 3.051474e+000 2.987436e+000
<GCONST> 3.613496e+001
<TRANSP> 10
 0.000000e+000 1.000000e+000 0.000000e+000 0.000000e+000 0.000000e+000 0.000000e+000 0.000000e+000 0.000000e+000 0.000000e+000 0.000000e+000
 0.000000e+000 6.719639e-001 3.280362e-001 0.000000e+000 0.000000e+000 0.000000e+000 0.000000e+000 0.000000e+000 0.000000e+000 0.000000e+000
 0.000000e+000 0.000000e+000 4.889744e-001 5.110256e-001 0.000000e+000 0.000000e+000 0.000000e+000 0.000000e+000 0.000000e+000 0.000000e+000
 0.000000e+000 0.000000e+000 0.000000e+000 2.697908e-001 7.302092e-001 0.000000e+000 0.000000e+000 0.000000e+000 0.000000e+000 0.000000e+000
 0.000000e+000 0.000000e+000 0.000000e+000 0.000000e+000 7.940912e-002 9.205909e-001 0.000000e+000 0.000000e+000 0.000000e+000 0.000000e+000
 0.000000e+000 0.000000e+000 0.000000e+000 0.000000e+000 0.000000e+000 7.500616e-001 2.499384e-001 0.000000e+000 0.000000e+000 0.000000e+000
 0.000000e+000 0.000000e+000 0.000000e+000 0.000000e+000 0.000000e+000 0.000000e+000 8.773492e-001 1.226508e-001 0.000000e+000 0.000000e+000
 0.000000e+000 0.000000e+000 0.000000e+000 0.000000e+000 0.000000e+000 0.000000e+000 0.000000e+000 9.549645e-001 4.503550e-002 0.000000e+000
 0.000000e+000 0.000000e+000 0.000000e+000 0.000000e+000 0.000000e+000 0.000000e+000 0.000000e+000 0.000000e+000 9.657891e-001 3.421085e-002
 0.000000e+000 0.000000e+000 0.000000e+000 0.000000e+000 0.000000e+000 0.000000e+000 0.000000e+000 0.000000e+000 0.000000e+000 0.000000e+000
<ENDHMM>
~h "dva"
<BEGINHMM>
<NUMSTATES> 10
<STATE> 2
<MEAN> 16
 5.972571e+000 6.579712e+000 7.061002e+000 7.397662e+000 7.625180e+000 7.868768e+000 8.102974e+000 8.351170e+000 8.427789e+000 8.539969e+000 8.694449e+000 8.832053e+000 8.980043e+000 9.121251e+000 9.291504e+000 9.401531e+000
<VARIANCE> 16
 2.753772e-001 2.882760e-001 2.048745e-001 1.643945e-001 1.202939e-001 1.261995e-001 1.412196e-001 1.492070e-001 1.135926e-001 1.018181e-001 1.076168e-001 1.312528e-001 1.477687e-001 1.642698e-001 1.346299e-001 1.125968e-001
<GCONST> -1.192862e+000
<STATE> 3
<MEAN> 16
 7.100761e+000 8.231923e+000 8.217836e+000 8.038097e+000 7.861457e+000 7.761222e+000 7.885270e+000 8.156204e+000 8.368562e+000 8.484148e+000 8.716942e+000 8.791080e+000 8.867348e+000 8.934260e+000 9.132803e+000 9.321245e+000
<VARIANCE> 16
 1.747310e+000 2.181627e+000 2.229645e+000 1.774260e+000 1.399388e+000 1.518053e+000 1.742455e+000 1.608229e+000 1.614885e+000 1.637937e+000 1.874840e+000 2.140955e+000 1.971467e+000 1.531525e+000 1.238989e+000 1.122151e+000
<GCONST> 3.770036e+001
<STATE> 4
<MEAN> 16
 7.419418e+000 8.158296e+000 7.873617e+000 7.520365e+000 7.060470e+000 6.886214e+000 7.024380e+000 7.115689e+000 7.150787e+000 7.330658e+000 7.454871e+000 7.582984e+000 7.667599e+000 7.902221e+000 8.325894e+000 8.732390e+000
<VARIANCE> 16
 2.512697e+000 2.585377e+000 2.707706e+000 2.334741e+000 1.779913e+000 1.488052e+000 1.383094e+000 1.320935e+000 1.458641e+000 1.359000e+000 1.417251e+000 1.470823e+000 1.381912e+000 1.088370e+000 8.521808e-001 7.818142e-001
<GCONST> 3.611880e+001
<STATE> 5
<MEAN> 16
 8.395472e+000 9.490762e+000 9.480351e+000 9.054280e+000 8.513332e+000 8.507682e+000 8.762998e+000 8.810536e+000 8.760444e+000 8.957833e+000 9.048319e+000 9.080238e+000 9.132417e+000 9.302622e+000 9.439655e+000 9.547200e+000
<VARIANCE> 16
 1.648562e+000 1.679120e+000 1.746195e+000 1.326609e+000 9.553984e-001 7.653847e-001 7.770651e-001 1.075231e+000 1.345653e+000 1.260593e+000 1.258411e+000 1.138448e+000 1.118558e+000 1.142797e+000 9.261498e-001 1.262819e+000
<GCONST> 3.206170e+001
<STATE> 6
<MEAN> 16
 7.692968e+000 8.883002e+000 9.140342e+000 9.692665e+000 1.008980e+001 1.004545e+001 9.901133e+000 9.372220e+000 8.776972e+000 8.748413e+000 8.755651e+000 8.410871e+000 8.518656e+000 8.440144e+000 8.544397e+000 8.697776e+000
<VARIANCE> 16
 1.169234e+000 1.431175e+000 1.087395e+000 9.235392e-001 7.637630e-001 6.800539e-001 5.348105e-001 4.847786e-001 6.482192e-001 7.319366e-001 8.954231e-001 1.351745e+000 1.211874e+000 1.306810e+000 7.330602e-001 5.534423e-001
<GCONST> 2.692311e+001
<STATE> 7
<MEAN> 16
 8.754560e+000 1.015614e+001 1.028968e+001 1.014969e+001 9.765885e+000 9.872024e+000 1.026316e+001 1.039817e+001 1.040423e+001 1.062796e+001 1.067022e+001 1.059587e+001 1.059954e+001 1.046851e+001 1.030858e+001 1.044977e+001
<VARIANCE> 16
 8.065386e-001 9.206318e-001 1.096833e+000 1.259429e+000 9.421411e-001 7.140684e-001 8.044326e-001 7.530429e-001 1.046746e+000 1.058141e+000 1.365571e+000 1.434220e+000 1.674029e+000 1.679753e+000 1.712525e+000 1.741088e+000
<GCONST> 3.143454e+001
<STATE> 8
<MEAN> 16
 9.177540e+000 1.040967e+001 1.080344e+001 1.159672e+001 1.207691e+001 1.220695e+001 1.226721e+001 1.183569e+001 1.133012e+001 1.150479e+001 1.160891e+001 1.137632e+001 1.119315e+001 1.088556e+001 1.072586e+001 1.060497e+001
<VARIANCE> 16
 1.148836e+000 6.891546e-001 1.145148e+000 1.492113e+000 1.580966e+000 1.362456e+000 1.207321e+000 1.359669e+000 1.384928e+000 1.712975e+000 2.049204e+000 1.887435e+000 1.875740e+000 2.058522e+000 2.120227e+000 2.473538e+000
<GCONST> 3.619590e+001
<STATE> 9
<MEAN> 16
 6.081706e+000 6.862869e+000 7.189683e+000 7.525410e+000 7.836211e+000 8.132842e+000 8.351694e+000 8.449147e+000 8.418129e+000 8.573982e+000 8.711634e+000 8.808493e+000 8.948472e+000 9.081614e+000 9.254248e+000 9.399083e+000
<VARIANCE> 16
 8.426946e-001 6.247044e-001 3.296342e-001 3.780119e-001 5.322211e-001 5.300752e-001 4.511637e-001 3.211713e-001 2.533936e-001 2.590440e-001 2.485659e-001 3.221838e-001 4.075474e-001 4.354237e-001 4.447829e-001 4.515330e-001
<GCONST> 1.490211e+001
<TRANSP> 10
 0.000000e+000 1.000000e+000 0.000000e+000 0.000000e+000 0.000000e+000 0.000000e+000 0.000000e+000 0.000000e+000 0.000000e+000 0.000000e+000
 0.000000e+000 9.354257e-001 6.457435e-002 0.000000e+000 0.000000e+000 0.000000e+000 0.000000e+000 0.000000e+000 0.000000e+000 0.000000e+000
 0.000000e+000 0.000000e+000 9.509265e-002 9.049073e-001 0.000000e+000 0.000000e+000 0.000000e+000 0.000000e+000 0.000000e+000 0.000000e+000
 0.000000e+000 0.000000e+000 0.000000e+000 6.696756e-001 3.303244e-001 0.000000e+000 0.000000e+000 0.000000e+000 0.000000e+000 0.000000e+000
 0.000000e+000 0.000000e+000 0.000000e+000 0.000000e+000 5.668709e-001 4.331292e-001 0.000000e+000 0.000000e+000 0.000000e+000 0.000000e+000
 0.000000e+000 0.000000e+000 0.000000e+000 0.000000e+000 0.000000e+000 7.545265e-001 2.454735e-001 0.000000e+000 0.000000e+000 0.000000e+000
 0.000000e+000 0.000000e+000 0.000000e+000 0.000000e+000 0.000000e+000 0.000000e+000 8.635352e-001 1.364648e-001 0.000000e+000 0.000000e+000
 0.000000e+000 0.000000e+000 0.000000e+000 0.000000e+000 0.000000e+000 0.000000e+000 0.000000e+000 9.585121e-001 4.148787e-002 0.000000e+000
 0.000000e+000 0.000000e+000 0.000000e+000 0.000000e+000 0.000000e+000 0.000000e+000 0.000000e+000 0.000000e+000 9.630224e-001 3.697759e-002
 0.000000e+000 0.000000e+000 0.000000e+000 0.000000e+000 0.000000e+000 0.000000e+000 0.000000e+000 0.000000e+000 0.000000e+000 0.000000e+000
<ENDHMM>
~h "osm"
<BEGINHMM>
<NUMSTATES> 10
<STATE> 2
<MEAN> 16
 5.699487e+000 6.501646e+000 6.966445e+000 7.323917e+000 7.582958e+000 7.838793e+000 8.073141e+000 8.286351e+000 8.385745e+000 8.539062e+000 8.735852e+000 8.900654e+000 9.070075e+000 9.227140e+000 9.416569e+000 9.554484e+000
<VARIANCE> 16
 3.734008e-001 2.578706e-001 2.155688e-001 2.257003e-001 2.208535e-001 1.958805e-001 1.689725e-001 2.007342e-001 1.730931e-001 1.271825e-001 1.228358e-001 1.419598e-001 1.630563e-001 1.922011e-001 1.904270e-001 2.081062e-001
<GCONST> 2.962069e+000
<STATE> 3
<MEAN> 16
 4.816894e+000 5.898919e+000 6.377015e+000 7.013276e+000 7.346327e+000 7.541233e+000 7.566689e+000 7.305779e+000 7.213729e+000 7.429466e+000 7.891328e+000 8.119186e+000 8.529487e+000 8.832700e+000 9.122350e+000 9.288819e+000
<VARIANCE> 16
 2.563156e+000 3.221470e+000 2.672328e+000 2.714043e+000 2.547702e+000 2.213851e+000 1.970303e+000 1.247658e+000 1.018129e+000 1.042507e+000 8.459672e-001 1.016217e+000 1.304946e+000 1.319828e+000 1.376759e+000 1.097816e+000
<GCONST> 3.699301e+001
<STATE> 4
<MEAN> 16
 6.705256e+000 7.835798e+000 8.467146e+000 9.002521e+000 9.060599e+000 9.282625e+000 9.376754e+000 9.190162e+000 9.273870e+000 9.732349e+000 1.041734e+001 1.076349e+001 1.107438e+001 1.132060e+001 1.112594e+001 1.084969e+001
<VARIANCE> 16
 2.073684e+000 2.364596e+000 2.353055e+000 2.942183e+000 2.824948e+000 2.102566e+000 1.475568e+000 8.285636e-001 7.709346e-001 8.834381e-001 9.753516e-001 1.848447e+000 1.873741e+000 2.363215e+000 2.066029e+000 2.125211e+000
<GCONST> 3.808623e+001
<STATE> 5
<MEAN> 16
 8.523577e+000 1.024308e+001 1.081795e+001 1.168073e+001 1.141964e+001 1.130056e+001 1.084793e+001 9.858826e+000 9.750358e+000 1.039179e+001 1.072170e+001 1.075726e+001 1.073621e+001 1.035717e+001 1.024380e+001 9.977261e+000
<VARIANCE> 16
 1.210671e+000 6.008450e-001 6.657782e-001 7.450197e-001 1.133095e+000 1.221140e+000 1.092329e+000 1.071829e+000 9.040039e-001 9.191033e-001 1.084293e+000 1.398018e+000 1.481679e+000 1.725914e+000 1.226506e+000 7.929025e-001
<GCONST> 3.001081e+001
<STATE> 6
<MEAN> 16
 8.319464e+000 9.580523e+000 1.011220e+001 1.070453e+001 1.061358e+001 1.027353e+001 9.606801e+000 8.659897e+000 8.310688e+000 8.623888e+000 9.304948e+000 9.837959e+000 1.010487e+001 1.005545e+001 1.039409e+001 1.056627e+001
<VARIANCE> 16
 2.486017e+000 2.780246e+000 2.534770e+000 2.339584e+000 2.166642e+000 1.995409e+000 1.722063e+000 1.866432e+000 1.738377e+000 2.154663e+000 2.765409e+000 3.901522e+000 3.796086e+000 4.360104e+000 4.033735e+000 2.965595e+000
<GCONST> 4.473828e+001
<STATE> 7
<MEAN> 16
 9.509708e+000 1.076989e+001 1.143388e+001 1.198913e+001 1.206238e+001 1.206923e+001 1.159184e+001 1.092884e+001 1.081649e+001 1.145689e+001 1.180799e+001 1.185782e+001 1.162981e+001 1.137850e+001 1.107064e+001 1.092219e+001
<VARIANCE> 16
 1.216702e+000 9.360003e-001 1.132065e+000 1.329042e+000 1.461584e+000 1.478459e+000 1.368457e+000 1.248065e+000 1.478628e+000 2.050977e+000 1.928317e+000 1.870799e+000 2.134308e+000 2.057108e+000 2.040391e+000 2.242290e+000
<GCONST> 3.664287e+001
<STATE> 8
<MEAN> 16
 8.506154e+000 9.721078e+000 1.010347e+001 1.002016e+001 9.918861e+000 1.015590e+001 1.024337e+001 1.028087e+001 1.037161e+001 1.084904e+001 1.117257e+001 1.135825e+001 1.148876e+001 1.144724e+001 1.134401e+001 1.134636e+001
<VARIANCE> 16
 2.137413e+000 2.604808e+000 2.252985e+000 1.573069e+000 1.280439e+000 9.984037e-001 7.282410e-001 6.631039e-001 6.018394e-001 6.862203e-001 1.064986e+000 1.541289e+000 2.652606e+000 3.316315e+000 3.492565e+000 3.768183e+000
<GCONST> 3.626881e+001
<STATE> 9
<MEAN> 16
 7.042405e+000 7.990892e+000 7.897054e+000 7.652928e+000 7.667084e+000 7.930169e+000 8.140281e+000 8.244228e+000 8.332091e+000 8.663298e+000 8.740816e+000 8.775439e+000 8.959661e+000 9.163158e+000 9.375675e+000 9.500228e+000
<VARIANCE> 16
 2.370878e+000 2.411320e+000 1.357406e+000 7.404586e-001 5.883905e-001 6.167048e-001 6.266626e-001 6.491563e-001 5.481731e-001 5.640355e-001 4.408397e-001 5.116667e-001 5.926187e-001 6.601136e-001 6.579363e-001 7.520896e-001
<GCONST> 2.493635e+001
<TRANSP> 10
 0.000000e+000 1.000000e+000 0.000000e+000 0.000000e+000 0.000000e+000 0.000000e+000 0.000000e+000 0.000000e+000 0.000000e+000 0.000000e+000
 0.000000e+000 9.381431e-001 6.185691e-002 0.000000e+000 0.000000e+000 0.000000e+000 0.000000e+000 0.000000e+000 0.000000e+000 0.000000e+000
 0.000000e+000 0.000000e+000 8.291394e-001 1.708606e-001 0.000000e+000 0.000000e+000 0.000000e+000 0.000000e+000 0.000000e+000 0.000000e+000
 0.000000e+000 0.000000e+000 0.000000e+000 8.165391e-001 1.834610e-001 0.000000e+000 0.000000e+000 0.000000e+000 0.000000e+000 0.000000e+000
 0.000000e+000 0.000000e+000 0.000000e+000 0.000000e+000 7.415169e-001 2.584831e-001 0.000000e+000 0.000000e+000 0.000000e+000 0.000000e+000
 0.000000e+000 0.000000e+000 0.000000e+000 0.000000e+000 0.000000e+000 8.244969e-001 1.755030e-001 0.000000e+000 0.000000e+000 0.000000e+000
 0.000000e+000 0.000000e+000 0.000000e+000 0.000000e+000 0.000000e+000 0.000000e+000 7.927640e-001 2.072359e-001 0.000000e+000 0.000000e+000
 0.000000e+000 0.000000e+000 0.000000e+000 0.000000e+000 0.000000e+000 0.000000e+000 0.000000e+000 9.672048e-001 3.279521e-002 0.000000e+000
 0.000000e+000 0.000000e+000 0.000000e+000 0.000000e+000 0.000000e+000 0.000000e+000 0.000000e+000 0.000000e+000 9.516943e-001 4.830577e-002
 0.000000e+000 0.000000e+000 0.000000e+000 0.000000e+000 0.000000e+000 0.000000e+000 0.000000e+000 0.000000e+000 0.000000e+000 0.000000e+000
<ENDHMM>
~h "pet"
<BEGINHMM>
<NUMSTATES> 10
<STATE> 2
<MEAN> 16
 3.866543e+000 5.115458e+000 5.606377e+000 5.801796e+000 5.999392e+000 6.263860e+000 6.476280e+000 6.735675e+000 6.984287e+000 7.186856e+000 7.450657e+000 7.649680e+000 7.962356e+000 8.294066e+000 8.467161e+000 8.662762e+000
<VARIANCE> 16
 5.195620e-001 4.807688e-001 4.419148e-001 3.948347e-001 3.149022e-001 3.323965e-001 2.953548e-001 2.772455e-001 2.403108e-001 2.503839e-001 2.316608e-001 2.408325e-001 2.164152e-001 2.019031e-001 2.284599e-001 2.922304e-001
<GCONST> 9.979770e+000
<STATE> 3
<MEAN> 16
 5.794696e+000 6.528961e+000 7.047134e+000 7.364743e+000 7.580015e+000 7.808444e+000 8.058763e+000 8.335679e+000 8.473637e+000 8.589492e+000 8.743265e+000 8.888443e+000 9.051834e+000 9.200160e+000 9.354442e+000 9.479134e+000
<VARIANCE> 16
 3.198164e-001 3.017175e-001 2.787909e-001 1.941627e-001 1.514518e-001 1.305346e-001 1.420275e-001 1.669430e-001 1.568039e-001 1.242118e-001 1.025247e-001 9.650980e-002 1.123249e-001 1.323781e-001 1.436936e-001 1.583908e-001
<GCONST> -5.953860e-002
<STATE> 4
<MEAN> 16
 6.892366e+000 8.362415e+000 9.074512e+000 9.077814e+000 8.543388e+000 8.166687e+000 8.187830e+000 8.669748e+000 9.393024e+000 9.755296e+000 9.791874e+000 9.615169e+000 9.652610e+000 9.452637e+000 9.134038e+000 9.294109e+000
<VARIANCE> 16
 1.538512e+000 1.525470e+000 2.005582e+000 1.651664e+000 1.057001e+000 7.330477e-001 1.053617e+000 1.576520e+000 1.435777e+000 1.341004e+000 1.156579e+000 9.659930e-001 1.227952e+000 1.672133e+000 2.072662e+000 2.026029e+000
<GCONST> 3.462955e+001
<STATE> 5
<MEAN> 16
 7.668028e+000 9.183978e+000 9.825315e+000 9.954946e+000 9.531519e+000 9.129735e+000 9.281555e+000 1.008825e+001 1.068233e+001 1.090130e+001 1.099042e+001 1.072627e+001 1.076261e+001 1.051823e+001 1.014329e+001 9.986087e+000
<VARIANCE> 16
 1.799373e+000 1.979527e+000 1.907630e+000 1.409789e+000 1.095487e+000 6.770656e-001 9.527984e-001 1.288835e+000 1.362795e+000 1.579895e+000 1.523185e+000 1.484536e+000 1.442008e+000 2.181916e+000 2.217068e+000 2.123220e+000
<GCONST> 3.585039e+001
<STATE> 6
<MEAN> 16
 8.407898e+000 9.923817e+000 1.055105e+001 1.064595e+001 9.984927e+000 9.532966e+000 9.661249e+000 1.058857e+001 1.129635e+001 1.155949e+001 1.160408e+001 1.126348e+001 1.107877e+001 1.063110e+001 1.013439e+001 1.014650e+001
<VARIANCE> 16
 1.665774e+000 1.912927e+000 2.030402e+000 1.371644e+000 9.365104e-001 7.702185e-001 1.050187e+000 1.294541e+000 1.406541e+000 1.797129e+000 1.778571e+000 1.701885e+000 1.747589e+000 2.648116e+000 2.712667e+000 2.384280e+000
<GCONST> 3.700343e+001
<STATE> 7
<MEAN> 16
 8.874639e+000 1.051367e+001 1.120533e+001 1.130564e+001 1.016123e+001 9.644308e+000 9.731313e+000 1.062972e+001 1.141337e+001 1.218319e+001 1.250070e+001 1.222042e+001 1.184028e+001 1.139123e+001 1.063978e+001 1.035315e+001
<VARIANCE> 16
 1.782535e+000 1.156242e+000 1.534099e+000 8.283903e-001 6.493114e-001 5.572169e-001 7.425637e-001 9.981611e-001 1.195855e+000 1.234106e+000 1.335559e+000 1.214457e+000 1.353763e+000 2.172637e+000 1.717014e+000 1.439392e+000
<GCONST> 3.190928e+001
<STATE> 8
<MEAN> 16
 9.308720e+000 1.073409e+001 1.157963e+001 1.219458e+001 1.191093e+001 1.125490e+001 1.136587e+001 1.218593e+001 1.266477e+001 1.284881e+001 1.272483e+001 1.240749e+001 1.208878e+001 1.177105e+001 1.151374e+001 1.137856e+001
<VARIANCE> 16
 1.096883e+000 6.232700e-001 8.431367e-001 6.495177e-001 8.278540e-001 6.396788e-001 6.364539e-001 8.936468e-001 9.952106e-001 1.302536e+000 1.335608e+000 1.313282e+000 1.415498e+000 2.049987e+000 2.060343e+000 2.887766e+000
<GCONST> 3.089368e+001
<STATE> 9
<MEAN> 16
 6.010350e+000 7.110238e+000 7.762379e+000 8.223646e+000 8.192671e+000 8.097034e+000 8.235313e+000 8.716129e+000 8.904175e+000 8.936108e+000 9.042777e+000 9.004822e+000 9.190574e+000 9.333796e+000 9.495437e+000 9.673547e+000
<VARIANCE> 16
 1.609539e+000 1.462534e+000 1.323402e+000 1.356948e+000 1.247054e+000 1.051813e+000 1.094843e+000 1.247256e+000 1.158096e+000 1.009399e+000 9.568255e-001 1.114092e+000 1.345747e+000 1.479535e+000 1.568007e+000 1.565887e+000
<GCONST> 3.323743e+001
<TRANSP> 10
 0.000000e+000 1.000000e+000 0.000000e+000 0.000000e+000 0.000000e+000 0.000000e+000 0.000000e+000 0.000000e+000 0.000000e+000 0.000000e+000
 0.000000e+000 9.391305e-001 6.086944e-002 0.000000e+000 0.000000e+000 0.000000e+000 0.000000e+000 0.000000e+000 0.000000e+000 0.000000e+000
 0.000000e+000 0.000000e+000 9.429908e-001 5.700920e-002 0.000000e+000 0.000000e+000 0.000000e+000 0.000000e+000 0.000000e+000 0.000000e+000
 0.000000e+000 0.000000e+000 0.000000e+000 5.746840e-001 4.253160e-001 0.000000e+000 0.000000e+000 0.000000e+000 0.000000e+000 0.000000e+000
 0.000000e+000 0.000000e+000 0.000000e+000 0.000000e+000 3.331966e-001 6.668034e-001 0.000000e+000 0.000000e+000 0.000000e+000 0.000000e+000
 0.000000e+000 0.000000e+000 0.000000e+000 0.000000e+000 0.000000e+000 1.556897e-001 8.443103e-001 0.000000e+000 0.000000e+000 0.000000e+000
 0.000000e+000 0.000000e+000 0.000000e+000 0.000000e+000 0.000000e+000 0.000000e+000 7.331410e-001 2.668590e-001 0.000000e+000 0.000000e+000
 0.000000e+000 0.000000e+000 0.000000e+000 0.000000e+000 0.000000e+000 0.000000e+000 0.000000e+000 9.363918e-001 6.360812e-002 0.000000e+000
 0.000000e+000 0.000000e+000 0.000000e+000 0.000000e+000 0.000000e+000 0.000000e+000 0.000000e+000 0.000000e+000 9.593802e-001 4.061978e-002
 0.000000e+000 0.000000e+000 0.000000e+000 0.000000e+000 0.000000e+000 0.000000e+000 0.000000e+000 0.000000e+000 0.000000e+000 0.000000e+000
<ENDHMM>
~h "sil"
<BEGINHMM>
<NUMSTATES> 5
<STATE> 2
<MEAN> 16
 2.200824e+000 2.823238e+000 3.186457e+000 3.583723e+000 3.850011e+000 3.993200e+000 4.125222e+000 4.432896e+000 4.956450e+000 5.400024e+000 5.747829e+000 6.004412e+000 6.120440e+000 6.641697e+000 7.542436e+000 8.190450e+000
<VARIANCE> 16
 5.501782e+000 6.546033e+000 6.532790e+000 6.569664e+000 5.819770e+000 5.337436e+000 5.307057e+000 4.870909e+000 3.748268e+000 3.008952e+000 2.448100e+000 2.084882e+000 2.176547e+000 1.600994e+000 8.210188e-001 5.263086e-001
<GCONST> 4.789978e+001
<STATE> 3
<MEAN> 16
 3.230831e+000 4.061563e+000 4.463305e+000 4.750787e+000 5.037945e+000 5.350843e+000 5.620958e+000 5.938297e+000 6.219362e+000 6.468352e+000 6.754069e+000 7.010228e+000 7.302743e+000 7.670015e+000 8.076156e+000 8.487700e+000
<VARIANCE> 16
 6.197277e-001 8.678628e-001 8.666887e-001 7.439441e-001 6.544824e-001 5.999025e-001 5.459110e-001 5.365114e-001 4.841548e-001 4.205342e-001 3.875144e-001 3.621786e-001 3.622968e-001 4.209619e-001 4.373529e-001 5.047703e-001
<GCONST> 1.923773e+001
<STATE> 4
<MEAN> 16
 4.985295e+000 6.130387e+000 6.543998e+000 6.782629e+000 7.000261e+000 7.263687e+000 7.517553e+000 7.763702e+000 7.936144e+000 8.135244e+000 8.350733e+000 8.553239e+000 8.776818e+000 9.001170e+000 9.238472e+000 9.438467e+000
<VARIANCE> 16
 1.008125e+000 6.947913e-001 6.353273e-001 6.465234e-001 6.352387e-001 6.195412e-001 6.294426e-001 6.103443e-001 5.146987e-001 4.522979e-001 4.066819e-001 3.925367e-001 3.888729e-001 3.714029e-001 3.426824e-001 3.581588e-001
<GCONST> 1.894590e+001
<TRANSP> 5
 0.000000e+000 1.000000e+000 0.000000e+000 0.000000e+000 0.000000e+000
 0.000000e+000 8.945072e-001 1.054928e-001 0.000000e+000 0.000000e+000
 0.000000e+000 0.000000e+000 9.663951e-001 3.360480e-002 0.000000e+000
 0.000000e+000 0.000000e+000 0.000000e+000 9.456213e-001 5.437871e-002
 0.000000e+000 0.000000e+000 0.000000e+000 0.000000e+000 0.000000e+000
<ENDHMM>
~h "tri"
<BEGINHMM>
<NUMSTATES> 10
<STATE> 2
<MEAN> 16
 4.451359e+000 5.474661e+000 6.164983e+000 6.604806e+000 6.773820e+000 6.885588e+000 6.836135e+000 7.226095e+000 7.868884e+000 8.239566e+000 8.741583e+000 9.119559e+000 9.462408e+000 9.712602e+000 9.930099e+000 9.888137e+000
<VARIANCE> 16
 8.605828e-001 1.205026e+000 1.184559e+000 1.140191e+000 1.098832e+000 1.097337e+000 1.387398e+000 1.403808e+000 1.233589e+000 1.267413e+000 1.215448e+000 1.391892e+000 1.507053e+000 1.504086e+000 1.306304e+000 9.914485e-001
<GCONST> 3.264634e+001
<STATE> 3
<MEAN> 16
 5.601494e+000 6.664834e+000 7.297934e+000 7.603158e+000 7.757924e+000 8.026683e+000 8.259705e+000 8.609154e+000 8.793169e+000 9.121813e+000 9.400876e+000 9.526956e+000 9.792390e+000 1.008871e+001 1.019361e+001 1.021935e+001
<VARIANCE> 16
 6.332331e-001 7.815759e-001 8.253939e-001 7.802423e-001 6.727911e-001 7.907312e-001 9.164345e-001 8.055086e-001 7.571646e-001 9.512091e-001 9.575804e-001 8.938724e-001 9.509054e-001 1.122629e+000 9.627192e-001 8.882772e-001
<GCONST> 2.675310e+001
<STATE> 4
<MEAN> 16
 6.590088e+000 7.936124e+000 9.004976e+000 9.297323e+000 9.242776e+000 9.208634e+000 9.374290e+000 9.857118e+000 1.025265e+001 1.032267e+001 1.057150e+001 1.066580e+001 1.086695e+001 1.099303e+001 1.091891e+001 1.076441e+001
<VARIANCE> 16
 1.050187e+000 1.372078e+000 1.265442e+000 1.174792e+000 1.000437e+000 1.423590e+000 1.912761e+000 1.655472e+000 1.367726e+000 1.632526e+000 1.367851e+000 1.846311e+000 2.296627e+000 2.730017e+000 2.812640e+000 2.691405e+000
<GCONST> 3.726373e+001
<STATE> 5
<MEAN> 16
 6.990502e+000 8.361930e+000 9.513325e+000 9.767529e+000 9.673775e+000 9.724400e+000 9.893774e+000 1.042584e+001 1.088833e+001 1.097338e+001 1.124287e+001 1.147269e+001 1.174155e+001 1.180864e+001 1.176810e+001 1.167405e+001
<VARIANCE> 16
 9.088600e-001 1.191036e+000 1.099667e+000 1.067447e+000 1.045150e+000 1.569675e+000 1.919821e+000 1.311569e+000 1.009135e+000 1.220009e+000 1.074442e+000 1.695132e+000 2.287675e+000 2.827120e+000 3.440996e+000 3.372139e+000
<GCONST> 3.618967e+001
<STATE> 6
<MEAN> 16
 6.498873e+000 7.168836e+000 7.995797e+000 8.303205e+000 8.430993e+000 8.510407e+000 8.869216e+000 9.782046e+000 1.017783e+001 1.036859e+001 1.125580e+001 1.215006e+001 1.277619e+001 1.287166e+001 1.263142e+001 1.212867e+001
<VARIANCE> 16
 6.708198e-001 1.255644e+000 1.859994e+000 1.933095e+000 1.554873e+000 1.592830e+000 1.658983e+000 1.014205e+000 9.952107e-001 1.335886e+000 7.767245e-001 1.157150e+000 1.289143e+000 1.445665e+000 1.609121e+000 2.042245e+000
<GCONST> 3.393171e+001
<STATE> 7
<MEAN> 16
 7.109697e+000 7.751397e+000 8.427416e+000 8.756163e+000 8.877532e+000 9.161608e+000 9.639890e+000 1.038590e+001 1.096361e+001 1.153403e+001 1.222503e+001 1.300336e+001 1.366355e+001 1.385815e+001 1.373781e+001 1.348602e+001
<VARIANCE> 16
 7.873055e-001 6.376233e-001 6.176410e-001 5.656244e-001 4.228916e-001 4.691431e-001 5.810898e-001 5.567307e-001 5.021748e-001 7.849717e-001 8.578395e-001 1.066718e+000 1.009365e+000 1.131884e+000 1.490966e+000 2.507883e+000
<GCONST> 2.535160e+001
<STATE> 8
<MEAN> 16
 9.226563e+000 1.070795e+001 1.139991e+001 1.135714e+001 1.044499e+001 1.000544e+001 1.006517e+001 1.095667e+001 1.181370e+001 1.234348e+001 1.233782e+001 1.205587e+001 1.188963e+001 1.156831e+001 1.104990e+001 1.083153e+001
<VARIANCE> 16
 1.466874e+000 8.074198e-001 1.271169e+000 1.137141e+000 8.929109e-001 9.194459e-001 1.261222e+000 1.818354e+000 1.754192e+000 1.447618e+000 1.525025e+000 1.361120e+000 1.306669e+000 2.035562e+000 1.685348e+000 2.259641e+000
<GCONST> 3.455414e+001
<STATE> 9
<MEAN> 16
 6.222553e+000 7.078476e+000 7.452306e+000 7.587221e+000 7.592662e+000 7.707483e+000 7.884143e+000 8.157148e+000 8.486333e+000 8.780914e+000 8.859106e+000 8.858548e+000 8.999310e+000 9.129077e+000 9.232053e+000 9.370569e+000
<VARIANCE> 16
 1.131642e+000 9.414144e-001 7.584892e-001 4.854566e-001 2.924468e-001 2.945258e-001 3.568361e-001 3.963502e-001 3.121675e-001 3.635393e-001 3.196968e-001 3.097098e-001 3.557026e-001 4.528649e-001 4.930802e-001 4.875853e-001
<GCONST> 1.632266e+001
<TRANSP> 10
 0.000000e+000 1.000000e+000 0.000000e+000 0.000000e+000 0.000000e+000 0.000000e+000 0.000000e+000 0.000000e+000 0.000000e+000 0.000000e+000
 0.000000e+000 7.076091e-001 2.923909e-001 0.000000e+000 0.000000e+000 0.000000e+000 0.000000e+000 0.000000e+000 0.000000e+000 0.000000e+000
 0.000000e+000 0.000000e+000 7.157447e-001 2.842553e-001 0.000000e+000 0.000000e+000 0.000000e+000 0.000000e+000 0.000000e+000 0.000000e+000
 0.000000e+000 0.000000e+000 0.000000e+000 1.996346e-001 8.003654e-001 0.000000e+000 0.000000e+000 0.000000e+000 0.000000e+000 0.000000e+000
 0.000000e+000 0.000000e+000 0.000000e+000 0.000000e+000 3.494141e-001 6.505859e-001 0.000000e+000 0.000000e+000 0.000000e+000 0.000000e+000
 0.000000e+000 0.000000e+000 0.000000e+000 0.000000e+000 0.000000e+000 6.342825e-001 3.657176e-001 0.000000e+000 0.000000e+000 0.000000e+000
 0.000000e+000 0.000000e+000 0.000000e+000 0.000000e+000 0.000000e+000 0.000000e+000 8.830538e-001 1.169463e-001 0.000000e+000 0.000000e+000
 0.000000e+000 0.000000e+000 0.000000e+000 0.000000e+000 0.000000e+000 0.000000e+000 0.000000e+000 9.505184e-001 4.948156e-002 0.000000e+000
 0.000000e+000 0.000000e+000 0.000000e+000 0.000000e+000 0.000000e+000 0.000000e+000 0.000000e+000 0.000000e+000 9.645038e-001 3.549615e-002
 0.000000e+000 0.000000e+000 0.000000e+000 0.000000e+000 0.000000e+000 0.000000e+000 0.000000e+000 0.000000e+000 0.000000e+000 0.000000e+000
<ENDHMM>
~h "nula"
<BEGINHMM>
<NUMSTATES> 10
<STATE> 2
<MEAN> 16
 4.281568e+000 5.436622e+000 6.051108e+000 6.234260e+000 6.537281e+000 6.851742e+000 6.875380e+000 7.156510e+000 7.324931e+000 7.387383e+000 7.611838e+000 7.739145e+000 8.014736e+000 8.387284e+000 8.435820e+000 8.478642e+000
<VARIANCE> 16
 2.060245e+000 1.918020e+000 1.178932e+000 7.155185e-001 4.626741e-001 4.607197e-001 4.773066e-001 6.461037e-001 5.015537e-001 4.781580e-001 4.784796e-001 3.429306e-001 2.920123e-001 3.313803e-001 2.651116e-001 3.036102e-001
<GCONST> 1.979763e+001
<STATE> 3
<MEAN> 16
 7.085001e+000 8.431569e+000 8.610655e+000 8.677925e+000 8.737846e+000 8.657579e+000 8.220119e+000 7.473742e+000 7.127448e+000 7.188023e+000 7.591275e+000 7.331729e+000 7.223858e+000 7.442966e+000 7.860794e+000 8.330663e+000
<VARIANCE> 16
 1.113284e+000 8.654475e-001 8.987913e-001 9.522079e-001 1.188695e+000 1.320925e+000 1.191225e+000 8.949008e-001 8.380400e-001 1.008435e+000 7.406132e-001 5.842048e-001 5.426956e-001 4.988568e-001 3.706895e-001 2.456795e-001
<GCONST> 2.501946e+001
<STATE> 4
<MEAN> 16
 5.932411e+000 6.870158e+000 7.282472e+000 7.540336e+000 7.692528e+000 7.916566e+000 8.199069e+000 8.477877e+000 8.593890e+000 8.757582e+000 8.940328e+000 9.090089e+000 9.286681e+000 9.481932e+000 9.694675e+000 9.817009e+000
<VARIANCE> 16
 7.662677e-001 7.063351e-001 4.917245e-001 3.961694e-001 2.642288e-001 2.072255e-001 1.876451e-001 1.812405e-001 1.982608e-001 2.334388e-001 2.318561e-001 2.388071e-001 2.608357e-001 2.994870e-001 3.286476e-001 3.578391e-001
<GCONST> 1.021364e+001
<STATE> 5
<MEAN> 16
 8.605924e+000 9.643132e+000 9.883223e+000 9.903548e+000 9.873526e+000 9.868937e+000 9.613750e+000 8.979678e+000 8.749120e+000 9.121833e+000 9.270091e+000 8.949796e+000 8.864237e+000 8.636353e+000 8.808146e+000 9.146706e+000
<VARIANCE> 16
 1.651620e+000 1.160692e+000 1.100025e+000 7.127507e-001 9.376241e-001 1.169176e+000 8.739220e-001 7.277436e-001 1.070729e+000 1.848938e+000 1.278120e+000 1.009973e+000 1.048186e+000 1.304926e+000 1.179132e+000 9.511852e-001
<GCONST> 3.081904e+001
<STATE> 6
<MEAN> 16
 9.161269e+000 1.056323e+001 1.086937e+001 1.071098e+001 1.042369e+001 1.019302e+001 9.838846e+000 9.593285e+000 9.595737e+000 9.756305e+000 9.940986e+000 9.627104e+000 9.496551e+000 9.396287e+000 9.503743e+000 9.630605e+000
<VARIANCE> 16
 2.214420e+000 9.269224e-001 1.248101e+000 1.330190e+000 2.174385e+000 1.425020e+000 1.628487e+000 1.249816e+000 1.798419e+000 2.612956e+000 2.172030e+000 1.437788e+000 1.702903e+000 1.493896e+000 1.110076e+000 1.249242e+000
<GCONST> 3.642050e+001
<STATE> 7
<MEAN> 16
 9.314685e+000 1.070032e+001 1.104094e+001 1.113191e+001 1.070941e+001 1.079062e+001 1.056441e+001 1.020192e+001 1.019424e+001 1.063436e+001 1.064878e+001 1.048347e+001 1.028507e+001 1.023018e+001 1.012084e+001 1.020806e+001
<VARIANCE> 16
 1.032851e+000 7.776663e-001 7.846398e-001 5.932752e-001 6.734626e-001 7.889831e-001 6.151439e-001 5.122504e-001 6.018841e-001 7.899691e-001 6.800546e-001 7.852653e-001 9.151034e-001 1.057874e+000 8.854075e-001 1.388426e+000
<GCONST> 2.543833e+001
<STATE> 8
<MEAN> 16
 9.340365e+000 1.081049e+001 1.124812e+001 1.189966e+001 1.216299e+001 1.225744e+001 1.207763e+001 1.155992e+001 1.109311e+001 1.129263e+001 1.166090e+001 1.163595e+001 1.137985e+001 1.093694e+001 1.065261e+001 1.062294e+001
<VARIANCE> 16
 1.485860e+000 6.835568e-001 1.251321e+000 1.149070e+000 1.027520e+000 9.147776e-001 1.008724e+000 1.007800e+000 1.102800e+000 1.606362e+000 1.711345e+000 1.535180e+000 1.435577e+000 1.834879e+000 1.540184e+000 2.112448e+000
<GCONST> 3.342530e+001
<STATE> 9
<MEAN> 16
 6.074259e+000 6.918953e+000 7.252464e+000 7.552174e+000 7.833134e+000 8.148655e+000 8.348396e+000 8.457642e+000 8.445804e+000 8.575265e+000 8.721183e+000 8.874417e+000 9.043523e+000 9.180507e+000 9.369725e+000 9.513274e+000
<VARIANCE> 16
 1.013775e+000 8.699479e-001 4.716044e-001 4.874635e-001 5.507502e-001 5.935735e-001 5.126271e-001 3.264420e-001 2.217339e-001 1.986342e-001 2.236662e-001 2.476819e-001 3.227850e-001 3.399173e-001 3.761320e-001 4.582005e-001
<GCONST> 1.492060e+001
<TRANSP> 10
 0.000000e+000 1.000000e+000 0.000000e+000 0.000000e+000 0.000000e+000 0.000000e+000 0.000000e+000 0.000000e+000 0.000000e+000 0.000000e+000
 0.000000e+000 8.320801e-001 1.679199e-001 0.000000e+000 0.000000e+000 0.000000e+000 0.000000e+000 0.000000e+000 0.000000e+000 0.000000e+000
 0.000000e+000 0.000000e+000 8.280494e-001 1.719506e-001 0.000000e+000 0.000000e+000 0.000000e+000 0.000000e+000 0.000000e+000 0.000000e+000
 0.000000e+000 0.000000e+000 0.000000e+000 9.287864e-001 7.121365e-002 0.000000e+000 0.000000e+000 0.000000e+000 0.000000e+000 0.000000e+000
 0.000000e+000 0.000000e+000 0.000000e+000 0.000000e+000 6.364779e-001 3.635221e-001 0.000000e+000 0.000000e+000 0.000000e+000 0.000000e+000
 0.000000e+000 0.000000e+000 0.000000e+000 0.000000e+000 0.000000e+000 4.601064e-001 5.398936e-001 0.000000e+000 0.000000e+000 0.000000e+000
 0.000000e+000 0.000000e+000 0.000000e+000 0.000000e+000 0.000000e+000 0.000000e+000 8.993627e-001 1.006373e-001 0.000000e+000 0.000000e+000
 0.000000e+000 0.000000e+000 0.000000e+000 0.000000e+000 0.000000e+000 0.000000e+000 0.000000e+000 9.617907e-001 3.820935e-002 0.000000e+000
 0.000000e+000 0.000000e+000 0.000000e+000 0.000000e+000 0.000000e+000 0.000000e+000 0.000000e+000 0.000000e+000 9.659824e-001 3.401759e-002
 0.000000e+000 0.000000e+000 0.000000e+000 0.000000e+000 0.000000e+000 0.000000e+000 0.000000e+000 0.000000e+000 0.000000e+000 0.000000e+000
<ENDHMM>
~h "devet"
<BEGINHMM>
<NUMSTATES> 10
<STATE> 2
<MEAN> 16
 6.186440e+000 6.971037e+000 6.749731e+000 6.317019e+000 6.024545e+000 5.957768e+000 6.099601e+000 6.439412e+000 6.671518e+000 6.967505e+000 7.216483e+000 7.413050e+000 7.723145e+000 8.081184e+000 8.434053e+000 8.721825e+000
<VARIANCE> 16
 4.238029e+000 2.964044e+000 1.930980e+000 1.559944e+000 9.827770e-001 8.061343e-001 8.050775e-001 7.387384e-001 6.855516e-001 6.367924e-001 5.789384e-001 5.794986e-001 5.789185e-001 6.261126e-001 5.488290e-001 5.951079e-001
<GCONST> 2.823207e+001
<STATE> 3
<MEAN> 16
 7.009811e+000 8.304187e+000 8.663526e+000 8.540821e+000 8.171396e+000 7.626740e+000 7.357908e+000 7.675197e+000 8.308743e+000 8.351393e+000 8.489861e+000 8.061634e+000 8.201233e+000 8.323093e+000 8.206710e+000 8.451559e+000
<VARIANCE> 16
 9.920777e-001 1.358051e+000 1.717150e+000 1.543624e+000 1.676902e+000 1.097960e+000 8.491194e-001 1.005604e+000 1.160675e+000 1.114942e+000 1.153221e+000 9.574501e-001 1.003997e+000 9.224651e-001 5.661461e-001 3.781705e-001
<GCONST> 2.987022e+001
<STATE> 4
<MEAN> 16
 6.236918e+000 7.188892e+000 7.447389e+000 7.611196e+000 7.730458e+000 7.926320e+000 8.151999e+000 8.535252e+000 8.680856e+000 8.745365e+000 8.937295e+000 9.165771e+000 9.328646e+000 9.466411e+000 9.642696e+000 9.759607e+000
<VARIANCE> 16
 1.225092e+000 1.135085e+000 7.306424e-001 4.795369e-001 3.458660e-001 3.826615e-001 3.866192e-001 4.538964e-001 4.325177e-001 3.881521e-001 3.935811e-001 4.629118e-001 4.651649e-001 4.211820e-001 5.190517e-001 5.950187e-001
<GCONST> 1.863233e+001
<STATE> 5
<MEAN> 16
 8.346764e+000 9.555539e+000 9.909433e+000 9.569827e+000 8.988319e+000 8.590223e+000 8.504497e+000 8.975921e+000 9.276331e+000 9.346143e+000 9.450632e+000 9.277118e+000 9.224583e+000 9.070408e+000 8.962406e+000 9.230587e+000
<VARIANCE> 16
 1.116194e+000 1.478187e+000 1.032675e+000 7.492120e-001 5.056302e-001 3.304074e-001 3.417039e-001 5.869383e-001 6.156896e-001 6.043417e-001 7.185947e-001 6.712524e-001 7.062957e-001 1.183733e+000 1.292398e+000 9.180241e-001
<GCONST> 2.452839e+001
<STATE> 6
<MEAN> 16
 8.436164e+000 9.777442e+000 1.000464e+001 9.683802e+000 9.282767e+000 9.088361e+000 9.265851e+000 9.870308e+000 1.015361e+001 1.022231e+001 1.027163e+001 1.029042e+001 1.036097e+001 1.022574e+001 1.012958e+001 1.017393e+001
<VARIANCE> 16
 1.704167e+000 1.984604e+000 1.976577e+000 1.602285e+000 8.725443e-001 5.959458e-001 8.045692e-001 1.237456e+000 1.340321e+000 1.374575e+000 1.511988e+000 1.632804e+000 1.509304e+000 1.810111e+000 1.818187e+000 1.760622e+000
<GCONST> 3.480231e+001
<STATE> 7
<MEAN> 16
 8.274877e+000 1.004878e+001 1.063759e+001 1.122089e+001 1.053817e+001 9.945381e+000 9.844378e+000 1.059256e+001 1.141758e+001 1.186258e+001 1.182941e+001 1.131314e+001 1.122890e+001 1.119054e+001 1.060649e+001 9.913741e+000
<VARIANCE> 16
 7.445752e-001 4.263500e-001 7.893957e-001 9.366701e-001 1.294746e+000 9.113740e-001 7.008978e-001 8.959226e-001 9.337612e-001 9.819884e-001 1.149789e+000 1.151353e+000 1.125683e+000 1.212021e+000 1.080968e+000 1.066929e+000
<GCONST> 2.830403e+001
<STATE> 8
<MEAN> 16
 9.509169e+000 1.081122e+001 1.173513e+001 1.195869e+001 1.123695e+001 1.074738e+001 1.107226e+001 1.203388e+001 1.229824e+001 1.238959e+001 1.227391e+001 1.211458e+001 1.180014e+001 1.129030e+001 1.103911e+001 1.100695e+001
<VARIANCE> 16
 7.328477e-001 4.120463e-001 6.794450e-001 8.041636e-001 9.203485e-001 7.154962e-001 7.822259e-001 9.603027e-001 1.058669e+000 1.167519e+000 1.181375e+000 1.153453e+000 1.235657e+000 2.271249e+000 2.105343e+000 2.573281e+000
<GCONST> 3.014319e+001
<STATE> 9
<MEAN> 16
 5.958958e+000 7.016694e+000 7.607969e+000 7.954033e+000 7.900685e+000 7.884835e+000 8.027524e+000 8.518813e+000 8.739945e+000 8.817565e+000 8.936596e+000 8.974813e+000 9.197063e+000 9.400736e+000 9.586338e+000 9.741096e+000
<VARIANCE> 16
 1.540103e+000 1.296391e+000 1.211391e+000 1.231863e+000 1.109509e+000 1.016816e+000 1.079142e+000 1.204286e+000 1.121089e+000 9.724634e-001 9.276287e-001 1.049355e+000 1.234780e+000 1.354917e+000 1.379076e+000 1.389122e+000
<GCONST> 3.210456e+001
<TRANSP> 10
 0.000000e+000 1.000000e+000 0.000000e+000 0.000000e+000 0.000000e+000 0.000000e+000 0.000000e+000 0.000000e+000 0.000000e+000 0.000000e+000
 0.000000e+000 7.233688e-001 2.766311e-001 0.000000e+000 0.000000e+000 0.000000e+000 0.000000e+000 0.000000e+000 0.000000e+000 0.000000e+000
 0.000000e+000 0.000000e+000 7.288086e-001 2.711915e-001 0.000000e+000 0.000000e+000 0.000000e+000 0.000000e+000 0.000000e+000 0.000000e+000
 0.000000e+000 0.000000e+000 0.000000e+000 8.262852e-001 1.737148e-001 0.000000e+000 0.000000e+000 0.000000e+000 0.000000e+000 0.000000e+000
 0.000000e+000 0.000000e+000 0.000000e+000 0.000000e+000 7.052912e-001 2.947088e-001 0.000000e+000 0.000000e+000 0.000000e+000 0.000000e+000
 0.000000e+000 0.000000e+000 0.000000e+000 0.000000e+000 0.000000e+000 2.304785e-001 7.695215e-001 0.000000e+000 0.000000e+000 0.000000e+000
 0.000000e+000 0.000000e+000 0.000000e+000 0.000000e+000 0.000000e+000 0.000000e+000 8.756049e-001 1.243950e-001 0.000000e+000 0.000000e+000
 0.000000e+000 0.000000e+000 0.000000e+000 0.000000e+000 0.000000e+000 0.000000e+000 0.000000e+000 9.599593e-001 4.004075e-002 0.000000e+000
 0.000000e+000 0.000000e+000 0.000000e+000 0.000000e+000 0.000000e+000 0.000000e+000 0.000000e+000 0.000000e+000 9.631701e-001 3.683000e-002
 0.000000e+000 0.000000e+000 0.000000e+000 0.000000e+000 0.000000e+000 0.000000e+000 0.000000e+000 0.000000e+000 0.000000e+000 0.000000e+000
<ENDHMM>
~h "jedna"
<BEGINHMM>
<NUMSTATES> 10
<STATE> 2
<MEAN> 16
 6.725736e+000 7.908940e+000 8.123078e+000 7.815204e+000 7.306575e+000 6.896771e+000 6.522096e+000 6.761697e+000 7.436917e+000 7.755697e+000 8.026929e+000 7.971450e+000 7.962654e+000 7.851718e+000 7.934505e+000 8.383439e+000
<VARIANCE> 16
 1.962384e+000 1.870600e+000 1.988307e+000 1.816099e+000 1.431295e+000 1.178612e+000 1.132254e+000 1.314662e+000 1.700555e+000 1.779382e+000 1.773261e+000 1.681470e+000 1.435936e+000 9.273636e-001 5.141330e-001 3.680218e-001
<GCONST> 3.373236e+001
<STATE> 3
<MEAN> 16
 5.888933e+000 6.676805e+000 7.109358e+000 7.396245e+000 7.604038e+000 7.850111e+000 8.097416e+000 8.368114e+000 8.500463e+000 8.672622e+000 8.863958e+000 9.041817e+000 9.218695e+000 9.346456e+000 9.503831e+000 9.635331e+000
<VARIANCE> 16
 4.756588e-001 4.684317e-001 3.121745e-001 2.014943e-001 1.572408e-001 1.499936e-001 1.662416e-001 1.930719e-001 1.491039e-001 1.701009e-001 2.080372e-001 2.096932e-001 2.261600e-001 2.849206e-001 2.714197e-001 3.255852e-001
<GCONST> 5.977376e+000
<STATE> 4
<MEAN> 16
 7.790908e+000 9.171535e+000 9.114483e+000 8.825944e+000 8.261377e+000 8.021602e+000 8.073881e+000 8.445872e+000 9.042289e+000 9.497549e+000 9.985653e+000 1.005806e+001 9.970604e+000 9.680617e+000 9.569697e+000 9.789399e+000
<VARIANCE> 16
 1.789816e+000 1.687844e+000 1.663929e+000 1.080020e+000 8.513627e-001 7.133028e-001 7.174247e-001 9.277969e-001 1.001122e+000 1.291752e+000 1.223480e+000 1.274459e+000 1.227113e+000 1.598667e+000 1.342596e+000 1.452274e+000
<GCONST> 3.223487e+001
<STATE> 5
<MEAN> 16
 8.559486e+000 1.004170e+001 1.018024e+001 9.639935e+000 8.793358e+000 8.456505e+000 8.385291e+000 8.749335e+000 9.457223e+000 1.014713e+001 1.074452e+001 1.086477e+001 1.067758e+001 1.008361e+001 9.788327e+000 9.913600e+000
<VARIANCE> 16
 1.397419e+000 1.135797e+000 1.302129e+000 8.956937e-001 9.164307e-001 8.447149e-001 7.637925e-001 8.598853e-001 1.279458e+000 1.910535e+000 1.720192e+000 1.679453e+000 1.771341e+000 2.198201e+000 1.765687e+000 1.606367e+000
<GCONST> 3.370201e+001
<STATE> 6
<MEAN> 16
 8.983611e+000 1.006596e+001 1.040538e+001 9.952442e+000 9.004682e+000 8.287543e+000 8.444600e+000 9.122359e+000 9.771965e+000 1.027727e+001 1.044111e+001 1.055808e+001 1.026548e+001 9.984715e+000 1.003081e+001 9.904906e+000
<VARIANCE> 16
 9.434733e-001 6.547320e-001 1.210245e+000 1.045701e+000 1.221464e+000 1.213148e+000 1.119552e+000 1.532866e+000 2.349578e+000 2.413285e+000 2.584939e+000 2.402017e+000 2.183500e+000 1.815583e+000 1.414412e+000 1.376438e+000
<GCONST> 3.569795e+001
<STATE> 7
<MEAN> 16
 8.974463e+000 1.050126e+001 1.083635e+001 1.068410e+001 9.929964e+000 9.533545e+000 9.580975e+000 1.028336e+001 1.090809e+001 1.146215e+001 1.146827e+001 1.132974e+001 1.105106e+001 1.073234e+001 1.031393e+001 1.015618e+001
<VARIANCE> 16
 1.214804e+000 8.230480e-001 1.306566e+000 1.466610e+000 1.291216e+000 9.711483e-001 1.007237e+000 1.398946e+000 1.660785e+000 1.941229e+000 2.130868e+000 1.988605e+000 2.123085e+000 2.273535e+000 1.981329e+000 2.215915e+000
<GCONST> 3.629368e+001
<STATE> 8
<MEAN> 16
 9.344854e+000 1.075788e+001 1.109648e+001 1.139849e+001 1.140625e+001 1.135435e+001 1.161884e+001 1.178671e+001 1.154974e+001 1.147236e+001 1.156031e+001 1.145279e+001 1.121669e+001 1.090173e+001 1.071090e+001 1.063845e+001
<VARIANCE> 16
 1.078561e+000 6.326577e-001 9.225840e-001 9.631026e-001 1.281251e+000 1.366392e+000 1.522732e+000 1.316781e+000 1.388965e+000 1.676579e+000 1.940945e+000 1.908733e+000 1.826351e+000 2.073918e+000 1.946491e+000 2.315834e+000
<GCONST> 3.515386e+001
<STATE> 9
<MEAN> 16
 6.915967e+000 7.813395e+000 7.802857e+000 8.032441e+000 8.398547e+000 8.646068e+000 8.858573e+000 8.814364e+000 8.464317e+000 8.447882e+000 8.620941e+000 8.679835e+000 8.742064e+000 8.873184e+000 9.054274e+000 9.265224e+000
<VARIANCE> 16
 1.943147e+000 1.593497e+000 1.097300e+000 1.096040e+000 1.276462e+000 1.025290e+000 9.299429e-001 8.341371e-001 6.938170e-001 9.796299e-001 8.225748e-001 9.056043e-001 1.025774e+000 1.027766e+000 9.164484e-001 8.582458e-001
<GCONST> 2.986803e+001
<TRANSP> 10
 0.000000e+000 1.000000e+000 0.000000e+000 0.000000e+000 0.000000e+000 0.000000e+000 0.000000e+000 0.000000e+000 0.000000e+000 0.000000e+000
 0.000000e+000 8.461541e-001 1.538459e-001 0.000000e+000 0.000000e+000 0.000000e+000 0.000000e+000 0.000000e+000 0.000000e+000 0.000000e+000
 0.000000e+000 0.000000e+000 9.370506e-001 6.294935e-002 0.000000e+000 0.000000e+000 0.000000e+000 0.000000e+000 0.000000e+000 0.000000e+000
 0.000000e+000 0.000000e+000 0.000000e+000 1.605515e-001 8.394485e-001 0.000000e+000 0.000000e+000 0.000000e+000 0.000000e+000 0.000000e+000
 0.000000e+000 0.000000e+000 0.000000e+000 0.000000e+000 1.140442e-001 8.859558e-001 0.000000e+000 0.000000e+000 0.000000e+000 0.000000e+000
 0.000000e+000 0.000000e+000 0.000000e+000 0.000000e+000 0.000000e+000 7.403519e-001 2.596481e-001 0.000000e+000 0.000000e+000 0.000000e+000
 0.000000e+000 0.000000e+000 0.000000e+000 0.000000e+000 0.000000e+000 0.000000e+000 9.269780e-001 7.302199e-002 0.000000e+000 0.000000e+000
 0.000000e+000 0.000000e+000 0.000000e+000 0.000000e+000 0.000000e+000 0.000000e+000 0.000000e+000 9.618865e-001 3.811356e-002 0.000000e+000
 0.000000e+000 0.000000e+000 0.000000e+000 0.000000e+000 0.000000e+000 0.000000e+000 0.000000e+000 0.000000e+000 9.393519e-001 6.064808e-002
 0.000000e+000 0.000000e+000 0.000000e+000 0.000000e+000 0.000000e+000 0.000000e+000 0.000000e+000 0.000000e+000 0.000000e+000 0.000000e+000
<ENDHMM>
