~o
<STREAMINFO> 1 16
<VECSIZE> 16<NULLD><FBANK><DIAGC>
~h "proto-8s-16f"
<BEGINHMM>
<NUMSTATES> 10
<STATE> 2
<MEAN> 16
 5.155756e+000 6.140965e+000 6.564326e+000 6.828396e+000 6.949736e+000 7.108806e+000 7.308961e+000 7.604644e+000 7.852491e+000 8.110783e+000 8.343543e+000 8.496477e+000 8.667500e+000 8.870666e+000 9.118763e+000 9.353382e+000
<VARIANCE> 16
 6.377705e+000 7.359088e+000 7.525888e+000 7.286889e+000 6.252582e+000 5.547572e+000 5.364093e+000 5.331726e+000 4.937783e+000 4.832225e+000 4.547027e+000 4.138710e+000 3.871965e+000 3.272666e+000 2.443344e+000 2.008930e+000
<GCONST> 5.439637e+001
<STATE> 3
<MEAN> 16
 5.155756e+000 6.140965e+000 6.564326e+000 6.828396e+000 6.949736e+000 7.108806e+000 7.308961e+000 7.604644e+000 7.852491e+000 8.110783e+000 8.343543e+000 8.496477e+000 8.667500e+000 8.870666e+000 9.118763e+000 9.353382e+000
<VARIANCE> 16
 6.377705e+000 7.359088e+000 7.525888e+000 7.286889e+000 6.252582e+000 5.547572e+000 5.364093e+000 5.331726e+000 4.937783e+000 4.832225e+000 4.547027e+000 4.138710e+000 3.871965e+000 3.272666e+000 2.443344e+000 2.008930e+000
<GCONST> 5.439637e+001
<STATE> 4
<MEAN> 16
 5.155756e+000 6.140965e+000 6.564326e+000 6.828396e+000 6.949736e+000 7.108806e+000 7.308961e+000 7.604644e+000 7.852491e+000 8.110783e+000 8.343543e+000 8.496477e+000 8.667500e+000 8.870666e+000 9.118763e+000 9.353382e+000
<VARIANCE> 16
 6.377705e+000 7.359088e+000 7.525888e+000 7.286889e+000 6.252582e+000 5.547572e+000 5.364093e+000 5.331726e+000 4.937783e+000 4.832225e+000 4.547027e+000 4.138710e+000 3.871965e+000 3.272666e+000 2.443344e+000 2.008930e+000
<GCONST> 5.439637e+001
<STATE> 5
<MEAN> 16
 5.155756e+000 6.140965e+000 6.564326e+000 6.828396e+000 6.949736e+000 7.108806e+000 7.308961e+000 7.604644e+000 7.852491e+000 8.110783e+000 8.343543e+000 8.496477e+000 8.667500e+000 8.870666e+000 9.118763e+000 9.353382e+000
<VARIANCE> 16
 6.377705e+000 7.359088e+000 7.525888e+000 7.286889e+000 6.252582e+000 5.547572e+000 5.364093e+000 5.331726e+000 4.937783e+000 4.832225e+000 4.547027e+000 4.138710e+000 3.871965e+000 3.272666e+000 2.443344e+000 2.008930e+000
<GCONST> 5.439637e+001
<STATE> 6
<MEAN> 16
 5.155756e+000 6.140965e+000 6.564326e+000 6.828396e+000 6.949736e+000 7.108806e+000 7.308961e+000 7.604644e+000 7.852491e+000 8.110783e+000 8.343543e+000 8.496477e+000 8.667500e+000 8.870666e+000 9.118763e+000 9.353382e+000
<VARIANCE> 16
 6.377705e+000 7.359088e+000 7.525888e+000 7.286889e+000 6.252582e+000 5.547572e+000 5.364093e+000 5.331726e+000 4.937783e+000 4.832225e+000 4.547027e+000 4.138710e+000 3.871965e+000 3.272666e+000 2.443344e+000 2.008930e+000
<GCONST> 5.439637e+001
<STATE> 7
<MEAN> 16
 5.155756e+000 6.140965e+000 6.564326e+000 6.828396e+000 6.949736e+000 7.108806e+000 7.308961e+000 7.604644e+000 7.852491e+000 8.110783e+000 8.343543e+000 8.496477e+000 8.667500e+000 8.870666e+000 9.118763e+000 9.353382e+000
<VARIANCE> 16
 6.377705e+000 7.359088e+000 7.525888e+000 7.286889e+000 6.252582e+000 5.547572e+000 5.364093e+000 5.331726e+000 4.937783e+000 4.832225e+000 4.547027e+000 4.138710e+000 3.871965e+000 3.272666e+000 2.443344e+000 2.008930e+000
<GCONST> 5.439637e+001
<STATE> 8
<MEAN> 16
 5.155756e+000 6.140965e+000 6.564326e+000 6.828396e+000 6.949736e+000 7.108806e+000 7.308961e+000 7.604644e+000 7.852491e+000 8.110783e+000 8.343543e+000 8.496477e+000 8.667500e+000 8.870666e+000 9.118763e+000 9.353382e+000
<VARIANCE> 16
 6.377705e+000 7.359088e+000 7.525888e+000 7.286889e+000 6.252582e+000 5.547572e+000 5.364093e+000 5.331726e+000 4.937783e+000 4.832225e+000 4.547027e+000 4.138710e+000 3.871965e+000 3.272666e+000 2.443344e+000 2.008930e+000
<GCONST> 5.439637e+001
<STATE> 9
<MEAN> 16
 5.155756e+000 6.140965e+000 6.564326e+000 6.828396e+000 6.949736e+000 7.108806e+000 7.308961e+000 7.604644e+000 7.852491e+000 8.110783e+000 8.343543e+000 8.496477e+000 8.667500e+000 8.870666e+000 9.118763e+000 9.353382e+000
<VARIANCE> 16
 6.377705e+000 7.359088e+000 7.525888e+000 7.286889e+000 6.252582e+000 5.547572e+000 5.364093e+000 5.331726e+000 4.937783e+000 4.832225e+000 4.547027e+000 4.138710e+000 3.871965e+000 3.272666e+000 2.443344e+000 2.008930e+000
<GCONST> 5.439637e+001
<TRANSP> 10
 0.000000e+000 1.000000e+000 0.000000e+000 0.000000e+000 0.000000e+000 0.000000e+000 0.000000e+000 0.000000e+000 0.000000e+000 0.000000e+000
 0.000000e+000 6.000000e-001 4.000000e-001 0.000000e+000 0.000000e+000 0.000000e+000 0.000000e+000 0.000000e+000 0.000000e+000 0.000000e+000
 0.000000e+000 0.000000e+000 6.000000e-001 4.000000e-001 0.000000e+000 0.000000e+000 0.000000e+000 0.000000e+000 0.000000e+000 0.000000e+000
 0.000000e+000 0.000000e+000 0.000000e+000 6.000000e-001 4.000000e-001 0.000000e+000 0.000000e+000 0.000000e+000 0.000000e+000 0.000000e+000
 0.000000e+000 0.000000e+000 0.000000e+000 0.000000e+000 6.000000e-001 4.000000e-001 0.000000e+000 0.000000e+000 0.000000e+000 0.000000e+000
 0.000000e+000 0.000000e+000 0.000000e+000 0.000000e+000 0.000000e+000 6.000000e-001 4.000000e-001 0.000000e+000 0.000000e+000 0.000000e+000
 0.000000e+000 0.000000e+000 0.000000e+000 0.000000e+000 0.000000e+000 0.000000e+000 6.000000e-001 4.000000e-001 0.000000e+000 0.000000e+000
 0.000000e+000 0.000000e+000 0.000000e+000 0.000000e+000 0.000000e+000 0.000000e+000 0.000000e+000 6.000000e-001 4.000000e-001 0.000000e+000
 0.000000e+000 0.000000e+000 0.000000e+000 0.000000e+000 0.000000e+000 0.000000e+000 0.000000e+000 0.000000e+000 7.000000e-001 3.000000e-001
 0.000000e+000 0.000000e+000 0.000000e+000 0.000000e+000 0.000000e+000 0.000000e+000 0.000000e+000 0.000000e+000 0.000000e+000 0.000000e+000
<ENDHMM>
