~o
<STREAMINFO> 1 39
<VECSIZE> 39<NULLD><MFCC_D_A_0><DIAGC>
~h "proto-8s-39f"
<BEGINHMM>
<NUMSTATES> 10
<STATE> 2
<MEAN> 39
 -1.516482e+001 -2.886277e+000 -6.235653e+000 -4.398313e+000 -7.911958e+000 -4.642832e+000 -5.390707e+000 -3.866152e+000 -3.696390e+000 -3.294223e+000 -3.277508e+000 -2.254509e+000 5.142354e+001 2.800764e-004 -4.010015e-004 4.845443e-004 -2.599451e-004 -2.543422e-004 -1.220916e-003 -9.587661e-004 -1.765135e-004 -5.560512e-004 -4.966405e-004 -1.112024e-003 1.102081e-003 -1.360040e-003 -3.634935e-004 -2.016097e-004 3.621608e-005 -2.524593e-004 3.614934e-005 -1.092026e-005 -3.026356e-004 -2.839399e-004 -3.805885e-004 -4.089401e-004 1.236635e-004 1.167807e-004 -1.831431e-004
<VARIANCE> 39
 7.451437e+001 4.267242e+001 5.264966e+001 5.105879e+001 4.833924e+001 6.440434e+001 4.961204e+001 4.723653e+001 4.124887e+001 3.143659e+001 3.736656e+001 2.501176e+001 2.177801e+002 1.220482e+000 1.130615e+000 1.182015e+000 1.500394e+000 1.745913e+000 1.804316e+000 1.983498e+000 1.977852e+000 1.891882e+000 1.829436e+000 1.742414e+000 1.512638e+000 1.575052e+000 1.611402e-001 1.772892e-001 1.891125e-001 2.540636e-001 3.014534e-001 3.246479e-001 3.613298e-001 3.665382e-001 3.526680e-001 3.473273e-001 3.259394e-001 2.915779e-001 1.970829e-001
<GCONST> 1.118926e+002
<STATE> 3
<MEAN> 39
 -1.516482e+001 -2.886277e+000 -6.235653e+000 -4.398313e+000 -7.911958e+000 -4.642832e+000 -5.390707e+000 -3.866152e+000 -3.696390e+000 -3.294223e+000 -3.277508e+000 -2.254509e+000 5.142354e+001 2.800764e-004 -4.010015e-004 4.845443e-004 -2.599451e-004 -2.543422e-004 -1.220916e-003 -9.587661e-004 -1.765135e-004 -5.560512e-004 -4.966405e-004 -1.112024e-003 1.102081e-003 -1.360040e-003 -3.634935e-004 -2.016097e-004 3.621608e-005 -2.524593e-004 3.614934e-005 -1.092026e-005 -3.026356e-004 -2.839399e-004 -3.805885e-004 -4.089401e-004 1.236635e-004 1.167807e-004 -1.831431e-004
<VARIANCE> 39
 7.451437e+001 4.267242e+001 5.264966e+001 5.105879e+001 4.833924e+001 6.440434e+001 4.961204e+001 4.723653e+001 4.124887e+001 3.143659e+001 3.736656e+001 2.501176e+001 2.177801e+002 1.220482e+000 1.130615e+000 1.182015e+000 1.500394e+000 1.745913e+000 1.804316e+000 1.983498e+000 1.977852e+000 1.891882e+000 1.829436e+000 1.742414e+000 1.512638e+000 1.575052e+000 1.611402e-001 1.772892e-001 1.891125e-001 2.540636e-001 3.014534e-001 3.246479e-001 3.613298e-001 3.665382e-001 3.526680e-001 3.473273e-001 3.259394e-001 2.915779e-001 1.970829e-001
<GCONST> 1.118926e+002
<STATE> 4
<MEAN> 39
 -1.516482e+001 -2.886277e+000 -6.235653e+000 -4.398313e+000 -7.911958e+000 -4.642832e+000 -5.390707e+000 -3.866152e+000 -3.696390e+000 -3.294223e+000 -3.277508e+000 -2.254509e+000 5.142354e+001 2.800764e-004 -4.010015e-004 4.845443e-004 -2.599451e-004 -2.543422e-004 -1.220916e-003 -9.587661e-004 -1.765135e-004 -5.560512e-004 -4.966405e-004 -1.112024e-003 1.102081e-003 -1.360040e-003 -3.634935e-004 -2.016097e-004 3.621608e-005 -2.524593e-004 3.614934e-005 -1.092026e-005 -3.026356e-004 -2.839399e-004 -3.805885e-004 -4.089401e-004 1.236635e-004 1.167807e-004 -1.831431e-004
<VARIANCE> 39
 7.451437e+001 4.267242e+001 5.264966e+001 5.105879e+001 4.833924e+001 6.440434e+001 4.961204e+001 4.723653e+001 4.124887e+001 3.143659e+001 3.736656e+001 2.501176e+001 2.177801e+002 1.220482e+000 1.130615e+000 1.182015e+000 1.500394e+000 1.745913e+000 1.804316e+000 1.983498e+000 1.977852e+000 1.891882e+000 1.829436e+000 1.742414e+000 1.512638e+000 1.575052e+000 1.611402e-001 1.772892e-001 1.891125e-001 2.540636e-001 3.014534e-001 3.246479e-001 3.613298e-001 3.665382e-001 3.526680e-001 3.473273e-001 3.259394e-001 2.915779e-001 1.970829e-001
<GCONST> 1.118926e+002
<STATE> 5
<MEAN> 39
 -1.516482e+001 -2.886277e+000 -6.235653e+000 -4.398313e+000 -7.911958e+000 -4.642832e+000 -5.390707e+000 -3.866152e+000 -3.696390e+000 -3.294223e+000 -3.277508e+000 -2.254509e+000 5.142354e+001 2.800764e-004 -4.010015e-004 4.845443e-004 -2.599451e-004 -2.543422e-004 -1.220916e-003 -9.587661e-004 -1.765135e-004 -5.560512e-004 -4.966405e-004 -1.112024e-003 1.102081e-003 -1.360040e-003 -3.634935e-004 -2.016097e-004 3.621608e-005 -2.524593e-004 3.614934e-005 -1.092026e-005 -3.026356e-004 -2.839399e-004 -3.805885e-004 -4.089401e-004 1.236635e-004 1.167807e-004 -1.831431e-004
<VARIANCE> 39
 7.451437e+001 4.267242e+001 5.264966e+001 5.105879e+001 4.833924e+001 6.440434e+001 4.961204e+001 4.723653e+001 4.124887e+001 3.143659e+001 3.736656e+001 2.501176e+001 2.177801e+002 1.220482e+000 1.130615e+000 1.182015e+000 1.500394e+000 1.745913e+000 1.804316e+000 1.983498e+000 1.977852e+000 1.891882e+000 1.829436e+000 1.742414e+000 1.512638e+000 1.575052e+000 1.611402e-001 1.772892e-001 1.891125e-001 2.540636e-001 3.014534e-001 3.246479e-001 3.613298e-001 3.665382e-001 3.526680e-001 3.473273e-001 3.259394e-001 2.915779e-001 1.970829e-001
<GCONST> 1.118926e+002
<STATE> 6
<MEAN> 39
 -1.516482e+001 -2.886277e+000 -6.235653e+000 -4.398313e+000 -7.911958e+000 -4.642832e+000 -5.390707e+000 -3.866152e+000 -3.696390e+000 -3.294223e+000 -3.277508e+000 -2.254509e+000 5.142354e+001 2.800764e-004 -4.010015e-004 4.845443e-004 -2.599451e-004 -2.543422e-004 -1.220916e-003 -9.587661e-004 -1.765135e-004 -5.560512e-004 -4.966405e-004 -1.112024e-003 1.102081e-003 -1.360040e-003 -3.634935e-004 -2.016097e-004 3.621608e-005 -2.524593e-004 3.614934e-005 -1.092026e-005 -3.026356e-004 -2.839399e-004 -3.805885e-004 -4.089401e-004 1.236635e-004 1.167807e-004 -1.831431e-004
<VARIANCE> 39
 7.451437e+001 4.267242e+001 5.264966e+001 5.105879e+001 4.833924e+001 6.440434e+001 4.961204e+001 4.723653e+001 4.124887e+001 3.143659e+001 3.736656e+001 2.501176e+001 2.177801e+002 1.220482e+000 1.130615e+000 1.182015e+000 1.500394e+000 1.745913e+000 1.804316e+000 1.983498e+000 1.977852e+000 1.891882e+000 1.829436e+000 1.742414e+000 1.512638e+000 1.575052e+000 1.611402e-001 1.772892e-001 1.891125e-001 2.540636e-001 3.014534e-001 3.246479e-001 3.613298e-001 3.665382e-001 3.526680e-001 3.473273e-001 3.259394e-001 2.915779e-001 1.970829e-001
<GCONST> 1.118926e+002
<STATE> 7
<MEAN> 39
 -1.516482e+001 -2.886277e+000 -6.235653e+000 -4.398313e+000 -7.911958e+000 -4.642832e+000 -5.390707e+000 -3.866152e+000 -3.696390e+000 -3.294223e+000 -3.277508e+000 -2.254509e+000 5.142354e+001 2.800764e-004 -4.010015e-004 4.845443e-004 -2.599451e-004 -2.543422e-004 -1.220916e-003 -9.587661e-004 -1.765135e-004 -5.560512e-004 -4.966405e-004 -1.112024e-003 1.102081e-003 -1.360040e-003 -3.634935e-004 -2.016097e-004 3.621608e-005 -2.524593e-004 3.614934e-005 -1.092026e-005 -3.026356e-004 -2.839399e-004 -3.805885e-004 -4.089401e-004 1.236635e-004 1.167807e-004 -1.831431e-004
<VARIANCE> 39
 7.451437e+001 4.267242e+001 5.264966e+001 5.105879e+001 4.833924e+001 6.440434e+001 4.961204e+001 4.723653e+001 4.124887e+001 3.143659e+001 3.736656e+001 2.501176e+001 2.177801e+002 1.220482e+000 1.130615e+000 1.182015e+000 1.500394e+000 1.745913e+000 1.804316e+000 1.983498e+000 1.977852e+000 1.891882e+000 1.829436e+000 1.742414e+000 1.512638e+000 1.575052e+000 1.611402e-001 1.772892e-001 1.891125e-001 2.540636e-001 3.014534e-001 3.246479e-001 3.613298e-001 3.665382e-001 3.526680e-001 3.473273e-001 3.259394e-001 2.915779e-001 1.970829e-001
<GCONST> 1.118926e+002
<STATE> 8
<MEAN> 39
 -1.516482e+001 -2.886277e+000 -6.235653e+000 -4.398313e+000 -7.911958e+000 -4.642832e+000 -5.390707e+000 -3.866152e+000 -3.696390e+000 -3.294223e+000 -3.277508e+000 -2.254509e+000 5.142354e+001 2.800764e-004 -4.010015e-004 4.845443e-004 -2.599451e-004 -2.543422e-004 -1.220916e-003 -9.587661e-004 -1.765135e-004 -5.560512e-004 -4.966405e-004 -1.112024e-003 1.102081e-003 -1.360040e-003 -3.634935e-004 -2.016097e-004 3.621608e-005 -2.524593e-004 3.614934e-005 -1.092026e-005 -3.026356e-004 -2.839399e-004 -3.805885e-004 -4.089401e-004 1.236635e-004 1.167807e-004 -1.831431e-004
<VARIANCE> 39
 7.451437e+001 4.267242e+001 5.264966e+001 5.105879e+001 4.833924e+001 6.440434e+001 4.961204e+001 4.723653e+001 4.124887e+001 3.143659e+001 3.736656e+001 2.501176e+001 2.177801e+002 1.220482e+000 1.130615e+000 1.182015e+000 1.500394e+000 1.745913e+000 1.804316e+000 1.983498e+000 1.977852e+000 1.891882e+000 1.829436e+000 1.742414e+000 1.512638e+000 1.575052e+000 1.611402e-001 1.772892e-001 1.891125e-001 2.540636e-001 3.014534e-001 3.246479e-001 3.613298e-001 3.665382e-001 3.526680e-001 3.473273e-001 3.259394e-001 2.915779e-001 1.970829e-001
<GCONST> 1.118926e+002
<STATE> 9
<MEAN> 39
 -1.516482e+001 -2.886277e+000 -6.235653e+000 -4.398313e+000 -7.911958e+000 -4.642832e+000 -5.390707e+000 -3.866152e+000 -3.696390e+000 -3.294223e+000 -3.277508e+000 -2.254509e+000 5.142354e+001 2.800764e-004 -4.010015e-004 4.845443e-004 -2.599451e-004 -2.543422e-004 -1.220916e-003 -9.587661e-004 -1.765135e-004 -5.560512e-004 -4.966405e-004 -1.112024e-003 1.102081e-003 -1.360040e-003 -3.634935e-004 -2.016097e-004 3.621608e-005 -2.524593e-004 3.614934e-005 -1.092026e-005 -3.026356e-004 -2.839399e-004 -3.805885e-004 -4.089401e-004 1.236635e-004 1.167807e-004 -1.831431e-004
<VARIANCE> 39
 7.451437e+001 4.267242e+001 5.264966e+001 5.105879e+001 4.833924e+001 6.440434e+001 4.961204e+001 4.723653e+001 4.124887e+001 3.143659e+001 3.736656e+001 2.501176e+001 2.177801e+002 1.220482e+000 1.130615e+000 1.182015e+000 1.500394e+000 1.745913e+000 1.804316e+000 1.983498e+000 1.977852e+000 1.891882e+000 1.829436e+000 1.742414e+000 1.512638e+000 1.575052e+000 1.611402e-001 1.772892e-001 1.891125e-001 2.540636e-001 3.014534e-001 3.246479e-001 3.613298e-001 3.665382e-001 3.526680e-001 3.473273e-001 3.259394e-001 2.915779e-001 1.970829e-001
<GCONST> 1.118926e+002
<TRANSP> 10
 0.000000e+000 1.000000e+000 0.000000e+000 0.000000e+000 0.000000e+000 0.000000e+000 0.000000e+000 0.000000e+000 0.000000e+000 0.000000e+000
 0.000000e+000 6.000000e-001 4.000000e-001 0.000000e+000 0.000000e+000 0.000000e+000 0.000000e+000 0.000000e+000 0.000000e+000 0.000000e+000
 0.000000e+000 0.000000e+000 6.000000e-001 4.000000e-001 0.000000e+000 0.000000e+000 0.000000e+000 0.000000e+000 0.000000e+000 0.000000e+000
 0.000000e+000 0.000000e+000 0.000000e+000 6.000000e-001 4.000000e-001 0.000000e+000 0.000000e+000 0.000000e+000 0.000000e+000 0.000000e+000
 0.000000e+000 0.000000e+000 0.000000e+000 0.000000e+000 6.000000e-001 4.000000e-001 0.000000e+000 0.000000e+000 0.000000e+000 0.000000e+000
 0.000000e+000 0.000000e+000 0.000000e+000 0.000000e+000 0.000000e+000 6.000000e-001 4.000000e-001 0.000000e+000 0.000000e+000 0.000000e+000
 0.000000e+000 0.000000e+000 0.000000e+000 0.000000e+000 0.000000e+000 0.000000e+000 6.000000e-001 4.000000e-001 0.000000e+000 0.000000e+000
 0.000000e+000 0.000000e+000 0.000000e+000 0.000000e+000 0.000000e+000 0.000000e+000 0.000000e+000 6.000000e-001 4.000000e-001 0.000000e+000
 0.000000e+000 0.000000e+000 0.000000e+000 0.000000e+000 0.000000e+000 0.000000e+000 0.000000e+000 0.000000e+000 7.000000e-001 3.000000e-001
 0.000000e+000 0.000000e+000 0.000000e+000 0.000000e+000 0.000000e+000 0.000000e+000 0.000000e+000 0.000000e+000 0.000000e+000 0.000000e+000
<ENDHMM>
