~o
<STREAMINFO> 1 39
<VECSIZE> 39<NULLD><MFCC_D_A_0><DIAGC>
~h "proto-1s-39f"
<BEGINHMM>
<NUMSTATES> 3
<STATE> 2
<MEAN> 39
 -7.955876e+000 -1.342402e+000 1.555251e+000 -5.028563e+000 -3.837423e+000 -3.627079e+000 -3.262326e+000 -1.759663e+000 -1.712796e+000 -1.203169e-001 -1.470204e+000 -1.436394e+000 6.103623e+001 1.194850e-005 1.854120e-004 6.731679e-004 -8.709611e-004 2.569432e-003 -7.477250e-004 3.776631e-004 -9.519281e-004 -1.084974e-003 1.028608e-003 -6.231621e-004 3.080494e-004 2.260718e-003 1.333891e-004 -2.833772e-005 -2.532852e-004 3.620515e-005 -2.514981e-004 7.815270e-005 6.792542e-006 9.369411e-005 7.029030e-006 -3.063906e-004 -7.090058e-005 5.439445e-005 -2.621283e-004
<VARIANCE> 39
 8.759092e+001 5.999814e+001 7.742959e+001 9.174467e+001 8.262739e+001 7.672337e+001 7.770091e+001 6.351108e+001 6.650626e+001 4.638049e+001 6.173944e+001 3.956498e+001 1.931827e+002 3.580853e+000 2.964001e+000 2.898276e+000 4.044971e+000 4.102703e+000 3.692511e+000 3.875334e+000 3.801039e+000 3.652056e+000 2.998164e+000 3.101540e+000 2.417364e+000 4.002575e+000 5.225561e-001 5.031741e-001 4.655800e-001 6.927648e-001 7.167911e-001 6.590901e-001 6.926672e-001 6.957439e-001 6.563164e-001 5.666718e-001 5.665804e-001 4.495967e-001 6.371838e-001
<GCONST> 1.367417e+002
<TRANSP> 3
 0.000000e+000 1.000000e+000 0.000000e+000
 0.000000e+000 6.000000e-001 4.000000e-001
 0.000000e+000 0.000000e+000 0.000000e+000
<ENDHMM>
