~o
<STREAMINFO> 1 39
<VECSIZE> 39<NULLD><MFCC_D_A_0><DIAGC>
~h "proto-3s-39f"
<BEGINHMM>
<NUMSTATES> 5
<STATE> 2
<MEAN> 39
 -9.444633e+000 -2.327258e+000 -1.634569e+000 -3.366791e+000 -1.337778e+000 -1.835831e+000 1.296431e-002 3.201640e+000 -2.566109e-001 1.365867e+000 3.009631e-001 1.030595e+000 4.915125e+001 4.534604e-003 -4.348144e-003 -1.184972e-005 3.075681e-003 -4.759215e-003 3.182047e-003 1.828531e-003 -1.565708e-003 5.276692e-003 -1.575804e-003 -1.259133e-003 8.172648e-004 -4.390048e-003 -5.292599e-004 5.642932e-004 -4.338384e-004 -4.851928e-004 -8.999723e-004 -2.100520e-005 -1.635161e-004 7.880528e-004 9.915035e-005 1.531511e-003 1.609726e-003 4.290686e-004 6.710808e-004
<VARIANCE> 39
 1.673521e+001 3.477303e+001 3.026460e+001 7.227158e+001 4.237614e+001 5.467313e+001 3.702676e+001 2.960567e+001 4.226292e+001 2.601827e+001 2.730779e+001 2.123987e+001 4.733449e+001 5.236133e-001 7.908114e-001 7.785631e-001 1.351210e+000 1.413486e+000 1.588339e+000 1.579038e+000 1.561114e+000 1.576975e+000 1.675085e+000 1.542378e+000 1.287842e+000 4.918407e-001 7.386149e-002 1.096074e-001 1.287852e-001 2.080739e-001 2.399578e-001 2.861395e-001 2.935224e-001 2.966940e-001 3.043160e-001 3.188748e-001 2.917955e-001 2.520913e-001 5.328964e-002
<GCONST> 9.810292e+001
<STATE> 3
<MEAN> 39
 -9.444633e+000 -2.327258e+000 -1.634569e+000 -3.366791e+000 -1.337778e+000 -1.835831e+000 1.296431e-002 3.201640e+000 -2.566109e-001 1.365867e+000 3.009631e-001 1.030595e+000 4.915125e+001 4.534604e-003 -4.348144e-003 -1.184972e-005 3.075681e-003 -4.759215e-003 3.182047e-003 1.828531e-003 -1.565708e-003 5.276692e-003 -1.575804e-003 -1.259133e-003 8.172648e-004 -4.390048e-003 -5.292599e-004 5.642932e-004 -4.338384e-004 -4.851928e-004 -8.999723e-004 -2.100520e-005 -1.635161e-004 7.880528e-004 9.915035e-005 1.531511e-003 1.609726e-003 4.290686e-004 6.710808e-004
<VARIANCE> 39
 1.673521e+001 3.477303e+001 3.026460e+001 7.227158e+001 4.237614e+001 5.467313e+001 3.702676e+001 2.960567e+001 4.226292e+001 2.601827e+001 2.730779e+001 2.123987e+001 4.733449e+001 5.236133e-001 7.908114e-001 7.785631e-001 1.351210e+000 1.413486e+000 1.588339e+000 1.579038e+000 1.561114e+000 1.576975e+000 1.675085e+000 1.542378e+000 1.287842e+000 4.918407e-001 7.386149e-002 1.096074e-001 1.287852e-001 2.080739e-001 2.399578e-001 2.861395e-001 2.935224e-001 2.966940e-001 3.043160e-001 3.188748e-001 2.917955e-001 2.520913e-001 5.328964e-002
<GCONST> 9.810292e+001
<STATE> 4
<MEAN> 39
 -9.444633e+000 -2.327258e+000 -1.634569e+000 -3.366791e+000 -1.337778e+000 -1.835831e+000 1.296431e-002 3.201640e+000 -2.566109e-001 1.365867e+000 3.009631e-001 1.030595e+000 4.915125e+001 4.534604e-003 -4.348144e-003 -1.184972e-005 3.075681e-003 -4.759215e-003 3.182047e-003 1.828531e-003 -1.565708e-003 5.276692e-003 -1.575804e-003 -1.259133e-003 8.172648e-004 -4.390048e-003 -5.292599e-004 5.642932e-004 -4.338384e-004 -4.851928e-004 -8.999723e-004 -2.100520e-005 -1.635161e-004 7.880528e-004 9.915035e-005 1.531511e-003 1.609726e-003 4.290686e-004 6.710808e-004
<VARIANCE> 39
 1.673521e+001 3.477303e+001 3.026460e+001 7.227158e+001 4.237614e+001 5.467313e+001 3.702676e+001 2.960567e+001 4.226292e+001 2.601827e+001 2.730779e+001 2.123987e+001 4.733449e+001 5.236133e-001 7.908114e-001 7.785631e-001 1.351210e+000 1.413486e+000 1.588339e+000 1.579038e+000 1.561114e+000 1.576975e+000 1.675085e+000 1.542378e+000 1.287842e+000 4.918407e-001 7.386149e-002 1.096074e-001 1.287852e-001 2.080739e-001 2.399578e-001 2.861395e-001 2.935224e-001 2.966940e-001 3.043160e-001 3.188748e-001 2.917955e-001 2.520913e-001 5.328964e-002
<GCONST> 9.810292e+001
<TRANSP> 5
 0.000000e+000 1.000000e+000 0.000000e+000 0.000000e+000 0.000000e+000
 0.000000e+000 6.000000e-001 4.000000e-001 0.000000e+000 0.000000e+000
 0.000000e+000 0.000000e+000 6.000000e-001 4.000000e-001 0.000000e+000
 0.000000e+000 0.000000e+000 0.000000e+000 7.000000e-001 3.000000e-001
 0.000000e+000 0.000000e+000 0.000000e+000 0.000000e+000 0.000000e+000
<ENDHMM>
