~o
<STREAMINFO> 1 39
<VECSIZE> 39<NULLD><MFCC_D_A_0><DIAGC>
~h "a"
<BEGINHMM>
<NUMSTATES> 5
<STATE> 2
<NUMMIXES> 2
<MIXTURE> 1 5.000000e-001
<MEAN> 39
 -6.085900e+000 2.074944e-001 3.221387e+000 -3.182941e+000 -1.994689e+000 -1.861265e+000 -1.546552e+000 -1.414788e-001 -3.019440e-002 1.224845e+000 1.044894e-001 -1.927984e-001 6.374224e+001 3.768223e-001 3.441963e-001 3.384492e-001 4.001387e-001 4.053818e-001 3.822733e-001 3.922630e-001 3.870511e-001 3.788830e-001 3.459102e-001 3.503633e-001 3.109974e-001 4.001445e-001 1.440233e-001 1.415190e-001 1.351485e-001 1.659787e-001 1.683631e-001 1.618115e-001 1.657115e-001 1.659977e-001 1.611706e-001 1.496086e-001 1.498200e-001 1.339599e-001 1.586600e-001
<VARIANCE> 39
 8.734944e+001 6.009818e+001 7.634363e+001 9.227768e+001 8.232497e+001 7.615223e+001 7.703553e+001 6.286168e+001 6.621155e+001 4.622612e+001 6.105910e+001 3.961195e+001 3.144565e+002 3.552021e+000 2.953835e+000 2.854625e+000 4.020165e+000 4.060718e+000 3.665646e+000 3.837373e+000 3.763541e+000 3.608474e+000 2.973805e+000 3.080254e+000 2.413050e+000 3.965565e+000 5.176081e-001 5.008283e-001 4.582565e-001 6.882523e-001 7.108405e-001 6.539938e-001 6.868035e-001 6.883193e-001 6.492820e-001 5.617016e-001 5.620656e-001 4.489511e-001 6.315120e-001
<GCONST> 1.369537e+002
<MIXTURE> 2 5.000000e-001
<MEAN> 39
 -9.824337e+000 -2.893426e+000 -2.736069e-001 -7.025393e+000 -5.624013e+000 -5.351875e+000 -5.057348e+000 -3.312893e+000 -3.285014e+000 -1.494747e+000 -3.021123e+000 -2.710320e+000 5.664907e+001 -3.770500e-001 -3.432727e-001 -3.373762e-001 -4.018753e-001 -4.006671e-001 -3.835618e-001 -3.913056e-001 -3.889429e-001 -3.809564e-001 -3.438787e-001 -3.516628e-001 -3.103625e-001 -3.964045e-001 -1.437567e-001 -1.415579e-001 -1.356301e-001 -1.658652e-001 -1.688823e-001 -1.616681e-001 -1.657830e-001 -1.658624e-001 -1.611416e-001 -1.501784e-001 -1.500641e-001 -1.340553e-001 -1.592109e-001
<VARIANCE> 39
 8.734944e+001 6.009818e+001 7.634363e+001 9.227768e+001 8.232497e+001 7.615223e+001 7.703553e+001 6.286168e+001 6.621155e+001 4.622612e+001 6.105910e+001 3.961195e+001 3.144565e+002 3.552021e+000 2.953835e+000 2.854625e+000 4.020165e+000 4.060718e+000 3.665646e+000 3.837373e+000 3.763541e+000 3.608474e+000 2.973805e+000 3.080254e+000 2.413050e+000 3.965565e+000 5.176081e-001 5.008283e-001 4.582565e-001 6.882523e-001 7.108405e-001 6.539938e-001 6.868035e-001 6.883193e-001 6.492820e-001 5.617016e-001 5.620656e-001 4.489511e-001 6.315120e-001
<GCONST> 1.369537e+002
<STATE> 3
<NUMMIXES> 2
<MIXTURE> 1 5.000000e-001
<MEAN> 39
 -6.085900e+000 2.074944e-001 3.221387e+000 -3.182941e+000 -1.994689e+000 -1.861265e+000 -1.546552e+000 -1.414788e-001 -3.019440e-002 1.224845e+000 1.044894e-001 -1.927984e-001 6.374224e+001 3.768223e-001 3.441963e-001 3.384492e-001 4.001387e-001 4.053818e-001 3.822733e-001 3.922630e-001 3.870511e-001 3.788830e-001 3.459102e-001 3.503633e-001 3.109974e-001 4.001445e-001 1.440233e-001 1.415190e-001 1.351485e-001 1.659787e-001 1.683631e-001 1.618115e-001 1.657115e-001 1.659977e-001 1.611706e-001 1.496086e-001 1.498200e-001 1.339599e-001 1.586600e-001
<VARIANCE> 39
 8.734944e+001 6.009818e+001 7.634363e+001 9.227768e+001 8.232497e+001 7.615223e+001 7.703553e+001 6.286168e+001 6.621155e+001 4.622612e+001 6.105910e+001 3.961195e+001 3.144565e+002 3.552021e+000 2.953835e+000 2.854625e+000 4.020165e+000 4.060718e+000 3.665646e+000 3.837373e+000 3.763541e+000 3.608474e+000 2.973805e+000 3.080254e+000 2.413050e+000 3.965565e+000 5.176081e-001 5.008283e-001 4.582565e-001 6.882523e-001 7.108405e-001 6.539938e-001 6.868035e-001 6.883193e-001 6.492820e-001 5.617016e-001 5.620656e-001 4.489511e-001 6.315120e-001
<GCONST> 1.369537e+002
<MIXTURE> 2 5.000000e-001
<MEAN> 39
 -9.824337e+000 -2.893426e+000 -2.736069e-001 -7.025393e+000 -5.624013e+000 -5.351875e+000 -5.057348e+000 -3.312893e+000 -3.285014e+000 -1.494747e+000 -3.021123e+000 -2.710320e+000 5.664907e+001 -3.770500e-001 -3.432727e-001 -3.373762e-001 -4.018753e-001 -4.006671e-001 -3.835618e-001 -3.913056e-001 -3.889429e-001 -3.809564e-001 -3.438787e-001 -3.516628e-001 -3.103625e-001 -3.964045e-001 -1.437567e-001 -1.415579e-001 -1.356301e-001 -1.658652e-001 -1.688823e-001 -1.616681e-001 -1.657830e-001 -1.658624e-001 -1.611416e-001 -1.501784e-001 -1.500641e-001 -1.340553e-001 -1.592109e-001
<VARIANCE> 39
 8.734944e+001 6.009818e+001 7.634363e+001 9.227768e+001 8.232497e+001 7.615223e+001 7.703553e+001 6.286168e+001 6.621155e+001 4.622612e+001 6.105910e+001 3.961195e+001 3.144565e+002 3.552021e+000 2.953835e+000 2.854625e+000 4.020165e+000 4.060718e+000 3.665646e+000 3.837373e+000 3.763541e+000 3.608474e+000 2.973805e+000 3.080254e+000 2.413050e+000 3.965565e+000 5.176081e-001 5.008283e-001 4.582565e-001 6.882523e-001 7.108405e-001 6.539938e-001 6.868035e-001 6.883193e-001 6.492820e-001 5.617016e-001 5.620656e-001 4.489511e-001 6.315120e-001
<GCONST> 1.369537e+002
<STATE> 4
<NUMMIXES> 2
<MIXTURE> 1 5.000000e-001
<MEAN> 39
 -6.085900e+000 2.074944e-001 3.221387e+000 -3.182941e+000 -1.994689e+000 -1.861265e+000 -1.546552e+000 -1.414788e-001 -3.019440e-002 1.224845e+000 1.044894e-001 -1.927984e-001 6.374224e+001 3.768223e-001 3.441963e-001 3.384492e-001 4.001387e-001 4.053818e-001 3.822733e-001 3.922630e-001 3.870511e-001 3.788830e-001 3.459102e-001 3.503633e-001 3.109974e-001 4.001445e-001 1.440233e-001 1.415190e-001 1.351485e-001 1.659787e-001 1.683631e-001 1.618115e-001 1.657115e-001 1.659977e-001 1.611706e-001 1.496086e-001 1.498200e-001 1.339599e-001 1.586600e-001
<VARIANCE> 39
 8.734944e+001 6.009818e+001 7.634363e+001 9.227768e+001 8.232497e+001 7.615223e+001 7.703553e+001 6.286168e+001 6.621155e+001 4.622612e+001 6.105910e+001 3.961195e+001 3.144565e+002 3.552021e+000 2.953835e+000 2.854625e+000 4.020165e+000 4.060718e+000 3.665646e+000 3.837373e+000 3.763541e+000 3.608474e+000 2.973805e+000 3.080254e+000 2.413050e+000 3.965565e+000 5.176081e-001 5.008283e-001 4.582565e-001 6.882523e-001 7.108405e-001 6.539938e-001 6.868035e-001 6.883193e-001 6.492820e-001 5.617016e-001 5.620656e-001 4.489511e-001 6.315120e-001
<GCONST> 1.369537e+002
<MIXTURE> 2 5.000000e-001
<MEAN> 39
 -9.824337e+000 -2.893426e+000 -2.736069e-001 -7.025393e+000 -5.624013e+000 -5.351875e+000 -5.057348e+000 -3.312893e+000 -3.285014e+000 -1.494747e+000 -3.021123e+000 -2.710320e+000 5.664907e+001 -3.770500e-001 -3.432727e-001 -3.373762e-001 -4.018753e-001 -4.006671e-001 -3.835618e-001 -3.913056e-001 -3.889429e-001 -3.809564e-001 -3.438787e-001 -3.516628e-001 -3.103625e-001 -3.964045e-001 -1.437567e-001 -1.415579e-001 -1.356301e-001 -1.658652e-001 -1.688823e-001 -1.616681e-001 -1.657830e-001 -1.658624e-001 -1.611416e-001 -1.501784e-001 -1.500641e-001 -1.340553e-001 -1.592109e-001
<VARIANCE> 39
 8.734944e+001 6.009818e+001 7.634363e+001 9.227768e+001 8.232497e+001 7.615223e+001 7.703553e+001 6.286168e+001 6.621155e+001 4.622612e+001 6.105910e+001 3.961195e+001 3.144565e+002 3.552021e+000 2.953835e+000 2.854625e+000 4.020165e+000 4.060718e+000 3.665646e+000 3.837373e+000 3.763541e+000 3.608474e+000 2.973805e+000 3.080254e+000 2.413050e+000 3.965565e+000 5.176081e-001 5.008283e-001 4.582565e-001 6.882523e-001 7.108405e-001 6.539938e-001 6.868035e-001 6.883193e-001 6.492820e-001 5.617016e-001 5.620656e-001 4.489511e-001 6.315120e-001
<GCONST> 1.369537e+002
<TRANSP> 5
 0.000000e+000 1.000000e+000 0.000000e+000 0.000000e+000 0.000000e+000
 0.000000e+000 6.000000e-001 4.000000e-001 0.000000e+000 0.000000e+000
 0.000000e+000 0.000000e+000 6.000000e-001 4.000000e-001 0.000000e+000
 0.000000e+000 0.000000e+000 0.000000e+000 7.000000e-001 3.000000e-001
 0.000000e+000 0.000000e+000 0.000000e+000 0.000000e+000 0.000000e+000
<ENDHMM>
~h "b"
<BEGINHMM>
<NUMSTATES> 5
<STATE> 2
<NUMMIXES> 2
<MIXTURE> 1 5.000000e-001
<MEAN> 39
 -6.085900e+000 2.074944e-001 3.221387e+000 -3.182941e+000 -1.994689e+000 -1.861265e+000 -1.546552e+000 -1.414788e-001 -3.019440e-002 1.224845e+000 1.044894e-001 -1.927984e-001 6.374224e+001 3.768223e-001 3.441963e-001 3.384492e-001 4.001387e-001 4.053818e-001 3.822733e-001 3.922630e-001 3.870511e-001 3.788830e-001 3.459102e-001 3.503633e-001 3.109974e-001 4.001445e-001 1.440233e-001 1.415190e-001 1.351485e-001 1.659787e-001 1.683631e-001 1.618115e-001 1.657115e-001 1.659977e-001 1.611706e-001 1.496086e-001 1.498200e-001 1.339599e-001 1.586600e-001
<VARIANCE> 39
 8.734944e+001 6.009818e+001 7.634363e+001 9.227768e+001 8.232497e+001 7.615223e+001 7.703553e+001 6.286168e+001 6.621155e+001 4.622612e+001 6.105910e+001 3.961195e+001 3.144565e+002 3.552021e+000 2.953835e+000 2.854625e+000 4.020165e+000 4.060718e+000 3.665646e+000 3.837373e+000 3.763541e+000 3.608474e+000 2.973805e+000 3.080254e+000 2.413050e+000 3.965565e+000 5.176081e-001 5.008283e-001 4.582565e-001 6.882523e-001 7.108405e-001 6.539938e-001 6.868035e-001 6.883193e-001 6.492820e-001 5.617016e-001 5.620656e-001 4.489511e-001 6.315120e-001
<GCONST> 1.369537e+002
<MIXTURE> 2 5.000000e-001
<MEAN> 39
 -9.824337e+000 -2.893426e+000 -2.736069e-001 -7.025393e+000 -5.624013e+000 -5.351875e+000 -5.057348e+000 -3.312893e+000 -3.285014e+000 -1.494747e+000 -3.021123e+000 -2.710320e+000 5.664907e+001 -3.770500e-001 -3.432727e-001 -3.373762e-001 -4.018753e-001 -4.006671e-001 -3.835618e-001 -3.913056e-001 -3.889429e-001 -3.809564e-001 -3.438787e-001 -3.516628e-001 -3.103625e-001 -3.964045e-001 -1.437567e-001 -1.415579e-001 -1.356301e-001 -1.658652e-001 -1.688823e-001 -1.616681e-001 -1.657830e-001 -1.658624e-001 -1.611416e-001 -1.501784e-001 -1.500641e-001 -1.340553e-001 -1.592109e-001
<VARIANCE> 39
 8.734944e+001 6.009818e+001 7.634363e+001 9.227768e+001 8.232497e+001 7.615223e+001 7.703553e+001 6.286168e+001 6.621155e+001 4.622612e+001 6.105910e+001 3.961195e+001 3.144565e+002 3.552021e+000 2.953835e+000 2.854625e+000 4.020165e+000 4.060718e+000 3.665646e+000 3.837373e+000 3.763541e+000 3.608474e+000 2.973805e+000 3.080254e+000 2.413050e+000 3.965565e+000 5.176081e-001 5.008283e-001 4.582565e-001 6.882523e-001 7.108405e-001 6.539938e-001 6.868035e-001 6.883193e-001 6.492820e-001 5.617016e-001 5.620656e-001 4.489511e-001 6.315120e-001
<GCONST> 1.369537e+002
<STATE> 3
<NUMMIXES> 2
<MIXTURE> 1 5.000000e-001
<MEAN> 39
 -6.085900e+000 2.074944e-001 3.221387e+000 -3.182941e+000 -1.994689e+000 -1.861265e+000 -1.546552e+000 -1.414788e-001 -3.019440e-002 1.224845e+000 1.044894e-001 -1.927984e-001 6.374224e+001 3.768223e-001 3.441963e-001 3.384492e-001 4.001387e-001 4.053818e-001 3.822733e-001 3.922630e-001 3.870511e-001 3.788830e-001 3.459102e-001 3.503633e-001 3.109974e-001 4.001445e-001 1.440233e-001 1.415190e-001 1.351485e-001 1.659787e-001 1.683631e-001 1.618115e-001 1.657115e-001 1.659977e-001 1.611706e-001 1.496086e-001 1.498200e-001 1.339599e-001 1.586600e-001
<VARIANCE> 39
 8.734944e+001 6.009818e+001 7.634363e+001 9.227768e+001 8.232497e+001 7.615223e+001 7.703553e+001 6.286168e+001 6.621155e+001 4.622612e+001 6.105910e+001 3.961195e+001 3.144565e+002 3.552021e+000 2.953835e+000 2.854625e+000 4.020165e+000 4.060718e+000 3.665646e+000 3.837373e+000 3.763541e+000 3.608474e+000 2.973805e+000 3.080254e+000 2.413050e+000 3.965565e+000 5.176081e-001 5.008283e-001 4.582565e-001 6.882523e-001 7.108405e-001 6.539938e-001 6.868035e-001 6.883193e-001 6.492820e-001 5.617016e-001 5.620656e-001 4.489511e-001 6.315120e-001
<GCONST> 1.369537e+002
<MIXTURE> 2 5.000000e-001
<MEAN> 39
 -9.824337e+000 -2.893426e+000 -2.736069e-001 -7.025393e+000 -5.624013e+000 -5.351875e+000 -5.057348e+000 -3.312893e+000 -3.285014e+000 -1.494747e+000 -3.021123e+000 -2.710320e+000 5.664907e+001 -3.770500e-001 -3.432727e-001 -3.373762e-001 -4.018753e-001 -4.006671e-001 -3.835618e-001 -3.913056e-001 -3.889429e-001 -3.809564e-001 -3.438787e-001 -3.516628e-001 -3.103625e-001 -3.964045e-001 -1.437567e-001 -1.415579e-001 -1.356301e-001 -1.658652e-001 -1.688823e-001 -1.616681e-001 -1.657830e-001 -1.658624e-001 -1.611416e-001 -1.501784e-001 -1.500641e-001 -1.340553e-001 -1.592109e-001
<VARIANCE> 39
 8.734944e+001 6.009818e+001 7.634363e+001 9.227768e+001 8.232497e+001 7.615223e+001 7.703553e+001 6.286168e+001 6.621155e+001 4.622612e+001 6.105910e+001 3.961195e+001 3.144565e+002 3.552021e+000 2.953835e+000 2.854625e+000 4.020165e+000 4.060718e+000 3.665646e+000 3.837373e+000 3.763541e+000 3.608474e+000 2.973805e+000 3.080254e+000 2.413050e+000 3.965565e+000 5.176081e-001 5.008283e-001 4.582565e-001 6.882523e-001 7.108405e-001 6.539938e-001 6.868035e-001 6.883193e-001 6.492820e-001 5.617016e-001 5.620656e-001 4.489511e-001 6.315120e-001
<GCONST> 1.369537e+002
<STATE> 4
<NUMMIXES> 2
<MIXTURE> 1 5.000000e-001
<MEAN> 39
 -6.085900e+000 2.074944e-001 3.221387e+000 -3.182941e+000 -1.994689e+000 -1.861265e+000 -1.546552e+000 -1.414788e-001 -3.019440e-002 1.224845e+000 1.044894e-001 -1.927984e-001 6.374224e+001 3.768223e-001 3.441963e-001 3.384492e-001 4.001387e-001 4.053818e-001 3.822733e-001 3.922630e-001 3.870511e-001 3.788830e-001 3.459102e-001 3.503633e-001 3.109974e-001 4.001445e-001 1.440233e-001 1.415190e-001 1.351485e-001 1.659787e-001 1.683631e-001 1.618115e-001 1.657115e-001 1.659977e-001 1.611706e-001 1.496086e-001 1.498200e-001 1.339599e-001 1.586600e-001
<VARIANCE> 39
 8.734944e+001 6.009818e+001 7.634363e+001 9.227768e+001 8.232497e+001 7.615223e+001 7.703553e+001 6.286168e+001 6.621155e+001 4.622612e+001 6.105910e+001 3.961195e+001 3.144565e+002 3.552021e+000 2.953835e+000 2.854625e+000 4.020165e+000 4.060718e+000 3.665646e+000 3.837373e+000 3.763541e+000 3.608474e+000 2.973805e+000 3.080254e+000 2.413050e+000 3.965565e+000 5.176081e-001 5.008283e-001 4.582565e-001 6.882523e-001 7.108405e-001 6.539938e-001 6.868035e-001 6.883193e-001 6.492820e-001 5.617016e-001 5.620656e-001 4.489511e-001 6.315120e-001
<GCONST> 1.369537e+002
<MIXTURE> 2 5.000000e-001
<MEAN> 39
 -9.824337e+000 -2.893426e+000 -2.736069e-001 -7.025393e+000 -5.624013e+000 -5.351875e+000 -5.057348e+000 -3.312893e+000 -3.285014e+000 -1.494747e+000 -3.021123e+000 -2.710320e+000 5.664907e+001 -3.770500e-001 -3.432727e-001 -3.373762e-001 -4.018753e-001 -4.006671e-001 -3.835618e-001 -3.913056e-001 -3.889429e-001 -3.809564e-001 -3.438787e-001 -3.516628e-001 -3.103625e-001 -3.964045e-001 -1.437567e-001 -1.415579e-001 -1.356301e-001 -1.658652e-001 -1.688823e-001 -1.616681e-001 -1.657830e-001 -1.658624e-001 -1.611416e-001 -1.501784e-001 -1.500641e-001 -1.340553e-001 -1.592109e-001
<VARIANCE> 39
 8.734944e+001 6.009818e+001 7.634363e+001 9.227768e+001 8.232497e+001 7.615223e+001 7.703553e+001 6.286168e+001 6.621155e+001 4.622612e+001 6.105910e+001 3.961195e+001 3.144565e+002 3.552021e+000 2.953835e+000 2.854625e+000 4.020165e+000 4.060718e+000 3.665646e+000 3.837373e+000 3.763541e+000 3.608474e+000 2.973805e+000 3.080254e+000 2.413050e+000 3.965565e+000 5.176081e-001 5.008283e-001 4.582565e-001 6.882523e-001 7.108405e-001 6.539938e-001 6.868035e-001 6.883193e-001 6.492820e-001 5.617016e-001 5.620656e-001 4.489511e-001 6.315120e-001
<GCONST> 1.369537e+002
<TRANSP> 5
 0.000000e+000 1.000000e+000 0.000000e+000 0.000000e+000 0.000000e+000
 0.000000e+000 6.000000e-001 4.000000e-001 0.000000e+000 0.000000e+000
 0.000000e+000 0.000000e+000 6.000000e-001 4.000000e-001 0.000000e+000
 0.000000e+000 0.000000e+000 0.000000e+000 7.000000e-001 3.000000e-001
 0.000000e+000 0.000000e+000 0.000000e+000 0.000000e+000 0.000000e+000
<ENDHMM>
~h "d"
<BEGINHMM>
<NUMSTATES> 5
<STATE> 2
<NUMMIXES> 2
<MIXTURE> 1 5.000000e-001
<MEAN> 39
 -6.085900e+000 2.074944e-001 3.221387e+000 -3.182941e+000 -1.994689e+000 -1.861265e+000 -1.546552e+000 -1.414788e-001 -3.019440e-002 1.224845e+000 1.044894e-001 -1.927984e-001 6.374224e+001 3.768223e-001 3.441963e-001 3.384492e-001 4.001387e-001 4.053818e-001 3.822733e-001 3.922630e-001 3.870511e-001 3.788830e-001 3.459102e-001 3.503633e-001 3.109974e-001 4.001445e-001 1.440233e-001 1.415190e-001 1.351485e-001 1.659787e-001 1.683631e-001 1.618115e-001 1.657115e-001 1.659977e-001 1.611706e-001 1.496086e-001 1.498200e-001 1.339599e-001 1.586600e-001
<VARIANCE> 39
 8.734944e+001 6.009818e+001 7.634363e+001 9.227768e+001 8.232497e+001 7.615223e+001 7.703553e+001 6.286168e+001 6.621155e+001 4.622612e+001 6.105910e+001 3.961195e+001 3.144565e+002 3.552021e+000 2.953835e+000 2.854625e+000 4.020165e+000 4.060718e+000 3.665646e+000 3.837373e+000 3.763541e+000 3.608474e+000 2.973805e+000 3.080254e+000 2.413050e+000 3.965565e+000 5.176081e-001 5.008283e-001 4.582565e-001 6.882523e-001 7.108405e-001 6.539938e-001 6.868035e-001 6.883193e-001 6.492820e-001 5.617016e-001 5.620656e-001 4.489511e-001 6.315120e-001
<GCONST> 1.369537e+002
<MIXTURE> 2 5.000000e-001
<MEAN> 39
 -9.824337e+000 -2.893426e+000 -2.736069e-001 -7.025393e+000 -5.624013e+000 -5.351875e+000 -5.057348e+000 -3.312893e+000 -3.285014e+000 -1.494747e+000 -3.021123e+000 -2.710320e+000 5.664907e+001 -3.770500e-001 -3.432727e-001 -3.373762e-001 -4.018753e-001 -4.006671e-001 -3.835618e-001 -3.913056e-001 -3.889429e-001 -3.809564e-001 -3.438787e-001 -3.516628e-001 -3.103625e-001 -3.964045e-001 -1.437567e-001 -1.415579e-001 -1.356301e-001 -1.658652e-001 -1.688823e-001 -1.616681e-001 -1.657830e-001 -1.658624e-001 -1.611416e-001 -1.501784e-001 -1.500641e-001 -1.340553e-001 -1.592109e-001
<VARIANCE> 39
 8.734944e+001 6.009818e+001 7.634363e+001 9.227768e+001 8.232497e+001 7.615223e+001 7.703553e+001 6.286168e+001 6.621155e+001 4.622612e+001 6.105910e+001 3.961195e+001 3.144565e+002 3.552021e+000 2.953835e+000 2.854625e+000 4.020165e+000 4.060718e+000 3.665646e+000 3.837373e+000 3.763541e+000 3.608474e+000 2.973805e+000 3.080254e+000 2.413050e+000 3.965565e+000 5.176081e-001 5.008283e-001 4.582565e-001 6.882523e-001 7.108405e-001 6.539938e-001 6.868035e-001 6.883193e-001 6.492820e-001 5.617016e-001 5.620656e-001 4.489511e-001 6.315120e-001
<GCONST> 1.369537e+002
<STATE> 3
<NUMMIXES> 2
<MIXTURE> 1 5.000000e-001
<MEAN> 39
 -6.085900e+000 2.074944e-001 3.221387e+000 -3.182941e+000 -1.994689e+000 -1.861265e+000 -1.546552e+000 -1.414788e-001 -3.019440e-002 1.224845e+000 1.044894e-001 -1.927984e-001 6.374224e+001 3.768223e-001 3.441963e-001 3.384492e-001 4.001387e-001 4.053818e-001 3.822733e-001 3.922630e-001 3.870511e-001 3.788830e-001 3.459102e-001 3.503633e-001 3.109974e-001 4.001445e-001 1.440233e-001 1.415190e-001 1.351485e-001 1.659787e-001 1.683631e-001 1.618115e-001 1.657115e-001 1.659977e-001 1.611706e-001 1.496086e-001 1.498200e-001 1.339599e-001 1.586600e-001
<VARIANCE> 39
 8.734944e+001 6.009818e+001 7.634363e+001 9.227768e+001 8.232497e+001 7.615223e+001 7.703553e+001 6.286168e+001 6.621155e+001 4.622612e+001 6.105910e+001 3.961195e+001 3.144565e+002 3.552021e+000 2.953835e+000 2.854625e+000 4.020165e+000 4.060718e+000 3.665646e+000 3.837373e+000 3.763541e+000 3.608474e+000 2.973805e+000 3.080254e+000 2.413050e+000 3.965565e+000 5.176081e-001 5.008283e-001 4.582565e-001 6.882523e-001 7.108405e-001 6.539938e-001 6.868035e-001 6.883193e-001 6.492820e-001 5.617016e-001 5.620656e-001 4.489511e-001 6.315120e-001
<GCONST> 1.369537e+002
<MIXTURE> 2 5.000000e-001
<MEAN> 39
 -9.824337e+000 -2.893426e+000 -2.736069e-001 -7.025393e+000 -5.624013e+000 -5.351875e+000 -5.057348e+000 -3.312893e+000 -3.285014e+000 -1.494747e+000 -3.021123e+000 -2.710320e+000 5.664907e+001 -3.770500e-001 -3.432727e-001 -3.373762e-001 -4.018753e-001 -4.006671e-001 -3.835618e-001 -3.913056e-001 -3.889429e-001 -3.809564e-001 -3.438787e-001 -3.516628e-001 -3.103625e-001 -3.964045e-001 -1.437567e-001 -1.415579e-001 -1.356301e-001 -1.658652e-001 -1.688823e-001 -1.616681e-001 -1.657830e-001 -1.658624e-001 -1.611416e-001 -1.501784e-001 -1.500641e-001 -1.340553e-001 -1.592109e-001
<VARIANCE> 39
 8.734944e+001 6.009818e+001 7.634363e+001 9.227768e+001 8.232497e+001 7.615223e+001 7.703553e+001 6.286168e+001 6.621155e+001 4.622612e+001 6.105910e+001 3.961195e+001 3.144565e+002 3.552021e+000 2.953835e+000 2.854625e+000 4.020165e+000 4.060718e+000 3.665646e+000 3.837373e+000 3.763541e+000 3.608474e+000 2.973805e+000 3.080254e+000 2.413050e+000 3.965565e+000 5.176081e-001 5.008283e-001 4.582565e-001 6.882523e-001 7.108405e-001 6.539938e-001 6.868035e-001 6.883193e-001 6.492820e-001 5.617016e-001 5.620656e-001 4.489511e-001 6.315120e-001
<GCONST> 1.369537e+002
<STATE> 4
<NUMMIXES> 2
<MIXTURE> 1 5.000000e-001
<MEAN> 39
 -6.085900e+000 2.074944e-001 3.221387e+000 -3.182941e+000 -1.994689e+000 -1.861265e+000 -1.546552e+000 -1.414788e-001 -3.019440e-002 1.224845e+000 1.044894e-001 -1.927984e-001 6.374224e+001 3.768223e-001 3.441963e-001 3.384492e-001 4.001387e-001 4.053818e-001 3.822733e-001 3.922630e-001 3.870511e-001 3.788830e-001 3.459102e-001 3.503633e-001 3.109974e-001 4.001445e-001 1.440233e-001 1.415190e-001 1.351485e-001 1.659787e-001 1.683631e-001 1.618115e-001 1.657115e-001 1.659977e-001 1.611706e-001 1.496086e-001 1.498200e-001 1.339599e-001 1.586600e-001
<VARIANCE> 39
 8.734944e+001 6.009818e+001 7.634363e+001 9.227768e+001 8.232497e+001 7.615223e+001 7.703553e+001 6.286168e+001 6.621155e+001 4.622612e+001 6.105910e+001 3.961195e+001 3.144565e+002 3.552021e+000 2.953835e+000 2.854625e+000 4.020165e+000 4.060718e+000 3.665646e+000 3.837373e+000 3.763541e+000 3.608474e+000 2.973805e+000 3.080254e+000 2.413050e+000 3.965565e+000 5.176081e-001 5.008283e-001 4.582565e-001 6.882523e-001 7.108405e-001 6.539938e-001 6.868035e-001 6.883193e-001 6.492820e-001 5.617016e-001 5.620656e-001 4.489511e-001 6.315120e-001
<GCONST> 1.369537e+002
<MIXTURE> 2 5.000000e-001
<MEAN> 39
 -9.824337e+000 -2.893426e+000 -2.736069e-001 -7.025393e+000 -5.624013e+000 -5.351875e+000 -5.057348e+000 -3.312893e+000 -3.285014e+000 -1.494747e+000 -3.021123e+000 -2.710320e+000 5.664907e+001 -3.770500e-001 -3.432727e-001 -3.373762e-001 -4.018753e-001 -4.006671e-001 -3.835618e-001 -3.913056e-001 -3.889429e-001 -3.809564e-001 -3.438787e-001 -3.516628e-001 -3.103625e-001 -3.964045e-001 -1.437567e-001 -1.415579e-001 -1.356301e-001 -1.658652e-001 -1.688823e-001 -1.616681e-001 -1.657830e-001 -1.658624e-001 -1.611416e-001 -1.501784e-001 -1.500641e-001 -1.340553e-001 -1.592109e-001
<VARIANCE> 39
 8.734944e+001 6.009818e+001 7.634363e+001 9.227768e+001 8.232497e+001 7.615223e+001 7.703553e+001 6.286168e+001 6.621155e+001 4.622612e+001 6.105910e+001 3.961195e+001 3.144565e+002 3.552021e+000 2.953835e+000 2.854625e+000 4.020165e+000 4.060718e+000 3.665646e+000 3.837373e+000 3.763541e+000 3.608474e+000 2.973805e+000 3.080254e+000 2.413050e+000 3.965565e+000 5.176081e-001 5.008283e-001 4.582565e-001 6.882523e-001 7.108405e-001 6.539938e-001 6.868035e-001 6.883193e-001 6.492820e-001 5.617016e-001 5.620656e-001 4.489511e-001 6.315120e-001
<GCONST> 1.369537e+002
<TRANSP> 5
 0.000000e+000 1.000000e+000 0.000000e+000 0.000000e+000 0.000000e+000
 0.000000e+000 6.000000e-001 4.000000e-001 0.000000e+000 0.000000e+000
 0.000000e+000 0.000000e+000 6.000000e-001 4.000000e-001 0.000000e+000
 0.000000e+000 0.000000e+000 0.000000e+000 7.000000e-001 3.000000e-001
 0.000000e+000 0.000000e+000 0.000000e+000 0.000000e+000 0.000000e+000
<ENDHMM>
~h "e"
<BEGINHMM>
<NUMSTATES> 5
<STATE> 2
<NUMMIXES> 2
<MIXTURE> 1 5.000000e-001
<MEAN> 39
 -6.085900e+000 2.074944e-001 3.221387e+000 -3.182941e+000 -1.994689e+000 -1.861265e+000 -1.546552e+000 -1.414788e-001 -3.019440e-002 1.224845e+000 1.044894e-001 -1.927984e-001 6.374224e+001 3.768223e-001 3.441963e-001 3.384492e-001 4.001387e-001 4.053818e-001 3.822733e-001 3.922630e-001 3.870511e-001 3.788830e-001 3.459102e-001 3.503633e-001 3.109974e-001 4.001445e-001 1.440233e-001 1.415190e-001 1.351485e-001 1.659787e-001 1.683631e-001 1.618115e-001 1.657115e-001 1.659977e-001 1.611706e-001 1.496086e-001 1.498200e-001 1.339599e-001 1.586600e-001
<VARIANCE> 39
 8.734944e+001 6.009818e+001 7.634363e+001 9.227768e+001 8.232497e+001 7.615223e+001 7.703553e+001 6.286168e+001 6.621155e+001 4.622612e+001 6.105910e+001 3.961195e+001 3.144565e+002 3.552021e+000 2.953835e+000 2.854625e+000 4.020165e+000 4.060718e+000 3.665646e+000 3.837373e+000 3.763541e+000 3.608474e+000 2.973805e+000 3.080254e+000 2.413050e+000 3.965565e+000 5.176081e-001 5.008283e-001 4.582565e-001 6.882523e-001 7.108405e-001 6.539938e-001 6.868035e-001 6.883193e-001 6.492820e-001 5.617016e-001 5.620656e-001 4.489511e-001 6.315120e-001
<GCONST> 1.369537e+002
<MIXTURE> 2 5.000000e-001
<MEAN> 39
 -9.824337e+000 -2.893426e+000 -2.736069e-001 -7.025393e+000 -5.624013e+000 -5.351875e+000 -5.057348e+000 -3.312893e+000 -3.285014e+000 -1.494747e+000 -3.021123e+000 -2.710320e+000 5.664907e+001 -3.770500e-001 -3.432727e-001 -3.373762e-001 -4.018753e-001 -4.006671e-001 -3.835618e-001 -3.913056e-001 -3.889429e-001 -3.809564e-001 -3.438787e-001 -3.516628e-001 -3.103625e-001 -3.964045e-001 -1.437567e-001 -1.415579e-001 -1.356301e-001 -1.658652e-001 -1.688823e-001 -1.616681e-001 -1.657830e-001 -1.658624e-001 -1.611416e-001 -1.501784e-001 -1.500641e-001 -1.340553e-001 -1.592109e-001
<VARIANCE> 39
 8.734944e+001 6.009818e+001 7.634363e+001 9.227768e+001 8.232497e+001 7.615223e+001 7.703553e+001 6.286168e+001 6.621155e+001 4.622612e+001 6.105910e+001 3.961195e+001 3.144565e+002 3.552021e+000 2.953835e+000 2.854625e+000 4.020165e+000 4.060718e+000 3.665646e+000 3.837373e+000 3.763541e+000 3.608474e+000 2.973805e+000 3.080254e+000 2.413050e+000 3.965565e+000 5.176081e-001 5.008283e-001 4.582565e-001 6.882523e-001 7.108405e-001 6.539938e-001 6.868035e-001 6.883193e-001 6.492820e-001 5.617016e-001 5.620656e-001 4.489511e-001 6.315120e-001
<GCONST> 1.369537e+002
<STATE> 3
<NUMMIXES> 2
<MIXTURE> 1 5.000000e-001
<MEAN> 39
 -6.085900e+000 2.074944e-001 3.221387e+000 -3.182941e+000 -1.994689e+000 -1.861265e+000 -1.546552e+000 -1.414788e-001 -3.019440e-002 1.224845e+000 1.044894e-001 -1.927984e-001 6.374224e+001 3.768223e-001 3.441963e-001 3.384492e-001 4.001387e-001 4.053818e-001 3.822733e-001 3.922630e-001 3.870511e-001 3.788830e-001 3.459102e-001 3.503633e-001 3.109974e-001 4.001445e-001 1.440233e-001 1.415190e-001 1.351485e-001 1.659787e-001 1.683631e-001 1.618115e-001 1.657115e-001 1.659977e-001 1.611706e-001 1.496086e-001 1.498200e-001 1.339599e-001 1.586600e-001
<VARIANCE> 39
 8.734944e+001 6.009818e+001 7.634363e+001 9.227768e+001 8.232497e+001 7.615223e+001 7.703553e+001 6.286168e+001 6.621155e+001 4.622612e+001 6.105910e+001 3.961195e+001 3.144565e+002 3.552021e+000 2.953835e+000 2.854625e+000 4.020165e+000 4.060718e+000 3.665646e+000 3.837373e+000 3.763541e+000 3.608474e+000 2.973805e+000 3.080254e+000 2.413050e+000 3.965565e+000 5.176081e-001 5.008283e-001 4.582565e-001 6.882523e-001 7.108405e-001 6.539938e-001 6.868035e-001 6.883193e-001 6.492820e-001 5.617016e-001 5.620656e-001 4.489511e-001 6.315120e-001
<GCONST> 1.369537e+002
<MIXTURE> 2 5.000000e-001
<MEAN> 39
 -9.824337e+000 -2.893426e+000 -2.736069e-001 -7.025393e+000 -5.624013e+000 -5.351875e+000 -5.057348e+000 -3.312893e+000 -3.285014e+000 -1.494747e+000 -3.021123e+000 -2.710320e+000 5.664907e+001 -3.770500e-001 -3.432727e-001 -3.373762e-001 -4.018753e-001 -4.006671e-001 -3.835618e-001 -3.913056e-001 -3.889429e-001 -3.809564e-001 -3.438787e-001 -3.516628e-001 -3.103625e-001 -3.964045e-001 -1.437567e-001 -1.415579e-001 -1.356301e-001 -1.658652e-001 -1.688823e-001 -1.616681e-001 -1.657830e-001 -1.658624e-001 -1.611416e-001 -1.501784e-001 -1.500641e-001 -1.340553e-001 -1.592109e-001
<VARIANCE> 39
 8.734944e+001 6.009818e+001 7.634363e+001 9.227768e+001 8.232497e+001 7.615223e+001 7.703553e+001 6.286168e+001 6.621155e+001 4.622612e+001 6.105910e+001 3.961195e+001 3.144565e+002 3.552021e+000 2.953835e+000 2.854625e+000 4.020165e+000 4.060718e+000 3.665646e+000 3.837373e+000 3.763541e+000 3.608474e+000 2.973805e+000 3.080254e+000 2.413050e+000 3.965565e+000 5.176081e-001 5.008283e-001 4.582565e-001 6.882523e-001 7.108405e-001 6.539938e-001 6.868035e-001 6.883193e-001 6.492820e-001 5.617016e-001 5.620656e-001 4.489511e-001 6.315120e-001
<GCONST> 1.369537e+002
<STATE> 4
<NUMMIXES> 2
<MIXTURE> 1 5.000000e-001
<MEAN> 39
 -6.085900e+000 2.074944e-001 3.221387e+000 -3.182941e+000 -1.994689e+000 -1.861265e+000 -1.546552e+000 -1.414788e-001 -3.019440e-002 1.224845e+000 1.044894e-001 -1.927984e-001 6.374224e+001 3.768223e-001 3.441963e-001 3.384492e-001 4.001387e-001 4.053818e-001 3.822733e-001 3.922630e-001 3.870511e-001 3.788830e-001 3.459102e-001 3.503633e-001 3.109974e-001 4.001445e-001 1.440233e-001 1.415190e-001 1.351485e-001 1.659787e-001 1.683631e-001 1.618115e-001 1.657115e-001 1.659977e-001 1.611706e-001 1.496086e-001 1.498200e-001 1.339599e-001 1.586600e-001
<VARIANCE> 39
 8.734944e+001 6.009818e+001 7.634363e+001 9.227768e+001 8.232497e+001 7.615223e+001 7.703553e+001 6.286168e+001 6.621155e+001 4.622612e+001 6.105910e+001 3.961195e+001 3.144565e+002 3.552021e+000 2.953835e+000 2.854625e+000 4.020165e+000 4.060718e+000 3.665646e+000 3.837373e+000 3.763541e+000 3.608474e+000 2.973805e+000 3.080254e+000 2.413050e+000 3.965565e+000 5.176081e-001 5.008283e-001 4.582565e-001 6.882523e-001 7.108405e-001 6.539938e-001 6.868035e-001 6.883193e-001 6.492820e-001 5.617016e-001 5.620656e-001 4.489511e-001 6.315120e-001
<GCONST> 1.369537e+002
<MIXTURE> 2 5.000000e-001
<MEAN> 39
 -9.824337e+000 -2.893426e+000 -2.736069e-001 -7.025393e+000 -5.624013e+000 -5.351875e+000 -5.057348e+000 -3.312893e+000 -3.285014e+000 -1.494747e+000 -3.021123e+000 -2.710320e+000 5.664907e+001 -3.770500e-001 -3.432727e-001 -3.373762e-001 -4.018753e-001 -4.006671e-001 -3.835618e-001 -3.913056e-001 -3.889429e-001 -3.809564e-001 -3.438787e-001 -3.516628e-001 -3.103625e-001 -3.964045e-001 -1.437567e-001 -1.415579e-001 -1.356301e-001 -1.658652e-001 -1.688823e-001 -1.616681e-001 -1.657830e-001 -1.658624e-001 -1.611416e-001 -1.501784e-001 -1.500641e-001 -1.340553e-001 -1.592109e-001
<VARIANCE> 39
 8.734944e+001 6.009818e+001 7.634363e+001 9.227768e+001 8.232497e+001 7.615223e+001 7.703553e+001 6.286168e+001 6.621155e+001 4.622612e+001 6.105910e+001 3.961195e+001 3.144565e+002 3.552021e+000 2.953835e+000 2.854625e+000 4.020165e+000 4.060718e+000 3.665646e+000 3.837373e+000 3.763541e+000 3.608474e+000 2.973805e+000 3.080254e+000 2.413050e+000 3.965565e+000 5.176081e-001 5.008283e-001 4.582565e-001 6.882523e-001 7.108405e-001 6.539938e-001 6.868035e-001 6.883193e-001 6.492820e-001 5.617016e-001 5.620656e-001 4.489511e-001 6.315120e-001
<GCONST> 1.369537e+002
<TRANSP> 5
 0.000000e+000 1.000000e+000 0.000000e+000 0.000000e+000 0.000000e+000
 0.000000e+000 6.000000e-001 4.000000e-001 0.000000e+000 0.000000e+000
 0.000000e+000 0.000000e+000 6.000000e-001 4.000000e-001 0.000000e+000
 0.000000e+000 0.000000e+000 0.000000e+000 7.000000e-001 3.000000e-001
 0.000000e+000 0.000000e+000 0.000000e+000 0.000000e+000 0.000000e+000
<ENDHMM>
~h "f"
<BEGINHMM>
<NUMSTATES> 5
<STATE> 2
<NUMMIXES> 2
<MIXTURE> 1 5.000000e-001
<MEAN> 39
 -6.085900e+000 2.074944e-001 3.221387e+000 -3.182941e+000 -1.994689e+000 -1.861265e+000 -1.546552e+000 -1.414788e-001 -3.019440e-002 1.224845e+000 1.044894e-001 -1.927984e-001 6.374224e+001 3.768223e-001 3.441963e-001 3.384492e-001 4.001387e-001 4.053818e-001 3.822733e-001 3.922630e-001 3.870511e-001 3.788830e-001 3.459102e-001 3.503633e-001 3.109974e-001 4.001445e-001 1.440233e-001 1.415190e-001 1.351485e-001 1.659787e-001 1.683631e-001 1.618115e-001 1.657115e-001 1.659977e-001 1.611706e-001 1.496086e-001 1.498200e-001 1.339599e-001 1.586600e-001
<VARIANCE> 39
 8.734944e+001 6.009818e+001 7.634363e+001 9.227768e+001 8.232497e+001 7.615223e+001 7.703553e+001 6.286168e+001 6.621155e+001 4.622612e+001 6.105910e+001 3.961195e+001 3.144565e+002 3.552021e+000 2.953835e+000 2.854625e+000 4.020165e+000 4.060718e+000 3.665646e+000 3.837373e+000 3.763541e+000 3.608474e+000 2.973805e+000 3.080254e+000 2.413050e+000 3.965565e+000 5.176081e-001 5.008283e-001 4.582565e-001 6.882523e-001 7.108405e-001 6.539938e-001 6.868035e-001 6.883193e-001 6.492820e-001 5.617016e-001 5.620656e-001 4.489511e-001 6.315120e-001
<GCONST> 1.369537e+002
<MIXTURE> 2 5.000000e-001
<MEAN> 39
 -9.824337e+000 -2.893426e+000 -2.736069e-001 -7.025393e+000 -5.624013e+000 -5.351875e+000 -5.057348e+000 -3.312893e+000 -3.285014e+000 -1.494747e+000 -3.021123e+000 -2.710320e+000 5.664907e+001 -3.770500e-001 -3.432727e-001 -3.373762e-001 -4.018753e-001 -4.006671e-001 -3.835618e-001 -3.913056e-001 -3.889429e-001 -3.809564e-001 -3.438787e-001 -3.516628e-001 -3.103625e-001 -3.964045e-001 -1.437567e-001 -1.415579e-001 -1.356301e-001 -1.658652e-001 -1.688823e-001 -1.616681e-001 -1.657830e-001 -1.658624e-001 -1.611416e-001 -1.501784e-001 -1.500641e-001 -1.340553e-001 -1.592109e-001
<VARIANCE> 39
 8.734944e+001 6.009818e+001 7.634363e+001 9.227768e+001 8.232497e+001 7.615223e+001 7.703553e+001 6.286168e+001 6.621155e+001 4.622612e+001 6.105910e+001 3.961195e+001 3.144565e+002 3.552021e+000 2.953835e+000 2.854625e+000 4.020165e+000 4.060718e+000 3.665646e+000 3.837373e+000 3.763541e+000 3.608474e+000 2.973805e+000 3.080254e+000 2.413050e+000 3.965565e+000 5.176081e-001 5.008283e-001 4.582565e-001 6.882523e-001 7.108405e-001 6.539938e-001 6.868035e-001 6.883193e-001 6.492820e-001 5.617016e-001 5.620656e-001 4.489511e-001 6.315120e-001
<GCONST> 1.369537e+002
<STATE> 3
<NUMMIXES> 2
<MIXTURE> 1 5.000000e-001
<MEAN> 39
 -6.085900e+000 2.074944e-001 3.221387e+000 -3.182941e+000 -1.994689e+000 -1.861265e+000 -1.546552e+000 -1.414788e-001 -3.019440e-002 1.224845e+000 1.044894e-001 -1.927984e-001 6.374224e+001 3.768223e-001 3.441963e-001 3.384492e-001 4.001387e-001 4.053818e-001 3.822733e-001 3.922630e-001 3.870511e-001 3.788830e-001 3.459102e-001 3.503633e-001 3.109974e-001 4.001445e-001 1.440233e-001 1.415190e-001 1.351485e-001 1.659787e-001 1.683631e-001 1.618115e-001 1.657115e-001 1.659977e-001 1.611706e-001 1.496086e-001 1.498200e-001 1.339599e-001 1.586600e-001
<VARIANCE> 39
 8.734944e+001 6.009818e+001 7.634363e+001 9.227768e+001 8.232497e+001 7.615223e+001 7.703553e+001 6.286168e+001 6.621155e+001 4.622612e+001 6.105910e+001 3.961195e+001 3.144565e+002 3.552021e+000 2.953835e+000 2.854625e+000 4.020165e+000 4.060718e+000 3.665646e+000 3.837373e+000 3.763541e+000 3.608474e+000 2.973805e+000 3.080254e+000 2.413050e+000 3.965565e+000 5.176081e-001 5.008283e-001 4.582565e-001 6.882523e-001 7.108405e-001 6.539938e-001 6.868035e-001 6.883193e-001 6.492820e-001 5.617016e-001 5.620656e-001 4.489511e-001 6.315120e-001
<GCONST> 1.369537e+002
<MIXTURE> 2 5.000000e-001
<MEAN> 39
 -9.824337e+000 -2.893426e+000 -2.736069e-001 -7.025393e+000 -5.624013e+000 -5.351875e+000 -5.057348e+000 -3.312893e+000 -3.285014e+000 -1.494747e+000 -3.021123e+000 -2.710320e+000 5.664907e+001 -3.770500e-001 -3.432727e-001 -3.373762e-001 -4.018753e-001 -4.006671e-001 -3.835618e-001 -3.913056e-001 -3.889429e-001 -3.809564e-001 -3.438787e-001 -3.516628e-001 -3.103625e-001 -3.964045e-001 -1.437567e-001 -1.415579e-001 -1.356301e-001 -1.658652e-001 -1.688823e-001 -1.616681e-001 -1.657830e-001 -1.658624e-001 -1.611416e-001 -1.501784e-001 -1.500641e-001 -1.340553e-001 -1.592109e-001
<VARIANCE> 39
 8.734944e+001 6.009818e+001 7.634363e+001 9.227768e+001 8.232497e+001 7.615223e+001 7.703553e+001 6.286168e+001 6.621155e+001 4.622612e+001 6.105910e+001 3.961195e+001 3.144565e+002 3.552021e+000 2.953835e+000 2.854625e+000 4.020165e+000 4.060718e+000 3.665646e+000 3.837373e+000 3.763541e+000 3.608474e+000 2.973805e+000 3.080254e+000 2.413050e+000 3.965565e+000 5.176081e-001 5.008283e-001 4.582565e-001 6.882523e-001 7.108405e-001 6.539938e-001 6.868035e-001 6.883193e-001 6.492820e-001 5.617016e-001 5.620656e-001 4.489511e-001 6.315120e-001
<GCONST> 1.369537e+002
<STATE> 4
<NUMMIXES> 2
<MIXTURE> 1 5.000000e-001
<MEAN> 39
 -6.085900e+000 2.074944e-001 3.221387e+000 -3.182941e+000 -1.994689e+000 -1.861265e+000 -1.546552e+000 -1.414788e-001 -3.019440e-002 1.224845e+000 1.044894e-001 -1.927984e-001 6.374224e+001 3.768223e-001 3.441963e-001 3.384492e-001 4.001387e-001 4.053818e-001 3.822733e-001 3.922630e-001 3.870511e-001 3.788830e-001 3.459102e-001 3.503633e-001 3.109974e-001 4.001445e-001 1.440233e-001 1.415190e-001 1.351485e-001 1.659787e-001 1.683631e-001 1.618115e-001 1.657115e-001 1.659977e-001 1.611706e-001 1.496086e-001 1.498200e-001 1.339599e-001 1.586600e-001
<VARIANCE> 39
 8.734944e+001 6.009818e+001 7.634363e+001 9.227768e+001 8.232497e+001 7.615223e+001 7.703553e+001 6.286168e+001 6.621155e+001 4.622612e+001 6.105910e+001 3.961195e+001 3.144565e+002 3.552021e+000 2.953835e+000 2.854625e+000 4.020165e+000 4.060718e+000 3.665646e+000 3.837373e+000 3.763541e+000 3.608474e+000 2.973805e+000 3.080254e+000 2.413050e+000 3.965565e+000 5.176081e-001 5.008283e-001 4.582565e-001 6.882523e-001 7.108405e-001 6.539938e-001 6.868035e-001 6.883193e-001 6.492820e-001 5.617016e-001 5.620656e-001 4.489511e-001 6.315120e-001
<GCONST> 1.369537e+002
<MIXTURE> 2 5.000000e-001
<MEAN> 39
 -9.824337e+000 -2.893426e+000 -2.736069e-001 -7.025393e+000 -5.624013e+000 -5.351875e+000 -5.057348e+000 -3.312893e+000 -3.285014e+000 -1.494747e+000 -3.021123e+000 -2.710320e+000 5.664907e+001 -3.770500e-001 -3.432727e-001 -3.373762e-001 -4.018753e-001 -4.006671e-001 -3.835618e-001 -3.913056e-001 -3.889429e-001 -3.809564e-001 -3.438787e-001 -3.516628e-001 -3.103625e-001 -3.964045e-001 -1.437567e-001 -1.415579e-001 -1.356301e-001 -1.658652e-001 -1.688823e-001 -1.616681e-001 -1.657830e-001 -1.658624e-001 -1.611416e-001 -1.501784e-001 -1.500641e-001 -1.340553e-001 -1.592109e-001
<VARIANCE> 39
 8.734944e+001 6.009818e+001 7.634363e+001 9.227768e+001 8.232497e+001 7.615223e+001 7.703553e+001 6.286168e+001 6.621155e+001 4.622612e+001 6.105910e+001 3.961195e+001 3.144565e+002 3.552021e+000 2.953835e+000 2.854625e+000 4.020165e+000 4.060718e+000 3.665646e+000 3.837373e+000 3.763541e+000 3.608474e+000 2.973805e+000 3.080254e+000 2.413050e+000 3.965565e+000 5.176081e-001 5.008283e-001 4.582565e-001 6.882523e-001 7.108405e-001 6.539938e-001 6.868035e-001 6.883193e-001 6.492820e-001 5.617016e-001 5.620656e-001 4.489511e-001 6.315120e-001
<GCONST> 1.369537e+002
<TRANSP> 5
 0.000000e+000 1.000000e+000 0.000000e+000 0.000000e+000 0.000000e+000
 0.000000e+000 6.000000e-001 4.000000e-001 0.000000e+000 0.000000e+000
 0.000000e+000 0.000000e+000 6.000000e-001 4.000000e-001 0.000000e+000
 0.000000e+000 0.000000e+000 0.000000e+000 7.000000e-001 3.000000e-001
 0.000000e+000 0.000000e+000 0.000000e+000 0.000000e+000 0.000000e+000
<ENDHMM>
~h "g"
<BEGINHMM>
<NUMSTATES> 5
<STATE> 2
<NUMMIXES> 2
<MIXTURE> 1 5.000000e-001
<MEAN> 39
 -6.085900e+000 2.074944e-001 3.221387e+000 -3.182941e+000 -1.994689e+000 -1.861265e+000 -1.546552e+000 -1.414788e-001 -3.019440e-002 1.224845e+000 1.044894e-001 -1.927984e-001 6.374224e+001 3.768223e-001 3.441963e-001 3.384492e-001 4.001387e-001 4.053818e-001 3.822733e-001 3.922630e-001 3.870511e-001 3.788830e-001 3.459102e-001 3.503633e-001 3.109974e-001 4.001445e-001 1.440233e-001 1.415190e-001 1.351485e-001 1.659787e-001 1.683631e-001 1.618115e-001 1.657115e-001 1.659977e-001 1.611706e-001 1.496086e-001 1.498200e-001 1.339599e-001 1.586600e-001
<VARIANCE> 39
 8.734944e+001 6.009818e+001 7.634363e+001 9.227768e+001 8.232497e+001 7.615223e+001 7.703553e+001 6.286168e+001 6.621155e+001 4.622612e+001 6.105910e+001 3.961195e+001 3.144565e+002 3.552021e+000 2.953835e+000 2.854625e+000 4.020165e+000 4.060718e+000 3.665646e+000 3.837373e+000 3.763541e+000 3.608474e+000 2.973805e+000 3.080254e+000 2.413050e+000 3.965565e+000 5.176081e-001 5.008283e-001 4.582565e-001 6.882523e-001 7.108405e-001 6.539938e-001 6.868035e-001 6.883193e-001 6.492820e-001 5.617016e-001 5.620656e-001 4.489511e-001 6.315120e-001
<GCONST> 1.369537e+002
<MIXTURE> 2 5.000000e-001
<MEAN> 39
 -9.824337e+000 -2.893426e+000 -2.736069e-001 -7.025393e+000 -5.624013e+000 -5.351875e+000 -5.057348e+000 -3.312893e+000 -3.285014e+000 -1.494747e+000 -3.021123e+000 -2.710320e+000 5.664907e+001 -3.770500e-001 -3.432727e-001 -3.373762e-001 -4.018753e-001 -4.006671e-001 -3.835618e-001 -3.913056e-001 -3.889429e-001 -3.809564e-001 -3.438787e-001 -3.516628e-001 -3.103625e-001 -3.964045e-001 -1.437567e-001 -1.415579e-001 -1.356301e-001 -1.658652e-001 -1.688823e-001 -1.616681e-001 -1.657830e-001 -1.658624e-001 -1.611416e-001 -1.501784e-001 -1.500641e-001 -1.340553e-001 -1.592109e-001
<VARIANCE> 39
 8.734944e+001 6.009818e+001 7.634363e+001 9.227768e+001 8.232497e+001 7.615223e+001 7.703553e+001 6.286168e+001 6.621155e+001 4.622612e+001 6.105910e+001 3.961195e+001 3.144565e+002 3.552021e+000 2.953835e+000 2.854625e+000 4.020165e+000 4.060718e+000 3.665646e+000 3.837373e+000 3.763541e+000 3.608474e+000 2.973805e+000 3.080254e+000 2.413050e+000 3.965565e+000 5.176081e-001 5.008283e-001 4.582565e-001 6.882523e-001 7.108405e-001 6.539938e-001 6.868035e-001 6.883193e-001 6.492820e-001 5.617016e-001 5.620656e-001 4.489511e-001 6.315120e-001
<GCONST> 1.369537e+002
<STATE> 3
<NUMMIXES> 2
<MIXTURE> 1 5.000000e-001
<MEAN> 39
 -6.085900e+000 2.074944e-001 3.221387e+000 -3.182941e+000 -1.994689e+000 -1.861265e+000 -1.546552e+000 -1.414788e-001 -3.019440e-002 1.224845e+000 1.044894e-001 -1.927984e-001 6.374224e+001 3.768223e-001 3.441963e-001 3.384492e-001 4.001387e-001 4.053818e-001 3.822733e-001 3.922630e-001 3.870511e-001 3.788830e-001 3.459102e-001 3.503633e-001 3.109974e-001 4.001445e-001 1.440233e-001 1.415190e-001 1.351485e-001 1.659787e-001 1.683631e-001 1.618115e-001 1.657115e-001 1.659977e-001 1.611706e-001 1.496086e-001 1.498200e-001 1.339599e-001 1.586600e-001
<VARIANCE> 39
 8.734944e+001 6.009818e+001 7.634363e+001 9.227768e+001 8.232497e+001 7.615223e+001 7.703553e+001 6.286168e+001 6.621155e+001 4.622612e+001 6.105910e+001 3.961195e+001 3.144565e+002 3.552021e+000 2.953835e+000 2.854625e+000 4.020165e+000 4.060718e+000 3.665646e+000 3.837373e+000 3.763541e+000 3.608474e+000 2.973805e+000 3.080254e+000 2.413050e+000 3.965565e+000 5.176081e-001 5.008283e-001 4.582565e-001 6.882523e-001 7.108405e-001 6.539938e-001 6.868035e-001 6.883193e-001 6.492820e-001 5.617016e-001 5.620656e-001 4.489511e-001 6.315120e-001
<GCONST> 1.369537e+002
<MIXTURE> 2 5.000000e-001
<MEAN> 39
 -9.824337e+000 -2.893426e+000 -2.736069e-001 -7.025393e+000 -5.624013e+000 -5.351875e+000 -5.057348e+000 -3.312893e+000 -3.285014e+000 -1.494747e+000 -3.021123e+000 -2.710320e+000 5.664907e+001 -3.770500e-001 -3.432727e-001 -3.373762e-001 -4.018753e-001 -4.006671e-001 -3.835618e-001 -3.913056e-001 -3.889429e-001 -3.809564e-001 -3.438787e-001 -3.516628e-001 -3.103625e-001 -3.964045e-001 -1.437567e-001 -1.415579e-001 -1.356301e-001 -1.658652e-001 -1.688823e-001 -1.616681e-001 -1.657830e-001 -1.658624e-001 -1.611416e-001 -1.501784e-001 -1.500641e-001 -1.340553e-001 -1.592109e-001
<VARIANCE> 39
 8.734944e+001 6.009818e+001 7.634363e+001 9.227768e+001 8.232497e+001 7.615223e+001 7.703553e+001 6.286168e+001 6.621155e+001 4.622612e+001 6.105910e+001 3.961195e+001 3.144565e+002 3.552021e+000 2.953835e+000 2.854625e+000 4.020165e+000 4.060718e+000 3.665646e+000 3.837373e+000 3.763541e+000 3.608474e+000 2.973805e+000 3.080254e+000 2.413050e+000 3.965565e+000 5.176081e-001 5.008283e-001 4.582565e-001 6.882523e-001 7.108405e-001 6.539938e-001 6.868035e-001 6.883193e-001 6.492820e-001 5.617016e-001 5.620656e-001 4.489511e-001 6.315120e-001
<GCONST> 1.369537e+002
<STATE> 4
<NUMMIXES> 2
<MIXTURE> 1 5.000000e-001
<MEAN> 39
 -6.085900e+000 2.074944e-001 3.221387e+000 -3.182941e+000 -1.994689e+000 -1.861265e+000 -1.546552e+000 -1.414788e-001 -3.019440e-002 1.224845e+000 1.044894e-001 -1.927984e-001 6.374224e+001 3.768223e-001 3.441963e-001 3.384492e-001 4.001387e-001 4.053818e-001 3.822733e-001 3.922630e-001 3.870511e-001 3.788830e-001 3.459102e-001 3.503633e-001 3.109974e-001 4.001445e-001 1.440233e-001 1.415190e-001 1.351485e-001 1.659787e-001 1.683631e-001 1.618115e-001 1.657115e-001 1.659977e-001 1.611706e-001 1.496086e-001 1.498200e-001 1.339599e-001 1.586600e-001
<VARIANCE> 39
 8.734944e+001 6.009818e+001 7.634363e+001 9.227768e+001 8.232497e+001 7.615223e+001 7.703553e+001 6.286168e+001 6.621155e+001 4.622612e+001 6.105910e+001 3.961195e+001 3.144565e+002 3.552021e+000 2.953835e+000 2.854625e+000 4.020165e+000 4.060718e+000 3.665646e+000 3.837373e+000 3.763541e+000 3.608474e+000 2.973805e+000 3.080254e+000 2.413050e+000 3.965565e+000 5.176081e-001 5.008283e-001 4.582565e-001 6.882523e-001 7.108405e-001 6.539938e-001 6.868035e-001 6.883193e-001 6.492820e-001 5.617016e-001 5.620656e-001 4.489511e-001 6.315120e-001
<GCONST> 1.369537e+002
<MIXTURE> 2 5.000000e-001
<MEAN> 39
 -9.824337e+000 -2.893426e+000 -2.736069e-001 -7.025393e+000 -5.624013e+000 -5.351875e+000 -5.057348e+000 -3.312893e+000 -3.285014e+000 -1.494747e+000 -3.021123e+000 -2.710320e+000 5.664907e+001 -3.770500e-001 -3.432727e-001 -3.373762e-001 -4.018753e-001 -4.006671e-001 -3.835618e-001 -3.913056e-001 -3.889429e-001 -3.809564e-001 -3.438787e-001 -3.516628e-001 -3.103625e-001 -3.964045e-001 -1.437567e-001 -1.415579e-001 -1.356301e-001 -1.658652e-001 -1.688823e-001 -1.616681e-001 -1.657830e-001 -1.658624e-001 -1.611416e-001 -1.501784e-001 -1.500641e-001 -1.340553e-001 -1.592109e-001
<VARIANCE> 39
 8.734944e+001 6.009818e+001 7.634363e+001 9.227768e+001 8.232497e+001 7.615223e+001 7.703553e+001 6.286168e+001 6.621155e+001 4.622612e+001 6.105910e+001 3.961195e+001 3.144565e+002 3.552021e+000 2.953835e+000 2.854625e+000 4.020165e+000 4.060718e+000 3.665646e+000 3.837373e+000 3.763541e+000 3.608474e+000 2.973805e+000 3.080254e+000 2.413050e+000 3.965565e+000 5.176081e-001 5.008283e-001 4.582565e-001 6.882523e-001 7.108405e-001 6.539938e-001 6.868035e-001 6.883193e-001 6.492820e-001 5.617016e-001 5.620656e-001 4.489511e-001 6.315120e-001
<GCONST> 1.369537e+002
<TRANSP> 5
 0.000000e+000 1.000000e+000 0.000000e+000 0.000000e+000 0.000000e+000
 0.000000e+000 6.000000e-001 4.000000e-001 0.000000e+000 0.000000e+000
 0.000000e+000 0.000000e+000 6.000000e-001 4.000000e-001 0.000000e+000
 0.000000e+000 0.000000e+000 0.000000e+000 7.000000e-001 3.000000e-001
 0.000000e+000 0.000000e+000 0.000000e+000 0.000000e+000 0.000000e+000
<ENDHMM>
~h "h"
<BEGINHMM>
<NUMSTATES> 5
<STATE> 2
<NUMMIXES> 2
<MIXTURE> 1 5.000000e-001
<MEAN> 39
 -6.085900e+000 2.074944e-001 3.221387e+000 -3.182941e+000 -1.994689e+000 -1.861265e+000 -1.546552e+000 -1.414788e-001 -3.019440e-002 1.224845e+000 1.044894e-001 -1.927984e-001 6.374224e+001 3.768223e-001 3.441963e-001 3.384492e-001 4.001387e-001 4.053818e-001 3.822733e-001 3.922630e-001 3.870511e-001 3.788830e-001 3.459102e-001 3.503633e-001 3.109974e-001 4.001445e-001 1.440233e-001 1.415190e-001 1.351485e-001 1.659787e-001 1.683631e-001 1.618115e-001 1.657115e-001 1.659977e-001 1.611706e-001 1.496086e-001 1.498200e-001 1.339599e-001 1.586600e-001
<VARIANCE> 39
 8.734944e+001 6.009818e+001 7.634363e+001 9.227768e+001 8.232497e+001 7.615223e+001 7.703553e+001 6.286168e+001 6.621155e+001 4.622612e+001 6.105910e+001 3.961195e+001 3.144565e+002 3.552021e+000 2.953835e+000 2.854625e+000 4.020165e+000 4.060718e+000 3.665646e+000 3.837373e+000 3.763541e+000 3.608474e+000 2.973805e+000 3.080254e+000 2.413050e+000 3.965565e+000 5.176081e-001 5.008283e-001 4.582565e-001 6.882523e-001 7.108405e-001 6.539938e-001 6.868035e-001 6.883193e-001 6.492820e-001 5.617016e-001 5.620656e-001 4.489511e-001 6.315120e-001
<GCONST> 1.369537e+002
<MIXTURE> 2 5.000000e-001
<MEAN> 39
 -9.824337e+000 -2.893426e+000 -2.736069e-001 -7.025393e+000 -5.624013e+000 -5.351875e+000 -5.057348e+000 -3.312893e+000 -3.285014e+000 -1.494747e+000 -3.021123e+000 -2.710320e+000 5.664907e+001 -3.770500e-001 -3.432727e-001 -3.373762e-001 -4.018753e-001 -4.006671e-001 -3.835618e-001 -3.913056e-001 -3.889429e-001 -3.809564e-001 -3.438787e-001 -3.516628e-001 -3.103625e-001 -3.964045e-001 -1.437567e-001 -1.415579e-001 -1.356301e-001 -1.658652e-001 -1.688823e-001 -1.616681e-001 -1.657830e-001 -1.658624e-001 -1.611416e-001 -1.501784e-001 -1.500641e-001 -1.340553e-001 -1.592109e-001
<VARIANCE> 39
 8.734944e+001 6.009818e+001 7.634363e+001 9.227768e+001 8.232497e+001 7.615223e+001 7.703553e+001 6.286168e+001 6.621155e+001 4.622612e+001 6.105910e+001 3.961195e+001 3.144565e+002 3.552021e+000 2.953835e+000 2.854625e+000 4.020165e+000 4.060718e+000 3.665646e+000 3.837373e+000 3.763541e+000 3.608474e+000 2.973805e+000 3.080254e+000 2.413050e+000 3.965565e+000 5.176081e-001 5.008283e-001 4.582565e-001 6.882523e-001 7.108405e-001 6.539938e-001 6.868035e-001 6.883193e-001 6.492820e-001 5.617016e-001 5.620656e-001 4.489511e-001 6.315120e-001
<GCONST> 1.369537e+002
<STATE> 3
<NUMMIXES> 2
<MIXTURE> 1 5.000000e-001
<MEAN> 39
 -6.085900e+000 2.074944e-001 3.221387e+000 -3.182941e+000 -1.994689e+000 -1.861265e+000 -1.546552e+000 -1.414788e-001 -3.019440e-002 1.224845e+000 1.044894e-001 -1.927984e-001 6.374224e+001 3.768223e-001 3.441963e-001 3.384492e-001 4.001387e-001 4.053818e-001 3.822733e-001 3.922630e-001 3.870511e-001 3.788830e-001 3.459102e-001 3.503633e-001 3.109974e-001 4.001445e-001 1.440233e-001 1.415190e-001 1.351485e-001 1.659787e-001 1.683631e-001 1.618115e-001 1.657115e-001 1.659977e-001 1.611706e-001 1.496086e-001 1.498200e-001 1.339599e-001 1.586600e-001
<VARIANCE> 39
 8.734944e+001 6.009818e+001 7.634363e+001 9.227768e+001 8.232497e+001 7.615223e+001 7.703553e+001 6.286168e+001 6.621155e+001 4.622612e+001 6.105910e+001 3.961195e+001 3.144565e+002 3.552021e+000 2.953835e+000 2.854625e+000 4.020165e+000 4.060718e+000 3.665646e+000 3.837373e+000 3.763541e+000 3.608474e+000 2.973805e+000 3.080254e+000 2.413050e+000 3.965565e+000 5.176081e-001 5.008283e-001 4.582565e-001 6.882523e-001 7.108405e-001 6.539938e-001 6.868035e-001 6.883193e-001 6.492820e-001 5.617016e-001 5.620656e-001 4.489511e-001 6.315120e-001
<GCONST> 1.369537e+002
<MIXTURE> 2 5.000000e-001
<MEAN> 39
 -9.824337e+000 -2.893426e+000 -2.736069e-001 -7.025393e+000 -5.624013e+000 -5.351875e+000 -5.057348e+000 -3.312893e+000 -3.285014e+000 -1.494747e+000 -3.021123e+000 -2.710320e+000 5.664907e+001 -3.770500e-001 -3.432727e-001 -3.373762e-001 -4.018753e-001 -4.006671e-001 -3.835618e-001 -3.913056e-001 -3.889429e-001 -3.809564e-001 -3.438787e-001 -3.516628e-001 -3.103625e-001 -3.964045e-001 -1.437567e-001 -1.415579e-001 -1.356301e-001 -1.658652e-001 -1.688823e-001 -1.616681e-001 -1.657830e-001 -1.658624e-001 -1.611416e-001 -1.501784e-001 -1.500641e-001 -1.340553e-001 -1.592109e-001
<VARIANCE> 39
 8.734944e+001 6.009818e+001 7.634363e+001 9.227768e+001 8.232497e+001 7.615223e+001 7.703553e+001 6.286168e+001 6.621155e+001 4.622612e+001 6.105910e+001 3.961195e+001 3.144565e+002 3.552021e+000 2.953835e+000 2.854625e+000 4.020165e+000 4.060718e+000 3.665646e+000 3.837373e+000 3.763541e+000 3.608474e+000 2.973805e+000 3.080254e+000 2.413050e+000 3.965565e+000 5.176081e-001 5.008283e-001 4.582565e-001 6.882523e-001 7.108405e-001 6.539938e-001 6.868035e-001 6.883193e-001 6.492820e-001 5.617016e-001 5.620656e-001 4.489511e-001 6.315120e-001
<GCONST> 1.369537e+002
<STATE> 4
<NUMMIXES> 2
<MIXTURE> 1 5.000000e-001
<MEAN> 39
 -6.085900e+000 2.074944e-001 3.221387e+000 -3.182941e+000 -1.994689e+000 -1.861265e+000 -1.546552e+000 -1.414788e-001 -3.019440e-002 1.224845e+000 1.044894e-001 -1.927984e-001 6.374224e+001 3.768223e-001 3.441963e-001 3.384492e-001 4.001387e-001 4.053818e-001 3.822733e-001 3.922630e-001 3.870511e-001 3.788830e-001 3.459102e-001 3.503633e-001 3.109974e-001 4.001445e-001 1.440233e-001 1.415190e-001 1.351485e-001 1.659787e-001 1.683631e-001 1.618115e-001 1.657115e-001 1.659977e-001 1.611706e-001 1.496086e-001 1.498200e-001 1.339599e-001 1.586600e-001
<VARIANCE> 39
 8.734944e+001 6.009818e+001 7.634363e+001 9.227768e+001 8.232497e+001 7.615223e+001 7.703553e+001 6.286168e+001 6.621155e+001 4.622612e+001 6.105910e+001 3.961195e+001 3.144565e+002 3.552021e+000 2.953835e+000 2.854625e+000 4.020165e+000 4.060718e+000 3.665646e+000 3.837373e+000 3.763541e+000 3.608474e+000 2.973805e+000 3.080254e+000 2.413050e+000 3.965565e+000 5.176081e-001 5.008283e-001 4.582565e-001 6.882523e-001 7.108405e-001 6.539938e-001 6.868035e-001 6.883193e-001 6.492820e-001 5.617016e-001 5.620656e-001 4.489511e-001 6.315120e-001
<GCONST> 1.369537e+002
<MIXTURE> 2 5.000000e-001
<MEAN> 39
 -9.824337e+000 -2.893426e+000 -2.736069e-001 -7.025393e+000 -5.624013e+000 -5.351875e+000 -5.057348e+000 -3.312893e+000 -3.285014e+000 -1.494747e+000 -3.021123e+000 -2.710320e+000 5.664907e+001 -3.770500e-001 -3.432727e-001 -3.373762e-001 -4.018753e-001 -4.006671e-001 -3.835618e-001 -3.913056e-001 -3.889429e-001 -3.809564e-001 -3.438787e-001 -3.516628e-001 -3.103625e-001 -3.964045e-001 -1.437567e-001 -1.415579e-001 -1.356301e-001 -1.658652e-001 -1.688823e-001 -1.616681e-001 -1.657830e-001 -1.658624e-001 -1.611416e-001 -1.501784e-001 -1.500641e-001 -1.340553e-001 -1.592109e-001
<VARIANCE> 39
 8.734944e+001 6.009818e+001 7.634363e+001 9.227768e+001 8.232497e+001 7.615223e+001 7.703553e+001 6.286168e+001 6.621155e+001 4.622612e+001 6.105910e+001 3.961195e+001 3.144565e+002 3.552021e+000 2.953835e+000 2.854625e+000 4.020165e+000 4.060718e+000 3.665646e+000 3.837373e+000 3.763541e+000 3.608474e+000 2.973805e+000 3.080254e+000 2.413050e+000 3.965565e+000 5.176081e-001 5.008283e-001 4.582565e-001 6.882523e-001 7.108405e-001 6.539938e-001 6.868035e-001 6.883193e-001 6.492820e-001 5.617016e-001 5.620656e-001 4.489511e-001 6.315120e-001
<GCONST> 1.369537e+002
<TRANSP> 5
 0.000000e+000 1.000000e+000 0.000000e+000 0.000000e+000 0.000000e+000
 0.000000e+000 6.000000e-001 4.000000e-001 0.000000e+000 0.000000e+000
 0.000000e+000 0.000000e+000 6.000000e-001 4.000000e-001 0.000000e+000
 0.000000e+000 0.000000e+000 0.000000e+000 7.000000e-001 3.000000e-001
 0.000000e+000 0.000000e+000 0.000000e+000 0.000000e+000 0.000000e+000
<ENDHMM>
~h "i"
<BEGINHMM>
<NUMSTATES> 5
<STATE> 2
<NUMMIXES> 2
<MIXTURE> 1 5.000000e-001
<MEAN> 39
 -6.085900e+000 2.074944e-001 3.221387e+000 -3.182941e+000 -1.994689e+000 -1.861265e+000 -1.546552e+000 -1.414788e-001 -3.019440e-002 1.224845e+000 1.044894e-001 -1.927984e-001 6.374224e+001 3.768223e-001 3.441963e-001 3.384492e-001 4.001387e-001 4.053818e-001 3.822733e-001 3.922630e-001 3.870511e-001 3.788830e-001 3.459102e-001 3.503633e-001 3.109974e-001 4.001445e-001 1.440233e-001 1.415190e-001 1.351485e-001 1.659787e-001 1.683631e-001 1.618115e-001 1.657115e-001 1.659977e-001 1.611706e-001 1.496086e-001 1.498200e-001 1.339599e-001 1.586600e-001
<VARIANCE> 39
 8.734944e+001 6.009818e+001 7.634363e+001 9.227768e+001 8.232497e+001 7.615223e+001 7.703553e+001 6.286168e+001 6.621155e+001 4.622612e+001 6.105910e+001 3.961195e+001 3.144565e+002 3.552021e+000 2.953835e+000 2.854625e+000 4.020165e+000 4.060718e+000 3.665646e+000 3.837373e+000 3.763541e+000 3.608474e+000 2.973805e+000 3.080254e+000 2.413050e+000 3.965565e+000 5.176081e-001 5.008283e-001 4.582565e-001 6.882523e-001 7.108405e-001 6.539938e-001 6.868035e-001 6.883193e-001 6.492820e-001 5.617016e-001 5.620656e-001 4.489511e-001 6.315120e-001
<GCONST> 1.369537e+002
<MIXTURE> 2 5.000000e-001
<MEAN> 39
 -9.824337e+000 -2.893426e+000 -2.736069e-001 -7.025393e+000 -5.624013e+000 -5.351875e+000 -5.057348e+000 -3.312893e+000 -3.285014e+000 -1.494747e+000 -3.021123e+000 -2.710320e+000 5.664907e+001 -3.770500e-001 -3.432727e-001 -3.373762e-001 -4.018753e-001 -4.006671e-001 -3.835618e-001 -3.913056e-001 -3.889429e-001 -3.809564e-001 -3.438787e-001 -3.516628e-001 -3.103625e-001 -3.964045e-001 -1.437567e-001 -1.415579e-001 -1.356301e-001 -1.658652e-001 -1.688823e-001 -1.616681e-001 -1.657830e-001 -1.658624e-001 -1.611416e-001 -1.501784e-001 -1.500641e-001 -1.340553e-001 -1.592109e-001
<VARIANCE> 39
 8.734944e+001 6.009818e+001 7.634363e+001 9.227768e+001 8.232497e+001 7.615223e+001 7.703553e+001 6.286168e+001 6.621155e+001 4.622612e+001 6.105910e+001 3.961195e+001 3.144565e+002 3.552021e+000 2.953835e+000 2.854625e+000 4.020165e+000 4.060718e+000 3.665646e+000 3.837373e+000 3.763541e+000 3.608474e+000 2.973805e+000 3.080254e+000 2.413050e+000 3.965565e+000 5.176081e-001 5.008283e-001 4.582565e-001 6.882523e-001 7.108405e-001 6.539938e-001 6.868035e-001 6.883193e-001 6.492820e-001 5.617016e-001 5.620656e-001 4.489511e-001 6.315120e-001
<GCONST> 1.369537e+002
<STATE> 3
<NUMMIXES> 2
<MIXTURE> 1 5.000000e-001
<MEAN> 39
 -6.085900e+000 2.074944e-001 3.221387e+000 -3.182941e+000 -1.994689e+000 -1.861265e+000 -1.546552e+000 -1.414788e-001 -3.019440e-002 1.224845e+000 1.044894e-001 -1.927984e-001 6.374224e+001 3.768223e-001 3.441963e-001 3.384492e-001 4.001387e-001 4.053818e-001 3.822733e-001 3.922630e-001 3.870511e-001 3.788830e-001 3.459102e-001 3.503633e-001 3.109974e-001 4.001445e-001 1.440233e-001 1.415190e-001 1.351485e-001 1.659787e-001 1.683631e-001 1.618115e-001 1.657115e-001 1.659977e-001 1.611706e-001 1.496086e-001 1.498200e-001 1.339599e-001 1.586600e-001
<VARIANCE> 39
 8.734944e+001 6.009818e+001 7.634363e+001 9.227768e+001 8.232497e+001 7.615223e+001 7.703553e+001 6.286168e+001 6.621155e+001 4.622612e+001 6.105910e+001 3.961195e+001 3.144565e+002 3.552021e+000 2.953835e+000 2.854625e+000 4.020165e+000 4.060718e+000 3.665646e+000 3.837373e+000 3.763541e+000 3.608474e+000 2.973805e+000 3.080254e+000 2.413050e+000 3.965565e+000 5.176081e-001 5.008283e-001 4.582565e-001 6.882523e-001 7.108405e-001 6.539938e-001 6.868035e-001 6.883193e-001 6.492820e-001 5.617016e-001 5.620656e-001 4.489511e-001 6.315120e-001
<GCONST> 1.369537e+002
<MIXTURE> 2 5.000000e-001
<MEAN> 39
 -9.824337e+000 -2.893426e+000 -2.736069e-001 -7.025393e+000 -5.624013e+000 -5.351875e+000 -5.057348e+000 -3.312893e+000 -3.285014e+000 -1.494747e+000 -3.021123e+000 -2.710320e+000 5.664907e+001 -3.770500e-001 -3.432727e-001 -3.373762e-001 -4.018753e-001 -4.006671e-001 -3.835618e-001 -3.913056e-001 -3.889429e-001 -3.809564e-001 -3.438787e-001 -3.516628e-001 -3.103625e-001 -3.964045e-001 -1.437567e-001 -1.415579e-001 -1.356301e-001 -1.658652e-001 -1.688823e-001 -1.616681e-001 -1.657830e-001 -1.658624e-001 -1.611416e-001 -1.501784e-001 -1.500641e-001 -1.340553e-001 -1.592109e-001
<VARIANCE> 39
 8.734944e+001 6.009818e+001 7.634363e+001 9.227768e+001 8.232497e+001 7.615223e+001 7.703553e+001 6.286168e+001 6.621155e+001 4.622612e+001 6.105910e+001 3.961195e+001 3.144565e+002 3.552021e+000 2.953835e+000 2.854625e+000 4.020165e+000 4.060718e+000 3.665646e+000 3.837373e+000 3.763541e+000 3.608474e+000 2.973805e+000 3.080254e+000 2.413050e+000 3.965565e+000 5.176081e-001 5.008283e-001 4.582565e-001 6.882523e-001 7.108405e-001 6.539938e-001 6.868035e-001 6.883193e-001 6.492820e-001 5.617016e-001 5.620656e-001 4.489511e-001 6.315120e-001
<GCONST> 1.369537e+002
<STATE> 4
<NUMMIXES> 2
<MIXTURE> 1 5.000000e-001
<MEAN> 39
 -6.085900e+000 2.074944e-001 3.221387e+000 -3.182941e+000 -1.994689e+000 -1.861265e+000 -1.546552e+000 -1.414788e-001 -3.019440e-002 1.224845e+000 1.044894e-001 -1.927984e-001 6.374224e+001 3.768223e-001 3.441963e-001 3.384492e-001 4.001387e-001 4.053818e-001 3.822733e-001 3.922630e-001 3.870511e-001 3.788830e-001 3.459102e-001 3.503633e-001 3.109974e-001 4.001445e-001 1.440233e-001 1.415190e-001 1.351485e-001 1.659787e-001 1.683631e-001 1.618115e-001 1.657115e-001 1.659977e-001 1.611706e-001 1.496086e-001 1.498200e-001 1.339599e-001 1.586600e-001
<VARIANCE> 39
 8.734944e+001 6.009818e+001 7.634363e+001 9.227768e+001 8.232497e+001 7.615223e+001 7.703553e+001 6.286168e+001 6.621155e+001 4.622612e+001 6.105910e+001 3.961195e+001 3.144565e+002 3.552021e+000 2.953835e+000 2.854625e+000 4.020165e+000 4.060718e+000 3.665646e+000 3.837373e+000 3.763541e+000 3.608474e+000 2.973805e+000 3.080254e+000 2.413050e+000 3.965565e+000 5.176081e-001 5.008283e-001 4.582565e-001 6.882523e-001 7.108405e-001 6.539938e-001 6.868035e-001 6.883193e-001 6.492820e-001 5.617016e-001 5.620656e-001 4.489511e-001 6.315120e-001
<GCONST> 1.369537e+002
<MIXTURE> 2 5.000000e-001
<MEAN> 39
 -9.824337e+000 -2.893426e+000 -2.736069e-001 -7.025393e+000 -5.624013e+000 -5.351875e+000 -5.057348e+000 -3.312893e+000 -3.285014e+000 -1.494747e+000 -3.021123e+000 -2.710320e+000 5.664907e+001 -3.770500e-001 -3.432727e-001 -3.373762e-001 -4.018753e-001 -4.006671e-001 -3.835618e-001 -3.913056e-001 -3.889429e-001 -3.809564e-001 -3.438787e-001 -3.516628e-001 -3.103625e-001 -3.964045e-001 -1.437567e-001 -1.415579e-001 -1.356301e-001 -1.658652e-001 -1.688823e-001 -1.616681e-001 -1.657830e-001 -1.658624e-001 -1.611416e-001 -1.501784e-001 -1.500641e-001 -1.340553e-001 -1.592109e-001
<VARIANCE> 39
 8.734944e+001 6.009818e+001 7.634363e+001 9.227768e+001 8.232497e+001 7.615223e+001 7.703553e+001 6.286168e+001 6.621155e+001 4.622612e+001 6.105910e+001 3.961195e+001 3.144565e+002 3.552021e+000 2.953835e+000 2.854625e+000 4.020165e+000 4.060718e+000 3.665646e+000 3.837373e+000 3.763541e+000 3.608474e+000 2.973805e+000 3.080254e+000 2.413050e+000 3.965565e+000 5.176081e-001 5.008283e-001 4.582565e-001 6.882523e-001 7.108405e-001 6.539938e-001 6.868035e-001 6.883193e-001 6.492820e-001 5.617016e-001 5.620656e-001 4.489511e-001 6.315120e-001
<GCONST> 1.369537e+002
<TRANSP> 5
 0.000000e+000 1.000000e+000 0.000000e+000 0.000000e+000 0.000000e+000
 0.000000e+000 6.000000e-001 4.000000e-001 0.000000e+000 0.000000e+000
 0.000000e+000 0.000000e+000 6.000000e-001 4.000000e-001 0.000000e+000
 0.000000e+000 0.000000e+000 0.000000e+000 7.000000e-001 3.000000e-001
 0.000000e+000 0.000000e+000 0.000000e+000 0.000000e+000 0.000000e+000
<ENDHMM>
~h "k"
<BEGINHMM>
<NUMSTATES> 5
<STATE> 2
<NUMMIXES> 2
<MIXTURE> 1 5.000000e-001
<MEAN> 39
 -6.085900e+000 2.074944e-001 3.221387e+000 -3.182941e+000 -1.994689e+000 -1.861265e+000 -1.546552e+000 -1.414788e-001 -3.019440e-002 1.224845e+000 1.044894e-001 -1.927984e-001 6.374224e+001 3.768223e-001 3.441963e-001 3.384492e-001 4.001387e-001 4.053818e-001 3.822733e-001 3.922630e-001 3.870511e-001 3.788830e-001 3.459102e-001 3.503633e-001 3.109974e-001 4.001445e-001 1.440233e-001 1.415190e-001 1.351485e-001 1.659787e-001 1.683631e-001 1.618115e-001 1.657115e-001 1.659977e-001 1.611706e-001 1.496086e-001 1.498200e-001 1.339599e-001 1.586600e-001
<VARIANCE> 39
 8.734944e+001 6.009818e+001 7.634363e+001 9.227768e+001 8.232497e+001 7.615223e+001 7.703553e+001 6.286168e+001 6.621155e+001 4.622612e+001 6.105910e+001 3.961195e+001 3.144565e+002 3.552021e+000 2.953835e+000 2.854625e+000 4.020165e+000 4.060718e+000 3.665646e+000 3.837373e+000 3.763541e+000 3.608474e+000 2.973805e+000 3.080254e+000 2.413050e+000 3.965565e+000 5.176081e-001 5.008283e-001 4.582565e-001 6.882523e-001 7.108405e-001 6.539938e-001 6.868035e-001 6.883193e-001 6.492820e-001 5.617016e-001 5.620656e-001 4.489511e-001 6.315120e-001
<GCONST> 1.369537e+002
<MIXTURE> 2 5.000000e-001
<MEAN> 39
 -9.824337e+000 -2.893426e+000 -2.736069e-001 -7.025393e+000 -5.624013e+000 -5.351875e+000 -5.057348e+000 -3.312893e+000 -3.285014e+000 -1.494747e+000 -3.021123e+000 -2.710320e+000 5.664907e+001 -3.770500e-001 -3.432727e-001 -3.373762e-001 -4.018753e-001 -4.006671e-001 -3.835618e-001 -3.913056e-001 -3.889429e-001 -3.809564e-001 -3.438787e-001 -3.516628e-001 -3.103625e-001 -3.964045e-001 -1.437567e-001 -1.415579e-001 -1.356301e-001 -1.658652e-001 -1.688823e-001 -1.616681e-001 -1.657830e-001 -1.658624e-001 -1.611416e-001 -1.501784e-001 -1.500641e-001 -1.340553e-001 -1.592109e-001
<VARIANCE> 39
 8.734944e+001 6.009818e+001 7.634363e+001 9.227768e+001 8.232497e+001 7.615223e+001 7.703553e+001 6.286168e+001 6.621155e+001 4.622612e+001 6.105910e+001 3.961195e+001 3.144565e+002 3.552021e+000 2.953835e+000 2.854625e+000 4.020165e+000 4.060718e+000 3.665646e+000 3.837373e+000 3.763541e+000 3.608474e+000 2.973805e+000 3.080254e+000 2.413050e+000 3.965565e+000 5.176081e-001 5.008283e-001 4.582565e-001 6.882523e-001 7.108405e-001 6.539938e-001 6.868035e-001 6.883193e-001 6.492820e-001 5.617016e-001 5.620656e-001 4.489511e-001 6.315120e-001
<GCONST> 1.369537e+002
<STATE> 3
<NUMMIXES> 2
<MIXTURE> 1 5.000000e-001
<MEAN> 39
 -6.085900e+000 2.074944e-001 3.221387e+000 -3.182941e+000 -1.994689e+000 -1.861265e+000 -1.546552e+000 -1.414788e-001 -3.019440e-002 1.224845e+000 1.044894e-001 -1.927984e-001 6.374224e+001 3.768223e-001 3.441963e-001 3.384492e-001 4.001387e-001 4.053818e-001 3.822733e-001 3.922630e-001 3.870511e-001 3.788830e-001 3.459102e-001 3.503633e-001 3.109974e-001 4.001445e-001 1.440233e-001 1.415190e-001 1.351485e-001 1.659787e-001 1.683631e-001 1.618115e-001 1.657115e-001 1.659977e-001 1.611706e-001 1.496086e-001 1.498200e-001 1.339599e-001 1.586600e-001
<VARIANCE> 39
 8.734944e+001 6.009818e+001 7.634363e+001 9.227768e+001 8.232497e+001 7.615223e+001 7.703553e+001 6.286168e+001 6.621155e+001 4.622612e+001 6.105910e+001 3.961195e+001 3.144565e+002 3.552021e+000 2.953835e+000 2.854625e+000 4.020165e+000 4.060718e+000 3.665646e+000 3.837373e+000 3.763541e+000 3.608474e+000 2.973805e+000 3.080254e+000 2.413050e+000 3.965565e+000 5.176081e-001 5.008283e-001 4.582565e-001 6.882523e-001 7.108405e-001 6.539938e-001 6.868035e-001 6.883193e-001 6.492820e-001 5.617016e-001 5.620656e-001 4.489511e-001 6.315120e-001
<GCONST> 1.369537e+002
<MIXTURE> 2 5.000000e-001
<MEAN> 39
 -9.824337e+000 -2.893426e+000 -2.736069e-001 -7.025393e+000 -5.624013e+000 -5.351875e+000 -5.057348e+000 -3.312893e+000 -3.285014e+000 -1.494747e+000 -3.021123e+000 -2.710320e+000 5.664907e+001 -3.770500e-001 -3.432727e-001 -3.373762e-001 -4.018753e-001 -4.006671e-001 -3.835618e-001 -3.913056e-001 -3.889429e-001 -3.809564e-001 -3.438787e-001 -3.516628e-001 -3.103625e-001 -3.964045e-001 -1.437567e-001 -1.415579e-001 -1.356301e-001 -1.658652e-001 -1.688823e-001 -1.616681e-001 -1.657830e-001 -1.658624e-001 -1.611416e-001 -1.501784e-001 -1.500641e-001 -1.340553e-001 -1.592109e-001
<VARIANCE> 39
 8.734944e+001 6.009818e+001 7.634363e+001 9.227768e+001 8.232497e+001 7.615223e+001 7.703553e+001 6.286168e+001 6.621155e+001 4.622612e+001 6.105910e+001 3.961195e+001 3.144565e+002 3.552021e+000 2.953835e+000 2.854625e+000 4.020165e+000 4.060718e+000 3.665646e+000 3.837373e+000 3.763541e+000 3.608474e+000 2.973805e+000 3.080254e+000 2.413050e+000 3.965565e+000 5.176081e-001 5.008283e-001 4.582565e-001 6.882523e-001 7.108405e-001 6.539938e-001 6.868035e-001 6.883193e-001 6.492820e-001 5.617016e-001 5.620656e-001 4.489511e-001 6.315120e-001
<GCONST> 1.369537e+002
<STATE> 4
<NUMMIXES> 2
<MIXTURE> 1 5.000000e-001
<MEAN> 39
 -6.085900e+000 2.074944e-001 3.221387e+000 -3.182941e+000 -1.994689e+000 -1.861265e+000 -1.546552e+000 -1.414788e-001 -3.019440e-002 1.224845e+000 1.044894e-001 -1.927984e-001 6.374224e+001 3.768223e-001 3.441963e-001 3.384492e-001 4.001387e-001 4.053818e-001 3.822733e-001 3.922630e-001 3.870511e-001 3.788830e-001 3.459102e-001 3.503633e-001 3.109974e-001 4.001445e-001 1.440233e-001 1.415190e-001 1.351485e-001 1.659787e-001 1.683631e-001 1.618115e-001 1.657115e-001 1.659977e-001 1.611706e-001 1.496086e-001 1.498200e-001 1.339599e-001 1.586600e-001
<VARIANCE> 39
 8.734944e+001 6.009818e+001 7.634363e+001 9.227768e+001 8.232497e+001 7.615223e+001 7.703553e+001 6.286168e+001 6.621155e+001 4.622612e+001 6.105910e+001 3.961195e+001 3.144565e+002 3.552021e+000 2.953835e+000 2.854625e+000 4.020165e+000 4.060718e+000 3.665646e+000 3.837373e+000 3.763541e+000 3.608474e+000 2.973805e+000 3.080254e+000 2.413050e+000 3.965565e+000 5.176081e-001 5.008283e-001 4.582565e-001 6.882523e-001 7.108405e-001 6.539938e-001 6.868035e-001 6.883193e-001 6.492820e-001 5.617016e-001 5.620656e-001 4.489511e-001 6.315120e-001
<GCONST> 1.369537e+002
<MIXTURE> 2 5.000000e-001
<MEAN> 39
 -9.824337e+000 -2.893426e+000 -2.736069e-001 -7.025393e+000 -5.624013e+000 -5.351875e+000 -5.057348e+000 -3.312893e+000 -3.285014e+000 -1.494747e+000 -3.021123e+000 -2.710320e+000 5.664907e+001 -3.770500e-001 -3.432727e-001 -3.373762e-001 -4.018753e-001 -4.006671e-001 -3.835618e-001 -3.913056e-001 -3.889429e-001 -3.809564e-001 -3.438787e-001 -3.516628e-001 -3.103625e-001 -3.964045e-001 -1.437567e-001 -1.415579e-001 -1.356301e-001 -1.658652e-001 -1.688823e-001 -1.616681e-001 -1.657830e-001 -1.658624e-001 -1.611416e-001 -1.501784e-001 -1.500641e-001 -1.340553e-001 -1.592109e-001
<VARIANCE> 39
 8.734944e+001 6.009818e+001 7.634363e+001 9.227768e+001 8.232497e+001 7.615223e+001 7.703553e+001 6.286168e+001 6.621155e+001 4.622612e+001 6.105910e+001 3.961195e+001 3.144565e+002 3.552021e+000 2.953835e+000 2.854625e+000 4.020165e+000 4.060718e+000 3.665646e+000 3.837373e+000 3.763541e+000 3.608474e+000 2.973805e+000 3.080254e+000 2.413050e+000 3.965565e+000 5.176081e-001 5.008283e-001 4.582565e-001 6.882523e-001 7.108405e-001 6.539938e-001 6.868035e-001 6.883193e-001 6.492820e-001 5.617016e-001 5.620656e-001 4.489511e-001 6.315120e-001
<GCONST> 1.369537e+002
<TRANSP> 5
 0.000000e+000 1.000000e+000 0.000000e+000 0.000000e+000 0.000000e+000
 0.000000e+000 6.000000e-001 4.000000e-001 0.000000e+000 0.000000e+000
 0.000000e+000 0.000000e+000 6.000000e-001 4.000000e-001 0.000000e+000
 0.000000e+000 0.000000e+000 0.000000e+000 7.000000e-001 3.000000e-001
 0.000000e+000 0.000000e+000 0.000000e+000 0.000000e+000 0.000000e+000
<ENDHMM>
~h "l"
<BEGINHMM>
<NUMSTATES> 5
<STATE> 2
<NUMMIXES> 2
<MIXTURE> 1 5.000000e-001
<MEAN> 39
 -6.085900e+000 2.074944e-001 3.221387e+000 -3.182941e+000 -1.994689e+000 -1.861265e+000 -1.546552e+000 -1.414788e-001 -3.019440e-002 1.224845e+000 1.044894e-001 -1.927984e-001 6.374224e+001 3.768223e-001 3.441963e-001 3.384492e-001 4.001387e-001 4.053818e-001 3.822733e-001 3.922630e-001 3.870511e-001 3.788830e-001 3.459102e-001 3.503633e-001 3.109974e-001 4.001445e-001 1.440233e-001 1.415190e-001 1.351485e-001 1.659787e-001 1.683631e-001 1.618115e-001 1.657115e-001 1.659977e-001 1.611706e-001 1.496086e-001 1.498200e-001 1.339599e-001 1.586600e-001
<VARIANCE> 39
 8.734944e+001 6.009818e+001 7.634363e+001 9.227768e+001 8.232497e+001 7.615223e+001 7.703553e+001 6.286168e+001 6.621155e+001 4.622612e+001 6.105910e+001 3.961195e+001 3.144565e+002 3.552021e+000 2.953835e+000 2.854625e+000 4.020165e+000 4.060718e+000 3.665646e+000 3.837373e+000 3.763541e+000 3.608474e+000 2.973805e+000 3.080254e+000 2.413050e+000 3.965565e+000 5.176081e-001 5.008283e-001 4.582565e-001 6.882523e-001 7.108405e-001 6.539938e-001 6.868035e-001 6.883193e-001 6.492820e-001 5.617016e-001 5.620656e-001 4.489511e-001 6.315120e-001
<GCONST> 1.369537e+002
<MIXTURE> 2 5.000000e-001
<MEAN> 39
 -9.824337e+000 -2.893426e+000 -2.736069e-001 -7.025393e+000 -5.624013e+000 -5.351875e+000 -5.057348e+000 -3.312893e+000 -3.285014e+000 -1.494747e+000 -3.021123e+000 -2.710320e+000 5.664907e+001 -3.770500e-001 -3.432727e-001 -3.373762e-001 -4.018753e-001 -4.006671e-001 -3.835618e-001 -3.913056e-001 -3.889429e-001 -3.809564e-001 -3.438787e-001 -3.516628e-001 -3.103625e-001 -3.964045e-001 -1.437567e-001 -1.415579e-001 -1.356301e-001 -1.658652e-001 -1.688823e-001 -1.616681e-001 -1.657830e-001 -1.658624e-001 -1.611416e-001 -1.501784e-001 -1.500641e-001 -1.340553e-001 -1.592109e-001
<VARIANCE> 39
 8.734944e+001 6.009818e+001 7.634363e+001 9.227768e+001 8.232497e+001 7.615223e+001 7.703553e+001 6.286168e+001 6.621155e+001 4.622612e+001 6.105910e+001 3.961195e+001 3.144565e+002 3.552021e+000 2.953835e+000 2.854625e+000 4.020165e+000 4.060718e+000 3.665646e+000 3.837373e+000 3.763541e+000 3.608474e+000 2.973805e+000 3.080254e+000 2.413050e+000 3.965565e+000 5.176081e-001 5.008283e-001 4.582565e-001 6.882523e-001 7.108405e-001 6.539938e-001 6.868035e-001 6.883193e-001 6.492820e-001 5.617016e-001 5.620656e-001 4.489511e-001 6.315120e-001
<GCONST> 1.369537e+002
<STATE> 3
<NUMMIXES> 2
<MIXTURE> 1 5.000000e-001
<MEAN> 39
 -6.085900e+000 2.074944e-001 3.221387e+000 -3.182941e+000 -1.994689e+000 -1.861265e+000 -1.546552e+000 -1.414788e-001 -3.019440e-002 1.224845e+000 1.044894e-001 -1.927984e-001 6.374224e+001 3.768223e-001 3.441963e-001 3.384492e-001 4.001387e-001 4.053818e-001 3.822733e-001 3.922630e-001 3.870511e-001 3.788830e-001 3.459102e-001 3.503633e-001 3.109974e-001 4.001445e-001 1.440233e-001 1.415190e-001 1.351485e-001 1.659787e-001 1.683631e-001 1.618115e-001 1.657115e-001 1.659977e-001 1.611706e-001 1.496086e-001 1.498200e-001 1.339599e-001 1.586600e-001
<VARIANCE> 39
 8.734944e+001 6.009818e+001 7.634363e+001 9.227768e+001 8.232497e+001 7.615223e+001 7.703553e+001 6.286168e+001 6.621155e+001 4.622612e+001 6.105910e+001 3.961195e+001 3.144565e+002 3.552021e+000 2.953835e+000 2.854625e+000 4.020165e+000 4.060718e+000 3.665646e+000 3.837373e+000 3.763541e+000 3.608474e+000 2.973805e+000 3.080254e+000 2.413050e+000 3.965565e+000 5.176081e-001 5.008283e-001 4.582565e-001 6.882523e-001 7.108405e-001 6.539938e-001 6.868035e-001 6.883193e-001 6.492820e-001 5.617016e-001 5.620656e-001 4.489511e-001 6.315120e-001
<GCONST> 1.369537e+002
<MIXTURE> 2 5.000000e-001
<MEAN> 39
 -9.824337e+000 -2.893426e+000 -2.736069e-001 -7.025393e+000 -5.624013e+000 -5.351875e+000 -5.057348e+000 -3.312893e+000 -3.285014e+000 -1.494747e+000 -3.021123e+000 -2.710320e+000 5.664907e+001 -3.770500e-001 -3.432727e-001 -3.373762e-001 -4.018753e-001 -4.006671e-001 -3.835618e-001 -3.913056e-001 -3.889429e-001 -3.809564e-001 -3.438787e-001 -3.516628e-001 -3.103625e-001 -3.964045e-001 -1.437567e-001 -1.415579e-001 -1.356301e-001 -1.658652e-001 -1.688823e-001 -1.616681e-001 -1.657830e-001 -1.658624e-001 -1.611416e-001 -1.501784e-001 -1.500641e-001 -1.340553e-001 -1.592109e-001
<VARIANCE> 39
 8.734944e+001 6.009818e+001 7.634363e+001 9.227768e+001 8.232497e+001 7.615223e+001 7.703553e+001 6.286168e+001 6.621155e+001 4.622612e+001 6.105910e+001 3.961195e+001 3.144565e+002 3.552021e+000 2.953835e+000 2.854625e+000 4.020165e+000 4.060718e+000 3.665646e+000 3.837373e+000 3.763541e+000 3.608474e+000 2.973805e+000 3.080254e+000 2.413050e+000 3.965565e+000 5.176081e-001 5.008283e-001 4.582565e-001 6.882523e-001 7.108405e-001 6.539938e-001 6.868035e-001 6.883193e-001 6.492820e-001 5.617016e-001 5.620656e-001 4.489511e-001 6.315120e-001
<GCONST> 1.369537e+002
<STATE> 4
<NUMMIXES> 2
<MIXTURE> 1 5.000000e-001
<MEAN> 39
 -6.085900e+000 2.074944e-001 3.221387e+000 -3.182941e+000 -1.994689e+000 -1.861265e+000 -1.546552e+000 -1.414788e-001 -3.019440e-002 1.224845e+000 1.044894e-001 -1.927984e-001 6.374224e+001 3.768223e-001 3.441963e-001 3.384492e-001 4.001387e-001 4.053818e-001 3.822733e-001 3.922630e-001 3.870511e-001 3.788830e-001 3.459102e-001 3.503633e-001 3.109974e-001 4.001445e-001 1.440233e-001 1.415190e-001 1.351485e-001 1.659787e-001 1.683631e-001 1.618115e-001 1.657115e-001 1.659977e-001 1.611706e-001 1.496086e-001 1.498200e-001 1.339599e-001 1.586600e-001
<VARIANCE> 39
 8.734944e+001 6.009818e+001 7.634363e+001 9.227768e+001 8.232497e+001 7.615223e+001 7.703553e+001 6.286168e+001 6.621155e+001 4.622612e+001 6.105910e+001 3.961195e+001 3.144565e+002 3.552021e+000 2.953835e+000 2.854625e+000 4.020165e+000 4.060718e+000 3.665646e+000 3.837373e+000 3.763541e+000 3.608474e+000 2.973805e+000 3.080254e+000 2.413050e+000 3.965565e+000 5.176081e-001 5.008283e-001 4.582565e-001 6.882523e-001 7.108405e-001 6.539938e-001 6.868035e-001 6.883193e-001 6.492820e-001 5.617016e-001 5.620656e-001 4.489511e-001 6.315120e-001
<GCONST> 1.369537e+002
<MIXTURE> 2 5.000000e-001
<MEAN> 39
 -9.824337e+000 -2.893426e+000 -2.736069e-001 -7.025393e+000 -5.624013e+000 -5.351875e+000 -5.057348e+000 -3.312893e+000 -3.285014e+000 -1.494747e+000 -3.021123e+000 -2.710320e+000 5.664907e+001 -3.770500e-001 -3.432727e-001 -3.373762e-001 -4.018753e-001 -4.006671e-001 -3.835618e-001 -3.913056e-001 -3.889429e-001 -3.809564e-001 -3.438787e-001 -3.516628e-001 -3.103625e-001 -3.964045e-001 -1.437567e-001 -1.415579e-001 -1.356301e-001 -1.658652e-001 -1.688823e-001 -1.616681e-001 -1.657830e-001 -1.658624e-001 -1.611416e-001 -1.501784e-001 -1.500641e-001 -1.340553e-001 -1.592109e-001
<VARIANCE> 39
 8.734944e+001 6.009818e+001 7.634363e+001 9.227768e+001 8.232497e+001 7.615223e+001 7.703553e+001 6.286168e+001 6.621155e+001 4.622612e+001 6.105910e+001 3.961195e+001 3.144565e+002 3.552021e+000 2.953835e+000 2.854625e+000 4.020165e+000 4.060718e+000 3.665646e+000 3.837373e+000 3.763541e+000 3.608474e+000 2.973805e+000 3.080254e+000 2.413050e+000 3.965565e+000 5.176081e-001 5.008283e-001 4.582565e-001 6.882523e-001 7.108405e-001 6.539938e-001 6.868035e-001 6.883193e-001 6.492820e-001 5.617016e-001 5.620656e-001 4.489511e-001 6.315120e-001
<GCONST> 1.369537e+002
<TRANSP> 5
 0.000000e+000 1.000000e+000 0.000000e+000 0.000000e+000 0.000000e+000
 0.000000e+000 6.000000e-001 4.000000e-001 0.000000e+000 0.000000e+000
 0.000000e+000 0.000000e+000 6.000000e-001 4.000000e-001 0.000000e+000
 0.000000e+000 0.000000e+000 0.000000e+000 7.000000e-001 3.000000e-001
 0.000000e+000 0.000000e+000 0.000000e+000 0.000000e+000 0.000000e+000
<ENDHMM>
~h "m"
<BEGINHMM>
<NUMSTATES> 5
<STATE> 2
<NUMMIXES> 2
<MIXTURE> 1 5.000000e-001
<MEAN> 39
 -6.085900e+000 2.074944e-001 3.221387e+000 -3.182941e+000 -1.994689e+000 -1.861265e+000 -1.546552e+000 -1.414788e-001 -3.019440e-002 1.224845e+000 1.044894e-001 -1.927984e-001 6.374224e+001 3.768223e-001 3.441963e-001 3.384492e-001 4.001387e-001 4.053818e-001 3.822733e-001 3.922630e-001 3.870511e-001 3.788830e-001 3.459102e-001 3.503633e-001 3.109974e-001 4.001445e-001 1.440233e-001 1.415190e-001 1.351485e-001 1.659787e-001 1.683631e-001 1.618115e-001 1.657115e-001 1.659977e-001 1.611706e-001 1.496086e-001 1.498200e-001 1.339599e-001 1.586600e-001
<VARIANCE> 39
 8.734944e+001 6.009818e+001 7.634363e+001 9.227768e+001 8.232497e+001 7.615223e+001 7.703553e+001 6.286168e+001 6.621155e+001 4.622612e+001 6.105910e+001 3.961195e+001 3.144565e+002 3.552021e+000 2.953835e+000 2.854625e+000 4.020165e+000 4.060718e+000 3.665646e+000 3.837373e+000 3.763541e+000 3.608474e+000 2.973805e+000 3.080254e+000 2.413050e+000 3.965565e+000 5.176081e-001 5.008283e-001 4.582565e-001 6.882523e-001 7.108405e-001 6.539938e-001 6.868035e-001 6.883193e-001 6.492820e-001 5.617016e-001 5.620656e-001 4.489511e-001 6.315120e-001
<GCONST> 1.369537e+002
<MIXTURE> 2 5.000000e-001
<MEAN> 39
 -9.824337e+000 -2.893426e+000 -2.736069e-001 -7.025393e+000 -5.624013e+000 -5.351875e+000 -5.057348e+000 -3.312893e+000 -3.285014e+000 -1.494747e+000 -3.021123e+000 -2.710320e+000 5.664907e+001 -3.770500e-001 -3.432727e-001 -3.373762e-001 -4.018753e-001 -4.006671e-001 -3.835618e-001 -3.913056e-001 -3.889429e-001 -3.809564e-001 -3.438787e-001 -3.516628e-001 -3.103625e-001 -3.964045e-001 -1.437567e-001 -1.415579e-001 -1.356301e-001 -1.658652e-001 -1.688823e-001 -1.616681e-001 -1.657830e-001 -1.658624e-001 -1.611416e-001 -1.501784e-001 -1.500641e-001 -1.340553e-001 -1.592109e-001
<VARIANCE> 39
 8.734944e+001 6.009818e+001 7.634363e+001 9.227768e+001 8.232497e+001 7.615223e+001 7.703553e+001 6.286168e+001 6.621155e+001 4.622612e+001 6.105910e+001 3.961195e+001 3.144565e+002 3.552021e+000 2.953835e+000 2.854625e+000 4.020165e+000 4.060718e+000 3.665646e+000 3.837373e+000 3.763541e+000 3.608474e+000 2.973805e+000 3.080254e+000 2.413050e+000 3.965565e+000 5.176081e-001 5.008283e-001 4.582565e-001 6.882523e-001 7.108405e-001 6.539938e-001 6.868035e-001 6.883193e-001 6.492820e-001 5.617016e-001 5.620656e-001 4.489511e-001 6.315120e-001
<GCONST> 1.369537e+002
<STATE> 3
<NUMMIXES> 2
<MIXTURE> 1 5.000000e-001
<MEAN> 39
 -6.085900e+000 2.074944e-001 3.221387e+000 -3.182941e+000 -1.994689e+000 -1.861265e+000 -1.546552e+000 -1.414788e-001 -3.019440e-002 1.224845e+000 1.044894e-001 -1.927984e-001 6.374224e+001 3.768223e-001 3.441963e-001 3.384492e-001 4.001387e-001 4.053818e-001 3.822733e-001 3.922630e-001 3.870511e-001 3.788830e-001 3.459102e-001 3.503633e-001 3.109974e-001 4.001445e-001 1.440233e-001 1.415190e-001 1.351485e-001 1.659787e-001 1.683631e-001 1.618115e-001 1.657115e-001 1.659977e-001 1.611706e-001 1.496086e-001 1.498200e-001 1.339599e-001 1.586600e-001
<VARIANCE> 39
 8.734944e+001 6.009818e+001 7.634363e+001 9.227768e+001 8.232497e+001 7.615223e+001 7.703553e+001 6.286168e+001 6.621155e+001 4.622612e+001 6.105910e+001 3.961195e+001 3.144565e+002 3.552021e+000 2.953835e+000 2.854625e+000 4.020165e+000 4.060718e+000 3.665646e+000 3.837373e+000 3.763541e+000 3.608474e+000 2.973805e+000 3.080254e+000 2.413050e+000 3.965565e+000 5.176081e-001 5.008283e-001 4.582565e-001 6.882523e-001 7.108405e-001 6.539938e-001 6.868035e-001 6.883193e-001 6.492820e-001 5.617016e-001 5.620656e-001 4.489511e-001 6.315120e-001
<GCONST> 1.369537e+002
<MIXTURE> 2 5.000000e-001
<MEAN> 39
 -9.824337e+000 -2.893426e+000 -2.736069e-001 -7.025393e+000 -5.624013e+000 -5.351875e+000 -5.057348e+000 -3.312893e+000 -3.285014e+000 -1.494747e+000 -3.021123e+000 -2.710320e+000 5.664907e+001 -3.770500e-001 -3.432727e-001 -3.373762e-001 -4.018753e-001 -4.006671e-001 -3.835618e-001 -3.913056e-001 -3.889429e-001 -3.809564e-001 -3.438787e-001 -3.516628e-001 -3.103625e-001 -3.964045e-001 -1.437567e-001 -1.415579e-001 -1.356301e-001 -1.658652e-001 -1.688823e-001 -1.616681e-001 -1.657830e-001 -1.658624e-001 -1.611416e-001 -1.501784e-001 -1.500641e-001 -1.340553e-001 -1.592109e-001
<VARIANCE> 39
 8.734944e+001 6.009818e+001 7.634363e+001 9.227768e+001 8.232497e+001 7.615223e+001 7.703553e+001 6.286168e+001 6.621155e+001 4.622612e+001 6.105910e+001 3.961195e+001 3.144565e+002 3.552021e+000 2.953835e+000 2.854625e+000 4.020165e+000 4.060718e+000 3.665646e+000 3.837373e+000 3.763541e+000 3.608474e+000 2.973805e+000 3.080254e+000 2.413050e+000 3.965565e+000 5.176081e-001 5.008283e-001 4.582565e-001 6.882523e-001 7.108405e-001 6.539938e-001 6.868035e-001 6.883193e-001 6.492820e-001 5.617016e-001 5.620656e-001 4.489511e-001 6.315120e-001
<GCONST> 1.369537e+002
<STATE> 4
<NUMMIXES> 2
<MIXTURE> 1 5.000000e-001
<MEAN> 39
 -6.085900e+000 2.074944e-001 3.221387e+000 -3.182941e+000 -1.994689e+000 -1.861265e+000 -1.546552e+000 -1.414788e-001 -3.019440e-002 1.224845e+000 1.044894e-001 -1.927984e-001 6.374224e+001 3.768223e-001 3.441963e-001 3.384492e-001 4.001387e-001 4.053818e-001 3.822733e-001 3.922630e-001 3.870511e-001 3.788830e-001 3.459102e-001 3.503633e-001 3.109974e-001 4.001445e-001 1.440233e-001 1.415190e-001 1.351485e-001 1.659787e-001 1.683631e-001 1.618115e-001 1.657115e-001 1.659977e-001 1.611706e-001 1.496086e-001 1.498200e-001 1.339599e-001 1.586600e-001
<VARIANCE> 39
 8.734944e+001 6.009818e+001 7.634363e+001 9.227768e+001 8.232497e+001 7.615223e+001 7.703553e+001 6.286168e+001 6.621155e+001 4.622612e+001 6.105910e+001 3.961195e+001 3.144565e+002 3.552021e+000 2.953835e+000 2.854625e+000 4.020165e+000 4.060718e+000 3.665646e+000 3.837373e+000 3.763541e+000 3.608474e+000 2.973805e+000 3.080254e+000 2.413050e+000 3.965565e+000 5.176081e-001 5.008283e-001 4.582565e-001 6.882523e-001 7.108405e-001 6.539938e-001 6.868035e-001 6.883193e-001 6.492820e-001 5.617016e-001 5.620656e-001 4.489511e-001 6.315120e-001
<GCONST> 1.369537e+002
<MIXTURE> 2 5.000000e-001
<MEAN> 39
 -9.824337e+000 -2.893426e+000 -2.736069e-001 -7.025393e+000 -5.624013e+000 -5.351875e+000 -5.057348e+000 -3.312893e+000 -3.285014e+000 -1.494747e+000 -3.021123e+000 -2.710320e+000 5.664907e+001 -3.770500e-001 -3.432727e-001 -3.373762e-001 -4.018753e-001 -4.006671e-001 -3.835618e-001 -3.913056e-001 -3.889429e-001 -3.809564e-001 -3.438787e-001 -3.516628e-001 -3.103625e-001 -3.964045e-001 -1.437567e-001 -1.415579e-001 -1.356301e-001 -1.658652e-001 -1.688823e-001 -1.616681e-001 -1.657830e-001 -1.658624e-001 -1.611416e-001 -1.501784e-001 -1.500641e-001 -1.340553e-001 -1.592109e-001
<VARIANCE> 39
 8.734944e+001 6.009818e+001 7.634363e+001 9.227768e+001 8.232497e+001 7.615223e+001 7.703553e+001 6.286168e+001 6.621155e+001 4.622612e+001 6.105910e+001 3.961195e+001 3.144565e+002 3.552021e+000 2.953835e+000 2.854625e+000 4.020165e+000 4.060718e+000 3.665646e+000 3.837373e+000 3.763541e+000 3.608474e+000 2.973805e+000 3.080254e+000 2.413050e+000 3.965565e+000 5.176081e-001 5.008283e-001 4.582565e-001 6.882523e-001 7.108405e-001 6.539938e-001 6.868035e-001 6.883193e-001 6.492820e-001 5.617016e-001 5.620656e-001 4.489511e-001 6.315120e-001
<GCONST> 1.369537e+002
<TRANSP> 5
 0.000000e+000 1.000000e+000 0.000000e+000 0.000000e+000 0.000000e+000
 0.000000e+000 6.000000e-001 4.000000e-001 0.000000e+000 0.000000e+000
 0.000000e+000 0.000000e+000 6.000000e-001 4.000000e-001 0.000000e+000
 0.000000e+000 0.000000e+000 0.000000e+000 7.000000e-001 3.000000e-001
 0.000000e+000 0.000000e+000 0.000000e+000 0.000000e+000 0.000000e+000
<ENDHMM>
~h "n"
<BEGINHMM>
<NUMSTATES> 5
<STATE> 2
<NUMMIXES> 2
<MIXTURE> 1 5.000000e-001
<MEAN> 39
 -6.085900e+000 2.074944e-001 3.221387e+000 -3.182941e+000 -1.994689e+000 -1.861265e+000 -1.546552e+000 -1.414788e-001 -3.019440e-002 1.224845e+000 1.044894e-001 -1.927984e-001 6.374224e+001 3.768223e-001 3.441963e-001 3.384492e-001 4.001387e-001 4.053818e-001 3.822733e-001 3.922630e-001 3.870511e-001 3.788830e-001 3.459102e-001 3.503633e-001 3.109974e-001 4.001445e-001 1.440233e-001 1.415190e-001 1.351485e-001 1.659787e-001 1.683631e-001 1.618115e-001 1.657115e-001 1.659977e-001 1.611706e-001 1.496086e-001 1.498200e-001 1.339599e-001 1.586600e-001
<VARIANCE> 39
 8.734944e+001 6.009818e+001 7.634363e+001 9.227768e+001 8.232497e+001 7.615223e+001 7.703553e+001 6.286168e+001 6.621155e+001 4.622612e+001 6.105910e+001 3.961195e+001 3.144565e+002 3.552021e+000 2.953835e+000 2.854625e+000 4.020165e+000 4.060718e+000 3.665646e+000 3.837373e+000 3.763541e+000 3.608474e+000 2.973805e+000 3.080254e+000 2.413050e+000 3.965565e+000 5.176081e-001 5.008283e-001 4.582565e-001 6.882523e-001 7.108405e-001 6.539938e-001 6.868035e-001 6.883193e-001 6.492820e-001 5.617016e-001 5.620656e-001 4.489511e-001 6.315120e-001
<GCONST> 1.369537e+002
<MIXTURE> 2 5.000000e-001
<MEAN> 39
 -9.824337e+000 -2.893426e+000 -2.736069e-001 -7.025393e+000 -5.624013e+000 -5.351875e+000 -5.057348e+000 -3.312893e+000 -3.285014e+000 -1.494747e+000 -3.021123e+000 -2.710320e+000 5.664907e+001 -3.770500e-001 -3.432727e-001 -3.373762e-001 -4.018753e-001 -4.006671e-001 -3.835618e-001 -3.913056e-001 -3.889429e-001 -3.809564e-001 -3.438787e-001 -3.516628e-001 -3.103625e-001 -3.964045e-001 -1.437567e-001 -1.415579e-001 -1.356301e-001 -1.658652e-001 -1.688823e-001 -1.616681e-001 -1.657830e-001 -1.658624e-001 -1.611416e-001 -1.501784e-001 -1.500641e-001 -1.340553e-001 -1.592109e-001
<VARIANCE> 39
 8.734944e+001 6.009818e+001 7.634363e+001 9.227768e+001 8.232497e+001 7.615223e+001 7.703553e+001 6.286168e+001 6.621155e+001 4.622612e+001 6.105910e+001 3.961195e+001 3.144565e+002 3.552021e+000 2.953835e+000 2.854625e+000 4.020165e+000 4.060718e+000 3.665646e+000 3.837373e+000 3.763541e+000 3.608474e+000 2.973805e+000 3.080254e+000 2.413050e+000 3.965565e+000 5.176081e-001 5.008283e-001 4.582565e-001 6.882523e-001 7.108405e-001 6.539938e-001 6.868035e-001 6.883193e-001 6.492820e-001 5.617016e-001 5.620656e-001 4.489511e-001 6.315120e-001
<GCONST> 1.369537e+002
<STATE> 3
<NUMMIXES> 2
<MIXTURE> 1 5.000000e-001
<MEAN> 39
 -6.085900e+000 2.074944e-001 3.221387e+000 -3.182941e+000 -1.994689e+000 -1.861265e+000 -1.546552e+000 -1.414788e-001 -3.019440e-002 1.224845e+000 1.044894e-001 -1.927984e-001 6.374224e+001 3.768223e-001 3.441963e-001 3.384492e-001 4.001387e-001 4.053818e-001 3.822733e-001 3.922630e-001 3.870511e-001 3.788830e-001 3.459102e-001 3.503633e-001 3.109974e-001 4.001445e-001 1.440233e-001 1.415190e-001 1.351485e-001 1.659787e-001 1.683631e-001 1.618115e-001 1.657115e-001 1.659977e-001 1.611706e-001 1.496086e-001 1.498200e-001 1.339599e-001 1.586600e-001
<VARIANCE> 39
 8.734944e+001 6.009818e+001 7.634363e+001 9.227768e+001 8.232497e+001 7.615223e+001 7.703553e+001 6.286168e+001 6.621155e+001 4.622612e+001 6.105910e+001 3.961195e+001 3.144565e+002 3.552021e+000 2.953835e+000 2.854625e+000 4.020165e+000 4.060718e+000 3.665646e+000 3.837373e+000 3.763541e+000 3.608474e+000 2.973805e+000 3.080254e+000 2.413050e+000 3.965565e+000 5.176081e-001 5.008283e-001 4.582565e-001 6.882523e-001 7.108405e-001 6.539938e-001 6.868035e-001 6.883193e-001 6.492820e-001 5.617016e-001 5.620656e-001 4.489511e-001 6.315120e-001
<GCONST> 1.369537e+002
<MIXTURE> 2 5.000000e-001
<MEAN> 39
 -9.824337e+000 -2.893426e+000 -2.736069e-001 -7.025393e+000 -5.624013e+000 -5.351875e+000 -5.057348e+000 -3.312893e+000 -3.285014e+000 -1.494747e+000 -3.021123e+000 -2.710320e+000 5.664907e+001 -3.770500e-001 -3.432727e-001 -3.373762e-001 -4.018753e-001 -4.006671e-001 -3.835618e-001 -3.913056e-001 -3.889429e-001 -3.809564e-001 -3.438787e-001 -3.516628e-001 -3.103625e-001 -3.964045e-001 -1.437567e-001 -1.415579e-001 -1.356301e-001 -1.658652e-001 -1.688823e-001 -1.616681e-001 -1.657830e-001 -1.658624e-001 -1.611416e-001 -1.501784e-001 -1.500641e-001 -1.340553e-001 -1.592109e-001
<VARIANCE> 39
 8.734944e+001 6.009818e+001 7.634363e+001 9.227768e+001 8.232497e+001 7.615223e+001 7.703553e+001 6.286168e+001 6.621155e+001 4.622612e+001 6.105910e+001 3.961195e+001 3.144565e+002 3.552021e+000 2.953835e+000 2.854625e+000 4.020165e+000 4.060718e+000 3.665646e+000 3.837373e+000 3.763541e+000 3.608474e+000 2.973805e+000 3.080254e+000 2.413050e+000 3.965565e+000 5.176081e-001 5.008283e-001 4.582565e-001 6.882523e-001 7.108405e-001 6.539938e-001 6.868035e-001 6.883193e-001 6.492820e-001 5.617016e-001 5.620656e-001 4.489511e-001 6.315120e-001
<GCONST> 1.369537e+002
<STATE> 4
<NUMMIXES> 2
<MIXTURE> 1 5.000000e-001
<MEAN> 39
 -6.085900e+000 2.074944e-001 3.221387e+000 -3.182941e+000 -1.994689e+000 -1.861265e+000 -1.546552e+000 -1.414788e-001 -3.019440e-002 1.224845e+000 1.044894e-001 -1.927984e-001 6.374224e+001 3.768223e-001 3.441963e-001 3.384492e-001 4.001387e-001 4.053818e-001 3.822733e-001 3.922630e-001 3.870511e-001 3.788830e-001 3.459102e-001 3.503633e-001 3.109974e-001 4.001445e-001 1.440233e-001 1.415190e-001 1.351485e-001 1.659787e-001 1.683631e-001 1.618115e-001 1.657115e-001 1.659977e-001 1.611706e-001 1.496086e-001 1.498200e-001 1.339599e-001 1.586600e-001
<VARIANCE> 39
 8.734944e+001 6.009818e+001 7.634363e+001 9.227768e+001 8.232497e+001 7.615223e+001 7.703553e+001 6.286168e+001 6.621155e+001 4.622612e+001 6.105910e+001 3.961195e+001 3.144565e+002 3.552021e+000 2.953835e+000 2.854625e+000 4.020165e+000 4.060718e+000 3.665646e+000 3.837373e+000 3.763541e+000 3.608474e+000 2.973805e+000 3.080254e+000 2.413050e+000 3.965565e+000 5.176081e-001 5.008283e-001 4.582565e-001 6.882523e-001 7.108405e-001 6.539938e-001 6.868035e-001 6.883193e-001 6.492820e-001 5.617016e-001 5.620656e-001 4.489511e-001 6.315120e-001
<GCONST> 1.369537e+002
<MIXTURE> 2 5.000000e-001
<MEAN> 39
 -9.824337e+000 -2.893426e+000 -2.736069e-001 -7.025393e+000 -5.624013e+000 -5.351875e+000 -5.057348e+000 -3.312893e+000 -3.285014e+000 -1.494747e+000 -3.021123e+000 -2.710320e+000 5.664907e+001 -3.770500e-001 -3.432727e-001 -3.373762e-001 -4.018753e-001 -4.006671e-001 -3.835618e-001 -3.913056e-001 -3.889429e-001 -3.809564e-001 -3.438787e-001 -3.516628e-001 -3.103625e-001 -3.964045e-001 -1.437567e-001 -1.415579e-001 -1.356301e-001 -1.658652e-001 -1.688823e-001 -1.616681e-001 -1.657830e-001 -1.658624e-001 -1.611416e-001 -1.501784e-001 -1.500641e-001 -1.340553e-001 -1.592109e-001
<VARIANCE> 39
 8.734944e+001 6.009818e+001 7.634363e+001 9.227768e+001 8.232497e+001 7.615223e+001 7.703553e+001 6.286168e+001 6.621155e+001 4.622612e+001 6.105910e+001 3.961195e+001 3.144565e+002 3.552021e+000 2.953835e+000 2.854625e+000 4.020165e+000 4.060718e+000 3.665646e+000 3.837373e+000 3.763541e+000 3.608474e+000 2.973805e+000 3.080254e+000 2.413050e+000 3.965565e+000 5.176081e-001 5.008283e-001 4.582565e-001 6.882523e-001 7.108405e-001 6.539938e-001 6.868035e-001 6.883193e-001 6.492820e-001 5.617016e-001 5.620656e-001 4.489511e-001 6.315120e-001
<GCONST> 1.369537e+002
<TRANSP> 5
 0.000000e+000 1.000000e+000 0.000000e+000 0.000000e+000 0.000000e+000
 0.000000e+000 6.000000e-001 4.000000e-001 0.000000e+000 0.000000e+000
 0.000000e+000 0.000000e+000 6.000000e-001 4.000000e-001 0.000000e+000
 0.000000e+000 0.000000e+000 0.000000e+000 7.000000e-001 3.000000e-001
 0.000000e+000 0.000000e+000 0.000000e+000 0.000000e+000 0.000000e+000
<ENDHMM>
~h "o"
<BEGINHMM>
<NUMSTATES> 5
<STATE> 2
<NUMMIXES> 2
<MIXTURE> 1 5.000000e-001
<MEAN> 39
 -6.085900e+000 2.074944e-001 3.221387e+000 -3.182941e+000 -1.994689e+000 -1.861265e+000 -1.546552e+000 -1.414788e-001 -3.019440e-002 1.224845e+000 1.044894e-001 -1.927984e-001 6.374224e+001 3.768223e-001 3.441963e-001 3.384492e-001 4.001387e-001 4.053818e-001 3.822733e-001 3.922630e-001 3.870511e-001 3.788830e-001 3.459102e-001 3.503633e-001 3.109974e-001 4.001445e-001 1.440233e-001 1.415190e-001 1.351485e-001 1.659787e-001 1.683631e-001 1.618115e-001 1.657115e-001 1.659977e-001 1.611706e-001 1.496086e-001 1.498200e-001 1.339599e-001 1.586600e-001
<VARIANCE> 39
 8.734944e+001 6.009818e+001 7.634363e+001 9.227768e+001 8.232497e+001 7.615223e+001 7.703553e+001 6.286168e+001 6.621155e+001 4.622612e+001 6.105910e+001 3.961195e+001 3.144565e+002 3.552021e+000 2.953835e+000 2.854625e+000 4.020165e+000 4.060718e+000 3.665646e+000 3.837373e+000 3.763541e+000 3.608474e+000 2.973805e+000 3.080254e+000 2.413050e+000 3.965565e+000 5.176081e-001 5.008283e-001 4.582565e-001 6.882523e-001 7.108405e-001 6.539938e-001 6.868035e-001 6.883193e-001 6.492820e-001 5.617016e-001 5.620656e-001 4.489511e-001 6.315120e-001
<GCONST> 1.369537e+002
<MIXTURE> 2 5.000000e-001
<MEAN> 39
 -9.824337e+000 -2.893426e+000 -2.736069e-001 -7.025393e+000 -5.624013e+000 -5.351875e+000 -5.057348e+000 -3.312893e+000 -3.285014e+000 -1.494747e+000 -3.021123e+000 -2.710320e+000 5.664907e+001 -3.770500e-001 -3.432727e-001 -3.373762e-001 -4.018753e-001 -4.006671e-001 -3.835618e-001 -3.913056e-001 -3.889429e-001 -3.809564e-001 -3.438787e-001 -3.516628e-001 -3.103625e-001 -3.964045e-001 -1.437567e-001 -1.415579e-001 -1.356301e-001 -1.658652e-001 -1.688823e-001 -1.616681e-001 -1.657830e-001 -1.658624e-001 -1.611416e-001 -1.501784e-001 -1.500641e-001 -1.340553e-001 -1.592109e-001
<VARIANCE> 39
 8.734944e+001 6.009818e+001 7.634363e+001 9.227768e+001 8.232497e+001 7.615223e+001 7.703553e+001 6.286168e+001 6.621155e+001 4.622612e+001 6.105910e+001 3.961195e+001 3.144565e+002 3.552021e+000 2.953835e+000 2.854625e+000 4.020165e+000 4.060718e+000 3.665646e+000 3.837373e+000 3.763541e+000 3.608474e+000 2.973805e+000 3.080254e+000 2.413050e+000 3.965565e+000 5.176081e-001 5.008283e-001 4.582565e-001 6.882523e-001 7.108405e-001 6.539938e-001 6.868035e-001 6.883193e-001 6.492820e-001 5.617016e-001 5.620656e-001 4.489511e-001 6.315120e-001
<GCONST> 1.369537e+002
<STATE> 3
<NUMMIXES> 2
<MIXTURE> 1 5.000000e-001
<MEAN> 39
 -6.085900e+000 2.074944e-001 3.221387e+000 -3.182941e+000 -1.994689e+000 -1.861265e+000 -1.546552e+000 -1.414788e-001 -3.019440e-002 1.224845e+000 1.044894e-001 -1.927984e-001 6.374224e+001 3.768223e-001 3.441963e-001 3.384492e-001 4.001387e-001 4.053818e-001 3.822733e-001 3.922630e-001 3.870511e-001 3.788830e-001 3.459102e-001 3.503633e-001 3.109974e-001 4.001445e-001 1.440233e-001 1.415190e-001 1.351485e-001 1.659787e-001 1.683631e-001 1.618115e-001 1.657115e-001 1.659977e-001 1.611706e-001 1.496086e-001 1.498200e-001 1.339599e-001 1.586600e-001
<VARIANCE> 39
 8.734944e+001 6.009818e+001 7.634363e+001 9.227768e+001 8.232497e+001 7.615223e+001 7.703553e+001 6.286168e+001 6.621155e+001 4.622612e+001 6.105910e+001 3.961195e+001 3.144565e+002 3.552021e+000 2.953835e+000 2.854625e+000 4.020165e+000 4.060718e+000 3.665646e+000 3.837373e+000 3.763541e+000 3.608474e+000 2.973805e+000 3.080254e+000 2.413050e+000 3.965565e+000 5.176081e-001 5.008283e-001 4.582565e-001 6.882523e-001 7.108405e-001 6.539938e-001 6.868035e-001 6.883193e-001 6.492820e-001 5.617016e-001 5.620656e-001 4.489511e-001 6.315120e-001
<GCONST> 1.369537e+002
<MIXTURE> 2 5.000000e-001
<MEAN> 39
 -9.824337e+000 -2.893426e+000 -2.736069e-001 -7.025393e+000 -5.624013e+000 -5.351875e+000 -5.057348e+000 -3.312893e+000 -3.285014e+000 -1.494747e+000 -3.021123e+000 -2.710320e+000 5.664907e+001 -3.770500e-001 -3.432727e-001 -3.373762e-001 -4.018753e-001 -4.006671e-001 -3.835618e-001 -3.913056e-001 -3.889429e-001 -3.809564e-001 -3.438787e-001 -3.516628e-001 -3.103625e-001 -3.964045e-001 -1.437567e-001 -1.415579e-001 -1.356301e-001 -1.658652e-001 -1.688823e-001 -1.616681e-001 -1.657830e-001 -1.658624e-001 -1.611416e-001 -1.501784e-001 -1.500641e-001 -1.340553e-001 -1.592109e-001
<VARIANCE> 39
 8.734944e+001 6.009818e+001 7.634363e+001 9.227768e+001 8.232497e+001 7.615223e+001 7.703553e+001 6.286168e+001 6.621155e+001 4.622612e+001 6.105910e+001 3.961195e+001 3.144565e+002 3.552021e+000 2.953835e+000 2.854625e+000 4.020165e+000 4.060718e+000 3.665646e+000 3.837373e+000 3.763541e+000 3.608474e+000 2.973805e+000 3.080254e+000 2.413050e+000 3.965565e+000 5.176081e-001 5.008283e-001 4.582565e-001 6.882523e-001 7.108405e-001 6.539938e-001 6.868035e-001 6.883193e-001 6.492820e-001 5.617016e-001 5.620656e-001 4.489511e-001 6.315120e-001
<GCONST> 1.369537e+002
<STATE> 4
<NUMMIXES> 2
<MIXTURE> 1 5.000000e-001
<MEAN> 39
 -6.085900e+000 2.074944e-001 3.221387e+000 -3.182941e+000 -1.994689e+000 -1.861265e+000 -1.546552e+000 -1.414788e-001 -3.019440e-002 1.224845e+000 1.044894e-001 -1.927984e-001 6.374224e+001 3.768223e-001 3.441963e-001 3.384492e-001 4.001387e-001 4.053818e-001 3.822733e-001 3.922630e-001 3.870511e-001 3.788830e-001 3.459102e-001 3.503633e-001 3.109974e-001 4.001445e-001 1.440233e-001 1.415190e-001 1.351485e-001 1.659787e-001 1.683631e-001 1.618115e-001 1.657115e-001 1.659977e-001 1.611706e-001 1.496086e-001 1.498200e-001 1.339599e-001 1.586600e-001
<VARIANCE> 39
 8.734944e+001 6.009818e+001 7.634363e+001 9.227768e+001 8.232497e+001 7.615223e+001 7.703553e+001 6.286168e+001 6.621155e+001 4.622612e+001 6.105910e+001 3.961195e+001 3.144565e+002 3.552021e+000 2.953835e+000 2.854625e+000 4.020165e+000 4.060718e+000 3.665646e+000 3.837373e+000 3.763541e+000 3.608474e+000 2.973805e+000 3.080254e+000 2.413050e+000 3.965565e+000 5.176081e-001 5.008283e-001 4.582565e-001 6.882523e-001 7.108405e-001 6.539938e-001 6.868035e-001 6.883193e-001 6.492820e-001 5.617016e-001 5.620656e-001 4.489511e-001 6.315120e-001
<GCONST> 1.369537e+002
<MIXTURE> 2 5.000000e-001
<MEAN> 39
 -9.824337e+000 -2.893426e+000 -2.736069e-001 -7.025393e+000 -5.624013e+000 -5.351875e+000 -5.057348e+000 -3.312893e+000 -3.285014e+000 -1.494747e+000 -3.021123e+000 -2.710320e+000 5.664907e+001 -3.770500e-001 -3.432727e-001 -3.373762e-001 -4.018753e-001 -4.006671e-001 -3.835618e-001 -3.913056e-001 -3.889429e-001 -3.809564e-001 -3.438787e-001 -3.516628e-001 -3.103625e-001 -3.964045e-001 -1.437567e-001 -1.415579e-001 -1.356301e-001 -1.658652e-001 -1.688823e-001 -1.616681e-001 -1.657830e-001 -1.658624e-001 -1.611416e-001 -1.501784e-001 -1.500641e-001 -1.340553e-001 -1.592109e-001
<VARIANCE> 39
 8.734944e+001 6.009818e+001 7.634363e+001 9.227768e+001 8.232497e+001 7.615223e+001 7.703553e+001 6.286168e+001 6.621155e+001 4.622612e+001 6.105910e+001 3.961195e+001 3.144565e+002 3.552021e+000 2.953835e+000 2.854625e+000 4.020165e+000 4.060718e+000 3.665646e+000 3.837373e+000 3.763541e+000 3.608474e+000 2.973805e+000 3.080254e+000 2.413050e+000 3.965565e+000 5.176081e-001 5.008283e-001 4.582565e-001 6.882523e-001 7.108405e-001 6.539938e-001 6.868035e-001 6.883193e-001 6.492820e-001 5.617016e-001 5.620656e-001 4.489511e-001 6.315120e-001
<GCONST> 1.369537e+002
<TRANSP> 5
 0.000000e+000 1.000000e+000 0.000000e+000 0.000000e+000 0.000000e+000
 0.000000e+000 6.000000e-001 4.000000e-001 0.000000e+000 0.000000e+000
 0.000000e+000 0.000000e+000 6.000000e-001 4.000000e-001 0.000000e+000
 0.000000e+000 0.000000e+000 0.000000e+000 7.000000e-001 3.000000e-001
 0.000000e+000 0.000000e+000 0.000000e+000 0.000000e+000 0.000000e+000
<ENDHMM>
~h "p"
<BEGINHMM>
<NUMSTATES> 5
<STATE> 2
<NUMMIXES> 2
<MIXTURE> 1 5.000000e-001
<MEAN> 39
 -6.085900e+000 2.074944e-001 3.221387e+000 -3.182941e+000 -1.994689e+000 -1.861265e+000 -1.546552e+000 -1.414788e-001 -3.019440e-002 1.224845e+000 1.044894e-001 -1.927984e-001 6.374224e+001 3.768223e-001 3.441963e-001 3.384492e-001 4.001387e-001 4.053818e-001 3.822733e-001 3.922630e-001 3.870511e-001 3.788830e-001 3.459102e-001 3.503633e-001 3.109974e-001 4.001445e-001 1.440233e-001 1.415190e-001 1.351485e-001 1.659787e-001 1.683631e-001 1.618115e-001 1.657115e-001 1.659977e-001 1.611706e-001 1.496086e-001 1.498200e-001 1.339599e-001 1.586600e-001
<VARIANCE> 39
