~o
<STREAMINFO> 1 39
<VECSIZE> 39<NULLD><MFCC_D_A_0><DIAGC>
~h "proto-1s-39f"
<BEGINHMM>
<NUMSTATES> 3
<STATE> 2
<MEAN> 39
 -7.964134e+000 -1.350284e+000 1.470668e+000 -5.113231e+000 -3.817276e+000 -3.626126e+000 -3.287575e+000 -1.727431e+000 -1.662076e+000 -1.433897e-001 -1.462201e+000 -1.452490e+000 6.043144e+001 -1.018493e-004 4.846403e-004 5.604709e-004 -8.239659e-004 2.373535e-003 -6.538935e-004 4.840266e-004 -9.584883e-004 -1.057107e-003 1.012289e-003 -6.743878e-004 3.220855e-004 1.805901e-003 1.348432e-004 -1.155943e-005 -2.430935e-004 5.387123e-005 -2.599180e-004 5.603827e-005 -4.979573e-005 6.567808e-005 1.796700e-005 -2.779317e-004 -1.234440e-004 -4.366023e-005 -2.731376e-004
<VARIANCE> 39
 8.748125e+001 6.026450e+001 7.633610e+001 9.251519e+001 8.251596e+001 7.631458e+001 7.702547e+001 6.295675e+001 6.633354e+001 4.626636e+001 6.109821e+001 3.965592e+001 2.795875e+002 3.556468e+000 2.956495e+000 2.856577e+000 4.027553e+000 4.064613e+000 3.669780e+000 3.842149e+000 3.773063e+000 3.614036e+000 2.977772e+000 3.083381e+000 2.416832e+000 3.968908e+000 5.178677e-001 5.015597e-001 4.592203e-001 6.890020e-001 7.110234e-001 6.541059e-001 6.871581e-001 6.897802e-001 6.494336e-001 5.626158e-001 5.624859e-001 4.500027e-001 6.319776e-001
<GCONST> 1.368838e+002
<TRANSP> 3
 0.000000e+000 1.000000e+000 0.000000e+000
 0.000000e+000 6.000000e-001 4.000000e-001
 0.000000e+000 0.000000e+000 0.000000e+000
<ENDHMM>
