~o
<STREAMINFO> 1 16
<VECSIZE> 16<NULLD><FBANK><DIAGC>
~h "ctyri"
<BEGINHMM>
<NUMSTATES> 10
<STATE> 2
<MEAN> 16
 5.666110e+000 5.752647e+000 5.990526e+000 6.226097e+000 6.306208e+000 6.491924e+000 6.666323e+000 6.929112e+000 7.345949e+000 7.572901e+000 7.944474e+000 8.494058e+000 8.797956e+000 8.862149e+000 8.705780e+000 8.578259e+000
<VARIANCE> 16
 1.637714e-001 1.010304e-001 1.536984e-001 7.621716e-002 6.451339e-002 4.730371e-002 6.670314e-002 8.987393e-002 1.819701e-001 3.541144e-001 5.217379e-001 1.057760e+000 1.271900e+000 1.099933e+000 6.197187e-001 2.748862e-001
<GCONST> 5.177972e+000
<STATE> 3
<MEAN> 16
 5.666159e+000 5.809650e+000 6.029086e+000 6.172005e+000 6.318363e+000 6.519493e+000 6.781648e+000 7.031251e+000 7.560117e+000 8.090222e+000 9.168093e+000 1.010585e+001 1.070264e+001 1.061428e+001 9.997936e+000 9.362419e+000
<VARIANCE> 16
 9.881298e-002 6.924827e-002 1.035274e-001 7.986945e-002 6.516796e-002 5.958455e-002 8.153675e-002 9.287502e-002 1.763601e-001 5.736748e-001 9.383478e-001 1.085128e+000 1.141473e+000 1.170160e+000 9.886321e-001 6.078567e-001
<GCONST> 6.699172e+000
<STATE> 4
<MEAN> 16
 5.782490e+000 5.858711e+000 6.051219e+000 6.210228e+000 6.338993e+000 6.506391e+000 6.709002e+000 7.200642e+000 8.047407e+000 8.680151e+000 9.159355e+000 9.746665e+000 1.013504e+001 1.000221e+001 9.529090e+000 8.927993e+000
<VARIANCE> 16
 1.446656e-001 1.114855e-001 1.129965e-001 8.938486e-002 5.607018e-002 6.352338e-002 5.532778e-002 3.031789e-001 8.613834e-001 1.912271e+000 2.147362e+000 2.101089e+000 1.682482e+000 1.817398e+000 1.678108e+000 8.165784e-001
<GCONST> 1.439671e+001
<STATE> 5
<MEAN> 16
 5.795656e+000 5.845713e+000 5.978369e+000 6.195779e+000 6.419932e+000 6.608832e+000 6.845529e+000 7.175192e+000 7.627394e+000 7.912572e+000 8.460616e+000 9.154297e+000 9.630797e+000 9.466200e+000 8.815088e+000 8.472415e+000
<VARIANCE> 16
 1.601129e-001 1.412698e-001 1.501249e-001 1.153026e-001 8.084899e-002 1.136779e-001 1.246209e-001 2.368859e-001 3.941180e-001 8.320142e-001 1.091383e+000 1.358106e+000 1.252787e+000 1.211858e+000 7.327325e-001 4.190277e-001
<GCONST> 1.186363e+001
<STATE> 6
<MEAN> 16
 5.844790e+000 6.338261e+000 6.823164e+000 6.873099e+000 6.917731e+000 6.942859e+000 7.247826e+000 7.717978e+000 8.309361e+000 8.504676e+000 8.677699e+000 9.259332e+000 9.696645e+000 9.460423e+000 8.733841e+000 8.521010e+000
<VARIANCE> 16
 1.077311e-001 3.232504e-001 4.550149e-001 2.705604e-001 9.072552e-002 1.331565e-001 2.334623e-001 2.124721e-001 2.916410e-001 2.286434e-001 3.236851e-001 5.048099e-001 5.257322e-001 5.164838e-001 9.982050e-002 1.029020e-001
<GCONST> 6.132662e+000
<STATE> 7
<MEAN> 16
 5.988461e+000 7.457029e+000 8.156427e+000 8.785129e+000 7.318016e+000 7.261101e+000 7.595243e+000 8.492543e+000 9.548652e+000 1.000961e+001 1.029290e+001 1.066070e+001 1.120100e+001 1.067488e+001 9.296785e+000 8.768485e+000
<VARIANCE> 16
 1.514596e-001 5.664356e-001 8.459932e-001 1.027456e+000 2.854674e-001 2.297231e-001 2.804123e-001 4.308009e-001 4.706551e-001 6.836601e-001 1.049919e+000 1.020746e+000 1.459509e+000 1.489465e+000 9.205979e-001 4.459991e-001
<GCONST> 2.079360e+001
<STATE> 8
<MEAN> 16
 6.468672e+000 7.752447e+000 9.426117e+000 9.508326e+000 8.458796e+000 8.162567e+000 8.330142e+000 9.034445e+000 1.034865e+001 1.079331e+001 1.076157e+001 1.103532e+001 1.158587e+001 1.097735e+001 9.534838e+000 8.742164e+000
<VARIANCE> 16
 1.727570e-001 3.653301e-001 9.871892e-001 8.425833e-001 6.741647e-001 5.966402e-001 4.294272e-001 3.194681e-001 4.380351e-001 4.645056e-001 5.003095e-001 6.020017e-001 6.335417e-001 8.454627e-001 8.676856e-001 3.952664e-001
<GCONST> 1.907523e+001
<STATE> 9
<MEAN> 16
 6.440184e+000 7.792154e+000 9.027918e+000 8.709753e+000 7.651773e+000 7.348080e+000 7.555109e+000 8.438732e+000 9.609602e+000 1.008663e+001 9.444308e+000 9.438451e+000 9.889268e+000 9.345904e+000 8.448030e+000 8.421951e+000
<VARIANCE> 16
 2.035439e-001 3.045866e-001 4.773143e-001 3.530200e-001 2.515903e-001 2.051336e-001 1.332457e-001 4.846591e-001 7.910309e-001 4.205226e-001 1.271214e+000 1.145263e+000 1.421141e+000 9.949063e-001 1.492880e-001 1.548759e-001
<GCONST> 1.499491e+001
<TRANSP> 10
 0.000000e+000 1.000000e+000 0.000000e+000 0.000000e+000 0.000000e+000 0.000000e+000 0.000000e+000 0.000000e+000 0.000000e+000 0.000000e+000
 0.000000e+000 8.043417e-001 1.956582e-001 0.000000e+000 0.000000e+000 0.000000e+000 0.000000e+000 0.000000e+000 0.000000e+000 0.000000e+000
 0.000000e+000 0.000000e+000 8.002168e-001 1.997832e-001 0.000000e+000 0.000000e+000 0.000000e+000 0.000000e+000 0.000000e+000 0.000000e+000
 0.000000e+000 0.000000e+000 0.000000e+000 8.280029e-001 1.719972e-001 0.000000e+000 0.000000e+000 0.000000e+000 0.000000e+000 0.000000e+000
 0.000000e+000 0.000000e+000 0.000000e+000 0.000000e+000 5.420632e-001 4.579368e-001 0.000000e+000 0.000000e+000 0.000000e+000 0.000000e+000
 0.000000e+000 0.000000e+000 0.000000e+000 0.000000e+000 0.000000e+000 2.994059e-001 7.005942e-001 0.000000e+000 0.000000e+000 0.000000e+000
 0.000000e+000 0.000000e+000 0.000000e+000 0.000000e+000 0.000000e+000 0.000000e+000 8.247640e-001 1.752359e-001 0.000000e+000 0.000000e+000
 0.000000e+000 0.000000e+000 0.000000e+000 0.000000e+000 0.000000e+000 0.000000e+000 0.000000e+000 9.526381e-001 4.736189e-002 0.000000e+000
 0.000000e+000 0.000000e+000 0.000000e+000 0.000000e+000 0.000000e+000 0.000000e+000 0.000000e+000 0.000000e+000 9.371702e-001 6.282981e-002
 0.000000e+000 0.000000e+000 0.000000e+000 0.000000e+000 0.000000e+000 0.000000e+000 0.000000e+000 0.000000e+000 0.000000e+000 0.000000e+000
<ENDHMM>
~h "sedm"
<BEGINHMM>
<NUMSTATES> 10
<STATE> 2
<MEAN> 16
 5.639922e+000 5.752565e+000 5.992760e+000 6.167574e+000 6.261312e+000 6.475725e+000 6.623185e+000 6.911035e+000 7.320083e+000 7.362028e+000 7.527934e+000 7.923660e+000 8.795249e+000 9.098522e+000 9.394348e+000 9.212022e+000
<VARIANCE> 16
 1.142030e-001 8.627089e-002 7.005410e-002 7.809642e-002 5.616230e-002 4.292175e-002 4.164171e-002 5.983941e-002 6.424364e-002 4.277904e-002 9.192219e-002 1.190132e-001 1.546402e-001 1.879606e-001 2.776574e-001 3.628618e-001
<GCONST> -8.690326e+000
<STATE> 3
<MEAN> 16
 5.727954e+000 5.803901e+000 5.871546e+000 6.140296e+000 6.296918e+000 6.501921e+000 6.701918e+000 7.156104e+000 7.520805e+000 7.599742e+000 7.829244e+000 8.426438e+000 9.510776e+000 9.779195e+000 9.989834e+000 9.995626e+000
<VARIANCE> 16
 1.580786e-001 9.600439e-002 1.395496e-001 1.276135e-001 1.003586e-001 5.542897e-002 4.806988e-002 5.738300e-002 7.503507e-002 6.413685e-002 1.822219e-001 8.397122e-002 1.822613e-001 1.492298e-001 2.914656e-001 4.131333e-001
<GCONST> -5.132588e+000
<STATE> 4
<MEAN> 16
 5.762504e+000 5.783714e+000 5.902397e+000 6.206328e+000 6.498968e+000 6.559712e+000 6.794732e+000 7.325006e+000 7.748172e+000 7.801581e+000 8.148026e+000 8.737620e+000 9.923589e+000 1.021140e+001 1.033982e+001 1.018544e+001
<VARIANCE> 16
 2.154938e-001 9.143046e-002 7.999012e-002 6.881178e-002 4.735738e-002 5.353482e-002 5.290512e-002 8.168757e-002 8.443889e-002 6.501774e-002 1.865989e-001 1.347811e-001 2.621055e-001 3.521248e-001 6.311532e-001 5.557021e-001
<GCONST> -3.462990e+000
<STATE> 5
<MEAN> 16
 5.719608e+000 5.756429e+000 6.015478e+000 6.358386e+000 6.524389e+000 6.819762e+000 7.043613e+000 7.566101e+000 8.103411e+000 8.172619e+000 8.494134e+000 9.186399e+000 1.022896e+001 1.053979e+001 1.028648e+001 1.001696e+001
<VARIANCE> 16
 1.421962e-001 1.252164e-001 1.364706e-001 9.825526e-002 7.042167e-002 9.072141e-002 8.116677e-002 1.182232e-001 2.188323e-001 1.496613e-001 3.307115e-001 3.090730e-001 5.282990e-001 7.230369e-001 6.688778e-001 4.395693e-001
<GCONST> 3.480276e+000
<STATE> 6
<MEAN> 16
 5.967187e+000 6.178938e+000 6.542628e+000 6.891490e+000 6.923211e+000 7.217155e+000 7.512807e+000 8.189420e+000 8.807318e+000 8.757527e+000 9.072651e+000 9.585132e+000 1.057959e+001 1.086228e+001 1.033521e+001 1.008158e+001
<VARIANCE> 16
 2.048141e-001 2.723909e-001 4.473038e-001 3.329416e-001 1.468903e-001 1.221749e-001 1.365291e-001 1.231948e-001 2.056606e-001 2.342870e-001 3.575874e-001 4.554044e-001 7.045075e-001 1.008854e+000 6.718740e-001 4.156486e-001
<GCONST> 1.004526e+001
<STATE> 7
<MEAN> 16
 6.411607e+000 7.687029e+000 8.784834e+000 9.099080e+000 8.311254e+000 7.922859e+000 8.616963e+000 9.678261e+000 9.263950e+000 9.135624e+000 8.955439e+000 9.144329e+000 9.797276e+000 9.598238e+000 9.054698e+000 8.883344e+000
<VARIANCE> 16
 1.764405e-001 2.069770e-001 6.660306e-001 6.847921e-001 4.886622e-001 4.561491e-001 5.425344e-001 6.097712e-001 4.866339e-001 3.506022e-001 8.580070e-001 5.661075e-001 3.513704e-001 2.985153e-001 2.524318e-001 9.751233e-002
<GCONST> 1.425416e+001
<STATE> 8
<MEAN> 16
 6.738369e+000 8.014234e+000 9.088264e+000 9.629726e+000 9.403132e+000 8.953632e+000 9.207606e+000 9.996871e+000 1.043275e+001 1.027013e+001 1.047406e+001 1.038663e+001 1.092965e+001 1.039363e+001 8.766856e+000 8.439563e+000
<VARIANCE> 16
 2.517646e-001 4.261426e-001 4.845620e-001 7.599065e-001 1.132600e+000 6.680944e-001 5.727341e-001 8.335863e-001 8.002214e-001 7.199739e-001 1.243824e+000 1.387261e+000 1.114166e+000 1.234568e+000 7.420214e-001 2.563968e-001
<GCONST> 2.381010e+001
<STATE> 9
<MEAN> 16
 6.501925e+000 8.010164e+000 8.585131e+000 8.637255e+000 7.978924e+000 7.923823e+000 8.201907e+000 8.499305e+000 8.574294e+000 8.720806e+000 8.748287e+000 9.278818e+000 9.569158e+000 8.919038e+000 8.120940e+000 8.116261e+000
<VARIANCE> 16
 1.942715e-001 1.472543e-001 4.384129e-001 4.280089e-001 2.496001e-001 2.798885e-001 4.560724e-001 6.519883e-001 5.253970e-001 4.955300e-001 8.028187e-001 1.430842e+000 1.308881e+000 4.225913e-001 8.087974e-002 5.693009e-002
<GCONST> 1.312465e+001
<TRANSP> 10
 0.000000e+000 1.000000e+000 0.000000e+000 0.000000e+000 0.000000e+000 0.000000e+000 0.000000e+000 0.000000e+000 0.000000e+000 0.000000e+000
 0.000000e+000 7.676799e-001 2.323201e-001 0.000000e+000 0.000000e+000 0.000000e+000 0.000000e+000 0.000000e+000 0.000000e+000 0.000000e+000
 0.000000e+000 0.000000e+000 6.246782e-001 3.753219e-001 0.000000e+000 0.000000e+000 0.000000e+000 0.000000e+000 0.000000e+000 0.000000e+000
 0.000000e+000 0.000000e+000 0.000000e+000 4.542696e-001 5.457304e-001 0.000000e+000 0.000000e+000 0.000000e+000 0.000000e+000 0.000000e+000
 0.000000e+000 0.000000e+000 0.000000e+000 0.000000e+000 5.111581e-001 4.888419e-001 0.000000e+000 0.000000e+000 0.000000e+000 0.000000e+000
 0.000000e+000 0.000000e+000 0.000000e+000 0.000000e+000 0.000000e+000 6.716931e-001 3.283069e-001 0.000000e+000 0.000000e+000 0.000000e+000
 0.000000e+000 0.000000e+000 0.000000e+000 0.000000e+000 0.000000e+000 0.000000e+000 3.272000e-001 6.728000e-001 0.000000e+000 0.000000e+000
 0.000000e+000 0.000000e+000 0.000000e+000 0.000000e+000 0.000000e+000 0.000000e+000 0.000000e+000 9.401354e-001 5.986466e-002 0.000000e+000
 0.000000e+000 0.000000e+000 0.000000e+000 0.000000e+000 0.000000e+000 0.000000e+000 0.000000e+000 0.000000e+000 9.644636e-001 3.553639e-002
 0.000000e+000 0.000000e+000 0.000000e+000 0.000000e+000 0.000000e+000 0.000000e+000 0.000000e+000 0.000000e+000 0.000000e+000 0.000000e+000
<ENDHMM>
~h "sest"
<BEGINHMM>
<NUMSTATES> 10
<STATE> 2
<MEAN> 16
 5.660410e+000 5.711276e+000 5.879429e+000 6.076206e+000 6.324122e+000 6.480625e+000 6.650429e+000 7.045349e+000 7.722120e+000 8.015592e+000 8.403248e+000 8.960709e+000 9.286085e+000 9.359051e+000 8.921321e+000 8.331905e+000
<VARIANCE> 16
 7.849642e-002 8.840759e-002 9.309768e-002 5.883131e-002 4.255025e-002 4.649860e-002 4.509320e-002 7.005594e-002 2.085161e-001 4.165129e-001 4.056093e-001 3.463974e-001 2.959577e-001 3.499981e-001 3.791008e-001 6.207670e-002
<GCONST> -3.177357e+000
<STATE> 3
<MEAN> 16
 5.684191e+000 5.770771e+000 5.921824e+000 6.121103e+000 6.309641e+000 6.431043e+000 6.634368e+000 7.244638e+000 8.124906e+000 8.768690e+000 9.285272e+000 9.983074e+000 1.018997e+001 1.023883e+001 9.672513e+000 8.868272e+000
<VARIANCE> 16
 1.222022e-001 1.046734e-001 7.012731e-002 9.683269e-002 5.391899e-002 4.281216e-002 6.237857e-002 1.285889e-001 4.452900e-001 5.961779e-001 3.080785e-001 2.582385e-001 1.795190e-001 2.134203e-001 2.216803e-001 1.382380e-001
<GCONST> -1.446824e+000
<STATE> 4
<MEAN> 16
 5.770989e+000 5.728497e+000 5.994656e+000 6.202311e+000 6.377981e+000 6.522480e+000 6.783324e+000 7.426639e+000 8.370537e+000 9.277672e+000 9.735531e+000 1.033231e+001 1.058610e+001 1.059852e+001 1.009923e+001 9.261518e+000
<VARIANCE> 16
 1.293101e-001 9.840461e-002 5.945839e-002 7.672444e-002 4.462861e-002 7.305545e-002 6.581569e-002 1.628335e-001 3.785958e-001 5.758854e-001 2.393884e-001 2.540209e-001 2.796441e-001 2.654068e-001 1.702665e-001 1.486664e-001
<GCONST> -1.210343e+000
<STATE> 5
<MEAN> 16
 5.744177e+000 5.846271e+000 6.027260e+000 6.201435e+000 6.286106e+000 6.540937e+000 6.812642e+000 7.472675e+000 8.396598e+000 9.228885e+000 1.012139e+001 1.108624e+001 1.134054e+001 1.119300e+001 1.059889e+001 9.774588e+000
<VARIANCE> 16
 6.569616e-002 7.204140e-002 7.677898e-002 7.063004e-002 5.205929e-002 5.484747e-002 1.048804e-001 1.364575e-001 3.491956e-001 4.400641e-001 2.180573e-001 3.920929e-001 3.296772e-001 3.745515e-001 2.782035e-001 2.306754e-001
<GCONST> -4.395927e-001
<STATE> 6
<MEAN> 16
 5.803117e+000 5.927536e+000 6.235927e+000 6.460328e+000 6.568466e+000 6.796181e+000 7.092811e+000 8.052416e+000 9.041334e+000 9.742694e+000 1.020162e+001 1.077375e+001 1.122057e+001 1.111589e+001 1.059219e+001 9.846600e+000
<VARIANCE> 16
 8.152162e-002 9.214093e-002 1.286691e-001 1.083018e-001 8.718679e-002 1.268178e-001 8.958697e-002 2.239390e-001 4.763707e-001 6.145383e-001 2.509246e-001 3.428006e-001 6.425292e-001 7.161736e-001 6.063491e-001 2.945468e-001
<GCONST> 5.647285e+000
<STATE> 7
<MEAN> 16
 5.994177e+000 6.897246e+000 7.500643e+000 7.708003e+000 7.307077e+000 7.158329e+000 7.354399e+000 8.334375e+000 8.971172e+000 9.208196e+000 9.525670e+000 9.774341e+000 9.963240e+000 9.663480e+000 9.099566e+000 8.734792e+000
<VARIANCE> 16
 9.764103e-002 6.555371e-001 1.106784e+000 9.439678e-001 5.696047e-001 3.092713e-001 2.528366e-001 6.232324e-001 5.273905e-001 4.556109e-001 2.848965e-001 4.988309e-001 6.527094e-001 7.580214e-001 6.443250e-001 2.253126e-001
<GCONST> 1.710634e+001
<STATE> 8
<MEAN> 16
 6.434269e+000 7.509158e+000 8.941951e+000 9.935179e+000 9.812130e+000 9.146563e+000 9.320290e+000 1.037986e+001 1.076357e+001 1.052463e+001 1.061718e+001 1.071184e+001 1.108004e+001 1.047848e+001 9.135917e+000 8.674958e+000
<VARIANCE> 16
 1.984610e-001 2.893304e-001 3.900115e-001 4.793527e-001 1.238232e+000 1.065083e+000 6.554205e-001 6.483007e-001 1.098628e+000 9.271834e-001 1.656214e+000 1.455759e+000 1.519758e+000 1.563413e+000 5.744500e-001 1.819720e-001
<GCONST> 2.379834e+001
<STATE> 9
<MEAN> 16
 5.729675e+000 5.935092e+000 6.455907e+000 7.107347e+000 7.206719e+000 7.016942e+000 7.157745e+000 7.799459e+000 8.158180e+000 8.120483e+000 8.523574e+000 9.063976e+000 9.956783e+000 1.044493e+001 1.036145e+001 1.006774e+001
<VARIANCE> 16
 1.149589e-001 1.552759e-001 2.931898e-001 4.762465e-001 4.554099e-001 2.840406e-001 1.648808e-001 2.516048e-001 4.047754e-001 3.305426e-001 3.483376e-001 3.430415e-001 5.040996e-001 5.449173e-001 2.961188e-001 2.451932e-001
<GCONST> 1.013319e+001
<TRANSP> 10
 0.000000e+000 1.000000e+000 0.000000e+000 0.000000e+000 0.000000e+000 0.000000e+000 0.000000e+000 0.000000e+000 0.000000e+000 0.000000e+000
 0.000000e+000 4.942520e-001 5.057480e-001 0.000000e+000 0.000000e+000 0.000000e+000 0.000000e+000 0.000000e+000 0.000000e+000 0.000000e+000
 0.000000e+000 0.000000e+000 3.421690e-001 6.578310e-001 0.000000e+000 0.000000e+000 0.000000e+000 0.000000e+000 0.000000e+000 0.000000e+000
 0.000000e+000 0.000000e+000 0.000000e+000 3.754309e-001 6.245691e-001 0.000000e+000 0.000000e+000 0.000000e+000 0.000000e+000 0.000000e+000
 0.000000e+000 0.000000e+000 0.000000e+000 0.000000e+000 7.078317e-001 2.921683e-001 0.000000e+000 0.000000e+000 0.000000e+000 0.000000e+000
 0.000000e+000 0.000000e+000 0.000000e+000 0.000000e+000 0.000000e+000 7.367994e-001 2.632006e-001 0.000000e+000 0.000000e+000 0.000000e+000
 0.000000e+000 0.000000e+000 0.000000e+000 0.000000e+000 0.000000e+000 0.000000e+000 2.763865e-001 7.236135e-001 0.000000e+000 0.000000e+000
 0.000000e+000 0.000000e+000 0.000000e+000 0.000000e+000 0.000000e+000 0.000000e+000 0.000000e+000 9.539678e-001 4.603228e-002 0.000000e+000
 0.000000e+000 0.000000e+000 0.000000e+000 0.000000e+000 0.000000e+000 0.000000e+000 0.000000e+000 0.000000e+000 9.371310e-001 6.286898e-002
 0.000000e+000 0.000000e+000 0.000000e+000 0.000000e+000 0.000000e+000 0.000000e+000 0.000000e+000 0.000000e+000 0.000000e+000 0.000000e+000
<ENDHMM>
~h "dva"
<BEGINHMM>
<NUMSTATES> 10
<STATE> 2
<MEAN> 16
 6.040894e+000 6.662475e+000 6.886927e+000 6.717133e+000 6.508463e+000 6.593729e+000 6.786032e+000 6.971913e+000 7.283358e+000 7.175864e+000 7.296621e+000 7.524729e+000 7.726145e+000 7.797314e+000 7.842272e+000 8.026269e+000
<VARIANCE> 16
 1.439201e-001 3.361613e-001 4.898588e-001 4.031369e-001 1.359134e-001 9.206326e-002 1.150222e-001 1.502572e-001 1.275635e-001 1.278768e-001 1.382645e-001 1.932763e-001 1.764424e-001 9.938992e-002 2.693536e-002 3.811794e-002
<GCONST> -2.346702e+000
<STATE> 3
<MEAN> 16
 6.099257e+000 6.992857e+000 7.465441e+000 7.498731e+000 7.024553e+000 7.148695e+000 7.582528e+000 7.874103e+000 8.035784e+000 8.182715e+000 8.346521e+000 8.709349e+000 8.848971e+000 8.413844e+000 7.987205e+000 8.035375e+000
<VARIANCE> 16
 1.209487e-001 3.191035e-001 5.925974e-001 5.145265e-001 2.298338e-001 1.821800e-001 2.128798e-001 4.711811e-001 3.857089e-001 4.070603e-001 5.335451e-001 5.475421e-001 6.082182e-001 3.937523e-001 7.023916e-002 1.969474e-002
<GCONST> 8.396452e+000
<STATE> 4
<MEAN> 16
 6.274096e+000 7.250499e+000 8.031945e+000 7.991345e+000 7.401058e+000 7.474203e+000 7.881399e+000 8.198818e+000 8.207443e+000 8.323695e+000 8.538516e+000 8.890758e+000 8.860100e+000 8.475458e+000 8.060260e+000 8.064137e+000
<VARIANCE> 16
 2.052884e-001 1.428439e-001 6.220238e-001 5.608799e-001 2.869772e-001 2.323187e-001 2.763504e-001 7.621437e-001 7.735139e-001 6.456146e-001 7.929883e-001 9.193900e-001 1.008430e+000 5.876108e-001 9.510338e-002 4.421178e-002
<GCONST> 1.355275e+001
<STATE> 5
<MEAN> 16
 6.624871e+000 7.475500e+000 8.132897e+000 8.199376e+000 7.783423e+000 8.010345e+000 8.352551e+000 8.143782e+000 8.032759e+000 8.246444e+000 8.393998e+000 8.586374e+000 9.033828e+000 8.732679e+000 8.138144e+000 8.116034e+000
<VARIANCE> 16
 4.339238e-001 2.654952e-001 6.467686e-001 7.752254e-001 3.721678e-001 3.966065e-001 2.376999e-001 4.735650e-001 5.264558e-001 3.868930e-001 6.036969e-001 8.043884e-001 7.433048e-001 4.305827e-001 9.305534e-002 6.472353e-002
<GCONST> 1.389218e+001
<STATE> 6
<MEAN> 16
 6.826524e+000 7.641586e+000 8.390366e+000 8.664965e+000 8.245364e+000 8.557963e+000 8.978621e+000 8.568801e+000 8.309769e+000 8.572447e+000 8.729928e+000 8.961887e+000 9.424089e+000 8.867600e+000 8.064155e+000 8.090775e+000
<VARIANCE> 16
 2.648314e-001 1.448500e-001 2.697689e-001 5.666893e-001 5.720182e-001 5.077640e-001 4.394771e-001 5.126079e-001 3.509094e-001 3.951413e-001 5.835527e-001 9.874930e-001 6.529665e-001 3.120635e-001 3.578159e-002 5.474437e-002
<GCONST> 1.118732e+001
<STATE> 7
<MEAN> 16
 6.548576e+000 7.476165e+000 8.592175e+000 9.861981e+000 1.038179e+001 9.965033e+000 1.022204e+001 9.210328e+000 9.130857e+000 9.552155e+000 8.536280e+000 9.203212e+000 9.429363e+000 9.342148e+000 8.432565e+000 8.349179e+000
<VARIANCE> 16
 1.485536e-001 7.908412e-002 7.415688e-002 1.542607e-001 3.427616e-001 2.042034e-001 1.843904e-001 2.041843e-001 1.509408e-001 1.680634e-001 7.522519e-001 1.094601e+000 3.903210e-001 3.062204e-001 1.173030e-001 1.206025e-001
<GCONST> 4.301445e+000
<STATE> 8
<MEAN> 16
 6.640978e+000 7.537264e+000 8.534734e+000 9.733519e+000 1.068325e+001 1.098136e+001 1.137220e+001 1.100828e+001 9.969375e+000 1.036463e+001 1.076070e+001 1.110811e+001 1.176146e+001 1.068343e+001 8.915029e+000 8.512940e+000
<VARIANCE> 16
 4.595178e-001 3.960622e-001 6.654483e-001 5.960954e-001 6.442916e-001 6.314773e-001 6.709031e-001 9.940856e-001 4.433795e-001 4.957535e-001 8.693596e-001 9.843673e-001 1.042221e+000 9.240842e-001 5.499057e-001 3.217508e-001
<GCONST> 2.203292e+001
<STATE> 9
<MEAN> 16
 5.877357e+000 6.435703e+000 6.641643e+000 7.525916e+000 8.493686e+000 8.809908e+000 8.819548e+000 8.486039e+000 7.887250e+000 8.026932e+000 8.368122e+000 8.679461e+000 9.226646e+000 8.569145e+000 7.902415e+000 7.961036e+000
<VARIANCE> 16
 2.577277e-001 4.837544e-001 3.191006e-001 5.688170e-001 5.169201e-001 3.510255e-001 4.013642e-001 5.577780e-001 2.460617e-001 3.169549e-001 4.415812e-001 3.233237e-001 3.523811e-001 2.551312e-001 4.832110e-002 5.623876e-002
<GCONST> 9.599401e+000
<TRANSP> 10
 0.000000e+000 1.000000e+000 0.000000e+000 0.000000e+000 0.000000e+000 0.000000e+000 0.000000e+000 0.000000e+000 0.000000e+000 0.000000e+000
 0.000000e+000 8.042452e-001 1.957548e-001 0.000000e+000 0.000000e+000 0.000000e+000 0.000000e+000 0.000000e+000 0.000000e+000 0.000000e+000
 0.000000e+000 0.000000e+000 5.979241e-001 4.020759e-001 0.000000e+000 0.000000e+000 0.000000e+000 0.000000e+000 0.000000e+000 0.000000e+000
 0.000000e+000 0.000000e+000 0.000000e+000 6.297064e-001 3.702936e-001 0.000000e+000 0.000000e+000 0.000000e+000 0.000000e+000 0.000000e+000
 0.000000e+000 0.000000e+000 0.000000e+000 0.000000e+000 2.072802e-001 7.927199e-001 0.000000e+000 0.000000e+000 0.000000e+000 0.000000e+000
 0.000000e+000 0.000000e+000 0.000000e+000 0.000000e+000 0.000000e+000 4.974124e-001 5.025877e-001 0.000000e+000 0.000000e+000 0.000000e+000
 0.000000e+000 0.000000e+000 0.000000e+000 0.000000e+000 0.000000e+000 0.000000e+000 8.184140e-001 1.815861e-001 0.000000e+000 0.000000e+000
 0.000000e+000 0.000000e+000 0.000000e+000 0.000000e+000 0.000000e+000 0.000000e+000 0.000000e+000 9.440872e-001 5.591282e-002 0.000000e+000
 0.000000e+000 0.000000e+000 0.000000e+000 0.000000e+000 0.000000e+000 0.000000e+000 0.000000e+000 0.000000e+000 8.779614e-001 1.220386e-001
 0.000000e+000 0.000000e+000 0.000000e+000 0.000000e+000 0.000000e+000 0.000000e+000 0.000000e+000 0.000000e+000 0.000000e+000 0.000000e+000
<ENDHMM>
~h "osm"
<BEGINHMM>
<NUMSTATES> 10
<STATE> 2
<MEAN> 16
 5.354241e+000 5.701173e+000 6.040049e+000 6.410697e+000 6.573846e+000 6.694028e+000 6.696232e+000 6.678247e+000 6.985954e+000 6.941087e+000 7.205597e+000 7.645116e+000 8.197864e+000 8.329934e+000 8.341410e+000 8.442026e+000
<VARIANCE> 16
 3.656361e-001 2.098743e-001 2.904830e-001 6.359946e-001 6.916799e-001 5.858518e-001 2.517528e-001 1.084602e-001 1.504066e-001 1.809300e-001 3.545293e-002 1.356101e-001 5.341341e-001 6.023623e-001 6.895838e-001 5.472943e-001
<GCONST> 9.595877e+000
<STATE> 3
<MEAN> 16
 5.835998e+000 6.601253e+000 7.572108e+000 8.403330e+000 8.282513e+000 8.313138e+000 7.699581e+000 7.194166e+000 7.484196e+000 7.713212e+000 7.612346e+000 8.015466e+000 8.629627e+000 8.189221e+000 8.071681e+000 8.299388e+000
<VARIANCE> 16
 2.353763e-001 5.686164e-001 1.209374e+000 1.220821e+000 7.026804e-001 7.110289e-001 5.631760e-001 1.744472e-001 1.129503e-001 2.369542e-001 2.301907e-001 5.730956e-001 3.511619e-001 1.984520e-001 1.509249e-001 1.817041e-001
<GCONST> 1.286404e+001
<STATE> 4
<MEAN> 16
 6.355162e+000 7.387247e+000 8.712866e+000 9.647174e+000 9.508421e+000 9.681652e+000 9.019714e+000 8.242254e+000 8.157176e+000 8.670198e+000 8.669530e+000 9.195274e+000 9.745156e+000 8.972364e+000 8.355223e+000 8.430659e+000
<VARIANCE> 16
 2.539958e-001 1.950119e-001 3.908935e-001 2.962600e-001 5.692964e-001 3.004891e-001 5.467972e-001 2.069132e-001 1.166525e-001 2.586316e-001 6.696061e-001 1.531766e+000 7.670959e-001 6.512421e-001 4.628303e-001 2.220467e-001
<GCONST> 1.385540e+001
<STATE> 5
<MEAN> 16
 6.437722e+000 7.463381e+000 8.807788e+000 9.942010e+000 1.017914e+001 1.024854e+001 9.628957e+000 8.751987e+000 8.517869e+000 9.011872e+000 9.469338e+000 1.018601e+001 1.064240e+001 9.702453e+000 8.489264e+000 8.400921e+000
<VARIANCE> 16
 2.130796e-001 2.714366e-001 2.064602e-001 4.495121e-001 8.626553e-001 4.731342e-001 9.761241e-001 3.317871e-001 1.618061e-001 4.386399e-001 1.102605e+000 2.108067e+000 1.015441e+000 7.025032e-001 6.128446e-001 1.882738e-001
<GCONST> 1.785586e+001
<STATE> 6
<MEAN> 16
 6.563141e+000 7.753815e+000 9.151160e+000 1.010711e+001 1.027880e+001 1.029923e+001 9.673215e+000 8.822779e+000 8.559983e+000 9.030040e+000 9.569403e+000 1.032400e+001 1.086829e+001 9.849321e+000 8.359289e+000 8.471298e+000
<VARIANCE> 16
 2.147624e-001 2.779507e-001 4.342335e-001 4.997173e-001 8.769965e-001 4.463653e-001 7.214876e-001 2.468080e-001 1.336751e-001 4.645837e-001 7.741085e-001 1.393283e+000 7.053314e-001 4.984410e-001 2.447669e-001 1.567849e-001
<GCONST> 1.538713e+001
<STATE> 7
<MEAN> 16
 6.598003e+000 7.593994e+000 9.220176e+000 1.039029e+001 1.068477e+001 1.071497e+001 1.047171e+001 9.510138e+000 9.011168e+000 9.280936e+000 1.034612e+001 1.108668e+001 1.167105e+001 1.088616e+001 9.139461e+000 8.575056e+000
<VARIANCE> 16
 1.737614e-001 2.482932e-001 5.249713e-001 6.403850e-001 9.488782e-001 7.659455e-001 9.428651e-001 4.427699e-001 2.819380e-001 2.982385e-001 6.542300e-001 1.077104e+000 6.817572e-001 5.879084e-001 5.508289e-001 1.142168e-001
<GCONST> 1.747386e+001
<STATE> 8
<MEAN> 16
 6.149855e+000 6.738347e+000 7.604991e+000 8.196038e+000 8.269918e+000 8.510778e+000 8.531771e+000 8.520767e+000 8.648561e+000 8.814281e+000 9.384823e+000 9.993833e+000 1.065780e+001 1.062961e+001 1.011618e+001 9.932650e+000
<VARIANCE> 16
 6.180658e-001 1.564262e+000 2.541716e+000 1.902817e+000 1.529489e+000 1.732964e+000 1.519593e+000 1.279084e+000 1.174043e+000 1.219598e+000 1.040846e+000 7.862200e-001 6.553297e-001 6.803250e-001 1.194182e+000 1.421947e+000
<GCONST> 3.246799e+001
<STATE> 9
<MEAN> 16
 6.426932e+000 7.902731e+000 8.656026e+000 8.587810e+000 7.805941e+000 8.223549e+000 8.427767e+000 8.326553e+000 8.426239e+000 8.677162e+000 8.803758e+000 9.602336e+000 9.963701e+000 9.090129e+000 8.135110e+000 8.134264e+000
<VARIANCE> 16
 1.816307e-001 1.084733e-001 3.384609e-001 4.341920e-001 2.005412e-001 3.416482e-001 4.967254e-001 6.177642e-001 4.157475e-001 4.589450e-001 5.926632e-001 8.646406e-001 9.394686e-001 3.906214e-001 1.096157e-001 7.457440e-002
<GCONST> 1.156505e+001
<TRANSP> 10
 0.000000e+000 1.000000e+000 0.000000e+000 0.000000e+000 0.000000e+000 0.000000e+000 0.000000e+000 0.000000e+000 0.000000e+000 0.000000e+000
 0.000000e+000 3.103690e-001 6.896310e-001 0.000000e+000 0.000000e+000 0.000000e+000 0.000000e+000 0.000000e+000 0.000000e+000 0.000000e+000
 0.000000e+000 0.000000e+000 3.625690e-001 6.374310e-001 0.000000e+000 0.000000e+000 0.000000e+000 0.000000e+000 0.000000e+000 0.000000e+000
 0.000000e+000 0.000000e+000 0.000000e+000 3.495708e-001 6.504292e-001 0.000000e+000 0.000000e+000 0.000000e+000 0.000000e+000 0.000000e+000
 0.000000e+000 0.000000e+000 0.000000e+000 0.000000e+000 9.335840e-002 9.066416e-001 0.000000e+000 0.000000e+000 0.000000e+000 0.000000e+000
 0.000000e+000 0.000000e+000 0.000000e+000 0.000000e+000 0.000000e+000 5.803706e-001 4.196294e-001 0.000000e+000 0.000000e+000 0.000000e+000
 0.000000e+000 0.000000e+000 0.000000e+000 0.000000e+000 0.000000e+000 0.000000e+000 8.105776e-001 1.894223e-001 0.000000e+000 0.000000e+000
 0.000000e+000 0.000000e+000 0.000000e+000 0.000000e+000 0.000000e+000 0.000000e+000 0.000000e+000 9.497982e-001 5.020183e-002 0.000000e+000
 0.000000e+000 0.000000e+000 0.000000e+000 0.000000e+000 0.000000e+000 0.000000e+000 0.000000e+000 0.000000e+000 9.597368e-001 4.026319e-002
 0.000000e+000 0.000000e+000 0.000000e+000 0.000000e+000 0.000000e+000 0.000000e+000 0.000000e+000 0.000000e+000 0.000000e+000 0.000000e+000
<ENDHMM>
~h "pet"
<BEGINHMM>
<NUMSTATES> 10
<STATE> 2
<MEAN> 16
 6.006062e+000 6.165151e+000 6.536812e+000 6.417656e+000 6.271373e+000 6.425834e+000 6.658809e+000 6.890998e+000 7.229197e+000 7.096080e+000 7.274171e+000 7.490594e+000 7.792037e+000 7.884504e+000 7.871186e+000 8.006012e+000
<VARIANCE> 16
 3.069581e-001 3.434710e-001 6.462510e-001 1.495163e-001 4.053667e-002 7.701678e-002 4.091038e-002 5.042913e-002 1.476853e-001 9.205185e-002 3.108407e-002 3.313086e-002 8.295526e-002 7.218742e-002 2.381368e-002 1.968346e-002
<GCONST> -1.109326e+001
<STATE> 3
<MEAN> 16
 5.904800e+000 6.541811e+000 7.021297e+000 6.733102e+000 6.448140e+000 6.479605e+000 6.893808e+000 7.362237e+000 7.959037e+000 7.903539e+000 7.879769e+000 7.987650e+000 8.377963e+000 8.351527e+000 8.149316e+000 8.163146e+000
<VARIANCE> 16
 3.365783e-001 6.774850e-001 8.659841e-001 2.965361e-001 1.108297e-001 7.168609e-002 9.512325e-002 3.296895e-001 5.130962e-001 4.649402e-001 4.150878e-001 3.357961e-001 2.902799e-001 2.526198e-001 9.052779e-002 6.218213e-002
<GCONST> 7.074643e+000
<STATE> 4
<MEAN> 16
 6.338812e+000 7.524457e+000 8.433902e+000 8.135744e+000 7.205472e+000 6.948149e+000 7.289510e+000 8.173934e+000 9.224062e+000 9.346007e+000 8.882256e+000 8.902465e+000 9.303919e+000 9.046409e+000 8.328123e+000 8.301060e+000
<VARIANCE> 16
 1.792864e-001 1.969919e-001 4.212497e-001 2.976724e-001 1.257798e-001 1.253777e-001 6.351133e-002 2.489790e-001 3.069015e-001 6.028685e-001 9.145567e-001 1.113676e+000 6.757253e-001 4.394150e-001 8.239229e-002 9.319939e-002
<GCONST> 7.937316e+000
<STATE> 5
<MEAN> 16
 6.578496e+000 7.908928e+000 9.239597e+000 9.180430e+000 7.987343e+000 7.614280e+000 7.892619e+000 8.749592e+000 1.010257e+001 1.062938e+001 1.023144e+001 1.015626e+001 1.036673e+001 9.616137e+000 8.288836e+000 8.123821e+000
<VARIANCE> 16
 2.865283e-001 1.992201e-001 2.044455e-001 1.989689e-001 2.962202e-001 2.071087e-001 2.387835e-001 2.968790e-001 2.719902e-001 5.190704e-001 1.050689e+000 1.552093e+000 1.160597e+000 1.017956e+000 8.207656e-002 8.048219e-002
<GCONST> 1.158117e+001
<STATE> 6
<MEAN> 16
 6.453101e+000 7.545416e+000 9.333969e+000 9.316401e+000 8.147786e+000 7.701113e+000 8.092092e+000 8.888430e+000 1.021609e+001 1.115033e+001 1.108481e+001 1.108865e+001 1.112080e+001 1.023006e+001 8.607055e+000 8.271195e+000
<VARIANCE> 16
 2.044552e-001 2.206551e-001 2.985143e-001 2.941974e-001 2.726746e-001 1.707647e-001 8.385598e-002 2.103086e-001 2.769613e-001 3.899467e-001 9.932514e-001 1.596422e+000 1.257284e+000 1.666582e+000 2.274851e-001 5.743725e-002
<GCONST> 1.140762e+001
<STATE> 7
<MEAN> 16
 6.776712e+000 7.826542e+000 9.545498e+000 1.014891e+001 8.908880e+000 8.267004e+000 8.488098e+000 9.781267e+000 1.044995e+001 1.032384e+001 9.697157e+000 9.703372e+000 1.013286e+001 9.624931e+000 8.681350e+000 8.686416e+000
<VARIANCE> 16
 1.770788e-001 1.066123e-001 1.656332e-001 1.327251e-001 1.218949e-001 8.786355e-002 7.475039e-002 2.802984e-001 2.198226e-001 7.440965e-001 1.416622e+000 1.948718e+000 8.279508e-001 6.099778e-001 7.431536e-002 1.247062e-001
<GCONST> 7.057356e+000
<STATE> 8
<MEAN> 16
 6.424639e+000 7.411048e+000 8.952258e+000 1.005524e+001 1.011703e+001 9.213250e+000 9.303718e+000 1.012662e+001 1.104446e+001 1.110244e+001 1.121174e+001 1.121562e+001 1.154935e+001 1.070304e+001 8.814184e+000 8.406786e+000
<VARIANCE> 16
 1.533108e-001 2.181889e-001 4.997782e-001 3.560230e-001 6.441942e-001 6.364449e-001 3.290229e-001 2.999948e-001 3.469535e-001 5.516652e-001 4.373289e-001 5.047113e-001 5.390778e-001 8.208854e-001 2.742237e-001 1.383616e-001
<GCONST> 1.382359e+001
<STATE> 9
<MEAN> 16
 5.903549e+000 6.334071e+000 7.289936e+000 8.163490e+000 8.080914e+000 7.503990e+000 7.507520e+000 8.210488e+000 8.794041e+000 8.712788e+000 8.971812e+000 9.023995e+000 9.183957e+000 8.427839e+000 7.906778e+000 8.020303e+000
<VARIANCE> 16
 1.364303e-001 3.413917e-001 5.582079e-001 4.295246e-001 3.795768e-001 2.941210e-001 1.964003e-001 3.588198e-001 3.166902e-001 3.267547e-001 4.767814e-001 3.533616e-001 3.266956e-001 3.336880e-001 4.109984e-002 3.994173e-002
<GCONST> 7.388570e+000
<TRANSP> 10
 0.000000e+000 1.000000e+000 0.000000e+000 0.000000e+000 0.000000e+000 0.000000e+000 0.000000e+000 0.000000e+000 0.000000e+000 0.000000e+000
 0.000000e+000 3.844730e-001 6.155270e-001 0.000000e+000 0.000000e+000 0.000000e+000 0.000000e+000 0.000000e+000 0.000000e+000 0.000000e+000
 0.000000e+000 0.000000e+000 1.632199e-001 8.367801e-001 0.000000e+000 0.000000e+000 0.000000e+000 0.000000e+000 0.000000e+000 0.000000e+000
 0.000000e+000 0.000000e+000 0.000000e+000 3.970612e-001 6.029388e-001 0.000000e+000 0.000000e+000 0.000000e+000 0.000000e+000 0.000000e+000
 0.000000e+000 0.000000e+000 0.000000e+000 0.000000e+000 1.145259e-001 8.854741e-001 0.000000e+000 0.000000e+000 0.000000e+000 0.000000e+000
 0.000000e+000 0.000000e+000 0.000000e+000 0.000000e+000 0.000000e+000 5.727777e-001 4.272223e-001 0.000000e+000 0.000000e+000 0.000000e+000
 0.000000e+000 0.000000e+000 0.000000e+000 0.000000e+000 0.000000e+000 0.000000e+000 7.951242e-001 2.048758e-001 0.000000e+000 0.000000e+000
 0.000000e+000 0.000000e+000 0.000000e+000 0.000000e+000 0.000000e+000 0.000000e+000 0.000000e+000 9.350089e-001 6.499106e-002 0.000000e+000
 0.000000e+000 0.000000e+000 0.000000e+000 0.000000e+000 0.000000e+000 0.000000e+000 0.000000e+000 0.000000e+000 8.253570e-001 1.746430e-001
 0.000000e+000 0.000000e+000 0.000000e+000 0.000000e+000 0.000000e+000 0.000000e+000 0.000000e+000 0.000000e+000 0.000000e+000 0.000000e+000
<ENDHMM>
~h "sil"
<BEGINHMM>
<NUMSTATES> 5
<STATE> 2
<MEAN> 16
 5.735138e+000 6.001134e+000 6.296860e+000 6.612745e+000 6.728576e+000 6.815814e+000 6.948985e+000 7.193756e+000 7.465073e+000 7.446536e+000 7.619237e+000 7.850019e+000 8.231093e+000 8.076138e+000 7.960855e+000 8.082678e+000
<VARIANCE> 16
 1.609272e-001 2.926837e-001 2.834452e-001 3.087326e-001 2.982827e-001 2.452823e-001 2.238298e-001 2.506771e-001 1.874966e-001 2.016449e-001 2.328154e-001 2.140290e-001 2.983980e-001 2.266631e-001 1.055709e-001 6.892126e-002
<GCONST> 4.527860e+000
<STATE> 3
<MEAN> 16
 5.635041e+000 5.739327e+000 5.906997e+000 6.095576e+000 6.260913e+000 6.437202e+000 6.593385e+000 6.758409e+000 7.111450e+000 7.018900e+000 7.171911e+000 7.348632e+000 7.549003e+000 7.645206e+000 7.812560e+000 8.015901e+000
<VARIANCE> 16
 1.147663e-001 1.008942e-001 8.743925e-002 7.113227e-002 6.307599e-002 5.534409e-002 4.828577e-002 4.037960e-002 3.064917e-002 3.025831e-002 2.686116e-002 2.506091e-002 2.939297e-002 2.141166e-002 1.780587e-002 3.439758e-002
<GCONST> -2.108565e+001
<STATE> 4
<MEAN> 16
 5.350706e+000 5.724434e+000 5.898013e+000 6.002727e+000 6.069680e+000 6.252261e+000 6.416826e+000 6.535463e+000 6.809897e+000 6.844965e+000 7.020613e+000 7.241179e+000 7.532451e+000 7.622108e+000 7.656920e+000 7.769730e+000
<VARIANCE> 16
 4.271807e-001 2.482841e-001 1.645886e-001 1.226112e-001 1.652931e-001 1.613982e-001 1.631846e-001 2.487909e-001 3.700658e-001 2.874232e-001 3.085629e-001 3.330852e-001 4.186228e-001 3.783124e-001 2.002597e-001 1.954638e-001
<GCONST> 6.831930e+000
<TRANSP> 5
 0.000000e+000 1.000000e+000 0.000000e+000 0.000000e+000 0.000000e+000
 0.000000e+000 8.583189e-001 1.416811e-001 0.000000e+000 0.000000e+000
 0.000000e+000 0.000000e+000 9.842698e-001 1.573021e-002 0.000000e+000
 0.000000e+000 0.000000e+000 0.000000e+000 6.655039e-001 3.344962e-001
 0.000000e+000 0.000000e+000 0.000000e+000 0.000000e+000 0.000000e+000
<ENDHMM>
~h "tri"
<BEGINHMM>
<NUMSTATES> 10
<STATE> 2
<MEAN> 16
 5.823304e+000 5.945033e+000 6.190512e+000 6.369123e+000 6.483682e+000 6.687740e+000 6.950625e+000 7.345469e+000 7.707153e+000 7.753222e+000 7.933011e+000 8.503354e+000 8.966924e+000 8.918052e+000 8.429233e+000 8.256986e+000
<VARIANCE> 16
 1.219572e-001 1.513169e-001 2.465934e-001 1.288758e-001 6.864234e-002 8.178133e-002 1.622301e-001 2.286316e-001 2.437740e-001 2.483438e-001 3.092549e-001 4.414042e-001 5.321130e-001 5.973920e-001 3.491342e-001 2.388355e-001
<GCONST> 5.061511e+000
<STATE> 3
<MEAN> 16
 5.612045e+000 5.942914e+000 6.370844e+000 6.579297e+000 6.767928e+000 6.986287e+000 7.351600e+000 7.988037e+000 8.334780e+000 8.541965e+000 8.801657e+000 9.609148e+000 9.988734e+000 9.850443e+000 9.113903e+000 8.893101e+000
<VARIANCE> 16
 1.513769e-001 1.160693e-001 1.509351e-001 1.609716e-001 1.699107e-001 2.204786e-001 3.273655e-001 2.321781e-001 2.181620e-001 1.709728e-001 2.857768e-001 2.557786e-001 2.245844e-001 2.947962e-001 2.421447e-001 2.478731e-001
<GCONST> 4.352895e+000
<STATE> 4
<MEAN> 16
 5.906225e+000 5.842837e+000 6.510143e+000 6.942438e+000 7.067982e+000 7.338145e+000 7.630971e+000 8.085967e+000 8.804055e+000 8.917165e+000 9.205411e+000 9.967558e+000 1.063174e+001 1.063563e+001 9.624045e+000 9.135785e+000
<VARIANCE> 16
 1.961265e-001 1.357231e-001 1.776084e-001 4.206728e-001 4.241693e-001 5.296909e-001 4.037883e-001 2.610287e-001 4.152192e-001 3.655441e-001 2.725601e-001 2.006953e-001 2.197245e-001 2.223319e-001 2.731693e-001 3.351210e-001
<GCONST> 9.241678e+000
<STATE> 5
<MEAN> 16
 5.866604e+000 5.853926e+000 6.311552e+000 6.614672e+000 6.799638e+000 7.068208e+000 7.301247e+000 7.808011e+000 8.559846e+000 8.658464e+000 9.180604e+000 1.042342e+001 1.126305e+001 1.142307e+001 1.028245e+001 9.380604e+000
<VARIANCE> 16
 2.015969e-001 6.471041e-002 1.069928e-001 2.833233e-001 2.177305e-001 2.740585e-001 1.358175e-001 2.484254e-001 3.656349e-001 3.523678e-001 3.876228e-001 3.240080e-001 3.149907e-001 2.946991e-001 2.546895e-001 2.501193e-001
<GCONST> 6.108134e+000
<STATE> 6
<MEAN> 16
 5.718115e+000 5.841444e+000 6.100642e+000 6.411657e+000 6.536122e+000 6.684911e+000 6.983283e+000 7.795080e+000 8.432678e+000 8.814804e+000 9.814679e+000 1.095671e+001 1.172967e+001 1.187835e+001 1.113836e+001 1.029131e+001
<VARIANCE> 16
 1.272002e-001 1.047787e-001 8.911027e-002 1.089615e-001 8.324650e-002 8.002599e-002 8.446474e-002 2.877243e-001 2.171677e-001 2.077006e-001 4.201303e-001 5.562124e-001 3.919120e-001 2.375627e-001 3.346348e-001 4.045058e-001
<GCONST> 2.798582e+000
<STATE> 7
<MEAN> 16
 6.069308e+000 6.335692e+000 6.617990e+000 6.841691e+000 6.869987e+000 7.111950e+000 7.390918e+000 8.462851e+000 9.632545e+000 9.687874e+000 1.052743e+001 1.131175e+001 1.191292e+001 1.192520e+001 1.116647e+001 9.813460e+000
<VARIANCE> 16
 2.091158e-001 2.603925e-001 3.712457e-001 2.923580e-001 1.495062e-001 1.547896e-001 9.114218e-002 1.781106e-001 2.716259e-001 2.962539e-001 7.706581e-001 8.947810e-001 8.570241e-001 8.801899e-001 6.769186e-001 2.930192e-001
<GCONST> 1.159696e+001
<STATE> 8
<MEAN> 16
 6.399417e+000 7.882950e+000 9.277391e+000 9.386951e+000 8.235652e+000 7.872797e+000 8.126721e+000 8.893173e+000 1.025795e+001 1.099948e+001 1.072325e+001 1.070001e+001 1.105839e+001 1.041642e+001 8.974630e+000 8.535382e+000
<VARIANCE> 16
 1.700803e-001 2.719801e-001 5.897084e-001 7.158498e-001 8.246189e-001 7.110431e-001 4.318106e-001 3.560827e-001 5.682355e-001 5.441832e-001 1.496588e+000 1.599726e+000 1.454843e+000 1.292836e+000 2.960564e-001 1.162808e-001
<GCONST> 2.002601e+001
<STATE> 9
<MEAN> 16
 6.021374e+000 6.900621e+000 7.645301e+000 7.681787e+000 7.269137e+000 7.135372e+000 7.016427e+000 7.236239e+000 8.231902e+000 9.120422e+000 9.148459e+000 9.151525e+000 9.617657e+000 9.050967e+000 8.091837e+000 8.074669e+000
<VARIANCE> 16
 1.989215e-001 4.857350e-001 4.125693e-001 5.104284e-001 3.774432e-001 4.026658e-001 1.334733e-001 1.252688e-001 4.203350e-001 3.434645e-001 4.658279e-001 3.018060e-001 4.132165e-001 3.989536e-001 1.092817e-001 5.402457e-002
<GCONST> 8.703989e+000
<TRANSP> 10
 0.000000e+000 1.000000e+000 0.000000e+000 0.000000e+000 0.000000e+000 0.000000e+000 0.000000e+000 0.000000e+000 0.000000e+000 0.000000e+000
 0.000000e+000 5.088759e-001 4.911241e-001 0.000000e+000 0.000000e+000 0.000000e+000 0.000000e+000 0.000000e+000 0.000000e+000 0.000000e+000
 0.000000e+000 0.000000e+000 3.792569e-001 6.207431e-001 0.000000e+000 0.000000e+000 0.000000e+000 0.000000e+000 0.000000e+000 0.000000e+000
 0.000000e+000 0.000000e+000 0.000000e+000 2.375465e-001 7.624534e-001 0.000000e+000 0.000000e+000 0.000000e+000 0.000000e+000 0.000000e+000
 0.000000e+000 0.000000e+000 0.000000e+000 0.000000e+000 3.397021e-001 6.602979e-001 0.000000e+000 0.000000e+000 0.000000e+000 0.000000e+000
 0.000000e+000 0.000000e+000 0.000000e+000 0.000000e+000 0.000000e+000 8.336555e-001 1.663445e-001 0.000000e+000 0.000000e+000 0.000000e+000
 0.000000e+000 0.000000e+000 0.000000e+000 0.000000e+000 0.000000e+000 0.000000e+000 6.790192e-001 3.209808e-001 0.000000e+000 0.000000e+000
 0.000000e+000 0.000000e+000 0.000000e+000 0.000000e+000 0.000000e+000 0.000000e+000 0.000000e+000 9.533339e-001 4.666616e-002 0.000000e+000
 0.000000e+000 0.000000e+000 0.000000e+000 0.000000e+000 0.000000e+000 0.000000e+000 0.000000e+000 0.000000e+000 8.210944e-001 1.789056e-001
 0.000000e+000 0.000000e+000 0.000000e+000 0.000000e+000 0.000000e+000 0.000000e+000 0.000000e+000 0.000000e+000 0.000000e+000 0.000000e+000
<ENDHMM>
~h "nula"
<BEGINHMM>
<NUMSTATES> 10
<STATE> 2
<MEAN> 16
 6.215907e+000 7.118855e+000 7.188439e+000 7.111694e+000 6.637426e+000 6.765206e+000 6.916268e+000 7.102774e+000 7.400331e+000 7.384948e+000 7.497591e+000 7.666638e+000 8.288328e+000 8.249848e+000 7.944127e+000 8.098045e+000
<VARIANCE> 16
 3.098739e-001 3.127480e-001 3.888068e-001 3.872837e-001 2.459258e-001 2.403475e-001 1.531799e-001 1.415943e-001 1.481544e-001 1.998583e-001 1.379246e-001 2.027582e-001 3.944819e-001 2.470028e-001 5.006311e-002 4.268226e-002
<GCONST> 2.946072e+000
<STATE> 3
<MEAN> 16
 6.485080e+000 7.889050e+000 8.222952e+000 8.254979e+000 7.695194e+000 7.626077e+000 7.155315e+000 7.345508e+000 7.676826e+000 7.808772e+000 7.720901e+000 7.742179e+000 8.359935e+000 8.353707e+000 7.950181e+000 8.114095e+000
<VARIANCE> 16
 3.196899e-001 3.226761e-001 3.595256e-001 3.199580e-001 4.355908e-001 5.232490e-001 1.438924e-001 2.437831e-001 1.791436e-001 4.241356e-001 4.308734e-001 2.334241e-001 4.181283e-001 1.506605e-001 2.102607e-002 4.404160e-002
<GCONST> 5.519652e+000
<STATE> 4
<MEAN> 16
 6.597438e+000 8.006764e+000 8.431991e+000 8.335634e+000 7.554979e+000 7.353942e+000 7.287482e+000 7.730865e+000 7.992882e+000 8.333203e+000 8.371902e+000 8.313071e+000 8.772716e+000 8.427603e+000 7.939955e+000 7.982376e+000
<VARIANCE> 16
 3.288571e-001 3.301906e-001 4.895180e-001 2.824182e-001 2.980092e-001 5.362657e-001 2.368638e-001 2.472712e-001 2.712509e-001 5.891132e-001 4.268600e-001 3.082437e-001 6.070707e-001 2.561014e-001 3.873686e-002 2.432375e-002
<GCONST> 7.845252e+000
<STATE> 5
<MEAN> 16
 6.786297e+000 8.295900e+000 8.728512e+000 8.716152e+000 8.049213e+000 7.916127e+000 7.655040e+000 7.989336e+000 8.078650e+000 8.585510e+000 8.426083e+000 8.167742e+000 8.562067e+000 8.384245e+000 8.162626e+000 8.121807e+000
<VARIANCE> 16
 4.367662e-001 3.172290e-001 4.940321e-001 3.733201e-001 3.465383e-001 6.238527e-001 2.847869e-001 3.112040e-001 2.652211e-001 6.913515e-001 7.833945e-001 3.380328e-001 4.352514e-001 1.475827e-001 9.566594e-002 4.879885e-002
<GCONST> 1.064698e+001
<STATE> 6
<MEAN> 16
 6.611300e+000 8.152574e+000 9.118725e+000 9.239925e+000 8.554386e+000 8.697103e+000 8.276805e+000 8.321351e+000 8.534591e+000 8.690093e+000 8.611155e+000 8.529230e+000 8.500903e+000 8.232054e+000 8.058798e+000 8.168564e+000
<VARIANCE> 16
 3.371341e-001 3.090610e-001 4.226763e-001 3.229578e-001 2.803444e-001 4.317273e-001 2.699474e-001 3.548466e-001 2.367067e-001 2.191862e-001 5.587041e-001 6.045800e-001 5.592340e-001 2.205682e-001 1.648455e-001 1.687825e-001
<GCONST> 1.097711e+001
<STATE> 7
<MEAN> 16
 6.503025e+000 7.920867e+000 8.978731e+000 9.931561e+000 9.561034e+000 9.565463e+000 9.411521e+000 8.787114e+000 8.727251e+000 9.051253e+000 9.107779e+000 9.535640e+000 9.564634e+000 8.890313e+000 8.261827e+000 8.225221e+000
<VARIANCE> 16
 3.157734e-001 3.223589e-001 8.057469e-001 2.891132e-001 6.270623e-001 6.392881e-001 5.008639e-001 3.601458e-001 2.671435e-001 2.882392e-001 9.175352e-001 1.044839e+000 7.265806e-001 3.643935e-001 2.468866e-001 1.983327e-001
<GCONST> 1.608581e+001
<STATE> 8
<MEAN> 16
 6.698202e+000 7.792358e+000 9.077878e+000 1.017988e+001 1.059081e+001 1.075235e+001 1.095454e+001 1.031062e+001 9.625839e+000 1.008965e+001 1.067494e+001 1.081682e+001 1.134845e+001 1.042392e+001 8.915028e+000 8.593997e+000
<VARIANCE> 16
 3.647949e-001 5.662127e-001 1.158818e+000 4.233752e-001 6.163924e-001 4.944732e-001 8.312249e-001 1.138232e+000 3.684427e-001 4.972383e-001 1.055790e+000 9.358721e-001 1.334898e+000 1.254823e+000 9.136834e-001 5.969170e-001
<GCONST> 2.407368e+001
<STATE> 9
<MEAN> 16
 6.033538e+000 6.731121e+000 7.047826e+000 8.153545e+000 8.865515e+000 9.061084e+000 9.118349e+000 8.629651e+000 8.018670e+000 8.270152e+000 8.526108e+000 8.694216e+000 9.189795e+000 8.730070e+000 8.012831e+000 8.023519e+000
<VARIANCE> 16
 2.843592e-001 7.435989e-001 4.386131e-001 5.063007e-001 3.752101e-001 3.152684e-001 4.225444e-001 6.766763e-001 3.145098e-001 3.644167e-001 6.035291e-001 4.516500e-001 3.844393e-001 2.781998e-001 1.083837e-001 6.827521e-002
<GCONST> 1.235320e+001
<TRANSP> 10
 0.000000e+000 1.000000e+000 0.000000e+000 0.000000e+000 0.000000e+000 0.000000e+000 0.000000e+000 0.000000e+000 0.000000e+000 0.000000e+000
 0.000000e+000 5.837331e-001 4.162669e-001 0.000000e+000 0.000000e+000 0.000000e+000 0.000000e+000 0.000000e+000 0.000000e+000 0.000000e+000
 0.000000e+000 0.000000e+000 4.565214e-001 5.434785e-001 0.000000e+000 0.000000e+000 0.000000e+000 0.000000e+000 0.000000e+000 0.000000e+000
 0.000000e+000 0.000000e+000 0.000000e+000 3.853391e-001 6.146610e-001 0.000000e+000 0.000000e+000 0.000000e+000 0.000000e+000 0.000000e+000
 0.000000e+000 0.000000e+000 0.000000e+000 0.000000e+000 4.401006e-001 5.598994e-001 0.000000e+000 0.000000e+000 0.000000e+000 0.000000e+000
 0.000000e+000 0.000000e+000 0.000000e+000 0.000000e+000 0.000000e+000 6.797633e-001 3.202367e-001 0.000000e+000 0.000000e+000 0.000000e+000
 0.000000e+000 0.000000e+000 0.000000e+000 0.000000e+000 0.000000e+000 0.000000e+000 9.027901e-001 9.720995e-002 0.000000e+000 0.000000e+000
 0.000000e+000 0.000000e+000 0.000000e+000 0.000000e+000 0.000000e+000 0.000000e+000 0.000000e+000 9.499077e-001 5.009238e-002 0.000000e+000
 0.000000e+000 0.000000e+000 0.000000e+000 0.000000e+000 0.000000e+000 0.000000e+000 0.000000e+000 0.000000e+000 8.613534e-001 1.386465e-001
 0.000000e+000 0.000000e+000 0.000000e+000 0.000000e+000 0.000000e+000 0.000000e+000 0.000000e+000 0.000000e+000 0.000000e+000 0.000000e+000
<ENDHMM>
~h "devet"
<BEGINHMM>
<NUMSTATES> 10
<STATE> 2
<MEAN> 16
 6.241619e+000 6.684014e+000 6.951207e+000 6.770556e+000 6.429659e+000 6.563359e+000 6.663725e+000 6.768894e+000 7.155620e+000 7.116923e+000 7.252134e+000 7.454688e+000 7.756220e+000 7.805088e+000 7.827114e+000 7.980599e+000
<VARIANCE> 16
 2.323674e-001 1.552091e-001 2.793379e-001 2.297467e-001 8.203758e-002 7.224726e-002 7.715210e-002 3.772550e-002 3.479514e-002 2.962585e-002 4.278387e-002 5.349208e-002 1.572944e-001 9.930294e-002 1.996544e-002 1.815300e-002
<GCONST> -1.266922e+001
<STATE> 3
<MEAN> 16
 6.300241e+000 7.093480e+000 7.253462e+000 7.188554e+000 6.908006e+000 6.730301e+000 6.900551e+000 7.209861e+000 7.674201e+000 7.585378e+000 7.737745e+000 7.881931e+000 8.183049e+000 8.110585e+000 7.888947e+000 8.015954e+000
<VARIANCE> 16
 2.597180e-001 4.954960e-001 3.349909e-001 3.711388e-001 2.328793e-001 2.309618e-001 1.472757e-001 3.103663e-001 3.491417e-001 2.271199e-001 2.267189e-001 3.074708e-001 3.093019e-001 1.793206e-001 3.984213e-002 6.478908e-002
<GCONST> 5.213214e+000
<STATE> 4
<MEAN> 16
 6.402970e+000 7.390345e+000 7.712041e+000 7.653059e+000 7.010136e+000 6.887455e+000 7.098954e+000 7.834924e+000 8.389973e+000 8.251119e+000 8.414919e+000 8.501565e+000 8.843510e+000 8.680318e+000 8.098596e+000 8.073472e+000
<VARIANCE> 16
 4.050710e-001 6.421177e-001 4.001036e-001 3.538787e-001 1.229006e-001 9.088285e-002 1.273922e-001 4.219081e-001 3.308056e-001 1.664808e-001 3.682791e-001 4.776199e-001 3.916662e-001 2.593826e-001 5.649687e-002 5.439078e-002
<GCONST> 5.977627e+000
<STATE> 5
<MEAN> 16
 6.280498e+000 7.402596e+000 8.486695e+000 8.726540e+000 7.806129e+000 7.413728e+000 7.915916e+000 8.993817e+000 9.661238e+000 9.532707e+000 9.527404e+000 9.714344e+000 1.009498e+001 9.553246e+000 8.483680e+000 8.309011e+000
<VARIANCE> 16
 2.799506e-001 2.639616e-001 5.678954e-001 4.498157e-001 1.652934e-001 7.913929e-002 8.158939e-002 3.862595e-001 2.946541e-001 3.092376e-001 9.784055e-001 1.239559e+000 1.014348e+000 7.676359e-001 3.698777e-001 1.108802e-001
<GCONST> 1.199557e+001
<STATE> 6
<MEAN> 16
 6.590540e+000 7.711168e+000 9.299862e+000 9.592861e+000 8.671149e+000 8.135995e+000 8.502179e+000 9.648723e+000 1.047187e+001 1.039470e+001 1.029895e+001 1.037625e+001 1.063153e+001 9.807017e+000 8.850185e+000 8.514926e+000
<VARIANCE> 16
 1.748825e-001 2.128753e-001 2.583170e-001 1.588162e-001 9.248926e-002 1.353312e-001 4.830096e-002 3.861440e-001 1.652533e-001 1.565747e-001 1.237382e+000 1.411560e+000 9.481956e-001 1.182910e+000 2.883427e-001 1.920594e-001
<GCONST> 8.683648e+000
<STATE> 7
<MEAN> 16
 6.596255e+000 7.722739e+000 9.496650e+000 1.012107e+001 9.188383e+000 8.590449e+000 8.824272e+000 1.034344e+001 1.090525e+001 1.084288e+001 1.065176e+001 1.104919e+001 1.083952e+001 9.494124e+000 8.817835e+000 8.587275e+000
<VARIANCE> 16
 1.581816e-001 1.500825e-001 1.691967e-001 1.420663e-001 2.005857e-001 1.182387e-001 5.660700e-002 4.145247e-001 1.595542e-001 2.028852e-001 1.003838e+000 1.471916e+000 6.318927e-001 7.550729e-001 1.343735e-001 1.860523e-001
<GCONST> 6.974560e+000
<STATE> 8
<MEAN> 16
 6.417532e+000 7.738353e+000 9.098679e+000 9.024220e+000 8.004967e+000 7.614789e+000 8.120767e+000 9.390773e+000 9.778459e+000 9.637093e+000 8.698655e+000 8.954999e+000 9.540215e+000 9.330193e+000 8.423857e+000 8.477542e+000
<VARIANCE> 16
 1.580721e-001 1.570556e-001 2.611310e-001 3.857065e-001 6.616948e-001 3.177335e-001 2.583709e-001 3.056861e-001 4.385101e-001 4.125459e-001 1.057594e+000 1.493542e+000 7.224760e-001 7.555286e-001 1.472822e-001 1.265842e-001
<GCONST> 1.347641e+001
<STATE> 9
<MEAN> 16
 6.444438e+000 7.484725e+000 8.925270e+000 9.673738e+000 9.484084e+000 8.648127e+000 8.880435e+000 9.649839e+000 1.069150e+001 1.088859e+001 1.114997e+001 1.121571e+001 1.148419e+001 1.064029e+001 8.701562e+000 8.344728e+000
<VARIANCE> 16
 1.995661e-001 3.266117e-001 6.249112e-001 6.885301e-001 1.092033e+000 6.079437e-001 4.249752e-001 4.191788e-001 5.760590e-001 6.905882e-001 6.682363e-001 7.080410e-001 7.190168e-001 1.116294e+000 3.240837e-001 1.030748e-001
<GCONST> 1.840825e+001
<TRANSP> 10
 0.000000e+000 1.000000e+000 0.000000e+000 0.000000e+000 0.000000e+000 0.000000e+000 0.000000e+000 0.000000e+000 0.000000e+000 0.000000e+000
 0.000000e+000 7.600523e-001 2.399478e-001 0.000000e+000 0.000000e+000 0.000000e+000 0.000000e+000 0.000000e+000 0.000000e+000 0.000000e+000
 0.000000e+000 0.000000e+000 2.517455e-001 7.482545e-001 0.000000e+000 0.000000e+000 0.000000e+000 0.000000e+000 0.000000e+000 0.000000e+000
 0.000000e+000 0.000000e+000 0.000000e+000 1.903155e-001 8.096845e-001 0.000000e+000 0.000000e+000 0.000000e+000 0.000000e+000 0.000000e+000
 0.000000e+000 0.000000e+000 0.000000e+000 0.000000e+000 2.138855e-001 7.861145e-001 0.000000e+000 0.000000e+000 0.000000e+000 0.000000e+000
 0.000000e+000 0.000000e+000 0.000000e+000 0.000000e+000 0.000000e+000 7.472289e-002 9.252771e-001 0.000000e+000 0.000000e+000 0.000000e+000
 0.000000e+000 0.000000e+000 0.000000e+000 0.000000e+000 0.000000e+000 0.000000e+000 6.757198e-001 3.242802e-001 0.000000e+000 0.000000e+000
 0.000000e+000 0.000000e+000 0.000000e+000 0.000000e+000 0.000000e+000 0.000000e+000 0.000000e+000 8.767467e-001 1.232533e-001 0.000000e+000
 0.000000e+000 0.000000e+000 0.000000e+000 0.000000e+000 0.000000e+000 0.000000e+000 0.000000e+000 0.000000e+000 9.663513e-001 3.364874e-002
 0.000000e+000 0.000000e+000 0.000000e+000 0.000000e+000 0.000000e+000 0.000000e+000 0.000000e+000 0.000000e+000 0.000000e+000 0.000000e+000
<ENDHMM>
~h "jedna"
<BEGINHMM>
<NUMSTATES> 10
<STATE> 2
<MEAN> 16
 6.132664e+000 6.942155e+000 7.080122e+000 6.949136e+000 6.597410e+000 6.590090e+000 6.697794e+000 6.935188e+000 7.582833e+000 7.949156e+000 7.960969e+000 8.268371e+000 8.711689e+000 8.403099e+000 7.955682e+000 8.080056e+000
<VARIANCE> 16
 1.873653e-001 3.673430e-001 4.209362e-001 2.305095e-001 1.088707e-001 9.013303e-002 4.780720e-002 5.044474e-002 2.278994e-001 3.363716e-001 3.041638e-001 5.439433e-001 6.300462e-001 2.952572e-001 1.037038e-001 7.181583e-002
<GCONST> 2.796397e+000
<STATE> 3
<MEAN> 16
 6.383111e+000 7.658779e+000 8.128870e+000 7.785821e+000 7.118691e+000 6.791578e+000 6.774428e+000 7.073916e+000 8.040305e+000 9.063740e+000 9.248510e+000 9.548856e+000 9.610476e+000 8.934803e+000 8.101897e+000 8.085385e+000
<VARIANCE> 16
 1.565586e-001 1.879900e-001 2.334208e-001 1.908750e-001 1.691429e-001 1.923281e-001 6.654361e-002 1.304471e-001 3.986965e-001 4.024988e-001 4.880582e-001 1.108046e+000 1.158744e+000 5.094492e-001 9.166271e-002 5.547741e-002
<GCONST> 6.344197e+000
<STATE> 4
<MEAN> 16
 6.415823e+000 7.468663e+000 8.159721e+000 7.842716e+000 7.055210e+000 6.847695e+000 7.142537e+000 7.979836e+000 8.528014e+000 8.625066e+000 8.393904e+000 8.355872e+000 8.918550e+000 8.589472e+000 8.403954e+000 8.482021e+000
<VARIANCE> 16
 1.012360e-001 2.983060e-001 9.949316e-001 8.209985e-001 3.316475e-001 1.522905e-001 2.097686e-001 7.401239e-001 1.142219e+000 1.018637e+000 9.670382e-001 1.300459e+000 1.083323e+000 5.237674e-001 2.030436e-001 1.221285e-001
<GCONST> 1.697239e+001
<STATE> 5
<MEAN> 16
 6.322017e+000 7.648319e+000 8.810479e+000 8.760463e+000 7.787302e+000 7.284371e+000 7.560537e+000 8.387284e+000 8.742404e+000 9.430547e+000 9.382694e+000 9.929754e+000 9.968684e+000 8.960897e+000 8.308132e+000 8.183393e+000
<VARIANCE> 16
 1.006582e-001 1.755240e-001 4.840002e-001 5.536049e-001 3.708058e-001 2.123922e-001 1.712299e-001 7.258454e-001 7.507091e-001 8.806611e-001 1.264982e+000 1.388970e+000 1.293231e+000 9.876836e-001 2.714731e-001 5.802985e-002
<GCONST> 1.567035e+001
<STATE> 6
<MEAN> 16
 6.379479e+000 7.434890e+000 8.203828e+000 8.202418e+000 7.728980e+000 7.418243e+000 7.490324e+000 8.118704e+000 8.872583e+000 9.553144e+000 1.000251e+001 1.008524e+001 1.034273e+001 9.684287e+000 8.266024e+000 8.093103e+000
<VARIANCE> 16
 1.853248e-001 3.587759e-001 7.806556e-001 5.958511e-001 3.151287e-001 2.646819e-001 5.049347e-001 6.323240e-001 1.076715e+000 1.402791e+000 1.505569e+000 1.883863e+000 1.781887e+000 1.395830e+000 3.536221e-001 6.107789e-002
<GCONST> 2.083517e+001
<STATE> 7
<MEAN> 16
 6.586697e+000 7.783488e+000 8.864842e+000 9.054402e+000 8.591259e+000 8.040560e+000 8.109636e+000 8.748899e+000 9.536165e+000 1.002614e+001 1.012286e+001 1.023677e+001 1.058806e+001 9.600654e+000 8.335055e+000 8.201852e+000
<VARIANCE> 16
 1.485891e-001 3.196470e-001 6.888216e-001 8.944741e-001 1.100071e+000 6.098850e-001 7.052439e-001 8.630471e-001 1.018079e+000 1.541288e+000 1.496895e+000 1.552466e+000 1.478513e+000 1.571653e+000 4.242515e-001 1.214487e-001
<GCONST> 2.415027e+001
<STATE> 8
<MEAN> 16
 6.606191e+000 7.713612e+000 8.637013e+000 9.441282e+000 9.952494e+000 1.007983e+001 1.044101e+001 1.084866e+001 1.032801e+001 1.012859e+001 1.029421e+001 1.050158e+001 1.106971e+001 1.037553e+001 8.536265e+000 8.305204e+000
<VARIANCE> 16
 1.263274e-001 2.829899e-001 4.353247e-001 4.325163e-001 5.504195e-001 7.512153e-001 8.368886e-001 9.933864e-001 3.711836e-001 3.611293e-001 1.360370e+000 1.194723e+000 1.117516e+000 8.296196e-001 3.021587e-001 1.001263e-001
<GCONST> 1.823946e+001
<STATE> 9
<MEAN> 16
 6.249712e+000 7.094653e+000 7.552590e+000 8.374293e+000 9.207715e+000 9.180954e+000 9.396873e+000 9.097305e+000 8.601438e+000 8.621204e+000 8.774309e+000 9.136192e+000 9.446206e+000 8.847505e+000 8.001688e+000 8.111954e+000
<VARIANCE> 16
 1.682731e-001 3.625567e-001 4.882847e-001 7.178602e-001 8.369029e-001 4.052480e-001 4.123255e-001 3.992957e-001 2.785014e-001 3.405882e-001 7.504167e-001 8.208694e-001 4.480972e-001 1.861961e-001 3.401428e-002 4.151589e-002
<GCONST> 1.078937e+001
<TRANSP> 10
 0.000000e+000 1.000000e+000 0.000000e+000 0.000000e+000 0.000000e+000 0.000000e+000 0.000000e+000 0.000000e+000 0.000000e+000 0.000000e+000
 0.000000e+000 5.319191e-001 4.680809e-001 0.000000e+000 0.000000e+000 0.000000e+000 0.000000e+000 0.000000e+000 0.000000e+000 0.000000e+000
 0.000000e+000 0.000000e+000 4.549873e-001 5.450127e-001 0.000000e+000 0.000000e+000 0.000000e+000 0.000000e+000 0.000000e+000 0.000000e+000
 0.000000e+000 0.000000e+000 0.000000e+000 7.766950e-001 2.233051e-001 0.000000e+000 0.000000e+000 0.000000e+000 0.000000e+000 0.000000e+000
 0.000000e+000 0.000000e+000 0.000000e+000 0.000000e+000 7.277804e-001 2.722196e-001 0.000000e+000 0.000000e+000 0.000000e+000 0.000000e+000
 0.000000e+000 0.000000e+000 0.000000e+000 0.000000e+000 0.000000e+000 7.837207e-001 2.162793e-001 0.000000e+000 0.000000e+000 0.000000e+000
 0.000000e+000 0.000000e+000 0.000000e+000 0.000000e+000 0.000000e+000 0.000000e+000 9.173605e-001 8.263956e-002 0.000000e+000 0.000000e+000
 0.000000e+000 0.000000e+000 0.000000e+000 0.000000e+000 0.000000e+000 0.000000e+000 0.000000e+000 9.430684e-001 5.693155e-002 0.000000e+000
 0.000000e+000 0.000000e+000 0.000000e+000 0.000000e+000 0.000000e+000 0.000000e+000 0.000000e+000 0.000000e+000 8.930154e-001 1.069847e-001
 0.000000e+000 0.000000e+000 0.000000e+000 0.000000e+000 0.000000e+000 0.000000e+000 0.000000e+000 0.000000e+000 0.000000e+000 0.000000e+000
<ENDHMM>
