~o
<STREAMINFO> 1 16
<VECSIZE> 16<NULLD><FBANK><DIAGC>
~h "ctyri"
<BEGINHMM>
<NUMSTATES> 10
<STATE> 2
<MEAN> 16
 5.085134e+000 6.094281e+000 6.628636e+000 6.884798e+000 7.092128e+000 7.276602e+000 7.595387e+000 7.925741e+000 8.339878e+000 8.808655e+000 9.314406e+000 9.631598e+000 9.851171e+000 9.927507e+000 1.005730e+001 1.013219e+001
<VARIANCE> 16
 8.789741e-001 1.213610e+000 1.185020e+000 1.010330e+000 7.501587e-001 8.249157e-001 1.027484e+000 1.049432e+000 8.385013e-001 8.734403e-001 1.007974e+000 1.114488e+000 1.062149e+000 1.017875e+000 8.730709e-001 8.813867e-001
<GCONST> 2.886698e+001
<STATE> 3
<MEAN> 16
 4.972371e+000 5.718771e+000 6.343093e+000 6.629693e+000 6.848486e+000 7.000719e+000 7.331782e+000 7.854845e+000 8.557954e+000 9.466003e+000 1.025941e+001 1.063599e+001 1.086410e+001 1.093004e+001 1.084197e+001 1.055048e+001
<VARIANCE> 16
 1.599442e+000 2.028341e+000 2.360189e+000 2.104720e+000 1.649013e+000 1.690783e+000 1.721679e+000 1.821161e+000 1.958064e+000 2.091000e+000 2.340150e+000 2.607387e+000 2.484223e+000 2.384229e+000 1.934137e+000 1.554602e+000
<GCONST> 4.045185e+001
<STATE> 4
<MEAN> 16
 5.207961e+000 6.012114e+000 6.632504e+000 6.923700e+000 7.099609e+000 7.258047e+000 7.585186e+000 8.252890e+000 9.074548e+000 9.733357e+000 1.048693e+001 1.087196e+001 1.122752e+001 1.129407e+001 1.118315e+001 1.101323e+001
<VARIANCE> 16
 1.804554e+000 2.067418e+000 2.404023e+000 2.185069e+000 1.773378e+000 1.850795e+000 1.946034e+000 2.057538e+000 2.653109e+000 2.912732e+000 3.287814e+000 3.532326e+000 3.761834e+000 3.876633e+000 3.562914e+000 3.321353e+000
<GCONST> 4.460508e+001
<STATE> 5
<MEAN> 16
 5.546467e+000 6.323467e+000 6.966822e+000 7.307246e+000 7.489706e+000 7.688066e+000 8.031784e+000 8.577441e+000 9.434502e+000 1.013128e+001 1.072661e+001 1.094544e+001 1.124846e+001 1.120622e+001 1.105428e+001 1.087750e+001
<VARIANCE> 16
 1.398176e+000 1.351859e+000 1.693746e+000 1.632053e+000 1.396806e+000 1.459767e+000 1.641555e+000 1.873477e+000 2.726211e+000 3.562542e+000 3.754845e+000 3.540173e+000 3.677978e+000 3.767881e+000 3.666833e+000 3.811182e+000
<GCONST> 4.302213e+001
<STATE> 6
<MEAN> 16
 5.925583e+000 6.873096e+000 7.515244e+000 7.814128e+000 7.904817e+000 8.069839e+000 8.349310e+000 8.917517e+000 9.647320e+000 1.030614e+001 1.069972e+001 1.093046e+001 1.118865e+001 1.123231e+001 1.124986e+001 1.116861e+001
<VARIANCE> 16
 1.181256e+000 1.091789e+000 1.281886e+000 1.085670e+000 9.192359e-001 1.032264e+000 1.246135e+000 1.432551e+000 2.168417e+000 3.060669e+000 3.292886e+000 3.267962e+000 3.186679e+000 3.234271e+000 3.190299e+000 3.088636e+000
<GCONST> 3.940720e+001
<STATE> 7
<MEAN> 16
 6.367457e+000 7.336773e+000 7.914274e+000 8.143697e+000 8.275863e+000 8.504125e+000 8.876953e+000 9.480752e+000 1.007524e+001 1.078686e+001 1.127968e+001 1.158935e+001 1.180028e+001 1.181947e+001 1.183851e+001 1.186437e+001
<VARIANCE> 16
 8.378303e-001 8.481623e-001 1.063770e+000 8.870355e-001 7.153260e-001 7.590830e-001 9.064871e-001 1.170954e+000 1.549518e+000 2.212674e+000 2.625592e+000 2.656219e+000 2.510890e+000 2.604959e+000 2.587655e+000 2.839050e+000
<GCONST> 3.550197e+001
<STATE> 8
<MEAN> 16
 9.029696e+000 1.050421e+001 1.108540e+001 1.100501e+001 1.020493e+001 9.855526e+000 1.002650e+001 1.094865e+001 1.167569e+001 1.205221e+001 1.216425e+001 1.216640e+001 1.223154e+001 1.197479e+001 1.155305e+001 1.126003e+001
<VARIANCE> 16
 1.570119e+000 1.200538e+000 1.566542e+000 1.385900e+000 9.142478e-001 8.358029e-001 1.013318e+000 1.214717e+000 1.154626e+000 1.193363e+000 1.123344e+000 1.062881e+000 1.226951e+000 2.109228e+000 2.279588e+000 2.640266e+000
<GCONST> 3.399747e+001
<STATE> 9
<MEAN> 16
 6.774404e+000 7.735554e+000 8.002957e+000 7.987932e+000 7.834489e+000 7.820977e+000 7.910501e+000 8.331696e+000 8.789931e+000 9.068805e+000 9.109138e+000 9.047693e+000 9.199271e+000 9.279028e+000 9.276823e+000 9.383586e+000
<VARIANCE> 16
 1.581442e+000 1.330499e+000 1.089857e+000 8.880777e-001 4.979085e-001 3.941183e-001 4.339637e-001 5.336825e-001 4.250959e-001 4.943890e-001 4.404860e-001 4.894840e-001 5.407308e-001 6.578331e-001 7.261389e-001 7.199299e-001
<GCONST> 2.224968e+001
<TRANSP> 10
 0.000000e+000 1.000000e+000 0.000000e+000 0.000000e+000 0.000000e+000 0.000000e+000 0.000000e+000 0.000000e+000 0.000000e+000 0.000000e+000
 0.000000e+000 6.012772e-001 3.987227e-001 0.000000e+000 0.000000e+000 0.000000e+000 0.000000e+000 0.000000e+000 0.000000e+000 0.000000e+000
 0.000000e+000 0.000000e+000 5.448717e-001 4.551283e-001 0.000000e+000 0.000000e+000 0.000000e+000 0.000000e+000 0.000000e+000 0.000000e+000
 0.000000e+000 0.000000e+000 0.000000e+000 5.835324e-001 4.164676e-001 0.000000e+000 0.000000e+000 0.000000e+000 0.000000e+000 0.000000e+000
 0.000000e+000 0.000000e+000 0.000000e+000 0.000000e+000 7.505710e-001 2.494290e-001 0.000000e+000 0.000000e+000 0.000000e+000 0.000000e+000
 0.000000e+000 0.000000e+000 0.000000e+000 0.000000e+000 0.000000e+000 7.191586e-001 2.808414e-001 0.000000e+000 0.000000e+000 0.000000e+000
 0.000000e+000 0.000000e+000 0.000000e+000 0.000000e+000 0.000000e+000 0.000000e+000 8.067392e-001 1.932609e-001 0.000000e+000 0.000000e+000
 0.000000e+000 0.000000e+000 0.000000e+000 0.000000e+000 0.000000e+000 0.000000e+000 0.000000e+000 9.724661e-001 2.753399e-002 0.000000e+000
 0.000000e+000 0.000000e+000 0.000000e+000 0.000000e+000 0.000000e+000 0.000000e+000 0.000000e+000 0.000000e+000 9.448082e-001 5.519186e-002
 0.000000e+000 0.000000e+000 0.000000e+000 0.000000e+000 0.000000e+000 0.000000e+000 0.000000e+000 0.000000e+000 0.000000e+000 0.000000e+000
<ENDHMM>
~h "sedm"
<BEGINHMM>
<NUMSTATES> 10
<STATE> 2
<MEAN> 16
 5.617444e+000 6.483406e+000 6.961066e+000 7.306407e+000 7.518706e+000 7.761958e+000 8.040767e+000 8.323464e+000 8.422638e+000 8.557679e+000 8.763691e+000 8.965955e+000 9.211751e+000 9.436512e+000 9.632854e+000 9.764012e+000
<VARIANCE> 16
 5.468767e-001 4.257581e-001 2.987283e-001 2.692731e-001 2.362093e-001 2.209089e-001 2.608177e-001 2.374505e-001 1.651817e-001 1.389714e-001 1.074943e-001 1.196599e-001 1.772100e-001 2.618929e-001 3.066632e-001 3.845710e-001
<GCONST> 6.358107e+000
<STATE> 3
<MEAN> 16
 4.749284e+000 5.519248e+000 6.225170e+000 6.686128e+000 6.936780e+000 7.098890e+000 7.334340e+000 7.827835e+000 8.194038e+000 8.416059e+000 8.716599e+000 9.154162e+000 9.932736e+000 1.058433e+001 1.099861e+001 1.116445e+001
<VARIANCE> 16
 9.858785e-001 1.406564e+000 1.316403e+000 1.349625e+000 1.018081e+000 8.019315e-001 7.578213e-001 7.729890e-001 9.429772e-001 9.717687e-001 7.194358e-001 6.453839e-001 1.081128e+000 1.387185e+000 1.486048e+000 1.816143e+000
<GCONST> 3.011365e+001
<STATE> 4
<MEAN> 16
 5.086329e+000 5.757547e+000 6.385128e+000 6.851427e+000 7.120551e+000 7.398197e+000 7.703861e+000 8.216655e+000 8.513326e+000 8.691527e+000 9.067585e+000 9.614226e+000 1.041290e+001 1.123396e+001 1.160525e+001 1.157471e+001
<VARIANCE> 16
 1.066499e+000 1.556668e+000 1.475300e+000 1.402152e+000 1.048616e+000 7.749318e-001 7.490025e-001 7.933038e-001 1.051814e+000 1.196492e+000 8.714117e-001 8.338828e-001 1.313266e+000 1.756699e+000 1.865378e+000 2.178127e+000
<GCONST> 3.206025e+001
<STATE> 5
<MEAN> 16
 5.475898e+000 6.219481e+000 6.976023e+000 7.494386e+000 7.762767e+000 7.974922e+000 8.340050e+000 8.939425e+000 9.320551e+000 9.459471e+000 9.734895e+000 1.009418e+001 1.081949e+001 1.150006e+001 1.176652e+001 1.160675e+001
<VARIANCE> 16
 1.172486e+000 1.695740e+000 1.421697e+000 1.104580e+000 6.954796e-001 4.085480e-001 3.667906e-001 4.544330e-001 8.345835e-001 1.090600e+000 9.127046e-001 9.725954e-001 1.258707e+000 1.792023e+000 1.931693e+000 2.146214e+000
<GCONST> 2.951694e+001
<STATE> 6
<MEAN> 16
 6.095741e+000 6.834223e+000 7.585027e+000 8.046675e+000 8.302764e+000 8.590487e+000 9.041040e+000 9.630280e+000 9.923923e+000 1.022529e+001 1.055990e+001 1.114377e+001 1.193497e+001 1.264829e+001 1.300697e+001 1.296522e+001
<VARIANCE> 16
 5.643459e-001 5.332602e-001 5.260834e-001 4.622063e-001 3.123225e-001 2.420755e-001 2.564656e-001 2.824434e-001 4.574353e-001 5.807959e-001 5.290332e-001 7.336290e-001 1.000607e+000 1.311188e+000 1.468453e+000 1.984776e+000
<GCONST> 2.065322e+001
<STATE> 7
<MEAN> 16
 6.920709e+000 7.796057e+000 8.581447e+000 9.122962e+000 9.267933e+000 9.528274e+000 9.941451e+000 1.056760e+001 1.085748e+001 1.109495e+001 1.135437e+001 1.178934e+001 1.249712e+001 1.311487e+001 1.346474e+001 1.342149e+001
<VARIANCE> 16
 8.752273e-001 1.214205e+000 1.128658e+000 1.225335e+000 7.471573e-001 4.897559e-001 3.838450e-001 4.196856e-001 7.772194e-001 9.051383e-001 8.140201e-001 8.739024e-001 1.225102e+000 1.590183e+000 2.243214e+000 3.066621e+000
<GCONST> 2.886310e+001
<STATE> 8
<MEAN> 16
 9.307390e+000 1.074800e+001 1.118763e+001 1.108006e+001 1.056839e+001 1.045402e+001 1.056511e+001 1.076061e+001 1.074804e+001 1.094070e+001 1.106020e+001 1.098445e+001 1.070337e+001 1.043306e+001 1.019627e+001 1.029588e+001
<VARIANCE> 16
 1.043914e+000 6.137116e-001 1.104907e+000 1.581475e+000 1.422976e+000 1.244703e+000 1.239904e+000 1.715268e+000 1.763267e+000 1.671767e+000 1.742944e+000 1.573661e+000 1.642123e+000 2.063734e+000 1.746509e+000 1.790815e+000
<GCONST> 3.529598e+001
<STATE> 9
<MEAN> 16
 7.393449e+000 8.351436e+000 8.285446e+000 8.073318e+000 8.103554e+000 8.239970e+000 8.328929e+000 8.361714e+000 8.413156e+000 8.628391e+000 8.675506e+000 8.692397e+000 8.828893e+000 8.997783e+000 9.169991e+000 9.325338e+000
<VARIANCE> 16
 2.174945e+000 2.257712e+000 1.690345e+000 1.405318e+000 1.299277e+000 8.093792e-001 4.650001e-001 5.390866e-001 5.214862e-001 6.240161e-001 4.537828e-001 4.808438e-001 6.196620e-001 7.072866e-001 6.897229e-001 6.860406e-001
<GCONST> 2.631112e+001
<TRANSP> 10
 0.000000e+000 1.000000e+000 0.000000e+000 0.000000e+000 0.000000e+000 0.000000e+000 0.000000e+000 0.000000e+000 0.000000e+000 0.000000e+000
 0.000000e+000 9.277389e-001 7.226108e-002 0.000000e+000 0.000000e+000 0.000000e+000 0.000000e+000 0.000000e+000 0.000000e+000 0.000000e+000
 0.000000e+000 0.000000e+000 4.706956e-001 5.293044e-001 0.000000e+000 0.000000e+000 0.000000e+000 0.000000e+000 0.000000e+000 0.000000e+000
 0.000000e+000 0.000000e+000 0.000000e+000 4.661125e-001 5.338874e-001 0.000000e+000 0.000000e+000 0.000000e+000 0.000000e+000 0.000000e+000
 0.000000e+000 0.000000e+000 0.000000e+000 0.000000e+000 4.640016e-001 5.359985e-001 0.000000e+000 0.000000e+000 0.000000e+000 0.000000e+000
 0.000000e+000 0.000000e+000 0.000000e+000 0.000000e+000 0.000000e+000 7.920240e-001 2.079761e-001 0.000000e+000 0.000000e+000 0.000000e+000
 0.000000e+000 0.000000e+000 0.000000e+000 0.000000e+000 0.000000e+000 0.000000e+000 7.992505e-001 2.007495e-001 0.000000e+000 0.000000e+000
 0.000000e+000 0.000000e+000 0.000000e+000 0.000000e+000 0.000000e+000 0.000000e+000 0.000000e+000 9.716905e-001 2.830944e-002 0.000000e+000
 0.000000e+000 0.000000e+000 0.000000e+000 0.000000e+000 0.000000e+000 0.000000e+000 0.000000e+000 0.000000e+000 9.505038e-001 4.949624e-002
 0.000000e+000 0.000000e+000 0.000000e+000 0.000000e+000 0.000000e+000 0.000000e+000 0.000000e+000 0.000000e+000 0.000000e+000 0.000000e+000
<ENDHMM>
~h "sest"
<BEGINHMM>
<NUMSTATES> 10
<STATE> 2
<MEAN> 16
 4.460722e+000 5.438443e+000 5.899898e+000 6.240227e+000 6.428535e+000 6.637298e+000 6.872700e+000 7.500477e+000 8.410113e+000 9.012064e+000 9.400198e+000 9.554182e+000 9.762416e+000 9.893619e+000 1.004784e+001 1.005462e+001
<VARIANCE> 16
 1.027467e+000 2.030240e+000 1.771598e+000 1.396272e+000 1.229000e+000 1.131173e+000 1.305829e+000 1.019620e+000 4.794725e-001 6.849380e-001 5.843218e-001 5.612299e-001 5.386530e-001 5.080175e-001 4.541224e-001 5.033882e-001
<GCONST> 2.666257e+001
<STATE> 3
<MEAN> 16
 5.480380e+000 6.309239e+000 6.911986e+000 7.254429e+000 7.347500e+000 7.475910e+000 7.817309e+000 8.699428e+000 9.461353e+000 9.844091e+000 1.005872e+001 1.007137e+001 1.013003e+001 1.010647e+001 1.005954e+001 9.949298e+000
<VARIANCE> 16
 6.662787e-001 1.183204e+000 1.098700e+000 1.132392e+000 8.790094e-001 5.973800e-001 7.266935e-001 8.631874e-001 8.845282e-001 1.260494e+000 1.511828e+000 1.466952e+000 1.288339e+000 1.322322e+000 1.210432e+000 1.092995e+000
<GCONST> 2.999408e+001
<STATE> 4
<MEAN> 16
 5.544553e+000 6.372716e+000 7.056524e+000 7.436993e+000 7.479753e+000 7.577403e+000 8.075511e+000 9.238896e+000 1.017275e+001 1.069089e+001 1.098539e+001 1.096399e+001 1.092366e+001 1.085494e+001 1.070952e+001 1.045509e+001
<VARIANCE> 16
 7.975874e-001 1.322593e+000 1.529919e+000 1.700427e+000 1.299756e+000 7.874142e-001 6.858771e-001 6.458509e-001 6.734896e-001 1.175250e+000 1.432358e+000 1.757139e+000 1.572783e+000 1.626896e+000 1.801779e+000 1.722437e+000
<GCONST> 3.238573e+001
<STATE> 5
<MEAN> 16
 5.741550e+000 6.529749e+000 7.267561e+000 7.673868e+000 7.768264e+000 7.827303e+000 8.307918e+000 9.585463e+000 1.052231e+001 1.105110e+001 1.141926e+001 1.145262e+001 1.143660e+001 1.137450e+001 1.120749e+001 1.082960e+001
<VARIANCE> 16
 7.933625e-001 1.257210e+000 1.519901e+000 1.777833e+000 1.344862e+000 7.783216e-001 5.920439e-001 4.431249e-001 6.176730e-001 1.122886e+000 1.353904e+000 1.789463e+000 1.785403e+000 1.799062e+000 2.085895e+000 2.076319e+000
<GCONST> 3.225681e+001
<STATE> 6
<MEAN> 16
 5.965370e+000 6.625592e+000 7.335183e+000 7.702493e+000 7.818595e+000 8.026020e+000 8.566510e+000 9.825598e+000 1.082047e+001 1.146762e+001 1.193606e+001 1.198285e+001 1.200178e+001 1.201637e+001 1.182200e+001 1.138146e+001
<VARIANCE> 16
 5.734454e-001 8.163519e-001 1.046776e+000 1.278524e+000 1.168428e+000 6.647195e-001 4.461977e-001 3.780563e-001 5.445638e-001 9.573582e-001 1.151379e+000 1.520647e+000 1.574234e+000 1.779121e+000 2.048424e+000 2.271270e+000
<GCONST> 2.938206e+001
<STATE> 7
<MEAN> 16
 6.611352e+000 7.257456e+000 8.007970e+000 8.472326e+000 8.639257e+000 8.884372e+000 9.431499e+000 1.039120e+001 1.147305e+001 1.244102e+001 1.295799e+001 1.311305e+001 1.320964e+001 1.319295e+001 1.312012e+001 1.287717e+001
<VARIANCE> 16
 5.359698e-001 4.876248e-001 5.450084e-001 4.695513e-001 3.976683e-001 4.186086e-001 4.421778e-001 4.049485e-001 4.766596e-001 7.954863e-001 9.433624e-001 1.200768e+000 1.190338e+000 1.280935e+000 1.669181e+000 2.628848e+000
<GCONST> 2.424383e+001
<STATE> 8
<MEAN> 16
 8.385029e+000 9.472440e+000 1.019414e+001 1.079593e+001 1.070224e+001 1.040276e+001 1.072685e+001 1.148683e+001 1.174106e+001 1.197221e+001 1.206780e+001 1.205009e+001 1.210843e+001 1.209619e+001 1.199922e+001 1.181605e+001
<VARIANCE> 16
 2.162124e+000 2.413908e+000 2.609985e+000 3.000328e+000 2.647901e+000 1.601779e+000 1.413840e+000 1.679846e+000 1.723353e+000 1.720707e+000 1.684171e+000 1.388788e+000 1.314336e+000 1.964953e+000 2.740368e+000 3.515178e+000
<GCONST> 4.057703e+001
<STATE> 9
<MEAN> 16
 5.714707e+000 6.734643e+000 7.292250e+000 7.752123e+000 7.910438e+000 7.987793e+000 8.189876e+000 8.593710e+000 8.784788e+000 8.930259e+000 9.243004e+000 9.415786e+000 9.846958e+000 1.025262e+001 1.053885e+001 1.063032e+001
<VARIANCE> 16
 9.372531e-001 8.904369e-001 7.743516e-001 8.948796e-001 9.430328e-001 7.342342e-001 7.204155e-001 7.520027e-001 7.504373e-001 6.989889e-001 6.885571e-001 1.005477e+000 1.354630e+000 1.781149e+000 1.933330e+000 1.829767e+000
<GCONST> 2.900917e+001
<TRANSP> 10
 0.000000e+000 1.000000e+000 0.000000e+000 0.000000e+000 0.000000e+000 0.000000e+000 0.000000e+000 0.000000e+000 0.000000e+000 0.000000e+000
 0.000000e+000 7.473199e-001 2.526802e-001 0.000000e+000 0.000000e+000 0.000000e+000 0.000000e+000 0.000000e+000 0.000000e+000 0.000000e+000
 0.000000e+000 0.000000e+000 2.916937e-001 7.083063e-001 0.000000e+000 0.000000e+000 0.000000e+000 0.000000e+000 0.000000e+000 0.000000e+000
 0.000000e+000 0.000000e+000 0.000000e+000 1.994536e-001 8.005463e-001 0.000000e+000 0.000000e+000 0.000000e+000 0.000000e+000 0.000000e+000
 0.000000e+000 0.000000e+000 0.000000e+000 0.000000e+000 2.448436e-001 7.551564e-001 0.000000e+000 0.000000e+000 0.000000e+000 0.000000e+000
 0.000000e+000 0.000000e+000 0.000000e+000 0.000000e+000 0.000000e+000 4.659278e-001 5.340722e-001 0.000000e+000 0.000000e+000 0.000000e+000
 0.000000e+000 0.000000e+000 0.000000e+000 0.000000e+000 0.000000e+000 0.000000e+000 8.793216e-001 1.206784e-001 0.000000e+000 0.000000e+000
 0.000000e+000 0.000000e+000 0.000000e+000 0.000000e+000 0.000000e+000 0.000000e+000 0.000000e+000 9.650126e-001 3.498738e-002 0.000000e+000
 0.000000e+000 0.000000e+000 0.000000e+000 0.000000e+000 0.000000e+000 0.000000e+000 0.000000e+000 0.000000e+000 9.535354e-001 4.646458e-002
 0.000000e+000 0.000000e+000 0.000000e+000 0.000000e+000 0.000000e+000 0.000000e+000 0.000000e+000 0.000000e+000 0.000000e+000 0.000000e+000
<ENDHMM>
~h "dva"
<BEGINHMM>
<NUMSTATES> 10
<STATE> 2
<MEAN> 16
 5.991692e+000 6.595876e+000 7.077011e+000 7.409376e+000 7.636765e+000 7.879691e+000 8.115334e+000 8.357358e+000 8.417183e+000 8.530559e+000 8.685149e+000 8.819139e+000 8.965118e+000 9.109022e+000 9.282724e+000 9.392337e+000
<VARIANCE> 16
 3.179996e-001 3.326110e-001 2.420605e-001 1.947187e-001 1.521780e-001 1.555248e-001 1.634260e-001 1.867398e-001 1.545672e-001 1.253570e-001 1.327117e-001 1.611394e-001 1.744849e-001 1.896067e-001 1.583693e-001 1.228923e-001
<GCONST> 1.734917e+000
<STATE> 3
<MEAN> 16
 6.979373e+000 8.040282e+000 8.091075e+000 8.042441e+000 7.936489e+000 7.826536e+000 7.935019e+000 8.179614e+000 8.250792e+000 8.436172e+000 8.650365e+000 8.667656e+000 8.723972e+000 8.828609e+000 9.003527e+000 9.183120e+000
<VARIANCE> 16
 1.662188e+000 1.775687e+000 1.797768e+000 1.517318e+000 1.326799e+000 1.041981e+000 1.039464e+000 9.742747e-001 9.113793e-001 8.946660e-001 9.120184e-001 9.721495e-001 8.463188e-001 8.465055e-001 6.914908e-001 6.102802e-001
<GCONST> 3.030770e+001
<STATE> 4
<MEAN> 16
 7.748194e+000 8.812491e+000 8.738262e+000 8.454967e+000 8.123273e+000 7.959478e+000 8.126223e+000 8.246338e+000 8.213059e+000 8.385257e+000 8.518925e+000 8.566426e+000 8.630346e+000 8.724394e+000 8.864328e+000 9.025463e+000
<VARIANCE> 16
 1.407126e+000 1.602829e+000 1.749948e+000 1.802283e+000 1.731756e+000 1.472137e+000 1.444137e+000 1.394168e+000 1.527619e+000 1.328726e+000 1.317361e+000 1.412622e+000 1.459066e+000 1.199255e+000 8.530021e-001 7.921618e-001
<GCONST> 3.450018e+001
<STATE> 5
<MEAN> 16
 7.865129e+000 9.021032e+000 8.947266e+000 8.798159e+000 8.496849e+000 8.476102e+000 8.633083e+000 8.627795e+000 8.538454e+000 8.680683e+000 8.834748e+000 8.834183e+000 8.885075e+000 8.994940e+000 9.171403e+000 9.238676e+000
<VARIANCE> 16
 2.000950e+000 1.868292e+000 1.713414e+000 1.499500e+000 1.561039e+000 1.319856e+000 1.377942e+000 1.401354e+000 1.343627e+000 1.251890e+000 1.166842e+000 1.338872e+000 1.390961e+000 1.155460e+000 8.743861e-001 8.943341e-001
<GCONST> 3.424395e+001
<STATE> 6
<MEAN> 16
 7.881873e+000 8.931627e+000 9.131081e+000 9.391124e+000 9.633827e+000 9.589270e+000 9.576447e+000 9.159780e+000 8.761374e+000 8.883681e+000 8.903382e+000 8.620476e+000 8.729782e+000 8.694757e+000 8.903100e+000 9.111656e+000
<VARIANCE> 16
 1.502052e+000 1.727570e+000 1.367698e+000 1.039354e+000 1.274621e+000 1.224212e+000 9.136732e-001 8.300592e-001 9.263911e-001 9.378711e-001 1.013434e+000 1.507673e+000 1.305503e+000 1.406057e+000 1.003024e+000 1.052334e+000
<GCONST> 3.182443e+001
<STATE> 7
<MEAN> 16
 8.809564e+000 1.008960e+001 1.019989e+001 1.009947e+001 9.695507e+000 9.781734e+000 1.008668e+001 9.962852e+000 9.793702e+000 9.960793e+000 9.912018e+000 9.851635e+000 9.731065e+000 9.546451e+000 9.470587e+000 9.700732e+000
<VARIANCE> 16
 9.785942e-001 1.174974e+000 1.023137e+000 1.110273e+000 9.992727e-001 8.281526e-001 7.682340e-001 8.613200e-001 1.185296e+000 1.376321e+000 1.578856e+000 1.550601e+000 1.478890e+000 1.493428e+000 1.376403e+000 1.393556e+000
<GCONST> 3.189933e+001
<STATE> 8
<MEAN> 16
 9.123713e+000 1.037660e+001 1.073874e+001 1.141297e+001 1.178179e+001 1.190711e+001 1.200924e+001 1.167329e+001 1.125757e+001 1.143970e+001 1.154689e+001 1.134486e+001 1.120085e+001 1.091072e+001 1.074078e+001 1.064341e+001
<VARIANCE> 16
 1.110729e+000 7.058387e-001 1.179162e+000 1.685535e+000 2.032980e+000 1.822920e+000 1.564060e+000 1.386761e+000 1.305354e+000 1.578795e+000 1.858220e+000 1.705199e+000 1.714677e+000 1.922595e+000 2.009916e+000 2.365457e+000
<GCONST> 3.656216e+001
<STATE> 9
<MEAN> 16
 6.134002e+000 6.887311e+000 7.224303e+000 7.556219e+000 7.865211e+000 8.165621e+000 8.385683e+000 8.493448e+000 8.456221e+000 8.613028e+000 8.741471e+000 8.825154e+000 8.962183e+000 9.090289e+000 9.256413e+000 9.391310e+000
<VARIANCE> 16
 7.318499e-001 6.094618e-001 3.092574e-001 3.545015e-001 5.087124e-001 5.179896e-001 4.266433e-001 2.699521e-001 1.917930e-001 1.990482e-001 2.006260e-001 2.930333e-001 3.744118e-001 4.190738e-001 4.200326e-001 4.214235e-001
<GCONST> 1.321008e+001
<TRANSP> 10
 0.000000e+000 1.000000e+000 0.000000e+000 0.000000e+000 0.000000e+000 0.000000e+000 0.000000e+000 0.000000e+000 0.000000e+000 0.000000e+000
 0.000000e+000 9.346687e-001 6.533130e-002 0.000000e+000 0.000000e+000 0.000000e+000 0.000000e+000 0.000000e+000 0.000000e+000 0.000000e+000
 0.000000e+000 0.000000e+000 1.772004e-001 8.227996e-001 0.000000e+000 0.000000e+000 0.000000e+000 0.000000e+000 0.000000e+000 0.000000e+000
 0.000000e+000 0.000000e+000 0.000000e+000 2.530766e-001 7.469235e-001 0.000000e+000 0.000000e+000 0.000000e+000 0.000000e+000 0.000000e+000
 0.000000e+000 0.000000e+000 0.000000e+000 0.000000e+000 3.435985e-001 6.564015e-001 0.000000e+000 0.000000e+000 0.000000e+000 0.000000e+000
 0.000000e+000 0.000000e+000 0.000000e+000 0.000000e+000 0.000000e+000 6.584135e-001 3.415865e-001 0.000000e+000 0.000000e+000 0.000000e+000
 0.000000e+000 0.000000e+000 0.000000e+000 0.000000e+000 0.000000e+000 0.000000e+000 8.014480e-001 1.985520e-001 0.000000e+000 0.000000e+000
 0.000000e+000 0.000000e+000 0.000000e+000 0.000000e+000 0.000000e+000 0.000000e+000 0.000000e+000 9.645261e-001 3.547387e-002 0.000000e+000
 0.000000e+000 0.000000e+000 0.000000e+000 0.000000e+000 0.000000e+000 0.000000e+000 0.000000e+000 0.000000e+000 9.612714e-001 3.872865e-002
 0.000000e+000 0.000000e+000 0.000000e+000 0.000000e+000 0.000000e+000 0.000000e+000 0.000000e+000 0.000000e+000 0.000000e+000 0.000000e+000
<ENDHMM>
~h "osm"
<BEGINHMM>
<NUMSTATES> 10
<STATE> 2
<MEAN> 16
 5.683098e+000 6.501726e+000 6.954031e+000 7.305700e+000 7.558729e+000 7.818449e+000 8.051861e+000 8.272088e+000 8.377994e+000 8.535932e+000 8.734306e+000 8.906157e+000 9.077830e+000 9.236320e+000 9.426177e+000 9.565467e+000
<VARIANCE> 16
 4.284090e-001 2.902403e-001 2.568967e-001 2.745470e-001 2.622856e-001 2.363504e-001 2.124529e-001 2.285175e-001 1.837553e-001 1.455279e-001 1.541461e-001 1.624848e-001 1.791670e-001 2.106344e-001 2.083867e-001 2.305804e-001
<GCONST> 5.242509e+000
<STATE> 3
<MEAN> 16
 6.347689e+000 7.411053e+000 8.032068e+000 8.604533e+000 8.778547e+000 8.864199e+000 8.662895e+000 8.254460e+000 8.237494e+000 8.629501e+000 8.983117e+000 8.977300e+000 9.029961e+000 9.156672e+000 9.212157e+000 9.363397e+000
<VARIANCE> 16
 2.362660e+000 2.082258e+000 2.623300e+000 3.383607e+000 3.418582e+000 2.715680e+000 1.836451e+000 1.158341e+000 1.126257e+000 1.330136e+000 1.457916e+000 1.393784e+000 1.335173e+000 1.295444e+000 1.169222e+000 1.195504e+000
<GCONST> 3.816177e+001
<STATE> 4
<MEAN> 16
 6.742717e+000 7.993649e+000 8.637089e+000 9.217798e+000 9.428729e+000 9.657406e+000 9.519257e+000 8.963903e+000 8.976035e+000 9.466815e+000 9.848887e+000 9.929283e+000 1.004836e+001 1.003648e+001 9.929475e+000 1.000875e+001
<VARIANCE> 16
 2.418107e+000 2.224874e+000 2.669740e+000 4.123709e+000 4.095874e+000 2.863193e+000 1.979841e+000 1.140077e+000 1.005836e+000 1.388564e+000 1.541638e+000 1.540635e+000 1.561001e+000 1.672399e+000 1.384451e+000 1.548588e+000
<GCONST> 3.968484e+001
<STATE> 5
<MEAN> 16
 7.889241e+000 9.242570e+000 9.978871e+000 1.083948e+001 1.102248e+001 1.099807e+001 1.049414e+001 9.588635e+000 9.494924e+000 1.002866e+001 1.034351e+001 1.039448e+001 1.038743e+001 1.020399e+001 1.001831e+001 9.932941e+000
<VARIANCE> 16
 2.336428e+000 2.095380e+000 2.309319e+000 2.894658e+000 2.850274e+000 2.372792e+000 2.045641e+000 1.564520e+000 1.334388e+000 1.736207e+000 1.991360e+000 1.939623e+000 2.107139e+000 2.111640e+000 1.643257e+000 1.496182e+000
<GCONST> 4.055286e+001
<STATE> 6
<MEAN> 16
 7.962687e+000 9.261954e+000 9.829902e+000 1.046427e+001 1.049759e+001 1.038922e+001 1.002490e+001 9.351811e+000 9.213322e+000 9.651587e+000 1.022796e+001 1.038559e+001 1.053896e+001 1.050971e+001 1.057238e+001 1.053372e+001
<VARIANCE> 16
 3.156739e+000 3.179347e+000 3.281809e+000 3.683727e+000 3.682858e+000 3.069400e+000 2.254979e+000 1.869780e+000 1.938580e+000 2.126870e+000 1.969505e+000 2.982653e+000 2.681339e+000 3.188173e+000 2.584630e+000 2.260234e+000
<GCONST> 4.516671e+001
<STATE> 7
<MEAN> 16
 8.741699e+000 9.896561e+000 1.065499e+001 1.139712e+001 1.138754e+001 1.134192e+001 1.090506e+001 1.006367e+001 9.808499e+000 1.038122e+001 1.103109e+001 1.147760e+001 1.149294e+001 1.112586e+001 1.106684e+001 1.086731e+001
<VARIANCE> 16
 2.661983e+000 3.188201e+000 3.166854e+000 3.078296e+000 3.230098e+000 3.173803e+000 2.445621e+000 2.232914e+000 2.580435e+000 3.199336e+000 2.808065e+000 2.532450e+000 1.920627e+000 2.947708e+000 2.657909e+000 2.343976e+000
<GCONST> 4.548238e+001
<STATE> 8
<MEAN> 16
 8.429333e+000 9.676512e+000 1.008971e+001 1.010372e+001 9.987101e+000 1.019262e+001 1.025317e+001 1.023987e+001 1.032114e+001 1.080392e+001 1.115833e+001 1.136626e+001 1.152543e+001 1.151759e+001 1.138729e+001 1.133839e+001
<VARIANCE> 16
 2.245838e+000 2.728863e+000 2.378585e+000 1.781902e+000 1.432963e+000 1.104042e+000 7.790345e-001 6.846196e-001 6.070539e-001 6.907960e-001 9.891932e-001 1.399586e+000 2.353556e+000 2.967238e+000 3.171626e+000 3.470841e+000
<GCONST> 3.629178e+001
<STATE> 9
<MEAN> 16
 7.156456e+000 8.105087e+000 8.071629e+000 7.933353e+000 7.978438e+000 8.220927e+000 8.382801e+000 8.409442e+000 8.457631e+000 8.744083e+000 8.837748e+000 8.874524e+000 9.042912e+000 9.231362e+000 9.434501e+000 9.542116e+000
<VARIANCE> 16
 2.217855e+000 2.623441e+000 1.554725e+000 1.114140e+000 9.142150e-001 6.316015e-001 3.900071e-001 4.285097e-001 4.132725e-001 5.136755e-001 3.610049e-001 3.831100e-001 4.589017e-001 5.147039e-001 5.193895e-001 6.223994e-001
<GCONST> 2.327775e+001
<TRANSP> 10
 0.000000e+000 1.000000e+000 0.000000e+000 0.000000e+000 0.000000e+000 0.000000e+000 0.000000e+000 0.000000e+000 0.000000e+000 0.000000e+000
 0.000000e+000 9.396521e-001 6.034793e-002 0.000000e+000 0.000000e+000 0.000000e+000 0.000000e+000 0.000000e+000 0.000000e+000 0.000000e+000
 0.000000e+000 0.000000e+000 2.596430e-001 7.403569e-001 0.000000e+000 0.000000e+000 0.000000e+000 0.000000e+000 0.000000e+000 0.000000e+000
 0.000000e+000 0.000000e+000 0.000000e+000 2.942606e-001 7.057394e-001 0.000000e+000 0.000000e+000 0.000000e+000 0.000000e+000 0.000000e+000
 0.000000e+000 0.000000e+000 0.000000e+000 0.000000e+000 9.861076e-002 9.013892e-001 0.000000e+000 0.000000e+000 0.000000e+000 0.000000e+000
 0.000000e+000 0.000000e+000 0.000000e+000 0.000000e+000 0.000000e+000 6.527074e-001 3.472926e-001 0.000000e+000 0.000000e+000 0.000000e+000
 0.000000e+000 0.000000e+000 0.000000e+000 0.000000e+000 0.000000e+000 0.000000e+000 8.648949e-001 1.351051e-001 0.000000e+000 0.000000e+000
 0.000000e+000 0.000000e+000 0.000000e+000 0.000000e+000 0.000000e+000 0.000000e+000 0.000000e+000 9.715233e-001 2.847672e-002 0.000000e+000
 0.000000e+000 0.000000e+000 0.000000e+000 0.000000e+000 0.000000e+000 0.000000e+000 0.000000e+000 0.000000e+000 9.557554e-001 4.424464e-002
 0.000000e+000 0.000000e+000 0.000000e+000 0.000000e+000 0.000000e+000 0.000000e+000 0.000000e+000 0.000000e+000 0.000000e+000 0.000000e+000
<ENDHMM>
~h "pet"
<BEGINHMM>
<NUMSTATES> 10
<STATE> 2
<MEAN> 16
 4.534494e+000 5.890690e+000 6.261098e+000 6.319831e+000 6.373513e+000 6.507533e+000 6.757843e+000 7.088522e+000 7.438447e+000 7.735128e+000 7.952345e+000 8.061284e+000 8.217902e+000 8.453259e+000 8.672174e+000 8.928953e+000
<VARIANCE> 16
 1.891600e+000 1.572907e+000 1.843626e+000 1.568550e+000 9.604676e-001 6.596045e-001 6.297184e-001 7.791598e-001 8.886606e-001 9.591787e-001 8.093255e-001 5.532904e-001 5.530804e-001 5.060667e-001 4.796746e-001 4.428572e-001
<GCONST> 2.660415e+001
<STATE> 3
<MEAN> 16
 5.944245e+000 6.661801e+000 7.176782e+000 7.449131e+000 7.621144e+000 7.839986e+000 8.096616e+000 8.388103e+000 8.540135e+000 8.647367e+000 8.796673e+000 8.931120e+000 9.089037e+000 9.232470e+000 9.344632e+000 9.429440e+000
<VARIANCE> 16
 3.424750e-001 3.739614e-001 4.171337e-001 3.025041e-001 1.955758e-001 1.746659e-001 1.933412e-001 2.349859e-001 2.449610e-001 2.448057e-001 2.097276e-001 1.393907e-001 1.247943e-001 1.226851e-001 1.312300e-001 1.177419e-001
<GCONST> 4.116995e+000
<STATE> 4
<MEAN> 16
 6.670152e+000 7.992245e+000 8.637637e+000 8.561125e+000 8.117579e+000 7.886146e+000 7.989165e+000 8.523607e+000 9.159317e+000 9.536295e+000 9.619524e+000 9.432433e+000 9.354561e+000 9.243948e+000 8.996152e+000 9.116731e+000
<VARIANCE> 16
 2.218880e+000 2.541844e+000 2.923841e+000 2.367325e+000 1.120061e+000 7.250035e-001 7.084797e-001 1.258962e+000 1.652424e+000 1.899435e+000 1.892635e+000 1.211794e+000 8.776804e-001 1.013168e+000 9.453647e-001 7.811994e-001
<GCONST> 3.430141e+001
<STATE> 5
<MEAN> 16
 7.119248e+000 8.571614e+000 9.169500e+000 9.215519e+000 8.851043e+000 8.527575e+000 8.664448e+000 9.260281e+000 9.894546e+000 1.017747e+001 1.025305e+001 1.010158e+001 1.013606e+001 9.936876e+000 9.627623e+000 9.670020e+000
<VARIANCE> 16
 2.055139e+000 2.203188e+000 2.817564e+000 2.133287e+000 1.213568e+000 6.563867e-001 9.395692e-001 1.504862e+000 1.765336e+000 1.893252e+000 1.898392e+000 1.342424e+000 1.077729e+000 1.560739e+000 1.922891e+000 2.047593e+000
<GCONST> 3.686138e+001
<STATE> 6
<MEAN> 16
 7.889388e+000 9.366160e+000 1.002748e+001 1.017785e+001 9.740415e+000 9.264757e+000 9.372056e+000 1.018242e+001 1.089753e+001 1.109563e+001 1.110283e+001 1.082826e+001 1.073369e+001 1.038996e+001 9.968598e+000 9.854630e+000
<VARIANCE> 16
 1.568313e+000 1.703323e+000 1.956204e+000 1.268268e+000 8.382090e-001 4.890581e-001 8.508908e-001 1.172512e+000 1.274844e+000 1.741217e+000 1.823570e+000 1.652428e+000 1.442445e+000 2.313462e+000 2.269433e+000 2.191882e+000
<GCONST> 3.511301e+001
<STATE> 7
<MEAN> 16
 8.455698e+000 9.923047e+000 1.050697e+001 1.071258e+001 9.971156e+000 9.479254e+000 9.501089e+000 1.040972e+001 1.103154e+001 1.130043e+001 1.159982e+001 1.131723e+001 1.113091e+001 1.073812e+001 1.026178e+001 1.009833e+001
<VARIANCE> 16
 1.144423e+000 1.161209e+000 1.364762e+000 7.034852e-001 6.864439e-001 4.985202e-001 6.986138e-001 9.469772e-001 1.208637e+000 1.576785e+000 1.616762e+000 1.861648e+000 1.890751e+000 2.928201e+000 2.641565e+000 1.805391e+000
<GCONST> 3.318447e+001
<STATE> 8
<MEAN> 16
 9.257169e+000 1.068126e+001 1.149429e+001 1.200354e+001 1.155439e+001 1.094432e+001 1.107533e+001 1.190466e+001 1.240348e+001 1.269234e+001 1.261021e+001 1.230453e+001 1.199452e+001 1.162698e+001 1.129918e+001 1.115805e+001
<VARIANCE> 16
 1.165568e+000 6.717913e-001 9.247140e-001 7.884774e-001 1.218783e+000 9.447811e-001 9.029921e-001 1.144475e+000 1.290777e+000 1.437442e+000 1.515161e+000 1.442271e+000 1.510091e+000 2.188614e+000 2.252345e+000 2.844579e+000
<GCONST> 3.347214e+001
<STATE> 9
<MEAN> 16
 6.068403e+000 7.078688e+000 7.666245e+000 8.063396e+000 8.115219e+000 8.120502e+000 8.320477e+000 8.768651e+000 8.938794e+000 8.994762e+000 9.108046e+000 9.114397e+000 9.300069e+000 9.423992e+000 9.561340e+000 9.699474e+000
<VARIANCE> 16
 8.862533e-001 7.817215e-001 7.980796e-001 9.067981e-001 8.116377e-001 6.622372e-001 6.499630e-001 7.345446e-001 7.479222e-001 6.460940e-001 6.173713e-001 7.412275e-001 9.541833e-001 1.075519e+000 1.207842e+000 1.211249e+000
<GCONST> 2.625286e+001
<TRANSP> 10
 0.000000e+000 1.000000e+000 0.000000e+000 0.000000e+000 0.000000e+000 0.000000e+000 0.000000e+000 0.000000e+000 0.000000e+000 0.000000e+000
 0.000000e+000 6.423993e-001 3.576006e-001 0.000000e+000 0.000000e+000 0.000000e+000 0.000000e+000 0.000000e+000 0.000000e+000 0.000000e+000
 0.000000e+000 0.000000e+000 9.177074e-001 8.229264e-002 0.000000e+000 0.000000e+000 0.000000e+000 0.000000e+000 0.000000e+000 0.000000e+000
 0.000000e+000 0.000000e+000 0.000000e+000 2.643338e-001 7.356663e-001 0.000000e+000 0.000000e+000 0.000000e+000 0.000000e+000 0.000000e+000
 0.000000e+000 0.000000e+000 0.000000e+000 0.000000e+000 3.794447e-001 6.205554e-001 0.000000e+000 0.000000e+000 0.000000e+000 0.000000e+000
 0.000000e+000 0.000000e+000 0.000000e+000 0.000000e+000 0.000000e+000 2.526266e-001 7.473733e-001 0.000000e+000 0.000000e+000 0.000000e+000
 0.000000e+000 0.000000e+000 0.000000e+000 0.000000e+000 0.000000e+000 0.000000e+000 5.051689e-001 4.948311e-001 0.000000e+000 0.000000e+000
 0.000000e+000 0.000000e+000 0.000000e+000 0.000000e+000 0.000000e+000 0.000000e+000 0.000000e+000 9.506860e-001 4.931397e-002 0.000000e+000
 0.000000e+000 0.000000e+000 0.000000e+000 0.000000e+000 0.000000e+000 0.000000e+000 0.000000e+000 0.000000e+000 9.626691e-001 3.733094e-002
 0.000000e+000 0.000000e+000 0.000000e+000 0.000000e+000 0.000000e+000 0.000000e+000 0.000000e+000 0.000000e+000 0.000000e+000 0.000000e+000
<ENDHMM>
~h "sil"
<BEGINHMM>
<NUMSTATES> 5
<STATE> 2
<MEAN> 16
 2.358878e+000 3.000247e+000 3.389694e+000 3.796097e+000 4.012764e+000 4.126696e+000 4.217454e+000 4.506454e+000 5.011445e+000 5.450178e+000 5.822085e+000 6.064723e+000 6.171327e+000 6.693587e+000 7.589018e+000 8.232038e+000
<VARIANCE> 16
 6.405806e+000 7.516803e+000 7.621117e+000 7.697819e+000 6.798285e+000 6.103808e+000 5.818703e+000 5.141250e+000 3.800541e+000 2.948540e+000 2.433550e+000 2.030304e+000 2.161749e+000 1.664560e+000 8.933801e-001 6.175973e-001
<GCONST> 4.917600e+001
<STATE> 3
<MEAN> 16
 3.351793e+000 4.198642e+000 4.599524e+000 4.882919e+000 5.162203e+000 5.454759e+000 5.707462e+000 6.013194e+000 6.289482e+000 6.531013e+000 6.805026e+000 7.047277e+000 7.337259e+000 7.702732e+000 8.098676e+000 8.495782e+000
<VARIANCE> 16
 9.050367e-001 1.173491e+000 1.116831e+000 9.690858e-001 8.331519e-001 7.422457e-001 6.561052e-001 6.362023e-001 5.722954e-001 5.029610e-001 4.621384e-001 4.216341e-001 4.295686e-001 4.757529e-001 4.513405e-001 4.930228e-001
<GCONST> 2.221963e+001
<STATE> 4
<MEAN> 16
 5.050413e+000 6.185771e+000 6.596799e+000 6.837734e+000 7.055692e+000 7.320516e+000 7.572855e+000 7.818695e+000 7.996032e+000 8.194052e+000 8.411366e+000 8.614364e+000 8.834741e+000 9.050234e+000 9.292976e+000 9.493830e+000
<VARIANCE> 16
 9.513477e-001 6.475447e-001 5.992169e-001 6.187283e-001 6.062315e-001 5.916556e-001 5.968807e-001 5.736778e-001 4.704574e-001 4.035425e-001 3.622785e-001 3.552866e-001 3.577566e-001 3.434578e-001 3.209188e-001 3.369147e-001
<GCONST> 1.779954e+001
<TRANSP> 5
 0.000000e+000 1.000000e+000 0.000000e+000 0.000000e+000 0.000000e+000
 0.000000e+000 8.902360e-001 1.097640e-001 0.000000e+000 0.000000e+000
 0.000000e+000 0.000000e+000 9.706443e-001 2.935572e-002 0.000000e+000
 0.000000e+000 0.000000e+000 0.000000e+000 9.468209e-001 5.317913e-002
 0.000000e+000 0.000000e+000 0.000000e+000 0.000000e+000 0.000000e+000
<ENDHMM>
~h "tri"
<BEGINHMM>
<NUMSTATES> 10
<STATE> 2
<MEAN> 16
 4.761937e+000 5.932109e+000 6.516605e+000 6.842382e+000 7.066241e+000 7.278193e+000 7.363416e+000 7.674716e+000 8.126902e+000 8.455953e+000 8.860164e+000 9.215054e+000 9.555933e+000 9.794306e+000 1.003068e+001 1.010457e+001
<VARIANCE> 16
 7.007941e-001 9.128392e-001 7.858822e-001 6.667323e-001 6.701700e-001 8.099770e-001 1.105120e+000 9.847647e-001 6.780486e-001 5.868359e-001 5.194075e-001 6.500779e-001 7.482197e-001 7.771133e-001 7.289746e-001 6.060780e-001
<GCONST> 2.442024e+001
<STATE> 3
<MEAN> 16
 5.314722e+000 6.471141e+000 7.173054e+000 7.467205e+000 7.607041e+000 7.792220e+000 8.019193e+000 8.476810e+000 8.717727e+000 9.077473e+000 9.385811e+000 9.518840e+000 9.778804e+000 1.012212e+001 1.021215e+001 1.017779e+001
<VARIANCE> 16
 6.835880e-001 1.001826e+000 1.051356e+000 1.034312e+000 1.072287e+000 1.154457e+000 1.385376e+000 1.211588e+000 1.067810e+000 1.223818e+000 1.226594e+000 1.110121e+000 1.133634e+000 1.402076e+000 1.251151e+000 1.067975e+000
<GCONST> 3.117211e+001
<STATE> 4
<MEAN> 16
 6.034131e+000 7.103230e+000 7.901915e+000 8.210447e+000 8.261368e+000 8.375131e+000 8.605932e+000 9.024569e+000 9.352723e+000 9.544029e+000 9.772511e+000 9.899161e+000 1.018929e+001 1.046028e+001 1.039981e+001 1.023713e+001
<VARIANCE> 16
 8.392215e-001 1.139512e+000 1.466462e+000 1.498662e+000 1.383895e+000 1.473639e+000 1.802694e+000 1.660481e+000 1.521454e+000 1.697788e+000 1.475622e+000 1.597324e+000 1.934486e+000 2.107463e+000 1.692520e+000 1.442041e+000
<GCONST> 3.606181e+001
<STATE> 5
<MEAN> 16
 6.403571e+000 7.463111e+000 8.438377e+000 8.752816e+000 8.792771e+000 8.818784e+000 9.008974e+000 9.569046e+000 9.952445e+000 1.014477e+001 1.055016e+001 1.079571e+001 1.103527e+001 1.120932e+001 1.113605e+001 1.087872e+001
<VARIANCE> 16
 1.060215e+000 1.676289e+000 1.939054e+000 1.921133e+000 1.561120e+000 1.817891e+000 2.042051e+000 1.675269e+000 1.665982e+000 1.900369e+000 1.547908e+000 2.061667e+000 2.570484e+000 2.747147e+000 2.479124e+000 2.178258e+000
<GCONST> 3.952318e+001
<STATE> 6
<MEAN> 16
 6.536203e+000 7.469990e+000 8.365599e+000 8.638832e+000 8.701811e+000 8.778019e+000 9.074888e+000 9.919890e+000 1.025052e+001 1.036293e+001 1.110369e+001 1.166828e+001 1.203531e+001 1.210681e+001 1.194792e+001 1.150700e+001
<VARIANCE> 16
 8.673333e-001 1.665581e+000 2.405107e+000 2.417524e+000 1.972260e+000 2.272363e+000 2.252407e+000 1.300982e+000 1.416936e+000 1.704869e+000 9.842414e-001 1.942996e+000 2.206057e+000 2.297400e+000 2.393351e+000 2.272396e+000
<GCONST> 3.895618e+001
<STATE> 7
<MEAN> 16
 6.789238e+000 7.542984e+000 8.313353e+000 8.660190e+000 8.798851e+000 9.032907e+000 9.490765e+000 1.022649e+001 1.076656e+001 1.118077e+001 1.186375e+001 1.265794e+001 1.341244e+001 1.364011e+001 1.352385e+001 1.332297e+001
<VARIANCE> 16
 5.067555e-001 6.726564e-001 8.991179e-001 8.742983e-001 6.865963e-001 6.817750e-001 7.930142e-001 6.401037e-001 5.812711e-001 7.761735e-001 7.090200e-001 8.899655e-001 1.006596e+000 1.154673e+000 1.434697e+000 2.400214e+000
<GCONST> 2.678255e+001
<STATE> 8
<MEAN> 16
 9.117760e+000 1.051562e+001 1.119881e+001 1.118785e+001 1.036097e+001 9.997187e+000 1.009344e+001 1.097640e+001 1.180035e+001 1.235353e+001 1.241214e+001 1.221813e+001 1.208095e+001 1.178236e+001 1.129738e+001 1.104403e+001
<VARIANCE> 16
 1.527980e+000 1.181840e+000 1.656231e+000 1.410946e+000 9.384727e-001 8.751314e-001 1.171446e+000 1.635240e+000 1.592733e+000 1.346667e+000 1.452081e+000 1.497802e+000 1.562900e+000 2.347332e+000 2.211943e+000 2.703483e+000
<GCONST> 3.592732e+001
<STATE> 9
<MEAN> 16
 6.346327e+000 7.188943e+000 7.560461e+000 7.677441e+000 7.672886e+000 7.786532e+000 7.968000e+000 8.256487e+000 8.590405e+000 8.875421e+000 8.951344e+000 8.941676e+000 9.071560e+000 9.182868e+000 9.266809e+000 9.399526e+000
<VARIANCE> 16
 1.115082e+000 1.002406e+000 8.339149e-001 5.262602e-001 2.661512e-001 2.323713e-001 2.709084e-001 3.027431e-001 2.601373e-001 3.363704e-001 2.689257e-001 2.502032e-001 2.997007e-001 4.203082e-001 4.737756e-001 4.495876e-001
<GCONST> 1.465675e+001
<TRANSP> 10
 0.000000e+000 1.000000e+000 0.000000e+000 0.000000e+000 0.000000e+000 0.000000e+000 0.000000e+000 0.000000e+000 0.000000e+000 0.000000e+000
 0.000000e+000 7.961437e-001 2.038563e-001 0.000000e+000 0.000000e+000 0.000000e+000 0.000000e+000 0.000000e+000 0.000000e+000 0.000000e+000
 0.000000e+000 0.000000e+000 5.497285e-001 4.502715e-001 0.000000e+000 0.000000e+000 0.000000e+000 0.000000e+000 0.000000e+000 0.000000e+000
 0.000000e+000 0.000000e+000 0.000000e+000 1.430626e-001 8.569375e-001 0.000000e+000 0.000000e+000 0.000000e+000 0.000000e+000 0.000000e+000
 0.000000e+000 0.000000e+000 0.000000e+000 0.000000e+000 1.782698e-001 8.217302e-001 0.000000e+000 0.000000e+000 0.000000e+000 0.000000e+000
 0.000000e+000 0.000000e+000 0.000000e+000 0.000000e+000 0.000000e+000 2.938345e-001 7.061656e-001 0.000000e+000 0.000000e+000 0.000000e+000
 0.000000e+000 0.000000e+000 0.000000e+000 0.000000e+000 0.000000e+000 0.000000e+000 8.889910e-001 1.110090e-001 0.000000e+000 0.000000e+000
 0.000000e+000 0.000000e+000 0.000000e+000 0.000000e+000 0.000000e+000 0.000000e+000 0.000000e+000 9.546332e-001 4.536672e-002 0.000000e+000
 0.000000e+000 0.000000e+000 0.000000e+000 0.000000e+000 0.000000e+000 0.000000e+000 0.000000e+000 0.000000e+000 9.609700e-001 3.902999e-002
 0.000000e+000 0.000000e+000 0.000000e+000 0.000000e+000 0.000000e+000 0.000000e+000 0.000000e+000 0.000000e+000 0.000000e+000 0.000000e+000
<ENDHMM>
~h "nula"
<BEGINHMM>
<NUMSTATES> 10
<STATE> 2
<MEAN> 16
 3.629904e+000 4.478655e+000 4.441974e+000 4.509614e+000 4.679861e+000 4.788060e+000 4.821957e+000 5.136539e+000 5.603989e+000 6.063118e+000 6.339010e+000 6.473904e+000 6.608049e+000 7.056836e+000 7.859613e+000 8.425964e+000
<VARIANCE> 16
 8.465857e+000 1.106634e+001 9.708928e+000 8.505032e+000 6.730641e+000 6.376917e+000 6.662590e+000 6.193095e+000 4.551212e+000 3.797411e+000 3.068340e+000 2.409220e+000 2.604568e+000 1.981574e+000 1.093616e+000 6.618977e-001
<GCONST> 5.200714e+001
<STATE> 3
<MEAN> 16
 7.161949e+000 8.450272e+000 8.677239e+000 8.701461e+000 8.776187e+000 8.665567e+000 8.284492e+000 7.547177e+000 7.239816e+000 7.291738e+000 7.713249e+000 7.465331e+000 7.318661e+000 7.537193e+000 7.974320e+000 8.433470e+000
<VARIANCE> 16
 1.275413e+000 9.394948e-001 8.798639e-001 7.985396e-001 9.396305e-001 1.087047e+000 8.969551e-001 7.995498e-001 9.050213e-001 1.173277e+000 8.337986e-001 6.799539e-001 7.374062e-001 6.792268e-001 5.916367e-001 4.426435e-001
<GCONST> 2.638391e+001
<STATE> 4
<MEAN> 16
 7.116155e+000 8.458063e+000 8.817598e+000 8.929762e+000 8.669088e+000 8.496460e+000 8.414505e+000 8.316225e+000 8.446177e+000 8.772367e+000 8.912719e+000 8.720504e+000 8.799087e+000 8.962038e+000 9.230712e+000 9.474702e+000
<VARIANCE> 16
 3.105414e+000 2.153892e+000 1.497188e+000 1.311465e+000 1.258378e+000 1.272811e+000 6.069657e-001 4.805152e-001 9.208459e-001 1.143961e+000 8.790364e-001 1.092982e+000 1.273750e+000 1.349521e+000 1.341513e+000 1.143206e+000
<GCONST> 3.220142e+001
<STATE> 5
<MEAN> 16
 8.475924e+000 9.688569e+000 9.698087e+000 9.581874e+000 9.286127e+000 9.265141e+000 9.128576e+000 8.798466e+000 8.801930e+000 9.248483e+000 9.348809e+000 8.958839e+000 8.884992e+000 8.906596e+000 9.083632e+000 9.332011e+000
<VARIANCE> 16
 2.224889e+000 1.925133e+000 1.740268e+000 1.536904e+000 1.401793e+000 1.430778e+000 9.144601e-001 8.068417e-001 1.339465e+000 1.839621e+000 1.439512e+000 1.204285e+000 1.436834e+000 1.442182e+000 1.391067e+000 1.210773e+000
<GCONST> 3.493842e+001
<STATE> 6
<MEAN> 16
 8.916244e+000 1.014764e+001 1.031172e+001 1.011846e+001 9.739150e+000 9.757327e+000 9.589210e+000 9.290956e+000 9.252101e+000 9.704747e+000 9.798909e+000 9.409370e+000 9.287044e+000 9.097271e+000 9.235991e+000 9.492002e+000
<VARIANCE> 16
 1.966097e+000 1.538842e+000 1.416516e+000 9.884802e-001 1.012443e+000 1.095230e+000 8.445070e-001 8.878444e-001 1.553224e+000 2.197656e+000 1.606818e+000 1.141711e+000 1.427933e+000 1.597441e+000 1.350341e+000 1.347735e+000
<GCONST> 3.392302e+001
<STATE> 7
<MEAN> 16
 9.187901e+000 1.042391e+001 1.082646e+001 1.061927e+001 1.005114e+001 1.013295e+001 9.906604e+000 9.637152e+000 9.773924e+000 1.021362e+001 1.025444e+001 9.909553e+000 9.592945e+000 9.469007e+000 9.435657e+000 9.575719e+000
<VARIANCE> 16
 1.557752e+000 1.043131e+000 1.035325e+000 7.359443e-001 7.854592e-001 8.562165e-001 7.091289e-001 7.330137e-001 1.173367e+000 1.569131e+000 1.168754e+000 8.026897e-001 1.058080e+000 1.250625e+000 1.080274e+000 1.243433e+000
<GCONST> 2.969033e+001
<STATE> 8
<MEAN> 16
 9.344671e+000 1.082641e+001 1.124947e+001 1.179189e+001 1.190224e+001 1.198692e+001 1.179051e+001 1.130730e+001 1.094023e+001 1.119114e+001 1.148727e+001 1.143844e+001 1.120784e+001 1.084447e+001 1.059026e+001 1.057953e+001
<VARIANCE> 16
 1.349789e+000 6.586152e-001 1.068416e+000 9.771978e-001 1.146917e+000 1.094139e+000 1.192951e+000 1.103083e+000 1.001447e+000 1.356419e+000 1.472714e+000 1.397612e+000 1.359003e+000 1.655794e+000 1.371866e+000 1.934898e+000
<GCONST> 3.264848e+001
<STATE> 9
<MEAN> 16
 6.351812e+000 7.209791e+000 7.483345e+000 7.776042e+000 8.092020e+000 8.406137e+000 8.601042e+000 8.632254e+000 8.507656e+000 8.611303e+000 8.753214e+000 8.886439e+000 9.060473e+000 9.181117e+000 9.323824e+000 9.428631e+000
<VARIANCE> 16
 1.187128e+000 1.095283e+000 5.821102e-001 6.234931e-001 7.527055e-001 7.727047e-001 6.245281e-001 3.504950e-001 2.557991e-001 2.746972e-001 2.802684e-001 3.154896e-001 3.733627e-001 4.183700e-001 4.482039e-001 4.894709e-001
<GCONST> 1.813935e+001
<TRANSP> 10
 0.000000e+000 1.000000e+000 0.000000e+000 0.000000e+000 0.000000e+000 0.000000e+000 0.000000e+000 0.000000e+000 0.000000e+000 0.000000e+000
 0.000000e+000 5.749615e-001 4.250384e-001 0.000000e+000 0.000000e+000 0.000000e+000 0.000000e+000 0.000000e+000 0.000000e+000 0.000000e+000
 0.000000e+000 0.000000e+000 7.995085e-001 2.004915e-001 0.000000e+000 0.000000e+000 0.000000e+000 0.000000e+000 0.000000e+000 0.000000e+000
 0.000000e+000 0.000000e+000 0.000000e+000 4.608864e-001 5.391136e-001 0.000000e+000 0.000000e+000 0.000000e+000 0.000000e+000 0.000000e+000
 0.000000e+000 0.000000e+000 0.000000e+000 0.000000e+000 2.293984e-001 7.706016e-001 0.000000e+000 0.000000e+000 0.000000e+000 0.000000e+000
 0.000000e+000 0.000000e+000 0.000000e+000 0.000000e+000 0.000000e+000 2.963998e-001 7.036002e-001 0.000000e+000 0.000000e+000 0.000000e+000
 0.000000e+000 0.000000e+000 0.000000e+000 0.000000e+000 0.000000e+000 0.000000e+000 6.651719e-001 3.348280e-001 0.000000e+000 0.000000e+000
 0.000000e+000 0.000000e+000 0.000000e+000 0.000000e+000 0.000000e+000 0.000000e+000 0.000000e+000 9.700495e-001 2.995048e-002 0.000000e+000
 0.000000e+000 0.000000e+000 0.000000e+000 0.000000e+000 0.000000e+000 0.000000e+000 0.000000e+000 0.000000e+000 9.563901e-001 4.360991e-002
 0.000000e+000 0.000000e+000 0.000000e+000 0.000000e+000 0.000000e+000 0.000000e+000 0.000000e+000 0.000000e+000 0.000000e+000 0.000000e+000
<ENDHMM>
~h "devet"
<BEGINHMM>
<NUMSTATES> 10
<STATE> 2
<MEAN> 16
 7.250406e+000 8.130118e+000 8.131108e+000 7.705833e+000 7.322400e+000 6.994001e+000 6.888467e+000 7.204834e+000 7.693854e+000 7.844017e+000 8.033813e+000 7.823775e+000 7.998880e+000 8.324644e+000 8.478754e+000 8.786562e+000
<VARIANCE> 16
 2.042935e+000 1.328098e+000 1.463853e+000 1.909881e+000 1.840246e+000 1.374071e+000 9.605146e-001 9.208447e-001 1.186583e+000 9.349050e-001 8.264753e-001 6.699883e-001 7.701070e-001 7.351151e-001 6.843662e-001 7.692426e-001
<GCONST> 3.053933e+001
<STATE> 3
<MEAN> 16
 7.282657e+000 8.413137e+000 8.612949e+000 8.379368e+000 7.952596e+000 7.524073e+000 7.382426e+000 7.747407e+000 8.251267e+000 8.326224e+000 8.458495e+000 8.198339e+000 8.386089e+000 8.473997e+000 8.466890e+000 8.760309e+000
<VARIANCE> 16
 1.271051e+000 1.297638e+000 1.367153e+000 1.244530e+000 1.354790e+000 1.088135e+000 8.388525e-001 8.683380e-001 1.081866e+000 9.898732e-001 9.940219e-001 9.478963e-001 1.098678e+000 1.110087e+000 1.007675e+000 8.548504e-001
<GCONST> 3.056750e+001
<STATE> 4
<MEAN> 16
 7.359623e+000 8.704713e+000 8.754882e+000 8.444934e+000 8.106637e+000 7.762503e+000 7.762088e+000 8.157818e+000 8.479917e+000 8.649698e+000 8.819608e+000 8.753390e+000 8.959943e+000 9.171641e+000 9.172175e+000 9.329959e+000
<VARIANCE> 16
 1.937756e+000 1.576116e+000 1.721498e+000 1.486946e+000 1.331435e+000 8.999744e-001 7.889279e-001 8.934509e-001 9.543030e-001 1.138489e+000 1.178585e+000 1.012201e+000 1.058226e+000 1.137442e+000 1.294992e+000 1.419782e+000
<GCONST> 3.234732e+001
<STATE> 5
<MEAN> 16
 8.405676e+000 9.626744e+000 9.908718e+000 9.483377e+000 8.845853e+000 8.497907e+000 8.504634e+000 8.984223e+000 9.164606e+000 9.243148e+000 9.320130e+000 9.222545e+000 9.184386e+000 9.044658e+000 9.020636e+000 9.250600e+000
<VARIANCE> 16
 1.167042e+000 1.477279e+000 1.336597e+000 1.156130e+000 7.689529e-001 5.246558e-001 5.308539e-001 9.439546e-001 9.059590e-001 9.340590e-001 1.023310e+000 9.679523e-001 1.036057e+000 1.378259e+000 1.291597e+000 9.782241e-001
<GCONST> 2.920083e+001
<STATE> 6
<MEAN> 16
 8.310416e+000 9.487226e+000 9.804189e+000 9.598394e+000 9.066866e+000 8.760285e+000 8.854465e+000 9.461922e+000 9.797863e+000 9.889925e+000 9.958885e+000 9.982761e+000 1.000428e+001 9.878321e+000 9.724941e+000 9.745940e+000
<VARIANCE> 16
 1.596725e+000 1.854303e+000 1.940840e+000 1.854774e+000 1.347575e+000 1.265710e+000 1.611513e+000 2.185705e+000 2.196226e+000 2.412224e+000 2.508660e+000 2.679021e+000 2.519832e+000 2.542089e+000 2.379392e+000 1.988622e+000
<GCONST> 4.054939e+001
<STATE> 7
<MEAN> 16
 8.602692e+000 9.930776e+000 1.037584e+001 1.004133e+001 9.445675e+000 9.165906e+000 9.307139e+000 9.873433e+000 1.040785e+001 1.055305e+001 1.065081e+001 1.049220e+001 1.046807e+001 1.005466e+001 9.753654e+000 9.821064e+000
<VARIANCE> 16
 1.169055e+000 1.440536e+000 1.561950e+000 1.540927e+000 8.843530e-001 6.856461e-001 8.627276e-001 1.200086e+000 1.301908e+000 1.316667e+000 1.405832e+000 1.355132e+000 1.437729e+000 2.051353e+000 2.095729e+000 1.804467e+000
<GCONST> 3.393520e+001
<STATE> 8
<MEAN> 16
 9.219642e+000 1.064089e+001 1.148144e+001 1.180126e+001 1.108938e+001 1.057004e+001 1.079746e+001 1.171549e+001 1.210102e+001 1.227652e+001 1.217687e+001 1.193554e+001 1.167028e+001 1.128049e+001 1.095882e+001 1.077414e+001
<VARIANCE> 16
 1.007430e+000 4.929547e-001 8.974594e-001 8.982037e-001 1.080365e+000 8.667154e-001 1.002719e+000 1.256415e+000 1.154219e+000 1.152205e+000 1.196240e+000 1.225364e+000 1.249075e+000 1.987684e+000 1.833080e+000 2.371318e+000
<GCONST> 3.170212e+001
<STATE> 9
<MEAN> 16
 6.168237e+000 7.226070e+000 7.776275e+000 8.121015e+000 8.112772e+000 8.120659e+000 8.267294e+000 8.768991e+000 8.987202e+000 9.047745e+000 9.155328e+000 9.169534e+000 9.376812e+000 9.539223e+000 9.681297e+000 9.813839e+000
<VARIANCE> 16
 1.178644e+000 9.405035e-001 9.386708e-001 9.744361e-001 8.416287e-001 6.648106e-001 6.812338e-001 7.571139e-001 7.198623e-001 6.191161e-001 6.091470e-001 7.817772e-001 1.007530e+000 1.206668e+000 1.316998e+000 1.332418e+000
<GCONST> 2.738479e+001
<TRANSP> 10
 0.000000e+000 1.000000e+000 0.000000e+000 0.000000e+000 0.000000e+000 0.000000e+000 0.000000e+000 0.000000e+000 0.000000e+000 0.000000e+000
 0.000000e+000 5.852717e-001 4.147284e-001 0.000000e+000 0.000000e+000 0.000000e+000 0.000000e+000 0.000000e+000 0.000000e+000 0.000000e+000
 0.000000e+000 0.000000e+000 4.763663e-001 5.236338e-001 0.000000e+000 0.000000e+000 0.000000e+000 0.000000e+000 0.000000e+000 0.000000e+000
 0.000000e+000 0.000000e+000 0.000000e+000 4.609138e-001 5.390862e-001 0.000000e+000 0.000000e+000 0.000000e+000 0.000000e+000 0.000000e+000
 0.000000e+000 0.000000e+000 0.000000e+000 0.000000e+000 5.933248e-001 4.066752e-001 0.000000e+000 0.000000e+000 0.000000e+000 0.000000e+000
 0.000000e+000 0.000000e+000 0.000000e+000 0.000000e+000 0.000000e+000 4.158871e-002 9.584113e-001 0.000000e+000 0.000000e+000 0.000000e+000
 0.000000e+000 0.000000e+000 0.000000e+000 0.000000e+000 0.000000e+000 0.000000e+000 4.735063e-001 5.264937e-001 0.000000e+000 0.000000e+000
 0.000000e+000 0.000000e+000 0.000000e+000 0.000000e+000 0.000000e+000 0.000000e+000 0.000000e+000 9.690719e-001 3.092814e-002 0.000000e+000
 0.000000e+000 0.000000e+000 0.000000e+000 0.000000e+000 0.000000e+000 0.000000e+000 0.000000e+000 0.000000e+000 9.562512e-001 4.374881e-002
 0.000000e+000 0.000000e+000 0.000000e+000 0.000000e+000 0.000000e+000 0.000000e+000 0.000000e+000 0.000000e+000 0.000000e+000 0.000000e+000
<ENDHMM>
~h "jedna"
<BEGINHMM>
<NUMSTATES> 10
<STATE> 2
<MEAN> 16
 6.560350e+000 7.502402e+000 7.842068e+000 7.802770e+000 7.585240e+000 7.460585e+000 7.421566e+000 7.697241e+000 8.126848e+000 8.454075e+000 8.661788e+000 8.720655e+000 8.699653e+000 8.627246e+000 8.683696e+000 8.966325e+000
<VARIANCE> 16
 1.043808e+000 1.332139e+000 1.230319e+000 7.711248e-001 5.811353e-001 7.271276e-001 1.105824e+000 1.355669e+000 1.049457e+000 8.974877e-001 8.671032e-001 8.987716e-001 9.073235e-001 1.029372e+000 9.196464e-001 6.507153e-001
<GCONST> 2.833556e+001
<STATE> 3
<MEAN> 16
 6.389011e+000 7.439408e+000 7.703684e+000 7.713612e+000 7.629370e+000 7.641056e+000 7.742612e+000 8.041579e+000 8.452301e+000 8.824764e+000 9.155559e+000 9.309890e+000 9.420043e+000 9.409556e+000 9.474505e+000 9.577639e+000
<VARIANCE> 16
 1.414828e+000 1.855983e+000 1.412157e+000 7.001225e-001 3.953684e-001 4.035254e-001 5.979055e-001 6.550053e-001 4.506602e-001 5.887051e-001 6.411602e-001 6.478843e-001 6.260190e-001 7.726483e-001 8.151214e-001 7.309639e-001
<GCONST> 2.413768e+001
<STATE> 4
<MEAN> 16
 7.075792e+000 8.255412e+000 8.358740e+000 8.167808e+000 7.830741e+000 7.723220e+000 7.771306e+000 8.095592e+000 8.697867e+000 9.133346e+000 9.459543e+000 9.546002e+000 9.577641e+000 9.357656e+000 9.309476e+000 9.604832e+000
<VARIANCE> 16
 2.268086e+000 2.389744e+000 2.227966e+000 1.442370e+000 7.905075e-001 6.369519e-001 7.240542e-001 8.700486e-001 8.835210e-001 1.045916e+000 1.197743e+000 1.489470e+000 1.336359e+000 1.519396e+000 1.409469e+000 1.176388e+000
<GCONST> 3.282913e+001
<STATE> 5
<MEAN> 16
 7.762336e+000 9.111552e+000 9.175950e+000 8.829408e+000 8.245402e+000 8.021760e+000 8.030892e+000 8.388815e+000 9.109888e+000 9.651182e+000 1.011565e+001 1.019758e+001 1.013897e+001 9.753752e+000 9.573023e+000 9.773162e+000
<VARIANCE> 16
 2.205966e+000 2.217447e+000 2.283347e+000 1.427179e+000 7.671689e-001 5.727343e-001 4.684109e-001 6.382995e-001 8.894713e-001 1.096907e+000 1.279409e+000 1.509434e+000 1.340745e+000 1.497392e+000 1.288921e+000 1.253283e+000
<GCONST> 3.195518e+001
<STATE> 6
<MEAN> 16
 8.656817e+000 9.977230e+000 1.017494e+001 9.714634e+000 8.756815e+000 8.138799e+000 8.147978e+000 8.672194e+000 9.445899e+000 9.938601e+000 1.032399e+001 1.048032e+001 1.037008e+001 9.891397e+000 9.702602e+000 9.677359e+000
<VARIANCE> 16
 1.199335e+000 8.593238e-001 1.255777e+000 1.094657e+000 1.068876e+000 9.150518e-001 8.490238e-001 1.300843e+000 1.972692e+000 2.106630e+000 2.408442e+000 2.246602e+000 1.942217e+000 1.573300e+000 1.267531e+000 1.326558e+000
<GCONST> 3.458112e+001
<STATE> 7
<MEAN> 16
 8.792510e+000 1.013025e+001 1.049527e+001 1.003744e+001 9.167565e+000 8.684622e+000 8.761923e+000 9.468261e+000 1.013627e+001 1.081228e+001 1.099171e+001 1.096784e+001 1.079675e+001 1.050587e+001 1.025588e+001 1.011321e+001
<VARIANCE> 16
 1.157635e+000 9.329261e-001 1.313986e+000 1.384462e+000 1.208162e+000 1.053835e+000 9.255140e-001 1.301010e+000 1.818941e+000 1.831078e+000 2.110521e+000 2.097751e+000 2.116540e+000 2.199662e+000 1.791521e+000 1.755798e+000
<GCONST> 3.588367e+001
<STATE> 8
<MEAN> 16
 9.254185e+000 1.068671e+001 1.102370e+001 1.120490e+001 1.100350e+001 1.085413e+001 1.106227e+001 1.138361e+001 1.138552e+001 1.147446e+001 1.151694e+001 1.139653e+001 1.113795e+001 1.082837e+001 1.058748e+001 1.050053e+001
<VARIANCE> 16
 1.133111e+000 6.861950e-001 1.036210e+000 1.175321e+000 1.632461e+000 1.818919e+000 2.073860e+000 1.680357e+000 1.508649e+000 1.783360e+000 2.046213e+000 1.968584e+000 1.924225e+000 2.101224e+000 1.952828e+000 2.314331e+000
<GCONST> 3.697673e+001
<STATE> 9
<MEAN> 16
 6.872733e+000 7.742130e+000 7.781475e+000 7.997317e+000 8.341107e+000 8.617968e+000 8.849133e+000 8.895670e+000 8.628961e+000 8.668276e+000 8.816035e+000 8.896747e+000 8.967870e+000 9.090753e+000 9.233532e+000 9.393616e+000
<VARIANCE> 16
 1.733033e+000 1.388510e+000 8.531668e-001 9.270396e-001 1.054469e+000 8.539799e-001 7.737097e-001 5.747958e-001 3.933613e-001 5.321332e-001 4.796724e-001 5.572273e-001 6.169238e-001 7.134640e-001 7.107757e-001 6.912205e-001
<GCONST> 2.471982e+001
<TRANSP> 10
 0.000000e+000 1.000000e+000 0.000000e+000 0.000000e+000 0.000000e+000 0.000000e+000 0.000000e+000 0.000000e+000 0.000000e+000 0.000000e+000
 0.000000e+000 7.418772e-001 2.581229e-001 0.000000e+000 0.000000e+000 0.000000e+000 0.000000e+000 0.000000e+000 0.000000e+000 0.000000e+000
 0.000000e+000 0.000000e+000 5.715110e-001 4.284890e-001 0.000000e+000 0.000000e+000 0.000000e+000 0.000000e+000 0.000000e+000 0.000000e+000
 0.000000e+000 0.000000e+000 0.000000e+000 4.324365e-001 5.675635e-001 0.000000e+000 0.000000e+000 0.000000e+000 0.000000e+000 0.000000e+000
 0.000000e+000 0.000000e+000 0.000000e+000 0.000000e+000 1.803968e-001 8.196033e-001 0.000000e+000 0.000000e+000 0.000000e+000 0.000000e+000
 0.000000e+000 0.000000e+000 0.000000e+000 0.000000e+000 0.000000e+000 4.484717e-001 5.515283e-001 0.000000e+000 0.000000e+000 0.000000e+000
 0.000000e+000 0.000000e+000 0.000000e+000 0.000000e+000 0.000000e+000 0.000000e+000 8.326612e-001 1.673388e-001 0.000000e+000 0.000000e+000
 0.000000e+000 0.000000e+000 0.000000e+000 0.000000e+000 0.000000e+000 0.000000e+000 0.000000e+000 9.733423e-001 2.665770e-002 0.000000e+000
 0.000000e+000 0.000000e+000 0.000000e+000 0.000000e+000 0.000000e+000 0.000000e+000 0.000000e+000 0.000000e+000 9.329591e-001 6.704086e-002
 0.000000e+000 0.000000e+000 0.000000e+000 0.000000e+000 0.000000e+000 0.000000e+000 0.000000e+000 0.000000e+000 0.000000e+000 0.000000e+000
<ENDHMM>
