~o
<STREAMINFO> 1 39
<VECSIZE> 39<NULLD><MFCC_D_A_0><DIAGC>
~h "mj"
<BEGINHMM>
<NUMSTATES> 3
<STATE> 2
<NUMMIXES> 32
<MIXTURE> 1 2.195362e-002
<MEAN> 39
 -1.099120e+001 5.473580e+000 4.235129e+000 -6.443644e+000 -6.763949e+000 -1.274235e+001 -9.075602e+000 -7.468599e+000 6.679883e-001 2.458524e+000 -9.635000e-001 -2.276082e+000 6.933281e+001 -3.708952e+000 8.158329e-001 -7.606205e-001 1.807263e+000 1.697499e+000 -7.380947e-001 3.506463e+000 -2.505544e-001 2.132832e+000 -1.418360e+000 8.460770e-001 6.913069e-001 -3.456383e-002 -4.847360e-001 -6.740645e-001 -3.773877e-001 -3.107001e-001 -1.803841e-001 3.634098e-001 -1.715926e-001 5.333614e-001 -2.278420e-001 1.309047e-001 1.171518e-001 -4.539443e-002 3.097073e-001
<VARIANCE> 39
 1.547455e+001 2.163937e+001 6.388980e+001 3.031249e+001 5.659664e+001 5.315038e+001 6.435419e+001 3.135350e+001 4.489325e+001 2.938820e+001 2.765810e+001 2.538137e+001 8.537600e+000 1.618733e+000 3.166704e+000 4.003363e+000 2.824806e+000 4.541686e+000 4.352059e+000 3.532456e+000 4.128362e+000 3.218999e+000 2.827172e+000 3.592121e+000 3.715188e+000 6.006699e-001 2.599598e-001 2.453763e-001 2.585204e-001 4.077138e-001 4.241406e-001 5.087792e-001 8.099352e-001 4.612811e-001 5.653567e-001 4.241831e-001 5.192571e-001 3.378619e-001 6.353787e-002
<GCONST> 1.171306e+002
<MIXTURE> 2 3.177639e-002
<MEAN> 39
 5.528316e-001 4.113716e+000 -4.616242e+000 -1.326685e+001 -8.531172e+000 -2.072051e+000 -1.339223e+001 -3.777838e+000 -7.070681e+000 -2.264262e-001 3.447433e-001 -3.811175e+000 6.389185e+001 -6.364891e-002 2.164677e-001 2.360513e-001 2.636541e-001 1.262374e-001 -7.638801e-002 1.029144e-001 4.568160e-001 -8.503684e-002 -2.833349e-001 -4.664625e-002 -4.375950e-001 -3.619698e-001 -1.690791e-001 -3.257889e-001 2.139397e-002 2.207702e-001 2.377784e-002 9.436609e-003 -9.986032e-002 -1.497096e-001 2.592826e-001 3.431246e-001 7.958152e-002 -5.372358e-002 1.610221e-001
<VARIANCE> 39
 6.986611e+000 1.025107e+001 2.580102e+001 5.377404e+001 2.282593e+001 3.504768e+001 2.757952e+001 3.825085e+001 4.113196e+001 4.043240e+001 3.122771e+001 3.167304e+001 2.042248e+001 5.109418e-001 8.949899e-001 8.515504e-001 2.404275e+000 1.842114e+000 1.538263e+000 2.260981e+000 2.734739e+000 2.063308e+000 2.170367e+000 1.922090e+000 2.234819e+000 5.236493e-001 9.300441e-002 9.305772e-002 1.528088e-001 3.833135e-001 2.768210e-001 2.666226e-001 3.357028e-001 4.486587e-001 3.839597e-001 3.893864e-001 3.252043e-001 3.702594e-001 8.660953e-002
<GCONST> 1.007168e+002
<MIXTURE> 3 1.677590e-002
<MEAN> 39
 -5.934084e+000 -2.913882e+000 7.285625e+000 -9.454235e+000 -1.346575e+001 -1.710301e+001 -1.772051e+001 5.567358e-001 -5.735282e+000 4.972724e+000 -2.795607e+000 -2.107435e+000 7.236630e+001 -5.064924e-001 2.216453e+000 -5.668741e-001 1.549159e+000 1.309881e+000 -3.703555e-002 1.837277e+000 -1.544984e+000 1.674532e+000 -1.027571e+000 -8.428846e-002 6.687634e-002 -1.729587e+000 -5.362206e-001 2.912863e-001 -5.650757e-001 3.762423e-001 3.733491e-001 4.328598e-001 1.023069e+000 -2.823847e-001 6.936719e-001 -4.020669e-001 3.309250e-001 -6.139281e-002 -3.919362e-001
<VARIANCE> 39
 9.242765e+000 3.075610e+001 2.738120e+001 2.343501e+001 3.140914e+001 4.537817e+001 4.285404e+001 3.418874e+001 5.265784e+001 3.105382e+001 4.244291e+001 4.237475e+001 8.842282e+000 1.648745e+000 1.469917e+000 2.408389e+000 1.439205e+000 2.227536e+000 2.451678e+000 3.735221e+000 2.447385e+000 3.001773e+000 2.500684e+000 1.982780e+000 2.887590e+000 1.321856e+000 4.812072e-001 4.857185e-001 4.600529e-001 4.508136e-001 5.389820e-001 5.683011e-001 7.064373e-001 6.900148e-001 7.429642e-001 5.130041e-001 5.350536e-001 5.660427e-001 2.793845e-001
<GCONST> 1.171327e+002
<MIXTURE> 4 2.039118e-002
<MEAN> 39
 -3.181081e+000 -4.266502e+000 -5.626808e+000 -1.844967e+001 -4.702608e+000 -1.555874e+000 -2.236097e+001 -3.854407e+000 4.394063e-001 1.138280e+001 -4.350588e+000 -4.546794e+000 7.424201e+001 -3.048721e-001 1.537143e+000 6.411241e-001 1.083892e+000 4.289427e-001 -6.308410e-001 9.295471e-001 -2.967011e-001 -2.256717e-001 -5.281524e-001 6.171454e-001 2.146511e-001 -1.150533e+000 -4.423105e-001 3.272725e-001 -6.210811e-003 9.851218e-001 -9.341522e-002 -4.463686e-001 1.174948e+000 -1.845018e-001 3.718862e-001 -7.858131e-001 4.339414e-001 1.253307e-002 -6.709137e-001
<VARIANCE> 39
 6.153042e+000 2.532590e+001 3.297277e+001 2.920182e+001 4.561298e+001 7.121189e+001 6.993353e+001 4.260950e+001 3.929856e+001 2.976217e+001 6.187439e+001 2.799721e+001 9.386259e+000 1.560924e+000 1.931450e+000 1.335733e+000 2.861379e+000 2.828294e+000 4.047745e+000 3.700318e+000 3.407592e+000 3.446540e+000 2.768533e+000 3.163955e+000 2.302235e+000 1.401385e+000 3.273411e-001 3.305175e-001 2.878808e-001 3.721398e-001 6.433733e-001 8.827876e-001 8.548411e-001 6.384670e-001 6.171811e-001 3.501948e-001 6.726711e-001 4.387548e-001 3.311815e-001
<GCONST> 1.189517e+002
<MIXTURE> 5 1.889042e-002
<MEAN> 39
 -1.046732e+001 -4.196471e+000 -9.798285e+000 -7.561867e+000 -7.850879e+000 -5.525546e+000 -5.667457e+000 -2.423464e+000 -4.619672e-001 -2.821708e-002 -4.079320e-001 -8.345340e-001 5.004429e+001 -7.181403e-003 -7.983267e-003 8.454467e-002 1.231631e-001 9.299327e-002 8.224366e-002 1.828087e-001 3.271296e-001 2.621869e-001 2.445203e-001 1.254293e-001 2.235110e-002 -4.254381e-003 6.263870e-002 1.698627e-001 2.423041e-001 2.653912e-001 2.365744e-001 1.952190e-001 2.135318e-001 2.362564e-001 1.994133e-002 -8.632205e-002 -1.753007e-001 -1.357083e-001 9.192773e-002
<VARIANCE> 39
 2.070626e+000 3.186920e+000 4.860550e+000 4.981957e+000 7.253242e+000 9.290514e+000 1.000963e+001 1.146245e+001 1.271441e+001 1.031022e+001 1.051018e+001 9.556637e+000 1.100881e+000 1.711462e-001 3.122844e-001 4.921074e-001 7.357023e-001 7.800354e-001 1.123955e+000 1.089771e+000 1.397989e+000 1.352197e+000 1.317460e+000 1.248426e+000 1.255185e+000 6.956357e-002 5.206642e-002 8.112118e-002 8.851764e-002 1.246646e-001 1.351728e-001 2.073669e-001 2.361688e-001 2.346916e-001 2.893569e-001 2.410819e-001 2.421469e-001 2.143380e-001 2.636833e-002
<GCONST> 6.429358e+001
<MIXTURE> 6 3.682917e-002
<MEAN> 39
 3.691880e-001 -6.700166e-001 -6.826122e+000 -1.897145e+001 -9.075698e+000 2.535865e+000 -1.579849e+001 -8.788389e+000 -6.499413e+000 6.681668e+000 8.788204e-001 6.164405e-001 7.052517e+001 4.105724e-001 1.295571e-001 4.408617e-002 -1.249720e+000 -6.757274e-002 8.934616e-001 -1.086327e+000 2.040205e-001 -5.402709e-002 5.256919e-001 1.110784e-001 5.535888e-002 4.615613e-001 -4.388032e-001 -1.720435e-001 1.708071e-001 7.789958e-001 3.478407e-001 -5.523621e-001 8.766794e-002 2.931976e-001 5.230711e-001 -1.528227e-001 2.415150e-003 -5.342977e-001 -2.586658e-001
<VARIANCE> 39
 5.502425e+000 1.652586e+001 1.821492e+001 3.612941e+001 3.731426e+001 3.136557e+001 3.725307e+001 3.281538e+001 4.776024e+001 5.972597e+001 3.070622e+001 2.726323e+001 1.014745e+001 1.498911e+000 2.386060e+000 2.192430e+000 5.010226e+000 4.135915e+000 3.701637e+000 4.718957e+000 3.703241e+000 4.636300e+000 4.090313e+000 2.815040e+000 3.561599e+000 1.386416e+000 2.672051e-001 2.766382e-001 3.845212e-001 5.314673e-001 5.844218e-001 5.040542e-001 6.720204e-001 5.221488e-001 7.613009e-001 6.209873e-001 4.516692e-001 4.184093e-001 1.691868e-001
<GCONST> 1.180340e+002
<MIXTURE> 7 3.404963e-002
<MEAN> 39
 -2.408594e+001 -5.300568e+000 3.694506e+000 -6.990703e+000 -1.243665e+001 -7.968609e+000 -3.040117e+000 -6.203025e+000 3.493361e+000 1.147897e+000 1.323293e+000 -4.125877e-001 7.025406e+001 -1.250271e+000 -7.816307e-002 3.106248e-001 -5.611226e-002 -1.868806e-001 -1.255913e-001 6.132852e-001 5.631431e-001 1.841772e-001 -1.467914e-001 6.893878e-002 2.351332e-001 6.057913e-001 1.095000e+000 3.647651e-001 -7.391111e-002 1.688027e-001 3.062852e-001 -2.087610e-001 -3.974076e-001 3.597862e-001 -3.759820e-001 7.957379e-003 -1.872890e-001 -3.007010e-001 -5.749561e-001
<VARIANCE> 39
 2.710379e+001 1.672265e+001 5.390248e+001 3.481703e+001 3.259802e+001 4.428861e+001 3.790481e+001 2.693949e+001 2.542300e+001 2.968599e+001 1.911662e+001 1.608568e+001 1.389234e+001 5.074662e+000 2.259094e+000 2.348542e+000 3.027752e+000 3.479000e+000 4.637174e+000 3.559940e+000 3.528848e+000 2.848085e+000 2.168797e+000 2.475193e+000 1.846581e+000 3.609264e+000 4.029648e-001 3.552399e-001 5.497254e-001 5.163470e-001 5.950834e-001 8.590752e-001 8.040971e-001 6.970893e-001 5.780293e-001 4.784398e-001 5.481677e-001 3.675542e-001 3.175557e-001
<GCONST> 1.203696e+002
<MIXTURE> 8 4.540127e-002
<MEAN> 39
 -4.161074e+000 6.530432e-001 -2.675446e+000 -6.681617e+000 -5.643611e+000 -7.358669e+000 -1.185691e+001 -3.048088e+000 1.869472e+000 4.012273e+000 -2.661820e+000 -4.556740e+000 6.241736e+001 -9.715376e-002 5.001082e-001 -2.980355e-001 8.384324e-001 -8.846349e-003 2.971995e-002 1.275893e+000 2.584184e-001 1.924967e-001 -7.072964e-001 4.354179e-001 6.597278e-002 -1.869635e+000 -3.121029e-001 -5.383162e-001 -6.167210e-002 -3.976815e-001 -2.236261e-001 -1.224430e-002 -7.224728e-002 1.234519e-001 -2.009781e-001 1.208500e-001 8.832735e-002 1.923409e-001 6.043328e-001
<VARIANCE> 39
 3.821431e+001 2.593859e+001 3.200171e+001 2.906628e+001 3.486908e+001 5.239736e+001 4.435857e+001 3.781085e+001 4.421454e+001 3.520042e+001 4.096049e+001 2.792056e+001 1.548629e+001 1.539330e+000 1.259490e+000 1.568039e+000 1.874157e+000 1.930555e+000 2.891644e+000 2.573884e+000 2.230718e+000 3.352636e+000 1.902705e+000 2.371780e+000 1.770075e+000 1.753890e+000 2.432776e-001 2.442456e-001 2.395156e-001 3.332761e-001 4.331327e-001 4.566087e-001 5.717649e-001 4.664014e-001 6.554469e-001 4.726074e-001 5.244396e-001 4.119011e-001 2.984205e-001
<GCONST> 1.143288e+002
<MIXTURE> 9 3.637363e-002
<MEAN> 39
 -3.184545e+000 -8.185416e+000 -8.944435e+000 -1.489664e+001 -5.984108e+000 -3.515017e+000 -1.821159e+001 1.938760e+000 5.789903e+000 7.442382e+000 -9.076330e+000 -7.097584e+000 7.535352e+001 2.184990e-001 1.505346e-002 -6.861339e-001 -7.572718e-001 8.655120e-001 7.844995e-001 -1.579992e-001 5.186452e-002 -9.896746e-002 6.462753e-001 -4.389785e-001 -9.324016e-002 -1.100388e-002 -7.631169e-003 4.692050e-001 4.714793e-001 4.461413e-001 -1.874953e-001 -1.425139e-001 3.188986e-001 -5.932972e-001 -4.967162e-001 -1.973476e-001 5.917884e-001 2.735717e-001 -5.597957e-001
<VARIANCE> 39
 5.839178e+000 1.602978e+001 1.731874e+001 2.900959e+001 3.410787e+001 4.981924e+001 4.523109e+001 5.097976e+001 3.138633e+001 3.454607e+001 4.273475e+001 2.115069e+001 1.306930e+001 4.803533e-001 1.502978e+000 2.216501e+000 2.547718e+000 3.181429e+000 4.693733e+000 3.132834e+000 4.313004e+000 3.633442e+000 2.657807e+000 3.205774e+000 2.295467e+000 9.609718e-001 1.186159e-001 1.965382e-001 1.903385e-001 3.705176e-001 4.410564e-001 4.572962e-001 5.169461e-001 6.963526e-001 5.589718e-001 4.677933e-001 4.742431e-001 4.141172e-001 1.441684e-001
<GCONST> 1.109796e+002
<MIXTURE> 10 3.360379e-002
<MEAN> 39
 -5.885456e+000 -5.523105e+000 1.184435e+001 -8.973196e+000 -1.915322e+001 -1.555780e+001 -1.327131e+001 1.307691e+000 -1.143028e+001 5.534010e+000 4.069118e+000 -3.202203e+000 7.333109e+001 -2.340370e-001 3.032927e-002 7.764211e-001 -4.877545e-001 -9.996346e-001 2.255180e-001 2.721738e-001 1.107199e-001 -8.827870e-001 7.554606e-001 2.308043e-001 -2.629765e-001 1.799645e-001 6.094422e-002 4.613387e-001 -6.662133e-001 4.137549e-001 6.542686e-001 2.687764e-001 1.943923e-001 -3.486673e-001 7.111454e-001 -2.204476e-001 -3.942461e-001 -1.884787e-001 -5.691478e-001
<VARIANCE> 39
 4.934990e+000 1.750427e+001 2.450705e+001 2.712524e+001 2.257731e+001 3.429055e+001 4.255233e+001 2.681738e+001 2.636536e+001 2.313323e+001 2.173338e+001 2.307454e+001 9.261827e+000 8.763073e-001 1.848439e+000 3.593528e+000 2.009605e+000 3.048027e+000 2.252517e+000 2.914506e+000 3.261328e+000 3.016595e+000 1.830595e+000 2.024927e+000 1.833179e+000 1.202180e+000 2.161555e-001 2.255386e-001 2.872399e-001 3.707476e-001 4.347025e-001 4.417886e-001 6.382288e-001 5.407326e-001 4.167357e-001 3.135617e-001 2.903079e-001 3.129244e-001 1.618055e-001
<GCONST> 1.067964e+002
<MIXTURE> 11 3.820116e-002
<MEAN> 39
 -1.259514e+000 7.455655e-001 3.316213e+000 -1.334953e+000 -1.219554e+001 -1.091648e+001 -1.107614e+001 -3.309194e+000 -3.842800e+000 1.953493e+000 9.041426e-001 -8.000166e+000 6.421864e+001 -2.487617e-001 -2.544739e-001 8.700478e-002 -1.165499e-001 1.587148e-001 1.115323e-001 2.597607e-001 -4.364490e-002 -5.740333e-002 -1.202702e-001 -2.188573e-002 3.186243e-001 5.741261e-002 -5.355254e-001 -4.080233e-001 3.489832e-001 -6.932542e-001 -1.581672e-001 5.905207e-002 -2.548506e-001 1.600731e-001 -2.149826e-001 2.151900e-001 8.034734e-002 2.795257e-001 6.394448e-001
<VARIANCE> 39
 6.882058e+000 1.733764e+001 2.064775e+001 1.860014e+001 2.329910e+001 2.610234e+001 2.333735e+001 2.642510e+001 2.745654e+001 2.280227e+001 2.295419e+001 2.133813e+001 1.007985e+001 1.632292e+000 1.547341e+000 4.592556e+000 3.422990e+000 3.686962e+000 3.361871e+000 3.529334e+000 3.810802e+000 4.006929e+000 2.155614e+000 2.662676e+000 2.599801e+000 2.526505e+000 1.928434e-001 2.707054e-001 5.434933e-001 3.551221e-001 6.587732e-001 5.722611e-001 5.517918e-001 7.577429e-001 5.675176e-001 3.707035e-001 4.547573e-001 3.737359e-001 2.175032e-001
<GCONST> 1.127023e+002
<MIXTURE> 12 2.454962e-002
<MEAN> 39
 -1.533775e+000 -1.608956e+000 2.359441e+000 -4.325687e+000 -1.173979e+001 -6.982333e+000 -1.666414e+001 -2.702411e+000 -7.162544e+000 3.335917e+000 4.596018e+000 -1.170742e+001 6.706786e+001 -5.928160e-004 9.015050e-002 6.078248e-002 -1.042305e-001 2.796811e-002 1.914372e-001 1.201709e-002 -7.654987e-002 1.016966e-001 -4.685902e-002 -2.404829e-001 2.627440e-001 -8.404964e-002 -8.598449e-002 7.750388e-002 -1.195409e-001 -4.444629e-001 -1.648280e-002 7.901597e-002 1.676115e-001 3.192581e-002 2.380762e-001 -3.702640e-003 -2.686299e-001 4.032615e-001 8.979619e-002
<VARIANCE> 39
 5.079023e+000 1.518699e+001 2.294805e+001 3.257469e+001 2.418136e+001 4.073898e+001 2.792524e+001 2.592397e+001 3.709089e+001 2.981495e+001 3.529901e+001 2.890814e+001 1.094001e+001 2.739463e-001 7.460802e-001 1.737784e+000 1.894902e+000 1.186241e+000 1.976203e+000 1.333543e+000 1.702636e+000 1.756223e+000 1.538922e+000 2.129598e+000 2.449419e+000 4.225824e-001 6.811405e-002 6.652974e-002 4.113742e-001 2.646959e-001 3.082858e-001 2.984984e-001 2.143419e-001 3.547129e-001 4.315354e-001 3.144603e-001 3.745770e-001 4.129130e-001 6.183250e-002
<GCONST> 9.628291e+001
<MIXTURE> 13 2.851394e-002
<MEAN> 39
 -9.298089e+000 -2.678353e+000 -6.733101e+000 -5.174669e+000 -5.540682e+000 -4.240270e+000 -5.462048e+000 -2.830208e+000 -1.877594e+000 -2.728219e+000 -3.234613e+000 -2.441563e+000 5.170686e+001 -1.064103e-001 -1.076483e-001 -1.678551e-001 -1.648621e-001 -9.093888e-002 3.619594e-003 2.346999e-002 -1.082944e-001 -2.676768e-002 -1.128566e-002 1.593048e-001 2.002089e-001 -1.635000e-001 1.010027e-002 -1.039566e-002 -3.870993e-002 -8.314172e-002 -1.096534e-001 -2.365361e-002 7.107533e-002 1.494769e-001 2.205962e-001 2.904435e-001 2.008736e-001 1.285188e-001 7.383183e-003
<VARIANCE> 39
 5.299661e+000 6.292299e+000 1.333062e+001 1.122762e+001 8.310684e+000 1.175574e+001 1.177756e+001 1.464050e+001 1.847468e+001 1.395425e+001 1.458053e+001 1.176707e+001 3.130527e+000 1.741400e-001 3.193902e-001 4.960498e-001 7.746513e-001 7.855583e-001 1.058828e+000 1.486213e+000 1.651336e+000 1.502924e+000 1.563393e+000 1.368204e+000 1.074180e+000 9.909388e-002 3.133892e-002 5.179683e-002 9.433857e-002 1.722877e-001 1.775556e-001 1.978308e-001 2.291786e-001 2.720057e-001 2.992719e-001 2.489503e-001 2.461357e-001 2.315693e-001 1.325647e-002
<GCONST> 7.110675e+001
<MIXTURE> 14 2.967383e-002
<MEAN> 39
 -3.007033e+000 -7.192876e+000 1.397732e+000 -7.082057e+000 -1.264007e+001 -1.087795e+001 -1.960690e+001 3.522239e-001 1.900838e+000 3.419254e+000 -3.380558e+000 -4.071984e+000 7.253339e+001 -3.874085e-001 -8.860461e-001 4.643571e-001 -1.097302e+000 -5.522112e-001 -5.117124e-001 -6.422768e-002 2.366715e+000 -5.647081e-001 -1.988548e-003 -4.763955e-001 7.109072e-001 1.013226e+000 -5.484520e-002 4.664084e-001 -1.811267e-001 -1.842748e-001 1.976925e-001 2.723686e-001 5.165121e-001 -3.491329e-001 -4.974099e-001 2.267040e-001 2.666916e-001 -2.525873e-001 -2.656762e-001
<VARIANCE> 39
 6.429979e+000 1.985338e+001 2.691062e+001 3.523364e+001 3.378410e+001 3.935733e+001 3.904315e+001 5.119218e+001 4.992172e+001 3.906628e+001 3.837653e+001 2.320136e+001 1.106822e+001 1.016581e+000 2.037099e+000 4.975465e+000 3.140219e+000 5.630701e+000 4.707058e+000 4.476836e+000 4.024204e+000 6.378243e+000 2.622977e+000 4.333893e+000 3.203637e+000 1.154280e+000 1.597604e-001 2.333519e-001 3.291865e-001 5.772985e-001 7.188811e-001 6.077899e-001 6.579212e-001 1.001428e+000 6.951736e-001 5.548433e-001 5.658070e-001 4.711842e-001 1.722670e-001
<GCONST> 1.199538e+002
<MIXTURE> 15 2.081201e-002
<MEAN> 39
 -2.123478e+001 -1.748622e+000 6.666979e-001 -5.485375e+000 -6.208650e+000 -8.831751e+000 -1.170678e+000 -3.506116e+000 2.199818e+000 1.855692e-001 -6.704842e-001 -2.215621e-001 6.699872e+001 3.981377e+000 1.563073e+000 2.434743e+000 6.073862e-001 -1.304594e+000 -7.643937e-001 -2.574855e+000 -9.616854e-001 -1.644696e+000 -5.722375e-002 -5.003376e-001 -1.186422e+000 1.035735e-001 8.984736e-001 2.160541e-001 2.790255e-001 -3.723590e-001 -6.261366e-001 -3.813285e-001 -1.049856e+000 -5.848521e-002 -4.569241e-001 2.505668e-001 2.770490e-001 -3.864540e-001 3.333674e-001
<VARIANCE> 39
 2.887681e+001 2.831774e+001 6.300270e+001 2.153413e+001 4.336296e+001 3.180648e+001 2.908738e+001 2.851370e+001 3.129885e+001 1.754624e+001 1.747375e+001 1.990449e+001 1.728210e+001 2.200193e+000 2.330216e+000 3.273025e+000 2.242100e+000 3.508378e+000 3.306753e+000 2.855027e+000 3.197159e+000 3.085726e+000 1.810977e+000 2.884471e+000 2.241546e+000 1.575007e+000 4.532757e-001 3.893559e-001 4.532982e-001 4.379584e-001 6.210500e-001 4.878946e-001 5.449941e-001 4.456259e-001 5.457267e-001 4.540716e-001 4.293812e-001 4.031316e-001 2.679167e-001
<GCONST> 1.164611e+002
<MIXTURE> 16 3.008996e-002
<MEAN> 39
 -2.714429e+001 3.722395e+000 -6.771948e+000 -6.938107e+000 -1.865473e+000 -1.302580e+001 -1.771204e+000 -2.583881e+000 4.650452e+000 -1.538326e-001 1.262531e+000 1.352907e+000 7.059774e+001 -5.098532e-001 -4.619394e-001 -5.773250e-001 -1.783077e-001 -2.382398e-002 -1.972266e-001 3.827480e-001 3.300657e-001 7.700501e-002 1.367979e-001 -4.990700e-002 2.670742e-001 -1.449087e-001 8.345721e-001 -1.213444e-001 4.096573e-001 6.953911e-002 -1.626483e-001 1.158749e-001 -2.547592e-001 -4.758257e-002 -1.600711e-001 1.325783e-001 -1.388624e-001 -1.973868e-001 -2.853101e-001
<VARIANCE> 39
 6.404384e+000 2.072144e+001 2.122253e+001 2.351805e+001 2.048310e+001 2.644048e+001 4.153437e+001 2.431462e+001 2.622581e+001 1.931879e+001 1.769569e+001 2.064194e+001 6.647966e+000 1.420211e+000 1.280109e+000 1.503411e+000 1.397223e+000 1.620741e+000 2.044182e+000 1.783876e+000 1.510928e+000 1.624050e+000 1.758617e+000 1.713542e+000 1.654481e+000 7.939427e-001 2.096729e-001 1.834671e-001 2.303520e-001 2.531008e-001 2.579145e-001 3.592877e-001 3.414086e-001 3.132945e-001 3.355044e-001 3.680069e-001 3.759121e-001 2.956706e-001 9.231335e-002
<GCONST> 9.801786e+001
<MIXTURE> 17 5.628056e-002
<MEAN> 39
 -1.146670e+001 -9.018049e-001 -5.979247e+000 -6.022070e+000 -5.442338e+000 -6.269540e+000 -3.350877e+000 -1.694304e-001 2.090456e+000 2.259545e+000 -8.312007e-001 -2.210087e+000 5.561759e+001 -4.833484e-002 -3.162332e-001 -1.861056e-001 -1.181983e-001 -1.132672e-001 1.162589e-001 7.796495e-002 -2.285378e-001 -2.119315e-001 -1.879674e-001 -3.827547e-002 4.262538e-002 -1.104512e-001 -1.677122e-001 -1.632071e-001 1.879558e-001 -1.369075e-001 -3.480900e-002 -3.023520e-001 -2.518347e-001 -2.820975e-001 -5.958905e-002 1.233122e-002 -6.465589e-002 5.344106e-002 7.852477e-001
<VARIANCE> 39
 3.157962e+001 2.180154e+001 2.629792e+001 1.697708e+001 2.130665e+001 3.197301e+001 2.400951e+001 1.856033e+001 3.014198e+001 2.209802e+001 1.783902e+001 1.581905e+001 1.132133e+001 2.623745e+000 2.107239e+000 1.886556e+000 1.627160e+000 1.743710e+000 2.749747e+000 2.192166e+000 1.993260e+000 2.469405e+000 2.067330e+000 1.953309e+000 1.462870e+000 3.861705e+000 3.460207e-001 2.939044e-001 2.906481e-001 2.774304e-001 2.906365e-001 4.705233e-001 4.251308e-001 3.587222e-001 4.510096e-001 4.227270e-001 3.546996e-001 2.822372e-001 4.592369e-001
<GCONST> 1.080015e+002
<MIXTURE> 18 3.009346e-002
<MEAN> 39
 -1.763133e+000 -8.482383e+000 -1.231702e+001 -2.036735e+001 -1.256924e-001 5.485170e+000 -1.700710e+001 4.281738e-001 4.363828e+000 6.252966e+000 -8.500855e+000 -6.484715e+000 7.435699e+001 4.264930e-002 1.582979e-001 -1.678491e-002 -9.163471e-002 2.645018e-001 1.620930e-001 -9.312495e-002 -5.853151e-002 6.438495e-003 9.109256e-002 -1.399645e-001 1.717031e-001 -2.331943e-001 -2.341380e-002 1.326834e-001 1.754049e-001 2.704662e-001 -2.936400e-001 -2.925504e-001 2.912999e-002 -4.018235e-002 -5.451348e-002 1.436370e-002 8.813984e-002 1.071138e-001 -1.073040e-001
<VARIANCE> 39
 3.731487e+000 1.878502e+001 9.632763e+000 2.308270e+001 2.228415e+001 3.668266e+001 3.954826e+001 3.230926e+001 2.144739e+001 2.370069e+001 4.626685e+001 1.909101e+001 1.395477e+001 2.139061e-001 6.116466e-001 7.043878e-001 1.331579e+000 1.672455e+000 1.814382e+000 1.508446e+000 1.628522e+000 1.254781e+000 1.186145e+000 1.554960e+000 1.205254e+000 1.978514e-001 3.262298e-002 1.027358e-001 1.208212e-001 1.737940e-001 1.923854e-001 1.941479e-001 2.317110e-001 2.605546e-001 2.628553e-001 2.020079e-001 2.475889e-001 2.095266e-001 3.837284e-002
<GCONST> 8.534627e+001
<MIXTURE> 19 4.099347e-002
<MEAN> 39
 -3.816488e-001 -2.780833e+000 -2.677397e+000 -7.934238e+000 -1.054680e+001 -3.222163e+000 -2.144226e+001 -1.020562e+001 -3.530726e+000 6.104691e+000 4.529786e+000 -9.416042e+000 6.929354e+001 -1.861273e-001 -3.136356e-001 2.888897e-001 7.469956e-001 -1.892368e-001 -4.985365e-001 -2.585723e-002 1.152874e-001 7.081009e-001 -6.394239e-002 -3.158604e-001 -1.311535e-001 4.069717e-002 -3.252392e-001 -2.074304e-002 1.008341e-001 -2.539530e-001 8.995456e-002 -2.977938e-001 5.649688e-001 6.551172e-001 1.355209e-001 -2.925612e-001 -5.911803e-001 5.495740e-001 6.361317e-002
<VARIANCE> 39
 6.083951e+000 2.788317e+001 2.403437e+001 4.925940e+001 4.527633e+001 3.665238e+001 4.349882e+001 5.792641e+001 7.286993e+001 4.779256e+001 4.570902e+001 3.361891e+001 1.297647e+001 1.270401e+000 2.166420e+000 2.791790e+000 6.283895e+000 4.283312e+000 6.151883e+000 4.943740e+000 4.992738e+000 6.724844e+000 3.887245e+000 5.031027e+000 3.664160e+000 1.633119e+000 2.156029e-001 3.399455e-001 3.593107e-001 8.087593e-001 8.932050e-001 6.833181e-001 9.771453e-001 8.910010e-001 1.119225e+000 7.018939e-001 8.843995e-001 6.130195e-001 2.095336e-001
<GCONST> 1.273148e+002
<MIXTURE> 20 4.120452e-002
<MEAN> 39
 -6.176825e+000 7.296966e-001 -9.845961e-001 -5.905256e+000 -8.794886e+000 -7.383871e+000 -8.537253e+000 -3.299714e+000 -1.963333e+000 1.405924e+000 5.417605e-001 -3.281570e+000 5.749344e+001 -1.814602e+000 -1.643732e+000 -1.057362e+000 -4.571110e-001 9.460837e-001 -2.838650e-001 4.742475e-001 -5.753790e-001 5.704982e-001 6.535570e-002 -4.946186e-002 9.395748e-001 1.391127e+000 -3.825649e-001 -3.545434e-001 1.537541e-001 -3.347906e-001 -8.302271e-002 -1.987674e-001 -2.305195e-001 -1.673946e-001 5.874613e-003 2.653637e-001 -8.868449e-003 -1.080456e-001 1.271419e+000
<VARIANCE> 39
 2.212344e+001 2.070089e+001 3.551566e+001 3.017636e+001 3.042736e+001 3.316555e+001 3.606761e+001 2.621894e+001 3.171892e+001 2.270114e+001 2.495086e+001 2.218196e+001 1.407406e+001 3.501249e+000 2.513113e+000 4.013741e+000 3.523492e+000 4.010994e+000 4.967470e+000 3.862771e+000 3.378193e+000 4.054244e+000 2.783522e+000 3.223886e+000 2.624152e+000 4.585486e+000 5.534191e-001 4.099362e-001 5.208745e-001 5.290526e-001 6.982104e-001 7.268840e-001 7.197713e-001 5.858627e-001 7.601146e-001 4.552462e-001 5.882621e-001 4.386482e-001 2.912943e-001
<GCONST> 1.225926e+002
<MIXTURE> 21 2.461348e-002
<MEAN> 39
 -9.205495e+000 1.321847e+000 1.740060e+001 -6.870309e+000 -2.277681e+001 -1.200659e+001 -1.343311e+001 -5.333943e+000 -1.094378e+001 1.762579e+000 5.198101e+000 -1.009338e+001 7.074673e+001 9.046205e-001 -2.788335e-001 5.658169e-001 -2.661505e-001 -1.402641e+000 -1.136133e-001 -1.054838e+000 4.600847e-001 -8.767692e-001 3.190591e-001 6.771341e-001 -6.896256e-001 4.266980e-001 -3.766790e-001 -1.292584e-001 -1.296630e+000 1.512895e-001 1.332233e+000 1.023503e-001 6.475952e-001 1.130554e-001 9.365040e-001 -1.787694e-002 -4.944374e-001 5.654354e-001 -4.109548e-001
<VARIANCE> 39
 8.738343e+000 2.326215e+001 2.183577e+001 2.990927e+001 3.069684e+001 4.142685e+001 3.010376e+001 2.254707e+001 2.822911e+001 2.344915e+001 2.423860e+001 3.432133e+001 9.758789e+000 2.980732e+000 2.413981e+000 5.054651e+000 3.641924e+000 6.448507e+000 5.060567e+000 7.028338e+000 3.088615e+000 3.937102e+000 1.681812e+000 2.610579e+000 3.845699e+000 1.278068e+000 5.272982e-001 4.850805e-001 3.973665e-001 4.812111e-001 6.167066e-001 7.735035e-001 8.938331e-001 4.965580e-001 6.247643e-001 3.906210e-001 4.013995e-001 5.760571e-001 1.666577e-001
<GCONST> 1.192935e+002
<MIXTURE> 22 3.009511e-002
<MEAN> 39
 -6.612563e+000 1.337030e+000 1.126909e+001 -5.960326e+000 -1.795473e+001 -1.266280e+001 -9.736815e+000 -2.828391e+000 -8.526168e+000 3.506611e+000 3.327322e+000 -7.624031e+000 6.711668e+001 7.577166e-001 3.372816e-001 -2.246787e+000 1.130842e+000 2.187356e+000 2.829866e-001 7.703179e-001 2.208279e-001 1.509557e+000 -5.826765e-001 -7.076824e-001 2.778383e-001 -1.850265e+000 -1.363048e-001 -1.438425e-001 -3.768033e-001 -4.540807e-002 3.915336e-001 3.886124e-001 -1.654236e-001 -9.940010e-002 3.039503e-001 -1.249551e-001 -1.514315e-001 1.323251e-001 -1.268450e-001
<VARIANCE> 39
 1.054137e+001 2.160289e+001 2.485135e+001 2.704482e+001 3.754223e+001 4.371160e+001 4.033857e+001 3.552742e+001 3.745559e+001 3.328589e+001 2.700917e+001 3.011299e+001 1.663304e+001 1.123414e+000 1.533056e+000 1.870160e+000 1.887427e+000 2.142712e+000 3.517341e+000 3.970867e+000 2.746472e+000 2.413404e+000 2.421412e+000 2.119030e+000 2.351746e+000 1.442821e+000 2.211549e-001 2.792250e-001 3.552746e-001 3.618200e-001 5.524695e-001 6.442087e-001 5.597106e-001 5.787043e-001 5.203835e-001 4.917300e-001 3.811700e-001 4.187858e-001 1.747188e-001
<GCONST> 1.129403e+002
<MIXTURE> 23 3.217839e-002
<MEAN> 39
 -4.360629e+000 -7.885355e+000 2.303453e+000 -1.067185e+001 -1.464875e+001 -1.497100e+001 -1.140843e+001 7.068954e+000 -1.052979e+000 4.623233e+000 -4.944708e+000 -8.606960e-001 7.389067e+001 1.557866e-001 1.052995e-001 -3.245168e-001 1.890490e-001 6.014830e-001 -1.194444e-001 8.896160e-002 3.834170e-002 1.053075e-001 1.529564e-001 -4.132754e-001 6.402534e-002 -3.810597e-001 -1.113223e-003 2.869540e-001 2.060860e-002 1.936596e-001 1.817086e-001 2.010208e-001 -2.042700e-001 -5.694018e-001 8.490662e-002 2.380739e-003 1.577275e-001 -2.235153e-001 -2.819099e-001
<VARIANCE> 39
 4.536849e+000 1.536757e+001 2.063005e+001 2.010352e+001 2.733672e+001 2.945476e+001 4.240689e+001 2.602157e+001 4.425009e+001 2.478624e+001 3.318707e+001 1.644589e+001 1.422468e+001 3.740903e-001 9.930303e-001 1.998923e+000 1.001028e+000 2.127467e+000 1.583184e+000 2.637287e+000 2.067834e+000 2.510918e+000 1.625170e+000 2.295998e+000 1.449893e+000 4.393899e-001 7.532271e-002 1.938249e-001 1.971884e-001 2.081325e-001 3.076833e-001 2.312295e-001 3.314051e-001 4.048185e-001 2.935008e-001 2.348160e-001 2.946533e-001 2.587045e-001 9.690244e-002
<GCONST> 9.634996e+001
<MIXTURE> 24 2.951809e-002
<MEAN> 39
 -2.511941e+001 -2.125929e-001 -3.894249e+000 -7.826440e+000 -1.570072e+000 -1.280677e+001 -2.926555e+000 4.461150e-001 4.143934e+000 1.898184e+000 9.132316e-001 -3.947289e-001 6.900821e+001 1.099250e+000 -2.466078e-001 2.911552e-001 3.500614e-001 -1.313365e-001 2.680646e-001 -3.502397e-001 -9.586617e-002 -3.901818e-001 2.151874e-002 -6.511201e-001 -4.992332e-001 -8.492972e-001 1.161923e+000 2.390087e-001 2.612604e-001 7.590231e-002 -4.130952e-001 2.623486e-001 -5.321083e-001 -5.457955e-001 -2.644078e-001 1.962999e-002 -1.743345e-001 -1.426548e-001 -2.764489e-001
<VARIANCE> 39
 1.735035e+001 3.502118e+001 2.851252e+001 3.370850e+001 2.988844e+001 3.661227e+001 4.786012e+001 2.501681e+001 3.178525e+001 2.184283e+001 1.979573e+001 2.342081e+001 1.503868e+001 4.021156e+000 1.681211e+000 2.688349e+000 1.950654e+000 2.606923e+000 3.026762e+000 2.792858e+000 2.069955e+000 2.291193e+000 2.200075e+000 1.857588e+000 1.690200e+000 2.099782e+000 3.979588e-001 3.568170e-001 4.682169e-001 4.775249e-001 4.565779e-001 6.412210e-001 6.569211e-001 4.460950e-001 4.398176e-001 3.708256e-001 4.584754e-001 4.783424e-001 2.375705e-001
<GCONST> 1.146514e+002
<MIXTURE> 25 2.584096e-002
<MEAN> 39
 -3.822827e-001 -4.797499e+000 -6.306617e+000 -1.390168e+001 -6.750840e+000 -1.242175e+000 -1.861803e+001 -3.839284e+000 1.560094e+000 8.927528e+000 -2.980994e+000 -4.649376e+000 7.044871e+001 4.588956e-001 1.409930e+000 7.533092e-001 1.907244e+000 -4.308321e-001 -3.080647e-001 8.299484e-001 -1.588487e+000 -6.054183e-001 -5.622495e-001 1.553193e+000 -2.318819e-001 -1.980397e+000 -2.234206e-001 2.623077e-002 1.789223e-001 1.994994e-001 -1.104266e-001 -3.346116e-001 3.232384e-001 2.110003e-001 -4.162920e-002 -2.985306e-001 1.101792e-002 -1.478904e-001 -9.097845e-002
<VARIANCE> 39
 5.183227e+000 1.419465e+001 3.115052e+001 4.051145e+001 2.606851e+001 8.297018e+001 3.867232e+001 5.059812e+001 4.829999e+001 3.116850e+001 3.793597e+001 2.762858e+001 1.321533e+001 4.920529e-001 8.844239e-001 1.432283e+000 1.857373e+000 2.624597e+000 2.609979e+000 2.823188e+000 3.026281e+000 3.006666e+000 2.330269e+000 2.488657e+000 3.086255e+000 9.208654e-001 7.571119e-002 1.904479e-001 3.558591e-001 3.039098e-001 3.430633e-001 4.098823e-001 3.763031e-001 5.277063e-001 6.805950e-001 4.145800e-001 4.353325e-001 4.407601e-001 1.599445e-001
<GCONST> 1.085553e+002
<MIXTURE> 26 4.461261e-002
<MEAN> 39
 -1.249092e+001 -8.049384e+000 -6.577495e+000 -7.695900e+000 -3.641011e+000 -1.048002e+001 -6.420459e+000 -5.053874e+000 5.906267e-001 3.949038e+000 -8.437403e-001 -9.387483e-001 6.703997e+001 -1.789393e-001 -4.645997e-001 2.336653e-001 -7.062658e-001 -1.136780e-001 -1.986481e-001 -8.182141e-001 -9.258096e-001 -7.851378e-002 2.719341e-001 3.277773e-002 9.291036e-002 2.348137e+000 6.939889e-001 8.589506e-001 6.068823e-001 -1.601305e-001 -6.339997e-001 4.077224e-001 -5.739616e-001 2.168291e-001 -2.705154e-001 -2.225590e-002 1.044252e-001 -3.206259e-001 -3.935604e-001
<VARIANCE> 39
 3.072700e+001 2.090228e+001 5.023507e+001 5.340509e+001 4.822749e+001 5.526894e+001 3.729496e+001 4.540820e+001 4.468144e+001 3.432383e+001 3.074852e+001 2.105871e+001 2.018372e+001 6.089753e+000 3.504646e+000 4.876120e+000 4.245685e+000 5.085611e+000 5.859549e+000 5.225032e+000 4.164490e+000 5.222207e+000 3.289123e+000 3.586286e+000 3.113251e+000 4.781484e+000 5.643548e-001 4.583831e-001 8.463184e-001 9.926305e-001 9.934657e-001 8.873305e-001 1.046247e+000 8.243473e-001 8.224007e-001 6.477239e-001 7.263492e-001 6.200534e-001 4.782555e-001
<GCONST> 1.335940e+002
<MIXTURE> 27 2.522098e-002
<MEAN> 39
 -5.201339e+000 -3.264941e+000 -1.383284e+000 -1.036127e+001 -8.706443e+000 -1.295373e+001 -1.933351e+001 -4.014231e+000 2.886306e+000 5.703329e+000 -3.931706e+000 -5.462247e+000 7.339725e+001 2.276267e+000 -1.191070e+000 -1.447218e-001 -1.690295e+000 -8.362405e-001 9.825519e-001 -2.903040e+000 8.808562e-001 -2.826865e-001 1.632126e+000 -4.494666e-001 -8.794824e-001 1.156984e+000 -7.756416e-001 -3.814152e-002 -2.129613e-001 1.202963e-001 1.058030e-001 4.578070e-001 1.036594e+000 1.982486e-001 -1.104098e-001 -2.782879e-001 3.193612e-001 3.474727e-001 -4.460671e-001
<VARIANCE> 39
 6.329582e+000 2.108234e+001 3.008077e+001 3.079900e+001 2.764738e+001 4.550552e+001 4.826293e+001 5.036522e+001 3.267294e+001 2.358856e+001 3.162187e+001 2.430404e+001 1.271071e+001 2.251356e+000 2.284567e+000 3.335903e+000 2.529533e+000 3.279823e+000 4.109640e+000 4.398197e+000 5.699205e+000 4.363648e+000 1.995542e+000 3.956027e+000 2.513815e+000 1.094382e+000 4.435028e-001 3.632015e-001 3.236851e-001 3.711329e-001 5.022905e-001 5.167746e-001 7.397383e-001 8.024007e-001 5.504112e-001 3.764435e-001 5.029090e-001 3.440962e-001 2.437744e-001
<GCONST> 1.177593e+002
<MIXTURE> 28 3.520509e-002
<MEAN> 39
 -1.032749e+001 3.366112e+000 5.343481e+000 -4.855823e+000 -9.148964e+000 -1.378803e+001 -8.574467e+000 -7.288820e+000 -2.078850e+000 -1.604991e-001 -7.744117e-001 -3.085274e+000 6.860944e+001 2.697280e+000 2.392543e-001 1.711044e+000 -9.710338e-001 -1.948586e+000 -4.997328e-001 -2.853198e+000 -5.072707e-002 -1.495416e+000 6.901568e-001 3.303445e-001 -1.093329e+000 9.523377e-001 -1.080346e-001 -4.838398e-001 -3.080479e-001 -3.703753e-001 -2.332018e-001 4.357289e-001 -2.018683e-001 5.675115e-001 1.933358e-003 3.223015e-001 1.577035e-001 -1.511683e-001 5.125057e-004
<VARIANCE> 39
 2.515858e+001 2.403011e+001 6.650897e+001 2.914294e+001 3.877549e+001 3.519742e+001 2.940030e+001 2.640703e+001 3.750686e+001 1.746916e+001 1.939756e+001 1.895785e+001 1.345170e+001 5.372962e+000 3.576403e+000 4.366188e+000 3.485114e+000 4.039217e+000 4.085135e+000 5.172523e+000 3.757137e+000 4.311057e+000 2.602694e+000 3.619952e+000 3.044893e+000 1.416172e+000 5.982117e-001 3.235903e-001 3.710395e-001 5.071398e-001 5.085844e-001 5.797185e-001 6.778076e-001 5.146984e-001 5.686421e-001 3.424141e-001 3.800677e-001 3.729398e-001 2.634464e-001
<GCONST> 1.206195e+002
<MIXTURE> 29 2.447870e-002
<MEAN> 39
 -9.313013e+000 -2.009356e+000 -7.423274e+000 -5.576992e+000 -7.628940e+000 -5.751990e+000 -5.910875e+000 -2.119464e+000 -9.427906e-001 -4.148508e-001 -1.652545e+000 -1.670380e+000 5.014132e+001 9.276371e-003 -6.723296e-003 -8.635617e-002 -3.013042e-002 -1.302926e-001 -2.032734e-001 -5.921378e-002 -1.370058e-001 -2.818197e-001 -2.924329e-001 -2.861759e-001 -2.473162e-001 -1.986115e-002 -7.014965e-002 -1.282764e-001 -1.226800e-001 -4.037858e-002 1.427308e-001 2.191021e-001 2.164840e-001 1.105319e-001 -1.051624e-002 -1.243369e-001 -6.646258e-002 -2.525876e-002 -4.687768e-003
<VARIANCE> 39
 1.217174e+000 1.727624e+000 2.987717e+000 4.714951e+000 6.770135e+000 8.079962e+000 9.114900e+000 8.298942e+000 1.004810e+001 1.012508e+001 1.178028e+001 9.613407e+000 7.238472e-001 1.270769e-001 2.286309e-001 3.926401e-001 5.499148e-001 8.805739e-001 9.722906e-001 1.279405e+000 1.198226e+000 1.223160e+000 1.291244e+000 1.369825e+000 1.245479e+000 3.653709e-002 1.791414e-002 3.806011e-002 6.423134e-002 9.787147e-002 1.242938e-001 1.755302e-001 1.926253e-001 2.201465e-001 2.347808e-001 2.324362e-001 2.461190e-001 2.482417e-001 5.540022e-003
<GCONST> 5.505988e+001
<MIXTURE> 30 3.548735e-002
<MEAN> 39
 -1.027768e+001 -3.331543e+000 -8.498465e+000 -5.540233e+000 -5.532321e+000 -2.207198e+000 -2.044910e+000 6.411896e-001 7.325047e-001 2.039122e-001 -1.095285e+000 -1.617949e+000 4.976957e+001 -2.297641e-003 9.004887e-003 -9.065301e-003 1.081325e-002 6.922816e-002 1.158531e-001 1.623356e-002 1.470249e-002 1.893023e-002 8.238531e-002 5.546824e-002 7.465547e-002 -2.220383e-002 1.561079e-002 4.454460e-002 4.356351e-002 -2.779109e-002 -1.177582e-001 -2.255123e-001 -2.993478e-001 -2.517585e-001 -1.397981e-001 -7.438461e-002 -3.985646e-002 -2.675979e-002 2.152511e-002
<VARIANCE> 39
 9.488991e-001 1.978532e+000 3.750590e+000 4.224776e+000 6.843176e+000 7.755594e+000 7.225111e+000 1.009573e+001 1.064618e+001 1.143556e+001 1.127095e+001 9.866797e+000 5.528771e-001 1.159049e-001 2.509611e-001 4.884344e-001 5.770006e-001 8.320678e-001 1.156937e+000 1.213713e+000 1.235103e+000 1.444535e+000 1.338842e+000 1.286648e+000 1.145804e+000 3.413679e-002 2.237048e-002 3.744448e-002 7.961027e-002 1.029910e-001 1.469652e-001 1.625883e-001 1.839526e-001 2.068448e-001 2.404029e-001 2.678671e-001 2.478556e-001 2.498901e-001 6.545562e-003
<GCONST> 5.604038e+001
<MIXTURE> 31 3.322186e-002
<MEAN> 39
 -8.886856e+000 3.180574e+000 1.631900e+001 -1.131585e+001 -2.095012e+001 -7.281339e+000 -1.405118e+001 -4.350001e+000 -1.022294e+001 3.804394e+000 3.878627e+000 -1.119774e+001 6.975140e+001 -6.187853e-002 2.603757e-001 9.989296e-003 1.626463e-002 -3.322835e-001 2.414342e-001 2.214587e-001 -3.531580e-001 2.489231e-001 2.648783e-002 -1.635353e-001 -6.535237e-002 -1.772491e-001 1.029166e-001 -1.215588e-001 -3.311260e-001 3.729337e-001 2.762117e-001 -3.563193e-001 3.036049e-001 4.847069e-002 1.174040e-001 -1.007733e-001 -5.802760e-002 2.819658e-001 -1.065045e-001
<VARIANCE> 39
 6.234261e+000 1.857331e+001 2.479329e+001 1.654638e+001 2.958022e+001 2.248041e+001 3.246362e+001 2.272877e+001 2.552144e+001 4.240585e+001 2.572541e+001 3.473721e+001 1.026552e+001 2.783846e-001 8.748858e-001 9.983498e-001 1.178421e+000 1.696905e+000 1.432084e+000 1.607895e+000 1.387543e+000 1.200406e+000 1.119407e+000 1.429517e+000 1.574136e+000 2.755358e-001 6.669814e-002 1.086535e-001 1.824537e-001 1.999510e-001 2.905258e-001 3.249755e-001 3.278024e-001 3.015409e-001 2.607346e-001 2.386876e-001 2.759606e-001 2.441142e-001 4.463461e-002
<GCONST> 9.042202e+001
<MIXTURE> 32 2.305358e-002
<MEAN> 39
 -2.023283e+001 5.492235e+000 2.372559e+000 -3.344052e+000 -3.862756e+000 -1.223659e+001 -3.222102e+000 -5.103786e+000 2.852568e+000 7.075295e-002 1.001084e+000 -1.351693e+000 7.007525e+001 -2.812326e+000 -4.539421e-001 -1.261923e+000 2.322342e-001 7.194974e-001 2.607603e-001 1.421774e+000 6.357806e-001 6.488966e-001 -5.676619e-001 2.076332e-001 5.715051e-001 4.434158e-001 8.085902e-001 -3.309243e-001 3.539637e-002 -5.646111e-001 -5.364516e-001 1.156597e-001 -9.022393e-001 1.861522e-002 -5.053225e-001 3.806156e-001 -2.337186e-001 -1.323751e-001 -9.759882e-003
<VARIANCE> 39
 1.479311e+001 3.327283e+001 6.344806e+001 3.103449e+001 5.014753e+001 3.542426e+001 5.398442e+001 2.941155e+001 3.036761e+001 2.740398e+001 1.804704e+001 2.148819e+001 7.888845e+000 3.242064e+000 1.153300e+000 2.877181e+000 1.916356e+000 2.237906e+000 2.963456e+000 2.940777e+000 2.274398e+000 2.184880e+000 2.017587e+000 2.695650e+000 1.964293e+000 4.579274e-001 2.563166e-001 3.173309e-001 3.519796e-001 4.300484e-001 4.005236e-001 5.139322e-001 5.804105e-001 4.325446e-001 4.279664e-001 4.716790e-001 4.056802e-001 4.330063e-001 7.529024e-002
<GCONST> 1.109657e+002
<TRANSP> 3
 0.000000e+000 1.000000e+000 0.000000e+000
 0.000000e+000 9.983901e-001 1.609855e-003
 0.000000e+000 0.000000e+000 0.000000e+000
<ENDHMM>
~h "pb"
<BEGINHMM>
<NUMSTATES> 3
<STATE> 2
<NUMMIXES> 32
<MIXTURE> 1 1.253926e-002
<MEAN> 39
 -1.003954e+001 3.923954e+000 -6.732196e-001 1.420704e+000 -1.060073e+000 1.786095e+000 8.082972e-001 1.337826e-001 -8.437368e-001 -8.100324e-002 -1.821551e-001 -8.707945e-001 5.279453e+001 -4.756298e-002 -1.040650e-001 -1.673995e-001 9.713805e-002 3.519014e-001 2.887806e-001 4.151555e-001 5.080748e-001 2.529778e-001 1.206162e-001 1.731995e-001 -6.319974e-002 -2.302438e-001 -7.197438e-002 -1.152121e-001 -6.228561e-002 -3.231304e-002 -3.301353e-003 9.819451e-002 5.281291e-002 3.113210e-001 5.445502e-001 3.670364e-001 2.608565e-001 1.555449e-001 1.433598e-001
<VARIANCE> 39
 4.174823e+000 5.086301e+000 8.034764e+000 9.950227e+000 1.179270e+001 1.619994e+001 1.283207e+001 1.017298e+001 9.984225e+000 1.073309e+001 1.136208e+001 1.309650e+001 2.331983e+000 4.671404e-001 5.013872e-001 7.471317e-001 9.199407e-001 1.125979e+000 1.813499e+000 1.364139e+000 1.559959e+000 1.655798e+000 1.547968e+000 1.480767e+000 1.628311e+000 2.985033e-001 6.455215e-002 6.188625e-002 1.338636e-001 1.338678e-001 1.954491e-001 3.351371e-001 2.475191e-001 2.374206e-001 2.066460e-001 2.079068e-001 3.159781e-001 2.914127e-001 8.603822e-002
<GCONST> 7.692712e+001
<MIXTURE> 2 3.504564e-002
<MEAN> 39
 1.904124e+000 1.189319e+000 2.339128e+000 -5.051356e+000 -7.865024e+000 -3.732195e+000 -1.340611e+001 8.071372e-002 4.313464e+000 2.227585e+000 -9.100680e-001 -7.139743e+000 7.096088e+001 -9.391096e-001 2.688072e+000 -2.569503e-001 2.379874e+000 1.587235e+000 -5.272307e-001 2.650710e+000 -1.620118e-001 3.240702e-001 3.357104e-001 -8.467029e-001 1.535457e+000 -2.503830e+000 -5.930283e-001 -7.304116e-002 -1.536872e-001 -6.922448e-002 8.421657e-003 2.084626e-001 4.936591e-001 1.157616e-001 -2.638277e-001 -3.099481e-001 1.658791e-001 5.574372e-002 -1.010386e-001
<VARIANCE> 39
 1.053036e+001 4.409735e+001 4.394080e+001 4.993349e+001 5.841066e+001 5.083109e+001 5.635828e+001 4.074376e+001 3.063719e+001 3.531015e+001 3.158825e+001 2.936115e+001 1.324447e+001 2.485742e+000 2.390530e+000 2.060699e+000 2.643227e+000 2.978228e+000 3.195986e+000 2.918410e+000 2.986282e+000 2.566412e+000 2.776665e+000 2.945945e+000 2.697859e+000 1.607516e+000 3.801654e-001 5.447190e-001 4.379172e-001 7.111037e-001 4.897201e-001 5.520705e-001 7.315266e-001 4.871700e-001 5.808191e-001 5.046834e-001 5.652214e-001 4.600597e-001 3.091241e-001
<GCONST> 1.212265e+002
<MIXTURE> 3 6.636816e-002
<MEAN> 39
 -2.045883e+001 9.174656e+000 1.642497e+000 5.889078e-001 -4.231425e+000 -4.393396e+000 -9.967952e-001 2.727607e-001 2.415263e+000 -4.453074e-001 1.165879e+000 7.588412e-001 6.841728e+001 -1.013680e+000 -1.718727e-001 -3.569041e-001 3.669074e-001 2.852654e-001 -6.825396e-002 6.717585e-001 1.778685e-001 2.414888e-001 -4.241173e-002 3.007136e-001 4.309074e-001 -1.887906e-001 1.145057e+000 -3.562155e-001 2.691471e-001 -1.973617e-001 -2.893828e-001 1.029468e-001 -4.694745e-001 7.468166e-002 -6.522957e-002 1.134966e-001 -1.733403e-002 -2.990629e-001 -2.288237e-001
<VARIANCE> 39
 4.563805e+001 4.564262e+001 8.740630e+001 4.251929e+001 5.544269e+001 6.177095e+001 4.155977e+001 3.625744e+001 3.000101e+001 2.356604e+001 2.486175e+001 2.215795e+001 1.053823e+001 7.665395e+000 2.838044e+000 4.030086e+000 2.906399e+000 3.955539e+000 3.658556e+000 3.536943e+000 2.832636e+000 2.815078e+000 2.746935e+000 2.241007e+000 2.188875e+000 1.879798e+000 6.178747e-001 5.707608e-001 6.079259e-001 6.619160e-001 8.210693e-001 7.749427e-001 7.358461e-001 5.568256e-001 5.573507e-001 5.150911e-001 4.641171e-001 4.761679e-001 2.542252e-001
<GCONST> 1.255836e+002
<MIXTURE> 4 2.554343e-002
<MEAN> 39
 -1.007536e+001 3.368769e+000 -1.405200e+000 4.901131e-001 -8.099020e-001 2.140477e+000 2.164379e+000 2.371037e+000 1.829728e+000 1.948929e+000 1.664442e+000 7.879815e-001 5.121666e+001 1.798241e-001 3.163720e-001 4.456595e-001 4.263108e-001 5.463402e-001 5.308093e-001 4.902471e-001 3.193422e-001 9.211473e-002 7.363068e-002 -1.290774e-001 -2.043791e-001 4.224651e-002 -5.073000e-002 -8.563103e-002 -8.677157e-002 -3.712822e-002 2.618328e-002 -2.439758e-003 5.073824e-002 1.874046e-001 1.544002e-001 -1.594809e-002 -4.540110e-002 -2.015859e-002 7.991432e-004
<VARIANCE> 39
 6.276291e-001 1.225191e+000 2.720620e+000 2.804196e+000 3.654714e+000 5.596160e+000 7.702845e+000 7.822715e+000 6.387823e+000 7.043548e+000 8.729476e+000 8.238539e+000 2.623580e-001 7.291278e-002 1.606733e-001 3.392281e-001 4.859083e-001 5.978364e-001 7.332823e-001 1.011393e+000 1.082826e+000 1.436273e+000 1.343027e+000 1.296454e+000 1.249884e+000 3.005279e-002 1.521057e-002 2.844372e-002 6.044925e-002 5.430452e-002 7.629413e-002 1.010552e-001 1.699023e-001 1.860161e-001 1.671282e-001 1.632498e-001 1.965734e-001 1.890623e-001 6.497612e-003
<GCONST> 4.424401e+001
<MIXTURE> 5 2.943872e-002
<MEAN> 39
 2.575646e-001 -8.421704e+000 5.978643e+000 -6.500538e+000 -1.527505e+001 -6.897913e+000 -1.282337e+001 9.584993e+000 4.187971e+000 -4.527451e+000 -8.853862e-001 -7.783816e+000 7.726206e+001 1.161251e-001 1.300496e+000 5.956599e-001 9.580296e-001 -5.477000e-002 -5.072426e-001 1.515012e-001 -6.700807e-001 -5.211698e-001 6.818891e-001 2.430213e-001 8.981739e-001 -1.110536e+000 -1.198705e-001 8.718811e-001 -1.053108e-001 3.995443e-001 4.643553e-001 2.139739e-001 4.874924e-001 -7.844891e-001 -1.241876e-001 3.686599e-001 9.878346e-002 1.631766e-001 -7.340261e-001
<VARIANCE> 39
 5.892950e+000 2.135684e+001 2.526817e+001 1.585904e+001 3.387074e+001 1.748140e+001 3.225498e+001 2.635878e+001 1.958974e+001 2.483980e+001 2.915145e+001 2.618307e+001 5.136862e+000 6.944841e-001 2.660589e+000 3.014884e+000 1.703981e+000 3.616763e+000 2.512027e+000 2.543728e+000 3.396908e+000 3.217728e+000 2.575834e+000 3.208227e+000 3.324945e+000 1.284223e+000 1.584519e-001 4.051919e-001 3.293501e-001 3.547845e-001 4.362167e-001 4.452458e-001 4.829681e-001 6.577846e-001 4.642256e-001 3.903376e-001 4.694708e-001 6.233277e-001 2.199681e-001
<GCONST> 1.093129e+002
<MIXTURE> 6 3.920065e-002
<MEAN> 39
 4.396986e+000 4.140050e-001 3.705972e-001 -1.339748e+001 -1.092973e+001 5.775712e+000 -1.660561e+001 -6.702899e+000 -1.987885e+000 2.670100e+000 6.174284e+000 -6.352262e+000 7.249367e+001 3.000914e-001 -4.874584e-001 1.637043e-001 -2.854693e-001 -7.060701e-002 1.311615e-001 -9.166515e-001 -4.391294e-001 1.788301e-001 3.839876e-001 4.059887e-001 -5.465346e-001 4.571822e-001 -6.073518e-001 2.436936e-001 -3.261763e-002 9.477211e-001 5.594949e-001 -6.235387e-001 7.215986e-001 5.848956e-001 4.219707e-001 -1.957833e-001 -6.792402e-001 1.118726e-001 -4.843003e-001
<VARIANCE> 39
 6.135518e+000 3.625416e+001 1.912974e+001 4.008019e+001 3.101418e+001 2.769627e+001 5.142722e+001 3.949517e+001 3.636165e+001 4.791395e+001 2.006299e+001 3.837700e+001 1.106038e+001 1.674962e+000 4.426678e+000 2.161314e+000 8.576186e+000 3.870338e+000 4.466384e+000 5.810605e+000 3.834832e+000 5.419509e+000 4.087136e+000 3.887434e+000 3.936387e+000 2.954983e+000 2.938724e-001 4.971617e-001 3.840021e-001 8.228223e-001 5.960691e-001 5.731227e-001 1.040541e+000 6.741812e-001 7.238533e-001 8.681186e-001 5.322824e-001 8.976650e-001 3.468547e-001
<GCONST> 1.256288e+002
<MIXTURE> 7 2.438546e-002
<MEAN> 39
 -1.057859e+001 2.306824e+000 -3.045777e+000 -1.335184e+000 -3.114111e+000 -9.887894e-001 3.195983e-001 2.325226e+000 2.520911e+000 2.491127e+000 2.163678e+000 1.128352e+000 5.099469e+001 4.231630e-002 8.137789e-002 1.394462e-001 2.312675e-001 2.769920e-001 2.696734e-001 1.938066e-001 1.477655e-001 1.315802e-001 8.018783e-002 -9.782395e-003 -4.747511e-002 -2.246343e-003 1.929576e-002 5.447515e-002 1.781448e-001 2.883030e-001 3.930063e-001 5.043915e-001 3.373452e-001 1.835980e-001 3.392768e-002 -4.658390e-002 -1.044664e-001 -1.036776e-001 3.011159e-002
<VARIANCE> 39
 6.693154e-001 1.434768e+000 2.724083e+000 3.502970e+000 4.067526e+000 5.730047e+000 7.455607e+000 7.919498e+000 8.419733e+000 8.388247e+000 9.220077e+000 8.877340e+000 1.913609e-001 8.996399e-002 1.574923e-001 3.098052e-001 4.559534e-001 6.020138e-001 8.064498e-001 1.050253e+000 1.202322e+000 1.034979e+000 1.053877e+000 1.200420e+000 1.145238e+000 3.387402e-002 1.506254e-002 3.368708e-002 6.422255e-002 9.321573e-002 1.060230e-001 1.409432e-001 2.070368e-001 1.886363e-001 1.785970e-001 1.914226e-001 2.306885e-001 2.112800e-001 5.565874e-003
<GCONST> 4.670607e+001
<MIXTURE> 8 1.533185e-002
<MEAN> 39
 -1.435132e+001 -5.250021e-002 -4.473638e+000 3.491580e+000 3.752117e-001 8.369021e+000 9.006660e-002 4.151317e-002 2.971916e+000 8.626129e-001 6.129926e+000 -1.378997e+000 5.524009e+001 -2.051001e-001 -1.244512e-001 -4.258496e-002 2.469761e-001 4.049080e-002 -1.109673e-002 1.149718e-001 1.539201e-001 3.331680e-002 -3.587824e-001 3.723913e-001 -6.482067e-002 2.150769e-001 2.588230e-001 2.351904e-001 1.778595e-001 -2.445556e-001 -1.598825e-001 -4.455650e-001 1.054055e-001 2.703249e-001 3.381854e-002 9.422450e-002 -2.389414e-001 1.497102e-001 -2.571927e-001
<VARIANCE> 39
 2.605922e+000 2.888902e+000 4.739197e+000 6.284302e+000 9.967117e+000 1.099600e+001 1.386122e+001 1.283964e+001 1.434285e+001 1.586117e+001 1.326788e+001 1.339192e+001 1.138532e+000 5.786991e-001 4.476110e-001 5.168754e-001 9.699664e-001 1.112483e+000 1.682938e+000 1.582877e+000 1.516578e+000 1.292836e+000 1.714967e+000 1.712149e+000 1.735330e+000 4.172317e-001 4.895682e-002 5.676180e-002 8.610778e-002 1.434529e-001 1.962545e-001 2.358832e-001 2.880128e-001 2.856250e-001 3.080886e-001 3.690144e-001 3.392293e-001 3.088264e-001 3.099918e-002
<GCONST> 7.442343e+001
<MIXTURE> 9 7.647999e-002
<MEAN> 39
 -1.561559e+000 7.207173e+000 5.568437e+000 -1.060698e-002 -7.590300e+000 -3.288794e+000 -4.185929e+000 8.403307e-001 2.879136e-001 1.608987e-002 -5.879729e-001 -4.308033e+000 6.179401e+001 -1.034760e+000 3.406836e-001 -1.135739e+000 8.397629e-001 1.426712e+000 4.263459e-002 1.087262e+000 -2.801130e-001 1.894138e-001 -1.050823e-001 -2.491363e-001 7.149854e-001 -1.591308e+000 -3.651944e-001 -5.988123e-001 -7.074222e-002 -5.255574e-001 -3.095346e-001 7.617456e-002 -5.597812e-001 -6.484717e-004 -1.297864e-001 4.430405e-003 2.664998e-001 -1.044209e-001 7.877216e-001
<VARIANCE> 39
 1.738965e+001 3.143942e+001 4.856135e+001 2.307168e+001 5.225317e+001 4.150175e+001 2.405322e+001 3.627383e+001 3.412519e+001 2.977266e+001 2.679745e+001 2.467239e+001 1.648393e+001 2.676797e+000 2.531543e+000 2.937196e+000 2.322448e+000 3.347482e+000 2.621535e+000 2.903037e+000 2.204302e+000 2.553933e+000 2.332770e+000 2.023955e+000 2.376136e+000 2.461356e+000 3.192641e-001 3.590635e-001 4.327884e-001 3.938689e-001 5.680326e-001 4.692722e-001 5.117221e-001 4.310256e-001 5.090522e-001 4.917958e-001 4.309565e-001 4.083191e-001 3.671709e-001
<GCONST> 1.169001e+002
<MIXTURE> 10 3.029312e-002
<MEAN> 39
 3.632339e+000 4.252409e+000 1.197955e+000 -1.184645e+001 -9.490668e+000 4.733537e+000 -1.201067e+001 -2.986481e+000 -1.751027e+000 -2.682714e+000 4.449167e+000 -8.968321e+000 6.953677e+001 2.490913e-002 4.516926e-001 2.318190e-001 1.253962e-001 -2.144006e-002 4.227335e-002 8.602192e-002 -3.674817e-002 -2.100447e-001 -4.631494e-002 1.234869e-001 3.093086e-001 -3.236914e-001 -1.337606e-001 -5.029083e-003 2.059668e-002 3.702866e-001 1.330573e-001 -2.202786e-001 9.454431e-002 6.370102e-003 1.566406e-001 1.897391e-001 -1.313853e-001 1.260674e-001 -6.708159e-002
<VARIANCE> 39
 6.689024e+000 3.548271e+001 3.718624e+001 5.332301e+001 3.321385e+001 2.507615e+001 3.027407e+001 2.923187e+001 2.606246e+001 5.104678e+001 2.565096e+001 3.283482e+001 1.184118e+001 2.927614e-001 1.210611e+000 1.030553e+000 2.246180e+000 1.275409e+000 1.392845e+000 1.784038e+000 1.897833e+000 1.439736e+000 1.850459e+000 1.908653e+000 2.109962e+000 5.369948e-001 8.649399e-002 1.622961e-001 2.980745e-001 3.600955e-001 2.882975e-001 2.715608e-001 3.358968e-001 3.820510e-001 3.214370e-001 3.500712e-001 4.044253e-001 3.513980e-001 9.700744e-002
<GCONST> 1.004309e+002
<MIXTURE> 11 3.488234e-002
<MEAN> 39
 -1.069329e+001 2.460973e+000 -1.798412e+000 1.484421e+000 1.758726e+000 4.632441e+000 4.603051e+000 4.377407e+000 1.826847e+000 -8.527759e-003 -6.652988e-001 -9.053525e-001 5.102455e+001 2.794717e-002 -1.226997e-002 3.179898e-002 8.869565e-002 4.296475e-002 2.038794e-002 5.816806e-002 1.019513e-001 1.518276e-001 1.496249e-001 6.769715e-002 6.783803e-002 -3.206420e-002 1.877808e-002 2.002861e-002 -4.909161e-002 -1.808852e-001 -3.533218e-001 -3.676656e-001 -3.498334e-001 -1.453934e-001 1.680196e-001 3.049136e-001 3.230126e-001 2.341018e-001 2.646814e-002
<VARIANCE> 39
 6.249330e-001 1.439724e+000 2.881750e+000 4.211997e+000 4.935797e+000 5.306097e+000 7.895776e+000 1.031447e+001 9.789638e+000 8.282907e+000 8.938014e+000 7.990793e+000 2.574566e-001 1.032056e-001 2.090184e-001 3.113492e-001 5.634740e-001 7.457017e-001 9.128695e-001 1.166391e+000 1.287678e+000 1.214402e+000 1.231572e+000 1.371361e+000 1.082466e+000 3.342275e-002 1.662812e-002 2.993951e-002 5.951350e-002 9.885276e-002 1.007065e-001 1.380186e-001 1.649180e-001 2.365476e-001 2.317565e-001 2.082887e-001 2.179857e-001 1.815764e-001 6.352768e-003
<GCONST> 4.930485e+001
<MIXTURE> 12 3.872136e-002
<MEAN> 39
 -2.850888e+000 1.291581e-001 1.742854e+001 -5.073238e+000 -2.452909e+001 -7.044036e+000 -1.070612e+001 3.649064e+000 -7.882060e+000 -5.274919e-001 6.498917e+000 -5.617932e+000 7.392070e+001 1.851035e-001 7.737888e-001 -3.679019e-001 6.654651e-001 7.353404e-001 -7.702199e-002 9.893053e-001 -2.345020e-001 2.108369e-001 1.232454e-001 -5.459730e-002 1.101541e-001 -9.591292e-001 -1.284995e-001 3.335163e-001 -8.692935e-001 3.264311e-001 1.270050e+000 3.543602e-001 3.062291e-001 -2.173339e-001 7.404523e-001 -1.001203e-001 -5.460114e-001 6.381627e-002 -6.227049e-001
<VARIANCE> 39
 5.661159e+000 2.286710e+001 2.626990e+001 2.281228e+001 1.977146e+001 3.134710e+001 3.078015e+001 3.022014e+001 2.403323e+001 3.098910e+001 2.255789e+001 2.559498e+001 1.039040e+001 1.148621e+000 4.162880e+000 4.010084e+000 2.347193e+000 5.550308e+000 3.503744e+000 3.976843e+000 3.074080e+000 3.960531e+000 2.805199e+000 2.676108e+000 2.517474e+000 2.845308e+000 3.647474e-001 4.603989e-001 5.885301e-001 3.776763e-001 7.902690e-001 4.577110e-001 7.430992e-001 3.735075e-001 5.215811e-001 5.296094e-001 4.878227e-001 6.722417e-001 3.117710e-001
<GCONST> 1.169989e+002
<MIXTURE> 13 2.814783e-002
<MEAN> 39
 -5.663216e-001 -4.240794e+000 9.214661e+000 -3.978257e+000 -1.778049e+001 -1.012961e+001 -1.261515e+001 7.058168e+000 1.337834e+000 -3.318499e+000 1.578882e+000 -4.005411e+000 7.548221e+001 8.341649e-001 -1.811211e+000 7.155142e-001 -1.319427e+000 -1.722344e+000 -6.453180e-001 -1.078049e+000 1.259935e+000 -3.060209e-001 -4.009778e-001 5.629238e-001 -8.281419e-001 1.561270e+000 -4.577614e-001 6.197759e-001 -3.366166e-001 2.022097e-001 7.011208e-001 7.644596e-001 4.766678e-001 -6.425791e-001 -5.175744e-002 2.727889e-001 4.979850e-002 -1.747924e-001 -6.555259e-001
<VARIANCE> 39
 7.478699e+000 3.064185e+001 2.911519e+001 1.829368e+001 2.671580e+001 1.821352e+001 3.769041e+001 2.605771e+001 3.056781e+001 1.819798e+001 2.729374e+001 2.260951e+001 8.957178e+000 2.919358e+000 3.075527e+000 5.038527e+000 2.175153e+000 5.649659e+000 3.385477e+000 5.256526e+000 4.202082e+000 5.396795e+000 3.247362e+000 3.952541e+000 3.626887e+000 1.786575e+000 6.818217e-001 6.078914e-001 4.040315e-001 4.370305e-001 6.088936e-001 4.916963e-001 6.957268e-001 5.952824e-001 5.544657e-001 4.958046e-001 5.658957e-001 7.466033e-001 3.887256e-001
<GCONST> 1.203471e+002
<MIXTURE> 14 3.034313e-002
<MEAN> 39
 -9.824271e+000 3.088630e+000 -2.309134e+000 -7.022168e-001 -1.655783e+000 1.725667e+000 3.103308e+000 4.442082e+000 3.359429e+000 2.169771e+000 9.518070e-001 1.932538e-002 5.135944e+001 -4.488379e-002 -6.824883e-002 -1.283166e-001 -1.416082e-001 -2.027862e-001 -2.355680e-001 -1.069738e-001 -2.052579e-002 1.320984e-001 2.891967e-001 2.117075e-001 2.138975e-001 -3.462831e-002 -1.074214e-001 -6.949339e-002 4.609459e-002 1.683993e-001 1.776584e-001 8.793186e-002 -7.937455e-002 -1.173144e-001 -6.307042e-002 -1.288954e-002 6.448442e-002 7.391553e-002 -3.583321e-002
<VARIANCE> 39
 4.533884e-001 1.338769e+000 2.082169e+000 2.849311e+000 3.904773e+000 5.251954e+000 6.522698e+000 7.497424e+000 6.615902e+000 8.195063e+000 1.170630e+001 8.823830e+000 1.653404e-001 7.741619e-002 1.835417e-001 3.226684e-001 5.330391e-001 7.213725e-001 9.810711e-001 1.151461e+000 1.270064e+000 1.124056e+000 1.052793e+000 1.212486e+000 1.064863e+000 2.353497e-002 1.128072e-002 3.041619e-002 5.080087e-002 7.391679e-002 8.908419e-002 1.252469e-001 1.533993e-001 1.960888e-001 1.679408e-001 2.117473e-001 2.715873e-001 1.832652e-001 4.209220e-003
<GCONST> 4.402588e+001
<MIXTURE> 15 3.104415e-002
<MEAN> 39
 -8.123584e+000 5.977136e+000 -5.645554e-001 2.409297e-002 -3.639621e+000 -3.101329e+000 -2.860405e+000 -1.264717e+000 1.516926e+000 2.119957e+000 3.101892e+000 2.455208e-001 5.522974e+001 -4.561383e-001 -6.228486e-001 -5.401521e-001 -1.432901e-001 3.928836e-002 2.465980e-001 3.925233e-001 4.114893e-001 6.674585e-002 -5.251874e-002 -4.293389e-002 1.800028e-001 -1.869435e-001 -6.769074e-002 -6.935499e-002 6.688168e-002 -2.134520e-001 -1.624607e-001 4.360876e-002 -4.657160e-002 3.293107e-001 -1.136441e-002 -6.169462e-002 -2.076821e-001 -1.397031e-001 9.524883e-001
<VARIANCE> 39
 1.725707e+001 1.083988e+001 1.670296e+001 1.601605e+001 1.928074e+001 2.061231e+001 3.092161e+001 2.087150e+001 2.188269e+001 1.844670e+001 1.675793e+001 1.602627e+001 4.235736e+000 2.227508e+000 1.080079e+000 1.939684e+000 1.688515e+000 1.735730e+000 2.429058e+000 2.174562e+000 2.252556e+000 2.292878e+000 1.690951e+000 1.914606e+000 1.802315e+000 3.236729e+000 4.074471e-001 2.308201e-001 2.932839e-001 3.450643e-001 3.404615e-001 3.857044e-001 4.699769e-001 4.420760e-001 4.696795e-001 4.005080e-001 3.532810e-001 3.434457e-001 3.996866e-001
<GCONST> 1.038972e+002
<MIXTURE> 16 1.886336e-002
<MEAN> 39
 -1.027743e+001 3.497504e+000 -7.886114e-001 1.354186e+000 5.541912e-002 3.731354e+000 4.838360e+000 6.817395e+000 6.050992e+000 3.687812e+000 1.494957e+000 9.503266e-002 5.148561e+001 -1.205220e-002 -8.491926e-002 -2.893768e-002 1.593168e-002 8.205656e-002 3.241445e-002 3.420976e-002 1.615332e-001 2.963271e-001 1.547032e-001 1.742356e-001 1.410233e-001 -4.118846e-002 -8.172957e-002 -9.990253e-002 -1.858214e-001 -9.491967e-002 -9.103876e-002 -1.231259e-001 -4.192678e-001 -5.484058e-001 -4.496571e-001 -2.089186e-001 1.023264e-001 1.718955e-001 9.626521e-002
<VARIANCE> 39
 1.864281e+000 2.546019e+000 4.788514e+000 6.514034e+000 6.995704e+000 7.949044e+000 8.720546e+000 7.815774e+000 1.026381e+001 1.043757e+001 1.086893e+001 1.103399e+001 7.481548e-001 2.478713e-001 2.794951e-001 4.766406e-001 5.435803e-001 7.582492e-001 9.492020e-001 1.359823e+000 1.498688e+000 1.385610e+000 1.593491e+000 1.731143e+000 1.282669e+000 1.128354e-001 5.757713e-002 6.324098e-002 9.809152e-002 1.339872e-001 1.492575e-001 2.454004e-001 2.247209e-001 1.886006e-001 2.199575e-001 2.773737e-001 2.844405e-001 2.530560e-001 2.584069e-002
<GCONST> 6.435744e+001
<MIXTURE> 17 4.754238e-002
<MEAN> 39
 -5.811290e+000 6.483004e+000 2.625052e+000 1.600412e+000 -4.343673e+000 -1.743289e+000 -3.535370e+000 -1.943179e-001 6.831340e-002 -5.681983e-001 -6.939080e-001 -2.847854e+000 6.090611e+001 4.533918e-001 -1.134208e+000 2.243153e-001 -1.436045e+000 -1.151559e+000 -1.947156e-002 -1.347779e+000 2.592453e-002 -4.902737e-001 1.317670e-001 1.046698e-001 -2.673528e-001 2.361542e+000 7.657415e-002 -4.621102e-001 2.451133e-001 -7.393054e-001 -7.186161e-001 -4.707798e-002 -6.213778e-001 1.302225e-001 6.551582e-002 1.291124e-001 3.057736e-001 -2.147309e-001 9.352459e-001
<VARIANCE> 39
 3.453022e+001 2.275206e+001 3.116333e+001 2.001281e+001 2.685561e+001 3.314161e+001 2.914133e+001 2.569640e+001 2.839443e+001 1.960735e+001 1.942565e+001 2.130287e+001 2.646437e+001 9.096599e+000 4.593154e+000 6.500304e+000 4.577189e+000 5.922394e+000 4.969327e+000 4.704456e+000 4.024018e+000 4.299031e+000 3.446076e+000 3.129739e+000 3.998405e+000 3.663466e+000 5.384603e-001 5.635735e-001 5.412484e-001 5.079384e-001 7.302464e-001 5.882015e-001 6.488795e-001 4.990590e-001 5.591261e-001 4.563941e-001 4.794759e-001 5.147651e-001 4.135613e-001
<GCONST> 1.256773e+002
<MIXTURE> 18 5.980511e-002
<MEAN> 39
 -1.311071e+001 5.393695e-001 -1.069683e+000 -3.387745e+000 -3.644336e+000 -2.339601e+000 -3.002105e+000 4.501909e+000 2.343574e+000 3.049585e+000 1.479019e+000 1.338745e+000 6.727046e+001 8.434752e-001 8.124212e-002 8.449754e-001 -5.012612e-001 -5.907531e-001 2.620746e-001 -8.996325e-001 -4.734403e-002 -1.279441e-001 -1.110308e-001 -2.134963e-001 -6.253724e-001 9.406086e-001 7.864588e-001 3.762673e-001 5.758646e-001 3.923507e-002 -6.015388e-001 1.414368e-002 -4.371983e-001 -4.638777e-001 -2.066924e-001 -3.082156e-001 2.548552e-002 -6.686345e-001 -2.087647e-001
<VARIANCE> 39
 4.667673e+001 3.154150e+001 6.243090e+001 5.084291e+001 4.932872e+001 5.853029e+001 4.719237e+001 4.466319e+001 4.392721e+001 3.901820e+001 3.310154e+001 2.449614e+001 2.444242e+001 9.375635e+000 3.340818e+000 5.405196e+000 3.603102e+000 4.879752e+000 4.768790e+000 5.039934e+000 4.726064e+000 4.293375e+000 3.240574e+000 3.260886e+000 3.878520e+000 6.111530e+000 6.283378e-001 6.264709e-001 9.685215e-001 9.173542e-001 8.239001e-001 1.055909e+000 1.029577e+000 7.991823e-001 8.283355e-001 8.183108e-001 6.937483e-001 6.240156e-001 7.171673e-001
<GCONST> 1.367651e+002
<MIXTURE> 19 3.280685e-002
<MEAN> 39
 -9.947526e+000 3.711112e+000 -4.391762e-001 1.876843e+000 5.059690e-001 1.926119e+000 2.060351e+000 3.296099e+000 2.595598e+000 1.766437e+000 1.481036e+000 8.426749e-001 5.121466e+001 4.482030e-003 -5.183276e-002 -1.620070e-001 -3.129166e-001 -2.837669e-001 -2.517642e-001 -1.554274e-001 -1.495643e-001 -1.992318e-001 -1.692303e-001 -1.358693e-001 -1.913247e-002 -1.344455e-002 -8.961821e-002 -1.602373e-001 -2.442930e-001 -2.558086e-001 -1.837992e-001 1.198927e-002 7.275768e-002 1.894204e-002 5.071216e-002 4.342866e-002 -3.822285e-002 -3.107895e-002 -1.649067e-002
<VARIANCE> 39
 5.016953e-001 1.084965e+000 1.950917e+000 3.732865e+000 4.632675e+000 6.280547e+000 8.953321e+000 9.663434e+000 9.669939e+000 9.090934e+000 8.340682e+000 8.661911e+000 1.922064e-001 7.695642e-002 1.690561e-001 3.446083e-001 5.989169e-001 7.390007e-001 7.748264e-001 8.681647e-001 1.140249e+000 1.222245e+000 1.381261e+000 1.154513e+000 9.330150e-001 2.277894e-002 1.187712e-002 2.710400e-002 4.591505e-002 8.884300e-002 1.220242e-001 1.582675e-001 2.002190e-001 2.252880e-001 2.287350e-001 2.412260e-001 1.834452e-001 1.789518e-001 4.376372e-003
<GCONST> 4.598700e+001
<MIXTURE> 20 2.962263e-002
<MEAN> 39
 1.856236e+000 -2.023427e+000 2.660825e+000 -3.188048e+000 -1.095299e+001 -3.943955e+000 -1.596260e+001 -1.962399e+000 5.456131e+000 2.393918e+000 -1.484742e+000 -8.505114e+000 7.285184e+001 7.668329e-001 -2.000623e+000 2.641332e-001 -1.425000e+000 -6.663415e-001 -2.380338e-001 -1.451886e+000 1.535731e+000 5.568106e-001 -3.196331e-001 -5.369825e-001 -9.797418e-001 1.550964e+000 -3.649564e-001 8.718268e-002 1.159334e-001 -2.589135e-001 4.544928e-002 3.390675e-001 5.966379e-001 3.250052e-001 -5.125699e-001 -4.077270e-001 4.122368e-001 1.844692e-001 -1.530836e-001
<VARIANCE> 39
 8.415129e+000 3.276219e+001 2.680397e+001 3.772449e+001 3.294435e+001 3.806581e+001 5.918623e+001 7.026206e+001 2.581712e+001 3.462479e+001 2.805686e+001 2.567908e+001 1.269688e+001 3.230392e+000 3.895090e+000 5.221758e+000 4.677314e+000 5.413408e+000 5.229763e+000 5.692250e+000 1.029967e+001 3.739272e+000 4.022383e+000 4.513651e+000 4.935122e+000 1.691952e+000 2.909949e-001 5.847385e-001 4.526429e-001 7.077881e-001 6.539462e-001 6.173335e-001 1.105222e+000 1.298537e+000 6.005139e-001 5.279389e-001 6.730211e-001 7.264804e-001 3.626929e-001
<GCONST> 1.287482e+002
<MIXTURE> 21 2.920192e-002
<MEAN> 39
 -2.665076e-001 -1.013747e+001 3.547736e-001 -9.584409e+000 -8.424448e+000 -1.427097e+000 -8.623765e+000 6.034106e+000 4.293683e+000 -5.745687e+000 -1.993854e+000 -1.279732e+001 7.860207e+001 -5.635561e-002 1.213258e-001 -1.966417e-001 -1.255921e-002 2.335300e-001 7.099733e-002 5.711090e-002 -1.503842e-001 3.071738e-002 4.578033e-002 -8.217333e-002 1.023049e-002 -3.288836e-002 8.320563e-002 2.112927e-001 1.008687e-001 7.863225e-002 -8.570131e-002 -1.063774e-001 -1.542341e-001 -5.658253e-002 1.362879e-002 1.901447e-001 3.081855e-002 1.804213e-001 -1.661716e-001
<VARIANCE> 39
 5.429893e+000 1.804681e+001 5.214640e+001 1.649670e+001 8.847308e+001 3.132558e+001 2.004223e+001 4.369451e+001 2.798762e+001 2.575396e+001 3.600307e+001 3.232703e+001 5.919403e+000 1.951967e-001 6.443772e-001 8.258856e-001 3.977570e-001 1.280691e+000 8.381153e-001 7.598407e-001 1.007798e+000 8.130190e-001 8.721931e-001 9.799343e-001 9.290421e-001 1.598841e-001 2.546764e-002 8.321359e-002 1.002569e-001 6.792441e-002 1.527428e-001 1.105214e-001 1.262331e-001 1.770021e-001 1.296153e-001 1.450257e-001 1.282748e-001 1.623011e-001 2.724429e-002
<GCONST> 7.700852e+001
<MIXTURE> 22 2.825357e-002
<MEAN> 39
 -7.050848e+000 1.032866e+001 2.184500e+001 -1.005115e+001 -2.195911e+001 7.627214e+000 -1.676076e+001 -1.410270e+000 -7.988348e+000 -8.377646e-001 1.143029e+000 -1.205322e+001 7.041150e+001 -1.556532e-002 4.187851e-001 -2.341355e-001 4.264598e-003 4.064861e-001 1.039841e-001 2.997185e-001 1.014959e-001 2.496850e-001 1.044541e-001 9.209386e-002 2.639917e-001 -2.545491e-001 1.474462e-001 -2.457414e-001 -7.026442e-001 7.066454e-001 7.217318e-001 -7.644069e-001 7.137551e-001 -4.457200e-002 3.312351e-001 -1.363561e-002 -6.656894e-002 4.652064e-001 -2.667852e-001
<VARIANCE> 39
 7.643040e+000 2.120756e+001 2.752428e+001 1.845089e+001 3.410175e+001 2.344400e+001 2.792493e+001 2.308588e+001 1.565682e+001 2.946820e+001 1.635731e+001 2.553219e+001 5.841046e+000 1.092309e+000 2.322953e+000 2.859228e+000 3.749501e+000 6.531308e+000 4.634838e+000 4.521780e+000 2.117074e+000 1.775710e+000 1.743359e+000 1.636412e+000 2.916900e+000 1.051570e+000 2.317920e-001 3.077404e-001 4.974120e-001 4.217210e-001 1.008679e+000 5.250912e-001 5.355291e-001 4.006296e-001 3.501211e-001 3.943393e-001 2.722898e-001 4.469307e-001 1.623395e-001
<GCONST> 1.095166e+002
<MIXTURE> 23 3.924129e-002
<MEAN> 39
 1.635069e+000 3.611504e+000 6.504989e+000 -1.521998e+000 -1.042957e+001 1.428838e-001 -1.254259e+001 -6.053943e+000 -3.958682e-001 -1.722888e+000 4.872439e+000 -1.048743e+001 6.836000e+001 -2.250969e-003 4.184092e-001 -1.599525e-001 3.857648e-001 2.682825e-001 9.519418e-002 3.220180e-001 -4.638171e-001 1.067086e-002 6.120942e-002 -1.328472e-001 -1.748534e-001 -3.286278e-001 -1.845223e-001 -4.374518e-001 8.821986e-002 -4.821045e-001 -3.097647e-001 -2.011074e-001 7.982719e-002 8.689922e-001 -1.967260e-002 -5.204497e-003 -3.656986e-001 3.046961e-001 4.241073e-001
<VARIANCE> 39
 5.128014e+000 1.571736e+001 2.517944e+001 1.431837e+001 2.384589e+001 2.167562e+001 2.512201e+001 2.722906e+001 2.807621e+001 3.957861e+001 2.369165e+001 3.426676e+001 4.732806e+000 7.783995e-001 2.577176e+000 2.214791e+000 2.915122e+000 2.572772e+000 3.600176e+000 2.519758e+000 6.453905e+000 3.388299e+000 2.760227e+000 2.859705e+000 3.700942e+000 1.461549e+000 1.320984e-001 3.906039e-001 4.612099e-001 3.135620e-001 5.640801e-001 4.915574e-001 4.556080e-001 7.669541e-001 5.259326e-001 4.642310e-001 4.538989e-001 6.154268e-001 1.509647e-001
<GCONST> 1.107395e+002
<MIXTURE> 24 2.603850e-002
<MEAN> 39
 -1.138870e+001 1.357519e+000 -3.315772e+000 -8.879826e-001 -1.707504e+000 9.436810e-001 1.127986e+000 1.724004e+000 6.424230e-001 -5.887842e-001 -7.566152e-001 -4.581786e-001 5.079788e+001 2.824264e-003 -1.947725e-002 -2.654277e-002 -3.658674e-002 -8.219118e-002 -1.146373e-001 -1.011614e-001 -4.259131e-002 -8.864973e-002 -3.878880e-002 -5.400795e-003 1.390222e-002 -3.253467e-002 1.284600e-001 1.799583e-001 1.706273e-001 1.684916e-001 1.530745e-001 1.579086e-001 1.561884e-001 2.308469e-001 3.280334e-001 3.810423e-001 3.272040e-001 1.589142e-001 5.815464e-002
<VARIANCE> 39
 5.880970e-001 1.558484e+000 2.960534e+000 4.788687e+000 5.140200e+000 5.943201e+000 8.041788e+000 1.019008e+001 9.146687e+000 1.041158e+001 9.646372e+000 1.011136e+001 2.753394e-001 8.944405e-002 1.859674e-001 3.630103e-001 6.644102e-001 7.616383e-001 9.882218e-001 9.801598e-001 1.095405e+000 1.313414e+000 1.371949e+000 1.159762e+000 1.094348e+000 2.928007e-002 1.620791e-002 3.550683e-002 8.136249e-002 1.202867e-001 1.231057e-001 1.439923e-001 2.047229e-001 2.450922e-001 2.337248e-001 2.262066e-001 2.198666e-001 2.324779e-001 7.086916e-003
<GCONST> 5.150369e+001
<MIXTURE> 25 4.002742e-002
<MEAN> 39
 1.485211e+000 -9.362732e+000 -1.845398e+000 -1.156550e+001 -6.080417e+000 3.106434e-001 -1.193322e+001 3.798411e+000 6.188331e+000 -1.287987e+000 -2.592835e+000 -1.480665e+001 7.788258e+001 4.462771e-002 -4.671403e-001 -2.136029e-001 -2.068462e-001 4.723087e-001 2.429188e-001 -1.148905e-001 2.210885e-001 2.427758e-001 -2.481673e-001 -1.835178e-001 -4.844024e-001 2.228810e-001 -1.359519e-001 8.408756e-001 3.030457e-001 5.783276e-001 -1.406799e-001 -1.430931e-001 2.411248e-001 -4.182435e-001 -3.547095e-001 2.693669e-001 2.112972e-001 7.207021e-001 -6.621059e-001
<VARIANCE> 39
 5.553799e+000 1.840347e+001 2.362895e+001 2.701375e+001 4.729973e+001 3.516637e+001 3.926864e+001 3.772758e+001 2.279121e+001 4.011056e+001 2.842988e+001 2.080586e+001 5.198681e+000 7.421569e-001 3.586035e+000 2.097309e+000 2.124886e+000 2.806947e+000 2.923494e+000 2.196341e+000 4.242641e+000 1.876120e+000 3.018934e+000 2.805705e+000 3.003977e+000 1.572585e+000 1.695264e-001 3.612725e-001 3.503342e-001 3.384449e-001 4.035420e-001 3.407682e-001 4.293608e-001 5.489722e-001 4.347405e-001 4.332529e-001 4.667156e-001 3.940332e-001 2.068267e-001
<GCONST> 1.101651e+002
<MIXTURE> 26 3.926495e-002
<MEAN> 39
 -1.084486e+001 2.044511e+000 -2.480792e+000 3.554207e-001 7.446881e-002 2.749500e+000 2.866127e+000 4.526088e+000 5.371557e+000 5.070653e+000 3.851835e+000 2.290412e+000 5.090891e+001 1.016411e-002 3.749511e-002 1.084004e-001 9.815634e-002 1.208126e-002 1.820768e-003 6.038254e-002 9.672774e-002 -3.323228e-003 -8.827762e-002 -1.963103e-002 -3.291015e-002 -1.345146e-002 4.719557e-002 9.421995e-002 6.436303e-002 -2.872429e-002 -1.113758e-001 -6.245114e-002 -2.006356e-002 -1.296331e-001 -3.982961e-001 -4.688747e-001 -3.549815e-001 -2.407179e-001 3.411366e-002
<VARIANCE> 39
 5.749606e-001 1.452366e+000 2.715696e+000 4.131740e+000 5.143660e+000 6.383827e+000 8.111460e+000 1.014071e+001 8.254384e+000 7.361035e+000 8.907814e+000 9.310767e+000 2.428986e-001 9.121063e-002 1.911119e-001 3.378230e-001 5.166186e-001 7.929248e-001 8.644882e-001 1.044968e+000 1.284655e+000 1.318672e+000 1.295747e+000 1.343397e+000 1.237943e+000 3.034534e-002 1.461674e-002 3.192928e-002 6.300637e-002 9.579006e-002 1.171091e-001 1.430108e-001 1.986250e-001 2.360631e-001 2.032390e-001 1.833602e-001 1.941136e-001 2.191729e-001 5.444873e-003
<GCONST> 4.900753e+001
<MIXTURE> 27 2.352149e-002
<MEAN> 39
 -3.128636e+000 7.832615e+000 1.079885e+001 -4.272504e+000 -1.411678e+001 -1.610504e+000 -9.239418e+000 -2.326562e+000 -4.743654e+000 -6.947528e-001 -3.527609e-002 -6.735570e+000 6.828390e+001 2.373722e+000 -2.214728e-001 2.534527e+000 -1.885291e+000 -3.979430e+000 5.108178e-001 -2.898511e+000 -7.870280e-001 -1.353078e+000 -3.955377e-001 9.579540e-001 -1.908405e+000 1.949000e+000 -5.267226e-001 -4.646404e-001 -5.897900e-001 -1.099310e-001 3.627237e-001 1.053068e-001 1.015787e-001 2.713723e-001 3.905030e-001 7.518470e-002 3.510622e-001 2.362411e-001 -6.589084e-002
<VARIANCE> 39
 2.959483e+001 2.820710e+001 8.126965e+001 3.343649e+001 6.852891e+001 3.793609e+001 3.471187e+001 2.275323e+001 2.932879e+001 2.381790e+001 2.024314e+001 2.321790e+001 1.552244e+001 6.363645e+000 3.436646e+000 4.965178e+000 4.459280e+000 4.056246e+000 6.355021e+000 4.741191e+000 4.257540e+000 3.087601e+000 3.902499e+000 3.497157e+000 3.773738e+000 1.739804e+000 6.403272e-001 5.034964e-001 5.978580e-001 4.837686e-001 1.041753e+000 6.844311e-001 6.963660e-001 5.301842e-001 5.028815e-001 5.129689e-001 4.620615e-001 4.398660e-001 2.987092e-001
<GCONST> 1.264869e+002
<MIXTURE> 28 1.336820e-002
<MEAN> 39
 -1.055673e+001 2.286226e+000 -2.838399e+000 -9.860550e-001 -1.920406e+000 1.689630e+000 2.998145e+000 3.734013e+000 2.848307e+000 1.946856e+000 1.659874e+000 1.565871e+000 5.103949e+001 -2.196501e-001 -3.667805e-001 -6.487862e-001 -6.984931e-001 -5.517788e-001 -6.892357e-001 -7.380559e-001 -8.059759e-001 -6.734063e-001 -5.273788e-001 -3.504642e-001 -2.366566e-002 -9.002722e-002 4.793800e-006 3.629612e-002 9.661079e-002 1.766523e-001 2.276751e-001 9.886629e-002 -4.190727e-002 1.144574e-002 2.386165e-002 5.411999e-002 -3.923858e-002 -1.390920e-001 9.129199e-003
<VARIANCE> 39
 4.567412e-001 1.372839e+000 2.124419e+000 4.430743e+000 4.662240e+000 8.710881e+000 1.038609e+001 1.058958e+001 1.092429e+001 8.873857e+000 7.106726e+000 1.143035e+001 2.205682e-001 8.015372e-002 1.823579e-001 2.867558e-001 4.703015e-001 6.167562e-001 7.819074e-001 1.038474e+000 1.083937e+000 1.010285e+000 1.373181e+000 1.095902e+000 9.391346e-001 1.893597e-002 1.016963e-002 2.892356e-002 6.016213e-002 1.172547e-001 1.226612e-001 1.930065e-001 2.342950e-001 2.577825e-001 2.361173e-001 2.189384e-001 1.757077e-001 2.463234e-001 4.668325e-003
<GCONST> 4.776105e+001
<MIXTURE> 29 1.138739e-002
<MEAN> 39
 -1.426369e+001 2.812183e+000 -3.859265e+000 -4.465317e-001 -2.392342e+000 4.293771e+000 -9.352738e-001 1.935636e+000 2.251086e+000 1.964935e+000 1.615376e+000 1.706077e+000 5.545739e+001 -1.808172e-001 1.219138e-001 3.746554e-002 3.535246e-002 -1.481012e-001 -2.628203e-002 8.590538e-003 -1.012505e-001 -3.195570e-001 -4.054242e-001 1.841923e-001 1.881609e-001 -1.543103e-001 4.417409e-001 -6.419596e-002 1.874341e-001 2.010914e-001 3.043999e-001 -2.238983e-001 3.065762e-001 1.680962e-001 1.521009e-001 8.560359e-002 -2.723400e-003 -3.621755e-001 -1.730285e-001
<VARIANCE> 39
 8.524436e+000 1.298244e+001 7.542140e+000 7.559944e+000 1.105351e+001 2.336308e+001 2.223013e+001 2.706663e+001 1.560674e+001 1.997893e+001 2.213679e+001 2.606485e+001 5.823687e+000 8.305067e-001 5.718395e-001 6.155184e-001 6.715542e-001 1.024215e+000 1.714099e+000 1.406982e+000 1.270890e+000 1.378501e+000 1.508078e+000 1.147466e+000 1.703443e+000 5.184533e-001 1.144069e-001 1.459211e-001 1.234244e-001 1.575569e-001 1.954136e-001 4.312199e-001 3.806651e-001 3.020747e-001 3.333233e-001 3.678196e-001 3.529146e-001 3.876580e-001 7.241586e-002
<GCONST> 8.712119e+001
<MIXTURE> 30 1.398783e-002
<MEAN> 39
 -1.077628e+001 2.658028e+000 -1.988084e+000 -1.218688e-001 -2.114286e+000 1.817950e+000 1.466626e+000 2.847905e+000 3.157265e+000 2.353210e+000 2.108608e+000 7.614167e-001 5.141423e+001 -4.287529e-001 -1.976386e-001 -3.290369e-001 1.738309e-001 -7.100056e-002 7.194317e-001 -6.614224e-001 -6.400152e-001 -6.500358e-002 9.709547e-002 4.176009e-001 2.228979e-001 4.460884e-001 -1.428322e-001 -5.140132e-002 -7.237721e-002 1.731261e-001 2.353676e-001 3.242345e-001 1.049141e-002 -5.797274e-002 -8.566335e-002 -1.036059e-001 3.029053e-002 3.601295e-003 2.284825e-001
<VARIANCE> 39
 1.160800e+000 1.770829e+000 3.243912e+000 4.860709e+000 7.414806e+000 8.931161e+000 9.200799e+000 8.524826e+000 8.686440e+000 1.148985e+001 1.136080e+001 1.269987e+001 7.111790e-001 5.216227e-001 5.306237e-001 6.753177e-001 6.908073e-001 1.090724e+000 1.967269e+000 1.227381e+000 1.207624e+000 1.491225e+000 1.635126e+000 1.776905e+000 1.745105e+000 2.549856e-001 8.047513e-002 6.754519e-002 1.157288e-001 1.253227e-001 2.143537e-001 2.282468e-001 2.613680e-001 2.867136e-001 2.222678e-001 2.946546e-001 2.983182e-001 2.542818e-001 2.505692e-002
<GCONST> 6.866366e+001
<MIXTURE> 31 1.360089e-002
<MEAN> 39
 -1.054028e+001 2.535475e+000 -2.404680e+000 1.107137e+000 1.440380e-001 3.498718e+000 2.428694e+000 4.686502e+000 4.179451e+000 3.286812e+000 1.972147e+000 2.303057e-001 5.303237e+001 -2.405115e-001 4.342491e-002 -3.770880e-002 -1.595828e-002 -3.051017e-001 3.536068e-001 -6.280791e-001 -7.159314e-001 -3.280927e-001 -2.309164e-001 1.271745e-001 7.796387e-003 4.998305e-001 3.331291e-002 9.658746e-002 1.831271e-001 -4.143168e-002 -2.554317e-001 -3.697339e-001 -3.201280e-001 -2.479296e-001 -2.233555e-001 -2.817648e-001 -1.339169e-001 -8.523058e-002 4.250520e-001
<VARIANCE> 39
 4.324958e+000 6.934118e+000 7.836221e+000 7.904104e+000 1.141754e+001 1.890567e+001 1.555537e+001 1.283572e+001 1.316087e+001 1.323489e+001 1.952450e+001 1.614296e+001 2.780420e+000 1.293342e+000 1.415742e+000 1.588394e+000 1.465116e+000 1.769422e+000 3.080014e+000 2.670409e+000 2.336504e+000 2.341054e+000 2.441179e+000 3.014180e+000 1.693240e+000 2.172380e+000 2.833674e-001 2.176653e-001 2.460855e-001 2.024750e-001 2.819619e-001 3.228673e-001 4.642908e-001 3.584831e-001 3.455875e-001 3.238064e-001 4.169824e-001 3.451828e-001 2.874085e-001
<GCONST> 9.558621e+001
<MIXTURE> 32 1.568484e-002
<MEAN> 39
 -1.212233e+001 1.871681e+000 -2.713718e+000 1.650737e+000 -8.334429e-001 4.060698e+000 7.517322e-001 1.696077e+000 3.350952e+000 1.911821e+000 4.603520e+000 8.273268e-002 5.322093e+001 6.228034e-001 1.813323e-001 3.164665e-001 -3.051127e-001 -1.161646e-001 -6.273438e-001 4.012303e-001 3.575872e-001 8.088036e-002 1.208220e-001 -7.644390e-001 -9.425578e-002 -5.871396e-001 -4.977642e-002 -3.834869e-002 -5.734875e-002 -4.023053e-002 4.612573e-002 8.179858e-002 7.215079e-002 6.078889e-002 -2.979852e-002 -7.427384e-002 -1.960222e-001 -7.180423e-002 4.919159e-002
<VARIANCE> 39
 1.545834e+000 3.201447e+000 5.159839e+000 6.545140e+000 8.496091e+000 9.369843e+000 1.045769e+001 1.153941e+001 8.325459e+000 1.096308e+001 1.486722e+001 1.040608e+001 1.176862e+000 2.331812e-001 2.982399e-001 4.748563e-001 6.820607e-001 9.014860e-001 1.072585e+000 1.377935e+000 1.240038e+000 1.097404e+000 1.298495e+000 1.358081e+000 1.427885e+000 6.710252e-002 3.764759e-002 4.229419e-002 7.884292e-002 1.321688e-001 1.720480e-001 1.880987e-001 2.403496e-001 2.350453e-001 1.694921e-001 2.108753e-001 3.007518e-001 2.332742e-001 1.403763e-002
<GCONST> 6.314282e+001
<TRANSP> 3
 0.000000e+000 1.000000e+000 0.000000e+000
 0.000000e+000 9.985017e-001 1.498371e-003
 0.000000e+000 0.000000e+000 0.000000e+000
<ENDHMM>
~h "pavel_rada"
<BEGINHMM>
<NUMSTATES> 3
<STATE> 2
<NUMMIXES> 32
<MIXTURE> 1 4.394424e-003
<MEAN> 39
 -9.114419e+000 1.407666e+000 -1.281642e+000 1.468293e+000 5.099686e-001 1.368000e+000 1.166855e+000 2.317917e+000 4.124593e-001 2.270908e+000 4.432188e-001 1.506187e+000 5.485358e+001 5.304589e+000 -3.199274e+000 1.231203e+000 -1.574399e+000 4.900100e+000 -2.325126e+000 1.056970e+000 1.730386e+000 6.685289e-002 3.312083e+000 -1.163949e+000 6.540437e-001 8.735796e+000 -1.498404e+000 7.249871e-001 5.828602e-001 -1.172733e-001 -5.616049e-001 5.338140e-001 6.180360e-002 -1.954573e-001 -3.934355e-001 8.215474e-002 1.531810e-001 -1.282305e-001 -2.503525e+000
<VARIANCE> 39
 1.235142e+000 1.264793e+000 1.779473e+000 1.483656e+000 4.537983e+000 3.461289e+000 4.456219e+000 3.319403e+000 2.574226e+000 3.837135e+000 2.924939e+000 6.470782e+000 6.230238e+001 3.102638e+000 1.107069e+000 1.835314e+000 1.231666e+000 1.194082e+000 1.706021e+000 1.404131e+000 1.537722e+000 2.074187e+000 1.199563e+000 1.464856e+000 5.695567e-001 9.015149e+000 3.491270e-001 2.734460e-001 3.065433e-001 2.952713e-001 4.010110e-001 3.432151e-001 2.438947e-001 2.503736e-001 2.726143e-001 3.430725e-001 1.328026e-001 2.390537e-001 1.525644e+000
<GCONST> 7.943801e+001
<MIXTURE> 2 3.618467e-002
<MEAN> 39
 4.424265e+000 -7.832091e+000 1.763113e-001 -1.677954e+001 1.175646e-001 -5.358614e+000 -8.109700e+000 1.278885e+000 -1.050141e+001 7.401948e+000 5.514820e+000 -7.589801e+000 7.460162e+001 -6.440305e-001 1.647130e+000 7.644826e-001 9.997621e-001 1.366981e+000 -9.198301e-002 7.368054e-001 -4.016749e-001 -4.449278e-001 6.753123e-001 -1.023260e+000 6.524448e-001 -1.493273e+000 -7.178816e-001 5.161613e-001 2.777270e-001 4.777049e-001 5.047004e-001 -2.299944e-001 5.688400e-001 -9.913560e-002 1.618149e-001 1.950598e-001 -8.858579e-001 6.170711e-001 -4.612716e-001
<VARIANCE> 39
 6.613088e+000 1.774688e+001 3.337568e+001 6.646027e+001 2.506200e+001 6.091528e+001 5.052475e+001 6.083337e+001 5.125230e+001 4.830188e+001 4.249730e+001 3.242110e+001 8.393848e+000 9.683481e-001 1.827992e+000 1.722644e+000 3.172338e+000 2.531757e+000 3.200270e+000 2.532744e+000 3.627441e+000 2.889597e+000 2.902776e+000 3.071822e+000 2.500734e+000 1.514925e+000 3.237698e-001 3.492984e-001 3.199619e-001 4.900206e-001 6.320909e-001 6.208255e-001 4.417917e-001 6.733180e-001 7.791104e-001 5.809438e-001 6.117961e-001 5.509725e-001 2.431290e-001
<GCONST> 1.183641e+002
<MIXTURE> 3 2.898359e-002
<MEAN> 39
 -4.535724e+000 1.684409e+000 8.719790e+000 -1.153653e+001 7.436778e+000 -1.164899e+001 -2.315513e+000 -6.007134e-001 -1.065934e+001 9.854468e+000 -3.547172e+000 2.066021e+000 7.071743e+001 -3.487548e+000 1.016317e+000 7.492912e-001 7.251750e-001 2.458306e+000 -6.623712e-001 2.033441e+000 4.281359e-001 1.484756e+000 6.195101e-001 -1.601463e+000 1.964953e+000 -6.274390e-001 -2.483211e-001 -7.538943e-001 -3.508210e-001 -7.529436e-002 -6.354457e-001 2.156766e-001 -1.541268e-001 3.137310e-001 5.685798e-002 -4.159136e-001 4.232268e-001 -3.445855e-001 1.944863e-001
<VARIANCE> 39
 2.814476e+001 2.963943e+001 6.940202e+001 8.039856e+001 4.135653e+001 5.758568e+001 3.865318e+001 3.832026e+001 4.533131e+001 3.314646e+001 2.518518e+001 2.898444e+001 1.308221e+001 3.075586e+000 2.949259e+000 3.012220e+000 3.129584e+000 3.232698e+000 4.289953e+000 3.436743e+000 4.747067e+000 3.137912e+000 3.537315e+000 2.774150e+000 2.499976e+000 2.031830e+000 5.755357e-001 2.756144e-001 2.912430e-001 5.177644e-001 6.270442e-001 7.762688e-001 6.796118e-001 5.373285e-001 6.117373e-001 4.836119e-001 4.533044e-001 5.241203e-001 1.709427e-001
<GCONST> 1.236267e+002
<MIXTURE> 4 2.546407e-002
<MEAN> 39
 -1.349305e+001 7.631958e-001 3.774076e+000 -4.516814e+000 1.067917e+001 -1.604903e+000 3.571889e+000 3.767173e+000 -6.144220e+000 9.639510e+000 -4.872351e+000 -8.477534e-001 4.965013e+001 5.179264e-002 -7.012643e-002 -2.317757e-001 2.295241e-001 -1.475472e-001 3.005256e-001 -7.445776e-002 3.616878e-002 3.495063e-001 -4.859925e-002 8.813313e-002 -1.598890e-002 -1.217197e-001 4.588730e-002 1.587650e-002 -4.555712e-002 -5.436210e-004 -7.609026e-002 -2.570391e-002 -6.716213e-002 -6.125357e-002 3.961172e-002 -6.357795e-003 8.805903e-002 1.076430e-001 1.201004e-002
<VARIANCE> 39
 1.368100e+000 1.651925e+000 5.467499e+000 1.120338e+001 8.859568e+000 1.918950e+001 8.646116e+000 1.156833e+001 1.644301e+001 1.085007e+001 9.216650e+000 7.128730e+000 1.107225e+000 9.530860e-002 1.511668e-001 3.024473e-001 3.823108e-001 6.851046e-001 1.142134e+000 1.124139e+000 1.257880e+000 1.207222e+000 1.441799e+000 1.022606e+000 8.510978e-001 3.712710e-002 1.851511e-002 2.555690e-002 5.321386e-002 7.394952e-002 1.230510e-001 2.268396e-001 1.944884e-001 2.303873e-001 2.298145e-001 2.306681e-001 1.808136e-001 1.581235e-001 4.723310e-003
<GCONST> 5.492061e+001
<MIXTURE> 5 3.553944e-002
<MEAN> 39
 4.887277e-001 -7.908395e+000 1.442639e+001 -4.257705e+000 -6.515963e+000 -1.706847e+001 -1.068403e+001 7.990621e+000 -1.559237e+001 -1.127485e+000 4.554888e+000 -6.192931e-001 7.310479e+001 -4.388300e-001 1.413186e+000 -3.279064e-001 5.199850e-001 1.718130e+000 2.496447e-001 1.280450e+000 -8.764212e-001 4.580477e-001 1.329182e+000 -1.181808e+000 3.440533e-001 -1.532607e+000 -3.257509e-001 3.780711e-001 -3.528305e-001 -1.513912e-001 5.885333e-001 4.488894e-001 4.330523e-001 -6.297178e-001 4.388012e-001 7.214609e-001 -5.256282e-001 -6.078636e-002 -3.656563e-001
<VARIANCE> 39
 1.017248e+001 1.476753e+001 5.091359e+001 2.368283e+001 5.320345e+001 4.007746e+001 3.479538e+001 4.081429e+001 5.087765e+001 3.273764e+001 3.152639e+001 1.923256e+001 1.104722e+001 1.131496e+000 1.665369e+000 3.930523e+000 2.655164e+000 3.780828e+000 3.721853e+000 2.922835e+000 2.898398e+000 4.388134e+000 3.044507e+000 2.764651e+000 1.712651e+000 1.908113e+000 2.093677e-001 3.042331e-001 3.812527e-001 3.937799e-001 8.747914e-001 5.030944e-001 6.499345e-001 6.329994e-001 6.277506e-001 6.816543e-001 5.997282e-001 4.233087e-001 1.969290e-001
<GCONST> 1.172848e+002
<MIXTURE> 6 4.033073e-002
<MEAN> 39
 3.644549e+000 -8.141065e+000 1.278660e+000 -1.730358e+001 -6.973813e-001 -6.294703e+000 -8.668226e+000 -2.218867e+000 -9.893038e+000 1.047886e+001 3.727795e+000 -6.353833e+000 7.572741e+001 1.264577e+000 -1.447189e+000 -7.560340e-001 -4.403919e-001 -8.419118e-001 5.004041e-001 -1.076411e+000 5.610704e-001 2.817118e-001 -4.210234e-001 1.434753e+000 -1.623291e+000 7.416006e-001 -7.012890e-001 3.679616e-001 3.551137e-001 6.409667e-001 2.156860e-001 -1.254962e-001 5.740605e-001 3.508719e-001 5.488377e-002 -4.221339e-001 -5.525241e-001 6.561377e-001 -5.950216e-001
<VARIANCE> 39
 8.760231e+000 2.146027e+001 3.366714e+001 5.801385e+001 2.939396e+001 5.671869e+001 6.753468e+001 4.421508e+001 5.152299e+001 5.352914e+001 3.706141e+001 4.479497e+001 1.105976e+001 2.809701e+000 2.111356e+000 3.620020e+000 6.271648e+000 5.265699e+000 6.474648e+000 5.856466e+000 5.587373e+000 5.022009e+000 4.420882e+000 4.736217e+000 4.412341e+000 1.062385e+000 4.571655e-001 3.616928e-001 3.807229e-001 8.343845e-001 1.085410e+000 8.329801e-001 8.197875e-001 7.965655e-001 1.001272e+000 9.272684e-001 7.525762e-001 7.925154e-001 3.685805e-001
<GCONST> 1.307096e+002
<MIXTURE> 7 4.395995e-002
<MEAN> 39
 -3.166785e+001 1.371886e+001 -2.432645e-002 5.084892e+000 -1.450548e+001 1.144607e+001 1.176938e+000 -1.917341e+000 -1.379389e+000 -4.299260e+000 5.630121e+000 -1.903866e-002 1.799588e+001 1.343567e-001 -2.027692e-001 -3.663273e-001 -8.072352e-002 2.360671e-001 6.201562e-002 -1.923517e-001 -1.875130e-003 1.919137e-001 1.293470e-001 -1.361474e-001 -1.279288e-001 9.943032e-002 3.654666e-002 -6.247619e-002 -1.233767e-001 8.515185e-003 8.285983e-002 -1.695229e-002 -5.503262e-002 -1.103982e-002 1.032137e-001 2.347162e-002 -5.624750e-002 -2.978182e-002 3.004696e-002
<VARIANCE> 39
 1.443206e-001 8.110435e-001 1.519136e+000 1.910599e+000 2.592820e+000 3.426849e+000 3.737509e+000 3.872710e+000 4.092844e+000 4.631583e+000 4.476676e+000 4.308159e+000 9.064632e-002 2.571661e-002 7.738365e-002 1.913799e-001 1.904972e-001 2.468907e-001 3.878552e-001 4.096789e-001 4.764668e-001 4.575874e-001 4.569616e-001 4.737232e-001 3.711645e-001 1.367689e-002 4.996370e-003 1.841358e-002 3.792971e-002 3.960254e-002 4.994290e-002 8.678648e-002 8.978739e-002 8.601404e-002 8.987466e-002 1.003014e-001 8.959358e-002 9.208059e-002 2.571550e-003
<GCONST> 1.627994e+001
<MIXTURE> 8 2.136313e-002
<MEAN> 39
 -6.885418e+000 3.551655e+000 6.470066e+000 -4.416918e+000 5.504601e+000 -3.555723e+000 -1.448381e+000 -9.358622e-001 -1.008720e+001 8.194881e+000 -1.555705e+000 -1.437439e+000 5.448254e+001 -6.246136e-001 9.181934e-002 -1.008561e-001 2.281197e-001 7.058354e-001 2.107739e-001 4.263497e-001 2.285503e-001 3.356418e-001 2.615632e-001 -1.830487e-001 1.769378e-001 -5.085269e-001 -2.845558e-002 -7.112931e-002 2.026012e-002 -4.316080e-002 1.822356e-002 3.026438e-002 1.172065e-001 2.184818e-001 8.979497e-002 1.371823e-001 7.752541e-002 4.139461e-002 7.565860e-002
<VARIANCE> 39
 2.428315e+001 1.851949e+001 6.371052e+001 4.579379e+001 4.333826e+001 3.163433e+001 3.037139e+001 2.035112e+001 2.849809e+001 2.396269e+001 2.356474e+001 1.789520e+001 9.706160e+000 4.133046e-001 6.736884e-001 1.621347e+000 1.665206e+000 2.004165e+000 1.254772e+000 1.714617e+000 1.545579e+000 1.942422e+000 1.648731e+000 1.541420e+000 1.153282e+000 2.219714e-001 7.302164e-002 1.229005e-001 2.208534e-001 2.075613e-001 3.305630e-001 3.021231e-001 2.585935e-001 3.213793e-001 3.797966e-001 2.409594e-001 2.942966e-001 2.249933e-001 3.630752e-002
<GCONST> 9.509378e+001
<MIXTURE> 9 4.415477e-002
<MEAN> 39
 5.059935e+000 -1.248291e+001 -9.757789e+000 -1.189626e+001 5.118814e+000 -5.182706e+000 4.640164e-001 2.708236e+000 -7.471566e+000 3.065274e+000 2.080977e+000 -9.610745e+000 7.697075e+001 1.297486e-001 3.052610e-001 -1.431860e-001 1.418969e-001 2.330329e-001 1.947716e-001 1.245834e-001 -4.038375e-001 -2.095352e-001 4.292414e-002 2.308129e-002 2.234098e-001 -3.111323e-001 -8.781538e-002 2.555280e-001 4.346211e-001 7.206263e-002 -2.187336e-001 -2.198568e-001 -3.266940e-002 1.177627e-002 -8.359783e-002 1.775887e-001 -7.830381e-002 3.073345e-001 -2.107930e-001
<VARIANCE> 39
 3.721055e+000 1.099804e+001 2.312982e+001 2.384274e+001 2.143843e+001 3.015482e+001 2.304895e+001 3.792947e+001 1.540646e+001 2.961570e+001 3.842344e+001 1.973539e+001 6.789148e+000 3.042914e-001 8.384807e-001 2.265028e+000 1.209744e+000 1.944097e+000 2.256742e+000 1.495932e+000 2.175076e+000 1.094000e+000 1.379938e+000 2.198922e+000 1.780611e+000 4.226869e-001 5.531032e-002 1.417764e-001 2.107380e-001 1.834038e-001 2.550501e-001 2.196910e-001 2.051130e-001 3.477464e-001 1.714479e-001 2.117659e-001 3.165657e-001 3.279678e-001 8.980240e-002
<GCONST> 9.121741e+001
<MIXTURE> 10 5.210885e-002
<MEAN> 39
 1.537183e+000 -1.367472e+000 8.832305e+000 -5.982703e+000 1.183827e+000 -7.647926e+000 -4.431878e+000 -2.889491e+000 -1.790670e+001 7.580424e+000 -1.595477e+000 -3.477824e+000 6.796352e+001 -1.066681e-001 5.886179e-001 2.305379e-001 4.079689e-001 2.341549e-001 4.941768e-001 2.992148e-001 -5.958337e-001 -7.347386e-002 3.881344e-001 -2.955275e-001 -9.542218e-002 -6.914976e-001 -2.225049e-002 -4.046305e-001 -9.081873e-002 -5.019881e-001 -4.239970e-001 -5.225819e-002 -3.152686e-001 5.832399e-001 5.625640e-001 -4.356608e-001 2.922415e-001 8.859046e-002 3.667629e-001
<VARIANCE> 39
 6.692325e+000 2.531283e+001 3.056492e+001 3.992567e+001 3.546177e+001 3.867178e+001 3.643890e+001 4.207836e+001 5.222330e+001 3.448902e+001 3.994928e+001 2.275288e+001 1.068401e+001 6.031745e-001 2.142411e+000 2.640676e+000 3.711461e+000 2.460096e+000 2.411766e+000 2.852154e+000 3.727524e+000 5.072382e+000 3.307897e+000 3.029572e+000 2.198777e+000 1.896873e+000 1.233928e-001 2.727937e-001 4.704190e-001 4.482768e-001 5.082436e-001 4.314787e-001 4.404838e-001 6.572075e-001 7.300797e-001 5.022752e-001 6.494276e-001 3.618486e-001 1.462227e-001
<GCONST> 1.151133e+002
<MIXTURE> 11 5.759781e-002
<MEAN> 39
 -2.045543e+001 -2.779679e+000 8.412172e+000 -1.119323e+001 8.993155e+000 -1.200437e+001 3.473014e+000 3.029931e+000 -6.446697e+000 8.766446e+000 -4.912046e+000 6.119008e+000 7.102076e+001 -2.747527e-001 -1.299767e-001 5.774602e-002 2.653190e-002 -1.947192e-001 -4.106638e-001 5.005230e-002 -6.871161e-003 6.575116e-002 -9.464362e-002 2.610461e-002 -1.600405e-001 2.977758e-001 1.230117e+000 1.431056e-001 -1.854225e-002 6.578872e-002 -4.908621e-001 -3.881935e-002 -5.485963e-001 -3.361162e-001 -2.824265e-001 -8.820946e-002 2.859375e-001 -4.744271e-001 -1.791174e-001
<VARIANCE> 39
 2.185230e+001 4.427175e+001 5.008456e+001 2.887289e+001 4.179353e+001 2.960320e+001 3.201107e+001 2.325022e+001 2.830555e+001 2.153848e+001 1.772389e+001 1.604817e+001 1.209014e+001 9.070965e+000 2.188274e+000 2.816064e+000 2.611886e+000 2.564742e+000 3.336997e+000 3.749531e+000 2.641262e+000 2.897164e+000 1.735185e+000 2.095871e+000 2.253785e+000 2.873282e+000 4.479122e-001 4.561891e-001 4.747540e-001 5.419871e-001 5.524867e-001 6.186768e-001 6.780975e-001 5.475743e-001 5.381981e-001 4.604963e-001 4.422075e-001 4.348988e-001 2.997779e-001
<GCONST> 1.185056e+002
<MIXTURE> 12 4.057669e-002
<MEAN> 39
 -3.114990e+001 1.270822e+001 -1.735192e+000 4.991212e+000 -1.315938e+001 1.194820e+001 6.393301e-001 -2.572515e+000 -2.319485e-001 -3.534673e+000 4.495444e+000 -4.571466e-001 1.837683e+001 2.279976e-002 -3.383860e-002 -7.284851e-002 1.736489e-002 5.278420e-002 -3.173849e-002 -7.132699e-003 2.080043e-002 4.506288e-002 -4.398094e-002 -3.569637e-002 3.427128e-002 1.383668e-002 -3.950378e-002 8.860015e-002 1.271917e-001 2.311495e-003 -8.272877e-002 -7.863738e-002 6.833091e-003 1.048112e-001 -6.407823e-002 -8.923747e-002 7.395155e-002 3.425438e-002 -2.997690e-002
<VARIANCE> 39
 1.446278e-001 5.457917e-001 1.079444e+000 1.739807e+000 1.975113e+000 2.751365e+000 3.400158e+000 4.195726e+000 4.099863e+000 3.786387e+000 3.829303e+000 3.389652e+000 9.951974e-002 3.208445e-002 9.893560e-002 2.670258e-001 2.248837e-001 2.868760e-001 4.749039e-001 4.965751e-001 4.651361e-001 4.541992e-001 5.051731e-001 3.917116e-001 4.912128e-001 2.060627e-002 3.578025e-003 1.335385e-002 2.476933e-002 3.763541e-002 4.428805e-002 7.488727e-002 9.163176e-002 9.783675e-002 7.981598e-002 9.593616e-002 8.037752e-002 6.936061e-002 2.240388e-003
<GCONST> 1.457816e+001
<MIXTURE> 13 2.997678e-002
<MEAN> 39
 -1.279772e+001 7.075760e-001 7.449644e-001 -4.173776e+000 7.065052e+000 -1.194497e+000 2.368942e+000 2.457791e+000 -3.744174e+000 9.431244e+000 -2.862497e+000 7.608515e-001 4.932083e+001 -9.099557e-002 -4.235183e-002 -1.026475e-001 2.535781e-001 -1.455147e-001 1.814761e-001 4.493518e-002 -5.354770e-002 -1.005946e-002 -1.330932e-001 -2.386001e-002 -1.367846e-002 -8.589022e-002 2.664589e-002 3.915540e-002 -4.691619e-003 7.354438e-002 -9.524122e-002 -3.494815e-002 -5.754894e-002 -4.631441e-002 -1.193939e-001 -2.053310e-001 -8.490206e-002 -1.518531e-001 2.626972e-002
<VARIANCE> 39
 2.661902e+000 5.343760e+000 1.137029e+001 2.599913e+001 1.524767e+001 2.804218e+001 1.528680e+001 1.221081e+001 1.753351e+001 2.104415e+001 8.948040e+000 1.295385e+001 1.671047e+000 2.263946e-001 3.431494e-001 6.325533e-001 9.406060e-001 9.777783e-001 1.354467e+000 1.225693e+000 1.107391e+000 1.593040e+000 1.217676e+000 1.121380e+000 1.205700e+000 9.948082e-002 4.169434e-002 6.733875e-002 1.373908e-001 2.112218e-001 2.082940e-001 3.093422e-001 2.685108e-001 2.162667e-001 3.619103e-001 3.213856e-001 2.545986e-001 2.503821e-001 2.253772e-002
<GCONST> 7.495402e+001
<MIXTURE> 14 2.558359e-002
<MEAN> 39
 -1.373457e+000 3.385430e-001 5.646963e+000 -1.321576e+001 4.446944e+000 -9.660649e+000 -5.293927e+000 -2.367520e+000 -1.189709e+001 7.898833e+000 -2.277532e+000 8.498706e-001 7.064384e+001 3.107012e+000 -8.890880e-001 -8.780487e-001 -1.941280e+000 -2.341512e+000 5.067682e-001 -1.498234e+000 -8.229389e-001 -5.306877e-001 -4.700797e-001 1.991660e+000 -1.399610e+000 1.782656e+000 -1.582833e-001 -5.431663e-001 -2.263356e-001 5.486140e-002 -3.787121e-001 3.976412e-001 2.507450e-001 4.483419e-001 1.837553e-001 1.795624e-002 3.477440e-001 -2.869052e-001 -2.077114e-001
<VARIANCE> 39
 2.056881e+001 3.131264e+001 4.506221e+001 5.974182e+001 3.027036e+001 4.512680e+001 4.498914e+001 4.124630e+001 4.981950e+001 3.464884e+001 2.274828e+001 1.856995e+001 2.572063e+001 5.098736e+000 4.534317e+000 4.604311e+000 5.668455e+000 3.746010e+000 4.060812e+000 4.570760e+000 6.787956e+000 6.482190e+000 6.324408e+000 3.713522e+000 4.605699e+000 2.018253e+000 6.130876e-001 4.547416e-001 3.840645e-001 6.146578e-001 6.728348e-001 5.612286e-001 7.801054e-001 6.685947e-001 8.963527e-001 6.069801e-001 5.679143e-001 6.165957e-001 3.461258e-001
<GCONST> 1.302856e+002
<MIXTURE> 15 1.722841e-002
<MEAN> 39
 -1.400428e+001 1.808174e+000 3.133745e+000 -6.487537e+000 1.031316e+001 -3.539012e+000 5.149234e+000 4.042861e+000 -2.806487e+000 1.070901e+001 -1.935552e+000 3.081910e+000 5.333737e+001 -1.903406e-002 -2.278418e-001 3.280969e-001 -5.070045e-001 3.234861e-001 -2.168879e-001 2.456613e-002 -7.488197e-002 -3.599146e-001 4.761774e-001 -2.875439e-001 -4.414001e-003 -5.101479e-001 -2.387387e-001 1.322316e-001 8.873676e-002 5.867082e-002 -7.699900e-001 3.877731e-002 -4.460569e-001 -2.341187e-001 -3.291277e-001 -5.475400e-001 -6.095172e-002 -1.097162e-001 -3.451433e-002
<VARIANCE> 39
 1.744159e+001 5.886374e+000 1.225181e+001 5.397415e+001 2.976880e+001 4.638697e+001 2.098623e+001 1.492765e+001 2.873010e+001 2.311388e+001 1.622682e+001 1.544640e+001 2.385451e+001 2.386738e+000 1.672063e+000 2.278257e+000 2.770034e+000 3.375535e+000 2.506087e+000 1.919219e+000 1.576630e+000 2.831519e+000 2.491221e+000 1.781358e+000 1.635937e+000 3.305035e+000 6.548522e-001 5.323024e-001 3.825545e-001 6.332996e-001 7.029154e-001 5.573425e-001 4.465061e-001 4.330927e-001 5.232692e-001 4.630127e-001 3.857515e-001 2.575819e-001 2.134877e+000
<GCONST> 1.136422e+002
<MIXTURE> 16 9.058511e-003
<MEAN> 39
 -3.139895e+001 1.332091e+001 -1.041325e+000 4.991283e+000 -1.378012e+001 1.105120e+001 1.157796e+000 -1.598221e+000 -1.107360e+000 -4.039695e+000 5.351603e+000 -5.394868e-001 1.822115e+001 -7.535709e-001 6.208941e-001 2.120021e-001 3.019110e-001 -9.117081e-001 6.130006e-001 3.113582e-002 -1.652319e-001 2.175823e-001 -6.490583e-001 5.097410e-001 1.190476e-001 -1.159462e+000 1.237790e+000 -8.009859e-001 4.069210e-002 -4.015509e-001 1.068090e+000 -7.137828e-001 -7.947848e-002 2.313202e-001 -8.928607e-002 5.702878e-001 -4.737859e-001 6.692093e-002 2.040895e+000
<VARIANCE> 39
 2.897926e-001 1.338310e+000 2.734234e+000 1.451551e+000 2.893037e+000 3.839973e+000 2.978873e+000 3.648347e+000 4.862271e+000 4.806418e+000 3.148232e+000 4.363833e+000 1.947060e-001 3.189527e+000 1.594782e+000 7.659676e-001 1.183051e+000 4.767112e+000 2.585392e+000 7.954623e-001 5.654722e-001 1.144928e+000 3.026616e+000 2.103992e+000 5.477197e-001 7.551785e+000 2.958322e-001 1.366663e-001 1.458640e-001 1.338721e-001 4.801397e-001 2.154315e-001 1.237759e-001 1.121144e-001 1.734028e-001 3.398777e-001 1.925062e-001 1.158831e-001 8.901144e-001
<GCONST> 6.724375e+001
<MIXTURE> 17 4.893281e-002
<MEAN> 39
 2.044945e+000 -1.226493e+001 5.429410e+000 -9.200421e+000 -6.956244e+000 -1.629762e+001 -7.548927e+000 9.347071e+000 -7.265590e+000 3.462202e+000 4.863954e-001 -4.070899e+000 7.749774e+001 9.668493e-002 -1.352836e-001 -4.973414e-001 1.462529e-001 4.184752e-001 1.745579e-001 1.279812e-001 5.104165e-001 6.726784e-002 -1.834193e-001 -2.214584e-001 -3.743639e-001 -1.017250e-001 -1.005093e-001 4.126446e-001 1.878531e-001 2.061673e-001 3.299288e-001 2.661163e-001 9.180672e-003 -5.217422e-001 -3.667050e-001 1.606598e-001 9.471774e-002 2.407518e-002 -3.917854e-001
<VARIANCE> 39
 5.966260e+000 1.187347e+001 4.239368e+001 1.574572e+001 4.581444e+001 2.330658e+001 3.833381e+001 2.983776e+001 2.077050e+001 2.427046e+001 4.188045e+001 2.970778e+001 6.361384e+000 4.410729e-001 1.433811e+000 3.969362e+000 1.537386e+000 3.364082e+000 2.224220e+000 1.794973e+000 3.240513e+000 2.617941e+000 2.079596e+000 2.247352e+000 2.554490e+000 9.177288e-001 7.941536e-002 1.908800e-001 2.565913e-001 2.481898e-001 3.748420e-001 3.366013e-001 3.648037e-001 4.481195e-001 3.573595e-001 2.834541e-001 4.606720e-001 4.080574e-001 1.658474e-001
<GCONST> 1.035540e+002
<MIXTURE> 18 4.643700e-002
<MEAN> 39
 -2.075934e+000 -7.596658e-001 6.375967e+000 -3.354341e+000 9.959755e-001 -1.050387e+001 -3.598534e+000 2.754708e+000 -7.555759e+000 6.298447e+000 -6.073824e-001 -3.077454e+000 6.126712e+001 -1.003650e+000 4.209948e-001 -8.564686e-001 5.749066e-001 2.197300e-001 3.927479e-001 4.485975e-001 -2.115256e-001 1.187604e+000 1.518632e-001 -8.109171e-001 1.829547e-001 -1.955015e+000 -2.782853e-001 -5.872500e-001 1.206715e-001 -8.656669e-001 -2.099407e-002 -1.681396e-001 -2.447422e-001 3.775407e-002 -4.543077e-001 -2.260057e-002 -4.401162e-002 4.472734e-001 9.983765e-001
<VARIANCE> 39
 2.062515e+001 3.150498e+001 7.232491e+001 4.460006e+001 4.136356e+001 6.628919e+001 3.235435e+001 4.858861e+001 4.243734e+001 3.405003e+001 2.956751e+001 3.415891e+001 1.458315e+001 1.027977e+000 1.538609e+000 2.001569e+000 2.572070e+000 2.848821e+000 3.171391e+000 2.403379e+000 2.562328e+000 2.572408e+000 2.533527e+000 1.986314e+000 2.058133e+000 1.616548e+000 1.619352e-001 3.328227e-001 3.879483e-001 3.846932e-001 7.243724e-001 6.193705e-001 5.474882e-001 4.613897e-001 5.781695e-001 5.918159e-001 4.701126e-001 4.851033e-001 3.598523e-001
<GCONST> 1.176886e+002
<MIXTURE> 19 4.272051e-002
<MEAN> 39
 -4.480991e+000 -7.513012e-001 2.444202e+001 -8.674889e+000 -9.014455e+000 -6.902102e+000 -9.440836e+000 9.876662e-002 -2.123616e+001 2.382001e+000 1.757562e+000 -1.097192e+000 7.105690e+001 1.002913e-002 -3.840134e-002 -1.832297e-001 4.731627e-003 -4.204897e-001 -1.494940e-001 1.543180e-001 1.869595e-001 4.714644e-002 1.866165e-001 3.051241e-002 7.379939e-002 -3.237030e-002 -1.515953e-003 1.045757e-002 -5.375133e-001 2.250370e-001 4.504002e-001 -3.079531e-001 2.979351e-001 1.217216e-001 4.125474e-001 1.029411e-001 -2.263775e-001 9.311478e-002 -1.519218e-001
<VARIANCE> 39
 1.142550e+001 2.214308e+001 3.458195e+001 3.357901e+001 4.863088e+001 6.512637e+001 3.056657e+001 2.894057e+001 2.024544e+001 2.327377e+001 2.237234e+001 2.182487e+001 1.187239e+001 7.523221e-001 1.455485e+000 2.699404e+000 2.998168e+000 3.140589e+000 3.629636e+000 2.821318e+000 1.975746e+000 2.497387e+000 1.488732e+000 1.913973e+000 1.204742e+000 1.141454e+000 1.233782e-001 1.611364e-001 3.151484e-001 4.285366e-001 5.220643e-001 5.260048e-001 4.731466e-001 3.288185e-001 4.642361e-001 3.033711e-001 3.481352e-001 2.320314e-001 1.002162e-001
<GCONST> 1.066985e+002
<MIXTURE> 20 3.447198e-002
<MEAN> 39
 -1.102464e+001 -5.577445e+000 4.738719e+000 -1.261931e+001 7.963371e+000 -9.940275e+000 -1.058449e+000 5.039027e+000 -9.286470e+000 1.251958e+001 -5.988343e+000 4.867613e+000 6.626488e+001 1.081984e+000 -1.678452e-002 8.116689e-001 -1.188710e+000 -4.867031e-001 -4.709865e-001 -9.263629e-001 -3.268047e-001 -1.485190e+000 -1.476780e-001 3.954029e-001 -9.072410e-002 2.364442e+000 9.483292e-001 2.947242e-001 -2.011602e-001 4.967557e-001 -1.061502e+000 1.488615e-001 -3.681551e-001 -3.329404e-001 7.649133e-002 -8.464444e-001 8.912212e-001 -1.013129e+000 -3.076662e-001
<VARIANCE> 39
