~o
<STREAMINFO> 1 16
<VECSIZE> 16<NULLD><FBANK><DIAGC>
~h "nula"
<BEGINHMM>
<NUMSTATES> 10
<STATE> 2
<MEAN> 16
 5.961892e+000 6.100931e+000 6.508759e+000 6.807267e+000 6.893451e+000 6.931330e+000 7.064875e+000 7.308955e+000 7.545530e+000 7.581576e+000 7.764936e+000 7.974237e+000 8.201515e+000 8.166751e+000 8.071844e+000 8.149657e+000
<VARIANCE> 16
 5.301798e-001 1.147307e+000 1.785430e+000 1.892884e+000 1.471135e+000 1.201228e+000 1.197104e+000 1.298020e+000 1.416408e+000 1.677386e+000 1.701443e+000 1.817579e+000 1.945318e+000 1.333883e+000 5.637356e-001 3.946503e-001
<GCONST> 3.258173e+001
<STATE> 3
<MEAN> 16
 5.961892e+000 6.100931e+000 6.508759e+000 6.807267e+000 6.893451e+000 6.931330e+000 7.064875e+000 7.308955e+000 7.545530e+000 7.581576e+000 7.764936e+000 7.974237e+000 8.201515e+000 8.166751e+000 8.071844e+000 8.149657e+000
<VARIANCE> 16
 5.301798e-001 1.147307e+000 1.785430e+000 1.892884e+000 1.471135e+000 1.201228e+000 1.197104e+000 1.298020e+000 1.416408e+000 1.677386e+000 1.701443e+000 1.817579e+000 1.945318e+000 1.333883e+000 5.637356e-001 3.946503e-001
<GCONST> 3.258173e+001
<STATE> 4
<MEAN> 16
 5.961892e+000 6.100931e+000 6.508759e+000 6.807267e+000 6.893451e+000 6.931330e+000 7.064875e+000 7.308955e+000 7.545530e+000 7.581576e+000 7.764936e+000 7.974237e+000 8.201515e+000 8.166751e+000 8.071844e+000 8.149657e+000
<VARIANCE> 16
 5.301798e-001 1.147307e+000 1.785430e+000 1.892884e+000 1.471135e+000 1.201228e+000 1.197104e+000 1.298020e+000 1.416408e+000 1.677386e+000 1.701443e+000 1.817579e+000 1.945318e+000 1.333883e+000 5.637356e-001 3.946503e-001
<GCONST> 3.258173e+001
<STATE> 5
<MEAN> 16
 5.961892e+000 6.100931e+000 6.508759e+000 6.807267e+000 6.893451e+000 6.931330e+000 7.064875e+000 7.308955e+000 7.545530e+000 7.581576e+000 7.764936e+000 7.974237e+000 8.201515e+000 8.166751e+000 8.071844e+000 8.149657e+000
<VARIANCE> 16
 5.301798e-001 1.147307e+000 1.785430e+000 1.892884e+000 1.471135e+000 1.201228e+000 1.197104e+000 1.298020e+000 1.416408e+000 1.677386e+000 1.701443e+000 1.817579e+000 1.945318e+000 1.333883e+000 5.637356e-001 3.946503e-001
<GCONST> 3.258173e+001
<STATE> 6
<MEAN> 16
 5.961892e+000 6.100931e+000 6.508759e+000 6.807267e+000 6.893451e+000 6.931330e+000 7.064875e+000 7.308955e+000 7.545530e+000 7.581576e+000 7.764936e+000 7.974237e+000 8.201515e+000 8.166751e+000 8.071844e+000 8.149657e+000
<VARIANCE> 16
 5.301798e-001 1.147307e+000 1.785430e+000 1.892884e+000 1.471135e+000 1.201228e+000 1.197104e+000 1.298020e+000 1.416408e+000 1.677386e+000 1.701443e+000 1.817579e+000 1.945318e+000 1.333883e+000 5.637356e-001 3.946503e-001
<GCONST> 3.258173e+001
<STATE> 7
<MEAN> 16
 5.961892e+000 6.100931e+000 6.508759e+000 6.807267e+000 6.893451e+000 6.931330e+000 7.064875e+000 7.308955e+000 7.545530e+000 7.581576e+000 7.764936e+000 7.974237e+000 8.201515e+000 8.166751e+000 8.071844e+000 8.149657e+000
<VARIANCE> 16
 5.301798e-001 1.147307e+000 1.785430e+000 1.892884e+000 1.471135e+000 1.201228e+000 1.197104e+000 1.298020e+000 1.416408e+000 1.677386e+000 1.701443e+000 1.817579e+000 1.945318e+000 1.333883e+000 5.637356e-001 3.946503e-001
<GCONST> 3.258173e+001
<STATE> 8
<MEAN> 16
 5.961892e+000 6.100931e+000 6.508759e+000 6.807267e+000 6.893451e+000 6.931330e+000 7.064875e+000 7.308955e+000 7.545530e+000 7.581576e+000 7.764936e+000 7.974237e+000 8.201515e+000 8.166751e+000 8.071844e+000 8.149657e+000
<VARIANCE> 16
 5.301798e-001 1.147307e+000 1.785430e+000 1.892884e+000 1.471135e+000 1.201228e+000 1.197104e+000 1.298020e+000 1.416408e+000 1.677386e+000 1.701443e+000 1.817579e+000 1.945318e+000 1.333883e+000 5.637356e-001 3.946503e-001
<GCONST> 3.258173e+001
<STATE> 9
<MEAN> 16
 5.961892e+000 6.100931e+000 6.508759e+000 6.807267e+000 6.893451e+000 6.931330e+000 7.064875e+000 7.308955e+000 7.545530e+000 7.581576e+000 7.764936e+000 7.974237e+000 8.201515e+000 8.166751e+000 8.071844e+000 8.149657e+000
<VARIANCE> 16
 5.301798e-001 1.147307e+000 1.785430e+000 1.892884e+000 1.471135e+000 1.201228e+000 1.197104e+000 1.298020e+000 1.416408e+000 1.677386e+000 1.701443e+000 1.817579e+000 1.945318e+000 1.333883e+000 5.637356e-001 3.946503e-001
<GCONST> 3.258173e+001
<TRANSP> 10
 0.000000e+000 1.000000e+000 0.000000e+000 0.000000e+000 0.000000e+000 0.000000e+000 0.000000e+000 0.000000e+000 0.000000e+000 0.000000e+000
 0.000000e+000 6.000000e-001 4.000000e-001 0.000000e+000 0.000000e+000 0.000000e+000 0.000000e+000 0.000000e+000 0.000000e+000 0.000000e+000
 0.000000e+000 0.000000e+000 6.000000e-001 4.000000e-001 0.000000e+000 0.000000e+000 0.000000e+000 0.000000e+000 0.000000e+000 0.000000e+000
 0.000000e+000 0.000000e+000 0.000000e+000 6.000000e-001 4.000000e-001 0.000000e+000 0.000000e+000 0.000000e+000 0.000000e+000 0.000000e+000
 0.000000e+000 0.000000e+000 0.000000e+000 0.000000e+000 6.000000e-001 4.000000e-001 0.000000e+000 0.000000e+000 0.000000e+000 0.000000e+000
 0.000000e+000 0.000000e+000 0.000000e+000 0.000000e+000 0.000000e+000 6.000000e-001 4.000000e-001 0.000000e+000 0.000000e+000 0.000000e+000
 0.000000e+000 0.000000e+000 0.000000e+000 0.000000e+000 0.000000e+000 0.000000e+000 6.000000e-001 4.000000e-001 0.000000e+000 0.000000e+000
 0.000000e+000 0.000000e+000 0.000000e+000 0.000000e+000 0.000000e+000 0.000000e+000 0.000000e+000 6.000000e-001 4.000000e-001 0.000000e+000
 0.000000e+000 0.000000e+000 0.000000e+000 0.000000e+000 0.000000e+000 0.000000e+000 0.000000e+000 0.000000e+000 7.000000e-001 3.000000e-001
 0.000000e+000 0.000000e+000 0.000000e+000 0.000000e+000 0.000000e+000 0.000000e+000 0.000000e+000 0.000000e+000 0.000000e+000 0.000000e+000
<ENDHMM>
~o
<STREAMINFO> 1 16
<VECSIZE> 16<NULLD><FBANK><DIAGC>
~h "jedna"
<BEGINHMM>
<NUMSTATES> 10
<STATE> 2
<MEAN> 16
 5.961892e+000 6.100931e+000 6.508759e+000 6.807267e+000 6.893451e+000 6.931330e+000 7.064875e+000 7.308955e+000 7.545530e+000 7.581576e+000 7.764936e+000 7.974237e+000 8.201515e+000 8.166751e+000 8.071844e+000 8.149657e+000
<VARIANCE> 16
 5.301798e-001 1.147307e+000 1.785430e+000 1.892884e+000 1.471135e+000 1.201228e+000 1.197104e+000 1.298020e+000 1.416408e+000 1.677386e+000 1.701443e+000 1.817579e+000 1.945318e+000 1.333883e+000 5.637356e-001 3.946503e-001
<GCONST> 3.258173e+001
<STATE> 3
<MEAN> 16
 5.961892e+000 6.100931e+000 6.508759e+000 6.807267e+000 6.893451e+000 6.931330e+000 7.064875e+000 7.308955e+000 7.545530e+000 7.581576e+000 7.764936e+000 7.974237e+000 8.201515e+000 8.166751e+000 8.071844e+000 8.149657e+000
<VARIANCE> 16
 5.301798e-001 1.147307e+000 1.785430e+000 1.892884e+000 1.471135e+000 1.201228e+000 1.197104e+000 1.298020e+000 1.416408e+000 1.677386e+000 1.701443e+000 1.817579e+000 1.945318e+000 1.333883e+000 5.637356e-001 3.946503e-001
<GCONST> 3.258173e+001
<STATE> 4
<MEAN> 16
 5.961892e+000 6.100931e+000 6.508759e+000 6.807267e+000 6.893451e+000 6.931330e+000 7.064875e+000 7.308955e+000 7.545530e+000 7.581576e+000 7.764936e+000 7.974237e+000 8.201515e+000 8.166751e+000 8.071844e+000 8.149657e+000
<VARIANCE> 16
 5.301798e-001 1.147307e+000 1.785430e+000 1.892884e+000 1.471135e+000 1.201228e+000 1.197104e+000 1.298020e+000 1.416408e+000 1.677386e+000 1.701443e+000 1.817579e+000 1.945318e+000 1.333883e+000 5.637356e-001 3.946503e-001
<GCONST> 3.258173e+001
<STATE> 5
<MEAN> 16
 5.961892e+000 6.100931e+000 6.508759e+000 6.807267e+000 6.893451e+000 6.931330e+000 7.064875e+000 7.308955e+000 7.545530e+000 7.581576e+000 7.764936e+000 7.974237e+000 8.201515e+000 8.166751e+000 8.071844e+000 8.149657e+000
<VARIANCE> 16
 5.301798e-001 1.147307e+000 1.785430e+000 1.892884e+000 1.471135e+000 1.201228e+000 1.197104e+000 1.298020e+000 1.416408e+000 1.677386e+000 1.701443e+000 1.817579e+000 1.945318e+000 1.333883e+000 5.637356e-001 3.946503e-001
<GCONST> 3.258173e+001
<STATE> 6
<MEAN> 16
 5.961892e+000 6.100931e+000 6.508759e+000 6.807267e+000 6.893451e+000 6.931330e+000 7.064875e+000 7.308955e+000 7.545530e+000 7.581576e+000 7.764936e+000 7.974237e+000 8.201515e+000 8.166751e+000 8.071844e+000 8.149657e+000
<VARIANCE> 16
 5.301798e-001 1.147307e+000 1.785430e+000 1.892884e+000 1.471135e+000 1.201228e+000 1.197104e+000 1.298020e+000 1.416408e+000 1.677386e+000 1.701443e+000 1.817579e+000 1.945318e+000 1.333883e+000 5.637356e-001 3.946503e-001
<GCONST> 3.258173e+001
<STATE> 7
<MEAN> 16
 5.961892e+000 6.100931e+000 6.508759e+000 6.807267e+000 6.893451e+000 6.931330e+000 7.064875e+000 7.308955e+000 7.545530e+000 7.581576e+000 7.764936e+000 7.974237e+000 8.201515e+000 8.166751e+000 8.071844e+000 8.149657e+000
<VARIANCE> 16
 5.301798e-001 1.147307e+000 1.785430e+000 1.892884e+000 1.471135e+000 1.201228e+000 1.197104e+000 1.298020e+000 1.416408e+000 1.677386e+000 1.701443e+000 1.817579e+000 1.945318e+000 1.333883e+000 5.637356e-001 3.946503e-001
<GCONST> 3.258173e+001
<STATE> 8
<MEAN> 16
 5.961892e+000 6.100931e+000 6.508759e+000 6.807267e+000 6.893451e+000 6.931330e+000 7.064875e+000 7.308955e+000 7.545530e+000 7.581576e+000 7.764936e+000 7.974237e+000 8.201515e+000 8.166751e+000 8.071844e+000 8.149657e+000
<VARIANCE> 16
 5.301798e-001 1.147307e+000 1.785430e+000 1.892884e+000 1.471135e+000 1.201228e+000 1.197104e+000 1.298020e+000 1.416408e+000 1.677386e+000 1.701443e+000 1.817579e+000 1.945318e+000 1.333883e+000 5.637356e-001 3.946503e-001
<GCONST> 3.258173e+001
<STATE> 9
<MEAN> 16
 5.961892e+000 6.100931e+000 6.508759e+000 6.807267e+000 6.893451e+000 6.931330e+000 7.064875e+000 7.308955e+000 7.545530e+000 7.581576e+000 7.764936e+000 7.974237e+000 8.201515e+000 8.166751e+000 8.071844e+000 8.149657e+000
<VARIANCE> 16
 5.301798e-001 1.147307e+000 1.785430e+000 1.892884e+000 1.471135e+000 1.201228e+000 1.197104e+000 1.298020e+000 1.416408e+000 1.677386e+000 1.701443e+000 1.817579e+000 1.945318e+000 1.333883e+000 5.637356e-001 3.946503e-001
<GCONST> 3.258173e+001
<TRANSP> 10
 0.000000e+000 1.000000e+000 0.000000e+000 0.000000e+000 0.000000e+000 0.000000e+000 0.000000e+000 0.000000e+000 0.000000e+000 0.000000e+000
 0.000000e+000 6.000000e-001 4.000000e-001 0.000000e+000 0.000000e+000 0.000000e+000 0.000000e+000 0.000000e+000 0.000000e+000 0.000000e+000
 0.000000e+000 0.000000e+000 6.000000e-001 4.000000e-001 0.000000e+000 0.000000e+000 0.000000e+000 0.000000e+000 0.000000e+000 0.000000e+000
 0.000000e+000 0.000000e+000 0.000000e+000 6.000000e-001 4.000000e-001 0.000000e+000 0.000000e+000 0.000000e+000 0.000000e+000 0.000000e+000
 0.000000e+000 0.000000e+000 0.000000e+000 0.000000e+000 6.000000e-001 4.000000e-001 0.000000e+000 0.000000e+000 0.000000e+000 0.000000e+000
 0.000000e+000 0.000000e+000 0.000000e+000 0.000000e+000 0.000000e+000 6.000000e-001 4.000000e-001 0.000000e+000 0.000000e+000 0.000000e+000
 0.000000e+000 0.000000e+000 0.000000e+000 0.000000e+000 0.000000e+000 0.000000e+000 6.000000e-001 4.000000e-001 0.000000e+000 0.000000e+000
 0.000000e+000 0.000000e+000 0.000000e+000 0.000000e+000 0.000000e+000 0.000000e+000 0.000000e+000 6.000000e-001 4.000000e-001 0.000000e+000
 0.000000e+000 0.000000e+000 0.000000e+000 0.000000e+000 0.000000e+000 0.000000e+000 0.000000e+000 0.000000e+000 7.000000e-001 3.000000e-001
 0.000000e+000 0.000000e+000 0.000000e+000 0.000000e+000 0.000000e+000 0.000000e+000 0.000000e+000 0.000000e+000 0.000000e+000 0.000000e+000
<ENDHMM>
~o
<STREAMINFO> 1 16
<VECSIZE> 16<NULLD><FBANK><DIAGC>
~h "dva"
<BEGINHMM>
<NUMSTATES> 10
<STATE> 2
<MEAN> 16
 5.961892e+000 6.100931e+000 6.508759e+000 6.807267e+000 6.893451e+000 6.931330e+000 7.064875e+000 7.308955e+000 7.545530e+000 7.581576e+000 7.764936e+000 7.974237e+000 8.201515e+000 8.166751e+000 8.071844e+000 8.149657e+000
<VARIANCE> 16
 5.301798e-001 1.147307e+000 1.785430e+000 1.892884e+000 1.471135e+000 1.201228e+000 1.197104e+000 1.298020e+000 1.416408e+000 1.677386e+000 1.701443e+000 1.817579e+000 1.945318e+000 1.333883e+000 5.637356e-001 3.946503e-001
<GCONST> 3.258173e+001
<STATE> 3
<MEAN> 16
 5.961892e+000 6.100931e+000 6.508759e+000 6.807267e+000 6.893451e+000 6.931330e+000 7.064875e+000 7.308955e+000 7.545530e+000 7.581576e+000 7.764936e+000 7.974237e+000 8.201515e+000 8.166751e+000 8.071844e+000 8.149657e+000
<VARIANCE> 16
 5.301798e-001 1.147307e+000 1.785430e+000 1.892884e+000 1.471135e+000 1.201228e+000 1.197104e+000 1.298020e+000 1.416408e+000 1.677386e+000 1.701443e+000 1.817579e+000 1.945318e+000 1.333883e+000 5.637356e-001 3.946503e-001
<GCONST> 3.258173e+001
<STATE> 4
<MEAN> 16
 5.961892e+000 6.100931e+000 6.508759e+000 6.807267e+000 6.893451e+000 6.931330e+000 7.064875e+000 7.308955e+000 7.545530e+000 7.581576e+000 7.764936e+000 7.974237e+000 8.201515e+000 8.166751e+000 8.071844e+000 8.149657e+000
<VARIANCE> 16
 5.301798e-001 1.147307e+000 1.785430e+000 1.892884e+000 1.471135e+000 1.201228e+000 1.197104e+000 1.298020e+000 1.416408e+000 1.677386e+000 1.701443e+000 1.817579e+000 1.945318e+000 1.333883e+000 5.637356e-001 3.946503e-001
<GCONST> 3.258173e+001
<STATE> 5
<MEAN> 16
 5.961892e+000 6.100931e+000 6.508759e+000 6.807267e+000 6.893451e+000 6.931330e+000 7.064875e+000 7.308955e+000 7.545530e+000 7.581576e+000 7.764936e+000 7.974237e+000 8.201515e+000 8.166751e+000 8.071844e+000 8.149657e+000
<VARIANCE> 16
 5.301798e-001 1.147307e+000 1.785430e+000 1.892884e+000 1.471135e+000 1.201228e+000 1.197104e+000 1.298020e+000 1.416408e+000 1.677386e+000 1.701443e+000 1.817579e+000 1.945318e+000 1.333883e+000 5.637356e-001 3.946503e-001
<GCONST> 3.258173e+001
<STATE> 6
<MEAN> 16
 5.961892e+000 6.100931e+000 6.508759e+000 6.807267e+000 6.893451e+000 6.931330e+000 7.064875e+000 7.308955e+000 7.545530e+000 7.581576e+000 7.764936e+000 7.974237e+000 8.201515e+000 8.166751e+000 8.071844e+000 8.149657e+000
<VARIANCE> 16
 5.301798e-001 1.147307e+000 1.785430e+000 1.892884e+000 1.471135e+000 1.201228e+000 1.197104e+000 1.298020e+000 1.416408e+000 1.677386e+000 1.701443e+000 1.817579e+000 1.945318e+000 1.333883e+000 5.637356e-001 3.946503e-001
<GCONST> 3.258173e+001
<STATE> 7
<MEAN> 16
 5.961892e+000 6.100931e+000 6.508759e+000 6.807267e+000 6.893451e+000 6.931330e+000 7.064875e+000 7.308955e+000 7.545530e+000 7.581576e+000 7.764936e+000 7.974237e+000 8.201515e+000 8.166751e+000 8.071844e+000 8.149657e+000
<VARIANCE> 16
 5.301798e-001 1.147307e+000 1.785430e+000 1.892884e+000 1.471135e+000 1.201228e+000 1.197104e+000 1.298020e+000 1.416408e+000 1.677386e+000 1.701443e+000 1.817579e+000 1.945318e+000 1.333883e+000 5.637356e-001 3.946503e-001
<GCONST> 3.258173e+001
<STATE> 8
<MEAN> 16
 5.961892e+000 6.100931e+000 6.508759e+000 6.807267e+000 6.893451e+000 6.931330e+000 7.064875e+000 7.308955e+000 7.545530e+000 7.581576e+000 7.764936e+000 7.974237e+000 8.201515e+000 8.166751e+000 8.071844e+000 8.149657e+000
<VARIANCE> 16
 5.301798e-001 1.147307e+000 1.785430e+000 1.892884e+000 1.471135e+000 1.201228e+000 1.197104e+000 1.298020e+000 1.416408e+000 1.677386e+000 1.701443e+000 1.817579e+000 1.945318e+000 1.333883e+000 5.637356e-001 3.946503e-001
<GCONST> 3.258173e+001
<STATE> 9
<MEAN> 16
 5.961892e+000 6.100931e+000 6.508759e+000 6.807267e+000 6.893451e+000 6.931330e+000 7.064875e+000 7.308955e+000 7.545530e+000 7.581576e+000 7.764936e+000 7.974237e+000 8.201515e+000 8.166751e+000 8.071844e+000 8.149657e+000
<VARIANCE> 16
 5.301798e-001 1.147307e+000 1.785430e+000 1.892884e+000 1.471135e+000 1.201228e+000 1.197104e+000 1.298020e+000 1.416408e+000 1.677386e+000 1.701443e+000 1.817579e+000 1.945318e+000 1.333883e+000 5.637356e-001 3.946503e-001
<GCONST> 3.258173e+001
<TRANSP> 10
 0.000000e+000 1.000000e+000 0.000000e+000 0.000000e+000 0.000000e+000 0.000000e+000 0.000000e+000 0.000000e+000 0.000000e+000 0.000000e+000
 0.000000e+000 6.000000e-001 4.000000e-001 0.000000e+000 0.000000e+000 0.000000e+000 0.000000e+000 0.000000e+000 0.000000e+000 0.000000e+000
 0.000000e+000 0.000000e+000 6.000000e-001 4.000000e-001 0.000000e+000 0.000000e+000 0.000000e+000 0.000000e+000 0.000000e+000 0.000000e+000
 0.000000e+000 0.000000e+000 0.000000e+000 6.000000e-001 4.000000e-001 0.000000e+000 0.000000e+000 0.000000e+000 0.000000e+000 0.000000e+000
 0.000000e+000 0.000000e+000 0.000000e+000 0.000000e+000 6.000000e-001 4.000000e-001 0.000000e+000 0.000000e+000 0.000000e+000 0.000000e+000
 0.000000e+000 0.000000e+000 0.000000e+000 0.000000e+000 0.000000e+000 6.000000e-001 4.000000e-001 0.000000e+000 0.000000e+000 0.000000e+000
 0.000000e+000 0.000000e+000 0.000000e+000 0.000000e+000 0.000000e+000 0.000000e+000 6.000000e-001 4.000000e-001 0.000000e+000 0.000000e+000
 0.000000e+000 0.000000e+000 0.000000e+000 0.000000e+000 0.000000e+000 0.000000e+000 0.000000e+000 6.000000e-001 4.000000e-001 0.000000e+000
 0.000000e+000 0.000000e+000 0.000000e+000 0.000000e+000 0.000000e+000 0.000000e+000 0.000000e+000 0.000000e+000 7.000000e-001 3.000000e-001
 0.000000e+000 0.000000e+000 0.000000e+000 0.000000e+000 0.000000e+000 0.000000e+000 0.000000e+000 0.000000e+000 0.000000e+000 0.000000e+000
<ENDHMM>
~o
<STREAMINFO> 1 16
<VECSIZE> 16<NULLD><FBANK><DIAGC>
~h "tri"
<BEGINHMM>
<NUMSTATES> 10
<STATE> 2
<MEAN> 16
 5.961892e+000 6.100931e+000 6.508759e+000 6.807267e+000 6.893451e+000 6.931330e+000 7.064875e+000 7.308955e+000 7.545530e+000 7.581576e+000 7.764936e+000 7.974237e+000 8.201515e+000 8.166751e+000 8.071844e+000 8.149657e+000
<VARIANCE> 16
 5.301798e-001 1.147307e+000 1.785430e+000 1.892884e+000 1.471135e+000 1.201228e+000 1.197104e+000 1.298020e+000 1.416408e+000 1.677386e+000 1.701443e+000 1.817579e+000 1.945318e+000 1.333883e+000 5.637356e-001 3.946503e-001
<GCONST> 3.258173e+001
<STATE> 3
<MEAN> 16
 5.961892e+000 6.100931e+000 6.508759e+000 6.807267e+000 6.893451e+000 6.931330e+000 7.064875e+000 7.308955e+000 7.545530e+000 7.581576e+000 7.764936e+000 7.974237e+000 8.201515e+000 8.166751e+000 8.071844e+000 8.149657e+000
<VARIANCE> 16
 5.301798e-001 1.147307e+000 1.785430e+000 1.892884e+000 1.471135e+000 1.201228e+000 1.197104e+000 1.298020e+000 1.416408e+000 1.677386e+000 1.701443e+000 1.817579e+000 1.945318e+000 1.333883e+000 5.637356e-001 3.946503e-001
<GCONST> 3.258173e+001
<STATE> 4
<MEAN> 16
 5.961892e+000 6.100931e+000 6.508759e+000 6.807267e+000 6.893451e+000 6.931330e+000 7.064875e+000 7.308955e+000 7.545530e+000 7.581576e+000 7.764936e+000 7.974237e+000 8.201515e+000 8.166751e+000 8.071844e+000 8.149657e+000
<VARIANCE> 16
 5.301798e-001 1.147307e+000 1.785430e+000 1.892884e+000 1.471135e+000 1.201228e+000 1.197104e+000 1.298020e+000 1.416408e+000 1.677386e+000 1.701443e+000 1.817579e+000 1.945318e+000 1.333883e+000 5.637356e-001 3.946503e-001
<GCONST> 3.258173e+001
<STATE> 5
<MEAN> 16
 5.961892e+000 6.100931e+000 6.508759e+000 6.807267e+000 6.893451e+000 6.931330e+000 7.064875e+000 7.308955e+000 7.545530e+000 7.581576e+000 7.764936e+000 7.974237e+000 8.201515e+000 8.166751e+000 8.071844e+000 8.149657e+000
<VARIANCE> 16
 5.301798e-001 1.147307e+000 1.785430e+000 1.892884e+000 1.471135e+000 1.201228e+000 1.197104e+000 1.298020e+000 1.416408e+000 1.677386e+000 1.701443e+000 1.817579e+000 1.945318e+000 1.333883e+000 5.637356e-001 3.946503e-001
<GCONST> 3.258173e+001
<STATE> 6
<MEAN> 16
 5.961892e+000 6.100931e+000 6.508759e+000 6.807267e+000 6.893451e+000 6.931330e+000 7.064875e+000 7.308955e+000 7.545530e+000 7.581576e+000 7.764936e+000 7.974237e+000 8.201515e+000 8.166751e+000 8.071844e+000 8.149657e+000
<VARIANCE> 16
 5.301798e-001 1.147307e+000 1.785430e+000 1.892884e+000 1.471135e+000 1.201228e+000 1.197104e+000 1.298020e+000 1.416408e+000 1.677386e+000 1.701443e+000 1.817579e+000 1.945318e+000 1.333883e+000 5.637356e-001 3.946503e-001
<GCONST> 3.258173e+001
<STATE> 7
<MEAN> 16
 5.961892e+000 6.100931e+000 6.508759e+000 6.807267e+000 6.893451e+000 6.931330e+000 7.064875e+000 7.308955e+000 7.545530e+000 7.581576e+000 7.764936e+000 7.974237e+000 8.201515e+000 8.166751e+000 8.071844e+000 8.149657e+000
<VARIANCE> 16
 5.301798e-001 1.147307e+000 1.785430e+000 1.892884e+000 1.471135e+000 1.201228e+000 1.197104e+000 1.298020e+000 1.416408e+000 1.677386e+000 1.701443e+000 1.817579e+000 1.945318e+000 1.333883e+000 5.637356e-001 3.946503e-001
<GCONST> 3.258173e+001
<STATE> 8
<MEAN> 16
 5.961892e+000 6.100931e+000 6.508759e+000 6.807267e+000 6.893451e+000 6.931330e+000 7.064875e+000 7.308955e+000 7.545530e+000 7.581576e+000 7.764936e+000 7.974237e+000 8.201515e+000 8.166751e+000 8.071844e+000 8.149657e+000
<VARIANCE> 16
 5.301798e-001 1.147307e+000 1.785430e+000 1.892884e+000 1.471135e+000 1.201228e+000 1.197104e+000 1.298020e+000 1.416408e+000 1.677386e+000 1.701443e+000 1.817579e+000 1.945318e+000 1.333883e+000 5.637356e-001 3.946503e-001
<GCONST> 3.258173e+001
<STATE> 9
<MEAN> 16
 5.961892e+000 6.100931e+000 6.508759e+000 6.807267e+000 6.893451e+000 6.931330e+000 7.064875e+000 7.308955e+000 7.545530e+000 7.581576e+000 7.764936e+000 7.974237e+000 8.201515e+000 8.166751e+000 8.071844e+000 8.149657e+000
<VARIANCE> 16
 5.301798e-001 1.147307e+000 1.785430e+000 1.892884e+000 1.471135e+000 1.201228e+000 1.197104e+000 1.298020e+000 1.416408e+000 1.677386e+000 1.701443e+000 1.817579e+000 1.945318e+000 1.333883e+000 5.637356e-001 3.946503e-001
<GCONST> 3.258173e+001
<TRANSP> 10
 0.000000e+000 1.000000e+000 0.000000e+000 0.000000e+000 0.000000e+000 0.000000e+000 0.000000e+000 0.000000e+000 0.000000e+000 0.000000e+000
 0.000000e+000 6.000000e-001 4.000000e-001 0.000000e+000 0.000000e+000 0.000000e+000 0.000000e+000 0.000000e+000 0.000000e+000 0.000000e+000
 0.000000e+000 0.000000e+000 6.000000e-001 4.000000e-001 0.000000e+000 0.000000e+000 0.000000e+000 0.000000e+000 0.000000e+000 0.000000e+000
 0.000000e+000 0.000000e+000 0.000000e+000 6.000000e-001 4.000000e-001 0.000000e+000 0.000000e+000 0.000000e+000 0.000000e+000 0.000000e+000
 0.000000e+000 0.000000e+000 0.000000e+000 0.000000e+000 6.000000e-001 4.000000e-001 0.000000e+000 0.000000e+000 0.000000e+000 0.000000e+000
 0.000000e+000 0.000000e+000 0.000000e+000 0.000000e+000 0.000000e+000 6.000000e-001 4.000000e-001 0.000000e+000 0.000000e+000 0.000000e+000
 0.000000e+000 0.000000e+000 0.000000e+000 0.000000e+000 0.000000e+000 0.000000e+000 6.000000e-001 4.000000e-001 0.000000e+000 0.000000e+000
 0.000000e+000 0.000000e+000 0.000000e+000 0.000000e+000 0.000000e+000 0.000000e+000 0.000000e+000 6.000000e-001 4.000000e-001 0.000000e+000
 0.000000e+000 0.000000e+000 0.000000e+000 0.000000e+000 0.000000e+000 0.000000e+000 0.000000e+000 0.000000e+000 7.000000e-001 3.000000e-001
 0.000000e+000 0.000000e+000 0.000000e+000 0.000000e+000 0.000000e+000 0.000000e+000 0.000000e+000 0.000000e+000 0.000000e+000 0.000000e+000
<ENDHMM>
~o
<STREAMINFO> 1 16
<VECSIZE> 16<NULLD><FBANK><DIAGC>
~h "ctyri"
<BEGINHMM>
<NUMSTATES> 10
<STATE> 2
<MEAN> 16
 5.961892e+000 6.100931e+000 6.508759e+000 6.807267e+000 6.893451e+000 6.931330e+000 7.064875e+000 7.308955e+000 7.545530e+000 7.581576e+000 7.764936e+000 7.974237e+000 8.201515e+000 8.166751e+000 8.071844e+000 8.149657e+000
<VARIANCE> 16
 5.301798e-001 1.147307e+000 1.785430e+000 1.892884e+000 1.471135e+000 1.201228e+000 1.197104e+000 1.298020e+000 1.416408e+000 1.677386e+000 1.701443e+000 1.817579e+000 1.945318e+000 1.333883e+000 5.637356e-001 3.946503e-001
<GCONST> 3.258173e+001
<STATE> 3
<MEAN> 16
 5.961892e+000 6.100931e+000 6.508759e+000 6.807267e+000 6.893451e+000 6.931330e+000 7.064875e+000 7.308955e+000 7.545530e+000 7.581576e+000 7.764936e+000 7.974237e+000 8.201515e+000 8.166751e+000 8.071844e+000 8.149657e+000
<VARIANCE> 16
 5.301798e-001 1.147307e+000 1.785430e+000 1.892884e+000 1.471135e+000 1.201228e+000 1.197104e+000 1.298020e+000 1.416408e+000 1.677386e+000 1.701443e+000 1.817579e+000 1.945318e+000 1.333883e+000 5.637356e-001 3.946503e-001
<GCONST> 3.258173e+001
<STATE> 4
<MEAN> 16
 5.961892e+000 6.100931e+000 6.508759e+000 6.807267e+000 6.893451e+000 6.931330e+000 7.064875e+000 7.308955e+000 7.545530e+000 7.581576e+000 7.764936e+000 7.974237e+000 8.201515e+000 8.166751e+000 8.071844e+000 8.149657e+000
<VARIANCE> 16
 5.301798e-001 1.147307e+000 1.785430e+000 1.892884e+000 1.471135e+000 1.201228e+000 1.197104e+000 1.298020e+000 1.416408e+000 1.677386e+000 1.701443e+000 1.817579e+000 1.945318e+000 1.333883e+000 5.637356e-001 3.946503e-001
<GCONST> 3.258173e+001
<STATE> 5
<MEAN> 16
 5.961892e+000 6.100931e+000 6.508759e+000 6.807267e+000 6.893451e+000 6.931330e+000 7.064875e+000 7.308955e+000 7.545530e+000 7.581576e+000 7.764936e+000 7.974237e+000 8.201515e+000 8.166751e+000 8.071844e+000 8.149657e+000
<VARIANCE> 16
 5.301798e-001 1.147307e+000 1.785430e+000 1.892884e+000 1.471135e+000 1.201228e+000 1.197104e+000 1.298020e+000 1.416408e+000 1.677386e+000 1.701443e+000 1.817579e+000 1.945318e+000 1.333883e+000 5.637356e-001 3.946503e-001
<GCONST> 3.258173e+001
<STATE> 6
<MEAN> 16
 5.961892e+000 6.100931e+000 6.508759e+000 6.807267e+000 6.893451e+000 6.931330e+000 7.064875e+000 7.308955e+000 7.545530e+000 7.581576e+000 7.764936e+000 7.974237e+000 8.201515e+000 8.166751e+000 8.071844e+000 8.149657e+000
<VARIANCE> 16
 5.301798e-001 1.147307e+000 1.785430e+000 1.892884e+000 1.471135e+000 1.201228e+000 1.197104e+000 1.298020e+000 1.416408e+000 1.677386e+000 1.701443e+000 1.817579e+000 1.945318e+000 1.333883e+000 5.637356e-001 3.946503e-001
<GCONST> 3.258173e+001
<STATE> 7
<MEAN> 16
 5.961892e+000 6.100931e+000 6.508759e+000 6.807267e+000 6.893451e+000 6.931330e+000 7.064875e+000 7.308955e+000 7.545530e+000 7.581576e+000 7.764936e+000 7.974237e+000 8.201515e+000 8.166751e+000 8.071844e+000 8.149657e+000
<VARIANCE> 16
 5.301798e-001 1.147307e+000 1.785430e+000 1.892884e+000 1.471135e+000 1.201228e+000 1.197104e+000 1.298020e+000 1.416408e+000 1.677386e+000 1.701443e+000 1.817579e+000 1.945318e+000 1.333883e+000 5.637356e-001 3.946503e-001
<GCONST> 3.258173e+001
<STATE> 8
<MEAN> 16
 5.961892e+000 6.100931e+000 6.508759e+000 6.807267e+000 6.893451e+000 6.931330e+000 7.064875e+000 7.308955e+000 7.545530e+000 7.581576e+000 7.764936e+000 7.974237e+000 8.201515e+000 8.166751e+000 8.071844e+000 8.149657e+000
<VARIANCE> 16
 5.301798e-001 1.147307e+000 1.785430e+000 1.892884e+000 1.471135e+000 1.201228e+000 1.197104e+000 1.298020e+000 1.416408e+000 1.677386e+000 1.701443e+000 1.817579e+000 1.945318e+000 1.333883e+000 5.637356e-001 3.946503e-001
<GCONST> 3.258173e+001
<STATE> 9
<MEAN> 16
 5.961892e+000 6.100931e+000 6.508759e+000 6.807267e+000 6.893451e+000 6.931330e+000 7.064875e+000 7.308955e+000 7.545530e+000 7.581576e+000 7.764936e+000 7.974237e+000 8.201515e+000 8.166751e+000 8.071844e+000 8.149657e+000
<VARIANCE> 16
 5.301798e-001 1.147307e+000 1.785430e+000 1.892884e+000 1.471135e+000 1.201228e+000 1.197104e+000 1.298020e+000 1.416408e+000 1.677386e+000 1.701443e+000 1.817579e+000 1.945318e+000 1.333883e+000 5.637356e-001 3.946503e-001
<GCONST> 3.258173e+001
<TRANSP> 10
 0.000000e+000 1.000000e+000 0.000000e+000 0.000000e+000 0.000000e+000 0.000000e+000 0.000000e+000 0.000000e+000 0.000000e+000 0.000000e+000
 0.000000e+000 6.000000e-001 4.000000e-001 0.000000e+000 0.000000e+000 0.000000e+000 0.000000e+000 0.000000e+000 0.000000e+000 0.000000e+000
 0.000000e+000 0.000000e+000 6.000000e-001 4.000000e-001 0.000000e+000 0.000000e+000 0.000000e+000 0.000000e+000 0.000000e+000 0.000000e+000
 0.000000e+000 0.000000e+000 0.000000e+000 6.000000e-001 4.000000e-001 0.000000e+000 0.000000e+000 0.000000e+000 0.000000e+000 0.000000e+000
 0.000000e+000 0.000000e+000 0.000000e+000 0.000000e+000 6.000000e-001 4.000000e-001 0.000000e+000 0.000000e+000 0.000000e+000 0.000000e+000
 0.000000e+000 0.000000e+000 0.000000e+000 0.000000e+000 0.000000e+000 6.000000e-001 4.000000e-001 0.000000e+000 0.000000e+000 0.000000e+000
 0.000000e+000 0.000000e+000 0.000000e+000 0.000000e+000 0.000000e+000 0.000000e+000 6.000000e-001 4.000000e-001 0.000000e+000 0.000000e+000
 0.000000e+000 0.000000e+000 0.000000e+000 0.000000e+000 0.000000e+000 0.000000e+000 0.000000e+000 6.000000e-001 4.000000e-001 0.000000e+000
 0.000000e+000 0.000000e+000 0.000000e+000 0.000000e+000 0.000000e+000 0.000000e+000 0.000000e+000 0.000000e+000 7.000000e-001 3.000000e-001
 0.000000e+000 0.000000e+000 0.000000e+000 0.000000e+000 0.000000e+000 0.000000e+000 0.000000e+000 0.000000e+000 0.000000e+000 0.000000e+000
<ENDHMM>
~o
<STREAMINFO> 1 16
<VECSIZE> 16<NULLD><FBANK><DIAGC>
~h "pet"
<BEGINHMM>
<NUMSTATES> 10
<STATE> 2
<MEAN> 16
 5.961892e+000 6.100931e+000 6.508759e+000 6.807267e+000 6.893451e+000 6.931330e+000 7.064875e+000 7.308955e+000 7.545530e+000 7.581576e+000 7.764936e+000 7.974237e+000 8.201515e+000 8.166751e+000 8.071844e+000 8.149657e+000
<VARIANCE> 16
 5.301798e-001 1.147307e+000 1.785430e+000 1.892884e+000 1.471135e+000 1.201228e+000 1.197104e+000 1.298020e+000 1.416408e+000 1.677386e+000 1.701443e+000 1.817579e+000 1.945318e+000 1.333883e+000 5.637356e-001 3.946503e-001
<GCONST> 3.258173e+001
<STATE> 3
<MEAN> 16
 5.961892e+000 6.100931e+000 6.508759e+000 6.807267e+000 6.893451e+000 6.931330e+000 7.064875e+000 7.308955e+000 7.545530e+000 7.581576e+000 7.764936e+000 7.974237e+000 8.201515e+000 8.166751e+000 8.071844e+000 8.149657e+000
<VARIANCE> 16
 5.301798e-001 1.147307e+000 1.785430e+000 1.892884e+000 1.471135e+000 1.201228e+000 1.197104e+000 1.298020e+000 1.416408e+000 1.677386e+000 1.701443e+000 1.817579e+000 1.945318e+000 1.333883e+000 5.637356e-001 3.946503e-001
<GCONST> 3.258173e+001
<STATE> 4
<MEAN> 16
 5.961892e+000 6.100931e+000 6.508759e+000 6.807267e+000 6.893451e+000 6.931330e+000 7.064875e+000 7.308955e+000 7.545530e+000 7.581576e+000 7.764936e+000 7.974237e+000 8.201515e+000 8.166751e+000 8.071844e+000 8.149657e+000
<VARIANCE> 16
 5.301798e-001 1.147307e+000 1.785430e+000 1.892884e+000 1.471135e+000 1.201228e+000 1.197104e+000 1.298020e+000 1.416408e+000 1.677386e+000 1.701443e+000 1.817579e+000 1.945318e+000 1.333883e+000 5.637356e-001 3.946503e-001
<GCONST> 3.258173e+001
<STATE> 5
<MEAN> 16
 5.961892e+000 6.100931e+000 6.508759e+000 6.807267e+000 6.893451e+000 6.931330e+000 7.064875e+000 7.308955e+000 7.545530e+000 7.581576e+000 7.764936e+000 7.974237e+000 8.201515e+000 8.166751e+000 8.071844e+000 8.149657e+000
<VARIANCE> 16
 5.301798e-001 1.147307e+000 1.785430e+000 1.892884e+000 1.471135e+000 1.201228e+000 1.197104e+000 1.298020e+000 1.416408e+000 1.677386e+000 1.701443e+000 1.817579e+000 1.945318e+000 1.333883e+000 5.637356e-001 3.946503e-001
<GCONST> 3.258173e+001
<STATE> 6
<MEAN> 16
 5.961892e+000 6.100931e+000 6.508759e+000 6.807267e+000 6.893451e+000 6.931330e+000 7.064875e+000 7.308955e+000 7.545530e+000 7.581576e+000 7.764936e+000 7.974237e+000 8.201515e+000 8.166751e+000 8.071844e+000 8.149657e+000
<VARIANCE> 16
 5.301798e-001 1.147307e+000 1.785430e+000 1.892884e+000 1.471135e+000 1.201228e+000 1.197104e+000 1.298020e+000 1.416408e+000 1.677386e+000 1.701443e+000 1.817579e+000 1.945318e+000 1.333883e+000 5.637356e-001 3.946503e-001
<GCONST> 3.258173e+001
<STATE> 7
<MEAN> 16
 5.961892e+000 6.100931e+000 6.508759e+000 6.807267e+000 6.893451e+000 6.931330e+000 7.064875e+000 7.308955e+000 7.545530e+000 7.581576e+000 7.764936e+000 7.974237e+000 8.201515e+000 8.166751e+000 8.071844e+000 8.149657e+000
<VARIANCE> 16
 5.301798e-001 1.147307e+000 1.785430e+000 1.892884e+000 1.471135e+000 1.201228e+000 1.197104e+000 1.298020e+000 1.416408e+000 1.677386e+000 1.701443e+000 1.817579e+000 1.945318e+000 1.333883e+000 5.637356e-001 3.946503e-001
<GCONST> 3.258173e+001
<STATE> 8
<MEAN> 16
 5.961892e+000 6.100931e+000 6.508759e+000 6.807267e+000 6.893451e+000 6.931330e+000 7.064875e+000 7.308955e+000 7.545530e+000 7.581576e+000 7.764936e+000 7.974237e+000 8.201515e+000 8.166751e+000 8.071844e+000 8.149657e+000
<VARIANCE> 16
 5.301798e-001 1.147307e+000 1.785430e+000 1.892884e+000 1.471135e+000 1.201228e+000 1.197104e+000 1.298020e+000 1.416408e+000 1.677386e+000 1.701443e+000 1.817579e+000 1.945318e+000 1.333883e+000 5.637356e-001 3.946503e-001
<GCONST> 3.258173e+001
<STATE> 9
<MEAN> 16
 5.961892e+000 6.100931e+000 6.508759e+000 6.807267e+000 6.893451e+000 6.931330e+000 7.064875e+000 7.308955e+000 7.545530e+000 7.581576e+000 7.764936e+000 7.974237e+000 8.201515e+000 8.166751e+000 8.071844e+000 8.149657e+000
<VARIANCE> 16
 5.301798e-001 1.147307e+000 1.785430e+000 1.892884e+000 1.471135e+000 1.201228e+000 1.197104e+000 1.298020e+000 1.416408e+000 1.677386e+000 1.701443e+000 1.817579e+000 1.945318e+000 1.333883e+000 5.637356e-001 3.946503e-001
<GCONST> 3.258173e+001
<TRANSP> 10
 0.000000e+000 1.000000e+000 0.000000e+000 0.000000e+000 0.000000e+000 0.000000e+000 0.000000e+000 0.000000e+000 0.000000e+000 0.000000e+000
 0.000000e+000 6.000000e-001 4.000000e-001 0.000000e+000 0.000000e+000 0.000000e+000 0.000000e+000 0.000000e+000 0.000000e+000 0.000000e+000
 0.000000e+000 0.000000e+000 6.000000e-001 4.000000e-001 0.000000e+000 0.000000e+000 0.000000e+000 0.000000e+000 0.000000e+000 0.000000e+000
 0.000000e+000 0.000000e+000 0.000000e+000 6.000000e-001 4.000000e-001 0.000000e+000 0.000000e+000 0.000000e+000 0.000000e+000 0.000000e+000
 0.000000e+000 0.000000e+000 0.000000e+000 0.000000e+000 6.000000e-001 4.000000e-001 0.000000e+000 0.000000e+000 0.000000e+000 0.000000e+000
 0.000000e+000 0.000000e+000 0.000000e+000 0.000000e+000 0.000000e+000 6.000000e-001 4.000000e-001 0.000000e+000 0.000000e+000 0.000000e+000
 0.000000e+000 0.000000e+000 0.000000e+000 0.000000e+000 0.000000e+000 0.000000e+000 6.000000e-001 4.000000e-001 0.000000e+000 0.000000e+000
 0.000000e+000 0.000000e+000 0.000000e+000 0.000000e+000 0.000000e+000 0.000000e+000 0.000000e+000 6.000000e-001 4.000000e-001 0.000000e+000
 0.000000e+000 0.000000e+000 0.000000e+000 0.000000e+000 0.000000e+000 0.000000e+000 0.000000e+000 0.000000e+000 7.000000e-001 3.000000e-001
 0.000000e+000 0.000000e+000 0.000000e+000 0.000000e+000 0.000000e+000 0.000000e+000 0.000000e+000 0.000000e+000 0.000000e+000 0.000000e+000
<ENDHMM>
~o
<STREAMINFO> 1 16
<VECSIZE> 16<NULLD><FBANK><DIAGC>
~h "sest"
<BEGINHMM>
<NUMSTATES> 10
<STATE> 2
<MEAN> 16
 5.961892e+000 6.100931e+000 6.508759e+000 6.807267e+000 6.893451e+000 6.931330e+000 7.064875e+000 7.308955e+000 7.545530e+000 7.581576e+000 7.764936e+000 7.974237e+000 8.201515e+000 8.166751e+000 8.071844e+000 8.149657e+000
<VARIANCE> 16
 5.301798e-001 1.147307e+000 1.785430e+000 1.892884e+000 1.471135e+000 1.201228e+000 1.197104e+000 1.298020e+000 1.416408e+000 1.677386e+000 1.701443e+000 1.817579e+000 1.945318e+000 1.333883e+000 5.637356e-001 3.946503e-001
<GCONST> 3.258173e+001
<STATE> 3
<MEAN> 16
 5.961892e+000 6.100931e+000 6.508759e+000 6.807267e+000 6.893451e+000 6.931330e+000 7.064875e+000 7.308955e+000 7.545530e+000 7.581576e+000 7.764936e+000 7.974237e+000 8.201515e+000 8.166751e+000 8.071844e+000 8.149657e+000
<VARIANCE> 16
 5.301798e-001 1.147307e+000 1.785430e+000 1.892884e+000 1.471135e+000 1.201228e+000 1.197104e+000 1.298020e+000 1.416408e+000 1.677386e+000 1.701443e+000 1.817579e+000 1.945318e+000 1.333883e+000 5.637356e-001 3.946503e-001
<GCONST> 3.258173e+001
<STATE> 4
<MEAN> 16
 5.961892e+000 6.100931e+000 6.508759e+000 6.807267e+000 6.893451e+000 6.931330e+000 7.064875e+000 7.308955e+000 7.545530e+000 7.581576e+000 7.764936e+000 7.974237e+000 8.201515e+000 8.166751e+000 8.071844e+000 8.149657e+000
<VARIANCE> 16
 5.301798e-001 1.147307e+000 1.785430e+000 1.892884e+000 1.471135e+000 1.201228e+000 1.197104e+000 1.298020e+000 1.416408e+000 1.677386e+000 1.701443e+000 1.817579e+000 1.945318e+000 1.333883e+000 5.637356e-001 3.946503e-001
<GCONST> 3.258173e+001
<STATE> 5
<MEAN> 16
 5.961892e+000 6.100931e+000 6.508759e+000 6.807267e+000 6.893451e+000 6.931330e+000 7.064875e+000 7.308955e+000 7.545530e+000 7.581576e+000 7.764936e+000 7.974237e+000 8.201515e+000 8.166751e+000 8.071844e+000 8.149657e+000
<VARIANCE> 16
 5.301798e-001 1.147307e+000 1.785430e+000 1.892884e+000 1.471135e+000 1.201228e+000 1.197104e+000 1.298020e+000 1.416408e+000 1.677386e+000 1.701443e+000 1.817579e+000 1.945318e+000 1.333883e+000 5.637356e-001 3.946503e-001
<GCONST> 3.258173e+001
<STATE> 6
<MEAN> 16
 5.961892e+000 6.100931e+000 6.508759e+000 6.807267e+000 6.893451e+000 6.931330e+000 7.064875e+000 7.308955e+000 7.545530e+000 7.581576e+000 7.764936e+000 7.974237e+000 8.201515e+000 8.166751e+000 8.071844e+000 8.149657e+000
<VARIANCE> 16
 5.301798e-001 1.147307e+000 1.785430e+000 1.892884e+000 1.471135e+000 1.201228e+000 1.197104e+000 1.298020e+000 1.416408e+000 1.677386e+000 1.701443e+000 1.817579e+000 1.945318e+000 1.333883e+000 5.637356e-001 3.946503e-001
<GCONST> 3.258173e+001
<STATE> 7
<MEAN> 16
 5.961892e+000 6.100931e+000 6.508759e+000 6.807267e+000 6.893451e+000 6.931330e+000 7.064875e+000 7.308955e+000 7.545530e+000 7.581576e+000 7.764936e+000 7.974237e+000 8.201515e+000 8.166751e+000 8.071844e+000 8.149657e+000
<VARIANCE> 16
 5.301798e-001 1.147307e+000 1.785430e+000 1.892884e+000 1.471135e+000 1.201228e+000 1.197104e+000 1.298020e+000 1.416408e+000 1.677386e+000 1.701443e+000 1.817579e+000 1.945318e+000 1.333883e+000 5.637356e-001 3.946503e-001
<GCONST> 3.258173e+001
<STATE> 8
<MEAN> 16
 5.961892e+000 6.100931e+000 6.508759e+000 6.807267e+000 6.893451e+000 6.931330e+000 7.064875e+000 7.308955e+000 7.545530e+000 7.581576e+000 7.764936e+000 7.974237e+000 8.201515e+000 8.166751e+000 8.071844e+000 8.149657e+000
<VARIANCE> 16
 5.301798e-001 1.147307e+000 1.785430e+000 1.892884e+000 1.471135e+000 1.201228e+000 1.197104e+000 1.298020e+000 1.416408e+000 1.677386e+000 1.701443e+000 1.817579e+000 1.945318e+000 1.333883e+000 5.637356e-001 3.946503e-001
<GCONST> 3.258173e+001
<STATE> 9
<MEAN> 16
 5.961892e+000 6.100931e+000 6.508759e+000 6.807267e+000 6.893451e+000 6.931330e+000 7.064875e+000 7.308955e+000 7.545530e+000 7.581576e+000 7.764936e+000 7.974237e+000 8.201515e+000 8.166751e+000 8.071844e+000 8.149657e+000
<VARIANCE> 16
 5.301798e-001 1.147307e+000 1.785430e+000 1.892884e+000 1.471135e+000 1.201228e+000 1.197104e+000 1.298020e+000 1.416408e+000 1.677386e+000 1.701443e+000 1.817579e+000 1.945318e+000 1.333883e+000 5.637356e-001 3.946503e-001
<GCONST> 3.258173e+001
<TRANSP> 10
 0.000000e+000 1.000000e+000 0.000000e+000 0.000000e+000 0.000000e+000 0.000000e+000 0.000000e+000 0.000000e+000 0.000000e+000 0.000000e+000
 0.000000e+000 6.000000e-001 4.000000e-001 0.000000e+000 0.000000e+000 0.000000e+000 0.000000e+000 0.000000e+000 0.000000e+000 0.000000e+000
 0.000000e+000 0.000000e+000 6.000000e-001 4.000000e-001 0.000000e+000 0.000000e+000 0.000000e+000 0.000000e+000 0.000000e+000 0.000000e+000
 0.000000e+000 0.000000e+000 0.000000e+000 6.000000e-001 4.000000e-001 0.000000e+000 0.000000e+000 0.000000e+000 0.000000e+000 0.000000e+000
 0.000000e+000 0.000000e+000 0.000000e+000 0.000000e+000 6.000000e-001 4.000000e-001 0.000000e+000 0.000000e+000 0.000000e+000 0.000000e+000
 0.000000e+000 0.000000e+000 0.000000e+000 0.000000e+000 0.000000e+000 6.000000e-001 4.000000e-001 0.000000e+000 0.000000e+000 0.000000e+000
 0.000000e+000 0.000000e+000 0.000000e+000 0.000000e+000 0.000000e+000 0.000000e+000 6.000000e-001 4.000000e-001 0.000000e+000 0.000000e+000
 0.000000e+000 0.000000e+000 0.000000e+000 0.000000e+000 0.000000e+000 0.000000e+000 0.000000e+000 6.000000e-001 4.000000e-001 0.000000e+000
 0.000000e+000 0.000000e+000 0.000000e+000 0.000000e+000 0.000000e+000 0.000000e+000 0.000000e+000 0.000000e+000 7.000000e-001 3.000000e-001
 0.000000e+000 0.000000e+000 0.000000e+000 0.000000e+000 0.000000e+000 0.000000e+000 0.000000e+000 0.000000e+000 0.000000e+000 0.000000e+000
<ENDHMM>
~o
<STREAMINFO> 1 16
<VECSIZE> 16<NULLD><FBANK><DIAGC>
~h "sedm"
<BEGINHMM>
<NUMSTATES> 10
<STATE> 2
<MEAN> 16
 5.961892e+000 6.100931e+000 6.508759e+000 6.807267e+000 6.893451e+000 6.931330e+000 7.064875e+000 7.308955e+000 7.545530e+000 7.581576e+000 7.764936e+000 7.974237e+000 8.201515e+000 8.166751e+000 8.071844e+000 8.149657e+000
<VARIANCE> 16
 5.301798e-001 1.147307e+000 1.785430e+000 1.892884e+000 1.471135e+000 1.201228e+000 1.197104e+000 1.298020e+000 1.416408e+000 1.677386e+000 1.701443e+000 1.817579e+000 1.945318e+000 1.333883e+000 5.637356e-001 3.946503e-001
<GCONST> 3.258173e+001
<STATE> 3
<MEAN> 16
 5.961892e+000 6.100931e+000 6.508759e+000 6.807267e+000 6.893451e+000 6.931330e+000 7.064875e+000 7.308955e+000 7.545530e+000 7.581576e+000 7.764936e+000 7.974237e+000 8.201515e+000 8.166751e+000 8.071844e+000 8.149657e+000
<VARIANCE> 16
 5.301798e-001 1.147307e+000 1.785430e+000 1.892884e+000 1.471135e+000 1.201228e+000 1.197104e+000 1.298020e+000 1.416408e+000 1.677386e+000 1.701443e+000 1.817579e+000 1.945318e+000 1.333883e+000 5.637356e-001 3.946503e-001
<GCONST> 3.258173e+001
<STATE> 4
<MEAN> 16
 5.961892e+000 6.100931e+000 6.508759e+000 6.807267e+000 6.893451e+000 6.931330e+000 7.064875e+000 7.308955e+000 7.545530e+000 7.581576e+000 7.764936e+000 7.974237e+000 8.201515e+000 8.166751e+000 8.071844e+000 8.149657e+000
<VARIANCE> 16
 5.301798e-001 1.147307e+000 1.785430e+000 1.892884e+000 1.471135e+000 1.201228e+000 1.197104e+000 1.298020e+000 1.416408e+000 1.677386e+000 1.701443e+000 1.817579e+000 1.945318e+000 1.333883e+000 5.637356e-001 3.946503e-001
<GCONST> 3.258173e+001
<STATE> 5
<MEAN> 16
 5.961892e+000 6.100931e+000 6.508759e+000 6.807267e+000 6.893451e+000 6.931330e+000 7.064875e+000 7.308955e+000 7.545530e+000 7.581576e+000 7.764936e+000 7.974237e+000 8.201515e+000 8.166751e+000 8.071844e+000 8.149657e+000
<VARIANCE> 16
 5.301798e-001 1.147307e+000 1.785430e+000 1.892884e+000 1.471135e+000 1.201228e+000 1.197104e+000 1.298020e+000 1.416408e+000 1.677386e+000 1.701443e+000 1.817579e+000 1.945318e+000 1.333883e+000 5.637356e-001 3.946503e-001
<GCONST> 3.258173e+001
<STATE> 6
<MEAN> 16
 5.961892e+000 6.100931e+000 6.508759e+000 6.807267e+000 6.893451e+000 6.931330e+000 7.064875e+000 7.308955e+000 7.545530e+000 7.581576e+000 7.764936e+000 7.974237e+000 8.201515e+000 8.166751e+000 8.071844e+000 8.149657e+000
<VARIANCE> 16
 5.301798e-001 1.147307e+000 1.785430e+000 1.892884e+000 1.471135e+000 1.201228e+000 1.197104e+000 1.298020e+000 1.416408e+000 1.677386e+000 1.701443e+000 1.817579e+000 1.945318e+000 1.333883e+000 5.637356e-001 3.946503e-001
<GCONST> 3.258173e+001
<STATE> 7
<MEAN> 16
 5.961892e+000 6.100931e+000 6.508759e+000 6.807267e+000 6.893451e+000 6.931330e+000 7.064875e+000 7.308955e+000 7.545530e+000 7.581576e+000 7.764936e+000 7.974237e+000 8.201515e+000 8.166751e+000 8.071844e+000 8.149657e+000
<VARIANCE> 16
 5.301798e-001 1.147307e+000 1.785430e+000 1.892884e+000 1.471135e+000 1.201228e+000 1.197104e+000 1.298020e+000 1.416408e+000 1.677386e+000 1.701443e+000 1.817579e+000 1.945318e+000 1.333883e+000 5.637356e-001 3.946503e-001
<GCONST> 3.258173e+001
<STATE> 8
<MEAN> 16
 5.961892e+000 6.100931e+000 6.508759e+000 6.807267e+000 6.893451e+000 6.931330e+000 7.064875e+000 7.308955e+000 7.545530e+000 7.581576e+000 7.764936e+000 7.974237e+000 8.201515e+000 8.166751e+000 8.071844e+000 8.149657e+000
<VARIANCE> 16
 5.301798e-001 1.147307e+000 1.785430e+000 1.892884e+000 1.471135e+000 1.201228e+000 1.197104e+000 1.298020e+000 1.416408e+000 1.677386e+000 1.701443e+000 1.817579e+000 1.945318e+000 1.333883e+000 5.637356e-001 3.946503e-001
<GCONST> 3.258173e+001
<STATE> 9
<MEAN> 16
 5.961892e+000 6.100931e+000 6.508759e+000 6.807267e+000 6.893451e+000 6.931330e+000 7.064875e+000 7.308955e+000 7.545530e+000 7.581576e+000 7.764936e+000 7.974237e+000 8.201515e+000 8.166751e+000 8.071844e+000 8.149657e+000
<VARIANCE> 16
 5.301798e-001 1.147307e+000 1.785430e+000 1.892884e+000 1.471135e+000 1.201228e+000 1.197104e+000 1.298020e+000 1.416408e+000 1.677386e+000 1.701443e+000 1.817579e+000 1.945318e+000 1.333883e+000 5.637356e-001 3.946503e-001
<GCONST> 3.258173e+001
<TRANSP> 10
 0.000000e+000 1.000000e+000 0.000000e+000 0.000000e+000 0.000000e+000 0.000000e+000 0.000000e+000 0.000000e+000 0.000000e+000 0.000000e+000
 0.000000e+000 6.000000e-001 4.000000e-001 0.000000e+000 0.000000e+000 0.000000e+000 0.000000e+000 0.000000e+000 0.000000e+000 0.000000e+000
 0.000000e+000 0.000000e+000 6.000000e-001 4.000000e-001 0.000000e+000 0.000000e+000 0.000000e+000 0.000000e+000 0.000000e+000 0.000000e+000
 0.000000e+000 0.000000e+000 0.000000e+000 6.000000e-001 4.000000e-001 0.000000e+000 0.000000e+000 0.000000e+000 0.000000e+000 0.000000e+000
 0.000000e+000 0.000000e+000 0.000000e+000 0.000000e+000 6.000000e-001 4.000000e-001 0.000000e+000 0.000000e+000 0.000000e+000 0.000000e+000
 0.000000e+000 0.000000e+000 0.000000e+000 0.000000e+000 0.000000e+000 6.000000e-001 4.000000e-001 0.000000e+000 0.000000e+000 0.000000e+000
 0.000000e+000 0.000000e+000 0.000000e+000 0.000000e+000 0.000000e+000 0.000000e+000 6.000000e-001 4.000000e-001 0.000000e+000 0.000000e+000
 0.000000e+000 0.000000e+000 0.000000e+000 0.000000e+000 0.000000e+000 0.000000e+000 0.000000e+000 6.000000e-001 4.000000e-001 0.000000e+000
 0.000000e+000 0.000000e+000 0.000000e+000 0.000000e+000 0.000000e+000 0.000000e+000 0.000000e+000 0.000000e+000 7.000000e-001 3.000000e-001
 0.000000e+000 0.000000e+000 0.000000e+000 0.000000e+000 0.000000e+000 0.000000e+000 0.000000e+000 0.000000e+000 0.000000e+000 0.000000e+000
<ENDHMM>
~o
<STREAMINFO> 1 16
<VECSIZE> 16<NULLD><FBANK><DIAGC>
~h "osm"
<BEGINHMM>
<NUMSTATES> 10
<STATE> 2
<MEAN> 16
 5.961892e+000 6.100931e+000 6.508759e+000 6.807267e+000 6.893451e+000 6.931330e+000 7.064875e+000 7.308955e+000 7.545530e+000 7.581576e+000 7.764936e+000 7.974237e+000 8.201515e+000 8.166751e+000 8.071844e+000 8.149657e+000
<VARIANCE> 16
 5.301798e-001 1.147307e+000 1.785430e+000 1.892884e+000 1.471135e+000 1.201228e+000 1.197104e+000 1.298020e+000 1.416408e+000 1.677386e+000 1.701443e+000 1.817579e+000 1.945318e+000 1.333883e+000 5.637356e-001 3.946503e-001
<GCONST> 3.258173e+001
<STATE> 3
<MEAN> 16
 5.961892e+000 6.100931e+000 6.508759e+000 6.807267e+000 6.893451e+000 6.931330e+000 7.064875e+000 7.308955e+000 7.545530e+000 7.581576e+000 7.764936e+000 7.974237e+000 8.201515e+000 8.166751e+000 8.071844e+000 8.149657e+000
<VARIANCE> 16
 5.301798e-001 1.147307e+000 1.785430e+000 1.892884e+000 1.471135e+000 1.201228e+000 1.197104e+000 1.298020e+000 1.416408e+000 1.677386e+000 1.701443e+000 1.817579e+000 1.945318e+000 1.333883e+000 5.637356e-001 3.946503e-001
<GCONST> 3.258173e+001
<STATE> 4
<MEAN> 16
 5.961892e+000 6.100931e+000 6.508759e+000 6.807267e+000 6.893451e+000 6.931330e+000 7.064875e+000 7.308955e+000 7.545530e+000 7.581576e+000 7.764936e+000 7.974237e+000 8.201515e+000 8.166751e+000 8.071844e+000 8.149657e+000
<VARIANCE> 16
 5.301798e-001 1.147307e+000 1.785430e+000 1.892884e+000 1.471135e+000 1.201228e+000 1.197104e+000 1.298020e+000 1.416408e+000 1.677386e+000 1.701443e+000 1.817579e+000 1.945318e+000 1.333883e+000 5.637356e-001 3.946503e-001
<GCONST> 3.258173e+001
<STATE> 5
<MEAN> 16
 5.961892e+000 6.100931e+000 6.508759e+000 6.807267e+000 6.893451e+000 6.931330e+000 7.064875e+000 7.308955e+000 7.545530e+000 7.581576e+000 7.764936e+000 7.974237e+000 8.201515e+000 8.166751e+000 8.071844e+000 8.149657e+000
<VARIANCE> 16
 5.301798e-001 1.147307e+000 1.785430e+000 1.892884e+000 1.471135e+000 1.201228e+000 1.197104e+000 1.298020e+000 1.416408e+000 1.677386e+000 1.701443e+000 1.817579e+000 1.945318e+000 1.333883e+000 5.637356e-001 3.946503e-001
<GCONST> 3.258173e+001
<STATE> 6
<MEAN> 16
 5.961892e+000 6.100931e+000 6.508759e+000 6.807267e+000 6.893451e+000 6.931330e+000 7.064875e+000 7.308955e+000 7.545530e+000 7.581576e+000 7.764936e+000 7.974237e+000 8.201515e+000 8.166751e+000 8.071844e+000 8.149657e+000
<VARIANCE> 16
 5.301798e-001 1.147307e+000 1.785430e+000 1.892884e+000 1.471135e+000 1.201228e+000 1.197104e+000 1.298020e+000 1.416408e+000 1.677386e+000 1.701443e+000 1.817579e+000 1.945318e+000 1.333883e+000 5.637356e-001 3.946503e-001
<GCONST> 3.258173e+001
<STATE> 7
<MEAN> 16
 5.961892e+000 6.100931e+000 6.508759e+000 6.807267e+000 6.893451e+000 6.931330e+000 7.064875e+000 7.308955e+000 7.545530e+000 7.581576e+000 7.764936e+000 7.974237e+000 8.201515e+000 8.166751e+000 8.071844e+000 8.149657e+000
<VARIANCE> 16
 5.301798e-001 1.147307e+000 1.785430e+000 1.892884e+000 1.471135e+000 1.201228e+000 1.197104e+000 1.298020e+000 1.416408e+000 1.677386e+000 1.701443e+000 1.817579e+000 1.945318e+000 1.333883e+000 5.637356e-001 3.946503e-001
<GCONST> 3.258173e+001
<STATE> 8
<MEAN> 16
 5.961892e+000 6.100931e+000 6.508759e+000 6.807267e+000 6.893451e+000 6.931330e+000 7.064875e+000 7.308955e+000 7.545530e+000 7.581576e+000 7.764936e+000 7.974237e+000 8.201515e+000 8.166751e+000 8.071844e+000 8.149657e+000
<VARIANCE> 16
 5.301798e-001 1.147307e+000 1.785430e+000 1.892884e+000 1.471135e+000 1.201228e+000 1.197104e+000 1.298020e+000 1.416408e+000 1.677386e+000 1.701443e+000 1.817579e+000 1.945318e+000 1.333883e+000 5.637356e-001 3.946503e-001
<GCONST> 3.258173e+001
<STATE> 9
<MEAN> 16
 5.961892e+000 6.100931e+000 6.508759e+000 6.807267e+000 6.893451e+000 6.931330e+000 7.064875e+000 7.308955e+000 7.545530e+000 7.581576e+000 7.764936e+000 7.974237e+000 8.201515e+000 8.166751e+000 8.071844e+000 8.149657e+000
<VARIANCE> 16
 5.301798e-001 1.147307e+000 1.785430e+000 1.892884e+000 1.471135e+000 1.201228e+000 1.197104e+000 1.298020e+000 1.416408e+000 1.677386e+000 1.701443e+000 1.817579e+000 1.945318e+000 1.333883e+000 5.637356e-001 3.946503e-001
<GCONST> 3.258173e+001
<TRANSP> 10
 0.000000e+000 1.000000e+000 0.000000e+000 0.000000e+000 0.000000e+000 0.000000e+000 0.000000e+000 0.000000e+000 0.000000e+000 0.000000e+000
 0.000000e+000 6.000000e-001 4.000000e-001 0.000000e+000 0.000000e+000 0.000000e+000 0.000000e+000 0.000000e+000 0.000000e+000 0.000000e+000
 0.000000e+000 0.000000e+000 6.000000e-001 4.000000e-001 0.000000e+000 0.000000e+000 0.000000e+000 0.000000e+000 0.000000e+000 0.000000e+000
 0.000000e+000 0.000000e+000 0.000000e+000 6.000000e-001 4.000000e-001 0.000000e+000 0.000000e+000 0.000000e+000 0.000000e+000 0.000000e+000
 0.000000e+000 0.000000e+000 0.000000e+000 0.000000e+000 6.000000e-001 4.000000e-001 0.000000e+000 0.000000e+000 0.000000e+000 0.000000e+000
 0.000000e+000 0.000000e+000 0.000000e+000 0.000000e+000 0.000000e+000 6.000000e-001 4.000000e-001 0.000000e+000 0.000000e+000 0.000000e+000
 0.000000e+000 0.000000e+000 0.000000e+000 0.000000e+000 0.000000e+000 0.000000e+000 6.000000e-001 4.000000e-001 0.000000e+000 0.000000e+000
 0.000000e+000 0.000000e+000 0.000000e+000 0.000000e+000 0.000000e+000 0.000000e+000 0.000000e+000 6.000000e-001 4.000000e-001 0.000000e+000
 0.000000e+000 0.000000e+000 0.000000e+000 0.000000e+000 0.000000e+000 0.000000e+000 0.000000e+000 0.000000e+000 7.000000e-001 3.000000e-001
 0.000000e+000 0.000000e+000 0.000000e+000 0.000000e+000 0.000000e+000 0.000000e+000 0.000000e+000 0.000000e+000 0.000000e+000 0.000000e+000
<ENDHMM>
~o
<STREAMINFO> 1 16
<VECSIZE> 16<NULLD><FBANK><DIAGC>
~h "devet"
<BEGINHMM>
<NUMSTATES> 10
<STATE> 2
<MEAN> 16
 5.961892e+000 6.100931e+000 6.508759e+000 6.807267e+000 6.893451e+000 6.931330e+000 7.064875e+000 7.308955e+000 7.545530e+000 7.581576e+000 7.764936e+000 7.974237e+000 8.201515e+000 8.166751e+000 8.071844e+000 8.149657e+000
<VARIANCE> 16
 5.301798e-001 1.147307e+000 1.785430e+000 1.892884e+000 1.471135e+000 1.201228e+000 1.197104e+000 1.298020e+000 1.416408e+000 1.677386e+000 1.701443e+000 1.817579e+000 1.945318e+000 1.333883e+000 5.637356e-001 3.946503e-001
<GCONST> 3.258173e+001
<STATE> 3
<MEAN> 16
 5.961892e+000 6.100931e+000 6.508759e+000 6.807267e+000 6.893451e+000 6.931330e+000 7.064875e+000 7.308955e+000 7.545530e+000 7.581576e+000 7.764936e+000 7.974237e+000 8.201515e+000 8.166751e+000 8.071844e+000 8.149657e+000
<VARIANCE> 16
 5.301798e-001 1.147307e+000 1.785430e+000 1.892884e+000 1.471135e+000 1.201228e+000 1.197104e+000 1.298020e+000 1.416408e+000 1.677386e+000 1.701443e+000 1.817579e+000 1.945318e+000 1.333883e+000 5.637356e-001 3.946503e-001
<GCONST> 3.258173e+001
<STATE> 4
<MEAN> 16
 5.961892e+000 6.100931e+000 6.508759e+000 6.807267e+000 6.893451e+000 6.931330e+000 7.064875e+000 7.308955e+000 7.545530e+000 7.581576e+000 7.764936e+000 7.974237e+000 8.201515e+000 8.166751e+000 8.071844e+000 8.149657e+000
<VARIANCE> 16
 5.301798e-001 1.147307e+000 1.785430e+000 1.892884e+000 1.471135e+000 1.201228e+000 1.197104e+000 1.298020e+000 1.416408e+000 1.677386e+000 1.701443e+000 1.817579e+000 1.945318e+000 1.333883e+000 5.637356e-001 3.946503e-001
<GCONST> 3.258173e+001
<STATE> 5
<MEAN> 16
 5.961892e+000 6.100931e+000 6.508759e+000 6.807267e+000 6.893451e+000 6.931330e+000 7.064875e+000 7.308955e+000 7.545530e+000 7.581576e+000 7.764936e+000 7.974237e+000 8.201515e+000 8.166751e+000 8.071844e+000 8.149657e+000
<VARIANCE> 16
 5.301798e-001 1.147307e+000 1.785430e+000 1.892884e+000 1.471135e+000 1.201228e+000 1.197104e+000 1.298020e+000 1.416408e+000 1.677386e+000 1.701443e+000 1.817579e+000 1.945318e+000 1.333883e+000 5.637356e-001 3.946503e-001
<GCONST> 3.258173e+001
<STATE> 6
<MEAN> 16
 5.961892e+000 6.100931e+000 6.508759e+000 6.807267e+000 6.893451e+000 6.931330e+000 7.064875e+000 7.308955e+000 7.545530e+000 7.581576e+000 7.764936e+000 7.974237e+000 8.201515e+000 8.166751e+000 8.071844e+000 8.149657e+000
<VARIANCE> 16
 5.301798e-001 1.147307e+000 1.785430e+000 1.892884e+000 1.471135e+000 1.201228e+000 1.197104e+000 1.298020e+000 1.416408e+000 1.677386e+000 1.701443e+000 1.817579e+000 1.945318e+000 1.333883e+000 5.637356e-001 3.946503e-001
<GCONST> 3.258173e+001
<STATE> 7
<MEAN> 16
 5.961892e+000 6.100931e+000 6.508759e+000 6.807267e+000 6.893451e+000 6.931330e+000 7.064875e+000 7.308955e+000 7.545530e+000 7.581576e+000 7.764936e+000 7.974237e+000 8.201515e+000 8.166751e+000 8.071844e+000 8.149657e+000
<VARIANCE> 16
 5.301798e-001 1.147307e+000 1.785430e+000 1.892884e+000 1.471135e+000 1.201228e+000 1.197104e+000 1.298020e+000 1.416408e+000 1.677386e+000 1.701443e+000 1.817579e+000 1.945318e+000 1.333883e+000 5.637356e-001 3.946503e-001
<GCONST> 3.258173e+001
<STATE> 8
<MEAN> 16
 5.961892e+000 6.100931e+000 6.508759e+000 6.807267e+000 6.893451e+000 6.931330e+000 7.064875e+000 7.308955e+000 7.545530e+000 7.581576e+000 7.764936e+000 7.974237e+000 8.201515e+000 8.166751e+000 8.071844e+000 8.149657e+000
<VARIANCE> 16
 5.301798e-001 1.147307e+000 1.785430e+000 1.892884e+000 1.471135e+000 1.201228e+000 1.197104e+000 1.298020e+000 1.416408e+000 1.677386e+000 1.701443e+000 1.817579e+000 1.945318e+000 1.333883e+000 5.637356e-001 3.946503e-001
<GCONST> 3.258173e+001
<STATE> 9
<MEAN> 16
 5.961892e+000 6.100931e+000 6.508759e+000 6.807267e+000 6.893451e+000 6.931330e+000 7.064875e+000 7.308955e+000 7.545530e+000 7.581576e+000 7.764936e+000 7.974237e+000 8.201515e+000 8.166751e+000 8.071844e+000 8.149657e+000
<VARIANCE> 16
 5.301798e-001 1.147307e+000 1.785430e+000 1.892884e+000 1.471135e+000 1.201228e+000 1.197104e+000 1.298020e+000 1.416408e+000 1.677386e+000 1.701443e+000 1.817579e+000 1.945318e+000 1.333883e+000 5.637356e-001 3.946503e-001
<GCONST> 3.258173e+001
<TRANSP> 10
 0.000000e+000 1.000000e+000 0.000000e+000 0.000000e+000 0.000000e+000 0.000000e+000 0.000000e+000 0.000000e+000 0.000000e+000 0.000000e+000
 0.000000e+000 6.000000e-001 4.000000e-001 0.000000e+000 0.000000e+000 0.000000e+000 0.000000e+000 0.000000e+000 0.000000e+000 0.000000e+000
 0.000000e+000 0.000000e+000 6.000000e-001 4.000000e-001 0.000000e+000 0.000000e+000 0.000000e+000 0.000000e+000 0.000000e+000 0.000000e+000
 0.000000e+000 0.000000e+000 0.000000e+000 6.000000e-001 4.000000e-001 0.000000e+000 0.000000e+000 0.000000e+000 0.000000e+000 0.000000e+000
 0.000000e+000 0.000000e+000 0.000000e+000 0.000000e+000 6.000000e-001 4.000000e-001 0.000000e+000 0.000000e+000 0.000000e+000 0.000000e+000
 0.000000e+000 0.000000e+000 0.000000e+000 0.000000e+000 0.000000e+000 6.000000e-001 4.000000e-001 0.000000e+000 0.000000e+000 0.000000e+000
 0.000000e+000 0.000000e+000 0.000000e+000 0.000000e+000 0.000000e+000 0.000000e+000 6.000000e-001 4.000000e-001 0.000000e+000 0.000000e+000
 0.000000e+000 0.000000e+000 0.000000e+000 0.000000e+000 0.000000e+000 0.000000e+000 0.000000e+000 6.000000e-001 4.000000e-001 0.000000e+000
 0.000000e+000 0.000000e+000 0.000000e+000 0.000000e+000 0.000000e+000 0.000000e+000 0.000000e+000 0.000000e+000 7.000000e-001 3.000000e-001
 0.000000e+000 0.000000e+000 0.000000e+000 0.000000e+000 0.000000e+000 0.000000e+000 0.000000e+000 0.000000e+000 0.000000e+000 0.000000e+000
<ENDHMM>
~o
<STREAMINFO> 1 16
<VECSIZE> 16<NULLD><FBANK><DIAGC>
~h "sil"
<BEGINHMM>
<NUMSTATES> 5
<STATE> 2
<MEAN> 16
 5.961892e+000 6.100931e+000 6.508759e+000 6.807267e+000 6.893451e+000 6.931330e+000 7.064875e+000 7.308955e+000 7.545530e+000 7.581576e+000 7.764936e+000 7.974237e+000 8.201515e+000 8.166751e+000 8.071844e+000 8.149657e+000
<VARIANCE> 16
 5.301798e-001 1.147307e+000 1.785430e+000 1.892884e+000 1.471135e+000 1.201228e+000 1.197104e+000 1.298020e+000 1.416408e+000 1.677386e+000 1.701443e+000 1.817579e+000 1.945318e+000 1.333883e+000 5.637356e-001 3.946503e-001
<GCONST> 3.258173e+001
<STATE> 3
<MEAN> 16
 5.961892e+000 6.100931e+000 6.508759e+000 6.807267e+000 6.893451e+000 6.931330e+000 7.064875e+000 7.308955e+000 7.545530e+000 7.581576e+000 7.764936e+000 7.974237e+000 8.201515e+000 8.166751e+000 8.071844e+000 8.149657e+000
<VARIANCE> 16
 5.301798e-001 1.147307e+000 1.785430e+000 1.892884e+000 1.471135e+000 1.201228e+000 1.197104e+000 1.298020e+000 1.416408e+000 1.677386e+000 1.701443e+000 1.817579e+000 1.945318e+000 1.333883e+000 5.637356e-001 3.946503e-001
<GCONST> 3.258173e+001
<STATE> 4
<MEAN> 16
 5.961892e+000 6.100931e+000 6.508759e+000 6.807267e+000 6.893451e+000 6.931330e+000 7.064875e+000 7.308955e+000 7.545530e+000 7.581576e+000 7.764936e+000 7.974237e+000 8.201515e+000 8.166751e+000 8.071844e+000 8.149657e+000
<VARIANCE> 16
 5.301798e-001 1.147307e+000 1.785430e+000 1.892884e+000 1.471135e+000 1.201228e+000 1.197104e+000 1.298020e+000 1.416408e+000 1.677386e+000 1.701443e+000 1.817579e+000 1.945318e+000 1.333883e+000 5.637356e-001 3.946503e-001
<GCONST> 3.258173e+001
<TRANSP> 5
 0.000000e+000 1.000000e+000 0.000000e+000 0.000000e+000 0.000000e+000
 0.000000e+000 6.000000e-001 4.000000e-001 0.000000e+000 0.000000e+000
 0.000000e+000 0.000000e+000 6.000000e-001 4.000000e-001 0.000000e+000
 0.000000e+000 0.000000e+000 0.000000e+000 7.000000e-001 3.000000e-001
 0.000000e+000 0.000000e+000 0.000000e+000 0.000000e+000 0.000000e+000
<ENDHMM>
