~o
<STREAMINFO> 1 16
<VECSIZE> 16<NULLD><FBANK><DIAGC>
~h "proto-3s-16f"
<BEGINHMM>
<NUMSTATES> 5
<STATE> 2
<MEAN> 16
 5.809126e+000 6.153680e+000 6.525147e+000 6.786564e+000 6.844571e+000 6.934548e+000 7.095868e+000 7.318569e+000 7.668569e+000 7.667595e+000 7.823357e+000 8.040784e+000 8.318963e+000 8.242071e+000 8.079517e+000 8.160127e+000
<VARIANCE> 16
 2.729838e-001 7.578908e-001 1.520440e+000 1.818302e+000 1.524356e+000 1.216622e+000 1.215831e+000 1.317618e+000 1.317001e+000 1.601592e+000 1.664459e+000 1.773168e+000 2.015877e+000 1.368194e+000 4.732237e-001 2.500471e-001
<GCONST> 3.064515e+001
<STATE> 3
<MEAN> 16
 5.809126e+000 6.153680e+000 6.525147e+000 6.786564e+000 6.844571e+000 6.934548e+000 7.095868e+000 7.318569e+000 7.668569e+000 7.667595e+000 7.823357e+000 8.040784e+000 8.318963e+000 8.242071e+000 8.079517e+000 8.160127e+000
<VARIANCE> 16
 2.729838e-001 7.578908e-001 1.520440e+000 1.818302e+000 1.524356e+000 1.216622e+000 1.215831e+000 1.317618e+000 1.317001e+000 1.601592e+000 1.664459e+000 1.773168e+000 2.015877e+000 1.368194e+000 4.732237e-001 2.500471e-001
<GCONST> 3.064515e+001
<STATE> 4
<MEAN> 16
 5.809126e+000 6.153680e+000 6.525147e+000 6.786564e+000 6.844571e+000 6.934548e+000 7.095868e+000 7.318569e+000 7.668569e+000 7.667595e+000 7.823357e+000 8.040784e+000 8.318963e+000 8.242071e+000 8.079517e+000 8.160127e+000
<VARIANCE> 16
 2.729838e-001 7.578908e-001 1.520440e+000 1.818302e+000 1.524356e+000 1.216622e+000 1.215831e+000 1.317618e+000 1.317001e+000 1.601592e+000 1.664459e+000 1.773168e+000 2.015877e+000 1.368194e+000 4.732237e-001 2.500471e-001
<GCONST> 3.064515e+001
<TRANSP> 5
 0.000000e+000 1.000000e+000 0.000000e+000 0.000000e+000 0.000000e+000
 0.000000e+000 6.000000e-001 4.000000e-001 0.000000e+000 0.000000e+000
 0.000000e+000 0.000000e+000 6.000000e-001 4.000000e-001 0.000000e+000
 0.000000e+000 0.000000e+000 0.000000e+000 7.000000e-001 3.000000e-001
 0.000000e+000 0.000000e+000 0.000000e+000 0.000000e+000 0.000000e+000
<ENDHMM>
