~o
<STREAMINFO> 1 39
<VECSIZE> 39<NULLD><MFCC_D_A_0><DIAGC>
~h "mj"
<BEGINHMM>
<NUMSTATES> 3
<STATE> 2
<NUMMIXES> 4
<MIXTURE> 1 1.786734e-001
<MEAN> 39
 -1.136540e+001 -1.577862e+000 -3.548549e+000 -8.152205e+000 -6.260430e+000 -7.954282e+000 -6.662149e+000 -2.707839e+000 6.588216e-001 2.060693e+000 -1.020877e+000 -1.674298e+000 6.378263e+001 -5.559692e-001 2.419903e-001 -1.204898e-001 4.778480e-001 4.623830e-001 3.559654e-002 8.556640e-001 1.154644e-001 5.484661e-001 -4.156362e-002 2.316851e-001 3.934736e-001 -2.521269e-001 1.185913e-001 -5.314707e-002 1.331967e-001 3.817401e-002 -8.348050e-002 5.468323e-002 -9.026457e-002 7.227301e-003 -3.539849e-002 4.668290e-002 5.612459e-002 -4.656460e-002 5.297355e-002
<VARIANCE> 39
 9.223702e+001 3.618960e+001 5.764023e+001 4.097907e+001 4.067089e+001 6.222853e+001 5.789391e+001 3.454829e+001 4.048844e+001 2.941474e+001 2.955971e+001 2.314789e+001 7.873353e+001 3.056196e+000 2.031736e+000 2.040241e+000 2.167075e+000 2.315824e+000 2.687734e+000 3.060807e+000 2.396350e+000 2.709922e+000 2.046685e+000 2.051399e+000 1.810274e+000 2.347508e+000 5.590716e-001 3.656524e-001 3.376689e-001 3.930648e-001 4.267167e-001 4.975227e-001 5.675304e-001 4.666092e-001 4.965322e-001 3.984166e-001 4.030417e-001 3.441097e-001 3.824333e-001
<GCONST> 1.209413e+002
<MIXTURE> 2 3.197648e-001
<MEAN> 39
 -6.144148e+000 -3.829672e+000 1.942872e-001 -9.604152e+000 -1.002026e+001 -7.429961e+000 -1.235604e+001 -3.316842e+000 -2.434817e+000 3.767236e+000 -3.455983e-001 -4.312417e+000 6.827971e+001 2.889162e-001 3.575050e-002 2.226450e-001 -7.697216e-002 4.762739e-003 1.535331e-001 -1.703835e-001 1.034132e-001 -2.984644e-002 2.675706e-001 8.769950e-002 3.705295e-002 1.528597e-001 -6.087024e-002 8.389954e-002 -2.427617e-002 4.773715e-002 8.702256e-002 1.823075e-002 1.323885e-001 2.128715e-002 8.131733e-002 -6.805709e-003 1.862085e-002 6.546842e-002 -7.402567e-002
<VARIANCE> 39
 5.098055e+001 3.689169e+001 9.003625e+001 5.637407e+001 6.162337e+001 7.122228e+001 7.431696e+001 5.321706e+001 6.731563e+001 3.677692e+001 4.914641e+001 3.813308e+001 5.159759e+001 3.339933e+000 2.491498e+000 3.470119e+000 3.784793e+000 3.966591e+000 4.024349e+000 4.975181e+000 4.051307e+000 4.173831e+000 2.795644e+000 3.133827e+000 2.743727e+000 2.702441e+000 4.346479e-001 4.126224e-001 5.077890e-001 6.435209e-001 6.866501e-001 6.546378e-001 8.673730e-001 7.366765e-001 7.560319e-001 5.349606e-001 5.760317e-001 5.182902e-001 4.247695e-001
<GCONST> 1.327278e+002
<MIXTURE> 3 2.860247e-001
<MEAN> 39
 -6.569729e+000 -3.971838e+000 5.203512e-001 -9.798816e+000 -1.102858e+001 -8.156647e+000 -1.293164e+001 -3.870189e+000 -2.929990e+000 2.796350e+000 -1.014903e+000 -5.093833e+000 6.815310e+001 3.546548e-001 -1.780577e-001 8.870154e-002 -3.138483e-001 -3.735904e-001 -6.511337e-002 -6.335612e-001 -6.828996e-002 -4.055610e-001 -2.965793e-002 -1.927011e-001 -3.735815e-001 2.100180e-001 -7.907473e-002 7.615750e-003 -1.050844e-001 -4.307507e-002 5.600538e-002 -2.117820e-002 5.138813e-002 2.616165e-002 2.524248e-002 -1.499869e-002 -4.065185e-002 1.816607e-002 -2.510760e-002
<VARIANCE> 39
 4.920037e+001 3.647161e+001 9.470088e+001 5.504407e+001 6.400186e+001 6.815641e+001 7.709196e+001 5.496442e+001 6.962349e+001 3.847026e+001 5.253563e+001 4.041349e+001 5.858731e+001 3.349595e+000 2.426718e+000 3.558964e+000 3.658140e+000 4.083075e+000 3.926343e+000 5.263215e+000 4.188870e+000 4.376095e+000 2.897280e+000 3.372520e+000 2.950014e+000 2.664997e+000 4.203308e-001 4.023193e-001 5.010437e-001 6.360707e-001 6.779616e-001 6.386207e-001 8.980885e-001 7.688344e-001 7.665912e-001 5.544494e-001 5.987200e-001 5.356265e-001 4.263853e-001
<GCONST> 1.334587e+002
<MIXTURE> 4 2.155381e-001
<MEAN> 39
 -1.069856e+001 -2.302088e+000 -4.262809e+000 -8.247579e+000 -6.919597e+000 -7.441759e+000 -6.888598e+000 -2.720150e+000 2.472167e-001 1.498783e+000 -1.486577e+000 -2.232006e+000 6.209441e+001 -4.340884e-001 -1.775643e-002 -3.469696e-001 1.361672e-001 1.044155e-001 -1.656654e-001 3.883242e-001 -1.589453e-001 1.180939e-001 -3.266199e-001 -7.748704e-002 1.171605e-001 -2.978117e-001 9.664311e-002 -8.998057e-002 6.484000e-002 -4.607588e-002 -1.353888e-001 -4.423951e-002 -1.894490e-001 -7.234432e-002 -1.252154e-001 -9.370834e-003 -2.013293e-002 -8.158866e-002 9.931830e-002
<VARIANCE> 39
 8.127568e+001 3.188945e+001 5.398794e+001 3.998688e+001 3.838025e+001 5.655857e+001 5.575749e+001 3.270685e+001 3.836879e+001 2.854966e+001 2.957954e+001 2.324045e+001 8.869322e+001 2.580257e+000 1.673657e+000 1.870255e+000 1.890144e+000 2.084389e+000 2.383766e+000 2.658769e+000 2.228712e+000 2.519823e+000 1.908176e+000 1.953790e+000 1.730105e+000 2.174244e+000 4.555577e-001 3.181630e-001 2.997283e-001 3.642552e-001 4.032381e-001 4.505466e-001 5.379326e-001 4.405523e-001 4.733513e-001 3.829532e-001 3.829270e-001 3.368293e-001 3.771126e-001
<GCONST> 1.180736e+002
<TRANSP> 3
 0.000000e+000 1.000000e+000 0.000000e+000
 0.000000e+000 9.984397e-001 1.560251e-003
 0.000000e+000 0.000000e+000 0.000000e+000
<ENDHMM>
~h "pb"
<BEGINHMM>
<NUMSTATES> 3
<STATE> 2
<NUMMIXES> 4
<MIXTURE> 1 2.416145e-001
<MEAN> 39
 -9.864900e+000 3.905098e+000 -5.874753e-001 2.716197e-001 -2.165402e+000 1.209743e+000 -4.515757e-001 2.126728e+000 2.446362e+000 1.673678e+000 1.751506e+000 -4.674704e-001 5.606139e+001 -1.124458e-001 1.324463e-001 -1.148756e-002 2.651508e-001 3.100438e-001 2.015241e-001 3.866813e-001 2.260174e-001 2.563373e-001 2.387571e-001 1.786135e-001 2.704679e-001 -2.202865e-001 5.574440e-002 -3.614329e-002 8.523346e-002 -2.030042e-002 -1.460167e-002 3.383533e-002 -2.051826e-002 5.660319e-002 3.222976e-002 4.804250e-002 4.004058e-002 2.014443e-002 9.751278e-002
<VARIANCE> 39
 4.197480e+001 2.105843e+001 2.472723e+001 2.150019e+001 3.007664e+001 2.684739e+001 3.528859e+001 2.415736e+001 2.040157e+001 1.913520e+001 1.900205e+001 2.478201e+001 5.217769e+001 1.004524e+000 9.697500e-001 9.589444e-001 1.234956e+000 1.348584e+000 1.536477e+000 1.688971e+000 1.653971e+000 1.613195e+000 1.563922e+000 1.581494e+000 1.465910e+000 9.259645e-001 2.274005e-001 1.691064e-001 1.891475e-001 2.352153e-001 2.712283e-001 3.020355e-001 3.424301e-001 3.396141e-001 3.331991e-001 3.259304e-001 3.223660e-001 3.008341e-001 1.896375e-001
<GCONST> 1.006038e+002
<MIXTURE> 2 2.702738e-001
<MEAN> 39
 -3.743925e+000 1.674202e+000 5.817780e+000 -4.913682e+000 -1.174616e+001 -1.785789e+000 -1.055918e+001 7.274989e-001 1.319459e-001 1.703437e-001 1.779286e+000 -5.769593e+000 7.041426e+001 3.328457e-002 1.871325e-001 1.192163e-001 1.215975e-001 9.711127e-002 -2.284001e-002 1.025774e-001 7.799906e-002 1.354890e-001 2.176441e-001 9.565267e-002 1.730994e-001 9.429570e-002 -5.841068e-002 1.408544e-001 -4.780949e-002 1.287666e-001 1.479345e-001 3.873885e-002 1.612113e-001 -4.058349e-002 3.631691e-002 1.401732e-002 -1.484387e-002 6.791004e-002 -2.038942e-001
<VARIANCE> 39
 6.290480e+001 6.990238e+001 8.358002e+001 5.913045e+001 8.609470e+001 6.544840e+001 6.618555e+001 5.350503e+001 5.036699e+001 4.174721e+001 3.922789e+001 4.828101e+001 3.373903e+001 4.556640e+000 5.015199e+000 4.410979e+000 5.093510e+000 6.426044e+000 4.403458e+000 5.833303e+000 4.769028e+000 3.829285e+000 3.345309e+000 3.451104e+000 3.866244e+000 4.019964e+000 7.092957e-001 7.746413e-001 7.187477e-001 8.607019e-001 1.115397e+000 7.815412e-001 1.049096e+000 8.720188e-001 7.279895e-001 6.562608e-001 6.739750e-001 7.361059e-001 5.921178e-001
<GCONST> 1.402695e+002
<MIXTURE> 3 2.613347e-001
<MEAN> 39
 -7.816241e+000 3.372335e+000 2.905928e-001 -8.895276e-001 -3.588173e+000 9.042806e-001 -2.345883e+000 1.419423e+000 1.878695e+000 7.523352e-001 1.202874e+000 -2.198668e+000 5.880812e+001 -2.367867e-001 1.171211e-002 -2.788296e-001 2.757276e-002 6.298739e-002 -1.149872e-001 6.391192e-002 -2.345442e-001 -2.099834e-001 -2.107076e-001 -2.244824e-001 1.062697e-002 -3.634151e-001 3.529286e-002 -1.055425e-001 2.551030e-002 -1.286892e-001 -1.469598e-001 -6.344841e-002 -1.622836e-001 -4.407237e-003 -6.106266e-002 -3.452540e-002 -2.348517e-002 -6.255323e-002 1.742391e-001
<VARIANCE> 39
 5.396863e+001 3.526701e+001 3.286221e+001 3.179979e+001 4.150521e+001 3.047928e+001 4.634803e+001 3.047394e+001 2.481120e+001 2.432353e+001 2.252273e+001 3.712201e+001 7.703069e+001 1.205040e+000 1.108094e+000 1.156161e+000 1.357368e+000 1.498199e+000 1.602152e+000 1.759548e+000 1.679670e+000 1.626614e+000 1.646932e+000 1.559017e+000 1.556607e+000 1.291103e+000 2.388975e-001 2.185607e-001 2.036302e-001 2.702318e-001 2.995348e-001 3.052324e-001 3.542219e-001 3.491445e-001 3.353917e-001 3.363200e-001 3.236673e-001 3.128887e-001 2.382136e-001
<GCONST> 1.066372e+002
<MIXTURE> 4 2.267588e-001
<MEAN> 39
 -3.647206e+000 1.740702e+000 5.684810e+000 -5.103320e+000 -1.214544e+001 -1.423751e+000 -1.095544e+001 -1.133977e-001 -3.147612e-001 -8.129447e-001 1.188019e+000 -6.657629e+000 7.020033e+001 3.519567e-001 -3.772139e-001 1.924397e-001 -4.592946e-001 -5.189193e-001 -5.708876e-002 -6.098598e-001 -6.442837e-002 -1.917507e-001 -2.710834e-001 -4.302769e-002 -5.023860e-001 5.416574e-001 -2.949263e-002 -7.898978e-003 -6.330746e-002 1.615455e-002 1.053451e-002 -8.135922e-003 1.702100e-002 -6.975157e-003 -7.739196e-003 -2.877314e-002 2.825754e-003 -2.763547e-002 -6.202818e-002
<VARIANCE> 39
 5.877355e+001 7.152831e+001 8.403503e+001 5.820813e+001 8.380978e+001 6.225817e+001 6.486478e+001 5.369826e+001 4.961604e+001 4.425115e+001 3.896327e+001 4.898539e+001 3.523384e+001 5.297574e+000 4.764416e+000 4.931417e+000 4.971000e+000 7.207784e+000 4.410000e+000 6.072750e+000 4.960376e+000 3.973905e+000 3.520720e+000 3.604069e+000 4.486895e+000 3.930799e+000 6.466361e-001 7.415814e-001 6.893281e-001 8.391913e-001 1.144956e+000 7.483763e-001 1.037443e+000 8.878979e-001 7.098579e-001 6.506046e-001 6.780377e-001 7.482470e-001 5.734787e-001
<GCONST> 1.405985e+002
<TRANSP> 3
 0.000000e+000 1.000000e+000 0.000000e+000
 0.000000e+000 9.985553e-001 1.444716e-003
 0.000000e+000 0.000000e+000 0.000000e+000
<ENDHMM>
~h "pavel_rada"
<BEGINHMM>
<NUMSTATES> 3
<STATE> 2
<NUMMIXES> 4
<MIXTURE> 1 2.859450e-001
<MEAN> 39
 -5.102154e+000 -2.871477e+000 5.010627e+000 -9.242255e+000 2.043489e+000 -6.691322e+000 -3.141024e+000 2.998229e+000 -1.045903e+001 7.021851e+000 -9.365599e-001 -7.264989e-002 6.742159e+001 -1.447696e-001 1.952621e-001 2.299478e-001 1.416933e-001 5.679954e-001 1.124842e-002 3.962042e-001 1.350845e-001 9.859614e-002 3.706594e-001 -1.333234e-001 3.845668e-001 6.146507e-002 -1.150884e-002 6.739614e-002 7.688186e-002 5.290934e-002 3.430642e-002 5.121870e-002 5.693111e-002 -1.985338e-002 3.116412e-002 4.305939e-003 1.582440e-002 1.527635e-002 -1.920902e-002
<VARIANCE> 39
 9.626785e+001 4.566583e+001 8.123585e+001 6.815172e+001 7.002158e+001 6.456445e+001 5.461719e+001 4.676387e+001 6.340328e+001 4.391299e+001 3.948315e+001 4.254314e+001 1.134374e+002 4.348413e+000 3.088830e+000 3.154073e+000 3.875590e+000 4.816263e+000 3.595451e+000 3.526277e+000 3.435434e+000 4.134946e+000 3.342048e+000 3.246957e+000 2.842623e+000 5.798155e+000 6.657736e-001 4.893201e-001 4.954135e-001 6.497999e-001 8.298050e-001 5.949195e-001 6.642432e-001 6.577996e-001 7.526429e-001 6.587807e-001 6.397492e-001 5.736259e-001 7.121060e-001
<GCONST> 1.362568e+002
<MIXTURE> 2 2.106772e-001
<MEAN> 39
 -1.762044e+001 5.188930e+000 2.329227e+000 -6.453090e-001 -4.414430e+000 3.690180e+000 -1.176102e-001 6.777834e-001 -4.347034e+000 1.355524e+000 2.215839e+000 -3.458607e-001 4.174657e+001 7.424600e-002 -1.635097e-002 6.261036e-003 4.373113e-002 -9.997749e-002 1.161155e-001 -4.542765e-002 5.607611e-002 5.634792e-002 -4.776154e-002 1.854421e-001 -4.434242e-002 -2.012525e-002 3.331482e-002 -2.296881e-002 -7.917461e-003 3.721212e-003 1.194764e-001 -3.434839e-002 2.401228e-002 3.969476e-002 2.194509e-002 9.339835e-002 -4.556543e-002 2.595104e-002 5.647534e-002
<VARIANCE> 39
 1.764444e+002 6.695618e+001 5.071569e+001 5.607549e+001 1.090900e+002 7.688818e+001 2.612468e+001 2.132740e+001 4.856759e+001 4.151337e+001 2.501975e+001 1.280602e+001 4.930923e+002 6.276342e-001 4.520184e-001 8.224807e-001 7.511592e-001 1.169525e+000 1.025874e+000 1.222792e+000 1.084857e+000 1.279733e+000 1.189232e+000 1.266795e+000 9.620608e-001 4.463443e-001 1.339491e-001 1.062394e-001 1.288369e-001 1.506033e-001 2.579587e-001 2.187529e-001 2.146612e-001 2.094968e-001 2.401375e-001 2.441014e-001 2.364570e-001 1.706557e-001 2.225160e-001
<GCONST> 1.007575e+002
<MIXTURE> 3 3.579612e-001
<MEAN> 39
 -3.578705e+000 -3.971193e+000 5.368213e+000 -9.556128e+000 1.260517e+000 -7.254518e+000 -4.092137e+000 2.511783e+000 -1.115717e+001 6.757465e+000 -9.797851e-001 -1.114751e+000 6.984937e+001 4.535076e-002 -1.323412e-001 -1.664223e-001 -1.325759e-001 -2.087322e-001 -1.215846e-001 -1.769205e-001 -1.214657e-001 -9.080616e-002 -1.384203e-001 -9.777898e-002 -1.672633e-001 2.848889e-002 1.101013e-003 -3.061741e-002 -3.746386e-002 -4.387795e-002 -1.392655e-001 1.949165e-004 -5.982768e-002 -1.727848e-002 -3.940943e-002 -8.718135e-002 3.905421e-002 -2.592448e-002 -1.167004e-002
<VARIANCE> 39
 7.933203e+001 4.440256e+001 8.699661e+001 6.098425e+001 6.955697e+001 5.928315e+001 5.888934e+001 5.099921e+001 6.431006e+001 4.238596e+001 4.138792e+001 4.495628e+001 7.800164e+001 4.775312e+000 2.943731e+000 3.651863e+000 4.213743e+000 5.211716e+000 3.784091e+000 4.005540e+000 3.879396e+000 4.594571e+000 3.685143e+000 3.692940e+000 3.274153e+000 4.609194e+000 5.898294e-001 5.047951e-001 5.229742e-001 6.883411e-001 9.068864e-001 6.339366e-001 7.303308e-001 7.269666e-001 8.137285e-001 6.762478e-001 7.066773e-001 6.261726e-001 6.693372e-001
<GCONST> 1.372660e+002
<MIXTURE> 4 1.454128e-001
<MEAN> 39
 -1.695692e+001 4.911642e+000 2.561589e+000 -1.755517e+000 -7.904203e+000 3.529673e+000 -1.680493e+000 -5.980802e-003 -5.791170e+000 -1.998050e-001 2.952341e+000 -1.037452e+000 4.333614e+001 1.824979e-001 -1.103539e-001 -4.449840e-002 -5.726217e-002 -3.274892e-001 4.373745e-002 -2.643617e-001 -1.864667e-002 -6.664226e-002 -2.476956e-001 1.734070e-001 -2.798503e-001 3.053862e-002 -2.902905e-002 -2.189402e-002 -4.567475e-002 1.596632e-003 1.011199e-001 -4.840345e-002 1.516869e-003 2.488869e-002 2.833493e-003 7.331225e-002 -5.970969e-002 -1.981574e-003 -1.587885e-002
<VARIANCE> 39
 2.308990e+002 9.056403e+001 7.065208e+001 8.017015e+001 7.883389e+001 9.824102e+001 3.547880e+001 2.477202e+001 6.382161e+001 3.349345e+001 2.583275e+001 1.512157e+001 6.736147e+002 9.518533e-001 5.817826e-001 1.146931e+000 8.775398e-001 1.656874e+000 1.149618e+000 1.568392e+000 1.224248e+000 1.419438e+000 1.383911e+000 1.576979e+000 1.223593e+000 3.804765e-001 9.877560e-002 1.137304e-001 1.531615e-001 1.678318e-001 2.678820e-001 2.297781e-001 2.357724e-001 2.181102e-001 2.528107e-001 2.389466e-001 2.541252e-001 1.778471e-001 9.821277e-002
<GCONST> 1.050974e+002
<TRANSP> 3
 0.000000e+000 1.000000e+000 0.000000e+000
 0.000000e+000 9.973452e-001 2.654789e-003
 0.000000e+000 0.000000e+000 0.000000e+000
<ENDHMM>
~h "otomar_nemecek"
<BEGINHMM>
<NUMSTATES> 3
<STATE> 2
<NUMMIXES> 4
<MIXTURE> 1 2.141985e-001
<MEAN> 39
 -1.164820e+001 1.305816e+000 -7.824036e-001 -2.120746e+000 3.255679e+000 -1.030033e+000 2.414037e+000 -1.836040e+000 3.155722e+000 -2.082692e+000 2.484838e+000 -3.319417e+000 5.446236e+001 -1.184644e-001 7.237753e-003 5.270668e-002 1.087945e-001 1.890444e-001 1.725739e-001 2.685985e-001 1.983501e-001 2.317717e-001 2.079900e-001 1.561085e-001 2.112570e-001 -1.987526e-001 3.423100e-002 -5.423106e-002 2.792932e-002 -4.026846e-004 -2.041281e-002 2.181155e-002 -2.749971e-002 -8.401787e-003 -1.648858e-002 5.541543e-002 5.589663e-002 4.180545e-003 1.031033e-001
<VARIANCE> 39
 3.113831e+001 2.063971e+001 2.068954e+001 1.450119e+001 2.555787e+001 2.815168e+001 2.281394e+001 2.332742e+001 2.880724e+001 2.177174e+001 2.050663e+001 2.241967e+001 5.041543e+001 9.782017e-001 7.896649e-001 7.115903e-001 9.091724e-001 1.282716e+000 1.413858e+000 1.464634e+000 1.570424e+000 1.559696e+000 1.541403e+000 1.424188e+000 1.267296e+000 8.700018e-001 2.325641e-001 1.533197e-001 1.347560e-001 1.840059e-001 2.498507e-001 2.788044e-001 3.009147e-001 3.211266e-001 3.253878e-001 3.260178e-001 2.914322e-001 2.543410e-001 2.035127e-001
<GCONST> 9.678802e+001
<MIXTURE> 2 2.986732e-001
<MEAN> 39
 -6.307477e+000 8.844524e-001 1.700742e+000 -4.017123e+000 -2.601798e+000 -2.714384e+000 -5.606914e+000 -7.931479e+000 -2.177277e+000 -3.565382e+000 2.581882e+000 -8.838693e+000 6.930489e+001 -2.426436e-002 1.627805e-001 1.308094e-001 8.049907e-002 1.151212e-001 4.942222e-002 1.136747e-001 8.380309e-002 9.010261e-002 1.663870e-001 1.255004e-001 1.247494e-001 7.232171e-002 -4.245197e-002 9.234048e-002 5.529939e-002 5.583514e-002 7.806891e-002 1.168990e-002 1.013305e-001 2.169290e-002 6.108938e-002 4.557975e-003 -3.536686e-002 6.277155e-002 -1.445869e-001
<VARIANCE> 39
 4.990358e+001 4.668488e+001 7.829070e+001 6.537615e+001 7.982444e+001 7.708981e+001 5.467731e+001 7.002106e+001 5.974452e+001 6.334588e+001 4.513817e+001 4.243939e+001 4.067704e+001 4.405406e+000 3.390980e+000 3.899124e+000 4.245524e+000 7.112548e+000 5.131286e+000 4.596772e+000 5.899898e+000 4.170707e+000 4.512407e+000 4.159579e+000 3.165414e+000 4.441991e+000 7.030559e-001 5.357772e-001 6.032348e-001 7.722650e-001 1.256516e+000 9.158341e-001 8.766290e-001 1.073947e+000 7.854438e-001 8.641810e-001 7.889550e-001 5.828092e-001 6.787360e-001
<GCONST> 1.406483e+002
<MIXTURE> 3 2.753233e-001
<MEAN> 39
 -6.273095e+000 7.752019e-001 2.273756e+000 -3.657583e+000 -3.032408e+000 -2.886029e+000 -5.880632e+000 -8.839513e+000 -2.673940e+000 -4.017075e+000 2.068557e+000 -9.178635e+000 6.904404e+001 2.139455e-001 -1.523416e-001 -1.698694e-001 -1.433916e-001 -3.222278e-001 -1.020334e-001 -3.420608e-001 -1.841406e-001 -1.838204e-001 -2.638221e-001 -1.070450e-001 -3.087261e-001 3.005310e-001 -3.040546e-002 4.568778e-003 -7.774381e-002 -2.452769e-002 5.823649e-003 -9.699902e-003 7.318529e-003 5.085496e-002 2.725869e-002 -4.861742e-002 -1.561532e-002 -2.444266e-002 -3.920014e-002
<VARIANCE> 39
 4.936074e+001 4.624623e+001 7.767051e+001 6.301349e+001 7.797224e+001 7.308342e+001 5.215615e+001 7.590636e+001 5.782832e+001 6.146192e+001 4.515112e+001 4.328379e+001 4.180077e+001 4.541541e+000 3.319558e+000 4.016699e+000 4.516131e+000 7.180996e+000 5.085169e+000 4.739282e+000 6.546557e+000 4.329972e+000 4.721910e+000 4.262630e+000 3.227928e+000 4.490887e+000 6.464593e-001 5.044865e-001 6.160584e-001 7.998182e-001 1.216853e+000 8.840992e-001 8.578190e-001 1.196542e+000 7.668688e-001 8.547197e-001 8.072925e-001 5.566090e-001 6.780058e-001
<GCONST> 1.407698e+002
<MIXTURE> 4 2.117967e-001
<MEAN> 39
 -1.059637e+001 1.434224e+000 -7.158774e-001 -2.823641e+000 2.168417e+000 -1.964956e+000 1.003488e+000 -3.065228e+000 1.981651e+000 -2.954616e+000 1.595772e+000 -5.113711e+000 5.775316e+001 -1.297691e-001 -3.219880e-002 -2.728943e-002 -4.126353e-002 5.859440e-002 -1.090307e-001 1.271092e-002 -8.925630e-002 -1.074516e-001 -1.121033e-001 -1.921939e-001 1.455748e-002 -2.666247e-001 6.578460e-002 -8.214333e-002 -3.118505e-003 -4.622757e-002 -9.222037e-002 -2.191117e-002 -1.228913e-001 -8.574483e-002 -1.072643e-001 3.729159e-003 1.421605e-002 -6.350625e-002 1.435414e-001
<VARIANCE> 39
 4.262620e+001 2.799962e+001 3.315987e+001 2.246613e+001 3.867802e+001 3.628717e+001 2.919774e+001 3.290234e+001 3.821250e+001 2.889396e+001 2.366198e+001 3.618919e+001 8.801617e+001 1.195323e+000 9.191273e-001 8.693428e-001 1.058954e+000 1.381284e+000 1.570573e+000 1.602576e+000 1.680785e+000 1.639014e+000 1.644222e+000 1.499542e+000 1.316544e+000 1.170441e+000 2.837794e-001 1.817462e-001 1.690906e-001 2.163461e-001 3.006060e-001 3.141462e-001 3.274702e-001 3.432713e-001 3.366390e-001 3.354914e-001 3.041310e-001 2.656194e-001 2.741975e-001
<GCONST> 1.045230e+002
<TRANSP> 3
 0.000000e+000 1.000000e+000 0.000000e+000
 0.000000e+000 9.975944e-001 2.405581e-003
 0.000000e+000 0.000000e+000 0.000000e+000
<ENDHMM>
~h "dvorsky"
<BEGINHMM>
<NUMSTATES> 3
<STATE> 2
<NUMMIXES> 4
<MIXTURE> 1 2.928492e-001
<MEAN> 39
 -6.429671e+000 6.289093e+000 3.769600e+000 4.016613e+000 3.841469e+000 2.153444e+000 2.954405e+000 2.475741e+000 3.004740e+000 2.687696e+000 2.718254e+000 1.909533e+000 4.885447e+001 -3.716451e-002 1.063521e-001 4.710973e-002 1.461001e-001 1.037550e-001 1.243921e-001 1.583130e-001 1.285109e-001 1.713052e-001 1.430290e-001 1.725898e-001 1.608664e-001 -1.936915e-001 7.920299e-003 -3.179970e-002 1.471373e-002 -1.883619e-002 -9.485388e-004 6.049711e-003 9.677493e-003 2.129312e-002 1.803416e-002 4.100584e-002 3.215698e-002 2.246329e-002 4.504606e-002
<VARIANCE> 39
 2.404710e+001 1.249907e+001 1.732128e+001 2.079360e+001 1.595808e+001 2.068994e+001 1.844775e+001 1.722631e+001 1.843037e+001 1.572277e+001 1.821669e+001 1.703224e+001 6.363176e+001 4.993694e-001 6.287000e-001 7.531870e-001 9.818422e-001 1.073013e+000 1.139208e+000 1.334816e+000 1.404185e+000 1.528684e+000 1.499002e+000 1.534107e+000 1.439250e+000 6.086057e-001 1.004459e-001 1.245576e-001 1.463140e-001 1.958023e-001 2.056529e-001 2.230270e-001 2.684985e-001 2.783107e-001 3.061610e-001 3.055021e-001 3.157740e-001 2.894741e-001 1.048855e-001
<GCONST> 9.025711e+001
<MIXTURE> 2 2.385975e-001
<MEAN> 39
 -5.053108e+000 4.838432e-001 4.777623e+000 -1.417934e+000 6.359649e-001 -2.531096e+000 -1.058812e+000 3.065896e-001 -1.384112e+000 4.422208e+000 7.070056e-001 -1.958823e+000 6.868294e+001 -1.410819e-001 2.185404e-001 5.744142e-002 1.782917e-001 2.324867e-001 9.448201e-002 2.664621e-001 1.055170e-001 2.520978e-001 7.753494e-002 1.862541e-001 1.647926e-001 -8.366279e-002 -5.139774e-002 1.028294e-001 1.654308e-002 9.481108e-002 7.979704e-002 1.050436e-001 9.607617e-002 3.079183e-002 6.452585e-002 -1.404566e-002 4.219670e-002 4.343316e-002 -1.855629e-001
<VARIANCE> 39
 8.415591e+001 4.670955e+001 8.180968e+001 7.487657e+001 5.960586e+001 7.475139e+001 6.454782e+001 5.582104e+001 6.307000e+001 4.188225e+001 4.469697e+001 3.641406e+001 5.386460e+001 5.721537e+000 3.935995e+000 4.151616e+000 6.362810e+000 4.755826e+000 4.890470e+000 5.352915e+000 4.814422e+000 5.402106e+000 3.606565e+000 3.373846e+000 2.895227e+000 6.071711e+000 8.678011e-001 6.741471e-001 6.492127e-001 1.075012e+000 8.506289e-001 8.850543e-001 9.812552e-001 9.158657e-001 1.022663e+000 6.950409e-001 6.298271e-001 5.482733e-001 9.270733e-001
<GCONST> 1.415957e+002
<MIXTURE> 3 2.699913e-001
<MEAN> 39
 -6.074424e+000 4.895560e+000 3.939983e+000 2.028244e+000 3.268072e+000 1.689855e+000 2.167718e+000 2.003536e+000 1.955680e+000 2.972176e+000 1.915021e+000 8.563830e-001 5.396560e+001 -9.492134e-002 5.482910e-002 -8.156006e-002 1.911158e-002 -5.110995e-002 -7.800755e-002 -3.070715e-002 -1.877061e-001 -1.265017e-001 -1.958086e-001 -1.576989e-001 -6.843752e-002 -1.908688e-001 3.258360e-002 -4.909289e-002 4.356313e-003 -3.329126e-002 -6.150976e-002 -7.999327e-002 -6.846157e-002 -5.114406e-002 -6.002921e-002 -3.678852e-002 -5.007260e-002 -4.864087e-002 6.972402e-002
<VARIANCE> 39
 4.477818e+001 2.878079e+001 3.841006e+001 4.500422e+001 2.807036e+001 3.630359e+001 3.031856e+001 2.674933e+001 3.003141e+001 2.061029e+001 2.616997e+001 2.521131e+001 1.361164e+002 6.927397e-001 7.402021e-001 8.624427e-001 1.161850e+000 1.295454e+000 1.361082e+000 1.507896e+000 1.540316e+000 1.654688e+000 1.531547e+000 1.569670e+000 1.475604e+000 7.396008e-001 1.391710e-001 1.604752e-001 1.688628e-001 2.502424e-001 2.479131e-001 2.595879e-001 2.900134e-001 3.132902e-001 3.282386e-001 3.117017e-001 3.187539e-001 2.937269e-001 1.706207e-001
<GCONST> 1.014402e+002
<MIXTURE> 4 1.985572e-001
<MEAN> 39
 -4.634708e+000 1.685476e-001 5.400304e+000 -1.183827e+000 1.355681e-001 -1.997938e+000 -1.447842e+000 4.925528e-001 -1.719640e+000 3.996053e+000 7.327224e-001 -2.517310e+000 6.768630e+001 3.519425e-001 -4.936281e-001 -2.961002e-002 -4.604194e-001 -3.618475e-001 -1.788833e-001 -5.026356e-001 -5.990659e-002 -3.831117e-001 -3.561039e-002 -2.576863e-001 -3.381277e-001 6.409128e-001 5.022083e-003 -1.105681e-002 -4.709680e-002 -3.893815e-002 -1.241377e-002 -2.631449e-002 -3.557256e-002 2.025841e-003 -2.420214e-002 7.815908e-003 -2.764695e-002 -1.928030e-002 6.208717e-002
<VARIANCE> 39
 7.813582e+001 4.802987e+001 8.342092e+001 7.199967e+001 5.936852e+001 7.121236e+001 6.060388e+001 5.492145e+001 6.406997e+001 3.994056e+001 4.315419e+001 3.773137e+001 6.446822e+001 5.771016e+000 3.998739e+000 4.722924e+000 6.358053e+000 4.828370e+000 5.224061e+000 5.277336e+000 4.878876e+000 5.652169e+000 3.604944e+000 3.372399e+000 3.072517e+000 5.948048e+000 8.171265e-001 6.907021e-001 6.830764e-001 1.026315e+000 8.512173e-001 8.797352e-001 9.584447e-001 9.231756e-001 1.000232e+000 6.753234e-001 6.070549e-001 5.580943e-001 1.006346e+000
<GCONST> 1.418220e+002
<TRANSP> 3
 0.000000e+000 1.000000e+000 0.000000e+000
 0.000000e+000 9.976948e-001 2.305210e-003
 0.000000e+000 0.000000e+000 0.000000e+000
<ENDHMM>
~h "martin_jiricek"
<BEGINHMM>
<NUMSTATES> 3
<STATE> 2
<NUMMIXES> 4
<MIXTURE> 1 2.025339e-001
<MEAN> 39
 -1.313654e+001 2.209708e-001 -4.570156e+000 -6.313745e+000 1.306030e+000 -1.198840e+001 2.996187e+000 -5.398962e+000 -1.401421e-001 -6.688447e+000 1.510820e+000 -3.245388e+000 6.660118e+001 2.690997e-002 5.701932e-003 8.466341e-002 1.537793e-001 1.535508e-001 2.123811e-001 3.446695e-001 3.543186e-001 2.401010e-001 2.633942e-001 2.891209e-001 1.884365e-001 -4.361803e-002 2.197679e-001 -1.301419e-001 1.586006e-001 2.553314e-002 -3.140138e-001 -1.044484e-002 -5.716063e-002 -5.746314e-002 8.650916e-002 4.053711e-002 1.291308e-001 7.019877e-002 1.935012e-001
<VARIANCE> 39
 3.014751e+001 1.374123e+001 2.476349e+001 1.825584e+001 2.150418e+001 2.134624e+001 2.429572e+001 2.716133e+001 2.324157e+001 2.332595e+001 1.764122e+001 1.756340e+001 1.225091e+001 1.929663e+000 9.219714e-001 1.083962e+000 1.277178e+000 1.814692e+000 1.713718e+000 1.734383e+000 1.686619e+000 1.837490e+000 1.845924e+000 1.499602e+000 1.467006e+000 5.862224e-001 2.641674e-001 1.942815e-001 1.918300e-001 2.417276e-001 3.714037e-001 3.463079e-001 3.336279e-001 3.434021e-001 3.733761e-001 3.810371e-001 3.103540e-001 2.954946e-001 1.182460e-001
<GCONST> 9.882868e+001
<MIXTURE> 2 2.926980e-001
<MEAN> 39
 -6.137969e+000 -3.772585e+000 4.384184e-001 -6.115237e+000 -8.894794e+000 -1.214956e+001 5.387855e-001 -9.945863e+000 1.208042e+000 -7.164018e+000 1.970280e+000 -3.970734e+000 7.331890e+001 1.762031e-001 1.634771e-002 1.600310e-001 9.335089e-003 -1.559128e-001 8.094968e-002 -2.466723e-002 1.535925e-002 1.392385e-001 5.267293e-002 1.578185e-001 1.191400e-001 1.520674e-001 -9.884390e-002 1.112142e-001 -6.502220e-002 2.581097e-002 2.269576e-001 2.394228e-002 7.723268e-002 9.185093e-002 -2.392970e-002 2.132327e-002 -1.920303e-002 4.901756e-003 -1.154501e-001
<VARIANCE> 39
 2.787435e+001 2.909221e+001 5.181305e+001 4.376075e+001 4.213226e+001 4.893673e+001 4.643716e+001 3.613178e+001 4.517582e+001 4.085952e+001 2.588998e+001 2.997061e+001 1.109989e+001 2.117780e+000 2.205446e+000 2.177508e+000 2.116182e+000 4.735210e+000 2.889521e+000 2.859039e+000 2.632416e+000 3.431381e+000 2.449963e+000 2.080003e+000 2.129894e+000 1.223101e+000 2.704866e-001 3.183893e-001 3.005562e-001 3.436852e-001 6.288755e-001 4.934028e-001 4.914815e-001 4.644504e-001 6.150104e-001 4.294412e-001 3.842971e-001 3.839929e-001 1.460897e-001
<GCONST> 1.167245e+002
<MIXTURE> 3 2.613527e-001
<MEAN> 39
 -6.148247e+000 -3.594931e+000 7.239106e-001 -5.963828e+000 -8.831941e+000 -1.262630e+001 5.752932e-002 -9.981205e+000 1.009779e+000 -7.277112e+000 2.035349e+000 -4.082752e+000 7.323647e+001 3.227752e-002 5.503401e-002 -6.526774e-002 -6.359021e-002 -4.142142e-002 -2.180074e-001 -2.941898e-001 -3.047317e-001 -2.049541e-001 -1.772355e-001 -2.613832e-001 -1.865573e-001 -2.750334e-004 -1.864945e-001 1.259613e-001 -1.464674e-001 -3.688107e-002 2.746097e-001 1.534328e-002 4.905919e-002 3.313198e-002 -8.403744e-002 -3.808111e-002 -1.306156e-001 -5.930675e-002 -1.694748e-001
<VARIANCE> 39
 2.639912e+001 3.024349e+001 5.144805e+001 4.302374e+001 4.024112e+001 4.927744e+001 4.692274e+001 3.483974e+001 4.514764e+001 4.277599e+001 2.546586e+001 3.115075e+001 1.096023e+001 2.124747e+000 2.363786e+000 2.175383e+000 2.099285e+000 4.793839e+000 2.833966e+000 2.907183e+000 2.606244e+000 3.417252e+000 2.423847e+000 2.049295e+000 2.062469e+000 1.304381e+000 2.758546e-001 3.225069e-001 3.156411e-001 3.496405e-001 6.157450e-001 4.922945e-001 4.923005e-001 4.694299e-001 6.141019e-001 4.368518e-001 3.872091e-001 3.898427e-001 1.519856e-001
<GCONST> 1.169057e+002
<MIXTURE> 4 2.434065e-001
<MEAN> 39
 -1.266328e+001 6.102371e-001 -4.432418e+000 -6.405611e+000 1.164631e+000 -1.240983e+001 2.547438e+000 -5.837091e+000 -7.726508e-001 -7.168196e+000 1.054459e+000 -3.535918e+000 6.674372e+001 -2.607284e-001 -9.990148e-002 -2.020800e-001 -8.557236e-002 9.050017e-002 -5.264016e-002 4.714984e-002 4.343551e-003 -1.644612e-001 -1.183355e-001 -1.650888e-001 -1.191476e-001 -1.618792e-001 1.378709e-001 -1.613520e-001 1.045090e-001 -1.608486e-002 -3.080309e-001 -3.431422e-002 -9.822910e-002 -9.686319e-002 4.633491e-002 -1.742695e-002 5.406702e-002 -4.151863e-004 1.593487e-001
<VARIANCE> 39
 3.203054e+001 1.488746e+001 2.354807e+001 1.901786e+001 2.138560e+001 2.114964e+001 2.476569e+001 2.593073e+001 2.354991e+001 2.371384e+001 1.813642e+001 1.812670e+001 1.161110e+001 1.509049e+000 9.203961e-001 1.035564e+000 1.218379e+000 1.643196e+000 1.653956e+000 1.624647e+000 1.582263e+000 1.764755e+000 1.778924e+000 1.479067e+000 1.441885e+000 5.468809e-001 2.221000e-001 1.800525e-001 1.726821e-001 2.250873e-001 3.331937e-001 3.107765e-001 3.259950e-001 3.249299e-001 3.671414e-001 3.609822e-001 3.055330e-001 2.832488e-001 1.004297e-001
<GCONST> 9.715752e+001
<TRANSP> 3
 0.000000e+000 1.000000e+000 0.000000e+000
 0.000000e+000 9.972963e-001 2.703677e-003
 0.000000e+000 0.000000e+000 0.000000e+000
<ENDHMM>
~h "kounovsky"
<BEGINHMM>
<NUMSTATES> 3
<STATE> 2
<NUMMIXES> 4
<MIXTURE> 1 2.061859e-001
<MEAN> 39
 -1.339205e+001 1.048979e+000 -2.364162e+000 4.989882e+000 -1.336190e+000 5.141660e+000 3.700753e-001 1.752099e+000 1.723829e+000 4.923544e+000 1.587085e+000 1.841700e+000 4.639225e+001 -4.757100e-002 6.693558e-002 3.873271e-002 1.020741e-001 1.356722e-001 1.154492e-001 1.524074e-001 1.949562e-001 1.744227e-001 1.695604e-001 1.946947e-001 1.917459e-001 -1.628363e-001 9.236683e-002 5.483348e-003 7.218189e-002 4.759384e-002 -5.592342e-003 4.161002e-002 8.029982e-003 -6.175791e-003 2.089011e-002 1.775112e-002 9.325656e-003 -6.002832e-003 2.942936e-002
<VARIANCE> 39
 3.856027e+001 1.531888e+001 1.423561e+001 1.931904e+001 4.099657e+001 2.693621e+001 2.167501e+001 2.876823e+001 2.634861e+001 1.925363e+001 2.725715e+001 1.991834e+001 9.316656e+001 4.576958e-001 5.554271e-001 6.777532e-001 8.738715e-001 1.109745e+000 1.193686e+000 1.301667e+000 1.451132e+000 1.543561e+000 1.443191e+000 1.483283e+000 1.305010e+000 6.689148e-001 1.353169e-001 1.001892e-001 1.514162e-001 1.756823e-001 2.147192e-001 2.418683e-001 2.648895e-001 2.910624e-001 3.024584e-001 2.985005e-001 2.978446e-001 2.556894e-001 1.531935e-001
<GCONST> 9.395743e+001
<MIXTURE> 2 3.085085e-001
<MEAN> 39
 -4.274210e+000 -4.616887e+000 4.864525e+000 4.360161e+000 -1.573381e+001 6.477909e+000 -7.062948e+000 -7.376639e+000 -2.840850e+000 1.503233e+000 -4.310555e+000 -3.535625e+000 6.597314e+001 -4.050475e-002 1.754905e-001 4.925255e-002 1.656276e-001 2.103159e-001 4.663471e-002 2.583482e-001 2.079658e-002 9.528226e-002 1.044939e-001 7.774354e-002 1.041746e-001 4.717396e-002 -1.218364e-001 5.914468e-002 -3.353672e-002 4.825559e-002 1.086383e-001 8.283556e-003 9.591280e-002 5.716470e-002 2.632034e-002 2.485739e-002 5.690807e-002 5.285009e-002 -1.043475e-001
<VARIANCE> 39
 8.012357e+001 6.096051e+001 8.772517e+001 7.400376e+001 1.020412e+002 9.720335e+001 7.624163e+001 6.072799e+001 6.612617e+001 6.961438e+001 3.910469e+001 3.096610e+001 5.186819e+001 6.172476e+000 4.919372e+000 4.476166e+000 4.413563e+000 8.465540e+000 5.383050e+000 6.471596e+000 4.369352e+000 4.869556e+000 3.797863e+000 3.202513e+000 2.563164e+000 5.277204e+000 7.575862e-001 8.140160e-001 6.878250e-001 7.064636e-001 1.223253e+000 8.772032e-001 1.077063e+000 7.348294e-001 8.465924e-001 6.495960e-001 5.888182e-001 4.671304e-001 7.621822e-001
<GCONST> 1.427894e+002
<MIXTURE> 3 2.876323e-001
<MEAN> 39
 -4.296490e+000 -4.524137e+000 5.692449e+000 5.066821e+000 -1.569381e+001 6.215069e+000 -7.472974e+000 -7.677248e+000 -3.308173e+000 8.887738e-001 -4.330696e+000 -4.072472e+000 6.526856e+001 1.680561e-001 -2.498920e-001 1.748351e-003 -1.828780e-001 -2.956336e-001 -6.696293e-003 -3.033858e-001 -9.447352e-002 -8.933558e-002 -1.009984e-001 -1.181729e-001 -2.202242e-001 2.133069e-001 -4.590310e-002 -5.108666e-002 -7.787178e-002 -9.134133e-002 -4.552654e-002 -2.248120e-002 -2.792345e-002 3.755792e-002 1.534743e-003 3.225639e-003 6.002784e-003 1.894463e-002 4.991563e-002
<VARIANCE> 39
 7.743318e+001 6.238754e+001 8.719520e+001 7.038231e+001 1.041425e+002 8.912794e+001 7.632201e+001 6.041146e+001 6.803278e+001 6.975880e+001 3.836686e+001 3.029107e+001 5.572643e+001 6.011145e+000 4.677518e+000 4.964234e+000 4.344931e+000 7.831322e+000 5.141837e+000 6.251391e+000 4.533887e+000 4.944664e+000 4.000237e+000 3.163659e+000 2.602913e+000 5.019293e+000 6.712091e-001 8.309046e-001 6.789973e-001 7.091665e-001 1.242617e+000 7.882781e-001 1.065546e+000 7.422132e-001 8.596174e-001 6.550749e-001 5.839971e-001 4.657520e-001 8.396392e-001
<GCONST> 1.425305e+002
<MIXTURE> 4 1.976669e-001
<MEAN> 39
 -1.178504e+001 -6.267118e-001 -1.923415e+000 3.405210e+000 -5.585327e+000 5.447860e+000 -1.487002e+000 -9.361045e-001 6.672535e-002 4.120876e+000 -7.520337e-001 -2.466629e-002 5.295619e+001 -1.475111e-001 1.320673e-002 -1.317236e-001 -1.157797e-001 -5.014323e-002 -1.904589e-001 -1.329940e-001 -1.186300e-001 -2.236436e-001 -2.189876e-001 -1.681357e-001 -6.385872e-002 -2.246230e-001 1.606252e-001 -2.447015e-002 9.114426e-002 6.532034e-003 -9.928151e-002 -2.562392e-002 -1.144938e-001 -1.366119e-001 -6.275704e-002 -5.895733e-002 -1.054399e-001 -9.888829e-002 5.952772e-002
<VARIANCE> 39
 9.207947e+001 3.691849e+001 2.776469e+001 3.684186e+001 9.446179e+001 5.107131e+001 3.868603e+001 4.492588e+001 4.036099e+001 2.527268e+001 3.522385e+001 2.854307e+001 1.664188e+002 8.294319e-001 8.174159e-001 9.906061e-001 1.090240e+000 1.355605e+000 1.469049e+000 1.497467e+000 1.621598e+000 1.713250e+000 1.542516e+000 1.605971e+000 1.378413e+000 9.975027e-001 2.382600e-001 1.535245e-001 1.977506e-001 2.238656e-001 2.809335e-001 2.909152e-001 3.097383e-001 3.258626e-001 3.356432e-001 3.051088e-001 3.150315e-001 2.672024e-001 2.467571e-001
<GCONST> 1.072881e+002
<TRANSP> 3
 0.000000e+000 1.000000e+000 0.000000e+000
 0.000000e+000 9.971693e-001 2.830723e-003
 0.000000e+000 0.000000e+000 0.000000e+000
<ENDHMM>
~h "vaclav"
<BEGINHMM>
<NUMSTATES> 3
<STATE> 2
<NUMMIXES> 4
<MIXTURE> 1 2.930355e-001
<MEAN> 39
 -1.363022e+001 4.895977e+000 2.063532e-001 8.663484e+000 3.934413e+000 6.512261e+000 3.047406e+000 8.898258e+000 8.434833e+000 8.157516e+000 5.605217e+000 6.364082e+000 4.047547e+001 -2.536530e-001 2.967642e-002 -2.269334e-002 1.976014e-001 1.844633e-001 1.295263e-001 2.450242e-001 1.979465e-001 2.410380e-001 1.952902e-001 1.612186e-001 2.251647e-001 -2.434615e-001 6.049683e-002 -7.621254e-002 3.054549e-002 -6.304688e-002 -4.559362e-002 1.286932e-002 -3.726808e-002 -2.113079e-002 -3.806626e-002 -2.269862e-002 -1.610606e-003 -2.108602e-002 6.977069e-002
<VARIANCE> 39
 2.072607e+001 9.690544e+000 1.532701e+001 2.759492e+001 1.712429e+001 2.259757e+001 2.014874e+001 2.068509e+001 2.061716e+001 1.872522e+001 1.775089e+001 2.089041e+001 2.621539e+001 8.338296e-001 6.984557e-001 7.619547e-001 1.324312e+000 1.242105e+000 1.299200e+000 1.427406e+000 1.397860e+000 1.459553e+000 1.325038e+000 1.290544e+000 1.224265e+000 7.491959e-001 1.304069e-001 1.531686e-001 1.422162e-001 2.646571e-001 2.206918e-001 2.471532e-001 2.614913e-001 2.671922e-001 2.760911e-001 2.625405e-001 2.561590e-001 2.272901e-001 1.333707e-001
<GCONST> 9.137656e+001
<MIXTURE> 2 2.618702e-001
<MEAN> 39
 -3.282148e+000 -5.123745e-001 4.382356e+000 -3.490959e+000 -5.286912e+000 2.447410e+000 -8.389633e+000 1.525117e-001 -6.542634e-001 1.096211e+000 3.812688e+000 -2.931874e+000 5.482169e+001 -1.145768e-001 2.977110e-001 3.462612e-002 2.350989e-001 2.403061e-001 -3.513120e-002 1.475676e-001 2.487067e-002 7.306906e-002 1.418867e-001 7.790405e-002 1.180601e-001 -1.803354e-001 -2.374667e-001 1.580230e-001 -4.905514e-002 2.213226e-001 1.853874e-001 2.844237e-002 2.461644e-001 9.227546e-002 1.703854e-001 1.131923e-001 3.700112e-002 1.405206e-001 -2.169121e-001
<VARIANCE> 39
 3.999186e+001 5.061273e+001 7.270829e+001 7.861426e+001 6.799806e+001 6.628127e+001 6.730112e+001 5.517385e+001 5.374887e+001 4.698783e+001 3.754529e+001 4.441875e+001 2.897557e+001 3.657507e+000 4.786746e+000 3.350737e+000 6.976432e+000 5.856032e+000 4.402769e+000 6.113038e+000 5.253157e+000 4.867105e+000 3.754555e+000 3.443864e+000 3.189013e+000 3.555835e+000 5.104946e-001 7.685440e-001 5.414994e-001 1.095215e+000 9.724536e-001 7.920496e-001 1.073715e+000 9.848967e-001 9.026566e-001 6.951656e-001 6.666055e-001 5.599075e-001 5.118475e-001
<GCONST> 1.387132e+002
<MIXTURE> 3 2.245532e-001
<MEAN> 39
 -1.109846e+001 4.514269e+000 1.196174e+000 4.769155e+000 2.143802e+000 4.629856e+000 6.436578e-001 5.926374e+000 5.599480e+000 5.818853e+000 4.238159e+000 3.268985e+000 4.516314e+001 -3.363475e-001 -5.263932e-002 -9.868886e-002 6.989224e-002 1.888062e-001 1.930233e-002 3.014956e-001 1.252771e-001 1.085524e-001 -1.044276e-002 -7.947740e-002 1.527209e-001 -1.302429e-001 2.240280e-001 -1.683453e-001 6.009822e-002 -2.465739e-001 -1.907215e-001 -6.033671e-002 -2.386661e-001 -1.471345e-001 -1.958599e-001 -1.439383e-001 -5.583088e-002 -1.375922e-001 2.496983e-001
<VARIANCE> 39
 5.457666e+001 2.506249e+001 2.968557e+001 6.035262e+001 3.936721e+001 3.804670e+001 3.944089e+001 4.332627e+001 3.935918e+001 2.944551e+001 2.695616e+001 3.978125e+001 5.079247e+001 1.494910e+000 1.387729e+000 1.146061e+000 1.958599e+000 1.738427e+000 1.760634e+000 1.940035e+000 1.979335e+000 2.004567e+000 1.655149e+000 1.713779e+000 1.477292e+000 1.212530e+000 2.804524e-001 2.943563e-001 2.110790e-001 4.771654e-001 3.453879e-001 3.538675e-001 4.015491e-001 4.119680e-001 4.135770e-001 3.492751e-001 3.370906e-001 3.026545e-001 3.061149e-001
<GCONST> 1.113363e+002
<MIXTURE> 4 2.205310e-001
<MEAN> 39
 -3.615108e+000 -1.040908e+000 4.635852e+000 -3.351880e+000 -5.722236e+000 2.439358e+000 -8.158988e+000 -2.691875e-001 -4.790560e-001 6.017541e-001 3.805390e+000 -3.087017e+000 5.511204e+001 8.161581e-001 -3.397612e-001 8.893051e-002 -6.152911e-001 -7.156139e-001 -1.545249e-001 -8.055006e-001 -4.164454e-001 -5.171953e-001 -4.114714e-001 -2.225188e-001 -6.005412e-001 6.702487e-001 -2.659444e-002 8.469671e-002 -4.144546e-002 7.199079e-002 3.347139e-002 9.735840e-003 5.381089e-004 6.883338e-002 4.627742e-002 4.426517e-002 1.400610e-002 8.834196e-004 -8.963284e-002
<VARIANCE> 39
 4.159431e+001 5.108923e+001 7.407639e+001 7.387363e+001 6.749377e+001 6.129394e+001 6.722294e+001 5.878262e+001 5.390076e+001 4.700357e+001 3.692278e+001 4.531812e+001 3.118323e+001 3.827876e+000 4.353837e+000 3.551952e+000 6.818190e+000 5.915361e+000 4.498292e+000 6.824406e+000 6.173211e+000 5.254081e+000 4.090167e+000 3.498372e+000 3.411420e+000 3.441981e+000 5.008567e-001 6.886357e-001 5.167122e-001 1.001598e+000 9.641072e-001 7.476302e-001 1.117670e+000 1.070505e+000 8.448316e-001 6.791990e-001 6.458724e-001 5.740688e-001 4.686247e-001
<GCONST> 1.388843e+002
<TRANSP> 3
 0.000000e+000 1.000000e+000 0.000000e+000
 0.000000e+000 9.975002e-001 2.499791e-003
 0.000000e+000 0.000000e+000 0.000000e+000
<ENDHMM>
~h "tomas"
<BEGINHMM>
<NUMSTATES> 3
<STATE> 2
<NUMMIXES> 4
<MIXTURE> 1 3.234275e-001
<MEAN> 39
 -6.849453e+000 4.432548e+000 4.027910e+000 -6.986858e-001 1.714991e+000 -1.853052e+000 9.137770e-001 1.578407e+000 2.129176e+000 2.662230e+000 2.678380e+000 3.089401e+000 6.024180e+001 -8.358700e-002 2.192964e-001 -1.660898e-002 3.061706e-001 4.166965e-001 1.107868e-001 3.871686e-001 1.716898e-001 3.054222e-001 2.187004e-001 2.051627e-001 1.650748e-001 -4.231514e-001 -1.177356e-002 -3.066091e-002 4.799983e-002 3.930202e-002 -4.305939e-002 1.281204e-002 3.166379e-002 1.511088e-002 2.830829e-002 8.622933e-003 4.775761e-002 2.518132e-002 5.387387e-002
<VARIANCE> 39
 5.978215e+001 3.129413e+001 3.653330e+001 5.170906e+001 3.858473e+001 4.820387e+001 4.906340e+001 4.556356e+001 4.077825e+001 3.204728e+001 3.022792e+001 2.161697e+001 6.439555e+001 9.014831e-001 1.107411e+000 1.014194e+000 1.680306e+000 1.804093e+000 2.057798e+000 1.845313e+000 2.011827e+000 2.066303e+000 1.814119e+000 1.785274e+000 1.535411e+000 9.225965e-001 1.726801e-001 1.883343e-001 1.919176e-001 3.057241e-001 3.251960e-001 4.080204e-001 3.635218e-001 3.971667e-001 3.991798e-001 3.694709e-001 3.525848e-001 3.102466e-001 1.642084e-001
<GCONST> 1.090721e+002
<MIXTURE> 2 1.865261e-001
<MEAN> 39
 -4.824913e+000 4.028265e+000 8.234067e+000 -1.418967e+000 -4.556878e+000 -4.883133e+000 -4.036923e+000 -3.020769e+000 -1.043974e+000 1.353238e-001 2.609812e+000 2.237784e+000 6.876749e+001 1.551231e-001 -9.773692e-002 2.589507e-001 -1.813930e-001 -2.352377e-001 1.270167e-001 -1.770671e-001 8.094507e-002 -1.579607e-002 1.316624e-001 7.714358e-002 7.607819e-002 6.227437e-001 2.133369e-002 1.124288e-001 -4.235589e-002 4.338506e-002 1.781406e-001 5.668394e-002 5.992552e-002 6.710546e-002 7.234640e-002 1.031978e-001 2.106772e-002 2.742484e-003 -1.815367e-001
<VARIANCE> 39
 6.626981e+001 4.467255e+001 8.688252e+001 6.639776e+001 8.562575e+001 6.471479e+001 6.230513e+001 5.073684e+001 6.602692e+001 4.569638e+001 3.803433e+001 2.731080e+001 3.062180e+001 5.786737e+000 3.638983e+000 4.735949e+000 5.091655e+000 7.080805e+000 6.061154e+000 5.455878e+000 4.511605e+000 5.228713e+000 3.573053e+000 3.273026e+000 2.683861e+000 3.262434e+000 7.307382e-001 5.658125e-001 7.399701e-001 7.918366e-001 1.227265e+000 1.029767e+000 1.010775e+000 8.013574e-001 9.200569e-001 6.558978e-001 5.866687e-001 5.134045e-001 4.912677e-001
<GCONST> 1.390543e+002
<MIXTURE> 3 3.364921e-001
<MEAN> 39
 -5.979568e+000 4.229177e+000 4.353456e+000 -1.745367e+000 2.825822e-001 -2.795866e+000 -6.722604e-001 3.142029e-001 1.101935e+000 2.054945e+000 2.226124e+000 2.375872e+000 6.266505e+001 -1.783072e-001 8.832523e-002 -2.512009e-001 6.064888e-002 1.347409e-001 -1.834443e-001 8.015630e-002 -1.604005e-001 -5.706041e-002 -1.391207e-001 -1.153995e-001 -8.441919e-002 -3.977396e-001 -1.594894e-002 -5.638554e-002 1.505293e-002 -3.176714e-002 -1.036228e-001 -6.402608e-002 -6.486688e-002 -6.387761e-002 -7.045848e-002 -8.738515e-002 -4.409009e-002 -1.492158e-002 9.436662e-002
<VARIANCE> 39
 6.669286e+001 3.650420e+001 4.119979e+001 6.193174e+001 4.922071e+001 5.578682e+001 5.637320e+001 4.716818e+001 4.553507e+001 3.470710e+001 3.447180e+001 2.368648e+001 6.957086e+001 9.869925e-001 1.225935e+000 1.142820e+000 1.769384e+000 1.918110e+000 2.136703e+000 1.968260e+000 2.123687e+000 2.197704e+000 1.853136e+000 1.889603e+000 1.593155e+000 1.046538e+000 1.938254e-001 2.121102e-001 2.079325e-001 3.307770e-001 3.534640e-001 4.364501e-001 3.901451e-001 4.197861e-001 4.361344e-001 3.718265e-001 3.702797e-001 3.166241e-001 2.213793e-001
<GCONST> 1.127059e+002
<MIXTURE> 4 1.535414e-001
<MEAN> 39
 -5.275139e+000 3.722990e+000 8.213033e+000 -1.380298e+000 -5.100324e+000 -5.433360e+000 -4.810306e+000 -3.162758e+000 -1.227620e+000 -5.505058e-001 2.479808e+000 1.587857e+000 6.870190e+001 3.617854e-001 -4.997367e-001 2.676737e-001 -5.619184e-001 -8.804575e-001 1.615739e-002 -7.681789e-001 -1.172988e-001 -5.210577e-001 -2.661161e-001 -2.618508e-001 -2.900437e-001 1.008455e+000 2.824740e-002 5.582976e-002 -8.732614e-002 -6.033115e-002 8.893929e-002 5.230320e-002 -6.985297e-003 2.818952e-002 2.540491e-003 4.900926e-002 -2.998180e-002 -2.833250e-002 -9.513647e-002
<VARIANCE> 39
 6.462541e+001 4.324620e+001 8.240716e+001 5.938247e+001 8.748991e+001 6.142783e+001 6.709669e+001 5.001840e+001 6.688198e+001 4.383260e+001 3.680088e+001 2.711129e+001 3.888560e+001 5.976698e+000 3.403241e+000 5.155564e+000 4.740486e+000 6.908890e+000 5.918429e+000 6.063048e+000 4.672101e+000 5.310613e+000 3.706896e+000 3.268579e+000 2.742879e+000 3.326159e+000 7.362428e-001 5.484243e-001 7.138990e-001 7.203219e-001 1.239833e+000 9.407428e-001 1.101000e+000 7.874031e-001 9.028167e-001 6.294381e-001 5.844889e-001 5.102147e-001 5.583500e-001
<GCONST> 1.390856e+002
<TRANSP> 3
 0.000000e+000 1.000000e+000 0.000000e+000
 0.000000e+000 9.973280e-001 2.671971e-003
 0.000000e+000 0.000000e+000 0.000000e+000
<ENDHMM>
~h "cerny"
<BEGINHMM>
<NUMSTATES> 3
<STATE> 2
<NUMMIXES> 4
<MIXTURE> 1 2.569011e-001
<MEAN> 39
 -1.235548e+001 -4.758949e-001 -2.181055e+000 -1.274934e+000 -1.451240e+000 -9.760759e-001 -9.895031e-001 -2.789076e-001 3.432916e-001 4.916775e-001 8.986522e-001 4.246152e-001 6.241233e+001 -3.241917e-002 5.139970e-002 3.940410e-002 1.730521e-001 2.176421e-001 2.273963e-001 2.662176e-001 1.921076e-001 1.753144e-001 1.815595e-001 1.949726e-001 1.691730e-001 -7.431976e-002 2.172507e-002 -1.616341e-002 3.392511e-002 -1.885808e-002 -2.317133e-002 -1.313586e-002 -4.510423e-002 4.831322e-002 7.137296e-002 5.424691e-002 8.794164e-003 -1.526644e-004 5.421918e-002
<VARIANCE> 39
 8.499503e+000 6.971663e+000 8.906659e+000 9.003228e+000 1.162736e+001 1.244969e+001 1.662810e+001 1.433535e+001 1.333852e+001 1.288409e+001 1.215813e+001 1.195433e+001 4.754843e+000 2.525893e-001 3.259305e-001 5.191707e-001 7.178024e-001 9.023169e-001 1.076681e+000 1.274117e+000 1.311139e+000 1.355194e+000 1.335800e+000 1.252151e+000 1.169550e+000 1.311086e-001 4.783485e-002 6.680358e-002 9.979865e-002 1.464308e-001 1.872849e-001 2.247015e-001 2.729294e-001 2.753025e-001 2.877708e-001 2.824968e-001 2.643827e-001 2.382736e-001 3.195161e-002
<GCONST> 7.377432e+001
<MIXTURE> 2 2.525660e-001
<MEAN> 39
 -9.236746e+000 -2.417135e+000 -6.658813e-001 -7.591902e+000 -7.996419e+000 -5.163524e+000 -1.047285e+001 1.569512e-001 2.393065e+000 2.835931e+000 -3.920100e-001 -3.123116e+000 6.993057e+001 -1.160430e-002 1.011439e-001 5.708765e-002 2.650152e-002 3.841298e-002 1.041246e-001 8.980667e-002 3.436769e-002 8.483396e-002 1.228697e-001 1.954067e-001 1.005470e-001 2.012008e-002 -3.392316e-002 7.356472e-002 2.131067e-003 1.129070e-001 1.037643e-001 7.448619e-002 1.632537e-001 -2.544750e-002 -5.748009e-002 -4.295424e-002 5.072604e-002 6.855842e-002 -1.063341e-001
<VARIANCE> 39
 3.086377e+001 3.718159e+001 5.199737e+001 6.595155e+001 4.620170e+001 4.530986e+001 5.314178e+001 4.665398e+001 3.967595e+001 3.947697e+001 2.393747e+001 3.718699e+001 1.162622e+001 1.771076e+000 2.404968e+000 2.227688e+000 3.695624e+000 3.638948e+000 2.924404e+000 4.739257e+000 3.548792e+000 3.032710e+000 2.910629e+000 1.964877e+000 2.224600e+000 1.311960e+000 2.752416e-001 3.856533e-001 3.524401e-001 5.897980e-001 6.370968e-001 5.444397e-001 8.547741e-001 6.722581e-001 5.692762e-001 5.534187e-001 3.942100e-001 4.158711e-001 2.025052e-001
<GCONST> 1.216081e+002
<MIXTURE> 3 2.589680e-001
<MEAN> 39
 -1.180085e+001 -2.928306e-001 -1.794527e+000 -1.598189e+000 -2.018911e+000 -1.412145e+000 -1.723945e+000 -8.523126e-001 -1.474065e-001 1.062187e-001 4.801221e-001 9.435536e-002 6.287458e+001 -1.010269e-001 -3.102101e-003 -1.224089e-001 1.658198e-002 1.791697e-002 -6.723210e-002 -7.241063e-003 -1.546101e-001 -2.275544e-001 -2.332459e-001 -2.008747e-001 -6.927516e-002 -1.183588e-001 1.234565e-002 -6.477311e-002 -1.016712e-002 -9.969543e-002 -1.148483e-001 -8.781016e-002 -1.546611e-001 4.273358e-003 4.253298e-002 2.664070e-002 -3.620705e-002 -4.091182e-002 8.144954e-002
<VARIANCE> 39
 1.022614e+001 7.184918e+000 1.105827e+001 1.256513e+001 1.552057e+001 1.468475e+001 2.024648e+001 1.625955e+001 1.438927e+001 1.389036e+001 1.301490e+001 1.297991e+001 5.840097e+000 2.888128e-001 3.576258e-001 5.823142e-001 8.076923e-001 1.021219e+000 1.158046e+000 1.369011e+000 1.347665e+000 1.416624e+000 1.380944e+000 1.289823e+000 1.200182e+000 1.665597e-001 5.083776e-002 7.389137e-002 1.094008e-001 1.629134e-001 2.042047e-001 2.374554e-001 2.952349e-001 2.838521e-001 3.060749e-001 2.931762e-001 2.706409e-001 2.426339e-001 4.213065e-002
<GCONST> 7.797874e+001
<MIXTURE> 4 2.315527e-001
<MEAN> 39
 -9.367240e+000 -2.452981e+000 -1.524993e-001 -7.122429e+000 -8.325606e+000 -5.595645e+000 -1.057692e+001 -1.120741e-001 2.069921e+000 2.339015e+000 -5.912526e-001 -2.862035e+000 6.973611e+001 1.601597e-001 -1.598371e-001 3.101700e-002 -2.374171e-001 -3.023523e-001 -2.909747e-001 -3.884822e-001 -7.602344e-002 -4.058998e-002 -7.072850e-002 -2.105020e-001 -2.169669e-001 1.912675e-001 -7.568034e-004 9.274806e-003 -2.767218e-002 8.444537e-003 4.019943e-002 3.125180e-002 4.454441e-002 -3.141103e-002 -6.382645e-002 -4.478315e-002 -2.351796e-002 -2.925728e-002 -3.544845e-002
<VARIANCE> 39
 2.815435e+001 3.575653e+001 5.297298e+001 6.307574e+001 4.838137e+001 4.426246e+001 5.304261e+001 4.651612e+001 4.095017e+001 3.935343e+001 2.405342e+001 3.657384e+001 1.243656e+001 1.977941e+000 2.482949e+000 2.495301e+000 3.688286e+000 4.005311e+000 3.119561e+000 5.164025e+000 3.735968e+000 3.279487e+000 3.029772e+000 2.025749e+000 2.383132e+000 1.351935e+000 2.584411e-001 3.686585e-001 3.607231e-001 5.572976e-001 6.632432e-001 5.419049e-001 8.518431e-001 6.823530e-001 5.649945e-001 5.394257e-001 3.899899e-001 4.076433e-001 2.059433e-001
<GCONST> 1.222108e+002
<TRANSP> 3
 0.000000e+000 1.000000e+000 0.000000e+000
 0.000000e+000 9.986002e-001 1.399776e-003
 0.000000e+000 0.000000e+000 0.000000e+000
<ENDHMM>
~h "smola"
<BEGINHMM>
<NUMSTATES> 3
<STATE> 2
<NUMMIXES> 4
<MIXTURE> 1 2.290745e-001
<MEAN> 39
 -1.278443e+001 6.263188e+000 2.471094e-001 5.050885e+000 2.277595e+000 3.034517e+000 1.508188e+000 5.132504e+000 2.460700e+000 1.861438e+000 4.737995e+000 2.164057e+000 4.763696e+001 -3.963158e-001 2.523008e-001 1.028666e-002 2.359200e-001 2.505168e-001 4.589218e-001 4.594722e-001 6.969013e-002 5.476415e-001 1.940502e-001 1.479020e-001 3.647890e-001 -3.255897e-001 1.135662e-001 -1.347234e-001 6.082078e-002 -1.104223e-001 -2.707105e-002 -9.357695e-003 -5.999958e-002 5.410998e-002 -8.443642e-002 7.706037e-005 -8.688627e-003 -6.965160e-002 1.927728e-001
<VARIANCE> 39
 3.905534e+001 1.827101e+001 2.247599e+001 2.889368e+001 2.706673e+001 6.452321e+001 3.875105e+001 3.757262e+001 4.737438e+001 2.603971e+001 2.391441e+001 2.398106e+001 1.135967e+002 2.176395e+000 1.932871e+000 1.525334e+000 1.841717e+000 1.831323e+000 2.358711e+000 2.455752e+000 1.975007e+000 2.948327e+000 1.896360e+000 1.904520e+000 1.834510e+000 3.589270e+000 3.380958e-001 3.467401e-001 2.761748e-001 3.418187e-001 3.614359e-001 4.551043e-001 4.624574e-001 3.882352e-001 4.948263e-001 3.847499e-001 3.766657e-001 3.301871e-001 6.195768e-001
<GCONST> 1.151883e+002
<MIXTURE> 2 2.801454e-001
<MEAN> 39
 -2.319355e+000 -5.166549e+000 1.827698e+000 -6.773221e+000 -6.363600e+000 -5.425895e+000 -1.125738e+001 3.234543e+000 -8.948470e+000 -1.221631e+000 4.595607e+000 -7.021683e+000 6.909682e+001 1.998180e-001 1.570684e-001 7.598136e-002 1.371198e-001 2.883422e-001 -1.405506e-002 7.016003e-002 4.341365e-002 -1.486054e-001 1.056190e-001 1.148563e-001 5.241104e-002 -1.136172e-001 -2.336823e-001 3.194649e-001 -4.891277e-002 2.495714e-001 1.463862e-001 1.425417e-001 2.337664e-001 -5.216167e-002 2.788568e-001 5.181368e-002 4.240749e-002 1.960488e-001 -4.044484e-001
<VARIANCE> 39
 3.442697e+001 5.871491e+001 6.903936e+001 6.789756e+001 6.160780e+001 6.144390e+001 6.036844e+001 5.384859e+001 6.037009e+001 4.265341e+001 3.663874e+001 2.817072e+001 4.181264e+001 3.505677e+000 5.513382e+000 3.378605e+000 6.043445e+000 4.561265e+000 4.535224e+000 6.192776e+000 4.484671e+000 6.109847e+000 3.056748e+000 2.895535e+000 2.765959e+000 6.380642e+000 4.954222e-001 6.654829e-001 5.814697e-001 8.801726e-001 7.708859e-001 8.588235e-001 1.085147e+000 8.495079e-001 1.207193e+000 5.746649e-001 5.588058e-001 5.029135e-001 6.892149e-001
<GCONST> 1.375054e+002
<MIXTURE> 3 2.534743e-001
<MEAN> 39
 -2.657467e+000 -4.592720e+000 2.460963e+000 -6.288860e+000 -7.508126e+000 -5.186160e+000 -1.167468e+001 2.486062e+000 -8.842574e+000 -2.057987e+000 4.316425e+000 -7.383500e+000 6.899496e+001 6.202983e-001 -5.052302e-001 2.165208e-001 -4.191332e-001 -4.887919e-001 -4.174241e-001 -7.583475e-001 1.993228e-001 -7.521423e-001 -1.754940e-001 7.630346e-003 -6.075335e-001 5.302920e-001 -1.553066e-001 1.624265e-001 -7.159198e-002 1.361194e-001 8.607973e-002 3.662077e-002 1.178660e-001 -1.153443e-002 1.270112e-001 3.593329e-002 7.741544e-003 8.625819e-002 -2.670689e-001
<VARIANCE> 39
 3.540287e+001 6.329829e+001 7.085692e+001 6.613815e+001 6.217514e+001 5.665649e+001 6.006821e+001 5.477519e+001 6.022070e+001 4.443902e+001 3.641002e+001 2.864046e+001 4.194285e+001 3.526181e+000 4.777817e+000 3.848141e+000 5.564687e+000 4.655350e+000 4.799360e+000 6.515752e+000 4.609234e+000 6.467758e+000 3.231457e+000 2.873393e+000 2.859070e+000 5.321827e+000 4.462887e-001 6.518130e-001 5.825676e-001 8.834147e-001 7.772828e-001 8.169959e-001 1.093782e+000 8.519065e-001 1.109403e+000 5.677505e-001 5.565711e-001 4.806001e-001 7.115461e-001
<GCONST> 1.373576e+002
<MIXTURE> 4 2.372954e-001
<MEAN> 39
 -1.174388e+001 5.421102e+000 1.067556e-001 2.126269e+000 -2.732296e-001 -1.603002e+000 -1.839422e+000 1.776417e+000 -1.067573e+000 4.958865e-001 3.784875e+000 -6.718643e-001 5.587761e+001 -5.146534e-001 1.172150e-001 -2.818506e-001 1.129157e-002 -2.257293e-002 3.942077e-002 3.199865e-001 -4.062358e-001 3.511746e-001 -1.555361e-001 -3.087682e-001 2.082803e-001 -6.253670e-002 3.282990e-001 -4.225817e-001 7.677011e-002 -3.378525e-001 -2.302627e-001 -1.943235e-001 -3.458417e-001 2.018727e-002 -3.824217e-001 -9.669645e-002 -5.657106e-002 -2.609727e-001 5.782570e-001
<VARIANCE> 39
 7.209284e+001 2.739526e+001 3.350798e+001 3.393141e+001 3.492441e+001 5.706818e+001 5.053033e+001 3.912831e+001 5.553619e+001 2.975523e+001 2.692533e+001 3.016036e+001 1.065248e+002 4.123730e+000 2.862322e+000 2.226508e+000 2.597425e+000 2.382353e+000 3.493444e+000 3.227643e+000 2.546996e+000 4.648396e+000 2.470583e+000 2.478080e+000 2.601886e+000 6.630557e+000 6.124346e-001 5.224742e-001 3.933259e-001 4.828572e-001 4.946319e-001 6.601113e-001 6.606672e-001 5.230397e-001 7.522547e-001 4.835307e-001 4.825337e-001 4.647408e-001 1.008597e+000
<GCONST> 1.274316e+002
<TRANSP> 3
 0.000000e+000 1.000000e+000 0.000000e+000
 0.000000e+000 9.966006e-001 3.399434e-003
 0.000000e+000 0.000000e+000 0.000000e+000
<ENDHMM>
~h "fejgl"
<BEGINHMM>
<NUMSTATES> 3
<STATE> 2
<NUMMIXES> 4
<MIXTURE> 1 2.320646e-001
<MEAN> 39
 -9.319342e+000 -3.656663e+000 -3.642015e+000 6.092486e-001 -5.779999e+000 -5.413398e+000 -2.927055e+000 -2.043323e-001 3.872792e+000 1.287063e+000 -2.113953e+000 -1.931615e+000 5.849543e+001 -1.687243e-001 3.289801e-001 3.352607e-001 3.510793e-001 5.083621e-001 4.316730e-001 3.515709e-001 2.318881e-001 3.937151e-002 3.199601e-001 3.025784e-001 2.711579e-001 -4.572782e-001 -8.908901e-002 2.074240e-002 6.803941e-002 2.366309e-002 1.088272e-001 2.828817e-002 3.020345e-002 6.315143e-002 2.793213e-002 2.408388e-002 4.402788e-002 8.555862e-002 -1.714356e-002
<VARIANCE> 39
 6.573116e+001 4.415501e+001 4.583612e+001 2.708117e+001 4.368966e+001 5.503632e+001 3.399962e+001 4.272445e+001 3.871864e+001 2.469661e+001 3.201067e+001 3.085980e+001 2.294818e+002 1.386475e+000 1.316865e+000 1.690105e+000 1.769647e+000 2.413118e+000 2.104641e+000 2.100111e+000 2.232338e+000 2.160095e+000 1.908924e+000 1.849969e+000 1.597436e+000 1.218575e+000 2.383310e-001 2.131819e-001 2.796499e-001 3.218600e-001 4.079936e-001 4.078938e-001 4.115688e-001 4.363841e-001 4.366326e-001 3.796552e-001 3.590173e-001 3.146688e-001 2.278411e-001
<GCONST> 1.142459e+002
<MIXTURE> 2 2.517131e-001
<MEAN> 39
 -8.789390e+000 -5.077943e-001 -1.521690e+000 -8.084548e-001 -7.247163e+000 -9.146371e+000 -4.569788e+000 -3.035136e+000 4.298358e+000 9.547630e-002 -3.895644e+000 -3.151810e+000 6.990415e+001 1.680124e-001 -3.785713e-002 8.305395e-002 3.962561e-002 -3.704811e-002 -6.347065e-002 4.255181e-002 1.350387e-001 3.214840e-001 6.158695e-002 9.526806e-002 7.784956e-002 6.350759e-001 4.853604e-002 3.576586e-002 2.204008e-002 5.427110e-002 1.107428e-003 7.750449e-002 6.048923e-002 3.587696e-002 2.999472e-002 3.020537e-002 5.321154e-002 -9.973971e-003 -1.477534e-002
<VARIANCE> 39
 1.149106e+002 6.294378e+001 7.451085e+001 5.229694e+001 8.030052e+001 7.557738e+001 5.002287e+001 6.149763e+001 5.511513e+001 3.492037e+001 4.009325e+001 3.655807e+001 1.670945e+002 6.897825e+000 3.976490e+000 4.252635e+000 3.867326e+000 5.822934e+000 5.176932e+000 3.970764e+000 4.767067e+000 4.329973e+000 3.332201e+000 3.165829e+000 2.906879e+000 5.934645e+000 9.484132e-001 6.503941e-001 6.725551e-001 7.304589e-001 1.053500e+000 9.536267e-001 7.582722e-001 9.071642e-001 8.091328e-001 6.734997e-001 6.274678e-001 5.426182e-001 1.018448e+000
<GCONST> 1.414434e+002
<MIXTURE> 3 2.093094e-001
<MEAN> 39
 -9.600038e+000 -1.097303e+000 -2.449643e+000 -2.253955e+000 -7.983162e+000 -1.030997e+001 -5.739561e+000 -3.943848e+000 3.694649e+000 -7.301026e-001 -4.519197e+000 -3.696886e+000 7.159608e+001 2.775867e-001 -4.383892e-001 -4.634448e-001 -4.715433e-001 -5.960062e-001 -5.519594e-001 -4.197532e-001 -2.513847e-001 1.304673e-002 -2.811661e-001 -4.013652e-001 -3.186446e-001 6.247090e-001 1.259692e-001 -3.655742e-002 -9.646092e-002 -3.483523e-002 -1.341906e-001 -3.870736e-002 -2.157348e-002 -6.265925e-002 -4.247014e-003 -3.752446e-004 -6.132550e-002 -9.170138e-002 4.265669e-002
<VARIANCE> 39
 1.128382e+002 6.102216e+001 7.162437e+001 5.040498e+001 8.383455e+001 7.716924e+001 4.862295e+001 6.420369e+001 5.537255e+001 3.659366e+001 4.292777e+001 3.872672e+001 1.546263e+002 6.653684e+000 3.745572e+000 3.882075e+000 3.575045e+000 5.831381e+000 5.479705e+000 4.029881e+000 5.069902e+000 4.671763e+000 3.307450e+000 3.281737e+000 2.967287e+000 6.490124e+000 9.313222e-001 6.278546e-001 6.492963e-001 6.818372e-001 1.072289e+000 9.845082e-001 7.483205e-001 9.506984e-001 8.174351e-001 6.883906e-001 6.500369e-001 5.597964e-001 9.997033e-001
<GCONST> 1.415855e+002
<MIXTURE> 4 3.069103e-001
<MEAN> 39
 -1.005928e+001 -4.431407e+000 -4.560614e+000 -4.783293e-001 -6.505872e+000 -6.129969e+000 -3.754495e+000 -8.358312e-001 3.425250e+000 7.289518e-001 -2.377888e+000 -2.215628e+000 5.881715e+001 -1.753555e-001 6.731770e-002 -6.054012e-003 1.188633e-002 9.011771e-002 9.514074e-002 -3.966996e-002 -1.509901e-001 -3.244126e-001 -9.031210e-002 -4.256744e-002 -5.206214e-002 -5.503448e-001 -6.198448e-002 -1.862768e-002 1.215941e-003 -3.684770e-002 8.306835e-003 -5.681882e-002 -5.937679e-002 -3.912502e-002 -4.734646e-002 -4.703529e-002 -3.600381e-002 7.109682e-003 4.050737e-003
<VARIANCE> 39
 6.158892e+001 4.240785e+001 4.219920e+001 2.900503e+001 4.674998e+001 5.864737e+001 3.097656e+001 4.566240e+001 3.956749e+001 2.502704e+001 3.368045e+001 3.286371e+001 2.503030e+002 1.189554e+000 1.100442e+000 1.514349e+000 1.637132e+000 2.131110e+000 2.031101e+000 1.965612e+000 2.219193e+000 2.140537e+000 1.889946e+000 1.839659e+000 1.534510e+000 1.539789e+000 1.949980e-001 2.056869e-001 2.732461e-001 3.116095e-001 4.034213e-001 4.020483e-001 3.909658e-001 4.414293e-001 4.438464e-001 3.761549e-001 3.619372e-001 3.104452e-001 2.398012e-001
<GCONST> 1.135787e+002
<TRANSP> 3
 0.000000e+000 1.000000e+000 0.000000e+000
 0.000000e+000 9.966923e-001 3.307729e-003
 0.000000e+000 0.000000e+000 0.000000e+000
<ENDHMM>
~h "kasal"
<BEGINHMM>
<NUMSTATES> 3
<STATE> 2
<NUMMIXES> 4
<MIXTURE> 1 2.379642e-001
<MEAN> 39
 -8.538030e+000 4.452978e+000 2.505701e+000 3.208682e+000 3.082234e-001 -1.238432e-001 -8.079019e-001 6.590307e-001 2.740936e+000 3.946410e+000 2.932034e-001 -1.234454e-001 5.141105e+001 -2.746297e-001 2.518277e-001 -1.232667e-001 2.441811e-001 2.683503e-001 2.208976e-001 4.826149e-001 1.762622e-001 2.710171e-001 2.268997e-001 1.265822e-001 2.583016e-001 -3.475921e-001 1.033431e-001 -1.103316e-001 8.083817e-002 -3.887814e-002 -3.457944e-002 -1.815961e-002 -8.784351e-002 2.597565e-002 2.098326e-002 4.975691e-002 3.733652e-002 -1.728693e-002 1.306828e-001
<VARIANCE> 39
 5.089316e+001 2.869106e+001 3.129998e+001 2.353722e+001 3.184556e+001 5.219275e+001 4.295946e+001 2.938127e+001 2.683821e+001 2.086880e+001 2.584986e+001 2.079375e+001 1.203541e+002 1.508445e+000 1.343244e+000 1.152347e+000 1.216219e+000 1.491606e+000 1.743017e+000 2.049922e+000 1.694190e+000 1.586246e+000 1.608722e+000 1.611900e+000 1.417032e+000 1.648250e+000 2.921025e-001 2.378218e-001 2.219890e-001 2.306082e-001 2.825075e-001 3.431431e-001 3.818347e-001 3.433509e-001 3.200514e-001 3.334586e-001 3.211045e-001 2.855688e-001 3.057251e-001
<GCONST> 1.072180e+002
<MIXTURE> 2 2.707928e-001
<MEAN> 39
 -1.694423e+000 -4.650025e+000 8.622938e+000 -1.582655e+000 -8.010641e+000 -5.619236e+000 -1.298726e+001 -2.217491e+000 4.527082e-001 2.964258e+000 -1.061477e+000 -4.922836e+000 6.953827e+001 1.411878e-001 7.732267e-002 1.817127e-001 8.062830e-002 9.788034e-002 -7.800300e-002 -1.027065e-001 5.361826e-002 3.274456e-002 1.562849e-001 1.467202e-001 1.071931e-001 2.487629e-001 -1.837139e-001 2.440505e-001 -8.413591e-002 1.658168e-001 1.577856e-001 1.065738e-001 2.623055e-001 -1.173090e-002 4.097416e-002 -1.301163e-002 -4.855485e-002 1.015628e-001 -2.336298e-001
<VARIANCE> 39
 4.673029e+001 7.056326e+001 7.479414e+001 5.932889e+001 6.638400e+001 7.771841e+001 7.473397e+001 6.528892e+001 5.051497e+001 4.607330e+001 4.789849e+001 3.968365e+001 3.754394e+001 5.152979e+000 6.381197e+000 4.798089e+000 5.093555e+000 5.491632e+000 4.998502e+000 7.665957e+000 5.420138e+000 3.692726e+000 3.535420e+000 4.398613e+000 3.501086e+000 4.486477e+000 7.353057e-001 8.950313e-001 7.598395e-001 8.166446e-001 8.883904e-001 8.708076e-001 1.200188e+000 9.840399e-001 6.728774e-001 6.539478e-001 8.701268e-001 6.272942e-001 6.617677e-001
<GCONST> 1.418533e+002
<MIXTURE> 3 2.518840e-001
<MEAN> 39
 -7.425458e+000 2.766183e+000 3.815700e+000 2.180233e+000 -1.755262e+000 -1.980467e+000 -3.496800e+000 -1.038146e+000 1.301616e+000 2.742162e+000 -1.467589e+000 -1.554199e+000 5.799942e+001 -3.725050e-001 1.641387e-001 -3.888484e-001 3.818580e-002 1.341572e-002 -5.365574e-002 2.564447e-001 -2.515778e-001 -1.391135e-001 -1.360053e-001 -2.955199e-001 5.849820e-002 -4.428774e-001 1.564869e-001 -2.335775e-001 5.879087e-002 -1.638495e-001 -1.934552e-001 -1.608353e-001 -2.866788e-001 -2.512057e-002 -5.482067e-002 7.541577e-003 9.727299e-003 -9.541317e-002 2.417507e-001
<VARIANCE> 39
 8.354932e+001 6.276214e+001 4.695674e+001 4.367063e+001 4.784200e+001 6.291405e+001 6.012193e+001 3.861558e+001 3.288610e+001 2.778658e+001 3.061608e+001 3.051030e+001 1.391519e+002 2.268238e+000 1.846687e+000 1.655959e+000 1.626904e+000 1.839289e+000 2.178037e+000 2.388103e+000 1.964158e+000 1.718817e+000 1.786754e+000 1.857224e+000 1.558465e+000 2.131582e+000 4.224701e-001 3.521957e-001 3.014667e-001 3.079889e-001 3.610376e-001 4.266636e-001 4.687730e-001 4.183293e-001 3.597486e-001 3.740845e-001 3.766897e-001 3.226186e-001 4.430487e-001
<GCONST> 1.178099e+002
<MIXTURE> 4 2.393438e-001
<MEAN> 39
 -2.142906e+000 -4.727589e+000 8.373912e+000 -1.509090e+000 -8.852156e+000 -5.622956e+000 -1.294731e+001 -2.778384e+000 6.071762e-001 1.971035e+000 -1.495094e+000 -5.664435e+000 6.959337e+001 4.985853e-001 -5.027829e-001 3.314150e-001 -3.684807e-001 -3.869177e-001 -6.334170e-002 -6.315690e-001 2.822331e-002 -1.493566e-001 -2.510892e-001 2.709515e-002 -4.375057e-001 5.761492e-001 -5.890165e-002 7.926317e-002 -4.680747e-002 2.375314e-002 6.026059e-002 6.954822e-002 9.365837e-002 1.411017e-002 -9.838065e-003 -4.212207e-002 7.263969e-003 2.923163e-003 -1.200865e-001
<VARIANCE> 39
 4.969946e+001 7.396712e+001 7.526540e+001 6.003093e+001 6.636301e+001 7.375549e+001 7.723637e+001 6.674870e+001 5.040370e+001 4.753870e+001 4.667442e+001 4.165821e+001 4.120405e+001 4.889420e+000 5.569077e+000 4.771670e+000 4.868536e+000 5.350898e+000 5.256496e+000 7.014287e+000 5.873006e+000 3.861086e+000 3.668578e+000 4.462611e+000 3.550771e+000 4.602113e+000 6.543893e-001 8.280973e-001 7.332334e-001 7.861444e-001 8.940150e-001 8.611444e-001 1.167876e+000 1.029985e+000 6.767280e-001 6.637096e-001 8.527522e-001 6.224568e-001 6.503202e-001
<GCONST> 1.417598e+002
<TRANSP> 3
 0.000000e+000 1.000000e+000 0.000000e+000
 0.000000e+000 9.981475e-001 1.852500e-003
 0.000000e+000 0.000000e+000 0.000000e+000
<ENDHMM>
~h "blazek"
<BEGINHMM>
<NUMSTATES> 3
<STATE> 2
<NUMMIXES> 4
<MIXTURE> 1 2.674453e-001
<MEAN> 39
 -1.108527e+001 1.251185e+000 3.656168e-001 -7.003659e-001 7.074718e-001 -1.639334e+000 9.884768e-001 -1.865710e-001 6.225556e-001 6.666852e-001 3.885003e-001 4.396092e-001 5.491057e+001 -2.656343e-001 1.447660e-001 2.778240e-002 2.682413e-001 4.366107e-001 8.346368e-002 5.250858e-001 2.662051e-001 3.151513e-001 2.269147e-001 1.722690e-001 3.826285e-001 -1.817142e-001 1.552203e-001 -1.131869e-001 1.229644e-001 -9.690212e-002 -1.223396e-002 3.528717e-002 -4.365260e-002 8.621396e-002 5.923055e-002 5.103369e-002 6.775991e-002 7.251288e-003 1.781199e-001
<VARIANCE> 39
 6.214036e+001 2.366753e+001 3.753256e+001 3.389408e+001 3.313634e+001 5.071358e+001 4.029111e+001 3.357431e+001 2.582075e+001 2.206182e+001 2.011338e+001 2.067100e+001 7.464444e+001 1.539834e+000 1.532532e+000 1.453633e+000 1.962114e+000 1.823564e+000 2.216069e+000 2.231164e+000 2.017820e+000 1.922976e+000 1.801234e+000 1.771198e+000 1.551682e+000 2.008163e+000 3.581190e-001 2.740269e-001 2.791932e-001 3.833358e-001 3.715182e-001 4.368663e-001 4.627090e-001 4.076855e-001 3.932370e-001 3.707484e-001 3.597062e-001 3.215691e-001 3.814260e-001
<GCONST> 1.121133e+002
<MIXTURE> 2 2.288321e-001
<MEAN> 39
 -3.109711e+000 -4.372972e+000 4.711020e+000 -8.160186e+000 -3.168497e+000 -4.008724e+000 -4.313842e+000 -1.621220e+000 5.637333e-001 2.622692e-001 1.686929e+000 -3.079307e+000 6.823469e+001 2.815709e-001 -6.668042e-003 2.440281e-001 -1.139325e-001 5.972181e-003 6.895113e-002 -1.333311e-002 7.177711e-002 7.902130e-002 1.714015e-001 1.036189e-001 6.973382e-002 3.049810e-001 -1.171191e-001 2.283945e-001 -7.102339e-002 2.325965e-001 6.119511e-002 5.748191e-002 1.267544e-001 -5.100207e-002 6.238554e-003 -1.807988e-002 -1.725746e-002 4.259327e-002 -2.664571e-001
<VARIANCE> 39
 6.554733e+001 4.722108e+001 8.732359e+001 6.119658e+001 7.702728e+001 7.091847e+001 8.424828e+001 5.866270e+001 5.951859e+001 4.355405e+001 4.031103e+001 4.665747e+001 4.113254e+001 5.410806e+000 4.220416e+000 4.389395e+000 5.674799e+000 6.309619e+000 5.336991e+000 6.748014e+000 4.743288e+000 4.159935e+000 3.331491e+000 3.439349e+000 3.359620e+000 5.507783e+000 7.212004e-001 6.266026e-001 6.671548e-001 9.178381e-001 1.200381e+000 9.241949e-001 1.259311e+000 8.789632e-001 7.594869e-001 6.366682e-001 6.346690e-001 6.940035e-001 7.179185e-001
<GCONST> 1.416774e+002
<MIXTURE> 3 3.159835e-001
<MEAN> 39
 -1.064879e+001 2.740204e-001 -3.898846e-001 -1.532426e+000 -5.514166e-001 -1.381582e+000 -4.661078e-001 -8.775197e-001 -1.193815e-001 6.803568e-002 1.622451e-001 -4.022176e-001 5.438234e+001 -3.798057e-001 8.311837e-002 -2.761293e-001 5.998040e-002 5.349565e-002 -2.045956e-001 8.054506e-002 -1.864297e-001 -1.796285e-001 -2.136355e-001 -2.622882e-001 -2.276709e-002 -3.153328e-001 8.646107e-002 -1.489684e-001 6.110883e-002 -1.696366e-001 -8.862370e-002 -6.189264e-002 -1.193544e-001 5.641974e-003 -3.011154e-002 -1.565639e-002 -2.880030e-003 -4.507781e-002 1.939771e-001
<VARIANCE> 39
 6.336327e+001 2.246089e+001 3.600050e+001 3.299677e+001 3.040454e+001 4.238612e+001 3.691893e+001 3.096649e+001 2.553629e+001 2.167489e+001 1.895276e+001 2.201984e+001 7.881681e+001 1.428683e+000 1.222495e+000 1.325379e+000 1.788606e+000 1.644132e+000 2.016522e+000 2.043730e+000 1.836405e+000 1.775678e+000 1.707502e+000 1.629109e+000 1.504680e+000 1.718301e+000 2.600304e-001 2.586461e-001 2.383679e-001 3.732683e-001 3.513940e-001 4.046071e-001 4.319084e-001 3.863461e-001 3.704863e-001 3.495360e-001 3.402908e-001 3.074407e-001 3.533348e-001
<GCONST> 1.092255e+002
<MIXTURE> 4 1.877094e-001
<MEAN> 39
 -2.203887e+000 -4.568855e+000 5.442425e+000 -8.210462e+000 -4.180937e+000 -3.728813e+000 -5.374845e+000 -1.807874e+000 2.787880e-001 -3.480668e-001 1.923732e+000 -3.806160e+000 6.881271e+001 6.482776e-001 -3.185300e-001 1.240866e-001 -3.579429e-001 -6.878874e-001 1.053657e-001 -8.433057e-001 -1.564102e-001 -2.474571e-001 -1.480069e-001 5.996061e-002 -5.965790e-001 4.266315e-001 -2.212068e-001 1.298531e-001 -1.875638e-001 1.440654e-001 9.058078e-002 -1.487360e-002 1.105011e-001 -6.859814e-002 -4.096159e-002 -2.583080e-002 -6.699017e-002 1.640146e-002 -2.576007e-001
<VARIANCE> 39
 5.518114e+001 4.991129e+001 8.983488e+001 5.884581e+001 7.321496e+001 6.881083e+001 7.965471e+001 5.839495e+001 6.204976e+001 4.327010e+001 4.088756e+001 4.566343e+001 3.969373e+001 5.668449e+000 4.195235e+000 4.542573e+000 5.481657e+000 6.786242e+000 5.110298e+000 7.135132e+000 4.894050e+000 4.233859e+000 3.373869e+000 3.335124e+000 3.711383e+000 4.906284e+000 6.242412e-001 6.192236e-001 6.278719e-001 8.572743e-001 1.160381e+000 8.755488e-001 1.168959e+000 8.620625e-001 7.284803e-001 6.098513e-001 6.033943e-001 6.598198e-001 6.924275e-001
<GCONST> 1.408517e+002
<TRANSP> 3
 0.000000e+000 1.000000e+000 0.000000e+000
 0.000000e+000 9.982690e-001 1.730969e-003
 0.000000e+000 0.000000e+000 0.000000e+000
<ENDHMM>
~h "frantisek_vlas"
<BEGINHMM>
<NUMSTATES> 3
<STATE> 2
<NUMMIXES> 4
<MIXTURE> 1 2.265747e-001
<MEAN> 39
 -1.303097e+001 2.084545e-001 -9.325133e-001 -1.617811e+000 -4.091190e-001 -1.565102e-001 -1.153433e+000 1.057474e+000 -4.360349e-002 8.848814e-001 3.359800e-001 2.518733e-002 5.218456e+001 -1.970829e-002 -7.465275e-003 1.887615e-002 1.997338e-001 2.237798e-001 1.640918e-001 2.930492e-001 1.723242e-001 2.728706e-001 2.223546e-001 2.197253e-001 2.626788e-001 -6.718835e-002 1.843931e-001 -7.636042e-003 1.551130e-001 -2.359373e-002 -2.551711e-002 3.434591e-002 -7.404710e-002 8.910013e-003 1.774131e-003 7.652286e-002 8.284391e-002 -2.239895e-003 1.315099e-001
<VARIANCE> 39
 4.700484e+001 2.241608e+001 2.696975e+001 3.630152e+001 2.494343e+001 3.881476e+001 2.600557e+001 2.386712e+001 2.559782e+001 1.907759e+001 1.720427e+001 1.865675e+001 5.241455e+001 1.341519e+000 1.018296e+000 1.153747e+000 1.476487e+000 1.407408e+000 1.690220e+000 1.623078e+000 1.716679e+000 1.931539e+000 1.637068e+000 1.486627e+000 1.433867e+000 1.039049e+000 3.419575e-001 1.981042e-001 2.421872e-001 3.001977e-001 2.899911e-001 3.316151e-001 3.587801e-001 3.540785e-001 3.771719e-001 3.418478e-001 3.065917e-001 2.917275e-001 2.361456e-001
<GCONST> 1.038097e+002
<MIXTURE> 2 2.843894e-001
<MEAN> 39
 -5.015414e+000 -1.115008e+000 6.741911e+000 -6.633430e+000 -4.740599e+000 -2.304071e+000 -8.812548e+000 -1.210276e+000 -6.202228e+000 1.575242e+000 1.663240e+000 -4.295473e+000 6.394710e+001 8.359142e-002 1.474206e-001 1.852962e-001 -4.785760e-002 1.345662e-001 5.133171e-002 5.127666e-002 1.001678e-001 1.525488e-001 1.419901e-001 1.815729e-001 1.646229e-001 2.000012e-001 -1.337797e-001 1.006620e-001 -7.948184e-002 8.692988e-002 6.378278e-002 2.917496e-002 1.176298e-001 4.005904e-003 7.291751e-002 -2.735244e-002 -1.551514e-002 5.276914e-002 -1.304977e-001
<VARIANCE> 39
 4.562651e+001 4.224096e+001 8.190507e+001 7.986514e+001 5.888929e+001 7.804317e+001 5.749598e+001 5.560659e+001 8.288318e+001 4.171560e+001 3.535690e+001 3.766858e+001 2.930707e+001 4.769217e+000 3.676242e+000 4.785999e+000 7.126101e+000 5.007611e+000 5.291955e+000 5.839504e+000 5.398182e+000 5.893480e+000 3.443558e+000 3.136068e+000 3.035110e+000 3.464472e+000 6.088228e-001 6.148954e-001 7.208955e-001 1.178697e+000 8.802601e-001 8.624225e-001 1.041462e+000 1.020021e+000 1.032715e+000 6.728097e-001 6.156420e-001 5.637735e-001 4.699368e-001
<GCONST> 1.393400e+002
<MIXTURE> 3 2.497130e-001
<MEAN> 39
 -1.244331e+001 -8.727050e-002 -7.013751e-001 -2.182200e+000 -9.321330e-001 -6.543808e-001 -1.942570e+000 7.135007e-001 -7.228737e-001 4.802098e-001 -1.990083e-001 -6.554366e-001 5.314393e+001 -2.217415e-001 -1.341590e-001 -2.983521e-001 -1.850475e-002 -9.522934e-002 -1.351863e-001 -4.738710e-002 -2.177615e-001 -1.581382e-001 -2.415806e-001 -2.454182e-001 -8.254038e-002 -2.828186e-001 1.377970e-001 -7.939041e-002 9.979374e-002 -9.988675e-002 -9.052557e-002 -5.555743e-002 -1.594096e-001 -4.787919e-002 -1.107624e-001 5.309382e-003 8.883458e-003 -6.304298e-002 1.417043e-001
<VARIANCE> 39
 5.138812e+001 2.640933e+001 2.975950e+001 4.157052e+001 2.714524e+001 3.936068e+001 2.875980e+001 2.685807e+001 2.899685e+001 2.006021e+001 1.903977e+001 2.134862e+001 6.406577e+001 1.459706e+000 9.702920e-001 1.314550e+000 1.401901e+000 1.380040e+000 1.688889e+000 1.641406e+000 1.672783e+000 1.906054e+000 1.598989e+000 1.473717e+000 1.405502e+000 1.033618e+000 3.270545e-001 2.185899e-001 2.283830e-001 3.241259e-001 2.876874e-001 3.275270e-001 3.580119e-001 3.555813e-001 3.792415e-001 3.400318e-001 3.060783e-001 2.893195e-001 2.424520e-001
<GCONST> 1.053048e+002
<MIXTURE> 4 2.393080e-001
<MEAN> 39
 -5.092754e+000 -8.520094e-001 7.323470e+000 -6.615301e+000 -5.781663e+000 -2.703124e+000 -9.629381e+000 -1.707887e+000 -7.428965e+000 6.114401e-001 1.343829e+000 -5.425031e+000 6.424800e+001 1.499384e-001 -2.417016e-002 7.741166e-002 -1.053138e-001 -2.667212e-001 -6.978518e-002 -2.872948e-001 -5.970062e-002 -2.719189e-001 -1.223902e-001 -1.694608e-001 -3.586923e-001 1.160840e-001 -1.595679e-001 -2.888070e-002 -1.556832e-001 2.492788e-002 4.300229e-002 -8.161695e-003 9.406950e-002 3.476901e-002 2.757743e-002 -4.633885e-002 -6.744887e-002 4.283396e-003 -1.170016e-001
<VARIANCE> 39
 4.462080e+001 4.257811e+001 8.296854e+001 7.955524e+001 6.222782e+001 7.250580e+001 5.692934e+001 5.613283e+001 8.934240e+001 4.160904e+001 3.639301e+001 4.007081e+001 3.027750e+001 4.968758e+000 3.515621e+000 4.994023e+000 6.854642e+000 5.088726e+000 5.070016e+000 6.032179e+000 5.358646e+000 6.158708e+000 3.381069e+000 3.223870e+000 3.061100e+000 3.432952e+000 5.422519e-001 5.703638e-001 6.686191e-001 1.154565e+000 8.376610e-001 8.396104e-001 1.022154e+000 1.008706e+000 1.057024e+000 6.530160e-001 6.136422e-001 5.568839e-001 4.768619e-001
<GCONST> 1.391618e+002
<TRANSP> 3
 0.000000e+000 1.000000e+000 0.000000e+000
 0.000000e+000 9.977037e-001 2.296329e-003
 0.000000e+000 0.000000e+000 0.000000e+000
<ENDHMM>
~h "nozicka"
<BEGINHMM>
<NUMSTATES> 3
<STATE> 2
<NUMMIXES> 4
<MIXTURE> 1 2.022324e-001
<MEAN> 39
 -1.343106e+001 -1.198658e+001 1.498860e+001 -1.406567e+001 -2.713793e-001 -3.031265e-001 -3.450119e+000 -2.599771e+000 -1.919646e+000 -3.902555e+000 4.056434e+000 -3.673742e+000 6.437805e+001 -6.846981e-002 -1.006315e-001 4.416305e-001 -1.727440e-001 5.807586e-001 -2.759850e-001 5.100819e-001 8.503687e-002 4.710088e-001 1.876105e-001 3.134680e-001 3.113648e-001 7.637753e-001 4.735505e-002 -9.333738e-002 2.204412e-002 -3.927214e-002 -7.141515e-002 1.055608e-001 -4.445975e-003 6.607589e-002 9.503905e-002 1.757271e-002 1.031729e-001 3.341874e-002 1.698411e-001
<VARIANCE> 39
 1.145605e+002 1.298813e+002 1.450407e+002 1.424822e+002 1.835053e+002 1.755501e+002 1.369222e+002 1.091787e+002 1.346578e+002 8.654037e+001 6.783027e+001 5.007672e+001 1.661551e+002 7.206299e+000 9.407211e+000 8.211959e+000 1.030685e+001 1.347729e+001 1.116701e+001 1.043918e+001 6.733755e+000 9.192254e+000 5.894652e+000 5.765832e+000 3.757142e+000 9.201282e+000 9.768865e-001 1.378041e+000 1.287646e+000 1.719045e+000 2.272048e+000 1.804776e+000 1.789806e+000 1.182505e+000 1.546806e+000 1.088597e+000 1.034712e+000 7.194671e-001 1.404784e+000
<GCONST> 1.648480e+002
<MIXTURE> 2 2.988962e-001
<MEAN> 39
 -1.856507e+001 -8.982957e+000 2.876536e+000 -7.912904e+000 -4.670631e+000 3.268693e+000 -4.793996e+000 7.961051e-001 8.894029e-001 -2.431448e+000 3.201207e+000 -2.124060e+000 4.994590e+001 6.535274e-002 2.750857e-001 -6.898777e-002 3.171013e-001 -2.721094e-002 2.902230e-001 4.072101e-002 2.175470e-001 -6.221602e-002 2.012785e-001 8.067351e-002 1.124480e-001 -4.249215e-001 3.756911e-002 9.143815e-002 7.267971e-002 7.073435e-002 8.484346e-002 -1.577355e-002 6.517209e-002 9.380681e-003 -1.714758e-002 3.485228e-002 1.995511e-003 4.259884e-002 -5.178073e-002
<VARIANCE> 39
 1.345520e+002 1.896470e+002 2.086351e+002 1.808008e+002 9.924086e+001 1.032060e+002 7.586015e+001 5.609483e+001 5.832742e+001 4.690263e+001 4.245438e+001 3.348433e+001 5.801197e+002 7.936939e-001 1.627518e+000 1.473171e+000 2.063524e+000 2.040078e+000 2.297490e+000 2.211818e+000 2.358386e+000 2.758994e+000 2.059591e+000 1.974053e+000 1.590360e+000 1.353711e+000 1.561172e-001 2.688176e-001 2.410499e-001 3.336738e-001 3.560941e-001 3.813561e-001 4.203229e-001 4.068959e-001 4.865588e-001 3.745552e-001 3.513500e-001 3.058541e-001 1.775571e-001
<GCONST> 1.241229e+002
<MIXTURE> 3 2.688022e-001
<MEAN> 39
 -1.901368e+001 -8.347321e+000 2.640610e+000 -6.977964e+000 -5.738137e+000 3.576111e+000 -5.402258e+000 4.338022e-001 6.158041e-001 -3.066457e+000 3.220517e+000 -2.341739e+000 4.832492e+001 -3.621598e-002 1.333002e-001 -2.360776e-001 1.374558e-001 -2.952593e-001 1.299751e-001 -2.091359e-001 -4.981539e-002 -2.942810e-001 -1.341842e-001 -2.271232e-001 -1.715051e-001 -5.371459e-001 -1.441566e-002 2.884550e-002 -9.212061e-003 1.027392e-002 2.727887e-002 -7.801528e-002 -1.080924e-002 -6.818646e-002 -6.283057e-002 -8.647215e-003 -5.938894e-002 -3.911336e-002 -8.576202e-002
<VARIANCE> 39
 1.209791e+002 1.841323e+002 2.234701e+002 1.805139e+002 8.953213e+001 8.990400e+001 6.799010e+001 5.123178e+001 5.865366e+001 4.568998e+001 4.467102e+001 3.322162e+001 5.774853e+002 7.151632e-001 1.524529e+000 1.513031e+000 1.923231e+000 1.930549e+000 2.113851e+000 2.179759e+000 2.155797e+000 2.647499e+000 1.960432e+000 1.863136e+000 1.592885e+000 1.530077e+000 1.299592e-001 2.440542e-001 2.181014e-001 3.122980e-001 3.327661e-001 3.520957e-001 4.000207e-001 3.878359e-001 4.602219e-001 3.529649e-001 3.489580e-001 2.941644e-001 1.549134e-001
<GCONST> 1.221617e+002
<MIXTURE> 4 2.300563e-001
<MEAN> 39
 -1.290145e+001 -1.326959e+001 1.514403e+001 -1.502744e+001 -7.225150e-001 3.893817e-001 -4.168914e+000 -3.190229e+000 -1.852923e+000 -4.557955e+000 4.287369e+000 -4.411986e+000 6.569217e+001 1.554235e-002 -4.393357e-001 -1.683968e-002 -4.417768e-001 -1.087212e-001 -2.817566e-001 -2.741691e-001 -2.991099e-001 1.740581e-005 -2.467870e-001 -1.075222e-001 -2.282225e-001 5.217532e-001 -7.767345e-002 -6.744390e-002 -9.070523e-002 -7.067814e-002 -7.706085e-002 1.594503e-002 -7.320648e-002 1.214070e-002 2.617884e-003 -5.288903e-002 -2.073123e-002 -3.780026e-002 1.712408e-002
<VARIANCE> 39
 1.075150e+002 1.281237e+002 1.371798e+002 1.409625e+002 1.861261e+002 1.816505e+002 1.378421e+002 1.074594e+002 1.352446e+002 8.726899e+001 7.220441e+001 4.873127e+001 1.417825e+002 7.355418e+000 9.676786e+000 7.189773e+000 1.056274e+001 1.390915e+001 1.173408e+001 1.085308e+001 6.910100e+000 9.342560e+000 6.141712e+000 5.885346e+000 3.808937e+000 8.077816e+000 9.172876e-001 1.393105e+000 1.144625e+000 1.753954e+000 2.297741e+000 1.807338e+000 1.787769e+000 1.191047e+000 1.539575e+000 1.121437e+000 1.078954e+000 7.147014e-001 1.224686e+000
<GCONST> 1.644724e+002
<TRANSP> 3
 0.000000e+000 1.000000e+000 0.000000e+000
 0.000000e+000 9.977562e-001 2.243830e-003
 0.000000e+000 0.000000e+000 0.000000e+000
<ENDHMM>
~h "motejlek"
<BEGINHMM>
<NUMSTATES> 3
<STATE> 2
<NUMMIXES> 4
<MIXTURE> 1 2.558510e-001
<MEAN> 39
 -1.585315e+001 3.394284e+000 7.436923e-001 5.624505e+000 5.309604e+000 7.459900e+000 6.104415e+000 7.868428e+000 7.022613e+000 7.022784e+000 6.381061e+000 5.680487e+000 3.903516e+001 -7.293338e-002 -1.345198e-002 1.555848e-002 4.717561e-002 3.106477e-002 7.233984e-002 1.165914e-001 1.292820e-001 1.483357e-001 1.491207e-001 1.562303e-001 1.150239e-001 -7.380884e-002 2.779921e-002 -1.139147e-002 1.497502e-002 -9.030443e-003 4.634971e-003 4.766240e-003 -1.791676e-003 1.857342e-003 5.412446e-003 8.290284e-003 -1.011390e-003 4.383245e-003 1.144852e-002
<VARIANCE> 39
 9.489436e+000 3.236944e+000 9.277695e+000 1.453245e+001 1.464999e+001 1.481759e+001 1.543136e+001 1.167604e+001 1.317027e+001 1.211909e+001 1.177691e+001 9.829260e+000 1.661306e+001 1.927344e-001 2.437259e-001 3.968757e-001 5.716621e-001 7.212093e-001 9.140358e-001 1.080328e+000 1.174004e+000 1.245350e+000 1.231355e+000 1.190034e+000 1.068053e+000 1.678061e-001 4.481044e-002 4.795034e-002 7.814385e-002 1.124212e-001 1.453638e-001 1.791198e-001 2.191884e-001 2.372356e-001 2.569303e-001 2.530153e-001 2.458636e-001 2.206191e-001 2.794081e-002
<GCONST> 7.066898e+001
<MIXTURE> 2 3.126024e-001
<MEAN> 39
 -7.397564e+000 8.177780e-001 -3.495482e-001 -1.124300e+001 4.569932e+000 -3.163891e+000 -1.005102e+001 5.470460e-001 -2.182791e+000 4.127546e+000 -1.325595e+000 -1.442426e+000 5.802674e+001 -4.373418e-001 1.775333e-001 -6.973666e-003 3.823818e-001 2.641591e-001 1.992753e-001 4.898590e-001 2.128284e-001 3.819943e-001 2.589807e-002 3.256261e-001 2.962159e-001 -3.505259e-001 -1.119227e-001 1.978529e-002 1.694886e-002 5.072898e-002 4.570831e-002 6.839093e-002 1.089919e-001 5.155507e-002 8.263435e-002 -1.045192e-002 6.474402e-002 4.881838e-002 -6.157605e-002
<VARIANCE> 39
 8.061229e+001 4.337377e+001 6.652914e+001 7.759858e+001 5.314938e+001 6.521292e+001 7.086725e+001 6.167583e+001 6.356112e+001 4.153361e+001 4.267916e+001 3.769695e+001 4.958821e+001 5.070476e+000 2.992683e+000 3.291414e+000 6.697238e+000 3.897503e+000 3.989012e+000 5.225636e+000 4.462729e+000 5.029675e+000 3.544905e+000 3.500525e+000 2.940780e+000 4.276393e+000 7.914661e-001 5.404170e-001 5.411369e-001 1.260980e+000 7.564080e-001 7.224815e-001 1.034861e+000 8.630973e-001 9.706766e-001 6.967801e-001 6.969261e-001 5.858558e-001 8.010779e-001
<GCONST> 1.389990e+002
<MIXTURE> 3 1.642904e-001
<MEAN> 39
 -1.736633e+001 3.182876e+000 -4.729406e-001 3.401961e+000 5.447356e+000 5.812896e+000 4.129290e+000 7.210848e+000 6.094132e+000 5.888504e+000 5.270529e+000 5.053287e+000 4.246508e+001 -9.052178e-002 -5.182767e-002 2.246899e-002 1.282217e-002 -1.956321e-002 -1.789709e-002 4.536103e-003 -5.090386e-002 -5.348663e-002 -1.445149e-001 -1.346718e-001 -4.510730e-002 -5.052986e-002 1.645868e-001 -9.379399e-003 4.218619e-002 -7.292370e-002 -4.897544e-002 -8.705561e-002 -1.402014e-001 -9.819779e-002 -1.117510e-001 -6.308065e-002 -1.150973e-001 -6.673950e-002 5.852760e-002
<VARIANCE> 39
 3.208151e+001 8.598287e+000 1.635384e+001 3.975219e+001 2.524353e+001 3.495725e+001 2.435327e+001 1.715069e+001 1.835159e+001 1.731267e+001 1.556844e+001 1.249603e+001 6.345354e+001 5.393317e-001 4.946104e-001 6.455752e-001 8.176245e-001 9.126773e-001 1.158674e+000 1.306144e+000 1.371717e+000 1.456833e+000 1.370602e+000 1.332620e+000 1.180876e+000 3.985533e-001 1.537433e-001 9.222647e-002 1.217884e-001 1.801803e-001 1.921088e-001 2.337548e-001 2.877716e-001 2.798665e-001 3.047985e-001 2.839203e-001 2.795114e-001 2.431725e-001 1.040139e-001
<GCONST> 8.958082e+001
<MIXTURE> 4 2.672525e-001
<MEAN> 39
 -6.753895e+000 7.631557e-002 -8.810519e-002 -1.244417e+001 3.663880e+000 -3.262804e+000 -1.142547e+001 -1.639370e-002 -3.209512e+000 3.465267e+000 -1.970711e+000 -2.554049e+000 5.908656e+001 6.368142e-001 -1.634651e-001 -2.018297e-002 -4.984733e-001 -3.268097e-001 -2.902285e-001 -6.862777e-001 -3.413608e-001 -5.570340e-001 -8.699965e-002 -4.483891e-001 -4.301595e-001 5.116031e-001 3.476048e-003 -6.421828e-003 -6.006353e-002 -5.937467e-003 -2.770364e-002 -3.127546e-002 -4.019527e-002 -2.499999e-003 -3.257089e-002 4.276812e-002 -3.519681e-003 -1.938846e-002 2.523853e-002
<VARIANCE> 39
 7.230233e+001 4.315940e+001 6.847951e+001 7.620520e+001 4.794052e+001 6.394849e+001 7.311564e+001 6.419624e+001 6.525259e+001 4.355115e+001 4.394718e+001 4.076064e+001 4.592635e+001 5.669019e+000 3.072569e+000 3.562903e+000 6.931932e+000 4.194384e+000 4.317782e+000 6.592316e+000 5.234293e+000 5.802510e+000 3.742339e+000 4.005623e+000 3.502955e+000 4.353975e+000 7.462740e-001 4.967708e-001 5.372310e-001 1.186214e+000 7.346830e-001 7.404050e-001 1.083142e+000 9.053345e-001 9.947988e-001 7.107639e-001 7.191979e-001 6.370199e-001 7.258511e-001
<GCONST> 1.402082e+002
<TRANSP> 3
 0.000000e+000 1.000000e+000 0.000000e+000
 0.000000e+000 9.984772e-001 1.522868e-003
 0.000000e+000 0.000000e+000 0.000000e+000
<ENDHMM>
~h "martin_paroubek"
<BEGINHMM>
<NUMSTATES> 3
<STATE> 2
<NUMMIXES> 4
<MIXTURE> 1 2.482178e-001
<MEAN> 39
 -1.730487e+001 2.446506e+000 -1.011082e+000 -2.280530e-001 1.828264e-001 -7.506667e-001 1.087390e+000 -1.054085e+000 2.123080e+000 3.476683e-001 7.977512e-002 7.860941e-002 4.765937e+001 -3.331099e-001 1.901320e-001 -7.797824e-002 2.738390e-001 4.265984e-001 4.574288e-001 3.228540e-001 5.228127e-001 1.011709e-001 2.903820e-001 4.004236e-001 2.438035e-001 -3.644634e-001 4.708832e-002 -5.240022e-002 9.121833e-002 -7.498191e-002 -5.040398e-002 -2.702009e-002 2.078918e-002 -7.453516e-002 7.278917e-002 -1.173087e-002 3.027800e-002 1.186978e-002 1.507907e-001
<VARIANCE> 39
 5.856665e+001 2.562512e+001 2.844996e+001 2.387191e+001 2.447005e+001 3.258342e+001 2.296672e+001 3.186904e+001 2.558939e+001 2.339039e+001 1.980545e+001 1.643234e+001 5.914526e+001 1.832129e+000 1.326112e+000 1.412472e+000 1.970339e+000 1.962869e+000 2.350484e+000 1.818433e+000 2.457243e+000 2.110912e+000 1.910797e+000 1.697410e+000 1.576495e+000 2.377619e+000 2.821317e-001 2.345157e-001 2.432725e-001 3.369302e-001 3.482164e-001 3.851035e-001 3.483905e-001 4.316294e-001 3.900755e-001 3.655092e-001 3.407374e-001 3.111345e-001 3.418967e-001
<GCONST> 1.088446e+002
<MIXTURE> 2 2.523988e-001
<MEAN> 39
 -1.346728e+001 1.634708e+000 3.879341e+000 -4.511973e+000 -3.224807e+000 -4.732725e+000 1.071928e+000 -9.301744e+000 3.469667e+000 -2.504384e+000 -1.643799e+000 -2.106750e+000 5.788168e+001 1.146122e-001 1.129038e-001 2.518995e-001 4.971528e-002 6.010322e-002 -1.415016e-002 3.670767e-002 -4.060616e-002 1.437861e-001 5.385113e-002 -2.888876e-002 8.835081e-002 1.569066e-001 -9.897192e-002 1.085058e-001 -6.966063e-002 1.617932e-001 1.290579e-001 1.435046e-001 5.532920e-002 1.908146e-001 -3.478189e-002 9.158712e-002 4.077717e-002 6.583404e-002 -2.352584e-001
<VARIANCE> 39
 6.672462e+001 3.792795e+001 6.956405e+001 6.228230e+001 7.182705e+001 6.850636e+001 5.325626e+001 6.828160e+001 6.330206e+001 5.156926e+001 3.402397e+001 2.792748e+001 3.339719e+001 4.471569e+000 2.728755e+000 3.426307e+000 4.439287e+000 5.149628e+000 4.197779e+000 3.756068e+000 6.047402e+000 4.390471e+000 3.070647e+000 2.700504e+000 2.344700e+000 3.615703e+000 6.669328e-001 4.589026e-001 5.283648e-001 7.225113e-001 9.179126e-001 7.782456e-001 7.246230e-001 1.035784e+000 8.118137e-001 5.759274e-001 5.252948e-001 4.686622e-001 4.620954e-001
<GCONST> 1.344914e+002
<MIXTURE> 3 2.880302e-001
<MEAN> 39
 -1.682464e+001 1.855724e+000 -1.247063e+000 -4.150865e-001 -3.296977e-001 -7.135702e-001 8.430941e-001 -1.127082e+000 1.778965e+000 1.563790e-001 -1.600843e-001 -1.291162e-001 4.750191e+001 -2.817985e-001 -2.656838e-002 -2.516648e-001 -5.332461e-002 1.000272e-002 2.753042e-002 -6.286843e-002 3.832649e-002 -2.838850e-001 -1.371542e-001 -3.183657e-002 -1.011712e-001 -1.884216e-001 6.234516e-002 -5.467552e-002 5.543630e-002 -1.186902e-001 -1.100712e-001 -1.187062e-001 -7.052995e-002 -1.690643e-001 -1.455678e-002 -9.013084e-002 -4.989010e-002 -6.841797e-002 1.618262e-001
<VARIANCE> 39
 5.496085e+001 2.370448e+001 2.650903e+001 2.413620e+001 2.479081e+001 3.284278e+001 2.265168e+001 3.530043e+001 2.604156e+001 2.389227e+001 2.037268e+001 1.676647e+001 6.491054e+001 1.553164e+000 1.073966e+000 1.284772e+000 1.665423e+000 1.668621e+000 1.907764e+000 1.716036e+000 2.071903e+000 1.902985e+000 1.792065e+000 1.631967e+000 1.531157e+000 1.537838e+000 2.394742e-001 1.977503e-001 2.190872e-001 3.250664e-001 3.246233e-001 3.648222e-001 3.344355e-001 4.115340e-001 3.778782e-001 3.466954e-001 3.292960e-001 3.051466e-001 3.146878e-001
<GCONST> 1.061135e+002
<MIXTURE> 4 2.113418e-001
<MEAN> 39
 -1.367041e+001 1.697911e+000 4.112836e+000 -4.777140e+000 -4.465866e+000 -5.360670e+000 3.312089e-001 -1.027425e+001 2.646444e+000 -3.492080e+000 -1.972128e+000 -2.853381e+000 5.843865e+001 6.237943e-001 -3.150949e-001 1.324681e-001 -3.174740e-001 -5.795496e-001 -5.712895e-001 -3.283494e-001 -6.354876e-001 9.958763e-002 -2.270409e-001 -4.014714e-001 -2.622819e-001 5.046886e-001 -1.715348e-002 9.583523e-003 -1.028780e-001 6.093086e-002 5.354955e-002 2.145373e-002 1.114581e-002 9.075855e-002 -2.654707e-002 2.612817e-002 -1.409602e-002 2.313836e-003 -1.185577e-001
<VARIANCE> 39
 6.294316e+001 3.733836e+001 6.456345e+001 6.020081e+001 7.157056e+001 6.491383e+001 5.081689e+001 7.263118e+001 6.734734e+001 4.838438e+001 3.345114e+001 2.825837e+001 3.464447e+001 4.585891e+000 2.452512e+000 3.257174e+000 4.264324e+000 4.914100e+000 4.178622e+000 4.092908e+000 6.148118e+000 4.881546e+000 3.122198e+000 2.751712e+000 2.338793e+000 2.936698e+000 5.820690e-001 4.069086e-001 4.832037e-001 6.658087e-001 8.511049e-001 7.251889e-001 7.282526e-001 1.005164e+000 8.375819e-001 5.373307e-001 5.099493e-001 4.444032e-001 4.355727e-001
<GCONST> 1.333269e+002
<TRANSP> 3
 0.000000e+000 1.000000e+000 0.000000e+000
 0.000000e+000 9.979028e-001 2.097263e-003
 0.000000e+000 0.000000e+000 0.000000e+000
<ENDHMM>
~h "jan"
<BEGINHMM>
<NUMSTATES> 3
<STATE> 2
<NUMMIXES> 4
<MIXTURE> 1 1.897119e-001
<MEAN> 39
 -1.243997e+001 -4.990499e+000 -4.767816e+000 -1.203579e+000 -7.903589e+000 5.255769e+000 8.162907e+000 3.891337e+000 5.459852e-002 7.722195e-001 -8.538434e+000 -5.441601e+000 4.554754e+001 -5.760500e-002 3.866392e-002 -5.490730e-002 1.073064e-001 2.390099e-001 2.008481e-001 3.381710e-001 3.637743e-001 2.353555e-001 1.482197e-001 1.472487e-001 1.494031e-001 -7.588248e-002 3.716237e-002 -9.821803e-003 9.861124e-002 1.341170e-002 7.515797e-003 3.088316e-002 -2.861984e-002 -9.355832e-003 3.915874e-002 5.406331e-002 2.141990e-002 4.464571e-003 5.598124e-002
<VARIANCE> 39
 1.151630e+001 9.200742e+000 2.709530e+001 1.189690e+001 1.371670e+001 1.559181e+001 2.645316e+001 3.057916e+001 1.524494e+001 1.368809e+001 1.259191e+001 1.096589e+001 8.057179e+000 1.517262e-001 2.796935e-001 4.971129e-001 5.205666e-001 8.173136e-001 9.320741e-001 1.083726e+000 1.105461e+000 1.113698e+000 1.149352e+000 1.064817e+000 9.230264e-001 8.683017e-002 3.495044e-002 6.668424e-002 1.174806e-001 1.132157e-001 1.613960e-001 1.869383e-001 2.436074e-001 2.398326e-001 2.347198e-001 2.445985e-001 2.229605e-001 1.841100e-001 2.541574e-002
<GCONST> 7.326971e+001
<MIXTURE> 2 3.182968e-001
<MEAN> 39
 -6.272658e+000 -7.928415e+000 6.839974e+000 -5.270102e+000 -1.616937e+001 9.370686e-001 -5.855610e+000 -6.218076e+000 -1.223030e+000 4.503819e+000 -7.425942e+000 -7.616239e+000 5.495025e+001 8.638695e-002 7.689872e-002 5.216754e-002 6.061755e-002 4.242225e-002 5.167978e-002 1.548950e-002 -3.985662e-002 1.005092e-001 1.317599e-001 1.356641e-001 1.210286e-001 3.978690e-002 -3.450873e-002 2.894425e-002 -5.264775e-002 9.544210e-003 5.437171e-002 3.924301e-002 1.000810e-001 5.478609e-002 2.795570e-002 -1.240013e-003 1.338070e-002 3.541027e-002 -4.414403e-002
<VARIANCE> 39
 2.056216e+001 4.117843e+001 5.804212e+001 4.540763e+001 4.783487e+001 5.179190e+001 6.300247e+001 4.851260e+001 4.428588e+001 3.786134e+001 2.953819e+001 2.752810e+001 1.915627e+001 1.137593e+000 2.150283e+000 2.895709e+000 2.834825e+000 3.077384e+000 2.654188e+000 4.701262e+000 3.530421e+000 2.611957e+000 2.507602e+000 2.116174e+000 1.824260e+000 1.302600e+000 1.676108e-001 3.177302e-001 4.017167e-001 4.558016e-001 4.917884e-001 4.387723e-001 7.181963e-001 5.750554e-001 4.570160e-001 4.437667e-001 3.986165e-001 3.342615e-001 1.671807e-001
<GCONST> 1.181694e+002
<MIXTURE> 3 3.033037e-001
<MEAN> 39
 -6.779077e+000 -8.235329e+000 7.411567e+000 -5.920137e+000 -1.672660e+001 6.390952e-001 -6.091210e+000 -6.436873e+000 -2.028815e+000 3.917458e+000 -7.745454e+000 -8.008466e+000 5.502972e+001 5.108499e-002 -4.856312e-002 1.436332e-001 -6.441484e-002 -1.951473e-001 -1.138501e-001 -2.165144e-001 -1.796202e-001 -1.533291e-001 -8.451257e-002 -1.180076e-001 -1.736310e-001 9.644632e-002 -1.869514e-003 4.649436e-003 -5.173511e-002 1.682288e-002 -1.007552e-002 -2.404896e-002 1.066795e-002 1.716260e-002 -2.722840e-002 -3.294458e-002 -1.652957e-002 -1.835768e-002 -2.534287e-002
<VARIANCE> 39
 2.216850e+001 4.439161e+001 6.350663e+001 4.420845e+001 5.080036e+001 5.129119e+001 6.507008e+001 4.781474e+001 4.518486e+001 3.887524e+001 3.011050e+001 2.875646e+001 1.983843e+001 1.395411e+000 2.131947e+000 3.229598e+000 2.773594e+000 3.330902e+000 2.669445e+000 4.882534e+000 3.472502e+000 2.716579e+000 2.458793e+000 2.163637e+000 1.934374e+000 1.323295e+000 1.757748e-001 3.114576e-001 4.147366e-001 4.440565e-001 5.280561e-001 4.367999e-001 7.226148e-001 5.662578e-001 4.523386e-001 4.282341e-001 4.027634e-001 3.311636e-001 1.586485e-001
<GCONST> 1.190944e+002
<MIXTURE> 4 1.886819e-001
<MEAN> 39
 -1.239843e+001 -4.950809e+000 -3.930370e+000 -1.293655e+000 -8.264643e+000 4.888498e+000 7.848464e+000 3.358489e+000 -4.237860e-001 3.814837e-001 -9.009583e+000 -5.793621e+000 4.589078e+001 -1.712999e-001 -9.758517e-002 -2.596420e-001 -1.030190e-001 9.716880e-003 -1.124004e-001 -1.719472e-002 -9.194549e-003 -1.565095e-001 -2.353085e-001 -1.881173e-001 -6.920222e-002 -1.430274e-001 2.457628e-002 -4.693892e-002 7.384371e-002 -5.751083e-002 -8.254968e-002 -5.706381e-002 -1.591011e-001 -1.104470e-001 -4.558254e-002 -7.914345e-004 -1.895664e-002 -3.228789e-002 5.922791e-002
<VARIANCE> 39
 1.259699e+001 1.040188e+001 3.512170e+001 1.405068e+001 1.660919e+001 1.685725e+001 2.818704e+001 3.112914e+001 1.617207e+001 1.419883e+001 1.292607e+001 1.175592e+001 9.071089e+000 1.903510e-001 3.177714e-001 6.543155e-001 5.544693e-001 8.547624e-001 9.118600e-001 1.143571e+000 1.178568e+000 1.145864e+000 1.169316e+000 1.072807e+000 9.230036e-001 1.161241e-001 3.462195e-002 6.823903e-002 1.307544e-001 1.203689e-001 1.761312e-001 1.937112e-001 2.588541e-001 2.449710e-001 2.400889e-001 2.484969e-001 2.251551e-001 1.880537e-001 2.917530e-002
<GCONST> 7.633955e+001
<TRANSP> 3
 0.000000e+000 1.000000e+000 0.000000e+000
 0.000000e+000 9.972063e-001 2.793643e-003
 0.000000e+000 0.000000e+000 0.000000e+000
<ENDHMM>
~h "david"
<BEGINHMM>
<NUMSTATES> 3
<STATE> 2
<NUMMIXES> 4
<MIXTURE> 1 2.460808e-001
<MEAN> 39
 -1.337378e+001 9.321209e-001 -1.843149e+000 -2.013294e+000 1.816947e-001 -1.439216e+000 6.709695e-001 -1.860584e-001 -3.117314e-001 5.658787e-001 -2.174376e-001 1.131710e-001 6.613832e+001 -1.405806e-001 4.107825e-002 2.372795e-002 2.043503e-001 1.470912e-001 1.735008e-001 2.797707e-001 1.404382e-001 3.306074e-001 1.728182e-001 2.572763e-001 2.767663e-001 -1.039240e-001 6.136283e-002 3.462513e-002 7.215989e-002 3.917822e-003 2.142549e-002 -1.859586e-004 -7.103904e-003 2.463169e-002 -1.046317e-002 4.098343e-002 3.157280e-002 6.693289e-004 7.999881e-002
<VARIANCE> 39
 4.653861e+001 1.753504e+001 1.915105e+001 3.627131e+001 1.862059e+001 2.251863e+001 2.550064e+001 2.457873e+001 3.002362e+001 1.756281e+001 2.446300e+001 1.718364e+001 6.204047e+001 8.546467e-001 7.046784e-001 8.085535e-001 1.182037e+000 1.120591e+000 1.406593e+000 1.564629e+000 1.648279e+000 1.664597e+000 1.597406e+000 1.536762e+000 1.302299e+000 7.884763e-001 1.844282e-001 1.254091e-001 1.528988e-001 2.506696e-001 2.146343e-001 2.640231e-001 3.099220e-001 3.261048e-001 3.379859e-001 3.124307e-001 3.088078e-001 2.625473e-001 2.056851e-001
<GCONST> 9.759244e+001
<MIXTURE> 2 2.551287e-001
<MEAN> 39
 -9.548491e+000 2.660393e+000 3.036310e+000 -6.138711e+000 -2.446266e+000 -4.453017e+000 -3.849097e+000 -9.477924e-001 -6.708775e+000 1.028859e+000 -1.542431e+000 -4.238336e+000 7.719617e+001 -5.289222e-003 1.650945e-001 8.006157e-002 1.333548e-002 1.791805e-001 6.910343e-002 1.245924e-001 6.472748e-002 -1.759329e-003 9.573456e-002 6.623091e-002 9.997275e-002 9.108917e-002 -7.889239e-002 1.014041e-002 -2.483471e-002 5.752264e-002 4.501957e-002 4.517722e-002 9.861472e-002 -7.615231e-003 7.136696e-002 -1.738746e-002 2.875807e-002 7.279478e-002 -1.046766e-001
<VARIANCE> 39
 7.624517e+001 3.793235e+001 7.942197e+001 5.996644e+001 5.651083e+001 4.124978e+001 6.473798e+001 5.865231e+001 7.525780e+001 3.414174e+001 3.855932e+001 3.246452e+001 2.868949e+001 5.193405e+000 2.840939e+000 3.624923e+000 5.795983e+000 3.890318e+000 3.564248e+000 5.106503e+000 5.039994e+000 6.036611e+000 3.117523e+000 3.149486e+000 2.635813e+000 3.501115e+000 6.860021e-001 4.615614e-001 5.389349e-001 9.271187e-001 6.585983e-001 6.430154e-001 8.746675e-001 9.249365e-001 1.046603e+000 6.079364e-001 5.808913e-001 4.778765e-001 5.149480e-001
<GCONST> 1.350577e+002
<MIXTURE> 3 2.650534e-001
<MEAN> 39
 -1.213211e+001 5.624213e-001 -1.611856e+000 -3.228693e+000 -1.133642e-001 -1.722125e+000 -2.738225e-001 5.989700e-002 -1.359298e+000 5.513511e-001 -6.927413e-001 -6.295327e-001 6.781509e+001 -1.274569e-001 -8.267794e-002 -1.222726e-001 -1.356839e-002 -1.315235e-001 -1.246436e-001 -5.331541e-002 -1.838354e-001 -6.892434e-002 -2.267698e-001 -1.537576e-001 -5.430776e-002 -1.632971e-001 4.086693e-002 1.186415e-002 2.803434e-002 -3.332070e-002 -5.022270e-002 -7.454578e-002 -9.204907e-002 -4.228200e-002 -7.968211e-002 -2.244797e-002 -4.890733e-002 -6.917653e-002 6.126393e-002
<VARIANCE> 39
 5.206170e+001 2.098505e+001 2.012036e+001 4.800751e+001 2.022806e+001 2.379146e+001 3.093828e+001 3.051376e+001 3.750615e+001 1.844893e+001 2.691683e+001 2.044832e+001 7.987709e+001 8.331878e-001 7.447116e-001 8.639251e-001 1.218856e+000 1.151372e+000 1.349055e+000 1.559564e+000 1.672493e+000 1.702605e+000 1.491002e+000 1.554750e+000 1.273120e+000 8.474911e-001 1.710601e-001 1.306209e-001 1.483557e-001 2.663123e-001 2.184061e-001 2.645659e-001 3.134117e-001 3.368027e-001 3.377091e-001 3.093627e-001 3.075289e-001 2.553185e-001 2.103454e-001
<GCONST> 9.973191e+001
<MIXTURE> 4 2.337282e-001
<MEAN> 39
 -9.521244e+000 2.699823e+000 4.126580e+000 -5.753109e+000 -3.234414e+000 -4.559275e+000 -4.465961e+000 -1.474854e+000 -7.282642e+000 4.934273e-001 -1.499505e+000 -4.791652e+000 7.699679e+001 2.992129e-001 -1.326219e-001 2.665078e-002 -2.123670e-001 -1.986608e-001 -1.107772e-001 -3.665250e-001 -1.544946e-002 -2.743718e-001 -3.778489e-002 -1.740819e-001 -3.326197e-001 1.958636e-001 -2.472994e-002 -6.155417e-002 -8.084499e-002 -3.062873e-002 -1.744004e-002 2.982574e-002 7.401628e-004 3.098912e-002 2.306004e-002 2.098366e-003 -7.293910e-003 8.903483e-004 -4.002849e-002
<VARIANCE> 39
 7.146657e+001 3.713858e+001 8.444267e+001 5.792344e+001 5.743605e+001 4.077060e+001 6.238154e+001 6.020113e+001 7.309525e+001 3.344583e+001 3.721704e+001 3.272123e+001 3.001078e+001 5.158512e+000 2.817082e+000 4.122924e+000 5.535867e+000 3.995694e+000 3.570352e+000 5.248865e+000 5.230228e+000 6.422746e+000 3.143794e+000 3.125212e+000 2.800886e+000 3.941773e+000 6.136455e-001 4.626532e-001 5.428199e-001 8.911760e-001 6.666924e-001 6.556707e-001 8.639503e-001 9.458551e-001 1.048960e+000 6.036839e-001 5.815945e-001 4.864613e-001 5.308776e-001
<GCONST> 1.353073e+002
<TRANSP> 3
 0.000000e+000 1.000000e+000 0.000000e+000
 0.000000e+000 9.972219e-001 2.778121e-003
 0.000000e+000 0.000000e+000 0.000000e+000
<ENDHMM>
~h "mak"
<BEGINHMM>
<NUMSTATES> 3
<STATE> 2
<NUMMIXES> 4
<MIXTURE> 1 2.181927e-001
<MEAN> 39
 -1.118886e+001 -2.482778e+000 2.720047e+000 -3.285370e+000 2.139915e+000 -3.204430e+000 -8.982298e-001 -7.767577e-001 -2.147978e+000 -7.067370e-001 -1.606559e+000 9.229180e-001 5.217061e+001 -3.719159e-001 2.340567e-001 5.592867e-002 1.776271e-001 3.607962e-001 2.167945e-001 3.978201e-001 3.697677e-001 3.773611e-001 3.982210e-001 1.774969e-001 2.800508e-001 -1.719793e-001 2.281082e-001 -1.036743e-001 1.151860e-001 -9.575763e-002 -7.398533e-002 -1.613736e-003 -5.585958e-002 3.908912e-003 1.128382e-002 -9.716305e-003 8.087293e-002 -4.825531e-002 2.575239e-001
<VARIANCE> 39
