\data\
ngram 1=10002
ngram 2=175300

\1-grams:
-99.999	!ENTER	-0.4743
-1.4956	a	-0.0711
-5.0289	abolicni	-0.4258
-4.0628	absolutne	-0.2231
-4.4268	absolutni	-0.2040
-4.9320	absolvoval	-0.1941
-4.4848	absurdni	-0.2781
-2.5558	aby	-0.4449
-3.4911	abych	-0.4593
-3.4726	abychom	-0.3185
-4.0869	abysme	-0.2157
-4.0077	abyste	-0.2889
-4.7859	ac	-0.2051
-4.6767	ackoliv	-0.3250
-5.0289	ad	-0.0576
-4.9320	adam
-5.0289	adekvatni	-0.1976
-4.8528	administrativa	-0.3502
-5.0289	administrativni	-0.2988
-5.0289	adrese	-0.4237
-4.4848	adresu	-0.2974
-4.9320	advokatka	-0.3966
-5.0289	advokatni	-0.4259
-4.8528	afera	-0.2309
-4.9320	afere	-0.1423
-4.7279	afghanistanu	-0.3267
-4.5170	africe	-0.2747
-5.0289	afrika	-0.4152
-4.5896	afriky	-0.2189
-4.8528	agendu	-0.2038
-5.0289	agentur	-0.2813
-4.8528	agentura	-0.1571
-4.1838	agentury	-0.2223
-4.5518	agresivni	-0.2511
-4.3087	aha	-0.4539
-4.7859	ahoj	-0.5315
-4.8528	air	-0.3773
-4.7859	aj	-0.0258
-4.7279	akademicke	-0.5050
-4.2160	akademie	-0.5460
-4.6767	akademii	-0.3372
-3.7921	akce	-0.2834
-4.9320	akceptovat	-0.1950
-3.9875	akci	-0.2870
-4.7859	akcich	-0.2723
-4.7859	akcie	-0.4367
-4.1125	akorat	-0.2015
-4.8528	akreditace	-0.2978
-4.7279	akreditaci	-0.4019
-4.9320	akt	-0.2102
-4.8528	aktivit	-0.2625
-5.0289	aktivita	-0.4010
-4.7859	aktivitu	-0.1851
-4.5170	aktivity	-0.2502
-4.2885	aktivne	-0.1933
-4.9320	aktivnejsi	-0.2175
-4.3522	aktivni	-0.2598
-4.9320	aktivnim	-0.1297
-5.0289	aktu	-0.2879
-4.3757	aktualne	-0.4172
-4.1996	aktualni	-0.2636
-4.9320	aktualnich	-0.2217
-5.0289	akty	-0.1822
-4.8528	al-kajda	-0.3550
-2.0519	ale	-0.3760
-4.5896	alena	-0.2140
-4.5896	alergie	-0.2817
-4.5896	ales	-0.0871
-3.7119	alespon	-0.2844
-4.9320	alexandra	-0.0351
-4.8528	aliance	-0.4581
-5.0289	alice	-0.1212
-4.6767	alkohol	-0.1885
-5.0289	alkoholem	-0.2670
-4.3299	alkoholu	-0.2002
-4.8528	alternativa	-0.3757
-4.9320	alternativni	-0.3005
-5.0289	alternativy	-0.1856
-4.7859	ambice	-0.2834
-4.9320	ambici	-0.2884
-4.4848	americane	-0.2185
-4.7859	americani	-0.2280
-4.6767	americanu	-0.2746
-4.9320	americany	-0.3853
-4.0995	americe	-0.2726
-4.3299	americka	-0.2790
-4.1258	americke	-0.2511
-4.5896	americkeho	-0.3383
-4.8528	americkou	-0.2338
-4.1258	americky	-0.3140
-4.4005	americkych	-0.2528
-4.7859	americkym	-0.0669
-4.9320	americti	-0.3979
-4.6767	amerika	-0.2249
-4.9320	ameriku	-0.2763
-4.4549	ameriky	-0.2021
-4.2330	amnestie	-0.2420
-4.4005	amnestii	-0.2659
-4.7279	analytik	-0.2254
-4.9320	analytika	-0.2969
-5.0289	analyz	-0.1897
-5.0289	analyza	-0.4109
-5.0289	analyzovat	-0.4101
-4.5896	analyzu	-0.1984
-4.4549	andrea	-0.5599
-4.4549	andrej	-0.7781
-4.6310	andreje	-0.8239
-4.9320	andrejem	-1.0000
-3.2788	anebo	-0.2181
-4.3757	angazma	-0.2966
-5.0289	angazovat	-0.2909
-4.7279	angela	-1.2041
-4.9320	angely	-1.0000
-4.3757	anglicky	-0.3239
-4.7859	anglictine	-0.2831
-4.9320	anglie	-0.3720
-4.8528	anglii	-0.2906
-2.9778	ani	-0.2463
-4.0995	aniz	-0.8679
-4.7859	anna
-4.9320	anny	-0.2107
-2.7290	ano	-0.5078
-5.0289	antibioticke	-0.2041
-4.7279	antibiotika	-0.2278
-4.8528	antonin	-0.2328
-4.9320	apel	-0.9925
-5.0289	apeloval	-0.5937
-4.6767	aplikace	-0.2150
-4.8528	aplikovat	-0.2233
-5.0289	apple	-0.2832
-4.9320	arabie	-0.3720
-5.0289	arabii	-0.2878
-4.8528	arabske	-0.2338
-4.6767	arabskych	-0.6529
-5.0289	architekt	-0.3004
-4.5896	architektury	-0.3006
-4.6767	archivech	-0.3348
-4.3087	archivu	-0.4363
-4.8528	areal	-0.2820
-4.4848	arealu	-0.1700
-4.6310	argument	-0.3158
-4.6767	argumentu	-0.2646
-5.0289	argumentuje	-0.2982
-4.4549	argumenty	-0.2998
-4.2885	armada	-0.2869
-4.9320	armade	-0.0828
-4.7859	armadu	-0.2751
-4.5518	armady	-0.2321
-4.7279	arnost	-0.1526
-4.9320	asad	-0.2873
-4.5518	asada	-0.2718
-2.7328	asi	-0.2873
-4.9320	asie	-0.2896
-4.7859	asii	-0.4152
-4.0512	asociace	-0.2441
-4.7859	asociaci	-0.3669
-4.9320	asociacni	-0.6989
-5.0289	aspekt	-0.2843
-5.0289	aspekty	-0.2987
-3.6767	aspon	-0.3096
-5.0289	asteroid	-0.2021
-5.0289	asteroidu	-0.1238
-3.2278	at	-0.8329
-4.9320	atentat	-0.2900
-4.7279	atentatu	-0.2529
-4.5518	atmosfera	-0.1994
-4.7859	atmosfere	-0.3653
-4.6767	atmosferu	-0.2613
-4.5518	atmosfery	-0.2694
-5.0289	atomove	-0.2041
-4.6767	atraktivni	-0.2716
-4.9320	audit	-0.2768
-4.6767	aukce	-0.1633
-4.5896	aut	-0.2610
-4.2160	auta	-0.2459
-4.6767	aute	-0.2131
-5.0289	autem	-0.2844
-4.0995	auto	-0.1910
-5.0289	autobusy	-0.2677
-4.2508	automaticky	-0.1459
-5.0289	automaty	-0.2704
-5.0289	automobilka	-0.1779
-4.5518	autor	-0.1737
-4.7859	autora	-0.2738
-4.7859	autorem	-0.1877
-4.8528	autoru	-0.2833
-4.7859	avizoval	-0.4227
-2.8851	az	-0.4816
-5.0289	azerbajdzan	-0.2818
-5.0289	azyl	-0.2924
-4.5896	b	-0.2896
-4.6767	babicka	-0.2808
-5.0289	babickou	-0.2811
-4.9320	babicky	-0.2047
-4.0512	babis	-0.2865
-4.5518	babise	-0.4333
-4.7859	babisem	-0.2918
-4.7859	bajecne	-0.2235
-5.0289	bakala	-0.4195
-5.0289	bakterie	-0.4201
-4.7859	bal	-0.3395
-5.0289	baleni	-0.2987
-4.9320	baletni	-0.1548
-5.0289	balik	-0.2851
-4.6767	balony	-0.3242
-4.8528	balvin	-0.2183
-4.9320	bance	-0.2099
-4.9320	banik	-0.3942
-4.7279	baniku	-0.3431
-4.3757	bank	-0.2730
-4.0747	banka	-0.2760
-4.9320	bankovek	-0.2853
-4.8528	bankovky	-0.0988
-4.3299	bankovni	-0.5437
-4.6767	bankovnictvi	-0.3304
-4.9320	bankovniho	-0.5228
-4.6767	bankrot	-0.3195
-4.8528	banku	-0.2696
-4.0512	banky	-0.2217
-4.3087	barack	-1.3221
-4.9320	baracka	-1.0000
-4.6767	barbora	-0.0248
-4.7279	bariery	-0.3351
-4.8528	barrandov	-0.2143
-4.7859	barta	-0.2122
-4.9320	barvu	-0.2708
-5.0289	barvy	-0.2851
-4.8528	basara	-1.0792
-4.5518	bat	-0.2903
-4.0182	bavi	-0.3449
-4.7279	bavil	-0.3390
-4.7859	bavila	-0.2822
-4.2885	bavili	-0.5282
-4.9320	bavilo	-0.2483
-4.0995	bavime	-0.6590
-3.9875	bavit	-0.4389
-4.8528	bavite	-0.2617
-5.0289	bavorsku	-0.2982
-5.0289	bazen	-0.2839
-4.5518	bbc	-0.2709
-4.6767	bedlive	-0.4530
-4.8528	beha	-0.3652
-3.6016	behem	-0.4132
-4.9320	behu	-0.2863
-4.1396	bejt	-0.2343
-4.9320	bellum	-0.3862
-5.0289	benedikt	-0.9031
-4.8528	benesova	-0.2100
-4.3087	bere	-0.2655
-4.9320	bereme	-0.2043
-4.7279	berete	-0.2830
-5.0289	berlina	-0.2864
-4.7859	berline	-0.3384
-4.9320	berlusconi	-0.3864
-4.9320	berlusconiho	-0.2196
-4.4268	berou	-0.3168
-4.8528	berounka	-0.2628
-4.4549	beru	-0.2823
-3.2618	bez	-0.3407
-4.8528	bezdomovce	-0.2852
-4.8528	bezdomovec	-0.2153
-4.4268	bezesporu	-0.2554
-4.3522	bezi	-0.1785
-5.0289	bezmala	-0.3001
-4.6310	bezna	-0.3972
-4.0995	bezne	-0.1861
-4.8528	bezneho	-0.1760
-4.7279	beznem	-0.5049
-5.0289	beznou	-0.0580
-4.5170	bezny	-0.3818
-4.5896	beznych	-0.1950
-4.5896	bezpeci	-0.1948
-5.0289	bezpecna	-0.2991
-4.3299	bezpecne	-0.3248
-4.9320	bezpecnejsi	-0.2109
-4.1125	bezpecnost	-0.3052
-4.1258	bezpecnosti	-0.3477
-4.1996	bezpecnostni	-0.3000
-4.5170	bezpecnostnich	-0.3214
-4.7279	bezpochyby	-0.2098
-4.7279	bezprostredne	-0.4167
-4.9320	bezprostredni	-0.3010
-4.8528	bile	-0.2319
-4.7859	bileho	-0.4328
-4.5896	bilkovin	-0.2383
-4.6767	bilkoviny	-0.1787
-4.9320	bilou	-0.2143
-4.9320	bily	-0.0458
-4.7859	bis	-0.2104
-4.9320	bitva	-0.2677
-4.7859	blaha	-0.4179
-4.6767	blanka	-0.2076
-5.0289	blazek	-0.1849
-4.7279	blazen	-0.4154
-4.8528	blbost	-0.3603
-5.0289	blesky	-0.1987
-4.8528	bliz	-0.2778
-4.6767	blizi	-0.2128
-5.0289	blizici	-0.4150
-4.9320	blizka	-0.2151
-4.6310	blizke	-0.2412
-4.8528	blizkeho	-0.2946
-4.7859	blizkem	-0.8450
-4.2885	blizko	-0.2758
-4.9320	blizkost	-0.2199
-4.5518	blizkosti	-0.2314
-5.0289	blizkovychodni	-0.1943
-4.7279	blizsi	-0.1728
-4.7859	blok	-0.2353
-4.6310	bloku	-0.2015
-4.7859	bod	-0.3552
-4.9320	bodech	-0.2771
-4.5170	bodu	-0.2923
-4.3087	body	-0.2652
-4.9320	bohata	-0.2836
-4.7859	bohate	-0.2419
-5.0289	bohati	-0.1896
-4.8528	bohatstvi	-0.2887
-5.0289	bohaty	-0.2022
-4.9320	bohosluzby	-0.0751
-4.2330	bohuslav	-0.9208
-4.5170	bohuslava	-0.7023
-3.3638	bohuzel	-0.3047
-4.1686	boj	-0.4883
-4.5518	boje	-0.2887
-4.2160	boji	-0.4030
-4.5896	bojim	-0.7188
-4.9320	bojovali	-0.3846
-4.3757	bojovat	-0.3851
-4.8528	bojs	-0.2854
-4.6767	bojuje	-0.2640
-4.9320	bokem	-0.2823
-4.9320	boku	-0.2756
-4.9320	boleslavi	-0.3849
-4.9320	bolest	-0.2972
-4.5518	bolesti	-0.2310
-4.4549	boli	-0.3327
-5.0289	bomba	-0.1165
-5.0289	boom	-0.2742
-4.6767	bosakova	-0.3880
-4.9320	boty	-0.2866
-4.9320	bourani	-0.2979
-4.7859	bouri	-0.2744
-4.9320	bourka	-0.2903
-4.9320	bradacova	-0.2681
-4.6767	bral	-0.2337
-4.8528	brala	-0.1712
-4.7859	brali	-0.2960
-4.9320	bralo	-0.3797
-4.9320	brambory	-0.2819
-4.6767	brani	-0.1276
-4.5518	branit	-0.3017
-4.9320	brano	-0.2804
-4.1258	brat	-0.3011
-4.8528	bratr	-0.1136
-4.6767	bratri	-0.1087
-4.7859	bratrstva	-0.2750
-4.7859	bratrstvo	-0.1767
-4.6310	brehu	-0.2340
-5.0289	brehule	-0.2991
-4.6767	brezna	-0.2326
-4.9320	breznu	-0.2844
-4.5170	brisni	-0.1718
-4.2508	britanie	-0.2536
-4.4848	britanii	-0.3127
-4.7279	britove	-0.2323
-5.0289	britska	-0.4258
-4.3757	britske	-0.3411
-4.7279	britskeho	-0.1604
-4.6767	britsky	-0.2541
-4.9320	britskych	-0.2217
-4.2160	brna	-0.3509
-4.1538	brne	-0.2938
-4.7859	brnenske	-0.1461
-4.2692	brno	-0.3336
-4.8528	bronislav	-0.2341
-5.0289	broz	-0.1860
-5.0289	bruntalsku	-0.2787
-4.9320	brusel	-0.2752
-4.2160	bruselu	-0.2704
-5.0289	bryle	-0.2869
-4.5896	brzo	-0.1485
-4.3757	brzy	-0.2508
-3.6266	bud	-0.1999
-2.5194	bude	-0.1970
-5.0289	bude-li	-0.1121
-4.8528	budejovic	-0.2097
-4.6767	budejovice	-0.2625
-4.6767	budejovicich	-0.3050
-4.6767	budem	-0.2167
-3.1948	budeme	-0.4515
-3.6016	budete	-0.3180
-4.9320	budi	-0.3000
-3.0289	budou	-0.1869
-4.1838	budouci	-0.2493
-4.7859	budoucich	-0.3008
-4.9320	budoucim	-0.0969
-4.2160	budoucna	-0.2246
-4.2692	budoucnost	-0.2069
-4.1538	budoucnosti	-0.2413
-4.3299	budoucnu	-0.2043
-4.5896	budov	-0.3327
-4.7279	budova	-0.2312
-5.0289	budove	-0.2982
-5.0289	budovou	-0.1915
-4.5170	budovu	-0.2379
-4.4549	budovy	-0.2822
-4.8528	budte	-0.2314
-4.2692	budto	-0.1529
-3.5446	budu	-0.3428
-4.9320	buduje	-0.3871
-4.5896	buh	-0.2828
-5.0289	bunek	-0.2741
-4.9320	bunky	-0.3636
-5.0289	bush	-0.3000
-2.2500	by	-0.5599
-2.7328	bych	-0.5651
-3.2985	bychom	-0.5574
-4.8528	bydlel	-0.3540
-4.8528	bydleli	-0.2088
-4.2692	bydleni	-0.2901
-4.9320	bydlet	-0.2877
-4.3087	bydli	-0.4655
-2.6194	byl	-0.2265
-2.7322	byla	-0.1898
-3.1467	byli	-0.1966
-2.6336	bylo	-0.3008
-3.0616	byly	-0.1825
-4.8528	bys	-0.2979
-3.9497	bysme	-0.4178
-3.3321	byste	-0.3304
-2.6738	byt	-0.1082
-4.5170	byte	-0.2622
-4.7279	bytech	-0.2832
-4.4005	byti	-0.1585
-4.2692	bytu	-0.3324
-4.5518	byty	-0.2024
-3.9975	byva	-0.1583
-4.6310	byvaji	-0.1186
-4.9320	byval	-0.2988
-4.5170	byvala	-0.2881
-4.4005	byvale	-0.2089
-4.3522	byvaleho	-0.2176
-4.6767	byvali	-0.3009
-5.0289	byvalo	-0.1126
-4.0077	byvaly	-0.4439
-4.5518	byvalym	-0.1014
-4.9320	byvalymi	-0.0950
-4.4549	byznys	-0.2959
-4.7279	byznysu	-0.2806
-4.6767	c	-0.1069
-5.0289	cais	-0.2814
-4.8528	caj	-0.2267
-4.9320	caje	-0.3767
-4.9320	cajthamlovou	-0.2839
-4.9320	cameron	-0.1331
-4.9320	cannes	-0.2782
-4.5896	canova	-0.3306
-3.5071	cas	-0.3368
-4.3522	case	-0.3003
-4.4848	casem	-0.1970
-4.6767	casopisu	-0.1305
-4.8528	casove	-0.1501
-5.0289	casovem	-0.2037
-4.7279	casovy	-0.1582
-3.4463	cast	-0.2613
-4.8528	caste	-0.2679
-4.5518	castech	-0.2509
-4.0512	castecne	-0.1234
-4.4268	casteji	-0.3042
-3.5856	casti	-0.2638
-5.0289	castic	-0.4091
-5.0289	castice	-0.1915
-4.1686	castka	-0.2776
-4.5518	castku	-0.2717
-4.5170	castky	-0.3128
-3.3192	casto	-0.1836
-3.8675	casu	-0.2827
-4.7859	casy	-0.2164
-4.9320	cd	-0.2935
-4.9320	cdu	-0.1417
-4.1996	cech	-0.4789
-5.0289	cecha	-0.2827
-4.0869	cechach	-0.3281
-4.5518	cechu	-0.2761
-4.5518	cechy	-0.2640
-4.8528	cedule	-0.2619
-4.0869	ceho	-0.3344
-3.7921	ceka	-0.3283
-4.4268	cekaji	-0.3339
-4.6767	cekal	-0.4559
-4.8528	cekali	-0.2829
-5.0289	cekalo	-0.2999
-5.0289	cekam	-0.2808
-4.5518	cekame	-0.4241
-4.0747	cekat	-0.4365
-5.0289	cekate	-0.2890
-3.6965	cela	-0.4319
-3.4406	cele	-0.3043
-4.1396	celeho	-0.5237
-4.2692	celej	-0.5433
-4.9320	celek	-0.2759
-4.1125	celem	-0.3881
-5.0289	celemu	-0.1249
-4.8528	celit	-0.2252
-3.7985	celkem	-0.2344
-4.1396	celkove	-0.1636
-5.0289	celkovou	-0.2040
-4.7279	celkovy	-0.3006
-4.9320	celostatni	-0.3977
-4.7859	celosvetove	-0.2314
-3.6865	celou	-0.4863
-4.8528	celozivotni	-0.2233
-3.4607	cely	-0.5290
-4.7859	celych	-0.3001
-4.5896	celym	-0.1363
-3.7333	cem	-0.4953
-5.0289	cemkoliv	-0.2971
-4.0182	cemu	-0.3659
-4.4848	cen	-0.2760
-3.9778	cena	-0.3297
-4.7859	cenach	-0.2043
-4.5170	cene	-0.2300
-4.9320	cenne	-0.2144
-4.7859	cenou	-0.2294
-4.6767	center	-0.2262
-4.2692	centimetru	-0.3838
-4.0747	centra	-0.1662
-4.4848	centralni	-0.4055
-4.9320	centralniho	-0.3009
-5.0289	centrem	-0.1248
-4.2330	centru	-0.3019
-4.0289	centrum	-0.2731
-3.7617	cenu	-0.2297
-4.0077	ceny	-0.2424
-4.7859	cerna	-0.0793
-4.5170	cerne	-0.1255
-4.8528	cernou	-0.1107
-4.6310	cerny	-0.2087
-5.0289	cernych	-0.1249
-4.6767	cerpani	-0.4032
-4.9320	cerpat	-0.2923
-4.7859	cerstve	-0.0931
-4.8528	cervena	-0.1673
-4.5518	cervence	-0.4413
-4.8528	cervenci	-0.1736
-5.0289	cervene	-0.1228
-4.9320	cervenych	-0.3009
-4.3522	cervna	-0.3505
-4.6767	cervnu	-0.2010
-4.2692	cesi	-0.2741
-3.5482	ceska	-0.5456
-3.0289	ceske	-0.6895
-3.3150	ceskeho	-0.6932
-4.0995	ceskem	-0.3546
-4.9320	ceskemu	-0.0453
-4.2692	cesko	-0.2294
-4.4848	ceskoslovenska	-0.2086
-4.7859	ceskoslovenske	-0.3674
-4.8528	ceskoslovensko	-0.2971
-4.7859	ceskoslovensku	-0.3335
-3.8049	ceskou	-0.4428
-3.9589	cesku	-0.1844
-3.4241	cesky	-0.4327
-3.6816	ceskych	-0.3387
-4.1396	ceskym	-0.1661
-4.7279	ceskymi	-0.0579
-4.2508	cest	-0.2765
-3.9408	cesta	-0.2816
-4.5518	cestach	-0.2330
-4.3087	ceste	-0.3113
-4.2160	cesti	-0.1915
-5.0289	cestina	-0.2977
-4.4549	cestine	-0.2901
-4.1686	cestou	-0.2040
-4.5896	cestovani	-0.2481
-4.5170	cestovni	-0.8111
-4.0869	cestu	-0.2536
-4.0399	cesty	-0.3288
-4.3522	cetl	-0.3318
-4.6767	cetla	-0.2745
-4.9320	cetli	-0.3886
-4.9320	cetnost	-0.1511
-4.9320	cev	-0.2825
-4.7859	cevni	-0.5440
-4.7859	cez	-0.1171
-4.7859	cezu	-0.2598
-4.9320	chalupe	-0.2958
-4.7859	chalupu	-0.2584
-5.0289	chalupy	-0.2798
-4.9320	chaos	-0.2824
-4.6310	chapat	-0.3769
-5.0289	chape	-0.2836
-5.0289	chapete	-0.4092
-4.9320	chapou	-0.3714
-4.1258	chapu	-0.4503
-4.9320	charakter	-0.2182
-4.9320	charity	-0.2957
-4.7279	chatu	-0.4061
-3.4434	chce	-0.2455
-3.8114	chceme	-0.2454
-3.8181	chcete	-0.2622
-3.6914	chci	-0.4837
-4.6767	chemicke	-0.4085
-4.9320	chemickych	-0.5228
-4.8528	chemie	-0.4625
-4.9320	chirurg	-0.2995
-4.9320	chladne	-0.2805
-5.0289	chlapce	-0.1869
-4.8528	chlapci	-0.2671
-5.0289	chlapec	-0.2733
-5.0289	chlapi	-0.2617
-4.5170	chleba	-0.3292
-4.0289	chodi	-0.3572
-4.4848	chodil	-0.4764
-4.6767	chodila	-0.3826
-4.4549	chodili	-0.2530
-5.0289	chodilo	-0.2875
-5.0289	chodily	-0.2884
-4.4005	chodim	-0.2840
-4.1258	chodit	-0.3215
-4.6767	chodniku	-0.2632
-4.7859	chodniky	-0.2308
-4.7859	chodorkovskeho	-0.4329
-4.9320	chodorkovskij	-0.2760
-4.6767	chorob	-0.3765
-5.0289	chorobou	-0.4229
-4.6310	choroby	-0.2891
-4.5896	chova	-0.2642
-4.8528	chovaji	-0.1550
-4.7859	choval	-0.3580
-5.0289	chovala	-0.2021
-4.2692	chovani	-0.2958
-4.5170	chovat	-0.2701
-4.8528	chraneni	-0.2729
-4.9320	chrani	-0.2820
-4.5518	chranit	-0.4018
-5.0289	chripka	-0.2716
-4.7859	chromosomy	-0.4318
-3.6353	chteji	-0.2334
-3.4696	chtel	-0.3550
-3.6181	chtela	-0.5023
-3.7445	chteli	-0.2665
-4.6767	chtelo	-0.2975
-5.0289	chtely	-0.2863
-3.8386	chtit	-0.2570
-5.0289	chudobou	-0.2828
-4.8528	chudoby	-0.3452
-4.1838	chut	-0.2624
-5.0289	chutnalo	-0.2847
-4.3757	chvile	-0.3079
-3.1716	chvili	-0.2440
-4.8528	chvilich	-0.2927
-5.0289	chvilickou	-0.3000
-4.5896	chvilicku	-0.2390
-4.6310	chvilkou	-0.2414
-4.1538	chvilku	-0.2636
-4.9320	chyb	-0.2047
-4.1686	chyba	-0.3384
-4.9320	chybejici	-0.2217
-3.9150	chybi	-0.3137
-4.2692	chybu	-0.2576
-4.5170	chyby	-0.2329
-4.3757	chysta	-0.2008
-4.8528	chystaji	-0.2143
-4.9320	chystate	-0.3700
-3.6016	ci	-0.2061
-5.0289	cibule	-0.4135
-5.0289	cigaretu	-0.4058
-4.6767	cigarety	-0.3035
-4.4268	cil	-0.2344
-4.3757	cile	-0.3095
-4.2330	cilem	-0.4941
-4.7859	cilene	-0.1815
-3.1671	cili	-0.2890
-3.5272	cim	-0.5770
-4.4549	cimz	-0.3057
-4.6767	cin	-0.2757
-4.5170	cina	-0.2159
-4.4848	cine	-0.2922
-4.7859	cini	-0.2895
-4.8528	cinit	-0.4516
-4.1258	cinnost	-0.2971
-4.0289	cinnosti	-0.2443
-5.0289	cinou	-0.1878
-4.9320	cinska	-0.2198
-4.8528	cinske	-0.2338
-5.0289	cinsky	-0.1898
-4.4005	cinu	-0.1935
-4.1838	ciny	-0.2746
-4.2508	cirkev	-0.1935
-4.5170	cirkevni	-0.7158
-4.9320	cirkevnich	-0.3010
-4.2330	cirkve	-0.2566
-4.9320	cirkvemi	-0.2765
-4.4848	cirkvi	-0.1780
-4.6310	cisel	-0.2609
-4.0077	cisla	-0.3561
-5.0289	cisle	-0.2018
-4.6767	cislech	-0.4510
-3.8316	cislo	-0.3647
-4.2330	cist	-0.2901
-5.0289	cista	-0.3010
-4.0182	ciste	-0.2310
-5.0289	cisteho	-0.3009
-4.9320	cisteni	-0.2135
-5.0289	cisty	-0.2032
-5.0289	cistym	-0.1246
-4.8528	citace	-0.2172
-4.2508	citi	-0.3557
-4.7859	citil	-0.3398
-4.4549	citim	-0.3871
-4.5896	citit	-0.2402
-4.4549	citite	-0.3813
-4.9320	citliva	-0.2932
-4.7279	citlive	-0.1484
-4.5518	citoval	-0.3504
-5.0289	citovat	-0.2967
-5.0289	citove	-0.1186
-4.4549	cituji	-0.3471
-5.0289	civilni	-0.3008
-4.5896	cizi	-0.1620
-5.0289	ciziho	-0.6020
-4.7279	cizinci	-0.1435
-4.9320	cizine	-0.2884
-4.4268	clanek	-0.2364
-4.4268	clanku	-0.2700
-4.3522	clen	-0.2111
-4.7279	clena	-0.2836
-4.3757	clenem	-0.3089
-4.9320	clenka	-0.2211
-4.1996	clenove	-0.2733
-4.6310	clenske	-0.5225
-4.8528	clenstvi	-0.3377
-4.1838	clenu	-0.3798
-5.0289	clenum	-0.2039
-4.4848	cleny	-0.2385
-2.9787	clovek	-0.3413
-3.6625	cloveka	-0.3557
-4.4005	clovekem	-0.3093
-4.3757	cloveku	-0.2034
-2.3092	co	-0.5641
-4.6767	coby	-0.1091
-4.5170	cokoli	-0.2055
-4.2508	cokoliv	-0.3506
-4.5896	com	-0.3591
-4.5518	cosi	-0.3199
-3.0322	coz	-0.7786
-4.9320	cr	-0.2004
-4.1996	csl	-0.2682
-3.6353	cssd	-0.3168
-4.9320	cte	-0.2787
-4.8528	cteme	-0.1610
-4.8528	ctenari	-0.2117
-5.0289	ctenaru	-0.1956
-4.7859	cteni	-0.3243
-4.8528	ctete	-0.2903
-4.9320	ctou	-0.1297
-3.8751	ctrnact	-0.4520
-4.7859	ctrnacteho	-0.2288
-4.6310	ctrnacti	-0.4529
-4.7279	ctu	-0.2738
-4.5170	ctvrt	-0.3017
-4.5170	ctvrte	-0.3506
-4.3757	ctvrtek	-0.2453
-4.9320	ctvrtfinale	-0.1339
-5.0289	ctvrti	-0.1798
-4.9320	ctvrtleti	-0.2067
-4.6767	ctvrty	-0.2520
-4.2160	ctyr	-0.4096
-4.6767	ctyrech	-0.3518
-3.3256	ctyri	-0.4036
-4.7859	ctyriadvacet	-0.6683
-3.6442	ctyricet	-0.6159
-4.2160	ctyriceti	-0.3204
-4.9320	ctyrikrat	-0.1395
-4.6310	ctyrmi	-0.2216
-4.9320	cukr	-0.2814
-4.7859	cukrovka	-0.3430
-4.8528	cukru	-0.3658
-4.4005	cviceni	-0.2469
-4.7279	cvicit	-0.2719
-5.0289	cyklu	-0.2764
-4.7279	cyklus	-0.1769
-5.0289	cyril	-0.2869
-5.0289	cysty	-0.1163
-3.8456	cz	-0.3479
-4.5896	d	-0.3720
-3.2127	da	-0.5079
-4.8528	dabing	-0.1989
-5.0289	dagestanu	-0.2005
-4.7859	dagmar	-0.0215
-3.9408	daji	-0.2522
-3.2177	dal	-0.3303
-4.1686	dala	-0.2499
-3.2655	dale	-0.5165
-3.5935	daleko	-0.3967
-4.1538	dali	-0.3472
-4.8528	dalibor
-4.9320	dalku	-0.2886
-4.6310	dalnic	-0.3153
-4.3757	dalnice	-0.2538
-3.8751	dalo	-0.4299
-2.9329	dalsi	-0.1974
-3.4756	dalsich	-0.2620
-4.1125	dalsiho	-0.2373
-3.9150	dalsim	-0.2101
-4.3522	dalsimi	-0.1453
-4.7279	dalsimu	-0.3586
-5.0289	daly	-0.2878
-4.4848	dam	-0.2380
-4.6767	dama	-0.3779
-4.7859	damasku	-0.1626
-4.1686	dame	-0.4324
-4.5170	damy	-0.3432
-4.4268	dan	-0.3640
-4.4549	dana	-0.1205
-3.9150	dane	-0.2862
-5.0289	daneho	-0.3002
-4.2692	dani	-0.2301
-4.5896	daniel	-0.1963
-4.5896	daniela	-0.0162
-5.0289	dankova	-0.4259
-4.3299	dano	-0.4808
-4.9320	danou	-0.3976
-4.2508	danove	-0.3191
-4.7859	danoveho	-0.2429
-4.9320	danovy	-0.3978
-4.4848	danovych	-0.3680
-4.5896	dany	-0.2596
-5.0289	dar	-0.1929
-4.9320	darce	-0.1423
-5.0289	darcu	-0.1138
-4.4848	darek	-0.2743
-3.9682	dari	-0.3947
-4.7279	darilo	-0.2829
-4.8528	darky	-0.2783
-5.0289	darovat	-0.2002
-3.6816	dat	-0.1769
-4.2692	data	-0.3330
-4.4005	date	-0.2996
-4.7859	datum	-0.2270
-3.8986	dava	-0.2820
-4.3087	davaji	-0.2078
-4.5896	daval	-0.2894
-4.8528	davali	-0.3670
-4.7279	davam	-0.4166
-4.6310	davame	-0.2842
-3.9408	davat	-0.3173
-4.6767	davate	-0.2931
-4.5896	davek	-0.3465
-4.1996	david	-0.2300
-4.7279	davida	-0.1627
-4.9320	davidem
-4.9320	davku	-0.2107
-4.5170	davky	-0.3546
-4.0995	davno	-0.2092
-4.6310	dcera	-0.2874
-4.9320	dcerou	-0.2803
-4.8528	dceru	-0.2725
-4.1686	de	-0.4624
-4.5518	debata	-0.3584
-4.5170	debate	-0.3179
-4.5518	debatovat	-0.4402
-4.5518	debatu	-0.3106
-4.1838	debaty	-0.2770
-4.9320	decina	-0.2195
-4.9320	decine	-0.2784
-4.9320	decka	-0.2674
-5.0289	deda	-0.2971
-4.6767	deficit	-0.2351
-5.0289	definice	-0.1921
-4.6767	definitivne	-0.2108
-4.6310	definitivni	-0.1472
-4.8528	dej	-0.4723
-3.7617	deje	-0.3896
-4.9320	dejepisu	-0.2628
-4.6767	deji	-0.3061
-4.4848	dejin	-0.3293
-4.7859	dejinach	-0.1861
-4.4848	dejiny	-0.2791
-3.7067	dejme	-1.7468
-4.9320	dejte	-0.2187
-5.0289	dekuje	-0.4145
-3.6310	dekujeme	-0.7987
-3.3499	dekuji	-0.8764
-3.6578	dekuju	-0.7078
-5.0289	del	-0.2004
-3.5628	dela	-0.1908
-3.8386	delaji	-0.2491
-3.8601	delal	-0.1568
-4.3299	delala	-0.2803
-4.0512	delali	-0.2666
-4.8528	delalo	-0.2194
-4.5518	delaly	-0.3979
-4.0747	delam	-0.2274
-4.1686	delame	-0.2031
-3.2749	delat	-0.3271
-4.2160	delate	-0.2798
-4.3087	dele	-0.4629
-4.9320	delejte	-0.6861
-4.4848	delo	-0.3219
-4.1686	delsi	-0.5574
-4.7859	dely	-0.3393
-4.3522	demisi	-0.3189
-3.5741	demokracie	-0.2818
-3.9778	demokracii	-0.2763
-4.1996	demokrate	-0.2827
-4.5170	demokraticka	-0.4096
-4.5170	demokraticke	-0.3722
-4.5896	demokraticky	-0.2626
-4.8528	demokratickych	-0.3008
-4.5170	demokratu	-0.3047
-4.7859	demokraty	-0.3432
-4.4848	demonstrace	-0.2962
-4.5518	demonstraci	-0.1997
-4.6767	demonstranti	-0.2318
-4.9320	demonstrantu	-0.2880
-5.0289	demonstrantum	-0.2781
-2.8594	den	-0.6109
-4.2160	deni	-0.6561
-4.9320	denik	-0.2206
-4.6310	deniku	-0.2053
-4.9320	deniky	-0.2854
-4.0747	denne	-0.2741
-4.3087	desate	-0.7558
-4.9320	desateho	-0.3001
-5.0289	desaty	-0.2991
-3.4241	deset	-0.4429
-3.7736	deseti	-0.4747
-4.6310	desetileti	-0.2797
-4.9320	desetinu	-0.3004
-4.6310	desetitisice	-0.3319
-4.2330	desitek	-0.3718
-5.0289	desitkami	-0.1240
-3.9150	desitky	-0.3825
-4.7859	deska	-0.2785
-4.8528	desku	-0.2562
-4.6310	desky	-0.2516
-4.6767	dest	-0.1804
-5.0289	deste	-0.4119
-4.9320	detailne	-0.2981
-4.9320	detailni	-0.2205
-4.7859	detaily	-0.2624
-5.0289	detech	-0.2969
-4.1258	detem	-0.2212
-3.2061	deti	-0.3044
-4.2330	detmi	-0.3709
-4.6310	detske	-0.1248
-4.8528	detsky	-0.3801
-4.1686	detstvi	-0.3211
-3.7389	devadesat	-0.5781
-4.4005	devadesati	-0.3692
-4.0628	devadesatych	-1.3892
-4.7279	devate	-0.3549
-3.6442	devatenact	-1.3241
-4.4848	devatenacteho	-0.5874
-4.9320	devatenactou	-0.6989
-3.3709	devet	-0.3423
-4.4005	deviti	-0.1953
-4.7279	dialog	-0.2223
-4.9320	dialogu	-0.3814
-4.9320	dialyza	-0.1920
-5.0289	diety	-0.4194
-4.9320	digitalni	-0.2110
-3.2730	diky	-0.5785
-4.7859	dil	-0.2049
-4.4005	dila	-0.1896
-4.9320	dilech	-0.1473
-4.6310	dilem	-0.2733
-4.4848	dilo	-0.1740
-4.7279	dilu	-0.2214
-4.7859	dinosauri	-0.2805
-4.6310	diplomacie	-0.2321
-4.9320	diplomat	-0.2938
-5.0289	diplomaticke	-0.3010
-5.0289	diplomatickou	-0.2844
-4.7859	disciplina	-0.1649
-4.9320	diskriminaci	-0.2867
-4.2692	diskuse	-0.2720
-4.2160	diskusi	-0.3312
-5.0289	diskutovali	-0.1962
-4.1125	diskutovat	-0.4634
-4.8528	diskutuje	-0.2017
-4.9320	diskutujeme	-0.2661
-4.9320	diskutuji	-0.3900
-5.0289	diskuze	-0.1890
-5.0289	disponuje	-0.1245
-4.1258	dispozici	-0.2478
-5.0289	dit	-0.2831
-3.6310	dite	-0.2266
-4.4848	ditete	-0.2590
-4.7859	ditetem	-0.2740
-4.7859	diteti	-0.2193
-4.4549	diva	-0.5419
-4.4848	divaci	-0.3186
-4.9320	divadel	-0.2800
-4.5170	divadelni	-0.2107
-3.9234	divadla	-0.2595
-4.0182	divadle	-0.2085
-4.8528	divadlech	-0.3654
-4.9320	divadlem	-0.3727
-3.8828	divadlo	-0.2789
-4.7279	divak	-0.1460
-4.9320	divaku	-0.2000
-5.0289	divakum	-0.5879
-4.9320	divaky	-0.3752
-4.6767	dival	-0.4525
-4.9320	divala	-0.3714
-4.8528	divali	-0.3468
-4.5170	divam	-0.4058
-5.0289	divame	-0.5834
-4.2508	divat	-0.3590
-4.4549	divate	-0.5756
-5.0289	divim	-0.2777
-4.9320	divit	-0.2813
-5.0289	divka	-0.3906
-4.7279	divky	-0.1725
-4.7859	divne	-0.3611
-4.6310	dle	-0.3447
-4.1996	dlouha	-0.5602
-4.2692	dlouhe	-0.3679
-4.9320	dlouheho	-0.2217
-3.4549	dlouho	-0.2333
-4.8528	dlouhodoba	-0.3008
-3.9150	dlouhodobe	-0.1501
-4.9320	dlouhodobejsi	-0.2869
-5.0289	dlouhodobou	-0.1219
-4.7859	dlouhodoby	-0.1854
-4.8528	dlouholety	-0.2339
-4.3299	dlouhou	-0.6988
-4.4848	dlouhy	-0.2550
-4.4848	dluh	-0.2839
-4.7279	dluhu	-0.2981
-4.5518	dluhy	-0.2771
-4.8528	dluzno	-0.3789
-4.6767	dna	-0.3069
-3.9408	dne	-0.2342
-3.9875	dnech	-0.2057
-4.6310	dnem	-0.1190
-2.9067	dnes	-0.2674
-4.6767	dnesek	-0.3248
-3.1327	dneska	-0.2609
-5.0289	dneskem	-0.2905
-3.4817	dnesni	-0.4333
-4.1258	dnesnich	-0.7642
-3.7559	dnesniho	-0.6167
-3.8601	dnesnim	-0.7695
-4.9320	dnesnimu	-0.3009
-3.8986	dni	-0.2214
-4.0995	dnu	-0.2584
-3.8751	dny	-0.3096
-2.2782	do	-0.4400
-4.7279	dob	-0.2440
-3.9778	doba	-0.3225
-4.8528	dobach	-0.2051
-3.1582	dobe	-0.2417
-5.0289	dobes	-0.2873
-4.4549	dobou	-0.2726
-3.9234	dobra	-0.3465
-5.0289	dobrat	-0.2952
-2.8201	dobre	-0.3044
-4.4005	dobreho	-0.1575
-4.7279	dobrej	-0.2273
-4.7279	dobrem	-0.2390
-4.8528	dobri	-0.1928
-4.8528	dobrodruzstvi	-0.2123
-4.2330	dobrou	-0.3732
-5.0289	dobrovolna	-0.1933
-4.7279	dobrovolne	-0.1889
-4.7859	dobrovolnici	-0.3417
-4.7859	dobrovolniku	-0.2661
-4.9320	dobrovolniky	-0.2776
-2.7594	dobry	-1.1452
-4.7859	dobrych	-0.0951
-4.5518	dobrym	-0.0865
-3.5204	dobu	-0.3228
-3.6442	doby	-0.3081
-4.5518	docasne	-0.1431
-3.3757	docela	-0.2380
-4.6767	docent	-0.2903
-4.7279	docente	-0.2414
-4.9320	docetl	-0.3795
-5.0289	docetla	-0.4084
-4.6310	dochazelo	-0.5921
-4.6767	dochazet	-0.3791
-3.9497	dochazi	-0.6507
-5.0289	dockat	-0.2936
-4.6767	dodal	-0.3967
-4.8528	dodala	-0.4560
-4.9320	dodam	-0.3869
-4.8528	dodat	-0.3691
-4.8528	dodatecne	-0.2209
-4.3299	dodava	-0.3422
-4.9320	dodavateli	-0.2921
-5.0289	dodavatelu	-0.2885
-4.2330	dodnes	-0.2753
-4.8528	dodrzet	-0.2779
-4.7279	dodrzovat	-0.2836
-4.9320	dohled	-0.3893
-4.9320	dohledne	-0.9997
-5.0289	dohlidnout	-0.5928
-5.0289	dohlizet	-0.2790
-5.0289	dohlizi	-0.2829
-4.1686	dohoda	-0.3833
-4.7279	dohode	-0.2782
-5.0289	dohodl	-0.2898
-4.6767	dohodli	-0.5325
-4.9320	dohodnou	-0.3732
-4.4848	dohodnout	-0.3236
-4.4005	dohodu	-0.2827
-4.3087	dohody	-0.2244
-3.9778	dohromady	-0.3297
-3.9234	dojde	-0.6330
-4.9320	dojdou	-0.2968
-4.3087	dojem	-0.4359
-4.0182	dojit	-0.5133
-5.0289	dojmem	-0.2753
-4.3757	dokazal	-0.2360
-4.7279	dokazala	-0.2964
-4.3299	dokazali	-0.2134
-4.6767	dokazat	-0.5271
-4.0289	dokaze	-0.1303
-4.6310	dokazeme	-0.2996
-4.7279	dokazete	-0.2356
-4.5518	dokazi	-0.1856
-4.4549	dokazou	-0.2261
-4.6310	dokazu	-0.3257
-5.0289	dokazuje	-0.4049
-5.0289	dokazuji	-0.2765
-4.6310	doklady	-0.2804
-4.7279	dokonale	-0.1462
-4.9320	dokonaly	-0.2803
-3.2581	dokonce	-0.2091
-4.7859	dokonceni	-0.1917
-4.8528	dokoncit	-0.2727
-5.0289	dokoupil	-0.4153
-3.9778	doktor	-0.2642
-4.3087	doktora	-0.1635
-4.3299	doktore	-0.4051
-4.6767	doktorem	-0.1089
-4.3757	doktorka	-0.2763
-4.3522	doktorko	-0.3514
-4.6767	doktorkou	-0.4102
-4.9320	doktorku	-0.1401
-4.7859	doktorky	-0.3680
-4.2692	dokud	-0.2421
-4.6767	dokument	-0.2061
-4.7859	dokumentace	-0.4118
-4.3299	dokumentu	-0.2745
-4.3087	dokumenty	-0.2291
-4.7279	dolar	-0.3271
-4.3522	dolaru	-0.3145
-4.4005	dole	-0.3989
-4.6767	dolni	-0.2133
-5.0289	dolnich
-4.7859	dolnim	-0.3539
-4.0747	dolu	-0.4815
-3.6767	doma	-0.2635
-4.1125	domaci	-0.1978
-4.8528	domacich	-0.2301
-4.8528	domaciho	-0.2331
-4.4848	domacim	-0.2143
-5.0289	domacnost	-0.2653
-4.3299	domacnosti	-0.4082
-4.4549	dome	-0.3284
-4.8528	domecek	-0.2082
-4.8528	domech	-0.3552
-5.0289	domem	-0.4089
-5.0289	dominantni	-0.2041
-4.7859	domluvil	-0.3519
-5.0289	domluvili	-0.3974
-4.5518	domluvit	-0.4335
-4.9320	domnenka	-0.2418
-4.0512	domnivam	-1.0771
-4.6767	domnivame	-0.7551
-4.5896	domov	-0.3196
-4.5518	domova	-0.2703
-4.9320	domovu	-0.2026
-5.0289	domovy	-0.2901
-3.7119	domu	-0.2732
-4.1686	domy	-0.3181
-5.0289	donedavna	-0.2021
-4.1396	doopravdy	-0.2110
-4.2885	dopad	-0.4499
-4.7859	dopadl	-0.1796
-4.3522	dopadlo	-0.2709
-4.9320	dopadly	-0.3787
-4.3757	dopadne	-0.2779
-4.7279	dopadnou	-0.2149
-4.6310	dopadnout	-0.3214
-4.7859	dopady	-0.2765
-4.7279	dopis	-0.2293
-4.9320	doplnil	-0.2738
-5.0289	doplnim	-0.4125
-4.6310	doplnit	-0.2701
-5.0289	doplnovat	-0.2867
-3.8986	dopoledne	-0.4945
-4.1125	dopoledni	-1.1199
-3.8386	dopoledniho	-1.4910
-4.6767	dopolednim	-1.2550
-4.2692	doporuceni	-0.2167
-4.6310	doporucil	-0.2561
-4.5170	doporucila	-0.2148
-4.9320	doporucit	-0.2091
-4.8528	doporucoval	-0.2949
-4.8528	doporucuje	-0.2899
-4.6310	doporucuji	-0.1980
-4.8528	doporucuju	-0.0782
-4.4848	doposud	-0.2381
-4.4268	doprava	-0.1841
-4.8528	doprave	-0.2682
-4.0077	dopravni	-0.3110
-4.7279	dopravnich	-0.3590
-4.9320	dopravniho	-0.6989
-4.8528	dopravnim	-0.0791
-4.5896	dopravou	-0.3245
-4.3522	dopravu	-0.3614
-3.9320	dopravy	-0.3036
-3.9150	dopredu	-0.2309
-4.9320	doprovodny	-0.6989
-4.9320	dopustil	-0.2187
-4.8528	dorazi	-0.2789
-4.5896	dorazin	-0.3166
-4.7279	dosah	-0.2958
-5.0289	dosahla	-0.1881
-4.9320	dosahli	-0.3000
-4.9320	dosahne	-0.2977
-4.3522	dosahnout	-0.3296
-4.7859	dosahuje	-0.2955
-4.3299	dosavadni	-0.2889
-4.9320	dosavadnich	-0.1549
-4.7859	dosla	-0.2004
-5.0289	dosli	-0.2836
-3.7333	doslo	-0.5627
-4.3522	doslova	-0.1665
-4.7859	dospel	-0.6606
-4.9320	dospele	-0.2925
-5.0289	dospeleho	-0.3000
-4.8528	dospeli	-0.2172
-3.3235	dost	-0.2333
-3.6719	dostal	-0.4284
-4.0182	dostala	-0.3422
-3.8906	dostali	-0.4175
-4.3299	dostalo	-0.2944
-4.5170	dostaly	-0.2675
-3.7859	dostane	-0.3767
-4.1125	dostaneme	-0.3322
-4.3299	dostanete	-0.2317
-4.1396	dostanou	-0.2918
-4.5896	dostanu	-0.3141
-3.6719	dostat	-0.4300
-4.8528	dostatecna	-0.3691
-4.1125	dostatecne	-0.1582
-4.9320	dostatecny	-0.2948
-4.2508	dostatek	-0.3003
-4.6310	dostava	-0.3871
-4.2692	dostavaji	-0.2428
-4.9320	dostavam	-0.3853
-4.4268	dostavame	-0.4774
-4.9320	dostavat	-0.2187
-4.8528	dostavate	-0.3664
-4.5170	dosti	-0.0530
-4.9320	dostupne	-0.2973
-4.9320	dostupnost	-0.2214
-4.1258	dosud	-0.2516
-4.2508	dotace	-0.3556
-4.1125	dotaci	-0.2822
-4.6767	dotahnout	-0.4731
-3.8181	dotaz	-0.3623
-4.4005	dotazu	-0.3438
-4.3757	dotazy	-0.3039
-4.7859	doted	-0.2735
-5.0289	dotklo	-0.4004
-4.8528	dotkne	-0.2884
-4.5896	dotycny	-0.2541
-4.8528	doufa	-0.5837
-3.9408	doufam	-0.7803
-4.7279	doufame	-0.8789
-4.7279	doufejme	-0.7106
-4.8528	dovazet	-0.2174
-5.0289	dovede	-0.2997
-4.6767	dovednosti	-0.2732
-4.5518	dovedu	-0.6658
-4.5896	dovnitr	-0.2046
-5.0289	dovolena	-0.2783
-4.6310	dovolene	-0.2925
-4.9320	dovolenim	-0.1485
-4.4549	dovolenou	-0.2339
-4.9320	dovolil	-0.2863
-4.2692	dovolit	-0.2154
-5.0289	dovolite	-0.1998
-5.0289	dovozu	-0.4089
-4.5518	dozorci	-0.9025
-5.0289	dozorove	-0.9031
-4.5170	dozvedel	-0.3066
-4.7859	dozvedela	-0.3347
-4.7859	dozvedeli	-0.2957
-4.8528	dozvedet	-0.2815
-5.0289	dozvi	-0.2873
-4.7279	dozvime	-0.2701
-4.6310	dozvite	-0.4147
-4.6767	dph	-0.1815
-5.0289	drabek	-0.2936
-4.6310	drah	-0.2747
-4.6310	draha	-0.3127
-4.6310	drahe	-0.2332
-4.7279	drahu	-0.2803
-4.4005	drahy	-0.2898
-5.0289	drahych	-0.0580
-4.6310	dramaticky	-0.2251
-5.0289	dramaturg	-0.4118
-5.0289	drazbe	-0.2926
-4.7859	draze	-0.4452
-4.6767	drazsi	-0.3263
-5.0289	dreva	-0.1752
-4.9320	drevene
-4.9320	drevo	-0.2082
-3.9234	driv	-0.2608
-3.9150	drive	-0.2557
-4.4005	drobne	-0.1782
-4.9320	drobnou	-0.1548
-4.8528	drobnych	-0.2868
-4.7859	drog	-0.2648
-4.8528	drogy	-0.1639
-4.8528	drtiva	-0.6020
-4.8528	druh	-0.2214
-3.6672	druha	-0.4738
-3.4083	druhe	-0.5186
-3.9975	druheho	-0.3373
-4.7859	druhej	-0.1891
-4.3757	druhem	-0.3986
-4.8528	druhemu	-0.1606
-5.0289	druhohor	-0.1875
-3.4378	druhou	-0.8207
-4.4268	druhu	-0.1388
-3.7067	druhy	-0.2817
-5.0289	druhych	-0.3004
-4.2692	druhym	-0.3181
-5.0289	drzel	-0.2024
-4.9320	drzeli	-0.2108
-5.0289	drzeni	-0.1235
-4.3087	drzet	-0.2852
-4.4848	drzi	-0.2532
-4.7859	drzim	-0.2979
-4.5518	dubna	-0.2132
-4.9320	dubnu	-0.2795
-4.6310	duchod	-0.4322
-5.0289	duchodce	-0.2969
-5.0289	duchodcu	-0.2867
-4.7859	duchodkyne	-0.1566
-4.7279	duchodove	-0.5877
-4.4268	duchodu	-0.2700
-4.8528	duchovni	-0.2572
-4.7859	duchu	-0.1247
-4.4005	dukaz	-0.6081
-5.0289	dukazem	-0.4033
-4.7279	dukazu	-0.2780
-4.3299	dukazy	-0.3914
-4.8528	dukladne	-0.2207
-4.7279	dul	-0.2987
-4.0399	dulezita	-0.4262
-3.5741	dulezite	-0.4329
-4.4268	dulezitejsi	-0.4753
-4.9320	duleziti	-0.2190
-4.4549	dulezitou	-0.4654
-4.1258	dulezity	-0.3349
-4.8528	dulezitych	-0.2864
-4.9320	dulezitym	-0.0969
-4.0182	dum	-0.1935
-4.7279	duraz	-1.1966
-4.7859	dusan	-0.0291
-4.7279	duse	-0.3358
-4.7859	dusevni	-0.2288
-4.5170	dusi	-0.3254
-4.8528	dusledkem	-0.2290
-4.3757	dusledku	-0.2382
-4.6310	dusledky	-0.3061
-4.7279	dutiny	-0.7252
-4.6767	duvera	-0.2816
-4.6310	duvere	-0.3411
-3.9408	duveru	-0.3909
-4.4848	duvery	-0.3448
-4.8528	duveryhodnosti	-0.2301
-3.6965	duvod	-0.4288
-4.9320	duvodem	-0.3947
-3.5204	duvodu	-0.3964
-4.2160	duvody	-0.3238
-2.8906	dva	-0.5923
-4.9320	dvaadvacateho	-0.2218
-5.0289	dvacate	-0.3005
-4.2330	dvacateho	-0.5809
-3.3638	dvacet	-0.7775
-3.7015	dvaceti	-0.6673
-4.0628	dvakrat	-0.1757
-3.8181	dvanact	-0.3638
-4.8528	dvanacteho	-0.3796
-4.5170	dvanacti	-0.3582
-3.2965	dve	-0.5021
-3.9875	dvema	-0.3482
-4.9320	dvemi	-0.2193
-4.4005	dvere	-0.3750
-4.8528	dveri	-0.2809
-4.5896	dvojce	-0.4863
-4.4268	dvojka	-0.7165
-5.0289	dvojku	-0.3001
-4.8528	dvojky	-0.7672
-4.8528	dvorak	-0.1645
-4.7859	dvoraka	-0.2818
-3.5665	dvou	-0.2414
-4.9320	dyl	-0.2890
-5.0289	e	-0.2023
-5.0289	e-mail	-0.2898
-4.6767	eduard	-0.2412
-4.7859	edward	-1.1461
-4.2885	efekt	-0.2740
-5.0289	efektivite	-0.2853
-4.6310	efektivne	-0.2606
-4.6767	efektivni	-0.2296
-5.0289	efektu	-0.2735
-4.7859	egypt	-0.2678
-4.5518	egypta	-0.1545
-5.0289	egyptane	-0.2962
-4.4549	egypte	-0.2229
-4.9320	egyptske	-0.3007
-4.4268	ekonom	-0.1906
-4.4848	ekonomice	-0.3760
-4.4549	ekonomicka	-0.2367
-4.1396	ekonomicke	-0.3162
-4.5896	ekonomickeho	-0.3005
-4.6310	ekonomickou	-0.3462
-4.0399	ekonomicky	-0.1733
-4.6310	ekonomickych	-0.1449
-4.8528	ekonomie	-0.2613
-4.8528	ekonomii	-0.3553
-4.1838	ekonomika	-0.1856
-4.9320	ekonomikou	-0.3824
-4.4268	ekonomiku	-0.2113
-4.1838	ekonomiky	-0.3545
-4.9320	ekonomove	-0.1413
-4.5896	elektraren	-0.3498
-5.0289	elektrarna	-0.2991
-4.4005	elektrarny	-0.3825
-4.7859	elektricke	-0.6690
-5.0289	elektrickou	-0.6020
-4.9320	elektrina	-0.2631
-5.0289	elektrinou	-0.2902
-4.7859	elektrinu	-0.2616
-4.3087	elektriny	-0.2742
-4.6310	elektronicke	-0.3370
-4.9320	eliska	-0.0457
-4.9320	elitni	-0.1548
-4.6310	emoce	-0.2628
-4.9320	emoci	-0.5078
-4.8528	emotivne	-0.2252
-5.0289	encefalitidy	-0.2819
-4.6767	energeticke	-0.4768
-4.8528	energetickeho	-0.3010
-4.7859	energetickou	-0.1770
-4.6767	energeticky	-0.1761
-4.8528	energetika	-0.2637
-5.0289	energetiky	-0.2960
-4.1396	energie	-0.2454
-4.3522	energii	-0.3693
-4.9320	epidemie	-0.2802
-4.7279	era	-0.2460
-4.6767	erdogan	-0.3297
-4.8528	ery	-0.1667
-4.7859	etapa	-0.2937
-4.8528	etapy	-0.2177
-4.5170	eur	-0.3741
-4.6310	eura	-0.2431
-4.2885	euro	-0.1808
-5.0289	europoslanci	-0.3010
-4.9320	eurozona	-0.2972
-4.8528	eurozone	-0.2041
-4.4848	eurozony	-0.2137
-4.4268	eva	-0.0551
-4.5170	eventualne	-0.1742
-5.0289	eventuelne	-0.1925
-5.0289	evidence	-0.2818
-4.3087	evidentne	-0.2275
-4.9320	evidentni	-0.3882
-4.3299	evropa	-0.2590
-3.8114	evrope	-0.2793
-4.9320	evropou	-0.3715
-3.9682	evropska	-0.9632
-3.4666	evropske	-0.6921
-4.4848	evropskeho	-0.4925
-4.7279	evropskem	-0.3589
-4.2692	evropskou	-0.8173
-4.3299	evropsky	-0.3966
-4.1538	evropskych	-0.6013
-4.9320	evropskym
-5.0289	evropsti	-0.2041
-4.5170	evropu	-0.2220
-3.9975	evropy	-0.2977
-4.9320	ex	-0.3009
-5.0289	excelentni	-0.2985
-4.6767	exekuci	-0.2222
-5.0289	exekucni	-0.1249
-4.7279	existence	-0.2140
-5.0289	existovala	-0.3008
-4.7859	existovaly	-0.2871
-4.5170	existovat	-0.3000
-3.7067	existuje	-0.2740
-4.0869	existuji	-0.3402
-4.9320	expedice	-0.1470
-4.9320	expert	-0.2932
-4.7859	experti	-0.2270
-4.6767	expertu	-0.2668
-5.0289	extra	-0.0580
-5.0289	extraligy	-0.1108
-5.0289	extremistu	-0.2716
-4.5518	extremne	-0.2010
-4.7279	extremni	-0.2494
-4.8528	extremnich	-0.1759
-4.3757	facebook	-0.3407
-4.7859	facebookovem	-1.1461
-4.0628	facebooku	-0.3885
-4.4005	facto	-0.1983
-4.3299	fajn	-0.3050
-3.7921	fakt	-0.4376
-4.5896	fakta	-0.4624
-4.9320	faktem	-0.9904
-4.5518	fakticky	-0.2341
-4.5170	faktor	-0.2973
-4.6767	faktoru	-0.2639
-4.5518	faktory	-0.3118
-4.9320	faktury	-0.5168
-4.5896	fakultni	-1.0413
-4.4848	fakulty	-0.5431
-4.7859	famu	-0.2117
-4.7859	fanousci	-0.2306
-4.8528	fanousky	-0.2053
-5.0289	farmaceuticke	-0.6019
-4.9320	farnosti	-0.2120
-5.0289	fascinuje	-0.1147
-4.4549	faze	-0.2097
-4.0995	fazi	-0.2339
-5.0289	fazich	-0.2986
-5.0289	fbi	-0.1954
-4.9320	fed	-0.1341
-4.6310	federalni	-0.3459
-4.4848	fenomen	-0.2963
-4.3087	festival	-0.1317
-4.1538	festivalu	-0.2504
-5.0289	fica	-0.2949
-4.9320	fico	-0.3875
-4.9320	filharmonie	-0.2965
-5.0289	filipa	-0.1242
-5.0289	filipiny	-0.1785
-3.7172	film	-0.2707
-4.7279	filmech	-0.2691
-5.0289	filmem	-0.1978
-4.9320	filmova	-0.2867
-4.5896	filmoveho	-0.3739
-5.0289	filmovou	-0.2041
-4.8528	filmovy	-0.2987
-3.8114	filmu	-0.2180
-4.0628	filmy	-0.2557
-4.5896	finale	-0.1655
-4.7859	finalni	-0.1894
-4.4005	finance	-0.2974
-3.9408	financi	-0.3522
-4.6767	financne	-0.2419
-3.6578	financni	-0.3850
-4.4848	financnich	-0.1897
-4.9320	financnictvi	-0.3910
-4.7859	financniho	-0.1458
-4.7859	financnim	-0.0321
-4.1996	financovani	-0.2599
-4.9320	financovat	-0.2146
-5.0289	fingerland	-0.1247
-4.0512	firem	-0.2843
-3.8828	firma	-0.1672
-5.0289	firmach	-0.2934
-4.5896	firmam	-0.3686
-4.4848	firme	-0.2899
-4.7859	firmou	-0.1255
-4.4268	firmu	-0.2821
-3.5975	firmy	-0.2277
-4.4005	fischer	-0.2664
-4.7279	fischera	-0.2327
-4.9320	fiskalni	-0.2217
-4.4549	fond	-0.3468
-3.9875	fondu	-0.2764
-4.6310	fondy	-0.2825
-4.9320	forem	-0.2751
-4.6310	forma	-0.3316
-4.9320	formalni	-0.2863
-5.0289	format	-0.2847
-4.7279	forme	-0.1466
-4.3087	formou	-0.1464
-4.7279	formu	-0.0867
-4.9320	formular	-0.2000
-4.9320	formy	-0.2853
-4.2885	fotbal	-0.2764
-4.9320	fotbale	-0.2154
-4.9320	fotbaliste	-0.3009
-4.9320	fotbalisty	-0.2061
-4.5518	fotbalove	-0.4770
-4.8528	fotbaloveho	-0.4770
-4.8528	fotbalovy	-0.2341
-4.5896	fotbalu	-0.2134
-4.9320	fotil	-0.2955
-4.5896	fotky	-0.3483
-4.9320	fotograf	-0.2206
-4.3299	fotografie	-0.2317
-4.4848	fotografii	-0.2779
-4.9320	france	-0.2849
-4.4005	francie	-0.3830
-4.2885	francii	-0.2724
-4.9320	francouzska	-0.2110
-4.6767	francouzske	-0.1751
-4.4005	francouzsky	-0.2598
-4.2692	frantisek	-0.0351
-4.6310	frantiska	-0.0350
-4.7859	frantiskem
-5.0289	franze
-4.7859	frekvence	-0.2543
-4.9320	frenstat	-0.6988
-4.6767	fronty	-0.6319
-4.9320	frustrace	-0.3913
-4.9320	frydeckomistecku	-0.2040
-4.7859	frydku-mistku	-0.2901
-4.8528	fungovala	-0.2564
-4.6767	fungovalo	-0.3740
-5.0289	fungovaly	-0.2966
-4.6310	fungovani	-0.2388
-3.9497	fungovat	-0.3731
-3.6865	funguje	-0.3174
-4.4549	funguji	-0.3646
-4.9320	fungujici	-0.2851
-3.9320	funkce	-0.3742
-3.9682	funkci	-0.2603
-5.0289	funkcionari	-0.2018
-4.7859	funkcni	-0.2693
-4.4549	furt	-0.1886
-4.8528	fyzicke	-0.2949
-4.4549	fyzicky	-0.2682
-5.0289	gabriel	-0.3004
-4.8528	gabriela
-4.2508	galerie	-0.2879
-4.5896	galerii	-0.1809
-4.9320	garance	-0.2864
-4.9320	garantem	-0.1523
-5.0289	garnitura	-0.2714
-5.0289	gauck	-0.4153
-4.9320	gazdik	-0.2830
-4.3522	generace	-0.2619
-4.5170	generaci	-0.3030
-4.7279	general	-0.1325
-4.2330	generalni	-0.4683
-4.7859	generalniho	-0.4471
-4.9320	geneticky	-0.0452
-4.8528	geny	-0.2818
-4.7859	george	-0.2430
-4.5170	globalni	-0.1586
-4.9320	gol	-0.2893
-4.9320	graf	-0.2188
-5.0289	gramu	-0.4116
-4.9320	guverner	-0.1495
-4.9320	gymnazium	-0.5079
-4.9320	haje	-0.2952
-5.0289	hajek	-0.2883
-5.0289	hajit	-0.2715
-5.0289	hale	-0.2918
-4.5170	halo	-0.5392
-4.4549	hana	-0.1980
-4.9320	hanakova	-0.2977
-5.0289	hanka	-0.2972
-4.9320	hartman	-0.2982
-4.9320	harvanku	-0.2861
-4.2885	hasek	-0.2981
-4.2692	hasici	-0.3227
-4.3757	hasicu	-0.2952
-4.6767	haska	-0.2816
-4.6767	havel	-0.2142
-4.4268	havla	-0.2713
-4.9320	havlem	-0.2972
-4.6767	havlickova	-0.3983
-4.7859	hdp	-0.2019
-4.7859	hejtman	-0.1917
-4.5896	hejtmana	-0.1800
-5.0289	hejtmanem	-0.2846
-4.6310	hektaru	-0.2511
-4.4848	hele	-0.3493
-4.5896	helena	-0.0394
-5.0289	heleno	-0.2972
-4.9320	hemodialyza	-0.2497
-4.7279	her	-0.1680
-4.4268	herce	-0.2751
-4.7859	hercem	-0.2370
-4.6310	herci	-0.2413
-4.7859	hercu	-0.4186
-4.3299	herec	-0.2530
-4.4549	herecka	-0.2743
-4.8528	herecke	-0.3801
-4.6767	herectvi	-0.2676
-4.7859	herny	-0.2055
-5.0289	hesla	-0.2995
-4.9320	heydricha	-0.3737
-4.7859	hezka	-0.3535
-3.9234	hezke	-0.8175
-4.9320	hezkou	-0.6989
-3.3192	hezky	-0.7585
-5.0289	hezkych	-0.3004
-5.0289	hieroglyfy	-0.2909
-4.6767	historicka	-0.1993
-4.2330	historicke	-0.2082
-4.9320	historickeho	-0.2217
-4.3757	historicky	-0.3002
-4.7859	historickych	-0.1350
-4.1686	historie	-0.2361
-4.1125	historii	-0.1594
-4.3757	historik	-0.3324
-4.8528	historika	-0.1760
-5.0289	hit	-0.2715
-4.6767	hitler	-0.2038
-4.7859	hiv	-0.2884
-4.7859	hladina	-0.2843
-4.9320	hladine	-0.1989
-5.0289	hladinou	-0.1865
-4.6767	hladiny	-0.3193
-4.2330	hlas	-0.1867
-4.5170	hlasi	-0.2620
-4.7279	hlasit	-0.3174
-5.0289	hlasoval	-0.2874
-4.7279	hlasovali	-0.4001
-4.0995	hlasovani	-0.3522
-4.4268	hlasovat	-0.4939
-4.0747	hlasu	-0.3689
-4.4005	hlasy	-0.2292
-4.8528	hlava	-0.3733
-4.3087	hlave	-0.2732
-3.2562	hlavne	-0.2555
-3.5935	hlavni	-0.2685
-4.3087	hlavnich	-0.2109
-4.2330	hlavniho	-0.6987
-4.1396	hlavnim	-0.3008
-4.8528	hlavnimi	-0.1248
-4.2692	hlavou	-0.3328
-4.1838	hlavu	-0.3840
-4.4268	hlavy	-0.4380
-4.3299	hleda	-0.2260
-4.3522	hledaji	-0.2680
-5.0289	hledal	-0.2023
-4.6767	hledali	-0.2779
-5.0289	hledam	-0.2850
-4.8528	hledame	-0.2958
-4.4848	hledani	-0.1990
-4.1838	hledat	-0.2623
-3.6181	hlediska	-0.1914
-4.6767	hlidat	-0.2173
-4.9320	hloubeji	-0.1892
-4.9320	hloubka	-0.2056
-4.6767	hloubky	-0.2152
-4.9320	hloupy	-0.2827
-4.8528	hluboce	-0.1249
-4.9320	hluboka	-0.2212
-4.8528	hluboke	-0.1228
-4.6310	hluboko	-0.4961
-4.9320	hluboky	-0.1549
-4.5170	hlubsi	-0.2858
-4.8528	hluk	-0.2911
-4.8528	hluku	-0.3390
-5.0289	hmoty	-0.2898
-3.5375	hned	-0.2111
-5.0289	hnedeho	-0.2998
-5.0289	hnizda	-0.0580
-4.9320	hnizdeni	-0.2827
-3.6719	hnuti	-0.4030
-4.7859	hnutim	-0.6677
-2.9865	ho	-0.1291
-4.7859	hodi	-0.3204
-3.6767	hodin	-0.3110
-4.7859	hodina	-0.2956
-4.3757	hodinach	-0.3443
-4.0628	hodine	-0.4286
-4.4268	hodinou	-0.3351
-4.1258	hodinu	-0.2888
-3.8386	hodiny	-0.2879
-3.0455	hodne	-0.1562
-5.0289	hodni	-0.3905
-4.2160	hodnoceni	-0.3272
-4.5518	hodnota	-0.3260
-4.6767	hodnoti	-0.1696
-4.5170	hodnotit	-0.2533
-4.8528	hodnotite	-0.2965
-4.1258	hodnotu	-0.2392
-4.2160	hodnoty	-0.2716
-4.3757	hokej	-0.1623
-4.7279	hokeji	-0.2847
-4.6310	holky	-0.2196
-4.9320	holland	-0.2709
-4.9320	holocaustu	-0.1501
-4.7859	holt	-0.2303
-5.0289	holub	-0.2824
-5.0289	homosexualni	-0.4260
-4.4549	honza	-0.1776
-4.9320	honzo	-0.3945
-4.8528	hor	-0.3456
-4.4268	horach	-0.2363
-4.8528	horizontu	-0.3005
-4.2885	horni	-0.2982
-4.8528	hornich	-0.3008
-4.8528	horniho	-0.2199
-4.1396	horsi	-0.3294
-4.8528	hory	-0.2217
-4.7279	hosek	-0.4007
-4.9320	hospitalizace	-0.2723
-4.5518	hospodareni	-0.2708
-4.9320	hospodari	-0.3725
-4.9320	hospodarit	-0.2148
-4.7279	hospodarske	-0.3408
-4.7859	hospodarsky	-0.3660
-4.6767	hospodarskych	-0.4630
-4.5518	hospodarstvi	-0.1994
-3.8751	host	-0.5685
-4.3299	hosta	-0.3390
-5.0289	hoste	-0.2034
-3.2599	hostem	-0.7901
-4.8528	hosti	-0.1757
-4.7859	hostu	-0.2252
-4.4549	hosty	-0.3610
-4.9320	hotove	-0.2872
-4.7859	hotovo	-0.3387
-4.9320	hotovy	-0.5098
-4.8528	houby	-0.1544
-4.7859	houska	-0.2864
-4.6767	housle	-0.3330
-4.9320	hovor	-0.2882
-4.1838	hovori	-0.4277
-4.2508	hovoril	-0.5196
-5.0289	hovorila	-0.2882
-4.5896	hovorili	-0.4135
-4.8528	hovorilo	-0.4598
-4.3757	hovorime	-0.6838
-4.2160	hovorit	-0.5709
-4.3757	hra	-0.2025
-4.5518	hrac	-0.2574
-4.4848	hrace	-0.3216
-4.9320	hracem	-0.2126
-5.0289	hrach	-0.2821
-4.1996	hraci	-0.2026
-4.9320	hracky	-0.2110
-4.5518	hracu	-0.2474
-4.4005	hrad	-0.1454
-4.3757	hrade	-0.2377
-5.0289	hradem	-0.1247
-4.5518	hradni	-0.2339
-4.4549	hradu	-0.2453
-3.8386	hraje	-0.3189
-4.6310	hrajeme	-0.2663
-4.7859	hrajete	-0.2692
-4.5896	hraji	-0.2020
-4.8528	hrajou	-0.2289
-5.0289	hraju	-0.4174
-4.0869	hral	-0.2563
-4.7279	hrala	-0.1875
-4.4268	hrali	-0.2566
-4.9320	hralo	-0.3853
-4.9320	hrane	-0.3801
-4.7859	hrani	-0.1665
-4.8528	hranic	-0.2848
-4.2160	hranice	-0.2827
-4.1838	hranici	-0.1951
-5.0289	hranicni	-0.2039
-3.8316	hrat	-0.3359
-5.0289	hraze	-0.2810
-5.0289	hrbitov	-0.4163
-4.3757	hre	-0.2531
-4.3087	hriste	-0.1935
-5.0289	hromadnou	-0.4251
-4.9320	hrozba	-0.2911
-5.0289	hrozbu	-0.2752
-4.0995	hrozi	-0.3120
-4.7859	hrozilo	-0.2892
-5.0289	hrozna	-0.2993
-3.7736	hrozne	-0.2855
-4.7279	hrozny	-0.2563
-4.6310	hru	-0.2231
-4.7279	hrube	-0.2987
-4.9320	hruby	-0.3971
-4.1396	hry	-0.2151
-5.0289	hubnete	-0.9031
-4.7279	hubnuti	-0.2735
-4.4848	hudba	-0.2400
-4.8528	hudbe	-0.2124
-4.6310	hudbu	-0.2360
-4.6767	hudby	-0.2983
-4.3299	hudebni	-0.2426
-4.9320	hudebniho	-0.2982
-4.8528	humanitarni	-0.2339
-5.0289	humanitarnich	-0.2041
-4.4848	humor	-0.1832
-4.9320	humorem	-0.2883
-4.4848	humoru	-0.2659
-4.4005	hur	-0.2764
-4.9320	hure	-0.1438
-5.0289	husitske	-0.4258
-4.7859	huti	-0.1840
-5.0289	hvezda	-0.2988
-4.6767	hvezdarna	-0.5200
-4.9320	hvezdarny	-0.2779
-4.7279	hvezdy	-0.2724
-4.7279	hybat	-0.4796
-4.7279	hydrometeorologickeho	-1.2040
-4.9320	hygienici	-0.1518
-4.9320	hygienicke	-0.2217
-5.0289	hynek	-0.0580
-4.9320	hypoteticky	-0.2984
-2.2062	i	-0.2680
-5.0289	idealne	-0.2002
-4.0747	idealni	-0.3084
-5.0289	ideove	-0.1225
-4.5896	ihned	-0.3764
-4.8528	iluze	-0.4490
-5.0289	image	-0.2642
-5.0289	imigrantu	-0.0439
-5.0289	implikace	-0.2806
-4.9320	impuls	-0.2938
-5.0289	imunita	-0.2038
-4.7859	imunitu	-0.2728
-5.0289	in	-0.1174
-5.0289	indicie	-0.4157
-4.9320	indii	-0.2725
-4.5518	individualne	-0.2396
-4.4549	individualni	-0.2816
-4.9320	infekce	-0.2854
-4.7859	inflace	-0.2712
-3.4848	informace	-0.3857
-3.7502	informaci	-0.3583
-4.8528	informacim	-0.2718
-4.4549	informacni	-0.1841
-5.0289	informatiky	-0.4118
-4.9320	informoval	-0.5198
-4.9320	informovali	-0.2838
-4.5518	informovat	-0.3851
-4.7279	informuje	-0.2856
-4.7859	infrastruktury	-0.2874
-5.0289	iniciativa	-0.1942
-5.0289	iniciativou	-0.4007
-4.7279	iniciativu	-0.2293
-4.8528	iniciativy	-0.1740
-4.7279	inscenaci	-0.1855
-4.4005	inspekce	-0.2804
-4.8528	inspektoru	-0.3481
-4.7859	inspirace	-0.2796
-4.5518	inspiraci	-0.2596
-4.9320	inspirativni	-0.3820
-4.7279	inspirovat	-0.3402
-4.7859	instalace	-0.2044
-5.0289	instalaci	-0.1861
-4.1125	instituce	-0.1972
-4.2692	instituci	-0.2558
-4.9320	institucionalni	-0.3950
-4.7279	institut	-0.2462
-4.7279	institutu	-0.2392
-4.7859	integrace	-0.2552
-5.0289	integrovaneho	-0.4258
-4.4549	intenzivne	-0.1697
-4.4848	intenzivni	-0.2428
-4.3522	internet	-0.3198
-4.8528	internetove	-0.2971
-3.9875	internetu	-0.2896
-4.8528	interni	-0.1248
-4.9320	interpretace	-0.2751
-5.0289	interval	-0.2886
-4.8528	intervaly	-0.2743
-4.6767	intervence	-0.2027
-4.9320	intervenci	-0.2065
-4.2330	interview	-0.3796
-4.9320	intimni	-0.2110
-5.0289	investic	-0.2839
-4.1686	investice	-0.3368
-4.6767	investici	-0.2647
-4.6767	investicnich	-0.3482
-4.6310	investor	-0.3695
-4.7859	investori	-0.2943
-4.8528	investoru	-0.2782
-4.8528	investory	-0.4492
-4.4549	investovat	-0.4183
-5.0289	investuje	-0.2892
-5.0289	investuji	-0.2944
-4.5518	inzenyr	-0.1403
-5.0289	inzenyra	-0.1249
-5.0289	irak	-0.2721
-4.6767	iraku	-0.5310
-4.4005	iran	-0.2713
-4.5518	iranu	-0.2612
-5.0289	irena	-0.0473
-4.7279	irska	-0.2378
-4.7859	irsku	-0.2763
-4.7279	islam	-0.1760
-4.9320	islamskych	-0.0967
-4.6310	islamu	-0.2377
-4.8528	istvan	-0.2081
-5.0289	it	-0.1899
-4.7279	italie	-0.2449
-4.5170	italii	-0.3308
-4.7859	italske	-0.1420
-4.9320	italskeho	-0.2216
-4.8528	italskou	-0.3009
-4.7859	italsky	-0.0893
-4.5518	iva	-0.5351
-4.2508	ivan	-0.0454
-4.5170	ivana	-0.0060
-4.7279	ivane	-0.1556
-4.4848	ivo	-0.1046
-4.7279	izolace	-0.2202
-4.2692	izrael	-0.2470
-5.0289	izraelci	-0.2031
-4.5896	izraele	-0.1977
-4.8528	izraelem	-0.3462
-4.7279	izraeli	-0.2848
-4.8528	izraelske	-0.2985
-2.1435	ja	-0.9005
-5.0289	jaci	-0.6001
-4.6310	jaderna	-0.6893
-4.4848	jaderne	-0.4928
-4.7279	jadernou	-0.2489
-4.9320	jaderny	-0.3010
-4.7859	jadernych	-0.5299
-4.9320	jadro	-0.2033
-4.8528	jagra	-0.2079
-2.3073	jak	-0.4982
-3.7119	jaka	-0.6218
-4.4268	jakakoliv	-0.2354
-4.4005	jakasi	-0.1304
-3.3192	jake	-0.3941
-4.4549	jakeho	-0.4242
-5.0289	jakehosi	-0.3001
-4.6767	jakekoli	-0.2551
-4.2508	jakekoliv	-0.2905
-4.4549	jakem	-0.3415
-4.1258	jakesi	-0.2132
-4.4848	jakkoliv	-0.1788
-4.2508	jakmile	-0.3998
-2.2963	jako	-0.0339
-3.2110	jakoby	-0.0982
-3.8248	jakou	-0.2250
-4.6767	jakoukoliv	-0.1750
-4.4005	jakousi	-0.1886
-4.4549	jakoze	-0.2987
-4.5518	jakozto	-0.1751
-3.0832	jaksi	-0.0641
-4.8528	jakub	-0.0237
-3.6016	jaky	-0.5036
-4.2508	jakych	-0.2964
-4.6767	jakychkoliv	-0.2986
-4.9320	jakychsi	-0.2217
-5.0289	jakykoli	-0.2040
-4.5170	jakykoliv	-0.2090
-3.6865	jakym	-0.6137
-4.5896	jakymi	-0.1962
-4.6767	jakymkoliv	-0.4075
-4.6767	jakymsi	-0.1088
-4.2508	jakysi	-0.2323
-3.5856	jan	-0.1912
-3.7119	jana	-0.1337
-4.6310	janalik	-0.5092
-4.6310	janem
-4.9320	janicek	-0.2967
-4.7859	janouska	-0.2574
-4.4005	janu	-0.0540
-4.9320	janukovyc	-0.3841
-5.0289	janukovycem	-0.1096
-4.7859	jany	-0.0322
-4.9320	japonsko	-0.2626
-4.9320	jara	-0.0885
-4.9320	jarda	-0.0940
-4.5170	jare	-0.3011
-5.0289	jarmila
-4.6310	jaro	-0.2287
-4.5896	jaromir	-0.1663
-4.7859	jaromira	-0.4472
-4.0077	jaroslav	-0.0475
-4.5170	jaroslava	-0.0335
-4.4005	jasna	-0.2843
-3.5104	jasne	-0.3410
-4.4549	jasno	-0.3826
-5.0289	jasnou	-0.3009
-4.1125	jasny	-0.3983
-4.9320	jasnych	-0.2868
-4.7279	jazyce	-0.2700
-4.4848	jazyk	-0.2907
-4.6767	jazyka	-0.2484
-4.7279	jazykem	-0.2765
-3.2227	jde	-0.6221
-4.6767	jdeme	-0.3437
-4.3757	jdete	-0.3004
-4.1538	jdou	-0.3184
-4.6310	jdu	-0.3656
-1.6588	je	-0.2886
-5.0289	je-li	-0.2033
-4.3522	jeckelova	-0.2457
-4.5170	jede	-0.2726
-4.8528	jedeme	-0.3638
-3.1467	jeden	-0.4533
-3.8986	jedenact	-0.2860
-4.4005	jedenacte	-0.4346
-4.8528	jedenacteho	-0.6003
-4.5170	jedenacti	-0.2899
-4.9320	jedenadvacateho	-0.3008
-4.9320	jedenadvacet	-0.3005
-5.0289	jedete	-0.4218
-4.2508	jedina	-0.2880
-4.0077	jedine	-0.2846
-5.0289	jedineho	-0.3002
-5.0289	jedinej	-0.1249
-4.9320	jedini	-0.2838
-4.5170	jedinou	-0.1592
-4.0869	jediny	-0.3717
-4.6767	jedinym	-0.1411
-5.0289	jedl	-0.4230
-3.0894	jedna	-0.4302
-4.8528	jednaci	-0.4770
-5.0289	jednaji	-0.2980
-3.5591	jednak	-0.2222
-4.6767	jednal	-0.3362
-5.0289	jednala	-0.1773
-4.7279	jednali	-0.2792
-4.4005	jednalo	-0.6089
-4.9320	jedname	-0.2628
-3.5071	jednani	-0.3379
-4.7859	jednanich	-0.2859
-4.6767	jednanim	-0.3890
-3.9150	jednat	-0.5989
-3.5741	jedne	-0.4538
-4.6767	jednicka	-0.3181
-3.9150	jednim	-0.5224
-3.5817	jedno	-0.3943
-4.4848	jednoducha	-0.3170
-3.9875	jednoduche	-0.3254
-4.5896	jednoduchy	-0.1468
-5.0289	jednoduchych	-0.2041
-4.3299	jednoduse	-0.2415
-4.2885	jednodussi	-0.3020
-3.6181	jednoho	-0.2862
-4.0995	jednom	-0.2416
-4.6310	jednomu	-0.1819
-4.7279	jednotek	-0.3889
-4.7859	jednotka	-0.2358
-4.9320	jednotku	-0.3735
-4.3757	jednotky	-0.2242
-4.9320	jednotliva	-0.2216
-4.0077	jednotlive	-0.2215
-3.8751	jednotlivych	-0.2222
-4.7279	jednotlivymi	-0.1248
-4.8528	jednotny	-0.3461
-3.4974	jednou	-0.3280
-4.9320	jednoznacna	-0.2012
-3.8528	jednoznacne	-0.2598
-4.6310	jednoznacny	-0.2753
-3.5482	jednu	-0.3762
-4.5170	jedny	-0.2620
-4.6767	jedou	-0.2796
-4.6310	jedu	-0.3325
-2.9598	jeho	-0.1922
-4.2508	jehoz	-0.2344
-4.4848	jej	-0.1005
-3.5554	jeji	-0.2236
-3.1869	jejich	-0.2179
-4.5896	jejichz	-0.3000
-4.4005	jejiho	-0.2757
-4.4005	jejim	-0.1507
-5.0289	jejimz	-0.4258
-4.6310	jejiz	-0.2594
-4.5896	jel	-0.2746
-4.6767	jeli	-0.2730
-4.7279	jelikoz	-0.2952
-4.9320	jelinek	-0.2079
-5.0289	jelinka	-0.4034
-4.9320	jemne
-4.6310	jemu	-0.2872
-3.2544	jen	-0.3161
-2.7322	jenom	-0.2228
-4.2692	jenomze	-0.3030
-4.2330	jenze	-0.2555
-4.9320	jeronym	-1.0000
-4.8528	jeruzalema	-0.3626
-4.7859	jeruzaleme	-0.2748
-4.9320	jesle	-0.2825
-4.5896	jest	-0.2026
-2.5868	jeste	-0.2364
-2.7372	jestli	-0.5482
-4.5896	jestlipak	-0.2492
-3.7676	jestlize	-0.2737
-4.6767	jet	-0.3897
-4.7859	jev	-0.2372
-5.0289	jevi	-0.4171
-4.7859	jevisti	-0.1587
-5.0289	jevy	-0.1955
-4.8528	jez	-0.2228
-3.9589	jezdi	-0.2837
-4.9320	jezdil	-0.2794
-4.6767	jezdili	-0.3279
-4.7279	jezdim	-0.4934
-4.7859	jezdime	-0.2827
-4.1258	jezdit	-0.3458
-4.8528	jezdite	-0.3570
-5.0289	jezek	-0.4070
-3.0604	ji	-0.1059
-3.6224	jich	-0.3681
-4.9320	jidelnicek	-0.2832
-4.8528	jidelnicku	-0.3446
-4.9320	jidelny	-0.2826
-4.5896	jidla	-0.2483
-4.8528	jidle	-0.2868
-4.1686	jidlo	-0.2251
-5.0289	jidlu	-0.2890
-5.0289	jih	-0.2777
-4.6767	jihoafricke	-0.7777
-4.6767	jihu	-0.1451
-3.1716	jim	-0.2074
-5.0289	jimi	-0.0496
-3.8528	jina	-0.3227
-3.3108	jinak	-0.3390
-4.4848	jinam	-0.2981
-4.1538	jinde	-0.3791
-5.0289	jindrich	-0.3003
-5.0289	jindy	-0.2962
-3.4756	jine	-0.2018
-3.5665	jineho	-0.3424
-4.5518	jinej	-0.2294
-4.3087	jinem	-0.2730
-4.5170	jinemu	-0.1553
-4.5518	jini	-0.2361
-4.0399	jinou	-0.1959
-3.6532	jiny	-0.2942
-3.7676	jinych	-0.2889
-4.4268	jinyho	-0.2767
-4.0399	jinym	-0.2837
-4.0399	jinymi	-0.8896
-3.6578	jiri	-0.1071
-4.0628	jiriho	-0.1829
-4.9320	jirim
-4.9320	jirimu	-0.0429
-4.6767	jirka	-0.2338
-4.2692	jist	-0.2472
-4.4848	jista	-0.1766
-3.5935	jiste	-0.2931
-4.8528	jistem	-0.3798
-4.6310	jisti	-0.6864
-4.9320	jistota	-0.2062
-4.4549	jistotu	-0.5055
-5.0289	jistoty	-0.2957
-4.6310	jistou	-0.3441
-4.4848	jisty	-0.4077
-3.6487	jit	-0.3684
-4.7859	jitka
-3.8456	jiz	-0.1876
-4.9320	jizdu	-0.2076
-4.9320	jizerskych	-1.0000
-3.9875	jizni	-0.3007
-5.0289	jiznim	-0.0571
-4.6767	jmen	-0.2696
-4.3299	jmena	-0.3021
-4.7279	jmenem	-0.1527
-4.0628	jmeno	-0.1570
-4.3757	jmenoval	-0.2376
-5.0289	jmenovala	-0.2966
-4.4005	jmenovani	-0.2264
-4.9320	jmenovanim	-0.2982
-4.2508	jmenovat	-0.3401
-4.0077	jmenuje	-0.1923
-4.7859	jmeny	-0.2264
-2.9682	jo	-0.5757
-5.0289	jogurt	-0.2839
-4.8528	john	-0.4674
-4.0747	josef	-0.1274
-4.7279	josefa	-0.0279
-2.2538	jsem	-0.4848
-3.8828	jsi	-0.3485
-2.4699	jsme	-0.3924
-2.3454	jsou	-0.2558
-2.6393	jste	-0.3893
-2.3855	k	-0.4879
-4.7279	kabinet	-0.2358
-4.9320	kabinetu	-0.2114
-5.0289	kaceni	-0.2041
-4.9320	kafka	-0.2841
-4.8528	kahire	-0.3003
-4.9320	kahiry	-0.2777
-5.0289	kajnar	-0.2979
-5.0289	kalendare	-0.2749
-4.3087	kalousek	-0.3191
-4.5170	kalouska	-0.2620
-3.6266	kam	-0.3688
-4.6767	kamarad	-0.2431
-4.9320	kamarada	-0.0928
-4.7859	kamaradi	-0.3325
-5.0289	kamaradku	-0.2881
-4.7279	kamaradu	-0.1821
-4.9320	kamarady	-0.1146
-4.9320	kamen	-0.2957
-5.0289	kamenem	-0.3009
-5.0289	kameny	-0.2801
-5.0289	kamera	-0.1834
-4.7859	kamerou	-0.2824
-5.0289	kameru	-0.2851
-4.6767	kamery	-0.1660
-5.0289	kamiony	-0.1823
-4.9320	kamkoliv	-0.1475
-4.3087	kampan	-0.2209
-4.4549	kampane	-0.3339
-4.3299	kampani	-0.2546
-4.7859	kanalizace	-0.2602
-4.7279	kancelar	-0.2677
-4.3299	kancelare	-0.3644
-4.3757	kancelari	-0.2084
-4.9320	kancler	-0.2038
-5.0289	kanclere	-0.1945
-5.0289	kanclerem	-0.1957
-4.7859	kanclerky	-0.5354
-4.6310	kandidat	-0.2430
-4.6310	kandidata	-0.3338
-5.0289	kandidatce	-0.1955
-4.8528	kandidatem	-0.2816
-4.9320	kandidati	-0.2856
-4.5170	kandidatky	-0.2076
-4.8528	kandidatu	-0.2981
-4.7279	kandidaty	-0.2627
-4.6310	kandidovat	-0.3044
-4.8528	kapacita	-0.4435
-4.9320	kapacitu	-0.2798
-4.7859	kapacity	-0.3537
-4.7279	kapela	-0.2299
-4.9320	kapelou	-0.0804
-4.7859	kapelu	-0.1290
-4.7279	kapely	-0.1967
-4.8528	kapitan	-0.1248
-4.8528	kapitola	-0.2810
-4.9320	kaple	-0.2757
-4.8528	kapra	-0.1724
-4.6767	kapsy	-0.4466
-4.0289	karel	-0.1673
-4.7279	karet	-0.3274
-4.7859	karierni	-0.1460
-4.5518	karieru	-0.2228
-5.0289	kariery	-0.2812
-4.1686	karla	-0.1722
-4.7279	karlem	-0.0139
-4.4549	karlovy	-0.4102
-5.0289	karolinu	-0.9031
-4.5518	karta	-0.3519
-4.3299	kartu	-0.1570
-4.2330	karty	-0.2203
-4.9320	karvina	-0.3842
-4.6767	karvine	-0.2769
-4.8528	karvinsku	-0.2327
-4.9320	kasy	-0.2873
-4.9320	katalogu	-0.2963
-4.5896	katastrofa	-0.2550
-4.8528	katastrofy	-0.1938
-5.0289	katedrala	-0.4145
-5.0289	katedry	-0.1898
-4.5518	kategorie	-0.2079
-4.3757	kategorii	-0.2357
-4.4268	katerina	-0.1338
-4.8528	katerinou	-0.3802
-4.7859	katetr	-0.1739
-5.0289	katolicka	-0.9031
-4.9320	katolicke	-0.3005
-4.7279	kauz	-0.2880
-4.4549	kauza	-0.1867
-4.6310	kauze	-0.1406
-4.8528	kauzu	-0.3700
-4.3299	kauzy	-0.2165
-4.9320	kavu	-0.2857
-4.7859	kavy	-0.3444
-3.9497	kazda	-0.3525
-4.0182	kazde	-0.2931
-4.0399	kazdeho	-0.3101
-4.3522	kazdej	-0.3086
-3.9778	kazdem	-0.8555
-4.5170	kazdemu	-0.3023
-4.0747	kazdopadne	-0.2344
-4.6767	kazdorocne	-0.1730
-4.0628	kazdou	-0.5409
-3.2581	kazdy	-0.3330
-4.9320	kazdych	-0.5224
-4.4268	kazdym	-0.1557
-2.8414	kde	-0.4504
-4.6310	kdezto	-0.2873
-3.0894	kdo	-0.4986
-5.0289	kdokoli	-0.2941
-4.5896	kdokoliv	-0.2713
-4.1686	kdu	-1.2841
-2.8492	kdy	-0.4068
-3.1996	kdyby	-0.4496
-4.0512	kdybych	-0.5204
-4.3087	kdybychom	-0.4753
-4.9320	kdybysme	-0.4968
-4.0289	kdybyste	-0.3307
-4.7859	kdykoli	-0.2321
-4.5518	kdykoliv	-0.3190
-4.0628	kdysi	-0.2552
-2.3745	kdyz	-0.5380
-3.4005	ke	-0.2916
-4.9320	kennedyho	-0.1308
-5.0289	kerry	-0.4235
-4.7279	kilo	-0.3214
-4.9320	kilojoulu	-0.2860
-4.9320	kilometr	-0.2157
-3.9497	kilometru	-0.2332
-4.9320	kilometry	-0.2966
-4.9320	kim
-4.9320	kin	-0.2063
-5.0289	kina	-0.2945
-4.8528	kindlova	-1.0685
-4.9320	kine	-0.1362
-4.9320	kinech	-0.1903
-4.9320	kinematografie	-0.2101
-4.7859	klade	-0.2872
-4.6767	kladne	-0.2407
-4.8528	kladno	-0.3566
-4.5896	klara	-0.4963
-4.8528	klaro	-0.3641
-4.6310	klasicka	-0.1249
-4.3757	klasicke	-0.1714
-4.8528	klasickou	-0.2336
-4.6767	klasicky	-0.2639
-4.8528	klasika	-0.4513
-4.7279	klasiky	-0.7262
-4.7859	klast	-0.2189
-4.1838	klaus	-0.2008
-4.3299	klause	-0.2013
-4.8528	klausem	-0.3424
-4.7859	klausova	-0.2716
-5.0289	klavirni	-0.1249
-4.9320	klementa
-4.9320	klenoty	-0.2983
-4.5518	klesa	-0.2835
-5.0289	klesaji	-0.2982
-4.8528	klesat	-0.3610
-5.0289	klesnou	-0.4183
-5.0289	klice	-0.2821
-4.5170	klicove	-0.2774
-4.7859	klicovou	-0.3006
-5.0289	klicovy	-0.2844
-4.3757	klid	-0.4256
-5.0289	klidna	-0.2831
-4.0747	klidne	-0.2392
-4.8528	klidny	-0.2779
-4.4005	klidu	-0.1613
-4.5518	klient	-0.2047
-4.5170	klienta	-0.3035
-4.5170	klienti	-0.2970
-4.4549	klientu	-0.1932
-4.7279	klienty	-0.2097
-4.5896	klima	-0.3295
-5.0289	klimaticke	-0.6019
-4.7859	klimatu	-0.3528
-4.9320	klinice	-0.2724
-4.7279	kliniky	-0.2926
-4.9320	klise	-0.2880
-4.6767	kloubu	-0.2649
-4.8528	klouby	-0.2737
-4.5518	klub	-0.2858
-3.9234	klubu	-0.2618
-4.8528	kluby	-0.2734
-4.4848	kluci	-0.2588
-4.9320	klukum	-0.3738
-4.8528	kluky	-0.3690
-5.0289	kmotr	-0.2845
-5.0289	knez	-0.1884
-4.6767	knih	-0.2225
-4.4549	kniha	-0.1501
-4.9320	knihach	-0.1954
-4.9320	knihoven	-0.2869
-4.9320	knihovna	-0.1548
-4.8528	knihovne	-0.2079
-4.5518	knihovny	-0.3120
-4.4005	knihu	-0.2185
-4.2885	knihy	-0.2491
-4.4848	knitl	-0.5326
-4.5518	knizku	-0.2861
-4.4848	knizky	-0.4071
-4.9320	knowhow	-0.3728
-3.8828	koalice	-0.2584
-4.1538	koalici	-0.2169
-4.1258	koalicni	-0.4826
-4.8528	koalicnich	-0.3008
-4.5518	kocek	-0.3072
-4.9320	kocka	-0.2795
-4.6767	kocky	-0.2802
-4.8528	kod	-0.3509
-4.9320	kodu	-0.2766
-3.9975	koho	-0.3346
-4.9320	kohokoliv	-0.2697
-4.7279	kol	-0.2906
-4.4848	kola	-0.2530
-5.0289	kolaps	-0.1143
-4.3757	kole	-0.2672
-4.8528	kolech	-0.1466
-4.1396	kolega	-0.1976
-4.7859	kolegou	-0.1035
-4.3087	kolegove	-0.3319
-4.2508	kolegu	-0.2928
-4.2692	kolegy	-0.2428
-4.5170	kolegyne	-0.2115
-4.9320	koleje	-0.1935
-4.9320	koleji	-0.2805
-5.0289	kolektiv	-0.1832
-4.7279	kolektivni	-0.2023
-5.0289	kolektivu	-0.2863
-3.3087	kolem	-0.4132
-5.0289	kolena	-0.4000
-3.3830	kolik	-0.3887
-4.9320	kolika	-0.3004
-4.6310	kolikrat	-0.2137
-4.3757	kolo	-0.1750
-5.0289	kolony	-0.2892
-4.9320	kombinace	-0.1534
-4.9320	kombinaci	-0.5090
-4.6767	komentar	-0.3313
-4.7859	komentare	-0.4308
-5.0289	komentaru	-0.2893
-3.9975	komentator	-0.6048
-4.8528	komentatora	-0.1686
-4.8528	komentatorem	-0.1754
-5.0289	komentoval	-0.1922
-4.6310	komentovat	-0.3565
-5.0289	komentuje	-0.2872
-4.8528	komercni	-0.2339
-4.9320	komiks	-0.2821
-4.9320	komisar	-0.2974
-3.9589	komise	-0.2641
-4.5170	komisi	-0.2137
-5.0289	komora	-0.1923
-4.9320	komore	-0.5087
-5.0289	komorni	-0.2040
-4.5170	komory	-0.2305
-5.0289	kompenzace	-0.4108
-4.5170	kompetence	-0.1945
-4.8528	kompletne	-0.1561
-4.5896	kompletni	-0.1957
-4.7859	komplex	-0.1899
-4.8528	komplexni	-0.2176
-4.7279	komplikace	-0.1779
-4.8528	komplikovana	-0.2764
-4.6767	komplikovane	-0.2518
-4.8528	komplikovanejsi	-0.2815
-4.9320	komplikuje	-0.2886
-4.7279	kompromis	-0.4216
-4.2692	komu	-0.2607
-4.7279	komunalni	-0.3549
-4.2160	komunikace	-0.3525
-4.3522	komunikaci	-0.4212
-4.4549	komunikovat	-0.2989
-4.5170	komunismu	-0.2364
-4.6767	komuniste	-0.2150
-4.6767	komunisticke	-0.5559
-4.7859	komunistickeho	-0.3678
-4.8528	komunistu	-0.2663
-4.7859	komunisty	-0.3447
-5.0289	komunit	-0.4122
-4.8528	komunita	-0.2234
-5.0289	komunite	-0.2789
-5.0289	komunitni	-0.2900
-4.7859	komunity	-0.2365
-4.7859	kona	-0.3497
-4.7279	konala	-0.2986
-5.0289	konalo	-0.2989
-4.9320	konani	-0.2184
-4.7279	konat	-0.3403
-3.9067	konce	-0.4233
-4.5518	koncem	-0.4240
-4.9320	koncentrace	-0.2971
-4.4268	koncepce	-0.2163
-4.4848	koncepci	-0.2709
-4.7279	koncept	-0.1882
-4.1686	koncert	-0.2909
-4.5170	koncertu	-0.2425
-4.5170	koncerty	-0.3323
-3.7119	konci	-0.2484
-4.9320	koncit	-0.2946
-5.0289	koncu	-0.2941
-4.7279	kondici	-0.2047
-4.6310	kone	-0.2271
-4.0289	konec	-0.2302
-4.1396	koneckoncu	-0.3727
-4.9320	konecna	-0.2964
-4.0747	konecne	-0.2097
-4.8528	konecniku	-0.1938
-4.3757	konference	-0.2572
-4.2885	konferenci	-0.1973
-4.3299	konflikt	-0.3231
-4.4848	konfliktu	-0.2924
-5.0289	konflikty	-0.2903
-4.8528	kongres	-0.2710
-4.7859	kongresu	-0.2226
-4.6310	koni	-0.3128
-3.7119	konkretne	-0.2105
-4.6767	konkretnejsi	-0.3384
-3.7859	konkretni	-0.3269
-4.5518	konkretnich	-0.2857
-4.7859	konkretniho	-0.2952
-4.4268	konkretnim	-0.1783
-4.8528	konkretnimi	-0.1249
-4.9320	konkretnimu	-0.3009
-5.0289	konkurenceschopnosti	-0.2943
-4.8528	konkurenci	-0.2710
-4.9320	konkurovat	-0.2096
-4.5896	konopi	-0.2049
-4.9320	konsensu	-0.3648
-4.8528	konstatovat	-0.5899
-4.7859	konstrukce	-0.2853
-4.4268	kontakt	-0.3701
-5.0289	kontaktovat	-0.2834
-4.3522	kontaktu	-0.3478
-4.6310	kontakty	-0.3549
-4.7859	kontext	-0.3394
-4.5170	kontextu	-0.3331
-4.8528	kontinentu	-0.2045
-4.7279	konto	-0.2408
-4.5518	kontrola	-0.2802
-4.9320	kontrole	-0.1436
-4.4268	kontrolni	-0.5046
-5.0289	kontrolniho	-0.2036
-4.5170	kontrolou	-0.2896
-4.5170	kontrolovat	-0.2608
-4.4005	kontrolu	-0.2895
-4.9320	kontroluje	-0.2834
-5.0289	kontroluji	-0.3006
-4.4268	kontroly	-0.1888
-4.9320	kontroverzni	-0.2941
-4.3087	konzervativni	-0.4035
-5.0289	koordinovat	-0.2689
-5.0289	kopec	-0.2755
-5.0289	koprivnice	-0.1781
-4.7859	koprivnici	-0.2252
-4.7859	korea	-0.2938
-4.7859	koreji	-0.2851
-4.7859	korektni	-0.2651
-4.6767	koreny	-0.3076
-3.3171	korun	-0.3660
-4.5896	koruna	-0.2548
-4.7859	korunu	-0.2162
-4.8528	koruny	-0.3535
-4.2160	korupce	-0.3792
-4.1258	korupci	-0.2254
-4.9320	korupcni	-0.2867
-5.0289	koryta	-0.6020
-5.0289	kosmicka	-0.6020
-5.0289	kosmicke	-0.4259
-5.0289	kostel	-0.1846
-5.0289	kostela	-0.1237
-4.8528	kostele	-0.2172
-4.7859	kosti	-0.2640
-4.8528	kotel	-0.2887
-4.8528	kotlu	-0.2649
-4.8528	kouka	-0.2733
-5.0289	koukat	-0.2881
-5.0289	koupat	-0.2802
-4.2692	koupi	-0.2575
-4.5518	koupil	-0.2413
-5.0289	koupila	-0.2859
-4.8528	koupili	-0.2854
-4.0995	koupit	-0.2660
-4.5896	koureni	-0.3163
-4.9320	kouri	-0.3759
-5.0289	kourit	-0.2859
-4.4268	kousek	-0.5452
-4.9320	kousicek	-0.2988
-5.0289	kouzlo	-0.2881
-5.0289	kozak	-0.2896
-5.0289	kozni	-0.0439
-4.7859	krabici	-0.1986
-4.9320	krabicky	-0.0951
-4.9320	krade	-0.2897
-5.0289	kradeze	-0.4027
-4.1396	kraj	-0.2767
-5.0289	krajane	-0.2861
-3.8751	kraje	-0.1978
-4.0182	kraji	-0.2498
-4.6767	krajich	-0.3151
-4.6310	krajina	-0.2836
-4.8528	krajine	-0.2654
-4.7279	krajinu	-0.3413
-4.4268	krajske	-0.2722
-4.5896	krajskeho	-0.6432
-5.0289	krajskem	-0.6019
-4.6767	krajsky	-0.5560
-4.6310	krajskych	-0.3466
-4.6310	kraju	-0.2245
-4.7859	krale	-0.1024
-4.5896	kralik	-0.4348
-4.7279	kralovske	-0.5049
-4.7279	kralovstvi	-0.2833
-5.0289	kralu	-0.2845
-4.7859	krasa	-0.1655
-4.4549	krasna	-0.2091
-4.0399	krasne	-0.2042
-4.9320	krasnou	-0.1549
-3.9778	krasny	-0.3589
-4.7859	krat	-0.2424
-4.2160	kratce	-0.3856
-4.8528	kratke	-0.1756
-4.8528	kratkem	-0.0791
-4.9320	kratkosti	-0.2955
-4.8528	kratkou	-0.3659
-4.9320	kratky	-0.2110
-4.9320	kratsi	-0.2854
-4.8528	kraus	-0.2905
-4.9320	krausova	-0.2726
-4.7859	krcni	-0.6690
-5.0289	kreativitu	-0.2747
-5.0289	krecek	-0.2805
-4.8528	kreslo	-0.2331
-4.6310	krestanske	-0.3971
-4.8528	krestanskych	-0.2341
-4.7859	krestanstvi	-0.2240
-5.0289	krestanu	-0.4134
-4.5896	krev	-0.2739
-4.7859	krevni	-0.3010
-5.0289	krevniho	-0.4259
-5.0289	kridlo	-0.1248
-5.0289	kriminaliste	-0.1951
-4.4005	kriteria	-0.3522
-4.7859	kriterii	-0.2749
-4.7279	kritici	-0.2342
-4.7859	kriticka	-0.3558
-4.7279	kriticke	-0.3513
-4.6310	kriticky	-0.2796
-4.7279	kritika	-0.2307
-4.7279	kritiku	-0.3411
-4.6310	kritiky	-0.2744
-4.9320	kritizoval	-0.2684
-5.0289	kritizovat	-0.2978
-5.0289	krivka	-0.1245
-3.8528	krize	-0.2896
-4.1538	krizi	-0.2722
-5.0289	krizovatky	-0.2795
-5.0289	krizoveho	-0.4259
-5.0289	krku	-0.4096
-4.7279	kroc	-0.3416
-4.0628	krok	-0.2832
-4.8528	krokem	-0.2755
-4.4005	kroku	-0.3145
-4.0182	kroky	-0.2682
-4.7279	krom	-0.3524
-3.7015	krome	-0.5096
-5.0289	kroupa	-0.2862
-4.7279	krouzku	-0.3320
-4.6310	kruhu	-0.2435
-4.6767	krve	-0.1429
-4.7859	ksc	-0.4262
-4.4268	kscm	-0.2111
-2.6845	ktera	-0.4131
-2.4726	ktere	-0.4131
-3.8049	ktereho	-0.3251
-3.9589	kterej	-0.2633
-3.8049	kterem	-0.3634
-4.1838	kteremu	-0.2933
-2.8653	kteri	-0.4020
-3.1731	kterou	-0.3332
-2.5471	ktery	-0.3753
-3.5518	kterych	-0.4826
-4.7279	kteryho	-0.2843
-3.7333	kterym	-0.3204
-4.0747	kterymi	-0.4013
-4.8528	ku	-0.0378
-4.5896	kuba	-0.4723
-4.8528	kube	-0.3561
-4.4549	kubicko	-0.4613
-4.9320	kubiku	-0.3733
-4.7279	kuchyne	-0.2894
-5.0289	kulaty	-0.2890
-5.0289	kulminace	-0.2892
-4.9320	kulminovat	-0.2986
-4.7859	kultura	-0.1891
-4.7859	kulture	-0.2785
-4.3522	kulturni	-0.1926
-4.7279	kulturnich	-0.3589
-4.8528	kulturnim	-0.0760
-4.5896	kulturu	-0.3409
-4.0289	kultury	-0.3224
-4.9320	kun	-0.3719
-4.9320	kupni	-0.2218
-4.5896	kupodivu	-0.2823
-5.0289	kupovali	-0.4236
-4.5896	kupovat	-0.3263
-4.9320	kupredu	-0.3717
-5.0289	kupuje	-0.2949
-4.9320	kupujete	-0.2950
-4.8528	kupuji	-0.2181
-5.0289	kure	-0.1722
-4.4848	kurz	-0.2428
-4.6767	kurzu	-0.2117
-4.6310	kurzy	-0.2316
-4.5518	kus	-0.2210
-4.7859	kusu	-0.2951
-4.6767	kuze	-0.2602
-4.4549	kuzi	-0.2252
-4.9320	kvalifikaci	-0.2885
-4.4549	kvalita	-0.2728
-4.6767	kvalite	-0.2138
-4.9320	kvalitne	-0.1292
-4.7279	kvalitnejsi	-0.2287
-4.0182	kvalitni	-0.2633
-4.7279	kvalitnich	-0.2498
-4.7859	kvalitou	-0.1289
-4.4268	kvalitu	-0.1831
-4.5896	kvality	-0.3133
-4.3522	kvetna	-0.2801
-4.5896	kvetnu	-0.2174
-3.4848	kvuli	-0.2744
-4.9320	kyjeva	-0.1944
-4.9320	kyjeve	-0.2196
-4.4848	kym	-0.2944
-4.5518	kypr	-0.2661
-4.8528	kypru	-0.2908
-4.8528	kytara	-0.2184
-4.6310	kytaru	-0.2720
-4.4005	labe	-0.2528
-4.4549	labem	-0.3235
-4.4848	ladislav
-4.8528	lady	-0.1242
-4.6767	laicky	-0.2869
-4.8528	laka	-0.3631
-5.0289	lakaji	-0.4185
-4.7279	laska	-0.2683
-5.0289	laskou	-0.2750
-5.0289	lasku	-0.1663
-4.9320	lasky	-0.2570
-4.4848	latek	-0.3611
-5.0289	latina	-0.1795
-4.8528	latinske	-0.7781
-5.0289	latka	-0.1236
-4.7279	latku	-0.3372
-4.4005	latky	-0.2660
-4.8528	lazenske	-0.2867
-4.4549	lazne	-0.1796
-4.3299	lazni	-0.2155
-4.6310	laznich	-0.3071
-4.4268	lecba	-0.1913
-4.6310	lecbe	-0.2056
-4.5518	lecbu	-0.2688
-4.6767	lecby	-0.1722
-4.4848	leccos	-0.2987
-4.8528	lecebne	-0.3010
-5.0289	lecebnych	-0.6020
-4.7859	leci	-0.2723
-4.5170	lecit	-0.3549
-4.9320	ledacos	-0.2039
-4.1996	ledna	-0.2849
-4.4848	lednu	-0.2397
-4.7859	ledu	-0.2146
-4.7859	ledvin	-0.2720
-4.9320	ledvinu	-0.2194
-4.9320	ledviny	-0.2185
-5.0289	legalni	-0.2848
-4.8528	legislativa	-0.2741
-4.9320	legislativni	-0.3008
-5.0289	legislativu	-0.2999
-4.7279	legislativy	-0.2877
-4.6767	legitimni	-0.2693
-4.5518	legrace	-0.2919
-4.8528	legraci	-0.3482
-4.4005	lehce	-0.0671
-4.9320	lehci	-0.2781
-4.7859	lehke	-0.2386
-4.7279	lek	-0.2147
-4.2885	lekar	-0.2200
-4.5170	lekare	-0.2831
-4.5896	lekarem	-0.2047
-4.1838	lekari	-0.2346
-4.8528	lekarka	-0.2800
-4.9320	lekarska	-0.2218
-4.7859	lekarske	-0.6689
-4.9320	lekarskou	-0.3010
-4.3757	lekaru	-0.4026
-4.4549	leku	-0.3176
-4.1686	leky	-0.3125
-4.4005	lenka	-0.1687
-3.7736	lepe	-0.1852
-3.5204	lepsi	-0.3575
-4.8528	lepsiho	-0.2127
-4.9320	lepsim	-0.1546
-4.8528	les	-0.2764
-4.7859	lesa	-0.2866
-4.9320	lese	-0.2967
-4.8528	lesni	-0.1746
-2.9865	let	-0.2916
-3.9234	leta	-0.1589
-4.5518	letadla	-0.3858
-4.8528	letadle	-0.2758
-4.5170	letadlo	-0.1749
-4.2160	lete	-0.2828
-3.3879	letech	-0.3184
-5.0289	letecke	-0.6020
-5.0289	letectvi	-0.1954
-4.9320	letectvo	-0.3855
-4.9320	leteho	-0.2212
-5.0289	letel	-0.2730
-4.9320	leteli	-0.2959
-5.0289	letet	-0.2852
-4.5518	letiste	-0.1961
-4.7279	letisti	-0.2779
-4.6767	letni	-0.1984
-5.0289	letnich	-0.2040
-4.4848	leto	-0.2489
-3.7445	letos	-0.3011
-4.3087	letosni	-0.4360
-4.4268	letosniho	-0.5506
-4.4848	letosnim	-0.5423
-4.8528	letu	-0.2214
-3.5896	lety	-0.3218
-4.9320	lev	-0.1955
-4.5896	levice	-0.2992
-4.7279	levici	-0.3155
-4.9320	levicovy	-0.5204
-4.7859	levne	-0.2172
-5.0289	levneji	-0.2600
-4.6767	levnejsi	-0.2516
-4.6767	lez	-0.3099
-5.0289	lezet	-0.2934
-4.1996	lezi	-0.3630
-5.0289	lhutu	-0.2965
-4.8528	libanonu	-0.2896
-4.7859	liberalni	-0.3677
-4.1686	libi	-0.3192
-4.9320	libil	-0.2063
-4.8528	libila	-0.2314
-4.2508	libilo	-0.3692
-4.7279	libit	-0.2140
-4.4848	libor	-0.1249
-4.9320	libore	-0.2797
-5.0289	libove	-0.4241
-5.0289	libye	-0.2818
-5.0289	libyi	-0.2762
-4.9320	lid	-0.2715
-3.0088	lide	-0.3532
-4.3522	lidech	-0.2766
-3.6442	lidem	-0.2460
-2.7797	lidi	-0.3442
-4.6767	lidma	-0.2811
-4.0399	lidmi	-0.3017
-4.5896	lidovci	-0.2055
-5.0289	lidovcum	-0.2860
-4.3522	lidove	-0.2597
-4.5170	lidovych	-0.7160
-4.8528	lidr	-0.3734
-4.6310	lidrem	-0.2394
-4.2692	lidska	-0.7455
-4.6310	lidske	-0.2995
-4.8528	lidskou	-0.3009
-4.4848	lidsky	-0.3494
-4.4848	lidskych	-0.2683
-5.0289	lidstvo	-0.2999
-4.5896	lidu	-0.4122
-4.9320	liga	-0.3833
-5.0289	ligu	-0.2935
-4.7859	ligy	-0.3413
-4.9320	lihu	-0.2584
-4.4268	limity	-0.2951
-4.0869	lince	-0.4337
-4.5518	linii	-0.1685
-5.0289	linkach	-0.4223
-4.7859	linku	-0.2299
-4.8528	linky	-0.2864
-4.5170	lip	-0.2907
-5.0289	lipove	-0.2980
-4.3087	lisi	-0.5503
-4.4848	list	-0.2926
-5.0289	listek	-0.2859
-4.7859	listi	-0.2737
-4.2160	listopadu	-0.3303
-4.7859	listu	-0.2845
-4.7859	listy	-0.2641
-4.5518	literarni	-0.2127
-5.0289	literarniho	-0.3010
-5.0289	literatura	-0.2736
-4.8528	literaturu	-0.2222
-4.5896	literatury	-0.3950
-4.4268	lito	-0.5239
-4.5170	litru	-0.3525
-4.9320	litry	-0.2074
-4.8528	livia	-1.0792
-4.4549	lod	-0.2250
-4.6310	lode	-0.2684
-4.4268	lodi	-0.2318
-4.4005	logicke	-0.3913
-4.3299	logicky	-0.2111
-4.4848	logiku	-0.3340
-4.8528	lokalit	-0.2770
-4.7279	lokalite	-0.2337
-5.0289	lokalitu	-0.2967
-4.6767	lokality	-0.2208
-4.6310	lokalni	-0.2059
-4.9320	londyna	-0.2893
-4.4848	londyne	-0.3178
-3.9975	loni	-0.3384
-4.9320	lonske	-0.0969
-4.4848	lonskeho	-0.8447
-4.7279	lonskem	-1.2039
-4.8528	lonsky	-0.4768
-4.3757	louci	-0.5719
-5.0289	louze	-0.1942
-4.7859	lubomir	-0.1919
-4.8528	lubomira	-0.0378
-5.0289	lubos
-4.4268	lucie	-0.1514
-5.0289	ludmila	-0.0437
-4.6767	lukas	-0.1748
-4.7279	lukase	-0.1627
-4.7279	lustracni	-0.9030
-4.9320	luxusni	-0.2209
-4.8528	lyzovani	-0.2805
-3.9408	lze	-0.2776
-2.6249	ma	-0.2785
-4.5518	machacek	-0.3982
-5.0289	madarsku	-0.0557
-4.8528	mafra	-0.2187
-4.7859	magistrat	-0.2841
-4.5518	magistratu	-0.2615
-5.0289	magneticke	-0.0580
-4.7279	maj	-0.2235
-4.1996	majetek	-0.2042
-4.8528	majetkem	-0.2321
-4.9320	majetkova	-1.0000
-4.2692	majetku	-0.2624
-4.9320	majetky	-0.2029
-2.8898	maji	-0.2358
-4.2885	majitel	-0.2381
-4.1838	majitele	-0.2803
-4.9320	majitelem	-0.2202
-4.9320	majiteli	-0.2102
-4.1396	mala	-0.1731
-4.0628	male	-0.2822
-4.7859	maleho	-0.2408
-4.9320	malej	-0.0968
-4.2885	malem	-0.1976
-4.6310	mali	-0.1512
-4.8528	malicka	-0.2807
-5.0289	malickost	-0.2900
-4.5170	malinko	-0.2076
-3.6057	malo	-0.2852
-4.7859	malokdo	-0.2594
-4.8528	malokdy	-0.2228
-4.1838	malou	-0.3155
-4.1396	maly	-0.1940
-4.2885	malych	-0.1659
-4.6310	malym	-0.0827
-3.0005	mam	-0.3445
-4.7279	mama	-0.2029
-2.9925	mame	-0.2048
-4.0077	maminka	-0.1910
-4.9320	maminkou	-0.1414
-4.9320	maminky	-0.2027
-4.7279	management	-0.2793
-4.6310	manazer	-0.2163
-4.9320	manazera	-0.3828
-4.4549	manazeri	-0.2567
-4.3299	mandat	-0.2364
-4.7859	mandatu	-0.2583
-4.8528	mandela	-0.2172
-4.8528	manipulaci	-0.3642
-5.0289	mantinely	-0.2879
-4.6767	manzel	-0.2254
-4.7859	manzela	-0.2684
-4.6767	manzele	-0.1790
-5.0289	manzelem	-0.1232
-4.5896	manzelka	-0.2937
-4.6310	manzelky	-0.2425
-4.5518	manzelstvi	-0.1786
-4.7859	manzelu	-0.2862
-4.8528	mapa	-0.2715
-4.9320	mapuje	-0.2978
-4.4549	marek	-0.0575
-4.7859	margaret	-0.4472
-4.2885	marie	-0.1603
-4.7859	marka
-5.0289	markem	-0.1237
-4.8528	marketa	-0.1130
-4.7859	marketing	-0.2594
-5.0289	marketingu	-0.2920
-5.0289	marne	-0.1933
-4.9320	mars	-0.2803
-4.7279	marsu	-0.2590
-3.6719	martin	-0.3338
-4.1686	martina	-0.0762
-4.4848	martine	-0.2760
-4.7859	martinem	-0.0321
-4.9320	marvanova	-0.2145
-4.5518	mas	-0.2952
-4.4549	masa	-0.3216
-5.0289	masaryk	-0.4234
-4.7279	masarykovy	-1.2041
-4.8528	masivni	-0.2768
-4.9320	masky	-0.2173
-4.3522	maso	-0.2150
-3.1716	mate	-0.3478
-4.7859	matematika	-0.2832
-4.8528	matematiku	-0.3462
-4.7859	matematiky	-0.2838
-4.3522	material	-0.2147
-4.4005	materialu	-0.2779
-5.0289	materialum	-0.2887
-4.5518	materialy	-0.3054
-4.4005	materske	-0.6172
-4.5518	materskych	-0.3358
-4.3757	matka	-0.2552
-5.0289	matkou	-0.2869
-4.9320	matku	-0.1923
-4.7859	matky	-0.3520
-4.1538	maximalne	-0.2487
-4.5896	maximum	-0.3241
-2.7791	me	-0.2900
-4.8528	mechanismu	-0.2120
-4.6310	mechanismus	-0.3193
-4.5896	mechanismy	-0.4103
-4.7859	medaile	-0.3432
-4.9320	medaili	-0.1931
-3.8675	media	-0.2723
-4.8528	medialne	-0.1029
-4.1538	medialni	-0.2334
-5.0289	medialnim	-0.0579
-4.7859	medicina	-0.1697
-4.6310	medicine	-0.2235
-4.9320	medicinu	-0.1963
-4.9320	mediciny	-0.2080
-4.1125	medii	-0.2558
-4.1838	mediich	-0.1945
-4.9320	mediim	-0.2635
-3.6397	meho	-0.8716
-4.0289	mejte	-1.5910
-2.9434	mel	-0.2749
-3.1553	mela	-0.2983
-3.0844	meli	-0.2164
-4.9320	melniku	-0.2978
-3.3805	melo	-0.4922
-3.7119	mely	-0.3048
-4.6310	mem	-0.1869
-4.7279	mena	-0.4159
-3.6487	mene	-0.1982
-4.0182	meni	-0.3829
-4.2885	menit	-0.2164
-4.9320	menove	-0.6988
-4.8528	menoveho	-0.7781
-3.8675	mensi	-0.2418
-4.5896	mensich	-0.1636
-4.7279	mensim	-0.3007
-5.0289	mensin	-0.2014
-5.0289	mensina	-0.2917
-4.7859	mensinove	-0.5429
-5.0289	mensiny	-0.2801
-4.9320	mentalne	-0.2199
-4.9320	mereni	-0.1961
-4.9320	meri	-0.2921
-5.0289	merici	-0.2041
-4.8528	merit	-0.2900
-4.7859	meritku	-0.2656
-4.5896	merkelova	-0.2496
-4.7279	merkelove	-0.3329
-3.9589	mesic	-0.2166
-3.9067	mesice	-0.2588
-4.9320	mesicem	-0.1964
-4.5896	mesici	-0.2402
-4.3087	mesicich	-0.2676
-4.6310	mesicne	-0.2672
-4.8528	mesicni	-0.2135
-3.9778	mesicu	-0.2079
-5.0289	mesitach	-0.2688
-4.1996	mest	-0.2604
-3.4942	mesta	-0.2296
-3.9497	meste	-0.2319
-4.1838	mestech	-0.2940
-5.0289	mestecka	-0.1946
-4.5518	mestem	-0.3053
-3.5375	mesto	-0.2351
-4.6767	mestska	-0.4767
-4.0869	mestske	-0.4462
-4.5896	mestskeho	-0.2629
-4.8528	mestskou	-0.3801
-4.4549	mestskych	-0.4628
-4.4848	mestu	-0.2142
-4.9320	metal	-0.3649
-4.8528	meteority	-0.2304
-4.1686	metoda	-0.1760
-4.8528	metodiku	-0.2912
-4.9320	metodou	-0.1527
-4.7279	metodu	-0.3537
-4.3299	metody	-0.3024
-4.8528	metr	-0.0648
-4.5170	metra	-0.3193
-4.9320	metro	-0.2934
-4.9320	metropole	-0.1405
-3.9975	metru	-0.2828
-4.9320	mez	-0.2061
-4.9320	mezd	-0.3756
-3.0957	mezi	-0.2759
-3.9589	mezinarodni	-0.2453
-4.4268	mezinarodnich	-0.2733
-4.3757	mezinarodniho	-0.3505
-4.7859	mezinarodnim	-0.1047
-4.4268	mezitim	-0.2756
-2.9381	mi	-0.3105
-4.8528	michael	-0.1235
-4.7279	michaela
-4.9320	michail	-0.0458
-3.9778	michal	-0.1470
-4.4268	michala	-0.0873
-4.8528	michale	-0.3583
-4.8528	michalem	-0.0360
-5.0289	mikrofonem	-0.2971
-4.0995	mikrofonu	-0.5809
-4.9320	mikulas	-0.2901
-4.0289	milan	-0.1995
-4.7279	milana	-0.1243
-4.4848	milane	-0.4305
-4.7279	milanem	-0.0139
-4.6767	mile	-0.2441
-4.7859	milena	-0.0559
-4.2885	mili	-0.8638
-3.9778	miliard	-0.4158
-4.8528	miliarda	-0.3571
-5.0289	miliardu	-0.2944
-4.0628	miliardy	-0.6861
-4.9320	milimetru	-0.3797
-4.3757	milion	-0.3626
-3.4942	milionu	-0.6035
-3.9875	miliony	-0.3207
-3.6442	milos	-1.0729
-4.0747	milose	-1.0122
-4.6310	milosem	-1.3010
-4.7859	milosi	-1.1461
-4.9320	milost	-0.2742
-4.9320	miluju	-0.2843
-3.6532	mimo	-0.4538
-3.7502	mimochodem	-0.2610
-5.0289	mimoradna	-0.1247
-4.4268	mimoradne	-0.2155
-4.4005	min	-0.2780
-4.7859	mince	-0.2892
-4.5896	mineni	-0.2798
-5.0289	mineralnich	-0.4118
-3.7676	minimalne	-0.2944
-4.2508	minimalni	-0.4284
-4.8528	minimum	-0.2771
-4.7859	ministerstev	-0.2155
-3.8386	ministerstva	-0.5243
-4.5518	ministerstvem	-0.5349
-3.7921	ministerstvo	-0.5018
-4.3299	ministerstvu	-0.3526
-3.5741	ministr	-0.5262
-3.9320	ministra	-0.4704
-4.4848	ministre	-0.2588
-4.1838	ministrem	-0.4582
-4.6767	ministri	-0.3083
-4.5518	ministru	-0.2412
-4.6767	ministry	-0.2480
-4.3522	ministryne	-0.5318
-4.6767	ministryni	-0.2756
-4.7859	minula	-0.2706
-4.5518	minule	-0.3377
-4.1396	minuleho	-0.7502
-4.4848	minulem	-0.4924
-3.9234	minulosti	-0.2358
-5.0289	minulou	-0.2860
-4.0869	minuly	-0.8758
-4.3299	minulych	-0.3307
-5.0289	minulym	-0.2041
-4.3522	minus	-0.2403
-3.5856	minut	-0.5601
-4.5896	minutach	-0.2065
-5.0289	minute	-0.2893
-4.6767	minutu	-0.3179
-4.6310	minuty	-0.2721
-4.9320	mir	-0.2707
-4.7279	mira	-0.2471
-4.5518	mire	-0.2941
-4.7859	mirek	-0.1874
-4.5518	miri	-0.3652
-5.0289	mirku	-0.2901
-4.4549	mirne	-0.1908
-4.0869	miroslav	-0.2312
-4.2160	miroslava	-0.3003
-4.8528	mirove	-0.3801
-4.3522	miru	-0.2721
-3.7617	miry	-0.2541
-4.7279	mise	-0.2030
-4.0399	mist	-0.3496
-3.8181	mista	-0.3062
-3.6139	miste	-0.2492
-4.0512	mistech	-0.3358
-4.9320	mistem	-0.2119
-4.0512	mistni	-0.3025
-4.7279	mistnich	-0.1933
-5.0289	mistniho	-0.3008
-4.8528	mistnim	-0.1248
-5.0289	mistnost	-0.2867
-4.4005	mistnosti	-0.3087
-3.4787	misto	-0.2838
-4.5518	mistopredseda	-0.3238
-4.8528	mistopredsedkyne	-0.3787
-4.9320	mistopredsedo	-0.2947
-5.0289	mistopredsedou	-0.3007
-5.0289	mistopredsedu	-0.4254
-4.6767	mistopredsedy	-0.2777
-4.6767	mistostarosta	-0.1628
-4.9320	mistr	-0.1546
-5.0289	mistri	-0.3008
-4.2692	mistrovstvi	-0.8843
-4.9320	mistru	-0.2986
-4.6310	misty	-0.1868
-2.9975	mit	-0.2334
-5.0289	mivaji	-0.3003
-4.4005	mlada	-0.2218
-4.2330	mlade	-0.4181
-4.7279	mladek	-0.3305
-5.0289	mladez	-0.2885
-4.7859	mladeze	-0.2796
-3.9778	mladi	-0.4669
-5.0289	mladku	-0.2977
-4.9320	mladou	-0.0969
-4.2508	mladsi	-0.1795
-4.4848	mlady	-0.1902
-4.4268	mladych	-0.2902
-5.0289	mladym	-0.0579
-4.8528	mladymi	-0.3800
-5.0289	mlcky	-0.1138
-4.8528	mleko	-0.1955
-3.9150	mluvci	-0.2239
-3.6224	mluvi	-0.4424
-3.8456	mluvil	-0.4105
-4.4005	mluvila	-0.4194
-3.9150	mluvili	-0.5971
-4.3757	mluvilo	-0.4949
-4.9320	mluvily	-0.5121
-4.1996	mluvim	-0.4934
-3.9682	mluvime	-0.7429
-3.6719	mluvit	-0.5131
-4.1996	mluvite	-0.5021
-3.3046	mne	-0.4137
-5.0289	mnichovu	-0.2923
-3.9150	mnoha	-0.3463
-4.3299	mnohdy	-0.2168
-4.5896	mnohe	-0.2097
-3.6310	mnohem	-0.4285
-3.5703	mnoho	-0.3098
-4.1996	mnohokrat	-0.2984
-3.7797	mnou	-0.4549
-4.3087	mnozi	-0.3384
-3.8181	mnozstvi	-0.2326
-4.5518	mobilni	-0.4258
-5.0289	mobilnich	-0.0579
-3.1098	moc	-0.1982
-3.7676	moci	-0.1887
-4.4848	mockrat	-0.4006
-4.6767	moct	-0.1402
-4.9320	moda	-0.2194
-4.4549	model	-0.2882
-4.5518	modelu	-0.3803
-4.6310	modely	-0.3751
-4.1686	moderni	-0.2891
-5.0289	modernich	-0.0572
-5.0289	modernim	-0.2037
-5.0289	modernizaci	-0.1116
-5.0289	modlitby	-0.2840
-3.3980	mohl	-0.2841
-3.5935	mohla	-0.3005
-3.4911	mohli	-0.2246
-3.5817	mohlo	-0.3719
-3.8181	mohly	-0.2738
-3.4135	mohou	-0.2253
-4.0182	mohu	-0.3991
-3.6353	moje	-0.3358
-3.9589	moji	-0.1693
-4.1838	moment	-0.3841
-4.3087	momentalne	-0.2730
-4.7859	momente	-0.4449
-4.6767	momentu	-0.4061
-4.7279	momenty	-0.4945
-4.7859	monarchie	-0.2777
-5.0289	moralni	-0.4234
-4.7859	morava	-0.3413
-5.0289	moravce	-0.1935
-4.3299	morave	-0.3896
-4.7279	moravske	-0.3009
-4.6767	moravskoslezskeho	-0.9542
-4.6310	moravskoslezskem	-1.3010
-4.5896	moravy	-0.2476
-4.2160	more	-0.3237
-5.0289	morem	-0.2943
-4.6310	mori	-0.1926
-4.7859	moskva	-0.2161
-4.5896	moskve	-0.2272
-4.7279	moskvy	-0.2729
-4.7279	most	-0.2866
-5.0289	moste	-0.2865
-4.7279	mostecke	-0.7270
-4.6767	mostu	-0.2944
-4.9320	mosty	-0.2182
-4.9320	motiv	-0.2758
-4.8528	motivace	-0.2922
-4.5518	motivaci	-0.2860
-4.8528	motivem	-0.2985
-4.8528	motivy	-0.1649
-4.9320	motol	-0.3870
-5.0289	motory	-0.2910
-4.8528	mozkove	-0.0634
-5.0289	mozku	-0.2851
-2.9372	mozna	-0.2868
-3.2692	mozne	-0.3084
-5.0289	mozneho	-0.2653
-4.1125	mozno	-0.1974
-3.5104	moznost	-0.2504
-3.7676	moznosti	-0.3299
-4.0399	mozny	-0.3520
-4.5896	moznych	-0.2283
-4.7279	mraz	-0.1422
-4.7279	mrkev	-0.2666
-4.6310	mrtvych	-0.2641
-4.4268	mrzi	-0.4188
-4.8528	mse	-0.2853
-3.1823	mu	-0.2087
-4.8528	muhamad	-0.6021
-3.6965	muj	-0.3983
-4.8528	mursi	-0.2029
-4.7279	mursiho	-0.1900
-4.4549	museji	-0.3573
-3.8828	musel	-0.3352
-4.0289	musela	-0.3014
-3.9150	museli	-0.2139
-4.3757	muselo	-0.2883
-4.5896	musely	-0.2092
-3.8601	muset	-0.2581
-3.0639	musi	-0.3454
-3.3568	musim	-0.6201
-3.4696	musime	-0.3733
-4.9320	musis	-0.2207
-3.7797	musite	-0.3687
-4.7279	muslimske	-0.9029
-4.7859	muslimskeho	-1.1461
-4.0182	muz	-0.3814
-2.8017	muze	-0.4042
-4.1538	muzea	-0.2094
-3.4241	muzeme	-0.3008
-4.7279	muzes	-0.3520
-3.4083	muzete	-0.3439
-4.5896	muzeu	-0.3058
-4.3299	muzeum	-0.2710
-4.0077	muzi	-0.3970
-4.8528	muzice	-0.2667
-4.7279	muzika	-0.2639
-4.7279	muzikal	-0.1316
-4.8528	muzikant	-0.5629
-4.7279	muziku	-0.3291
-3.7015	muzou	-0.2917
-4.9320	muzske	-0.3956
-3.5272	muzu	-0.2808
-2.6578	my	-0.6293
-4.1396	mych	-0.2327
-4.7279	myho	-0.2497
-5.0289	mylim	-0.4069
-4.0182	mym	-0.5512
-4.8528	mynar	-0.2843
-4.0995	myslel	-0.6217
-4.6310	myslela	-0.4327
-4.6310	mysleli	-0.3640
-4.6310	mysleni	-0.3160
-4.5518	myslenka	-0.1853
-5.0289	myslenkami	-0.1963
-4.9320	myslenkou	-0.3877
-4.6767	myslenku	-0.2787
-4.5170	myslenky	-0.2757
-5.0289	mysleno	-0.2842
-4.2692	myslet	-0.5591
-3.7617	mysli	-0.3859
-2.5598	myslim	-1.1545
-4.3522	myslime	-0.7016
-4.6310	myslis	-0.5020
-3.3830	myslite	-0.8889
-4.9320	myty	-0.5035
-4.7859	mzda	-0.2468
-4.9320	mzdu	-0.3809
-4.8528	mzdy	-0.2677
-1.7681	na	-0.3923
-4.6310	nabidka	-0.2304
-5.0289	nabidkou	-0.2960
-4.3757	nabidku	-0.2491
-4.5518	nabidky	-0.1681
-4.9320	nabidl	-0.1485
-4.9320	nabidli	-0.2093
-4.9320	nabidlo	-0.2195
-4.7859	nabidne	-0.2961
-4.4549	nabidnout	-0.2860
-4.7279	nabizeji	-0.1687
-5.0289	nabizel	-0.2965
-4.6767	nabizet	-0.2149
-4.0869	nabizi	-0.2733
-4.6767	nabizime	-0.2512
-5.0289	nabozenske	-0.2987
-4.9320	nabozenstvi	-0.2104
-4.9320	nabrezi	-0.2971
-4.5170	nachazi	-0.2963
-3.3830	nad	-0.4315
-5.0289	nada	-0.1138
-5.0289	nadace	-0.2904
-5.0289	nadacni	-0.6020
-4.0869	nadale	-0.1948
-4.4549	nadeje	-0.4093
-4.5518	nadeji	-0.2993
-4.8528	nadherna	-0.1650
-4.5170	nadherne	-0.2035
-4.5170	nadherny	-0.2426
-4.7859	nadnarodni	-0.3677
-4.7279	nadobi	-0.3283
-4.7859	nadoby	-0.3377
-4.5518	nadrazi	-0.2055
-4.8528	nadrze	-0.1516
-5.0289	nadsazkou	-0.2968
-4.7279	nadseni	-0.3383
-4.9320	nadstandardni	-0.3838
-5.0289	nagyovou	-0.4078
-4.7859	nahlas	-0.4227
-4.9320	nahle	-0.2218
-4.9320	nahlednout	-0.3749
-4.7859	nahlizet	-0.4314
-4.7859	nahoda	-0.3266
-4.1686	nahodou	-0.2990
-4.8528	nahore	-0.2645
-4.2330	nahoru	-0.2427
-5.0289	nahrad	-0.4084
-4.6310	nahradit	-0.2542
-4.6310	nahradni	-0.3450
-5.0289	nahradu	-0.2991
-4.7859	nahrady	-0.2728
-5.0289	naivni	-0.2754
-4.5170	najde	-0.2553
-4.5170	najdeme	-0.2593
-4.4549	najdete	-0.2614
-4.3757	najdou	-0.2239
-3.6865	najednou	-0.2281
-4.9320	najem	-0.3836
-4.3757	najevo	-0.4186
-3.8906	najit	-0.2668
-5.0289	nakazy	-0.2766
-4.9320	naklad	-0.2909
-5.0289	nakladatelstvi	-0.0569
-5.0289	nakladne	-0.1880
-4.9320	nakladni	-0.3957
-4.5518	nakladu	-0.2244
-3.9067	naklady	-0.3801
-4.8528	nakolik	-0.2711
-3.4463	nakonec	-0.1944
-4.8528	nakup	-0.2052
-4.6767	nakupovat	-0.2783
-4.5170	nakupu	-0.2882
-4.9320	nakupuji	-0.1535
-4.7859	nakupy	-0.2665
-5.0289	nalad	-0.2005
-4.6767	nalada	-0.2828
-4.9320	naladili	-0.6978
-4.7279	naladu	-0.2703
-4.7859	nalady	-0.3429
-4.9320	nalehave	-0.2996
-4.7859	nalez	-0.4220
-5.0289	nalezl	-0.3003
-5.0289	nalezt	-0.2977
-4.9320	nalezy	-0.3698
-2.9965	nam	-0.2516
-4.7279	nama	-0.2740
-4.1996	namestek	-0.4009
-3.8675	namesti	-0.1939
-4.5170	namestka	-0.1966
-5.0289	namestkem	-0.2040
-4.7279	namestku	-0.1880
-5.0289	namestkyne	-0.1249
-4.9320	namet	-0.2625
-3.9875	nami	-0.2306
-5.0289	namitkami	-0.2967
-5.0289	namorni	-0.1249
-3.4787	naopak	-0.2294
-4.3087	napad	-0.2058
-4.7279	napada	-0.3449
-5.0289	napadaji	-0.1935
-4.4549	napadlo	-0.2935
-4.7279	napadne	-0.1975
-4.8528	napady	-0.2955
-4.4268	napeti	-0.3894
-5.0289	napise	-0.2888
-4.7859	naplanovano	-0.2615
-5.0289	naplnit	-0.1747
-4.7859	naplno	-0.2175
-5.0289	naplnovat	-0.2988
-4.9320	naplnuje	-0.2826
-5.0289	napor	-0.2895
-4.8528	naposled	-0.3391
-4.3299	naposledy	-0.2851
-5.0289	napravu	-0.2890
-4.6767	napred	-0.2291
-4.6310	napric	-0.3976
-3.0995	napriklad	-0.1441
-4.7859	naprosta	-0.1918
-4.7279	naproste	-0.1900
-3.5137	naprosto	-0.1474
-4.7859	naprostou	-0.8449
-5.0289	naprosty	-0.2041
-3.9320	napsal	-0.2536
-4.7279	napsala	-0.2422
-5.0289	napsaly	-0.2920
-4.5518	napsano	-0.3502
-4.8528	napsany	-0.2643
-4.4268	napsat	-0.2454
-5.0289	naradi	-0.1904
-4.9320	naraz	-0.2827
-4.5518	narazil	-0.3242
-5.0289	narazila	-0.2895
-5.0289	narazime	-0.2844
-5.0289	naridi	-0.2909
-4.7279	narizeni	-0.2846
-4.5518	narocna	-0.3045
-4.6767	narocne	-0.4450
-4.9320	narocnost	-0.2103
-5.0289	narocny	-0.2012
-4.4848	narod	-0.2681
-4.7279	naroda	-0.2376
-4.3757	narodil	-0.3363
-4.7279	narodila	-0.3994
-4.8528	narodili	-0.2734
-3.7985	narodni	-0.3894
-4.7279	narodnich	-0.2400
-4.0628	narodniho	-0.6095
-4.4848	narodnim	-0.3329
-4.9320	narodnostni	-0.1549
-4.6310	narodu	-0.3634
-4.6310	narok	-0.4457
-4.5896	naroky	-0.4594
-4.9320	narovinu	-0.1445
-4.6767	narozeni	-0.1731
-4.5170	narust	-0.2560
-4.9320	narustu	-0.2190
-5.0289	narychlo	-0.1230
-2.8393	nas	-0.1771
-4.9320	nasadit	-0.2997
-4.7279	nasazeni	-0.2401
-3.3855	nase	-0.2728
-3.6224	naseho	-0.3873
-4.4848	nasel	-0.2940
-3.9682	nasem	-0.4712
-4.5170	nasemu	-0.1361
-4.9320	nashledanou	-0.9893
-3.3321	nasi	-0.2674
-3.5375	nasich	-0.2193
-4.6310	nasili	-0.2227
-3.6767	nasim	-0.4912
-4.4848	nasimi	-0.3008
-4.5896	nasla	-0.1928
-4.4848	nasledky	-0.2988
-4.2508	nasledne	-0.2297
-4.5170	nasledovat	-0.3523
-4.7279	nasleduje	-0.2014
-4.3757	nasledujici	-0.3374
-4.6767	nasledujicich	-0.5558
-4.3087	nasli	-0.2910
-4.9320	naslo	-0.2862
-4.9320	nasly	-0.1544
-5.0289	nasnade	-0.1903
-4.7859	nastal	-0.2710
-5.0289	nastala	-0.2917
-4.5518	nastane	-0.2926
-4.4549	nastat	-0.2678
-4.6310	nastava	-0.2869
-5.0289	nastaven	-0.2699
-4.6767	nastavena	-0.3190
-5.0289	nastavene	-0.3006
-4.7859	nastaveni	-0.2339
-4.5518	nastaveny	-0.2199
-4.8528	nastavit	-0.2239
-4.3757	nastesti	-0.2011
-4.7859	nastoupi	-0.2269
-4.7859	nastoupil	-0.3448
-4.7279	nastoupit	-0.3384
-4.5518	nastroj	-0.2230
-4.7859	nastroje	-0.1550
-4.8528	nastrojem	-0.2058
-5.0289	nastroju	-0.2005
-4.8528	nastup	-0.3703
-5.0289	nastupce	-0.1932
-4.9320	nastupem	-0.2903
-4.9320	nastupuje	-0.2185
-4.9320	nataceni	-0.2079
-4.9320	nater	-0.2944
-4.6767	nato	-0.2547
-5.0289	natocen	-0.2961
-4.5896	natocil	-0.2604
-4.9320	natocila	-0.2210
-4.3299	natolik	-0.1849
-5.0289	natvrdo	-0.1245
-4.6767	nauci	-0.2616
-4.4549	naucil	-0.1778
-4.7859	naucila	-0.2725
-4.8528	naucili	-0.2563
-4.3522	naucit	-0.3565
-4.6767	navazat	-0.3275
-5.0289	navazuje	-0.2774
-3.5482	navic	-0.2001
-4.6767	navod	-0.3099
-4.3522	navrat	-0.4070
-4.7279	navratu	-0.2749
-4.0289	navrh	-0.2358
-4.5896	navrhem	-0.3591
-4.8528	navrhl	-0.2088
-4.9320	navrhoval	-0.2954
-4.3522	navrhu	-0.2818
-4.7859	navrhuje	-0.2373
-5.0289	navrhum	-0.1808
-4.4848	navrhy	-0.1853
-5.0289	navrzene	-0.3010
-4.9320	navsteva	-0.2924
-4.4848	navsteve	-0.1719
-4.5896	navstevnici	-0.2188
-4.7279	navstevniku	-0.2198
-4.6767	navstevniky	-0.1981
-4.9320	navstevovat	-0.2980
-4.4549	navstevu	-0.3869
-4.6767	navstevy	-0.2757
-4.6767	navstivil	-0.2402
-4.7859	navstivit	-0.0855
-4.7279	navyky	-0.5700
-4.8528	navyseni	-0.2939
-5.0289	navysit	-0.2880
-4.7859	navzdory	-0.3656
-4.2160	nazev	-0.1555
-4.3087	naznacil	-0.4033
-4.8528	naznacila	-0.2206
-4.8528	naznacuje	-0.3677
-5.0289	naznacujete	-0.4075
-3.5341	nazor	-0.4087
-4.7859	nazorem	-0.2398
-3.6266	nazoru	-0.2450
-3.9067	nazory	-0.3599
-4.7859	nazval	-0.1422
-5.0289	nazvane	-0.1242
-4.9320	nazvat	-0.2038
-4.6767	nazvem	-0.0511
-4.8528	nazveme	-0.2753
-4.8528	nazvu	-0.2848
-5.0289	nazyva	-0.0484
-2.6791	ne	-0.3489
-5.0289	neb	-0.1955
-4.7859	nebavi	-0.3460
-4.8528	nebe	-0.2822
-4.6767	neberou	-0.2660
-4.0747	nebezpeci	-0.2569
-4.7859	nebezpecna	-0.2815
-4.4268	nebezpecne	-0.2554
-4.6310	nebezpecny	-0.2455
-2.2874	nebo	-0.0824
-4.5518	neboli	-0.1866
-4.4005	nebot	-0.1733
-3.3278	nebude	-0.2234
-4.0747	nebudeme	-0.2311
-4.6767	nebudete	-0.2495
-3.8248	nebudou	-0.2559
-4.0512	nebudu	-0.2413
-3.5856	nebyl	-0.3079
-3.6965	nebyla	-0.2684
-4.1125	nebyli	-0.2578
-3.5975	nebylo	-0.3241
-3.9975	nebyly	-0.1608
-4.1686	necas	-0.3044
-4.3757	necase	-0.3081
-4.7859	necasova	-0.6687
-5.0289	necasovy	-0.6019
-4.4005	neceho	-0.4309
-4.9320	neceka	-0.2573
-4.9320	necekal	-0.3834
-4.9320	necekam	-0.3864
-4.7279	necekane	-0.2416
-4.7859	necele	-0.4462
-4.8528	necelych	-0.4764
-4.1838	necem	-0.2842
-4.2692	necemu	-0.2566
-4.5518	necha	-0.1589
-4.5170	nechaji	-0.3231
-4.4268	nechal	-0.2461
-4.4549	nechala	-0.2320
-4.6767	nechali	-0.1629
-4.7859	necham	-0.3536
-4.5170	nechame	-0.3023
-4.5170	nechapu	-0.4789
-4.0628	nechat	-0.2866
-5.0289	nechate	-0.1924
-4.9320	nechava	-0.0933
-4.9320	nechavat	-0.2819
-3.8906	nechce	-0.3128
-4.4268	nechceme	-0.1941
-4.7279	nechcete	-0.3513
-3.6965	nechci	-0.3297
-4.7859	nechme	-0.4318
-4.6767	nechodi	-0.3885
-5.0289	nechova	-0.2921
-4.8528	necht	-0.2772
-4.7859	nechte	-0.3524
-4.4848	nechteji	-0.2499
-4.2885	nechtel	-0.2313
-4.4848	nechtela	-0.3120
-4.7859	nechteli	-0.2276
-4.3522	necim	-0.3448
-4.7279	neciti	-0.4109
-4.8528	necitim	-0.2082
-2.7718	neco	-0.3221
-3.8248	neda	-0.3509
-4.6310	nedaji	-0.3799
-4.7859	nedaleko	-0.1450
-5.0289	nedali	-0.2968
-4.5518	nedalo	-0.2510
-4.2885	nedari	-0.3891
-5.0289	nedarilo	-0.1825
-4.8528	nedava	-0.2996
-3.9234	nedavno	-0.1839
-4.4848	nedeje	-0.3705
-4.3757	nedela	-0.2967
-4.7859	nedelaji	-0.3408
-4.9320	nedelal	-0.3687
-4.8528	nedelali	-0.2897
-4.6767	nedelam	-0.3197
-4.6310	nedelame	-0.2540
-4.5896	nedele	-0.1921
-4.3757	nedeli	-0.1840
-4.8528	nedochazelo	-0.4642
-4.7859	nedochazi	-0.5403
-4.8528	nedojde	-0.3478
-4.8528	nedokazal	-0.2926
-4.5170	nedokaze	-0.3573
-4.9320	nedokazeme	-0.2775
-4.8528	nedokazou	-0.2905
-4.4549	nedokazu	-0.3548
-4.4005	nedoslo	-0.5161
-4.5518	nedostal	-0.4473
-4.7859	nedostala	-0.2833
-4.9320	nedostali	-0.2185
-4.9320	nedostalo	-0.2954
-4.5170	nedostane	-0.4966
-4.7859	nedostanete	-0.2801
-4.7859	nedostatecne	-0.0889
-4.7279	nedostatek	-0.2039
-4.9320	nedostatkem	-0.2217
-4.4268	nedovedu	-0.6417
-4.2508	neexistuje	-0.3451
-4.6310	nefunguje	-0.2998
-4.7279	nefunguji	-0.2775
-4.7859	negativne	-0.2277
-4.3087	negativni	-0.2387
-4.7859	negativnim	-0.0655
-4.2508	neho	-0.2191
-4.7859	nehod	-0.2170
-4.8528	nehode	-0.2232
-4.7859	nehodu	-0.3555
-4.7859	nehody	-0.2694
-5.0289	nehraje	-0.2975
-4.4268	nehrozi	-0.3305
-4.9320	nehty	-0.1998
-3.4188	nej	-0.1690
-4.5896	nejaci	-0.2952
-3.2261	nejak	-0.0735
-3.3781	nejaka	-0.2029
-3.0203	nejake	-0.2178
-3.7797	nejakeho	-0.1480
-4.3522	nejakej	-0.1475
-4.7859	nejakejch	-0.1032
-4.0995	nejakem	-0.1942
-4.0869	nejakemu	-0.1026
-3.2508	nejakou	-0.2196
-3.0783	nejaky	-0.2233
-3.7333	nejakych	-0.2005
-4.6310	nejakyho	-0.1547
-3.2985	nejakym	-0.6055
-4.4549	nejakymi	-0.0968
-4.2692	nejblizsi	-0.3941
-4.6310	nejblizsich	-0.3976
-4.2692	nejcasteji	-0.2588
-4.3522	nejcastejsi	-0.2464
-3.7921	nejde	-0.5420
-4.9320	nejdou	-0.2119
-5.0289	nejdrazsi	-0.2998
-4.1538	nejdriv	-0.2398
-4.2508	nejdrive	-0.2030
-4.1125	nejdulezitejsi	-0.4402
-5.0289	nejdulezitejsich	-0.2914
-4.4848	nejedna	-0.6429
-3.6442	nejen	-0.3662
-3.5238	nejenom	-0.3562
-4.9320	nejhezci	-0.2188
-4.2160	nejhorsi	-0.3874
-4.7859	nejhur	-0.3537
-4.7279	nejjednodussi	-0.2364
-5.0289	nejkrasnejsi	-0.2868
-4.1996	nejlepe	-0.1506
-3.7985	nejlepsi	-0.2372
-4.7859	nejlepsich	-0.2427
-4.6310	nejlepsim	-0.2442
-4.9320	nejlip	-0.2162
-4.4848	nejmene	-0.2260
-4.5896	nejmensi	-0.2712
-5.0289	nejmin	-0.1955
-4.7859	nejmladsi	-0.2221
-4.9320	nejnizsi	-0.3007
-4.6767	nejnovejsi	-0.2036
-4.9320	nejpozdeji	-0.3904
-5.0289	nejpravdepodobnejsi	-0.4152
-4.3757	nejprve	-0.1855
-4.7279	nejradsi	-0.3313
-4.6310	nejruznejsi	-0.1511
-4.7279	nejruznejsich	-0.2010
-4.8528	nejrychlejsi	-0.1617
-3.8316	nejsem	-0.3206
-4.4848	nejsilnejsi	-0.2563
-3.8986	nejsme	-0.3209
-3.3299	nejsou	-0.2445
-4.4549	nejspis	-0.3070
-4.9320	nejstarsi	-0.2093
-5.0289	nejstarsiho	-0.2036
-4.3522	nejste	-0.1892
-4.8528	nejtezsi	-0.2655
-3.5741	nejvetsi	-0.2427
-4.6310	nejvetsich	-0.0900
-5.0289	nejvetsiho	-0.2040
-4.5170	nejvetsim	-0.0923
-4.9320	nejvhodnejsi	-0.2758
-3.7389	nejvic	-0.1725
-3.9875	nejvice	-0.1521
-4.0077	nejvyssi	-0.2731
-4.7279	nejvyssich	-0.1520
-4.2160	nejvyssiho	-0.7615
-4.7279	nejvyssim	-0.1977
-5.0289	nejznamejsi	-0.2987
-3.8828	nekam	-0.2690
-3.3879	nekde	-0.3344
-4.5896	nekdejsi	-0.3421
-3.1245	nekdo	-0.2359
-3.2261	nekdy	-0.3252
-3.7119	nekoho	-0.3468
-3.4351	nekolik	-0.3611
-3.7676	nekolika	-0.3663
-4.0182	nekolikrat	-0.1297
-4.0628	nekomu	-0.2398
-4.9320	nekonecne	-0.1547
-4.2692	nektera	-0.3269
-3.3929	nektere	-0.2989
-3.7067	nekteri	-0.3089
-4.8528	nekterou	-0.4634
-4.2160	nektery	-0.3689
-3.5204	nekterych	-0.2968
-4.3757	nekterym	-0.1836
-4.6767	nekterymi	-0.1723
-4.7859	nekvalitni	-0.2246
-4.2692	nekym	-0.5330
-4.1838	nelibi	-0.3564
-4.8528	nelibilo	-0.2157
-4.0289	nelze	-0.2648
-3.7859	nem	-0.2396
-3.3929	nema	-0.3423
-3.6057	nemaji	-0.2338
-3.7279	nemam	-0.3487
-3.8049	nemame	-0.2672
-4.0182	nemate	-0.2554
-4.6767	nemci	-0.2620
-4.5170	nemcova	-0.2573
-4.9320	nemcove	-0.1969
-4.7859	nemcovou	-0.2865
-4.7279	nemcu	-0.2842
-4.0512	nemecka	-0.2740
-4.3757	nemecke	-0.3242
-4.5896	nemeckeho	-0.2284
-4.6767	nemeckem	-0.1785
-4.1396	nemecko	-0.3118
-3.9320	nemecku	-0.2490
-4.5518	nemecky	-0.2577
-4.5170	nemeckych	-0.1360
-4.6767	nemecti	-0.3007
-3.8601	nemel	-0.3451
-4.0399	nemela	-0.3512
-3.9150	nemeli	-0.2952
-4.0995	nemelo	-0.3486
-4.3522	nemely	-0.2513
-4.9320	nemeni	-0.3737
-4.6767	nemluvi	-0.3114
-4.9320	nemluvil	-0.3926
-4.6310	nemluvim	-0.5825
-4.4848	nemoc	-0.2296
-4.3522	nemoci	-0.3121
-4.9320	nemocna	-0.2076
-4.8528	nemocne	-0.2219
-4.9320	nemocnic	-0.2652
-3.8986	nemocnice	-0.3068
-4.1686	nemocnici	-0.3577
-4.8528	nemocnicich	-0.2764
-5.0289	nemocnou
-4.8528	nemocny	-0.2698
-4.8528	nemocnych	-0.2786
-4.1686	nemohl	-0.2776
-4.4848	nemohla	-0.2521
-4.4848	nemohli	-0.2873
-4.6310	nemohlo	-0.3831
-4.8528	nemohly	-0.2229
-4.2160	nemohou	-0.2745
-4.2160	nemohu	-0.3142
-4.7859	nemovitost	-0.1771
-4.5896	nemovitosti	-0.3517
-4.6767	nemozne	-0.2632
-4.9320	nemozny	-0.2692
-4.2330	nemu	-0.2507
-4.8528	nemusel	-0.2255
-4.9320	nemusela	-0.2209
-4.5170	nemuseli	-0.3560
-5.0289	nemusely	-0.1902
-3.7225	nemusi	-0.3949
-4.6310	nemusim	-0.2125
-4.4549	nemusime	-0.2551
-4.7279	nemusite	-0.2254
-3.5817	nemuze	-0.3261
-4.0399	nemuzeme	-0.2438
-4.2885	nemuzete	-0.3003
-4.5896	nemuzou	-0.2263
-3.9975	nemuzu	-0.2820
-4.7859	nemyslel	-0.4045
-3.9150	nemyslim	-0.8426
-4.7859	nemyslite	-0.8307
-4.7279	nemz	-0.3388
-4.6310	nenapadlo	-0.3636
-5.0289	nenasel	-0.2974
-5.0289	nenasli	-0.4148
-2.5920	neni	-0.4247
-4.9320	neodpovida	-0.2895
-5.0289	neozyva	-0.4052
-4.9320	nepamatuju	-0.2888
-4.5518	nepatri	-0.2806
-4.3522	neplati	-0.3381
-4.3522	nepletu	-0.3103
-3.9875	nepochybne	-0.2385
-4.4268	nepodari	-0.2271
-4.3299	nepodarilo	-0.2657
-5.0289	nepodpori	-0.2895
-4.9320	nepokoje	-0.3825
-4.8528	nepomohlo	-0.2537
-4.9320	nepomuze	-0.3864
-4.6310	nepotrebuje	-0.3195
-4.8528	nepotrebujeme	-0.2700
-4.8528	nepotrebujete	-0.3537
-4.8528	nepovedlo	-0.4334
-4.7859	nepredpokladal	-0.5161
-5.0289	neprijatelna	-0.4130
-4.8528	neprijatelne	-0.2759
-4.6310	neprijde	-0.2823
-4.4005	neprijemne	-0.3497
-4.7859	neprijemny	-0.2837
-5.0289	neprilis	-0.2040
-5.0289	neprisel	-0.2749
-4.9320	nepritele	-0.2704
-5.0289	nepritelem	-0.2866
-4.7859	nepujde	-0.3205
-4.9320	nepujdu	-0.6964
-5.0289	nepustil	-0.2862
-4.6767	nerad	-0.4030
-4.8528	nerada	-0.2112
-4.8528	neradi	-0.2956
-4.3087	nerekl	-0.3828
-4.9320	nerekla	-0.5108
-4.8528	nerekli	-0.3680
-4.7279	nerekne	-0.3812
-4.6767	nereknu	-0.4605
-4.6767	neresi	-0.2369
-4.9320	neresilo	-0.2727
-4.7859	nerika	-0.2192
-4.8528	nerikaji	-0.3553
-4.9320	nerikal	-0.3747
-4.5518	nerikam	-0.8925
-4.7859	nerikejte	-0.4069
-4.7859	nerozumi	-0.3326
-4.3087	nerozumim	-0.4555
-5.0289	nerozumime	-0.4199
-4.8528	nervozita	-0.2006
-4.6767	nervozni	-0.3276
-4.9320	neschopnosti	-0.1924
-4.5518	nese	-0.3097
-4.9320	nesel	-0.1976
-5.0289	nesete	-0.2012
-4.8528	neskutecne	-0.1758
-4.9320	neskutecny	-0.2971
-4.4268	neslo	-0.3286
-4.8528	neslysel	-0.2528
-5.0289	neslyseli	-0.2966
-4.2160	nesmi	-0.2327
-4.9320	nesmim	-0.2903
-4.6310	nesmime	-0.3461
-4.0869	nesmirne	-0.1456
-4.5170	nesmysl	-0.3204
-4.7859	nesmyslne	-0.2268
-5.0289	nesmysly	-0.2604
-4.6767	nesouhlasi	-0.2836
-4.9320	nesouhlasim	-0.3810
-4.8528	nesouvisi	-0.4731
-4.4268	nestaci	-0.2938
-4.1686	nestalo	-0.2838
-4.9320	nestandardni	-0.3001
-4.5518	nestane	-0.2683
-5.0289	nestastna	-0.1913
-4.7859	nestastne	-0.3411
-4.7279	nestastny	-0.3588
-4.8528	nestesti	-0.2797
-4.7859	nestoji	-0.2974
-5.0289	netradicni	-0.2991
-5.0289	netusil	-0.4030
-4.9320	netusim	-0.2690
-4.6767	netyka	-0.4440
-4.9320	neudela	-0.2763
-4.6767	neudelal	-0.2707
-5.0289	neumela	-0.4124
-4.4848	neumi	-0.3012
-4.2508	neumim	-0.3854
-4.5896	neumime	-0.2363
-3.7921	neustale	-0.1252
-4.2330	neuveritelne	-0.1352
-4.6767	neuveritelny	-0.2629
-4.4848	nevadi	-0.4165
-4.8528	nevadilo	-0.3594
-5.0289	nevede	-0.2709
-4.6310	nevedel	-0.2632
-4.7279	nevedela	-0.4139
-4.5896	nevedeli	-0.3665
-4.5896	nevedi	-0.3648
-4.9320	neveri	-0.2735
-4.8528	neveril	-0.4593
-4.8528	neverim	-0.2775
-3.9150	nevi	-0.4455
-4.2885	nevidel	-0.2706
-4.9320	nevidela	-0.2933
-4.8528	nevideli	-0.2937
-4.5170	nevidi	-0.3579
-4.1396	nevidim	-0.3341
-4.8528	nevidime	-0.2169
-3.1538	nevim	-0.4822
-4.1686	nevime	-0.3657
-4.4005	nevite	-0.3661
-4.8528	nevladni	-1.0791
-5.0289	nevydrzi	-0.2740
-4.9320	nevypada	-0.1944
-5.0289	nevyplati	-0.2898
-4.5896	nevyresi	-0.3264
-5.0289	nevyslo	-0.4092
-4.4268	new	-0.3912
-2.8330	nez	-0.3010
-4.5518	nezajima	-0.3509
-5.0289	nezajimave	-0.2899
-4.9320	nezalezi	-0.5145
-5.0289	nezamestnani	-0.2744
-4.3522	nezamestnanost	-0.3395
-4.3757	nezamestnanosti	-0.3276
-4.5518	nezamestnanych	-0.3551
-5.0289	nezaplati	-0.2827
-5.0289	nezapomneli	-0.2950
-4.7279	nezavisle	-0.3405
-4.6767	nezavislost	-0.2819
-4.8528	nezavislosti	-0.1703
-4.6767	nezavisly	-0.3376
-5.0289	nezazil	-0.1752
-5.0289	nezazila	-0.4137
-4.6310	nezbytne	-0.2485
-4.6767	nezbyva	-0.4019
-4.4268	nezda	-0.4129
-4.7279	neziska	-0.2817
-5.0289	neziskove	-0.9030
-5.0289	nezlobte	-0.8921
-4.4848	nezmeni	-0.2582
-5.0289	neznaji	-0.2712
-4.2885	neznam	-0.3994
-5.0289	neznama	-0.3001
-4.6310	nezname	-0.2912
-4.1538	neznamena	-0.7968
-4.9320	neznamych	-0.1991
-4.9320	nezvladne	-0.3742
-4.7859	nhl	-0.2868
-3.3855	ni	-0.1445
-3.0795	nic	-0.2488
-4.6767	niceho	-0.2885
-4.6767	nicem	-0.1633
-4.5518	nicemu	-0.1566
-3.3499	nich	-0.1839
-4.4005	nichz	-0.2687
-5.0289	nici	-0.1934
-4.7859	nicim	-0.1918
-3.4296	nicmene	-0.3194
-4.1125	nijak	-0.1259
-4.7859	nikam	-0.0663
-4.2692	nikde	-0.2319
-3.3929	nikdo	-0.2755
-3.3781	nikdy	-0.2268
-4.3299	nikoho	-0.2332
-4.5896	nikoli	-0.3020
-3.9067	nikoliv	-0.2359
-4.3522	nikomu	-0.2559
-3.5518	nim	-0.1645
-4.2508	nima	-0.2142
-3.6719	nimi	-0.1921
-4.5896	niz	-0.2792
-4.8528	nize	-0.3788
-4.5896	nizke	-0.1944
-4.9320	nizkou	-0.2216
-4.9320	nizky	-0.3979
-4.3087	nizsi	-0.2707
-4.6767	nizsich	-0.0649
