\data\
ngram 1=10002

\1-grams:
-99.999	!ENTER
-4.0000	a
-4.0000	abolicni
-4.0000	absolutne
-4.0000	absolutni
-4.0000	absolvoval
-4.0000	absurdni
-4.0000	aby
-4.0000	abych
-4.0000	abychom
-4.0000	abysme
-4.0000	abyste
-4.0000	ac
-4.0000	ackoliv
-4.0000	ad
-4.0000	adam
-4.0000	adekvatni
-4.0000	administrativa
-4.0000	administrativni
-4.0000	adrese
-4.0000	adresu
-4.0000	advokatka
-4.0000	advokatni
-4.0000	afera
-4.0000	afere
-4.0000	afghanistanu
-4.0000	africe
-4.0000	afrika
-4.0000	afriky
-4.0000	agendu
-4.0000	agentur
-4.0000	agentura
-4.0000	agentury
-4.0000	agresivni
-4.0000	aha
-4.0000	ahoj
-4.0000	air
-4.0000	aj
-4.0000	akademicke
-4.0000	akademie
-4.0000	akademii
-4.0000	akce
-4.0000	akceptovat
-4.0000	akci
-4.0000	akcich
-4.0000	akcie
-4.0000	akorat
-4.0000	akreditace
-4.0000	akreditaci
-4.0000	akt
-4.0000	aktivit
-4.0000	aktivita
-4.0000	aktivitu
-4.0000	aktivity
-4.0000	aktivne
-4.0000	aktivnejsi
-4.0000	aktivni
-4.0000	aktivnim
-4.0000	aktu
-4.0000	aktualne
-4.0000	aktualni
-4.0000	aktualnich
-4.0000	akty
-4.0000	al-kajda
-4.0000	ale
-4.0000	alena
-4.0000	alergie
-4.0000	ales
-4.0000	alespon
-4.0000	alexandra
-4.0000	aliance
-4.0000	alice
-4.0000	alkohol
-4.0000	alkoholem
-4.0000	alkoholu
-4.0000	alternativa
-4.0000	alternativni
-4.0000	alternativy
-4.0000	ambice
-4.0000	ambici
-4.0000	americane
-4.0000	americani
-4.0000	americanu
-4.0000	americany
-4.0000	americe
-4.0000	americka
-4.0000	americke
-4.0000	americkeho
-4.0000	americkou
-4.0000	americky
-4.0000	americkych
-4.0000	americkym
-4.0000	americti
-4.0000	amerika
-4.0000	ameriku
-4.0000	ameriky
-4.0000	amnestie
-4.0000	amnestii
-4.0000	analytik
-4.0000	analytika
-4.0000	analyz
-4.0000	analyza
-4.0000	analyzovat
-4.0000	analyzu
-4.0000	andrea
-4.0000	andrej
-4.0000	andreje
-4.0000	andrejem
-4.0000	anebo
-4.0000	angazma
-4.0000	angazovat
-4.0000	angela
-4.0000	angely
-4.0000	anglicky
-4.0000	anglictine
-4.0000	anglie
-4.0000	anglii
-4.0000	ani
-4.0000	aniz
-4.0000	anna
-4.0000	anny
-4.0000	ano
-4.0000	antibioticke
-4.0000	antibiotika
-4.0000	antonin
-4.0000	apel
-4.0000	apeloval
-4.0000	aplikace
-4.0000	aplikovat
-4.0000	apple
-4.0000	arabie
-4.0000	arabii
-4.0000	arabske
-4.0000	arabskych
-4.0000	architekt
-4.0000	architektury
-4.0000	archivech
-4.0000	archivu
-4.0000	areal
-4.0000	arealu
-4.0000	argument
-4.0000	argumentu
-4.0000	argumentuje
-4.0000	argumenty
-4.0000	armada
-4.0000	armade
-4.0000	armadu
-4.0000	armady
-4.0000	arnost
-4.0000	asad
-4.0000	asada
-4.0000	asi
-4.0000	asie
-4.0000	asii
-4.0000	asociace
-4.0000	asociaci
-4.0000	asociacni
-4.0000	aspekt
-4.0000	aspekty
-4.0000	aspon
-4.0000	asteroid
-4.0000	asteroidu
-4.0000	at
-4.0000	atentat
-4.0000	atentatu
-4.0000	atmosfera
-4.0000	atmosfere
-4.0000	atmosferu
-4.0000	atmosfery
-4.0000	atomove
-4.0000	atraktivni
-4.0000	audit
-4.0000	aukce
-4.0000	aut
-4.0000	auta
-4.0000	aute
-4.0000	autem
-4.0000	auto
-4.0000	autobusy
-4.0000	automaticky
-4.0000	automaty
-4.0000	automobilka
-4.0000	autor
-4.0000	autora
-4.0000	autorem
-4.0000	autoru
-4.0000	avizoval
-4.0000	az
-4.0000	azerbajdzan
-4.0000	azyl
-4.0000	b
-4.0000	babicka
-4.0000	babickou
-4.0000	babicky
-4.0000	babis
-4.0000	babise
-4.0000	babisem
-4.0000	bajecne
-4.0000	bakala
-4.0000	bakterie
-4.0000	bal
-4.0000	baleni
-4.0000	baletni
-4.0000	balik
-4.0000	balony
-4.0000	balvin
-4.0000	bance
-4.0000	banik
-4.0000	baniku
-4.0000	bank
-4.0000	banka
-4.0000	bankovek
-4.0000	bankovky
-4.0000	bankovni
-4.0000	bankovnictvi
-4.0000	bankovniho
-4.0000	bankrot
-4.0000	banku
-4.0000	banky
-4.0000	barack
-4.0000	baracka
-4.0000	barbora
-4.0000	bariery
-4.0000	barrandov
-4.0000	barta
-4.0000	barvu
-4.0000	barvy
-4.0000	basara
-4.0000	bat
-4.0000	bavi
-4.0000	bavil
-4.0000	bavila
-4.0000	bavili
-4.0000	bavilo
-4.0000	bavime
-4.0000	bavit
-4.0000	bavite
-4.0000	bavorsku
-4.0000	bazen
-4.0000	bbc
-4.0000	bedlive
-4.0000	beha
-4.0000	behem
-4.0000	behu
-4.0000	bejt
-4.0000	bellum
-4.0000	benedikt
-4.0000	benesova
-4.0000	bere
-4.0000	bereme
-4.0000	berete
-4.0000	berlina
-4.0000	berline
-4.0000	berlusconi
-4.0000	berlusconiho
-4.0000	berou
-4.0000	berounka
-4.0000	beru
-4.0000	bez
-4.0000	bezdomovce
-4.0000	bezdomovec
-4.0000	bezesporu
-4.0000	bezi
-4.0000	bezmala
-4.0000	bezna
-4.0000	bezne
-4.0000	bezneho
-4.0000	beznem
-4.0000	beznou
-4.0000	bezny
-4.0000	beznych
-4.0000	bezpeci
-4.0000	bezpecna
-4.0000	bezpecne
-4.0000	bezpecnejsi
-4.0000	bezpecnost
-4.0000	bezpecnosti
-4.0000	bezpecnostni
-4.0000	bezpecnostnich
-4.0000	bezpochyby
-4.0000	bezprostredne
-4.0000	bezprostredni
-4.0000	bile
-4.0000	bileho
-4.0000	bilkovin
-4.0000	bilkoviny
-4.0000	bilou
-4.0000	bily
-4.0000	bis
-4.0000	bitva
-4.0000	blaha
-4.0000	blanka
-4.0000	blazek
-4.0000	blazen
-4.0000	blbost
-4.0000	blesky
-4.0000	bliz
-4.0000	blizi
-4.0000	blizici
-4.0000	blizka
-4.0000	blizke
-4.0000	blizkeho
-4.0000	blizkem
-4.0000	blizko
-4.0000	blizkost
-4.0000	blizkosti
-4.0000	blizkovychodni
-4.0000	blizsi
-4.0000	blok
-4.0000	bloku
-4.0000	bod
-4.0000	bodech
-4.0000	bodu
-4.0000	body
-4.0000	bohata
-4.0000	bohate
-4.0000	bohati
-4.0000	bohatstvi
-4.0000	bohaty
-4.0000	bohosluzby
-4.0000	bohuslav
-4.0000	bohuslava
-4.0000	bohuzel
-4.0000	boj
-4.0000	boje
-4.0000	boji
-4.0000	bojim
-4.0000	bojovali
-4.0000	bojovat
-4.0000	bojs
-4.0000	bojuje
-4.0000	bokem
-4.0000	boku
-4.0000	boleslavi
-4.0000	bolest
-4.0000	bolesti
-4.0000	boli
-4.0000	bomba
-4.0000	boom
-4.0000	bosakova
-4.0000	boty
-4.0000	bourani
-4.0000	bouri
-4.0000	bourka
-4.0000	bradacova
-4.0000	bral
-4.0000	brala
-4.0000	brali
-4.0000	bralo
-4.0000	brambory
-4.0000	brani
-4.0000	branit
-4.0000	brano
-4.0000	brat
-4.0000	bratr
-4.0000	bratri
-4.0000	bratrstva
-4.0000	bratrstvo
-4.0000	brehu
-4.0000	brehule
-4.0000	brezna
-4.0000	breznu
-4.0000	brisni
-4.0000	britanie
-4.0000	britanii
-4.0000	britove
-4.0000	britska
-4.0000	britske
-4.0000	britskeho
-4.0000	britsky
-4.0000	britskych
-4.0000	brna
-4.0000	brne
-4.0000	brnenske
-4.0000	brno
-4.0000	bronislav
-4.0000	broz
-4.0000	bruntalsku
-4.0000	brusel
-4.0000	bruselu
-4.0000	bryle
-4.0000	brzo
-4.0000	brzy
-4.0000	bud
-4.0000	bude
-4.0000	bude-li
-4.0000	budejovic
-4.0000	budejovice
-4.0000	budejovicich
-4.0000	budem
-4.0000	budeme
-4.0000	budete
-4.0000	budi
-4.0000	budou
-4.0000	budouci
-4.0000	budoucich
-4.0000	budoucim
-4.0000	budoucna
-4.0000	budoucnost
-4.0000	budoucnosti
-4.0000	budoucnu
-4.0000	budov
-4.0000	budova
-4.0000	budove
-4.0000	budovou
-4.0000	budovu
-4.0000	budovy
-4.0000	budte
-4.0000	budto
-4.0000	budu
-4.0000	buduje
-4.0000	buh
-4.0000	bunek
-4.0000	bunky
-4.0000	bush
-4.0000	by
-4.0000	bych
-4.0000	bychom
-4.0000	bydlel
-4.0000	bydleli
-4.0000	bydleni
-4.0000	bydlet
-4.0000	bydli
-4.0000	byl
-4.0000	byla
-4.0000	byli
-4.0000	bylo
-4.0000	byly
-4.0000	bys
-4.0000	bysme
-4.0000	byste
-4.0000	byt
-4.0000	byte
-4.0000	bytech
-4.0000	byti
-4.0000	bytu
-4.0000	byty
-4.0000	byva
-4.0000	byvaji
-4.0000	byval
-4.0000	byvala
-4.0000	byvale
-4.0000	byvaleho
-4.0000	byvali
-4.0000	byvalo
-4.0000	byvaly
-4.0000	byvalym
-4.0000	byvalymi
-4.0000	byznys
-4.0000	byznysu
-4.0000	c
-4.0000	cais
-4.0000	caj
-4.0000	caje
-4.0000	cajthamlovou
-4.0000	cameron
-4.0000	cannes
-4.0000	canova
-4.0000	cas
-4.0000	case
-4.0000	casem
-4.0000	casopisu
-4.0000	casove
-4.0000	casovem
-4.0000	casovy
-4.0000	cast
-4.0000	caste
-4.0000	castech
-4.0000	castecne
-4.0000	casteji
-4.0000	casti
-4.0000	castic
-4.0000	castice
-4.0000	castka
-4.0000	castku
-4.0000	castky
-4.0000	casto
-4.0000	casu
-4.0000	casy
-4.0000	cd
-4.0000	cdu
-4.0000	cech
-4.0000	cecha
-4.0000	cechach
-4.0000	cechu
-4.0000	cechy
-4.0000	cedule
-4.0000	ceho
-4.0000	ceka
-4.0000	cekaji
-4.0000	cekal
-4.0000	cekali
-4.0000	cekalo
-4.0000	cekam
-4.0000	cekame
-4.0000	cekat
-4.0000	cekate
-4.0000	cela
-4.0000	cele
-4.0000	celeho
-4.0000	celej
-4.0000	celek
-4.0000	celem
-4.0000	celemu
-4.0000	celit
-4.0000	celkem
-4.0000	celkove
-4.0000	celkovou
-4.0000	celkovy
-4.0000	celostatni
-4.0000	celosvetove
-4.0000	celou
-4.0000	celozivotni
-4.0000	cely
-4.0000	celych
-4.0000	celym
-4.0000	cem
-4.0000	cemkoliv
-4.0000	cemu
-4.0000	cen
-4.0000	cena
-4.0000	cenach
-4.0000	cene
-4.0000	cenne
-4.0000	cenou
-4.0000	center
-4.0000	centimetru
-4.0000	centra
-4.0000	centralni
-4.0000	centralniho
-4.0000	centrem
-4.0000	centru
-4.0000	centrum
-4.0000	cenu
-4.0000	ceny
-4.0000	cerna
-4.0000	cerne
-4.0000	cernou
-4.0000	cerny
-4.0000	cernych
-4.0000	cerpani
-4.0000	cerpat
-4.0000	cerstve
-4.0000	cervena
-4.0000	cervence
-4.0000	cervenci
-4.0000	cervene
-4.0000	cervenych
-4.0000	cervna
-4.0000	cervnu
-4.0000	cesi
-4.0000	ceska
-4.0000	ceske
-4.0000	ceskeho
-4.0000	ceskem
-4.0000	ceskemu
-4.0000	cesko
-4.0000	ceskoslovenska
-4.0000	ceskoslovenske
-4.0000	ceskoslovensko
-4.0000	ceskoslovensku
-4.0000	ceskou
-4.0000	cesku
-4.0000	cesky
-4.0000	ceskych
-4.0000	ceskym
-4.0000	ceskymi
-4.0000	cest
-4.0000	cesta
-4.0000	cestach
-4.0000	ceste
-4.0000	cesti
-4.0000	cestina
-4.0000	cestine
-4.0000	cestou
-4.0000	cestovani
-4.0000	cestovni
-4.0000	cestu
-4.0000	cesty
-4.0000	cetl
-4.0000	cetla
-4.0000	cetli
-4.0000	cetnost
-4.0000	cev
-4.0000	cevni
-4.0000	cez
-4.0000	cezu
-4.0000	chalupe
-4.0000	chalupu
-4.0000	chalupy
-4.0000	chaos
-4.0000	chapat
-4.0000	chape
-4.0000	chapete
-4.0000	chapou
-4.0000	chapu
-4.0000	charakter
-4.0000	charity
-4.0000	chatu
-4.0000	chce
-4.0000	chceme
-4.0000	chcete
-4.0000	chci
-4.0000	chemicke
-4.0000	chemickych
-4.0000	chemie
-4.0000	chirurg
-4.0000	chladne
-4.0000	chlapce
-4.0000	chlapci
-4.0000	chlapec
-4.0000	chlapi
-4.0000	chleba
-4.0000	chodi
-4.0000	chodil
-4.0000	chodila
-4.0000	chodili
-4.0000	chodilo
-4.0000	chodily
-4.0000	chodim
-4.0000	chodit
-4.0000	chodniku
-4.0000	chodniky
-4.0000	chodorkovskeho
-4.0000	chodorkovskij
-4.0000	chorob
-4.0000	chorobou
-4.0000	choroby
-4.0000	chova
-4.0000	chovaji
-4.0000	choval
-4.0000	chovala
-4.0000	chovani
-4.0000	chovat
-4.0000	chraneni
-4.0000	chrani
-4.0000	chranit
-4.0000	chripka
-4.0000	chromosomy
-4.0000	chteji
-4.0000	chtel
-4.0000	chtela
-4.0000	chteli
-4.0000	chtelo
-4.0000	chtely
-4.0000	chtit
-4.0000	chudobou
-4.0000	chudoby
-4.0000	chut
-4.0000	chutnalo
-4.0000	chvile
-4.0000	chvili
-4.0000	chvilich
-4.0000	chvilickou
-4.0000	chvilicku
-4.0000	chvilkou
-4.0000	chvilku
-4.0000	chyb
-4.0000	chyba
-4.0000	chybejici
-4.0000	chybi
-4.0000	chybu
-4.0000	chyby
-4.0000	chysta
-4.0000	chystaji
-4.0000	chystate
-4.0000	ci
-4.0000	cibule
-4.0000	cigaretu
-4.0000	cigarety
-4.0000	cil
-4.0000	cile
-4.0000	cilem
-4.0000	cilene
-4.0000	cili
-4.0000	cim
-4.0000	cimz
-4.0000	cin
-4.0000	cina
-4.0000	cine
-4.0000	cini
-4.0000	cinit
-4.0000	cinnost
-4.0000	cinnosti
-4.0000	cinou
-4.0000	cinska
-4.0000	cinske
-4.0000	cinsky
-4.0000	cinu
-4.0000	ciny
-4.0000	cirkev
-4.0000	cirkevni
-4.0000	cirkevnich
-4.0000	cirkve
-4.0000	cirkvemi
-4.0000	cirkvi
-4.0000	cisel
-4.0000	cisla
-4.0000	cisle
-4.0000	cislech
-4.0000	cislo
-4.0000	cist
-4.0000	cista
-4.0000	ciste
-4.0000	cisteho
-4.0000	cisteni
-4.0000	cisty
-4.0000	cistym
-4.0000	citace
-4.0000	citi
-4.0000	citil
-4.0000	citim
-4.0000	citit
-4.0000	citite
-4.0000	citliva
-4.0000	citlive
-4.0000	citoval
-4.0000	citovat
-4.0000	citove
-4.0000	cituji
-4.0000	civilni
-4.0000	cizi
-4.0000	ciziho
-4.0000	cizinci
-4.0000	cizine
-4.0000	clanek
-4.0000	clanku
-4.0000	clen
-4.0000	clena
-4.0000	clenem
-4.0000	clenka
-4.0000	clenove
-4.0000	clenske
-4.0000	clenstvi
-4.0000	clenu
-4.0000	clenum
-4.0000	cleny
-4.0000	clovek
-4.0000	cloveka
-4.0000	clovekem
-4.0000	cloveku
-4.0000	co
-4.0000	coby
-4.0000	cokoli
-4.0000	cokoliv
-4.0000	com
-4.0000	cosi
-4.0000	coz
-4.0000	cr
-4.0000	csl
-4.0000	cssd
-4.0000	cte
-4.0000	cteme
-4.0000	ctenari
-4.0000	ctenaru
-4.0000	cteni
-4.0000	ctete
-4.0000	ctou
-4.0000	ctrnact
-4.0000	ctrnacteho
-4.0000	ctrnacti
-4.0000	ctu
-4.0000	ctvrt
-4.0000	ctvrte
-4.0000	ctvrtek
-4.0000	ctvrtfinale
-4.0000	ctvrti
-4.0000	ctvrtleti
-4.0000	ctvrty
-4.0000	ctyr
-4.0000	ctyrech
-4.0000	ctyri
-4.0000	ctyriadvacet
-4.0000	ctyricet
-4.0000	ctyriceti
-4.0000	ctyrikrat
-4.0000	ctyrmi
-4.0000	cukr
-4.0000	cukrovka
-4.0000	cukru
-4.0000	cviceni
-4.0000	cvicit
-4.0000	cyklu
-4.0000	cyklus
-4.0000	cyril
-4.0000	cysty
-4.0000	cz
-4.0000	d
-4.0000	da
-4.0000	dabing
-4.0000	dagestanu
-4.0000	dagmar
-4.0000	daji
-4.0000	dal
-4.0000	dala
-4.0000	dale
-4.0000	daleko
-4.0000	dali
-4.0000	dalibor
-4.0000	dalku
-4.0000	dalnic
-4.0000	dalnice
-4.0000	dalo
-4.0000	dalsi
-4.0000	dalsich
-4.0000	dalsiho
-4.0000	dalsim
-4.0000	dalsimi
-4.0000	dalsimu
-4.0000	daly
-4.0000	dam
-4.0000	dama
-4.0000	damasku
-4.0000	dame
-4.0000	damy
-4.0000	dan
-4.0000	dana
-4.0000	dane
-4.0000	daneho
-4.0000	dani
-4.0000	daniel
-4.0000	daniela
-4.0000	dankova
-4.0000	dano
-4.0000	danou
-4.0000	danove
-4.0000	danoveho
-4.0000	danovy
-4.0000	danovych
-4.0000	dany
-4.0000	dar
-4.0000	darce
-4.0000	darcu
-4.0000	darek
-4.0000	dari
-4.0000	darilo
-4.0000	darky
-4.0000	darovat
-4.0000	dat
-4.0000	data
-4.0000	date
-4.0000	datum
-4.0000	dava
-4.0000	davaji
-4.0000	daval
-4.0000	davali
-4.0000	davam
-4.0000	davame
-4.0000	davat
-4.0000	davate
-4.0000	davek
-4.0000	david
-4.0000	davida
-4.0000	davidem
-4.0000	davku
-4.0000	davky
-4.0000	davno
-4.0000	dcera
-4.0000	dcerou
-4.0000	dceru
-4.0000	de
-4.0000	debata
-4.0000	debate
-4.0000	debatovat
-4.0000	debatu
-4.0000	debaty
-4.0000	decina
-4.0000	decine
-4.0000	decka
-4.0000	deda
-4.0000	deficit
-4.0000	definice
-4.0000	definitivne
-4.0000	definitivni
-4.0000	dej
-4.0000	deje
-4.0000	dejepisu
-4.0000	deji
-4.0000	dejin
-4.0000	dejinach
-4.0000	dejiny
-4.0000	dejme
-4.0000	dejte
-4.0000	dekuje
-4.0000	dekujeme
-4.0000	dekuji
-4.0000	dekuju
-4.0000	del
-4.0000	dela
-4.0000	delaji
-4.0000	delal
-4.0000	delala
-4.0000	delali
-4.0000	delalo
-4.0000	delaly
-4.0000	delam
-4.0000	delame
-4.0000	delat
-4.0000	delate
-4.0000	dele
-4.0000	delejte
-4.0000	delo
-4.0000	delsi
-4.0000	dely
-4.0000	demisi
-4.0000	demokracie
-4.0000	demokracii
-4.0000	demokrate
-4.0000	demokraticka
-4.0000	demokraticke
-4.0000	demokraticky
-4.0000	demokratickych
-4.0000	demokratu
-4.0000	demokraty
-4.0000	demonstrace
-4.0000	demonstraci
-4.0000	demonstranti
-4.0000	demonstrantu
-4.0000	demonstrantum
-4.0000	den
-4.0000	deni
-4.0000	denik
-4.0000	deniku
-4.0000	deniky
-4.0000	denne
-4.0000	desate
-4.0000	desateho
-4.0000	desaty
-4.0000	deset
-4.0000	deseti
-4.0000	desetileti
-4.0000	desetinu
-4.0000	desetitisice
-4.0000	desitek
-4.0000	desitkami
-4.0000	desitky
-4.0000	deska
-4.0000	desku
-4.0000	desky
-4.0000	dest
-4.0000	deste
-4.0000	detailne
-4.0000	detailni
-4.0000	detaily
-4.0000	detech
-4.0000	detem
-4.0000	deti
-4.0000	detmi
-4.0000	detske
-4.0000	detsky
-4.0000	detstvi
-4.0000	devadesat
-4.0000	devadesati
-4.0000	devadesatych
-4.0000	devate
-4.0000	devatenact
-4.0000	devatenacteho
-4.0000	devatenactou
-4.0000	devet
-4.0000	deviti
-4.0000	dialog
-4.0000	dialogu
-4.0000	dialyza
-4.0000	diety
-4.0000	digitalni
-4.0000	diky
-4.0000	dil
-4.0000	dila
-4.0000	dilech
-4.0000	dilem
-4.0000	dilo
-4.0000	dilu
-4.0000	dinosauri
-4.0000	diplomacie
-4.0000	diplomat
-4.0000	diplomaticke
-4.0000	diplomatickou
-4.0000	disciplina
-4.0000	diskriminaci
-4.0000	diskuse
-4.0000	diskusi
-4.0000	diskutovali
-4.0000	diskutovat
-4.0000	diskutuje
-4.0000	diskutujeme
-4.0000	diskutuji
-4.0000	diskuze
-4.0000	disponuje
-4.0000	dispozici
-4.0000	dit
-4.0000	dite
-4.0000	ditete
-4.0000	ditetem
-4.0000	diteti
-4.0000	diva
-4.0000	divaci
-4.0000	divadel
-4.0000	divadelni
-4.0000	divadla
-4.0000	divadle
-4.0000	divadlech
-4.0000	divadlem
-4.0000	divadlo
-4.0000	divak
-4.0000	divaku
-4.0000	divakum
-4.0000	divaky
-4.0000	dival
-4.0000	divala
-4.0000	divali
-4.0000	divam
-4.0000	divame
-4.0000	divat
-4.0000	divate
-4.0000	divim
-4.0000	divit
-4.0000	divka
-4.0000	divky
-4.0000	divne
-4.0000	dle
-4.0000	dlouha
-4.0000	dlouhe
-4.0000	dlouheho
-4.0000	dlouho
-4.0000	dlouhodoba
-4.0000	dlouhodobe
-4.0000	dlouhodobejsi
-4.0000	dlouhodobou
-4.0000	dlouhodoby
-4.0000	dlouholety
-4.0000	dlouhou
-4.0000	dlouhy
-4.0000	dluh
-4.0000	dluhu
-4.0000	dluhy
-4.0000	dluzno
-4.0000	dna
-4.0000	dne
-4.0000	dnech
-4.0000	dnem
-4.0000	dnes
-4.0000	dnesek
-4.0000	dneska
-4.0000	dneskem
-4.0000	dnesni
-4.0000	dnesnich
-4.0000	dnesniho
-4.0000	dnesnim
-4.0000	dnesnimu
-4.0000	dni
-4.0000	dnu
-4.0000	dny
-4.0000	do
-4.0000	dob
-4.0000	doba
-4.0000	dobach
-4.0000	dobe
-4.0000	dobes
-4.0000	dobou
-4.0000	dobra
-4.0000	dobrat
-4.0000	dobre
-4.0000	dobreho
-4.0000	dobrej
-4.0000	dobrem
-4.0000	dobri
-4.0000	dobrodruzstvi
-4.0000	dobrou
-4.0000	dobrovolna
-4.0000	dobrovolne
-4.0000	dobrovolnici
-4.0000	dobrovolniku
-4.0000	dobrovolniky
-4.0000	dobry
-4.0000	dobrych
-4.0000	dobrym
-4.0000	dobu
-4.0000	doby
-4.0000	docasne
-4.0000	docela
-4.0000	docent
-4.0000	docente
-4.0000	docetl
-4.0000	docetla
-4.0000	dochazelo
-4.0000	dochazet
-4.0000	dochazi
-4.0000	dockat
-4.0000	dodal
-4.0000	dodala
-4.0000	dodam
-4.0000	dodat
-4.0000	dodatecne
-4.0000	dodava
-4.0000	dodavateli
-4.0000	dodavatelu
-4.0000	dodnes
-4.0000	dodrzet
-4.0000	dodrzovat
-4.0000	dohled
-4.0000	dohledne
-4.0000	dohlidnout
-4.0000	dohlizet
-4.0000	dohlizi
-4.0000	dohoda
-4.0000	dohode
-4.0000	dohodl
-4.0000	dohodli
-4.0000	dohodnou
-4.0000	dohodnout
-4.0000	dohodu
-4.0000	dohody
-4.0000	dohromady
-4.0000	dojde
-4.0000	dojdou
-4.0000	dojem
-4.0000	dojit
-4.0000	dojmem
-4.0000	dokazal
-4.0000	dokazala
-4.0000	dokazali
-4.0000	dokazat
-4.0000	dokaze
-4.0000	dokazeme
-4.0000	dokazete
-4.0000	dokazi
-4.0000	dokazou
-4.0000	dokazu
-4.0000	dokazuje
-4.0000	dokazuji
-4.0000	doklady
-4.0000	dokonale
-4.0000	dokonaly
-4.0000	dokonce
-4.0000	dokonceni
-4.0000	dokoncit
-4.0000	dokoupil
-4.0000	doktor
-4.0000	doktora
-4.0000	doktore
-4.0000	doktorem
-4.0000	doktorka
-4.0000	doktorko
-4.0000	doktorkou
-4.0000	doktorku
-4.0000	doktorky
-4.0000	dokud
-4.0000	dokument
-4.0000	dokumentace
-4.0000	dokumentu
-4.0000	dokumenty
-4.0000	dolar
-4.0000	dolaru
-4.0000	dole
-4.0000	dolni
-4.0000	dolnich
-4.0000	dolnim
-4.0000	dolu
-4.0000	doma
-4.0000	domaci
-4.0000	domacich
-4.0000	domaciho
-4.0000	domacim
-4.0000	domacnost
-4.0000	domacnosti
-4.0000	dome
-4.0000	domecek
-4.0000	domech
-4.0000	domem
-4.0000	dominantni
-4.0000	domluvil
-4.0000	domluvili
-4.0000	domluvit
-4.0000	domnenka
-4.0000	domnivam
-4.0000	domnivame
-4.0000	domov
-4.0000	domova
-4.0000	domovu
-4.0000	domovy
-4.0000	domu
-4.0000	domy
-4.0000	donedavna
-4.0000	doopravdy
-4.0000	dopad
-4.0000	dopadl
-4.0000	dopadlo
-4.0000	dopadly
-4.0000	dopadne
-4.0000	dopadnou
-4.0000	dopadnout
-4.0000	dopady
-4.0000	dopis
-4.0000	doplnil
-4.0000	doplnim
-4.0000	doplnit
-4.0000	doplnovat
-4.0000	dopoledne
-4.0000	dopoledni
-4.0000	dopoledniho
-4.0000	dopolednim
-4.0000	doporuceni
-4.0000	doporucil
-4.0000	doporucila
-4.0000	doporucit
-4.0000	doporucoval
-4.0000	doporucuje
-4.0000	doporucuji
-4.0000	doporucuju
-4.0000	doposud
-4.0000	doprava
-4.0000	doprave
-4.0000	dopravni
-4.0000	dopravnich
-4.0000	dopravniho
-4.0000	dopravnim
-4.0000	dopravou
-4.0000	dopravu
-4.0000	dopravy
-4.0000	dopredu
-4.0000	doprovodny
-4.0000	dopustil
-4.0000	dorazi
-4.0000	dorazin
-4.0000	dosah
-4.0000	dosahla
-4.0000	dosahli
-4.0000	dosahne
-4.0000	dosahnout
-4.0000	dosahuje
-4.0000	dosavadni
-4.0000	dosavadnich
-4.0000	dosla
-4.0000	dosli
-4.0000	doslo
-4.0000	doslova
-4.0000	dospel
-4.0000	dospele
-4.0000	dospeleho
-4.0000	dospeli
-4.0000	dost
-4.0000	dostal
-4.0000	dostala
-4.0000	dostali
-4.0000	dostalo
-4.0000	dostaly
-4.0000	dostane
-4.0000	dostaneme
-4.0000	dostanete
-4.0000	dostanou
-4.0000	dostanu
-4.0000	dostat
-4.0000	dostatecna
-4.0000	dostatecne
-4.0000	dostatecny
-4.0000	dostatek
-4.0000	dostava
-4.0000	dostavaji
-4.0000	dostavam
-4.0000	dostavame
-4.0000	dostavat
-4.0000	dostavate
-4.0000	dosti
-4.0000	dostupne
-4.0000	dostupnost
-4.0000	dosud
-4.0000	dotace
-4.0000	dotaci
-4.0000	dotahnout
-4.0000	dotaz
-4.0000	dotazu
-4.0000	dotazy
-4.0000	doted
-4.0000	dotklo
-4.0000	dotkne
-4.0000	dotycny
-4.0000	doufa
-4.0000	doufam
-4.0000	doufame
-4.0000	doufejme
-4.0000	dovazet
-4.0000	dovede
-4.0000	dovednosti
-4.0000	dovedu
-4.0000	dovnitr
-4.0000	dovolena
-4.0000	dovolene
-4.0000	dovolenim
-4.0000	dovolenou
-4.0000	dovolil
-4.0000	dovolit
-4.0000	dovolite
-4.0000	dovozu
-4.0000	dozorci
-4.0000	dozorove
-4.0000	dozvedel
-4.0000	dozvedela
-4.0000	dozvedeli
-4.0000	dozvedet
-4.0000	dozvi
-4.0000	dozvime
-4.0000	dozvite
-4.0000	dph
-4.0000	drabek
-4.0000	drah
-4.0000	draha
-4.0000	drahe
-4.0000	drahu
-4.0000	drahy
-4.0000	drahych
-4.0000	dramaticky
-4.0000	dramaturg
-4.0000	drazbe
-4.0000	draze
-4.0000	drazsi
-4.0000	dreva
-4.0000	drevene
-4.0000	drevo
-4.0000	driv
-4.0000	drive
-4.0000	drobne
-4.0000	drobnou
-4.0000	drobnych
-4.0000	drog
-4.0000	drogy
-4.0000	drtiva
-4.0000	druh
-4.0000	druha
-4.0000	druhe
-4.0000	druheho
-4.0000	druhej
-4.0000	druhem
-4.0000	druhemu
-4.0000	druhohor
-4.0000	druhou
-4.0000	druhu
-4.0000	druhy
-4.0000	druhych
-4.0000	druhym
-4.0000	drzel
-4.0000	drzeli
-4.0000	drzeni
-4.0000	drzet
-4.0000	drzi
-4.0000	drzim
-4.0000	dubna
-4.0000	dubnu
-4.0000	duchod
-4.0000	duchodce
-4.0000	duchodcu
-4.0000	duchodkyne
-4.0000	duchodove
-4.0000	duchodu
-4.0000	duchovni
-4.0000	duchu
-4.0000	dukaz
-4.0000	dukazem
-4.0000	dukazu
-4.0000	dukazy
-4.0000	dukladne
-4.0000	dul
-4.0000	dulezita
-4.0000	dulezite
-4.0000	dulezitejsi
-4.0000	duleziti
-4.0000	dulezitou
-4.0000	dulezity
-4.0000	dulezitych
-4.0000	dulezitym
-4.0000	dum
-4.0000	duraz
-4.0000	dusan
-4.0000	duse
-4.0000	dusevni
-4.0000	dusi
-4.0000	dusledkem
-4.0000	dusledku
-4.0000	dusledky
-4.0000	dutiny
-4.0000	duvera
-4.0000	duvere
-4.0000	duveru
-4.0000	duvery
-4.0000	duveryhodnosti
-4.0000	duvod
-4.0000	duvodem
-4.0000	duvodu
-4.0000	duvody
-4.0000	dva
-4.0000	dvaadvacateho
-4.0000	dvacate
-4.0000	dvacateho
-4.0000	dvacet
-4.0000	dvaceti
-4.0000	dvakrat
-4.0000	dvanact
-4.0000	dvanacteho
-4.0000	dvanacti
-4.0000	dve
-4.0000	dvema
-4.0000	dvemi
-4.0000	dvere
-4.0000	dveri
-4.0000	dvojce
-4.0000	dvojka
-4.0000	dvojku
-4.0000	dvojky
-4.0000	dvorak
-4.0000	dvoraka
-4.0000	dvou
-4.0000	dyl
-4.0000	e
-4.0000	e-mail
-4.0000	eduard
-4.0000	edward
-4.0000	efekt
-4.0000	efektivite
-4.0000	efektivne
-4.0000	efektivni
-4.0000	efektu
-4.0000	egypt
-4.0000	egypta
-4.0000	egyptane
-4.0000	egypte
-4.0000	egyptske
-4.0000	ekonom
-4.0000	ekonomice
-4.0000	ekonomicka
-4.0000	ekonomicke
-4.0000	ekonomickeho
-4.0000	ekonomickou
-4.0000	ekonomicky
-4.0000	ekonomickych
-4.0000	ekonomie
-4.0000	ekonomii
-4.0000	ekonomika
-4.0000	ekonomikou
-4.0000	ekonomiku
-4.0000	ekonomiky
-4.0000	ekonomove
-4.0000	elektraren
-4.0000	elektrarna
-4.0000	elektrarny
-4.0000	elektricke
-4.0000	elektrickou
-4.0000	elektrina
-4.0000	elektrinou
-4.0000	elektrinu
-4.0000	elektriny
-4.0000	elektronicke
-4.0000	eliska
-4.0000	elitni
-4.0000	emoce
-4.0000	emoci
-4.0000	emotivne
-4.0000	encefalitidy
-4.0000	energeticke
-4.0000	energetickeho
-4.0000	energetickou
-4.0000	energeticky
-4.0000	energetika
-4.0000	energetiky
-4.0000	energie
-4.0000	energii
-4.0000	epidemie
-4.0000	era
-4.0000	erdogan
-4.0000	ery
-4.0000	etapa
-4.0000	etapy
-4.0000	eur
-4.0000	eura
-4.0000	euro
-4.0000	europoslanci
-4.0000	eurozona
-4.0000	eurozone
-4.0000	eurozony
-4.0000	eva
-4.0000	eventualne
-4.0000	eventuelne
-4.0000	evidence
-4.0000	evidentne
-4.0000	evidentni
-4.0000	evropa
-4.0000	evrope
-4.0000	evropou
-4.0000	evropska
-4.0000	evropske
-4.0000	evropskeho
-4.0000	evropskem
-4.0000	evropskou
-4.0000	evropsky
-4.0000	evropskych
-4.0000	evropskym
-4.0000	evropsti
-4.0000	evropu
-4.0000	evropy
-4.0000	ex
-4.0000	excelentni
-4.0000	exekuci
-4.0000	exekucni
-4.0000	existence
-4.0000	existovala
-4.0000	existovaly
-4.0000	existovat
-4.0000	existuje
-4.0000	existuji
-4.0000	expedice
-4.0000	expert
-4.0000	experti
-4.0000	expertu
-4.0000	extra
-4.0000	extraligy
-4.0000	extremistu
-4.0000	extremne
-4.0000	extremni
-4.0000	extremnich
-4.0000	facebook
-4.0000	facebookovem
-4.0000	facebooku
-4.0000	facto
-4.0000	fajn
-4.0000	fakt
-4.0000	fakta
-4.0000	faktem
-4.0000	fakticky
-4.0000	faktor
-4.0000	faktoru
-4.0000	faktory
-4.0000	faktury
-4.0000	fakultni
-4.0000	fakulty
-4.0000	famu
-4.0000	fanousci
-4.0000	fanousky
-4.0000	farmaceuticke
-4.0000	farnosti
-4.0000	fascinuje
-4.0000	faze
-4.0000	fazi
-4.0000	fazich
-4.0000	fbi
-4.0000	fed
-4.0000	federalni
-4.0000	fenomen
-4.0000	festival
-4.0000	festivalu
-4.0000	fica
-4.0000	fico
-4.0000	filharmonie
-4.0000	filipa
-4.0000	filipiny
-4.0000	film
-4.0000	filmech
-4.0000	filmem
-4.0000	filmova
-4.0000	filmoveho
-4.0000	filmovou
-4.0000	filmovy
-4.0000	filmu
-4.0000	filmy
-4.0000	finale
-4.0000	finalni
-4.0000	finance
-4.0000	financi
-4.0000	financne
-4.0000	financni
-4.0000	financnich
-4.0000	financnictvi
-4.0000	financniho
-4.0000	financnim
-4.0000	financovani
-4.0000	financovat
-4.0000	fingerland
-4.0000	firem
-4.0000	firma
-4.0000	firmach
-4.0000	firmam
-4.0000	firme
-4.0000	firmou
-4.0000	firmu
-4.0000	firmy
-4.0000	fischer
-4.0000	fischera
-4.0000	fiskalni
-4.0000	fond
-4.0000	fondu
-4.0000	fondy
-4.0000	forem
-4.0000	forma
-4.0000	formalni
-4.0000	format
-4.0000	forme
-4.0000	formou
-4.0000	formu
-4.0000	formular
-4.0000	formy
-4.0000	fotbal
-4.0000	fotbale
-4.0000	fotbaliste
-4.0000	fotbalisty
-4.0000	fotbalove
-4.0000	fotbaloveho
-4.0000	fotbalovy
-4.0000	fotbalu
-4.0000	fotil
-4.0000	fotky
-4.0000	fotograf
-4.0000	fotografie
-4.0000	fotografii
-4.0000	france
-4.0000	francie
-4.0000	francii
-4.0000	francouzska
-4.0000	francouzske
-4.0000	francouzsky
-4.0000	frantisek
-4.0000	frantiska
-4.0000	frantiskem
-4.0000	franze
-4.0000	frekvence
-4.0000	frenstat
-4.0000	fronty
-4.0000	frustrace
-4.0000	frydeckomistecku
-4.0000	frydku-mistku
-4.0000	fungovala
-4.0000	fungovalo
-4.0000	fungovaly
-4.0000	fungovani
-4.0000	fungovat
-4.0000	funguje
-4.0000	funguji
-4.0000	fungujici
-4.0000	funkce
-4.0000	funkci
-4.0000	funkcionari
-4.0000	funkcni
-4.0000	furt
-4.0000	fyzicke
-4.0000	fyzicky
-4.0000	gabriel
-4.0000	gabriela
-4.0000	galerie
-4.0000	galerii
-4.0000	garance
-4.0000	garantem
-4.0000	garnitura
-4.0000	gauck
-4.0000	gazdik
-4.0000	generace
-4.0000	generaci
-4.0000	general
-4.0000	generalni
-4.0000	generalniho
-4.0000	geneticky
-4.0000	geny
-4.0000	george
-4.0000	globalni
-4.0000	gol
-4.0000	graf
-4.0000	gramu
-4.0000	guverner
-4.0000	gymnazium
-4.0000	haje
-4.0000	hajek
-4.0000	hajit
-4.0000	hale
-4.0000	halo
-4.0000	hana
-4.0000	hanakova
-4.0000	hanka
-4.0000	hartman
-4.0000	harvanku
-4.0000	hasek
-4.0000	hasici
-4.0000	hasicu
-4.0000	haska
-4.0000	havel
-4.0000	havla
-4.0000	havlem
-4.0000	havlickova
-4.0000	hdp
-4.0000	hejtman
-4.0000	hejtmana
-4.0000	hejtmanem
-4.0000	hektaru
-4.0000	hele
-4.0000	helena
-4.0000	heleno
-4.0000	hemodialyza
-4.0000	her
-4.0000	herce
-4.0000	hercem
-4.0000	herci
-4.0000	hercu
-4.0000	herec
-4.0000	herecka
-4.0000	herecke
-4.0000	herectvi
-4.0000	herny
-4.0000	hesla
-4.0000	heydricha
-4.0000	hezka
-4.0000	hezke
-4.0000	hezkou
-4.0000	hezky
-4.0000	hezkych
-4.0000	hieroglyfy
-4.0000	historicka
-4.0000	historicke
-4.0000	historickeho
-4.0000	historicky
-4.0000	historickych
-4.0000	historie
-4.0000	historii
-4.0000	historik
-4.0000	historika
-4.0000	hit
-4.0000	hitler
-4.0000	hiv
-4.0000	hladina
-4.0000	hladine
-4.0000	hladinou
-4.0000	hladiny
-4.0000	hlas
-4.0000	hlasi
-4.0000	hlasit
-4.0000	hlasoval
-4.0000	hlasovali
-4.0000	hlasovani
-4.0000	hlasovat
-4.0000	hlasu
-4.0000	hlasy
-4.0000	hlava
-4.0000	hlave
-4.0000	hlavne
-4.0000	hlavni
-4.0000	hlavnich
-4.0000	hlavniho
-4.0000	hlavnim
-4.0000	hlavnimi
-4.0000	hlavou
-4.0000	hlavu
-4.0000	hlavy
-4.0000	hleda
-4.0000	hledaji
-4.0000	hledal
-4.0000	hledali
-4.0000	hledam
-4.0000	hledame
-4.0000	hledani
-4.0000	hledat
-4.0000	hlediska
-4.0000	hlidat
-4.0000	hloubeji
-4.0000	hloubka
-4.0000	hloubky
-4.0000	hloupy
-4.0000	hluboce
-4.0000	hluboka
-4.0000	hluboke
-4.0000	hluboko
-4.0000	hluboky
-4.0000	hlubsi
-4.0000	hluk
-4.0000	hluku
-4.0000	hmoty
-4.0000	hned
-4.0000	hnedeho
-4.0000	hnizda
-4.0000	hnizdeni
-4.0000	hnuti
-4.0000	hnutim
-4.0000	ho
-4.0000	hodi
-4.0000	hodin
-4.0000	hodina
-4.0000	hodinach
-4.0000	hodine
-4.0000	hodinou
-4.0000	hodinu
-4.0000	hodiny
-4.0000	hodne
-4.0000	hodni
-4.0000	hodnoceni
-4.0000	hodnota
-4.0000	hodnoti
-4.0000	hodnotit
-4.0000	hodnotite
-4.0000	hodnotu
-4.0000	hodnoty
-4.0000	hokej
-4.0000	hokeji
-4.0000	holky
-4.0000	holland
-4.0000	holocaustu
-4.0000	holt
-4.0000	holub
-4.0000	homosexualni
-4.0000	honza
-4.0000	honzo
-4.0000	hor
-4.0000	horach
-4.0000	horizontu
-4.0000	horni
-4.0000	hornich
-4.0000	horniho
-4.0000	horsi
-4.0000	hory
-4.0000	hosek
-4.0000	hospitalizace
-4.0000	hospodareni
-4.0000	hospodari
-4.0000	hospodarit
-4.0000	hospodarske
-4.0000	hospodarsky
-4.0000	hospodarskych
-4.0000	hospodarstvi
-4.0000	host
-4.0000	hosta
-4.0000	hoste
-4.0000	hostem
-4.0000	hosti
-4.0000	hostu
-4.0000	hosty
-4.0000	hotove
-4.0000	hotovo
-4.0000	hotovy
-4.0000	houby
-4.0000	houska
-4.0000	housle
-4.0000	hovor
-4.0000	hovori
-4.0000	hovoril
-4.0000	hovorila
-4.0000	hovorili
-4.0000	hovorilo
-4.0000	hovorime
-4.0000	hovorit
-4.0000	hra
-4.0000	hrac
-4.0000	hrace
-4.0000	hracem
-4.0000	hrach
-4.0000	hraci
-4.0000	hracky
-4.0000	hracu
-4.0000	hrad
-4.0000	hrade
-4.0000	hradem
-4.0000	hradni
-4.0000	hradu
-4.0000	hraje
-4.0000	hrajeme
-4.0000	hrajete
-4.0000	hraji
-4.0000	hrajou
-4.0000	hraju
-4.0000	hral
-4.0000	hrala
-4.0000	hrali
-4.0000	hralo
-4.0000	hrane
-4.0000	hrani
-4.0000	hranic
-4.0000	hranice
-4.0000	hranici
-4.0000	hranicni
-4.0000	hrat
-4.0000	hraze
-4.0000	hrbitov
-4.0000	hre
-4.0000	hriste
-4.0000	hromadnou
-4.0000	hrozba
-4.0000	hrozbu
-4.0000	hrozi
-4.0000	hrozilo
-4.0000	hrozna
-4.0000	hrozne
-4.0000	hrozny
-4.0000	hru
-4.0000	hrube
-4.0000	hruby
-4.0000	hry
-4.0000	hubnete
-4.0000	hubnuti
-4.0000	hudba
-4.0000	hudbe
-4.0000	hudbu
-4.0000	hudby
-4.0000	hudebni
-4.0000	hudebniho
-4.0000	humanitarni
-4.0000	humanitarnich
-4.0000	humor
-4.0000	humorem
-4.0000	humoru
-4.0000	hur
-4.0000	hure
-4.0000	husitske
-4.0000	huti
-4.0000	hvezda
-4.0000	hvezdarna
-4.0000	hvezdarny
-4.0000	hvezdy
-4.0000	hybat
-4.0000	hydrometeorologickeho
-4.0000	hygienici
-4.0000	hygienicke
-4.0000	hynek
-4.0000	hypoteticky
-4.0000	i
-4.0000	idealne
-4.0000	idealni
-4.0000	ideove
-4.0000	ihned
-4.0000	iluze
-4.0000	image
-4.0000	imigrantu
-4.0000	implikace
-4.0000	impuls
-4.0000	imunita
-4.0000	imunitu
-4.0000	in
-4.0000	indicie
-4.0000	indii
-4.0000	individualne
-4.0000	individualni
-4.0000	infekce
-4.0000	inflace
-4.0000	informace
-4.0000	informaci
-4.0000	informacim
-4.0000	informacni
-4.0000	informatiky
-4.0000	informoval
-4.0000	informovali
-4.0000	informovat
-4.0000	informuje
-4.0000	infrastruktury
-4.0000	iniciativa
-4.0000	iniciativou
-4.0000	iniciativu
-4.0000	iniciativy
-4.0000	inscenaci
-4.0000	inspekce
-4.0000	inspektoru
-4.0000	inspirace
-4.0000	inspiraci
-4.0000	inspirativni
-4.0000	inspirovat
-4.0000	instalace
-4.0000	instalaci
-4.0000	instituce
-4.0000	instituci
-4.0000	institucionalni
-4.0000	institut
-4.0000	institutu
-4.0000	integrace
-4.0000	integrovaneho
-4.0000	intenzivne
-4.0000	intenzivni
-4.0000	internet
-4.0000	internetove
-4.0000	internetu
-4.0000	interni
-4.0000	interpretace
-4.0000	interval
-4.0000	intervaly
-4.0000	intervence
-4.0000	intervenci
-4.0000	interview
-4.0000	intimni
-4.0000	investic
-4.0000	investice
-4.0000	investici
-4.0000	investicnich
-4.0000	investor
-4.0000	investori
-4.0000	investoru
-4.0000	investory
-4.0000	investovat
-4.0000	investuje
-4.0000	investuji
-4.0000	inzenyr
-4.0000	inzenyra
-4.0000	irak
-4.0000	iraku
-4.0000	iran
-4.0000	iranu
-4.0000	irena
-4.0000	irska
-4.0000	irsku
-4.0000	islam
-4.0000	islamskych
-4.0000	islamu
-4.0000	istvan
-4.0000	it
-4.0000	italie
-4.0000	italii
-4.0000	italske
-4.0000	italskeho
-4.0000	italskou
-4.0000	italsky
-4.0000	iva
-4.0000	ivan
-4.0000	ivana
-4.0000	ivane
-4.0000	ivo
-4.0000	izolace
-4.0000	izrael
-4.0000	izraelci
-4.0000	izraele
-4.0000	izraelem
-4.0000	izraeli
-4.0000	izraelske
-4.0000	ja
-4.0000	jaci
-4.0000	jaderna
-4.0000	jaderne
-4.0000	jadernou
-4.0000	jaderny
-4.0000	jadernych
-4.0000	jadro
-4.0000	jagra
-4.0000	jak
-4.0000	jaka
-4.0000	jakakoliv
-4.0000	jakasi
-4.0000	jake
-4.0000	jakeho
-4.0000	jakehosi
-4.0000	jakekoli
-4.0000	jakekoliv
-4.0000	jakem
-4.0000	jakesi
-4.0000	jakkoliv
-4.0000	jakmile
-4.0000	jako
-4.0000	jakoby
-4.0000	jakou
-4.0000	jakoukoliv
-4.0000	jakousi
-4.0000	jakoze
-4.0000	jakozto
-4.0000	jaksi
-4.0000	jakub
-4.0000	jaky
-4.0000	jakych
-4.0000	jakychkoliv
-4.0000	jakychsi
-4.0000	jakykoli
-4.0000	jakykoliv
-4.0000	jakym
-4.0000	jakymi
-4.0000	jakymkoliv
-4.0000	jakymsi
-4.0000	jakysi
-4.0000	jan
-4.0000	jana
-4.0000	janalik
-4.0000	janem
-4.0000	janicek
-4.0000	janouska
-4.0000	janu
-4.0000	janukovyc
-4.0000	janukovycem
-4.0000	jany
-4.0000	japonsko
-4.0000	jara
-4.0000	jarda
-4.0000	jare
-4.0000	jarmila
-4.0000	jaro
-4.0000	jaromir
-4.0000	jaromira
-4.0000	jaroslav
-4.0000	jaroslava
-4.0000	jasna
-4.0000	jasne
-4.0000	jasno
-4.0000	jasnou
-4.0000	jasny
-4.0000	jasnych
-4.0000	jazyce
-4.0000	jazyk
-4.0000	jazyka
-4.0000	jazykem
-4.0000	jde
-4.0000	jdeme
-4.0000	jdete
-4.0000	jdou
-4.0000	jdu
-4.0000	je
-4.0000	je-li
-4.0000	jeckelova
-4.0000	jede
-4.0000	jedeme
-4.0000	jeden
-4.0000	jedenact
-4.0000	jedenacte
-4.0000	jedenacteho
-4.0000	jedenacti
-4.0000	jedenadvacateho
-4.0000	jedenadvacet
-4.0000	jedete
-4.0000	jedina
-4.0000	jedine
-4.0000	jedineho
-4.0000	jedinej
-4.0000	jedini
-4.0000	jedinou
-4.0000	jediny
-4.0000	jedinym
-4.0000	jedl
-4.0000	jedna
-4.0000	jednaci
-4.0000	jednaji
-4.0000	jednak
-4.0000	jednal
-4.0000	jednala
-4.0000	jednali
-4.0000	jednalo
-4.0000	jedname
-4.0000	jednani
-4.0000	jednanich
-4.0000	jednanim
-4.0000	jednat
-4.0000	jedne
-4.0000	jednicka
-4.0000	jednim
-4.0000	jedno
-4.0000	jednoducha
-4.0000	jednoduche
-4.0000	jednoduchy
-4.0000	jednoduchych
-4.0000	jednoduse
-4.0000	jednodussi
-4.0000	jednoho
-4.0000	jednom
-4.0000	jednomu
-4.0000	jednotek
-4.0000	jednotka
-4.0000	jednotku
-4.0000	jednotky
-4.0000	jednotliva
-4.0000	jednotlive
-4.0000	jednotlivych
-4.0000	jednotlivymi
-4.0000	jednotny
-4.0000	jednou
-4.0000	jednoznacna
-4.0000	jednoznacne
-4.0000	jednoznacny
-4.0000	jednu
-4.0000	jedny
-4.0000	jedou
-4.0000	jedu
-4.0000	jeho
-4.0000	jehoz
-4.0000	jej
-4.0000	jeji
-4.0000	jejich
-4.0000	jejichz
-4.0000	jejiho
-4.0000	jejim
-4.0000	jejimz
-4.0000	jejiz
-4.0000	jel
-4.0000	jeli
-4.0000	jelikoz
-4.0000	jelinek
-4.0000	jelinka
-4.0000	jemne
-4.0000	jemu
-4.0000	jen
-4.0000	jenom
-4.0000	jenomze
-4.0000	jenze
-4.0000	jeronym
-4.0000	jeruzalema
-4.0000	jeruzaleme
-4.0000	jesle
-4.0000	jest
-4.0000	jeste
-4.0000	jestli
-4.0000	jestlipak
-4.0000	jestlize
-4.0000	jet
-4.0000	jev
-4.0000	jevi
-4.0000	jevisti
-4.0000	jevy
-4.0000	jez
-4.0000	jezdi
-4.0000	jezdil
-4.0000	jezdili
-4.0000	jezdim
-4.0000	jezdime
-4.0000	jezdit
-4.0000	jezdite
-4.0000	jezek
-4.0000	ji
-4.0000	jich
-4.0000	jidelnicek
-4.0000	jidelnicku
-4.0000	jidelny
-4.0000	jidla
-4.0000	jidle
-4.0000	jidlo
-4.0000	jidlu
-4.0000	jih
-4.0000	jihoafricke
-4.0000	jihu
-4.0000	jim
-4.0000	jimi
-4.0000	jina
-4.0000	jinak
-4.0000	jinam
-4.0000	jinde
-4.0000	jindrich
-4.0000	jindy
-4.0000	jine
-4.0000	jineho
-4.0000	jinej
-4.0000	jinem
-4.0000	jinemu
-4.0000	jini
-4.0000	jinou
-4.0000	jiny
-4.0000	jinych
-4.0000	jinyho
-4.0000	jinym
-4.0000	jinymi
-4.0000	jiri
-4.0000	jiriho
-4.0000	jirim
-4.0000	jirimu
-4.0000	jirka
-4.0000	jist
-4.0000	jista
-4.0000	jiste
-4.0000	jistem
-4.0000	jisti
-4.0000	jistota
-4.0000	jistotu
-4.0000	jistoty
-4.0000	jistou
-4.0000	jisty
-4.0000	jit
-4.0000	jitka
-4.0000	jiz
-4.0000	jizdu
-4.0000	jizerskych
-4.0000	jizni
-4.0000	jiznim
-4.0000	jmen
-4.0000	jmena
-4.0000	jmenem
-4.0000	jmeno
-4.0000	jmenoval
-4.0000	jmenovala
-4.0000	jmenovani
-4.0000	jmenovanim
-4.0000	jmenovat
-4.0000	jmenuje
-4.0000	jmeny
-4.0000	jo
-4.0000	jogurt
-4.0000	john
-4.0000	josef
-4.0000	josefa
-4.0000	jsem
-4.0000	jsi
-4.0000	jsme
-4.0000	jsou
-4.0000	jste
-4.0000	k
-4.0000	kabinet
-4.0000	kabinetu
-4.0000	kaceni
-4.0000	kafka
-4.0000	kahire
-4.0000	kahiry
-4.0000	kajnar
-4.0000	kalendare
-4.0000	kalousek
-4.0000	kalouska
-4.0000	kam
-4.0000	kamarad
-4.0000	kamarada
-4.0000	kamaradi
-4.0000	kamaradku
-4.0000	kamaradu
-4.0000	kamarady
-4.0000	kamen
-4.0000	kamenem
-4.0000	kameny
-4.0000	kamera
-4.0000	kamerou
-4.0000	kameru
-4.0000	kamery
-4.0000	kamiony
-4.0000	kamkoliv
-4.0000	kampan
-4.0000	kampane
-4.0000	kampani
-4.0000	kanalizace
-4.0000	kancelar
-4.0000	kancelare
-4.0000	kancelari
-4.0000	kancler
-4.0000	kanclere
-4.0000	kanclerem
-4.0000	kanclerky
-4.0000	kandidat
-4.0000	kandidata
-4.0000	kandidatce
-4.0000	kandidatem
-4.0000	kandidati
-4.0000	kandidatky
-4.0000	kandidatu
-4.0000	kandidaty
-4.0000	kandidovat
-4.0000	kapacita
-4.0000	kapacitu
-4.0000	kapacity
-4.0000	kapela
-4.0000	kapelou
-4.0000	kapelu
-4.0000	kapely
-4.0000	kapitan
-4.0000	kapitola
-4.0000	kaple
-4.0000	kapra
-4.0000	kapsy
-4.0000	karel
-4.0000	karet
-4.0000	karierni
-4.0000	karieru
-4.0000	kariery
-4.0000	karla
-4.0000	karlem
-4.0000	karlovy
-4.0000	karolinu
-4.0000	karta
-4.0000	kartu
-4.0000	karty
-4.0000	karvina
-4.0000	karvine
-4.0000	karvinsku
-4.0000	kasy
-4.0000	katalogu
-4.0000	katastrofa
-4.0000	katastrofy
-4.0000	katedrala
-4.0000	katedry
-4.0000	kategorie
-4.0000	kategorii
-4.0000	katerina
-4.0000	katerinou
-4.0000	katetr
-4.0000	katolicka
-4.0000	katolicke
-4.0000	kauz
-4.0000	kauza
-4.0000	kauze
-4.0000	kauzu
-4.0000	kauzy
-4.0000	kavu
-4.0000	kavy
-4.0000	kazda
-4.0000	kazde
-4.0000	kazdeho
-4.0000	kazdej
-4.0000	kazdem
-4.0000	kazdemu
-4.0000	kazdopadne
-4.0000	kazdorocne
-4.0000	kazdou
-4.0000	kazdy
-4.0000	kazdych
-4.0000	kazdym
-4.0000	kde
-4.0000	kdezto
-4.0000	kdo
-4.0000	kdokoli
-4.0000	kdokoliv
-4.0000	kdu
-4.0000	kdy
-4.0000	kdyby
-4.0000	kdybych
-4.0000	kdybychom
-4.0000	kdybysme
-4.0000	kdybyste
-4.0000	kdykoli
-4.0000	kdykoliv
-4.0000	kdysi
-4.0000	kdyz
-4.0000	ke
-4.0000	kennedyho
-4.0000	kerry
-4.0000	kilo
-4.0000	kilojoulu
-4.0000	kilometr
-4.0000	kilometru
-4.0000	kilometry
-4.0000	kim
-4.0000	kin
-4.0000	kina
-4.0000	kindlova
-4.0000	kine
-4.0000	kinech
-4.0000	kinematografie
-4.0000	klade
-4.0000	kladne
-4.0000	kladno
-4.0000	klara
-4.0000	klaro
-4.0000	klasicka
-4.0000	klasicke
-4.0000	klasickou
-4.0000	klasicky
-4.0000	klasika
-4.0000	klasiky
-4.0000	klast
-4.0000	klaus
-4.0000	klause
-4.0000	klausem
-4.0000	klausova
-4.0000	klavirni
-4.0000	klementa
-4.0000	klenoty
-4.0000	klesa
-4.0000	klesaji
-4.0000	klesat
-4.0000	klesnou
-4.0000	klice
-4.0000	klicove
-4.0000	klicovou
-4.0000	klicovy
-4.0000	klid
-4.0000	klidna
-4.0000	klidne
-4.0000	klidny
-4.0000	klidu
-4.0000	klient
-4.0000	klienta
-4.0000	klienti
-4.0000	klientu
-4.0000	klienty
-4.0000	klima
-4.0000	klimaticke
-4.0000	klimatu
-4.0000	klinice
-4.0000	kliniky
-4.0000	klise
-4.0000	kloubu
-4.0000	klouby
-4.0000	klub
-4.0000	klubu
-4.0000	kluby
-4.0000	kluci
-4.0000	klukum
-4.0000	kluky
-4.0000	kmotr
-4.0000	knez
-4.0000	knih
-4.0000	kniha
-4.0000	knihach
-4.0000	knihoven
-4.0000	knihovna
-4.0000	knihovne
-4.0000	knihovny
-4.0000	knihu
-4.0000	knihy
-4.0000	knitl
-4.0000	knizku
-4.0000	knizky
-4.0000	knowhow
-4.0000	koalice
-4.0000	koalici
-4.0000	koalicni
-4.0000	koalicnich
-4.0000	kocek
-4.0000	kocka
-4.0000	kocky
-4.0000	kod
-4.0000	kodu
-4.0000	koho
-4.0000	kohokoliv
-4.0000	kol
-4.0000	kola
-4.0000	kolaps
-4.0000	kole
-4.0000	kolech
-4.0000	kolega
-4.0000	kolegou
-4.0000	kolegove
-4.0000	kolegu
-4.0000	kolegy
-4.0000	kolegyne
-4.0000	koleje
-4.0000	koleji
-4.0000	kolektiv
-4.0000	kolektivni
-4.0000	kolektivu
-4.0000	kolem
-4.0000	kolena
-4.0000	kolik
-4.0000	kolika
-4.0000	kolikrat
-4.0000	kolo
-4.0000	kolony
-4.0000	kombinace
-4.0000	kombinaci
-4.0000	komentar
-4.0000	komentare
-4.0000	komentaru
-4.0000	komentator
-4.0000	komentatora
-4.0000	komentatorem
-4.0000	komentoval
-4.0000	komentovat
-4.0000	komentuje
-4.0000	komercni
-4.0000	komiks
-4.0000	komisar
-4.0000	komise
-4.0000	komisi
-4.0000	komora
-4.0000	komore
-4.0000	komorni
-4.0000	komory
-4.0000	kompenzace
-4.0000	kompetence
-4.0000	kompletne
-4.0000	kompletni
-4.0000	komplex
-4.0000	komplexni
-4.0000	komplikace
-4.0000	komplikovana
-4.0000	komplikovane
-4.0000	komplikovanejsi
-4.0000	komplikuje
-4.0000	kompromis
-4.0000	komu
-4.0000	komunalni
-4.0000	komunikace
-4.0000	komunikaci
-4.0000	komunikovat
-4.0000	komunismu
-4.0000	komuniste
-4.0000	komunisticke
-4.0000	komunistickeho
-4.0000	komunistu
-4.0000	komunisty
-4.0000	komunit
-4.0000	komunita
-4.0000	komunite
-4.0000	komunitni
-4.0000	komunity
-4.0000	kona
-4.0000	konala
-4.0000	konalo
-4.0000	konani
-4.0000	konat
-4.0000	konce
-4.0000	koncem
-4.0000	koncentrace
-4.0000	koncepce
-4.0000	koncepci
-4.0000	koncept
-4.0000	koncert
-4.0000	koncertu
-4.0000	koncerty
-4.0000	konci
-4.0000	koncit
-4.0000	koncu
-4.0000	kondici
-4.0000	kone
-4.0000	konec
-4.0000	koneckoncu
-4.0000	konecna
-4.0000	konecne
-4.0000	konecniku
-4.0000	konference
-4.0000	konferenci
-4.0000	konflikt
-4.0000	konfliktu
-4.0000	konflikty
-4.0000	kongres
-4.0000	kongresu
-4.0000	koni
-4.0000	konkretne
-4.0000	konkretnejsi
-4.0000	konkretni
-4.0000	konkretnich
-4.0000	konkretniho
-4.0000	konkretnim
-4.0000	konkretnimi
-4.0000	konkretnimu
-4.0000	konkurenceschopnosti
-4.0000	konkurenci
-4.0000	konkurovat
-4.0000	konopi
-4.0000	konsensu
-4.0000	konstatovat
-4.0000	konstrukce
-4.0000	kontakt
-4.0000	kontaktovat
-4.0000	kontaktu
-4.0000	kontakty
-4.0000	kontext
-4.0000	kontextu
-4.0000	kontinentu
-4.0000	konto
-4.0000	kontrola
-4.0000	kontrole
-4.0000	kontrolni
-4.0000	kontrolniho
-4.0000	kontrolou
-4.0000	kontrolovat
-4.0000	kontrolu
-4.0000	kontroluje
-4.0000	kontroluji
-4.0000	kontroly
-4.0000	kontroverzni
-4.0000	konzervativni
-4.0000	koordinovat
-4.0000	kopec
-4.0000	koprivnice
-4.0000	koprivnici
-4.0000	korea
-4.0000	koreji
-4.0000	korektni
-4.0000	koreny
-4.0000	korun
-4.0000	koruna
-4.0000	korunu
-4.0000	koruny
-4.0000	korupce
-4.0000	korupci
-4.0000	korupcni
-4.0000	koryta
-4.0000	kosmicka
-4.0000	kosmicke
-4.0000	kostel
-4.0000	kostela
-4.0000	kostele
-4.0000	kosti
-4.0000	kotel
-4.0000	kotlu
-4.0000	kouka
-4.0000	koukat
-4.0000	koupat
-4.0000	koupi
-4.0000	koupil
-4.0000	koupila
-4.0000	koupili
-4.0000	koupit
-4.0000	koureni
-4.0000	kouri
-4.0000	kourit
-4.0000	kousek
-4.0000	kousicek
-4.0000	kouzlo
-4.0000	kozak
-4.0000	kozni
-4.0000	krabici
-4.0000	krabicky
-4.0000	krade
-4.0000	kradeze
-4.0000	kraj
-4.0000	krajane
-4.0000	kraje
-4.0000	kraji
-4.0000	krajich
-4.0000	krajina
-4.0000	krajine
-4.0000	krajinu
-4.0000	krajske
-4.0000	krajskeho
-4.0000	krajskem
-4.0000	krajsky
-4.0000	krajskych
-4.0000	kraju
-4.0000	krale
-4.0000	kralik
-4.0000	kralovske
-4.0000	kralovstvi
-4.0000	kralu
-4.0000	krasa
-4.0000	krasna
-4.0000	krasne
-4.0000	krasnou
-4.0000	krasny
-4.0000	krat
-4.0000	kratce
-4.0000	kratke
-4.0000	kratkem
-4.0000	kratkosti
-4.0000	kratkou
-4.0000	kratky
-4.0000	kratsi
-4.0000	kraus
-4.0000	krausova
-4.0000	krcni
-4.0000	kreativitu
-4.0000	krecek
-4.0000	kreslo
-4.0000	krestanske
-4.0000	krestanskych
-4.0000	krestanstvi
-4.0000	krestanu
-4.0000	krev
-4.0000	krevni
-4.0000	krevniho
-4.0000	kridlo
-4.0000	kriminaliste
-4.0000	kriteria
-4.0000	kriterii
-4.0000	kritici
-4.0000	kriticka
-4.0000	kriticke
-4.0000	kriticky
-4.0000	kritika
-4.0000	kritiku
-4.0000	kritiky
-4.0000	kritizoval
-4.0000	kritizovat
-4.0000	krivka
-4.0000	krize
-4.0000	krizi
-4.0000	krizovatky
-4.0000	krizoveho
-4.0000	krku
-4.0000	kroc
-4.0000	krok
-4.0000	krokem
-4.0000	kroku
-4.0000	kroky
-4.0000	krom
-4.0000	krome
-4.0000	kroupa
-4.0000	krouzku
-4.0000	kruhu
-4.0000	krve
-4.0000	ksc
-4.0000	kscm
-4.0000	ktera
-4.0000	ktere
-4.0000	ktereho
-4.0000	kterej
-4.0000	kterem
-4.0000	kteremu
-4.0000	kteri
-4.0000	kterou
-4.0000	ktery
-4.0000	kterych
-4.0000	kteryho
-4.0000	kterym
-4.0000	kterymi
-4.0000	ku
-4.0000	kuba
-4.0000	kube
-4.0000	kubicko
-4.0000	kubiku
-4.0000	kuchyne
-4.0000	kulaty
-4.0000	kulminace
-4.0000	kulminovat
-4.0000	kultura
-4.0000	kulture
-4.0000	kulturni
-4.0000	kulturnich
-4.0000	kulturnim
-4.0000	kulturu
-4.0000	kultury
-4.0000	kun
-4.0000	kupni
-4.0000	kupodivu
-4.0000	kupovali
-4.0000	kupovat
-4.0000	kupredu
-4.0000	kupuje
-4.0000	kupujete
-4.0000	kupuji
-4.0000	kure
-4.0000	kurz
-4.0000	kurzu
-4.0000	kurzy
-4.0000	kus
-4.0000	kusu
-4.0000	kuze
-4.0000	kuzi
-4.0000	kvalifikaci
-4.0000	kvalita
-4.0000	kvalite
-4.0000	kvalitne
-4.0000	kvalitnejsi
-4.0000	kvalitni
-4.0000	kvalitnich
-4.0000	kvalitou
-4.0000	kvalitu
-4.0000	kvality
-4.0000	kvetna
-4.0000	kvetnu
-4.0000	kvuli
-4.0000	kyjeva
-4.0000	kyjeve
-4.0000	kym
-4.0000	kypr
-4.0000	kypru
-4.0000	kytara
-4.0000	kytaru
-4.0000	labe
-4.0000	labem
-4.0000	ladislav
-4.0000	lady
-4.0000	laicky
-4.0000	laka
-4.0000	lakaji
-4.0000	laska
-4.0000	laskou
-4.0000	lasku
-4.0000	lasky
-4.0000	latek
-4.0000	latina
-4.0000	latinske
-4.0000	latka
-4.0000	latku
-4.0000	latky
-4.0000	lazenske
-4.0000	lazne
-4.0000	lazni
-4.0000	laznich
-4.0000	lecba
-4.0000	lecbe
-4.0000	lecbu
-4.0000	lecby
-4.0000	leccos
-4.0000	lecebne
-4.0000	lecebnych
-4.0000	leci
-4.0000	lecit
-4.0000	ledacos
-4.0000	ledna
-4.0000	lednu
-4.0000	ledu
-4.0000	ledvin
-4.0000	ledvinu
-4.0000	ledviny
-4.0000	legalni
-4.0000	legislativa
-4.0000	legislativni
-4.0000	legislativu
-4.0000	legislativy
-4.0000	legitimni
-4.0000	legrace
-4.0000	legraci
-4.0000	lehce
-4.0000	lehci
-4.0000	lehke
-4.0000	lek
-4.0000	lekar
-4.0000	lekare
-4.0000	lekarem
-4.0000	lekari
-4.0000	lekarka
-4.0000	lekarska
-4.0000	lekarske
-4.0000	lekarskou
-4.0000	lekaru
-4.0000	leku
-4.0000	leky
-4.0000	lenka
-4.0000	lepe
-4.0000	lepsi
-4.0000	lepsiho
-4.0000	lepsim
-4.0000	les
-4.0000	lesa
-4.0000	lese
-4.0000	lesni
-4.0000	let
-4.0000	leta
-4.0000	letadla
-4.0000	letadle
-4.0000	letadlo
-4.0000	lete
-4.0000	letech
-4.0000	letecke
-4.0000	letectvi
-4.0000	letectvo
-4.0000	leteho
-4.0000	letel
-4.0000	leteli
-4.0000	letet
-4.0000	letiste
-4.0000	letisti
-4.0000	letni
-4.0000	letnich
-4.0000	leto
-4.0000	letos
-4.0000	letosni
-4.0000	letosniho
-4.0000	letosnim
-4.0000	letu
-4.0000	lety
-4.0000	lev
-4.0000	levice
-4.0000	levici
-4.0000	levicovy
-4.0000	levne
-4.0000	levneji
-4.0000	levnejsi
-4.0000	lez
-4.0000	lezet
-4.0000	lezi
-4.0000	lhutu
-4.0000	libanonu
-4.0000	liberalni
-4.0000	libi
-4.0000	libil
-4.0000	libila
-4.0000	libilo
-4.0000	libit
-4.0000	libor
-4.0000	libore
-4.0000	libove
-4.0000	libye
-4.0000	libyi
-4.0000	lid
-4.0000	lide
-4.0000	lidech
-4.0000	lidem
-4.0000	lidi
-4.0000	lidma
-4.0000	lidmi
-4.0000	lidovci
-4.0000	lidovcum
-4.0000	lidove
-4.0000	lidovych
-4.0000	lidr
-4.0000	lidrem
-4.0000	lidska
-4.0000	lidske
-4.0000	lidskou
-4.0000	lidsky
-4.0000	lidskych
-4.0000	lidstvo
-4.0000	lidu
-4.0000	liga
-4.0000	ligu
-4.0000	ligy
-4.0000	lihu
-4.0000	limity
-4.0000	lince
-4.0000	linii
-4.0000	linkach
-4.0000	linku
-4.0000	linky
-4.0000	lip
-4.0000	lipove
-4.0000	lisi
-4.0000	list
-4.0000	listek
-4.0000	listi
-4.0000	listopadu
-4.0000	listu
-4.0000	listy
-4.0000	literarni
-4.0000	literarniho
-4.0000	literatura
-4.0000	literaturu
-4.0000	literatury
-4.0000	lito
-4.0000	litru
-4.0000	litry
-4.0000	livia
-4.0000	lod
-4.0000	lode
-4.0000	lodi
-4.0000	logicke
-4.0000	logicky
-4.0000	logiku
-4.0000	lokalit
-4.0000	lokalite
-4.0000	lokalitu
-4.0000	lokality
-4.0000	lokalni
-4.0000	londyna
-4.0000	londyne
-4.0000	loni
-4.0000	lonske
-4.0000	lonskeho
-4.0000	lonskem
-4.0000	lonsky
-4.0000	louci
-4.0000	louze
-4.0000	lubomir
-4.0000	lubomira
-4.0000	lubos
-4.0000	lucie
-4.0000	ludmila
-4.0000	lukas
-4.0000	lukase
-4.0000	lustracni
-4.0000	luxusni
-4.0000	lyzovani
-4.0000	lze
-4.0000	ma
-4.0000	machacek
-4.0000	madarsku
-4.0000	mafra
-4.0000	magistrat
-4.0000	magistratu
-4.0000	magneticke
-4.0000	maj
-4.0000	majetek
-4.0000	majetkem
-4.0000	majetkova
-4.0000	majetku
-4.0000	majetky
-4.0000	maji
-4.0000	majitel
-4.0000	majitele
-4.0000	majitelem
-4.0000	majiteli
-4.0000	mala
-4.0000	male
-4.0000	maleho
-4.0000	malej
-4.0000	malem
-4.0000	mali
-4.0000	malicka
-4.0000	malickost
-4.0000	malinko
-4.0000	malo
-4.0000	malokdo
-4.0000	malokdy
-4.0000	malou
-4.0000	maly
-4.0000	malych
-4.0000	malym
-4.0000	mam
-4.0000	mama
-4.0000	mame
-4.0000	maminka
-4.0000	maminkou
-4.0000	maminky
-4.0000	management
-4.0000	manazer
-4.0000	manazera
-4.0000	manazeri
-4.0000	mandat
-4.0000	mandatu
-4.0000	mandela
-4.0000	manipulaci
-4.0000	mantinely
-4.0000	manzel
-4.0000	manzela
-4.0000	manzele
-4.0000	manzelem
-4.0000	manzelka
-4.0000	manzelky
-4.0000	manzelstvi
-4.0000	manzelu
-4.0000	mapa
-4.0000	mapuje
-4.0000	marek
-4.0000	margaret
-4.0000	marie
-4.0000	marka
-4.0000	markem
-4.0000	marketa
-4.0000	marketing
-4.0000	marketingu
-4.0000	marne
-4.0000	mars
-4.0000	marsu
-4.0000	martin
-4.0000	martina
-4.0000	martine
-4.0000	martinem
-4.0000	marvanova
-4.0000	mas
-4.0000	masa
-4.0000	masaryk
-4.0000	masarykovy
-4.0000	masivni
-4.0000	masky
-4.0000	maso
-4.0000	mate
-4.0000	matematika
-4.0000	matematiku
-4.0000	matematiky
-4.0000	material
-4.0000	materialu
-4.0000	materialum
-4.0000	materialy
-4.0000	materske
-4.0000	materskych
-4.0000	matka
-4.0000	matkou
-4.0000	matku
-4.0000	matky
-4.0000	maximalne
-4.0000	maximum
-4.0000	me
-4.0000	mechanismu
-4.0000	mechanismus
-4.0000	mechanismy
-4.0000	medaile
-4.0000	medaili
-4.0000	media
-4.0000	medialne
-4.0000	medialni
-4.0000	medialnim
-4.0000	medicina
-4.0000	medicine
-4.0000	medicinu
-4.0000	mediciny
-4.0000	medii
-4.0000	mediich
-4.0000	mediim
-4.0000	meho
-4.0000	mejte
-4.0000	mel
-4.0000	mela
-4.0000	meli
-4.0000	melniku
-4.0000	melo
-4.0000	mely
-4.0000	mem
-4.0000	mena
-4.0000	mene
-4.0000	meni
-4.0000	menit
-4.0000	menove
-4.0000	menoveho
-4.0000	mensi
-4.0000	mensich
-4.0000	mensim
-4.0000	mensin
-4.0000	mensina
-4.0000	mensinove
-4.0000	mensiny
-4.0000	mentalne
-4.0000	mereni
-4.0000	meri
-4.0000	merici
-4.0000	merit
-4.0000	meritku
-4.0000	merkelova
-4.0000	merkelove
-4.0000	mesic
-4.0000	mesice
-4.0000	mesicem
-4.0000	mesici
-4.0000	mesicich
-4.0000	mesicne
-4.0000	mesicni
-4.0000	mesicu
-4.0000	mesitach
-4.0000	mest
-4.0000	mesta
-4.0000	meste
-4.0000	mestech
-4.0000	mestecka
-4.0000	mestem
-4.0000	mesto
-4.0000	mestska
-4.0000	mestske
-4.0000	mestskeho
-4.0000	mestskou
-4.0000	mestskych
-4.0000	mestu
-4.0000	metal
-4.0000	meteority
-4.0000	metoda
-4.0000	metodiku
-4.0000	metodou
-4.0000	metodu
-4.0000	metody
-4.0000	metr
-4.0000	metra
-4.0000	metro
-4.0000	metropole
-4.0000	metru
-4.0000	mez
-4.0000	mezd
-4.0000	mezi
-4.0000	mezinarodni
-4.0000	mezinarodnich
-4.0000	mezinarodniho
-4.0000	mezinarodnim
-4.0000	mezitim
-4.0000	mi
-4.0000	michael
-4.0000	michaela
-4.0000	michail
-4.0000	michal
-4.0000	michala
-4.0000	michale
-4.0000	michalem
-4.0000	mikrofonem
-4.0000	mikrofonu
-4.0000	mikulas
-4.0000	milan
-4.0000	milana
-4.0000	milane
-4.0000	milanem
-4.0000	mile
-4.0000	milena
-4.0000	mili
-4.0000	miliard
-4.0000	miliarda
-4.0000	miliardu
-4.0000	miliardy
-4.0000	milimetru
-4.0000	milion
-4.0000	milionu
-4.0000	miliony
-4.0000	milos
-4.0000	milose
-4.0000	milosem
-4.0000	milosi
-4.0000	milost
-4.0000	miluju
-4.0000	mimo
-4.0000	mimochodem
-4.0000	mimoradna
-4.0000	mimoradne
-4.0000	min
-4.0000	mince
-4.0000	mineni
-4.0000	mineralnich
-4.0000	minimalne
-4.0000	minimalni
-4.0000	minimum
-4.0000	ministerstev
-4.0000	ministerstva
-4.0000	ministerstvem
-4.0000	ministerstvo
-4.0000	ministerstvu
-4.0000	ministr
-4.0000	ministra
-4.0000	ministre
-4.0000	ministrem
-4.0000	ministri
-4.0000	ministru
-4.0000	ministry
-4.0000	ministryne
-4.0000	ministryni
-4.0000	minula
-4.0000	minule
-4.0000	minuleho
-4.0000	minulem
-4.0000	minulosti
-4.0000	minulou
-4.0000	minuly
-4.0000	minulych
-4.0000	minulym
-4.0000	minus
-4.0000	minut
-4.0000	minutach
-4.0000	minute
-4.0000	minutu
-4.0000	minuty
-4.0000	mir
-4.0000	mira
-4.0000	mire
-4.0000	mirek
-4.0000	miri
-4.0000	mirku
-4.0000	mirne
-4.0000	miroslav
-4.0000	miroslava
-4.0000	mirove
-4.0000	miru
-4.0000	miry
-4.0000	mise
-4.0000	mist
-4.0000	mista
-4.0000	miste
-4.0000	mistech
-4.0000	mistem
-4.0000	mistni
-4.0000	mistnich
-4.0000	mistniho
-4.0000	mistnim
-4.0000	mistnost
-4.0000	mistnosti
-4.0000	misto
-4.0000	mistopredseda
-4.0000	mistopredsedkyne
-4.0000	mistopredsedo
-4.0000	mistopredsedou
-4.0000	mistopredsedu
-4.0000	mistopredsedy
-4.0000	mistostarosta
-4.0000	mistr
-4.0000	mistri
-4.0000	mistrovstvi
-4.0000	mistru
-4.0000	misty
-4.0000	mit
-4.0000	mivaji
-4.0000	mlada
-4.0000	mlade
-4.0000	mladek
-4.0000	mladez
-4.0000	mladeze
-4.0000	mladi
-4.0000	mladku
-4.0000	mladou
-4.0000	mladsi
-4.0000	mlady
-4.0000	mladych
-4.0000	mladym
-4.0000	mladymi
-4.0000	mlcky
-4.0000	mleko
-4.0000	mluvci
-4.0000	mluvi
-4.0000	mluvil
-4.0000	mluvila
-4.0000	mluvili
-4.0000	mluvilo
-4.0000	mluvily
-4.0000	mluvim
-4.0000	mluvime
-4.0000	mluvit
-4.0000	mluvite
-4.0000	mne
-4.0000	mnichovu
-4.0000	mnoha
-4.0000	mnohdy
-4.0000	mnohe
-4.0000	mnohem
-4.0000	mnoho
-4.0000	mnohokrat
-4.0000	mnou
-4.0000	mnozi
-4.0000	mnozstvi
-4.0000	mobilni
-4.0000	mobilnich
-4.0000	moc
-4.0000	moci
-4.0000	mockrat
-4.0000	moct
-4.0000	moda
-4.0000	model
-4.0000	modelu
-4.0000	modely
-4.0000	moderni
-4.0000	modernich
-4.0000	modernim
-4.0000	modernizaci
-4.0000	modlitby
-4.0000	mohl
-4.0000	mohla
-4.0000	mohli
-4.0000	mohlo
-4.0000	mohly
-4.0000	mohou
-4.0000	mohu
-4.0000	moje
-4.0000	moji
-4.0000	moment
-4.0000	momentalne
-4.0000	momente
-4.0000	momentu
-4.0000	momenty
-4.0000	monarchie
-4.0000	moralni
-4.0000	morava
-4.0000	moravce
-4.0000	morave
-4.0000	moravske
-4.0000	moravskoslezskeho
-4.0000	moravskoslezskem
-4.0000	moravy
-4.0000	more
-4.0000	morem
-4.0000	mori
-4.0000	moskva
-4.0000	moskve
-4.0000	moskvy
-4.0000	most
-4.0000	moste
-4.0000	mostecke
-4.0000	mostu
-4.0000	mosty
-4.0000	motiv
-4.0000	motivace
-4.0000	motivaci
-4.0000	motivem
-4.0000	motivy
-4.0000	motol
-4.0000	motory
-4.0000	mozkove
-4.0000	mozku
-4.0000	mozna
-4.0000	mozne
-4.0000	mozneho
-4.0000	mozno
-4.0000	moznost
-4.0000	moznosti
-4.0000	mozny
-4.0000	moznych
-4.0000	mraz
-4.0000	mrkev
-4.0000	mrtvych
-4.0000	mrzi
-4.0000	mse
-4.0000	mu
-4.0000	muhamad
-4.0000	muj
-4.0000	mursi
-4.0000	mursiho
-4.0000	museji
-4.0000	musel
-4.0000	musela
-4.0000	museli
-4.0000	muselo
-4.0000	musely
-4.0000	muset
-4.0000	musi
-4.0000	musim
-4.0000	musime
-4.0000	musis
-4.0000	musite
-4.0000	muslimske
-4.0000	muslimskeho
-4.0000	muz
-4.0000	muze
-4.0000	muzea
-4.0000	muzeme
-4.0000	muzes
-4.0000	muzete
-4.0000	muzeu
-4.0000	muzeum
-4.0000	muzi
-4.0000	muzice
-4.0000	muzika
-4.0000	muzikal
-4.0000	muzikant
-4.0000	muziku
-4.0000	muzou
-4.0000	muzske
-4.0000	muzu
-4.0000	my
-4.0000	mych
-4.0000	myho
-4.0000	mylim
-4.0000	mym
-4.0000	mynar
-4.0000	myslel
-4.0000	myslela
-4.0000	mysleli
-4.0000	mysleni
-4.0000	myslenka
-4.0000	myslenkami
-4.0000	myslenkou
-4.0000	myslenku
-4.0000	myslenky
-4.0000	mysleno
-4.0000	myslet
-4.0000	mysli
-4.0000	myslim
-4.0000	myslime
-4.0000	myslis
-4.0000	myslite
-4.0000	myty
-4.0000	mzda
-4.0000	mzdu
-4.0000	mzdy
-4.0000	na
-4.0000	nabidka
-4.0000	nabidkou
-4.0000	nabidku
-4.0000	nabidky
-4.0000	nabidl
-4.0000	nabidli
-4.0000	nabidlo
-4.0000	nabidne
-4.0000	nabidnout
-4.0000	nabizeji
-4.0000	nabizel
-4.0000	nabizet
-4.0000	nabizi
-4.0000	nabizime
-4.0000	nabozenske
-4.0000	nabozenstvi
-4.0000	nabrezi
-4.0000	nachazi
-4.0000	nad
-4.0000	nada
-4.0000	nadace
-4.0000	nadacni
-4.0000	nadale
-4.0000	nadeje
-4.0000	nadeji
-4.0000	nadherna
-4.0000	nadherne
-4.0000	nadherny
-4.0000	nadnarodni
-4.0000	nadobi
-4.0000	nadoby
-4.0000	nadrazi
-4.0000	nadrze
-4.0000	nadsazkou
-4.0000	nadseni
-4.0000	nadstandardni
-4.0000	nagyovou
-4.0000	nahlas
-4.0000	nahle
-4.0000	nahlednout
-4.0000	nahlizet
-4.0000	nahoda
-4.0000	nahodou
-4.0000	nahore
-4.0000	nahoru
-4.0000	nahrad
-4.0000	nahradit
-4.0000	nahradni
-4.0000	nahradu
-4.0000	nahrady
-4.0000	naivni
-4.0000	najde
-4.0000	najdeme
-4.0000	najdete
-4.0000	najdou
-4.0000	najednou
-4.0000	najem
-4.0000	najevo
-4.0000	najit
-4.0000	nakazy
-4.0000	naklad
-4.0000	nakladatelstvi
-4.0000	nakladne
-4.0000	nakladni
-4.0000	nakladu
-4.0000	naklady
-4.0000	nakolik
-4.0000	nakonec
-4.0000	nakup
-4.0000	nakupovat
-4.0000	nakupu
-4.0000	nakupuji
-4.0000	nakupy
-4.0000	nalad
-4.0000	nalada
-4.0000	naladili
-4.0000	naladu
-4.0000	nalady
-4.0000	nalehave
-4.0000	nalez
-4.0000	nalezl
-4.0000	nalezt
-4.0000	nalezy
-4.0000	nam
-4.0000	nama
-4.0000	namestek
-4.0000	namesti
-4.0000	namestka
-4.0000	namestkem
-4.0000	namestku
-4.0000	namestkyne
-4.0000	namet
-4.0000	nami
-4.0000	namitkami
-4.0000	namorni
-4.0000	naopak
-4.0000	napad
-4.0000	napada
-4.0000	napadaji
-4.0000	napadlo
-4.0000	napadne
-4.0000	napady
-4.0000	napeti
-4.0000	napise
-4.0000	naplanovano
-4.0000	naplnit
-4.0000	naplno
-4.0000	naplnovat
-4.0000	naplnuje
-4.0000	napor
-4.0000	naposled
-4.0000	naposledy
-4.0000	napravu
-4.0000	napred
-4.0000	napric
-4.0000	napriklad
-4.0000	naprosta
-4.0000	naproste
-4.0000	naprosto
-4.0000	naprostou
-4.0000	naprosty
-4.0000	napsal
-4.0000	napsala
-4.0000	napsaly
-4.0000	napsano
-4.0000	napsany
-4.0000	napsat
-4.0000	naradi
-4.0000	naraz
-4.0000	narazil
-4.0000	narazila
-4.0000	narazime
-4.0000	naridi
-4.0000	narizeni
-4.0000	narocna
-4.0000	narocne
-4.0000	narocnost
-4.0000	narocny
-4.0000	narod
-4.0000	naroda
-4.0000	narodil
-4.0000	narodila
-4.0000	narodili
-4.0000	narodni
-4.0000	narodnich
-4.0000	narodniho
-4.0000	narodnim
-4.0000	narodnostni
-4.0000	narodu
-4.0000	narok
-4.0000	naroky
-4.0000	narovinu
-4.0000	narozeni
-4.0000	narust
-4.0000	narustu
-4.0000	narychlo
-4.0000	nas
-4.0000	nasadit
-4.0000	nasazeni
-4.0000	nase
-4.0000	naseho
-4.0000	nasel
-4.0000	nasem
-4.0000	nasemu
-4.0000	nashledanou
-4.0000	nasi
-4.0000	nasich
-4.0000	nasili
-4.0000	nasim
-4.0000	nasimi
-4.0000	nasla
-4.0000	nasledky
-4.0000	nasledne
-4.0000	nasledovat
-4.0000	nasleduje
-4.0000	nasledujici
-4.0000	nasledujicich
-4.0000	nasli
-4.0000	naslo
-4.0000	nasly
-4.0000	nasnade
-4.0000	nastal
-4.0000	nastala
-4.0000	nastane
-4.0000	nastat
-4.0000	nastava
-4.0000	nastaven
-4.0000	nastavena
-4.0000	nastavene
-4.0000	nastaveni
-4.0000	nastaveny
-4.0000	nastavit
-4.0000	nastesti
-4.0000	nastoupi
-4.0000	nastoupil
-4.0000	nastoupit
-4.0000	nastroj
-4.0000	nastroje
-4.0000	nastrojem
-4.0000	nastroju
-4.0000	nastup
-4.0000	nastupce
-4.0000	nastupem
-4.0000	nastupuje
-4.0000	nataceni
-4.0000	nater
-4.0000	nato
-4.0000	natocen
-4.0000	natocil
-4.0000	natocila
-4.0000	natolik
-4.0000	natvrdo
-4.0000	nauci
-4.0000	naucil
-4.0000	naucila
-4.0000	naucili
-4.0000	naucit
-4.0000	navazat
-4.0000	navazuje
-4.0000	navic
-4.0000	navod
-4.0000	navrat
-4.0000	navratu
-4.0000	navrh
-4.0000	navrhem
-4.0000	navrhl
-4.0000	navrhoval
-4.0000	navrhu
-4.0000	navrhuje
-4.0000	navrhum
-4.0000	navrhy
-4.0000	navrzene
-4.0000	navsteva
-4.0000	navsteve
-4.0000	navstevnici
-4.0000	navstevniku
-4.0000	navstevniky
-4.0000	navstevovat
-4.0000	navstevu
-4.0000	navstevy
-4.0000	navstivil
-4.0000	navstivit
-4.0000	navyky
-4.0000	navyseni
-4.0000	navysit
-4.0000	navzdory
-4.0000	nazev
-4.0000	naznacil
-4.0000	naznacila
-4.0000	naznacuje
-4.0000	naznacujete
-4.0000	nazor
-4.0000	nazorem
-4.0000	nazoru
-4.0000	nazory
-4.0000	nazval
-4.0000	nazvane
-4.0000	nazvat
-4.0000	nazvem
-4.0000	nazveme
-4.0000	nazvu
-4.0000	nazyva
-4.0000	ne
-4.0000	neb
-4.0000	nebavi
-4.0000	nebe
-4.0000	neberou
-4.0000	nebezpeci
-4.0000	nebezpecna
-4.0000	nebezpecne
-4.0000	nebezpecny
-4.0000	nebo
-4.0000	neboli
-4.0000	nebot
-4.0000	nebude
-4.0000	nebudeme
-4.0000	nebudete
-4.0000	nebudou
-4.0000	nebudu
-4.0000	nebyl
-4.0000	nebyla
-4.0000	nebyli
-4.0000	nebylo
-4.0000	nebyly
-4.0000	necas
-4.0000	necase
-4.0000	necasova
-4.0000	necasovy
-4.0000	neceho
-4.0000	neceka
-4.0000	necekal
-4.0000	necekam
-4.0000	necekane
-4.0000	necele
-4.0000	necelych
-4.0000	necem
-4.0000	necemu
-4.0000	necha
-4.0000	nechaji
-4.0000	nechal
-4.0000	nechala
-4.0000	nechali
-4.0000	necham
-4.0000	nechame
-4.0000	nechapu
-4.0000	nechat
-4.0000	nechate
-4.0000	nechava
-4.0000	nechavat
-4.0000	nechce
-4.0000	nechceme
-4.0000	nechcete
-4.0000	nechci
-4.0000	nechme
-4.0000	nechodi
-4.0000	nechova
-4.0000	necht
-4.0000	nechte
-4.0000	nechteji
-4.0000	nechtel
-4.0000	nechtela
-4.0000	nechteli
-4.0000	necim
-4.0000	neciti
-4.0000	necitim
-4.0000	neco
-4.0000	neda
-4.0000	nedaji
-4.0000	nedaleko
-4.0000	nedali
-4.0000	nedalo
-4.0000	nedari
-4.0000	nedarilo
-4.0000	nedava
-4.0000	nedavno
-4.0000	nedeje
-4.0000	nedela
-4.0000	nedelaji
-4.0000	nedelal
-4.0000	nedelali
-4.0000	nedelam
-4.0000	nedelame
-4.0000	nedele
-4.0000	nedeli
-4.0000	nedochazelo
-4.0000	nedochazi
-4.0000	nedojde
-4.0000	nedokazal
-4.0000	nedokaze
-4.0000	nedokazeme
-4.0000	nedokazou
-4.0000	nedokazu
-4.0000	nedoslo
-4.0000	nedostal
-4.0000	nedostala
-4.0000	nedostali
-4.0000	nedostalo
-4.0000	nedostane
-4.0000	nedostanete
-4.0000	nedostatecne
-4.0000	nedostatek
-4.0000	nedostatkem
-4.0000	nedovedu
-4.0000	neexistuje
-4.0000	nefunguje
-4.0000	nefunguji
-4.0000	negativne
-4.0000	negativni
-4.0000	negativnim
-4.0000	neho
-4.0000	nehod
-4.0000	nehode
-4.0000	nehodu
-4.0000	nehody
-4.0000	nehraje
-4.0000	nehrozi
-4.0000	nehty
-4.0000	nej
-4.0000	nejaci
-4.0000	nejak
-4.0000	nejaka
-4.0000	nejake
-4.0000	nejakeho
-4.0000	nejakej
-4.0000	nejakejch
-4.0000	nejakem
-4.0000	nejakemu
-4.0000	nejakou
-4.0000	nejaky
-4.0000	nejakych
-4.0000	nejakyho
-4.0000	nejakym
-4.0000	nejakymi
-4.0000	nejblizsi
-4.0000	nejblizsich
-4.0000	nejcasteji
-4.0000	nejcastejsi
-4.0000	nejde
-4.0000	nejdou
-4.0000	nejdrazsi
-4.0000	nejdriv
-4.0000	nejdrive
-4.0000	nejdulezitejsi
-4.0000	nejdulezitejsich
-4.0000	nejedna
-4.0000	nejen
-4.0000	nejenom
-4.0000	nejhezci
-4.0000	nejhorsi
-4.0000	nejhur
-4.0000	nejjednodussi
-4.0000	nejkrasnejsi
-4.0000	nejlepe
-4.0000	nejlepsi
-4.0000	nejlepsich
-4.0000	nejlepsim
-4.0000	nejlip
-4.0000	nejmene
-4.0000	nejmensi
-4.0000	nejmin
-4.0000	nejmladsi
-4.0000	nejnizsi
-4.0000	nejnovejsi
-4.0000	nejpozdeji
-4.0000	nejpravdepodobnejsi
-4.0000	nejprve
-4.0000	nejradsi
-4.0000	nejruznejsi
-4.0000	nejruznejsich
-4.0000	nejrychlejsi
-4.0000	nejsem
-4.0000	nejsilnejsi
-4.0000	nejsme
-4.0000	nejsou
-4.0000	nejspis
-4.0000	nejstarsi
-4.0000	nejstarsiho
-4.0000	nejste
-4.0000	nejtezsi
-4.0000	nejvetsi
-4.0000	nejvetsich
-4.0000	nejvetsiho
-4.0000	nejvetsim
-4.0000	nejvhodnejsi
-4.0000	nejvic
-4.0000	nejvice
-4.0000	nejvyssi
-4.0000	nejvyssich
-4.0000	nejvyssiho
-4.0000	nejvyssim
-4.0000	nejznamejsi
-4.0000	nekam
-4.0000	nekde
-4.0000	nekdejsi
-4.0000	nekdo
-4.0000	nekdy
-4.0000	nekoho
-4.0000	nekolik
-4.0000	nekolika
-4.0000	nekolikrat
-4.0000	nekomu
-4.0000	nekonecne
-4.0000	nektera
-4.0000	nektere
-4.0000	nekteri
-4.0000	nekterou
-4.0000	nektery
-4.0000	nekterych
-4.0000	nekterym
-4.0000	nekterymi
-4.0000	nekvalitni
-4.0000	nekym
-4.0000	nelibi
-4.0000	nelibilo
-4.0000	nelze
-4.0000	nem
-4.0000	nema
-4.0000	nemaji
-4.0000	nemam
-4.0000	nemame
-4.0000	nemate
-4.0000	nemci
-4.0000	nemcova
-4.0000	nemcove
-4.0000	nemcovou
-4.0000	nemcu
-4.0000	nemecka
-4.0000	nemecke
-4.0000	nemeckeho
-4.0000	nemeckem
-4.0000	nemecko
-4.0000	nemecku
-4.0000	nemecky
-4.0000	nemeckych
-4.0000	nemecti
-4.0000	nemel
-4.0000	nemela
-4.0000	nemeli
-4.0000	nemelo
-4.0000	nemely
-4.0000	nemeni
-4.0000	nemluvi
-4.0000	nemluvil
-4.0000	nemluvim
-4.0000	nemoc
-4.0000	nemoci
-4.0000	nemocna
-4.0000	nemocne
-4.0000	nemocnic
-4.0000	nemocnice
-4.0000	nemocnici
-4.0000	nemocnicich
-4.0000	nemocnou
-4.0000	nemocny
-4.0000	nemocnych
-4.0000	nemohl
-4.0000	nemohla
-4.0000	nemohli
-4.0000	nemohlo
-4.0000	nemohly
-4.0000	nemohou
-4.0000	nemohu
-4.0000	nemovitost
-4.0000	nemovitosti
-4.0000	nemozne
-4.0000	nemozny
-4.0000	nemu
-4.0000	nemusel
-4.0000	nemusela
-4.0000	nemuseli
-4.0000	nemusely
-4.0000	nemusi
-4.0000	nemusim
-4.0000	nemusime
-4.0000	nemusite
-4.0000	nemuze
-4.0000	nemuzeme
-4.0000	nemuzete
-4.0000	nemuzou
-4.0000	nemuzu
-4.0000	nemyslel
-4.0000	nemyslim
-4.0000	nemyslite
-4.0000	nemz
-4.0000	nenapadlo
-4.0000	nenasel
-4.0000	nenasli
-4.0000	neni
-4.0000	neodpovida
-4.0000	neozyva
-4.0000	nepamatuju
-4.0000	nepatri
-4.0000	neplati
-4.0000	nepletu
-4.0000	nepochybne
-4.0000	nepodari
-4.0000	nepodarilo
-4.0000	nepodpori
-4.0000	nepokoje
-4.0000	nepomohlo
-4.0000	nepomuze
-4.0000	nepotrebuje
-4.0000	nepotrebujeme
-4.0000	nepotrebujete
-4.0000	nepovedlo
-4.0000	nepredpokladal
-4.0000	neprijatelna
-4.0000	neprijatelne
-4.0000	neprijde
-4.0000	neprijemne
-4.0000	neprijemny
-4.0000	neprilis
-4.0000	neprisel
-4.0000	nepritele
-4.0000	nepritelem
-4.0000	nepujde
-4.0000	nepujdu
-4.0000	nepustil
-4.0000	nerad
-4.0000	nerada
-4.0000	neradi
-4.0000	nerekl
-4.0000	nerekla
-4.0000	nerekli
-4.0000	nerekne
-4.0000	nereknu
-4.0000	neresi
-4.0000	neresilo
-4.0000	nerika
-4.0000	nerikaji
-4.0000	nerikal
-4.0000	nerikam
-4.0000	nerikejte
-4.0000	nerozumi
-4.0000	nerozumim
-4.0000	nerozumime
-4.0000	nervozita
-4.0000	nervozni
-4.0000	neschopnosti
-4.0000	nese
-4.0000	nesel
-4.0000	nesete
-4.0000	neskutecne
-4.0000	neskutecny
-4.0000	neslo
-4.0000	neslysel
-4.0000	neslyseli
-4.0000	nesmi
-4.0000	nesmim
-4.0000	nesmime
-4.0000	nesmirne
-4.0000	nesmysl
-4.0000	nesmyslne
-4.0000	nesmysly
-4.0000	nesouhlasi
-4.0000	nesouhlasim
-4.0000	nesouvisi
-4.0000	nestaci
-4.0000	nestalo
-4.0000	nestandardni
-4.0000	nestane
-4.0000	nestastna
-4.0000	nestastne
-4.0000	nestastny
-4.0000	nestesti
-4.0000	nestoji
-4.0000	netradicni
-4.0000	netusil
-4.0000	netusim
-4.0000	netyka
-4.0000	neudela
-4.0000	neudelal
-4.0000	neumela
-4.0000	neumi
-4.0000	neumim
-4.0000	neumime
-4.0000	neustale
-4.0000	neuveritelne
-4.0000	neuveritelny
-4.0000	nevadi
-4.0000	nevadilo
-4.0000	nevede
-4.0000	nevedel
-4.0000	nevedela
-4.0000	nevedeli
-4.0000	nevedi
-4.0000	neveri
-4.0000	neveril
-4.0000	neverim
-4.0000	nevi
-4.0000	nevidel
-4.0000	nevidela
-4.0000	nevideli
-4.0000	nevidi
-4.0000	nevidim
-4.0000	nevidime
-4.0000	nevim
-4.0000	nevime
-4.0000	nevite
-4.0000	nevladni
-4.0000	nevydrzi
-4.0000	nevypada
-4.0000	nevyplati
-4.0000	nevyresi
-4.0000	nevyslo
-4.0000	new
-4.0000	nez
-4.0000	nezajima
-4.0000	nezajimave
-4.0000	nezalezi
-4.0000	nezamestnani
-4.0000	nezamestnanost
-4.0000	nezamestnanosti
-4.0000	nezamestnanych
-4.0000	nezaplati
-4.0000	nezapomneli
-4.0000	nezavisle
-4.0000	nezavislost
-4.0000	nezavislosti
-4.0000	nezavisly
-4.0000	nezazil
-4.0000	nezazila
-4.0000	nezbytne
-4.0000	nezbyva
-4.0000	nezda
-4.0000	neziska
-4.0000	neziskove
-4.0000	nezlobte
-4.0000	nezmeni
-4.0000	neznaji
-4.0000	neznam
-4.0000	neznama
-4.0000	nezname
-4.0000	neznamena
-4.0000	neznamych
-4.0000	nezvladne
-4.0000	nhl
-4.0000	ni
-4.0000	nic
-4.0000	niceho
-4.0000	nicem
-4.0000	nicemu
-4.0000	nich
-4.0000	nichz
-4.0000	nici
-4.0000	nicim
-4.0000	nicmene
-4.0000	nijak
-4.0000	nikam
-4.0000	nikde
-4.0000	nikdo
-4.0000	nikdy
-4.0000	nikoho
-4.0000	nikoli
-4.0000	nikoliv
-4.0000	nikomu
-4.0000	nim
-4.0000	nima
-4.0000	nimi
-4.0000	niz
-4.0000	nize
-4.0000	nizke
-4.0000	nizkou
-4.0000	nizky
-4.0000	nizsi
-4.0000	nizsich
-4.0000	no
-4.0000	noc
-4.0000	noci
-4.0000	nocni
-4.0000	nohu
-4.0000	nohy
-4.0000	nominace
-4.0000	norma
-4.0000	normalne
-4.0000	normalni
-4.0000	normalnich
-4.0000	normalniho
-4.0000	normalnim
-4.0000	normalu
-4.0000	normy
-4.0000	nosni
-4.0000	notabene
-4.0000	nouze
-4.0000	nova
-4.0000	novacek
-4.0000	novacka
-4.0000	novak
-4.0000	nove
-4.0000	noveho
-4.0000	novela
-4.0000	novelu
-4.0000	novely
-4.0000	novem
-4.0000	novemu
-4.0000	novi
-4.0000	novin
-4.0000	novinach
-4.0000	novinar
-4.0000	novinare
-4.0000	novinari
-4.0000	novinarkou
-4.0000	novinarska
-4.0000	novinaru
-4.0000	novinarum
-4.0000	novinka
-4.0000	novinkou
-4.0000	novinky
-4.0000	noviny
-4.0000	novojicinske
-4.0000	novojicinsku
-4.0000	novou
-4.0000	novy
-4.0000	novych
-4.0000	novyho
-4.0000	novym
-4.0000	novymi
-4.0000	nula
-4.0000	nulova
-4.0000	nuti
-4.0000	nutne
-4.0000	nutno
-4.0000	nutnost
-4.0000	nutny
-4.0000	nymburk
-4.0000	nyni
-4.0000	o
-4.0000	oba
-4.0000	obaly
-4.0000	obama
-4.0000	obamy
-4.0000	obava
-4.0000	obavaji
-4.0000	obavam
-4.0000	obavu
-4.0000	obavy
-4.0000	obcan
-4.0000	obcana
-4.0000	obcane
-4.0000	obcanska
-4.0000	obcanske
-4.0000	obcanskeho
-4.0000	obcanskou
-4.0000	obcansky
-4.0000	obcanskych
-4.0000	obcanstvi
-4.0000	obcanu
-4.0000	obcanum
-4.0000	obcany
-4.0000	obcas
-4.0000	obce
-4.0000	obchod
-4.0000	obchode
-4.0000	obchodech
-4.0000	obchodni
-4.0000	obchodnich
-4.0000	obchodnici
-4.0000	obchodniku
-4.0000	obchodnim
-4.0000	obchodu
-4.0000	obchoduje
-4.0000	obchody
-4.0000	obci
-4.0000	obcich
-4.0000	obcim
-4.0000	obdiv
-4.0000	obdobi
-4.0000	obe
-4.0000	obec
-4.0000	obecna
-4.0000	obecne
-4.0000	obecneho
-4.0000	obecni
-4.0000	obed
-4.0000	obehu
-4.0000	obejit
-4.0000	obema
-4.0000	obeti
-4.0000	obezite
-4.0000	obezni
-4.0000	obhajce
-4.0000	objednavku
-4.0000	objekt
-4.0000	objektivne
-4.0000	objektivni
-4.0000	objektu
-4.0000	objekty
-4.0000	objem
-4.0000	objemu
-4.0000	objev
-4.0000	objevi
-4.0000	objevil
-4.0000	objevila
-4.0000	objevili
-4.0000	objevilo
-4.0000	objevily
-4.0000	objevit
-4.0000	objevovat
-4.0000	objevuje
-4.0000	objevuji
-4.0000	oblast
-4.0000	oblastech
-4.0000	oblasti
-4.0000	obleceni
-4.0000	oblibene
-4.0000	oblibenou
-4.0000	obnovit
-4.0000	obnovitelne
-4.0000	obnovitelnych
-4.0000	obnovy
-4.0000	oboje
-4.0000	oboji
-4.0000	obor
-4.0000	oborech
-4.0000	oboru
-4.0000	obory
-4.0000	obou
-4.0000	obracene
-4.0000	obraci
-4.0000	obracim
-4.0000	obrana
-4.0000	obranu
-4.0000	obrany
-4.0000	obrat
-4.0000	obrati
-4.0000	obratil
-4.0000	obratim
-4.0000	obratit
-4.0000	obraz
-4.0000	obrazek
-4.0000	obrazku
-4.0000	obrazky
-4.0000	obrazu
-4.0000	obri
-4.0000	obrovska
-4.0000	obrovske
-4.0000	obrovskem
-4.0000	obrovskou
-4.0000	obrovsky
-4.0000	obrovskym
-4.0000	obsadi
-4.0000	obsadit
-4.0000	obsah
-4.0000	obsahu
-4.0000	obsahuje
-4.0000	obsahuji
-4.0000	obsazeni
-4.0000	obtizne
-4.0000	obtiznejsi
-4.0000	obvinen
-4.0000	obvineni
-4.0000	obvinenim
-4.0000	obvineny
-4.0000	obvodni
-4.0000	obvykle
-4.0000	obycejne
-4.0000	obycejny
-4.0000	obydli
-4.0000	obyvatel
-4.0000	obyvatele
-4.0000	obyvatelstva
-4.0000	obyvatelstvo
-4.0000	obyvatelstvu
-4.0000	obzaloby
-4.0000	obzalovanych
-4.0000	obzvlast
-4.0000	ocekava
-4.0000	ocekavaji
-4.0000	ocekaval
-4.0000	ocekavalo
-4.0000	ocekavame
-4.0000	ocekavani
-4.0000	ocekavat
-4.0000	ocekavate
-4.0000	oceneni
-4.0000	ocenuji
-4.0000	ochoten
-4.0000	ochotna
-4.0000	ochotni
-4.0000	ochrana
-4.0000	ochrane
-4.0000	ochranou
-4.0000	ochranu
-4.0000	ochrany
-4.0000	oci
-4.0000	ocich
-4.0000	ocima
-4.0000	ockovani
-4.0000	ockovat
-4.0000	od
-4.0000	odborari
-4.0000	odborna
-4.0000	odborne
-4.0000	odbornici
-4.0000	odbornik
-4.0000	odbornika
-4.0000	odborniku
-4.0000	odborniky
-4.0000	odbornou
-4.0000	odborny
-4.0000	odboru
-4.0000	odbory
-4.0000	odchazeji
-4.0000	odchazejici
-4.0000	odchazela
-4.0000	odchazi
-4.0000	odchod
-4.0000	odchodu
-4.0000	oddeleni
-4.0000	oddelit
-4.0000	ode
-4.0000	odehrava
-4.0000	odejde
-4.0000	odejdou
-4.0000	odejit
-4.0000	odesel
-4.0000	odesla
-4.0000	odesli
-4.0000	odhad
-4.0000	odhadnout
-4.0000	odhadu
-4.0000	odhaduje
-4.0000	odhady
-4.0000	odhali
-4.0000	odhalit
-4.0000	odjet
-4.0000	odkaz
-4.0000	odkud
-4.0000	odlisna
-4.0000	odlisne
-4.0000	odlisny
-4.0000	odlozit
-4.0000	odmalicka
-4.0000	odmita
-4.0000	odmitaji
-4.0000	odmitam
-4.0000	odmitl
-4.0000	odmitla
-4.0000	odmitli
-4.0000	odmitne
-4.0000	odmitnout
-4.0000	odmitnuti
-4.0000	odnekud
-4.0000	odneti
-4.0000	odpad
-4.0000	odpadnich
-4.0000	odplatu
-4.0000	odpocinku
-4.0000	odpoledne
-4.0000	odpoledni
-4.0000	odpor
-4.0000	odposlechy
-4.0000	odpoved
-4.0000	odpovedel
-4.0000	odpovedela
-4.0000	odpovedet
-4.0000	odpovedi
-4.0000	odpovedne
-4.0000	odpovednost
-4.0000	odpovednosti
-4.0000	odpovi
-4.0000	odpovida
-4.0000	odpovidaji
-4.0000	odpovidam
-4.0000	odpovidat
-4.0000	odpovim
-4.0000	odpurci
-4.0000	odrazi
-4.0000	odrudy
-4.0000	odry
-4.0000	ods
-4.0000	odsouzen
-4.0000	odsouzeni
-4.0000	odstartovala
-4.0000	odstoupeni
-4.0000	odstoupit
-4.0000	odstraneni
-4.0000	odstraneny
-4.0000	odstrani
-4.0000	odstranit
-4.0000	odstranovat
-4.0000	odstrihnout
-4.0000	odstupem
-4.0000	odsud
-4.0000	odtamtud
-4.0000	odtud
-4.0000	odvaha
-4.0000	odvahu
-4.0000	odvetvi
-4.0000	odvezli
-4.0000	odviji
-4.0000	odvodit
-4.0000	odvolaci
-4.0000	odvolan
-4.0000	odvolani
-4.0000	odvolavat
-4.0000	odvratit
-4.0000	oecd
-4.0000	of
-4.0000	oficialne
-4.0000	oficialni
-4.0000	oficialnich
-4.0000	oficialnim
-4.0000	ohen
-4.0000	ohlas
-4.0000	ohlasy
-4.0000	ohledech
-4.0000	ohledem
-4.0000	ohledne
-4.0000	ohledu
-4.0000	ohromne
-4.0000	ohromny
-4.0000	ohrozeni
-4.0000	ohrozuje
-4.0000	ojedinely
-4.0000	okamura
-4.0000	okamury
-4.0000	okamzik
-4.0000	okamziku
-4.0000	okamziky
-4.0000	okamzite
-4.0000	okamzity
-4.0000	okd
-4.0000	okem
-4.0000	oken
-4.0000	okenko
-4.0000	okna
-4.0000	oko
-4.0000	okoli
-4.0000	okolni
-4.0000	okolnosti
-4.0000	okolo
-4.0000	okraji
-4.0000	okresni
-4.0000	okruh
-4.0000	okruhu
-4.0000	oldrich
-4.0000	olej
-4.0000	oleje
-4.0000	olga
-4.0000	olomouci
-4.0000	olympiada
-4.0000	olympiadu
-4.0000	olympiady
-4.0000	olympijske
-4.0000	olympijskeho
-4.0000	olympijsky
-4.0000	olympijskych
-4.0000	omezene
-4.0000	omezeni
-4.0000	omezenou
-4.0000	omezeny
-4.0000	omezi
-4.0000	omezit
-4.0000	omezovat
-4.0000	omezuje
-4.0000	omlouvam
-4.0000	omyl
-4.0000	on
-4.0000	ona
-4.0000	ondrej
-4.0000	ondreje
-4.0000	ondreji
-4.0000	one
-4.0000	onemocneni
-4.0000	onen
-4.0000	oni
-4.0000	online
-4.0000	ono
-4.0000	onoho
-4.0000	onu
-4.0000	ony
-4.0000	opacna
-4.0000	opacnem
-4.0000	opacny
-4.0000	opadne
-4.0000	opak
-4.0000	opakovane
-4.0000	opakovat
-4.0000	opakuje
-4.0000	opakuji
-4.0000	opatreni
-4.0000	opatrenich
-4.0000	opatrenim
-4.0000	opatrit
-4.0000	opatrna
-4.0000	opatrne
-4.0000	opatrny
-4.0000	opava
-4.0000	opave
-4.0000	opavy
-4.0000	opencard
-4.0000	operace
-4.0000	operaci
-4.0000	operacni
-4.0000	operator
-4.0000	opere
-4.0000	opery
-4.0000	opet
-4.0000	opodstatneni
-4.0000	opozice
-4.0000	opozici
-4.0000	opozicni
-4.0000	opozicnim
-4.0000	oprav
-4.0000	oprava
-4.0000	opravdove
-4.0000	opravdu
-4.0000	opravi
-4.0000	opravit
-4.0000	opravnene
-4.0000	opravu
-4.0000	opravy
-4.0000	oproti
-4.0000	optimalni
-4.0000	optimismu
-4.0000	optimisticke
-4.0000	optimisticky
-4.0000	opusti
-4.0000	opustil
-4.0000	opustila
-4.0000	opustit
-4.0000	orchestr
-4.0000	ordinace
-4.0000	orechy
-4.0000	organ
-4.0000	organismu
-4.0000	organismus
-4.0000	organizace
-4.0000	organizacemi
-4.0000	organizaci
-4.0000	organizacni
-4.0000	organizovana
-4.0000	organizuje
-4.0000	organu
-4.0000	organy
-4.0000	original
-4.0000	orisky
-4.0000	orl
-4.0000	osameni
-4.0000	oslovil
-4.0000	oslovila
-4.0000	oslovit
-4.0000	osm
-4.0000	osmadvaceti
-4.0000	osmdesat
-4.0000	osmdesate
-4.0000	osmdesati
-4.0000	osmdesatych
-4.0000	osme
-4.0000	osmeho
-4.0000	osmi
-4.0000	osmnact
-4.0000	osmnacte
-4.0000	osmnacteho
-4.0000	osmnacti
-4.0000	osn
-4.0000	osob
-4.0000	osoba
-4.0000	osobne
-4.0000	osobni
-4.0000	osobnich
-4.0000	osobnim
-4.0000	osobnost
-4.0000	osobnosti
-4.0000	osobu
-4.0000	osoby
-4.0000	ostatne
-4.0000	ostatni
-4.0000	ostatnich
-4.0000	ostatnim
-4.0000	ostatnimi
-4.0000	ostrava
-4.0000	ostrave
-4.0000	ostravska
-4.0000	ostravske
-4.0000	ostravskeho
-4.0000	ostravskem
-4.0000	ostravsku
-4.0000	ostravsky
-4.0000	ostravskych
-4.0000	ostravsti
-4.0000	ostravy
-4.0000	ostre
-4.0000	ostrou
-4.0000	ostrov
-4.0000	ostrove
-4.0000	ostrovech
-4.0000	ostrovu
-4.0000	ostrovy
-4.0000	osud
-4.0000	osudu
-4.0000	osudy
-4.0000	osvedceni
-4.0000	osveta
-4.0000	osvobozeni
-4.0000	ota
-4.0000	otakara
-4.0000	otazce
-4.0000	otazek
-4.0000	otazka
-4.0000	otazkach
-4.0000	otazkami
-4.0000	otazkou
-4.0000	otazku
-4.0000	otazky
-4.0000	otec
-4.0000	otevira
-4.0000	oteviraji
-4.0000	otevre
-4.0000	otevren
-4.0000	otevrena
-4.0000	otevrene
-4.0000	otevreni
-4.0000	otevreny
-4.0000	otevrenych
-4.0000	otevrit
-4.0000	otevrou
-4.0000	otevru
-4.0000	oteze
-4.0000	otvira
-4.0000	out
-4.0000	overit
-4.0000	ovladaji
-4.0000	ovladat
-4.0000	ovladnout
-4.0000	ovlivni
-4.0000	ovlivnil
-4.0000	ovlivnit
-4.0000	ovlivnovat
-4.0000	ovlivnuje
-4.0000	ovlivnuji
-4.0000	ovoce
-4.0000	ovsem
-4.0000	ovzdusi
-4.0000	oznaceni
-4.0000	oznacil
-4.0000	oznacit
-4.0000	oznameni
-4.0000	oznamil
-4.0000	oznamila
-4.0000	oznamili
-4.0000	ozyvaji
-4.0000	pachatelu
-4.0000	pacient
-4.0000	pacienta
-4.0000	pacientem
-4.0000	pacienti
-4.0000	pacientovi
-4.0000	pacientu
-4.0000	pacientum
-4.0000	pacienty
-4.0000	pad
-4.0000	pada
-4.0000	padat
-4.0000	padem
-4.0000	padesat
-4.0000	padesatce
-4.0000	padesati
-4.0000	padl
-4.0000	padla
-4.0000	padlo
-4.0000	padly
-4.0000	padne
-4.0000	padni
-4.0000	padnout
-4.0000	padu
-4.0000	pak
-4.0000	paklize
-4.0000	palce
-4.0000	pali
-4.0000	paliva
-4.0000	pamatek
-4.0000	pamatka
-4.0000	pamatkove
-4.0000	pamatkoveho
-4.0000	pamatku
-4.0000	pamatky
-4.0000	pamatuje
-4.0000	pamatujete
-4.0000	pamatuji
-4.0000	pamatuju
-4.0000	pamet
-4.0000	pameti
-4.0000	pametnika
-4.0000	pametniku
-4.0000	pan
-4.0000	pana
-4.0000	panbuh
-4.0000	pancir
-4.0000	pane
-4.0000	panelaku
-4.0000	panem
-4.0000	pani
-4.0000	panove
-4.0000	panu
-4.0000	panuje
-4.0000	panuji
-4.0000	papez
-4.0000	papeze
-4.0000	papezem
-4.0000	papir
-4.0000	papire
-4.0000	par
-4.0000	paradox
-4.0000	paradoxne
-4.0000	paradoxni
-4.0000	paragraf
-4.0000	parametry
-4.0000	pardon
-4.0000	parize
-4.0000	parizi
-4.0000	park
-4.0000	parkovaci
-4.0000	parkovacich
-4.0000	parkovani
-4.0000	parkovanim
-4.0000	parkoviste
-4.0000	parku
-4.0000	parlament
-4.0000	parlamentni
-4.0000	parlamentnich
-4.0000	parlamentu
-4.0000	partner
-4.0000	partnera
-4.0000	partnerem
-4.0000	partneri
-4.0000	partnerstvi
-4.0000	partneru
-4.0000	partnery
-4.0000	paru
-4.0000	pary
-4.0000	paskov
-4.0000	pasma
-4.0000	pasu
-4.0000	pate
-4.0000	pateho
-4.0000	patek
-4.0000	pater
-4.0000	patere
-4.0000	patku
-4.0000	patnact
-4.0000	patnacte
-4.0000	patnacti
-4.0000	patra
-4.0000	patrani
-4.0000	patrat
-4.0000	patre
-4.0000	patri
-4.0000	patrik
-4.0000	patriku
-4.0000	patril
-4.0000	patrila
-4.0000	patrne
-4.0000	pavel
-4.0000	pavla
-4.0000	pavle
-4.0000	pavlem
-4.0000	pavlu
-4.0000	peake
-4.0000	pece
-4.0000	peci
-4.0000	pecina
-4.0000	peclive
-4.0000	pedagog
-4.0000	pejsek
-4.0000	pejska
-4.0000	pekna
-4.0000	pekne
-4.0000	pekny
-4.0000	pelta
-4.0000	penez
-4.0000	penezi
-4.0000	penezich
-4.0000	penize
-4.0000	perfektne
-4.0000	perfektni
-4.0000	peritonealni
-4.0000	personalni
-4.0000	personalnich
-4.0000	pes
-4.0000	pesky
-4.0000	pestuje
-4.0000	pet
-4.0000	petactyriceti
-4.0000	petadvacet
-4.0000	petadvaceti
-4.0000	petasedmdesat
-4.0000	petatricet
-4.0000	petatriceti
-4.0000	peti
-4.0000	petice
-4.0000	petici
-4.0000	petilety
-4.0000	petka
-4.0000	petr
-4.0000	petra
-4.0000	petre
-4.0000	petrem
-4.0000	petru
-4.0000	pevne
-4.0000	picka
-4.0000	pietni
-4.0000	pije
-4.0000	piji
-4.0000	pikantni
-4.0000	pil
-4.0000	pilir
-4.0000	pilire
-4.0000	piloti
-4.0000	pilotu
-4.0000	pise
-4.0000	pisen
-4.0000	pisete
-4.0000	pisi
-4.0000	pisku
-4.0000	pisma
-4.0000	pismo
-4.0000	pismu
-4.0000	pisnicce
-4.0000	pisnicka
-4.0000	pisnickou
-4.0000	pisnicku
-4.0000	pisnicky
-4.0000	pisou
-4.0000	pit
-4.0000	piti
-4.0000	piva
-4.0000	pivni
-4.0000	pivo
-4.0000	plan
-4.0000	planech
-4.0000	planetaria
-4.0000	planetarium
-4.0000	planety
-4.0000	planovane
-4.0000	planovat
-4.0000	planu
-4.0000	planuje
-4.0000	plany
-4.0000	plat
-4.0000	platbu
-4.0000	platby
-4.0000	platebni
-4.0000	plati
-4.0000	platil
-4.0000	platili
-4.0000	platime
-4.0000	platit
-4.0000	platna
-4.0000	platne
-4.0000	platnost
-4.0000	platy
-4.0000	plne
-4.0000	plnem
-4.0000	plneni
-4.0000	plni
-4.0000	plnit
-4.0000	plno
-4.0000	plnou
-4.0000	plny
-4.0000	plocha
-4.0000	plochy
-4.0000	plody
-4.0000	plosne
-4.0000	plukovnik
-4.0000	plukovnika
-4.0000	plus
-4.0000	plyn
-4.0000	plyne
-4.0000	plynove
-4.0000	plynu
-4.0000	plzenskem
-4.0000	plzne
-4.0000	plzni
-4.0000	po
-4.0000	pobliz
-4.0000	pobrezi
-4.0000	pobyt
-4.0000	pobytu
-4.0000	pobyty
-4.0000	pocasi
-4.0000	pocatku
-4.0000	pocet
-4.0000	pochazeji
-4.0000	pochazi
-4.0000	pochazim
-4.0000	pochopeni
-4.0000	pochopil
-4.0000	pochopila
-4.0000	pochopili
-4.0000	pochopit
-4.0000	pochopitelne
-4.0000	pochybeni
-4.0000	pochybne
-4.0000	pochybnosti
-4.0000	pocinaje
-4.0000	pocinat
-4.0000	pocit
-4.0000	pocita
-4.0000	pocitac
-4.0000	pocitace
-4.0000	pocitaci
-4.0000	pocital
-4.0000	pocitali
-4.0000	pocitam
-4.0000	pocitame
-4.0000	pocitat
-4.0000	pocity
-4.0000	pocka
-4.0000	pockame
-4.0000	pockat
-4.0000	pockejte
-4.0000	poctive
-4.0000	poctu
-4.0000	pocty
-4.0000	pod
-4.0000	podal
-4.0000	podani
-4.0000	podari
-4.0000	podarilo
-4.0000	podat
-4.0000	podava
-4.0000	podavaji
-4.0000	podekovat
-4.0000	podel
-4.0000	podepsal
-4.0000	podepsala
-4.0000	podepsali
-4.0000	podepsana
-4.0000	podepsat
-4.0000	podezreli
-4.0000	podezreni
-4.0000	podil
-4.0000	podileji
-4.0000	podileli
-4.0000	podilet
-4.0000	podili
-4.0000	podilu
-4.0000	podiva
-4.0000	podivaji
-4.0000	podival
-4.0000	podivali
-4.0000	podivam
-4.0000	podivame
-4.0000	podivat
-4.0000	podivate
-4.0000	podivejte
-4.0000	podklady
-4.0000	podle
-4.0000	podleha
-4.0000	podminek
-4.0000	podminka
-4.0000	podminkach
-4.0000	podminkou
-4.0000	podminku
-4.0000	podminky
-4.0000	podnetu
-4.0000	podnety
-4.0000	podnik
-4.0000	podnikaji
-4.0000	podnikani
-4.0000	podnikat
-4.0000	podnikatel
-4.0000	podnikatele
-4.0000	podnikatelske
-4.0000	podnikatelu
-4.0000	podnikatelum
-4.0000	podniku
-4.0000	podniky
-4.0000	podobe
-4.0000	podobna
-4.0000	podobne
-4.0000	podobneho
-4.0000	podobnou
-4.0000	podobny
-4.0000	podobnych
-4.0000	podobnym
-4.0000	podobu
-4.0000	podoby
-4.0000	podotknout
-4.0000	podotykam
-4.0000	podpis
-4.0000	podpisu
-4.0000	podpisy
-4.0000	podpora
-4.0000	podpore
-4.0000	podpori
-4.0000	podporili
-4.0000	podporit
-4.0000	podporou
-4.0000	podporoval
-4.0000	podporovala
-4.0000	podporovat
-4.0000	podporu
-4.0000	podporuje
-4.0000	podporujeme
-4.0000	podporuji
-4.0000	podpory
-4.0000	podrobne
-4.0000	podrobnejsi
-4.0000	podrobnosti
-4.0000	podruhe
-4.0000	podstate
-4.0000	podstatna
-4.0000	podstatne
-4.0000	podstatnou
-4.0000	podstatou
-4.0000	podstatu
-4.0000	podstaty
-4.0000	podstoupit
-4.0000	podvecer
-4.0000	podvedomi
-4.0000	podvod
-4.0000	podvodu
-4.0000	podzemi
-4.0000	podzemnich
-4.0000	podzim
-4.0000	podzimni
-4.0000	podzimu
-4.0000	poezie
-4.0000	pohadku
-4.0000	pohadky
-4.0000	pohanka
-4.0000	poharu
-4.0000	pohlavi
-4.0000	pohled
-4.0000	pohledavky
-4.0000	pohledem
-4.0000	pohledu
-4.0000	pohode
-4.0000	pohranici
-4.0000	pohranicni
-4.0000	pohreb
-4.0000	pohromade
-4.0000	pohyb
-4.0000	pohyboval
-4.0000	pohybovali
-4.0000	pohybovat
-4.0000	pohybove
-4.0000	pohybu
-4.0000	pohybuje
-4.0000	pohybujeme
-4.0000	pohybuji
-4.0000	pojdme
-4.0000	pojdte
-4.0000	pojede
-4.0000	pojedeme
-4.0000	pojem
-4.0000	pojeti
-4.0000	pojistence
-4.0000	pojisteni
-4.0000	pojistoven
-4.0000	pojistovna
-4.0000	pojistovnami
-4.0000	pojistovny
-4.0000	pokazde
-4.0000	poklad
-4.0000	pokladam
-4.0000	pokladny
-4.0000	pokles
-4.0000	poklesu
-4.0000	pokoje
-4.0000	pokoji
-4.0000	pokouset
-4.0000	pokousi
-4.0000	pokracoval
-4.0000	pokracovani
-4.0000	pokracovat
-4.0000	pokracuje
-4.0000	pokracujeme
-4.0000	pokracuji
-4.0000	pokrok
-4.0000	pokryt
-4.0000	pokud
-4.0000	pokus
-4.0000	pokusi
-4.0000	pokusim
-4.0000	pokusime
-4.0000	pokusit
-4.0000	pokusu
-4.0000	pokusy
-4.0000	pokutu
-4.0000	pokuty
-4.0000	polaci
-4.0000	pole
-4.0000	polevku
-4.0000	poli
-4.0000	policejni
-4.0000	policejnich
-4.0000	policejnim
-4.0000	policie
-4.0000	policii
-4.0000	policiste
-4.0000	policistu
-4.0000	policisty
-4.0000	politice
-4.0000	politici
-4.0000	politicka
-4.0000	politicke
-4.0000	politickeho
-4.0000	politickem
-4.0000	politickou
-4.0000	politicky
-4.0000	politickych
-4.0000	politickym
-4.0000	politickymi
-4.0000	politik
-4.0000	politika
-4.0000	politikou
-4.0000	politiku
-4.0000	politikum
-4.0000	politiky
-4.0000	politolog
-4.0000	polovina
-4.0000	polovine
-4.0000	polovinu
-4.0000	poloviny
-4.0000	polozene
-4.0000	polozili
-4.0000	polozit
-4.0000	polska
-4.0000	polske
-4.0000	polsko
-4.0000	polsku
-4.0000	polskych
-4.0000	pomaha
-4.0000	pomahaji
-4.0000	pomahal
-4.0000	pomahali
-4.0000	pomahat
-4.0000	pomaleji
-4.0000	pomalu
-4.0000	pomer
-4.0000	pomerne
-4.0000	pomeru
-4.0000	pomery
-4.0000	pomezi
-4.0000	pomineme
-4.0000	pomnik
-4.0000	pomoc
-4.0000	pomoci
-4.0000	pomoct
-4.0000	pomohl
-4.0000	pomohla
-4.0000	pomohli
-4.0000	pomohlo
-4.0000	pomohou
-4.0000	pomucky
-4.0000	pomuze
-4.0000	pondeli
-4.0000	ponekud
-4.0000	ponevadz
-4.0000	ponicila
-4.0000	popelnice
-4.0000	popis
-4.0000	popisoval
-4.0000	popisu
-4.0000	popisuje
-4.0000	poplatek
-4.0000	poplatku
-4.0000	poplatky
-4.0000	poplatniku
-4.0000	popovidat
-4.0000	popravde
-4.0000	popripade
-4.0000	poprosim
-4.0000	poprve
-4.0000	popsal
-4.0000	popsala
-4.0000	popsat
-4.0000	poptavka
-4.0000	poptavku
-4.0000	poptavky
-4.0000	populace
-4.0000	populaci
-4.0000	popularita
-4.0000	popularni
-4.0000	porad
-4.0000	porada
-4.0000	poradame
-4.0000	poradce
-4.0000	poradcem
-4.0000	poradci
-4.0000	poradcu
-4.0000	poradek
-4.0000	poradenstvi
-4.0000	poradi
-4.0000	poradil
-4.0000	poradit
-4.0000	poradku
-4.0000	poradna
-4.0000	poradne
-4.0000	poradnu
-4.0000	poradny
-4.0000	poradu
-4.0000	porady
-4.0000	porce
-4.0000	poridit
-4.0000	porodni
-4.0000	porodu
-4.0000	porovnani
-4.0000	porovnat
-4.0000	porovnate
-4.0000	portal
-4.0000	portalu
-4.0000	portfolio
-4.0000	porucha
-4.0000	poruchy
-4.0000	poruseni
-4.0000	poselstvi
-4.0000	posila
-4.0000	posilaji
-4.0000	posilal
-4.0000	posilat
-4.0000	posililo
-4.0000	posilit
-4.0000	posilovat
-4.0000	poskozeneho
-4.0000	poskozeni
-4.0000	poskytnout
-4.0000	poskytovani
-4.0000	poskytuje
-4.0000	poslal
-4.0000	poslala
-4.0000	poslali
-4.0000	poslance
-4.0000	poslancem
-4.0000	poslanci
-4.0000	poslancu
-4.0000	poslancum
-4.0000	poslanec
-4.0000	poslanecka
-4.0000	poslanecke
-4.0000	poslaneckeho
-4.0000	poslaneckou
-4.0000	poslaneckych
-4.0000	poslani
-4.0000	poslankyne
-4.0000	poslat
-4.0000	posle
-4.0000	poslech
-4.0000	poslechneme
-4.0000	poslechnout
-4.0000	poslechu
-4.0000	posledni
-4.0000	poslednich
-4.0000	posledniho
-4.0000	poslednim
-4.0000	poslete
-4.0000	posleze
-4.0000	posloucha
-4.0000	poslouchaji
-4.0000	poslouchal
-4.0000	poslouchali
-4.0000	posloucham
-4.0000	poslouchame
-4.0000	poslouchat
-4.0000	poslouchate
-4.0000	poslouchejte
-4.0000	posluchac
-4.0000	posluchace
-4.0000	posluchaci
-4.0000	posluchacka
-4.0000	posluchacky
-4.0000	posluchacu
-4.0000	posluchacum
-4.0000	posoudit
-4.0000	posouva
-4.0000	posouzeni
-4.0000	post
-4.0000	posta
-4.0000	postara
-4.0000	postarat
-4.0000	postava
-4.0000	postavena
-4.0000	postaveni
-4.0000	postavi
-4.0000	postavil
-4.0000	postavila
-4.0000	postavili
-4.0000	postavit
-4.0000	postavu
-4.0000	postavy
-4.0000	poste
-4.0000	postizene
-4.0000	postizeni
-4.0000	postizenim
-4.0000	postizeny
-4.0000	postizenych
-4.0000	postoj
-4.0000	postoje
-4.0000	postovni
-4.0000	postreh
-4.0000	postrehy
-4.0000	postu
-4.0000	postup
-4.0000	postupem
-4.0000	postupne
-4.0000	postupoval
-4.0000	postupovat
-4.0000	postupu
-4.0000	postupuje
-4.0000	postupuji
-4.0000	postupy
-4.0000	posty
-4.0000	posudek
-4.0000	posudku
-4.0000	posudky
-4.0000	posun
-4.0000	posunout
-4.0000	posunu
-4.0000	posunul
-4.0000	posuzovat
-4.0000	potaz
-4.0000	potazmo
-4.0000	pote
-4.0000	potencial
-4.0000	potencialne
-4.0000	potencialni
-4.0000	potencialnich
-4.0000	potesi
-4.0000	potesilo
-4.0000	potichu
-4.0000	potiz
-4.0000	potize
-4.0000	potkal
-4.0000	potkala
-4.0000	potkali
-4.0000	potkat
-4.0000	potkava
-4.0000	potom
-4.0000	potravin
-4.0000	potravinarske
-4.0000	potraviny
-4.0000	potravu
-4.0000	potreba
-4.0000	potrebna
-4.0000	potrebne
-4.0000	potrebnych
-4.0000	potreboval
-4.0000	potrebovala
-4.0000	potrebovali
-4.0000	potrebu
-4.0000	potrebuje
-4.0000	potrebujeme
-4.0000	potrebujete
-4.0000	potrebuji
-4.0000	potrebuju
-4.0000	potreby
-4.0000	potreti
-4.0000	potrubi
-4.0000	potvrdi
-4.0000	potvrdil
-4.0000	potvrdila
-4.0000	potvrdilo
-4.0000	potvrdit
-4.0000	potvrzeni
-4.0000	potvrzuje
-4.0000	potykaji
-4.0000	pouceni
-4.0000	poustet
-4.0000	pouze
-4.0000	pouzil
-4.0000	pouzila
-4.0000	pouzili
-4.0000	pouzit
-4.0000	pouzite
-4.0000	pouziti
-4.0000	pouziva
-4.0000	pouzivaji
-4.0000	pouzivala
-4.0000	pouzivam
-4.0000	pouzivame
-4.0000	pouzivani
-4.0000	pouzivat
-4.0000	povazoval
-4.0000	povazovano
-4.0000	povazovat
-4.0000	povazuje
-4.0000	povazujeme
-4.0000	povazujete
-4.0000	povazuji
-4.0000	povazuju
-4.0000	povede
-4.0000	povedlo
-4.0000	povedomi
-4.0000	povedou
-4.0000	poveren
-4.0000	povest
-4.0000	povidali
-4.0000	povidame
-4.0000	povidani
-4.0000	povidat
-4.0000	povinna
-4.0000	povinne
-4.0000	povinnost
-4.0000	povinnosti
-4.0000	povoden
-4.0000	povodi
-4.0000	povodne
-4.0000	povodnemi
-4.0000	povodni
-4.0000	povodnich
-4.0000	povodnova
-4.0000	povodnove
-4.0000	povolani
-4.0000	povoleni
-4.0000	povrch
-4.0000	povrchu
-4.0000	povstalci
-4.0000	pozadal
-4.0000	pozadali
-4.0000	pozadam
-4.0000	pozadat
-4.0000	pozadavek
-4.0000	pozadavku
-4.0000	pozadavky
-4.0000	pozadi
-4.0000	pozadovat
-4.0000	pozaduje
-4.0000	pozaduji
-4.0000	pozaru
-4.0000	pozde
-4.0000	pozdeji
-4.0000	pozdejsi
-4.0000	pozdni
-4.0000	pozemek
-4.0000	pozemku
-4.0000	pozemky
-4.0000	pozice
-4.0000	pozici
-4.0000	pozicich
-4.0000	pozitiva
-4.0000	pozitivne
-4.0000	pozitivni
-4.0000	pozitivnim
-4.0000	poznal
-4.0000	poznala
-4.0000	poznamenat
-4.0000	poznamka
-4.0000	poznamku
-4.0000	poznamky
-4.0000	poznani
-4.0000	poznat
-4.0000	poznate
-4.0000	pozor
-4.0000	pozornost
-4.0000	pozornosti
-4.0000	pozorovani
-4.0000	pozorovat
-4.0000	pozval
-4.0000	pozvani
-4.0000	pozvat
-4.0000	ppf
-4.0000	pr
-4.0000	prace
-4.0000	prachu
-4.0000	praci
-4.0000	pracoval
-4.0000	pracovala
-4.0000	pracovali
-4.0000	pracovalo
-4.0000	pracovaly
-4.0000	pracovat
-4.0000	pracovist
-4.0000	pracoviste
-4.0000	pracovne
-4.0000	pracovni
-4.0000	pracovnich
-4.0000	pracovnici
-4.0000	pracovnik
-4.0000	pracovnika
-4.0000	pracovniku
-4.0000	pracovnim
-4.0000	pracuje
-4.0000	pracujeme
-4.0000	pracujete
-4.0000	pracuji
-4.0000	pracuju
-4.0000	praha
-4.0000	prahou
-4.0000	prahu
-4.0000	prahy
-4.0000	prakticke
-4.0000	prakticky
-4.0000	praktiky
-4.0000	pral
-4.0000	prala
-4.0000	prani
-4.0000	prasky
-4.0000	pratel
-4.0000	pratele
-4.0000	pratelstvi
-4.0000	prav
-4.0000	prava
-4.0000	pravda
-4.0000	pravde
-4.0000	pravdepodobne
-4.0000	pravdepodobnost
-4.0000	pravdepodobnosti
-4.0000	pravdou
-4.0000	pravdu
-4.0000	pravdy
-4.0000	prave
-4.0000	pravem
-4.0000	pravice
-4.0000	pravicove
-4.0000	pravicovou
-4.0000	pravicovych
-4.0000	pravidel
-4.0000	pravidelne
-4.0000	pravidla
-4.0000	pravidlo
-4.0000	pravni
-4.0000	pravnici
-4.0000	pravnicka
-4.0000	pravniho
-4.0000	pravnik
-4.0000	pravniky
-4.0000	pravnim
-4.0000	pravo
-4.0000	pravomoc
-4.0000	pravomoci
-4.0000	pravou
-4.0000	pravu
-4.0000	pravy
-4.0000	praxe
-4.0000	praxi
-4.0000	prazdnin
-4.0000	prazdniny
-4.0000	praze
-4.0000	prazske
-4.0000	prazskeho
-4.0000	prazskem
-4.0000	prazsky
-4.0000	prazskych
-4.0000	prece
-4.0000	precetl
-4.0000	precetla
-4.0000	prechod
-4.0000	prechodem
-4.0000	precist
-4.0000	precte
-4.0000	pred
-4.0000	predat
-4.0000	predbezne
-4.0000	predcasne
-4.0000	predcasnych
-4.0000	predcasnym
-4.0000	predchazejici
-4.0000	predchozi
-4.0000	predchozich
-4.0000	predchoziho
-4.0000	predchozim
-4.0000	predchudce
-4.0000	predci
-4.0000	prede
-4.0000	predejit
-4.0000	predelat
-4.0000	predem
-4.0000	predevsim
-4.0000	predlozili
-4.0000	predlozit
-4.0000	predmet
-4.0000	predmetu
-4.0000	predmety
-4.0000	prednadrazi
-4.0000	prednasky
-4.0000	predne
-4.0000	predni
-4.0000	prednost
-4.0000	prednosta
-4.0000	predpisu
-4.0000	predpisy
-4.0000	predpoklada
-4.0000	predpokladalo
-4.0000	predpokladam
-4.0000	predpokladame
-4.0000	predpokladat
-4.0000	predpokladu
-4.0000	predpoklady
-4.0000	predpoved
-4.0000	predpovedet
-4.0000	predpovedi
-4.0000	predseda
-4.0000	predsedkyne
-4.0000	predsednictva
-4.0000	predsedo
-4.0000	predsedou
-4.0000	predsedu
-4.0000	predsedy
-4.0000	predstava
-4.0000	predstaveni
-4.0000	predstavi
-4.0000	predstavil
-4.0000	predstavit
-4.0000	predstavite
-4.0000	predstavitel
-4.0000	predstavitele
-4.0000	predstaviteli
-4.0000	predstavitelu
-4.0000	predstavoval
-4.0000	predstavovala
-4.0000	predstavovali
-4.0000	predstavte
-4.0000	predstavu
-4.0000	predstavuje
-4.0000	predstavuji
-4.0000	predstavy
-4.0000	predstihem
-4.0000	predtim
-4.0000	predvadeci
-4.0000	predvadecich
-4.0000	predvolebni
-4.0000	preference
-4.0000	preferenci
-4.0000	prehled
-4.0000	prehlidka
-4.0000	prehnany
-4.0000	prehrady
-4.0000	prejde
-4.0000	preje
-4.0000	prejeme
-4.0000	preji
-4.0000	prejit
-4.0000	preju
-4.0000	prekazku
-4.0000	prekazky
-4.0000	prekracuje
-4.0000	prekvapen
-4.0000	prekvapenej
-4.0000	prekvapeni
-4.0000	prekvapenim
-4.0000	prekvapil
-4.0000	prekvapila
-4.0000	prekvapilo
-4.0000	prekvapit
-4.0000	prekvapive
-4.0000	prekvapuje
-4.0000	preliceni
-4.0000	prelomu
-4.0000	premier
-4.0000	premiera
-4.0000	premierem
-4.0000	premieru
-4.0000	premysla
-4.0000	premysleji
-4.0000	premyslet
-4.0000	premysli
-4.0000	prenest
-4.0000	prenos
-4.0000	prenosu
-4.0000	preockovani
-4.0000	prepoctu
-4.0000	prerusena
-4.0000	pres
-4.0000	presahuje
-4.0000	presne
-4.0000	presneji
-4.0000	presny
-4.0000	presouva
-4.0000	prestal
-4.0000	prestala
-4.0000	prestalo
-4.0000	prestane
-4.0000	prestat
-4.0000	prestava
-4.0000	prestiz
-4.0000	prestizni
-4.0000	presto
-4.0000	prestoze
-4.0000	presvedcen
-4.0000	presvedcena
-4.0000	presvedceni
-4.0000	presvedceny
-4.0000	presvedcil
-4.0000	presvedcit
-4.0000	prevahu
-4.0000	prevazne
-4.0000	prevazuje
-4.0000	prevence
-4.0000	prevenci
-4.0000	preventivne
-4.0000	preventivni
-4.0000	prevzal
-4.0000	prevzali
-4.0000	prezentace
-4.0000	prezentovat
-4.0000	prezident
-4.0000	prezidenta
-4.0000	prezidentem
-4.0000	prezidenti
-4.0000	prezidentovi
-4.0000	prezidentska
-4.0000	prezidentske
-4.0000	prezidentskeho
-4.0000	prezidentskou
-4.0000	prezidentsky
-4.0000	prezidentskych
-4.0000	prezidentu
-4.0000	prezidenty
-4.0000	prezil
-4.0000	prezila
-4.0000	prezit
-4.0000	preziti
-4.0000	pri
-4.0000	pribeh
-4.0000	pribehu
-4.0000	pribehy
-4.0000	priblizeni
-4.0000	priblizi
-4.0000	priblizit
-4.0000	priblizne
-4.0000	pribrami
-4.0000	pribuzni
-4.0000	pribyl
-4.0000	pribyva
-4.0000	pribyvat
-4.0000	pricemz
-4.0000	prichazeji
-4.0000	prichazelo
-4.0000	prichazely
-4.0000	prichazet
-4.0000	prichazi
-4.0000	pricin
-4.0000	pricina
-4.0000	pricinou
-4.0000	pricinu
-4.0000	priciny
-4.0000	pridala
-4.0000	pridane
-4.0000	pridanou
-4.0000	pridat
-4.0000	pridava
-4.0000	pridavaji
-4.0000	pridavat
-4.0000	prihlasil
-4.0000	prihlasila
-4.0000	prihlasit
-4.0000	prijal
-4.0000	prijala
-4.0000	prijali
-4.0000	prijat
-4.0000	prijatelne
-4.0000	prijato
-4.0000	prijde
-4.0000	prijdete
-4.0000	prijdou
-4.0000	prijdte
-4.0000	prijdu
-4.0000	prijede
-4.0000	prijedou
-4.0000	prijel
-4.0000	prijeli
-4.0000	prijem
-4.0000	prijemne
-4.0000	prijemny
-4.0000	prijeti
-4.0000	prijezd
-4.0000	prijimat
-4.0000	prijit
-4.0000	prijmeme
-4.0000	prijmout
-4.0000	prijmu
-4.0000	prijmy
-4.0000	prikaz
-4.0000	priklad
-4.0000	prikladem
-4.0000	prikladu
-4.0000	priklady
-4.0000	prilezitost
-4.0000	prilezitostech
-4.0000	prilezitosti
-4.0000	prilis
-4.0000	prima
-4.0000	primarne
-4.0000	primarni
-4.0000	primator
-4.0000	primatora
-4.0000	primatore
-4.0000	prime
-4.0000	primem
-4.0000	primo
-4.0000	primou
-4.0000	primy
-4.0000	prinaset
-4.0000	prinasi
-4.0000	princip
-4.0000	principech
-4.0000	principialne
-4.0000	principu
-4.0000	principy
-4.0000	prinejmensim
-4.0000	prinese
-4.0000	prinesl
-4.0000	prinesla
-4.0000	prineslo
-4.0000	prinesou
-4.0000	prinest
-4.0000	prinos
-4.0000	priority
-4.0000	pripad
-4.0000	pripada
-4.0000	pripadalo
-4.0000	pripadat
-4.0000	pripade
-4.0000	pripadech
-4.0000	pripadem
-4.0000	pripadna
-4.0000	pripadne
-4.0000	pripadnem
-4.0000	pripadu
-4.0000	pripady
-4.0000	pripojil
-4.0000	pripomeneme
-4.0000	pripomenme
-4.0000	pripomenout
-4.0000	pripomenu
-4.0000	pripomina
-4.0000	pripominaji
-4.0000	pripominam
-4.0000	pripominame
-4.0000	pripominat
-4.0000	pripomnel
-4.0000	pripomnela
-4.0000	pripomneli
-4.0000	pripousti
-4.0000	priprava
-4.0000	priprave
-4.0000	pripraven
-4.0000	pripravena
-4.0000	pripraveni
-4.0000	pripraveno
-4.0000	pripraveny
-4.0000	pripravi
-4.0000	pripravil
-4.0000	pripravila
-4.0000	pripravili
-4.0000	pripravit
-4.0000	pripravovala
-4.0000	pripravovali
-4.0000	pripravovat
-4.0000	pripravu
-4.0000	pripravuje
-4.0000	pripravujeme
-4.0000	pripravuji
-4.0000	pripravy
-4.0000	priroda
-4.0000	prirode
-4.0000	prirodni
-4.0000	prirodu
-4.0000	prirody
-4.0000	prirovnat
-4.0000	prirozena
-4.0000	prirozene
-4.0000	prisel
-4.0000	prisla
-4.0000	prisli
-4.0000	prislo
-4.0000	prislusi
-4.0000	prislusne
-4.0000	prislusneho
-4.0000	prislusniku
-4.0000	prisly
-4.0000	prisne
-4.0000	prisnejsi
-4.0000	prispeje
-4.0000	prispeli
-4.0000	prispely
-4.0000	prispet
-4.0000	prispevek
-4.0000	prispevku
-4.0000	prispevky
-4.0000	prispiva
-4.0000	prispivaji
-4.0000	pristani
-4.0000	priste
-4.0000	pristi
-4.0000	pristich
-4.0000	pristiho
-4.0000	pristim
-4.0000	pristoupi
-4.0000	pristoupili
-4.0000	pristoupit
-4.0000	pristroj
-4.0000	pristroje
-4.0000	pristroju
-4.0000	pristup
-4.0000	pristupovat
-4.0000	pristupu
-4.0000	pritahuje
-4.0000	pritel
-4.0000	pritom
-4.0000	pritomnost
-4.0000	pritomnosti
-4.0000	privatizaci
-4.0000	privedl
-4.0000	privedlo
-4.0000	priznak
-4.0000	priznaky
-4.0000	priznal
-4.0000	priznam
-4.0000	priznani
-4.0000	priznat
-4.0000	priznavam
-4.0000	priznivcem
-4.0000	priznivci
-4.0000	prizpusobit
-4.0000	pro
-4.0000	probehla
-4.0000	probehlo
-4.0000	probehly
-4.0000	probehne
-4.0000	probehnout
-4.0000	probiha
-4.0000	probihaji
-4.0000	probihala
-4.0000	probihalo
-4.0000	probihaly
-4.0000	probihat
-4.0000	problem
-4.0000	problematicke
-4.0000	problematika
-4.0000	problematiku
-4.0000	problemech
-4.0000	problemem
-4.0000	problemu
-4.0000	problemum
-4.0000	problemy
-4.0000	proboha
-4.0000	proc
-4.0000	procedury
-4.0000	procent
-4.0000	procenta
-4.0000	procentech
-4.0000	procentni
-4.0000	procento
-4.0000	proces
-4.0000	procesu
-4.0000	procesy
-4.0000	prochazet
-4.0000	prochazi
-4.0000	prochazka
-4.0000	prochazku
-4.0000	proda
-4.0000	prodat
-4.0000	prodava
-4.0000	prodavaji
-4.0000	prodavat
-4.0000	prodej
-4.0000	prodejce
-4.0000	prodejci
-4.0000	prodejcu
-4.0000	prodeje
-4.0000	producent
-4.0000	produkce
-4.0000	produkt
-4.0000	produktu
-4.0000	produkty
-4.0000	profese
-4.0000	profesi
-4.0000	profesionalni
-4.0000	profesionalnich
-4.0000	profesionalove
-4.0000	profesne
-4.0000	profesni
-4.0000	profesor
-4.0000	profesora
-4.0000	profesore
-4.0000	profesorem
-4.0000	profil
-4.0000	profilu
-4.0000	program
-4.0000	programech
-4.0000	programem
-4.0000	programove
-4.0000	programu
-4.0000	programy
-4.0000	progresivni
-4.0000	prohlaseni
-4.0000	prohlasil
-4.0000	prohlidky
-4.0000	prohrali
-4.0000	prohru
-4.0000	projde
-4.0000	projednavat
-4.0000	projekt
-4.0000	projektem
-4.0000	projektu
-4.0000	projekty
-4.0000	projev
-4.0000	projevi
-4.0000	projevil
-4.0000	projevilo
-4.0000	projevit
-4.0000	projevovat
-4.0000	projevu
-4.0000	projevuje
-4.0000	projevy
-4.0000	projit
-4.0000	prokazal
-4.0000	prokazat
-4.0000	prominte
-4.0000	promluvil
-4.0000	promluvit
-4.0000	pronajmu
-4.0000	pronasledovani
-4.0000	proniknout
-4.0000	propad
-4.0000	propagacni
-4.0000	propojeni
-4.0000	propousteni
-4.0000	propoustet
-4.0000	propusteni
-4.0000	prosadi
-4.0000	prosadila
-4.0000	prosadit
-4.0000	prosazovat
-4.0000	prosazuje
-4.0000	prosel
-4.0000	prosim
-4.0000	prosince
-4.0000	prosinci
-4.0000	prosla
-4.0000	prosli
-4.0000	proslo
-4.0000	prosly
-4.0000	prospech
-4.0000	prosperujici
-4.0000	prospesne
-4.0000	proste
-4.0000	prostituce
-4.0000	prostor
-4.0000	prostorach
-4.0000	prostoru
-4.0000	prostory
-4.0000	prostredek
-4.0000	prostredi
-4.0000	prostredku
-4.0000	prostredky
-4.0000	prostrednictvim
-4.0000	protest
-4.0000	protestni
-4.0000	protestu
-4.0000	protestuje
-4.0000	protesty
-4.0000	proti
-4.0000	protikorupcni
-4.0000	protipovodnovych
-4.0000	proto
-4.0000	protoze
-4.0000	proud
-4.0000	proudi
-4.0000	proudu
-4.0000	provadet
-4.0000	provadi
-4.0000	provadime
-4.0000	provazet
-4.0000	provazi
-4.0000	proveden
-4.0000	provedeni
-4.0000	provedl
-4.0000	provedla
-4.0000	provedli
-4.0000	proverit
-4.0000	proverku
-4.0000	provest
-4.0000	provoz
-4.0000	provozovatele
-4.0000	provozovny
-4.0000	provozu
-4.0000	prozatim
-4.0000	prozil
-4.0000	proziva
-4.0000	prozradil
-4.0000	prozradim
-4.0000	prst
-4.0000	prsty
-4.0000	prsu
-4.0000	prubeh
-4.0000	prubehu
-4.0000	prubezne
-4.0000	pruchod
