~o
<STREAMINFO> 1 39
<VECSIZE> 39<NULLD><MFCC_D_A_0><DIAGC>
~h "proto-3s-39f"
<BEGINHMM>
<NUMSTATES> 5
<STATE> 2
<MEAN> 39
 -1.140890e+001 -7.716654e-001 -7.201411e-001 -1.740882e+000 -4.220390e+000 -1.818918e+000 -4.053037e+000 2.892995e-002 5.218815e-001 1.229225e+000 2.153887e-001 -1.525826e+000 5.369712e+001 -1.094858e-003 1.616167e-003 7.044893e-005 4.278322e-004 1.287050e-003 1.979980e-004 -4.104428e-004 -1.750574e-004 5.007665e-004 2.444991e-004 9.365813e-004 6.426487e-004 1.279408e-003 -2.951563e-004 3.022611e-004 -1.959193e-004 2.472567e-004 -1.731197e-004 2.683927e-004 -2.294055e-004 -1.989047e-004 -5.948652e-007 -3.544179e-004 -3.666997e-004 7.810480e-005 -5.806094e-004
<VARIANCE> 39
 8.396002e+001 5.078688e+001 7.230509e+001 6.591382e+001 8.363036e+001 6.133302e+001 6.958655e+001 5.122837e+001 5.334774e+001 3.878449e+001 3.788593e+001 3.822516e+001 1.822834e+002 3.386663e+000 2.303011e+000 2.664228e+000 3.178839e+000 3.486145e+000 2.998821e+000 3.564316e+000 3.346616e+000 3.109800e+000 2.474325e+000 2.633250e+000 2.339872e+000 3.273083e+000 5.062060e-001 3.960384e-001 4.362759e-001 5.694197e-001 6.098468e-001 5.463596e-001 6.385781e-001 6.162760e-001 5.653356e-001 4.743370e-001 4.995513e-001 4.344407e-001 5.391584e-001
<GCONST> 1.309125e+002
<STATE> 3
<MEAN> 39
 -1.140890e+001 -7.716654e-001 -7.201411e-001 -1.740882e+000 -4.220390e+000 -1.818918e+000 -4.053037e+000 2.892995e-002 5.218815e-001 1.229225e+000 2.153887e-001 -1.525826e+000 5.369712e+001 -1.094858e-003 1.616167e-003 7.044893e-005 4.278322e-004 1.287050e-003 1.979980e-004 -4.104428e-004 -1.750574e-004 5.007665e-004 2.444991e-004 9.365813e-004 6.426487e-004 1.279408e-003 -2.951563e-004 3.022611e-004 -1.959193e-004 2.472567e-004 -1.731197e-004 2.683927e-004 -2.294055e-004 -1.989047e-004 -5.948652e-007 -3.544179e-004 -3.666997e-004 7.810480e-005 -5.806094e-004
<VARIANCE> 39
 8.396002e+001 5.078688e+001 7.230509e+001 6.591382e+001 8.363036e+001 6.133302e+001 6.958655e+001 5.122837e+001 5.334774e+001 3.878449e+001 3.788593e+001 3.822516e+001 1.822834e+002 3.386663e+000 2.303011e+000 2.664228e+000 3.178839e+000 3.486145e+000 2.998821e+000 3.564316e+000 3.346616e+000 3.109800e+000 2.474325e+000 2.633250e+000 2.339872e+000 3.273083e+000 5.062060e-001 3.960384e-001 4.362759e-001 5.694197e-001 6.098468e-001 5.463596e-001 6.385781e-001 6.162760e-001 5.653356e-001 4.743370e-001 4.995513e-001 4.344407e-001 5.391584e-001
<GCONST> 1.309125e+002
<STATE> 4
<MEAN> 39
 -1.140890e+001 -7.716654e-001 -7.201411e-001 -1.740882e+000 -4.220390e+000 -1.818918e+000 -4.053037e+000 2.892995e-002 5.218815e-001 1.229225e+000 2.153887e-001 -1.525826e+000 5.369712e+001 -1.094858e-003 1.616167e-003 7.044893e-005 4.278322e-004 1.287050e-003 1.979980e-004 -4.104428e-004 -1.750574e-004 5.007665e-004 2.444991e-004 9.365813e-004 6.426487e-004 1.279408e-003 -2.951563e-004 3.022611e-004 -1.959193e-004 2.472567e-004 -1.731197e-004 2.683927e-004 -2.294055e-004 -1.989047e-004 -5.948652e-007 -3.544179e-004 -3.666997e-004 7.810480e-005 -5.806094e-004
<VARIANCE> 39
 8.396002e+001 5.078688e+001 7.230509e+001 6.591382e+001 8.363036e+001 6.133302e+001 6.958655e+001 5.122837e+001 5.334774e+001 3.878449e+001 3.788593e+001 3.822516e+001 1.822834e+002 3.386663e+000 2.303011e+000 2.664228e+000 3.178839e+000 3.486145e+000 2.998821e+000 3.564316e+000 3.346616e+000 3.109800e+000 2.474325e+000 2.633250e+000 2.339872e+000 3.273083e+000 5.062060e-001 3.960384e-001 4.362759e-001 5.694197e-001 6.098468e-001 5.463596e-001 6.385781e-001 6.162760e-001 5.653356e-001 4.743370e-001 4.995513e-001 4.344407e-001 5.391584e-001
<GCONST> 1.309125e+002
<TRANSP> 5
 0.000000e+000 1.000000e+000 0.000000e+000 0.000000e+000 0.000000e+000
 0.000000e+000 6.000000e-001 4.000000e-001 0.000000e+000 0.000000e+000
 0.000000e+000 0.000000e+000 6.000000e-001 4.000000e-001 0.000000e+000
 0.000000e+000 0.000000e+000 0.000000e+000 7.000000e-001 3.000000e-001
 0.000000e+000 0.000000e+000 0.000000e+000 0.000000e+000 0.000000e+000
<ENDHMM>
