~o
<STREAMINFO> 1 39
<VECSIZE> 39<NULLD><MFCC_D_A_0><DIAGC>
~h "a"
<BEGINHMM>
<NUMSTATES> 5
<STATE> 2
<MEAN> 39
 -1.056735e+001 -1.106347e+000 4.398549e-001 -2.771450e+000 -3.062533e+000 -1.025568e+000 -5.164722e+000 4.597745e-001 4.769827e-001 1.753219e+000 6.105072e-001 -1.827811e+000 5.348359e+001 -8.299205e-003 7.296583e-003 1.800799e-003 1.159234e-002 1.726443e-003 -4.182798e-003 6.717672e-003 4.836009e-004 1.373044e-004 1.604071e-003 -1.999297e-003 6.153730e-003 -7.037707e-003 9.176553e-005 1.028039e-004 -6.346052e-005 -2.001179e-004 -2.581460e-004 4.510247e-005 -9.043319e-005 2.032996e-004 2.574943e-004 -1.746152e-004 -1.577563e-004 -6.116967e-005 -1.045055e-004
<VARIANCE> 39
 8.226777e+001 5.548870e+001 6.355519e+001 7.752994e+001 8.705463e+001 5.907882e+001 7.118764e+001 5.409611e+001 5.823832e+001 4.156673e+001 3.999612e+001 4.349410e+001 1.291532e+002 3.411820e+000 2.453719e+000 2.611152e+000 3.566767e+000 3.385527e+000 3.069260e+000 3.849952e+000 3.531279e+000 3.357510e+000 2.549251e+000 2.839636e+000 2.521498e+000 3.287615e+000 5.182548e-001 4.147950e-001 4.281147e-001 6.281189e-001 5.897362e-001 5.492111e-001 6.822912e-001 6.462321e-001 6.014052e-001 4.865915e-001 5.349478e-001 4.642757e-001 5.480945e-001
<GCONST> 1.321145e+002
<STATE> 3
<MEAN> 39
 -1.058846e+001 -1.086896e+000 4.474316e-001 -2.741355e+000 -3.061236e+000 -1.034783e+000 -5.146478e+000 4.627417e-001 4.780740e-001 1.756695e+000 6.064119e-001 -1.810977e+000 5.346608e+001 -7.859197e-003 7.575819e-003 1.882577e-003 1.101328e-002 7.890618e-004 -3.782690e-003 6.238752e-003 8.823331e-004 9.060800e-004 1.320659e-003 -2.022940e-003 6.033210e-003 -6.709708e-003 1.592579e-004 4.206539e-005 1.630267e-004 -1.888370e-004 -3.012532e-004 2.432295e-004 -2.736456e-004 1.603976e-004 1.779537e-004 -1.429454e-004 -3.714655e-006 -2.153584e-004 1.705642e-004
<VARIANCE> 39
 8.233695e+001 5.545973e+001 6.347868e+001 7.730960e+001 8.707472e+001 5.907357e+001 7.121947e+001 5.398042e+001 5.810912e+001 4.147201e+001 3.999298e+001 4.342430e+001 1.290986e+002 3.415443e+000 2.454303e+000 2.614871e+000 3.569719e+000 3.384718e+000 3.071019e+000 3.852010e+000 3.528843e+000 3.354495e+000 2.551183e+000 2.838837e+000 2.523359e+000 3.292372e+000 5.187531e-001 4.148135e-001 4.290282e-001 6.291884e-001 5.893499e-001 5.501719e-001 6.829637e-001 6.461210e-001 6.015961e-001 4.873424e-001 5.350510e-001 4.646166e-001 5.482365e-001
<GCONST> 1.321179e+002
<STATE> 4
<MEAN> 39
 -1.079307e+001 -1.174963e+000 3.207573e-001 -2.788533e+000 -3.184539e+000 -1.060394e+000 -5.090077e+000 4.605380e-001 4.446058e-001 1.656097e+000 6.454833e-001 -1.801909e+000 5.321648e+001 -6.884411e-003 7.326595e-003 2.865319e-003 1.037600e-002 -7.769575e-004 -2.426036e-003 5.345075e-003 1.265426e-003 1.135713e-003 8.376195e-004 -1.677992e-003 4.933388e-003 -5.695062e-003 2.496500e-004 -1.653679e-004 2.372232e-004 -1.593777e-004 -2.795011e-004 4.738590e-004 -3.253544e-004 1.770086e-004 1.062090e-005 -1.752428e-004 6.244386e-005 -5.597319e-004 2.878428e-004
<VARIANCE> 39
 8.230244e+001 5.553875e+001 6.350084e+001 7.659480e+001 8.914915e+001 5.883712e+001 7.070963e+001 5.398845e+001 5.834294e+001 4.184821e+001 4.019801e+001 4.348340e+001 1.279573e+002 3.415702e+000 2.425087e+000 2.609499e+000 3.553190e+000 3.389886e+000 3.054204e+000 3.834881e+000 3.524997e+000 3.363229e+000 2.552885e+000 2.838632e+000 2.524174e+000 3.294775e+000 5.183241e-001 4.107922e-001 4.277924e-001 6.276251e-001 5.894090e-001 5.477028e-001 6.803485e-001 6.451871e-001 6.031828e-001 4.882455e-001 5.345165e-001 4.643038e-001 5.475899e-001
<GCONST> 1.320852e+002
<TRANSP> 5
 0.000000e+000 1.000000e+000 0.000000e+000 0.000000e+000 0.000000e+000
 0.000000e+000 6.239859e-001 3.760141e-001 0.000000e+000 0.000000e+000
 0.000000e+000 0.000000e+000 6.239842e-001 3.760158e-001 0.000000e+000
 0.000000e+000 0.000000e+000 0.000000e+000 7.305529e-001 2.694472e-001
 0.000000e+000 0.000000e+000 0.000000e+000 0.000000e+000 0.000000e+000
<ENDHMM>
~h "b"
<BEGINHMM>
<NUMSTATES> 5
<STATE> 2
<MEAN> 39
 -1.002345e+001 -4.271468e-001 9.905704e-001 -2.678168e+000 -3.231093e+000 -7.455714e-001 -5.819849e+000 -4.034286e-001 1.285069e-001 1.712996e+000 6.777963e-001 -1.639300e+000 5.395471e+001 7.861342e-003 -5.055241e-003 -5.698360e-003 -1.563980e-002 3.153412e-003 -2.439200e-003 -1.315813e-002 -9.431562e-003 -8.277856e-003 5.500430e-003 -4.897827e-003 -6.199358e-003 3.005398e-002 8.770016e-004 -6.067414e-004 2.385107e-004 -3.402520e-005 -3.963549e-004 -2.441947e-004 -1.596273e-006 -6.048483e-006 1.688069e-004 -2.857524e-004 7.010745e-004 -2.723938e-004 -1.628607e-003
<VARIANCE> 39
 8.314497e+001 4.867456e+001 6.311903e+001 8.091609e+001 8.673773e+001 5.700079e+001 7.522958e+001 5.918969e+001 6.028181e+001 4.081866e+001 3.928590e+001 4.143578e+001 1.139086e+002 3.335805e+000 2.528913e+000 2.574244e+000 3.847600e+000 3.598587e+000 3.059339e+000 4.039778e+000 3.557634e+000 3.371338e+000 2.645329e+000 2.889031e+000 2.484627e+000 3.572150e+000 4.979795e-001 4.413528e-001 4.189532e-001 6.778467e-001 6.174003e-001 5.485635e-001 7.155650e-001 6.411785e-001 6.067362e-001 5.012937e-001 5.467132e-001 4.552196e-001 5.886915e-001
<GCONST> 1.325424e+002
<STATE> 3
<MEAN> 39
 -1.000012e+001 -4.410100e-001 9.758474e-001 -2.717985e+000 -3.227077e+000 -7.543680e-001 -5.852303e+000 -4.279980e-001 1.078403e-001 1.723419e+000 6.692712e-001 -1.656948e+000 5.401889e+001 9.960655e-003 -6.583715e-003 -5.418788e-003 -1.505983e-002 1.971342e-003 -3.059109e-003 -1.234650e-002 -9.313029e-003 -8.414225e-003 4.193708e-003 -3.171668e-003 -7.329005e-003 2.543615e-002 8.322222e-004 -6.699559e-004 2.537475e-004 2.401913e-004 -5.635606e-004 -2.111757e-004 2.468392e-004 -7.671390e-006 4.355027e-005 -5.599501e-004 4.960028e-004 -6.597206e-004 -1.790883e-003
<VARIANCE> 39
 8.313962e+001 4.876032e+001 6.325341e+001 8.083733e+001 8.660261e+001 5.708095e+001 7.540459e+001 5.932936e+001 6.061780e+001 4.093343e+001 3.951108e+001 4.157413e+001 1.133272e+002 3.334401e+000 2.529831e+000 2.573563e+000 3.855372e+000 3.604493e+000 3.058289e+000 4.051533e+000 3.559405e+000 3.378330e+000 2.654175e+000 2.891682e+000 2.481212e+000 3.529332e+000 4.975283e-001 4.406629e-001 4.179677e-001 6.783360e-001 6.185936e-001 5.472913e-001 7.169487e-001 6.411116e-001 6.080742e-001 5.026999e-001 5.473428e-001 4.547155e-001 5.860981e-001
<GCONST> 1.325594e+002
<STATE> 4
<MEAN> 39
 -1.016506e+001 -5.568586e-001 8.313683e-001 -2.835524e+000 -3.311335e+000 -7.864257e-001 -5.822711e+000 -4.650483e-001 6.771596e-002 1.639308e+000 7.008669e-001 -1.679665e+000 5.383861e+001 1.124772e-002 -8.024335e-003 -5.552941e-003 -1.263756e-002 6.743261e-005 -3.495072e-003 -9.801195e-003 -9.202674e-003 -7.697570e-003 2.550018e-003 -1.693839e-003 -8.835444e-003 2.110635e-002 4.995314e-004 -6.370664e-004 2.031554e-004 6.846621e-004 -5.272506e-004 -6.953628e-005 5.260324e-004 3.760807e-005 1.780259e-004 -3.859158e-004 2.640288e-004 -6.028750e-004 -9.222228e-004
<VARIANCE> 39
 8.301241e+001 4.911818e+001 6.352816e+001 8.030962e+001 8.809745e+001 5.688670e+001 7.504108e+001 5.958744e+001 6.129229e+001 4.155275e+001 4.005085e+001 4.182606e+001 1.128880e+002 3.324181e+000 2.501146e+000 2.563842e+000 3.835278e+000 3.613338e+000 3.029780e+000 4.038544e+000 3.553287e+000 3.394130e+000 2.653848e+000 2.892272e+000 2.476200e+000 3.502927e+000 4.956937e-001 4.353193e-001 4.150234e-001 6.739348e-001 6.204948e-001 5.410830e-001 7.136878e-001 6.386831e-001 6.108239e-001 5.022455e-001 5.462137e-001 4.541984e-001 5.812274e-001
<GCONST> 1.325237e+002
<TRANSP> 5
 0.000000e+000 1.000000e+000 0.000000e+000 0.000000e+000 0.000000e+000
 0.000000e+000 6.215055e-001 3.784946e-001 0.000000e+000 0.000000e+000
 0.000000e+000 0.000000e+000 6.215050e-001 3.784950e-001 0.000000e+000
 0.000000e+000 0.000000e+000 0.000000e+000 7.277471e-001 2.722529e-001
 0.000000e+000 0.000000e+000 0.000000e+000 0.000000e+000 0.000000e+000
<ENDHMM>
~h "d"
<BEGINHMM>
<NUMSTATES> 5
<STATE> 2
<MEAN> 39
 -1.042149e+001 -6.771883e-001 1.079225e+000 -2.157636e+000 -3.441832e+000 -1.026880e+000 -5.661458e+000 1.670202e-001 6.007536e-001 1.504098e+000 4.454639e-001 -1.590997e+000 5.328716e+001 -5.001467e-003 6.275016e-003 6.201632e-003 -2.288267e-003 -1.293589e-004 2.045578e-003 3.150289e-003 3.327895e-003 -2.527460e-003 -6.369432e-003 3.341961e-004 -8.093937e-004 4.992491e-003 -4.555163e-004 3.023668e-004 -4.504944e-004 5.075850e-004 6.252428e-004 -1.744507e-004 1.240613e-003 -2.892753e-005 9.929814e-005 -7.358847e-004 4.808673e-004 -3.582640e-006 -2.384048e-003
<VARIANCE> 39
 7.609871e+001 5.313039e+001 6.404915e+001 7.591399e+001 8.606946e+001 5.473738e+001 7.125320e+001 5.390083e+001 5.598207e+001 4.010113e+001 3.801107e+001 4.139443e+001 1.240450e+002 3.033099e+000 2.356377e+000 2.532292e+000 3.500229e+000 3.461845e+000 2.953496e+000 3.856969e+000 3.431590e+000 3.204100e+000 2.497951e+000 2.849499e+000 2.365387e+000 3.352896e+000 4.678949e-001 4.045953e-001 4.165795e-001 6.255561e-001 6.204697e-001 5.352202e-001 6.887171e-001 6.228066e-001 5.756274e-001 4.778849e-001 5.393472e-001 4.396081e-001 5.709910e-001
<GCONST> 1.310863e+002
<STATE> 3
<MEAN> 39
 -1.043524e+001 -6.620439e-001 1.094257e+000 -2.164429e+000 -3.442335e+000 -1.019327e+000 -5.649356e+000 1.755271e-001 5.927992e-001 1.484748e+000 4.478567e-001 -1.594344e+000 5.329092e+001 -6.376944e-003 6.914041e-003 4.603289e-003 -7.635615e-004 1.444617e-003 1.775853e-003 6.642216e-003 2.469470e-003 -2.567298e-003 -7.024030e-003 2.221440e-003 -9.794444e-005 -5.409818e-004 -5.172552e-004 2.956290e-004 -6.790285e-004 6.280504e-004 5.265938e-004 -5.335086e-005 1.295130e-003 -5.449462e-004 8.973699e-005 3.884771e-005 6.973403e-004 3.729842e-004 -1.904092e-003
<VARIANCE> 39
 7.615347e+001 5.334665e+001 6.416491e+001 7.592293e+001 8.621304e+001 5.471445e+001 7.121339e+001 5.396600e+001 5.615984e+001 4.012725e+001 3.803898e+001 4.134632e+001 1.233676e+002 3.032061e+000 2.353327e+000 2.537389e+000 3.501759e+000 3.457713e+000 2.951226e+000 3.861727e+000 3.437620e+000 3.202547e+000 2.494659e+000 2.856264e+000 2.362596e+000 3.293744e+000 4.678761e-001 4.040769e-001 4.171171e-001 6.257191e-001 6.194886e-001 5.345073e-001 6.900414e-001 6.231789e-001 5.754445e-001 4.768250e-001 5.405514e-001 4.391178e-001 5.650831e-001
<GCONST> 1.310643e+002
<STATE> 4
<MEAN> 39
 -1.063882e+001 -7.734761e-001 9.590678e-001 -2.266473e+000 -3.563122e+000 -1.034302e+000 -5.595520e+000 1.642105e-001 5.367830e-001 1.357241e+000 4.858618e-001 -1.607713e+000 5.305559e+001 -7.612923e-003 7.021776e-003 2.744571e-003 5.984533e-004 2.465114e-003 2.520021e-003 9.482874e-003 -5.811064e-005 -2.444165e-003 -5.978541e-003 4.245942e-003 1.034855e-003 -3.395922e-003 -4.054689e-004 2.078119e-004 -6.354782e-004 5.131285e-004 3.428967e-004 1.309061e-004 9.751740e-004 -1.002752e-003 1.899587e-004 5.357275e-004 5.171569e-004 4.439635e-004 -9.411951e-004
<VARIANCE> 39
 7.632358e+001 5.397361e+001 6.429759e+001 7.556562e+001 8.831690e+001 5.446600e+001 7.066237e+001 5.412457e+001 5.667302e+001 4.063242e+001 3.821182e+001 4.141492e+001 1.227257e+002 3.027097e+000 2.329558e+000 2.539913e+000 3.489531e+000 3.462035e+000 2.939667e+000 3.848656e+000 3.442962e+000 3.210621e+000 2.489332e+000 2.865484e+000 2.364517e+000 3.271165e+000 4.669944e-001 4.005178e-001 4.171425e-001 6.237749e-001 6.194224e-001 5.316133e-001 6.888902e-001 6.229980e-001 5.764892e-001 4.755219e-001 5.417079e-001 4.396697e-001 5.610786e-001
<GCONST> 1.310656e+002
<TRANSP> 5
 0.000000e+000 1.000000e+000 0.000000e+000 0.000000e+000 0.000000e+000
 0.000000e+000 6.236036e-001 3.763963e-001 0.000000e+000 0.000000e+000
 0.000000e+000 0.000000e+000 6.236042e-001 3.763959e-001 0.000000e+000
 0.000000e+000 0.000000e+000 0.000000e+000 7.302552e-001 2.697448e-001
 0.000000e+000 0.000000e+000 0.000000e+000 0.000000e+000 0.000000e+000
<ENDHMM>
~h "e"
<BEGINHMM>
<NUMSTATES> 5
<STATE> 2
<MEAN> 39
 -1.098163e+001 -6.927226e-001 1.136233e+000 -2.118824e+000 -3.281845e+000 -1.391620e+000 -5.089147e+000 4.962567e-001 5.406954e-001 1.530677e+000 7.173342e-001 -1.428894e+000 5.329224e+001 4.976698e-003 -3.546749e-003 2.977190e-003 -3.353173e-003 -2.982408e-003 -1.410365e-003 -4.796938e-003 -1.945429e-004 -1.419456e-003 -5.259618e-003 -5.355083e-004 -3.126992e-003 1.486939e-002 -1.988876e-004 2.119370e-004 -1.177407e-004 -1.271534e-004 9.956794e-005 6.533027e-005 1.996871e-004 2.419071e-004 -2.022975e-004 2.661465e-004 2.402041e-004 3.411968e-004 -2.048476e-004
<VARIANCE> 39
 7.945259e+001 5.163495e+001 6.337213e+001 7.390937e+001 8.785600e+001 5.847797e+001 7.177197e+001 5.171387e+001 5.550078e+001 3.963868e+001 3.751097e+001 4.076352e+001 1.340285e+002 3.398295e+000 2.331212e+000 2.564104e+000 3.344740e+000 3.443554e+000 2.931709e+000 3.863837e+000 3.433302e+000 3.190624e+000 2.410046e+000 2.733775e+000 2.387673e+000 3.177009e+000 5.121347e-001 3.983751e-001 4.204570e-001 5.952423e-001 6.013446e-001 5.299108e-001 6.798455e-001 6.283095e-001 5.752789e-001 4.627863e-001 5.135180e-001 4.362705e-001 5.270773e-001
<GCONST> 1.308976e+002
<STATE> 3
<MEAN> 39
 -1.097003e+001 -7.011250e-001 1.143901e+000 -2.128800e+000 -3.289765e+000 -1.396761e+000 -5.101835e+000 4.953849e-001 5.368725e-001 1.517942e+000 7.173588e-001 -1.435124e+000 5.333146e+001 4.245727e-003 -2.933441e-003 2.776830e-003 -3.798024e-003 -2.923389e-003 -1.608235e-003 -4.163803e-003 4.095706e-005 -1.887799e-003 -4.382897e-003 4.425623e-005 -2.207726e-003 1.448643e-002 -3.803641e-004 3.587248e-004 -1.299172e-004 -2.078767e-004 6.086742e-005 -1.351564e-004 2.247983e-004 -1.309995e-004 -1.778422e-004 4.176767e-004 2.827692e-004 3.461786e-004 -2.466335e-004
<VARIANCE> 39
 7.959999e+001 5.167860e+001 6.349113e+001 7.381638e+001 8.789872e+001 5.848053e+001 7.178213e+001 5.177502e+001 5.554826e+001 3.968263e+001 3.757911e+001 4.078434e+001 1.339608e+002 3.406383e+000 2.332313e+000 2.568435e+000 3.342615e+000 3.444986e+000 2.933249e+000 3.864607e+000 3.441085e+000 3.193772e+000 2.408706e+000 2.733106e+000 2.390268e+000 3.177409e+000 5.135024e-001 3.983534e-001 4.210421e-001 5.947760e-001 6.018989e-001 5.300445e-001 6.796885e-001 6.294313e-001 5.755622e-001 4.624772e-001 5.130546e-001 4.366713e-001 5.271884e-001
<GCONST> 1.309213e+002
<STATE> 4
<MEAN> 39
 -1.114353e+001 -8.142602e-001 1.015092e+000 -2.237018e+000 -3.385741e+000 -1.405997e+000 -5.070523e+000 4.851226e-001 4.975131e-001 1.411704e+000 7.556829e-001 -1.439779e+000 5.313264e+001 2.717676e-003 -1.908401e-003 2.745781e-003 -4.129183e-003 -2.927677e-003 -2.792347e-003 -3.304217e-003 -9.353494e-004 -1.977491e-003 -3.100752e-003 7.674245e-004 -1.413473e-003 1.393249e-002 -4.564235e-004 3.804783e-004 -8.667680e-005 -1.080230e-004 6.958810e-005 -2.605991e-004 2.105831e-004 -3.596793e-004 1.272364e-005 3.907225e-004 2.136350e-004 1.468305e-004 -2.665741e-004
<VARIANCE> 39
 7.988924e+001 5.179004e+001 6.345938e+001 7.335853e+001 8.976522e+001 5.810097e+001 7.122949e+001 5.199316e+001 5.600089e+001 4.023787e+001 3.790704e+001 4.079496e+001 1.329101e+002 3.409564e+000 2.300342e+000 2.563390e+000 3.323538e+000 3.452523e+000 2.924827e+000 3.841895e+000 3.447155e+000 3.207521e+000 2.404853e+000 2.734142e+000 2.391915e+000 3.172115e+000 5.139337e-001 3.932513e-001 4.197635e-001 5.917044e-001 6.029200e-001 5.284101e-001 6.757464e-001 6.296805e-001 5.771591e-001 4.616608e-001 5.120206e-001 4.370804e-001 5.261214e-001
<GCONST> 1.309020e+002
<TRANSP> 5
 0.000000e+000 1.000000e+000 0.000000e+000 0.000000e+000 0.000000e+000
 0.000000e+000 6.238586e-001 3.761415e-001 0.000000e+000 0.000000e+000
 0.000000e+000 0.000000e+000 6.238593e-001 3.761407e-001 0.000000e+000
 0.000000e+000 0.000000e+000 0.000000e+000 7.304384e-001 2.695616e-001
 0.000000e+000 0.000000e+000 0.000000e+000 0.000000e+000 0.000000e+000
<ENDHMM>
~h "f"
<BEGINHMM>
<NUMSTATES> 5
<STATE> 2
<MEAN> 39
 -1.124534e+001 -1.055007e+000 8.290219e-001 -2.128967e+000 -3.432562e+000 -9.639052e-001 -4.350804e+000 5.315827e-001 1.663582e-001 1.897338e+000 1.410875e+000 -1.351871e+000 5.230247e+001 -8.074298e-003 4.105708e-003 3.484559e-003 5.050597e-003 1.742232e-003 2.853721e-004 1.559576e-003 -2.567356e-003 -1.697204e-003 2.439091e-003 1.175561e-002 -3.407248e-005 5.249158e-002 1.615072e-003 -2.443096e-003 1.035554e-003 -1.576916e-004 8.644501e-004 -1.165671e-003 2.386305e-003 2.000772e-003 6.535146e-004 -3.212292e-003 -9.720554e-004 -1.065657e-003 -1.291578e-002
<VARIANCE> 39
 8.111806e+001 5.462376e+001 6.008181e+001 7.161355e+001 9.533774e+001 6.180170e+001 7.670696e+001 5.881316e+001 5.736093e+001 4.270596e+001 3.925454e+001 4.157106e+001 1.368001e+002 3.551482e+000 2.264150e+000 2.514077e+000 3.310187e+000 3.558395e+000 2.930405e+000 3.833720e+000 3.453831e+000 3.247922e+000 2.455546e+000 2.863310e+000 2.505997e+000 3.377872e+000 5.249268e-001 3.847506e-001 4.182175e-001 5.865009e-001 6.032480e-001 5.314447e-001 6.676249e-001 6.243771e-001 5.806425e-001 4.578502e-001 5.454447e-001 4.592419e-001 5.354204e-001
<GCONST> 1.317000e+002
<STATE> 3
<MEAN> 39
 -1.125078e+001 -1.051029e+000 8.431343e-001 -2.121343e+000 -3.426734e+000 -9.684089e-001 -4.348036e+000 5.244678e-001 1.566413e-001 1.880248e+000 1.436035e+000 -1.360990e+000 5.236340e+001 -4.213739e-003 -7.020999e-004 6.168674e-003 4.665700e-003 2.719566e-003 -1.517827e-003 4.287558e-003 -2.849745e-004 -2.101138e-003 -6.141299e-003 9.270348e-003 -2.877283e-003 2.170323e-002 1.459083e-003 -1.739529e-003 8.261594e-004 -9.719464e-006 5.973001e-005 -7.411000e-004 9.005837e-004 4.967205e-004 5.344390e-005 -3.131563e-003 -9.479703e-004 -1.109968e-003 -1.102832e-002
<VARIANCE> 39
 8.084512e+001 5.486881e+001 6.035931e+001 7.177211e+001 9.530089e+001 6.156985e+001 7.681201e+001 5.916304e+001 5.746330e+001 4.289711e+001 3.910528e+001 4.187889e+001 1.337071e+002 3.542673e+000 2.257948e+000 2.508823e+000 3.314784e+000 3.547393e+000 2.902125e+000 3.824560e+000 3.458694e+000 3.260299e+000 2.459654e+000 2.847044e+000 2.517069e+000 3.015267e+000 5.245746e-001 3.833781e-001 4.176419e-001 5.875934e-001 6.017785e-001 5.261280e-001 6.657783e-001 6.246086e-001 5.830681e-001 4.595813e-001 5.419328e-001 4.600505e-001 5.042131e-001
<GCONST> 1.314935e+002
<STATE> 4
<MEAN> 39
 -1.146450e+001 -1.225279e+000 6.655950e-001 -2.200564e+000 -3.590585e+000 -1.003570e+000 -4.311420e+000 4.849315e-001 1.163699e-001 1.694096e+000 1.472764e+000 -1.370483e+000 5.212672e+001 -2.361676e-003 -1.823534e-003 7.505876e-003 6.534615e-003 1.655960e-003 -3.363212e-003 2.791945e-003 4.071885e-004 3.959980e-004 -1.111170e-002 5.884900e-003 -4.517709e-003 4.118082e-003 1.776496e-004 -5.510639e-004 2.529785e-004 7.260753e-004 -4.669453e-004 -3.892318e-004 6.338733e-006 2.304980e-004 9.058226e-004 -1.018659e-003 -8.295930e-004 -2.880148e-004 -3.734921e-003
<VARIANCE> 39
 8.071352e+001 5.553955e+001 6.107569e+001 7.107632e+001 9.751636e+001 6.099169e+001 7.588327e+001 5.979818e+001 5.796692e+001 4.390293e+001 3.921355e+001 4.213211e+001 1.318207e+002 3.533893e+000 2.226603e+000 2.496924e+000 3.300907e+000 3.528102e+000 2.857668e+000 3.784312e+000 3.483144e+000 3.292747e+000 2.467300e+000 2.820539e+000 2.514686e+000 2.814303e+000 5.230705e-001 3.779105e-001 4.160024e-001 5.865291e-001 5.974718e-001 5.178138e-001 6.598443e-001 6.272852e-001 5.891721e-001 4.624790e-001 5.346355e-001 4.573641e-001 4.729919e-001
<GCONST> 1.313111e+002
<TRANSP> 5
 0.000000e+000 1.000000e+000 0.000000e+000 0.000000e+000 0.000000e+000
 0.000000e+000 6.253098e-001 3.746902e-001 0.000000e+000 0.000000e+000
 0.000000e+000 0.000000e+000 6.253103e-001 3.746897e-001 0.000000e+000
 0.000000e+000 0.000000e+000 0.000000e+000 7.331397e-001 2.668603e-001
 0.000000e+000 0.000000e+000 0.000000e+000 0.000000e+000 0.000000e+000
<ENDHMM>
~h "g"
<BEGINHMM>
<NUMSTATES> 5
<STATE> 2
<MEAN> 39
 -1.146512e+001 -1.244977e+000 1.159765e+000 -1.311060e+000 -4.742981e+000 -1.339933e+000 -4.355721e+000 7.144665e-001 8.786398e-004 1.072943e+000 1.342114e+000 -1.463902e+000 5.157166e+001 -1.033587e-002 -3.071642e-004 3.793417e-003 -1.742211e-003 -6.901650e-003 -1.947479e-003 9.954282e-004 4.096452e-003 3.576648e-003 -6.217743e-003 3.088395e-003 5.204854e-005 1.470855e-002 2.128687e-004 7.393372e-006 -7.089315e-004 1.227103e-004 9.104508e-004 -1.169992e-003 -9.067777e-004 -2.626290e-003 -5.292136e-004 -8.865619e-004 1.206996e-004 5.862098e-004 1.807072e-003
<VARIANCE> 39
 6.905141e+001 5.433621e+001 6.203960e+001 6.282409e+001 1.016875e+002 5.718444e+001 6.938102e+001 5.484380e+001 6.718730e+001 4.193761e+001 4.089478e+001 4.369974e+001 1.422161e+002 2.546716e+000 2.141155e+000 2.436518e+000 2.993259e+000 3.651805e+000 2.805875e+000 3.407615e+000 3.288891e+000 3.233873e+000 2.409321e+000 2.991018e+000 2.372387e+000 3.152378e+000 4.035054e-001 3.625198e-001 4.135850e-001 5.293713e-001 6.596750e-001 5.094854e-001 6.177158e-001 5.946104e-001 5.866185e-001 4.611744e-001 5.734535e-001 4.396394e-001 5.340777e-001
<GCONST> 1.302187e+002
<STATE> 3
<MEAN> 39
 -1.148701e+001 -1.246693e+000 1.172400e+000 -1.316754e+000 -4.764663e+000 -1.351295e+000 -4.359504e+000 7.156451e-001 1.177581e-002 1.056850e+000 1.358670e+000 -1.460788e+000 5.162389e+001 -8.191235e-003 -6.128396e-004 2.554563e-003 -2.000103e-003 -3.653091e-003 -5.785065e-003 4.183058e-004 -8.950905e-004 2.807305e-003 -5.713603e-003 5.519882e-003 1.168202e-003 1.879452e-002 9.911697e-004 6.047596e-005 -4.516181e-004 4.140534e-005 1.126956e-003 -1.133729e-003 1.134563e-004 -1.436218e-003 -1.777002e-004 5.749227e-004 8.381623e-004 1.036634e-004 1.247986e-003
<VARIANCE> 39
 6.903880e+001 5.476895e+001 6.192566e+001 6.246249e+001 1.023195e+002 5.728336e+001 6.958205e+001 5.481311e+001 6.717507e+001 4.169483e+001 4.103722e+001 4.406007e+001 1.418964e+002 2.558213e+000 2.136272e+000 2.439445e+000 2.972058e+000 3.680651e+000 2.809290e+000 3.414839e+000 3.310674e+000 3.252484e+000 2.426570e+000 3.025986e+000 2.393229e+000 3.143479e+000 4.052124e-001 3.617690e-001 4.135682e-001 5.243819e-001 6.668230e-001 5.099005e-001 6.178152e-001 5.992945e-001 5.908441e-001 4.656332e-001 5.804652e-001 4.432895e-001 5.324342e-001
<GCONST> 1.303234e+002
<STATE> 4
<MEAN> 39
 -1.169796e+001 -1.408360e+000 1.064487e+000 -1.430838e+000 -5.004369e+000 -1.413277e+000 -4.355697e+000 6.726539e-001 -5.628121e-002 9.341339e-001 1.463615e+000 -1.484803e+000 5.149197e+001 -3.961038e-003 -2.803995e-003 2.301434e-003 -2.170700e-003 -1.580636e-003 -7.371255e-003 1.244704e-004 -3.705543e-003 2.925352e-003 -2.069077e-003 1.004866e-002 -6.750521e-004 2.223977e-002 1.123882e-003 -4.048380e-004 -3.798590e-004 1.912082e-004 9.119569e-004 -2.890470e-004 2.485489e-004 -7.838051e-004 -2.004089e-004 1.036563e-003 7.969107e-004 -3.544234e-004 4.513775e-004
<VARIANCE> 39
 6.878230e+001 5.570178e+001 6.145098e+001 6.217943e+001 1.065193e+002 5.740691e+001 6.920981e+001 5.490127e+001 6.756728e+001 4.178207e+001 4.183729e+001 4.442166e+001 1.394126e+002 2.582098e+000 2.111109e+000 2.446623e+000 2.939168e+000 3.757102e+000 2.799478e+000 3.400134e+000 3.322675e+000 3.274124e+000 2.454311e+000 3.082107e+000 2.413348e+000 3.130088e+000 4.098568e-001 3.590029e-001 4.137105e-001 5.180576e-001 6.818251e-001 5.077084e-001 6.146728e-001 6.007426e-001 5.946601e-001 4.723082e-001 5.907922e-001 4.462203e-001 5.302455e-001
<GCONST> 1.304748e+002
<TRANSP> 5
 0.000000e+000 1.000000e+000 0.000000e+000 0.000000e+000 0.000000e+000
 0.000000e+000 6.310507e-001 3.689493e-001 0.000000e+000 0.000000e+000
 0.000000e+000 0.000000e+000 6.310515e-001 3.689485e-001 0.000000e+000
 0.000000e+000 0.000000e+000 0.000000e+000 7.391015e-001 2.608985e-001
 0.000000e+000 0.000000e+000 0.000000e+000 0.000000e+000 0.000000e+000
<ENDHMM>
~h "h"
<BEGINHMM>
<NUMSTATES> 5
<STATE> 2
<MEAN> 39
 -9.452881e+000 -1.011655e+000 1.340016e+000 -2.535419e+000 -3.669790e+000 -8.202663e-001 -5.581257e+000 1.386606e-001 4.476623e-002 1.578570e+000 4.340948e-001 -2.174327e+000 5.403285e+001 -5.161075e-003 3.218670e-003 -1.134678e-002 2.268794e-002 1.467519e-002 1.272778e-002 1.263822e-002 8.644106e-003 9.797685e-003 1.036135e-002 8.177930e-003 3.661379e-003 -3.090696e-002 4.281574e-004 3.489879e-005 -1.721661e-003 -1.600657e-003 6.875169e-004 1.762811e-003 4.283341e-004 -1.346605e-005 -5.811219e-004 -2.645935e-005 7.876019e-004 -7.099870e-004 4.967697e-004
<VARIANCE> 39
 8.307442e+001 5.619453e+001 7.044384e+001 7.477435e+001 9.092188e+001 6.158852e+001 7.560762e+001 5.776414e+001 5.781686e+001 4.156501e+001 4.036266e+001 4.569639e+001 1.302352e+002 2.966013e+000 2.415768e+000 2.568372e+000 3.508227e+000 3.592489e+000 3.164757e+000 3.836333e+000 3.562897e+000 3.197059e+000 2.568308e+000 2.863824e+000 2.489506e+000 3.030127e+000 4.396117e-001 4.081690e-001 4.101470e-001 6.182406e-001 6.182519e-001 5.593726e-001 6.770930e-001 6.444923e-001 5.723098e-001 4.851325e-001 5.402758e-001 4.562184e-001 4.985150e-001
<GCONST> 1.319141e+002
<STATE> 3
<MEAN> 39
 -9.462846e+000 -1.005591e+000 1.308403e+000 -2.480625e+000 -3.633713e+000 -7.826859e-001 -5.547821e+000 1.563403e-001 6.303299e-002 1.606028e+000 4.584036e-001 -2.170515e+000 5.396077e+001 -4.060462e-003 3.678689e-003 -1.504065e-002 1.911400e-002 1.581503e-002 1.689164e-002 1.330565e-002 7.899067e-003 7.929798e-003 1.004189e-002 1.005323e-002 2.120212e-003 -2.974000e-002 3.043874e-004 3.280906e-004 -1.514562e-003 -1.312719e-003 6.234235e-004 1.559968e-003 3.970784e-004 -7.839844e-005 -3.906115e-004 1.076886e-004 7.303415e-004 -3.242577e-004 4.630334e-004
<VARIANCE> 39
 8.243541e+001 5.622956e+001 7.021120e+001 7.488123e+001 9.082200e+001 6.147615e+001 7.559711e+001 5.755768e+001 5.774118e+001 4.151860e+001 4.043810e+001 4.568829e+001 1.303862e+002 2.954104e+000 2.408830e+000 2.557143e+000 3.500171e+000 3.581706e+000 3.147771e+000 3.822290e+000 3.546952e+000 3.178591e+000 2.562311e+000 2.854748e+000 2.483852e+000 3.010344e+000 4.381092e-001 4.068272e-001 4.083687e-001 6.176339e-001 6.160420e-001 5.560167e-001 6.745772e-001 6.419337e-001 5.690541e-001 4.841560e-001 5.383997e-001 4.549190e-001 4.959447e-001
<GCONST> 1.318001e+002
<STATE> 4
<MEAN> 39
 -9.664782e+000 -1.144718e+000 1.079856e+000 -2.517865e+000 -3.698817e+000 -7.301576e-001 -5.458083e+000 1.684712e-001 7.288191e-002 1.541218e+000 5.436458e-001 -2.197419e+000 5.365715e+001 -3.180002e-003 4.630267e-003 -1.721654e-002 1.586064e-002 1.538454e-002 1.924572e-002 1.369864e-002 6.044591e-003 6.005192e-003 9.595748e-003 1.266816e-002 1.445251e-003 -2.675702e-002 3.273220e-005 5.973218e-004 -1.052180e-003 -1.101466e-003 3.707377e-004 8.776770e-004 2.151013e-004 -1.269576e-004 6.988186e-005 2.334505e-004 7.222605e-004 2.239367e-004 4.053928e-004
<VARIANCE> 39
 8.186040e+001 5.678765e+001 7.000386e+001 7.478709e+001 9.265870e+001 6.096515e+001 7.512270e+001 5.748426e+001 5.788660e+001 4.177145e+001 4.080839e+001 4.604374e+001 1.293283e+002 2.947083e+000 2.379753e+000 2.535237e+000 3.477763e+000 3.575530e+000 3.111637e+000 3.788758e+000 3.515195e+000 3.170632e+000 2.549401e+000 2.850109e+000 2.484633e+000 2.987251e+000 4.374254e-001 4.028243e-001 4.046915e-001 6.143481e-001 6.153452e-001 5.486653e-001 6.686695e-001 6.358198e-001 5.666637e-001 4.820235e-001 5.357375e-001 4.541105e-001 4.928499e-001
<GCONST> 1.316627e+002
<TRANSP> 5
 0.000000e+000 1.000000e+000 0.000000e+000 0.000000e+000 0.000000e+000
 0.000000e+000 6.198924e-001 3.801076e-001 0.000000e+000 0.000000e+000
 0.000000e+000 0.000000e+000 6.198915e-001 3.801084e-001 0.000000e+000
 0.000000e+000 0.000000e+000 0.000000e+000 7.259026e-001 2.740975e-001
 0.000000e+000 0.000000e+000 0.000000e+000 0.000000e+000 0.000000e+000
<ENDHMM>
~h "i"
<BEGINHMM>
<NUMSTATES> 5
<STATE> 2
<MEAN> 39
 -1.120677e+001 -9.543809e-001 1.242854e+000 -2.018581e+000 -3.814580e+000 -1.576376e+000 -5.150944e+000 3.689989e-001 1.893565e-001 1.427894e+000 8.421140e-001 -1.384489e+000 5.311944e+001 6.473154e-003 -1.488931e-003 -3.263202e-003 -1.330608e-003 4.390477e-005 4.245914e-003 3.252579e-003 -5.137493e-004 -3.369301e-003 1.154972e-003 1.836146e-003 -1.648676e-003 -2.592627e-003 -8.307895e-005 6.821958e-005 -3.846868e-005 8.144308e-005 4.465734e-005 -3.178938e-004 1.181583e-004 -3.686854e-004 8.449408e-005 -1.205685e-004 -1.698096e-004 1.059197e-004 -8.132180e-005
<VARIANCE> 39
 8.178539e+001 5.316013e+001 6.341836e+001 7.271079e+001 9.186486e+001 6.054483e+001 7.396585e+001 5.352031e+001 5.642270e+001 4.160600e+001 3.857232e+001 4.137317e+001 1.327086e+002 3.352218e+000 2.330536e+000 2.626429e+000 3.294988e+000 3.622280e+000 3.027817e+000 3.861092e+000 3.443685e+000 3.220663e+000 2.517027e+000 2.774127e+000 2.408459e+000 3.216442e+000 5.081941e-001 4.020350e-001 4.308553e-001 5.860076e-001 6.303205e-001 5.457838e-001 6.838679e-001 6.255221e-001 5.799521e-001 4.767617e-001 5.261316e-001 4.417956e-001 5.411791e-001
<GCONST> 1.315397e+002
<STATE> 3
<MEAN> 39
 -1.119042e+001 -9.573246e-001 1.233096e+000 -2.020539e+000 -3.813616e+000 -1.566663e+000 -5.140562e+000 3.674749e-001 1.798017e-001 1.430549e+000 8.465120e-001 -1.387684e+000 5.311169e+001 5.915353e-003 -1.202229e-003 -3.206586e-003 -9.502716e-004 2.490031e-004 3.468815e-003 3.369636e-003 -1.301762e-003 -2.995420e-003 8.370630e-004 1.418042e-003 -1.267136e-003 -2.675940e-003 -2.992070e-004 1.739923e-004 3.800722e-005 1.331766e-004 8.408425e-005 -4.413177e-004 -4.614063e-005 -3.851279e-004 5.767173e-005 -2.005280e-004 -1.711522e-004 -7.342790e-005 -9.095958e-006
<VARIANCE> 39
 8.172118e+001 5.313271e+001 6.343283e+001 7.280805e+001 9.181793e+001 6.056165e+001 7.407516e+001 5.356675e+001 5.656163e+001 4.166094e+001 3.859118e+001 4.143473e+001 1.326938e+002 3.344552e+000 2.327814e+000 2.623679e+000 3.301261e+000 3.619595e+000 3.026932e+000 3.857560e+000 3.440488e+000 3.220885e+000 2.515223e+000 2.773946e+000 2.410258e+000 3.206758e+000 5.071998e-001 4.017028e-001 4.305675e-001 5.869432e-001 6.296821e-001 5.452324e-001 6.832401e-001 6.248114e-001 5.798397e-001 4.762460e-001 5.255891e-001 4.417010e-001 5.393233e-001
<GCONST> 1.315274e+002
<STATE> 4
<MEAN> 39
 -1.137886e+001 -1.075987e+000 1.083813e+000 -2.110122e+000 -3.922244e+000 -1.564222e+000 -5.077083e+000 3.547811e-001 1.236844e-001 1.323556e+000 8.793015e-001 -1.393447e+000 5.284022e+001 4.368373e-003 -4.472509e-004 -3.229380e-003 -2.184969e-004 5.983490e-004 1.887328e-003 2.930736e-003 -1.908468e-003 -2.778653e-003 1.047682e-004 1.084280e-003 -1.227688e-003 -2.467580e-003 -4.213468e-004 2.488195e-004 -1.299368e-005 -3.844681e-006 2.656060e-004 -4.543617e-004 -1.135154e-004 -2.806573e-004 -6.822862e-005 -3.013837e-004 -2.350244e-004 -2.373205e-004 4.194779e-005
<VARIANCE> 39
 8.171130e+001 5.317127e+001 6.344984e+001 7.249055e+001 9.356458e+001 6.012585e+001 7.336372e+001 5.364209e+001 5.700283e+001 4.215238e+001 3.880601e+001 4.150672e+001 1.316482e+002 3.331302e+000 2.297159e+000 2.611928e+000 3.288135e+000 3.623238e+000 3.008547e+000 3.828572e+000 3.427979e+000 3.228873e+000 2.507629e+000 2.773436e+000 2.410002e+000 3.188786e+000 5.053200e-001 3.974217e-001 4.282748e-001 5.850196e-001 6.294826e-001 5.414599e-001 6.788692e-001 6.219034e-001 5.804862e-001 4.745902e-001 5.238568e-001 4.409877e-001 5.355566e-001
<GCONST> 1.314420e+002
<TRANSP> 5
 0.000000e+000 1.000000e+000 0.000000e+000 0.000000e+000 0.000000e+000
 0.000000e+000 6.245475e-001 3.754525e-001 0.000000e+000 0.000000e+000
 0.000000e+000 0.000000e+000 6.245459e-001 3.754541e-001 0.000000e+000
 0.000000e+000 0.000000e+000 0.000000e+000 7.313119e-001 2.686880e-001
 0.000000e+000 0.000000e+000 0.000000e+000 0.000000e+000 0.000000e+000
<ENDHMM>
~h "k"
<BEGINHMM>
<NUMSTATES> 5
<STATE> 2
<MEAN> 39
 -1.121600e+001 -1.014592e+000 6.008505e-001 -2.002347e+000 -3.327231e+000 -1.469385e+000 -4.851287e+000 6.991349e-001 1.774108e-001 1.545454e+000 9.289720e-001 -1.425382e+000 5.290613e+001 -1.151106e-003 -2.447967e-003 9.660172e-003 6.802526e-003 -5.583666e-003 -7.750590e-004 2.172783e-003 9.345737e-003 4.276613e-003 -3.902838e-003 9.607748e-004 -1.380777e-004 -2.102569e-003 -1.719170e-004 -3.839917e-004 -6.285174e-004 -1.235275e-004 9.484228e-004 6.300756e-004 4.501171e-004 1.281952e-004 9.214373e-004 2.747270e-004 -7.150683e-004 -2.622563e-004 2.251870e-004
<VARIANCE> 39
 7.849494e+001 5.577211e+001 6.436141e+001 7.458029e+001 9.251213e+001 6.022911e+001 6.799329e+001 5.335683e+001 6.004091e+001 4.134248e+001 3.846676e+001 4.125640e+001 1.271056e+002 3.323419e+000 2.412754e+000 2.726440e+000 3.406682e+000 3.808459e+000 3.019169e+000 3.738094e+000 3.525500e+000 3.439089e+000 2.566479e+000 2.847324e+000 2.504259e+000 3.574594e+000 5.103859e-001 4.145548e-001 4.556105e-001 6.056553e-001 6.618305e-001 5.471145e-001 6.645351e-001 6.417221e-001 6.193501e-001 4.900629e-001 5.404636e-001 4.573590e-001 5.988799e-001
<GCONST> 1.323272e+002
<STATE> 3
<MEAN> 39
 -1.121898e+001 -1.021094e+000 6.222709e-001 -1.985564e+000 -3.339901e+000 -1.467791e+000 -4.841826e+000 7.240824e-001 1.921737e-001 1.537703e+000 9.278017e-001 -1.427417e+000 5.290004e+001 -1.673388e-003 -2.778783e-003 7.779536e-003 6.609475e-003 -3.829800e-003 2.388549e-004 3.281783e-003 9.752698e-003 6.401461e-003 -2.659947e-003 -1.001368e-003 -6.905501e-004 -1.342438e-003 -1.598766e-004 1.124766e-005 -7.637438e-004 -1.641165e-005 8.077755e-004 3.196082e-004 4.086555e-004 1.914296e-004 8.785447e-004 6.009013e-004 -7.487256e-004 -1.345876e-004 1.714175e-004
<VARIANCE> 39
 7.833842e+001 5.580072e+001 6.433318e+001 7.458217e+001 9.254428e+001 6.031848e+001 6.803871e+001 5.329927e+001 5.994271e+001 4.133006e+001 3.835639e+001 4.127259e+001 1.274031e+002 3.318812e+000 2.410117e+000 2.715754e+000 3.392630e+000 3.794546e+000 3.018492e+000 3.728587e+000 3.521695e+000 3.434507e+000 2.560287e+000 2.840248e+000 2.496160e+000 3.559427e+000 5.095313e-001 4.138399e-001 4.532889e-001 6.027089e-001 6.595806e-001 5.468314e-001 6.630254e-001 6.411325e-001 6.188734e-001 4.887168e-001 5.388952e-001 4.557987e-001 5.960041e-001
<GCONST> 1.322577e+002
<STATE> 4
<MEAN> 39
 -1.139492e+001 -1.147257e+000 5.096205e-001 -2.041457e+000 -3.457483e+000 -1.471329e+000 -4.788502e+000 7.423963e-001 1.824328e-001 1.442521e+000 9.475470e-001 -1.448258e+000 5.266973e+001 -1.473280e-003 -2.576873e-003 5.078556e-003 6.752147e-003 -2.094192e-003 9.768900e-004 4.328389e-003 9.096198e-003 7.891527e-003 -5.749774e-004 -2.540047e-003 -8.012922e-004 -1.480737e-003 3.044534e-005 1.146584e-004 -7.572427e-004 2.234645e-005 6.875757e-004 1.847082e-004 2.204438e-004 -1.786096e-005 5.132911e-004 6.256540e-004 -3.894998e-004 1.536622e-004 -2.892260e-005
<VARIANCE> 39
 7.808204e+001 5.614323e+001 6.425900e+001 7.407649e+001 9.435252e+001 6.004564e+001 6.744510e+001 5.346738e+001 6.007056e+001 4.165900e+001 3.842925e+001 4.138244e+001 1.267300e+002 3.309069e+000 2.382636e+000 2.692531e+000 3.365840e+000 3.786311e+000 3.010946e+000 3.701126e+000 3.516662e+000 3.434257e+000 2.552594e+000 2.833440e+000 2.485304e+000 3.545732e+000 5.079980e-001 4.096457e-001 4.483701e-001 5.983179e-001 6.579195e-001 5.454448e-001 6.590598e-001 6.399734e-001 6.187012e-001 4.872753e-001 5.369654e-001 4.536596e-001 5.926605e-001
<GCONST> 1.321515e+002
<TRANSP> 5
 0.000000e+000 1.000000e+000 0.000000e+000 0.000000e+000 0.000000e+000
 0.000000e+000 6.257408e-001 3.742591e-001 0.000000e+000 0.000000e+000
 0.000000e+000 0.000000e+000 6.257396e-001 3.742603e-001 0.000000e+000
 0.000000e+000 0.000000e+000 0.000000e+000 7.323393e-001 2.676608e-001
 0.000000e+000 0.000000e+000 0.000000e+000 0.000000e+000 0.000000e+000
<ENDHMM>
~h "l"
<BEGINHMM>
<NUMSTATES> 5
<STATE> 2
<MEAN> 39
 -1.003142e+001 -8.411439e-001 8.701164e-001 -2.893847e+000 -3.099617e+000 -8.082466e-001 -5.629106e+000 1.044998e-002 5.035445e-001 1.837907e+000 5.900099e-001 -1.690552e+000 5.407771e+001 6.814401e-003 -2.374128e-003 7.211728e-003 6.356587e-004 -5.669538e-003 5.696282e-003 -2.518860e-003 -2.925521e-003 -4.391097e-003 -2.515773e-003 5.343168e-004 -5.088599e-003 6.425678e-004 2.171801e-004 4.438039e-005 4.085965e-004 -3.534725e-004 -3.950157e-004 2.090067e-004 1.735312e-004 -4.264991e-004 -8.192049e-004 1.944247e-004 5.548910e-004 -3.410570e-004 -1.633561e-004
<VARIANCE> 39
 8.216656e+001 5.260410e+001 6.116063e+001 8.290981e+001 8.474258e+001 5.910324e+001 7.609191e+001 5.522432e+001 5.645618e+001 4.145772e+001 3.912875e+001 4.255668e+001 1.347383e+002 3.294343e+000 2.465353e+000 2.522620e+000 3.652387e+000 3.527972e+000 3.086502e+000 4.008081e+000 3.587080e+000 3.253975e+000 2.545567e+000 2.762143e+000 2.477076e+000 3.144585e+000 4.896330e-001 4.183615e-001 4.143093e-001 6.323498e-001 6.160706e-001 5.523987e-001 7.021874e-001 6.516870e-001 5.833028e-001 4.831862e-001 5.198067e-001 4.539171e-001 5.191594e-001
<GCONST> 1.319223e+002
<STATE> 3
<MEAN> 39
 -1.001653e+001 -8.448979e-001 8.897947e-001 -2.892215e+000 -3.115880e+000 -7.940568e-001 -5.631342e+000 4.121042e-003 4.895251e-001 1.831538e+000 5.932239e-001 -1.702869e+000 5.407960e+001 6.868373e-003 -2.130215e-003 8.006387e-003 -3.204058e-004 -6.427257e-003 6.666678e-003 -1.519879e-003 -3.897997e-003 -6.400870e-003 -1.886132e-003 1.880726e-003 -5.390569e-003 4.821651e-004 -9.893191e-005 2.779967e-004 3.488900e-004 -2.292046e-004 -1.779204e-004 4.125304e-004 5.018830e-004 -3.141556e-004 -7.675329e-004 2.913780e-004 4.202468e-004 -5.016573e-005 -1.868470e-004
<VARIANCE> 39
 8.216891e+001 5.256608e+001 6.145094e+001 8.275048e+001 8.490160e+001 5.901774e+001 7.632753e+001 5.517170e+001 5.636325e+001 4.153125e+001 3.923453e+001 4.262513e+001 1.346319e+002 3.280521e+000 2.463441e+000 2.526160e+000 3.663035e+000 3.532426e+000 3.092444e+000 4.018018e+000 3.585065e+000 3.254734e+000 2.550146e+000 2.760563e+000 2.477290e+000 3.160705e+000 4.881509e-001 4.185303e-001 4.147997e-001 6.343156e-001 6.164060e-001 5.536156e-001 7.039774e-001 6.511844e-001 5.828844e-001 4.842322e-001 5.192243e-001 4.539346e-001 5.213174e-001
<GCONST> 1.319525e+002
<STATE> 4
<MEAN> 39
 -1.017873e+001 -9.283080e-001 7.866223e-001 -2.979033e+000 -3.205923e+000 -7.836278e-001 -5.575555e+000 7.824977e-004 4.269941e-001 1.739055e+000 6.313675e-001 -1.710621e+000 5.385008e+001 5.368154e-003 -6.328647e-004 9.059310e-003 -5.272716e-004 -6.654317e-003 7.764738e-003 6.841210e-004 -4.215247e-003 -8.025083e-003 -1.337509e-003 2.795962e-003 -4.682282e-003 -4.742054e-005 -3.376775e-004 4.796830e-004 4.654041e-004 5.075820e-005 -5.951948e-005 4.466184e-004 6.164889e-004 -1.503518e-004 -4.083331e-004 3.556534e-004 2.293612e-004 2.065165e-004 -2.847135e-004
<VARIANCE> 39
 8.251828e+001 5.250665e+001 6.189132e+001 8.225163e+001 8.672182e+001 5.866197e+001 7.593891e+001 5.520148e+001 5.661457e+001 4.202798e+001 3.949473e+001 4.274187e+001 1.332336e+002 3.265324e+000 2.431222e+000 2.526122e+000 3.657698e+000 3.545267e+000 3.087185e+000 4.009501e+000 3.583898e+000 3.270581e+000 2.555291e+000 2.762847e+000 2.479792e+000 3.179476e+000 4.861184e-001 4.148014e-001 4.145875e-001 6.341147e-001 6.177034e-001 5.531415e-001 7.031851e-001 6.504410e-001 5.843875e-001 4.855241e-001 5.184150e-001 4.545474e-001 5.236942e-001
<GCONST> 1.319720e+002
<TRANSP> 5
 0.000000e+000 1.000000e+000 0.000000e+000 0.000000e+000 0.000000e+000
 0.000000e+000 6.204568e-001 3.795431e-001 0.000000e+000 0.000000e+000
 0.000000e+000 0.000000e+000 6.204550e-001 3.795450e-001 0.000000e+000
 0.000000e+000 0.000000e+000 0.000000e+000 7.262374e-001 2.737626e-001
 0.000000e+000 0.000000e+000 0.000000e+000 0.000000e+000 0.000000e+000
<ENDHMM>
~h "m"
<BEGINHMM>
<NUMSTATES> 5
<STATE> 2
<MEAN> 39
 -1.041043e+001 -7.808642e-001 1.353268e+000 -2.348959e+000 -3.730809e+000 -1.130220e+000 -5.072059e+000 1.412545e-002 -1.436242e-001 1.259681e+000 9.535031e-001 -1.863083e+000 5.381964e+001 4.873597e-003 2.757083e-003 1.529437e-003 -4.614989e-003 -5.597943e-003 -2.269506e-003 -5.119069e-003 -3.373903e-003 -4.167574e-003 -3.898095e-003 -2.485348e-003 -2.830892e-003 7.557699e-003 3.473025e-004 5.943651e-004 -9.972376e-004 3.778283e-004 1.652642e-004 -2.226302e-004 8.294077e-004 1.472399e-004 -4.868260e-004 -2.213876e-005 -4.631276e-004 7.530160e-004 -2.027886e-003
<VARIANCE> 39
 8.372614e+001 5.296148e+001 6.638033e+001 7.483611e+001 9.027527e+001 5.970279e+001 7.123711e+001 5.759587e+001 6.065079e+001 4.221998e+001 3.984132e+001 4.311766e+001 1.289911e+002 3.470096e+000 2.452101e+000 2.735313e+000 3.588105e+000 3.580080e+000 3.081095e+000 3.876321e+000 3.694129e+000 3.370646e+000 2.565968e+000 2.847737e+000 2.452685e+000 3.173681e+000 5.108154e-001 4.164170e-001 4.459742e-001 6.320104e-001 6.189859e-001 5.532345e-001 6.842296e-001 6.675383e-001 6.013528e-001 4.897526e-001 5.323658e-001 4.439135e-001 5.207533e-001
<GCONST> 1.324098e+002
<STATE> 3
<MEAN> 39
 -1.039581e+001 -7.725970e-001 1.352653e+000 -2.360254e+000 -3.743757e+000 -1.134413e+000 -5.082457e+000 5.538167e-003 -1.560118e-001 1.248748e+000 9.444421e-001 -1.869570e+000 5.382956e+001 5.921958e-003 3.521933e-003 -1.128392e-003 -3.671709e-003 -4.798176e-003 -2.239431e-003 -3.667040e-003 -3.009501e-003 -5.552701e-003 -3.722057e-003 -3.474313e-003 -1.338630e-003 2.837713e-003 3.412120e-004 2.794137e-004 -1.081511e-003 4.093860e-004 2.752810e-004 -2.865415e-005 3.428477e-004 7.735874e-005 -3.645732e-004 1.420481e-004 -3.036674e-004 5.975869e-004 -1.714093e-003
<VARIANCE> 39
 8.385307e+001 5.286084e+001 6.633129e+001 7.504760e+001 9.021568e+001 5.972327e+001 7.118565e+001 5.772021e+001 6.068116e+001 4.215643e+001 3.973316e+001 4.303141e+001 1.288996e+002 3.473585e+000 2.448488e+000 2.732018e+000 3.590695e+000 3.579329e+000 3.083189e+000 3.878037e+000 3.709867e+000 3.371663e+000 2.562737e+000 2.847323e+000 2.449862e+000 3.141114e+000 5.109876e-001 4.155296e-001 4.454925e-001 6.326315e-001 6.183993e-001 5.540933e-001 6.851534e-001 6.702608e-001 6.011699e-001 4.893757e-001 5.327544e-001 4.431450e-001 5.171569e-001
<GCONST> 1.323929e+002
<STATE> 4
<MEAN> 39
 -1.054540e+001 -8.624808e-001 1.189845e+000 -2.470853e+000 -3.833546e+000 -1.137688e+000 -5.046472e+000 -7.188575e-004 -2.106677e-001 1.146659e+000 9.821647e-001 -1.868910e+000 5.359554e+001 7.337842e-003 3.317153e-003 -4.537108e-003 -2.535139e-003 -3.211119e-003 -1.763312e-003 -4.032039e-003 -2.435533e-003 -5.404868e-003 -2.793888e-003 -3.991297e-003 -1.708828e-004 -1.367055e-003 3.625495e-004 1.999810e-005 -9.562707e-004 3.626925e-004 4.210282e-004 -1.531292e-004 -2.209016e-004 1.276212e-004 9.142307e-005 1.598149e-004 -1.918552e-004 3.266904e-004 -1.175598e-003
<VARIANCE> 39
 8.394210e+001 5.272414e+001 6.614307e+001 7.511692e+001 9.178354e+001 5.945080e+001 7.063087e+001 5.804820e+001 6.118871e+001 4.245599e+001 3.983577e+001 4.297038e+001 1.276494e+002 3.469548e+000 2.409163e+000 2.722476e+000 3.578475e+000 3.582129e+000 3.071864e+000 3.860095e+000 3.724007e+000 3.393896e+000 2.556713e+000 2.848794e+000 2.446316e+000 3.114033e+000 5.096426e-001 4.091260e-001 4.437615e-001 6.313586e-001 6.180890e-001 5.527519e-001 6.826673e-001 6.721743e-001 6.041757e-001 4.881885e-001 5.325979e-001 4.425248e-001 5.129055e-001
<GCONST> 1.323383e+002
<TRANSP> 5
 0.000000e+000 1.000000e+000 0.000000e+000 0.000000e+000 0.000000e+000
 0.000000e+000 6.226912e-001 3.773088e-001 0.000000e+000 0.000000e+000
 0.000000e+000 0.000000e+000 6.226918e-001 3.773082e-001 0.000000e+000
 0.000000e+000 0.000000e+000 0.000000e+000 7.290438e-001 2.709562e-001
 0.000000e+000 0.000000e+000 0.000000e+000 0.000000e+000 0.000000e+000
<ENDHMM>
~h "n"
<BEGINHMM>
<NUMSTATES> 5
<STATE> 2
<MEAN> 39
 -1.049209e+001 -9.351934e-001 9.687799e-001 -1.916595e+000 -3.352578e+000 -7.465337e-001 -4.905735e+000 4.181116e-001 5.459783e-001 1.411800e+000 5.979557e-001 -1.453550e+000 5.310529e+001 -8.453291e-003 2.501175e-003 1.090747e-003 1.020442e-002 6.020843e-003 2.151415e-003 9.901432e-003 -1.932223e-003 2.216791e-003 3.644624e-003 1.269103e-003 1.703900e-003 2.160398e-003 1.964986e-004 -1.054387e-004 -1.828921e-004 -5.280639e-004 8.853810e-004 -3.619278e-004 -5.466086e-004 -6.797725e-004 -5.223574e-004 2.329509e-006 3.648602e-004 1.713816e-004 -3.997403e-003
<VARIANCE> 39
 7.825904e+001 5.240784e+001 6.478574e+001 7.217083e+001 8.993176e+001 5.618497e+001 7.241357e+001 5.516557e+001 5.516407e+001 4.158160e+001 3.914657e+001 4.156695e+001 1.370035e+002 3.143585e+000 2.335306e+000 2.564841e+000 3.360550e+000 3.331498e+000 2.948747e+000 3.712816e+000 3.598069e+000 3.140301e+000 2.449916e+000 2.761506e+000 2.328950e+000 3.173997e+000 4.742196e-001 3.944754e-001 4.177982e-001 5.961748e-001 5.794931e-001 5.360421e-001 6.594103e-001 6.565641e-001 5.655100e-001 4.678760e-001 5.191909e-001 4.326063e-001 5.169995e-001
<GCONST> 1.308453e+002
<STATE> 3
<MEAN> 39
 -1.051407e+001 -9.309679e-001 9.709213e-001 -1.892067e+000 -3.332585e+000 -7.433387e-001 -4.880121e+000 4.129876e-001 5.482216e-001 1.419946e+000 6.025870e-001 -1.449875e+000 5.308761e+001 -8.039984e-003 2.384219e-003 5.186197e-004 8.703412e-003 8.008820e-003 1.686927e-003 9.516571e-003 -2.685240e-003 1.310138e-003 3.263173e-003 9.826962e-004 1.556334e-003 -7.018451e-003 2.318769e-004 2.912015e-005 -1.758570e-004 -7.055454e-004 5.759802e-004 -2.240250e-004 -1.222193e-004 -3.093540e-004 -3.338566e-004 -4.254658e-004 -3.073935e-004 -2.937262e-005 -3.267108e-003
<VARIANCE> 39
 7.802137e+001 5.227678e+001 6.482222e+001 7.229376e+001 8.990450e+001 5.603337e+001 7.231683e+001 5.515052e+001 5.491739e+001 4.151426e+001 3.913699e+001 4.154415e+001 1.362647e+002 3.142612e+000 2.329080e+000 2.563649e+000 3.359004e+000 3.327988e+000 2.940618e+000 3.714079e+000 3.595387e+000 3.128812e+000 2.444735e+000 2.761453e+000 2.327125e+000 3.072152e+000 4.748261e-001 3.939206e-001 4.174101e-001 5.966901e-001 5.782753e-001 5.351270e-001 6.601360e-001 6.568162e-001 5.634495e-001 4.672067e-001 5.190476e-001 4.322505e-001 5.091565e-001
<GCONST> 1.307537e+002
<STATE> 4
<MEAN> 39
 -1.073699e+001 -1.026634e+000 8.149038e-001 -1.961022e+000 -3.401167e+000 -7.490368e-001 -4.788017e+000 4.020683e-001 5.236946e-001 1.320588e+000 6.562076e-001 -1.430156e+000 5.277741e+001 -8.017749e-003 3.024729e-003 -3.055922e-004 6.481420e-003 9.717883e-003 2.055519e-003 9.474426e-003 -2.418686e-003 1.626777e-003 1.921713e-003 -1.226307e-003 2.076141e-003 -1.188057e-002 1.558064e-004 3.244226e-004 -1.828309e-004 -7.420268e-004 2.842400e-004 4.796589e-005 -1.415981e-004 -1.504780e-004 -2.286646e-005 -3.871895e-004 -5.269872e-004 1.099440e-004 -9.870610e-004
<VARIANCE> 39
 7.762036e+001 5.210286e+001 6.471687e+001 7.217372e+001 9.172146e+001 5.562462e+001 7.134316e+001 5.522918e+001 5.496394e+001 4.202139e+001 3.930554e+001 4.141912e+001 1.354467e+002 3.133572e+000 2.286885e+000 2.550312e+000 3.332019e+000 3.324896e+000 2.914262e+000 3.681514e+000 3.590064e+000 3.125782e+000 2.435351e+000 2.758457e+000 2.322596e+000 3.007093e+000 4.738502e-001 3.881276e-001 4.147947e-001 5.934268e-001 5.766138e-001 5.306920e-001 6.554655e-001 6.565601e-001 5.622632e-001 4.654606e-001 5.175212e-001 4.312296e-001 4.995621e-001
<GCONST> 1.305893e+002
<TRANSP> 5
 0.000000e+000 1.000000e+000 0.000000e+000 0.000000e+000 0.000000e+000
 0.000000e+000 6.223364e-001 3.776637e-001 0.000000e+000 0.000000e+000
 0.000000e+000 0.000000e+000 6.223385e-001 3.776616e-001 0.000000e+000
 0.000000e+000 0.000000e+000 0.000000e+000 7.287359e-001 2.712641e-001
 0.000000e+000 0.000000e+000 0.000000e+000 0.000000e+000 0.000000e+000
<ENDHMM>
~h "o"
<BEGINHMM>
<NUMSTATES> 5
<STATE> 2
<MEAN> 39
 -1.071143e+001 -9.342285e-001 5.447959e-001 -2.430272e+000 -3.623806e+000 -7.430669e-001 -5.493351e+000 -1.404874e-001 3.453819e-001 1.690929e+000 9.965090e-001 -1.427316e+000 5.307175e+001 -8.831318e-003 7.100283e-003 -1.518190e-003 2.126154e-003 8.019301e-003 7.153492e-004 3.256124e-003 2.813834e-003 6.181984e-003 2.934406e-003 -1.009441e-003 3.829652e-003 -1.100475e-002 6.297107e-004 -5.659396e-004 -2.164948e-004 -5.142297e-004 -3.287413e-004 3.639518e-004 -4.277083e-004 -3.778980e-004 -5.011777e-005 -2.438984e-004 -1.081766e-004 -5.031858e-004 9.009198e-004
<VARIANCE> 39
 8.239803e+001 5.305194e+001 6.249035e+001 7.720637e+001 9.272199e+001 5.775449e+001 7.303375e+001 5.586115e+001 5.806357e+001 4.227233e+001 3.922359e+001 4.136449e+001 1.251102e+002 3.285248e+000 2.323140e+000 2.506783e+000 3.544280e+000 3.580700e+000 2.998253e+000 3.824609e+000 3.458104e+000 3.243503e+000 2.535691e+000 2.801544e+000 2.411266e+000 3.169338e+000 4.952667e-001 4.012277e-001 4.102767e-001 6.322054e-001 6.197513e-001 5.384577e-001 6.787589e-001 6.276899e-001 5.791069e-001 4.802084e-001 5.282519e-001 4.431230e-001 5.281727e-001
<GCONST> 1.315249e+002
<STATE> 3
<MEAN> 39
 -1.073047e+001 -9.194283e-001 5.405565e-001 -2.427167e+000 -3.604420e+000 -7.389484e-001 -5.489164e+000 -1.355202e-001 3.613103e-001 1.697357e+000 9.927694e-001 -1.419876e+000 5.304666e+001 -6.817291e-003 5.538161e-003 -2.078644e-003 9.326386e-004 7.155915e-003 1.824156e-003 2.111606e-003 1.854531e-003 5.961123e-003 2.301367e-003 -1.372280e-003 2.606400e-003 -8.642696e-003 8.619971e-004 -6.973851e-004 -1.541500e-004 -4.475458e-004 -3.961212e-004 3.666855e-004 -4.689969e-004 -3.641337e-004 -1.490833e-004 -3.180206e-004 -8.738712e-005 -3.934181e-004 9.961496e-004
<VARIANCE> 39
 8.235401e+001 5.302206e+001 6.237971e+001 7.722297e+001 9.262907e+001 5.775675e+001 7.301022e+001 5.583348e+001 5.798139e+001 4.222276e+001 3.919577e+001 4.130674e+001 1.252399e+002 3.287681e+000 2.327127e+000 2.503367e+000 3.546938e+000 3.581263e+000 2.995452e+000 3.831161e+000 3.449848e+000 3.240213e+000 2.536885e+000 2.801642e+000 2.409717e+000 3.176152e+000 4.954162e-001 4.020852e-001 4.098262e-001 6.325389e-001 6.196086e-001 5.376252e-001 6.797286e-001 6.260332e-001 5.784327e-001 4.803927e-001 5.283825e-001 4.429729e-001 5.293317e-001
<GCONST> 1.315183e+002
<STATE> 4
<MEAN> 39
 -1.093429e+001 -1.043425e+000 3.829023e-001 -2.526863e+000 -3.710267e+000 -7.575453e-001 -5.452948e+000 -1.418796e-001 3.380909e-001 1.595924e+000 1.029026e+000 -1.430536e+000 5.278446e+001 -3.791890e-003 3.256841e-003 -2.734038e-003 -2.480683e-004 5.998577e-003 2.953425e-003 4.819337e-004 7.597044e-004 5.313954e-003 1.669047e-003 -1.791295e-003 1.272665e-003 -5.889798e-003 8.625962e-004 -6.976101e-004 -1.631407e-004 -3.387626e-004 -3.542387e-004 2.175016e-004 -3.678360e-004 -2.701766e-004 -2.790483e-004 -2.294474e-004 1.900117e-005 -2.140041e-004 9.158023e-004
<VARIANCE> 39
 8.219564e+001 5.328322e+001 6.239037e+001 7.685332e+001 9.450765e+001 5.756808e+001 7.247829e+001 5.593589e+001 5.831339e+001 4.258464e+001 3.938391e+001 4.142120e+001 1.245850e+002 3.281894e+000 2.306217e+000 2.495108e+000 3.535122e+000 3.591715e+000 2.980697e+000 3.820968e+000 3.441557e+000 3.252477e+000 2.536752e+000 2.803050e+000 2.412119e+000 3.185315e+000 4.940986e-001 3.993996e-001 4.083493e-001 6.305661e-001 6.209127e-001 5.343621e-001 6.778821e-001 6.240368e-001 5.797661e-001 4.803481e-001 5.277917e-001 4.433049e-001 5.303681e-001
<GCONST> 1.315060e+002
<TRANSP> 5
 0.000000e+000 1.000000e+000 0.000000e+000 0.000000e+000 0.000000e+000
 0.000000e+000 6.236376e-001 3.763624e-001 0.000000e+000 0.000000e+000
 0.000000e+000 0.000000e+000 6.236323e-001 3.763677e-001 0.000000e+000
 0.000000e+000 0.000000e+000 0.000000e+000 7.302549e-001 2.697451e-001
 0.000000e+000 0.000000e+000 0.000000e+000 0.000000e+000 0.000000e+000
<ENDHMM>
~h "p"
<BEGINHMM>
<NUMSTATES> 5
<STATE> 2
<MEAN> 39
 -1.075498e+001 -8.638618e-001 6.567020e-001 -2.151585e+000 -3.176578e+000 -1.024249e+000 -5.409727e+000 1.601938e-001 4.429220e-001 1.717340e+000 7.388238e-001 -1.286207e+000 5.288374e+001 -8.431870e-003 7.465391e-003 1.147943e-003 7.941944e-003 4.732095e-003 -6.516852e-003 1.071878e-003 1.726484e-003 -5.297113e-003 7.289405e-004 3.952707e-003 1.797394e-003 -7.586122e-003 -2.804366e-004 -1.373102e-004 -2.025884e-004 9.777318e-005 2.551583e-004 6.834801e-004 5.993078e-004 -7.083036e-005 3.634723e-004 1.170882e-003 -3.091135e-004 -1.837047e-004 -1.485680e-003
<VARIANCE> 39
 7.859592e+001 5.379374e+001 6.199707e+001 7.700300e+001 8.530579e+001 5.910730e+001 7.203698e+001 5.234777e+001 5.443281e+001 3.952303e+001 3.739586e+001 4.107548e+001 1.284950e+002 3.436684e+000 2.477544e+000 2.600775e+000 3.665029e+000 3.545628e+000 3.040941e+000 3.808788e+000 3.376734e+000 3.280973e+000 2.514846e+000 2.793517e+000 2.432544e+000 3.597321e+000 5.293398e-001 4.300443e-001 4.307123e-001 6.537011e-001 6.294358e-001 5.494332e-001 6.758807e-001 6.214041e-001 5.957016e-001 4.822675e-001 5.337610e-001 4.527116e-001 5.841299e-001
<GCONST> 1.318784e+002
<STATE> 3
<MEAN> 39
 -1.077704e+001 -8.436918e-001 6.582097e-001 -2.130801e+000 -3.162710e+000 -1.039010e+000 -5.406830e+000 1.659195e-001 4.325099e-001 1.725487e+000 7.457116e-001 -1.280215e+000 5.285386e+001 -9.379812e-003 7.499258e-003 8.009651e-005 7.793656e-003 5.326548e-003 -5.786898e-003 2.575859e-003 2.936211e-003 -3.628435e-003 3.736655e-003 3.177149e-003 1.013305e-003 -1.125044e-002 -3.126405e-004 -1.375893e-004 -2.608999e-004 -1.597312e-004 7.176637e-006 1.370630e-004 5.482228e-004 4.964088e-004 7.029446e-004 9.382565e-004 -2.755051e-004 -5.075570e-004 -1.269023e-003
<VARIANCE> 39
 7.826621e+001 5.361330e+001 6.197899e+001 7.667770e+001 8.514666e+001 5.900251e+001 7.185950e+001 5.227462e+001 5.447929e+001 3.967135e+001 3.738518e+001 4.106419e+001 1.285291e+002 3.433384e+000 2.470236e+000 2.600141e+000 3.651732e+000 3.547265e+000 3.028024e+000 3.806056e+000 3.374080e+000 3.287849e+000 2.521844e+000 2.798437e+000 2.425565e+000 3.546556e+000 5.290361e-001 4.291126e-001 4.306829e-001 6.519031e-001 6.303817e-001 5.477203e-001 6.750963e-001 6.211976e-001 5.969311e-001 4.835417e-001 5.347546e-001 4.508126e-001 5.794984e-001
<GCONST> 1.318252e+002
<STATE> 4
<MEAN> 39
 -1.099502e+001 -9.381894e-001 5.094014e-001 -2.207986e+000 -3.231073e+000 -1.060019e+000 -5.350402e+000 1.755591e-001 3.875981e-001 1.653072e+000 7.829873e-001 -1.282208e+000 5.256748e+001 -1.034863e-002 7.609268e-003 -4.692498e-004 7.118315e-003 5.587143e-003 -5.466879e-003 3.964572e-003 4.486263e-003 -1.886014e-003 5.317197e-003 2.904831e-003 3.990880e-004 -1.379949e-002 -2.343604e-004 -2.124001e-004 -8.245036e-005 -2.800571e-004 -6.973454e-005 1.277164e-004 4.432788e-004 3.858104e-004 6.278950e-004 3.084527e-004 1.402071e-004 -3.520723e-004 -5.182628e-004
<VARIANCE> 39
 7.799919e+001 5.362416e+001 6.196985e+001 7.604992e+001 8.647900e+001 5.849205e+001 7.101437e+001 5.247868e+001 5.497977e+001 3.999694e+001 3.752397e+001 4.105742e+001 1.280587e+002 3.422131e+000 2.428869e+000 2.590405e+000 3.616497e+000 3.547291e+000 3.000381e+000 3.779322e+000 3.375611e+000 3.307230e+000 2.526766e+000 2.801464e+000 2.416614e+000 3.513880e+000 5.268483e-001 4.231753e-001 4.288268e-001 6.469131e-001 6.303428e-001 5.432537e-001 6.709976e-001 6.210629e-001 5.999519e-001 4.846672e-001 5.346541e-001 4.487853e-001 5.743176e-001
<GCONST> 1.317254e+002
<TRANSP> 5
 0.000000e+000 1.000000e+000 0.000000e+000 0.000000e+000 0.000000e+000
 0.000000e+000 6.237180e-001 3.762820e-001 0.000000e+000 0.000000e+000
 0.000000e+000 0.000000e+000 6.237175e-001 3.762824e-001 0.000000e+000
 0.000000e+000 0.000000e+000 0.000000e+000 7.302833e-001 2.697167e-001
 0.000000e+000 0.000000e+000 0.000000e+000 0.000000e+000 0.000000e+000
<ENDHMM>
~h "r"
<BEGINHMM>
<NUMSTATES> 5
<STATE> 2
<MEAN> 39
 -1.085798e+001 -1.286443e+000 6.868907e-001 -1.934234e+000 -3.498326e+000 -1.149315e+000 -5.196821e+000 4.221096e-001 6.626481e-001 1.665228e+000 7.024029e-001 -1.717908e+000 5.259727e+001 -2.677395e-003 1.328237e-003 1.340486e-003 -1.702217e-003 1.252461e-003 3.031589e-003 3.639490e-003 1.087291e-003 2.587845e-003 3.452969e-003 3.261873e-004 7.299795e-004 -1.353242e-003 -5.967962e-004 -1.753842e-004 -3.590337e-005 -4.912218e-005 -8.069907e-005 -2.109035e-004 2.828251e-004 -6.562511e-005 -1.128746e-004 1.315323e-004 2.062146e-004 2.202411e-004 2.387825e-004
<VARIANCE> 39
 7.693956e+001 5.604496e+001 6.129418e+001 6.910323e+001 8.529707e+001 5.682726e+001 7.376207e+001 5.373003e+001 5.590430e+001 4.008493e+001 3.837634e+001 4.297182e+001 1.396024e+002 3.035653e+000 2.287196e+000 2.364444e+000 3.213162e+000 3.259717e+000 2.839962e+000 3.650955e+000 3.285999e+000 3.143847e+000 2.418642e+000 2.739458e+000 2.395213e+000 3.097363e+000 4.620329e-001 3.874561e-001 3.896218e-001 5.765427e-001 5.676521e-001 5.101318e-001 6.418124e-001 5.922496e-001 5.634120e-001 4.576095e-001 5.200293e-001 4.385836e-001 5.078571e-001
<GCONST> 1.300148e+002
<STATE> 3
<MEAN> 39
 -1.086556e+001 -1.284421e+000 6.914176e-001 -1.938643e+000 -3.496459e+000 -1.142843e+000 -5.188092e+000 4.250885e-001 6.674177e-001 1.673749e+000 7.029484e-001 -1.717490e+000 5.259626e+001 -4.228604e-003 1.051786e-003 1.287407e-003 -1.858778e-003 1.207692e-003 2.818278e-003 4.009400e-003 1.104198e-003 2.316902e-003 3.982023e-003 7.650680e-004 1.145622e-003 -6.493825e-004 -6.592657e-004 -4.044105e-005 2.020632e-005 8.924239e-006 -2.091405e-005 -2.956869e-004 3.823470e-005 -5.334968e-005 7.515809e-006 2.965830e-004 1.489105e-004 1.663212e-004 2.895835e-004
<VARIANCE> 39
 7.701179e+001 5.594326e+001 6.118290e+001 6.912357e+001 8.511208e+001 5.680631e+001 7.384702e+001 5.377483e+001 5.586649e+001 4.010882e+001 3.841878e+001 4.293044e+001 1.395756e+002 3.031805e+000 2.290323e+000 2.366798e+000 3.206075e+000 3.254843e+000 2.843266e+000 3.646272e+000 3.285934e+000 3.136713e+000 2.417279e+000 2.736133e+000 2.392573e+000 3.093387e+000 4.612622e-001 3.882374e-001 3.902267e-001 5.760718e-001 5.671269e-001 5.109860e-001 6.406698e-001 5.921244e-001 5.624952e-001 4.572744e-001 5.196433e-001 4.381037e-001 5.073436e-001
<GCONST> 1.299972e+002
<STATE> 4
<MEAN> 39
 -1.106086e+001 -1.401977e+000 5.413823e-001 -2.028806e+000 -3.588149e+000 -1.150824e+000 -5.143741e+000 4.301645e-001 6.518912e-001 1.599136e+000 7.223147e-001 -1.730179e+000 5.236950e+001 -5.723394e-003 1.112053e-003 1.814373e-003 -2.181339e-003 1.150928e-003 1.944705e-003 4.173965e-003 2.007584e-003 2.828990e-003 4.628137e-003 1.118605e-003 1.282497e-003 3.884441e-004 -5.634287e-004 8.518453e-005 6.202331e-005 -6.634636e-005 -2.411281e-006 -5.363110e-004 4.812222e-006 3.377088e-005 2.085665e-004 2.628477e-004 1.001151e-004 2.300028e-004 3.143122e-004
<VARIANCE> 39
 7.690340e+001 5.606596e+001 6.091055e+001 6.896684e+001 8.620811e+001 5.655717e+001 7.320335e+001 5.373378e+001 5.610076e+001 4.041233e+001 3.859450e+001 4.304558e+001 1.381975e+002 3.029690e+000 2.273743e+000 2.359560e+000 3.187458e+000 3.255038e+000 2.841061e+000 3.624284e+000 3.275883e+000 3.137415e+000 2.410433e+000 2.730098e+000 2.389989e+000 3.096950e+000 4.607141e-001 3.863854e-001 3.890752e-001 5.741323e-001 5.673733e-001 5.108736e-001 6.369091e-001 5.903070e-001 5.629043e-001 4.562114e-001 5.180141e-001 4.376509e-001 5.077551e-001
<GCONST> 1.299417e+002
<TRANSP> 5
 0.000000e+000 1.000000e+000 0.000000e+000 0.000000e+000 0.000000e+000
 0.000000e+000 6.239311e-001 3.760689e-001 0.000000e+000 0.000000e+000
 0.000000e+000 0.000000e+000 6.239352e-001 3.760648e-001 0.000000e+000
 0.000000e+000 0.000000e+000 0.000000e+000 7.303784e-001 2.696216e-001
 0.000000e+000 0.000000e+000 0.000000e+000 0.000000e+000 0.000000e+000
<ENDHMM>
~h "s"
<BEGINHMM>
<NUMSTATES> 5
<STATE> 2
<MEAN> 39
 -1.161500e+001 -7.920367e-001 9.122103e-001 -2.257909e+000 -3.262389e+000 -1.552517e+000 -5.013415e+000 4.156874e-001 3.588705e-001 1.495184e+000 7.176880e-001 -1.563500e+000 5.374100e+001 1.751359e-003 2.058364e-004 6.835533e-003 -1.896572e-003 -4.280302e-003 -5.693519e-003 -2.742982e-003 -3.214483e-003 -4.700063e-003 -1.264469e-003 2.545138e-003 -1.703248e-003 1.078075e-002 -5.852035e-004 4.396416e-004 -1.535961e-004 -7.603921e-005 5.391833e-004 -3.809424e-004 1.633835e-004 4.311769e-004 2.205202e-004 -8.911943e-005 -2.231908e-004 5.784401e-004 -9.200672e-004
<VARIANCE> 39
 8.800648e+001 5.729063e+001 6.204419e+001 7.273190e+001 8.755341e+001 6.064047e+001 7.202203e+001 5.391323e+001 5.585485e+001 4.022686e+001 3.844435e+001 4.255526e+001 1.312738e+002 3.932507e+000 2.523862e+000 2.641268e+000 3.369552e+000 3.561121e+000 2.999096e+000 4.064413e+000 3.554651e+000 3.266294e+000 2.478506e+000 2.748023e+000 2.527385e+000 3.238035e+000 5.772685e-001 4.259882e-001 4.369470e-001 5.964401e-001 6.056077e-001 5.363078e-001 7.061260e-001 6.453578e-001 5.849401e-001 4.738710e-001 5.183952e-001 4.583792e-001 5.345760e-001
<GCONST> 1.321735e+002
<STATE> 3
<MEAN> 39
 -1.161391e+001 -7.892200e-001 9.296185e-001 -2.263335e+000 -3.270474e+000 -1.570758e+000 -5.020347e+000 4.083769e-001 3.474346e-001 1.492646e+000 7.225521e-001 -1.566643e+000 5.376534e+001 2.158027e-004 1.430038e-003 6.434151e-003 -1.752605e-003 -3.296710e-003 -7.025162e-003 -2.685850e-003 -2.733988e-003 -4.430836e-003 -1.596254e-003 1.202439e-003 -5.741949e-004 8.599920e-003 -5.955443e-004 4.297025e-004 -2.073031e-004 1.592591e-005 2.207954e-004 -5.575244e-004 9.554123e-005 2.965155e-004 4.238295e-006 -2.091951e-004 -4.573355e-004 4.295968e-004 -7.963503e-004
<VARIANCE> 39
 8.825374e+001 5.713332e+001 6.219714e+001 7.283000e+001 8.765428e+001 6.077988e+001 7.204169e+001 5.390359e+001 5.589523e+001 4.031371e+001 3.838287e+001 4.254379e+001 1.308414e+002 3.950227e+000 2.526510e+000 2.637610e+000 3.367284e+000 3.562812e+000 3.003096e+000 4.071780e+000 3.550287e+000 3.271812e+000 2.478065e+000 2.748466e+000 2.533720e+000 3.218613e+000 5.795155e-001 4.266075e-001 4.362674e-001 5.960162e-001 6.057465e-001 5.365541e-001 7.065644e-001 6.443678e-001 5.853429e-001 4.732990e-001 5.186498e-001 4.590041e-001 5.327444e-001
<GCONST> 1.321834e+002
<STATE> 4
<MEAN> 39
 -1.180807e+001 -9.014567e-001 8.055510e-001 -2.372027e+000 -3.372841e+000 -1.591658e+000 -4.979380e+000 4.036271e-001 2.967097e-001 1.388858e+000 7.618994e-001 -1.573735e+000 5.353237e+001 -1.825122e-003 2.771910e-003 5.828151e-003 -1.725723e-003 -2.540206e-003 -8.422769e-003 -2.095606e-003 -1.877752e-003 -4.427369e-003 -2.131199e-003 -2.624366e-004 1.745657e-004 7.122659e-003 -5.741043e-004 3.981488e-004 -2.057881e-004 1.834531e-005 9.683063e-005 -4.407133e-004 1.879855e-004 3.571017e-004 -4.719969e-005 -2.368677e-004 -2.681435e-004 3.587479e-004 -4.327241e-004
<VARIANCE> 39
 8.851840e+001 5.683506e+001 6.244049e+001 7.253248e+001 8.952383e+001 6.053416e+001 7.146486e+001 5.395524e+001 5.633156e+001 4.070139e+001 3.850843e+001 4.261592e+001 1.293154e+002 3.964368e+000 2.492512e+000 2.622492e+000 3.344402e+000 3.569981e+000 2.995402e+000 4.055532e+000 3.541977e+000 3.289142e+000 2.473791e+000 2.749259e+000 2.539503e+000 3.196931e+000 5.803753e-001 4.218720e-001 4.335034e-001 5.925780e-001 6.060821e-001 5.350211e-001 7.030993e-001 6.421310e-001 5.869957e-001 4.718186e-001 5.178660e-001 4.593115e-001 5.291327e-001
<GCONST> 1.321309e+002
<TRANSP> 5
 0.000000e+000 1.000000e+000 0.000000e+000 0.000000e+000 0.000000e+000
 0.000000e+000 6.243541e-001 3.756458e-001 0.000000e+000 0.000000e+000
 0.000000e+000 0.000000e+000 6.243495e-001 3.756505e-001 0.000000e+000
 0.000000e+000 0.000000e+000 0.000000e+000 7.310758e-001 2.689242e-001
 0.000000e+000 0.000000e+000 0.000000e+000 0.000000e+000 0.000000e+000
<ENDHMM>
~h "t"
<BEGINHMM>
<NUMSTATES> 5
<STATE> 2
<MEAN> 39
 -1.138098e+001 -7.469945e-001 5.114855e-001 -1.799683e+000 -3.100161e+000 -1.201875e+000 -4.881114e+000 3.666245e-001 8.938531e-001 1.608368e+000 5.681409e-001 -1.155073e+000 5.267953e+001 8.820833e-005 4.970619e-004 6.404897e-004 -7.742952e-004 -6.536203e-004 3.320431e-003 -3.089523e-003 1.398397e-003 4.067252e-003 4.916452e-004 -2.819379e-004 1.627515e-003 2.018585e-004 8.442731e-004 -2.475211e-004 3.469792e-004 -4.152500e-004 -6.499087e-004 -5.271894e-005 -6.058040e-004 5.202871e-004 2.042556e-004 1.328350e-004 -3.510048e-004 -5.667368e-004 -3.220576e-004
<VARIANCE> 39
 7.801128e+001 5.264963e+001 6.045077e+001 7.441458e+001 8.553350e+001 5.761664e+001 6.955357e+001 5.140668e+001 5.351809e+001 3.955382e+001 3.637671e+001 4.090891e+001 1.350081e+002 3.286905e+000 2.301747e+000 2.554621e+000 3.432788e+000 3.359817e+000 2.871084e+000 3.820235e+000 3.341539e+000 3.141551e+000 2.361752e+000 2.670597e+000 2.429310e+000 3.425547e+000 5.090254e-001 3.927491e-001 4.235641e-001 6.103951e-001 5.884130e-001 5.225867e-001 6.796013e-001 6.138436e-001 5.635881e-001 4.529346e-001 5.092137e-001 4.494509e-001 5.750875e-001
<GCONST> 1.306662e+002
<STATE> 3
<MEAN> 39
 -1.137714e+001 -7.476522e-001 5.131789e-001 -1.803529e+000 -3.104154e+000 -1.194775e+000 -4.891003e+000 3.718993e-001 9.044477e-001 1.610461e+000 5.658361e-001 -1.153317e+000 5.268093e+001 1.960334e-003 -1.853263e-004 1.083308e-003 -1.833498e-003 -2.605369e-003 3.119917e-003 -4.397828e-003 1.841696e-003 4.361930e-003 6.289110e-004 -9.210457e-004 3.109601e-004 9.276614e-005 7.323730e-004 -3.027881e-004 2.160447e-004 -3.872368e-004 -6.953546e-004 -1.238682e-004 -4.563913e-004 7.222001e-005 1.795171e-006 1.024359e-004 -2.484530e-004 -6.397920e-004 7.467307e-006
<VARIANCE> 39
 7.797177e+001 5.263968e+001 6.043011e+001 7.439603e+001 8.550346e+001 5.759737e+001 6.952448e+001 5.129118e+001 5.352692e+001 3.949171e+001 3.635988e+001 4.092724e+001 1.350287e+002 3.281782e+000 2.301101e+000 2.558406e+000 3.439275e+000 3.363353e+000 2.875229e+000 3.820136e+000 3.345177e+000 3.147603e+000 2.361872e+000 2.672933e+000 2.432430e+000 3.418962e+000 5.077974e-001 3.925569e-001 4.240738e-001 6.115744e-001 5.891070e-001 5.239847e-001 6.799554e-001 6.143198e-001 5.646023e-001 4.528728e-001 5.095819e-001 4.500437e-001 5.743563e-001
<GCONST> 1.306754e+002
<STATE> 4
<MEAN> 39
 -1.155617e+001 -8.720301e-001 3.658814e-001 -1.917772e+000 -3.196520e+000 -1.197514e+000 -4.874440e+000 3.696711e-001 8.807781e-001 1.517247e+000 5.849001e-001 -1.168824e+000 5.243862e+001 4.159633e-003 -1.220325e-003 1.155168e-003 -3.017126e-003 -4.663323e-003 2.508905e-003 -5.648944e-003 8.313544e-004 3.630632e-003 1.143407e-003 -1.134148e-003 -1.192373e-003 1.806575e-003 7.132276e-004 -3.368264e-004 1.244248e-004 -4.013263e-004 -4.773133e-004 -1.282028e-004 -3.826785e-004 -2.792836e-004 -1.821064e-004 2.223046e-004 -1.272927e-005 -5.788174e-004 4.119230e-004
<VARIANCE> 39
 7.800415e+001 5.275737e+001 6.031949e+001 7.401719e+001 8.704342e+001 5.723416e+001 6.892894e+001 5.116029e+001 5.392274e+001 3.984123e+001 3.656417e+001 4.111545e+001 1.343428e+002 3.273197e+000 2.273011e+000 2.554642e+000 3.433721e+000 3.374789e+000 2.871439e+000 3.804686e+000 3.344666e+000 3.166506e+000 2.361351e+000 2.681386e+000 2.438820e+000 3.425615e+000 5.056792e-001 3.886298e-001 4.230591e-001 6.113753e-001 5.908722e-001 5.234025e-001 6.781350e-001 6.140590e-001 5.671186e-001 4.526540e-001 5.103624e-001 4.510546e-001 5.738730e-001
<GCONST> 1.306748e+002
<TRANSP> 5
 0.000000e+000 1.000000e+000 0.000000e+000 0.000000e+000 0.000000e+000
 0.000000e+000 6.228468e-001 3.771532e-001 0.000000e+000 0.000000e+000
 0.000000e+000 0.000000e+000 6.228465e-001 3.771535e-001 0.000000e+000
 0.000000e+000 0.000000e+000 0.000000e+000 7.292426e-001 2.707574e-001
 0.000000e+000 0.000000e+000 0.000000e+000 0.000000e+000 0.000000e+000
<ENDHMM>
~h "u"
<BEGINHMM>
<NUMSTATES> 5
<STATE> 2
<MEAN> 39
 -1.062345e+001 -6.394133e-001 6.912814e-001 -2.581553e+000 -3.104526e+000 -8.735974e-001 -5.247369e+000 6.206102e-002 -7.322146e-002 1.496228e+000 7.969819e-001 -1.428500e+000 5.275761e+001 -7.719620e-003 4.234364e-003 1.620883e-003 2.797487e-003 6.172165e-003 2.998564e-003 4.138063e-004 4.711544e-003 2.175008e-003 2.100733e-003 2.765635e-003 8.290539e-003 -8.035130e-003 -4.600933e-004 -5.770471e-004 -9.839250e-005 4.178677e-004 -7.468924e-005 -5.404606e-004 -1.252688e-004 -4.016972e-004 2.611529e-004 -9.139031e-007 1.720787e-004 -1.703423e-004 -2.676026e-004
<VARIANCE> 39
 8.527950e+001 5.219811e+001 6.161118e+001 7.887164e+001 8.913486e+001 5.853075e+001 7.431789e+001 5.677206e+001 5.785749e+001 4.215648e+001 3.776099e+001 4.112869e+001 1.292246e+002 3.317358e+000 2.249548e+000 2.467235e+000 3.478583e+000 3.443032e+000 2.907027e+000 3.872204e+000 3.525172e+000 3.246159e+000 2.525442e+000 2.745287e+000 2.368960e+000 2.963324e+000 4.856380e-001 3.816203e-001 4.067411e-001 6.114199e-001 5.955672e-001 5.191125e-001 6.839262e-001 6.380281e-001 5.753789e-001 4.784915e-001 5.193054e-001 4.327873e-001 4.909019e-001
<GCONST> 1.310478e+002
<STATE> 3
<MEAN> 39
 -1.064567e+001 -6.297765e-001 6.945473e-001 -2.574772e+000 -3.087615e+000 -8.655359e-001 -5.244734e+000 7.168031e-002 -6.677195e-002 1.499784e+000 8.057751e-001 -1.406811e+000 5.273328e+001 -9.147707e-003 3.412468e-003 1.742808e-003 3.983707e-003 5.771890e-003 1.504231e-003 2.302439e-004 3.460721e-003 2.421995e-003 2.546715e-003 3.352147e-003 7.125865e-003 -8.932275e-003 -6.938094e-004 -1.182591e-004 5.460826e-005 4.642636e-004 -4.211321e-004 -7.006743e-004 4.381919e-005 -4.292369e-004 -8.292779e-005 2.418292e-004 -1.062942e-004 -6.372858e-004 -2.598521e-004
<VARIANCE> 39
 8.540870e+001 5.212079e+001 6.160899e+001 7.878780e+001 8.891147e+001 5.845122e+001 7.436427e+001 5.668858e+001 5.784548e+001 4.222614e+001 3.757584e+001 4.107557e+001 1.291810e+002 3.315728e+000 2.250580e+000 2.469014e+000 3.481518e+000 3.441702e+000 2.906232e+000 3.878775e+000 3.521985e+000 3.247773e+000 2.531328e+000 2.743148e+000 2.364121e+000 2.944247e+000 4.845738e-001 3.815003e-001 4.071343e-001 6.120274e-001 5.947029e-001 5.185286e-001 6.851277e-001 6.377214e-001 5.760158e-001 4.796722e-001 5.194892e-001 4.319803e-001 4.890068e-001
<GCONST> 1.310285e+002
<STATE> 4
<MEAN> 39
 -1.088133e+001 -7.541566e-001 5.448831e-001 -2.662128e+000 -3.171376e+000 -8.814729e-001 -5.196106e+000 7.243086e-002 -8.943307e-002 1.387788e+000 8.320099e-001 -1.395508e+000 5.244024e+001 -1.130929e-002 3.793551e-003 1.760577e-003 4.570344e-003 5.376585e-003 2.323922e-004 5.550761e-004 1.504944e-003 1.298358e-003 3.448663e-003 3.009976e-003 4.927903e-003 -9.283088e-003 -7.259764e-004 2.014901e-005 -7.356260e-005 3.003810e-004 -3.517948e-004 -3.740381e-004 3.077783e-004 -3.982237e-004 -2.656189e-004 8.830739e-006 -4.265734e-004 -6.414740e-004 7.393087e-005
<VARIANCE> 39
 8.560397e+001 5.226000e+001 6.168762e+001 7.819073e+001 9.012509e+001 5.793749e+001 7.366122e+001 5.664649e+001 5.804680e+001 4.276982e+001 3.747822e+001 4.110147e+001 1.288249e+002 3.309118e+000 2.223500e+000 2.455114e+000 3.464796e+000 3.434661e+000 2.885017e+000 3.863597e+000 3.505691e+000 3.253535e+000 2.537596e+000 2.741536e+000 2.363784e+000 2.925439e+000 4.823404e-001 3.771366e-001 4.044602e-001 6.096160e-001 5.923595e-001 5.139864e-001 6.832110e-001 6.347968e-001 5.769114e-001 4.809761e-001 5.188985e-001 4.315329e-001 4.855997e-001
<GCONST> 1.309360e+002
<TRANSP> 5
 0.000000e+000 1.000000e+000 0.000000e+000 0.000000e+000 0.000000e+000
 0.000000e+000 6.254312e-001 3.745688e-001 0.000000e+000 0.000000e+000
 0.000000e+000 0.000000e+000 6.254311e-001 3.745689e-001 0.000000e+000
 0.000000e+000 0.000000e+000 0.000000e+000 7.325248e-001 2.674752e-001
 0.000000e+000 0.000000e+000 0.000000e+000 0.000000e+000 0.000000e+000
<ENDHMM>
~h "v"
<BEGINHMM>
<NUMSTATES> 5
<STATE> 2
<MEAN> 39
 -1.083756e+001 -1.163873e+000 5.485028e-001 -2.460323e+000 -3.848020e+000 -1.086711e+000 -5.450362e+000 3.751357e-002 2.750462e-001 1.452688e+000 9.473741e-001 -1.745021e+000 5.299424e+001 -4.709131e-003 5.802867e-003 -6.057713e-003 4.377147e-003 1.356805e-003 6.825941e-003 8.014104e-003 2.377814e-003 7.361042e-003 7.216553e-004 2.306349e-003 4.437163e-003 -5.901530e-003 5.823527e-004 -2.811831e-004 1.874379e-004 -4.445424e-004 5.094787e-005 2.818062e-004 -2.876873e-004 -3.147747e-004 -6.272880e-004 -4.886381e-006 6.156637e-004 -1.125356e-004 -1.095536e-003
<VARIANCE> 39
 7.830450e+001 5.327358e+001 6.633555e+001 7.510406e+001 8.914567e+001 5.786308e+001 7.136108e+001 5.294124e+001 5.738200e+001 4.096373e+001 3.756441e+001 4.273319e+001 1.281805e+002 3.087154e+000 2.246160e+000 2.601620e+000 3.297568e+000 3.353970e+000 2.908971e+000 3.635917e+000 3.371066e+000 3.110871e+000 2.419995e+000 2.659597e+000 2.377289e+000 3.121754e+000 4.658380e-001 3.839790e-001 4.171418e-001 5.854457e-001 5.799536e-001 5.217109e-001 6.445175e-001 6.177605e-001 5.572185e-001 4.584287e-001 5.011331e-001 4.326135e-001 5.212691e-001
<GCONST> 1.303879e+002
<STATE> 3
<MEAN> 39
 -1.084662e+001 -1.150026e+000 5.317597e-001 -2.451685e+000 -3.842054e+000 -1.068345e+000 -5.431017e+000 4.289803e-002 2.933136e-001 1.455286e+000 9.536689e-001 -1.733052e+000 5.297069e+001 -3.422425e-003 4.775392e-003 -5.801228e-003 3.792341e-003 1.885102e-003 6.940460e-003 7.304243e-003 1.786561e-003 5.966036e-003 8.296364e-004 2.709794e-003 3.679103e-003 -8.301073e-003 5.303889e-004 -5.886694e-004 9.121781e-005 -1.800322e-004 1.426132e-004 8.250785e-005 -2.594399e-004 -1.643096e-004 -5.110017e-004 -7.261150e-006 1.677984e-005 -3.542013e-004 -9.372342e-004
<VARIANCE> 39
 7.828575e+001 5.318638e+001 6.624524e+001 7.501511e+001 8.910361e+001 5.799023e+001 7.133530e+001 5.300750e+001 5.728144e+001 4.084649e+001 3.750176e+001 4.271338e+001 1.280061e+002 3.078049e+000 2.241992e+000 2.601571e+000 3.288742e+000 3.350427e+000 2.910096e+000 3.631016e+000 3.370983e+000 3.108158e+000 2.419634e+000 2.658237e+000 2.375687e+000 3.089104e+000 4.643667e-001 3.833442e-001 4.172988e-001 5.837530e-001 5.798370e-001 5.222409e-001 6.434873e-001 6.175432e-001 5.566635e-001 4.586850e-001 5.007259e-001 4.328832e-001 5.192289e-001
<GCONST> 1.303427e+002
<STATE> 4
<MEAN> 39
 -1.102525e+001 -1.263065e+000 3.746212e-001 -2.510573e+000 -3.950082e+000 -1.078584e+000 -5.374701e+000 4.164452e-002 2.766592e-001 1.353976e+000 9.883509e-001 -1.744772e+000 5.270327e+001 -2.228982e-003 2.343067e-003 -5.817154e-003 3.362282e-003 2.993670e-003 6.845843e-003 6.723391e-003 1.645021e-003 4.145418e-003 1.284041e-003 1.627825e-003 2.729041e-003 -9.191279e-003 3.409156e-004 -8.637172e-004 6.076077e-005 -9.497438e-006 1.431204e-004 5.780926e-005 -1.079155e-004 7.544281e-005 -4.561290e-004 2.124574e-005 -1.624787e-004 -3.457334e-004 -1.697705e-004
<VARIANCE> 39
 7.819849e+001 5.335614e+001 6.607645e+001 7.443443e+001 9.051025e+001 5.798224e+001 7.069761e+001 5.304302e+001 5.745127e+001 4.100140e+001 3.763122e+001 4.290086e+001 1.273275e+002 3.064164e+000 2.217590e+000 2.593550e+000 3.256881e+000 3.347920e+000 2.900269e+000 3.607627e+000 3.363137e+000 3.112135e+000 2.414505e+000 2.662728e+000 2.376122e+000 3.073187e+000 4.623081e-001 3.795977e-001 4.157670e-001 5.781620e-001 5.795481e-001 5.207894e-001 6.393967e-001 6.151123e-001 5.569109e-001 4.581017e-001 5.005509e-001 4.331903e-001 5.168198e-001
<GCONST> 1.302592e+002
<TRANSP> 5
 0.000000e+000 1.000000e+000 0.000000e+000 0.000000e+000 0.000000e+000
 0.000000e+000 6.252396e-001 3.747604e-001 0.000000e+000 0.000000e+000
 0.000000e+000 0.000000e+000 6.252378e-001 3.747622e-001 0.000000e+000
 0.000000e+000 0.000000e+000 0.000000e+000 7.318521e-001 2.681480e-001
 0.000000e+000 0.000000e+000 0.000000e+000 0.000000e+000 0.000000e+000
<ENDHMM>
~h "x"
<BEGINHMM>
<NUMSTATES> 5
<STATE> 2
<MEAN> 39
 -1.197099e+001 -8.177074e-001 5.634381e-001 -1.647853e+000 -3.346416e+000 -1.738305e+000 -4.185011e+000 3.245258e-001 2.256071e-001 1.625621e+000 7.730468e-001 -1.148635e+000 5.203267e+001 7.504639e-003 -1.371619e-002 -3.492023e-003 -5.151447e-003 1.758647e-002 6.559559e-003 -3.813623e-003 4.467751e-003 -2.207506e-005 9.837855e-003 -8.414273e-004 5.415084e-003 -1.042459e-002 -3.369745e-004 -1.437890e-004 4.435767e-004 -8.800206e-004 5.564296e-004 4.121862e-004 -2.565285e-004 -8.241616e-005 2.558405e-004 1.170938e-003 3.611429e-004 2.926189e-004 7.918831e-004
<VARIANCE> 39
 7.556295e+001 5.568768e+001 6.744223e+001 6.774259e+001 9.112122e+001 5.798962e+001 6.640722e+001 5.336843e+001 5.435936e+001 4.510483e+001 3.874716e+001 4.039791e+001 1.285940e+002 3.268803e+000 2.256736e+000 2.572150e+000 3.185694e+000 3.799418e+000 3.031091e+000 3.565153e+000 3.618404e+000 3.294234e+000 2.730062e+000 2.785537e+000 2.441014e+000 2.960919e+000 4.981811e-001 3.893236e-001 4.158825e-001 5.715949e-001 6.553140e-001 5.508236e-001 6.452233e-001 6.570278e-001 6.028412e-001 5.225218e-001 5.304268e-001 4.454904e-001 4.919416e-001
<GCONST> 1.312519e+002
<STATE> 3
<MEAN> 39
 -1.195613e+001 -8.541645e-001 5.554247e-001 -1.658570e+000 -3.291937e+000 -1.724594e+000 -4.190012e+000 3.403693e-001 2.270770e-001 1.653108e+000 7.697077e-001 -1.134248e+000 5.200389e+001 6.177621e-003 -1.372682e-002 -1.805641e-003 -8.104752e-003 1.857948e-002 7.397852e-003 -4.529276e-003 4.304566e-003 7.396381e-004 1.282304e-002 -4.775326e-005 5.840081e-003 -7.565781e-003 -6.056053e-004 -7.768386e-005 5.726431e-004 -1.460906e-003 6.411637e-005 1.296229e-004 -4.893795e-005 -5.726689e-005 5.598108e-004 1.154364e-003 3.148241e-004 -1.813125e-004 1.036847e-003
<VARIANCE> 39
 7.554762e+001 5.539434e+001 6.719351e+001 6.780848e+001 9.050764e+001 5.762489e+001 6.625571e+001 5.349426e+001 5.417278e+001 4.490014e+001 3.853568e+001 4.029623e+001 1.291556e+002 3.247905e+000 2.248051e+000 2.568021e+000 3.198459e+000 3.791867e+000 3.031316e+000 3.546976e+000 3.617200e+000 3.289989e+000 2.720134e+000 2.789483e+000 2.430916e+000 2.956113e+000 4.958565e-001 3.880078e-001 4.155307e-001 5.736117e-001 6.542661e-001 5.515063e-001 6.421781e-001 6.572151e-001 6.035393e-001 5.209947e-001 5.321220e-001 4.445817e-001 4.916006e-001
<GCONST> 1.311831e+002
<STATE> 4
<MEAN> 39
 -1.213572e+001 -1.060335e+000 3.828031e-001 -1.760545e+000 -3.350742e+000 -1.744182e+000 -4.143104e+000 3.585498e-001 2.072863e-001 1.565516e+000 7.966046e-001 -1.119624e+000 5.172464e+001 2.599587e-003 -1.365121e-002 2.068676e-004 -1.213212e-002 1.888526e-002 7.388429e-003 -3.599676e-003 5.033212e-003 2.181199e-003 1.494587e-002 -3.389763e-004 4.548420e-003 -4.035376e-003 -8.416069e-004 -1.582793e-004 5.445460e-004 -1.926631e-003 -1.130841e-003 9.223612e-005 2.788558e-004 2.555079e-004 7.568670e-004 4.966567e-004 -1.124377e-004 -1.078355e-003 1.355206e-003
<VARIANCE> 39
 7.522710e+001 5.559576e+001 6.680426e+001 6.744950e+001 9.146727e+001 5.703865e+001 6.540355e+001 5.366023e+001 5.410858e+001 4.525470e+001 3.855340e+001 4.026833e+001 1.295179e+002 3.203184e+000 2.207221e+000 2.552427e+000 3.200349e+000 3.776357e+000 3.015899e+000 3.500585e+000 3.597043e+000 3.286486e+000 2.702363e+000 2.793730e+000 2.408339e+000 2.942981e+000 4.896907e-001 3.809117e-001 4.138005e-001 5.747064e-001 6.508812e-001 5.495552e-001 6.341733e-001 6.536252e-001 6.040756e-001 5.175080e-001 5.325566e-001 4.407288e-001 4.886542e-001
<GCONST> 1.310058e+002
<TRANSP> 5
 0.000000e+000 1.000000e+000 0.000000e+000 0.000000e+000 0.000000e+000
 0.000000e+000 6.252213e-001 3.747787e-001 0.000000e+000 0.000000e+000
 0.000000e+000 0.000000e+000 6.252227e-001 3.747773e-001 0.000000e+000
 0.000000e+000 0.000000e+000 0.000000e+000 7.317654e-001 2.682346e-001
 0.000000e+000 0.000000e+000 0.000000e+000 0.000000e+000 0.000000e+000
<ENDHMM>
~h "y"
<BEGINHMM>
<NUMSTATES> 5
<STATE> 2
<MEAN> 39
 -1.158288e+001 -1.341040e+000 1.293019e+000 -2.353510e+000 -4.671217e+000 -1.790316e+000 -5.194964e+000 2.198793e-001 1.745341e-001 1.052919e+000 1.034483e+000 -1.767980e+000 5.335054e+001 1.116478e-002 -2.191301e-003 3.432906e-003 -8.712538e-003 -1.011177e-002 -1.070355e-002 -3.830445e-003 -2.439469e-003 -1.261244e-002 -5.254607e-003 4.510341e-003 -2.741722e-003 2.256945e-002 8.549397e-004 -6.325594e-005 4.510137e-004 -8.330362e-005 -1.137621e-003 -5.468468e-004 -8.823357e-004 4.780217e-004 -4.018285e-004 -3.905348e-004 2.626702e-004 -3.271541e-004 4.998852e-004
<VARIANCE> 39
 8.391781e+001 5.376141e+001 6.804043e+001 7.068799e+001 1.015204e+002 5.887173e+001 7.192031e+001 5.488392e+001 5.661445e+001 4.227139e+001 3.952269e+001 4.153873e+001 1.272812e+002 3.253353e+000 2.288236e+000 2.600595e+000 3.195867e+000 3.615317e+000 2.904434e+000 3.805974e+000 3.547215e+000 3.167963e+000 2.442350e+000 2.759897e+000 2.371793e+000 3.157058e+000 4.876299e-001 3.862510e-001 4.140115e-001 5.611666e-001 6.082327e-001 5.179929e-001 6.637229e-001 6.436327e-001 5.659432e-001 4.622534e-001 5.128004e-001 4.293716e-001 5.132104e-001
<GCONST> 1.310746e+002
<STATE> 3
<MEAN> 39
 -1.154943e+001 -1.346745e+000 1.303374e+000 -2.377111e+000 -4.704483e+000 -1.818617e+000 -5.209339e+000 2.145843e-001 1.411785e-001 1.038370e+000 1.052519e+000 -1.775564e+000 5.341239e+001 1.314526e-002 -2.708944e-003 4.506317e-003 -8.871151e-003 -1.279036e-002 -1.211127e-002 -5.941403e-003 -7.977762e-004 -1.304338e-002 -6.050715e-003 5.294915e-003 -3.633005e-003 2.405580e-002 6.802665e-004 -1.205419e-004 3.679311e-004 -9.395947e-005 -9.397818e-004 -5.089832e-004 -8.109352e-004 6.837317e-004 -1.204509e-004 -4.121929e-004 2.079338e-004 -3.608231e-004 5.291370e-004
<VARIANCE> 39
 8.413834e+001 5.388232e+001 6.807805e+001 7.086954e+001 1.021440e+002 5.911266e+001 7.174377e+001 5.495699e+001 5.694700e+001 4.242065e+001 3.981516e+001 4.169147e+001 1.270740e+002 3.251113e+000 2.295802e+000 2.609063e+000 3.200566e+000 3.630992e+000 2.906092e+000 3.805738e+000 3.546447e+000 3.175258e+000 2.451650e+000 2.769761e+000 2.378993e+000 3.167014e+000 4.871253e-001 3.871741e-001 4.151917e-001 5.609447e-001 6.109467e-001 5.180069e-001 6.631327e-001 6.426396e-001 5.663440e-001 4.640239e-001 5.137721e-001 4.305029e-001 5.140607e-001
<GCONST> 1.311548e+002
<STATE> 4
<MEAN> 39
 -1.172376e+001 -1.492899e+000 1.174204e+000 -2.490148e+000 -4.917443e+000 -1.893143e+000 -5.187377e+000 1.981823e-001 6.690341e-002 8.874422e-001 1.121129e+000 -1.808513e+000 5.324258e+001 1.454572e-002 -3.378707e-003 5.371084e-003 -8.944377e-003 -1.516181e-002 -1.293987e-002 -7.582482e-003 1.952684e-003 -1.235318e-002 -6.503880e-003 6.229666e-003 -4.914347e-003 2.505709e-002 2.941622e-004 -6.056398e-005 2.995055e-004 -4.972868e-005 -5.639129e-004 -4.353701e-004 -4.576546e-004 8.352980e-004 7.947874e-005 -3.275177e-004 -8.949389e-005 -4.231729e-004 2.671089e-004
<VARIANCE> 39
 8.434172e+001 5.422357e+001 6.814387e+001 7.053786e+001 1.053387e+002 5.910888e+001 7.079937e+001 5.514352e+001 5.760003e+001 4.314484e+001 4.040046e+001 4.198075e+001 1.259482e+002 3.247607e+000 2.275530e+000 2.608054e+000 3.184948e+000 3.659286e+000 2.889375e+000 3.780518e+000 3.546116e+000 3.188217e+000 2.459272e+000 2.784804e+000 2.386300e+000 3.164843e+000 4.862432e-001 3.838332e-001 4.146590e-001 5.576394e-001 6.146020e-001 5.144934e-001 6.585957e-001 6.413820e-001 5.671327e-001 4.655366e-001 5.147454e-001 4.314523e-001 5.125068e-001
<GCONST> 1.311950e+002
<TRANSP> 5
 0.000000e+000 1.000000e+000 0.000000e+000 0.000000e+000 0.000000e+000
 0.000000e+000 6.276972e-001 3.723028e-001 0.000000e+000 0.000000e+000
 0.000000e+000 0.000000e+000 6.276903e-001 3.723098e-001 0.000000e+000
 0.000000e+000 0.000000e+000 0.000000e+000 7.352132e-001 2.647868e-001
 0.000000e+000 0.000000e+000 0.000000e+000 0.000000e+000 0.000000e+000
<ENDHMM>
~h "z"
<BEGINHMM>
<NUMSTATES> 5
<STATE> 2
<MEAN> 39
 -1.106378e+001 -3.711016e-001 8.745809e-001 -2.718598e+000 -2.900941e+000 -1.343127e+000 -5.440012e+000 -1.663414e-002 4.432232e-001 1.763897e+000 5.918942e-001 -1.375192e+000 5.330379e+001 -3.121374e-003 9.775262e-003 -2.047695e-003 -2.224626e-003 8.933722e-003 1.224445e-002 -9.201119e-003 -2.856394e-003 4.192874e-003 1.452982e-002 5.935357e-003 3.019207e-003 -1.595083e-002 -1.423700e-003 -9.560375e-005 1.489837e-004 7.585193e-004 4.317740e-004 -1.525279e-003 8.604720e-004 -1.595504e-004 5.229323e-004 1.764050e-004 -1.307450e-004 8.890356e-004 3.151728e-004
<VARIANCE> 39
 7.913387e+001 5.619167e+001 6.268477e+001 8.189704e+001 9.106877e+001 6.048200e+001 7.401624e+001 5.492117e+001 5.538422e+001 4.410300e+001 3.872686e+001 4.145255e+001 1.285317e+002 3.387892e+000 2.527895e+000 2.501571e+000 3.328564e+000 3.472936e+000 2.898690e+000 3.725599e+000 3.560246e+000 3.119381e+000 2.552932e+000 2.711587e+000 2.456780e+000 2.718263e+000 5.044094e-001 4.141773e-001 4.077066e-001 5.890775e-001 5.924139e-001 5.178211e-001 6.501483e-001 6.386024e-001 5.641173e-001 4.849414e-001 5.066871e-001 4.524166e-001 4.463305e-001
<GCONST> 1.310867e+002
<STATE> 3
<MEAN> 39
 -1.107807e+001 -3.468044e-001 8.703219e-001 -2.722422e+000 -2.872108e+000 -1.321447e+000 -5.462591e+000 -2.228617e-002 4.561834e-001 1.804743e+000 6.049006e-001 -1.364958e+000 5.326262e+001 -6.698933e-003 8.793628e-003 -2.316565e-003 -1.365881e-003 9.784775e-003 7.320760e-003 -7.413194e-003 -2.302063e-003 5.944642e-003 1.562584e-002 5.032344e-003 4.943157e-003 -1.495882e-002 -1.180385e-003 -3.132266e-004 -1.622475e-005 3.967246e-004 1.584531e-004 -1.890007e-003 6.218741e-004 1.406241e-004 4.125093e-004 6.338263e-005 -5.801570e-004 6.166070e-004 4.962185e-004
<VARIANCE> 39
 7.935010e+001 5.601313e+001 6.221527e+001 8.170555e+001 9.064204e+001 6.020581e+001 7.427083e+001 5.480832e+001 5.521684e+001 4.394931e+001 3.854139e+001 4.127603e+001 1.288936e+002 3.390027e+000 2.522124e+000 2.506507e+000 3.331921e+000 3.483271e+000 2.888592e+000 3.726029e+000 3.550655e+000 3.117121e+000 2.547292e+000 2.709969e+000 2.451086e+000 2.712188e+000 5.049102e-001 4.131807e-001 4.093332e-001 5.900543e-001 5.947781e-001 5.164809e-001 6.503423e-001 6.370012e-001 5.641589e-001 4.840952e-001 5.069432e-001 4.512030e-001 4.452165e-001
<GCONST> 1.310429e+002
<STATE> 4
<MEAN> 39
 -1.130193e+001 -4.563148e-001 7.317474e-001 -2.802516e+000 -2.954678e+000 -1.341914e+000 -5.436619e+000 -2.953599e-002 4.582431e-001 1.740826e+000 6.499701e-001 -1.354091e+000 5.297054e+001 -1.004537e-002 8.139781e-003 -3.030337e-003 3.542555e-004 1.178446e-002 2.335973e-003 -6.355335e-003 -1.861781e-003 6.658765e-003 1.522043e-002 1.787019e-003 5.884455e-003 -1.376446e-002 -8.348122e-004 -1.641155e-004 -1.335176e-004 6.680098e-004 1.928767e-004 -1.197103e-003 5.419858e-004 -4.033283e-005 1.315382e-004 -4.822842e-004 -8.958505e-004 3.148298e-004 4.713506e-004
<VARIANCE> 39
 7.961526e+001 5.591279e+001 6.145391e+001 8.081598e+001 9.208630e+001 5.952766e+001 7.420753e+001 5.471241e+001 5.537432e+001 4.425014e+001 3.865303e+001 4.113271e+001 1.286251e+002 3.389191e+000 2.479188e+000 2.497224e+000 3.309369e+000 3.502603e+000 2.860117e+000 3.712071e+000 3.528956e+000 3.118868e+000 2.535685e+000 2.715214e+000 2.440976e+000 2.702357e+000 5.054320e-001 4.064335e-001 4.082067e-001 5.867799e-001 5.980236e-001 5.118403e-001 6.475774e-001 6.331384e-001 5.641586e-001 4.818458e-001 5.080113e-001 4.487530e-001 4.432126e-001
<GCONST> 1.309278e+002
<TRANSP> 5
 0.000000e+000 1.000000e+000 0.000000e+000 0.000000e+000 0.000000e+000
 0.000000e+000 6.249087e-001 3.750913e-001 0.000000e+000 0.000000e+000
 0.000000e+000 0.000000e+000 6.249095e-001 3.750905e-001 0.000000e+000
 0.000000e+000 0.000000e+000 0.000000e+000 7.317569e-001 2.682432e-001
 0.000000e+000 0.000000e+000 0.000000e+000 0.000000e+000 0.000000e+000
<ENDHMM>
~h "aa"
<BEGINHMM>
<NUMSTATES> 5
<STATE> 2
<MEAN> 39
 -1.060019e+001 -2.088320e+000 -1.895999e-001 -3.429139e+000 -3.473071e+000 -1.007498e+000 -5.260651e+000 4.065697e-001 5.322242e-001 1.209779e+000 1.543500e-001 -2.440643e+000 5.391140e+001 1.025542e-002 -4.837896e-003 -5.200866e-003 -7.117381e-003 -8.088045e-004 8.495396e-003 -6.730447e-003 -4.224628e-003 2.876592e-003 3.811856e-003 -6.872051e-004 -7.058312e-003 2.468152e-003 1.599822e-004 -5.190055e-004 1.849007e-004 -1.166485e-004 -4.078414e-004 -2.591363e-004 1.300514e-004 -4.799441e-004 -3.212075e-004 -2.319157e-004 5.439793e-005 2.122376e-005 6.365392e-004
<VARIANCE> 39
 8.389984e+001 6.420998e+001 6.491350e+001 7.776601e+001 9.029420e+001 5.761979e+001 6.827970e+001 5.525753e+001 5.772534e+001 4.208017e+001 4.014761e+001 4.834854e+001 1.391745e+002 3.280712e+000 2.599313e+000 2.612276e+000 3.549871e+000 3.510112e+000 3.063386e+000 3.742116e+000 3.519953e+000 3.224803e+000 2.532049e+000 2.861792e+000 2.615561e+000 3.357497e+000 4.949950e-001 4.247269e-001 4.258906e-001 6.268244e-001 6.166317e-001 5.493139e-001 6.610643e-001 6.410505e-001 5.765481e-001 4.778827e-001 5.373929e-001 4.713405e-001 5.481762e-001
<GCONST> 1.324533e+002
<STATE> 3
<MEAN> 39
 -1.057483e+001 -2.103972e+000 -2.043260e-001 -3.448826e+000 -3.474277e+000 -9.846044e-001 -5.277254e+000 3.963838e-001 5.380528e-001 1.218691e+000 1.511246e-001 -2.459645e+000 5.392214e+001 1.047579e-002 -5.753894e-003 -4.703647e-003 -7.170965e-003 -1.965249e-003 7.597191e-003 -5.683835e-003 -4.998450e-003 1.543340e-003 2.275317e-003 -5.460615e-004 -6.703246e-003 3.929324e-003 1.211267e-004 -3.151612e-004 1.366474e-004 5.028540e-006 -3.029199e-004 -2.780767e-004 4.548995e-004 -3.202014e-004 -5.293055e-004 -5.210240e-004 -1.581582e-004 1.161231e-004 5.211674e-004
<VARIANCE> 39
 8.397435e+001 6.423120e+001 6.513956e+001 7.820118e+001 9.020188e+001 5.745683e+001 6.815370e+001 5.531422e+001 5.760595e+001 4.203568e+001 4.013584e+001 4.842226e+001 1.389002e+002 3.278946e+000 2.603740e+000 2.615015e+000 3.552112e+000 3.502822e+000 3.055060e+000 3.737366e+000 3.526638e+000 3.217443e+000 2.527471e+000 2.862647e+000 2.608046e+000 3.363139e+000 4.942374e-001 4.257244e-001 4.262397e-001 6.265819e-001 6.152699e-001 5.480402e-001 6.612282e-001 6.425800e-001 5.751610e-001 4.773277e-001 5.376951e-001 4.701553e-001 5.492858e-001
<GCONST> 1.324446e+002
<STATE> 4
<MEAN> 39
 -1.074001e+001 -2.262761e+000 -3.875385e-001 -3.552809e+000 -3.599671e+000 -9.740216e-001 -5.231956e+000 3.834710e-001 5.277766e-001 1.121269e+000 1.827178e-001 -2.515602e+000 5.369568e+001 9.884602e-003 -6.271827e-003 -4.329765e-003 -6.874584e-003 -2.817431e-003 6.494741e-003 -3.976111e-003 -4.644558e-003 -5.206330e-004 -1.475192e-004 -1.025586e-003 -6.326906e-003 5.461877e-003 3.748685e-005 -1.045371e-004 1.387662e-004 2.542016e-004 -8.120545e-006 -1.845524e-004 4.814962e-004 -9.874046e-005 -5.647455e-004 -6.081943e-004 -2.418730e-004 -3.474041e-005 3.181578e-004
<VARIANCE> 39
 8.393439e+001 6.439524e+001 6.543781e+001 7.799908e+001 9.182442e+001 5.700397e+001 6.728444e+001 5.540677e+001 5.781181e+001 4.220933e+001 4.019252e+001 4.891086e+001 1.377915e+002 3.270003e+000 2.577056e+000 2.609495e+000 3.519567e+000 3.488723e+000 3.030212e+000 3.700140e+000 3.526099e+000 3.217701e+000 2.513415e+000 2.861632e+000 2.594190e+000 3.360662e+000 4.923046e-001 4.224339e-001 4.249818e-001 6.209612e-001 6.120479e-001 5.433299e-001 6.558836e-001 6.434327e-001 5.748351e-001 4.753503e-001 5.366825e-001 4.670395e-001 5.488531e-001
<GCONST> 1.323415e+002
<TRANSP> 5
 0.000000e+000 1.000000e+000 0.000000e+000 0.000000e+000 0.000000e+000
 0.000000e+000 6.280727e-001 3.719273e-001 0.000000e+000 0.000000e+000
 0.000000e+000 0.000000e+000 6.280736e-001 3.719265e-001 0.000000e+000
 0.000000e+000 0.000000e+000 0.000000e+000 7.353752e-001 2.646248e-001
 0.000000e+000 0.000000e+000 0.000000e+000 0.000000e+000 0.000000e+000
<ENDHMM>
~h "ch"
<BEGINHMM>
<NUMSTATES> 5
<STATE> 2
<MEAN> 39
 -1.271470e+001 -1.023078e+000 1.247100e+000 -1.989080e+000 -3.643132e+000 -9.039800e-001 -4.088708e+000 4.781311e-001 -1.399374e-001 1.165703e+000 1.235762e+000 -1.252333e+000 5.079181e+001 1.260567e-002 2.430757e-003 -3.395075e-003 -7.998577e-003 -1.958376e-002 -9.440772e-003 -1.197163e-002 2.601106e-004 -4.013296e-003 -3.915934e-003 8.057068e-003 3.206011e-003 1.995839e-002 -8.423138e-005 -7.651918e-004 -9.197720e-004 -1.535048e-003 -4.370587e-004 -7.307061e-004 -8.567078e-005 3.961698e-004 1.476805e-003 -8.438386e-004 -7.107772e-004 5.317184e-005 1.458627e-003
<VARIANCE> 39
 8.586971e+001 4.770084e+001 6.144260e+001 6.469257e+001 8.550362e+001 5.487366e+001 6.676375e+001 4.890332e+001 5.561048e+001 3.948758e+001 3.554420e+001 3.696327e+001 1.286217e+002 3.897880e+000 2.134378e+000 2.587942e+000 3.076285e+000 3.593032e+000 3.012843e+000 3.616220e+000 3.292723e+000 3.203468e+000 2.424223e+000 2.602091e+000 2.383915e+000 2.960872e+000 5.750074e-001 3.719168e-001 4.323076e-001 5.605824e-001 6.353828e-001 5.526468e-001 6.369569e-001 6.111703e-001 5.709851e-001 4.645961e-001 4.867493e-001 4.364063e-001 5.126868e-001
<GCONST> 1.300777e+002
<STATE> 3
<MEAN> 39
 -1.267941e+001 -1.018488e+000 1.231915e+000 -2.014935e+000 -3.697509e+000 -9.304197e-001 -4.120798e+000 4.778484e-001 -1.413276e-001 1.152110e+000 1.252570e+000 -1.247638e+000 5.085625e+001 1.230440e-002 -1.095178e-004 -4.770000e-003 -1.089404e-002 -1.983855e-002 -1.025626e-002 -1.180868e-002 1.967990e-003 3.058396e-004 -5.231789e-003 5.976548e-003 1.150593e-003 2.464587e-002 -2.274734e-004 -9.413916e-004 -5.888097e-004 -8.595922e-004 5.716981e-005 -1.416312e-004 3.921070e-004 8.701908e-004 1.639873e-003 -2.346663e-004 -4.917084e-004 -8.987836e-004 1.337258e-003
<VARIANCE> 39
 8.624671e+001 4.775177e+001 6.139742e+001 6.481909e+001 8.564629e+001 5.532598e+001 6.717943e+001 4.911467e+001 5.586405e+001 3.961694e+001 3.541388e+001 3.733496e+001 1.285894e+002 3.881130e+000 2.139982e+000 2.584059e+000 3.089810e+000 3.570951e+000 3.017820e+000 3.626331e+000 3.295813e+000 3.219286e+000 2.409946e+000 2.594515e+000 2.389074e+000 2.961477e+000 5.724836e-001 3.727276e-001 4.317180e-001 5.622041e-001 6.306299e-001 5.532943e-001 6.388677e-001 6.114052e-001 5.742752e-001 4.613989e-001 4.857394e-001 4.371599e-001 5.108961e-001
<GCONST> 1.301089e+002
<STATE> 4
<MEAN> 39
 -1.277073e+001 -1.121776e+000 1.108397e+000 -2.118931e+000 -3.855914e+000 -9.578814e-001 -4.120560e+000 4.679900e-001 -1.782596e-001 1.053177e+000 1.292246e+000 -1.270596e+000 5.076398e+001 1.289860e-002 -3.648023e-003 -4.907003e-003 -1.380395e-002 -1.915461e-002 -9.165177e-003 -1.138198e-002 3.748190e-003 4.920752e-003 -6.273177e-003 4.214386e-003 -2.296305e-003 2.940951e-002 -2.284665e-004 -9.074492e-004 -2.937850e-005 -7.290796e-004 4.491989e-004 2.783922e-004 5.480031e-004 8.503404e-004 1.168008e-003 -2.807236e-005 -2.425592e-004 -9.792953e-004 8.557706e-004
<VARIANCE> 39
 8.693782e+001 4.792545e+001 6.147843e+001 6.458922e+001 8.707568e+001 5.548389e+001 6.753547e+001 4.946660e+001 5.644028e+001 4.002774e+001 3.543992e+001 3.784507e+001 1.276929e+002 3.853270e+000 2.135194e+000 2.579379e+000 3.096758e+000 3.552388e+000 3.016261e+000 3.640816e+000 3.294669e+000 3.257078e+000 2.391271e+000 2.592217e+000 2.399674e+000 2.967060e+000 5.672020e-001 3.722031e-001 4.309794e-001 5.623349e-001 6.251898e-001 5.524817e-001 6.413470e-001 6.103972e-001 5.812249e-001 4.569502e-001 4.854049e-001 4.390629e-001 5.101778e-001
<GCONST> 1.301607e+002
<TRANSP> 5
 0.000000e+000 1.000000e+000 0.000000e+000 0.000000e+000 0.000000e+000
 0.000000e+000 6.311041e-001 3.688960e-001 0.000000e+000 0.000000e+000
 0.000000e+000 0.000000e+000 6.311044e-001 3.688956e-001 0.000000e+000
 0.000000e+000 0.000000e+000 0.000000e+000 7.377641e-001 2.622359e-001
 0.000000e+000 0.000000e+000 0.000000e+000 0.000000e+000 0.000000e+000
<ENDHMM>
~h "dg"
<BEGINHMM>
<NUMSTATES> 5
<STATE> 2
<MEAN> 39
 -1.112712e+001 -2.028940e+000 2.466473e+000 1.683430e+000 -2.541179e+000 6.461890e-001 -2.567431e+000 1.869285e+000 1.724430e+000 2.375182e+000 1.635404e+000 -1.120129e-001 4.795681e+001 5.148812e-002 -3.965789e-002 1.273299e-002 -4.952739e-002 -6.871225e-002 -2.583511e-002 -4.545715e-002 1.342403e-002 -1.434393e-002 7.056993e-002 1.039261e-001 -1.518744e-002 8.333006e-002 -8.527355e-003 5.244040e-003 -2.109033e-003 -3.473511e-003 1.459038e-003 -1.313449e-003 8.802074e-004 1.495250e-002 1.219019e-002 1.245264e-002 -3.059457e-005 4.852069e-003 1.122374e-003
<VARIANCE> 39
 7.458885e+001 5.778044e+001 5.176348e+001 3.488591e+001 5.570866e+001 5.438225e+001 8.599917e+001 4.558893e+001 4.754846e+001 3.580238e+001 4.052148e+001 3.597824e+001 2.065904e+002 1.757052e+000 1.966562e+000 1.931219e+000 1.593102e+000 2.295537e+000 2.216223e+000 3.123321e+000 2.312790e+000 2.640500e+000 2.204222e+000 2.503934e+000 1.979080e+000 2.118346e+000 2.521913e-001 3.326786e-001 3.431744e-001 2.968125e-001 4.393049e-001 4.166550e-001 5.398306e-001 4.055468e-001 5.209621e-001 4.246766e-001 4.980211e-001 4.057716e-001 3.489446e-001
<GCONST> 1.218306e+002
<STATE> 3
<MEAN> 39
 -1.104332e+001 -2.102357e+000 2.475733e+000 1.547271e+000 -2.676649e+000 5.939280e-001 -2.663188e+000 1.969100e+000 1.766850e+000 2.570203e+000 1.851243e+000 -1.444418e-001 4.812922e+001 3.553060e-002 -3.257879e-002 1.220571e-002 -6.111283e-002 -5.955319e-002 -2.047423e-002 -4.559788e-002 3.385702e-002 1.831794e-002 7.077766e-002 7.488355e-002 -1.607175e-002 8.326018e-002 -6.796037e-003 3.947425e-003 5.912385e-004 -2.243837e-003 4.358217e-003 2.278067e-003 7.959932e-004 4.211364e-003 9.736430e-003 -2.250397e-003 -1.222640e-002 -6.528990e-005 -2.659475e-003
<VARIANCE> 39
 7.702010e+001 5.757997e+001 5.237500e+001 3.559447e+001 5.546896e+001 5.436863e+001 8.644962e+001 4.645697e+001 4.792386e+001 3.594944e+001 3.959523e+001 3.615360e+001 2.124493e+002 1.766256e+000 1.941790e+000 1.876408e+000 1.570504e+000 2.317044e+000 2.232939e+000 3.003497e+000 2.347751e+000 2.613863e+000 2.245493e+000 2.436576e+000 1.993462e+000 2.047258e+000 2.552832e-001 3.307091e-001 3.381777e-001 2.931026e-001 4.482825e-001 4.207679e-001 5.152926e-001 4.148744e-001 5.206237e-001 4.301437e-001 4.814270e-001 4.067892e-001 3.375803e-001
<GCONST> 1.217616e+002
<STATE> 4
<MEAN> 39
 -1.146240e+001 -2.204207e+000 2.162800e+000 1.396863e+000 -2.641173e+000 7.430247e-001 -2.487850e+000 2.107260e+000 1.959588e+000 2.681817e+000 2.038820e+000 -1.254329e-002 4.752741e+001 1.923819e-002 -1.919262e-002 1.668382e-002 -5.736568e-002 -4.376108e-002 -1.368528e-003 -3.639964e-002 1.254240e-002 2.718808e-002 4.289317e-002 2.610792e-002 -1.325316e-002 6.174101e-002 -4.830600e-003 4.588440e-003 2.403922e-003 9.480425e-004 2.497733e-003 3.153356e-003 2.927519e-003 -7.237147e-003 7.368471e-004 -5.967664e-003 -1.186971e-002 2.306866e-003 -5.381058e-003
<VARIANCE> 39
 7.737112e+001 5.666552e+001 5.228046e+001 3.619121e+001 5.646647e+001 5.365126e+001 8.534060e+001 4.860166e+001 4.759999e+001 3.680355e+001 3.858614e+001 3.597853e+001 2.107731e+002 1.701940e+000 1.848065e+000 1.741098e+000 1.498401e+000 2.280391e+000 2.165809e+000 2.848636e+000 2.348444e+000 2.546783e+000 2.297358e+000 2.314077e+000 1.971660e+000 1.854570e+000 2.472840e-001 3.214423e-001 3.183901e-001 2.800757e-001 4.456753e-001 4.090023e-001 4.946500e-001 4.186377e-001 5.116006e-001 4.418094e-001 4.552741e-001 4.007592e-001 3.099250e-001
<GCONST> 1.209286e+002
<TRANSP> 5
 0.000000e+000 1.000000e+000 0.000000e+000 0.000000e+000 0.000000e+000
 0.000000e+000 6.247836e-001 3.752163e-001 0.000000e+000 0.000000e+000
 0.000000e+000 0.000000e+000 6.247837e-001 3.752163e-001 0.000000e+000
 0.000000e+000 0.000000e+000 0.000000e+000 7.342936e-001 2.657063e-001
 0.000000e+000 0.000000e+000 0.000000e+000 0.000000e+000 0.000000e+000
<ENDHMM>
~h "dj"
<BEGINHMM>
<NUMSTATES> 5
<STATE> 2
<MEAN> 39
 -1.198562e+001 -8.564405e-001 1.100457e+000 -2.444521e+000 -3.929605e+000 -9.511638e-001 -4.868962e+000 3.822430e-001 -3.010766e-001 6.414149e-001 1.612859e+000 -1.452809e+000 5.046323e+001 7.094663e-003 -6.048860e-003 -1.730996e-002 -7.503042e-003 2.159495e-002 8.655444e-003 -5.758570e-003 -1.669284e-003 1.375125e-002 5.679946e-003 2.213828e-003 -8.357585e-003 1.099923e-002 -3.961764e-004 -1.410243e-003 2.664152e-004 5.107784e-005 -1.429926e-003 -2.921397e-004 1.243438e-003 -8.553917e-004 -1.917538e-003 -3.616437e-005 5.696987e-004 1.577737e-003 5.502288e-004
<VARIANCE> 39
 7.559631e+001 4.549630e+001 6.543492e+001 7.155925e+001 9.625886e+001 5.460096e+001 7.021340e+001 5.188124e+001 6.038229e+001 4.447043e+001 3.522053e+001 3.817305e+001 1.353709e+002 2.831391e+000 1.894759e+000 2.604634e+000 2.897006e+000 3.542736e+000 2.801631e+000 3.366140e+000 3.075248e+000 2.985670e+000 2.401155e+000 2.635847e+000 2.238333e+000 2.568221e+000 4.174674e-001 3.201351e-001 4.174184e-001 5.208842e-001 6.288382e-001 5.097557e-001 5.955812e-001 5.644006e-001 5.379201e-001 4.458678e-001 4.997536e-001 4.177375e-001 4.236672e-001
<GCONST> 1.284482e+002
<STATE> 3
<MEAN> 39
 -1.197107e+001 -8.716747e-001 1.057245e+000 -2.462360e+000 -3.872401e+000 -9.297646e-001 -4.880770e+000 3.712963e-001 -2.637281e-001 6.573852e-001 1.618609e+000 -1.469896e+000 5.049345e+001 6.182032e-003 -8.165878e-003 -1.509046e-002 -6.939277e-003 1.702787e-002 5.292804e-003 -4.330711e-003 -1.905494e-003 1.140545e-002 5.251229e-003 2.829327e-003 -5.011257e-003 1.165136e-002 -2.589442e-004 -6.525391e-004 1.108547e-003 3.850469e-004 -2.505715e-003 -1.608431e-003 2.218589e-004 -2.657105e-004 -1.305371e-003 -7.084293e-004 -1.276466e-004 1.125297e-003 1.093660e-004
<VARIANCE> 39
