~o
<STREAMINFO> 1 39
<VECSIZE> 39<NULLD><MFCC_D_A_0><DIAGC>
~h "mj"
<BEGINHMM>
<NUMSTATES> 3
<STATE> 2
<NUMMIXES> 8
<MIXTURE> 1 1.189973e-001
<MEAN> 39
 -1.259290e+001 -2.903157e-001 -1.475616e+000 -8.609773e+000 -3.698548e+000 -7.275646e+000 -6.300475e+000 -6.501048e-001 4.039744e+000 4.258168e+000 -8.164791e-001 -2.033937e-002 7.155942e+001 5.484605e-002 5.822701e-001 2.908943e-001 7.184044e-001 5.376366e-001 1.470822e-001 9.349795e-001 3.054570e-001 4.332937e-001 3.379634e-002 4.175882e-001 3.816267e-001 -2.278414e-002 6.217196e-001 2.091152e-001 2.786599e-001 2.549019e-001 -7.511018e-002 2.327280e-001 -6.672502e-002 5.396008e-002 -4.799697e-002 1.648432e-001 1.946186e-001 -9.324197e-002 -1.471158e-001
<VARIANCE> 39
 1.205663e+002 5.021311e+001 6.135369e+001 5.331321e+001 5.065411e+001 8.275817e+001 8.408280e+001 4.265593e+001 3.838132e+001 3.479950e+001 4.342486e+001 2.393139e+001 1.664993e+001 4.613589e+000 2.205126e+000 2.688236e+000 2.435791e+000 2.748236e+000 2.852536e+000 3.895630e+000 2.740393e+000 2.821009e+000 2.318383e+000 2.493677e+000 1.990323e+000 2.155944e+000 6.531298e-001 4.106467e-001 3.992366e-001 4.591631e-001 4.802027e-001 5.739312e-001 7.653931e-001 5.509316e-001 5.072362e-001 4.367676e-001 4.871578e-001 3.649243e-001 2.282633e-001
<GCONST> 1.249581e+002
<MIXTURE> 2 1.552814e-001
<MEAN> 39
 -5.450941e+000 -1.029693e-001 1.391345e-001 -5.943295e+000 -8.204844e+000 -4.956454e+000 -7.566517e+000 -8.576480e-001 -1.432031e+000 2.914086e+000 9.612526e-001 -3.307340e+000 6.132524e+001 1.208223e-001 2.689403e-001 -1.293735e-002 4.251095e-001 4.251122e-001 3.658387e-001 5.728854e-001 2.773178e-001 4.497058e-001 9.239277e-002 1.784315e-001 3.423907e-001 -2.864265e-001 -2.315060e-002 -3.095125e-002 8.304481e-002 4.643484e-002 1.277866e-001 6.312102e-002 9.233254e-002 1.129058e-001 1.684563e-001 1.446207e-001 6.898041e-002 1.925269e-001 2.514955e-001
<VARIANCE> 39
 2.674403e+001 2.122692e+001 7.596469e+001 2.520911e+001 4.200873e+001 3.735162e+001 4.562669e+001 2.984027e+001 4.054617e+001 2.962900e+001 2.654404e+001 3.231386e+001 7.318745e+001 5.326294e-001 7.778370e-001 1.253508e+000 1.460054e+000 1.597275e+000 1.687092e+000 1.858890e+000 1.878676e+000 1.916938e+000 1.647377e+000 1.693441e+000 1.613668e+000 9.866293e-001 1.140023e-001 1.580462e-001 2.015619e-001 2.748785e-001 2.915996e-001 3.087379e-001 3.343784e-001 3.706794e-001 3.690178e-001 3.254236e-001 3.166257e-001 3.152950e-001 1.908314e-001
<GCONST> 1.049110e+002
<MIXTURE> 3 1.020072e-001
<MEAN> 39
 -6.385480e+000 1.786116e+000 7.249142e+000 -4.710097e+000 -1.136474e+001 -9.063886e+000 -8.271149e+000 -2.355109e+000 -3.492201e+000 3.035635e+000 2.653513e+000 -4.267714e+000 6.619999e+001 4.698187e-001 4.076970e-002 5.510311e-001 1.848723e-001 2.409932e-001 2.585452e-001 3.846861e-001 2.202095e-001 2.534347e-001 3.662531e-001 4.652022e-001 3.183430e-001 7.754800e-001 -1.698373e-001 -1.353769e-001 -9.594901e-002 -6.151228e-002 4.285464e-001 1.762126e-001 1.272674e-001 1.667013e-001 4.235088e-001 2.240221e-001 2.437732e-002 2.482298e-001 5.573250e-001
<VARIANCE> 39
 3.071810e+001 2.568731e+001 9.647991e+001 2.789666e+001 6.695573e+001 4.276405e+001 4.781719e+001 2.885940e+001 5.636578e+001 2.553010e+001 2.829655e+001 3.356096e+001 4.515208e+001 5.219562e+000 3.170034e+000 5.122932e+000 3.266934e+000 5.360291e+000 3.891716e+000 5.606662e+000 3.161809e+000 4.524472e+000 2.387543e+000 2.747919e+000 3.067817e+000 3.534647e+000 4.310470e-001 3.997543e-001 7.026360e-001 4.974405e-001 8.047411e-001 6.579455e-001 7.683455e-001 5.741470e-001 7.179851e-001 4.218445e-001 4.639436e-001 4.371965e-001 6.459985e-001
<GCONST> 1.291936e+002
<MIXTURE> 4 1.237108e-001
<MEAN> 39
 -3.659339e+000 -3.940526e+000 -1.491269e+000 -9.649368e+000 -7.385343e+000 -4.444175e+000 -1.488867e+001 -2.785650e+000 1.312064e+000 7.026846e+000 -3.436112e-002 -3.512653e+000 7.235072e+001 7.831445e-001 2.057457e-001 6.429811e-001 -2.360505e-002 2.121586e-001 6.342630e-001 -3.122175e-001 6.211395e-001 3.017758e-001 7.905815e-001 3.002715e-001 1.995577e-001 9.305609e-001 6.516321e-002 4.116657e-001 2.270027e-001 3.103955e-001 1.549091e-001 1.549550e-001 5.151811e-001 2.949286e-001 1.118648e-001 1.170868e-002 2.673621e-001 1.727297e-001 -1.823098e-001
<VARIANCE> 39
 4.129347e+001 2.882488e+001 5.562030e+001 6.805605e+001 5.241348e+001 8.476601e+001 7.539278e+001 6.932909e+001 6.537653e+001 4.683154e+001 5.440102e+001 3.678053e+001 2.084831e+001 3.907151e+000 2.860757e+000 3.831955e+000 5.062683e+000 4.847856e+000 5.548294e+000 6.226754e+000 5.806433e+000 5.746863e+000 3.507593e+000 4.272300e+000 3.493426e+000 3.040564e+000 5.255413e-001 4.436605e-001 5.321026e-001 8.658509e-001 8.289136e-001 8.514929e-001 1.152626e+000 1.031309e+000 9.737255e-001 6.601089e-001 7.621105e-001 6.647338e-001 3.415827e-001
<GCONST> 1.370990e+002
<MIXTURE> 5 1.552814e-001
<MEAN> 39
 -7.519526e+000 -1.945877e+000 -3.347175e+000 -7.951643e+000 -1.079741e+001 -7.401093e+000 -1.026842e+001 -3.042698e+000 -3.979065e+000 7.367845e-001 -1.099584e+000 -5.581151e+000 5.790326e+001 -1.711035e-001 -8.384002e-002 -4.607781e-001 -5.822130e-002 -8.042119e-002 -1.537137e-001 2.752087e-002 -2.709414e-001 -1.041083e-001 -4.210080e-001 -3.420977e-001 -1.657303e-001 -6.837434e-001 -1.582075e-001 -1.899714e-001 -9.653777e-002 -1.632806e-001 -8.821322e-002 -1.591357e-001 -1.389693e-001 -1.306280e-001 -7.453103e-002 -8.356291e-002 -1.560976e-001 -3.207768e-002 7.675850e-002
<VARIANCE> 39
 2.674403e+001 2.122692e+001 7.596469e+001 2.520911e+001 4.200873e+001 3.735162e+001 4.562669e+001 2.984027e+001 4.054617e+001 2.962900e+001 2.654404e+001 3.231386e+001 7.318745e+001 5.326294e-001 7.778370e-001 1.253508e+000 1.460054e+000 1.597275e+000 1.687092e+000 1.858890e+000 1.878676e+000 1.916938e+000 1.647377e+000 1.693441e+000 1.613668e+000 9.866293e-001 1.140023e-001 1.580462e-001 2.015619e-001 2.748785e-001 2.915996e-001 3.087379e-001 3.343784e-001 3.706794e-001 3.690178e-001 3.254236e-001 3.166257e-001 3.152950e-001 1.908314e-001
<GCONST> 1.049110e+002
<MIXTURE> 6 1.237108e-001
<MEAN> 39
 -6.229739e+000 -6.088078e+000 -4.474429e+000 -1.294921e+001 -1.028123e+001 -8.126913e+000 -1.836183e+001 -6.116214e+000 -1.922166e+000 4.289504e+000 -2.984643e+000 -5.938531e+000 7.052432e+001 -7.516116e-003 -4.708053e-001 -1.400341e-001 -9.236214e-001 -6.685553e-001 -3.079296e-001 -1.310356e+000 -3.427221e-001 -6.571288e-001 4.143873e-002 -5.265101e-001 -5.480707e-001 2.330723e-001 -2.248137e-001 1.452343e-001 -6.477873e-002 -6.180893e-002 -2.092697e-001 -2.141505e-001 8.573934e-002 -1.112850e-001 -2.828454e-001 -3.132797e-001 -8.183368e-002 -1.533952e-001 -4.160902e-001
<VARIANCE> 39
 4.129347e+001 2.882488e+001 5.562030e+001 6.805605e+001 5.241348e+001 8.476601e+001 7.539278e+001 6.932909e+001 6.537653e+001 4.683154e+001 5.440102e+001 3.678053e+001 2.084831e+001 3.907151e+000 2.860757e+000 3.831955e+000 5.062683e+000 4.847856e+000 5.548294e+000 6.226754e+000 5.806433e+000 5.746863e+000 3.507593e+000 4.272300e+000 3.493426e+000 3.040564e+000 5.255413e-001 4.436605e-001 5.321026e-001 8.658509e-001 8.289136e-001 8.514929e-001 1.152626e+000 1.031309e+000 9.737255e-001 6.601089e-001 7.621105e-001 6.647338e-001 3.415827e-001
<GCONST> 1.370990e+002
<MIXTURE> 7 1.189973e-001
<MEAN> 39
 -1.698500e+001 -3.124764e+000 -4.608760e+000 -1.153041e+001 -6.545416e+000 -1.091451e+001 -9.968342e+000 -3.262565e+000 1.561638e+000 1.898524e+000 -3.452381e+000 -1.977128e+000 6.992725e+001 -8.043246e-001 -1.171654e-002 -3.649394e-001 9.412357e-002 -1.254756e-001 -5.284960e-001 1.454855e-001 -3.567083e-001 -2.385407e-001 -5.752531e-001 -2.140670e-001 -1.826885e-001 -6.101094e-001 2.984538e-001 -4.721166e-002 2.591926e-002 -1.614436e-002 -3.522968e-001 -7.030496e-002 -4.166720e-001 -2.429390e-001 -3.328790e-001 -9.951034e-002 -8.456811e-002 -3.348778e-001 -3.382234e-001
<VARIANCE> 39
 1.205663e+002 5.021311e+001 6.135369e+001 5.331321e+001 5.065411e+001 8.275817e+001 8.408280e+001 4.265593e+001 3.838132e+001 3.479950e+001 4.342486e+001 2.393139e+001 1.664993e+001 4.613589e+000 2.205126e+000 2.688236e+000 2.435791e+000 2.748236e+000 2.852536e+000 3.895630e+000 2.740393e+000 2.821009e+000 2.318383e+000 2.493677e+000 1.990323e+000 2.155944e+000 6.531298e-001 4.106467e-001 3.992366e-001 4.591631e-001 4.802027e-001 5.739312e-001 7.653931e-001 5.509316e-001 5.072362e-001 4.367676e-001 4.871578e-001 3.649243e-001 2.282633e-001
<GCONST> 1.249581e+002
<MIXTURE> 8 1.020072e-001
<MEAN> 39
 -8.602436e+000 -2.411898e-001 3.320174e+000 -6.822789e+000 -1.463780e+001 -1.167965e+001 -1.103715e+001 -4.503947e+000 -6.495287e+000 1.014543e+000 5.257329e-001 -6.584987e+000 6.351218e+001 -4.440357e-001 -6.714139e-001 -3.543247e-001 -5.381141e-001 -6.850988e-001 -5.305520e-001 -5.624496e-001 -4.910495e-001 -5.973976e-001 -2.518139e-001 -1.978718e-001 -3.822644e-001 2.345377e-002 -4.324540e-001 -3.882813e-001 -4.312426e-001 -3.436301e-001 6.971696e-002 -1.482428e-001 -2.233539e-001 -1.363886e-001 8.457281e-002 -3.577610e-002 -2.480763e-001 -1.625357e-002 2.358288e-001
<VARIANCE> 39
 3.071810e+001 2.568731e+001 9.647991e+001 2.789666e+001 6.695573e+001 4.276405e+001 4.781719e+001 2.885940e+001 5.636578e+001 2.553010e+001 2.829655e+001 3.356096e+001 4.515208e+001 5.219562e+000 3.170034e+000 5.122932e+000 3.266934e+000 5.360291e+000 3.891716e+000 5.606662e+000 3.161809e+000 4.524472e+000 2.387543e+000 2.747919e+000 3.067817e+000 3.534647e+000 4.310470e-001 3.997543e-001 7.026360e-001 4.974405e-001 8.047411e-001 6.579455e-001 7.683455e-001 5.741470e-001 7.179851e-001 4.218445e-001 4.639436e-001 4.371965e-001 6.459985e-001
<GCONST> 1.291936e+002
<TRANSP> 3
 0.000000e+000 1.000000e+000 0.000000e+000
 0.000000e+000 9.983901e-001 1.609855e-003
 0.000000e+000 0.000000e+000 0.000000e+000
<ENDHMM>
~h "pb"
<BEGINHMM>
<NUMSTATES> 3
<STATE> 2
<NUMMIXES> 8
<MIXTURE> 1 6.973045e-002
<MEAN> 39
 -1.076736e+001 2.705105e+000 -2.080123e+000 1.076284e+000 -1.919622e-001 3.521133e+000 2.535963e+000 3.226465e+000 3.082406e+000 2.440527e+000 2.731611e+000 1.032046e+000 5.219968e+001 1.629964e-001 1.806248e-001 3.063667e-001 4.259951e-001 4.950824e-001 5.315741e-001 5.650827e-001 6.086171e-001 5.488784e-001 4.717044e-001 3.810701e-001 2.620752e-001 4.174720e-002 6.506346e-002 7.410836e-002 1.082492e-001 9.388372e-002 1.053329e-001 1.017025e-001 1.121660e-001 1.811569e-001 1.877885e-001 1.458256e-001 1.187378e-001 1.101236e-001 6.704254e-002
<VARIANCE> 39
 2.695291e+000 3.315331e+000 4.785837e+000 6.548078e+000 7.924969e+000 1.300661e+001 1.132170e+001 1.278986e+001 1.174704e+001 1.233869e+001 1.539047e+001 1.148860e+001 2.413290e+000 2.861212e-001 3.034866e-001 4.357921e-001 6.132516e-001 7.478130e-001 1.217002e+000 1.199486e+000 1.285961e+000 1.267840e+000 1.349084e+000 1.478129e+000 1.372337e+000 1.894796e-001 4.687443e-002 5.539706e-002 9.381710e-002 1.350750e-001 1.791934e-001 2.442005e-001 2.556081e-001 2.802575e-001 2.846117e-001 2.828623e-001 3.113843e-001 2.667860e-001 3.149641e-002
<GCONST> 6.955938e+001
<MIXTURE> 2 1.998880e-001
<MEAN> 39
 -2.659677e+000 3.149065e+000 6.342183e+000 -3.907322e+000 -7.976394e+000 4.727376e-002 -7.163267e+000 2.897109e+000 2.046444e+000 8.307402e-001 2.782037e+000 -4.672695e+000 7.135357e+001 5.756170e-003 9.828910e-001 7.812780e-002 1.007515e+000 9.852303e-001 2.629584e-001 1.095647e+000 1.461317e-001 4.274124e-001 3.839797e-001 1.980574e-001 7.235483e-001 -5.469351e-001 2.250735e-001 2.380422e-001 1.036926e-001 3.108833e-001 2.877092e-001 1.090495e-001 2.743897e-001 7.920443e-002 1.763655e-001 1.465572e-001 4.667707e-002 2.177193e-001 -5.481312e-002
<VARIANCE> 39
 8.562010e+001 7.252837e+001 9.011465e+001 5.389896e+001 8.936313e+001 5.994505e+001 6.755865e+001 4.796261e+001 4.499110e+001 3.831376e+001 3.413749e+001 5.392980e+001 4.821080e+001 2.370301e+000 2.823287e+000 2.501726e+000 2.706246e+000 3.182051e+000 2.722468e+000 3.236751e+000 2.502241e+000 2.526662e+000 2.376821e+000 2.286030e+000 2.480368e+000 2.215317e+000 6.238661e-001 5.756651e-001 5.667455e-001 5.970650e-001 7.723311e-001 5.894268e-001 7.546744e-001 5.468703e-001 5.389459e-001 4.968281e-001 4.735843e-001 5.721098e-001 4.418120e-001
<GCONST> 1.295824e+002
<MIXTURE> 3 1.456738e-001
<MEAN> 39
 -2.365710e+000 4.369761e+000 5.395865e+000 -1.247560e+000 -7.114162e+000 -8.667066e-001 -6.341480e+000 1.325991e+000 1.979462e+000 1.123664e+000 1.823269e+000 -3.325027e+000 6.850069e+001 9.132953e-001 -4.848075e-001 8.049234e-001 -5.210353e-001 -3.625157e-001 5.130501e-001 -5.669359e-001 6.958331e-001 2.481983e-001 2.584405e-001 5.226282e-001 -1.528871e-001 1.576375e+000 7.606693e-002 5.364968e-002 2.283824e-001 -4.341048e-002 3.702171e-002 2.168686e-001 7.483573e-002 2.921983e-001 1.281622e-001 1.501793e-001 2.836907e-001 7.185367e-002 4.024639e-001
<VARIANCE> 39
 5.082929e+001 5.048917e+001 5.812028e+001 4.484853e+001 6.162909e+001 4.542095e+001 6.216936e+001 5.249868e+001 4.054369e+001 3.374173e+001 3.005070e+001 3.951361e+001 5.405756e+001 6.287788e+000 3.907253e+000 5.598995e+000 4.269216e+000 6.312388e+000 4.791574e+000 5.276555e+000 5.702227e+000 4.243455e+000 3.436961e+000 3.609300e+000 4.297853e+000 3.751672e+000 6.377488e-001 6.988047e-001 6.540282e-001 7.672316e-001 9.653073e-001 7.180471e-001 9.660779e-001 9.253801e-001 6.965474e-001 6.163225e-001 6.478415e-001 6.866824e-001 7.548937e-001
<GCONST> 1.377313e+002
<MIXTURE> 4 8.470845e-002
<MEAN> 39
 -1.025516e+001 3.062408e+000 -1.446629e+000 9.038677e-001 -4.170620e-002 2.806873e+000 3.312989e+000 4.562637e+000 3.979032e+000 2.911581e+000 2.195845e+000 1.248437e+000 5.131632e+001 3.869150e-002 2.501280e-002 -2.077083e-002 -6.016870e-002 -8.696179e-002 -3.969227e-002 -6.112927e-002 -7.220264e-002 -2.941227e-002 4.398179e-002 1.247936e-001 2.065752e-001 3.739134e-002 -1.295693e-004 1.172163e-002 1.351351e-002 5.643013e-002 7.664672e-002 1.131614e-001 6.112423e-002 3.040419e-002 3.089605e-002 7.283369e-002 1.006288e-001 9.794836e-002 4.342972e-002
<VARIANCE> 39
 8.718954e-001 1.964291e+000 3.466018e+000 5.333864e+000 6.972787e+000 8.379602e+000 1.020924e+001 1.061429e+001 1.095326e+001 1.152075e+001 1.141104e+001 1.039551e+001 4.245580e-001 1.447440e-001 2.267850e-001 4.079860e-001 5.836533e-001 7.636715e-001 9.614169e-001 1.067426e+000 1.191435e+000 1.205400e+000 1.329493e+000 1.343408e+000 1.128221e+000 6.438021e-002 2.259448e-002 4.405296e-002 8.215019e-002 1.251047e-001 1.624056e-001 2.031230e-001 2.336583e-001 2.496271e-001 2.526531e-001 2.861665e-001 2.595750e-001 2.249907e-001 9.558812e-003
<GCONST> 5.800602e+001
<MIXTURE> 5 1.998880e-001
<MEAN> 39
 -6.360922e+000 -2.574788e-001 2.545033e+000 -6.843958e+000 -1.175768e+001 -3.049694e+000 -1.045103e+001 1.269071e-001 -6.365722e-001 -1.645184e+000 4.449451e-001 -7.610171e+000 6.857621e+001 -6.100751e-001 3.107854e-001 -5.545460e-001 3.494883e-001 2.716981e-001 -3.970377e-001 3.760085e-001 -4.866073e-001 -2.084068e-001 -2.326980e-001 -4.067276e-001 9.358093e-002 -1.142293e+000 -9.086731e-002 -6.544816e-002 -1.974375e-001 1.803339e-003 -6.382024e-002 -1.980471e-001 -7.309829e-002 -2.165983e-001 -1.172862e-001 -1.353869e-001 -2.285928e-001 -8.483250e-002 -3.206889e-001
<VARIANCE> 39
 8.562010e+001 7.252837e+001 9.011465e+001 5.389896e+001 8.936313e+001 5.994505e+001 6.755865e+001 4.796261e+001 4.499110e+001 3.831376e+001 3.413749e+001 5.392980e+001 4.821080e+001 2.370301e+000 2.823287e+000 2.501726e+000 2.706246e+000 3.182051e+000 2.722468e+000 3.236751e+000 2.502241e+000 2.526662e+000 2.376821e+000 2.286030e+000 2.480368e+000 2.215317e+000 6.238661e-001 5.756651e-001 5.667455e-001 5.970650e-001 7.723311e-001 5.894268e-001 7.546744e-001 5.468703e-001 5.389459e-001 4.968281e-001 4.735843e-001 5.721098e-001 4.418120e-001
<GCONST> 1.295824e+002
<MIXTURE> 6 1.456738e-001
<MEAN> 39
 -5.217496e+000 1.527532e+000 2.346399e+000 -3.926322e+000 -1.025433e+001 -3.562509e+000 -9.495382e+000 -1.572248e+000 -5.674953e-001 -1.199841e+000 -3.694716e-001 -5.839421e+000 6.555974e+001 -8.972326e-002 -1.275478e+000 -1.415644e-001 -1.347518e+000 -1.367494e+000 -3.625365e-001 -1.485766e+000 -2.593403e-001 -5.757877e-001 -4.831212e-001 -2.372981e-001 -9.821377e-001 8.016053e-001 -2.433698e-001 -2.807285e-001 -9.510563e-002 -3.937775e-001 -3.559785e-001 -1.220821e-001 -3.183213e-001 -9.258840e-002 -2.056754e-001 -1.638456e-001 -3.826372e-002 -2.596115e-001 5.492537e-002
<VARIANCE> 39
 5.082929e+001 5.048917e+001 5.812028e+001 4.484853e+001 6.162909e+001 4.542095e+001 6.216936e+001 5.249868e+001 4.054369e+001 3.374173e+001 3.005070e+001 3.951361e+001 5.405756e+001 6.287788e+000 3.907253e+000 5.598995e+000 4.269216e+000 6.312388e+000 4.791574e+000 5.276555e+000 5.702227e+000 4.243455e+000 3.436961e+000 3.609300e+000 4.297853e+000 3.751672e+000 6.377488e-001 6.988047e-001 6.540282e-001 7.672316e-001 9.653073e-001 7.180471e-001 9.660779e-001 9.253801e-001 6.965474e-001 6.163225e-001 6.478415e-001 6.866824e-001 7.548937e-001
<GCONST> 1.377313e+002
<MIXTURE> 7 8.470845e-002
<MEAN> 39
 -1.062866e+001 2.501796e+000 -2.191319e+000 -1.993871e-002 -1.097948e+000 1.648971e+000 2.034913e+000 3.259454e+000 2.655204e+000 1.553891e+000 8.446353e-001 -4.124588e-002 5.105568e+001 -1.134894e-001 -1.654750e-001 -2.762660e-001 -3.657575e-001 -4.365150e-001 -4.318997e-001 -4.743945e-001 -5.088142e-001 -4.685751e-001 -4.172328e-001 -3.388284e-001 -2.182958e-001 -6.410168e-002 -6.025541e-002 -7.223357e-002 -1.011339e-001 -8.505043e-002 -8.455160e-002 -6.711524e-002 -1.322286e-001 -1.694466e-001 -1.701624e-001 -1.411444e-001 -1.031652e-001 -9.178438e-002 4.322056e-003
<VARIANCE> 39
 8.718954e-001 1.964291e+000 3.466018e+000 5.333864e+000 6.972787e+000 8.379602e+000 1.020924e+001 1.061429e+001 1.095326e+001 1.152075e+001 1.141104e+001 1.039551e+001 4.245580e-001 1.447440e-001 2.267850e-001 4.079860e-001 5.836533e-001 7.636715e-001 9.614169e-001 1.067426e+000 1.191435e+000 1.205400e+000 1.329493e+000 1.343408e+000 1.128221e+000 6.438021e-002 2.259448e-002 4.405296e-002 8.215019e-002 1.251047e-001 1.624056e-001 2.031230e-001 2.336583e-001 2.496271e-001 2.526531e-001 2.861665e-001 2.595750e-001 2.249907e-001 9.558812e-003
<GCONST> 5.800602e+001
<MIXTURE> 8 6.973045e-002
<MEAN> 39
 -1.142406e+001 1.976783e+000 -2.955185e+000 5.271566e-002 -1.318015e+000 2.078547e+000 1.190053e+000 1.795949e+000 1.711448e+000 1.035469e+000 1.162383e+000 -3.237473e-001 5.157829e+001 -5.096483e-002 -3.973373e-002 4.230849e-002 1.127535e-001 1.491776e-001 9.030287e-002 1.269985e-001 1.550162e-001 9.848478e-002 7.104039e-003 -1.052433e-001 -2.065119e-001 -1.323698e-001 -2.153856e-002 -2.003796e-002 -1.426915e-002 -5.312648e-002 -6.399205e-002 -9.596413e-002 -9.006485e-002 -3.060048e-002 -2.560757e-002 -6.691365e-002 -1.044695e-001 -9.648178e-002 -3.946364e-003
<VARIANCE> 39
 2.695291e+000 3.315331e+000 4.785837e+000 6.548078e+000 7.924969e+000 1.300661e+001 1.132170e+001 1.278986e+001 1.174704e+001 1.233869e+001 1.539047e+001 1.148860e+001 2.413290e+000 2.861212e-001 3.034866e-001 4.357921e-001 6.132516e-001 7.478130e-001 1.217002e+000 1.199486e+000 1.285961e+000 1.267840e+000 1.349084e+000 1.478129e+000 1.372337e+000 1.894796e-001 4.687443e-002 5.539706e-002 9.381710e-002 1.350750e-001 1.791934e-001 2.442005e-001 2.556081e-001 2.802575e-001 2.846117e-001 2.828623e-001 3.113843e-001 2.667860e-001 3.149641e-002
<GCONST> 6.955938e+001
<TRANSP> 3
 0.000000e+000 1.000000e+000 0.000000e+000
 0.000000e+000 9.985016e-001 1.498370e-003
 0.000000e+000 0.000000e+000 0.000000e+000
<ENDHMM>
~h "pavel_rada"
<BEGINHMM>
<NUMSTATES> 3
<STATE> 2
<NUMMIXES> 8
<MIXTURE> 1 5.901360e-002
<MEAN> 39
 -1.416590e+001 3.695073e+000 2.673853e+000 -3.044237e+000 6.856986e+000 -7.017517e-001 3.569821e+000 2.720917e+000 -3.340863e+000 8.167567e+000 -1.314093e+000 2.148255e+000 5.291970e+001 3.905602e-001 2.353817e-003 1.965411e-001 2.142109e-001 6.042589e-001 2.860612e-001 3.839249e-001 3.463196e-001 4.001258e-001 4.587743e-001 1.446194e-001 3.391069e-001 8.382543e-001 3.881958e-001 2.747916e-003 2.103530e-001 1.246914e-002 1.760252e-001 3.653179e-002 -2.402298e-003 1.210141e-001 -3.991157e-003 1.787128e-001 9.166496e-002 8.538519e-002 4.935661e-001
<VARIANCE> 39
 6.605079e+001 2.526131e+001 2.181993e+001 4.839458e+001 7.710316e+001 6.813060e+001 1.807353e+001 1.777028e+001 2.407311e+001 3.620912e+001 2.268861e+001 1.736208e+001 2.009809e+002 3.844600e+000 1.638638e+000 1.159410e+000 1.507103e+000 3.351060e+000 2.288064e+000 1.474889e+000 1.547006e+000 1.758523e+000 2.208826e+000 1.733041e+000 1.238887e+000 8.339883e+000 6.148772e-001 2.859769e-001 2.353817e-001 3.448105e-001 5.887676e-001 4.313825e-001 3.063429e-001 3.000339e-001 3.783076e-001 4.142087e-001 3.190862e-001 2.719414e-001 1.314336e+000
<GCONST> 1.159186e+002
<MIXTURE> 2 1.866589e-001
<MEAN> 39
 2.433685e+000 -4.812354e+000 7.034282e+000 -9.232171e+000 -4.666013e-001 -6.492672e+000 -4.101633e+000 3.870690e+000 -9.664231e+000 6.177446e+000 3.513667e+000 -2.752581e+000 7.295804e+001 -6.978169e-002 7.571006e-001 2.064130e-001 6.989575e-001 8.617245e-001 5.245115e-001 7.707441e-001 2.077788e-001 4.476385e-001 5.906194e-001 -7.002538e-002 4.573733e-001 -4.441081e-001 -1.614713e-001 2.535769e-001 2.165406e-001 2.130846e-001 4.082002e-001 8.404990e-002 2.984499e-001 7.101197e-002 1.525315e-001 2.894972e-001 -9.983625e-002 3.600147e-001 4.729620e-002
<VARIANCE> 39
 2.509213e+001 4.377195e+001 1.184983e+002 7.783024e+001 5.975930e+001 7.927148e+001 5.471196e+001 5.861568e+001 5.319287e+001 4.683803e+001 4.126999e+001 3.847558e+001 4.307293e+001 1.190892e+000 1.991796e+000 2.516783e+000 2.911113e+000 3.441494e+000 2.989692e+000 2.683949e+000 3.068588e+000 2.948320e+000 2.702594e+000 2.810401e+000 2.392783e+000 1.786559e+000 2.482194e-001 3.731659e-001 3.797468e-001 5.888079e-001 6.690837e-001 5.521258e-001 5.469309e-001 5.827724e-001 5.911422e-001 5.562711e-001 5.756580e-001 4.947588e-001 4.102456e-001
<GCONST> 1.258791e+002
<MIXTURE> 3 1.377880e-001
<MEAN> 39
 -5.055126e+000 -1.572609e+000 1.095117e+001 -8.468452e+000 4.818482e+000 -8.900153e+000 -1.267732e+000 2.284280e+000 -9.583843e+000 8.959703e+000 -1.612596e+000 2.893617e+000 7.078144e+001 1.067578e+000 -2.356643e-001 6.483369e-001 -7.766390e-002 -1.378806e-001 1.325913e-001 -1.721585e-001 6.066231e-001 2.567411e-001 9.499246e-002 9.681767e-001 1.938607e-001 1.448749e+000 4.487664e-001 2.019624e-002 -1.500571e-002 1.394075e-001 -1.442950e-001 3.053834e-001 2.419752e-002 2.772966e-001 2.494880e-001 -3.458232e-002 5.162477e-001 -1.304750e-001 1.579070e-001
<VARIANCE> 39
 8.225376e+001 4.137557e+001 8.408412e+001 5.406450e+001 6.665506e+001 5.706268e+001 5.824573e+001 4.589576e+001 6.160266e+001 4.307728e+001 3.359642e+001 3.210199e+001 4.037608e+001 8.352171e+000 3.362076e+000 5.512670e+000 5.207179e+000 6.450419e+000 5.023135e+000 5.540178e+000 4.518969e+000 5.804315e+000 4.720550e+000 4.455032e+000 4.746645e+000 4.333234e+000 9.188625e-001 5.930559e-001 6.585686e-001 7.507698e-001 9.944196e-001 7.787458e-001 8.983126e-001 7.964074e-001 9.629043e-001 7.790064e-001 7.005727e-001 6.791384e-001 6.548526e-001
<GCONST> 1.407950e+002
<MIXTURE> 4 1.165390e-001
<MEAN> 39
 -2.266987e+001 9.869191e+000 1.974039e-001 3.435608e+000 -4.720610e+000 8.520535e+000 1.681726e+000 1.995581e-002 -1.091893e+000 1.049058e+000 2.940957e+000 3.546584e-002 3.203673e+001 5.112659e-002 6.992830e-002 8.563042e-002 1.413827e-001 1.114573e-001 1.655594e-001 1.533458e-001 1.640898e-001 1.971237e-001 1.514446e-001 1.600483e-001 1.407799e-001 2.000426e-002 1.741449e-002 3.759905e-002 5.349894e-002 4.795095e-002 5.672047e-002 6.671561e-002 8.743809e-002 8.516929e-002 7.754453e-002 8.348631e-002 7.601672e-002 8.023904e-002 1.466582e-002
<VARIANCE> 39
 8.576119e+001 3.948497e+001 6.998005e+000 1.527172e+001 9.665611e+001 3.472137e+001 6.373992e+000 9.925213e+000 1.048066e+001 3.604295e+001 2.391254e+001 5.624836e+000 2.163781e+002 5.806966e-002 1.385406e-001 3.158280e-001 3.021855e-001 4.057235e-001 5.620754e-001 6.563665e-001 6.977959e-001 7.975702e-001 7.981284e-001 6.696037e-001 6.264765e-001 2.608671e-002 1.144794e-002 2.760575e-002 6.264286e-002 6.018829e-002 7.833254e-002 1.117015e-001 1.294857e-001 1.384454e-001 1.589309e-001 1.599483e-001 1.290552e-001 1.191827e-001 5.153611e-003
<GCONST> 6.304193e+001
<MIXTURE> 5 1.866589e-001
<MEAN> 39
 4.300030e-001 -7.458768e+000 2.680004e+000 -1.276103e+001 -3.558767e+000 -1.005405e+001 -7.060334e+000 8.082545e-001 -1.258157e+001 3.439914e+000 9.439975e-001 -5.233729e+000 7.033284e+001 -5.062937e-001 1.925766e-001 -4.281619e-001 1.647812e-002 1.196739e-001 -1.671175e-001 1.154336e-001 -4.929166e-001 -2.391884e-001 -6.696329e-002 -7.405954e-001 -1.613716e-001 -9.787570e-001 -3.607578e-001 9.227686e-003 -2.995379e-002 -9.385066e-002 8.101001e-002 -2.131708e-001 2.630845e-003 -2.343462e-001 -1.550116e-001 -8.837163e-003 -4.033248e-001 7.865830e-002 -2.089055e-001
<VARIANCE> 39
 2.509213e+001 4.377195e+001 1.184983e+002 7.783024e+001 5.975930e+001 7.927148e+001 5.471196e+001 5.861568e+001 5.319287e+001 4.683803e+001 4.126999e+001 3.847558e+001 4.307293e+001 1.190892e+000 1.991796e+000 2.516783e+000 2.911113e+000 3.441494e+000 2.989692e+000 2.683949e+000 3.068588e+000 2.948320e+000 2.702594e+000 2.810401e+000 2.392783e+000 1.786559e+000 2.482194e-001 3.731659e-001 3.797468e-001 5.888079e-001 6.690837e-001 5.521258e-001 5.469309e-001 5.827724e-001 5.911422e-001 5.562711e-001 5.756580e-001 4.947588e-001 4.102456e-001
<GCONST> 1.258791e+002
<MIXTURE> 6 1.377880e-001
<MEAN> 39
 -8.682880e+000 -4.145563e+000 7.283269e+000 -1.140960e+001 1.552780e+000 -1.192175e+001 -4.320488e+000 -4.255766e-001 -1.272334e+001 6.334373e+000 -3.931092e+000 6.272726e-001 6.823975e+001 -8.842725e-002 -9.691029e-001 -2.908261e-001 -9.904337e-001 -1.153788e+000 -7.639028e-001 -1.113662e+000 -2.436916e-001 -7.069447e-001 -7.740806e-001 1.238989e-001 -6.776111e-001 6.160926e-001 6.533708e-002 -2.878442e-001 -3.396147e-001 -2.071804e-001 -5.431774e-001 -4.760285e-002 -3.549199e-001 -7.967006e-002 -1.430228e-001 -3.876277e-001 1.814469e-001 -4.601144e-001 -1.657849e-001
<VARIANCE> 39
 8.225376e+001 4.137557e+001 8.408412e+001 5.406450e+001 6.665506e+001 5.706268e+001 5.824573e+001 4.589576e+001 6.160266e+001 4.307728e+001 3.359642e+001 3.210199e+001 4.037608e+001 8.352171e+000 3.362076e+000 5.512670e+000 5.207179e+000 6.450419e+000 5.023135e+000 5.540178e+000 4.518969e+000 5.804315e+000 4.720550e+000 4.455032e+000 4.746645e+000 4.333234e+000 9.188625e-001 5.930559e-001 6.585686e-001 7.507698e-001 9.944196e-001 7.787458e-001 8.983126e-001 7.964074e-001 9.629043e-001 7.790064e-001 7.005727e-001 6.791384e-001 6.548526e-001
<GCONST> 1.407950e+002
<MIXTURE> 7 1.165390e-001
<MEAN> 39
 -2.637417e+001 7.355708e+000 -8.607458e-001 1.872446e+000 -8.653164e+000 6.163541e+000 6.718556e-001 -1.240216e+000 -2.386847e+000 -1.352373e+000 9.849389e-001 -9.132037e-001 2.615281e+001 -4.526400e-002 -7.895587e-002 -1.391639e-001 -7.850289e-002 -1.433284e-001 -1.343274e-001 -1.707200e-001 -1.700469e-001 -1.601034e-001 -2.059076e-001 -1.672690e-001 -1.758212e-001 -4.460126e-002 -2.538353e-002 -2.886087e-002 -4.661528e-002 -5.018225e-002 -5.523134e-002 -6.697150e-002 -5.649839e-002 -6.366371e-002 -8.192003e-002 -7.648785e-002 -6.768031e-002 -5.785235e-002 -1.404964e-002
<VARIANCE> 39
 8.576119e+001 3.948497e+001 6.998005e+000 1.527172e+001 9.665611e+001 3.472137e+001 6.373992e+000 9.925213e+000 1.048066e+001 3.604295e+001 2.391254e+001 5.624836e+000 2.163781e+002 5.806966e-002 1.385406e-001 3.158280e-001 3.021855e-001 4.057235e-001 5.620754e-001 6.563665e-001 6.977959e-001 7.975702e-001 7.981284e-001 6.696037e-001 6.264765e-001 2.608671e-002 1.144794e-002 2.760575e-002 6.264286e-002 6.018829e-002 7.833254e-002 1.117015e-001 1.294857e-001 1.384454e-001 1.589309e-001 1.599483e-001 1.290552e-001 1.191827e-001 5.153611e-003
<GCONST> 6.304193e+001
<MIXTURE> 8 5.901360e-002
<MEAN> 39
 -1.741676e+001 1.684647e+000 8.053808e-001 -5.826885e+000 3.344650e+000 -4.003402e+000 1.869302e+000 1.034725e+000 -5.303437e+000 5.760607e+000 -3.219395e+000 4.815414e-001 4.724900e+001 -3.937459e-001 -5.096834e-001 -2.341625e-001 -2.768456e-001 -1.279771e-001 -3.189927e-001 -1.018551e-001 -1.511952e-001 -1.303114e-001 -1.357105e-001 -3.819606e-001 -1.061143e-001 -3.168999e-001 7.453939e-002 -2.111593e-001 1.628840e-002 -2.224131e-001 -1.308996e-001 -2.261871e-001 -2.237953e-001 -9.808731e-002 -2.500180e-001 -7.872339e-002 -1.342859e-001 -1.232068e-001 3.498812e-002
<VARIANCE> 39
 6.605079e+001 2.526131e+001 2.181993e+001 4.839458e+001 7.710316e+001 6.813060e+001 1.807353e+001 1.777028e+001 2.407311e+001 3.620912e+001 2.268861e+001 1.736208e+001 2.009809e+002 3.844600e+000 1.638638e+000 1.159410e+000 1.507103e+000 3.351060e+000 2.288064e+000 1.474889e+000 1.547006e+000 1.758523e+000 2.208826e+000 1.733041e+000 1.238887e+000 8.339883e+000 6.148772e-001 2.859769e-001 2.353817e-001 3.448105e-001 5.887676e-001 4.313825e-001 3.063429e-001 3.000339e-001 3.783076e-001 4.142087e-001 3.190862e-001 2.719414e-001 1.314336e+000
<GCONST> 1.159186e+002
<TRANSP> 3
 0.000000e+000 1.000000e+000 0.000000e+000
 0.000000e+000 9.973563e-001 2.643678e-003
 0.000000e+000 0.000000e+000 0.000000e+000
<ENDHMM>
~h "otomar_nemecek"
<BEGINHMM>
<NUMSTATES> 3
<STATE> 2
<NUMMIXES> 8
<MIXTURE> 1 9.451530e-002
<MEAN> 39
 -1.160295e+001 -1.301358e-001 -1.417428e+000 -1.410258e+000 4.005249e+000 1.426088e+000 4.287794e+000 -1.167099e-001 5.552459e+000 -1.385676e+000 4.621230e+000 -1.353174e+000 5.058496e+001 6.006529e-002 6.739938e-002 1.083763e-001 1.290323e-001 1.793407e-001 2.365974e-001 2.543710e-001 2.635727e-001 3.299326e-001 2.827960e-001 2.836642e-001 2.214573e-001 6.161791e-002 1.923513e-002 6.456570e-002 5.793776e-002 6.703974e-002 7.118887e-002 7.694800e-002 9.509541e-002 8.948753e-002 7.710597e-002 1.270500e-001 7.440948e-002 9.674459e-002 4.563183e-002
<VARIANCE> 39
 1.706485e+000 2.757377e+000 3.472924e+000 5.300180e+000 6.878647e+000 8.782993e+000 1.071096e+001 1.307877e+001 1.347413e+001 1.227894e+001 1.163387e+001 1.006517e+001 5.854710e-001 2.033937e-001 2.896690e-001 3.825857e-001 5.400873e-001 7.534980e-001 9.611131e-001 1.157314e+000 1.425151e+000 1.383113e+000 1.368131e+000 1.409160e+000 1.136333e+000 9.157435e-002 3.211562e-002 5.131385e-002 7.215556e-002 1.081657e-001 1.487516e-001 1.851897e-001 2.285826e-001 2.851751e-001 2.738188e-001 2.776272e-001 2.733012e-001 2.263773e-001 1.457771e-002
<GCONST> 6.183433e+001
<MIXTURE> 2 1.734672e-001
<MEAN> 39
 -6.436473e+000 2.731614e+000 1.151572e+000 -4.552477e+000 1.181337e+000 -1.761946e+000 -3.227974e+000 -4.376981e+000 8.760494e-001 -9.005531e-001 3.497083e+000 -7.460530e+000 7.139049e+001 6.792575e-003 9.375180e-001 7.195727e-001 6.640037e-001 1.319129e+000 -1.676154e-002 8.907897e-001 5.175018e-001 1.978526e-001 5.351889e-001 -1.362025e-001 5.901240e-001 -3.130279e-001 3.090549e-001 2.206896e-001 3.358949e-001 3.825953e-001 2.134573e-001 1.662765e-001 2.403970e-001 -3.484043e-002 9.880260e-002 1.146504e-001 4.494822e-002 2.626758e-001 -1.102298e-001
<VARIANCE> 39
 7.809711e+001 5.967402e+001 6.788107e+001 5.662586e+001 9.498943e+001 7.931925e+001 6.135470e+001 5.864731e+001 6.066362e+001 5.666663e+001 4.647996e+001 4.594285e+001 4.361620e+001 4.358290e+000 2.786732e+000 3.163587e+000 3.184016e+000 4.927502e+000 4.424789e+000 3.576860e+000 4.649161e+000 3.702451e+000 3.323789e+000 3.471923e+000 2.779384e+000 3.790367e+000 8.569308e-001 5.814667e-001 5.169762e-001 6.271624e-001 1.204125e+000 8.789670e-001 8.824499e-001 8.717385e-001 7.908230e-001 7.721617e-001 7.422867e-001 5.362155e-001 6.194612e-001
<GCONST> 1.379658e+002
<MIXTURE> 3 1.596048e-001
<MEAN> 39
 -4.231536e+000 2.814452e+000 5.181900e+000 -3.427559e-001 -9.030980e-001 -1.083924e+000 -3.711933e+000 -8.254398e+000 -2.268603e+000 -2.818211e+000 2.760615e+000 -6.399802e+000 6.797496e+001 9.730438e-001 -2.653329e-001 4.351586e-002 8.232251e-002 -4.413484e-001 8.897433e-001 -2.387317e-001 4.005114e-001 5.545938e-001 2.858972e-001 9.465114e-001 1.164246e-002 1.383141e+000 2.478331e-003 1.204889e-001 -7.631232e-002 -3.938727e-002 2.484128e-001 2.436465e-001 1.878484e-001 4.887498e-001 3.303642e-001 1.856891e-001 2.988961e-001 1.084934e-002 3.689337e-001
<VARIANCE> 39
 3.661391e+001 3.478415e+001 6.376767e+001 5.365702e+001 7.397754e+001 6.466785e+001 4.655451e+001 7.172952e+001 4.557098e+001 6.271609e+001 3.809789e+001 3.528839e+001 4.201522e+001 4.668555e+000 3.180915e+000 4.489192e+000 5.619123e+000 8.441571e+000 5.705858e+000 5.132661e+000 7.603472e+000 5.025269e+000 6.444520e+000 4.253163e+000 3.190854e+000 4.237594e+000 5.796914e-001 4.541728e-001 6.140773e-001 8.743702e-001 1.374559e+000 9.537002e-001 8.817309e-001 1.251898e+000 8.117174e-001 1.013957e+000 8.010246e-001 5.264637e-001 7.569887e-001
<GCONST> 1.405218e+002
<MIXTURE> 4 7.241180e-002
<MEAN> 39
 -6.783993e+000 3.998068e+000 1.471510e+000 -2.451480e+000 1.473092e+000 -1.109189e+000 -2.167548e-001 -4.706968e+000 1.060486e+000 -3.591007e+000 1.976936e+000 -6.726803e+000 6.593632e+001 -1.935215e-002 1.619500e-001 1.691456e-001 3.710231e-001 3.782715e-001 3.390605e-001 4.996385e-001 3.154817e-001 3.767044e-001 2.796293e-001 2.347221e-001 3.441905e-001 -2.502818e-001 1.697785e-001 -6.505481e-002 1.483539e-001 7.188708e-002 1.076710e-001 8.674942e-002 -3.188454e-003 9.976320e-002 1.597498e-002 2.839321e-001 1.978411e-001 1.089081e-001 3.057090e-001
<VARIANCE> 39
 6.192994e+001 3.891642e+001 7.186900e+001 5.199861e+001 6.877380e+001 5.035689e+001 3.478252e+001 4.929909e+001 4.455288e+001 5.171379e+001 3.003310e+001 4.976326e+001 8.711708e+001 6.390536e-001 8.238719e-001 8.988141e-001 1.160615e+000 1.339226e+000 1.667467e+000 1.547050e+000 1.577055e+000 1.702023e+000 1.672261e+000 1.330939e+000 1.129098e+000 7.790118e-001 3.103767e-001 2.096545e-001 2.451599e-001 3.155678e-001 3.238406e-001 3.869302e-001 3.462054e-001 3.850377e-001 3.825360e-001 3.973853e-001 3.225367e-001 2.643315e-001 4.322078e-001
<GCONST> 1.105382e+002
<MIXTURE> 5 1.734672e-001
<MEAN> 39
 -9.971375e+000 -3.583442e-001 -2.144027e+000 -7.562483e+000 -2.717164e+000 -5.324400e+000 -6.361144e+000 -7.440242e+000 -2.239425e+000 -3.911643e+000 7.700347e-001 -1.017178e+001 6.874878e+001 -8.282682e-001 2.697777e-001 8.113593e-003 -4.974872e-002 4.312094e-001 -8.581688e-001 1.342863e-001 -3.449747e-001 -5.718176e-001 -1.940617e-001 -8.815264e-001 -7.673541e-002 -1.091783e+000 -6.122731e-002 -8.432628e-002 4.829070e-002 6.582093e-002 -2.254733e-001 -2.087365e-001 -1.353582e-001 -4.083082e-001 -2.569103e-001 -2.368406e-001 -2.996760e-001 -3.023117e-002 -4.250532e-001
<VARIANCE> 39
 7.809711e+001 5.967402e+001 6.788107e+001 5.662586e+001 9.498943e+001 7.931925e+001 6.135470e+001 5.864731e+001 6.066362e+001 5.666663e+001 4.647996e+001 4.594285e+001 4.361620e+001 4.358290e+000 2.786732e+000 3.163587e+000 3.184016e+000 4.927502e+000 4.424789e+000 3.576860e+000 4.649161e+000 3.702451e+000 3.323789e+000 3.471923e+000 2.779384e+000 3.790367e+000 8.569308e-001 5.814667e-001 5.169762e-001 6.271624e-001 1.204125e+000 8.789670e-001 8.824499e-001 8.717385e-001 7.908230e-001 7.721617e-001 7.422867e-001 5.362155e-001 6.194612e-001
<GCONST> 1.379658e+002
<MIXTURE> 6 1.596048e-001
<MEAN> 39
 -6.651914e+000 4.553282e-001 1.987714e+000 -3.272794e+000 -4.343506e+000 -4.300576e+000 -6.441167e+000 -1.164213e+001 -4.968855e+000 -5.985951e+000 2.916752e-001 -8.775964e+000 6.538219e+001 1.087703e-001 -9.787377e-001 -8.039927e-001 -8.658651e-001 -1.603524e+000 -6.573418e-002 -1.144947e+000 -7.024644e-001 -3.420906e-001 -7.295452e-001 1.215835e-001 -7.028760e-001 5.597240e-001 -3.020715e-001 -1.490805e-001 -3.897647e-001 -4.134184e-001 -2.205535e-001 -1.469838e-001 -1.877538e-001 4.119681e-002 -3.001723e-002 -2.170927e-001 -5.910386e-002 -2.793819e-001 2.091330e-002
<VARIANCE> 39
 3.661391e+001 3.478415e+001 6.376767e+001 5.365702e+001 7.397754e+001 6.466785e+001 4.655451e+001 7.172952e+001 4.557098e+001 6.271609e+001 3.809789e+001 3.528839e+001 4.201522e+001 4.668555e+000 3.180915e+000 4.489192e+000 5.619123e+000 8.441571e+000 5.705858e+000 5.132661e+000 7.603472e+000 5.025269e+000 6.444520e+000 4.253163e+000 3.190854e+000 4.237594e+000 5.796914e-001 4.541728e-001 6.140773e-001 8.743702e-001 1.374559e+000 9.537002e-001 8.817309e-001 1.251898e+000 8.117174e-001 1.013957e+000 8.010246e-001 5.264637e-001 7.569887e-001
<GCONST> 1.405218e+002
<MIXTURE> 7 9.451530e-002
<MEAN> 39
 -1.212547e+001 -7.943498e-001 -2.162860e+000 -2.331142e+000 2.956161e+000 2.406432e-001 2.978690e+000 -1.563293e+000 4.084175e+000 -2.787328e+000 3.256892e+000 -2.622200e+000 5.027890e+001 -1.203315e-001 -1.478842e-001 -1.390377e-001 -1.649303e-001 -1.678763e-001 -1.555481e-001 -1.759431e-001 -2.139460e-001 -1.404907e-001 -1.850725e-001 -1.911680e-001 -2.049384e-001 -5.942710e-002 -5.244819e-002 -2.604454e-002 -4.950938e-002 -6.451448e-002 -8.308445e-002 -9.518670e-002 -9.614584e-002 -1.241196e-001 -1.322048e-001 -8.371133e-002 -1.347034e-001 -9.357191e-002 -2.663447e-003
<VARIANCE> 39
 1.706485e+000 2.757377e+000 3.472924e+000 5.300180e+000 6.878647e+000 8.782993e+000 1.071096e+001 1.307877e+001 1.347413e+001 1.227894e+001 1.163387e+001 1.006517e+001 5.854710e-001 2.033937e-001 2.896690e-001 3.825857e-001 5.400873e-001 7.534980e-001 9.611131e-001 1.157314e+000 1.425151e+000 1.383113e+000 1.368131e+000 1.409160e+000 1.136333e+000 9.157435e-002 3.211562e-002 5.131385e-002 7.215556e-002 1.081657e-001 1.487516e-001 1.851897e-001 2.285826e-001 2.851751e-001 2.738188e-001 2.776272e-001 2.733012e-001 2.263773e-001 1.457771e-002
<GCONST> 6.183433e+001
<MIXTURE> 8 7.241180e-002
<MEAN> 39
 -9.931816e+000 1.502747e+000 -1.919514e+000 -5.335882e+000 -1.844107e+000 -3.947693e+000 -2.575823e+000 -7.515501e+000 -1.609432e+000 -6.467499e+000 -2.151631e-001 -9.548527e+000 6.220286e+001 -3.391154e-001 -2.011196e-001 -2.100776e-001 -5.990428e-002 -8.462827e-002 -1.774613e-001 2.116650e-003 -1.868417e-001 -1.451420e-001 -2.376344e-001 -2.267432e-001 -8.084555e-002 -6.033284e-001 -5.306736e-002 -2.482070e-001 -4.970060e-002 -1.528146e-001 -1.199570e-001 -1.620654e-001 -2.385454e-001 -1.484424e-001 -2.314230e-001 3.177808e-002 -2.932815e-002 -9.674461e-002 4.273897e-002
<VARIANCE> 39
 6.192994e+001 3.891642e+001 7.186900e+001 5.199861e+001 6.877380e+001 5.035689e+001 3.478252e+001 4.929909e+001 4.455288e+001 5.171379e+001 3.003310e+001 4.976326e+001 8.711708e+001 6.390536e-001 8.238719e-001 8.988141e-001 1.160615e+000 1.339226e+000 1.667467e+000 1.547050e+000 1.577055e+000 1.702023e+000 1.672261e+000 1.330939e+000 1.129098e+000 7.790118e-001 3.103767e-001 2.096545e-001 2.451599e-001 3.155678e-001 3.238406e-001 3.869302e-001 3.462054e-001 3.850377e-001 3.825360e-001 3.973853e-001 3.225367e-001 2.643315e-001 4.322078e-001
<GCONST> 1.105382e+002
<TRANSP> 3
 0.000000e+000 1.000000e+000 0.000000e+000
 0.000000e+000 9.979499e-001 2.050095e-003
 0.000000e+000 0.000000e+000 0.000000e+000
<ENDHMM>
~h "dvorsky"
<BEGINHMM>
<NUMSTATES> 3
<STATE> 2
<NUMMIXES> 8
<MIXTURE> 1 7.407970e-002
<MEAN> 39
 -5.509348e+000 7.879855e+000 5.151267e+000 6.095630e+000 4.406127e+000 3.096757e+000 2.863427e+000 2.326322e+000 2.881303e+000 2.315388e+000 3.201944e+000 2.436713e+000 4.555370e+001 1.615495e-001 2.927442e-001 3.322620e-001 3.485010e-001 2.774731e-001 2.437749e-001 2.363936e-001 2.324620e-001 2.049895e-001 1.724904e-001 1.696845e-001 1.426692e-001 5.654796e-002 -5.995744e-002 -7.676482e-002 -5.802684e-002 -1.377691e-002 8.498934e-002 1.339497e-001 2.105319e-001 2.451278e-001 2.653159e-001 2.648404e-001 2.593414e-001 2.114695e-001 -1.275159e-003
<VARIANCE> 39
 1.287372e+000 2.967284e+000 3.888048e+000 5.401955e+000 5.856718e+000 7.365103e+000 7.590482e+000 9.053727e+000 1.013134e+001 9.674510e+000 1.039505e+001 1.019058e+001 4.559422e-001 2.047104e-001 4.415988e-001 5.359651e-001 6.842349e-001 7.225903e-001 8.713744e-001 1.016989e+000 1.184036e+000 1.298677e+000 1.386136e+000 1.428723e+000 1.374916e+000 6.003087e-002 3.520730e-002 7.659049e-002 1.007807e-001 1.327617e-001 1.446548e-001 1.713323e-001 1.922526e-001 2.186826e-001 2.292685e-001 2.333556e-001 2.582139e-001 2.534084e-001 1.011503e-002
<GCONST> 5.994080e+001
<MIXTURE> 2 1.854917e-001
<MEAN> 39
 -1.393478e+000 2.687001e-002 6.803293e+000 -3.088194e+000 2.277734e+000 7.354939e-001 -9.678279e-001 3.308891e+000 -9.698734e-001 7.401489e+000 1.297046e+000 -1.047426e+000 7.142175e+001 -6.976098e-002 9.782757e-001 2.369670e-001 1.050870e+000 8.584015e-001 4.555825e-001 9.008114e-001 1.261865e-001 6.846983e-001 1.662523e-001 4.499961e-001 4.478171e-001 -4.611413e-001 4.111034e-002 3.394361e-001 1.354567e-001 4.918898e-001 2.358187e-001 1.258469e-001 3.216594e-001 3.625344e-002 3.292408e-001 -5.369641e-002 2.026843e-001 1.563433e-001 -1.683995e-001
<VARIANCE> 39
 8.249972e+001 4.715947e+001 9.319337e+001 6.849892e+001 6.730942e+001 8.037991e+001 6.194902e+001 6.606598e+001 6.324071e+001 4.555198e+001 5.238724e+001 3.578383e+001 4.863626e+001 2.187061e+000 2.289291e+000 2.196926e+000 4.233867e+000 3.307432e+000 3.411722e+000 3.251421e+000 3.671421e+000 3.707057e+000 2.983406e+000 2.904552e+000 2.326896e+000 2.844280e+000 4.860871e-001 4.506299e-001 4.364789e-001 6.923146e-001 6.625711e-001 6.399013e-001 6.907080e-001 7.599667e-001 7.475006e-001 5.559850e-001 5.661648e-001 4.544351e-001 3.986253e-001
<GCONST> 1.317347e+002
<MIXTURE> 3 1.762294e-001
<MEAN> 39
 -4.926567e+000 3.846380e+000 8.151001e+000 3.806455e+000 2.534135e+000 -1.567578e+000 1.792297e+000 1.080027e+000 1.097903e+000 3.078657e+000 3.153343e+000 -3.874313e-001 6.611372e+001 9.231946e-001 -3.484578e-001 5.110886e-001 -2.172726e-001 -1.066974e-001 3.628821e-001 -1.145415e-001 7.223643e-001 1.601392e-001 5.518878e-001 2.272280e-001 1.980788e-001 1.335645e+000 2.973057e-001 -5.175173e-002 1.621566e-001 -1.536731e-001 9.841207e-002 2.203617e-001 2.147743e-002 3.294225e-001 2.708441e-002 3.711185e-001 1.040906e-001 1.337963e-001 5.068830e-001
<VARIANCE> 39
 8.496777e+001 4.066089e+001 7.334258e+001 4.678407e+001 4.842173e+001 5.516340e+001 5.623924e+001 4.193384e+001 5.252490e+001 2.939905e+001 2.860859e+001 3.497396e+001 7.835478e+001 7.022088e+000 3.465718e+000 5.269548e+000 5.330135e+000 4.275641e+000 5.053750e+000 5.127579e+000 4.943699e+000 5.564398e+000 3.581641e+000 3.128879e+000 3.085009e+000 5.869055e+000 9.290084e-001 6.327572e-001 7.111877e-001 8.452752e-001 7.764983e-001 8.435833e-001 8.686858e-001 8.469461e-001 8.998478e-001 5.906464e-001 5.546288e-001 5.480274e-001 1.095801e+000
<GCONST> 1.385938e+002
<MIXTURE> 4 6.419915e-002
<MEAN> 39
 -6.576414e+000 6.262936e+000 3.594101e+000 5.191068e+000 4.735547e+000 3.889259e+000 4.482663e+000 4.235406e+000 5.043478e+000 4.335102e+000 5.125910e+000 3.811191e+000 4.534340e+001 -2.321975e-002 -4.740334e-002 -5.616695e-002 -4.118940e-002 6.410251e-002 1.325856e-001 1.595016e-001 1.688907e-001 2.474887e-001 3.329500e-001 3.424372e-001 3.334152e-001 8.839384e-003 1.430155e-001 1.864000e-001 2.074838e-001 1.582028e-001 7.236932e-002 2.322359e-002 -5.026659e-002 -8.178013e-002 -1.081608e-001 -1.082929e-001 -1.037991e-001 -4.295484e-002 8.341496e-002
<VARIANCE> 39
 1.227077e+000 2.240939e+000 3.513008e+000 5.281887e+000 7.613682e+000 8.683474e+000 9.282025e+000 9.636805e+000 1.136009e+001 1.175043e+001 1.244648e+001 1.188684e+001 7.236050e-001 1.640321e-001 3.137040e-001 4.323092e-001 5.850054e-001 8.532707e-001 9.380743e-001 1.039703e+000 1.164317e+000 1.331355e+000 1.325348e+000 1.447421e+000 1.385607e+000 7.223589e-002 2.677565e-002 5.142133e-002 8.135435e-002 1.237331e-001 1.714391e-001 1.919857e-001 2.060720e-001 2.211312e-001 2.447444e-001 2.623488e-001 2.724970e-001 2.841016e-001 1.469751e-002
<GCONST> 6.091141e+001
<MIXTURE> 5 1.854917e-001
<MEAN> 39
 -5.026652e+000 -2.720040e+000 2.941825e+000 -6.398757e+000 -1.003959e+000 -2.850700e+000 -4.116136e+000 5.765140e-002 -4.150835e+000 4.701801e+000 -1.598116e+000 -3.440210e+000 6.863217e+001 -6.613096e-001 3.730595e-001 -3.559142e-001 2.278158e-001 1.309476e-001 -2.832514e-001 1.795436e-001 -6.402516e-001 -8.545047e-002 -5.246493e-001 -2.317138e-001 -1.623495e-001 -1.135741e+000 -2.377695e-001 7.092015e-002 -1.288095e-001 1.590680e-001 -8.977524e-002 -1.941284e-001 -1.077598e-002 -3.124508e-001 -1.659164e-002 -3.519540e-001 -9.829138e-002 -1.133039e-001 -4.209467e-001
<VARIANCE> 39
 8.249972e+001 4.715947e+001 9.319337e+001 6.849892e+001 6.730942e+001 8.037991e+001 6.194902e+001 6.606598e+001 6.324071e+001 4.555198e+001 5.238724e+001 3.578383e+001 4.863626e+001 2.187061e+000 2.289291e+000 2.196926e+000 4.233867e+000 3.307432e+000 3.411722e+000 3.251421e+000 3.671421e+000 3.707057e+000 2.983406e+000 2.904552e+000 2.326896e+000 2.844280e+000 4.860871e-001 4.506299e-001 4.364789e-001 6.923146e-001 6.625711e-001 6.399013e-001 6.907080e-001 7.599667e-001 7.475006e-001 5.559850e-001 5.661648e-001 4.544351e-001 3.986253e-001
<GCONST> 1.317347e+002
<MIXTURE> 6 1.762294e-001
<MEAN> 39
 -8.613686e+000 1.295744e+000 4.725389e+000 1.070499e+000 -2.492934e-001 -4.538460e+000 -1.207417e+000 -1.510226e+000 -1.801059e+000 9.098212e-001 1.013863e+000 -2.752983e+000 6.257300e+001 -1.367744e-001 -1.093115e+000 -4.071312e-001 -1.140756e+000 -9.338024e-001 -5.363398e-001 -1.020308e+000 -1.670129e-001 -7.834198e-001 -2.051212e-001 -4.803176e-001 -5.044889e-001 3.666002e-001 -8.823467e-002 -3.699359e-001 -1.751712e-001 -5.214285e-001 -2.540645e-001 -1.470255e-001 -3.513358e-001 -3.869624e-002 -3.523568e-001 6.370446e-002 -1.938031e-001 -1.623192e-001 8.816098e-002
<VARIANCE> 39
 8.496777e+001 4.066089e+001 7.334258e+001 4.678407e+001 4.842173e+001 5.516340e+001 5.623924e+001 4.193384e+001 5.252490e+001 2.939905e+001 2.860859e+001 3.497396e+001 7.835478e+001 7.022088e+000 3.465718e+000 5.269548e+000 5.330135e+000 4.275641e+000 5.053750e+000 5.127579e+000 4.943699e+000 5.564398e+000 3.581641e+000 3.128879e+000 3.085009e+000 5.869055e+000 9.290084e-001 6.327572e-001 7.111877e-001 8.452752e-001 7.764983e-001 8.435833e-001 8.686858e-001 8.469461e-001 8.998478e-001 5.906464e-001 5.546288e-001 5.480274e-001 1.095801e+000
<GCONST> 1.385938e+002
<MIXTURE> 7 7.407970e-002
<MEAN> 39
 -5.963198e+000 7.190823e+000 4.362541e+000 5.165946e+000 3.438101e+000 2.011209e+000 1.761394e+000 1.122746e+000 1.608113e+000 1.071234e+000 1.912290e+000 1.159805e+000 4.528360e+001 -1.943023e-002 2.693258e-002 3.942342e-002 1.762702e-002 -6.254812e-002 -1.296149e-001 -1.669899e-001 -2.027917e-001 -2.508486e-001 -2.984468e-001 -3.084323e-001 -3.263581e-001 -4.145684e-002 -1.350119e-001 -1.874648e-001 -1.850108e-001 -1.595228e-001 -6.714471e-002 -3.161949e-002 3.514545e-002 5.807377e-002 7.378791e-002 7.161281e-002 5.608239e-002 1.011073e-002 -4.150456e-002
<VARIANCE> 39
 1.287372e+000 2.967284e+000 3.888048e+000 5.401955e+000 5.856718e+000 7.365103e+000 7.590482e+000 9.053727e+000 1.013134e+001 9.674510e+000 1.039505e+001 1.019058e+001 4.559422e-001 2.047104e-001 4.415988e-001 5.359651e-001 6.842349e-001 7.225903e-001 8.713744e-001 1.016989e+000 1.184036e+000 1.298677e+000 1.386136e+000 1.428723e+000 1.374916e+000 6.003087e-002 3.520730e-002 7.659049e-002 1.007807e-001 1.327617e-001 1.446548e-001 1.713323e-001 1.922526e-001 2.186826e-001 2.292685e-001 2.333556e-001 2.582139e-001 2.534084e-001 1.011503e-002
<GCONST> 5.994080e+001
<MIXTURE> 8 6.419915e-002
<MEAN> 39
 -7.019508e+000 5.664145e+000 2.844380e+000 4.271774e+000 3.631831e+000 2.710549e+000 3.264007e+000 2.993678e+000 3.695288e+000 2.963946e+000 3.714728e+000 2.432099e+000 4.500314e+001 -1.852233e-001 -2.714405e-001 -3.191679e-001 -3.471320e-001 -3.053881e-001 -2.548314e-001 -2.483617e-001 -2.627234e-001 -2.140487e-001 -1.275450e-001 -1.387980e-001 -1.374321e-001 -9.866756e-002 7.756247e-002 9.569494e-002 9.339303e-002 1.749993e-002 -9.325150e-002 -1.520411e-001 -2.318472e-001 -2.698785e-001 -3.060474e-001 -3.131729e-001 -3.126041e-001 -2.561596e-001 3.492165e-002
<VARIANCE> 39
 1.227077e+000 2.240939e+000 3.513008e+000 5.281887e+000 7.613682e+000 8.683474e+000 9.282025e+000 9.636805e+000 1.136009e+001 1.175043e+001 1.244648e+001 1.188684e+001 7.236050e-001 1.640321e-001 3.137040e-001 4.323092e-001 5.850054e-001 8.532707e-001 9.380743e-001 1.039703e+000 1.164317e+000 1.331355e+000 1.325348e+000 1.447421e+000 1.385607e+000 7.223589e-002 2.677565e-002 5.142133e-002 8.135435e-002 1.237331e-001 1.714391e-001 1.919857e-001 2.060720e-001 2.211312e-001 2.447444e-001 2.623488e-001 2.724970e-001 2.841016e-001 1.469751e-002
<GCONST> 6.091141e+001
<TRANSP> 3
 0.000000e+000 1.000000e+000 0.000000e+000
 0.000000e+000 9.981556e-001 1.844426e-003
 0.000000e+000 0.000000e+000 0.000000e+000
<ENDHMM>
~h "martin_jiricek"
<BEGINHMM>
<NUMSTATES> 3
<STATE> 2
<NUMMIXES> 8
<MIXTURE> 1 1.178951e-001
<MEAN> 39
 -1.422643e+001 1.224792e+000 -2.519426e+000 -5.813649e+000 2.689791e+000 -1.028379e+001 4.116142e+000 -4.235073e+000 1.622570e+000 -5.695517e+000 2.242856e+000 -2.708866e+000 6.781421e+001 8.241965e-001 -3.217603e-002 6.885782e-001 3.881452e-001 -3.991731e-001 2.446417e-001 2.554002e-001 2.908934e-001 5.220032e-001 3.115942e-001 5.847499e-001 4.296629e-001 6.298808e-001 4.963051e-001 -4.633048e-002 3.099639e-001 1.805551e-001 -3.558377e-001 -4.370750e-002 -6.808440e-002 -6.089149e-002 7.903542e-002 5.132952e-002 2.098640e-001 1.315144e-001 3.135155e-001
<VARIANCE> 39
 2.665143e+001 1.673734e+001 2.675441e+001 2.007275e+001 2.176297e+001 2.497261e+001 2.761417e+001 2.714190e+001 2.338239e+001 2.314559e+001 1.895785e+001 1.801738e+001 1.075056e+001 3.852221e+000 1.516780e+000 1.880055e+000 2.079753e+000 3.030171e+000 2.633282e+000 2.735946e+000 2.269122e+000 2.419497e+000 2.484907e+000 1.837136e+000 1.925771e+000 1.115140e+000 3.769271e-001 3.008200e-001 2.736973e-001 3.421269e-001 4.724815e-001 4.585171e-001 4.399914e-001 3.943294e-001 4.300605e-001 4.696909e-001 3.600562e-001 3.599665e-001 1.775853e-001
<GCONST> 1.084839e+002
<MIXTURE> 2 1.155851e-001
<MEAN> 39
 -2.410345e+000 -6.023439e+000 -3.075667e+000 -9.216539e+000 -9.950277e+000 -7.578327e+000 4.009424e+000 -9.448479e+000 5.432619e+000 -3.053059e+000 2.655372e+000 -4.975383e+000 7.602980e+001 7.744652e-002 4.264464e-001 1.786436e-001 3.375682e-001 5.608728e-001 3.079993e-001 2.685836e-001 3.699299e-001 2.913987e-001 2.507104e-001 1.341470e-001 1.513751e-001 1.529282e-002 -1.124160e-001 3.462334e-001 2.043786e-001 2.759517e-001 3.351716e-001 -7.333449e-002 1.131520e-001 2.006388e-001 -6.151839e-002 -2.267575e-002 1.012222e-001 1.847599e-001 -1.254236e-001
<VARIANCE> 39
 3.539688e+000 2.261573e+001 3.442296e+001 3.447805e+001 2.130020e+001 4.545823e+001 5.605399e+001 4.143315e+001 4.354337e+001 3.307118e+001 2.733482e+001 3.378223e+001 5.584188e+000 3.043207e-001 1.666099e+000 1.307666e+000 1.782648e+000 1.917171e+000 2.607989e+000 2.522579e+000 2.552483e+000 3.523885e+000 2.152402e+000 1.819762e+000 2.101923e+000 5.693406e-001 7.906543e-002 2.076963e-001 1.598244e-001 2.365391e-001 3.245372e-001 3.359333e-001 3.904328e-001 4.455650e-001 6.037439e-001 3.547915e-001 3.346937e-001 3.547584e-001 8.831563e-002
<GCONST> 1.025806e+002
<MIXTURE> 3 1.544982e-001
<MEAN> 39
 -9.491106e+000 1.835495e+000 -1.322690e+000 -4.168730e+000 2.760351e-001 -1.285934e+001 2.477196e+000 -6.515565e+000 -1.192173e+000 -7.082759e+000 1.705074e+000 -3.008718e+000 6.837051e+001 -2.581951e-001 4.107899e-001 -1.560365e-001 2.091457e-001 9.615558e-001 3.199465e-001 5.072656e-001 4.171605e-001 1.249522e-001 2.932349e-001 8.776993e-003 2.245995e-001 -2.833060e-001 5.429318e-002 -1.386821e-001 1.603231e-001 2.991115e-002 -1.500586e-001 2.217482e-001 1.321876e-001 1.845926e-001 3.491992e-001 1.576957e-001 1.878147e-001 1.443666e-001 2.200047e-001
<VARIANCE> 39
 2.801500e+001 1.220288e+001 2.734942e+001 2.154035e+001 2.264048e+001 2.193087e+001 2.481707e+001 2.422831e+001 2.461500e+001 2.447389e+001 1.879136e+001 1.841811e+001 1.056287e+001 1.141912e+000 1.045070e+000 1.185549e+000 1.247233e+000 1.735633e+000 1.708379e+000 1.672512e+000 1.627423e+000 1.943548e+000 1.806407e+000 1.462635e+000 1.485691e+000 4.421026e-001 1.280653e-001 1.514287e-001 1.627637e-001 1.958934e-001 2.807670e-001 2.769093e-001 3.053287e-001 3.140499e-001 3.580352e-001 3.152421e-001 2.797121e-001 2.567095e-001 6.472640e-002
<GCONST> 9.513361e+001
<MIXTURE> 4 1.120197e-001
<MEAN> 39
 -7.055505e+000 -2.477207e+000 7.279513e+000 -1.531237e+000 -1.036830e+001 -1.415010e+001 -1.972042e-001 -7.628746e+000 1.400385e+000 -9.298489e+000 3.882158e+000 -1.574833e+000 7.381692e+001 5.623516e-001 1.288089e-001 4.587026e-001 1.210501e-001 2.671146e-002 3.638594e-001 1.143924e-001 5.555376e-002 4.417089e-001 3.151502e-001 4.245695e-001 2.612992e-001 5.038805e-001 -6.346111e-002 3.083551e-001 -3.398837e-001 -5.039587e-002 7.959427e-001 3.728877e-001 3.403494e-001 1.723334e-001 1.178678e-001 3.151060e-001 -6.788795e-002 -1.199223e-002 -2.107583e-001
<VARIANCE> 39
 2.971299e+001 1.860806e+001 3.924379e+001 3.142387e+001 3.406817e+001 4.145520e+001 4.146708e+001 3.108635e+001 3.895401e+001 3.514484e+001 2.193681e+001 2.390406e+001 5.689044e+000 2.561163e+000 2.523561e+000 2.851173e+000 2.049793e+000 6.467627e+000 3.199176e+000 2.982914e+000 2.702152e+000 3.335351e+000 2.537673e+000 2.386063e+000 1.882018e+000 1.508717e+000 4.393587e-001 2.971583e-001 3.213582e-001 3.747199e-001 5.624126e-001 5.794716e-001 5.635026e-001 5.199097e-001 5.706937e-001 4.434988e-001 4.396575e-001 3.918652e-001 1.343111e-001
<GCONST> 1.159026e+002
<MIXTURE> 5 1.544982e-001
<MEAN> 39
 -1.160827e+001 4.381905e-001 -3.414557e+000 -6.025194e+000 -1.627245e+000 -1.473256e+001 4.845263e-001 -8.484455e+000 -3.176713e+000 -9.061603e+000 -2.888650e-002 -4.725371e+000 6.707049e+001 -6.856363e-001 1.875252e-003 -5.915681e-001 -2.375726e-001 4.345821e-001 -2.028734e-001 -1.003699e-002 -9.312148e-002 -4.326926e-001 -2.443757e-001 -4.749808e-001 -2.629562e-001 -5.492692e-001 -8.885168e-002 -2.943375e-001 -1.052871e-003 -1.471282e-001 -3.620084e-001 1.125956e-002 -8.883861e-002 -3.956800e-002 1.098550e-001 -6.689002e-002 -2.373660e-002 -5.829944e-002 1.182391e-001
<VARIANCE> 39
 2.801500e+001 1.220288e+001 2.734942e+001 2.154035e+001 2.264048e+001 2.193087e+001 2.481707e+001 2.422831e+001 2.461500e+001 2.447389e+001 1.879136e+001 1.841811e+001 1.056287e+001 1.141912e+000 1.045070e+000 1.185549e+000 1.247233e+000 1.735633e+000 1.708379e+000 1.672512e+000 1.627423e+000 1.943548e+000 1.806407e+000 1.462635e+000 1.485691e+000 4.421026e-001 1.280653e-001 1.514287e-001 1.627637e-001 1.958934e-001 2.807670e-001 2.769093e-001 3.053287e-001 3.140499e-001 3.580352e-001 3.152421e-001 2.797121e-001 2.567095e-001 6.472640e-002
<GCONST> 9.513361e+001
<MIXTURE> 6 1.178951e-001
<MEAN> 39
 -1.629143e+001 -4.116596e-001 -4.588412e+000 -7.605753e+000 8.237590e-001 -1.228269e+001 2.014174e+000 -6.318989e+000 -3.116437e-001 -7.619911e+000 5.012317e-001 -4.406742e+000 6.650269e+001 3.911346e-002 -5.248066e-001 1.401179e-001 -1.887087e-001 -1.095469e+000 -4.044539e-001 -4.062276e-001 -3.116508e-001 -1.001860e-001 -3.189493e-001 4.258591e-002 -1.254257e-001 2.074800e-001 2.507275e-001 -2.657187e-001 1.006995e-001 -5.341140e-002 -6.307869e-001 -3.145631e-001 -3.334118e-001 -3.120741e-001 -1.832806e-001 -2.228065e-001 -3.015472e-002 -1.084744e-001 1.449521e-001
<VARIANCE> 39
 2.665143e+001 1.673734e+001 2.675441e+001 2.007275e+001 2.176297e+001 2.497261e+001 2.761417e+001 2.714190e+001 2.338239e+001 2.314559e+001 1.895785e+001 1.801738e+001 1.075056e+001 3.852221e+000 1.516780e+000 1.880055e+000 2.079753e+000 3.030171e+000 2.633282e+000 2.735946e+000 2.269122e+000 2.419497e+000 2.484907e+000 1.837136e+000 1.925771e+000 1.115140e+000 3.769271e-001 3.008200e-001 2.736973e-001 3.421269e-001 4.724815e-001 4.585171e-001 4.399914e-001 3.943294e-001 4.300605e-001 4.696909e-001 3.600562e-001 3.599665e-001 1.775853e-001
<GCONST> 1.084839e+002
<MIXTURE> 7 1.155851e-001
<MEAN> 39
 -3.162907e+000 -7.925679e+000 -5.422510e+000 -1.156526e+001 -1.179636e+001 -1.027524e+001 1.014656e+000 -1.202322e+001 2.793123e+000 -5.353361e+000 5.640637e-001 -7.300283e+000 7.508456e+001 -1.432146e-001 -8.986343e-002 -2.787693e-001 -1.964952e-001 7.025003e-003 -3.379715e-001 -3.667216e-001 -2.691299e-001 -4.594819e-001 -3.361323e-001 -4.054472e-001 -4.285453e-001 -2.865258e-001 -2.248902e-001 1.639386e-001 4.446641e-002 8.141053e-002 1.072990e-001 -3.051735e-001 -1.367864e-001 -6.636382e-002 -3.723222e-001 -2.609333e-001 -1.301887e-001 -5.348654e-002 -2.442954e-001
<VARIANCE> 39
 3.539688e+000 2.261573e+001 3.442296e+001 3.447805e+001 2.130020e+001 4.545823e+001 5.605399e+001 4.143315e+001 4.354337e+001 3.307118e+001 2.733482e+001 3.378223e+001 5.584188e+000 3.043207e-001 1.666099e+000 1.307666e+000 1.782648e+000 1.917171e+000 2.607989e+000 2.522579e+000 2.552483e+000 3.523885e+000 2.152402e+000 1.819762e+000 2.101923e+000 5.693406e-001 7.906543e-002 2.076963e-001 1.598244e-001 2.365391e-001 3.245372e-001 3.359333e-001 3.904328e-001 4.455650e-001 6.037439e-001 3.547915e-001 3.346937e-001 3.547584e-001 8.831563e-002
<GCONST> 1.025806e+002
<MIXTURE> 8 1.120197e-001
<MEAN> 39
 -9.235890e+000 -4.202689e+000 4.773719e+000 -3.773517e+000 -1.270302e+001 -1.672552e+001 -2.773002e+000 -9.858952e+000 -1.096141e+000 -1.166981e+001 2.008688e+000 -3.530505e+000 7.286285e+001 -7.779378e-002 -5.066199e-001 -2.167140e-001 -4.516339e-001 -9.905497e-001 -3.515902e-001 -5.764522e-001 -6.019752e-001 -2.888089e-001 -3.220528e-001 -1.933059e-001 -2.874474e-001 1.256111e-002 -3.285977e-001 9.030614e-002 -5.666376e-001 -2.952533e-001 4.959660e-001 6.839554e-002 4.008217e-002 -1.160856e-001 -1.843092e-001 4.872319e-002 -3.331146e-001 -2.623888e-001 -3.573523e-001
<VARIANCE> 39
 2.971299e+001 1.860806e+001 3.924379e+001 3.142387e+001 3.406817e+001 4.145520e+001 4.146708e+001 3.108635e+001 3.895401e+001 3.514484e+001 2.193681e+001 2.390406e+001 5.689044e+000 2.561163e+000 2.523561e+000 2.851173e+000 2.049793e+000 6.467627e+000 3.199176e+000 2.982914e+000 2.702152e+000 3.335351e+000 2.537673e+000 2.386063e+000 1.882018e+000 1.508717e+000 4.393587e-001 2.971583e-001 3.213582e-001 3.747199e-001 5.624126e-001 5.794716e-001 5.635026e-001 5.199097e-001 5.706937e-001 4.434988e-001 4.396575e-001 3.918652e-001 1.343111e-001
<GCONST> 1.159026e+002
<TRANSP> 3
 0.000000e+000 1.000000e+000 0.000000e+000
 0.000000e+000 9.975210e-001 2.478983e-003
 0.000000e+000 0.000000e+000 0.000000e+000
<ENDHMM>
~h "kounovsky"
<BEGINHMM>
<NUMSTATES> 3
<STATE> 2
<NUMMIXES> 8
<MIXTURE> 1 7.257030e-002
<MEAN> 39
 -1.298305e+001 2.725899e+000 -1.246165e+000 7.106141e+000 2.800117e+000 7.448983e+000 3.351948e+000 5.568015e+000 4.511412e+000 6.975078e+000 5.300765e+000 4.400335e+000 4.195298e+001 4.191484e-002 5.873646e-002 8.049364e-002 1.471776e-001 1.721089e-001 1.641489e-001 1.916608e-001 1.967634e-001 1.798816e-001 2.039309e-001 2.165002e-001 1.801168e-001 2.580313e-002 2.372355e-002 2.593644e-002 3.948139e-002 3.740022e-002 1.045231e-002 2.051238e-002 1.293029e-002 8.470081e-003 3.954132e-002 7.510325e-002 5.421444e-002 6.527559e-002 2.032660e-002
<VARIANCE> 39
 1.361537e+000 3.168478e+000 5.397373e+000 6.755838e+000 7.659487e+000 8.918040e+000 1.114230e+001 1.209428e+001 1.192862e+001 1.338729e+001 1.391341e+001 1.228762e+001 3.373499e-001 8.222064e-002 1.755935e-001 3.320617e-001 4.978041e-001 7.080617e-001 9.353216e-001 1.078520e+000 1.199445e+000 1.070225e+000 1.254511e+000 1.246742e+000 1.014444e+000 2.449162e-002 1.563953e-002 3.470200e-002 6.627641e-002 9.386385e-002 1.399053e-001 1.876102e-001 2.144232e-001 2.257534e-001 1.994796e-001 2.506202e-001 2.679780e-001 2.161051e-001 5.046264e-003
<GCONST> 5.521764e+001
<MIXTURE> 2 1.938048e-001
<MEAN> 39
 -3.467362e+000 -5.633812e+000 3.648922e+000 3.053504e+000 -1.463269e+001 9.048840e+000 -6.190382e+000 -3.764295e+000 1.233398e+000 5.150949e+000 -3.150889e+000 -2.531622e+000 6.986935e+001 2.590092e-001 6.710846e-001 3.190265e-001 5.852777e-001 7.960769e-001 4.043176e-001 7.059765e-001 4.026900e-001 2.463046e-001 3.113141e-001 1.805068e-001 2.579988e-001 7.635969e-002 2.174285e-001 4.993546e-001 2.392777e-001 4.224898e-001 4.824763e-001 4.921485e-002 4.222791e-001 3.981166e-002 -8.281472e-002 -1.652417e-002 8.212771e-002 8.472410e-002 -2.530449e-001
<VARIANCE> 39
 1.479307e+002 5.365775e+001 6.592153e+001 6.029424e+001 1.007940e+002 1.009835e+002 9.414479e+001 6.505602e+001 5.064752e+001 5.138261e+001 4.073603e+001 3.850054e+001 3.049667e+001 3.182858e+000 3.228574e+000 2.299604e+000 3.183496e+000 4.695859e+000 3.820227e+000 4.458632e+000 3.667690e+000 3.310933e+000 2.928920e+000 2.593839e+000 2.146515e+000 3.028437e+000 7.474684e-001 4.375349e-001 4.915699e-001 4.191883e-001 7.299564e-001 5.874199e-001 9.551839e-001 6.196780e-001 5.875772e-001 5.091396e-001 4.665624e-001 4.058363e-001 3.190369e-001
<GCONST> 1.325490e+002
<MIXTURE> 3 1.802619e-001
<MEAN> 39
 -3.876584e+000 1.140383e+000 8.184732e+000 1.001053e+001 -9.226807e+000 5.734482e+000 -3.605243e+000 -4.881141e+000 -5.128009e+000 -3.581257e-001 -3.004499e+000 -3.323526e+000 6.191932e+001 6.235967e-001 8.137849e-002 4.466176e-001 1.324858e-001 1.282580e-001 3.914921e-001 1.685751e-001 3.509349e-001 5.611100e-001 4.292711e-001 4.796119e-001 3.277658e-001 7.883405e-001 8.784011e-002 -2.316266e-001 5.317657e-002 -1.704524e-001 -1.288727e-001 2.744040e-001 -7.515243e-002 3.014721e-001 4.339406e-001 3.321879e-001 2.194455e-001 1.843683e-001 5.701156e-001
<VARIANCE> 39
 5.409499e+001 4.418840e+001 9.204739e+001 4.864523e+001 9.013540e+001 6.124663e+001 4.946619e+001 5.202434e+001 6.910036e+001 5.524788e+001 3.589080e+001 2.796229e+001 7.060281e+001 6.473462e+000 4.554941e+000 5.572559e+000 3.760551e+000 7.647216e+000 4.345571e+000 5.811161e+000 3.986949e+000 5.226364e+000 3.874612e+000 3.006460e+000 2.628604e+000 5.705892e+000 4.879188e-001 6.428896e-001 6.820288e-001 5.375487e-001 9.852107e-001 6.936660e-001 6.839660e-001 6.715298e-001 7.322171e-001 5.750746e-001 5.508080e-001 4.311738e-001 8.729189e-001
<GCONST> 1.378778e+002
<MIXTURE> 4 5.336310e-002
<MEAN> 39
 -1.303061e+001 1.457479e+000 -3.224896e+000 4.998713e+000 -3.049250e-001 4.518978e+000 -3.300825e-001 1.492787e+000 1.198721e+000 4.565234e+000 2.479208e+000 2.060245e+000 4.237916e+001 1.484190e-002 1.250653e-001 1.665556e-001 1.450104e-001 2.496018e-001 2.421828e-001 2.341887e-001 2.721820e-001 2.605323e-001 1.639402e-001 2.160465e-001 2.629137e-001 -3.103358e-002 5.300836e-002 4.958771e-002 9.387702e-002 1.029023e-001 1.351712e-001 1.921115e-001 2.070604e-001 1.905307e-001 1.592596e-001 1.077625e-001 1.139982e-001 1.162426e-001 5.089916e-002
<VARIANCE> 39
 2.668399e+000 2.220575e+000 4.248290e+000 6.703159e+000 8.047132e+000 9.364562e+000 8.745275e+000 1.269287e+001 1.599007e+001 1.274920e+001 1.111302e+001 1.015810e+001 1.750716e+000 1.210466e-001 2.365077e-001 4.650765e-001 6.625992e-001 7.466080e-001 9.040462e-001 1.159980e+000 1.332068e+000 1.490861e+000 1.301624e+000 1.332069e+000 1.172908e+000 5.177486e-002 3.071445e-002 4.879781e-002 9.255745e-002 1.345763e-001 1.508316e-001 1.808206e-001 2.238144e-001 2.852360e-001 2.998297e-001 2.705566e-001 2.529350e-001 2.231062e-001 1.315376e-002
<GCONST> 6.294161e+001
<MIXTURE> 5 1.938048e-001
<MEAN> 39
 -8.332433e+000 -8.563870e+000 4.012394e-001 -5.247128e-002 -1.864853e+001 5.029218e+000 -1.007151e+001 -6.990587e+000 -1.613285e+000 2.283682e+000 -5.703880e+000 -5.013574e+000 6.766040e+001 -4.546134e-001 -4.764464e-002 -2.875513e-001 -1.284165e-001 -7.072034e-002 -3.774985e-001 -1.386424e-001 -3.633586e-001 -4.815342e-001 -3.732494e-001 -4.637092e-001 -3.280408e-001 -6.197365e-001 -1.283965e-001 2.347690e-001 -4.117047e-002 1.635108e-001 1.407263e-001 -2.573585e-001 3.134507e-002 -2.750669e-001 -3.894291e-001 -3.019402e-001 -1.910938e-001 -1.700971e-001 -4.789783e-001
<VARIANCE> 39
 1.479307e+002 5.365775e+001 6.592153e+001 6.029424e+001 1.007940e+002 1.009835e+002 9.414479e+001 6.505602e+001 5.064752e+001 5.138261e+001 4.073603e+001 3.850054e+001 3.049667e+001 3.182858e+000 3.228574e+000 2.299604e+000 3.183496e+000 4.695859e+000 3.820227e+000 4.458632e+000 3.667690e+000 3.310933e+000 2.928920e+000 2.593839e+000 2.146515e+000 3.028437e+000 7.474684e-001 4.375349e-001 4.915699e-001 4.191883e-001 7.299564e-001 5.874199e-001 9.551839e-001 6.196780e-001 5.875772e-001 5.091396e-001 4.665624e-001 4.058363e-001 3.190369e-001
<GCONST> 1.325490e+002
<MIXTURE> 6 1.802619e-001
<MEAN> 39
 -6.818556e+000 -1.518592e+000 4.347079e+000 7.220689e+000 -1.302439e+001 2.604073e+000 -6.418531e+000 -7.766257e+000 -8.453074e+000 -3.331282e+000 -5.400857e+000 -5.438702e+000 5.855830e+001 -3.941233e-001 -7.723138e-001 -4.976332e-001 -6.431998e-001 -9.778860e-001 -4.423492e-001 -7.956789e-001 -4.477590e-001 -3.533397e-001 -3.580903e-001 -2.139539e-001 -3.207530e-001 -1.671399e-001 -1.915646e-001 -5.523482e-001 -2.771636e-001 -4.637232e-001 -5.259038e-001 -5.874243e-002 -4.059614e-001 -2.631555e-002 9.166183e-002 2.885315e-002 -7.742030e-002 -7.828698e-002 1.963950e-001
<VARIANCE> 39
 5.409499e+001 4.418840e+001 9.204739e+001 4.864523e+001 9.013540e+001 6.124663e+001 4.946619e+001 5.202434e+001 6.910036e+001 5.524788e+001 3.589080e+001 2.796229e+001 7.060281e+001 6.473462e+000 4.554941e+000 5.572559e+000 3.760551e+000 7.647216e+000 4.345571e+000 5.811161e+000 3.986949e+000 5.226364e+000 3.874612e+000 3.006460e+000 2.628604e+000 5.705892e+000 4.879188e-001 6.428896e-001 6.820288e-001 5.375487e-001 9.852107e-001 6.936660e-001 6.839660e-001 6.715298e-001 7.322171e-001 5.750746e-001 5.508080e-001 4.311738e-001 8.729189e-001
<GCONST> 1.378778e+002
<MIXTURE> 7 7.257030e-002
<MEAN> 39
 -1.344979e+001 2.013891e+000 -2.175455e+000 6.066461e+000 1.693087e+000 6.254459e+000 2.016744e+000 4.176941e+000 3.129899e+000 5.511532e+000 3.808737e+000 2.998187e+000 4.172065e+001 -7.278172e-002 -1.088791e-001 -1.500055e-001 -1.350433e-001 -1.644767e-001 -2.226992e-001 -2.237465e-001 -2.413133e-001 -2.339251e-001 -2.440889e-001 -2.301302e-001 -2.227617e-001 -3.679607e-002 -2.629969e-002 -4.857745e-002 -6.349543e-002 -8.514862e-002 -1.391634e-001 -1.527436e-001 -1.722931e-001 -1.815840e-001 -1.391112e-001 -1.251447e-001 -1.528519e-001 -1.206728e-001 -8.088224e-003
<VARIANCE> 39
 1.361537e+000 3.168478e+000 5.397373e+000 6.755838e+000 7.659487e+000 8.918040e+000 1.114230e+001 1.209428e+001 1.192862e+001 1.338729e+001 1.391341e+001 1.228762e+001 3.373499e-001 8.222064e-002 1.755935e-001 3.320617e-001 4.978041e-001 7.080617e-001 9.353216e-001 1.078520e+000 1.199445e+000 1.070225e+000 1.254511e+000 1.246742e+000 1.014444e+000 2.449162e-002 1.563953e-002 3.470200e-002 6.627641e-002 9.386385e-002 1.399053e-001 1.876102e-001 2.144232e-001 2.257534e-001 1.994796e-001 2.506202e-001 2.679780e-001 2.161051e-001 5.046264e-003
<GCONST> 5.521764e+001
<MIXTURE> 8 5.336310e-002
<MEAN> 39
 -1.368402e+001 8.614150e-001 -4.049352e+000 3.963095e+000 -1.439624e+000 3.294915e+000 -1.512979e+000 6.770498e-002 -4.007826e-001 3.136993e+000 1.145760e+000 7.853735e-001 4.184990e+001 -1.243251e-001 -6.946295e-002 -1.062305e-001 -1.805904e-001 -9.602412e-002 -1.381426e-001 -1.966208e-001 -1.894790e-001 -2.278710e-001 -2.924148e-001 -2.456147e-001 -1.702898e-001 -1.220499e-001 -1.709380e-002 -3.877320e-002 -2.781601e-002 -4.383631e-002 -2.017701e-002 2.201948e-002 1.782425e-002 -2.309931e-002 -5.976720e-002 -1.002977e-001 -8.717234e-002 -7.269393e-002 5.023222e-003
<VARIANCE> 39
 2.668399e+000 2.220575e+000 4.248290e+000 6.703159e+000 8.047132e+000 9.364562e+000 8.745275e+000 1.269287e+001 1.599007e+001 1.274920e+001 1.111302e+001 1.015810e+001 1.750716e+000 1.210466e-001 2.365077e-001 4.650765e-001 6.625992e-001 7.466080e-001 9.040462e-001 1.159980e+000 1.332068e+000 1.490861e+000 1.301624e+000 1.332069e+000 1.172908e+000 5.177486e-002 3.071445e-002 4.879781e-002 9.255745e-002 1.345763e-001 1.508316e-001 1.808206e-001 2.238144e-001 2.852360e-001 2.998297e-001 2.705566e-001 2.529350e-001 2.231062e-001 1.315376e-002
<GCONST> 6.294161e+001
<TRANSP> 3
 0.000000e+000 1.000000e+000 0.000000e+000
 0.000000e+000 9.972329e-001 2.767084e-003
 0.000000e+000 0.000000e+000 0.000000e+000
<ENDHMM>
~h "vaclav"
<BEGINHMM>
<NUMSTATES> 3
<STATE> 2
<NUMMIXES> 8
<MIXTURE> 1 1.161709e-001
<MEAN> 39
 -1.389298e+001 5.921127e+000 -1.198753e-001 1.119738e+001 4.630710e+000 9.398643e+000 4.022722e+000 1.082924e+001 9.913966e+000 9.823588e+000 8.360937e+000 8.661277e+000 3.738984e+001 2.951482e-002 7.376388e-002 1.108526e-001 1.434083e-001 1.644346e-001 1.705417e-001 1.863286e-001 1.863003e-001 1.993480e-001 2.014793e-001 1.917941e-001 1.805751e-001 2.125962e-002 2.278702e-002 2.991157e-002 5.246363e-002 4.413942e-002 6.990092e-002 7.769953e-002 8.574785e-002 8.566934e-002 8.194275e-002 8.429024e-002 7.255049e-002 7.232874e-002 2.517011e-002
<VARIANCE> 39
 5.359154e-001 2.430277e+000 2.494054e+000 3.719132e+000 5.405478e+000 7.460354e+000 7.500745e+000 7.495018e+000 9.230431e+000 8.340292e+000 9.243940e+000 7.435699e+000 5.566437e-001 5.680335e-002 1.395989e-001 2.724561e-001 4.196974e-001 5.396097e-001 7.644294e-001 8.187503e-001 8.607644e-001 9.321616e-001 8.992562e-001 8.630521e-001 8.653350e-001 2.478380e-002 1.128306e-002 2.866757e-002 5.483441e-002 8.551623e-002 1.097116e-001 1.603332e-001 1.704491e-001 1.793134e-001 1.907223e-001 1.845587e-001 1.806821e-001 1.763083e-001 4.973377e-003
<GCONST> 4.445197e+001
<MIXTURE> 2 1.689065e-001
<MEAN> 39
 -7.682493e+000 5.546643e+000 5.385751e+000 3.785435e+000 1.950930e+000 4.115969e+000 -6.731800e-001 4.488817e+000 3.874502e+000 4.705155e+000 4.989645e+000 1.948760e+000 4.983945e+001 -3.475008e-001 6.854436e-001 9.793121e-002 9.415894e-001 1.080648e+000 2.969325e-001 1.207359e+000 5.704262e-001 7.907457e-001 6.353149e-001 2.725409e-001 7.765220e-001 -1.711988e-001 3.244810e-001 -1.760414e-001 1.618968e-001 -1.639306e-001 -1.129257e-001 1.894464e-001 -9.468800e-002 1.274432e-001 8.836719e-002 -6.547168e-003 2.058223e-001 1.803955e-002 4.513346e-001
<VARIANCE> 39
 7.065406e+001 3.483268e+001 4.909222e+001 4.352256e+001 6.329379e+001 4.274753e+001 5.242774e+001 5.906387e+001 5.073486e+001 3.555322e+001 3.493177e+001 3.729115e+001 3.018839e+001 3.031168e+000 3.826649e+000 2.234708e+000 4.297662e+000 3.595227e+000 2.907322e+000 3.397720e+000 3.355746e+000 3.779274e+000 2.836209e+000 2.702279e+000 2.240586e+000 3.125465e+000 4.871302e-001 5.645688e-001 3.902003e-001 7.267394e-001 5.811212e-001 5.354707e-001 6.414873e-001 6.741701e-001 6.863178e-001 5.220896e-001 5.300621e-001 4.289972e-001 4.998884e-001
<GCONST> 1.282195e+002
<MIXTURE> 3 1.797598e-001
<MEAN> 39
 -9.770869e-001 -1.114599e+000 6.067287e+000 -3.738733e+000 -6.324469e+000 5.421988e+000 -7.602648e+000 9.700102e-001 1.108545e+000 1.088701e+000 5.790412e+000 -2.311635e+000 5.735649e+001 1.041992e+000 1.350567e-001 5.607536e-001 -8.301675e-003 -1.910776e-001 4.534382e-001 -3.283387e-001 3.011503e-001 3.868866e-002 8.537215e-002 3.552883e-001 -1.792184e-001 8.832530e-001 -5.195801e-002 4.828524e-001 9.433436e-002 5.538752e-001 4.521461e-001 1.682470e-001 4.628582e-001 2.738310e-001 2.860908e-001 3.347991e-001 1.201805e-001 2.858498e-001 -2.404193e-001
<VARIANCE> 39
 2.761430e+001 4.627435e+001 7.474089e+001 7.164202e+001 6.262495e+001 6.506848e+001 6.088119e+001 6.309737e+001 5.269669e+001 4.452175e+001 3.454591e+001 4.186195e+001 2.202023e+001 2.730913e+000 3.993943e+000 3.562832e+000 6.328796e+000 5.759329e+000 4.577317e+000 5.957000e+000 6.443543e+000 4.651190e+000 3.867389e+000 3.237411e+000 2.997070e+000 3.024904e+000 4.220606e-001 5.822912e-001 5.664937e-001 8.691823e-001 9.964848e-001 7.892610e-001 1.096581e+000 1.126569e+000 8.587888e-001 6.842523e-001 6.128657e-001 5.334899e-001 3.185792e-001
<GCONST> 1.358707e+002
<MIXTURE> 4 3.516249e-002
<MEAN> 39
 -1.222512e+001 6.030201e+000 1.386399e-001 9.528672e+000 4.766388e+000 8.553043e+000 3.577886e+000 1.047031e+001 9.184953e+000 9.312358e+000 7.109584e+000 7.087917e+000 3.938493e+001 -8.189911e-002 9.307659e-002 1.826814e-001 2.635459e-001 2.475202e-001 3.330851e-001 3.758461e-001 3.123425e-001 2.521950e-001 3.536600e-001 5.262331e-001 6.088029e-001 -3.354552e-002 1.123940e-001 -3.349449e-002 1.944213e-001 -1.076349e-001 6.450699e-002 -3.543884e-002 2.803775e-002 -2.450424e-002 -8.349121e-003 -2.575731e-002 4.982262e-002 -2.046004e-002 3.717920e-001
<VARIANCE> 39
 5.770012e+000 7.410281e+000 8.952653e+000 1.019825e+001 8.092383e+000 1.278054e+001 1.066512e+001 1.312294e+001 1.456100e+001 1.293168e+001 1.700163e+001 1.494498e+001 3.481033e+000 5.297766e-001 6.161186e-001 9.202152e-001 1.474249e+000 1.074165e+000 1.445934e+000 1.162372e+000 1.463984e+000 1.388057e+000 1.424296e+000 1.587746e+000 1.560829e+000 5.013055e-001 1.473082e-001 1.467139e-001 2.164928e-001 3.787425e-001 2.646468e-001 3.263606e-001 2.771343e-001 3.389671e-001 3.689067e-001 2.866124e-001 3.002891e-001 3.087556e-001 1.958244e-001
<GCONST> 8.520061e+001
<MIXTURE> 5 1.797598e-001
<MEAN> 39
 -3.079059e+000 -3.835609e+000 2.609175e+000 -7.124397e+000 -9.489905e+000 2.195386e+000 -1.072370e+001 -2.207344e+000 -1.795155e+000 -1.580284e+000 3.439381e+000 -4.899667e+000 5.547947e+001 3.809726e-001 -6.643373e-001 -1.942650e-001 -1.014586e+000 -1.151022e+000 -4.023484e-001 -1.304617e+000 -7.142151e-001 -8.239760e-001 -7.012550e-001 -3.644240e-001 -8.717004e-001 1.875630e-001 -3.118228e-001 1.776204e-001 -2.067287e-001 1.809554e-001 5.284974e-002 -1.871144e-001 4.398718e-002 -1.507288e-001 -8.459262e-002 3.920898e-003 -1.929624e-001 -6.311789e-003 -4.661905e-001
<VARIANCE> 39
 2.761430e+001 4.627435e+001 7.474089e+001 7.164202e+001 6.262495e+001 6.506848e+001 6.088119e+001 6.309737e+001 5.269669e+001 4.452175e+001 3.454591e+001 4.186195e+001 2.202023e+001 2.730913e+000 3.993943e+000 3.562832e+000 6.328796e+000 5.759329e+000 4.577317e+000 5.957000e+000 6.443543e+000 4.651190e+000 3.867389e+000 3.237411e+000 2.997070e+000 3.024904e+000 4.220606e-001 5.822912e-001 5.664937e-001 8.691823e-001 9.964848e-001 7.892610e-001 1.096581e+000 1.126569e+000 8.587888e-001 6.842523e-001 6.128657e-001 5.334899e-001 3.185792e-001
<GCONST> 1.358707e+002
<MIXTURE> 6 1.689065e-001
<MEAN> 39
 -1.104473e+001 3.185875e+000 2.583117e+000 1.146569e+000 -1.231365e+000 1.500705e+000 -3.569460e+000 1.414696e+000 1.025366e+000 2.320095e+000 2.625521e+000 -4.938987e-001 4.764169e+001 -1.043911e+000 -9.702927e-002 -5.000264e-001 1.123573e-001 3.222047e-001 -3.851024e-001 4.700431e-001 -1.623216e-001 1.313147e-002 -3.832695e-002 -3.850035e-001 1.777785e-001 -8.783582e-001 4.530217e-002 -4.765926e-001 -8.796724e-002 -5.049266e-001 -4.178509e-001 -1.032571e-001 -4.150596e-001 -2.009882e-001 -2.430100e-001 -2.955703e-001 -8.539909e-002 -2.439519e-001 1.685234e-001
<VARIANCE> 39
 7.065406e+001 3.483268e+001 4.909222e+001 4.352256e+001 6.329379e+001 4.274753e+001 5.242774e+001 5.906387e+001 5.073486e+001 3.555322e+001 3.493177e+001 3.729115e+001 3.018839e+001 3.031168e+000 3.826649e+000 2.234708e+000 4.297662e+000 3.595227e+000 2.907322e+000 3.397720e+000 3.355746e+000 3.779274e+000 2.836209e+000 2.702279e+000 2.240586e+000 3.125465e+000 4.871302e-001 5.645688e-001 3.902003e-001 7.267394e-001 5.811212e-001 5.354707e-001 6.414873e-001 6.741701e-001 6.863178e-001 5.220896e-001 5.300621e-001 4.289972e-001 4.998884e-001
<GCONST> 1.282195e+002
<MIXTURE> 7 1.161709e-001
<MEAN> 39
 -1.418580e+001 5.297553e+000 -7.515783e-001 1.042598e+001 3.700722e+000 8.306097e+000 2.927222e+000 9.734159e+000 8.698701e+000 8.668406e+000 7.144783e+000 7.570538e+000 3.709140e+001 -6.581900e-002 -7.568787e-002 -9.793669e-002 -1.157280e-001 -1.293979e-001 -1.791849e-001 -1.756107e-001 -1.848093e-001 -1.868461e-001 -1.778372e-001 -1.798083e-001 -1.915184e-001 -4.171186e-002 -1.970168e-002 -3.781443e-002 -4.120336e-002 -7.283322e-002 -6.259005e-002 -8.246698e-002 -7.939408e-002 -8.371232e-002 -9.274431e-002 -8.755095e-002 -9.747638e-002 -9.562760e-002 -3.038756e-003
<VARIANCE> 39
 5.359154e-001 2.430277e+000 2.494054e+000 3.719132e+000 5.405478e+000 7.460354e+000 7.500745e+000 7.495018e+000 9.230431e+000 8.340292e+000 9.243940e+000 7.435699e+000 5.566437e-001 5.680335e-002 1.395989e-001 2.724561e-001 4.196974e-001 5.396097e-001 7.644294e-001 8.187503e-001 8.607644e-001 9.321616e-001 8.992562e-001 8.630521e-001 8.653350e-001 2.478380e-002 1.128306e-002 2.866757e-002 5.483441e-002 8.551623e-002 1.097116e-001 1.603332e-001 1.704491e-001 1.793134e-001 1.907223e-001 1.845587e-001 1.806821e-001 1.763083e-001 4.973377e-003
<GCONST> 4.445197e+001
<MIXTURE> 8 3.516249e-002
<MEAN> 39
 -1.318596e+001 4.941329e+000 -1.058199e+000 8.251285e+000 3.628504e+000 7.123048e+000 2.271586e+000 9.021286e+000 7.658597e+000 7.873932e+000 5.460262e+000 5.541567e+000 3.863863e+001 -3.730421e-001 -2.208963e-001 -2.010300e-001 -2.221287e-001 -1.670476e-001 -1.479029e-001 -5.540732e-002 -1.716383e-001 -2.190684e-001 -1.237155e-001 2.220991e-002 1.090703e-001 -3.167573e-001 -4.112899e-002 -1.867075e-001 8.306131e-003 -3.538031e-001 -1.412683e-001 -2.639508e-001 -1.825365e-001 -2.573878e-001 -2.512999e-001 -2.399021e-001 -1.693719e-001 -2.427232e-001 1.947838e-001
<VARIANCE> 39
 5.770012e+000 7.410281e+000 8.952653e+000 1.019825e+001 8.092383e+000 1.278054e+001 1.066512e+001 1.312294e+001 1.456100e+001 1.293168e+001 1.700163e+001 1.494498e+001 3.481033e+000 5.297766e-001 6.161186e-001 9.202152e-001 1.474249e+000 1.074165e+000 1.445934e+000 1.162372e+000 1.463984e+000 1.388057e+000 1.424296e+000 1.587746e+000 1.560829e+000 5.013055e-001 1.473082e-001 1.467139e-001 2.164928e-001 3.787425e-001 2.646468e-001 3.263606e-001 2.771343e-001 3.389671e-001 3.689067e-001 2.866124e-001 3.002891e-001 3.087556e-001 1.958244e-001
<GCONST> 8.520061e+001
<TRANSP> 3
 0.000000e+000 1.000000e+000 0.000000e+000
 0.000000e+000 9.972684e-001 2.731592e-003
 0.000000e+000 0.000000e+000 0.000000e+000
<ENDHMM>
~h "tomas"
<BEGINHMM>
<NUMSTATES> 3
<STATE> 2
<NUMMIXES> 8
<MIXTURE> 1 1.136644e-001
<MEAN> 39
 -1.056851e+001 2.239971e+000 2.871062e+000 2.940243e+000 4.072935e+000 1.641513e-001 6.261544e+000 5.472265e+000 5.309737e+000 3.500102e+000 5.489585e+000 4.295940e+000 5.356437e+001 7.014078e-002 1.115493e-001 1.222716e-001 2.124940e-001 2.060689e-001 3.085749e-001 3.192038e-001 1.866218e-001 3.055820e-001 2.426553e-001 2.529100e-001 1.897402e-001 -3.894561e-002 3.180348e-002 6.046855e-002 5.957820e-002 6.503394e-002 5.898361e-002 6.401490e-002 6.986266e-002 1.106194e-001 7.956009e-002 1.072623e-001 8.624855e-002 8.705640e-002 4.769284e-002
<VARIANCE> 39
 2.631112e+000 3.917279e+000 5.934857e+000 6.556963e+000 8.128212e+000 2.295177e+001 1.170440e+001 1.803038e+001 2.126958e+001 1.659462e+001 1.402093e+001 1.389020e+001 4.969279e+000 1.307565e-001 2.470867e-001 3.786082e-001 6.290891e-001 8.051738e-001 1.039774e+000 1.252491e+000 1.338965e+000 1.442026e+000 1.359005e+000 1.346608e+000 1.186601e+000 6.096345e-002 2.601980e-002 4.836440e-002 7.993987e-002 1.254358e-001 1.549948e-001 2.070258e-001 2.437302e-001 2.620360e-001 2.926464e-001 2.725074e-001 2.758913e-001 2.412459e-001 1.331386e-002
<GCONST> 6.778162e+001
<MIXTURE> 2 1.791874e-001
<MEAN> 39
 -2.409588e+000 5.477663e+000 7.188690e+000 -3.124257e+000 -3.243036e-001 -9.515795e-001 -2.682990e+000 -7.108802e-001 7.789409e-002 2.285538e+000 2.696146e+000 3.298529e+000 7.079934e+001 6.777574e-002 8.290299e-001 -4.973277e-002 7.990273e-001 1.151733e+000 1.046408e-001 7.554201e-001 2.754635e-001 7.087003e-001 3.670022e-001 3.395069e-001 4.395615e-001 -4.815094e-001 1.066296e-001 1.681649e-001 1.441226e-001 3.403085e-001 2.331120e-001 7.069554e-002 2.648411e-001 1.041422e-001 2.307013e-001 8.380399e-002 1.911958e-001 1.416951e-001 -2.799165e-002
<VARIANCE> 39
 8.743867e+001 5.629191e+001 6.805951e+001 8.420164e+001 8.037601e+001 8.643566e+001 6.200919e+001 5.040708e+001 5.560074e+001 4.753004e+001 4.485736e+001 3.346741e+001 3.241296e+001 1.848491e+000 2.054146e+000 1.644104e+000 3.116170e+000 3.055018e+000 3.474553e+000 2.899865e+000 2.933561e+000 3.133565e+000 2.384873e+000 2.527232e+000 2.234276e+000 1.505728e+000 4.035715e-001 4.094954e-001 3.415849e-001 5.159376e-001 6.670705e-001 7.026267e-001 5.765543e-001 5.633221e-001 6.399832e-001 4.906606e-001 4.921830e-001 4.610572e-001 2.867948e-001
<GCONST> 1.267118e+002
<MIXTURE> 3 1.426118e-001
<MEAN> 39
 -4.815317e+000 5.982812e+000 9.516888e+000 1.293636e+000 -8.909106e-001 -4.393961e+000 -8.449188e-001 -1.808979e+000 9.330612e-001 1.707860e-001 3.793952e+000 3.345314e+000 6.827070e+001 8.716329e-001 -2.721708e-001 8.736891e-001 -2.576311e-001 -5.357618e-001 6.823014e-001 -2.331465e-001 4.711787e-001 -7.317570e-002 2.917949e-001 2.514298e-001 1.816836e-001 1.531718e+000 2.232269e-001 1.261609e-001 1.332759e-001 1.785441e-002 1.977877e-001 3.120517e-001 9.499050e-002 2.329352e-001 1.213189e-001 2.492447e-001 1.359788e-001 1.356052e-001 1.974581e-001
<VARIANCE> 39
 6.631144e+001 3.729026e+001 8.023000e+001 4.898885e+001 7.891811e+001 5.002397e+001 5.893282e+001 4.734466e+001 5.635137e+001 3.839048e+001 2.714745e+001 2.227878e+001 4.534189e+001 6.893313e+000 3.166929e+000 4.888826e+000 4.589799e+000 6.391397e+000 5.721996e+000 5.313011e+000 4.286007e+000 4.924749e+000 3.946007e+000 2.961729e+000 2.715139e+000 2.966625e+000 7.425609e-001 5.109801e-001 7.122283e-001 6.950366e-001 1.236576e+000 8.188373e-001 9.633755e-001 7.324640e-001 8.003277e-001 6.816220e-001 5.129772e-001 4.956024e-001 6.077451e-001
<GCONST> 1.364561e+002
<MIXTURE> 4 6.453515e-002
<MEAN> 39
 -5.297146e+000 7.205942e+000 6.846997e+000 3.519182e+000 3.304419e+000 -4.144205e+000 1.503833e+000 1.051546e+000 1.024390e+000 1.703739e+000 4.342573e+000 3.081731e+000 6.069085e+001 -5.174495e-002 6.436238e-002 1.052298e-001 4.214281e-001 2.782090e-001 3.272997e-001 4.813474e-001 3.215112e-001 2.397164e-001 3.457584e-001 3.858969e-001 1.826516e-001 -2.908626e-001 6.891519e-003 -1.952359e-002 8.000513e-002 -9.727211e-002 -1.141729e-002 1.571224e-001 7.440619e-002 1.037022e-001 9.487042e-002 9.826967e-002 2.465599e-002 1.191032e-001 3.202032e-001
<VARIANCE> 39
 6.562312e+001 2.257012e+001 3.738810e+001 2.199008e+001 2.660898e+001 3.418719e+001 3.164972e+001 3.745830e+001 2.696826e+001 2.644835e+001 2.056107e+001 1.720432e+001 2.827173e+001 6.887833e-001 7.679856e-001 9.629071e-001 1.107399e+000 1.369657e+000 1.762006e+000 1.420543e+000 1.570930e+000 1.654215e+000 1.986237e+000 1.732811e+000 1.343552e+000 4.821965e-001 1.195721e-001 1.630488e-001 1.975765e-001 2.546887e-001 2.997026e-001 3.535429e-001 3.214073e-001 3.457947e-001 3.576878e-001 4.314869e-001 3.173355e-001 2.747412e-001 1.573439e-001
<GCONST> 1.002512e+002
<MIXTURE> 5 1.791874e-001
<MEAN> 39
 -6.149934e+000 2.476545e+000 3.888762e+000 -6.794715e+000 -3.910410e+000 -4.670411e+000 -5.832826e+000 -3.550798e+000 -2.904742e+000 -4.721436e-001 1.712012e-002 9.844875e-001 6.852204e+001 -4.760612e-001 2.557382e-001 -5.626233e-001 9.292027e-002 4.525884e-001 -6.409653e-001 7.426050e-002 -4.096422e-001 6.251037e-004 -2.507192e-001 -2.963839e-001 -1.583383e-001 -9.723418e-001 -1.474796e-001 -8.780243e-002 -8.965850e-002 5.299331e-002 -9.358554e-002 -2.645958e-001 -3.888355e-002 -1.960769e-001 -8.929448e-002 -1.963847e-001 -8.942719e-002 -1.299097e-001 -2.422045e-001
<VARIANCE> 39
 8.743867e+001 5.629191e+001 6.805951e+001 8.420164e+001 8.037601e+001 8.643566e+001 6.200919e+001 5.040708e+001 5.560074e+001 4.753004e+001 4.485736e+001 3.346741e+001 3.241296e+001 1.848491e+000 2.054146e+000 1.644104e+000 3.116170e+000 3.055018e+000 3.474553e+000 2.899865e+000 2.933561e+000 3.133565e+000 2.384873e+000 2.527232e+000 2.234276e+000 1.505728e+000 4.035715e-001 4.094954e-001 3.415849e-001 5.159376e-001 6.670705e-001 7.026267e-001 5.765543e-001 5.633221e-001 6.399832e-001 4.906606e-001 4.921830e-001 4.610572e-001 2.867948e-001
<GCONST> 1.267118e+002
<MIXTURE> 6 1.426118e-001
<MEAN> 39
 -8.072591e+000 3.540182e+000 5.934040e+000 -1.506045e+000 -4.444345e+000 -7.223067e+000 -3.915627e+000 -4.561277e+000 -2.069641e+000 -2.307616e+000 1.709823e+000 1.457298e+000 6.557725e+001 -1.785718e-001 -9.840055e-001 -1.073849e-002 -1.114584e+000 -1.547010e+000 -2.745264e-001 -1.155145e+000 -3.569282e-001 -9.608468e-001 -5.027875e-001 -4.369572e-001 -4.774236e-001 8.427621e-001 -1.214610e-001 -1.597706e-001 -2.042986e-001 -3.156210e-001 -2.470181e-001 -4.990686e-002 -2.976163e-001 -1.094012e-001 -2.365252e-001 -8.099688e-002 -1.505109e-001 -1.459909e-001 -1.143740e-001
<VARIANCE> 39
 6.631144e+001 3.729026e+001 8.023000e+001 4.898885e+001 7.891811e+001 5.002397e+001 5.893282e+001 4.734466e+001 5.635137e+001 3.839048e+001 2.714745e+001 2.227878e+001 4.534189e+001 6.893313e+000 3.166929e+000 4.888826e+000 4.589799e+000 6.391397e+000 5.721996e+000 5.313011e+000 4.286007e+000 4.924749e+000 3.946007e+000 2.961729e+000 2.715139e+000 2.966625e+000 7.425609e-001 5.109801e-001 7.122283e-001 6.950366e-001 1.236576e+000 8.188373e-001 9.633755e-001 7.324640e-001 8.003277e-001 6.816220e-001 5.129772e-001 4.956024e-001 6.077451e-001
<GCONST> 1.364561e+002
<MIXTURE> 7 1.136644e-001
<MEAN> 39
 -1.121733e+001 1.448287e+000 1.896600e+000 1.915981e+000 2.932534e+000 -1.752169e+000 4.893076e+000 3.773777e+000 3.464979e+000 1.870642e+000 3.991803e+000 2.805158e+000 5.267269e+001 -7.450029e-002 -8.728196e-002 -1.238530e-001 -1.047666e-001 -1.528570e-001 -9.930232e-002 -1.284552e-001 -2.762328e-001 -1.747555e-001 -2.236502e-001 -2.112637e-001 -2.459847e-001 -1.377087e-001 -3.271914e-002 -2.749908e-002 -5.351636e-002 -7.663372e-002 -9.849390e-002 -1.179854e-001 -1.276135e-001 -9.413843e-002 -1.368271e-001 -1.015467e-001 -1.238529e-001 -1.094108e-001 1.538560e-003
<VARIANCE> 39
 2.631112e+000 3.917279e+000 5.934857e+000 6.556963e+000 8.128212e+000 2.295177e+001 1.170440e+001 1.803038e+001 2.126958e+001 1.659462e+001 1.402093e+001 1.389020e+001 4.969279e+000 1.307565e-001 2.470867e-001 3.786082e-001 6.290891e-001 8.051738e-001 1.039774e+000 1.252491e+000 1.338965e+000 1.442026e+000 1.359005e+000 1.346608e+000 1.186601e+000 6.096345e-002 2.601980e-002 4.836440e-002 7.993987e-002 1.254358e-001 1.549948e-001 2.070258e-001 2.437302e-001 2.620360e-001 2.926464e-001 2.725074e-001 2.758913e-001 2.412459e-001 1.331386e-002
<GCONST> 6.778162e+001
<MIXTURE> 8 6.453515e-002
<MEAN> 39
 -8.537470e+000 5.305621e+000 4.401165e+000 1.643438e+000 1.241063e+000 -6.482997e+000 -7.464907e-001 -1.396581e+000 -1.052849e+000 -3.533795e-001 2.528801e+000 1.422607e+000 5.856401e+001 -3.837168e-001 -2.861768e-001 -2.872815e-001 4.959404e-004 -1.899204e-001 -2.036626e-001 4.601225e-003 -1.798358e-001 -2.747488e-001 -2.179773e-001 -1.406482e-001 -2.809952e-001 -5.686240e-001 -1.314253e-001 -1.810408e-001 -9.779318e-002 -2.991389e-001 -2.303977e-001 -8.071551e-002 -1.523650e-001 -1.315151e-001 -1.443576e-001 -1.644810e-001 -2.006742e-001 -9.055981e-002 1.615368e-001
<VARIANCE> 39
 6.562312e+001 2.257012e+001 3.738810e+001 2.199008e+001 2.660898e+001 3.418719e+001 3.164972e+001 3.745830e+001 2.696826e+001 2.644835e+001 2.056107e+001 1.720432e+001 2.827173e+001 6.887833e-001 7.679856e-001 9.629071e-001 1.107399e+000 1.369657e+000 1.762006e+000 1.420543e+000 1.570930e+000 1.654215e+000 1.986237e+000 1.732811e+000 1.343552e+000 4.821965e-001 1.195721e-001 1.630488e-001 1.975765e-001 2.546887e-001 2.997026e-001 3.535429e-001 3.214073e-001 3.457947e-001 3.576878e-001 4.314869e-001 3.173355e-001 2.747412e-001 1.573439e-001
<GCONST> 1.002512e+002
<TRANSP> 3
 0.000000e+000 1.000000e+000 0.000000e+000
 0.000000e+000 9.971485e-001 2.851476e-003
 0.000000e+000 0.000000e+000 0.000000e+000
<ENDHMM>
~h "cerny"
<BEGINHMM>
<NUMSTATES> 3
<STATE> 2
<NUMMIXES> 8
<MIXTURE> 1 1.357355e-001
<MEAN> 39
 -1.299405e+001 -1.516845e+000 -2.442195e+000 -6.520213e-001 -1.989610e-001 5.049216e-001 1.062988e+000 1.222223e+000 1.698635e+000 1.610887e+000 2.050994e+000 1.524667e+000 6.157541e+001 5.042340e-002 8.383057e-002 1.229049e-001 1.400971e-001 1.735990e-001 2.045785e-001 2.276521e-001 2.472513e-001 2.683428e-001 2.641257e-001 2.490657e-001 2.300358e-001 2.879433e-002 3.290552e-002 5.954376e-002 7.490101e-002 8.033450e-002 8.444970e-002 8.821725e-002 7.065701e-002 4.928285e-002 4.211087e-002 4.699937e-002 6.658942e-002 8.431963e-002 1.949107e-002
<VARIANCE> 39
 1.174400e+000 1.917058e+000 2.841368e+000 4.174784e+000 5.729558e+000 7.491548e+000 8.480495e+000 9.264742e+000 1.011510e+001 1.023428e+001 1.088948e+001 1.020009e+001 2.149935e+000 8.585092e-002 1.829891e-001 3.289690e-001 5.059571e-001 7.036027e-001 8.648692e-001 1.009300e+000 1.084502e+000 1.259661e+000 1.226190e+000 1.244025e+000 1.129936e+000 3.239968e-002 1.672952e-002 3.575096e-002 6.133473e-002 9.396061e-002 1.366269e-001 1.713843e-001 2.016719e-001 2.090814e-001 2.505088e-001 2.416571e-001 2.485055e-001 2.286374e-001 6.499362e-003
<GCONST> 5.398666e+001
<MIXTURE> 2 1.597825e-001
<MEAN> 39
 -7.862227e+000 -2.003293e+000 -9.815016e-001 -7.529546e+000 -7.014606e+000 -3.244136e+000 -8.428295e+000 3.211031e+000 5.145625e+000 4.256491e+000 -8.318416e-001 -2.423042e+000 7.135686e+001 -3.613654e-002 6.665787e-001 1.513608e-001 6.918926e-001 7.753146e-001 5.434234e-001 9.633646e-001 4.835895e-002 -9.975126e-002 8.633539e-002 4.159704e-001 4.287772e-001 -2.515066e-001 3.862197e-002 2.537251e-001 1.263198e-001 3.517498e-001 2.960225e-001 1.670824e-001 3.666734e-001 -1.465535e-002 -2.445267e-002 -2.371775e-002 1.985988e-001 2.448661e-001 -1.069469e-001
<VARIANCE> 39
 3.510199e+001 4.419059e+001 4.443231e+001 6.311586e+001 4.934570e+001 5.109425e+001 6.078298e+001 4.801643e+001 4.686401e+001 3.429959e+001 2.666015e+001 3.790918e+001 1.216115e+001 6.463947e-001 1.531636e+000 1.250421e+000 2.249875e+000 1.863356e+000 2.155271e+000 2.685223e+000 2.663976e+000 2.355246e+000 2.135776e+000 1.817356e+000 1.796939e+000 7.593144e-001 2.014675e-001 3.406433e-001 2.454923e-001 4.215740e-001 4.498657e-001 4.484534e-001 6.920589e-001 5.519535e-001 5.071422e-001 4.610413e-001 3.668281e-001 3.583812e-001 1.534781e-001
<GCONST> 1.136122e+002
<MIXTURE> 3 1.392818e-001
<MEAN> 39
 -9.905660e+000 4.880131e-001 2.126174e+000 -2.168212e+000 -5.832695e+000 -3.999650e+000 -6.920259e+000 -1.332209e+000 1.500983e+000 7.854704e-001 1.117981e+000 7.318895e-001 6.812875e+001 5.815697e-001 -1.539952e-001 4.502383e-001 -1.385135e-001 -2.234187e-001 3.102294e-002 -3.042719e-001 6.699288e-001 8.481660e-001 5.881587e-001 1.115414e-001 1.097326e-001 7.660904e-001 1.478573e-001 -4.570062e-002 9.838244e-002 -9.452143e-002 3.607607e-002 1.662636e-001 3.678453e-002 3.207098e-001 2.916518e-001 2.883556e-001 4.579812e-002 -9.701073e-003 2.413841e-001
<VARIANCE> 39
 2.347694e+001 1.880165e+001 4.984009e+001 2.713536e+001 4.100370e+001 3.129108e+001 4.673444e+001 2.874872e+001 3.074841e+001 3.215228e+001 1.687826e+001 2.150734e+001 9.893350e+000 2.513477e+000 2.357764e+000 2.985554e+000 3.210698e+000 4.555261e+000 3.269772e+000 5.724143e+000 3.290074e+000 3.492806e+000 3.148950e+000 1.912014e+000 2.266632e+000 1.292463e+000 2.433652e-001 2.874680e-001 3.956805e-001 4.090483e-001 7.024349e-001 5.245827e-001 8.743983e-001 5.192953e-001 5.600693e-001 4.787101e-001 3.458747e-001 3.361740e-001 1.852591e-001
<GCONST> 1.167936e+002
<MIXTURE> 4 6.519900e-002
<MEAN> 39
 -1.193500e+001 -3.508261e-001 -1.315712e+000 -4.608542e-001 -8.097978e-001 -3.141697e-001 -6.022881e-001 -4.053314e-001 2.829492e-003 4.240257e-002 8.963397e-001 1.062720e+000 6.277359e+001 2.998552e-002 8.064048e-002 8.955137e-002 2.696143e-001 3.398662e-001 2.608864e-001 2.820107e-001 1.900856e-001 1.185689e-001 1.632515e-001 1.556642e-001 2.107598e-001 -2.055795e-002 5.432558e-002 -5.274788e-004 9.339146e-003 -2.453131e-002 -4.866911e-002 -3.631695e-002 -1.404288e-002 2.149488e-001 3.354484e-001 2.872771e-001 1.432617e-001 8.307576e-002 1.606651e-001
<VARIANCE> 39
 3.949489e+000 3.701206e+000 6.636349e+000 7.998227e+000 1.005360e+001 1.097415e+001 1.398449e+001 1.385018e+001 1.335111e+001 1.369661e+001 1.235247e+001 1.218595e+001 2.736531e+000 2.643187e-001 3.453239e-001 5.332546e-001 7.025683e-001 9.160239e-001 1.090463e+000 1.347212e+000 1.352626e+000 1.438821e+000 1.458029e+000 1.309803e+000 1.205043e+000 1.409049e-001 5.656171e-002 7.590493e-002 1.162068e-001 1.732665e-001 2.057679e-001 2.558445e-001 3.347329e-001 2.800424e-001 3.128729e-001 3.088653e-001 2.873363e-001 2.500707e-001 5.059529e-002
<GCONST> 7.337026e+001
<MIXTURE> 5 1.597825e-001
<MEAN> 39
 -1.023210e+001 -4.662333e+000 -3.647804e+000 -1.070737e+001 -9.824467e+000 -6.103346e+000 -1.154683e+001 4.392751e-001 2.407333e+000 1.913857e+000 -2.897181e+000 -4.885859e+000 6.996195e+001 -3.577313e-001 1.715415e-001 -2.959281e-001 9.190932e-002 2.292954e-001 -4.381023e-002 3.078986e-001 -6.045088e-001 -7.136238e-001 -4.982364e-001 -1.232670e-001 -1.074226e-001 -6.000612e-001 -1.409186e-001 2.026650e-002 -7.186889e-002 9.203483e-002 2.773435e-002 -1.007843e-001 3.391303e-002 -3.118297e-001 -3.093084e-001 -2.953178e-001 -4.366650e-002 5.406298e-003 -2.636521e-001
<VARIANCE> 39
 3.510199e+001 4.419059e+001 4.443231e+001 6.311586e+001 4.934570e+001 5.109425e+001 6.078298e+001 4.801643e+001 4.686401e+001 3.429959e+001 2.666015e+001 3.790918e+001 1.216115e+001 6.463947e-001 1.531636e+000 1.250421e+000 2.249875e+000 1.863356e+000 2.155271e+000 2.685223e+000 2.663976e+000 2.355246e+000 2.135776e+000 1.817356e+000 1.796939e+000 7.593144e-001 2.014675e-001 3.406433e-001 2.454923e-001 4.215740e-001 4.498657e-001 4.484534e-001 6.920589e-001 5.519535e-001 5.071422e-001 4.610413e-001 3.668281e-001 3.583812e-001 1.534781e-001
<GCONST> 1.136122e+002
<MIXTURE> 6 1.392818e-001
<MEAN> 39
 -1.184378e+001 -1.246422e+000 -6.977264e-001 -4.251876e+000 -8.394061e+000 -6.237188e+000 -9.654762e+000 -3.476923e+000 -7.170670e-001 -1.482649e+000 -5.253450e-001 -1.123151e+000 6.687060e+001 -5.258828e-002 -7.681956e-001 -2.409119e-001 -8.552504e-001 -1.077141e+000 -6.922776e-001 -1.261279e+000 -5.561364e-002 1.006040e-001 -1.216525e-001 -4.415610e-001 -4.924810e-001 3.113443e-001 -4.947098e-002 -2.601648e-001 -1.532301e-001 -3.503490e-001 -2.991695e-001 -1.234487e-001 -3.372525e-001 3.246120e-002 -7.699370e-003 1.160005e-002 -1.894463e-001 -2.416231e-001 6.921713e-002
<VARIANCE> 39
 2.347694e+001 1.880165e+001 4.984009e+001 2.713536e+001 4.100370e+001 3.129108e+001 4.673444e+001 2.874872e+001 3.074841e+001 3.215228e+001 1.687826e+001 2.150734e+001 9.893350e+000 2.513477e+000 2.357764e+000 2.985554e+000 3.210698e+000 4.555261e+000 3.269772e+000 5.724143e+000 3.290074e+000 3.492806e+000 3.148950e+000 1.912014e+000 2.266632e+000 1.292463e+000 2.433652e-001 2.874680e-001 3.956805e-001 4.090483e-001 7.024349e-001 5.245827e-001 8.743983e-001 5.192953e-001 5.600693e-001 4.787101e-001 3.458747e-001 3.361740e-001 1.852591e-001
<GCONST> 1.167936e+002
<MIXTURE> 7 1.357355e-001
<MEAN> 39
 -1.342753e+001 -2.070677e+000 -3.116449e+000 -1.469313e+000 -1.156421e+000 -5.899062e-001 -1.018636e-001 4.701614e-003 4.264650e-001 3.312449e-001 7.310258e-001 2.471638e-001 6.098890e+001 -6.677791e-002 -8.727834e-002 -1.065184e-001 -1.444256e-001 -1.619251e-001 -1.674149e-001 -1.742036e-001 -1.693064e-001 -1.805957e-001 -1.788082e-001 -1.970778e-001 -1.951579e-001 -4.320532e-002 -1.883154e-002 -1.608794e-002 -2.416239e-002 -4.227748e-002 -6.340260e-002 -7.737710e-002 -1.089746e-001 -1.336188e-001 -1.580926e-001 -1.496352e-001 -1.328119e-001 -1.069446e-001 -1.275638e-002
<VARIANCE> 39
 1.174400e+000 1.917058e+000 2.841368e+000 4.174784e+000 5.729558e+000 7.491548e+000 8.480495e+000 9.264742e+000 1.011510e+001 1.023428e+001 1.088948e+001 1.020009e+001 2.149935e+000 8.585092e-002 1.829891e-001 3.289690e-001 5.059571e-001 7.036027e-001 8.648692e-001 1.009300e+000 1.084502e+000 1.259661e+000 1.226190e+000 1.244025e+000 1.129936e+000 3.239968e-002 1.672952e-002 3.575096e-002 6.133473e-002 9.396061e-002 1.366269e-001 1.713843e-001 2.016719e-001 2.090814e-001 2.505088e-001 2.416571e-001 2.485055e-001 2.286374e-001 6.499362e-003
<GCONST> 5.398666e+001
<MIXTURE> 8 6.519900e-002
<MEAN> 39
 -1.272994e+001 -1.120367e+000 -2.346156e+000 -1.592100e+000 -2.078094e+000 -1.639260e+000 -2.098122e+000 -1.893965e+000 -1.458737e+000 -1.437955e+000 -5.095035e-001 -3.336153e-001 6.211189e+001 -1.756622e-001 -1.544166e-001 -2.025458e-001 -6.566309e-002 -4.297037e-002 -1.568145e-001 -1.822671e-001 -2.751242e-001 -3.612345e-001 -3.197440e-001 -3.021223e-001 -2.283380e-001 -1.707072e-001 -4.080524e-002 -1.107309e-001 -1.270173e-001 -1.910325e-001 -2.301157e-001 -2.386412e-001 -2.454673e-001 3.272630e-003 1.117082e-001 6.497449e-002 -7.115330e-002 -1.169525e-001 7.069151e-002
<VARIANCE> 39
 3.949489e+000 3.701206e+000 6.636349e+000 7.998227e+000 1.005360e+001 1.097415e+001 1.398449e+001 1.385018e+001 1.335111e+001 1.369661e+001 1.235247e+001 1.218595e+001 2.736531e+000 2.643187e-001 3.453239e-001 5.332546e-001 7.025683e-001 9.160239e-001 1.090463e+000 1.347212e+000 1.352626e+000 1.438821e+000 1.458029e+000 1.309803e+000 1.205043e+000 1.409049e-001 5.656171e-002 7.590493e-002 1.162068e-001 1.732665e-001 2.057679e-001 2.558445e-001 3.347329e-001 2.800424e-001 3.128729e-001 3.088653e-001 2.873363e-001 2.500707e-001 5.059529e-002
<GCONST> 7.337026e+001
<TRANSP> 3
 0.000000e+000 1.000000e+000 0.000000e+000
 0.000000e+000 9.985431e-001 1.456895e-003
 0.000000e+000 0.000000e+000 0.000000e+000
<ENDHMM>
~h "smola"
<BEGINHMM>
<NUMSTATES> 3
<STATE> 2
<NUMMIXES> 8
<MIXTURE> 1 8.082680e-002
<MEAN> 39
 -1.202206e+001 6.938725e+000 1.027382e+000 7.586476e+000 4.477301e+000 7.606162e+000 4.115913e+000 9.331175e+000 6.264727e+000 3.109963e+000 6.509449e+000 4.987421e+000 4.226133e+001 2.822452e-002 3.026774e-001 3.100409e-001 2.291239e-001 2.450305e-001 3.798128e-001 2.187353e-001 3.063122e-001 2.259992e-001 3.119893e-001 3.103075e-001 2.577404e-001 -5.260929e-002 8.143649e-002 2.891164e-002 8.886728e-002 3.709393e-002 9.739113e-002 5.573786e-002 8.043520e-002 3.318681e-002 5.230690e-002 8.092654e-002 3.230102e-002 3.450420e-002 1.859596e-001
<VARIANCE> 39
 1.007664e+001 1.318557e+001 1.171357e+001 9.499228e+000 1.089705e+001 2.502430e+001 1.603363e+001 2.213277e+001 2.418522e+001 2.258047e+001 1.865728e+001 1.180468e+001 2.070706e+001 4.869166e-001 7.850727e-001 9.314285e-001 1.067255e+000 1.092078e+000 1.412219e+000 1.406950e+000 1.520832e+000 1.386499e+000 1.469386e+000 1.365808e+000 1.250122e+000 6.445851e-001 8.897107e-002 1.568370e-001 1.692619e-001 1.884665e-001 2.045561e-001 2.653878e-001 2.667227e-001 2.979353e-001 2.788076e-001 2.861428e-001 2.764960e-001 2.426505e-001 1.344053e-001
<GCONST> 8.812031e+001
<MIXTURE> 2 1.447019e-001
<MEAN> 39
 6.644790e-001 -2.155861e+000 1.452509e+000 -4.683965e+000 -3.785201e+000 -3.557843e+000 -9.567304e+000 4.749879e+000 -8.655000e+000 1.401543e+000 6.321426e+000 -6.740880e+000 6.700778e+001 -2.371482e-001 1.777324e+000 1.339434e-001 1.661137e+000 1.031607e+000 2.367261e-001 1.593547e+000 -5.239471e-001 1.088018e+000 3.065150e-001 7.780239e-002 9.694805e-001 -1.157789e+000 -2.233968e-001 2.273001e-001 1.073406e-001 2.480765e-001 1.228241e-001 2.935438e-001 3.409126e-001 5.563550e-002 5.870945e-001 1.034994e-001 1.185689e-001 3.423769e-001 3.035229e-001
<VARIANCE> 39
 1.573537e+001 7.245048e+001 4.392067e+001 8.436253e+001 4.385394e+001 5.719778e+001 5.433948e+001 5.056698e+001 5.610680e+001 4.732542e+001 4.302168e+001 3.002731e+001 7.599969e+001 1.793651e+000 3.583329e+000 2.255570e+000 3.930450e+000 3.192172e+000 3.590585e+000 3.423138e+000 2.930573e+000 5.533418e+000 2.989692e+000 2.697793e+000 2.359994e+000 3.843103e+000 2.951310e-001 7.755576e-001 4.494996e-001 9.101909e-001 5.976726e-001 7.280409e-001 7.965539e-001 6.666200e-001 1.055197e+000 6.248807e-001 5.148382e-001 4.849187e-001 1.012274e+000
<GCONST> 1.312238e+002
<MIXTURE> 3 1.277569e-001
<MEAN> 39
