~o
<STREAMINFO> 1 39
<VECSIZE> 39<NULLD><MFCC_D_A_0><DIAGC>
~h "a"
<BEGINHMM>
<NUMSTATES> 5
<STATE> 2
<NUMMIXES> 8
<MIXTURE> 1 5.021545e-002
<MEAN> 39
 -8.350630e+000 -3.300523e+000 -6.177003e+000 -5.125175e+000 -1.427297e+000 -2.059693e+000 -3.805304e-001 3.382554e-001 4.312991e+000 2.699348e+000 -1.841105e+000 -3.819840e+000 5.682958e+001 3.542500e-001 -1.916596e-001 -5.082857e-001 1.071154e-001 1.046883e+000 1.054098e+000 5.000166e-001 -7.706410e-002 1.668937e-001 2.465520e-001 5.244211e-002 -2.975909e-001 2.508410e-001 3.686642e-001 -3.218068e-001 2.925465e-001 -2.770615e-001 -7.985060e-002 1.871970e-001 -2.121990e-001 -8.158812e-002 -3.447276e-001 -6.997489e-002 8.934311e-002 -2.165881e-002 6.326982e-001
<VARIANCE> 39
 3.960128e+001 4.944009e+001 5.269854e+001 7.312948e+001 8.178349e+001 8.676286e+001 6.641178e+001 6.427794e+001 5.683445e+001 5.921446e+001 5.503409e+001 5.135909e+001 1.044544e+002 2.434747e+000 2.654591e+000 3.184987e+000 3.436255e+000 4.023964e+000 3.789881e+000 3.343267e+000 3.724357e+000 3.800575e+000 3.402545e+000 3.420856e+000 3.251693e+000 3.808763e+000 4.943580e-001 6.759879e-001 6.764010e-001 7.457765e-001 8.794358e-001 8.514059e-001 7.965492e-001 8.488127e-001 9.019257e-001 7.952316e-001 8.106310e-001 7.408172e-001 9.252602e-001
<GCONST> 1.378872e+002
<MIXTURE> 2 2.518945e-001
<MEAN> 39
 1.749903e+000 -9.076105e+000 -4.273294e+000 -1.164946e+001 -4.722931e+000 -2.531638e-001 -6.906822e+000 -5.858639e-001 2.436480e+000 2.596024e+000 -1.778831e+000 -8.331349e+000 7.382372e+001 6.406010e-001 -1.377495e+000 -6.898304e-001 -7.990421e-001 4.083408e-001 8.614177e-001 -6.847429e-002 6.411296e-001 4.557272e-001 1.528552e-001 -2.489707e-001 -9.641863e-001 1.069507e+000 -5.044190e-001 6.723864e-001 4.197412e-001 6.617647e-001 2.247918e-001 -2.911062e-001 3.405535e-001 -2.528386e-001 -2.939312e-001 -6.035577e-002 7.840294e-002 5.323049e-001 -6.341021e-001
<VARIANCE> 39
 1.918822e+001 3.882824e+001 4.264510e+001 7.272870e+001 5.872689e+001 8.999058e+001 7.809851e+001 6.396249e+001 6.015129e+001 5.844343e+001 6.359722e+001 3.788498e+001 5.357954e+001 1.680477e+000 1.836134e+000 2.271313e+000 2.671031e+000 3.315953e+000 3.648214e+000 3.304013e+000 3.450096e+000 3.310010e+000 2.970166e+000 3.013991e+000 2.578786e+000 1.119404e+000 3.812412e-001 3.613298e-001 4.100576e-001 5.111422e-001 6.460106e-001 6.597441e-001 7.131405e-001 7.554181e-001 7.003440e-001 6.224312e-001 6.170689e-001 5.133112e-001 2.250912e-001
<GCONST> 1.271700e+002
<MIXTURE> 3 1.597778e-001
<MEAN> 39
 -2.777680e-002 -1.158562e+001 -4.767140e+000 -1.479701e+001 -1.283759e+000 -5.703767e+000 -3.652446e+000 -7.285674e-001 -1.698598e+000 6.685178e-001 -9.392124e+000 -3.938138e+000 7.518916e+001 2.008305e+000 -2.187740e+000 -6.518152e-001 -1.924403e+000 9.080151e-002 2.926944e-001 -4.374107e-001 2.495758e-001 -5.831853e-001 7.832947e-002 -1.327762e+000 -7.843910e-001 2.774329e+000 -8.227650e-001 8.605808e-001 4.505076e-001 9.640453e-001 1.113565e-001 2.309312e-001 3.411861e-001 3.806550e-002 2.187601e-001 5.093919e-002 7.590969e-001 3.129236e-001 -1.226317e+000
<VARIANCE> 39
 1.683007e+001 4.868305e+001 4.901264e+001 5.944814e+001 8.328902e+001 1.033220e+002 8.938198e+001 7.072867e+001 6.559799e+001 6.268681e+001 6.741224e+001 4.591422e+001 3.995099e+001 3.384905e+000 3.886422e+000 4.120459e+000 4.431352e+000 5.741838e+000 6.046142e+000 5.926324e+000 5.417514e+000 5.209365e+000 4.467805e+000 4.918618e+000 4.374880e+000 5.699683e+000 5.335523e-001 8.306048e-001 6.115193e-001 7.539598e-001 1.139362e+000 1.054047e+000 1.055696e+000 1.125765e+000 9.650695e-001 8.520479e-001 8.310438e-001 6.942955e-001 8.135333e-001
<GCONST> 1.424920e+002
<MIXTURE> 4 4.681998e-002
<MEAN> 39
 -9.036312e+000 -3.356033e+000 -4.568390e+000 -4.037155e+000 2.879936e+000 2.128269e+000 1.145948e+000 -4.557522e-001 2.378709e+000 2.466030e+000 -5.810241e-001 -1.571054e+000 5.173250e+001 2.801129e+000 -3.041757e+000 -1.172798e+000 -2.690380e+000 9.746391e-001 3.737278e-001 -5.172859e-001 -1.143960e+000 -9.025137e-001 -1.383215e-001 -1.524402e+000 -1.480522e+000 5.277194e+000 5.577877e-001 -5.034956e-001 1.052665e-001 -6.063119e-001 -2.936097e-001 -2.646042e-001 -2.068039e-001 -4.686654e-004 -1.042378e-001 -9.969188e-002 -2.815353e-001 -2.118954e-001 1.360712e+000
<VARIANCE> 39
 3.324766e+001 5.007513e+001 4.552692e+001 5.661206e+001 6.222789e+001 6.143451e+001 5.838694e+001 5.095807e+001 4.087395e+001 3.539444e+001 4.351286e+001 3.704056e+001 8.385387e+001 3.602001e+000 5.659157e+000 5.400737e+000 5.945346e+000 8.285037e+000 8.400806e+000 8.273074e+000 6.823511e+000 6.376460e+000 5.370009e+000 5.597645e+000 4.597908e+000 6.305740e+000 5.053837e-001 9.418509e-001 7.221610e-001 8.754843e-001 9.004184e-001 8.767583e-001 8.728154e-001 8.546247e-001 7.983978e-001 6.620972e-001 8.794497e-001 6.352027e-001 1.241090e+000
<GCONST> 1.429361e+002
<MIXTURE> 5 2.472127e-001
<MEAN> 39
 2.449572e-001 -1.084741e+001 -5.559195e+000 -1.354848e+001 -5.873632e+000 -1.321873e+000 -8.841779e+000 -1.128514e+000 5.659907e-001 6.189210e-001 -3.773832e+000 -9.051650e+000 7.334883e+001 4.318245e-001 -1.554718e+000 -9.015975e-001 -8.422034e-001 3.812136e-001 7.880069e-001 -2.739676e-001 5.961846e-001 3.028221e-001 -1.193020e-001 -5.236717e-001 -1.197604e+000 1.139143e+000 -4.042076e-001 6.136040e-001 3.885165e-001 5.917066e-001 1.574685e-001 -3.400423e-001 2.837376e-001 -3.099116e-001 -2.880005e-001 -7.760205e-002 1.987689e-003 4.589791e-001 -6.438504e-001
<VARIANCE> 39
 2.243924e+001 3.960155e+001 4.529702e+001 6.689974e+001 6.387768e+001 9.199023e+001 8.571837e+001 6.796537e+001 6.595412e+001 6.460970e+001 7.809978e+001 3.939692e+001 5.429205e+001 1.598785e+000 1.723419e+000 2.292506e+000 2.801728e+000 3.206810e+000 3.546644e+000 3.316261e+000 3.462836e+000 3.410471e+000 3.074772e+000 3.074878e+000 2.771795e+000 1.053511e+000 3.680829e-001 3.337874e-001 4.221264e-001 5.102383e-001 6.242616e-001 6.440695e-001 6.791565e-001 7.352614e-001 6.657304e-001 6.291875e-001 6.207491e-001 5.056994e-001 2.273479e-001
<GCONST> 1.277583e+002
<MIXTURE> 6 1.503859e-001
<MEAN> 39
 -6.707679e-001 -1.342475e+001 -5.177939e+000 -1.646934e+001 -2.146214e+000 -7.636367e+000 -5.366333e+000 -2.859475e-001 -4.075298e+000 -1.760982e+000 -1.231538e+001 -3.154911e+000 7.566800e+001 1.900010e+000 -2.764040e+000 -1.165903e+000 -2.445600e+000 -1.001971e-001 -1.561894e-001 -1.063627e+000 -3.634220e-002 -1.488066e+000 -6.599194e-001 -2.398144e+000 -1.114148e+000 3.090157e+000 -7.436410e-001 7.914444e-001 3.193718e-001 8.494637e-001 7.000839e-002 2.121438e-001 3.151464e-001 -1.011741e-001 1.756403e-001 3.310769e-002 6.575047e-001 1.365862e-001 -1.179476e+000
<VARIANCE> 39
 1.660950e+001 4.913771e+001 4.204184e+001 4.925627e+001 8.075053e+001 9.556687e+001 8.127424e+001 6.367126e+001 5.930291e+001 5.617929e+001 6.373659e+001 4.974482e+001 3.473237e+001 3.136504e+000 3.683201e+000 3.721602e+000 4.438273e+000 5.605750e+000 6.020426e+000 6.494368e+000 5.526829e+000 5.227048e+000 4.444044e+000 5.414496e+000 4.657132e+000 6.415953e+000 5.134364e-001 8.036896e-001 5.642325e-001 7.002892e-001 1.074037e+000 1.021237e+000 8.955060e-001 1.021317e+000 8.695090e-001 8.313088e-001 8.040317e-001 6.743819e-001 8.617617e-001
<GCONST> 1.409273e+002
<MIXTURE> 7 4.884361e-002
<MEAN> 39
 -9.817791e+000 -5.070405e+000 -6.875405e+000 -6.099609e+000 -4.707235e+000 -2.903871e+000 -2.216229e+000 2.694899e-001 3.380605e+000 4.585365e-001 -2.851274e+000 -4.759722e+000 5.494179e+001 1.490578e-001 -4.889057e-001 -8.110935e-001 -1.360213e-001 8.488299e-001 7.837020e-001 -4.736856e-002 -3.878302e-001 -5.848365e-002 -1.438580e-001 -4.149101e-001 -7.959760e-001 2.163655e-001 3.395633e-001 -4.255499e-001 2.070003e-001 -4.068123e-001 -5.739631e-003 1.470230e-001 -3.102102e-001 -1.585085e-001 -3.866332e-001 -5.692484e-002 2.323516e-003 -1.212626e-001 7.222096e-001
<VARIANCE> 39
 4.361319e+001 5.669905e+001 5.701128e+001 7.522991e+001 1.012446e+002 8.161737e+001 6.943418e+001 6.573650e+001 5.967987e+001 6.195233e+001 5.873604e+001 5.707607e+001 1.263660e+002 2.134326e+000 2.545758e+000 3.164140e+000 3.098337e+000 4.186932e+000 3.831328e+000 3.337412e+000 3.889106e+000 3.948902e+000 3.757044e+000 3.605659e+000 3.306016e+000 3.477102e+000 4.528863e-001 7.324102e-001 6.422971e-001 6.953806e-001 8.462030e-001 8.430964e-001 7.795705e-001 8.891688e-001 8.805010e-001 8.268268e-001 8.360559e-001 7.327355e-001 9.718043e-001
<GCONST> 1.387574e+002
<MIXTURE> 8 4.476736e-002
<MEAN> 39
 -9.647310e+000 -4.740639e+000 -4.515449e+000 -4.461880e+000 1.987256e+000 1.053445e+000 -8.167802e-002 2.010350e-001 1.789218e+000 9.030873e-001 -1.790134e+000 -7.708908e-001 5.185113e+001 2.516984e+000 -3.876137e+000 -1.536718e+000 -2.883846e+000 1.007269e+000 -6.094363e-002 -1.732850e+000 -1.399165e+000 -1.729077e+000 -7.363824e-001 -2.365252e+000 -1.749561e+000 5.586461e+000 5.428189e-001 -5.799950e-001 -3.866260e-002 -8.177443e-001 -2.840514e-001 -3.745384e-001 -2.914828e-001 -9.837047e-002 -3.245029e-001 -2.238940e-001 -5.143721e-001 -3.782825e-001 1.511597e+000
<VARIANCE> 39
 3.075764e+001 6.229155e+001 4.587817e+001 5.682414e+001 6.628583e+001 6.025605e+001 5.909535e+001 4.664764e+001 4.489047e+001 3.848980e+001 4.432598e+001 3.866625e+001 9.347266e+001 3.374533e+000 5.959940e+000 5.433989e+000 6.287317e+000 8.274295e+000 9.063206e+000 8.133465e+000 7.215904e+000 7.133070e+000 5.607439e+000 5.902672e+000 4.968483e+000 6.554265e+000 4.707163e-001 1.180869e+000 7.442725e-001 8.501668e-001 8.900623e-001 8.732848e-001 9.040326e-001 8.398721e-001 8.501562e-001 7.097643e-001 9.211233e-001 6.229640e-001 1.283421e+000
<GCONST> 1.442406e+002
<STATE> 3
<NUMMIXES> 8
<MIXTURE> 1 1.272426e-001
<MEAN> 39
 1.749324e+000 -9.541727e+000 -5.263803e+000 -9.416886e+000 -5.484194e+000 2.512131e+000 -8.407182e+000 7.314206e-001 3.320358e+000 2.198517e+000 -1.223272e+000 -1.075126e+001 7.308591e+001 9.971517e-002 3.436882e-001 -8.574097e-002 1.193087e-001 4.331917e-001 1.792121e-001 3.396017e-001 -2.469371e-001 -2.485130e-001 1.804126e-001 1.131095e-001 2.136613e-001 -2.895331e-001 -2.027024e-001 7.232197e-001 4.313395e-001 4.737867e-001 3.711536e-002 -4.000551e-001 2.102555e-001 -3.760122e-001 -2.774059e-001 5.812388e-002 1.571178e-001 6.112422e-001 -5.739970e-001
<VARIANCE> 39
 2.370642e+001 3.662050e+001 3.298463e+001 6.037769e+001 4.238544e+001 5.908428e+001 5.996766e+001 4.775484e+001 4.698884e+001 5.126119e+001 5.453273e+001 3.163053e+001 6.845497e+001 3.913092e-001 1.109301e+000 1.321993e+000 1.528174e+000 1.838510e+000 2.446354e+000 2.101096e+000 2.227822e+000 1.920470e+000 1.789678e+000 2.240093e+000 1.575695e+000 4.759177e-001 1.455822e-001 2.186400e-001 2.327676e-001 2.909930e-001 3.541282e-001 3.420400e-001 3.886876e-001 4.366252e-001 4.384522e-001 3.736924e-001 3.767981e-001 2.987398e-001 1.280602e-001
<GCONST> 1.098885e+002
<MIXTURE> 2 1.141346e-001
<MEAN> 39
 1.619992e+000 -1.110849e+001 -3.935534e+000 -1.280392e+001 -2.851150e+000 -1.588168e+000 -6.255745e+000 -4.283539e-001 1.822622e+000 3.180956e+000 -3.605427e+000 -8.825545e+000 7.582894e+001 1.262002e-001 7.354825e-001 4.727239e-001 6.030980e-001 4.363793e-001 -3.668543e-001 2.231100e-001 2.104494e-001 -2.743574e-001 1.316570e-001 2.701646e-002 5.202241e-001 -4.713550e-001 -7.827301e-001 1.273392e+000 4.856197e-001 1.022948e+000 2.537844e-001 -2.246465e-001 5.227019e-001 -1.752503e-001 -1.121346e-001 -1.422611e-001 3.226339e-001 7.920963e-001 -1.252412e+000
<VARIANCE> 39
 1.775284e+001 4.204980e+001 4.943502e+001 7.373502e+001 6.288121e+001 9.641863e+001 8.876984e+001 7.241386e+001 6.911090e+001 6.496404e+001 6.578049e+001 3.991749e+001 4.201119e+001 1.136030e+000 2.655782e+000 2.478863e+000 2.820841e+000 3.946226e+000 4.347631e+000 3.794347e+000 4.149295e+000 3.398299e+000 3.141983e+000 3.531823e+000 2.556932e+000 1.691009e+000 5.374816e-001 4.967299e-001 5.691639e-001 7.192594e-001 8.631905e-001 9.861885e-001 1.092160e+000 1.065995e+000 1.150983e+000 8.925703e-001 9.078931e-001 6.249176e-001 4.977848e-001
<GCONST> 1.342747e+002
<MIXTURE> 3 1.378876e-001
<MEAN> 39
 -6.520882e-001 -1.448381e+001 -5.113885e+000 -1.529731e+001 -1.461279e+000 -8.058800e+000 -4.571926e+000 1.811242e+000 -6.363979e+000 -4.447477e+000 -1.592648e+001 -1.046123e+000 7.888685e+001 1.739066e-001 4.957406e-001 1.929863e-001 3.328635e-001 1.443607e-001 -5.641778e-003 1.764825e-001 -2.372967e-001 1.283687e-001 5.032087e-002 1.831512e-001 1.342230e-001 -4.029673e-001 -1.519777e-001 1.108559e+000 5.703300e-001 6.842507e-001 -1.731771e-001 -1.521958e-002 2.918420e-002 -3.686325e-001 3.988525e-001 3.190355e-001 8.499579e-001 -1.175129e-001 -9.146167e-001
<VARIANCE> 39
 8.842220e+000 3.363390e+001 3.495871e+001 4.247860e+001 6.516961e+001 5.545298e+001 7.013197e+001 4.625697e+001 5.891319e+001 4.902073e+001 3.394000e+001 3.394080e+001 1.503838e+001 6.607221e-001 2.235060e+000 2.221687e+000 1.575155e+000 3.697576e+000 2.955609e+000 2.911760e+000 2.817332e+000 2.963233e+000 2.880316e+000 2.324626e+000 2.215820e+000 8.913718e-001 2.347581e-001 3.002953e-001 2.881684e-001 4.830068e-001 6.110926e-001 5.718044e-001 6.447322e-001 6.502476e-001 6.682323e-001 5.708898e-001 5.531833e-001 4.093778e-001 2.549260e-001
<GCONST> 1.181269e+002
<MIXTURE> 4 1.296703e-001
<MEAN> 39
 1.135457e+000 -1.148328e+001 -6.431153e+000 -1.591381e+001 2.214797e+000 -2.502304e+000 -2.006014e+000 -3.612297e+000 -3.308399e-001 -3.786575e-001 -6.258378e+000 -6.882109e+000 7.675726e+001 4.597188e-002 1.662024e-001 -1.288614e-003 1.512866e-001 2.598168e-001 7.958178e-002 1.300669e-001 -9.880515e-002 8.070268e-002 -8.512405e-004 8.877896e-002 9.143586e-002 -1.582240e-001 3.725151e-002 3.350963e-001 3.148750e-001 2.006620e-001 -3.290998e-001 -8.282732e-002 -2.032906e-001 9.671395e-002 -1.240183e-002 1.106685e-001 1.822248e-001 1.439345e-001 -2.902916e-001
<VARIANCE> 39
 1.304353e+001 3.727775e+001 3.570362e+001 6.130723e+001 5.478836e+001 9.956562e+001 9.359080e+001 5.765434e+001 5.795613e+001 5.538611e+001 6.646495e+001 4.086820e+001 2.397966e+001 3.123314e-001 7.252275e-001 8.461215e-001 1.138400e+000 1.454390e+000 1.600266e+000 1.537874e+000 1.574654e+000 1.386523e+000 1.423580e+000 1.401998e+000 1.238368e+000 3.624451e-001 6.340395e-002 1.291062e-001 1.641379e-001 2.244218e-001 2.354457e-001 2.615135e-001 2.993418e-001 2.734452e-001 2.844359e-001 2.637632e-001 2.609015e-001 2.176057e-001 7.535315e-002
<GCONST> 1.008933e+002
<MIXTURE> 5 1.295104e-001
<MEAN> 39
 -1.120574e+000 -1.666044e+001 -5.176939e+000 -1.709792e+001 -1.755897e+000 -9.278904e+000 -5.680194e+000 1.322028e+000 -8.663260e+000 -6.431661e+000 -1.750923e+001 -8.113046e-001 7.881634e+001 9.009074e-002 2.538950e-001 -7.871736e-002 3.307126e-002 -4.465384e-002 -1.709439e-001 -1.587899e-001 -4.894412e-001 -2.449376e-001 -2.321488e-001 -2.079691e-001 -2.547828e-001 -2.615122e-001 -6.452636e-002 1.045619e+000 4.701822e-001 5.154418e-001 -2.986767e-001 -1.486527e-001 -8.046787e-002 -4.849204e-001 3.262835e-001 3.135575e-001 6.309354e-001 -2.282799e-001 -8.199490e-001
<VARIANCE> 39
 8.937006e+000 3.082611e+001 3.234796e+001 3.874414e+001 6.290120e+001 5.507069e+001 7.164832e+001 4.506663e+001 5.567525e+001 4.548298e+001 3.447942e+001 3.887353e+001 1.245658e+001 6.699398e-001 2.283427e+000 2.178136e+000 1.585451e+000 3.665533e+000 2.804575e+000 3.052758e+000 2.666726e+000 2.907102e+000 2.915001e+000 2.283560e+000 2.428689e+000 9.594418e-001 2.132902e-001 2.880283e-001 2.864614e-001 4.747414e-001 5.693284e-001 5.455987e-001 6.038375e-001 6.235760e-001 5.994857e-001 5.651292e-001 5.625167e-001 4.265383e-001 2.361291e-001
<GCONST> 1.172355e+002
<MIXTURE> 6 1.254559e-001
<MEAN> 39
 -4.121100e-001 -1.173777e+001 -6.379759e+000 -1.132938e+001 -7.282692e+000 1.922074e+000 -1.017283e+001 -8.270255e-002 2.290638e+000 8.338398e-001 -2.560675e+000 -1.179547e+001 7.153225e+001 3.435809e-002 2.083376e-001 -1.795572e-001 1.152469e-003 2.963569e-001 5.379839e-002 1.692002e-001 -2.935645e-001 -2.790435e-001 4.991781e-002 -2.153972e-002 -6.917354e-002 -2.284087e-001 -1.101935e-001 6.640163e-001 3.735329e-001 3.995164e-001 -4.594456e-002 -4.368028e-001 1.480459e-001 -3.968559e-001 -2.878853e-001 2.713148e-003 1.179403e-001 5.327944e-001 -5.587969e-001
<VARIANCE> 39
 3.164949e+001 3.780300e+001 3.728485e+001 5.361507e+001 4.618556e+001 5.955350e+001 6.384351e+001 5.279330e+001 5.271047e+001 5.822393e+001 6.341417e+001 3.435880e+001 7.116780e+001 3.866830e-001 1.099022e+000 1.337450e+000 1.532949e+000 1.764476e+000 2.406935e+000 2.042778e+000 2.337989e+000 1.974948e+000 1.855915e+000 2.244678e+000 1.607707e+000 4.994323e-001 1.334685e-001 2.068492e-001 2.317981e-001 2.895469e-001 3.366836e-001 3.400103e-001 3.671441e-001 4.225996e-001 4.334607e-001 3.753564e-001 3.655311e-001 2.930988e-001 1.319778e-001
<GCONST> 1.107515e+002
<MIXTURE> 7 1.204571e-001
<MEAN> 39
 2.407460e-002 -1.334630e+001 -8.256621e+000 -1.644768e+001 1.434291e+000 -3.752825e+000 -4.058338e+000 -4.720215e+000 -2.561923e+000 -3.203095e+000 -8.953153e+000 -7.286951e+000 7.649766e+001 -1.466435e-002 5.984785e-002 -1.480376e-001 3.040639e-002 1.146027e-001 -4.824992e-002 -9.398542e-002 -2.310266e-001 -3.388327e-002 -1.777020e-001 -1.075180e-001 -1.641804e-001 -1.425415e-001 4.736318e-002 3.105364e-001 2.745170e-001 7.583881e-002 -3.537945e-001 -1.891989e-001 -1.864934e-001 7.782216e-002 -4.013051e-002 9.784069e-002 7.183040e-002 5.380690e-002 -2.758163e-001
<VARIANCE> 39
 1.314604e+001 3.543139e+001 3.444716e+001 5.510891e+001 5.359427e+001 1.046563e+002 1.055105e+002 5.720084e+001 5.887805e+001 5.553323e+001 6.607790e+001 4.218552e+001 2.274214e+001 3.081621e-001 7.144496e-001 8.401111e-001 1.103330e+000 1.402169e+000 1.505654e+000 1.473671e+000 1.532801e+000 1.345199e+000 1.394900e+000 1.366586e+000 1.170333e+000 3.578119e-001 6.021824e-002 1.263344e-001 1.662213e-001 2.182819e-001 2.326343e-001 2.464082e-001 2.849998e-001 2.643764e-001 2.660521e-001 2.552221e-001 2.516382e-001 2.095693e-001 7.104859e-002
<GCONST> 9.998456e+001
<MIXTURE> 8 1.155133e-001
<MEAN> 39
 5.056143e-001 -1.278129e+001 -5.103456e+000 -1.474039e+001 -3.284395e+000 -2.235302e+000 -8.282640e+000 -9.284647e-001 1.657848e-001 1.915713e+000 -4.740226e+000 -9.627457e+000 7.503284e+001 6.783220e-002 4.377295e-001 3.169611e-001 3.903333e-001 7.827640e-002 -5.594795e-001 -1.150881e-001 8.252488e-002 -3.918054e-001 -1.048367e-001 -2.793826e-001 1.430418e-001 -3.454489e-001 -5.686772e-001 1.201005e+000 4.672813e-001 9.494353e-001 7.835829e-002 -2.877951e-001 4.797616e-001 -2.868090e-001 -1.535049e-001 -1.898812e-001 2.342823e-001 7.398669e-001 -1.229288e+000
<VARIANCE> 39
 2.113589e+001 4.531978e+001 5.310706e+001 7.296970e+001 6.702840e+001 9.850618e+001 1.008712e+002 7.713664e+001 7.350199e+001 6.879984e+001 7.254147e+001 4.094778e+001 4.465293e+001 1.037563e+000 2.656623e+000 2.493578e+000 2.886542e+000 3.598973e+000 4.443773e+000 3.674624e+000 4.391790e+000 3.520983e+000 3.272552e+000 3.624707e+000 2.657166e+000 1.662633e+000 4.919569e-001 4.602257e-001 6.215437e-001 7.172778e-001 8.553381e-001 9.872509e-001 1.031582e+000 1.056031e+000 1.104944e+000 8.858422e-001 8.619804e-001 6.169242e-001 4.567440e-001
<GCONST> 1.348283e+002
<STATE> 4
<NUMMIXES> 8
<MIXTURE> 1 7.802549e-002
<MEAN> 39
 1.274260e-001 -8.847677e-001 -3.188508e+000 -6.914143e+000 9.319611e-001 -5.209870e+000 -3.711941e+000 -2.639995e+000 -3.108224e-001 1.203980e+000 -4.962931e+000 -4.563195e+000 6.699610e+001 -1.660226e+000 2.565446e+000 1.177306e+000 2.973682e+000 1.336076e+000 8.031792e-001 1.567308e+000 8.512220e-001 1.065856e+000 5.292760e-001 1.304117e+000 1.057604e+000 -4.244077e+000 -5.247960e-001 -6.444432e-001 -1.666282e-001 -1.457310e-001 -1.273005e-001 4.714290e-001 3.444616e-001 5.065544e-001 3.820298e-001 9.459306e-002 2.811457e-001 1.669430e-001 -1.625452e-001
<VARIANCE> 39
 1.463313e+001 2.348935e+001 3.041103e+001 4.472129e+001 4.825928e+001 7.355550e+001 5.844645e+001 4.964009e+001 4.814978e+001 6.043937e+001 7.191782e+001 4.071917e+001 4.270782e+001 2.023153e+000 1.977256e+000 2.683613e+000 2.995631e+000 3.103532e+000 4.899472e+000 5.129668e+000 4.248291e+000 5.144956e+000 3.956139e+000 5.259969e+000 3.290595e+000 2.698812e+000 3.100683e-001 3.325618e-001 3.748077e-001 4.528424e-001 5.545955e-001 6.468967e-001 6.451057e-001 6.222166e-001 6.119407e-001 6.615586e-001 6.750312e-001 5.239763e-001 4.262557e-001
<GCONST> 1.279440e+002
<MIXTURE> 2 1.216122e-001
<MEAN> 39
 1.309779e+000 -9.145913e+000 -2.731938e+000 -1.332239e+001 -2.765810e+000 -7.337046e+000 -5.767293e+000 1.447445e-001 -3.184890e+000 1.927620e-001 -9.800649e+000 -3.730645e+000 7.454256e+001 -8.940588e-001 3.514867e+000 1.283102e+000 2.674683e+000 1.012195e+000 -1.790443e-001 9.580893e-001 -4.309997e-001 6.569373e-001 2.202407e-002 1.211739e+000 6.975975e-001 -2.953738e+000 -8.304690e-001 5.014236e-001 1.216451e-001 7.336990e-001 3.077038e-001 5.065590e-001 5.266753e-001 1.281140e-001 4.917792e-001 2.924469e-002 6.264754e-001 9.535869e-002 -8.861711e-001
<VARIANCE> 39
 1.312672e+001 3.172831e+001 5.043352e+001 5.690271e+001 6.596220e+001 8.946954e+001 7.647520e+001 6.641920e+001 6.773418e+001 7.204772e+001 8.227445e+001 4.596482e+001 2.422604e+001 2.129826e+000 2.000367e+000 2.556925e+000 3.022497e+000 3.922143e+000 4.027154e+000 5.007141e+000 4.116001e+000 4.708210e+000 3.522270e+000 3.743194e+000 2.973660e+000 2.571539e+000 4.538711e-001 4.445938e-001 5.394511e-001 5.677832e-001 7.230579e-001 8.900284e-001 8.136830e-001 9.098364e-001 8.817735e-001 8.402109e-001 8.837404e-001 6.266422e-001 4.795916e-001
<GCONST> 1.330967e+002
<MIXTURE> 3 1.728074e-001
<MEAN> 39
 1.906674e+000 -9.843936e+000 -3.663735e+000 -1.193241e+001 -3.871885e+000 -1.261232e+000 -7.002919e+000 -6.801708e-001 1.015937e+000 7.255414e-001 -3.132071e+000 -7.653258e+000 7.502867e+001 1.719555e-001 1.730907e+000 1.196402e+000 1.280650e+000 -4.521714e-001 -5.228336e-001 1.390074e-001 -7.687296e-001 -7.813570e-001 2.246777e-001 7.017657e-001 1.018838e+000 -1.617594e+000 -1.880124e-001 5.463140e-001 3.225673e-001 4.790680e-001 7.310344e-002 -1.388678e-001 1.680426e-001 -2.506283e-001 -2.201792e-001 9.561807e-003 2.246081e-002 2.339500e-001 -5.289983e-001
<VARIANCE> 39
 1.600081e+001 3.467090e+001 4.727606e+001 7.421119e+001 6.906961e+001 9.803114e+001 8.507182e+001 6.625941e+001 6.268998e+001 6.621863e+001 7.422360e+001 4.139931e+001 3.619340e+001 7.379133e-001 1.771472e+000 2.299418e+000 2.990826e+000 3.258798e+000 3.682892e+000 3.382507e+000 4.082052e+000 3.826228e+000 3.445044e+000 3.141783e+000 2.648623e+000 1.256105e+000 1.357302e-001 2.328332e-001 3.432423e-001 4.050585e-001 4.984178e-001 6.047143e-001 5.488645e-001 6.305789e-001 5.939644e-001 5.651746e-001 5.574113e-001 4.276755e-001 1.851258e-001
<GCONST> 1.238985e+002
<MIXTURE> 4 1.349352e-001
<MEAN> 39
 -1.215479e+000 -1.908863e+000 -7.760969e+000 -5.947516e+000 8.459812e-001 2.807794e+000 -1.934029e+000 -2.425139e+000 2.559214e+000 3.040792e+000 -1.858636e+000 -5.782064e+000 6.189030e+001 -6.941416e-001 1.052769e+000 5.907176e-001 1.009311e+000 4.813716e-001 7.951849e-002 7.489678e-001 3.684016e-001 1.181933e-001 3.128647e-002 4.293789e-001 8.515592e-001 -1.701807e+000 -2.395874e-001 -1.052026e-001 3.293187e-001 1.625883e-002 -9.110611e-002 -1.247227e-001 -5.588913e-002 1.817125e-001 -3.308236e-002 -3.844218e-002 6.029847e-002 1.743150e-001 1.544254e-001
<VARIANCE> 39
 2.663765e+001 2.701109e+001 2.865672e+001 5.417327e+001 5.610688e+001 5.493261e+001 5.894806e+001 4.557892e+001 4.378059e+001 4.707647e+001 4.583521e+001 3.495399e+001 6.370282e+001 1.154576e+000 1.760808e+000 2.214670e+000 2.412794e+000 2.882679e+000 2.767411e+000 2.913636e+000 2.785419e+000 2.970072e+000 2.511223e+000 2.480678e+000 2.154558e+000 1.895414e+000 3.072407e-001 2.622474e-001 3.575557e-001 4.755806e-001 4.546135e-001 4.769019e-001 5.140561e-001 5.014608e-001 4.959753e-001 4.469713e-001 4.666252e-001 4.105881e-001 4.316589e-001
<GCONST> 1.204042e+002
<MIXTURE> 5 1.618189e-001
<MEAN> 39
 8.273644e-001 -1.152127e+001 -4.765323e+000 -1.398245e+001 -4.712926e+000 -2.369891e+000 -8.994514e+000 -1.547651e+000 -1.337757e+000 -1.204473e+000 -5.152915e+000 -7.691532e+000 7.364867e+001 2.042168e-001 1.699418e+000 1.118077e+000 1.070862e+000 -8.059434e-001 -7.288069e-001 -5.575597e-002 -1.033797e+000 -8.474633e-001 2.112422e-001 4.398085e-001 5.383446e-001 -1.657779e+000 -1.508101e-001 4.814278e-001 2.844602e-001 3.949623e-001 -4.946312e-004 -2.023900e-001 1.159829e-001 -2.948811e-001 -2.317640e-001 5.089140e-004 -6.337811e-002 1.310102e-001 -4.740985e-001
<VARIANCE> 39
 1.962818e+001 3.780796e+001 4.929638e+001 7.038203e+001 7.169788e+001 1.006129e+002 9.422390e+001 6.936097e+001 6.900990e+001 7.081248e+001 8.617281e+001 4.414953e+001 3.953221e+001 7.522607e-001 1.798416e+000 2.584284e+000 3.106939e+000 3.111904e+000 3.638705e+000 3.405317e+000 4.127320e+000 3.796438e+000 3.718004e+000 3.213396e+000 2.909107e+000 1.301821e+000 1.282633e-001 2.282746e-001 3.654759e-001 4.027691e-001 4.933457e-001 5.860860e-001 5.351377e-001 6.218390e-001 5.875197e-001 5.956376e-001 5.545908e-001 4.357561e-001 1.800828e-001
<GCONST> 1.251514e+002
<MIXTURE> 6 1.213697e-001
<MEAN> 39
 -2.212585e+000 -3.595633e+000 -8.941808e+000 -7.585861e+000 -1.489238e+000 1.717338e+000 -4.005350e+000 -3.472786e+000 1.380425e+000 1.955154e+000 -2.935522e+000 -7.046459e+000 5.981740e+001 -6.711293e-001 7.956149e-001 -6.356081e-002 5.208763e-001 -1.729227e-001 -2.080294e-001 4.005952e-001 3.839392e-002 -1.483116e-001 -3.764397e-001 1.021792e-001 3.977710e-001 -1.796513e+000 -1.654940e-001 -2.221224e-001 2.323011e-001 -1.830010e-001 -1.614725e-001 -1.899000e-001 -1.874933e-001 6.387848e-002 -1.246048e-001 -9.354090e-002 -5.083922e-002 9.129133e-002 3.404883e-001
<VARIANCE> 39
 3.011811e+001 3.358261e+001 3.296794e+001 5.647297e+001 6.341361e+001 6.106222e+001 6.961861e+001 5.017622e+001 4.906002e+001 5.141991e+001 4.690374e+001 3.639565e+001 7.105094e+001 1.272163e+000 1.810678e+000 2.470777e+000 2.379181e+000 2.723612e+000 2.759914e+000 3.020072e+000 2.854324e+000 3.002679e+000 2.593583e+000 2.549432e+000 2.397596e+000 2.140121e+000 2.884331e-001 2.822531e-001 3.610494e-001 4.732218e-001 4.754133e-001 4.961772e-001 5.287654e-001 5.271935e-001 5.421861e-001 4.659698e-001 4.695503e-001 4.381964e-001 4.186694e-001
<GCONST> 1.226610e+002
<MIXTURE> 7 1.265727e-001
<MEAN> 39
 9.177742e-001 -1.044476e+001 -2.446440e+000 -1.509449e+001 -3.378887e+000 -8.880057e+000 -7.218630e+000 -9.119313e-002 -4.443196e+000 -5.745387e-003 -1.066425e+001 -3.621175e+000 7.391486e+001 -5.626959e-001 3.407703e+000 1.076876e+000 2.453067e+000 3.902645e-001 -4.722145e-001 2.710583e-001 -1.094106e+000 1.680663e-001 -2.258271e-001 8.146232e-001 2.021135e-001 -3.116785e+000 -6.267679e-001 4.602339e-001 1.335127e-002 6.580549e-001 2.120246e-001 4.408230e-001 3.478404e-001 -8.909969e-002 2.954895e-001 -1.843929e-001 3.846203e-001 -8.816552e-002 -7.907839e-001
<VARIANCE> 39
 1.487914e+001 3.412005e+001 5.413723e+001 6.081989e+001 7.078103e+001 9.286499e+001 8.628587e+001 6.975968e+001 7.071232e+001 7.152271e+001 8.436233e+001 4.859106e+001 2.638990e+001 1.964262e+000 1.907796e+000 2.941498e+000 3.001813e+000 3.884671e+000 4.052922e+000 4.982735e+000 4.457067e+000 4.336581e+000 3.597496e+000 3.371047e+000 3.119097e+000 2.479069e+000 4.370458e-001 4.396676e-001 5.738583e-001 5.637088e-001 7.519344e-001 8.553504e-001 7.905616e-001 9.215577e-001 8.512067e-001 8.000716e-001 8.192475e-001 6.351267e-001 4.586494e-001
<GCONST> 1.336312e+002
<MIXTURE> 8 8.274946e-002
<MEAN> 39
 -1.039814e-001 -1.777203e+000 -3.220818e+000 -7.945843e+000 9.202564e-001 -5.715693e+000 -5.174620e+000 -3.435339e+000 -1.546913e+000 1.554542e+000 -5.019681e+000 -5.626822e+000 6.607041e+001 -1.541114e+000 2.274479e+000 6.031699e-001 2.637573e+000 6.945877e-001 6.622698e-001 1.057730e+000 2.951081e-001 4.647511e-001 -6.695710e-002 6.275945e-001 6.114393e-001 -4.308785e+000 -4.806698e-001 -7.695342e-001 -3.395202e-001 -3.409005e-001 -2.795860e-001 3.377706e-001 1.919366e-001 4.056871e-001 3.334582e-001 -3.930467e-002 8.537100e-002 2.094345e-002 -2.963751e-002
<VARIANCE> 39
 1.606921e+001 2.506475e+001 3.352909e+001 4.774295e+001 4.969409e+001 7.074958e+001 6.440218e+001 5.633909e+001 4.962409e+001 6.133180e+001 7.460886e+001 4.042385e+001 4.208082e+001 2.201315e+000 1.996564e+000 3.391103e+000 2.890260e+000 3.284722e+000 4.691036e+000 4.885952e+000 4.277613e+000 4.687027e+000 3.869335e+000 4.618351e+000 3.157368e+000 2.396703e+000 2.897597e-001 3.265027e-001 3.831545e-001 4.569243e-001 5.530504e-001 6.186134e-001 6.637051e-001 6.414172e-001 6.350831e-001 6.391008e-001 6.450794e-001 5.303138e-001 4.337310e-001
<GCONST> 1.283400e+002
<TRANSP> 5
 0.000000e+000 1.000000e+000 0.000000e+000 0.000000e+000 0.000000e+000
 0.000000e+000 4.916996e-001 5.083005e-001 0.000000e+000 0.000000e+000
 0.000000e+000 0.000000e+000 6.148663e-001 3.851337e-001 0.000000e+000
 0.000000e+000 0.000000e+000 0.000000e+000 5.884594e-001 4.115407e-001
 0.000000e+000 0.000000e+000 0.000000e+000 0.000000e+000 0.000000e+000
<ENDHMM>
~h "b"
<BEGINHMM>
<NUMSTATES> 5
<STATE> 2
<NUMMIXES> 8
<MIXTURE> 1 1.912812e-001
<MEAN> 39
 2.944622e+000 6.822528e+000 3.282761e+000 5.079726e-002 -2.447195e+000 8.831693e-001 -4.091968e+000 -6.772210e+000 -5.635579e+000 -2.869439e+000 2.509362e-001 -3.666263e+000 5.813007e+001 -5.530701e-001 2.294784e+000 1.000431e+000 2.433295e+000 1.882163e+000 -1.072224e-001 1.316001e+000 2.636979e-001 -1.859666e-001 -5.766433e-001 -8.365090e-001 -1.861084e-001 -2.624105e+000 -2.124333e-001 -5.976579e-001 -4.543830e-002 -5.681760e-001 -4.163988e-001 -1.375863e-001 -3.084151e-001 1.989846e-001 3.392894e-001 2.989326e-001 9.884953e-002 4.040856e-002 7.128187e-001
<VARIANCE> 39
 1.821833e+001 2.326703e+001 3.125491e+001 4.258945e+001 3.024427e+001 3.559004e+001 3.910465e+001 3.108099e+001 3.764429e+001 3.035871e+001 3.074088e+001 2.298307e+001 4.563573e+001 8.104840e-001 1.615451e+000 1.764702e+000 3.653778e+000 2.632789e+000 2.426809e+000 2.784333e+000 2.761564e+000 3.653318e+000 2.616315e+000 2.461303e+000 2.081138e+000 9.500505e-001 1.057369e-001 2.621739e-001 2.390370e-001 4.006327e-001 3.579850e-001 3.455334e-001 3.720374e-001 4.546696e-001 4.967389e-001 4.100284e-001 4.607621e-001 3.189973e-001 2.040099e-001
<GCONST> 1.113979e+002
<MIXTURE> 2 8.778421e-002
<MEAN> 39
 -2.936307e+000 5.751027e+000 5.798259e+000 2.909067e+000 -1.115316e+000 -4.350913e+000 -6.029064e+000 -5.361293e+000 -1.491481e+000 -8.013437e-001 -5.676243e-001 -2.763450e+000 5.954145e+001 1.505293e+000 1.479337e+000 -3.680536e-002 8.615623e-001 9.000644e-001 1.127655e+000 4.712594e-001 -2.749323e-001 -3.919310e-001 9.757053e-002 1.249511e-001 -3.898697e-001 -2.302761e+000 -4.791935e-001 1.292194e-001 1.176057e-001 -5.471120e-002 9.317790e-003 2.141743e-002 3.264278e-001 1.453437e-001 -9.783027e-002 -1.018477e-001 -1.937010e-002 6.218006e-002 7.692902e-002
<VARIANCE> 39
 3.879632e+001 3.776796e+001 3.698642e+001 4.722366e+001 4.156685e+001 4.341516e+001 4.849581e+001 3.447589e+001 3.348400e+001 2.937830e+001 2.875768e+001 2.422085e+001 7.388075e+001 2.345020e+000 2.213861e+000 2.554850e+000 2.488934e+000 3.030765e+000 3.270109e+000 3.227749e+000 2.992819e+000 3.088507e+000 2.451052e+000 2.032996e+000 2.027079e+000 3.296180e+000 3.345345e-001 4.588917e-001 4.487297e-001 4.320440e-001 5.689582e-001 5.810661e-001 5.622714e-001 5.398452e-001 4.582649e-001 4.323654e-001 3.921704e-001 3.611469e-001 5.209906e-001
<GCONST> 1.217448e+002
<MIXTURE> 3 1.621917e-001
<MEAN> 39
 4.191470e+000 1.475341e+000 4.207897e+000 -4.168862e+000 -1.542059e+000 -5.333868e+000 -9.089878e+000 -7.213794e+000 -5.531457e+000 -6.046279e-001 -3.912695e+000 -6.485952e+000 6.230408e+001 2.018482e-001 3.628662e+000 7.572545e-001 3.498507e+000 1.603805e+000 1.204138e+000 8.599426e-001 -1.033399e+000 -3.844720e-001 -1.267266e+000 1.638174e-001 -8.906487e-001 -4.135303e+000 -4.697066e-001 -3.866553e-001 5.447065e-002 -5.589258e-001 -3.842826e-001 -2.117175e-001 3.772703e-001 4.918185e-001 1.619855e-001 -6.286106e-002 -1.955735e-001 3.410292e-001 6.563500e-001
<VARIANCE> 39
 8.312439e+000 2.781440e+001 3.743993e+001 5.476646e+001 3.328669e+001 5.656609e+001 3.993575e+001 4.137772e+001 4.724858e+001 3.832070e+001 5.482439e+001 2.598262e+001 2.606745e+001 8.118240e-001 1.319181e+000 2.393915e+000 3.298451e+000 2.849116e+000 3.233940e+000 3.891153e+000 3.760798e+000 4.137195e+000 2.916150e+000 2.934148e+000 2.589628e+000 8.942665e-001 1.393329e-001 4.459097e-001 3.103335e-001 5.262124e-001 4.097469e-001 4.523116e-001 4.287031e-001 5.541062e-001 5.529482e-001 5.236313e-001 5.067045e-001 4.211904e-001 4.428686e-001
<GCONST> 1.178539e+002
<MIXTURE> 4 6.975011e-002
<MEAN> 39
 2.806690e+000 1.065607e+001 4.962665e+000 4.480874e-001 -4.606888e+000 -2.715737e+000 -4.265201e+000 -7.248707e+000 -9.109578e+000 -3.420872e+000 -3.509528e+000 -6.182555e+000 5.376641e+001 8.519661e-001 1.269072e+000 4.918867e-001 9.110918e-001 -1.340105e-002 -4.560450e-001 -2.408612e-001 -2.595948e-001 -1.664355e-002 -8.020922e-002 -1.308492e-001 -4.011405e-001 -2.322431e-001 -6.870036e-001 -1.269235e+000 -8.047108e-002 -6.178778e-001 2.745279e-001 -1.671972e-001 5.067628e-002 3.639137e-001 6.346166e-001 4.086405e-001 2.136294e-001 5.308414e-001 8.028505e-001
<VARIANCE> 39
 3.001636e+001 5.864771e+001 7.033820e+001 8.242052e+001 6.697024e+001 1.018937e+002 7.254090e+001 7.536184e+001 6.585971e+001 4.834568e+001 6.072314e+001 3.823441e+001 4.987122e+001 4.717048e+000 4.465116e+000 3.254007e+000 4.062393e+000 5.377657e+000 5.455806e+000 5.417079e+000 5.277324e+000 5.310256e+000 3.561746e+000 3.443613e+000 3.354155e+000 4.925819e+000 4.645467e-001 1.101268e+000 1.023600e+000 1.009355e+000 1.031284e+000 1.696989e+000 1.340298e+000 1.294741e+000 1.103920e+000 8.868036e-001 8.738217e-001 7.178745e-001 1.216227e+000
<GCONST> 1.444993e+002
<MIXTURE> 5 1.961743e-001
<MEAN> 39
 2.210792e+000 5.322894e+000 1.908570e+000 -1.634181e+000 -3.905269e+000 -7.485620e-001 -6.125432e+000 -7.896383e+000 -7.229567e+000 -3.815894e+000 -1.549414e+000 -5.093669e+000 5.665805e+001 -5.593479e-001 2.264113e+000 9.484876e-001 2.300255e+000 1.412363e+000 -2.388902e-001 1.216291e+000 9.726376e-002 -2.283437e-001 -9.793330e-001 -1.167678e+000 -4.433103e-001 -2.590748e+000 -2.235104e-001 -6.697605e-001 -7.753447e-002 -6.158984e-001 -3.876835e-001 -1.854021e-001 -3.744844e-001 2.245536e-001 3.770536e-001 3.204117e-001 2.746709e-002 -9.101929e-003 7.637405e-001
<VARIANCE> 39
 2.109395e+001 2.602563e+001 3.411500e+001 4.220654e+001 3.375303e+001 4.108891e+001 4.078970e+001 3.253767e+001 3.839712e+001 3.141336e+001 3.841277e+001 2.536338e+001 4.910152e+001 8.948451e-001 1.489620e+000 1.751405e+000 3.406495e+000 2.561425e+000 2.449294e+000 2.928347e+000 2.735386e+000 3.644355e+000 2.715049e+000 2.512249e+000 2.162126e+000 1.045930e+000 1.085518e-001 2.699051e-001 2.500436e-001 4.086830e-001 3.697965e-001 3.721833e-001 3.944423e-001 4.588591e-001 5.391456e-001 4.187769e-001 4.931009e-001 3.299270e-001 2.073019e-001
<GCONST> 1.131925e+002
<MIXTURE> 6 1.384618e-001
<MEAN> 39
 3.173583e+000 9.872120e-001 3.731338e+000 -5.838719e+000 -2.238744e+000 -8.231528e+000 -1.154799e+001 -9.358506e+000 -8.184342e+000 -2.972142e+000 -9.125972e+000 -8.018180e+000 6.071061e+001 1.039564e-001 3.500203e+000 7.816578e-001 3.589675e+000 1.223002e+000 9.163413e-001 3.106100e-001 -1.407313e+000 -4.823432e-001 -1.764189e+000 -1.893330e-001 -1.530728e+000 -4.099118e+000 -4.746553e-001 -6.102369e-001 -4.040072e-002 -7.803147e-001 -4.421249e-001 -2.265794e-001 3.737604e-001 5.204865e-001 9.026410e-002 1.150787e-003 -2.040883e-001 3.845924e-001 8.522962e-001
<VARIANCE> 39
 9.067292e+000 2.740979e+001 3.268760e+001 4.052672e+001 3.332552e+001 5.080853e+001 3.819086e+001 3.923143e+001 4.639289e+001 3.938237e+001 5.948476e+001 3.040904e+001 2.174818e+001 8.444841e-001 1.351276e+000 2.313100e+000 3.013466e+000 2.886845e+000 3.201711e+000 3.826615e+000 3.521577e+000 3.588398e+000 3.104300e+000 2.773706e+000 2.845157e+000 9.907659e-001 1.392298e-001 4.603754e-001 3.281892e-001 5.281464e-001 4.082429e-001 4.545433e-001 4.435053e-001 5.551228e-001 5.876532e-001 5.801553e-001 4.917766e-001 4.656160e-001 4.588366e-001
<GCONST> 1.176690e+002
<MIXTURE> 7 8.882342e-002
<MEAN> 39
 -2.907640e+000 4.856723e+000 4.780588e+000 7.441847e-001 -3.202759e+000 -6.177874e+000 -8.086596e+000 -6.540020e+000 -3.331407e+000 -2.438033e+000 -2.791692e+000 -4.057710e+000 5.828966e+001 1.355147e+000 1.403582e+000 -2.445546e-001 6.643088e-001 5.084924e-001 7.007571e-001 1.278805e-001 -4.975666e-001 -5.802752e-001 -2.338495e-001 -3.087509e-001 -7.611221e-001 -2.087535e+000 -4.330888e-001 7.267115e-002 5.650333e-002 -9.462056e-002 -4.748457e-002 -4.201335e-002 2.103029e-001 4.291374e-002 -1.588005e-001 -1.713714e-001 -8.351671e-002 4.457147e-004 1.736347e-001
<VARIANCE> 39
 4.098543e+001 4.271608e+001 3.968704e+001 4.971950e+001 4.788206e+001 4.739149e+001 5.582677e+001 3.728809e+001 3.561941e+001 3.378545e+001 3.858945e+001 2.564895e+001 7.387158e+001 2.295299e+000 2.185748e+000 2.353784e+000 2.619472e+000 3.073548e+000 3.323929e+000 3.472810e+000 2.962925e+000 3.205420e+000 2.549464e+000 2.183164e+000 2.152369e+000 3.120316e+000 3.303409e-001 4.665925e-001 4.297593e-001 4.223660e-001 5.335821e-001 5.662019e-001 5.687242e-001 5.579458e-001 4.666496e-001 4.188746e-001 4.016843e-001 3.649393e-001 5.056430e-001
<GCONST> 1.231107e+002
<MIXTURE> 8 6.551124e-002
<MEAN> 39
 1.913361e+000 9.286935e+000 3.447335e+000 -1.391268e+000 -6.979332e+000 -4.366830e+000 -7.187925e+000 -9.069446e+000 -1.020425e+001 -4.977015e+000 -5.198097e+000 -6.907228e+000 5.305989e+001 7.449124e-001 1.203194e+000 2.347754e-001 6.121075e-001 -2.137260e-001 -9.534282e-001 -5.718862e-001 -8.790140e-001 -4.913163e-001 -4.564567e-001 -8.512853e-001 -7.909967e-001 -2.638226e-001 -5.991225e-001 -1.265809e+000 -6.258092e-002 -6.166359e-001 2.071214e-001 -1.718752e-001 3.798081e-003 4.184213e-001 5.981904e-001 3.414575e-001 2.267833e-001 4.119540e-001 9.480472e-001
<VARIANCE> 39
 3.695919e+001 6.432683e+001 7.825749e+001 7.748213e+001 7.426021e+001 1.049160e+002 7.061330e+001 7.379523e+001 6.305377e+001 5.023623e+001 7.771273e+001 4.065530e+001 4.647966e+001 4.799554e+000 4.672854e+000 3.666355e+000 4.257804e+000 5.695951e+000 5.693357e+000 6.482563e+000 6.148675e+000 5.443649e+000 3.721380e+000 4.168394e+000 4.005423e+000 5.038152e+000 4.919640e-001 1.101699e+000 1.048794e+000 1.069291e+000 1.098747e+000 1.453602e+000 1.396892e+000 1.345450e+000 1.118078e+000 9.456919e-001 9.566682e-001 7.779457e-001 1.006976e+000
<GCONST> 1.464703e+002
<STATE> 3
<NUMMIXES> 8
<MIXTURE> 1 1.403720e-001
<MEAN> 39
 -1.065620e+000 9.168182e+000 5.336423e+000 4.142029e+000 -3.663118e-001 -1.025865e+000 -3.023176e+000 -4.561652e+000 -3.756518e+000 -2.111822e+000 -9.527736e-001 -3.150056e+000 5.417257e+001 -3.117079e-001 3.230234e-001 2.447182e-001 4.976410e-001 5.806117e-001 1.914330e-001 2.793713e-001 2.960765e-001 2.272556e-001 4.352554e-003 -5.645948e-003 1.557774e-001 -5.432648e-001 -8.228298e-002 -6.145868e-001 -1.848978e-001 -4.537954e-001 -3.453190e-001 -1.134928e-001 -2.296564e-001 -5.155669e-003 1.399675e-001 1.527807e-001 1.561946e-001 1.323147e-001 7.120791e-001
<VARIANCE> 39
 2.668495e+001 1.811768e+001 2.414301e+001 2.861490e+001 2.583975e+001 2.842798e+001 2.744035e+001 2.761689e+001 3.109909e+001 2.371313e+001 2.248957e+001 2.099918e+001 5.374082e+001 4.910870e-001 6.128553e-001 7.119588e-001 1.009280e+000 1.092141e+000 1.175858e+000 1.423904e+000 1.507278e+000 1.554126e+000 1.453382e+000 1.358099e+000 1.252716e+000 3.867009e-001 1.500837e-001 2.567367e-001 2.740516e-001 3.735125e-001 3.508380e-001 3.478597e-001 3.959890e-001 3.874157e-001 4.018838e-001 3.669207e-001 3.383794e-001 2.950872e-001 2.436023e-001
<GCONST> 9.910545e+001
<MIXTURE> 2 1.288099e-001
<MEAN> 39
 2.150069e+000 1.016490e+001 6.177549e+000 2.584604e+000 5.534489e-001 -5.139498e-001 -3.559608e+000 -7.561519e+000 -6.013568e+000 -3.131607e+000 -1.259855e-001 -3.466286e+000 5.488347e+001 -1.746579e+000 -1.624685e+000 1.942552e-002 1.617183e-002 4.417529e-001 -8.846136e-001 2.955566e-002 7.826821e-001 1.138359e+000 4.861277e-001 -2.726699e-001 5.351565e-001 1.664119e+000 -1.439209e-001 -1.475032e+000 -3.195094e-001 -9.787523e-001 -8.625753e-001 -4.962019e-001 -4.706908e-001 3.240083e-001 4.592141e-001 4.382466e-001 1.446826e-001 6.286681e-002 1.837251e+000
<VARIANCE> 39
 1.906266e+001 1.654342e+001 2.264173e+001 3.184809e+001 2.564296e+001 3.077561e+001 3.239799e+001 2.659324e+001 3.094396e+001 2.688048e+001 2.670761e+001 1.925745e+001 3.722989e+001 1.456464e+000 2.926368e+000 1.997938e+000 3.352519e+000 2.671203e+000 3.394570e+000 3.243528e+000 2.788685e+000 3.076710e+000 2.611751e+000 2.328240e+000 1.767453e+000 3.863253e+000 3.037208e-001 3.073615e-001 6.053827e-001 6.474418e-001 6.099598e-001 6.139532e-001 6.601260e-001 6.345916e-001 7.210364e-001 6.605597e-001 5.601491e-001 4.662026e-001 2.737035e-001
<GCONST> 1.180931e+002
<MIXTURE> 3 1.506401e-001
<MEAN> 39
 4.113549e+000 7.077990e+000 5.726064e+000 -3.653073e-001 -1.685725e+000 -3.595432e+000 -6.903222e+000 -7.914178e+000 -5.728869e+000 -3.364312e+000 -4.609522e+000 -7.519089e+000 5.773823e+001 -1.229828e-001 1.045749e+000 3.957229e-001 7.154728e-001 4.332343e-001 1.649188e-001 3.530560e-001 7.959983e-002 1.907818e-001 -7.476042e-002 1.249940e-001 1.481715e-001 -1.177215e+000 -5.127193e-001 -1.095073e+000 -1.754931e-001 -7.476409e-001 -3.592252e-001 -3.339643e-001 -9.269722e-002 3.022174e-001 2.158161e-001 3.201420e-001 2.488030e-001 5.842806e-001 1.378966e+000
<VARIANCE> 39
 1.007599e+001 2.590681e+001 3.146426e+001 3.551310e+001 3.314615e+001 5.197204e+001 4.210816e+001 3.509893e+001 4.054248e+001 3.657714e+001 4.870744e+001 2.665358e+001 2.851123e+001 5.263169e-001 7.498558e-001 8.505690e-001 1.289612e+000 1.327116e+000 1.581885e+000 1.652372e+000 1.588784e+000 1.888138e+000 1.776134e+000 1.712987e+000 1.561449e+000 5.849351e-001 2.160364e-001 3.627916e-001 3.472532e-001 5.663980e-001 5.322065e-001 5.418292e-001 6.379881e-001 5.637256e-001 6.053812e-001 5.714625e-001 5.086287e-001 4.361958e-001 4.130467e-001
<GCONST> 1.094688e+002
<MIXTURE> 4 8.580730e-002
<MEAN> 39
 3.195085e+000 7.874998e+000 5.729403e+000 -6.555282e-001 -1.867731e+000 -6.063649e+000 -9.016131e+000 -8.397222e+000 -6.400176e+000 -4.200791e+000 -8.741589e+000 -9.114075e+000 5.426359e+001 -1.928543e+000 -2.419282e+000 3.486754e-001 -9.635924e-001 3.727673e-002 -1.141790e+000 1.232535e+000 1.320801e+000 8.849168e-001 3.400150e-001 8.963454e-001 2.003069e+000 3.205611e+000 -2.149001e-001 -1.380361e+000 -8.677558e-002 -1.290511e+000 -6.828011e-001 -3.887179e-001 9.251566e-002 3.859378e-001 -2.671295e-002 5.819196e-001 3.663194e-001 8.546543e-001 1.887871e+000
<VARIANCE> 39
 1.659579e+001 3.401134e+001 3.732812e+001 3.599009e+001 3.852982e+001 5.467764e+001 4.402123e+001 4.545189e+001 4.732176e+001 4.619017e+001 4.381340e+001 2.749663e+001 2.729252e+001 1.905084e+000 4.890677e+000 3.984001e+000 5.426998e+000 5.052633e+000 6.018552e+000 5.475079e+000 5.129434e+000 4.726577e+000 4.415678e+000 3.825777e+000 3.141631e+000 4.553847e+000 3.476764e-001 5.488141e-001 8.455322e-001 7.050952e-001 9.297295e-001 9.053622e-001 8.439259e-001 1.036853e+000 8.732977e-001 8.779366e-001 7.609505e-001 5.628524e-001 4.074650e-001
<GCONST> 1.331661e+002
<MIXTURE> 5 1.413908e-001
<MEAN> 39
 3.386994e+000 5.862267e+000 4.706020e+000 -2.265970e+000 -2.763549e+000 -6.169773e+000 -9.247247e+000 -9.164895e+000 -7.185151e+000 -4.616549e+000 -7.738719e+000 -8.773803e+000 5.679086e+001 -1.477888e-001 9.795975e-001 3.376928e-001 7.174634e-001 1.933422e-001 2.123186e-002 2.235696e-001 -1.058688e-001 1.701434e-002 -4.408610e-001 -1.632372e-001 -2.251318e-001 -1.193974e+000 -4.789846e-001 -1.129604e+000 -1.875826e-001 -8.359054e-001 -3.569134e-001 -3.540073e-001 -5.974879e-003 3.511751e-001 1.768760e-001 3.524721e-001 2.298012e-001 6.024228e-001 1.465309e+000
<VARIANCE> 39
 1.116100e+001 2.604426e+001 3.123823e+001 3.347127e+001 3.460903e+001 5.121994e+001 3.986418e+001 3.546515e+001 4.125682e+001 3.881034e+001 5.387801e+001 2.740473e+001 2.629815e+001 5.477959e-001 7.552056e-001 8.581022e-001 1.307009e+000 1.332081e+000 1.563984e+000 1.622728e+000 1.668113e+000 1.837851e+000 1.821468e+000 1.642672e+000 1.637874e+000 6.222685e-001 2.181417e-001 3.647201e-001 3.712339e-001 5.989704e-001 5.578515e-001 5.655046e-001 6.688038e-001 5.917101e-001 6.057109e-001 6.044340e-001 5.080320e-001 4.638868e-001 4.194654e-001
<GCONST> 1.102326e+002
<MIXTURE> 6 1.436293e-001
<MEAN> 39
 -1.658761e+000 7.680198e+000 4.107196e+000 1.944072e+000 -2.726816e+000 -3.079368e+000 -4.409329e+000 -5.626423e+000 -4.870906e+000 -3.443426e+000 -2.626253e+000 -4.588257e+000 5.435575e+001 -3.247090e-001 2.779335e-001 1.111638e-001 3.770081e-001 4.021395e-001 4.379985e-002 1.503920e-001 1.449071e-001 3.504006e-002 -2.555425e-001 -2.701409e-001 2.561744e-003 -5.121650e-001 -4.987708e-002 -6.934346e-001 -1.547067e-001 -4.782351e-001 -3.865395e-001 -1.356184e-001 -3.283812e-001 -5.012913e-002 1.275572e-001 1.749472e-001 1.578415e-001 1.130690e-001 7.464870e-001
<VARIANCE> 39
 2.574918e+001 2.091567e+001 2.280712e+001 2.841057e+001 3.153712e+001 3.484107e+001 3.018706e+001 2.542268e+001 2.795847e+001 2.304485e+001 2.503868e+001 1.978977e+001 5.995955e+001 4.336410e-001 6.572850e-001 7.214279e-001 9.792238e-001 1.128038e+000 1.174205e+000 1.393995e+000 1.405783e+000 1.558586e+000 1.447576e+000 1.357462e+000 1.228058e+000 3.824424e-001 1.432158e-001 2.632730e-001 2.787026e-001 3.949904e-001 3.804921e-001 3.507607e-001 4.283097e-001 3.814006e-001 4.087743e-001 3.754945e-001 3.555301e-001 2.832182e-001 2.542552e-001
<GCONST> 9.971764e+001
<MIXTURE> 7 1.265437e-001
<MEAN> 39
 1.832275e+000 8.978505e+000 4.750809e+000 1.140640e+000 -1.168129e+000 -1.671798e+000 -5.511164e+000 -8.676293e+000 -6.991326e+000 -3.518537e+000 -1.140572e+000 -4.489132e+000 5.390565e+001 -1.780946e+000 -1.870244e+000 -1.233883e-002 -4.886410e-002 2.291004e-001 -1.192549e+000 -2.250818e-001 5.760885e-001 1.051122e+000 2.205697e-001 -5.246959e-001 2.626916e-001 2.043354e+000 -1.396482e-001 -1.512828e+000 -2.376049e-001 -9.997002e-001 -9.070504e-001 -5.748715e-001 -5.349106e-001 3.735344e-001 3.852512e-001 3.912338e-001 5.334753e-002 3.418243e-002 1.832808e+000
<VARIANCE> 39
 2.100091e+001 1.919452e+001 2.791060e+001 3.638223e+001 2.791610e+001 3.491372e+001 3.358496e+001 2.824486e+001 3.201587e+001 2.882925e+001 3.169880e+001 2.095016e+001 4.239486e+001 1.518102e+000 2.879567e+000 2.168232e+000 3.577898e+000 2.740555e+000 3.662738e+000 3.465692e+000 2.739138e+000 2.945652e+000 2.753781e+000 2.462141e+000 1.860052e+000 3.621583e+000 2.956414e-001 3.078841e-001 6.585824e-001 7.093492e-001 6.369433e-001 6.411585e-001 6.783774e-001 6.613091e-001 7.611995e-001 7.005121e-001 5.824928e-001 5.040520e-001 2.742316e-001
<GCONST> 1.203893e+002
<MIXTURE> 8 8.275557e-002
<MEAN> 39
 3.079229e+000 7.144103e+000 4.522676e+000 -1.947253e+000 -3.065602e+000 -7.352352e+000 -1.021424e+001 -9.314965e+000 -7.236975e+000 -4.740390e+000 -9.609306e+000 -9.820573e+000 5.473053e+001 -1.915167e+000 -2.397078e+000 3.544469e-001 -9.520108e-001 -2.095943e-001 -1.363523e+000 9.766976e-001 9.950837e-001 5.856099e-001 6.327543e-002 5.886558e-001 1.647063e+000 3.184448e+000 -2.632550e-001 -1.374068e+000 -7.602839e-002 -1.318465e+000 -7.159123e-001 -3.785757e-001 3.724714e-002 3.525498e-001 -9.813498e-002 5.540637e-001 2.435048e-001 7.709504e-001 1.810315e+000
<VARIANCE> 39
 1.703520e+001 3.543740e+001 3.926650e+001 3.591888e+001 4.119006e+001 5.073450e+001 4.264214e+001 4.686250e+001 4.612868e+001 4.366592e+001 4.394538e+001 2.953391e+001 2.779574e+001 1.871394e+000 4.792241e+000 4.540596e+000 5.891076e+000 5.322006e+000 6.017081e+000 5.243702e+000 5.063529e+000 4.500875e+000 4.598029e+000 3.836808e+000 3.440229e+000 4.256333e+000 3.360838e-001 5.856223e-001 9.358705e-001 7.347866e-001 9.561588e-001 9.423446e-001 8.611628e-001 1.015635e+000 9.170574e-001 8.837929e-001 7.725176e-001 6.123149e-001 4.243893e-001
<GCONST> 1.339084e+002
<STATE> 4
<NUMMIXES> 8
<MIXTURE> 1 7.165533e-002
<MEAN> 39
 -7.181999e+000 5.580509e+000 3.550134e+000 4.844186e+000 2.027715e+000 8.671600e-001 -5.736737e-001 -7.643155e-002 5.218564e-001 -2.235607e-001 -5.341293e-001 -1.099655e+000 5.021109e+001 -5.372491e-001 -1.836728e+000 -5.744215e-001 -1.246856e+000 -5.773395e-001 -6.417115e-001 2.868411e-002 2.157360e-001 7.382603e-001 6.384736e-001 5.613526e-001 5.545309e-001 2.459769e+000 7.045020e-001 -2.943371e-001 -7.439493e-002 -7.941280e-001 -8.563018e-001 -3.340661e-001 -5.695425e-001 -5.554318e-001 -3.693635e-001 3.711855e-002 1.166927e-001 2.285390e-003 1.084164e+000
<VARIANCE> 39
 2.139923e+001 2.237650e+001 2.227175e+001 2.439870e+001 1.929687e+001 1.757449e+001 2.143302e+001 1.841246e+001 2.439302e+001 1.838069e+001 1.619951e+001 1.699956e+001 4.967836e+001 2.593029e+000 2.613975e+000 2.911917e+000 3.042397e+000 3.101126e+000 3.123042e+000 3.435294e+000 3.199979e+000 3.103500e+000 2.485534e+000 2.218995e+000 2.038854e+000 3.625959e+000 3.389232e-001 4.812866e-001 6.739084e-001 5.985178e-001 5.524088e-001 6.436560e-001 6.220949e-001 4.775187e-001 6.169817e-001 5.084717e-001 6.060627e-001 4.161257e-001 5.712963e-001
<GCONST> 1.171179e+002
<MIXTURE> 2 1.498863e-001
<MEAN> 39
 -1.341616e+000 -1.696758e+000 -2.559973e-002 -5.527884e+000 -3.930099e+000 -3.641892e+000 -6.567839e+000 -6.305226e+000 -4.912221e-001 2.396792e+000 1.486486e+000 -2.063849e+000 6.908491e+001 1.156384e+000 -2.784875e+000 -1.340000e+000 -3.163889e+000 -2.354648e+000 2.097814e-002 -1.500980e+000 1.360637e-002 1.119530e+000 1.552754e+000 9.580779e-001 -2.182670e-001 3.681167e+000 4.405640e-001 5.909451e-001 4.082058e-001 2.649117e-001 -1.420046e-001 3.919954e-001 1.213053e-001 7.547570e-002 -3.089944e-001 -3.981647e-001 -2.533307e-001 -2.641008e-001 -8.111714e-001
<VARIANCE> 39
 3.155949e+001 2.878564e+001 2.906416e+001 7.392163e+001 3.616509e+001 4.092687e+001 6.127172e+001 3.439261e+001 3.855872e+001 3.598656e+001 3.396289e+001 2.251048e+001 6.671223e+001 2.457491e+000 5.160357e+000 4.065094e+000 7.221128e+000 4.544837e+000 5.811163e+000 6.252282e+000 5.627588e+000 6.325739e+000 5.285161e+000 5.117153e+000 3.836839e+000 3.286516e+000 5.114250e-001 5.616856e-001 3.847632e-001 8.967443e-001 7.758743e-001 6.217389e-001 9.003888e-001 7.087185e-001 7.371262e-001 6.352694e-001 6.843105e-001 5.096794e-001 4.737490e-001
<GCONST> 1.335713e+002
<MIXTURE> 3 1.403318e-001
<MEAN> 39
 -5.081306e+000 -3.931651e+000 7.613658e+000 -2.561745e+000 -2.637850e+000 -1.179036e+001 -5.315536e+000 -2.079115e+000 -1.686351e+000 -2.063752e+000 -3.757354e+000 -9.748757e-001 7.040948e+001 -4.389752e-001 -3.476098e+000 1.080207e+000 -2.658363e+000 -3.119269e+000 -2.185122e+000 -5.048487e-001 1.218523e+000 -2.033275e-001 8.160530e-001 6.243446e-001 1.765681e+000 5.100407e+000 7.768906e-001 8.182414e-001 9.405769e-002 -3.897952e-001 -5.275500e-001 7.391047e-001 -2.639809e-001 -5.107354e-001 -6.097270e-001 1.083593e-001 7.034927e-002 -3.131324e-001 -8.080382e-001
<VARIANCE> 39
 2.458003e+001 2.569883e+001 4.315920e+001 5.891376e+001 5.322283e+001 4.380851e+001 5.220480e+001 3.396703e+001 4.288879e+001 3.180978e+001 3.076012e+001 2.382592e+001 4.088619e+001 2.599112e+000 4.082171e+000 7.545819e+000 6.004181e+000 7.035992e+000 5.749465e+000 5.913982e+000 6.797636e+000 7.164198e+000 5.719747e+000 4.429032e+000 3.621200e+000 3.034527e+000 4.416945e-001 7.033077e-001 6.395350e-001 1.057013e+000 1.043725e+000 1.079444e+000 1.190076e+000 8.687304e-001 9.196739e-001 8.375305e-001 9.070355e-001 6.405247e-001 5.946990e-001
<GCONST> 1.371631e+002
<MIXTURE> 4 1.446288e-001
<MEAN> 39
 -1.687263e+000 6.024624e+000 6.140123e+000 1.934306e+000 3.237007e-001 -3.536772e+000 -3.809032e+000 -5.674788e+000 -4.358515e+000 -3.535926e+000 -3.182815e+000 -3.534511e+000 5.979701e+001 -7.464756e-001 -3.112063e+000 -6.900268e-001 -2.093872e+000 -1.569175e+000 -9.217608e-001 -8.547507e-001 4.362589e-001 8.995417e-001 1.098377e+000 9.423414e-001 9.639239e-001 3.990992e+000 5.205012e-001 -6.070454e-001 -1.233981e-001 -8.654613e-001 -9.798459e-001 1.600411e-001 -4.279127e-001 7.776075e-003 -3.582571e-002 3.388033e-001 3.926533e-001 -9.188219e-002 7.963141e-001
<VARIANCE> 39
 2.188355e+001 2.725025e+001 2.657014e+001 3.772570e+001 2.971110e+001 3.116986e+001 3.057115e+001 2.277185e+001 2.950269e+001 2.579791e+001 2.459222e+001 1.765700e+001 4.809886e+001 2.356262e+000 3.375565e+000 5.038280e+000 6.404442e+000 5.146665e+000 5.374660e+000 5.169928e+000 5.067477e+000 5.164622e+000 4.545034e+000 3.636311e+000 3.334469e+000 3.080001e+000 3.293264e-001 4.635116e-001 6.627443e-001 6.945288e-001 6.308504e-001 7.151074e-001 6.406687e-001 6.482836e-001 7.876489e-001 6.882582e-001 6.714225e-001 4.942702e-001 3.033840e-001
<GCONST> 1.266075e+002
<MIXTURE> 5 1.467672e-001
<MEAN> 39
 -2.260508e+000 -3.034044e+000 -1.288458e+000 -7.023477e+000 -4.863153e+000 -5.388883e+000 -8.354429e+000 -6.823752e+000 -1.559530e+000 1.217410e+000 -6.464567e-001 -3.478532e+000 6.843120e+001 1.050040e+000 -2.833821e+000 -1.663999e+000 -3.414975e+000 -2.285944e+000 -1.205158e-001 -1.918635e+000 1.020995e-001 6.480025e-001 1.471026e+000 3.473088e-001 -3.060237e-001 3.790423e+000 4.750834e-001 5.941395e-001 3.043638e-001 1.260893e-001 -2.429459e-001 2.794031e-001 -3.616900e-002 3.687926e-002 -4.132231e-001 -4.416967e-001 -4.237513e-001 -2.916166e-001 -8.419313e-001
<VARIANCE> 39
 3.547824e+001 2.925831e+001 2.961165e+001 6.599398e+001 3.802755e+001 4.220152e+001 6.028745e+001 3.450579e+001 3.890643e+001 3.740740e+001 4.113222e+001 2.439403e+001 6.390251e+001 2.620925e+000 5.539344e+000 4.715432e+000 7.083082e+000 4.526768e+000 6.305695e+000 6.252848e+000 5.952787e+000 6.492467e+000 5.559335e+000 5.904341e+000 4.246390e+000 3.468102e+000 5.201098e-001 5.686036e-001 4.073690e-001 9.075402e-001 7.801649e-001 6.279004e-001 9.817415e-001 7.230228e-001 7.667513e-001 6.639259e-001 6.923556e-001 5.235462e-001 5.023972e-001
<GCONST> 1.351283e+002
<MIXTURE> 6 1.404264e-001
<MEAN> 39
 -2.627896e+000 4.468693e+000 4.857992e+000 1.303068e-001 -1.497295e+000 -5.591130e+000 -5.558234e+000 -6.800455e+000 -5.114484e+000 -4.652937e+000 -5.043288e+000 -4.925446e+000 5.992974e+001 -8.808361e-001 -3.144097e+000 -4.948623e-001 -2.001354e+000 -1.684904e+000 -1.121267e+000 -9.893770e-001 4.036440e-001 6.708594e-001 8.912305e-001 7.027124e-001 8.581379e-001 4.041875e+000 4.817566e-001 -5.508670e-001 -1.250935e-001 -9.134508e-001 -9.866924e-001 7.168977e-002 -5.244827e-001 1.901122e-002 -1.593291e-001 3.499143e-001 2.147692e-001 -9.357695e-002 7.086735e-001
<VARIANCE> 39
 2.225260e+001 2.724357e+001 2.925735e+001 3.684631e+001 3.200977e+001 3.353428e+001 3.325682e+001 2.426820e+001 2.887229e+001 2.747200e+001 2.913705e+001 1.933478e+001 5.004781e+001 2.334868e+000 3.540652e+000 5.932454e+000 6.718511e+000 5.379998e+000 5.826880e+000 5.597912e+000 5.279920e+000 5.055330e+000 4.770024e+000 3.683500e+000 3.592299e+000 3.277660e+000 3.371458e-001 4.564370e-001 7.202112e-001 6.688040e-001 6.747644e-001 7.553896e-001 6.583458e-001 6.623266e-001 7.856532e-001 7.087982e-001 7.448204e-001 5.023540e-001 2.830563e-001
<GCONST> 1.283074e+002
<MIXTURE> 7 1.334985e-001
<MEAN> 39
 -5.113406e+000 -4.765387e+000 7.240816e+000 -4.590759e+000 -4.503151e+000 -1.399319e+001 -6.059425e+000 -3.247296e+000 -3.363575e+000 -3.040965e+000 -5.694645e+000 -1.813917e+000 7.051359e+001 -7.017703e-001 -3.388641e+000 1.165936e+000 -3.214836e+000 -3.234875e+000 -2.287445e+000 -4.117346e-001 9.976438e-001 -8.002388e-001 1.171122e+000 1.069629e-001 1.700326e+000 5.034276e+000 6.780123e-001 8.288019e-001 -2.346680e-002 -5.245641e-001 -4.659113e-001 7.115276e-001 -4.115094e-001 -6.073094e-001 -7.052755e-001 1.439422e-001 -2.535223e-001 -4.505180e-001 -8.868631e-001
<VARIANCE> 39
 2.312595e+001 2.314218e+001 4.464616e+001 6.086145e+001 5.486185e+001 4.605022e+001 4.779206e+001 3.609192e+001 4.329062e+001 3.421223e+001 3.384866e+001 2.634097e+001 3.995530e+001 2.737713e+000 4.148711e+000 8.055073e+000 6.271384e+000 6.917414e+000 6.154423e+000 6.217037e+000 7.051617e+000 7.518363e+000 6.240250e+000 4.943330e+000 4.025790e+000 2.836861e+000 3.914423e-001 6.753051e-001 6.272755e-001 1.104433e+000 1.013810e+000 1.096255e+000 1.123177e+000 8.758627e-001 9.022773e-001 8.527192e-001 9.638891e-001 7.028840e-001 5.930209e-001
<GCONST> 1.379194e+002
<MIXTURE> 8 7.275566e-002
<MEAN> 39
 -7.787714e+000 4.347517e+000 2.671783e+000 3.130912e+000 3.943673e-001 -3.592899e-001 -1.796944e+000 -1.102836e+000 -4.986916e-001 -1.045687e+000 -1.371800e+000 -1.986871e+000 4.972249e+001 -3.141187e-001 -2.090642e+000 -5.999053e-001 -1.538039e+000 -1.041634e+000 -9.714999e-001 -5.686304e-001 -1.972319e-001 3.672639e-001 2.919802e-001 2.327158e-001 3.335386e-001 2.829791e+000 7.177118e-001 -3.680019e-001 -3.448695e-002 -8.347679e-001 -9.608316e-001 -3.469685e-001 -6.887688e-001 -5.324191e-001 -3.996922e-001 1.337450e-003 1.287654e-001 -8.997286e-002 1.070722e+000
<VARIANCE> 39
 2.473093e+001 2.789309e+001 2.380941e+001 2.491652e+001 2.370071e+001 1.970621e+001 2.404312e+001 1.839404e+001 2.327908e+001 1.964849e+001 1.760812e+001 1.751341e+001 6.166874e+001 2.859244e+000 2.940949e+000 3.322011e+000 3.516655e+000 3.403112e+000 3.416681e+000 4.015497e+000 3.023905e+000 3.327984e+000 2.640985e+000 2.357478e+000 2.116846e+000 3.843399e+000 3.323778e-001 5.653130e-001 7.044830e-001 6.887777e-001 5.296556e-001 7.010867e-001 6.887561e-001 5.013719e-001 7.098022e-001 5.265812e-001 7.364115e-001 4.299775e-001 5.872381e-001
<GCONST> 1.203657e+002
<TRANSP> 5
 0.000000e+000 1.000000e+000 0.000000e+000 0.000000e+000 0.000000e+000
 0.000000e+000 5.170224e-001 4.829777e-001 0.000000e+000 0.000000e+000
 0.000000e+000 0.000000e+000 6.701963e-001 3.298037e-001 0.000000e+000
 0.000000e+000 0.000000e+000 0.000000e+000 6.041741e-001 3.958259e-001
 0.000000e+000 0.000000e+000 0.000000e+000 0.000000e+000 0.000000e+000
<ENDHMM>
~h "d"
<BEGINHMM>
<NUMSTATES> 5
<STATE> 2
<NUMMIXES> 8
<MIXTURE> 1 1.742754e-001
<MEAN> 39
 -2.108039e+000 7.917031e+000 7.674666e+000 4.250800e+000 -3.022884e+000 -4.764472e+000 -4.688298e+000 -3.412530e+000 -9.202279e-001 -1.740775e+000 -3.369973e+000 -4.177955e+000 5.709471e+001 1.264630e-001 8.358849e-001 -1.940425e-002 7.549761e-001 1.182340e+000 6.465799e-001 7.282349e-001 3.943443e-001 1.292128e-001 2.169635e-003 -1.639099e-001 -1.391268e-002 -1.630774e+000 -4.343721e-001 -8.989732e-001 -9.797309e-002 -5.901415e-001 -3.370015e-001 -5.152245e-002 -1.137352e-001 1.807028e-002 -2.714048e-002 8.646066e-002 2.933832e-001 3.098442e-001 1.095608e+000
<VARIANCE> 39
 3.099798e+001 2.776520e+001 3.782746e+001 3.249436e+001 4.449487e+001 3.726700e+001 3.224615e+001 3.232691e+001 3.574968e+001 2.992686e+001 2.637292e+001 2.471137e+001 5.653572e+001 1.879444e+000 2.175446e+000 2.203497e+000 1.944798e+000 3.120342e+000 2.555416e+000 2.592333e+000 2.473818e+000 2.650551e+000 2.074077e+000 1.861371e+000 1.722587e+000 2.308995e+000 3.891517e-001 4.763185e-001 3.714712e-001 4.951193e-001 6.899990e-001 5.571719e-001 5.868195e-001 5.757954e-001 6.056144e-001 4.504356e-001 4.178175e-001 3.917421e-001 6.092295e-001
<GCONST> 1.188815e+002
<MIXTURE> 2 1.217954e-001
<MEAN> 39
 3.667972e+000 -1.873090e+000 7.948141e-001 1.659608e+000 -4.786444e+000 -2.572814e+000 -1.229138e+001 -1.099057e+001 2.758621e+000 3.359508e+000 -2.062356e+000 -6.291077e+000 6.471587e+001 -4.147009e-001 2.142083e+000 1.101333e+000 2.622931e+000 2.060070e+000 -7.223197e-001 1.289361e+000 4.450425e-001 3.089739e-003 -4.690226e-001 -1.388782e+000 -1.506314e-001 -2.943716e+000 -3.570688e-001 -1.152623e-001 1.410305e-001 -9.899654e-001 -3.010827e-001 2.453202e-001 4.552485e-001 5.707250e-001 -5.556020e-001 -3.686344e-001 3.795443e-001 3.741299e-001 5.074806e-001
<VARIANCE> 39
 1.517498e+001 4.100443e+001 4.294495e+001 5.581252e+001 7.394917e+001 4.994094e+001 5.200515e+001 5.551793e+001 4.807027e+001 3.801262e+001 4.864238e+001 3.626413e+001 5.159004e+001 1.387911e+000 3.076707e+000 2.517234e+000 4.479710e+000 4.546183e+000 3.884042e+000 4.698843e+000 5.463983e+000 4.848691e+000 4.370063e+000 4.297671e+000 3.382706e+000 2.112066e+000 2.034776e-001 7.761202e-001 4.451970e-001 7.753834e-001 1.485930e+000 7.584472e-001 8.530130e-001 8.327560e-001 8.357433e-001 7.960700e-001 7.558720e-001 6.839771e-001 7.951405e-001
<GCONST> 1.330447e+002
<MIXTURE> 3 1.287119e-001
<MEAN> 39
 7.629136e-001 1.887830e+000 8.681254e+000 -1.177161e+000 -5.526578e+000 -8.896481e+000 -7.545175e+000 -2.664745e+000 -2.299507e+000 -4.567628e+000 -7.677642e+000 -4.467543e+000 6.161358e+001 -1.496219e-002 2.959903e+000 5.020155e-001 2.948762e+000 1.870677e+000 1.259610e+000 1.351015e+000 -4.797094e-001 1.193668e-001 -8.558872e-001 -4.833316e-003 -9.270962e-001 -3.930559e+000 -5.096814e-001 -9.938384e-001 -3.005995e-001 -1.059631e+000 -1.736204e-001 5.338207e-002 1.880386e-001 1.109462e-001 -1.112966e-001 4.715392e-001 3.504092e-001 3.160505e-001 1.323502e+000
<VARIANCE> 39
 1.055780e+001 2.866597e+001 3.893037e+001 4.209502e+001 4.383200e+001 4.574362e+001 4.188860e+001 4.240829e+001 5.583267e+001 3.991708e+001 4.214304e+001 3.516981e+001 2.989156e+001 1.325897e+000 2.123741e+000 2.508295e+000 3.013779e+000 3.491271e+000 3.481124e+000 3.736114e+000 3.731716e+000 3.741125e+000 2.906379e+000 3.413111e+000 2.499304e+000 1.712013e+000 2.359110e-001 5.479590e-001 3.362637e-001 6.748433e-001 5.921614e-001 6.481816e-001 6.534371e-001 7.092321e-001 6.511626e-001 5.675374e-001 5.636306e-001 5.171605e-001 6.055914e-001
<GCONST> 1.235581e+002
<MIXTURE> 4 7.808855e-002
<MEAN> 39
 -2.807425e+000 3.535108e+000 8.064248e+000 -1.027360e+000 -6.226279e+000 -5.664200e+000 -6.070629e+000 -5.748983e+000 -4.227694e+000 -2.652127e+000 -3.780128e+000 -3.731758e+000 5.903718e+001 -8.272825e-002 -1.576782e-001 8.736069e-001 7.334434e-001 1.672754e-001 -3.336120e-001 1.637869e-001 3.073826e-001 4.427087e-001 -3.274512e-001 2.594170e-002 2.383196e-001 9.559732e-002 -1.899826e-001 -6.933426e-001 -1.176853e-001 -5.561839e-001 -6.289770e-003 1.109606e-001 -9.781459e-002 1.927948e-001 2.261980e-001 1.942845e-001 2.269183e-001 2.392851e-001 6.567538e-001
<VARIANCE> 39
 7.060665e+001 9.592750e+001 1.175932e+002 9.989919e+001 1.065914e+002 1.015495e+002 8.483604e+001 8.313000e+001 7.348062e+001 6.016935e+001 6.264049e+001 4.572357e+001 8.461375e+001 5.675857e+000 8.113406e+000 6.038883e+000 7.653176e+000 8.446760e+000 8.202298e+000 7.555542e+000 7.010507e+000 6.189030e+000 5.349857e+000 5.239298e+000 4.246858e+000 7.655248e+000 8.627726e-001 1.600587e+000 1.159982e+000 1.449918e+000 1.912456e+000 1.698349e+000 1.469403e+000 1.520070e+000 1.255729e+000 1.121546e+000 1.071462e+000 8.574716e-001 1.322576e+000
<GCONST> 1.566825e+002
<MIXTURE> 5 1.815905e-001
<MEAN> 39
 -2.693331e+000 6.377038e+000 6.860519e+000 1.851251e+000 -5.171229e+000 -6.524107e+000 -6.266302e+000 -4.590216e+000 -2.526478e+000 -3.166981e+000 -4.963115e+000 -5.416187e+000 5.669860e+001 8.997967e-002 6.472237e-001 -1.328434e-001 5.442109e-001 8.977849e-001 4.089669e-001 4.633315e-001 6.971973e-002 -1.406311e-001 -2.210564e-001 -4.295656e-001 -2.350961e-001 -1.394163e+000 -4.013255e-001 -9.573525e-001 -9.671851e-002 -6.574092e-001 -3.825495e-001 -1.328734e-001 -2.211699e-001 -3.844959e-002 -4.933815e-003 9.821171e-002 2.691242e-001 2.975199e-001 1.219556e+000
<VARIANCE> 39
 3.279535e+001 3.431009e+001 4.122699e+001 3.612853e+001 4.934144e+001 4.094131e+001 3.601625e+001 3.507775e+001 3.701469e+001 3.275536e+001 3.071460e+001 2.620302e+001 6.106554e+001 1.743966e+000 2.103855e+000 2.100915e+000 1.808894e+000 2.893900e+000 2.404848e+000 2.589577e+000 2.415204e+000 2.599638e+000 2.038742e+000 1.818196e+000 1.716027e+000 2.069540e+000 3.969602e-001 4.789634e-001 4.026365e-001 5.027603e-001 6.804909e-001 5.674147e-001 6.404909e-001 6.143853e-001 6.407334e-001 4.659355e-001 4.475895e-001 4.061730e-001 5.966002e-001
<GCONST> 1.200339e+002
<MIXTURE> 6 1.192731e-001
<MEAN> 39
 2.246715e-001 1.155164e+000 8.058990e+000 -3.612592e+000 -6.626444e+000 -1.065173e+001 -9.161551e+000 -4.314300e+000 -5.307770e+000 -6.792555e+000 -1.121938e+001 -4.860879e+000 6.070798e+001 -5.090934e-002 2.823599e+000 5.384269e-001 2.985330e+000 1.487324e+000 1.012544e+000 8.716037e-001 -9.572323e-001 -2.381712e-001 -1.344961e+000 -1.525761e-001 -1.450482e+000 -3.837356e+000 -5.239348e-001 -1.106013e+000 -3.906223e-001 -1.227754e+000 -1.991887e-001 -1.686019e-002 2.362290e-001 1.184657e-001 -9.625828e-002 5.650345e-001 3.264035e-001 3.104767e-001 1.518717e+000
<VARIANCE> 39
 1.082451e+001 2.861839e+001 3.734115e+001 3.677784e+001 4.442220e+001 4.267289e+001 4.367171e+001 3.928253e+001 5.953229e+001 4.224294e+001 4.664982e+001 3.696847e+001 2.789981e+001 1.446009e+000 2.270844e+000 2.356058e+000 3.221517e+000 3.384057e+000 3.591943e+000 3.751757e+000 4.026387e+000 3.560210e+000 3.055984e+000 3.158932e+000 2.733561e+000 2.073763e+000 2.521377e-001 5.400536e-001 3.429463e-001 7.215979e-001 5.828987e-001 6.353032e-001 6.538989e-001 7.309520e-001 6.471946e-001 5.983523e-001 6.197370e-001 5.465213e-001 6.353707e-001
<GCONST> 1.243381e+002
<MIXTURE> 7 1.210675e-001
<MEAN> 39
 3.269760e+000 -3.391327e+000 -1.035262e-001 -5.598173e-001 -6.684696e+000 -3.386322e+000 -1.423368e+001 -1.178315e+001 1.655488e+000 1.925492e+000 -4.192266e+000 -7.331544e+000 6.329285e+001 -4.146422e-001 2.028055e+000 9.399243e-001 2.618190e+000 1.617397e+000 -9.383364e-001 1.112214e+000 2.000613e-001 -2.165461e-001 -7.763643e-001 -1.529234e+000 -4.094566e-001 -2.799650e+000 -4.031852e-001 -1.818885e-001 1.142430e-001 -1.050493e+000 -2.213062e-001 1.260753e-001 3.845395e-001 5.747048e-001 -5.841842e-001 -3.181002e-001 3.701631e-001 3.671930e-001 6.009215e-001
<VARIANCE> 39
 2.072920e+001 4.660255e+001 4.682085e+001 5.541760e+001 8.003317e+001 5.285971e+001 5.576672e+001 5.422498e+001 5.261867e+001 4.214983e+001 6.093185e+001 4.066246e+001 5.251654e+001 1.442396e+000 3.356237e+000 2.993960e+000 4.993616e+000 4.594378e+000 4.027679e+000 4.753704e+000 5.834676e+000 5.190849e+000 4.428170e+000 4.192122e+000 3.624958e+000 2.438509e+000 2.220903e-001 8.311629e-001 4.782204e-001 8.222038e-001 1.416738e+000 7.820009e-001 9.026551e-001 8.636072e-001 9.305412e-001 7.929602e-001 7.883390e-001 7.575654e-001 8.161797e-001
<GCONST> 1.357343e+002
<MIXTURE> 8 7.515166e-002
<MEAN> 39
 -3.080020e+000 2.799156e+000 6.911526e+000 -2.566489e+000 -7.853683e+000 -6.157953e+000 -7.973517e+000 -6.559672e+000 -5.232771e+000 -4.085181e+000 -4.936810e+000 -4.495698e+000 5.799823e+001 -1.175922e-002 -2.545510e-001 7.512788e-001 4.672756e-001 -2.553256e-001 -7.708216e-001 -1.851603e-001 -2.186548e-001 -8.028717e-002 -7.059057e-001 -4.652486e-001 -1.202331e-001 2.981584e-001 -1.826730e-001 -8.037336e-001 -1.287005e-001 -5.766978e-001 -9.540098e-002 2.608625e-002 -2.136191e-001 1.384553e-001 2.129744e-001 1.341537e-001 2.003618e-001 2.139812e-001 7.684212e-001
<VARIANCE> 39
 7.592397e+001 9.626038e+001 1.228178e+002 1.010131e+002 1.191891e+002 1.018208e+002 8.728620e+001 8.318722e+001 7.071370e+001 6.156611e+001 6.551690e+001 4.400672e+001 8.111672e+001 6.016340e+000 8.678931e+000 6.098224e+000 7.820769e+000 9.088702e+000 8.505652e+000 7.968246e+000 7.569821e+000 6.790273e+000 5.546053e+000 5.629739e+000 4.449651e+000 7.151595e+000 8.635298e-001 1.562731e+000 1.178131e+000 1.542325e+000 1.876824e+000 1.631933e+000 1.539959e+000 1.526635e+000 1.236015e+000 1.180419e+000 1.127040e+000 8.510807e-001 1.225028e+000
<GCONST> 1.575300e+002
<STATE> 3
<NUMMIXES> 8
<MIXTURE> 1 1.678204e-001
<MEAN> 39
 -1.855597e+000 6.567580e+000 5.710717e+000 4.568274e+000 -2.502997e-001 -2.834682e+000 -5.014903e+000 -4.661545e+000 -4.909044e-001 9.924716e-002 -2.457961e+000 -4.492678e+000 5.621926e+001 -1.377349e+000 -1.762593e+000 1.550998e-001 -7.301852e-001 -1.343214e-001 3.239768e-002 7.200643e-001 6.371076e-001 9.638906e-002 -3.242960e-001 4.038872e-001 1.190124e+000 1.622230e+000 1.346114e-002 -9.861884e-001 -2.078128e-002 -9.250212e-001 -1.050491e+000 -3.504276e-001 -5.955499e-001 -1.885140e-002 1.047611e-001 6.952836e-002 3.652897e-001 2.106847e-001 1.620249e+000
<VARIANCE> 39
 2.996705e+001 2.829782e+001 3.519742e+001 3.461969e+001 3.596654e+001 3.564982e+001 3.696016e+001 4.094881e+001 3.517440e+001 2.937813e+001 2.564260e+001 2.724457e+001 5.929630e+001 2.038746e+000 4.776196e+000 3.290931e+000 4.392173e+000 4.374095e+000 4.199639e+000 4.476022e+000 4.318730e+000 4.252232e+000 3.398736e+000 2.864812e+000 2.732411e+000 4.240791e+000 3.917467e-001 5.586970e-001 5.004598e-001 6.709384e-001 8.235279e-001 7.725582e-001 7.875526e-001 8.273788e-001 8.230647e-001 6.190749e-001 6.405365e-001 4.930574e-001 4.637403e-001
<GCONST> 1.284825e+002
<MIXTURE> 2 1.028191e-001
<MEAN> 39
 -1.084548e+001 -2.843068e+000 6.852623e+000 -5.630215e+000 1.047831e+000 -3.744449e+000 -9.965787e-001 -8.081592e-001 -1.574348e+000 -1.940796e+000 -3.718554e-001 -4.388593e-001 6.685688e+001 -7.118533e-001 -2.488636e+000 -6.630388e-002 -2.580574e+000 -1.626297e+000 -1.752238e+000 -5.372183e-001 5.157825e-001 3.686376e-001 6.801927e-001 8.625110e-001 1.163820e+000 4.876565e+000 1.185078e+000 2.791511e-001 1.271074e-001 2.777132e-001 -1.252637e+000 -5.892025e-001 -8.402626e-001 -1.841895e-001 5.527901e-003 1.320261e-001 -4.721215e-001 -2.169258e-001 9.170180e-003
<VARIANCE> 39
 2.174499e+001 4.012470e+001 3.838815e+001 4.983930e+001 3.486527e+001 4.614500e+001 3.771500e+001 3.128776e+001 3.651085e+001 2.710964e+001 2.711963e+001 2.166821e+001 7.771036e+001 3.353020e+000 3.118177e+000 3.389410e+000 3.551152e+000 4.903419e+000 4.101649e+000 5.000524e+000 4.536266e+000 4.427817e+000 3.686243e+000 3.212289e+000 2.824945e+000 2.681869e+000 3.561039e-001 9.348590e-001 8.079175e-001 9.998958e-001 1.072504e+000 1.142421e+000 9.863706e-001 9.924947e-001 9.870589e-001 8.651273e-001 1.029764e+000 7.041106e-001 1.080642e+000
<GCONST> 1.334975e+002
<MIXTURE> 3 1.094933e-001
<MEAN> 39
 5.802489e-001 5.891546e+000 9.010018e+000 9.890725e-001 -4.394243e+000 -8.331421e+000 -6.858175e+000 -4.569890e+000 -3.929608e+000 -6.205210e+000 -9.266547e+000 -6.014306e+000 5.663142e+001 -1.835199e+000 -1.708243e+000 3.379228e-001 -1.060735e+000 1.126965e+000 9.718723e-001 1.138144e+000 4.527763e-001 9.121930e-002 4.865482e-001 1.606071e+000 7.870209e-001 1.673676e+000 -3.602496e-001 -1.561785e+000 -2.374343e-001 -1.606857e+000 -8.241757e-001 -4.813384e-001 -3.406542e-001 3.103787e-001 5.009596e-002 7.452947e-001 4.890524e-001 7.893458e-001 2.369246e+000
<VARIANCE> 39
 1.366999e+001 2.821905e+001 3.470923e+001 3.385230e+001 3.786502e+001 3.366669e+001 3.694971e+001 3.713740e+001 4.889905e+001 3.671401e+001 3.615463e+001 2.855371e+001 2.578647e+001 1.823030e+000 4.516175e+000 3.606837e+000 5.184803e+000 4.788341e+000 4.792153e+000 4.617993e+000 4.631837e+000 4.405319e+000 4.197649e+000 4.204865e+000 3.359544e+000 5.547040e+000 4.410632e-001 4.958386e-001 4.840557e-001 7.877825e-001 8.815786e-001 8.519530e-001 9.322775e-001 9.653702e-001 8.601128e-001 6.721551e-001 8.206351e-001 5.536442e-001 4.069887e-001
<GCONST> 1.301583e+002
<MIXTURE> 4 1.219935e-001
<MEAN> 39
 -3.290736e+000 -6.916808e+000 8.385570e+000 4.218736e-001 -6.458678e+000 -3.501050e+000 -6.831230e+000 -5.493443e+000 -2.493819e-001 -3.631069e+000 -3.577923e+000 -1.132350e+000 6.713924e+001 -4.890289e-001 -2.726523e+000 4.856835e-001 -2.040940e+000 -1.779361e+000 -5.308406e-001 -1.613915e+000 7.473730e-001 9.004914e-001 2.525879e-001 1.264837e+000 1.204760e+000 3.593553e+000 6.654668e-001 3.816157e-001 -5.074026e-001 -8.587946e-001 -2.685957e-001 -1.411597e-001 -7.672223e-001 5.452942e-002 -1.333327e-001 6.487934e-001 3.116386e-001 -4.879506e-001 2.901205e-001
<VARIANCE> 39
 2.376851e+001 4.053920e+001 5.683919e+001 7.433585e+001 5.185955e+001 5.860711e+001 7.127822e+001 5.279286e+001 5.307422e+001 3.916956e+001 3.207049e+001 3.061921e+001 4.746861e+001 2.134426e+000 3.946416e+000 3.609801e+000 5.035163e+000 5.277982e+000 4.545422e+000 5.767580e+000 6.614894e+000 5.263412e+000 4.644019e+000 3.914307e+000 3.331825e+000 3.501249e+000 3.084779e-001 9.276860e-001 7.060057e-001 1.171362e+000 1.060128e+000 1.567039e+000 1.463807e+000 1.240463e+000 1.159228e+000 9.334353e-001 1.306912e+000 8.458719e-001 5.641449e-001
<GCONST> 1.396759e+002
<MIXTURE> 5 1.694210e-001
<MEAN> 39
 -2.294214e+000 5.196085e+000 4.917771e+000 2.562733e+000 -2.240872e+000 -4.291169e+000 -6.416178e+000 -5.510796e+000 -1.559661e+000 -9.382714e-001 -3.786534e+000 -5.609009e+000 5.593285e+001 -1.357348e+000 -1.718148e+000 2.160182e-001 -8.174796e-001 -3.480678e-001 -3.081361e-001 3.742052e-001 2.189053e-001 -1.432346e-001 -4.999320e-001 1.844009e-001 9.545712e-001 1.804888e+000 2.983178e-002 -1.017763e+000 -4.979333e-002 -9.604272e-001 -1.097269e+000 -3.831705e-001 -7.232670e-001 -3.722155e-002 8.128139e-002 6.343984e-002 3.241481e-001 1.763682e-001 1.604740e+000
<VARIANCE> 39
 3.217201e+001 3.210736e+001 3.930822e+001 3.905054e+001 4.163591e+001 3.990994e+001 4.246399e+001 4.144365e+001 3.631171e+001 3.047913e+001 2.852376e+001 2.788643e+001 6.529495e+001 2.122823e+000 4.688539e+000 3.592686e+000 4.430352e+000 4.508522e+000 4.125737e+000 4.755656e+000 4.599854e+000 4.318319e+000 3.430153e+000 3.001540e+000 2.864019e+000 4.105748e+000 3.711935e-001 5.313367e-001 5.276518e-001 6.941439e-001 8.614865e-001 7.991778e-001 8.987822e-001 8.821785e-001 8.934793e-001 6.509297e-001 7.050056e-001 5.218157e-001 4.685770e-001
<GCONST> 1.305091e+002
<MIXTURE> 6 1.161483e-001
<MEAN> 39
 -4.166609e+000 -7.796938e+000 7.944093e+000 -1.080519e+000 -8.429473e+000 -4.848590e+000 -8.086049e+000 -6.126942e+000 -1.658984e+000 -5.203788e+000 -4.773530e+000 -1.981474e+000 6.687775e+001 -6.661558e-001 -2.748762e+000 3.649290e-001 -2.042500e+000 -1.921678e+000 -8.201579e-001 -1.832119e+000 6.135536e-001 4.502572e-001 1.919550e-001 1.010595e+000 9.865148e-001 3.631440e+000 6.250877e-001 3.627427e-001 -6.860253e-001 -9.654608e-001 -2.368987e-001 -2.209552e-001 -8.609220e-001 7.221287e-002 -1.937241e-001 6.722026e-001 3.657243e-002 -4.449338e-001 2.686071e-001
<VARIANCE> 39
 2.607287e+001 3.799766e+001 5.784897e+001 7.553719e+001 5.782900e+001 6.146407e+001 6.992705e+001 5.183642e+001 5.493488e+001 3.920214e+001 3.536322e+001 3.238005e+001 4.648572e+001 2.236228e+000 3.947937e+000 3.845684e+000 5.452034e+000 5.736800e+000 4.479527e+000 6.188091e+000 7.169211e+000 5.421845e+000 4.931724e+000 4.095417e+000 3.427602e+000 3.602728e+000 3.343632e-001 8.784662e-001 7.481572e-001 1.232251e+000 1.169999e+000 1.599825e+000 1.575893e+000 1.262112e+000 1.196851e+000 9.452272e-001 1.443747e+000 9.289333e-001 5.791445e-001
<GCONST> 1.412349e+002
<MIXTURE> 7 1.039849e-001
<MEAN> 39
 -7.351173e-002 5.000441e+000 8.477688e+000 -1.029863e+000 -5.505939e+000 -9.754004e+000 -7.927295e+000 -5.418332e+000 -5.338663e+000 -7.410697e+000 -1.124200e+001 -6.636972e+000 5.681196e+001 -1.783741e+000 -1.560097e+000 3.314044e-001 -1.054072e+000 8.293927e-001 5.825391e-001 9.179616e-001 -2.243270e-002 -2.363753e-001 2.938118e-001 1.514078e+000 4.136613e-001 1.856490e+000 -2.956978e-001 -1.542600e+000 -3.477611e-001 -1.687740e+000 -8.988935e-001 -5.627639e-001 -3.361140e-001 2.753409e-001 -4.109725e-002 7.965541e-001 3.181466e-001 8.033463e-001 2.290504e+000
<VARIANCE> 39
 1.456094e+001 2.968026e+001 3.419968e+001 3.356941e+001 3.931504e+001 3.365433e+001 3.916948e+001 3.665874e+001 5.084649e+001 3.588221e+001 3.983556e+001 2.809866e+001 2.496298e+001 1.926174e+000 4.472590e+000 3.444707e+000 5.423217e+000 4.991678e+000 4.769112e+000 4.334132e+000 4.929301e+000 4.397809e+000 4.136576e+000 4.108638e+000 3.568725e+000 5.346260e+000 4.198965e-001 5.048628e-001 4.814335e-001 8.422977e-001 9.160513e-001 8.474884e-001 9.888121e-001 1.007632e+000 8.384902e-001 7.337320e-001 8.608072e-001 5.885842e-001 4.138060e-001
<GCONST> 1.308128e+002
<MIXTURE> 8 1.082561e-001
<MEAN> 39
 -1.134523e+001 -3.450580e+000 6.841775e+000 -7.637685e+000 -3.000048e-001 -5.230496e+000 -2.155452e+000 -2.432163e+000 -3.226550e+000 -3.028237e+000 -1.434847e+000 -1.959564e+000 6.796511e+001 -5.830911e-001 -2.647797e+000 -2.747879e-001 -3.011202e+000 -2.010138e+000 -2.062385e+000 -8.549252e-001 2.640127e-001 -1.241043e-001 7.000131e-001 5.190700e-001 1.107694e+000 4.988504e+000 1.164236e+000 1.873697e-001 -9.961368e-003 8.963475e-002 -1.380948e+000 -6.971787e-001 -8.508829e-001 -7.879863e-002 -1.195044e-001 1.016005e-001 -7.284265e-001 -1.158506e-001 -1.017312e-001
<VARIANCE> 39
 2.306800e+001 3.748497e+001 3.726684e+001 4.732704e+001 3.831216e+001 4.858669e+001 3.956344e+001 3.280416e+001 3.858915e+001 2.850048e+001 2.848939e+001 2.274365e+001 7.125373e+001 3.293000e+000 3.027753e+000 3.300000e+000 3.710809e+000 5.104852e+000 4.221257e+000 5.036654e+000 5.061686e+000 4.604913e+000 4.026972e+000 3.525997e+000 3.051497e+000 2.563038e+000 3.721013e-001 9.097337e-001 8.277461e-001 1.015455e+000 1.125852e+000 1.145176e+000 1.080341e+000 1.038480e+000 1.004511e+000 9.322395e-001 1.165741e+000 7.678573e-001 1.036047e+000
<GCONST> 1.346772e+002
<STATE> 4
<NUMMIXES> 8
<MIXTURE> 1 5.626082e-002
<MEAN> 39
 -7.991539e+000 2.485125e+000 1.639884e+000 2.512364e+000 -8.887776e-001 -1.987357e+000 -2.265810e+000 -7.971630e-001 7.433454e-001 5.687886e-001 -1.208124e-002 -1.131345e-001 5.724947e+001 -3.897558e-001 -3.227216e-002 -5.008848e-002 -5.933284e-002 -1.590450e-001 -3.963760e-002 2.215767e-001 1.617334e-002 -4.789290e-002 1.353295e-001 4.004055e-001 1.612612e-001 6.843892e-001 2.704420e-001 1.815912e-001 2.181053e-001 -1.024760e-001 -1.428822e-001 -6.918341e-002 -3.163190e-001 -2.664008e-001 -8.342654e-002 6.785589e-002 -3.090528e-002 -2.375866e-001 1.488649e-001
<VARIANCE> 39
 4.968789e+001 3.219265e+001 3.334053e+001 3.945745e+001 3.130718e+001 3.185713e+001 3.639792e+001 3.831357e+001 3.068169e+001 2.498423e+001 2.074179e+001 2.305940e+001 8.807300e+001 3.146846e+000 2.813684e+000 2.569995e+000 2.556644e+000 2.834682e+000 2.752936e+000 3.441574e+000 3.172445e+000 3.364200e+000 2.617253e+000 2.076912e+000 2.091218e+000 3.131289e+000 4.713597e-001 5.489526e-001 4.492614e-001 5.348993e-001 4.910873e-001 5.254612e-001 6.225959e-001 5.620407e-001 5.133969e-001 4.530234e-001 3.918545e-001 3.573850e-001 6.036789e-001
<GCONST> 1.218550e+002
<MIXTURE> 2 1.895198e-001
<MEAN> 39
 -2.942955e-001 -5.624484e+000 6.263644e+000 -1.946432e+000 -1.075236e+001 -5.854599e+000 -1.545877e+001 -5.997409e+000 4.508399e+000 4.371725e-001 -2.376346e-001 -3.004270e+000 7.163823e+001 1.501289e+000 -3.837238e-001 -9.860803e-001 -1.839130e+000 -1.078071e+000 5.163642e-001 -2.447347e+000 -1.440232e-001 4.184020e-001 1.448163e+000 1.487393e+000 -1.085566e+000 1.338478e+000 1.358772e-001 8.732471e-001 -2.926143e-001 4.536795e-002 8.030915e-001 5.511518e-001 8.640603e-001 -1.437352e-002 -7.497028e-001 1.222031e-001 3.217787e-002 -2.650569e-001 -1.015109e+000
<VARIANCE> 39
 2.366800e+001 3.659776e+001 4.039466e+001 5.563396e+001 4.907853e+001 4.218828e+001 6.006718e+001 6.349417e+001 3.818234e+001 4.040805e+001 3.642294e+001 2.818914e+001 5.079172e+001 1.782301e+000 4.345504e+000 3.607777e+000 5.230697e+000 5.088824e+000 5.468307e+000 6.151021e+000 6.780086e+000 5.878305e+000 4.813503e+000 5.428052e+000 3.616655e+000 2.687503e+000 3.154684e-001 4.921702e-001 3.803591e-001 6.353732e-001 7.062426e-001 6.752439e-001 9.261093e-001 7.924877e-001 6.668766e-001 6.677265e-001 6.155455e-001 5.672595e-001 3.416316e-001
<GCONST> 1.323259e+002
<MIXTURE> 3 1.563051e-001
<MEAN> 39
 -3.922415e+000 -5.361483e+000 9.389001e+000 -9.545748e+000 -9.351001e+000 -1.394037e+001 -8.240265e+000 1.375159e-001 -2.383779e+000 -1.224997e+000 -3.000422e+000 1.778782e+000 7.518072e+001 1.277927e+000 -1.786868e+000 -6.952252e-001 -1.525326e+000 -2.738766e+000 -1.838784e+000 -1.218819e+000 1.276291e+000 6.430829e-001 1.071914e+000 -4.887251e-001 6.442100e-001 2.732286e+000 4.909847e-001 7.486733e-001 -4.039868e-001 8.251881e-001 4.113029e-001 7.424300e-001 1.973300e-001 -3.159398e-001 8.907745e-002 -4.365946e-002 -4.136176e-001 -7.490953e-001 -1.276703e+000
<VARIANCE> 39
 1.792862e+001 3.451719e+001 4.260874e+001 4.507544e+001 5.588471e+001 4.517152e+001 4.874613e+001 3.801645e+001 4.516449e+001 3.366238e+001 3.798759e+001 2.307454e+001 2.321238e+001 2.259587e+000 4.204279e+000 4.349723e+000 5.349609e+000 6.982194e+000 5.671892e+000 6.455736e+000 5.560636e+000 6.010575e+000 4.619127e+000 5.713160e+000 3.694583e+000 4.023084e+000 3.626638e-001 4.998029e-001 5.275205e-001 5.444251e-001 9.810188e-001 9.144469e-001 7.587702e-001 7.774953e-001 6.842836e-001 7.397199e-001 8.073395e-001 5.016720e-001 3.507772e-001
<GCONST> 1.324706e+002
<MIXTURE> 4 1.074025e-001
<MEAN> 39
 -6.006511e+000 2.375998e+000 7.054619e+000 -1.723845e+000 -2.607272e+000 -9.769248e+000 -4.744110e+000 -6.997345e+000 -3.637209e+000 -9.446407e-001 -2.340581e+000 -2.559347e+000 6.719033e+001 5.575594e-001 -5.640509e-001 5.280421e-001 -7.968723e-001 -1.842608e+000 -7.138978e-001 -8.823624e-001 -9.949010e-001 -2.691875e-001 5.028942e-001 5.311528e-001 3.922272e-001 1.828681e+000 6.224800e-001 -2.306114e-001 -1.900446e-002 -1.391992e-001 -5.227646e-001 5.280646e-001 -4.419083e-001 1.819932e-001 2.575396e-001 1.061237e-001 9.388731e-002 -1.141359e-001 -1.461797e-001
<VARIANCE> 39
 4.270807e+001 3.716149e+001 5.161423e+001 6.335690e+001 5.230442e+001 5.339605e+001 5.394551e+001 5.280193e+001 5.179838e+001 4.199814e+001 4.008522e+001 3.083936e+001 5.617406e+001 3.664181e+000 4.000694e+000 3.643240e+000 4.080692e+000 6.061704e+000 5.529967e+000 6.087073e+000 5.758609e+000 5.575930e+000 4.323557e+000 3.942886e+000 3.470264e+000 2.532051e+000 4.744564e-001 7.018229e-001 5.807022e-001 1.029968e+000 8.508865e-001 9.122372e-001 9.263054e-001 8.506473e-001 7.719957e-001 6.831960e-001 6.939248e-001 5.906153e-001 7.951203e-001
<GCONST> 1.371767e+002
<MIXTURE> 5 1.852106e-001
<MEAN> 39
 -1.048259e+000 -7.638894e+000 5.132886e+000 -4.143473e+000 -1.324676e+001 -7.219041e+000 -1.780510e+001 -5.246485e+000 2.764054e+000 -1.534357e+000 -2.186431e+000 -3.760045e+000 7.026877e+001 1.305661e+000 -4.453442e-001 -1.248995e+000 -2.056206e+000 -9.968582e-001 1.667147e-001 -2.904301e+000 5.534486e-002 6.184157e-002 1.361047e+000 7.985740e-001 -1.442406e+000 1.368640e+000 1.247437e-001 8.730041e-001 -4.090223e-001 -5.092679e-002 8.434473e-001 4.593589e-001 8.239657e-001 -1.670195e-001 -7.578086e-001 1.810649e-001 -9.732687e-002 -3.878019e-001 -9.840759e-001
<VARIANCE> 39
 2.874466e+001 3.708626e+001 4.192496e+001 5.588293e+001 5.975947e+001 4.239045e+001 6.191370e+001 6.897271e+001 4.118338e+001 4.367453e+001 4.595034e+001 3.012435e+001 4.950286e+001 1.828524e+000 4.071898e+000 4.047915e+000 5.341999e+000 5.338253e+000 5.370510e+000 7.068935e+000 7.003630e+000 6.289580e+000 4.864985e+000 6.222288e+000 3.705091e+000 2.859828e+000 3.186132e-001 4.824914e-001 4.004655e-001 7.089020e-001 7.674592e-001 7.056260e-001 9.734192e-001 8.654438e-001 6.967225e-001 6.834164e-001 6.522084e-001 6.019780e-001 3.739983e-001
<GCONST> 1.346064e+002
<MIXTURE> 6 1.470176e-001
<MEAN> 39
 -3.679135e+000 -7.119695e+000 8.441867e+000 -1.348319e+001 -1.105198e+001 -1.525507e+001 -8.664883e+000 -3.159299e-001 -4.642696e+000 -2.502178e+000 -5.834986e+000 1.481981e+000 7.542758e+001 1.231848e+000 -1.832927e+000 -1.251836e+000 -2.371696e+000 -2.518085e+000 -2.251459e+000 -1.367814e+000 1.257268e+000 -2.474151e-001 1.035677e+000 -1.770470e+000 6.698475e-001 2.604657e+000 4.388449e-001 7.478395e-001 -5.131072e-001 7.547438e-001 4.893087e-001 5.793161e-001 -3.005945e-002 -5.052149e-001 -1.412454e-001 -1.840018e-001 -7.815589e-001 -8.116141e-001 -1.377431e+000
<VARIANCE> 39
 1.805247e+001 3.181656e+001 3.448304e+001 4.122760e+001 5.293655e+001 4.349292e+001 5.538680e+001 4.054823e+001 3.928804e+001 3.420211e+001 4.719894e+001 2.373392e+001 1.779995e+001 2.311462e+000 4.011541e+000 4.329633e+000 5.077872e+000 7.391877e+000 6.054344e+000 7.551794e+000 5.778409e+000 5.538958e+000 5.166738e+000 6.244853e+000 3.912097e+000 4.211435e+000 3.534699e-001 4.875988e-001 5.151657e-001 5.779059e-001 9.570310e-001 9.157109e-001 7.982695e-001 8.479344e-001 6.894820e-001 8.144020e-001 9.071057e-001 5.411931e-001 3.657641e-001
<GCONST> 1.329480e+002
<MIXTURE> 7 9.946010e-002
<MEAN> 39
 -6.537982e+000 1.533491e+000 6.833399e+000 -4.406132e+000 -4.555093e+000 -1.113691e+001 -5.564262e+000 -8.176487e+000 -5.557282e+000 -2.351285e+000 -4.525497e+000 -3.774445e+000 6.601175e+001 5.555025e-001 -6.412283e-001 3.889261e-001 -1.273938e+000 -2.013965e+000 -1.070004e+000 -1.087888e+000 -1.464509e+000 -7.424946e-001 3.705099e-001 -1.272565e-001 2.546520e-001 1.872574e+000 6.007065e-001 -3.331572e-001 -1.152283e-001 -2.690192e-001 -6.003752e-001 3.200005e-001 -5.172182e-001 2.129898e-001 2.112659e-001 4.289934e-002 -1.593393e-001 -2.039290e-002 -2.646275e-002
<VARIANCE> 39
 4.513060e+001 3.859898e+001 5.077594e+001 6.414922e+001 5.558290e+001 5.351842e+001 5.463324e+001 5.159311e+001 5.810279e+001 4.173991e+001 5.037495e+001 3.117469e+001 5.776836e+001 3.313068e+000 3.889811e+000 3.802699e+000 4.135127e+000 6.005712e+000 5.493872e+000 6.751933e+000 5.813245e+000 5.814687e+000 4.593947e+000 4.796404e+000 3.660737e+000 2.565300e+000 4.619634e-001 6.834335e-001 6.108602e-001 1.032210e+000 8.667032e-001 9.207656e-001 9.618366e-001 8.618469e-001 7.999098e-001 7.298786e-001 8.176112e-001 6.277496e-001 8.112732e-001
<GCONST> 1.385088e+002
<MIXTURE> 8 5.880018e-002
<MEAN> 39
 -8.109715e+000 1.314235e+000 9.287049e-001 8.643150e-001 -3.264327e+000 -3.381136e+000 -3.714306e+000 -2.373811e+000 -4.092619e-001 -7.467809e-001 -1.041602e+000 -1.547232e+000 5.660045e+001 -1.073719e-001 -3.310474e-001 -2.697866e-001 -3.506821e-001 -7.308543e-001 -3.718752e-001 -2.239939e-001 -4.773500e-001 -4.324234e-001 -1.701150e-001 9.062895e-002 -1.365487e-001 9.571596e-001 3.263004e-001 5.493896e-002 2.168801e-001 -1.928514e-001 -2.903826e-001 -1.551302e-001 -4.484495e-001 -3.338678e-001 -1.179272e-001 2.425637e-002 -1.131732e-001 -2.733474e-001 2.951297e-001
<VARIANCE> 39
 5.471750e+001 3.479828e+001 3.741311e+001 4.037236e+001 3.663732e+001 3.450906e+001 4.131372e+001 3.638596e+001 3.231656e+001 2.651572e+001 2.213541e+001 2.437870e+001 8.949850e+001 3.052489e+000 2.820282e+000 2.818663e+000 2.350257e+000 2.734318e+000 2.740489e+000 4.087377e+000 3.420291e+000 4.016562e+000 2.738766e+000 2.109007e+000 2.164219e+000 3.179913e+000 4.235823e-001 5.507857e-001 4.497428e-001 4.965158e-001 4.639732e-001 5.182121e-001 6.721304e-001 5.707417e-001 5.500259e-001 5.010520e-001 3.970082e-001 3.800243e-001 5.266041e-001
<GCONST> 1.231540e+002
<TRANSP> 5
 0.000000e+000 1.000000e+000 0.000000e+000 0.000000e+000 0.000000e+000
 0.000000e+000 5.058409e-001 4.941591e-001 0.000000e+000 0.000000e+000
 0.000000e+000 0.000000e+000 5.762025e-001 4.237975e-001 0.000000e+000
 0.000000e+000 0.000000e+000 0.000000e+000 4.289960e-001 5.710040e-001
 0.000000e+000 0.000000e+000 0.000000e+000 0.000000e+000 0.000000e+000
<ENDHMM>
~h "e"
<BEGINHMM>
<NUMSTATES> 5
<STATE> 2
<NUMMIXES> 8
<MIXTURE> 1 1.522479e-001
<MEAN> 39
 -1.529921e+000 -7.433148e+000 5.814070e+000 -7.172455e+000 -1.327323e+001 -7.440802e+000 -8.987630e+000 4.320837e+000 -2.667387e-001 -8.883538e-001 -2.783893e+000 -3.800505e+000 7.367471e+001 8.643379e-003 -2.476122e-001 -3.029848e-001 2.697172e-001 1.603018e-001 -3.443494e-001 4.983349e-001 9.532813e-001 2.052458e-001 -1.873529e-001 -4.795880e-001 2.487369e-001 1.066554e-001 -1.109637e-001 6.990657e-001 4.952951e-002 4.539260e-001 6.049231e-001 1.000532e-001 2.052179e-001 -7.449351e-001 -1.579036e-001 9.849891e-002 1.330249e-001 7.590950e-002 -6.483328e-001
<VARIANCE> 39
 2.018983e+001 4.167562e+001 6.565117e+001 6.341771e+001 6.632375e+001 5.480664e+001 6.727450e+001 5.245791e+001 7.977173e+001 5.569065e+001 6.288608e+001 3.862210e+001 5.643473e+001 4.482687e-001 1.084286e+000 2.010033e+000 1.562265e+000 2.470136e+000 2.304113e+000 2.257543e+000 2.182784e+000 2.518297e+000 2.217365e+000 2.066273e+000 1.780251e+000 4.606460e-001 1.663961e-001 2.253032e-001 3.009701e-001 3.307625e-001 4.829698e-001 4.580796e-001 5.296592e-001 5.692172e-001 6.153530e-001 5.008151e-001 5.121199e-001 3.778810e-001 1.420681e-001
<GCONST> 1.162755e+002
<MIXTURE> 2 1.378528e-001
<MEAN> 39
 -1.230894e+000 -6.459127e+000 6.262240e+000 -4.729315e+000 -1.267346e+001 -9.507480e+000 -1.130144e+001 1.497617e+000 2.410920e+000 -7.569340e-001 -3.020852e-001 -4.040482e+000 7.435011e+001 1.359460e+000 -1.473473e+000 2.030830e-001 -3.925600e-001 -1.332685e+000 2.472086e-002 -1.132660e+000 1.087800e+000 3.578360e-001 1.591892e-001 3.577455e-001 -4.646211e-001 9.364824e-001 -1.014087e+000 8.335214e-001 -1.685484e-001 3.520059e-001 1.079210e+000 4.506078e-001 1.006814e+000 -3.403184e-001 -2.496971e-001 1.457341e-001 -9.078306e-003 3.462192e-001 -9.173358e-001
<VARIANCE> 39
 1.777602e+001 3.706524e+001 6.115294e+001 5.143897e+001 5.815986e+001 4.625507e+001 5.740730e+001 5.055478e+001 6.594232e+001 5.079707e+001 4.464846e+001 3.412206e+001 5.313000e+001 2.761629e+000 2.430856e+000 3.453435e+000 2.599135e+000 4.179178e+000 3.534731e+000 4.482354e+000 4.317816e+000 4.085732e+000 3.338543e+000 3.249873e+000 2.668311e+000 1.476141e+000 6.928849e-001 5.736802e-001 5.499234e-001 5.583443e-001 7.829986e-001 6.721266e-001 8.020454e-001 1.029966e+000 9.323298e-001 7.316635e-001 6.597838e-001 5.869354e-001 3.217885e-001
<GCONST> 1.310257e+002
<MIXTURE> 3 1.088513e-001
<MEAN> 39
 -2.879541e+000 -5.219844e+000 3.110300e+000 -1.244634e+001 -1.077747e+001 -1.694319e+001 -3.672130e+000 -1.083018e+000 -3.430651e+000 -1.400438e+000 -9.106218e+000 7.416372e-001 7.618504e+001 2.218227e+000 -2.040199e+000 -1.333418e-001 -1.620819e+000 -1.394161e+000 -1.454724e+000 -5.098094e-001 6.950954e-001 -4.617676e-001 5.855877e-001 -1.553450e+000 1.603473e-001 1.527498e+000 -1.244290e+000 4.463052e-001 8.984249e-003 6.685834e-001 9.075280e-001 1.171852e+000 5.018557e-001 2.474395e-001 3.738153e-001 1.757822e-001 8.704000e-001 3.600922e-003 -7.701852e-001
<VARIANCE> 39
 9.924538e+000 3.018626e+001 5.920511e+001 5.319008e+001 5.772853e+001 4.906559e+001 5.768303e+001 4.444637e+001 5.865238e+001 4.490366e+001 3.936425e+001 2.507915e+001 2.169047e+001 3.868332e+000 2.657103e+000 2.977447e+000 3.421721e+000 4.367964e+000 4.526452e+000 6.686646e+000 4.405427e+000 4.328588e+000 3.677163e+000 3.843046e+000 2.692684e+000 1.452849e+000 5.006760e-001 4.981351e-001 4.355001e-001 5.918310e-001 7.578322e-001 6.095350e-001 7.441536e-001 7.875813e-001 7.135602e-001 7.073304e-001 5.919458e-001 4.523222e-001 4.072059e-001
<GCONST> 1.286257e+002
<MIXTURE> 4 1.131308e-001
<MEAN> 39
 -2.069279e+000 -9.450040e+000 4.496179e+000 -1.277150e+001 -9.105175e+000 -1.273275e+001 -1.032793e+000 2.565760e+000 -2.514982e+000 -1.707680e+000 -8.236076e+000 -1.453565e+000 7.732418e+001 5.896321e-002 -1.039751e-002 -1.370551e-001 3.099274e-001 1.798636e-001 1.716068e-003 3.585688e-001 2.644498e-001 -1.631146e-002 -2.441040e-001 -4.072586e-002 1.768838e-001 -1.760831e-001 4.706671e-002 3.012795e-001 1.083066e-001 2.503484e-001 1.107736e-001 9.630699e-002 -2.692828e-001 -1.838291e-001 3.384797e-002 5.934137e-002 1.780985e-001 -5.334352e-003 -3.037830e-001
<VARIANCE> 39
 1.079027e+001 3.541837e+001 5.110717e+001 5.171148e+001 6.703367e+001 7.667667e+001 7.835353e+001 5.608142e+001 8.565853e+001 5.088503e+001 5.439771e+001 3.708805e+001 1.966925e+001 2.501127e-001 7.331485e-001 9.352583e-001 7.895825e-001 1.211816e+000 1.123151e+000 1.359364e+000 1.286072e+000 1.277262e+000 1.309569e+000 1.120455e+000 9.275052e-001 3.063587e-001 5.614531e-002 1.116159e-001 1.249320e-001 1.739446e-001 1.905205e-001 2.343249e-001 2.486565e-001 2.258108e-001 2.464437e-001 2.276250e-001 2.022678e-001 1.755983e-001 6.698029e-002
<GCONST> 9.582941e+001
<MIXTURE> 5 1.514181e-001
<MEAN> 39
 -3.204076e+000 -9.409505e+000 4.870733e+000 -1.010174e+001 -1.477744e+001 -8.614802e+000 -1.020065e+001 3.274030e+000 -1.765644e+000 -2.338650e+000 -4.294481e+000 -4.384095e+000 7.306802e+001 -5.723302e-002 -3.585282e-001 -3.367376e-001 8.915877e-002 1.815563e-002 -3.223089e-001 3.810560e-001 7.596892e-001 -1.408608e-002 -3.617627e-001 -5.736119e-001 1.897226e-002 1.326240e-001 -3.683458e-002 6.638283e-001 2.303078e-002 4.214181e-001 5.190102e-001 3.515027e-002 8.229578e-002 -7.653992e-001 -1.498653e-001 6.199312e-002 7.687344e-002 -2.859791e-003 -6.433424e-001
<VARIANCE> 39
 2.449493e+001 4.347759e+001 6.457336e+001 6.522425e+001 6.745182e+001 5.277191e+001 7.562117e+001 5.552765e+001 9.133049e+001 5.883869e+001 6.994865e+001 3.909990e+001 5.958755e+001 4.633576e-001 1.097723e+000 2.023981e+000 1.616029e+000 2.393859e+000 2.307224e+000 2.276593e+000 2.205109e+000 2.579613e+000 2.357346e+000 2.071242e+000 1.822391e+000 4.600788e-001 1.697262e-001 2.221683e-001 2.999758e-001 3.364164e-001 4.741949e-001 4.686475e-001 5.339848e-001 5.490144e-001 5.982908e-001 5.130551e-001 4.963552e-001 3.760184e-001 1.437739e-001
<GCONST> 1.171912e+002
<MIXTURE> 6 1.333846e-001
<MEAN> 39
 -2.783354e+000 -8.087607e+000 5.599946e+000 -7.453004e+000 -1.328890e+001 -1.045074e+001 -1.272595e+001 7.782338e-001 1.112111e+000 -1.500662e+000 -1.375572e+000 -4.861310e+000 7.315938e+001 1.376797e+000 -1.769693e+000 7.421388e-002 -7.168754e-001 -1.551546e+000 -6.574751e-002 -1.497455e+000 1.013055e+000 1.276043e-001 2.201920e-002 2.161808e-001 -8.311087e-001 1.142989e+000 -9.096999e-001 7.342404e-001 -2.170125e-001 3.035001e-001 9.214260e-001 3.876101e-001 9.036540e-001 -3.806217e-001 -2.361058e-001 4.705045e-002 -8.106170e-002 2.698576e-001 -9.317709e-001
<VARIANCE> 39
 2.317118e+001 4.097872e+001 6.256678e+001 5.826709e+001 6.565083e+001 4.681223e+001 6.594185e+001 5.637921e+001 7.597355e+001 5.347850e+001 5.112203e+001 3.611119e+001 5.679129e+001 2.708623e+000 2.342263e+000 3.558878e+000 2.807542e+000 4.209731e+000 3.755570e+000 5.189387e+000 4.333273e+000 4.473782e+000 3.388008e+000 3.385462e+000 2.742342e+000 1.607256e+000 6.777473e-001 5.451400e-001 5.702659e-001 5.817623e-001 7.724453e-001 7.170550e-001 8.309635e-001 1.006712e+000 9.060991e-001 7.394890e-001 6.659750e-001 5.863327e-001 3.247205e-001
<GCONST> 1.329660e+002
<MIXTURE> 7 1.024002e-001
<MEAN> 39
 -3.138711e+000 -1.073581e+001 3.430891e+000 -1.570767e+001 -1.097866e+001 -1.335886e+001 -6.360995e-001 6.204564e-001 -5.849439e+000 -3.605805e+000 -1.013827e+001 -2.112760e+000 7.705948e+001 3.163618e-003 -8.462361e-002 -2.348630e-001 1.703660e-001 3.484259e-002 -1.139391e-001 2.192146e-001 -1.068190e-003 -2.633532e-001 -4.502320e-001 -1.712930e-001 -5.871805e-002 -1.726793e-001 5.651372e-002 2.940811e-001 7.336771e-002 1.995325e-001 6.402969e-002 -1.259772e-002 -3.417569e-001 -2.179030e-001 2.426376e-002 2.443431e-002 7.584049e-002 -5.622559e-002 -2.992096e-001
<VARIANCE> 39
 1.087665e+001 3.437765e+001 4.859476e+001 5.242067e+001 6.082494e+001 8.001347e+001 8.394518e+001 5.866850e+001 8.900095e+001 5.378665e+001 4.938522e+001 3.489066e+001 1.841759e+001 2.536958e-001 7.705919e-001 9.203530e-001 7.962632e-001 1.214798e+000 1.136988e+000 1.360610e+000 1.350286e+000 1.295045e+000 1.363863e+000 1.067436e+000 9.152179e-001 3.218575e-001 5.617878e-002 1.117919e-001 1.207516e-001 1.780507e-001 1.852524e-001 2.307109e-001 2.470190e-001 2.303093e-001 2.439406e-001 2.368548e-001 1.985345e-001 1.797189e-001 6.565797e-002
<GCONST> 9.583832e+001
<MIXTURE> 8 1.006056e-001
<MEAN> 39
 -3.334689e+000 -5.948376e+000 2.637664e+000 -1.482362e+001 -1.211762e+001 -1.752656e+001 -4.675423e+000 -1.969958e+000 -6.166013e+000 -3.169814e+000 -1.072323e+001 5.153421e-001 7.593005e+001 2.550475e+000 -2.433520e+000 -4.029851e-001 -2.314504e+000 -1.939826e+000 -2.051855e+000 -9.075763e-001 2.987081e-001 -1.226591e+000 -1.869899e-001 -2.600291e+000 -2.805201e-001 1.709742e+000 -1.135115e+000 3.208212e-001 -8.504058e-002 6.064578e-001 8.819368e-001 1.062317e+000 4.162397e-001 1.688846e-001 3.377579e-001 2.174917e-001 6.707024e-001 -1.283243e-001 -6.906902e-001
<VARIANCE> 39
 1.070431e+001 3.226470e+001 5.643656e+001 4.803838e+001 5.071443e+001 4.041476e+001 5.499601e+001 4.472391e+001 5.440736e+001 4.416292e+001 3.987656e+001 2.740687e+001 1.824623e+001 4.277220e+000 2.523923e+000 2.957738e+000 3.638358e+000 4.812655e+000 5.713080e+000 7.437115e+000 4.694282e+000 4.617485e+000 4.285804e+000 4.642429e+000 2.988992e+000 1.511052e+000 4.939000e-001 5.058533e-001 4.047664e-001 5.299357e-001 7.100909e-001 6.006111e-001 7.213256e-001 7.734073e-001 6.232365e-001 7.191408e-001 5.750341e-001 4.686240e-001 4.894247e-001
<GCONST> 1.290046e+002
<STATE> 3
<NUMMIXES> 8
<MIXTURE> 1 1.020189e-001
<MEAN> 39
 -1.001788e+000 -5.413316e+000 7.550778e+000 -2.024249e+000 -1.399065e+001 -9.727264e+000 -1.087594e+001 1.430213e+000 6.947922e-001 -2.163299e+000 1.845691e+000 -4.400223e+000 7.350680e+001 -4.322750e-001 1.745015e+000 -8.720142e-002 1.050574e+000 1.863443e+000 -6.668418e-002 1.175934e+000 -2.819232e-001 -2.251348e-001 6.375416e-001 -4.899962e-001 5.663281e-001 -1.654586e+000 -9.954547e-001 9.255623e-001 -1.796586e-001 2.269520e-001 1.171712e+000 3.959699e-001 9.547912e-001 -2.555251e-001 3.412650e-002 2.767712e-001 -2.062767e-001 4.419396e-001 -8.818077e-001
<VARIANCE> 39
 1.653362e+001 3.458040e+001 5.823888e+001 3.870373e+001 5.193468e+001 4.689289e+001 5.807614e+001 5.193987e+001 6.552934e+001 4.621930e+001 4.580214e+001 3.542949e+001 5.515627e+001 1.443649e+000 2.012599e+000 2.746960e+000 2.009721e+000 3.610502e+000 2.910614e+000 3.408377e+000 3.285652e+000 3.798488e+000 2.730704e+000 2.867067e+000 2.239243e+000 2.008772e+000 6.762607e-001 5.284204e-001 5.594732e-001 4.618005e-001 6.350124e-001 7.205958e-001 8.174286e-001 9.309178e-001 9.141709e-001 6.631775e-001 6.627918e-001 5.630244e-001 3.316547e-001
<GCONST> 1.273860e+002
<MIXTURE> 2 1.050893e-001
<MEAN> 39
 -1.878548e+000 -8.448411e+000 6.395164e+000 -1.451617e+001 -1.053058e+001 -1.336010e+001 -8.172890e+000 4.010448e+000 -5.551206e+000 2.178156e+000 -9.813317e+000 2.285265e-001 7.592846e+001 1.595130e-001 3.108496e-001 1.744312e-001 4.576765e-001 4.825283e-001 1.050872e-001 2.938894e-001 -5.646349e-003 4.529618e-002 2.487290e-001 1.598937e-002 2.097405e-001 -5.863605e-001 -8.896891e-001 1.265564e+000 -8.873355e-002 1.246317e+000 9.332353e-001 7.350526e-001 8.106495e-001 -6.591107e-001 5.953091e-001 -4.170382e-001 1.023943e+000 -1.714914e-001 -1.150272e+000
<VARIANCE> 39
 1.233579e+001 3.524308e+001 6.622121e+001 4.730061e+001 6.997243e+001 5.764581e+001 6.473004e+001 5.890248e+001 6.694685e+001 4.469658e+001 4.341787e+001 3.087151e+001 2.213388e+001 9.632625e-001 2.441790e+000 2.461782e+000 2.750386e+000 2.761864e+000 2.658724e+000 3.136721e+000 3.188789e+000 3.496704e+000 3.133145e+000 2.680869e+000 2.129184e+000 1.218857e+000 5.888831e-001 4.734887e-001 4.888397e-001 5.458431e-001 9.070553e-001 8.806021e-001 9.053756e-001 1.087354e+000 9.782062e-001 6.356692e-001 7.356859e-001 5.406221e-001 4.134168e-001
<GCONST> 1.269307e+002
<MIXTURE> 3 1.439060e-001
<MEAN> 39
 -3.404399e+000 -9.211853e+000 3.148825e+000 -1.596154e+001 -1.150822e+001 -1.582607e+001 8.563666e-001 4.965615e-001 -7.186699e+000 -3.776552e+000 -1.097168e+001 6.451582e-003 7.831564e+001 4.289640e-001 5.546622e-001 8.226928e-002 1.048252e+000 5.223887e-001 -4.433073e-002 -3.163488e-001 -3.608134e-003 3.712132e-001 -3.146732e-002 2.423874e-001 3.041071e-001 -9.038917e-001 3.057784e-002 8.599655e-001 2.785111e-001 8.166699e-001 4.678205e-001 4.116833e-001 -5.674013e-001 -4.331914e-001 2.519618e-001 2.767416e-001 3.846193e-001 -1.547075e-001 -9.570654e-001
<VARIANCE> 39
