~o
<STREAMINFO> 1 16
<VECSIZE> 16<NULLD><FBANK><DIAGC>
~h "ctyri"
<BEGINHMM>
<NUMSTATES> 10
<STATE> 2
<MEAN> 16
 5.666550e+000 5.806916e+000 6.044420e+000 6.247949e+000 6.311602e+000 6.540293e+000 6.754149e+000 6.953618e+000 7.315433e+000 7.590805e+000 8.214419e+000 9.088161e+000 9.494672e+000 9.523112e+000 9.111170e+000 8.690372e+000
<VARIANCE> 16
 1.836198e-001 9.606577e-002 1.636690e-001 8.612381e-002 7.017542e-002 4.993273e-002 7.277481e-002 7.314183e-002 1.004992e-001 2.406144e-001 6.123543e-001 1.098430e+000 1.328236e+000 1.077951e+000 7.329960e-001 3.709363e-001
<GCONST> 5.154816e+000
<STATE> 3
<MEAN> 16
 5.689026e+000 5.809035e+000 6.025420e+000 6.179526e+000 6.319269e+000 6.516203e+000 6.762642e+000 7.026895e+000 7.575801e+000 8.074116e+000 9.078091e+000 9.972671e+000 1.055359e+001 1.044269e+001 9.835012e+000 9.233947e+000
<VARIANCE> 16
 1.146152e-001 8.361446e-002 1.162877e-001 8.929344e-002 6.751217e-002 6.420019e-002 8.057978e-002 1.131404e-001 2.347905e-001 7.094915e-001 1.149721e+000 1.277778e+000 1.311918e+000 1.399045e+000 1.204185e+000 7.202988e-001
<GCONST> 9.109345e+000
<STATE> 4
<MEAN> 16
 5.808294e+000 5.866549e+000 6.055667e+000 6.211622e+000 6.353433e+000 6.506424e+000 6.701601e+000 7.193284e+000 8.025146e+000 8.635718e+000 9.108072e+000 9.687949e+000 1.010430e+001 9.976654e+000 9.505935e+000 8.924928e+000
<VARIANCE> 16
 1.482317e-001 1.326198e-001 1.340914e-001 1.008548e-001 6.179852e-002 6.736425e-002 5.289102e-002 2.771501e-001 7.878065e-001 1.756658e+000 1.943347e+000 1.951373e+000 1.677274e+000 1.775683e+000 1.581396e+000 7.734439e-001
<GCONST> 1.441986e+001
<STATE> 5
<MEAN> 16
 5.762197e+000 5.923518e+000 6.099327e+000 6.283310e+000 6.443379e+000 6.633685e+000 6.893882e+000 7.361290e+000 7.986466e+000 8.445467e+000 8.972890e+000 9.655179e+000 9.996790e+000 9.857735e+000 9.245280e+000 8.740014e+000
<VARIANCE> 16
 1.324988e-001 1.780182e-001 2.800387e-001 1.530553e-001 8.008295e-002 9.852111e-002 1.126576e-001 3.256254e-001 7.353767e-001 1.468256e+000 1.747073e+000 1.893734e+000 1.456988e+000 1.537461e+000 1.306290e+000 7.019576e-001
<GCONST> 1.635462e+001
<STATE> 6
<MEAN> 16
 5.860751e+000 6.366253e+000 6.884461e+000 6.873328e+000 6.909727e+000 6.909205e+000 7.265712e+000 7.739708e+000 8.312111e+000 8.490744e+000 8.632144e+000 9.188313e+000 9.647713e+000 9.445881e+000 8.705362e+000 8.499545e+000
<VARIANCE> 16
 1.170128e-001 4.543646e-001 6.887467e-001 3.318440e-001 7.455529e-002 1.047636e-001 1.657493e-001 2.966508e-001 4.195781e-001 2.240342e-001 3.430696e-001 5.760780e-001 6.325822e-001 5.659232e-001 1.237646e-001 1.129675e-001
<GCONST> 7.847927e+000
<STATE> 7
<MEAN> 16
 6.075019e+000 7.530429e+000 8.345632e+000 8.650784e+000 7.257071e+000 7.240888e+000 7.581383e+000 8.539239e+000 9.585630e+000 9.877741e+000 9.791050e+000 1.015791e+001 1.057804e+001 1.014205e+001 9.036798e+000 8.732647e+000
<VARIANCE> 16
 2.311676e-001 6.365482e-001 9.990203e-001 9.623652e-001 2.364492e-001 2.804062e-001 2.675038e-001 5.176790e-001 5.129090e-001 6.270037e-001 1.485558e+000 1.456109e+000 2.526848e+000 2.081133e+000 8.594398e-001 4.216916e-001
<GCONST> 2.304186e+001
<STATE> 8
<MEAN> 16
 6.486573e+000 7.814525e+000 9.325012e+000 9.344581e+000 8.286365e+000 7.995081e+000 8.222189e+000 9.049188e+000 1.034915e+001 1.067035e+001 1.051138e+001 1.081570e+001 1.127912e+001 1.072421e+001 9.514225e+000 8.806040e+000
<VARIANCE> 16
 1.831099e-001 3.920798e-001 1.052337e+000 9.107083e-001 6.938583e-001 6.557626e-001 4.611995e-001 3.269922e-001 4.673939e-001 5.003545e-001 8.815539e-001 9.995969e-001 1.375280e+000 1.402983e+000 8.368097e-001 3.531859e-001
<GCONST> 2.190921e+001
<STATE> 9
<MEAN> 16
 6.325175e+000 7.634303e+000 8.951279e+000 8.858252e+000 7.745516e+000 7.451961e+000 7.580611e+000 8.272144e+000 9.423732e+000 1.017317e+001 9.826920e+000 9.754700e+000 1.037842e+001 9.731187e+000 8.412705e+000 8.292683e+000
<VARIANCE> 16
 1.950239e-001 2.599187e-001 5.151845e-001 4.603563e-001 4.032006e-001 2.567380e-001 1.595500e-001 3.324805e-001 6.112248e-001 5.252920e-001 1.361009e+000 1.318622e+000 1.285511e+000 1.026127e+000 1.370053e-001 1.165806e-001
<GCONST> 1.536920e+001
<TRANSP> 10
 0.000000e+000 1.000000e+000 0.000000e+000 0.000000e+000 0.000000e+000 0.000000e+000 0.000000e+000 0.000000e+000 0.000000e+000 0.000000e+000
 0.000000e+000 7.271003e-001 2.728998e-001 0.000000e+000 0.000000e+000 0.000000e+000 0.000000e+000 0.000000e+000 0.000000e+000 0.000000e+000
 0.000000e+000 0.000000e+000 8.048221e-001 1.951779e-001 0.000000e+000 0.000000e+000 0.000000e+000 0.000000e+000 0.000000e+000 0.000000e+000
 0.000000e+000 0.000000e+000 0.000000e+000 8.014242e-001 1.985758e-001 0.000000e+000 0.000000e+000 0.000000e+000 0.000000e+000 0.000000e+000
 0.000000e+000 0.000000e+000 0.000000e+000 0.000000e+000 5.587194e-001 4.412806e-001 0.000000e+000 0.000000e+000 0.000000e+000 0.000000e+000
 0.000000e+000 0.000000e+000 0.000000e+000 0.000000e+000 0.000000e+000 1.304224e-001 8.695776e-001 0.000000e+000 0.000000e+000 0.000000e+000
 0.000000e+000 0.000000e+000 0.000000e+000 0.000000e+000 0.000000e+000 0.000000e+000 7.532256e-001 2.467744e-001 0.000000e+000 0.000000e+000
 0.000000e+000 0.000000e+000 0.000000e+000 0.000000e+000 0.000000e+000 0.000000e+000 0.000000e+000 9.590096e-001 4.099032e-002 0.000000e+000
 0.000000e+000 0.000000e+000 0.000000e+000 0.000000e+000 0.000000e+000 0.000000e+000 0.000000e+000 0.000000e+000 9.294638e-001 7.053625e-002
 0.000000e+000 0.000000e+000 0.000000e+000 0.000000e+000 0.000000e+000 0.000000e+000 0.000000e+000 0.000000e+000 0.000000e+000 0.000000e+000
<ENDHMM>
~h "sedm"
<BEGINHMM>
<NUMSTATES> 10
<STATE> 2
<MEAN> 16
 5.662807e+000 5.766261e+000 5.993659e+000 6.177032e+000 6.277824e+000 6.468878e+000 6.629708e+000 6.942379e+000 7.345406e+000 7.399089e+000 7.556617e+000 8.008640e+000 8.929820e+000 9.185417e+000 9.467159e+000 9.295136e+000
<VARIANCE> 16
 1.176140e-001 9.422675e-002 6.842881e-002 8.319124e-002 6.086599e-002 4.409099e-002 4.512773e-002 6.774019e-002 6.576723e-002 4.824268e-002 9.739739e-002 1.444355e-001 2.051423e-001 1.673227e-001 2.417582e-001 3.515065e-001
<GCONST> -7.830103e+000
<STATE> 3
<MEAN> 16
 5.740675e+000 5.792741e+000 5.853619e+000 6.114186e+000 6.292933e+000 6.515366e+000 6.707645e+000 7.160025e+000 7.532035e+000 7.600433e+000 7.870094e+000 8.451882e+000 9.521854e+000 9.846116e+000 1.003949e+001 1.004141e+001
<VARIANCE> 16
 1.933042e-001 8.881747e-002 1.448711e-001 1.206891e-001 9.698735e-002 5.589933e-002 4.878849e-002 5.703496e-002 9.582074e-002 7.704102e-002 1.991791e-001 9.888104e-002 2.086663e-001 1.639394e-001 2.836692e-001 3.696196e-001
<GCONST> -4.273396e+000
<STATE> 4
<MEAN> 16
 5.741355e+000 5.758601e+000 5.893914e+000 6.219074e+000 6.475791e+000 6.576305e+000 6.834744e+000 7.370161e+000 7.756737e+000 7.829051e+000 8.139921e+000 8.755273e+000 9.941984e+000 1.020799e+001 1.033142e+001 1.019023e+001
<VARIANCE> 16
 1.907119e-001 8.694205e-002 9.537149e-002 6.482687e-002 5.643402e-002 6.141254e-002 5.682879e-002 9.567171e-002 1.335937e-001 9.757219e-002 2.034504e-001 1.746231e-001 3.634623e-001 4.278098e-001 6.089960e-001 4.982130e-001
<GCONST> -1.390254e+000
<STATE> 5
<MEAN> 16
 5.717824e+000 5.809576e+000 6.101079e+000 6.423507e+000 6.585137e+000 6.848051e+000 7.092210e+000 7.622356e+000 8.139378e+000 8.199302e+000 8.520944e+000 9.169820e+000 1.020022e+001 1.055165e+001 1.033354e+001 1.006056e+001
<VARIANCE> 16
 1.211204e-001 1.782577e-001 2.286861e-001 1.531820e-001 7.375735e-002 9.182175e-002 1.106929e-001 1.616202e-001 1.960869e-001 1.440306e-001 3.426128e-001 3.286014e-001 5.437941e-001 7.684168e-001 6.714814e-001 4.415477e-001
<GCONST> 5.361285e+000
<STATE> 6
<MEAN> 16
 5.933610e+000 6.185546e+000 6.586881e+000 6.931317e+000 6.946015e+000 7.232165e+000 7.548908e+000 8.236047e+000 8.827155e+000 8.784038e+000 9.081648e+000 9.581829e+000 1.056819e+001 1.086828e+001 1.036595e+001 1.011161e+001
<VARIANCE> 16
 1.499624e-001 2.924458e-001 5.729328e-001 4.081152e-001 1.706441e-001 1.255541e-001 1.733988e-001 1.637209e-001 1.854860e-001 2.052358e-001 3.608832e-001 4.914003e-001 7.188469e-001 1.006436e+000 6.509382e-001 4.126303e-001
<GCONST> 1.078474e+001
<STATE> 7
<MEAN> 16
 6.355607e+000 7.479843e+000 8.356494e+000 8.768081e+000 8.121686e+000 7.841727e+000 8.412511e+000 9.389312e+000 9.264867e+000 9.096717e+000 9.242296e+000 9.389462e+000 9.991346e+000 9.822882e+000 9.133748e+000 8.940707e+000
<VARIANCE> 16
 2.265254e-001 3.101425e-001 1.128753e+000 1.252654e+000 7.630601e-001 5.365474e-001 8.161067e-001 1.013503e+000 5.546174e-001 3.797451e-001 7.646810e-001 5.533024e-001 4.688880e-001 4.322984e-001 3.526868e-001 1.465477e-001
<GCONST> 1.903749e+001
<STATE> 8
<MEAN> 16
 6.731829e+000 8.002241e+000 9.083840e+000 9.541867e+000 9.265523e+000 8.836283e+000 9.134267e+000 9.935027e+000 1.030920e+001 1.014229e+001 1.036001e+001 1.033065e+001 1.089018e+001 1.031835e+001 8.694375e+000 8.401047e+000
<VARIANCE> 16
 2.297453e-001 3.830438e-001 4.382685e-001 7.308623e-001 1.161362e+000 6.978799e-001 5.675315e-001 7.977827e-001 8.119367e-001 7.499137e-001 1.223375e+000 1.299624e+000 1.060414e+000 1.144137e+000 7.069046e-001 2.513536e-001
<GCONST> 2.326781e+001
<STATE> 9
<MEAN> 16
 6.489790e+000 8.018800e+000 8.552176e+000 8.621649e+000 7.954766e+000 7.915094e+000 8.171188e+000 8.427615e+000 8.502851e+000 8.678756e+000 8.666782e+000 9.211312e+000 9.475026e+000 8.846704e+000 8.128380e+000 8.126413e+000
<VARIANCE> 16
 2.015077e-001 1.517731e-001 4.518297e-001 4.545390e-001 2.315734e-001 2.900583e-001 4.566676e-001 6.037014e-001 4.886816e-001 5.023562e-001 7.605082e-001 1.449224e+000 1.241538e+000 3.631404e-001 8.504683e-002 5.926465e-002
<GCONST> 1.295267e+001
<TRANSP> 10
 0.000000e+000 1.000000e+000 0.000000e+000 0.000000e+000 0.000000e+000 0.000000e+000 0.000000e+000 0.000000e+000 0.000000e+000 0.000000e+000
 0.000000e+000 7.793543e-001 2.206457e-001 0.000000e+000 0.000000e+000 0.000000e+000 0.000000e+000 0.000000e+000 0.000000e+000 0.000000e+000
 0.000000e+000 0.000000e+000 5.776062e-001 4.223938e-001 0.000000e+000 0.000000e+000 0.000000e+000 0.000000e+000 0.000000e+000 0.000000e+000
 0.000000e+000 0.000000e+000 0.000000e+000 4.468191e-001 5.531809e-001 0.000000e+000 0.000000e+000 0.000000e+000 0.000000e+000 0.000000e+000
 0.000000e+000 0.000000e+000 0.000000e+000 0.000000e+000 5.028661e-001 4.971338e-001 0.000000e+000 0.000000e+000 0.000000e+000 0.000000e+000
 0.000000e+000 0.000000e+000 0.000000e+000 0.000000e+000 0.000000e+000 6.483632e-001 3.516367e-001 0.000000e+000 0.000000e+000 0.000000e+000
 0.000000e+000 0.000000e+000 0.000000e+000 0.000000e+000 0.000000e+000 0.000000e+000 1.098747e-001 8.901253e-001 0.000000e+000 0.000000e+000
 0.000000e+000 0.000000e+000 0.000000e+000 0.000000e+000 0.000000e+000 0.000000e+000 0.000000e+000 9.477922e-001 5.220784e-002 0.000000e+000
 0.000000e+000 0.000000e+000 0.000000e+000 0.000000e+000 0.000000e+000 0.000000e+000 0.000000e+000 0.000000e+000 9.616398e-001 3.836016e-002
 0.000000e+000 0.000000e+000 0.000000e+000 0.000000e+000 0.000000e+000 0.000000e+000 0.000000e+000 0.000000e+000 0.000000e+000 0.000000e+000
<ENDHMM>
~h "sest"
<BEGINHMM>
<NUMSTATES> 10
<STATE> 2
<MEAN> 16
 5.659096e+000 5.708475e+000 5.883180e+000 6.073765e+000 6.333057e+000 6.492294e+000 6.654952e+000 7.051804e+000 7.734475e+000 8.061441e+000 8.470250e+000 9.025869e+000 9.344645e+000 9.414657e+000 8.966976e+000 8.363085e+000
<VARIANCE> 16
 8.111750e-002 9.002603e-002 9.177444e-002 6.125189e-002 4.458316e-002 3.927067e-002 4.223868e-002 7.225801e-002 2.285351e-001 4.419255e-001 4.065958e-001 3.665137e-001 3.069788e-001 3.573870e-001 3.728049e-001 7.587726e-002
<GCONST> -2.805855e+000
<STATE> 3
<MEAN> 16
 5.695532e+000 5.775746e+000 5.933644e+000 6.141973e+000 6.304821e+000 6.421045e+000 6.649177e+000 7.255361e+000 8.141603e+000 8.790887e+000 9.308482e+000 1.000718e+001 1.021994e+001 1.027439e+001 9.722450e+000 8.893858e+000
<VARIANCE> 16
 1.247249e-001 1.063717e-001 7.117822e-002 9.306956e-002 5.159918e-002 4.955935e-002 6.572931e-002 1.224272e-001 4.203693e-001 5.531507e-001 2.875915e-001 2.770404e-001 1.961904e-001 2.275117e-001 2.251837e-001 1.392112e-001
<GCONST> -1.285068e+000
<STATE> 4
<MEAN> 16
 5.770193e+000 5.738903e+000 5.984503e+000 6.184623e+000 6.368162e+000 6.524246e+000 6.768853e+000 7.414711e+000 8.339041e+000 9.249300e+000 9.763354e+000 1.039699e+001 1.062924e+001 1.062162e+001 1.010048e+001 9.274281e+000
<VARIANCE> 16
 1.223468e-001 9.328997e-002 6.068918e-002 7.932697e-002 4.329523e-002 6.833721e-002 7.588778e-002 1.654858e-001 3.827998e-001 5.767459e-001 2.450833e-001 2.902178e-001 2.968771e-001 2.735054e-001 1.760388e-001 1.650913e-001
<GCONST> -8.065144e-001
<STATE> 5
<MEAN> 16
 5.754642e+000 5.832781e+000 6.049049e+000 6.219688e+000 6.301500e+000 6.558105e+000 6.827486e+000 7.546278e+000 8.493793e+000 9.307765e+000 1.006171e+001 1.093639e+001 1.121605e+001 1.106954e+001 1.050258e+001 9.717114e+000
<VARIANCE> 16
 6.600957e-002 7.515667e-002 8.189882e-002 7.633157e-002 5.855179e-002 6.264913e-002 9.965096e-002 1.617626e-001 3.889918e-001 5.364138e-001 2.330857e-001 4.419635e-001 3.761799e-001 3.821554e-001 2.910931e-001 2.299846e-001
<GCONST> 8.058071e-001
<STATE> 6
<MEAN> 16
 5.785278e+000 5.936520e+000 6.198537e+000 6.433042e+000 6.529261e+000 6.755918e+000 7.056199e+000 7.961783e+000 8.919164e+000 9.622561e+000 1.018669e+001 1.081695e+001 1.121762e+001 1.111676e+001 1.058160e+001 9.839477e+000
<VARIANCE> 16
 8.135677e-002 9.894136e-002 1.275817e-001 1.110591e-001 7.878986e-002 1.221917e-001 8.897036e-002 2.656779e-001 5.199828e-001 5.744321e-001 2.468474e-001 4.510029e-001 6.890747e-001 8.159789e-001 7.059756e-001 3.472937e-001
<GCONST> 6.554011e+000
<STATE> 7
<MEAN> 16
 5.963771e+000 6.694607e+000 7.259802e+000 7.507071e+000 7.261293e+000 7.157258e+000 7.327022e+000 8.259803e+000 9.016403e+000 9.377777e+000 9.777992e+000 1.013179e+001 1.044309e+001 1.015181e+001 9.528705e+000 8.985769e+000
<VARIANCE> 16
 9.578113e-002 5.582241e-001 6.971457e-001 7.737584e-001 4.933958e-001 2.598681e-001 1.911839e-001 4.234833e-001 4.923731e-001 6.767048e-001 4.509724e-001 6.438683e-001 1.124716e+000 1.271718e+000 1.175942e+000 4.615638e-001
<GCONST> 1.870349e+001
<STATE> 8
<MEAN> 16
 6.404078e+000 7.464571e+000 8.870234e+000 9.851669e+000 9.737914e+000 9.090548e+000 9.247953e+000 1.029462e+001 1.069060e+001 1.045436e+001 1.056221e+001 1.065401e+001 1.102485e+001 1.045835e+001 9.175502e+000 8.719169e+000
<VARIANCE> 16
 2.159741e-001 3.385868e-001 5.044736e-001 6.036544e-001 1.298152e+000 1.089175e+000 7.293194e-001 7.702017e-001 1.158312e+000 9.848725e-001 1.642062e+000 1.459102e+000 1.521559e+000 1.521833e+000 6.075653e-001 2.355887e-001
<GCONST> 2.527227e+001
<STATE> 9
<MEAN> 16
 5.728684e+000 5.910020e+000 6.411171e+000 7.041327e+000 7.129417e+000 6.946585e+000 7.112639e+000 7.746505e+000 8.087230e+000 8.058557e+000 8.453993e+000 9.018144e+000 9.930706e+000 1.043286e+001 1.035091e+001 1.006687e+001
<VARIANCE> 16
 1.120101e-001 1.471765e-001 2.760687e-001 4.338849e-001 3.810025e-001 2.105701e-001 1.452583e-001 2.394631e-001 3.612148e-001 3.058684e-001 3.096414e-001 3.575328e-001 5.415472e-001 5.817916e-001 3.130437e-001 2.500940e-001
<GCONST> 9.191130e+000
<TRANSP> 10
 0.000000e+000 1.000000e+000 0.000000e+000 0.000000e+000 0.000000e+000 0.000000e+000 0.000000e+000 0.000000e+000 0.000000e+000 0.000000e+000
 0.000000e+000 5.095080e-001 4.904920e-001 0.000000e+000 0.000000e+000 0.000000e+000 0.000000e+000 0.000000e+000 0.000000e+000 0.000000e+000
 0.000000e+000 0.000000e+000 2.881461e-001 7.118539e-001 0.000000e+000 0.000000e+000 0.000000e+000 0.000000e+000 0.000000e+000 0.000000e+000
 0.000000e+000 0.000000e+000 0.000000e+000 4.103724e-001 5.896276e-001 0.000000e+000 0.000000e+000 0.000000e+000 0.000000e+000 0.000000e+000
 0.000000e+000 0.000000e+000 0.000000e+000 0.000000e+000 6.973704e-001 3.026296e-001 0.000000e+000 0.000000e+000 0.000000e+000 0.000000e+000
 0.000000e+000 0.000000e+000 0.000000e+000 0.000000e+000 0.000000e+000 7.343842e-001 2.656157e-001 0.000000e+000 0.000000e+000 0.000000e+000
 0.000000e+000 0.000000e+000 0.000000e+000 0.000000e+000 0.000000e+000 0.000000e+000 1.695026e-001 8.304974e-001 0.000000e+000 0.000000e+000
 0.000000e+000 0.000000e+000 0.000000e+000 0.000000e+000 0.000000e+000 0.000000e+000 0.000000e+000 9.562075e-001 4.379256e-002 0.000000e+000
 0.000000e+000 0.000000e+000 0.000000e+000 0.000000e+000 0.000000e+000 0.000000e+000 0.000000e+000 0.000000e+000 9.344127e-001 6.558726e-002
 0.000000e+000 0.000000e+000 0.000000e+000 0.000000e+000 0.000000e+000 0.000000e+000 0.000000e+000 0.000000e+000 0.000000e+000 0.000000e+000
<ENDHMM>
~h "dva"
<BEGINHMM>
<NUMSTATES> 10
<STATE> 2
<MEAN> 16
 6.093043e+000 6.860097e+000 7.169298e+000 7.053292e+000 6.665619e+000 6.679411e+000 6.900282e+000 7.070171e+000 7.369806e+000 7.294258e+000 7.446544e+000 7.677626e+000 7.902560e+000 7.873448e+000 7.863257e+000 7.998751e+000
<VARIANCE> 16
 1.209209e-001 3.384314e-001 3.856084e-001 2.796232e-001 1.105855e-001 1.308674e-001 2.150473e-001 2.211517e-001 1.877425e-001 2.094004e-001 3.193869e-001 3.933612e-001 4.420429e-001 1.722019e-001 4.453466e-002 3.205771e-002
<GCONST> 2.263683e+000
<STATE> 3
<MEAN> 16
 6.121243e+000 7.154121e+000 7.737912e+000 7.723384e+000 7.171402e+000 7.272639e+000 7.640041e+000 7.900111e+000 8.065308e+000 8.222056e+000 8.335095e+000 8.722365e+000 8.869075e+000 8.496218e+000 7.978303e+000 8.035495e+000
<VARIANCE> 16
 1.397590e-001 1.653859e-001 4.603232e-001 4.518360e-001 2.037240e-001 2.208295e-001 2.788038e-001 5.094128e-001 4.594405e-001 4.785615e-001 5.887843e-001 6.312695e-001 6.994364e-001 4.366228e-001 7.288984e-002 2.815008e-002
<GCONST> 9.135752e+000
<STATE> 4
<MEAN> 16
 6.261220e+000 7.284089e+000 8.106196e+000 8.119087e+000 7.478437e+000 7.561168e+000 7.961310e+000 8.261712e+000 8.256006e+000 8.414657e+000 8.577712e+000 8.915955e+000 8.885368e+000 8.498404e+000 8.061333e+000 8.073500e+000
<VARIANCE> 16
 2.149765e-001 1.335400e-001 5.664234e-001 4.896778e-001 3.001445e-001 2.637875e-001 2.822611e-001 6.940510e-001 7.347044e-001 5.571268e-001 7.601638e-001 8.678633e-001 9.937590e-001 6.062663e-001 9.629897e-002 4.323910e-002
<GCONST> 1.310960e+001
<STATE> 5
<MEAN> 16
 6.633807e+000 7.464333e+000 8.173600e+000 8.288970e+000 7.876727e+000 8.021640e+000 8.412579e+000 8.235334e+000 8.129576e+000 8.362059e+000 8.455466e+000 8.652366e+000 9.091330e+000 8.755650e+000 8.117109e+000 8.114253e+000
<VARIANCE> 16
 3.353341e-001 2.234214e-001 5.995574e-001 9.477115e-001 7.118162e-001 6.614043e-001 5.463579e-001 5.896655e-001 5.930219e-001 5.153441e-001 6.671141e-001 7.727433e-001 7.860598e-001 4.589474e-001 9.415390e-002 6.966590e-002
<GCONST> 1.646898e+001
<STATE> 6
<MEAN> 16
 6.797571e+000 7.642610e+000 8.306441e+000 8.570991e+000 8.242305e+000 8.503437e+000 8.872624e+000 8.480032e+000 8.278045e+000 8.536168e+000 8.589754e+000 8.823469e+000 9.290792e+000 8.817905e+000 8.093493e+000 8.135074e+000
<VARIANCE> 16
 3.153816e-001 1.738167e-001 3.046890e-001 7.850275e-001 8.643063e-001 6.668685e-001 5.914838e-001 6.147155e-001 4.784890e-001 5.552081e-001 6.195239e-001 1.008255e+000 6.906361e-001 3.882472e-001 7.340756e-002 9.451684e-002
<GCONST> 1.542602e+001
<STATE> 7
<MEAN> 16
 6.631756e+000 7.531658e+000 8.592842e+000 9.786992e+000 1.019942e+001 9.809241e+000 1.014575e+001 9.171164e+000 9.082185e+000 9.453568e+000 8.452978e+000 9.060733e+000 9.365104e+000 9.360271e+000 8.412447e+000 8.352308e+000
<VARIANCE> 16
 1.311308e-001 5.815378e-002 7.313384e-002 2.665727e-001 6.640236e-001 2.949276e-001 2.685551e-001 2.041062e-001 1.802779e-001 1.960847e-001 6.302757e-001 7.728432e-001 3.632309e-001 2.652881e-001 1.060127e-001 1.167789e-001
<GCONST> 5.264897e+000
<STATE> 8
<MEAN> 16
 6.617859e+000 7.517414e+000 8.522257e+000 9.723316e+000 1.066574e+001 1.094069e+001 1.130820e+001 1.092162e+001 9.915653e+000 1.032105e+001 1.068922e+001 1.105938e+001 1.167457e+001 1.060197e+001 8.882958e+000 8.488867e+000
<VARIANCE> 16
 4.519184e-001 3.902437e-001 6.489735e-001 5.855088e-001 6.343706e-001 6.487868e-001 7.161537e-001 1.090861e+000 4.832760e-001 5.219198e-001 9.355251e-001 1.039808e+000 1.126165e+000 1.016117e+000 5.486127e-001 3.171071e-001
<GCONST> 2.254940e+001
<STATE> 9
<MEAN> 16
 5.869047e+000 6.406441e+000 6.607849e+000 7.496181e+000 8.480773e+000 8.816380e+000 8.823434e+000 8.482748e+000 7.883193e+000 8.021364e+000 8.379974e+000 8.685078e+000 9.215804e+000 8.551102e+000 7.893898e+000 7.955168e+000
<VARIANCE> 16
 2.618631e-001 4.743748e-001 2.751876e-001 4.988599e-001 4.675849e-001 3.094891e-001 3.556674e-001 5.349544e-001 2.297816e-001 2.908132e-001 4.279450e-001 3.046303e-001 3.255914e-001 2.331280e-001 4.664403e-002 5.861764e-002
<GCONST> 8.518942e+000
<TRANSP> 10
 0.000000e+000 1.000000e+000 0.000000e+000 0.000000e+000 0.000000e+000 0.000000e+000 0.000000e+000 0.000000e+000 0.000000e+000 0.000000e+000
 0.000000e+000 7.022641e-001 2.977359e-001 0.000000e+000 0.000000e+000 0.000000e+000 0.000000e+000 0.000000e+000 0.000000e+000 0.000000e+000
 0.000000e+000 0.000000e+000 4.460934e-001 5.539066e-001 0.000000e+000 0.000000e+000 0.000000e+000 0.000000e+000 0.000000e+000 0.000000e+000
 0.000000e+000 0.000000e+000 0.000000e+000 6.260219e-001 3.739782e-001 0.000000e+000 0.000000e+000 0.000000e+000 0.000000e+000 0.000000e+000
 0.000000e+000 0.000000e+000 0.000000e+000 0.000000e+000 2.831173e-001 7.168827e-001 0.000000e+000 0.000000e+000 0.000000e+000 0.000000e+000
 0.000000e+000 0.000000e+000 0.000000e+000 0.000000e+000 0.000000e+000 4.032285e-001 5.967715e-001 0.000000e+000 0.000000e+000 0.000000e+000
 0.000000e+000 0.000000e+000 0.000000e+000 0.000000e+000 0.000000e+000 0.000000e+000 8.011257e-001 1.988743e-001 0.000000e+000 0.000000e+000
 0.000000e+000 0.000000e+000 0.000000e+000 0.000000e+000 0.000000e+000 0.000000e+000 0.000000e+000 9.469805e-001 5.301952e-002 0.000000e+000
 0.000000e+000 0.000000e+000 0.000000e+000 0.000000e+000 0.000000e+000 0.000000e+000 0.000000e+000 0.000000e+000 8.678711e-001 1.321289e-001
 0.000000e+000 0.000000e+000 0.000000e+000 0.000000e+000 0.000000e+000 0.000000e+000 0.000000e+000 0.000000e+000 0.000000e+000 0.000000e+000
<ENDHMM>
~h "osm"
<BEGINHMM>
<NUMSTATES> 10
<STATE> 2
<MEAN> 16
 5.356858e+000 5.750823e+000 6.186142e+000 6.598028e+000 6.744346e+000 6.822386e+000 6.779266e+000 6.718122e+000 7.015157e+000 7.001708e+000 7.227324e+000 7.675489e+000 8.237987e+000 8.309916e+000 8.322035e+000 8.434827e+000
<VARIANCE> 16
 3.451856e-001 2.397943e-001 4.695615e-001 9.693729e-001 9.318326e-001 7.547046e-001 3.150938e-001 1.207012e-001 1.564496e-001 2.186539e-001 4.158131e-002 1.580163e-001 4.972249e-001 5.628630e-001 6.345766e-001 5.083188e-001
<GCONST> 1.170064e+001
<STATE> 3
<MEAN> 16
 5.815633e+000 6.535738e+000 7.436782e+000 8.297360e+000 8.280785e+000 8.315628e+000 7.671259e+000 7.195464e+000 7.486500e+000 7.675010e+000 7.647738e+000 8.065994e+000 8.634153e+000 8.233694e+000 8.063313e+000 8.259954e+000
<VARIANCE> 16
 1.996610e-001 5.053586e-001 1.200827e+000 1.345671e+000 8.892230e-001 7.949328e-001 5.878323e-001 1.957879e-001 1.260503e-001 2.601175e-001 2.671337e-001 6.630331e-001 4.098212e-001 2.551583e-001 1.812475e-001 1.986846e-001
<GCONST> 1.435291e+001
<STATE> 4
<MEAN> 16
 6.183070e+000 7.275453e+000 8.499084e+000 9.561325e+000 9.526710e+000 9.590504e+000 8.970897e+000 8.153507e+000 8.043958e+000 8.494533e+000 8.710641e+000 9.356294e+000 9.906920e+000 9.033311e+000 8.330605e+000 8.340395e+000
<VARIANCE> 16
 2.563166e-001 2.506028e-001 4.805934e-001 4.650061e-001 8.755550e-001 5.652394e-001 7.814582e-001 3.934517e-001 1.413715e-001 3.479910e-001 8.917004e-001 1.676497e+000 7.693390e-001 7.649024e-001 4.483423e-001 2.183275e-001
<GCONST> 1.781552e+001
<STATE> 5
<MEAN> 16
 6.408163e+000 7.443747e+000 8.808418e+000 9.934897e+000 1.011150e+001 1.019885e+001 9.564577e+000 8.687491e+000 8.500547e+000 9.004450e+000 9.347235e+000 1.003297e+001 1.055399e+001 9.584911e+000 8.477713e+000 8.407268e+000
<VARIANCE> 16
 2.119958e-001 2.222253e-001 2.335677e-001 4.819474e-001 9.231057e-001 5.370955e-001 9.988272e-001 3.673787e-001 1.532222e-001 4.216428e-001 1.274072e+000 2.469396e+000 1.123345e+000 8.661968e-001 6.270054e-001 1.852783e-001
<GCONST> 1.868915e+001
<STATE> 6
<MEAN> 16
 6.512399e+000 7.651397e+000 9.037397e+000 1.006074e+001 1.027540e+001 1.030388e+001 9.711779e+000 8.833211e+000 8.629551e+000 9.123321e+000 9.581769e+000 1.016907e+001 1.067003e+001 9.725274e+000 8.459629e+000 8.458999e+000
<VARIANCE> 16
 2.248699e-001 2.189388e-001 3.035569e-001 5.042388e-001 9.126461e-001 5.435369e-001 8.172910e-001 3.356436e-001 1.815959e-001 3.715090e-001 1.125101e+000 2.024066e+000 1.221117e+000 8.217710e-001 3.639287e-001 1.630016e-001
<GCONST> 1.782892e+001
<STATE> 7
<MEAN> 16
 6.568637e+000 7.620626e+000 9.164694e+000 1.023051e+001 1.043726e+001 1.052130e+001 1.014507e+001 9.254384e+000 8.827891e+000 9.145578e+000 1.005315e+001 1.081401e+001 1.142718e+001 1.057047e+001 8.878598e+000 8.583616e+000
<VARIANCE> 16
 1.783876e-001 2.127004e-001 5.952670e-001 7.358925e-001 1.087161e+000 8.529568e-001 1.146915e+000 5.617937e-001 3.340113e-001 3.818543e-001 8.683158e-001 1.267794e+000 8.323885e-001 7.103915e-001 5.114383e-001 1.251000e-001
<GCONST> 1.955614e+001
<STATE> 8
<MEAN> 16
 6.215837e+000 6.829863e+000 7.756694e+000 8.353697e+000 8.431664e+000 8.663883e+000 8.682199e+000 8.637111e+000 8.744327e+000 8.902452e+000 9.465752e+000 1.008420e+001 1.074353e+001 1.068668e+001 1.014631e+001 9.932490e+000
<VARIANCE> 16
 6.285214e-001 1.652799e+000 2.705014e+000 2.065192e+000 1.702104e+000 1.854839e+000 1.705886e+000 1.334571e+000 1.185626e+000 1.230775e+000 1.057334e+000 8.152847e-001 6.679555e-001 7.295920e-001 1.247296e+000 1.517799e+000
<GCONST> 3.328569e+001
<STATE> 9
<MEAN> 16
 6.384981e+000 7.803518e+000 8.543341e+000 8.509782e+000 7.761177e+000 8.170119e+000 8.381149e+000 8.288506e+000 8.389592e+000 8.642776e+000 8.804235e+000 9.588758e+000 9.960384e+000 9.143721e+000 8.209228e+000 8.193671e+000
<VARIANCE> 16
 2.151470e-001 2.816455e-001 5.288371e-001 5.203308e-001 2.110231e-001 3.477579e-001 4.803739e-001 5.920877e-001 3.957095e-001 4.513433e-001 5.826740e-001 8.398241e-001 9.015319e-001 4.144370e-001 1.988968e-001 1.394857e-001
<GCONST> 1.443625e+001
<TRANSP> 10
 0.000000e+000 1.000000e+000 0.000000e+000 0.000000e+000 0.000000e+000 0.000000e+000 0.000000e+000 0.000000e+000 0.000000e+000 0.000000e+000
 0.000000e+000 3.299204e-001 6.700796e-001 0.000000e+000 0.000000e+000 0.000000e+000 0.000000e+000 0.000000e+000 0.000000e+000 0.000000e+000
 0.000000e+000 0.000000e+000 2.136945e-001 7.863055e-001 0.000000e+000 0.000000e+000 0.000000e+000 0.000000e+000 0.000000e+000 0.000000e+000
 0.000000e+000 0.000000e+000 0.000000e+000 1.562150e-001 8.437850e-001 0.000000e+000 0.000000e+000 0.000000e+000 0.000000e+000 0.000000e+000
 0.000000e+000 0.000000e+000 0.000000e+000 0.000000e+000 1.173583e-001 8.826418e-001 0.000000e+000 0.000000e+000 0.000000e+000 0.000000e+000
 0.000000e+000 0.000000e+000 0.000000e+000 0.000000e+000 0.000000e+000 4.276897e-001 5.723103e-001 0.000000e+000 0.000000e+000 0.000000e+000
 0.000000e+000 0.000000e+000 0.000000e+000 0.000000e+000 0.000000e+000 0.000000e+000 8.338194e-001 1.661806e-001 0.000000e+000 0.000000e+000
 0.000000e+000 0.000000e+000 0.000000e+000 0.000000e+000 0.000000e+000 0.000000e+000 0.000000e+000 9.477760e-001 5.222406e-002 0.000000e+000
 0.000000e+000 0.000000e+000 0.000000e+000 0.000000e+000 0.000000e+000 0.000000e+000 0.000000e+000 0.000000e+000 9.612891e-001 3.871088e-002
 0.000000e+000 0.000000e+000 0.000000e+000 0.000000e+000 0.000000e+000 0.000000e+000 0.000000e+000 0.000000e+000 0.000000e+000 0.000000e+000
<ENDHMM>
~h "pet"
<BEGINHMM>
<NUMSTATES> 10
<STATE> 2
<MEAN> 16
 5.985549e+000 6.196170e+000 6.558920e+000 6.433595e+000 6.290166e+000 6.395823e+000 6.644716e+000 6.896631e+000 7.331280e+000 7.218397e+000 7.358220e+000 7.547272e+000 7.860756e+000 7.953160e+000 7.897536e+000 8.025874e+000
<VARIANCE> 16
 3.213653e-001 4.078094e-001 6.942872e-001 1.694864e-001 3.975944e-002 7.396368e-002 3.857061e-002 5.453821e-002 2.091398e-001 1.548021e-001 7.487952e-002 6.525436e-002 1.047733e-001 1.090871e-001 2.627983e-002 1.783806e-002
<GCONST> -7.647799e+000
<STATE> 3
<MEAN> 16
 5.924963e+000 6.688668e+000 7.260953e+000 6.902258e+000 6.526837e+000 6.513399e+000 6.911790e+000 7.439520e+000 8.099265e+000 8.065509e+000 7.986311e+000 8.069388e+000 8.455649e+000 8.414370e+000 8.183896e+000 8.201130e+000
<VARIANCE> 16
 2.689036e-001 6.951295e-001 9.214684e-001 3.784683e-001 1.268191e-001 6.097379e-002 9.732624e-002 3.444383e-001 6.013390e-001 6.396320e-001 5.601813e-001 4.988582e-001 3.583829e-001 3.128195e-001 1.032560e-001 6.586797e-002
<GCONST> 9.008418e+000
<STATE> 4
<MEAN> 16
 6.340023e+000 7.521840e+000 8.422134e+000 8.130869e+000 7.202689e+000 6.937696e+000 7.320290e+000 8.156404e+000 9.179140e+000 9.392118e+000 8.987650e+000 9.074397e+000 9.385206e+000 9.038749e+000 8.282043e+000 8.252519e+000
<VARIANCE> 16
 1.892584e-001 2.082236e-001 4.321492e-001 3.660703e-001 1.521168e-001 1.466790e-001 5.981296e-002 2.449902e-001 3.596438e-001 7.857069e-001 1.053044e+000 1.236659e+000 7.218654e-001 4.767275e-001 9.380090e-002 9.554620e-002
<GCONST> 9.521482e+000
<STATE> 5
<MEAN> 16
 6.572184e+000 7.849664e+000 9.148333e+000 9.023767e+000 7.876026e+000 7.527428e+000 7.781621e+000 8.674150e+000 1.000351e+001 1.044305e+001 1.002313e+001 1.000116e+001 1.021960e+001 9.521706e+000 8.301721e+000 8.144973e+000
<VARIANCE> 16
 2.788304e-001 2.269452e-001 3.668391e-001 3.393467e-001 3.043148e-001 2.229839e-001 2.459560e-001 2.410846e-001 3.266731e-001 8.250997e-001 1.441011e+000 1.876375e+000 1.297438e+000 1.011730e+000 7.719698e-002 9.109122e-002
<GCONST> 1.404511e+001
<STATE> 6
<MEAN> 16
 6.558626e+000 7.661825e+000 9.350057e+000 9.347426e+000 8.087462e+000 7.687737e+000 8.029435e+000 8.946585e+000 1.017992e+001 1.079599e+001 1.048922e+001 1.036511e+001 1.062353e+001 9.876909e+000 8.484740e+000 8.279804e+000
<VARIANCE> 16
 1.831055e-001 1.829357e-001 1.853480e-001 2.148510e-001 2.331384e-001 1.353330e-001 1.059338e-001 3.670564e-001 3.042274e-001 6.160021e-001 1.521389e+000 2.326519e+000 1.538796e+000 1.373365e+000 1.513985e-001 6.056531e-002
<GCONST> 1.172897e+001
<STATE> 7
<MEAN> 16
 6.716168e+000 7.779071e+000 9.538370e+000 1.001353e+001 8.801802e+000 8.191096e+000 8.416363e+000 9.577700e+000 1.036428e+001 1.048139e+001 9.990252e+000 1.000529e+001 1.036392e+001 9.775690e+000 8.685060e+000 8.609711e+000
<VARIANCE> 16
 2.000122e-001 1.276104e-001 1.889305e-001 2.453035e-001 2.312561e-001 1.540932e-001 8.253357e-002 3.413134e-001 2.082667e-001 8.269643e-001 1.716746e+000 2.240546e+000 1.121361e+000 9.126998e-001 9.840184e-002 1.139857e-001
<GCONST> 1.088335e+001
<STATE> 8
<MEAN> 16
 6.418369e+000 7.402424e+000 8.933569e+000 1.002027e+001 1.004767e+001 9.155544e+000 9.263939e+000 1.010512e+001 1.100235e+001 1.105228e+001 1.115387e+001 1.115750e+001 1.148592e+001 1.065149e+001 8.798550e+000 8.409005e+000
<VARIANCE> 16
 1.593954e-001 2.288110e-001 5.045570e-001 3.927019e-001 7.107827e-001 6.748363e-001 3.477962e-001 3.222049e-001 4.066593e-001 6.186754e-001 5.229573e-001 6.020779e-001 6.137416e-001 8.691412e-001 2.774014e-001 1.485886e-001
<GCONST> 1.519977e+001
<STATE> 9
<MEAN> 16
 5.884561e+000 6.279751e+000 7.212039e+000 8.111031e+000 8.045416e+000 7.465152e+000 7.454614e+000 8.138257e+000 8.765264e+000 8.688527e+000 8.942138e+000 9.005482e+000 9.143064e+000 8.367660e+000 7.884777e+000 8.006097e+000
<VARIANCE> 16
 1.291066e-001 3.026782e-001 4.713089e-001 3.879806e-001 3.436280e-001 2.619835e-001 1.384621e-001 2.757843e-001 2.946010e-001 2.985153e-001 4.421142e-001 3.180773e-001 2.712883e-001 2.848508e-001 3.470645e-002 3.435951e-002
<GCONST> 5.107041e+000
<TRANSP> 10
 0.000000e+000 1.000000e+000 0.000000e+000 0.000000e+000 0.000000e+000 0.000000e+000 0.000000e+000 0.000000e+000 0.000000e+000 0.000000e+000
 0.000000e+000 3.144042e-001 6.855958e-001 0.000000e+000 0.000000e+000 0.000000e+000 0.000000e+000 0.000000e+000 0.000000e+000 0.000000e+000
 0.000000e+000 0.000000e+000 1.473467e-001 8.526533e-001 0.000000e+000 0.000000e+000 0.000000e+000 0.000000e+000 0.000000e+000 0.000000e+000
 0.000000e+000 0.000000e+000 0.000000e+000 2.466118e-001 7.533882e-001 0.000000e+000 0.000000e+000 0.000000e+000 0.000000e+000 0.000000e+000
 0.000000e+000 0.000000e+000 0.000000e+000 0.000000e+000 1.463522e-001 8.536477e-001 0.000000e+000 0.000000e+000 0.000000e+000 0.000000e+000
 0.000000e+000 0.000000e+000 0.000000e+000 0.000000e+000 0.000000e+000 3.554499e-001 6.445501e-001 0.000000e+000 0.000000e+000 0.000000e+000
 0.000000e+000 0.000000e+000 0.000000e+000 0.000000e+000 0.000000e+000 0.000000e+000 8.165364e-001 1.834636e-001 0.000000e+000 0.000000e+000
 0.000000e+000 0.000000e+000 0.000000e+000 0.000000e+000 0.000000e+000 0.000000e+000 0.000000e+000 9.382969e-001 6.170309e-002 0.000000e+000
 0.000000e+000 0.000000e+000 0.000000e+000 0.000000e+000 0.000000e+000 0.000000e+000 0.000000e+000 0.000000e+000 8.037416e-001 1.962585e-001
 0.000000e+000 0.000000e+000 0.000000e+000 0.000000e+000 0.000000e+000 0.000000e+000 0.000000e+000 0.000000e+000 0.000000e+000 0.000000e+000
<ENDHMM>
~h "sil"
<BEGINHMM>
<NUMSTATES> 5
<STATE> 2
<MEAN> 16
 5.738563e+000 6.030807e+000 6.343844e+000 6.679834e+000 6.792329e+000 6.859510e+000 6.990870e+000 7.242917e+000 7.507775e+000 7.497731e+000 7.671112e+000 7.904023e+000 8.292899e+000 8.117314e+000 7.973259e+000 8.086411e+000
<VARIANCE> 16
 1.627310e-001 3.175922e-001 3.106511e-001 3.379482e-001 3.349830e-001 2.798894e-001 2.560809e-001 2.735641e-001 2.020412e-001 2.165199e-001 2.542196e-001 2.270470e-001 3.146065e-001 2.430360e-001 1.126238e-001 7.031277e-002
<GCONST> 5.772931e+000
<STATE> 3
<MEAN> 16
 5.637598e+000 5.742885e+000 5.911653e+000 6.099832e+000 6.264626e+000 6.441473e+000 6.597381e+000 6.762895e+000 7.114345e+000 7.022818e+000 7.176129e+000 7.354151e+000 7.558471e+000 7.651469e+000 7.814463e+000 8.016571e+000
<VARIANCE> 16
 1.158483e-001 1.029826e-001 8.947911e-002 7.265075e-002 6.447174e-002 5.700814e-002 4.971411e-002 4.279977e-002 3.175097e-002 3.188760e-002 2.846533e-002 2.748921e-002 3.531871e-002 2.500257e-002 1.869613e-002 3.469354e-002
<GCONST> -2.023841e+001
<STATE> 4
<MEAN> 16
 5.330425e+000 5.751550e+000 5.915417e+000 6.013071e+000 6.051932e+000 6.228464e+000 6.393610e+000 6.518608e+000 6.795135e+000 6.848208e+000 7.016866e+000 7.227664e+000 7.504651e+000 7.599110e+000 7.648775e+000 7.769970e+000
<VARIANCE> 16
 4.600489e-001 2.982436e-001 2.069128e-001 1.411983e-001 1.710374e-001 1.630204e-001 1.678343e-001 2.740029e-001 4.219404e-001 3.528183e-001 3.626511e-001 3.766877e-001 4.469508e-001 4.031124e-001 2.288572e-001 2.351455e-001
<GCONST> 8.696169e+000
<TRANSP> 5
 0.000000e+000 1.000000e+000 0.000000e+000 0.000000e+000 0.000000e+000
 0.000000e+000 8.344373e-001 1.655627e-001 0.000000e+000 0.000000e+000
 0.000000e+000 0.000000e+000 9.846898e-001 1.531017e-002 0.000000e+000
 0.000000e+000 0.000000e+000 0.000000e+000 6.326838e-001 3.673162e-001
 0.000000e+000 0.000000e+000 0.000000e+000 0.000000e+000 0.000000e+000
<ENDHMM>
~h "tri"
<BEGINHMM>
<NUMSTATES> 10
<STATE> 2
<MEAN> 16
 5.819280e+000 5.951436e+000 6.239584e+000 6.406686e+000 6.497891e+000 6.701628e+000 6.987367e+000 7.412133e+000 7.774498e+000 7.829741e+000 7.996880e+000 8.596558e+000 9.041505e+000 8.986026e+000 8.478532e+000 8.286715e+000
<VARIANCE> 16
 1.359202e-001 1.540648e-001 2.231022e-001 1.256591e-001 7.133015e-002 9.258175e-002 1.828174e-001 2.561493e-001 2.752672e-001 2.748752e-001 3.170061e-001 4.475224e-001 5.500990e-001 6.128763e-001 3.531625e-001 2.419707e-001
<GCONST> 5.802964e+000
<STATE> 3
<MEAN> 16
 5.601274e+000 5.938017e+000 6.353319e+000 6.567911e+000 6.750566e+000 6.992781e+000 7.345214e+000 7.944837e+000 8.307825e+000 8.508101e+000 8.778567e+000 9.595962e+000 1.002113e+001 9.896920e+000 9.142283e+000 8.877431e+000
<VARIANCE> 16
 1.575356e-001 1.139981e-001 1.538992e-001 1.658554e-001 1.714177e-001 2.173323e-001 3.153025e-001 2.519515e-001 2.366286e-001 1.935862e-001 3.023723e-001 2.753484e-001 2.805495e-001 3.718741e-001 2.912447e-001 2.617513e-001
<GCONST> 5.492270e+000
<STATE> 4
<MEAN> 16
 5.810058e+000 5.823994e+000 6.436401e+000 6.734184e+000 6.896628e+000 7.127906e+000 7.488135e+000 7.962061e+000 8.584747e+000 8.716289e+000 9.048240e+000 9.937857e+000 1.060767e+001 1.067627e+001 9.715345e+000 9.157363e+000
<VARIANCE> 16
 1.461592e-001 1.308962e-001 1.691712e-001 4.085469e-001 3.503793e-001 4.356183e-001 3.674277e-001 2.411737e-001 3.528949e-001 3.083237e-001 2.669007e-001 2.033028e-001 2.905625e-001 3.834966e-001 3.308158e-001 2.966549e-001
<GCONST> 8.826570e+000
<STATE> 5
<MEAN> 16
 5.866903e+000 5.879659e+000 6.289941e+000 6.664941e+000 6.840849e+000 7.112160e+000 7.332625e+000 7.886884e+000 8.634782e+000 8.761443e+000 9.325456e+000 1.046441e+001 1.124288e+001 1.138708e+001 1.028852e+001 9.431677e+000
<VARIANCE> 16
 1.705859e-001 6.878954e-002 1.299992e-001 3.208285e-001 2.879247e-001 3.818795e-001 2.217057e-001 2.608425e-001 3.704005e-001 3.785683e-001 3.282068e-001 3.783612e-001 3.746527e-001 3.848003e-001 4.283754e-001 2.874095e-001
<GCONST> 8.643853e+000
<STATE> 6
<MEAN> 16
 5.748119e+000 5.854942e+000 6.129508e+000 6.434392e+000 6.554714e+000 6.709696e+000 6.995708e+000 7.817910e+000 8.460820e+000 8.828109e+000 9.818625e+000 1.094230e+001 1.171962e+001 1.185688e+001 1.112169e+001 1.029123e+001
<VARIANCE> 16
 1.529498e-001 1.129842e-001 1.139755e-001 1.192960e-001 1.019365e-001 1.064072e-001 9.606981e-002 3.057232e-001 2.513130e-001 2.014147e-001 4.048401e-001 5.599518e-001 4.308724e-001 2.952600e-001 3.904223e-001 4.236396e-001
<GCONST> 4.669463e+000
<STATE> 7
<MEAN> 16
 6.036635e+000 6.289627e+000 6.592459e+000 6.793115e+000 6.820222e+000 7.042806e+000 7.347672e+000 8.421990e+000 9.548368e+000 9.647597e+000 1.049181e+001 1.130757e+001 1.189087e+001 1.191023e+001 1.115669e+001 9.867461e+000
<VARIANCE> 16
 2.224370e-001 2.842943e-001 4.317251e-001 2.438169e-001 1.136235e-001 1.478345e-001 8.675393e-002 2.386773e-001 3.330444e-001 3.118557e-001 8.189051e-001 9.276130e-001 8.994783e-001 9.033758e-001 6.750739e-001 3.170266e-001
<GCONST> 1.214114e+001
<STATE> 8
<MEAN> 16
 6.397704e+000 7.882338e+000 9.268567e+000 9.387398e+000 8.240152e+000 7.880109e+000 8.126370e+000 8.883494e+000 1.024793e+001 1.099180e+001 1.072434e+001 1.070222e+001 1.106623e+001 1.042544e+001 8.979423e+000 8.535557e+000
<VARIANCE> 16
 1.719620e-001 2.741318e-001 6.024996e-001 7.055460e-001 8.138451e-001 7.066286e-001 4.302446e-001 3.635015e-001 5.893705e-001 5.546730e-001 1.478592e+000 1.584134e+000 1.433920e+000 1.284707e+000 3.097732e-001 1.185851e-001
<GCONST> 2.012730e+001
<STATE> 9
<MEAN> 16
 6.020829e+000 6.892607e+000 7.652821e+000 7.678067e+000 7.261503e+000 7.116337e+000 7.008370e+000 7.241911e+000 8.249807e+000 9.134077e+000 9.148274e+000 9.156442e+000 9.622706e+000 9.049399e+000 8.094833e+000 8.076873e+000
<VARIANCE> 16
 1.867527e-001 4.610929e-001 3.943053e-001 4.832867e-001 3.590458e-001 3.616558e-001 1.225425e-001 1.233442e-001 4.288954e-001 3.411952e-001 4.560308e-001 2.943906e-001 4.023648e-001 3.815821e-001 1.096895e-001 5.508267e-002
<GCONST> 8.149956e+000
<TRANSP> 10
 0.000000e+000 1.000000e+000 0.000000e+000 0.000000e+000 0.000000e+000 0.000000e+000 0.000000e+000 0.000000e+000 0.000000e+000 0.000000e+000
 0.000000e+000 4.831222e-001 5.168778e-001 0.000000e+000 0.000000e+000 0.000000e+000 0.000000e+000 0.000000e+000 0.000000e+000 0.000000e+000
 0.000000e+000 0.000000e+000 3.442771e-001 6.557229e-001 0.000000e+000 0.000000e+000 0.000000e+000 0.000000e+000 0.000000e+000 0.000000e+000
 0.000000e+000 0.000000e+000 0.000000e+000 2.870297e-001 7.129703e-001 0.000000e+000 0.000000e+000 0.000000e+000 0.000000e+000 0.000000e+000
 0.000000e+000 0.000000e+000 0.000000e+000 0.000000e+000 4.010888e-001 5.989112e-001 0.000000e+000 0.000000e+000 0.000000e+000 0.000000e+000
 0.000000e+000 0.000000e+000 0.000000e+000 0.000000e+000 0.000000e+000 8.217599e-001 1.782400e-001 0.000000e+000 0.000000e+000 0.000000e+000
 0.000000e+000 0.000000e+000 0.000000e+000 0.000000e+000 0.000000e+000 0.000000e+000 6.962817e-001 3.037184e-001 0.000000e+000 0.000000e+000
 0.000000e+000 0.000000e+000 0.000000e+000 0.000000e+000 0.000000e+000 0.000000e+000 0.000000e+000 9.535763e-001 4.642373e-002 0.000000e+000
 0.000000e+000 0.000000e+000 0.000000e+000 0.000000e+000 0.000000e+000 0.000000e+000 0.000000e+000 0.000000e+000 8.127270e-001 1.872729e-001
 0.000000e+000 0.000000e+000 0.000000e+000 0.000000e+000 0.000000e+000 0.000000e+000 0.000000e+000 0.000000e+000 0.000000e+000 0.000000e+000
<ENDHMM>
~h "nula"
<BEGINHMM>
<NUMSTATES> 10
<STATE> 2
<MEAN> 16
 6.296963e+000 7.276235e+000 7.373019e+000 7.364132e+000 6.832431e+000 6.937873e+000 6.977331e+000 7.175619e+000 7.476521e+000 7.501753e+000 7.572233e+000 7.715152e+000 8.332197e+000 8.291114e+000 7.962643e+000 8.087605e+000
<VARIANCE> 16
 3.117412e-001 3.525733e-001 4.683921e-001 4.701073e-001 3.729382e-001 3.631852e-001 1.610565e-001 1.684997e-001 1.557590e-001 2.558746e-001 1.799947e-001 2.035701e-001 3.848854e-001 2.396889e-001 4.792527e-002 4.242644e-002
<GCONST> 4.968297e+000
<STATE> 3
<MEAN> 16
 6.486618e+000 7.885444e+000 8.221292e+000 8.223120e+000 7.595089e+000 7.516285e+000 7.180285e+000 7.456195e+000 7.760379e+000 7.982889e+000 7.928981e+000 7.892878e+000 8.495544e+000 8.381589e+000 7.946799e+000 8.076955e+000
<VARIANCE> 16
 3.674827e-001 3.505919e-001 3.771994e-001 3.556007e-001 4.290254e-001 5.547180e-001 1.556084e-001 2.905008e-001 2.156497e-001 6.047286e-001 5.337805e-001 2.841303e-001 4.823948e-001 1.712230e-001 2.436392e-002 3.888368e-002
<GCONST> 7.437014e+000
<STATE> 4
<MEAN> 16
 6.640359e+000 8.048042e+000 8.481184e+000 8.411415e+000 7.693614e+000 7.507953e+000 7.314486e+000 7.681960e+000 7.928743e+000 8.213740e+000 8.219551e+000 8.165386e+000 8.631598e+000 8.393614e+000 7.954856e+000 8.029474e+000
<VARIANCE> 16
 3.254736e-001 3.412842e-001 4.939092e-001 3.056627e-001 3.714980e-001 6.203163e-001 2.379879e-001 3.069533e-001 2.864376e-001 6.404703e-001 5.527648e-001 3.416458e-001 5.942873e-001 2.228617e-001 3.991177e-002 3.720440e-002
<GCONST> 9.336908e+000
<STATE> 5
<MEAN> 16
 6.757228e+000 8.231920e+000 8.735893e+000 8.706871e+000 8.026929e+000 7.954084e+000 7.704715e+000 7.994085e+000 8.154167e+000 8.495308e+000 8.364461e+000 8.198165e+000 8.579462e+000 8.394194e+000 8.113750e+000 8.135251e+000
<VARIANCE> 16
 4.295216e-001 3.080782e-001 5.013298e-001 3.848972e-001 3.571219e-001 6.558539e-001 3.311443e-001 3.274025e-001 2.950049e-001 5.692182e-001 7.675942e-001 4.309813e-001 5.047154e-001 1.688968e-001 9.185142e-002 5.121050e-002
<GCONST> 1.135295e+001
<STATE> 6
<MEAN> 16
 6.564302e+000 8.113471e+000 9.015242e+000 9.176406e+000 8.458049e+000 8.537781e+000 8.196833e+000 8.323128e+000 8.479259e+000 8.689880e+000 8.682076e+000 8.595044e+000 8.632460e+000 8.295554e+000 8.039335e+000 8.154669e+000
<VARIANCE> 16
 4.121860e-001 3.667753e-001 5.344459e-001 3.604215e-001 2.713748e-001 4.539457e-001 3.432520e-001 4.395178e-001 2.553927e-001 2.551847e-001 6.413040e-001 7.275518e-001 7.041396e-001 2.548479e-001 1.743851e-001 2.027929e-001
<GCONST> 1.333137e+001
<STATE> 7
<MEAN> 16
 6.394621e+000 7.939305e+000 8.837215e+000 9.800363e+000 9.128631e+000 9.213979e+000 9.022057e+000 8.577343e+000 8.542049e+000 8.872755e+000 9.195767e+000 9.469991e+000 9.325376e+000 8.620082e+000 8.174250e+000 8.232607e+000
<VARIANCE> 16
 3.517230e-001 2.988679e-001 9.608334e-001 4.258740e-001 5.374305e-001 6.926226e-001 5.224344e-001 3.656158e-001 2.588525e-001 2.840421e-001 8.746594e-001 1.066409e+000 8.151651e-001 3.077102e-001 3.048582e-001 2.945443e-001
<GCONST> 1.714320e+001
<STATE> 8
<MEAN> 16
 6.712349e+000 7.846687e+000 9.138437e+000 1.017214e+001 1.049832e+001 1.061454e+001 1.075102e+001 1.008077e+001 9.515920e+000 9.943752e+000 1.036410e+001 1.057312e+001 1.105582e+001 1.021149e+001 8.828059e+000 8.534114e+000
<VARIANCE> 16
 3.289568e-001 5.305879e-001 1.004048e+000 3.538331e-001 5.923630e-001 5.409293e-001 9.140352e-001 1.215975e+000 3.894490e-001 5.528418e-001 1.478511e+000 1.246895e+000 1.632685e+000 1.300062e+000 8.142000e-001 5.196863e-001
<GCONST> 2.456165e+001
<STATE> 9
<MEAN> 16
 6.053552e+000 6.798288e+000 7.167565e+000 8.318189e+000 9.008278e+000 9.206752e+000 9.239687e+000 8.702506e+000 8.115609e+000 8.398294e+000 8.618115e+000 8.839748e+000 9.297873e+000 8.763895e+000 8.033411e+000 8.018206e+000
<VARIANCE> 16
 2.599911e-001 6.489311e-001 4.633326e-001 5.829460e-001 4.202064e-001 3.143816e-001 4.279770e-001 7.149917e-001 3.277168e-001 4.136175e-001 6.936908e-001 5.637715e-001 3.997650e-001 2.878521e-001 1.118782e-001 6.975311e-002
<GCONST> 1.315662e+001
<TRANSP> 10
 0.000000e+000 1.000000e+000 0.000000e+000 0.000000e+000 0.000000e+000 0.000000e+000 0.000000e+000 0.000000e+000 0.000000e+000 0.000000e+000
 0.000000e+000 5.501350e-001 4.498650e-001 0.000000e+000 0.000000e+000 0.000000e+000 0.000000e+000 0.000000e+000 0.000000e+000 0.000000e+000
 0.000000e+000 0.000000e+000 3.831557e-001 6.168444e-001 0.000000e+000 0.000000e+000 0.000000e+000 0.000000e+000 0.000000e+000 0.000000e+000
 0.000000e+000 0.000000e+000 0.000000e+000 3.790174e-001 6.209826e-001 0.000000e+000 0.000000e+000 0.000000e+000 0.000000e+000 0.000000e+000
 0.000000e+000 0.000000e+000 0.000000e+000 0.000000e+000 4.408677e-001 5.591322e-001 0.000000e+000 0.000000e+000 0.000000e+000 0.000000e+000
 0.000000e+000 0.000000e+000 0.000000e+000 0.000000e+000 0.000000e+000 5.970544e-001 4.029457e-001 0.000000e+000 0.000000e+000 0.000000e+000
 0.000000e+000 0.000000e+000 0.000000e+000 0.000000e+000 0.000000e+000 0.000000e+000 8.341277e-001 1.658724e-001 0.000000e+000 0.000000e+000
 0.000000e+000 0.000000e+000 0.000000e+000 0.000000e+000 0.000000e+000 0.000000e+000 0.000000e+000 9.585954e-001 4.140461e-002 0.000000e+000
 0.000000e+000 0.000000e+000 0.000000e+000 0.000000e+000 0.000000e+000 0.000000e+000 0.000000e+000 0.000000e+000 8.630970e-001 1.369030e-001
 0.000000e+000 0.000000e+000 0.000000e+000 0.000000e+000 0.000000e+000 0.000000e+000 0.000000e+000 0.000000e+000 0.000000e+000 0.000000e+000
<ENDHMM>
~h "devet"
<BEGINHMM>
<NUMSTATES> 10
<STATE> 2
<MEAN> 16
 6.321196e+000 6.755184e+000 7.051830e+000 6.841831e+000 6.486510e+000 6.608782e+000 6.709556e+000 6.809979e+000 7.192426e+000 7.150589e+000 7.294477e+000 7.524990e+000 7.801357e+000 7.857408e+000 7.842052e+000 7.986846e+000
<VARIANCE> 16
 2.521808e-001 1.581945e-001 2.735339e-001 2.541121e-001 8.281428e-002 8.251042e-002 9.005782e-002 8.012369e-002 7.185239e-002 5.050065e-002 5.133511e-002 6.714423e-002 1.995873e-001 1.139242e-001 2.314460e-002 1.935923e-002
<GCONST> -9.182795e+000
<STATE> 3
<MEAN> 16
 6.355336e+000 7.188550e+000 7.322825e+000 7.234329e+000 6.912803e+000 6.738617e+000 6.926348e+000 7.213261e+000 7.710878e+000 7.615072e+000 7.766723e+000 7.880254e+000 8.214967e+000 8.129460e+000 7.891991e+000 8.004307e+000
<VARIANCE> 16
 2.776623e-001 5.628819e-001 3.509644e-001 3.765867e-001 2.110147e-001 2.197450e-001 1.536055e-001 2.982006e-001 3.503134e-001 2.309992e-001 2.430543e-001 3.114775e-001 3.184491e-001 1.918812e-001 3.302747e-002 6.129650e-002
<GCONST> 5.279060e+000
<STATE> 4
<MEAN> 16
 6.364754e+000 7.342989e+000 7.705724e+000 7.671596e+000 7.034508e+000 6.894576e+000 7.082147e+000 7.848909e+000 8.397303e+000 8.268502e+000 8.451873e+000 8.559689e+000 8.877975e+000 8.708592e+000 8.116106e+000 8.085728e+000
<VARIANCE> 16
 3.948016e-001 5.780621e-001 4.092011e-001 3.815323e-001 1.478112e-001 1.040443e-001 1.335108e-001 4.307906e-001 3.720753e-001 1.940782e-001 4.101282e-001 4.993965e-001 4.420855e-001 2.787193e-001 5.768541e-002 5.342960e-002
<GCONST> 6.951280e+000
<STATE> 5
<MEAN> 16
 6.387949e+000 7.506725e+000 8.594471e+000 8.656185e+000 7.714595e+000 7.433051e+000 7.895000e+000 8.983789e+000 9.611341e+000 9.498025e+000 9.534442e+000 9.682400e+000 9.985323e+000 9.493358e+000 8.596952e+000 8.325072e+000
<VARIANCE> 16
 2.577338e-001 2.245728e-001 5.235234e-001 4.943336e-001 1.395075e-001 8.168586e-002 9.566111e-002 4.207701e-001 3.520716e-001 3.676338e-001 1.040821e+000 1.232731e+000 9.093260e-001 8.184233e-001 3.795404e-001 1.220728e-001
<GCONST> 1.235510e+001
<STATE> 6
<MEAN> 16
 6.560936e+000 7.701886e+000 9.275174e+000 9.544086e+000 8.605863e+000 8.064414e+000 8.424490e+000 9.562476e+000 1.045020e+001 1.036648e+001 1.034738e+001 1.042551e+001 1.065415e+001 9.842275e+000 8.793853e+000 8.465315e+000
<VARIANCE> 16
 2.058587e-001 2.084235e-001 2.796348e-001 1.734999e-001 1.237641e-001 2.303922e-001 8.092263e-002 4.005404e-001 2.011226e-001 2.175728e-001 1.286650e+000 1.485422e+000 1.056985e+000 1.153629e+000 3.106123e-001 1.746639e-001
<GCONST> 1.104779e+001
<STATE> 7
<MEAN> 16
 6.560293e+000 7.679873e+000 9.463057e+000 1.006121e+001 9.121485e+000 8.543911e+000 8.772689e+000 1.033251e+001 1.089951e+001 1.084048e+001 1.069757e+001 1.113434e+001 1.086833e+001 9.453065e+000 8.772988e+000 8.540987e+000
<VARIANCE> 16
 1.439470e-001 1.404298e-001 2.083601e-001 2.008031e-001 1.721531e-001 1.375479e-001 6.829093e-002 4.204698e-001 2.137455e-001 2.481199e-001 1.047075e+000 1.404195e+000 6.356004e-001 8.029942e-001 1.596592e-001 1.607359e-001
<GCONST> 8.150595e+000
<STATE> 8
<MEAN> 16
 6.565884e+000 7.835237e+000 9.272709e+000 9.298985e+000 8.342947e+000 7.865687e+000 8.380725e+000 9.667179e+000 1.008421e+001 9.866319e+000 8.930636e+000 8.975278e+000 9.771726e+000 9.786399e+000 8.583918e+000 8.677640e+000
<VARIANCE> 16
 2.305433e-001 2.489050e-001 2.121650e-001 5.587408e-001 1.355408e+000 6.555470e-001 4.495895e-001 2.130484e-001 4.395807e-001 6.909987e-001 2.078494e+000 2.061992e+000 1.460388e+000 8.119015e-001 1.187113e-001 1.312015e-001
<GCONST> 1.822374e+001
<STATE> 9
<MEAN> 16
 6.413265e+000 7.476264e+000 8.895942e+000 9.602852e+000 9.365855e+000 8.560882e+000 8.802566e+000 9.585551e+000 1.059761e+001 1.079870e+001 1.101336e+001 1.113615e+001 1.136806e+001 1.048809e+001 8.660444e+000 8.309633e+000
<VARIANCE> 16
 1.789491e-001 2.869188e-001 6.062653e-001 7.009183e-001 1.147614e+000 6.400309e-001 4.514078e-001 4.600144e-001 6.763185e-001 7.540312e-001 8.394348e-001 7.590428e-001 8.273225e-001 1.339602e+000 3.388355e-001 8.667842e-002
<GCONST> 1.915147e+001
<TRANSP> 10
 0.000000e+000 1.000000e+000 0.000000e+000 0.000000e+000 0.000000e+000 0.000000e+000 0.000000e+000 0.000000e+000 0.000000e+000 0.000000e+000
 0.000000e+000 6.739862e-001 3.260137e-001 0.000000e+000 0.000000e+000 0.000000e+000 0.000000e+000 0.000000e+000 0.000000e+000 0.000000e+000
 0.000000e+000 0.000000e+000 2.519563e-001 7.480438e-001 0.000000e+000 0.000000e+000 0.000000e+000 0.000000e+000 0.000000e+000 0.000000e+000
 0.000000e+000 0.000000e+000 0.000000e+000 1.307644e-001 8.692356e-001 0.000000e+000 0.000000e+000 0.000000e+000 0.000000e+000 0.000000e+000
 0.000000e+000 0.000000e+000 0.000000e+000 0.000000e+000 2.867039e-002 9.713296e-001 0.000000e+000 0.000000e+000 0.000000e+000 0.000000e+000
 0.000000e+000 0.000000e+000 0.000000e+000 0.000000e+000 0.000000e+000 3.464865e-002 9.653514e-001 0.000000e+000 0.000000e+000 0.000000e+000
 0.000000e+000 0.000000e+000 0.000000e+000 0.000000e+000 0.000000e+000 0.000000e+000 6.408265e-001 3.591734e-001 0.000000e+000 0.000000e+000
 0.000000e+000 0.000000e+000 0.000000e+000 0.000000e+000 0.000000e+000 0.000000e+000 0.000000e+000 8.617693e-001 1.382307e-001 0.000000e+000
 0.000000e+000 0.000000e+000 0.000000e+000 0.000000e+000 0.000000e+000 0.000000e+000 0.000000e+000 0.000000e+000 9.678086e-001 3.219141e-002
 0.000000e+000 0.000000e+000 0.000000e+000 0.000000e+000 0.000000e+000 0.000000e+000 0.000000e+000 0.000000e+000 0.000000e+000 0.000000e+000
<ENDHMM>
~h "jedna"
<BEGINHMM>
<NUMSTATES> 10
<STATE> 2
<MEAN> 16
 6.155252e+000 7.092325e+000 7.277243e+000 7.085301e+000 6.660209e+000 6.624691e+000 6.690333e+000 6.937909e+000 7.661210e+000 8.096256e+000 8.116731e+000 8.402410e+000 8.772785e+000 8.445963e+000 7.971745e+000 8.079618e+000
<VARIANCE> 16
 1.943974e-001 3.683428e-001 4.127592e-001 2.685273e-001 1.491006e-001 1.039659e-001 4.711894e-002 6.312010e-002 2.866851e-001 3.571486e-001 3.477314e-001 6.110975e-001 6.280493e-001 3.156423e-001 1.029084e-001 6.523336e-002
<GCONST> 4.135345e+000
<STATE> 3
<MEAN> 16
 6.409530e+000 7.610602e+000 8.141850e+000 7.771982e+000 7.081454e+000 6.772691e+000 6.808375e+000 7.156959e+000 8.068907e+000 9.025506e+000 9.151727e+000 9.386739e+000 9.597567e+000 8.955071e+000 8.147789e+000 8.130164e+000
<VARIANCE> 16
 1.598640e-001 1.792788e-001 2.538976e-001 1.889677e-001 1.638806e-001 2.063351e-001 7.067298e-002 1.887495e-001 5.064246e-001 4.124030e-001 5.116006e-001 1.200751e+000 1.100727e+000 4.792365e-001 1.142268e-001 9.346608e-002
<GCONST> 7.880173e+000
<STATE> 4
<MEAN> 16
 6.416222e+000 7.496244e+000 8.193434e+000 7.876337e+000 7.089800e+000 6.865230e+000 7.138623e+000 7.947867e+000 8.515810e+000 8.667453e+000 8.478294e+000 8.468074e+000 8.969857e+000 8.611715e+000 8.386335e+000 8.459412e+000
<VARIANCE> 16
 1.029590e-001 3.065091e-001 9.932241e-001 8.146881e-001 3.356222e-001 1.468038e-001 2.090827e-001 7.666019e-001 1.115984e+000 1.036905e+000 1.049423e+000 1.435600e+000 1.158675e+000 5.788431e-001 2.021920e-001 1.238625e-001
<GCONST> 1.736634e+001
<STATE> 5
<MEAN> 16
 6.340364e+000 7.619241e+000 8.601303e+000 8.521925e+000 7.691964e+000 7.216391e+000 7.474699e+000 8.147928e+000 8.578918e+000 9.396156e+000 9.401631e+000 9.871517e+000 9.989711e+000 9.181295e+000 8.365545e+000 8.183331e+000
<VARIANCE> 16
 1.492622e-001 2.571025e-001 6.246660e-001 6.845487e-001 4.410382e-001 2.232126e-001 2.156949e-001 6.717801e-001 6.772735e-001 1.022905e+000 1.578893e+000 1.685383e+000 1.695827e+000 1.167115e+000 3.107654e-001 5.107476e-002
<GCONST> 1.819741e+001
<STATE> 6
<MEAN> 16
 6.407495e+000 7.472038e+000 8.277917e+000 8.227949e+000 7.709671e+000 7.337833e+000 7.479444e+000 8.103316e+000 8.811181e+000 9.538041e+000 9.909167e+000 1.006522e+001 1.027597e+001 9.517604e+000 8.273005e+000 8.115655e+000
<VARIANCE> 16
 1.821131e-001 3.934286e-001 8.582436e-001 6.140269e-001 3.221450e-001 2.182178e-001 4.256234e-001 6.089145e-001 1.062300e+000 1.455281e+000 1.692518e+000 1.951050e+000 1.827468e+000 1.337686e+000 3.485818e-001 6.599081e-002
<GCONST> 2.087615e+001
<STATE> 7
<MEAN> 16
 6.452571e+000 7.715329e+000 8.792621e+000 8.921252e+000 8.230269e+000 7.846567e+000 7.924221e+000 8.668097e+000 9.326859e+000 9.791373e+000 9.900720e+000 1.012121e+001 1.035289e+001 9.306741e+000 8.204062e+000 8.179641e+000
<VARIANCE> 16
 1.529666e-001 3.488975e-001 8.078782e-001 8.836105e-001 8.456693e-001 5.779183e-001 7.173927e-001 8.745968e-001 1.182085e+000 1.534598e+000 1.549821e+000 1.652872e+000 1.579682e+000 1.651860e+000 2.990662e-001 1.029039e-001
<GCONST> 2.397064e+001
<STATE> 8
<MEAN> 16
 6.631657e+000 7.738072e+000 8.704269e+000 9.388136e+000 9.731522e+000 9.644854e+000 9.936173e+000 1.037678e+001 1.018708e+001 1.014979e+001 1.028691e+001 1.045211e+001 1.100263e+001 1.027942e+001 8.531339e+000 8.283655e+000
<VARIANCE> 16
 1.218817e-001 2.651439e-001 4.386331e-001 5.176499e-001 8.472466e-001 1.342637e+000 1.623899e+000 1.668216e+000 5.058435e-001 5.741849e-001 1.351880e+000 1.243027e+000 1.145926e+000 9.371585e-001 3.508821e-001 1.091866e-001
<GCONST> 2.170878e+001
<STATE> 9
<MEAN> 16
 6.239995e+000 7.091960e+000 7.541157e+000 8.357555e+000 9.196942e+000 9.203202e+000 9.419655e+000 9.138576e+000 8.624871e+000 8.643064e+000 8.845210e+000 9.203794e+000 9.498252e+000 8.871770e+000 8.001340e+000 8.106396e+000
<VARIANCE> 16
 1.591358e-001 3.422981e-001 4.627380e-001 6.789588e-001 8.093162e-001 3.924426e-001 4.272151e-001 4.440532e-001 2.750174e-001 3.407248e-001 7.832378e-001 8.511273e-001 4.733645e-001 2.015618e-001 3.462540e-002 4.070234e-002
<GCONST> 1.084166e+001
<TRANSP> 10
 0.000000e+000 1.000000e+000 0.000000e+000 0.000000e+000 0.000000e+000 0.000000e+000 0.000000e+000 0.000000e+000 0.000000e+000 0.000000e+000
 0.000000e+000 5.200567e-001 4.799433e-001 0.000000e+000 0.000000e+000 0.000000e+000 0.000000e+000 0.000000e+000 0.000000e+000 0.000000e+000
 0.000000e+000 0.000000e+000 3.619589e-001 6.380411e-001 0.000000e+000 0.000000e+000 0.000000e+000 0.000000e+000 0.000000e+000 0.000000e+000
 0.000000e+000 0.000000e+000 0.000000e+000 7.777354e-001 2.222646e-001 0.000000e+000 0.000000e+000 0.000000e+000 0.000000e+000 0.000000e+000
 0.000000e+000 0.000000e+000 0.000000e+000 0.000000e+000 5.958043e-001 4.041958e-001 0.000000e+000 0.000000e+000 0.000000e+000 0.000000e+000
 0.000000e+000 0.000000e+000 0.000000e+000 0.000000e+000 0.000000e+000 7.344783e-001 2.655217e-001 0.000000e+000 0.000000e+000 0.000000e+000
 0.000000e+000 0.000000e+000 0.000000e+000 0.000000e+000 0.000000e+000 0.000000e+000 8.885179e-001 1.114821e-001 0.000000e+000 0.000000e+000
 0.000000e+000 0.000000e+000 0.000000e+000 0.000000e+000 0.000000e+000 0.000000e+000 0.000000e+000 9.560392e-001 4.396076e-002 0.000000e+000
 0.000000e+000 0.000000e+000 0.000000e+000 0.000000e+000 0.000000e+000 0.000000e+000 0.000000e+000 0.000000e+000 8.913419e-001 1.086581e-001
 0.000000e+000 0.000000e+000 0.000000e+000 0.000000e+000 0.000000e+000 0.000000e+000 0.000000e+000 0.000000e+000 0.000000e+000 0.000000e+000
<ENDHMM>
