~o
<STREAMINFO> 1 16
<VECSIZE> 16<NULLD><FBANK><DIAGC>
~h "ctyri"
<BEGINHMM>
<NUMSTATES> 10
<STATE> 2
<MEAN> 16
 5.666550e+000 5.806916e+000 6.044420e+000 6.247948e+000 6.311603e+000 6.540293e+000 6.754150e+000 6.953618e+000 7.315433e+000 7.590806e+000 8.214422e+000 9.088168e+000 9.494683e+000 9.523125e+000 9.111178e+000 8.690376e+000
<VARIANCE> 16
 1.836194e-001 9.606566e-002 1.636681e-001 8.612365e-002 7.017529e-002 4.993264e-002 7.277489e-002 7.314211e-002 1.004991e-001 2.406140e-001 6.123530e-001 1.098428e+000 1.328241e+000 1.077960e+000 7.330034e-001 3.709396e-001
<GCONST> 5.154830e+000
<STATE> 3
<MEAN> 16
 5.689025e+000 5.809034e+000 6.025420e+000 6.179527e+000 6.319268e+000 6.516203e+000 6.762644e+000 7.026895e+000 7.575798e+000 8.074112e+000 9.078095e+000 9.972674e+000 1.055359e+001 1.044269e+001 9.835015e+000 9.233948e+000
<VARIANCE> 16
 1.146161e-001 8.361468e-002 1.162889e-001 8.929344e-002 6.751276e-002 6.420074e-002 8.058039e-002 1.131391e-001 2.347831e-001 7.094752e-001 1.149713e+000 1.277771e+000 1.311913e+000 1.399040e+000 1.204178e+000 7.202937e-001
<GCONST> 9.109290e+000
<STATE> 4
<MEAN> 16
 5.808293e+000 5.866549e+000 6.055667e+000 6.211621e+000 6.353433e+000 6.506425e+000 6.701602e+000 7.193281e+000 8.025141e+000 8.635713e+000 9.108073e+000 9.687958e+000 1.010431e+001 9.976661e+000 9.505941e+000 8.924934e+000
<VARIANCE> 16
 1.482303e-001 1.326182e-001 1.340905e-001 1.008548e-001 6.179775e-002 6.736408e-002 5.289168e-002 2.771489e-001 7.878020e-001 1.756651e+000 1.943341e+000 1.951371e+000 1.677276e+000 1.775681e+000 1.581396e+000 7.734516e-001
<GCONST> 1.441982e+001
<STATE> 5
<MEAN> 16
 5.762196e+000 5.923517e+000 6.099329e+000 6.283312e+000 6.443381e+000 6.633685e+000 6.893882e+000 7.361290e+000 7.986465e+000 8.445460e+000 8.972879e+000 9.655166e+000 9.996778e+000 9.857723e+000 9.245270e+000 8.740007e+000
<VARIANCE> 16
 1.324978e-001 1.780206e-001 2.800428e-001 1.530572e-001 8.008429e-002 9.852101e-002 1.126575e-001 3.256258e-001 7.353752e-001 1.468252e+000 1.747064e+000 1.893726e+000 1.456980e+000 1.537452e+000 1.306284e+000 7.019526e-001
<GCONST> 1.635463e+001
<STATE> 6
<MEAN> 16
 5.860750e+000 6.366250e+000 6.884457e+000 6.873325e+000 6.909725e+000 6.909204e+000 7.265711e+000 7.739706e+000 8.312108e+000 8.490742e+000 8.632143e+000 9.188313e+000 9.647716e+000 9.445882e+000 8.705362e+000 8.499545e+000
<VARIANCE> 16
 1.170122e-001 4.543598e-001 6.887387e-001 3.318429e-001 7.455567e-002 1.047643e-001 1.657502e-001 2.966498e-001 4.195748e-001 2.240328e-001 3.430710e-001 5.760761e-001 6.325780e-001 5.659233e-001 1.237648e-001 1.129676e-001
<GCONST> 7.847892e+000
<STATE> 7
<MEAN> 16
 6.075017e+000 7.530427e+000 8.345627e+000 8.650785e+000 7.257071e+000 7.240888e+000 7.581383e+000 8.539237e+000 9.585628e+000 9.877741e+000 9.791055e+000 1.015792e+001 1.057805e+001 1.014206e+001 9.036799e+000 8.732648e+000
<VARIANCE> 16
 2.311672e-001 6.365488e-001 9.990183e-001 9.623688e-001 2.364499e-001 2.804069e-001 2.675045e-001 5.176798e-001 5.129089e-001 6.270056e-001 1.485556e+000 1.456101e+000 2.526839e+000 2.081126e+000 8.594409e-001 4.216929e-001
<GCONST> 2.304186e+001
<STATE> 8
<MEAN> 16
 6.486571e+000 7.814524e+000 9.325010e+000 9.344582e+000 8.286367e+000 7.995084e+000 8.222191e+000 9.049189e+000 1.034915e+001 1.067035e+001 1.051138e+001 1.081571e+001 1.127912e+001 1.072421e+001 9.514230e+000 8.806042e+000
<VARIANCE> 16
 1.831099e-001 3.920811e-001 1.052342e+000 9.107116e-001 6.938586e-001 6.557634e-001 4.612018e-001 3.269938e-001 4.673955e-001 5.003558e-001 8.815458e-001 9.995835e-001 1.375267e+000 1.402975e+000 8.368102e-001 3.531872e-001
<GCONST> 2.190921e+001
<STATE> 9
<MEAN> 16
 6.325180e+000 7.634308e+000 8.951289e+000 8.858255e+000 7.745518e+000 7.451962e+000 7.580616e+000 8.272154e+000 9.423745e+000 1.017317e+001 9.826917e+000 9.754698e+000 1.037842e+001 9.731183e+000 8.412709e+000 8.292686e+000
<VARIANCE> 16
 1.950248e-001 2.599179e-001 5.151836e-001 4.603535e-001 4.032025e-001 2.567385e-001 1.595506e-001 3.324827e-001 6.112288e-001 5.252880e-001 1.361011e+000 1.318627e+000 1.285520e+000 1.026132e+000 1.370049e-001 1.165811e-001
<GCONST> 1.536923e+001
<TRANSP> 10
 0.000000e+000 1.000000e+000 0.000000e+000 0.000000e+000 0.000000e+000 0.000000e+000 0.000000e+000 0.000000e+000 0.000000e+000 0.000000e+000
 0.000000e+000 7.271022e-001 2.728978e-001 0.000000e+000 0.000000e+000 0.000000e+000 0.000000e+000 0.000000e+000 0.000000e+000 0.000000e+000
 0.000000e+000 0.000000e+000 8.048162e-001 1.951838e-001 0.000000e+000 0.000000e+000 0.000000e+000 0.000000e+000 0.000000e+000 0.000000e+000
 0.000000e+000 0.000000e+000 0.000000e+000 8.014303e-001 1.985697e-001 0.000000e+000 0.000000e+000 0.000000e+000 0.000000e+000 0.000000e+000
 0.000000e+000 0.000000e+000 0.000000e+000 0.000000e+000 5.587128e-001 4.412872e-001 0.000000e+000 0.000000e+000 0.000000e+000 0.000000e+000
 0.000000e+000 0.000000e+000 0.000000e+000 0.000000e+000 0.000000e+000 1.304211e-001 8.695790e-001 0.000000e+000 0.000000e+000 0.000000e+000
 0.000000e+000 0.000000e+000 0.000000e+000 0.000000e+000 0.000000e+000 0.000000e+000 7.532248e-001 2.467753e-001 0.000000e+000 0.000000e+000
 0.000000e+000 0.000000e+000 0.000000e+000 0.000000e+000 0.000000e+000 0.000000e+000 0.000000e+000 9.590094e-001 4.099057e-002 0.000000e+000
 0.000000e+000 0.000000e+000 0.000000e+000 0.000000e+000 0.000000e+000 0.000000e+000 0.000000e+000 0.000000e+000 9.294646e-001 7.053544e-002
 0.000000e+000 0.000000e+000 0.000000e+000 0.000000e+000 0.000000e+000 0.000000e+000 0.000000e+000 0.000000e+000 0.000000e+000 0.000000e+000
<ENDHMM>
~h "sedm"
<BEGINHMM>
<NUMSTATES> 10
<STATE> 2
<MEAN> 16
 5.662807e+000 5.766261e+000 5.993659e+000 6.177032e+000 6.277824e+000 6.468878e+000 6.629708e+000 6.942379e+000 7.345406e+000 7.399090e+000 7.556618e+000 8.008641e+000 8.929823e+000 9.185419e+000 9.467162e+000 9.295139e+000
<VARIANCE> 16
 1.176140e-001 9.422659e-002 6.842884e-002 8.319105e-002 6.086612e-002 4.409099e-002 4.512778e-002 6.774019e-002 6.576709e-002 4.824265e-002 9.739731e-002 1.444353e-001 2.051442e-001 1.673229e-001 2.417582e-001 3.515075e-001
<GCONST> -7.830096e+000
<STATE> 3
<MEAN> 16
 5.740676e+000 5.792741e+000 5.853618e+000 6.114185e+000 6.292933e+000 6.515366e+000 6.707646e+000 7.160026e+000 7.532036e+000 7.600434e+000 7.870096e+000 8.451885e+000 9.521854e+000 9.846118e+000 1.003949e+001 1.004141e+001
<VARIANCE> 16
 1.933043e-001 8.881769e-002 1.448715e-001 1.206896e-001 9.698731e-002 5.589944e-002 4.878836e-002 5.703487e-002 9.582093e-002 7.704116e-002 1.991792e-001 9.888098e-002 2.086661e-001 1.639398e-001 2.836709e-001 3.696218e-001
<GCONST> -4.273369e+000
<STATE> 4
<MEAN> 16
 5.741355e+000 5.758601e+000 5.893914e+000 6.219075e+000 6.475791e+000 6.576306e+000 6.834745e+000 7.370162e+000 7.756738e+000 7.829051e+000 8.139922e+000 8.755275e+000 9.941986e+000 1.020799e+001 1.033142e+001 1.019023e+001
<VARIANCE> 16
 1.907118e-001 8.694214e-002 9.537116e-002 6.482692e-002 5.643398e-002 6.141254e-002 5.682885e-002 9.567200e-002 1.335940e-001 9.757233e-002 2.034504e-001 1.746233e-001 3.634630e-001 4.278103e-001 6.089962e-001 4.982128e-001
<GCONST> -1.390244e+000
<STATE> 5
<MEAN> 16
 5.717824e+000 5.809576e+000 6.101079e+000 6.423507e+000 6.585137e+000 6.848050e+000 7.092210e+000 7.622354e+000 8.139374e+000 8.199298e+000 8.520939e+000 9.169814e+000 1.020021e+001 1.055164e+001 1.033353e+001 1.006055e+001
<VARIANCE> 16
 1.211206e-001 1.782586e-001 2.286873e-001 1.531825e-001 7.375687e-002 9.182194e-002 1.106935e-001 1.616211e-001 1.960862e-001 1.440299e-001 3.426135e-001 3.286009e-001 5.437945e-001 7.684187e-001 6.714850e-001 4.415503e-001
<GCONST> 5.361313e+000
<STATE> 6
<MEAN> 16
 5.933611e+000 6.185545e+000 6.586879e+000 6.931315e+000 6.946014e+000 7.232163e+000 7.548906e+000 8.236045e+000 8.827154e+000 8.784037e+000 9.081648e+000 9.581830e+000 1.056819e+001 1.086829e+001 1.036596e+001 1.011161e+001
<VARIANCE> 16
 1.499639e-001 2.924458e-001 5.729311e-001 4.081146e-001 1.706447e-001 1.255540e-001 1.733991e-001 1.637211e-001 1.854849e-001 2.052344e-001 3.608805e-001 4.913975e-001 7.188437e-001 1.006431e+000 6.509356e-001 4.126287e-001
<GCONST> 1.078471e+001
<STATE> 7
<MEAN> 16
 6.355606e+000 7.479847e+000 8.356503e+000 8.768090e+000 8.121693e+000 7.841731e+000 8.412517e+000 9.389320e+000 9.264870e+000 9.096720e+000 9.242297e+000 9.389462e+000 9.991343e+000 9.822877e+000 9.133745e+000 8.940705e+000
<VARIANCE> 16
 2.265226e-001 3.101401e-001 1.128744e+000 1.252647e+000 7.630575e-001 5.365480e-001 8.161029e-001 1.013498e+000 5.546186e-001 3.797470e-001 7.646865e-001 5.533062e-001 4.688843e-001 4.322938e-001 3.526851e-001 1.465465e-001
<GCONST> 1.903743e+001
<STATE> 8
<MEAN> 16
 6.731829e+000 8.002241e+000 9.083840e+000 9.541865e+000 9.265519e+000 8.836281e+000 9.134266e+000 9.935026e+000 1.030920e+001 1.014229e+001 1.036001e+001 1.033065e+001 1.089018e+001 1.031835e+001 8.694374e+000 8.401046e+000
<VARIANCE> 16
 2.297450e-001 3.830433e-001 4.382676e-001 7.308635e-001 1.161364e+000 6.978813e-001 5.675309e-001 7.977824e-001 8.119368e-001 7.499143e-001 1.223374e+000 1.299622e+000 1.060413e+000 1.144136e+000 7.069039e-001 2.513534e-001
<GCONST> 2.326780e+001
<STATE> 9
<MEAN> 16
 6.489790e+000 8.018801e+000 8.552176e+000 8.621648e+000 7.954766e+000 7.915094e+000 8.171187e+000 8.427613e+000 8.502850e+000 8.678754e+000 8.666780e+000 9.211310e+000 9.475024e+000 8.846702e+000 8.128380e+000 8.126413e+000
<VARIANCE> 16
 2.015078e-001 1.517731e-001 4.518301e-001 4.545399e-001 2.315732e-001 2.900581e-001 4.566674e-001 6.037006e-001 4.886814e-001 5.023568e-001 7.605080e-001 1.449226e+000 1.241538e+000 3.631397e-001 8.504687e-002 5.926475e-002
<GCONST> 1.295267e+001
<TRANSP> 10
 0.000000e+000 1.000000e+000 0.000000e+000 0.000000e+000 0.000000e+000 0.000000e+000 0.000000e+000 0.000000e+000 0.000000e+000 0.000000e+000
 0.000000e+000 7.793552e-001 2.206448e-001 0.000000e+000 0.000000e+000 0.000000e+000 0.000000e+000 0.000000e+000 0.000000e+000 0.000000e+000
 0.000000e+000 0.000000e+000 5.776035e-001 4.223966e-001 0.000000e+000 0.000000e+000 0.000000e+000 0.000000e+000 0.000000e+000 0.000000e+000
 0.000000e+000 0.000000e+000 0.000000e+000 4.468197e-001 5.531804e-001 0.000000e+000 0.000000e+000 0.000000e+000 0.000000e+000 0.000000e+000
 0.000000e+000 0.000000e+000 0.000000e+000 0.000000e+000 5.028605e-001 4.971395e-001 0.000000e+000 0.000000e+000 0.000000e+000 0.000000e+000
 0.000000e+000 0.000000e+000 0.000000e+000 0.000000e+000 0.000000e+000 6.483661e-001 3.516340e-001 0.000000e+000 0.000000e+000 0.000000e+000
 0.000000e+000 0.000000e+000 0.000000e+000 0.000000e+000 0.000000e+000 0.000000e+000 1.098744e-001 8.901257e-001 0.000000e+000 0.000000e+000
 0.000000e+000 0.000000e+000 0.000000e+000 0.000000e+000 0.000000e+000 0.000000e+000 0.000000e+000 9.477923e-001 5.220773e-002 0.000000e+000
 0.000000e+000 0.000000e+000 0.000000e+000 0.000000e+000 0.000000e+000 0.000000e+000 0.000000e+000 0.000000e+000 9.616398e-001 3.836021e-002
 0.000000e+000 0.000000e+000 0.000000e+000 0.000000e+000 0.000000e+000 0.000000e+000 0.000000e+000 0.000000e+000 0.000000e+000 0.000000e+000
<ENDHMM>
~h "sest"
<BEGINHMM>
<NUMSTATES> 10
<STATE> 2
<MEAN> 16
 5.659096e+000 5.708475e+000 5.883180e+000 6.073765e+000 6.333057e+000 6.492294e+000 6.654952e+000 7.051804e+000 7.734475e+000 8.061441e+000 8.470249e+000 9.025869e+000 9.344644e+000 9.414656e+000 8.966976e+000 8.363085e+000
<VARIANCE> 16
 8.111750e-002 9.002602e-002 9.177446e-002 6.125190e-002 4.458316e-002 3.927064e-002 4.223864e-002 7.225800e-002 2.285351e-001 4.419255e-001 4.065957e-001 3.665135e-001 3.069788e-001 3.573867e-001 3.728046e-001 7.587712e-002
<GCONST> -2.805861e+000
<STATE> 3
<MEAN> 16
 5.695532e+000 5.775747e+000 5.933644e+000 6.141973e+000 6.304821e+000 6.421045e+000 6.649176e+000 7.255361e+000 8.141601e+000 8.790885e+000 9.308480e+000 1.000718e+001 1.021994e+001 1.027439e+001 9.722449e+000 8.893857e+000
<VARIANCE> 16
 1.247251e-001 1.063716e-001 7.117838e-002 9.306952e-002 5.159920e-002 4.955931e-002 6.572933e-002 1.224271e-001 4.203694e-001 5.531499e-001 2.875917e-001 2.770408e-001 1.961906e-001 2.275116e-001 2.251834e-001 1.392108e-001
<GCONST> -1.285066e+000
<STATE> 4
<MEAN> 16
 5.770193e+000 5.738903e+000 5.984503e+000 6.184623e+000 6.368162e+000 6.524245e+000 6.768853e+000 7.414710e+000 8.339040e+000 9.249298e+000 9.763353e+000 1.039699e+001 1.062924e+001 1.062163e+001 1.010048e+001 9.274279e+000
<VARIANCE> 16
 1.223469e-001 9.329010e-002 6.068908e-002 7.932709e-002 4.329516e-002 6.833731e-002 7.588778e-002 1.654856e-001 3.828004e-001 5.767463e-001 2.450834e-001 2.902172e-001 2.968772e-001 2.735069e-001 1.760396e-001 1.650910e-001
<GCONST> -8.065022e-001
<STATE> 5
<MEAN> 16
 5.754642e+000 5.832779e+000 6.049049e+000 6.219687e+000 6.301498e+000 6.558104e+000 6.827483e+000 7.546276e+000 8.493791e+000 9.307762e+000 1.006171e+001 1.093639e+001 1.121604e+001 1.106953e+001 1.050257e+001 9.717111e+000
<VARIANCE> 16
 6.600945e-002 7.515658e-002 8.189914e-002 7.633174e-002 5.855166e-002 6.264908e-002 9.965096e-002 1.617617e-001 3.889904e-001 5.364131e-001 2.330862e-001 4.419654e-001 3.761797e-001 3.821520e-001 2.910894e-001 2.299835e-001
<GCONST> 8.057755e-001
<STATE> 6
<MEAN> 16
 5.785277e+000 5.936519e+000 6.198534e+000 6.433039e+000 6.529259e+000 6.755915e+000 7.056198e+000 7.961781e+000 8.919161e+000 9.622561e+000 1.018669e+001 1.081695e+001 1.121762e+001 1.111677e+001 1.058160e+001 9.839481e+000
<VARIANCE> 16
 8.135685e-002 9.894121e-002 1.275810e-001 1.110588e-001 7.878970e-002 1.221910e-001 8.897010e-002 2.656781e-001 5.199831e-001 5.744309e-001 2.468464e-001 4.510010e-001 6.890697e-001 8.159731e-001 7.059696e-001 3.472905e-001
<GCONST> 6.553953e+000
<STATE> 7
<MEAN> 16
 5.963765e+000 6.694582e+000 7.259772e+000 7.507041e+000 7.261273e+000 7.157247e+000 7.327008e+000 8.259784e+000 9.016389e+000 9.377771e+000 9.777994e+000 1.013179e+001 1.044310e+001 1.015183e+001 9.528717e+000 8.985777e+000
<VARIANCE> 16
 9.578072e-002 5.582142e-001 6.971335e-001 7.737504e-001 4.933902e-001 2.598631e-001 1.911779e-001 4.234755e-001 4.923697e-001 6.767064e-001 4.509699e-001 6.438695e-001 1.124719e+000 1.271723e+000 1.175947e+000 4.615682e-001
<GCONST> 1.870337e+001
<STATE> 8
<MEAN> 16
 6.404078e+000 7.464571e+000 8.870234e+000 9.851667e+000 9.737912e+000 9.090546e+000 9.247952e+000 1.029462e+001 1.069060e+001 1.045436e+001 1.056221e+001 1.065401e+001 1.102485e+001 1.045835e+001 9.175503e+000 8.719170e+000
<VARIANCE> 16
 2.159742e-001 3.385879e-001 5.044756e-001 6.036578e-001 1.298153e+000 1.089175e+000 7.293200e-001 7.702044e-001 1.158314e+000 9.848735e-001 1.642061e+000 1.459102e+000 1.521559e+000 1.521832e+000 6.075658e-001 2.355897e-001
<GCONST> 2.527229e+001
<STATE> 9
<MEAN> 16
 5.728684e+000 5.910020e+000 6.411170e+000 7.041325e+000 7.129416e+000 6.946584e+000 7.112639e+000 7.746504e+000 8.087229e+000 8.058555e+000 8.453992e+000 9.018143e+000 9.930705e+000 1.043286e+001 1.035091e+001 1.006687e+001
<VARIANCE> 16
 1.120101e-001 1.471766e-001 2.760684e-001 4.338842e-001 3.810014e-001 2.105690e-001 1.452581e-001 2.394631e-001 3.612144e-001 3.058682e-001 3.096407e-001 3.575335e-001 5.415478e-001 5.817925e-001 3.130443e-001 2.500944e-001
<GCONST> 9.191121e+000
<TRANSP> 10
 0.000000e+000 1.000000e+000 0.000000e+000 0.000000e+000 0.000000e+000 0.000000e+000 0.000000e+000 0.000000e+000 0.000000e+000 0.000000e+000
 0.000000e+000 5.095076e-001 4.904924e-001 0.000000e+000 0.000000e+000 0.000000e+000 0.000000e+000 0.000000e+000 0.000000e+000 0.000000e+000
 0.000000e+000 0.000000e+000 2.881443e-001 7.118558e-001 0.000000e+000 0.000000e+000 0.000000e+000 0.000000e+000 0.000000e+000 0.000000e+000
 0.000000e+000 0.000000e+000 0.000000e+000 4.103732e-001 5.896268e-001 0.000000e+000 0.000000e+000 0.000000e+000 0.000000e+000 0.000000e+000
 0.000000e+000 0.000000e+000 0.000000e+000 0.000000e+000 6.973662e-001 3.026338e-001 0.000000e+000 0.000000e+000 0.000000e+000 0.000000e+000
 0.000000e+000 0.000000e+000 0.000000e+000 0.000000e+000 0.000000e+000 7.343864e-001 2.656136e-001 0.000000e+000 0.000000e+000 0.000000e+000
 0.000000e+000 0.000000e+000 0.000000e+000 0.000000e+000 0.000000e+000 0.000000e+000 1.695035e-001 8.304966e-001 0.000000e+000 0.000000e+000
 0.000000e+000 0.000000e+000 0.000000e+000 0.000000e+000 0.000000e+000 0.000000e+000 0.000000e+000 9.562075e-001 4.379250e-002 0.000000e+000
 0.000000e+000 0.000000e+000 0.000000e+000 0.000000e+000 0.000000e+000 0.000000e+000 0.000000e+000 0.000000e+000 9.344127e-001 6.558731e-002
 0.000000e+000 0.000000e+000 0.000000e+000 0.000000e+000 0.000000e+000 0.000000e+000 0.000000e+000 0.000000e+000 0.000000e+000 0.000000e+000
<ENDHMM>
~h "dva"
<BEGINHMM>
<NUMSTATES> 10
<STATE> 2
<MEAN> 16
 6.093043e+000 6.860097e+000 7.169298e+000 7.053291e+000 6.665619e+000 6.679412e+000 6.900282e+000 7.070172e+000 7.369806e+000 7.294258e+000 7.446543e+000 7.677626e+000 7.902560e+000 7.873449e+000 7.863257e+000 7.998752e+000
<VARIANCE> 16
 1.209218e-001 3.384309e-001 3.856083e-001 2.796236e-001 1.105854e-001 1.308674e-001 2.150471e-001 2.211515e-001 1.877423e-001 2.094000e-001 3.193866e-001 3.933609e-001 4.420429e-001 1.722021e-001 4.453468e-002 3.205784e-002
<GCONST> 2.263690e+000
<STATE> 3
<MEAN> 16
 6.121243e+000 7.154122e+000 7.737915e+000 7.723387e+000 7.171403e+000 7.272641e+000 7.640042e+000 7.900112e+000 8.065308e+000 8.222057e+000 8.335096e+000 8.722367e+000 8.869075e+000 8.496217e+000 7.978303e+000 8.035495e+000
<VARIANCE> 16
 1.397590e-001 1.653856e-001 4.603235e-001 4.518359e-001 2.037242e-001 2.208296e-001 2.788041e-001 5.094131e-001 4.594412e-001 4.785617e-001 5.887843e-001 6.312699e-001 6.994375e-001 4.366233e-001 7.288989e-002 2.815007e-002
<GCONST> 9.135759e+000
<STATE> 4
<MEAN> 16
 6.261221e+000 7.284090e+000 8.106197e+000 8.119088e+000 7.478438e+000 7.561170e+000 7.961312e+000 8.261715e+000 8.256008e+000 8.414658e+000 8.577715e+000 8.915956e+000 8.885370e+000 8.498405e+000 8.061333e+000 8.073500e+000
<VARIANCE> 16
 2.149769e-001 1.335399e-001 5.664245e-001 4.896793e-001 3.001449e-001 2.637885e-001 2.822608e-001 6.940498e-001 7.347044e-001 5.571265e-001 7.601643e-001 8.678648e-001 9.937599e-001 6.062672e-001 9.629909e-002 4.323922e-002
<GCONST> 1.310962e+001
<STATE> 5
<MEAN> 16
 6.633798e+000 7.464324e+000 8.173595e+000 8.288968e+000 7.876724e+000 8.021633e+000 8.412573e+000 8.235335e+000 8.129578e+000 8.362062e+000 8.455469e+000 8.652372e+000 9.091330e+000 8.755651e+000 8.117110e+000 8.114254e+000
<VARIANCE> 16
 3.353340e-001 2.234212e-001 5.995613e-001 9.477160e-001 7.118236e-001 6.614110e-001 5.463654e-001 5.896678e-001 5.930254e-001 5.153450e-001 6.671175e-001 7.727433e-001 7.860695e-001 4.589514e-001 9.415409e-002 6.966612e-002
<GCONST> 1.646906e+001
<STATE> 6
<MEAN> 16
 6.797575e+000 7.642612e+000 8.306441e+000 8.570987e+000 8.242300e+000 8.503434e+000 8.872622e+000 8.480028e+000 8.278041e+000 8.536162e+000 8.589752e+000 8.823464e+000 9.290791e+000 8.817904e+000 8.093492e+000 8.135072e+000
<VARIANCE> 16
 3.153797e-001 1.738161e-001 3.046877e-001 7.850223e-001 8.642985e-001 6.668610e-001 5.914797e-001 6.147174e-001 4.784870e-001 5.552071e-001 6.195229e-001 1.008252e+000 6.906318e-001 3.882446e-001 7.340708e-002 9.451615e-002
<GCONST> 1.542594e+001
<STATE> 7
<MEAN> 16
 6.631755e+000 7.531657e+000 8.592843e+000 9.786994e+000 1.019943e+001 9.809244e+000 1.014576e+001 9.171165e+000 9.082186e+000 9.453569e+000 8.452979e+000 9.060734e+000 9.365105e+000 9.360271e+000 8.412448e+000 8.352309e+000
<VARIANCE> 16
 1.311309e-001 5.815385e-002 7.313382e-002 2.665699e-001 6.640160e-001 2.949235e-001 2.685532e-001 2.041071e-001 1.802772e-001 1.960839e-001 6.302767e-001 7.728460e-001 3.632311e-001 2.652888e-001 1.060127e-001 1.167788e-001
<GCONST> 5.264854e+000
<STATE> 8
<MEAN> 16
 6.617859e+000 7.517414e+000 8.522257e+000 9.723316e+000 1.066574e+001 1.094069e+001 1.130820e+001 1.092162e+001 9.915653e+000 1.032105e+001 1.068922e+001 1.105938e+001 1.167457e+001 1.060197e+001 8.882959e+000 8.488867e+000
<VARIANCE> 16
 4.519186e-001 3.902438e-001 6.489737e-001 5.855091e-001 6.343710e-001 6.487868e-001 7.161537e-001 1.090860e+000 4.832760e-001 5.219198e-001 9.355252e-001 1.039808e+000 1.126165e+000 1.016117e+000 5.486130e-001 3.171073e-001
<GCONST> 2.254940e+001
<STATE> 9
<MEAN> 16
 5.869047e+000 6.406441e+000 6.607849e+000 7.496181e+000 8.480774e+000 8.816381e+000 8.823434e+000 8.482748e+000 7.883193e+000 8.021364e+000 8.379974e+000 8.685078e+000 9.215804e+000 8.551102e+000 7.893898e+000 7.955168e+000
<VARIANCE> 16
 2.618632e-001 4.743749e-001 2.751877e-001 4.988601e-001 4.675841e-001 3.094889e-001 3.556674e-001 5.349547e-001 2.297817e-001 2.908134e-001 4.279456e-001 3.046308e-001 3.255919e-001 2.331283e-001 4.664404e-002 5.861766e-002
<GCONST> 8.518952e+000
<TRANSP> 10
 0.000000e+000 1.000000e+000 0.000000e+000 0.000000e+000 0.000000e+000 0.000000e+000 0.000000e+000 0.000000e+000 0.000000e+000 0.000000e+000
 0.000000e+000 7.022650e-001 2.977350e-001 0.000000e+000 0.000000e+000 0.000000e+000 0.000000e+000 0.000000e+000 0.000000e+000 0.000000e+000
 0.000000e+000 0.000000e+000 4.460947e-001 5.539053e-001 0.000000e+000 0.000000e+000 0.000000e+000 0.000000e+000 0.000000e+000 0.000000e+000
 0.000000e+000 0.000000e+000 0.000000e+000 6.260206e-001 3.739795e-001 0.000000e+000 0.000000e+000 0.000000e+000 0.000000e+000 0.000000e+000
 0.000000e+000 0.000000e+000 0.000000e+000 0.000000e+000 2.831122e-001 7.168878e-001 0.000000e+000 0.000000e+000 0.000000e+000 0.000000e+000
 0.000000e+000 0.000000e+000 0.000000e+000 0.000000e+000 0.000000e+000 4.032361e-001 5.967640e-001 0.000000e+000 0.000000e+000 0.000000e+000
 0.000000e+000 0.000000e+000 0.000000e+000 0.000000e+000 0.000000e+000 0.000000e+000 8.011258e-001 1.988743e-001 0.000000e+000 0.000000e+000
 0.000000e+000 0.000000e+000 0.000000e+000 0.000000e+000 0.000000e+000 0.000000e+000 0.000000e+000 9.469804e-001 5.301957e-002 0.000000e+000
 0.000000e+000 0.000000e+000 0.000000e+000 0.000000e+000 0.000000e+000 0.000000e+000 0.000000e+000 0.000000e+000 8.678711e-001 1.321289e-001
 0.000000e+000 0.000000e+000 0.000000e+000 0.000000e+000 0.000000e+000 0.000000e+000 0.000000e+000 0.000000e+000 0.000000e+000 0.000000e+000
<ENDHMM>
~h "osm"
<BEGINHMM>
<NUMSTATES> 10
<STATE> 2
<MEAN> 16
 5.356858e+000 5.750823e+000 6.186143e+000 6.598029e+000 6.744347e+000 6.822387e+000 6.779266e+000 6.718122e+000 7.015157e+000 7.001708e+000 7.227324e+000 7.675490e+000 8.237988e+000 8.309917e+000 8.322036e+000 8.434828e+000
<VARIANCE> 16
 3.451856e-001 2.397943e-001 4.695623e-001 9.693739e-001 9.318328e-001 7.547047e-001 3.150938e-001 1.207014e-001 1.564496e-001 2.186539e-001 4.158137e-002 1.580165e-001 4.972244e-001 5.628628e-001 6.345777e-001 5.083205e-001
<GCONST> 1.170065e+001
<STATE> 3
<MEAN> 16
 5.815634e+000 6.535739e+000 7.436783e+000 8.297361e+000 8.280786e+000 8.315629e+000 7.671260e+000 7.195465e+000 7.486500e+000 7.675010e+000 7.647739e+000 8.065994e+000 8.634154e+000 8.233694e+000 8.063313e+000 8.259954e+000
<VARIANCE> 16
 1.996624e-001 5.053599e-001 1.200830e+000 1.345672e+000 8.892221e-001 7.949322e-001 5.878324e-001 1.957881e-001 1.260506e-001 2.601179e-001 2.671341e-001 6.630341e-001 4.098214e-001 2.551582e-001 1.812468e-001 1.986835e-001
<GCONST> 1.435292e+001
<STATE> 4
<MEAN> 16
 6.183071e+000 7.275455e+000 8.499087e+000 9.561327e+000 9.526713e+000 9.590508e+000 8.970901e+000 8.153510e+000 8.043960e+000 8.494535e+000 8.710644e+000 9.356297e+000 9.906924e+000 9.033315e+000 8.330606e+000 8.340395e+000
<VARIANCE> 16
 2.563141e-001 2.505991e-001 4.805840e-001 4.649977e-001 8.755467e-001 5.652307e-001 7.814518e-001 3.934469e-001 1.413697e-001 3.479885e-001 8.916987e-001 1.676496e+000 7.693396e-001 7.649081e-001 4.483527e-001 2.183287e-001
<GCONST> 1.781543e+001
<STATE> 5
<MEAN> 16
 6.408164e+000 7.443748e+000 8.808420e+000 9.934899e+000 1.011150e+001 1.019885e+001 9.564578e+000 8.687493e+000 8.500548e+000 9.004451e+000 9.347236e+000 1.003297e+001 1.055399e+001 9.584910e+000 8.477713e+000 8.407267e+000
<VARIANCE> 16
 2.119943e-001 2.222271e-001 2.335651e-001 4.819426e-001 9.231020e-001 5.370935e-001 9.988264e-001 3.673779e-001 1.532214e-001 4.216427e-001 1.274071e+000 2.469396e+000 1.123345e+000 8.661955e-001 6.270025e-001 1.852780e-001
<GCONST> 1.868911e+001
<STATE> 6
<MEAN> 16
 6.512404e+000 7.651400e+000 9.037401e+000 1.006074e+001 1.027540e+001 1.030388e+001 9.711775e+000 8.833207e+000 8.629547e+000 9.123316e+000 9.581761e+000 1.016906e+001 1.067002e+001 9.725270e+000 8.459627e+000 8.459000e+000
<VARIANCE> 16
 2.248701e-001 2.189397e-001 3.035592e-001 5.042392e-001 9.126520e-001 5.435383e-001 8.172888e-001 3.356447e-001 1.815988e-001 3.715102e-001 1.125101e+000 2.024065e+000 1.221125e+000 8.217703e-001 3.639219e-001 1.630007e-001
<GCONST> 1.782895e+001
<STATE> 7
<MEAN> 16
 6.568636e+000 7.620625e+000 9.164691e+000 1.023051e+001 1.043725e+001 1.052130e+001 1.014507e+001 9.254382e+000 8.827890e+000 9.145577e+000 1.005315e+001 1.081401e+001 1.142718e+001 1.057047e+001 8.878596e+000 8.583616e+000
<VARIANCE> 16
 1.783875e-001 2.127014e-001 5.952686e-001 7.358958e-001 1.087166e+000 8.529622e-001 1.146917e+000 5.617949e-001 3.340121e-001 3.818542e-001 8.683149e-001 1.267792e+000 8.323888e-001 7.103881e-001 5.114343e-001 1.250998e-001
<GCONST> 1.955615e+001
<STATE> 8
<MEAN> 16
 6.215836e+000 6.829859e+000 7.756691e+000 8.353694e+000 8.431662e+000 8.663880e+000 8.682199e+000 8.637110e+000 8.744326e+000 8.902451e+000 9.465752e+000 1.008420e+001 1.074353e+001 1.068668e+001 1.014631e+001 9.932489e+000
<VARIANCE> 16
 6.285216e-001 1.652796e+000 2.705010e+000 2.065197e+000 1.702111e+000 1.854843e+000 1.705891e+000 1.334571e+000 1.185624e+000 1.230774e+000 1.057334e+000 8.152870e-001 6.679564e-001 7.295897e-001 1.247290e+000 1.517795e+000
<GCONST> 3.328569e+001
<STATE> 9
<MEAN> 16
 6.384983e+000 7.803523e+000 8.543345e+000 8.509786e+000 7.761178e+000 8.170121e+000 8.381150e+000 8.288507e+000 8.389593e+000 8.642776e+000 8.804235e+000 9.588758e+000 9.960384e+000 9.143719e+000 8.209224e+000 8.193668e+000
<VARIANCE> 16
 2.151452e-001 2.816377e-001 5.288305e-001 5.203270e-001 2.110227e-001 3.477579e-001 4.803749e-001 5.920887e-001 3.957103e-001 4.513437e-001 5.826747e-001 8.398256e-001 9.015339e-001 4.144357e-001 1.988920e-001 1.394821e-001
<GCONST> 1.443615e+001
<TRANSP> 10
 0.000000e+000 1.000000e+000 0.000000e+000 0.000000e+000 0.000000e+000 0.000000e+000 0.000000e+000 0.000000e+000 0.000000e+000 0.000000e+000
 0.000000e+000 3.299209e-001 6.700791e-001 0.000000e+000 0.000000e+000 0.000000e+000 0.000000e+000 0.000000e+000 0.000000e+000 0.000000e+000
 0.000000e+000 0.000000e+000 2.136949e-001 7.863051e-001 0.000000e+000 0.000000e+000 0.000000e+000 0.000000e+000 0.000000e+000 0.000000e+000
 0.000000e+000 0.000000e+000 0.000000e+000 1.562144e-001 8.437856e-001 0.000000e+000 0.000000e+000 0.000000e+000 0.000000e+000 0.000000e+000
 0.000000e+000 0.000000e+000 0.000000e+000 0.000000e+000 1.173585e-001 8.826414e-001 0.000000e+000 0.000000e+000 0.000000e+000 0.000000e+000
 0.000000e+000 0.000000e+000 0.000000e+000 0.000000e+000 0.000000e+000 4.276966e-001 5.723034e-001 0.000000e+000 0.000000e+000 0.000000e+000
 0.000000e+000 0.000000e+000 0.000000e+000 0.000000e+000 0.000000e+000 0.000000e+000 8.338187e-001 1.661812e-001 0.000000e+000 0.000000e+000
 0.000000e+000 0.000000e+000 0.000000e+000 0.000000e+000 0.000000e+000 0.000000e+000 0.000000e+000 9.477761e-001 5.222390e-002 0.000000e+000
 0.000000e+000 0.000000e+000 0.000000e+000 0.000000e+000 0.000000e+000 0.000000e+000 0.000000e+000 0.000000e+000 9.612890e-001 3.871095e-002
 0.000000e+000 0.000000e+000 0.000000e+000 0.000000e+000 0.000000e+000 0.000000e+000 0.000000e+000 0.000000e+000 0.000000e+000 0.000000e+000
<ENDHMM>
~h "pet"
<BEGINHMM>
<NUMSTATES> 10
<STATE> 2
<MEAN> 16
 5.985549e+000 6.196170e+000 6.558922e+000 6.433595e+000 6.290166e+000 6.395823e+000 6.644716e+000 6.896631e+000 7.331280e+000 7.218398e+000 7.358221e+000 7.547273e+000 7.860757e+000 7.953160e+000 7.897536e+000 8.025874e+000
<VARIANCE> 16
 3.213655e-001 4.078096e-001 6.942871e-001 1.694864e-001 3.975942e-002 7.396374e-002 3.857068e-002 5.453845e-002 2.091399e-001 1.548023e-001 7.487974e-002 6.525464e-002 1.047732e-001 1.090870e-001 2.627978e-002 1.783804e-002
<GCONST> -7.647783e+000
<STATE> 3
<MEAN> 16
 5.924963e+000 6.688673e+000 7.260958e+000 6.902262e+000 6.526839e+000 6.513399e+000 6.911791e+000 7.439522e+000 8.099269e+000 8.065513e+000 7.986313e+000 8.069390e+000 8.455651e+000 8.414371e+000 8.183897e+000 8.201131e+000
<VARIANCE> 16
 2.689033e-001 6.951295e-001 9.214700e-001 3.784698e-001 1.268194e-001 6.097419e-002 9.732637e-002 3.444381e-001 6.013395e-001 6.396336e-001 5.601817e-001 4.988594e-001 3.583826e-001 3.128191e-001 1.032559e-001 6.586816e-002
<GCONST> 9.008434e+000
<STATE> 4
<MEAN> 16
 6.340024e+000 7.521841e+000 8.422135e+000 8.130873e+000 7.202691e+000 6.937698e+000 7.320291e+000 8.156405e+000 9.179143e+000 9.392120e+000 8.987653e+000 9.074400e+000 9.385209e+000 9.038751e+000 8.282043e+000 8.252518e+000
<VARIANCE> 16
 1.892582e-001 2.082236e-001 4.321502e-001 3.660710e-001 1.521174e-001 1.466792e-001 5.981321e-002 2.449904e-001 3.596446e-001 7.857084e-001 1.053047e+000 1.236660e+000 7.218668e-001 4.767283e-001 9.380101e-002 9.554620e-002
<GCONST> 9.521508e+000
<STATE> 5
<MEAN> 16
 6.572184e+000 7.849664e+000 9.148335e+000 9.023769e+000 7.876028e+000 7.527430e+000 7.781624e+000 8.674151e+000 1.000352e+001 1.044306e+001 1.002314e+001 1.000117e+001 1.021961e+001 9.521709e+000 8.301722e+000 8.144972e+000
<VARIANCE> 16
 2.788312e-001 2.269460e-001 3.668393e-001 3.393467e-001 3.043156e-001 2.229844e-001 2.459563e-001 2.410842e-001 3.266729e-001 8.250986e-001 1.441008e+000 1.876373e+000 1.297437e+000 1.011732e+000 7.719715e-002 9.109086e-002
<GCONST> 1.404512e+001
<STATE> 6
<MEAN> 16
 6.558624e+000 7.661822e+000 9.350056e+000 9.347419e+000 8.087457e+000 7.687735e+000 8.029435e+000 8.946576e+000 1.017992e+001 1.079600e+001 1.048924e+001 1.036513e+001 1.062355e+001 9.876927e+000 8.484745e+000 8.279803e+000
<VARIANCE> 16
 1.831065e-001 1.829369e-001 1.853493e-001 2.148538e-001 2.331408e-001 1.353349e-001 1.059346e-001 3.670533e-001 3.042301e-001 6.159983e-001 1.521383e+000 2.326513e+000 1.538800e+000 1.373376e+000 1.514017e-001 6.056490e-002
<GCONST> 1.172905e+001
<STATE> 7
<MEAN> 16
 6.716169e+000 7.779072e+000 9.538369e+000 1.001353e+001 8.801802e+000 8.191096e+000 8.416362e+000 9.577703e+000 1.036428e+001 1.048138e+001 9.990242e+000 1.000528e+001 1.036391e+001 9.775681e+000 8.685058e+000 8.609712e+000
<VARIANCE> 16
 2.000115e-001 1.276095e-001 1.889295e-001 2.453000e-001 2.312528e-001 1.540915e-001 8.253361e-002 3.413112e-001 2.082661e-001 8.269622e-001 1.716740e+000 2.240544e+000 1.121354e+000 9.126917e-001 9.840123e-002 1.139857e-001
<GCONST> 1.088326e+001
<STATE> 8
<MEAN> 16
 6.418369e+000 7.402424e+000 8.933570e+000 1.002027e+001 1.004767e+001 9.155544e+000 9.263939e+000 1.010512e+001 1.100235e+001 1.105228e+001 1.115387e+001 1.115750e+001 1.148593e+001 1.065149e+001 8.798550e+000 8.409005e+000
<VARIANCE> 16
 1.593955e-001 2.288109e-001 5.045571e-001 3.927019e-001 7.107827e-001 6.748363e-001 3.477963e-001 3.222056e-001 4.066594e-001 6.186751e-001 5.229563e-001 6.020772e-001 6.137412e-001 8.691410e-001 2.774015e-001 1.485886e-001
<GCONST> 1.519977e+001
<STATE> 9
<MEAN> 16
 5.884561e+000 6.279752e+000 7.212040e+000 8.111032e+000 8.045418e+000 7.465154e+000 7.454615e+000 8.138258e+000 8.765265e+000 8.688529e+000 8.942140e+000 9.005484e+000 9.143064e+000 8.367661e+000 7.884777e+000 8.006097e+000
<VARIANCE> 16
 1.291067e-001 3.026783e-001 4.713084e-001 3.879790e-001 3.436280e-001 2.619837e-001 1.384617e-001 2.757843e-001 2.946011e-001 2.985152e-001 4.421145e-001 3.180771e-001 2.712884e-001 2.848512e-001 3.470645e-002 3.435946e-002
<GCONST> 5.107032e+000
<TRANSP> 10
 0.000000e+000 1.000000e+000 0.000000e+000 0.000000e+000 0.000000e+000 0.000000e+000 0.000000e+000 0.000000e+000 0.000000e+000 0.000000e+000
 0.000000e+000 3.144048e-001 6.855952e-001 0.000000e+000 0.000000e+000 0.000000e+000 0.000000e+000 0.000000e+000 0.000000e+000 0.000000e+000
 0.000000e+000 0.000000e+000 1.473482e-001 8.526518e-001 0.000000e+000 0.000000e+000 0.000000e+000 0.000000e+000 0.000000e+000 0.000000e+000
 0.000000e+000 0.000000e+000 0.000000e+000 2.466121e-001 7.533879e-001 0.000000e+000 0.000000e+000 0.000000e+000 0.000000e+000 0.000000e+000
 0.000000e+000 0.000000e+000 0.000000e+000 0.000000e+000 1.463492e-001 8.536508e-001 0.000000e+000 0.000000e+000 0.000000e+000 0.000000e+000
 0.000000e+000 0.000000e+000 0.000000e+000 0.000000e+000 0.000000e+000 3.554480e-001 6.445520e-001 0.000000e+000 0.000000e+000 0.000000e+000
 0.000000e+000 0.000000e+000 0.000000e+000 0.000000e+000 0.000000e+000 0.000000e+000 8.165364e-001 1.834636e-001 0.000000e+000 0.000000e+000
 0.000000e+000 0.000000e+000 0.000000e+000 0.000000e+000 0.000000e+000 0.000000e+000 0.000000e+000 9.382970e-001 6.170305e-002 0.000000e+000
 0.000000e+000 0.000000e+000 0.000000e+000 0.000000e+000 0.000000e+000 0.000000e+000 0.000000e+000 0.000000e+000 8.037410e-001 1.962590e-001
 0.000000e+000 0.000000e+000 0.000000e+000 0.000000e+000 0.000000e+000 0.000000e+000 0.000000e+000 0.000000e+000 0.000000e+000 0.000000e+000
<ENDHMM>
~h "sil"
<BEGINHMM>
<NUMSTATES> 5
<STATE> 2
<MEAN> 16
 5.738563e+000 6.030807e+000 6.343845e+000 6.679835e+000 6.792330e+000 6.859511e+000 6.990871e+000 7.242917e+000 7.507776e+000 7.497732e+000 7.671113e+000 7.904024e+000 8.292900e+000 8.117314e+000 7.973258e+000 8.086411e+000
<VARIANCE> 16
 1.627307e-001 3.175919e-001 3.106514e-001 3.379489e-001 3.349841e-001 2.798904e-001 2.560820e-001 2.735647e-001 2.020413e-001 2.165204e-001 2.542205e-001 2.270475e-001 3.146072e-001 2.430363e-001 1.126238e-001 7.031268e-002
<GCONST> 5.772954e+000
<STATE> 3
<MEAN> 16
 5.637598e+000 5.742885e+000 5.911653e+000 6.099832e+000 6.264626e+000 6.441473e+000 6.597381e+000 6.762895e+000 7.114345e+000 7.022818e+000 7.176129e+000 7.354151e+000 7.558472e+000 7.651469e+000 7.814463e+000 8.016571e+000
<VARIANCE> 16
 1.158483e-001 1.029827e-001 8.947913e-002 7.265076e-002 6.447177e-002 5.700815e-002 4.971413e-002 4.279978e-002 3.175097e-002 3.188762e-002 2.846534e-002 2.748922e-002 3.531872e-002 2.500257e-002 1.869613e-002 3.469354e-002
<GCONST> -2.023841e+001
<STATE> 4
<MEAN> 16
 5.330424e+000 5.751550e+000 5.915417e+000 6.013070e+000 6.051931e+000 6.228464e+000 6.393610e+000 6.518607e+000 6.795135e+000 6.848208e+000 7.016865e+000 7.227664e+000 7.504650e+000 7.599109e+000 7.648775e+000 7.769970e+000
<VARIANCE> 16
 4.600490e-001 2.982435e-001 2.069125e-001 1.411981e-001 1.710375e-001 1.630205e-001 1.678343e-001 2.740030e-001 4.219404e-001 3.528187e-001 3.626514e-001 3.766881e-001 4.469502e-001 4.031124e-001 2.288576e-001 2.351458e-001
<GCONST> 8.696171e+000
<TRANSP> 5
 0.000000e+000 1.000000e+000 0.000000e+000 0.000000e+000 0.000000e+000
 0.000000e+000 8.344373e-001 1.655627e-001 0.000000e+000 0.000000e+000
 0.000000e+000 0.000000e+000 9.846899e-001 1.531016e-002 0.000000e+000
 0.000000e+000 0.000000e+000 0.000000e+000 6.326832e-001 3.673168e-001
 0.000000e+000 0.000000e+000 0.000000e+000 0.000000e+000 0.000000e+000
<ENDHMM>
~h "tri"
<BEGINHMM>
<NUMSTATES> 10
<STATE> 2
<MEAN> 16
 5.819280e+000 5.951436e+000 6.239584e+000 6.406685e+000 6.497891e+000 6.701628e+000 6.987367e+000 7.412134e+000 7.774499e+000 7.829742e+000 7.996880e+000 8.596560e+000 9.041506e+000 8.986028e+000 8.478535e+000 8.286718e+000
<VARIANCE> 16
 1.359202e-001 1.540646e-001 2.231018e-001 1.256593e-001 7.133017e-002 9.258155e-002 1.828172e-001 2.561490e-001 2.752668e-001 2.748750e-001 3.170055e-001 4.475226e-001 5.500987e-001 6.128755e-001 3.531645e-001 2.419737e-001
<GCONST> 5.802973e+000
<STATE> 3
<MEAN> 16
 5.601273e+000 5.938018e+000 6.353321e+000 6.567913e+000 6.750566e+000 6.992783e+000 7.345218e+000 7.944839e+000 8.307827e+000 8.508103e+000 8.778571e+000 9.595964e+000 1.002113e+001 9.896922e+000 9.142282e+000 8.877429e+000
<VARIANCE> 16
 1.575360e-001 1.139979e-001 1.538990e-001 1.658549e-001 1.714182e-001 2.173324e-001 3.153027e-001 2.519516e-001 2.366287e-001 1.935864e-001 3.023708e-001 2.753474e-001 2.805487e-001 3.718749e-001 2.912446e-001 2.617503e-001
<GCONST> 5.492258e+000
<STATE> 4
<MEAN> 16
 5.810061e+000 5.823994e+000 6.436404e+000 6.734190e+000 6.896633e+000 7.127912e+000 7.488139e+000 7.962064e+000 8.584751e+000 8.716293e+000 9.048243e+000 9.937858e+000 1.060767e+001 1.067627e+001 9.715343e+000 9.157363e+000
<VARIANCE> 16
 1.461586e-001 1.308965e-001 1.691711e-001 4.085450e-001 3.503793e-001 4.356188e-001 3.674279e-001 2.411735e-001 3.528953e-001 3.083245e-001 2.669007e-001 2.033022e-001 2.905608e-001 3.834938e-001 3.308141e-001 2.966552e-001
<GCONST> 8.826544e+000
<STATE> 5
<MEAN> 16
 5.866904e+000 5.879659e+000 6.289945e+000 6.664943e+000 6.840850e+000 7.112163e+000 7.332627e+000 7.886883e+000 8.634783e+000 8.761443e+000 9.325454e+000 1.046441e+001 1.124288e+001 1.138708e+001 1.028852e+001 9.431672e+000
<VARIANCE> 16
 1.705887e-001 6.878950e-002 1.299986e-001 3.208309e-001 2.879266e-001 3.818814e-001 2.217060e-001 2.608426e-001 3.704051e-001 3.785702e-001 3.282089e-001 3.783599e-001 3.746512e-001 3.847970e-001 4.283696e-001 2.874073e-001
<GCONST> 8.643871e+000
<STATE> 6
<MEAN> 16
 5.748117e+000 5.854941e+000 6.129507e+000 6.434390e+000 6.554712e+000 6.709695e+000 6.995707e+000 7.817908e+000 8.460818e+000 8.828108e+000 9.818624e+000 1.094230e+001 1.171962e+001 1.185688e+001 1.112169e+001 1.029124e+001
<VARIANCE> 16
 1.529477e-001 1.129836e-001 1.139737e-001 1.192941e-001 1.019348e-001 1.064055e-001 9.606878e-002 3.057224e-001 2.513099e-001 2.014146e-001 4.048411e-001 5.599517e-001 4.308701e-001 2.952567e-001 3.904191e-001 4.236383e-001
<GCONST> 4.669333e+000
<STATE> 7
<MEAN> 16
 6.036640e+000 6.289629e+000 6.592460e+000 6.793118e+000 6.820226e+000 7.042811e+000 7.347676e+000 8.421996e+000 9.548378e+000 9.647604e+000 1.049182e+001 1.130757e+001 1.189087e+001 1.191023e+001 1.115668e+001 9.867453e+000
<VARIANCE> 16
 2.224371e-001 2.842908e-001 4.317200e-001 2.438180e-001 1.136244e-001 1.478349e-001 8.675297e-002 2.386715e-001 3.330345e-001 3.118521e-001 8.189025e-001 9.276107e-001 8.994763e-001 9.033761e-001 6.750754e-001 3.170192e-001
<GCONST> 1.214103e+001
<STATE> 8
<MEAN> 16
 6.397704e+000 7.882338e+000 9.268566e+000 9.387397e+000 8.240151e+000 7.880109e+000 8.126370e+000 8.883494e+000 1.024793e+001 1.099180e+001 1.072434e+001 1.070222e+001 1.106623e+001 1.042543e+001 8.979423e+000 8.535557e+000
<VARIANCE> 16
 1.719620e-001 2.741318e-001 6.025002e-001 7.055470e-001 8.138456e-001 7.066290e-001 4.302447e-001 3.635014e-001 5.893705e-001 5.546739e-001 1.478593e+000 1.584134e+000 1.433922e+000 1.284708e+000 3.097733e-001 1.185851e-001
<GCONST> 2.012731e+001
<STATE> 9
<MEAN> 16
 6.020830e+000 6.892608e+000 7.652822e+000 7.678069e+000 7.261504e+000 7.116338e+000 7.008370e+000 7.241911e+000 8.249808e+000 9.134078e+000 9.148276e+000 9.156444e+000 9.622708e+000 9.049401e+000 8.094833e+000 8.076873e+000
<VARIANCE> 16
 1.867526e-001 4.610924e-001 3.943040e-001 4.832868e-001 3.590458e-001 3.616561e-001 1.225426e-001 1.233439e-001 4.288950e-001 3.411953e-001 4.560311e-001 2.943905e-001 4.023648e-001 3.815818e-001 1.096894e-001 5.508261e-002
<GCONST> 8.149949e+000
<TRANSP> 10
 0.000000e+000 1.000000e+000 0.000000e+000 0.000000e+000 0.000000e+000 0.000000e+000 0.000000e+000 0.000000e+000 0.000000e+000 0.000000e+000
 0.000000e+000 4.831237e-001 5.168763e-001 0.000000e+000 0.000000e+000 0.000000e+000 0.000000e+000 0.000000e+000 0.000000e+000 0.000000e+000
 0.000000e+000 0.000000e+000 3.442744e-001 6.557257e-001 0.000000e+000 0.000000e+000 0.000000e+000 0.000000e+000 0.000000e+000 0.000000e+000
 0.000000e+000 0.000000e+000 0.000000e+000 2.870264e-001 7.129736e-001 0.000000e+000 0.000000e+000 0.000000e+000 0.000000e+000 0.000000e+000
 0.000000e+000 0.000000e+000 0.000000e+000 0.000000e+000 4.010824e-001 5.989176e-001 0.000000e+000 0.000000e+000 0.000000e+000 0.000000e+000
 0.000000e+000 0.000000e+000 0.000000e+000 0.000000e+000 0.000000e+000 8.217615e-001 1.782385e-001 0.000000e+000 0.000000e+000 0.000000e+000
 0.000000e+000 0.000000e+000 0.000000e+000 0.000000e+000 0.000000e+000 0.000000e+000 6.962789e-001 3.037211e-001 0.000000e+000 0.000000e+000
 0.000000e+000 0.000000e+000 0.000000e+000 0.000000e+000 0.000000e+000 0.000000e+000 0.000000e+000 9.535763e-001 4.642371e-002 0.000000e+000
 0.000000e+000 0.000000e+000 0.000000e+000 0.000000e+000 0.000000e+000 0.000000e+000 0.000000e+000 0.000000e+000 8.127267e-001 1.872734e-001
 0.000000e+000 0.000000e+000 0.000000e+000 0.000000e+000 0.000000e+000 0.000000e+000 0.000000e+000 0.000000e+000 0.000000e+000 0.000000e+000
<ENDHMM>
~h "nula"
<BEGINHMM>
<NUMSTATES> 10
<STATE> 2
<MEAN> 16
 6.296962e+000 7.276235e+000 7.373019e+000 7.364132e+000 6.832431e+000 6.937872e+000 6.977331e+000 7.175619e+000 7.476521e+000 7.501752e+000 7.572233e+000 7.715152e+000 8.332197e+000 8.291114e+000 7.962643e+000 8.087605e+000
<VARIANCE> 16
 3.117412e-001 3.525729e-001 4.683919e-001 4.701075e-001 3.729381e-001 3.631853e-001 1.610565e-001 1.684995e-001 1.557588e-001 2.558745e-001 1.799946e-001 2.035702e-001 3.848858e-001 2.396888e-001 4.792522e-002 4.242645e-002
<GCONST> 4.968297e+000
<STATE> 3
<MEAN> 16
 6.486619e+000 7.885447e+000 8.221294e+000 8.223125e+000 7.595094e+000 7.516289e+000 7.180284e+000 7.456192e+000 7.760377e+000 7.982886e+000 7.928977e+000 7.892875e+000 8.495541e+000 8.381589e+000 7.946799e+000 8.076956e+000
<VARIANCE> 16
 3.674808e-001 3.505900e-001 3.771987e-001 3.556002e-001 4.290267e-001 5.547179e-001 1.556076e-001 2.905007e-001 2.156490e-001 6.047274e-001 5.337804e-001 2.841311e-001 4.823936e-001 1.712224e-001 2.436386e-002 3.888391e-002
<GCONST> 7.436993e+000
<STATE> 4
<MEAN> 16
 6.640358e+000 8.048040e+000 8.481181e+000 8.411413e+000 7.693610e+000 7.507947e+000 7.314487e+000 7.681965e+000 7.928747e+000 8.213746e+000 8.219559e+000 8.165393e+000 8.631602e+000 8.393614e+000 7.954855e+000 8.029472e+000
<VARIANCE> 16
 3.254762e-001 3.412865e-001 4.939125e-001 3.056641e-001 3.714964e-001 6.203152e-001 2.379888e-001 3.069518e-001 2.864380e-001 6.404709e-001 5.527619e-001 3.416436e-001 5.942885e-001 2.228628e-001 3.991202e-002 3.720392e-002
<GCONST> 9.336923e+000
<STATE> 5
<MEAN> 16
 6.757230e+000 8.231922e+000 8.735895e+000 8.706873e+000 8.026931e+000 7.954087e+000 7.704717e+000 7.994087e+000 8.154169e+000 8.495312e+000 8.364462e+000 8.198164e+000 8.579459e+000 8.394193e+000 8.113751e+000 8.135252e+000
<VARIANCE> 16
 4.295199e-001 3.080786e-001 5.013278e-001 3.848959e-001 3.571211e-001 6.558524e-001 3.311446e-001 3.274029e-001 2.950045e-001 5.692196e-001 7.675978e-001 4.309827e-001 5.047147e-001 1.688963e-001 9.185141e-002 5.121045e-002
<GCONST> 1.135295e+001
<STATE> 6
<MEAN> 16
 6.564293e+000 8.113465e+000 9.015236e+000 9.176414e+000 8.458054e+000 8.537786e+000 8.196837e+000 8.323127e+000 8.479259e+000 8.689878e+000 8.682079e+000 8.595054e+000 8.632466e+000 8.295552e+000 8.039333e+000 8.154668e+000
<VARIANCE> 16
 4.121863e-001 3.667718e-001 5.344496e-001 3.604217e-001 2.713736e-001 4.539431e-001 3.432512e-001 4.395142e-001 2.553912e-001 2.551800e-001 6.413010e-001 7.275575e-001 7.041436e-001 2.548460e-001 1.743834e-001 2.027911e-001
<GCONST> 1.333131e+001
<STATE> 7
<MEAN> 16
 6.394623e+000 7.939307e+000 8.837217e+000 9.800364e+000 9.128633e+000 9.213981e+000 9.022060e+000 8.577346e+000 8.542050e+000 8.872756e+000 9.195770e+000 9.469994e+000 9.325378e+000 8.620085e+000 8.174251e+000 8.232608e+000
<VARIANCE> 16
 3.517238e-001 2.988694e-001 9.608359e-001 4.258763e-001 5.374317e-001 6.926242e-001 5.224344e-001 3.656171e-001 2.588531e-001 2.840436e-001 8.746619e-001 1.066411e+000 8.151659e-001 3.077110e-001 3.048598e-001 2.945457e-001
<GCONST> 1.714325e+001
<STATE> 8
<MEAN> 16
 6.712351e+000 7.846688e+000 9.138440e+000 1.017214e+001 1.049833e+001 1.061454e+001 1.075102e+001 1.008077e+001 9.515921e+000 9.943753e+000 1.036410e+001 1.057312e+001 1.105582e+001 1.021149e+001 8.828060e+000 8.534116e+000
<VARIANCE> 16
 3.289565e-001 5.305879e-001 1.004045e+000 3.538315e-001 5.923605e-001 5.409291e-001 9.140368e-001 1.215975e+000 3.894491e-001 5.528415e-001 1.478513e+000 1.246897e+000 1.632688e+000 1.300064e+000 8.142008e-001 5.196872e-001
<GCONST> 2.456165e+001
<STATE> 9
<MEAN> 16
 6.053554e+000 6.798295e+000 7.167573e+000 8.318199e+000 9.008286e+000 9.206762e+000 9.239700e+000 8.702519e+000 8.115620e+000 8.398304e+000 8.618127e+000 8.839761e+000 9.297884e+000 8.763905e+000 8.033414e+000 8.018207e+000
<VARIANCE> 16
 2.599899e-001 6.489264e-001 4.633287e-001 5.829445e-001 4.202060e-001 3.143808e-001 4.279844e-001 7.150043e-001 3.277223e-001 4.136212e-001 6.937050e-001 5.637817e-001 3.997753e-001 2.878561e-001 1.118791e-001 6.975333e-002
<GCONST> 1.315674e+001
<TRANSP> 10
 0.000000e+000 1.000000e+000 0.000000e+000 0.000000e+000 0.000000e+000 0.000000e+000 0.000000e+000 0.000000e+000 0.000000e+000 0.000000e+000
 0.000000e+000 5.501357e-001 4.498643e-001 0.000000e+000 0.000000e+000 0.000000e+000 0.000000e+000 0.000000e+000 0.000000e+000 0.000000e+000
 0.000000e+000 0.000000e+000 3.831607e-001 6.168393e-001 0.000000e+000 0.000000e+000 0.000000e+000 0.000000e+000 0.000000e+000 0.000000e+000
 0.000000e+000 0.000000e+000 0.000000e+000 3.790125e-001 6.209875e-001 0.000000e+000 0.000000e+000 0.000000e+000 0.000000e+000 0.000000e+000
 0.000000e+000 0.000000e+000 0.000000e+000 0.000000e+000 4.408707e-001 5.591292e-001 0.000000e+000 0.000000e+000 0.000000e+000 0.000000e+000
 0.000000e+000 0.000000e+000 0.000000e+000 0.000000e+000 0.000000e+000 5.970584e-001 4.029416e-001 0.000000e+000 0.000000e+000 0.000000e+000
 0.000000e+000 0.000000e+000 0.000000e+000 0.000000e+000 0.000000e+000 0.000000e+000 8.341267e-001 1.658733e-001 0.000000e+000 0.000000e+000
 0.000000e+000 0.000000e+000 0.000000e+000 0.000000e+000 0.000000e+000 0.000000e+000 0.000000e+000 9.585953e-001 4.140472e-002 0.000000e+000
 0.000000e+000 0.000000e+000 0.000000e+000 0.000000e+000 0.000000e+000 0.000000e+000 0.000000e+000 0.000000e+000 8.630970e-001 1.369030e-001
 0.000000e+000 0.000000e+000 0.000000e+000 0.000000e+000 0.000000e+000 0.000000e+000 0.000000e+000 0.000000e+000 0.000000e+000 0.000000e+000
<ENDHMM>
~h "devet"
<BEGINHMM>
<NUMSTATES> 10
<STATE> 2
<MEAN> 16
 6.321197e+000 6.755185e+000 7.051830e+000 6.841831e+000 6.486511e+000 6.608782e+000 6.709556e+000 6.809980e+000 7.192426e+000 7.150589e+000 7.294478e+000 7.524990e+000 7.801357e+000 7.857409e+000 7.842052e+000 7.986846e+000
<VARIANCE> 16
 2.521809e-001 1.581948e-001 2.735341e-001 2.541124e-001 8.281431e-002 8.251049e-002 9.005783e-002 8.012373e-002 7.185240e-002 5.050067e-002 5.133517e-002 6.714436e-002 1.995877e-001 1.139242e-001 2.314465e-002 1.935924e-002
<GCONST> -9.182783e+000
<STATE> 3
<MEAN> 16
 6.355339e+000 7.188555e+000 7.322828e+000 7.234332e+000 6.912806e+000 6.738620e+000 6.926350e+000 7.213262e+000 7.710879e+000 7.615073e+000 7.766726e+000 7.880254e+000 8.214969e+000 8.129462e+000 7.891991e+000 8.004306e+000
<VARIANCE> 16
 2.776626e-001 5.628843e-001 3.509646e-001 3.765874e-001 2.110175e-001 2.197469e-001 1.536056e-001 2.981995e-001 3.503125e-001 2.309987e-001 2.430548e-001 3.114764e-001 3.184480e-001 1.918814e-001 3.302729e-002 6.129628e-002
<GCONST> 5.279071e+000
<STATE> 4
<MEAN> 16
 6.364751e+000 7.342985e+000 7.705723e+000 7.671595e+000 7.034504e+000 6.894573e+000 7.082146e+000 7.848911e+000 8.397305e+000 8.268505e+000 8.451875e+000 8.559691e+000 8.877977e+000 8.708593e+000 8.116107e+000 8.085729e+000
<VARIANCE> 16
 3.948020e-001 5.780613e-001 4.092029e-001 3.815334e-001 1.478084e-001 1.040426e-001 1.335112e-001 4.307919e-001 3.720756e-001 1.940779e-001 4.101303e-001 4.993971e-001 4.420872e-001 2.787207e-001 5.768527e-002 5.342970e-002
<GCONST> 6.951271e+000
<STATE> 5
<MEAN> 16
 6.387949e+000 7.506725e+000 8.594471e+000 8.656185e+000 7.714595e+000 7.433052e+000 7.895000e+000 8.983789e+000 9.611342e+000 9.498026e+000 9.534443e+000 9.682401e+000 9.985323e+000 9.493358e+000 8.596953e+000 8.325072e+000
<VARIANCE> 16
 2.577338e-001 2.245729e-001 5.235233e-001 4.943333e-001 1.395075e-001 8.168577e-002 9.566072e-002 4.207698e-001 3.520710e-001 3.676333e-001 1.040821e+000 1.232732e+000 9.093257e-001 8.184232e-001 3.795402e-001 1.220727e-001
<GCONST> 1.235509e+001
<STATE> 6
<MEAN> 16
 6.560937e+000 7.701886e+000 9.275174e+000 9.544086e+000 8.605863e+000 8.064415e+000 8.424491e+000 9.562477e+000 1.045020e+001 1.036648e+001 1.034739e+001 1.042551e+001 1.065415e+001 9.842276e+000 8.793853e+000 8.465315e+000
<VARIANCE> 16
 2.058586e-001 2.084236e-001 2.796346e-001 1.734997e-001 1.237642e-001 2.303922e-001 8.092257e-002 4.005404e-001 2.011223e-001 2.175723e-001 1.286648e+000 1.485420e+000 1.056984e+000 1.153629e+000 3.106124e-001 1.746639e-001
<GCONST> 1.104778e+001
<STATE> 7
<MEAN> 16
 6.560292e+000 7.679873e+000 9.463058e+000 1.006121e+001 9.121487e+000 8.543912e+000 8.772689e+000 1.033251e+001 1.089951e+001 1.084048e+001 1.069758e+001 1.113435e+001 1.086834e+001 9.453067e+000 8.772986e+000 8.540984e+000
<VARIANCE> 16
 1.439482e-001 1.404304e-001 2.083597e-001 2.008031e-001 1.721541e-001 1.375479e-001 6.829093e-002 4.204699e-001 2.137446e-001 2.481183e-001 1.047065e+000 1.404180e+000 6.355951e-001 8.029952e-001 1.596583e-001 1.607338e-001
<GCONST> 8.150556e+000
<STATE> 8
<MEAN> 16
 6.565880e+000 7.835233e+000 9.272706e+000 9.298979e+000 8.342936e+000 7.865679e+000 8.380719e+000 9.667179e+000 1.008421e+001 9.866311e+000 8.930621e+000 8.975266e+000 9.771713e+000 9.786389e+000 8.583918e+000 8.677640e+000
<VARIANCE> 16
 2.305417e-001 2.489026e-001 2.121646e-001 5.587360e-001 1.355386e+000 6.555377e-001 4.495851e-001 2.130494e-001 4.395760e-001 6.909893e-001 2.078459e+000 2.061963e+000 1.460368e+000 8.118961e-001 1.187121e-001 1.312023e-001
<GCONST> 1.822361e+001
<STATE> 9
<MEAN> 16
 6.413267e+000 7.476265e+000 8.895943e+000 9.602853e+000 9.365857e+000 8.560884e+000 8.802567e+000 9.585552e+000 1.059761e+001 1.079870e+001 1.101336e+001 1.113615e+001 1.136806e+001 1.048809e+001 8.660444e+000 8.309634e+000
<VARIANCE> 16
 1.789496e-001 2.869197e-001 6.062652e-001 7.009180e-001 1.147614e+000 6.400306e-001 4.514074e-001 4.600132e-001 6.763178e-001 7.540300e-001 8.394340e-001 7.590427e-001 8.273217e-001 1.339599e+000 3.388352e-001 8.667858e-002
<GCONST> 1.915146e+001
<TRANSP> 10
 0.000000e+000 1.000000e+000 0.000000e+000 0.000000e+000 0.000000e+000 0.000000e+000 0.000000e+000 0.000000e+000 0.000000e+000 0.000000e+000
 0.000000e+000 6.739859e-001 3.260141e-001 0.000000e+000 0.000000e+000 0.000000e+000 0.000000e+000 0.000000e+000 0.000000e+000 0.000000e+000
 0.000000e+000 0.000000e+000 2.519595e-001 7.480405e-001 0.000000e+000 0.000000e+000 0.000000e+000 0.000000e+000 0.000000e+000 0.000000e+000
 0.000000e+000 0.000000e+000 0.000000e+000 1.307598e-001 8.692402e-001 0.000000e+000 0.000000e+000 0.000000e+000 0.000000e+000 0.000000e+000
 0.000000e+000 0.000000e+000 0.000000e+000 0.000000e+000 2.867043e-002 9.713296e-001 0.000000e+000 0.000000e+000 0.000000e+000 0.000000e+000
 0.000000e+000 0.000000e+000 0.000000e+000 0.000000e+000 0.000000e+000 3.464800e-002 9.653520e-001 0.000000e+000 0.000000e+000 0.000000e+000
 0.000000e+000 0.000000e+000 0.000000e+000 0.000000e+000 0.000000e+000 0.000000e+000 6.408272e-001 3.591729e-001 0.000000e+000 0.000000e+000
 0.000000e+000 0.000000e+000 0.000000e+000 0.000000e+000 0.000000e+000 0.000000e+000 0.000000e+000 8.617687e-001 1.382312e-001 0.000000e+000
 0.000000e+000 0.000000e+000 0.000000e+000 0.000000e+000 0.000000e+000 0.000000e+000 0.000000e+000 0.000000e+000 9.678087e-001 3.219138e-002
 0.000000e+000 0.000000e+000 0.000000e+000 0.000000e+000 0.000000e+000 0.000000e+000 0.000000e+000 0.000000e+000 0.000000e+000 0.000000e+000
<ENDHMM>
~h "jedna"
<BEGINHMM>
<NUMSTATES> 10
<STATE> 2
<MEAN> 16
 6.155250e+000 7.092310e+000 7.277228e+000 7.085293e+000 6.660206e+000 6.624690e+000 6.690334e+000 6.937908e+000 7.661205e+000 8.096245e+000 8.116722e+000 8.402403e+000 8.772782e+000 8.445960e+000 7.971741e+000 8.079616e+000
<VARIANCE> 16
 1.943963e-001 3.683495e-001 4.127673e-001 2.685266e-001 1.490988e-001 1.039649e-001 4.711912e-002 6.311953e-002 2.866829e-001 3.571529e-001 3.477324e-001 6.110930e-001 6.280474e-001 3.156412e-001 1.029081e-001 6.523257e-002
<GCONST> 4.135325e+000
<STATE> 3
<MEAN> 16
 6.409530e+000 7.610603e+000 8.141852e+000 7.771983e+000 7.081456e+000 6.772692e+000 6.808376e+000 7.156960e+000 8.068910e+000 9.025509e+000 9.151728e+000 9.386738e+000 9.597565e+000 8.955070e+000 8.147790e+000 8.130164e+000
<VARIANCE> 16
 1.598637e-001 1.792792e-001 2.538963e-001 1.889670e-001 1.638807e-001 2.063350e-001 7.067309e-002 1.887505e-001 5.064263e-001 4.124023e-001 5.116011e-001 1.200753e+000 1.100726e+000 4.792362e-001 1.142272e-001 9.346671e-002
<GCONST> 7.880186e+000
<STATE> 4
<MEAN> 16
 6.416223e+000 7.496243e+000 8.193432e+000 7.876335e+000 7.089799e+000 6.865230e+000 7.138623e+000 7.947867e+000 8.515808e+000 8.667450e+000 8.478292e+000 8.468071e+000 8.969855e+000 8.611714e+000 8.386335e+000 8.459412e+000
<VARIANCE> 16
 1.029590e-001 3.065093e-001 9.932253e-001 8.146892e-001 3.356222e-001 1.468039e-001 2.090831e-001 7.666021e-001 1.115986e+000 1.036906e+000 1.049421e+000 1.435596e+000 1.158673e+000 5.788410e-001 2.021921e-001 1.238624e-001
<GCONST> 1.736634e+001
<STATE> 5
<MEAN> 16
 6.340376e+000 7.619251e+000 8.601305e+000 8.521906e+000 7.691955e+000 7.216387e+000 7.474692e+000 8.147902e+000 8.578921e+000 9.396186e+000 9.401683e+000 9.871553e+000 9.989756e+000 9.181336e+000 8.365548e+000 8.183330e+000
<VARIANCE> 16
 1.492673e-001 2.571123e-001 6.246734e-001 6.845391e-001 4.410304e-001 2.232103e-001 2.156940e-001 6.717620e-001 6.772704e-001 1.022910e+000 1.578916e+000 1.685407e+000 1.695858e+000 1.167143e+000 3.107684e-001 5.107354e-002
<GCONST> 1.819747e+001
<STATE> 6
<MEAN> 16
 6.407484e+000 7.472036e+000 8.277929e+000 8.227973e+000 7.709680e+000 7.337833e+000 7.479448e+000 8.103336e+000 8.811174e+000 9.538019e+000 9.909122e+000 1.006520e+001 1.027594e+001 9.517566e+000 8.273006e+000 8.115658e+000
<VARIANCE> 16
 1.821096e-001 3.934155e-001 8.582348e-001 6.140438e-001 3.221512e-001 2.182185e-001 4.256172e-001 6.089309e-001 1.062292e+000 1.455266e+000 1.692530e+000 1.951026e+000 1.827455e+000 1.337683e+000 3.485781e-001 6.599144e-002
<GCONST> 2.087611e+001
<STATE> 7
<MEAN> 16
 6.452567e+000 7.715323e+000 8.792623e+000 8.921253e+000 8.230268e+000 7.846566e+000 7.924218e+000 8.668095e+000 9.326857e+000 9.791373e+000 9.900717e+000 1.012121e+001 1.035289e+001 9.306735e+000 8.204063e+000 8.179639e+000
<VARIANCE> 16
 1.529657e-001 3.488967e-001 8.078755e-001 8.836082e-001 8.456673e-001 5.779163e-001 7.173909e-001 8.745958e-001 1.182085e+000 1.534593e+000 1.549810e+000 1.652860e+000 1.579669e+000 1.651850e+000 2.990705e-001 1.029015e-001
<GCONST> 2.397058e+001
<STATE> 8
<MEAN> 16
 6.631658e+000 7.738075e+000 8.704270e+000 9.388133e+000 9.731515e+000 9.644846e+000 9.936164e+000 1.037678e+001 1.018709e+001 1.014980e+001 1.028691e+001 1.045211e+001 1.100263e+001 1.027942e+001 8.531339e+000 8.283656e+000
<VARIANCE> 16
 1.218818e-001 2.651452e-001 4.386356e-001 5.176545e-001 8.472571e-001 1.342651e+000 1.623915e+000 1.668225e+000 5.058451e-001 5.741903e-001 1.351876e+000 1.243028e+000 1.145928e+000 9.371638e-001 3.508819e-001 1.091878e-001
<GCONST> 2.170886e+001
<STATE> 9
<MEAN> 16
 6.240000e+000 7.091967e+000 7.541168e+000 8.357569e+000 9.196954e+000 9.203211e+000 9.419665e+000 9.138584e+000 8.624880e+000 8.643075e+000 8.845211e+000 9.203796e+000 9.498257e+000 8.871776e+000 8.001343e+000 8.106398e+000
<VARIANCE> 16
 1.591368e-001 3.422968e-001 4.627418e-001 6.789640e-001 8.093143e-001 3.924396e-001 4.272161e-001 4.440573e-001 2.750183e-001 3.407272e-001 7.832406e-001 8.511276e-001 4.733658e-001 2.015636e-001 3.462600e-002 4.070254e-002
<GCONST> 1.084173e+001
<TRANSP> 10
 0.000000e+000 1.000000e+000 0.000000e+000 0.000000e+000 0.000000e+000 0.000000e+000 0.000000e+000 0.000000e+000 0.000000e+000 0.000000e+000
 0.000000e+000 5.200657e-001 4.799343e-001 0.000000e+000 0.000000e+000 0.000000e+000 0.000000e+000 0.000000e+000 0.000000e+000 0.000000e+000
 0.000000e+000 0.000000e+000 3.619598e-001 6.380402e-001 0.000000e+000 0.000000e+000 0.000000e+000 0.000000e+000 0.000000e+000 0.000000e+000
 0.000000e+000 0.000000e+000 0.000000e+000 7.777351e-001 2.222649e-001 0.000000e+000 0.000000e+000 0.000000e+000 0.000000e+000 0.000000e+000
 0.000000e+000 0.000000e+000 0.000000e+000 0.000000e+000 5.957868e-001 4.042132e-001 0.000000e+000 0.000000e+000 0.000000e+000 0.000000e+000
 0.000000e+000 0.000000e+000 0.000000e+000 0.000000e+000 0.000000e+000 7.344865e-001 2.655135e-001 0.000000e+000 0.000000e+000 0.000000e+000
 0.000000e+000 0.000000e+000 0.000000e+000 0.000000e+000 0.000000e+000 0.000000e+000 8.885166e-001 1.114834e-001 0.000000e+000 0.000000e+000
 0.000000e+000 0.000000e+000 0.000000e+000 0.000000e+000 0.000000e+000 0.000000e+000 0.000000e+000 9.560392e-001 4.396075e-002 0.000000e+000
 0.000000e+000 0.000000e+000 0.000000e+000 0.000000e+000 0.000000e+000 0.000000e+000 0.000000e+000 0.000000e+000 8.913428e-001 1.086572e-001
 0.000000e+000 0.000000e+000 0.000000e+000 0.000000e+000 0.000000e+000 0.000000e+000 0.000000e+000 0.000000e+000 0.000000e+000 0.000000e+000
<ENDHMM>
